FANN_FLO_2.1
num_layers=3
learning_rate=0.700000
connection_rate=1.000000
network_type=1
learning_momentum=0.000000
training_algorithm=2
train_error_function=1
train_stop_function=0
cascade_output_change_fraction=0.010000
quickprop_decay=-0.000100
quickprop_mu=1.750000
rprop_increase_factor=1.200000
rprop_decrease_factor=0.500000
rprop_delta_min=0.000000
rprop_delta_max=50.000000
rprop_delta_zero=0.100000
cascade_output_stagnation_epochs=12
cascade_candidate_change_fraction=0.010000
cascade_candidate_stagnation_epochs=12
cascade_max_out_epochs=150
cascade_max_cand_epochs=150
cascade_num_candidate_groups=2
bit_fail_limit=3.49999999999999977796e-01
cascade_candidate_limit=1.00000000000000000000e+03
cascade_weight_multiplier=4.00000000000000022204e-01
cascade_activation_functions_count=10
cascade_activation_functions=3 5 7 8 10 11 14 15 16 17 
cascade_activation_steepnesses_count=4
cascade_activation_steepnesses=2.50000000000000000000e-01 5.00000000000000000000e-01 7.50000000000000000000e-01 1.00000000000000000000e+00 
layer_sizes=301 1 2 
scale_included=0
neurons (num_inputs, activation_function, activation_steepness)=(0, 0, 0.00000000000000000000e+00) (0, 0, 0.00000000000000000000e+00) (0, 0, 0.00000000000000000000e+00) (0, 0, 0.00000000000000000000e+00) (0, 0, 0.00000000000000000000e+00) (0, 0, 0.00000000000000000000e+00) (0, 0, 0.00000000000000000000e+00) (0, 0, 0.00000000000000000000e+00) (0, 0, 0.00000000000000000000e+00) (0, 0, 0.00000000000000000000e+00) (0, 0, 0.00000000000000000000e+00) (0, 0, 0.00000000000000000000e+00) (0, 0, 0.00000000000000000000e+00) (0, 0, 0.00000000000000000000e+00) (0, 0, 0.00000000000000000000e+00) (0, 0, 0.00000000000000000000e+00) (0, 0, 0.00000000000000000000e+00) (0, 0, 0.00000000000000000000e+00) (0, 0, 0.00000000000000000000e+00) (0, 0, 0.00000000000000000000e+00) (0, 0, 0.00000000000000000000e+00) (0, 0, 0.00000000000000000000e+00) (0, 0, 0.00000000000000000000e+00) (0, 0, 0.00000000000000000000e+00) (0, 0, 0.00000000000000000000e+00) (0, 0, 0.00000000000000000000e+00) (0, 0, 0.00000000000000000000e+00) (0, 0, 0.00000000000000000000e+00) (0, 0, 0.00000000000000000000e+00) (0, 0, 0.00000000000000000000e+00) (0, 0, 0.00000000000000000000e+00) (0, 0, 0.00000000000000000000e+00) (0, 0, 0.00000000000000000000e+00) (0, 0, 0.00000000000000000000e+00) (0, 0, 0.00000000000000000000e+00) (0, 0, 0.00000000000000000000e+00) (0, 0, 0.00000000000000000000e+00) (0, 0, 0.00000000000000000000e+00) (0, 0, 0.00000000000000000000e+00) (0, 0, 0.00000000000000000000e+00) (0, 0, 0.00000000000000000000e+00) (0, 0, 0.00000000000000000000e+00) (0, 0, 0.00000000000000000000e+00) (0, 0, 0.00000000000000000000e+00) (0, 0, 0.00000000000000000000e+00) (0, 0, 0.00000000000000000000e+00) (0, 0, 0.00000000000000000000e+00) (0, 0, 0.00000000000000000000e+00) (0, 0, 0.00000000000000000000e+00) (0, 0, 0.00000000000000000000e+00) (0, 0, 0.00000000000000000000e+00) (0, 0, 0.00000000000000000000e+00) (0, 0, 0.00000000000000000000e+00) (0, 0, 0.00000000000000000000e+00) (0, 0, 0.00000000000000000000e+00) (0, 0, 0.00000000000000000000e+00) (0, 0, 0.00000000000000000000e+00) (0, 0, 0.00000000000000000000e+00) (0, 0, 0.00000000000000000000e+00) (0, 0, 0.00000000000000000000e+00) (0, 0, 0.00000000000000000000e+00) (0, 0, 0.00000000000000000000e+00) (0, 0, 0.00000000000000000000e+00) (0, 0, 0.00000000000000000000e+00) (0, 0, 0.00000000000000000000e+00) (0, 0, 0.00000000000000000000e+00) (0, 0, 0.00000000000000000000e+00) (0, 0, 0.00000000000000000000e+00) (0, 0, 0.00000000000000000000e+00) (0, 0, 0.00000000000000000000e+00) (0, 0, 0.00000000000000000000e+00) (0, 0, 0.00000000000000000000e+00) (0, 0, 0.00000000000000000000e+00) (0, 0, 0.00000000000000000000e+00) (0, 0, 0.00000000000000000000e+00) (0, 0, 0.00000000000000000000e+00) (0, 0, 0.00000000000000000000e+00) (0, 0, 0.00000000000000000000e+00) (0, 0, 0.00000000000000000000e+00) (0, 0, 0.00000000000000000000e+00) (0, 0, 0.00000000000000000000e+00) (0, 0, 0.00000000000000000000e+00) (0, 0, 0.00000000000000000000e+00) (0, 0, 0.00000000000000000000e+00) (0, 0, 0.00000000000000000000e+00) (0, 0, 0.00000000000000000000e+00) (0, 0, 0.00000000000000000000e+00) (0, 0, 0.00000000000000000000e+00) (0, 0, 0.00000000000000000000e+00) (0, 0, 0.00000000000000000000e+00) (0, 0, 0.00000000000000000000e+00) (0, 0, 0.00000000000000000000e+00) (0, 0, 0.00000000000000000000e+00) (0, 0, 0.00000000000000000000e+00) (0, 0, 0.00000000000000000000e+00) (0, 0, 0.00000000000000000000e+00) (0, 0, 0.00000000000000000000e+00) (0, 0, 0.00000000000000000000e+00) (0, 0, 0.00000000000000000000e+00) (0, 0, 0.00000000000000000000e+00) (0, 0, 0.00000000000000000000e+00) (0, 0, 0.00000000000000000000e+00) (0, 0, 0.00000000000000000000e+00) (0, 0, 0.00000000000000000000e+00) (0, 0, 0.00000000000000000000e+00) (0, 0, 0.00000000000000000000e+00) (0, 0, 0.00000000000000000000e+00) (0, 0, 0.00000000000000000000e+00) (0, 0, 0.00000000000000000000e+00) (0, 0, 0.00000000000000000000e+00) (0, 0, 0.00000000000000000000e+00) (0, 0, 0.00000000000000000000e+00) (0, 0, 0.00000000000000000000e+00) (0, 0, 0.00000000000000000000e+00) (0, 0, 0.00000000000000000000e+00) (0, 0, 0.00000000000000000000e+00) (0, 0, 0.00000000000000000000e+00) (0, 0, 0.00000000000000000000e+00) (0, 0, 0.00000000000000000000e+00) (0, 0, 0.00000000000000000000e+00) (0, 0, 0.00000000000000000000e+00) (0, 0, 0.00000000000000000000e+00) (0, 0, 0.00000000000000000000e+00) (0, 0, 0.00000000000000000000e+00) (0, 0, 0.00000000000000000000e+00) (0, 0, 0.00000000000000000000e+00) (0, 0, 0.00000000000000000000e+00) (0, 0, 0.00000000000000000000e+00) (0, 0, 0.00000000000000000000e+00) (0, 0, 0.00000000000000000000e+00) (0, 0, 0.00000000000000000000e+00) (0, 0, 0.00000000000000000000e+00) (0, 0, 0.00000000000000000000e+00) (0, 0, 0.00000000000000000000e+00) (0, 0, 0.00000000000000000000e+00) (0, 0, 0.00000000000000000000e+00) (0, 0, 0.00000000000000000000e+00) (0, 0, 0.00000000000000000000e+00) (0, 0, 0.00000000000000000000e+00) (0, 0, 0.00000000000000000000e+00) (0, 0, 0.00000000000000000000e+00) (0, 0, 0.00000000000000000000e+00) (0, 0, 0.00000000000000000000e+00) (0, 0, 0.00000000000000000000e+00) (0, 0, 0.00000000000000000000e+00) (0, 0, 0.00000000000000000000e+00) (0, 0, 0.00000000000000000000e+00) (0, 0, 0.00000000000000000000e+00) (0, 0, 0.00000000000000000000e+00) (0, 0, 0.00000000000000000000e+00) (0, 0, 0.00000000000000000000e+00) (0, 0, 0.00000000000000000000e+00) (0, 0, 0.00000000000000000000e+00) (0, 0, 0.00000000000000000000e+00) (0, 0, 0.00000000000000000000e+00) (0, 0, 0.00000000000000000000e+00) (0, 0, 0.00000000000000000000e+00) (0, 0, 0.00000000000000000000e+00) (0, 0, 0.00000000000000000000e+00) (0, 0, 0.00000000000000000000e+00) (0, 0, 0.00000000000000000000e+00) (0, 0, 0.00000000000000000000e+00) (0, 0, 0.00000000000000000000e+00) (0, 0, 0.00000000000000000000e+00) (0, 0, 0.00000000000000000000e+00) (0, 0, 0.00000000000000000000e+00) (0, 0, 0.00000000000000000000e+00) (0, 0, 0.00000000000000000000e+00) (0, 0, 0.00000000000000000000e+00) (0, 0, 0.00000000000000000000e+00) (0, 0, 0.00000000000000000000e+00) (0, 0, 0.00000000000000000000e+00) (0, 0, 0.00000000000000000000e+00) (0, 0, 0.00000000000000000000e+00) (0, 0, 0.00000000000000000000e+00) (0, 0, 0.00000000000000000000e+00) (0, 0, 0.00000000000000000000e+00) (0, 0, 0.00000000000000000000e+00) (0, 0, 0.00000000000000000000e+00) (0, 0, 0.00000000000000000000e+00) (0, 0, 0.00000000000000000000e+00) (0, 0, 0.00000000000000000000e+00) (0, 0, 0.00000000000000000000e+00) (0, 0, 0.00000000000000000000e+00) (0, 0, 0.00000000000000000000e+00) (0, 0, 0.00000000000000000000e+00) (0, 0, 0.00000000000000000000e+00) (0, 0, 0.00000000000000000000e+00) (0, 0, 0.00000000000000000000e+00) (0, 0, 0.00000000000000000000e+00) (0, 0, 0.00000000000000000000e+00) (0, 0, 0.00000000000000000000e+00) (0, 0, 0.00000000000000000000e+00) (0, 0, 0.00000000000000000000e+00) (0, 0, 0.00000000000000000000e+00) (0, 0, 0.00000000000000000000e+00) (0, 0, 0.00000000000000000000e+00) (0, 0, 0.00000000000000000000e+00) (0, 0, 0.00000000000000000000e+00) (0, 0, 0.00000000000000000000e+00) (0, 0, 0.00000000000000000000e+00) (0, 0, 0.00000000000000000000e+00) (0, 0, 0.00000000000000000000e+00) (0, 0, 0.00000000000000000000e+00) (0, 0, 0.00000000000000000000e+00) (0, 0, 0.00000000000000000000e+00) (0, 0, 0.00000000000000000000e+00) (0, 0, 0.00000000000000000000e+00) (0, 0, 0.00000000000000000000e+00) (0, 0, 0.00000000000000000000e+00) (0, 0, 0.00000000000000000000e+00) (0, 0, 0.00000000000000000000e+00) (0, 0, 0.00000000000000000000e+00) (0, 0, 0.00000000000000000000e+00) (0, 0, 0.00000000000000000000e+00) (0, 0, 0.00000000000000000000e+00) (0, 0, 0.00000000000000000000e+00) (0, 0, 0.00000000000000000000e+00) (0, 0, 0.00000000000000000000e+00) (0, 0, 0.00000000000000000000e+00) (0, 0, 0.00000000000000000000e+00) (0, 0, 0.00000000000000000000e+00) (0, 0, 0.00000000000000000000e+00) (0, 0, 0.00000000000000000000e+00) (0, 0, 0.00000000000000000000e+00) (0, 0, 0.00000000000000000000e+00) (0, 0, 0.00000000000000000000e+00) (0, 0, 0.00000000000000000000e+00) (0, 0, 0.00000000000000000000e+00) (0, 0, 0.00000000000000000000e+00) (0, 0, 0.00000000000000000000e+00) (0, 0, 0.00000000000000000000e+00) (0, 0, 0.00000000000000000000e+00) (0, 0, 0.00000000000000000000e+00) (0, 0, 0.00000000000000000000e+00) (0, 0, 0.00000000000000000000e+00) (0, 0, 0.00000000000000000000e+00) (0, 0, 0.00000000000000000000e+00) (0, 0, 0.00000000000000000000e+00) (0, 0, 0.00000000000000000000e+00) (0, 0, 0.00000000000000000000e+00) (0, 0, 0.00000000000000000000e+00) (0, 0, 0.00000000000000000000e+00) (0, 0, 0.00000000000000000000e+00) (0, 0, 0.00000000000000000000e+00) (0, 0, 0.00000000000000000000e+00) (0, 0, 0.00000000000000000000e+00) (0, 0, 0.00000000000000000000e+00) (0, 0, 0.00000000000000000000e+00) (0, 0, 0.00000000000000000000e+00) (0, 0, 0.00000000000000000000e+00) (0, 0, 0.00000000000000000000e+00) (0, 0, 0.00000000000000000000e+00) (0, 0, 0.00000000000000000000e+00) (0, 0, 0.00000000000000000000e+00) (0, 0, 0.00000000000000000000e+00) (0, 0, 0.00000000000000000000e+00) (0, 0, 0.00000000000000000000e+00) (0, 0, 0.00000000000000000000e+00) (0, 0, 0.00000000000000000000e+00) (0, 0, 0.00000000000000000000e+00) (0, 0, 0.00000000000000000000e+00) (0, 0, 0.00000000000000000000e+00) (0, 0, 0.00000000000000000000e+00) (0, 0, 0.00000000000000000000e+00) (0, 0, 0.00000000000000000000e+00) (0, 0, 0.00000000000000000000e+00) (0, 0, 0.00000000000000000000e+00) (0, 0, 0.00000000000000000000e+00) (0, 0, 0.00000000000000000000e+00) (0, 0, 0.00000000000000000000e+00) (0, 0, 0.00000000000000000000e+00) (0, 0, 0.00000000000000000000e+00) (0, 0, 0.00000000000000000000e+00) (0, 0, 0.00000000000000000000e+00) (0, 0, 0.00000000000000000000e+00) (0, 0, 0.00000000000000000000e+00) (0, 0, 0.00000000000000000000e+00) (0, 0, 0.00000000000000000000e+00) (0, 0, 0.00000000000000000000e+00) (0, 0, 0.00000000000000000000e+00) (0, 0, 0.00000000000000000000e+00) (0, 0, 0.00000000000000000000e+00) (0, 0, 0.00000000000000000000e+00) (0, 0, 0.00000000000000000000e+00) (0, 0, 0.00000000000000000000e+00) (0, 0, 0.00000000000000000000e+00) (0, 0, 0.00000000000000000000e+00) (0, 0, 0.00000000000000000000e+00) (0, 0, 0.00000000000000000000e+00) (0, 0, 0.00000000000000000000e+00) (0, 0, 0.00000000000000000000e+00) (0, 0, 0.00000000000000000000e+00) (0, 0, 0.00000000000000000000e+00) (0, 0, 0.00000000000000000000e+00) (0, 0, 0.00000000000000000000e+00) (0, 0, 0.00000000000000000000e+00) (0, 0, 0.00000000000000000000e+00) (0, 0, 0.00000000000000000000e+00) (0, 0, 0.00000000000000000000e+00) (0, 0, 0.00000000000000000000e+00) (301, 3, 5.00000000000000000000e-01) (302, 5, 5.00000000000000000000e-01) (302, 5, 5.00000000000000000000e-01) 
connections (connected_to_neuron, weight)=(0, -4.34925238765545285613e-01) (1, 7.66290024148745113619e-02) (2, -1.67689725530819760957e-02) (3, -1.36928479350872489562e-01) (4, 4.46868732797427309356e-02) (5, 6.83254793512148433932e-02) (6, 2.30788429104022474458e-01) (7, -1.13807718433208929221e-01) (8, -3.33829328191952573457e-02) (9, 1.99203689418963880708e-01) (10, 2.07460601650409193208e-01) (11, -9.86633013166256400694e-01) (12, 7.17796877252382808932e-02) (13, -8.14749161876507255187e-01) (14, 1.60117466770343275240e-01) (15, 3.18847735248736829927e-01) (16, 3.65284045063190010438e-01) (17, -3.00853531040020438780e-01) (18, -8.48535130895443412413e-01) (19, 2.43517954670123548677e-01) (20, 2.62979944072894544771e-01) (21, -6.45798842586346122374e-01) (22, -9.84254340804882499327e-01) (23, 5.18262400034558634587e+00) (24, -2.50276486553020927062e-01) (25, -6.94923802984433042207e-02) (26, 6.41171892009906319032e-01) (27, -3.80152861751385184874e-01) (28, -5.17918805755444022765e-01) (29, 3.66018678549420872770e+00) (30, -6.19385461486645194640e-01) (31, 3.74668557964496162782e-01) (32, 4.07871206127337959657e-01) (33, -1.30626542789465949213e+00) (34, -4.32370822109051200499e-01) (35, 6.92955452938999805212e+00) (36, 8.95727470742983394869e-02) (37, -8.71693234123058768859e-01) (38, -1.00147129145986601984e+00) (39, -6.13921086467571708312e-01) (40, 6.55023176990680244813e-01) (41, 7.68060917397465381384e+00) (42, -2.73041407741375419249e-01) (43, 5.66919639932437074981e-02) (44, -9.51358090318508597960e-01) (45, -7.83034782089062186827e-01) (46, -2.94571320689983817687e-01) (47, 5.89092226316656741858e+00) (48, 2.43624289356402845552e-01) (49, 1.84406240307025404146e-01) (50, 3.14845640979938001802e-01) (51, -1.63506667293377372374e-01) (52, -1.13150348810083456463e+00) (53, 7.80521125336613330603e+00) (54, -3.07450692333050223937e-01) (55, -5.42673274648861753144e-02) (56, -8.14992591512875425019e-02) (57, -3.36389701045818778624e-01) (58, -1.10453113464242980157e+00) (59, 5.87757815783347759009e+00) (60, -5.14725891477631203319e-03) (61, -3.96403948940105887999e-01) (62, 7.57975942631687793494e+00) (63, -2.67386953510113212218e-01) (64, -3.75156740821667167296e-01) (65, 6.47727764388050708533e+00) (66, -1.15505060104257650799e+00) (67, -9.55694864667721244444e-01) (68, 5.35544192247922357097e+00) (69, -8.29009245313473197569e-01) (70, -2.42103378452129813780e-01) (71, 6.91800934811558398962e+00) (72, -9.65618203557796928038e-01) (73, -1.18525564221269674725e+00) (74, 4.72693502359921957634e+00) (75, -5.89463691390819999327e-01) (76, -6.40777747310467216124e-01) (77, 7.33753163357700977087e+00) (78, -5.18135945476360770812e-01) (79, -1.06726441828138396417e+00) (80, 5.27417182379300530926e+00) (81, -8.73401205219097587218e-01) (82, 9.67415169107241207369e-02) (83, 7.04783625145878467322e+00) (84, -8.85408113874264213194e-01) (85, -8.80820016540356132140e-01) (86, 4.74580269508893515251e+00) (87, 3.60605318866900947938e-01) (88, 1.10303004108600097299e-01) (89, 6.54643947621311816931e+00) (90, 4.18588836513690498720e-01) (91, -5.64955274738140555968e-01) (92, 4.58036449333414719121e+00) (93, 1.81130130611590833833e-01) (94, 4.95170433841876533876e-01) (95, 3.94163044098508397184e+00) (96, -1.15881034282571859784e+00) (97, 6.67632420383624580751e-01) (98, -3.66084593579688644116e-01) (99, -4.53077956808285581269e-02) (100, -8.31487695850201102843e-01) (101, -1.25522309837467238580e+00) (102, -9.44516579784222098937e-01) (103, -4.69593207515545285613e-01) (104, -1.13604182307473711155e+00) (105, -4.59520857013531125457e-01) (106, 2.68455822788409681490e-01) (107, -4.26231186069317313780e-01) (108, -9.39207296050854179015e-01) (109, -9.19791053212948295226e-01) (110, -4.65806478997196915515e+00) (111, 9.30251673089785152682e-02) (112, -4.65679566539593137176e-01) (113, -7.39352326072521659484e-01) (114, -6.76356773055859061827e-01) (115, -2.35749885214047300019e-02) (116, -4.78474158783879044421e+00) (117, -1.72493378795452567687e-01) (118, -3.33080749191112968077e-01) (119, -8.52467606939144584288e-01) (120, 5.54351408802203682313e-01) (121, -5.84602813400097343077e-01) (122, 3.15036828152295012018e+00) (123, 2.14681465946368665865e-01) (124, -1.07358358351118132745e+00) (125, -2.64850775874920341124e-01) (126, -1.17025607375032492108e+00) (127, -9.04881249345608207335e-01) (128, 2.97294921509381193658e+00) (129, -1.85752312816448661437e-01) (130, 3.77323587261371162782e-01) (131, -1.26511854841930082571e+00) (132, -1.13462726749248968283e-01) (133, -1.23730387089378401910e+00) (134, 2.32927004329319942144e+00) (135, 1.01083834491900878549e-01) (136, -3.69312028564281913390e-01) (137, -5.80474531268205318213e+00) (138, -9.95258282102413627257e-01) (139, 1.89933374749941957793e-02) (140, -3.20019451909682217661e+00) (141, 1.66271407924823255708e-01) (142, -5.58092455543346854796e-01) (143, 3.19716961018200773736e+00) (144, -1.24319179651863143121e+00) (145, 9.30635527002138668307e-02) (146, -3.03204737239500943247e+00) (147, -2.08338896907635184874e-01) (148, -7.49540846027203055968e-01) (149, 3.49791569344159025690e+00) (150, 2.66706307254962415865e-01) (151, -8.65300248540707084288e-01) (152, -3.29232908421179715219e+00) (153, -4.93314842857189572722e-01) (154, -1.32072964466712639009e+00) (155, 2.49713105789776790289e+00) (156, 5.69347222171954658876e-01) (157, -1.16347305027372427411e+00) (158, -2.61576865249297130234e+00) (159, -3.68092875160046073546e-01) (160, -2.17127010000424253144e-02) (161, 2.62697512737866389898e+00) (162, -8.09507946647472831359e-01) (163, -8.05286328471966239562e-01) (164, -2.81834713750502530161e+00) (165, -3.93003623164959403624e-01) (166, 6.23310168110065010438e-01) (167, 3.67538458935376066705e+00) (168, -3.78154318012066337218e-01) (169, -1.04205901471502349054e+00) (170, -2.51126406722685802109e+00) (171, 4.44165066110415590606e-02) (172, 4.51725085102252510438e-01) (173, 4.06758575461807669882e+00) (174, -6.68803076423473807921e-01) (175, 5.36045987926654365907e-01) (176, -9.30565785556619617935e-01) (177, -7.80849858892636167207e-02) (178, -3.42403809703655692687e-01) (179, 5.54333288990191963563e-01) (180, -4.90558604873485959441e-01) (181, -7.45808403171368095030e-01) (182, -9.81077860273189994444e-01) (183, -1.60122315563030692687e-01) (184, 8.83894756662172847994e-02) (185, -9.74294851697750541319e-01) (186, 4.24243171535663154970e-01) (187, -1.23742028845028745332e-02) (188, 6.33685196181263599158e+00) (189, -5.66383700050182792296e-01) (190, -1.05057803837186858331e+00) (191, 4.95544751011065987001e-01) (192, 1.47825677715472669771e-01) (193, -5.32573322929211112609e-01) (194, 6.16725472351040515662e+00) (195, -1.04537955967313811456e+00) (196, 4.01935775600604561220e-01) (197, -1.02665324059850737726e+00) (198, -1.28038424549228713190e+00) (199, -6.46329443134136649718e-01) (200, 3.91525753143918553434e+00) (201, -1.68882887042828055968e-01) (202, -1.27202377391583487665e+00) (203, -9.59585379041500541319e-01) (204, -2.85584966815777274718e-01) (205, -6.13314132369823905577e-01) (206, -1.09365033654100463067e+00) (207, -9.79334424413509818663e-01) (208, 6.36113484226398018251e-01) (209, -1.08541528858013616721e-01) (210, -1.09511203614599272882e+00) (211, -5.24556021369762870421e-01) (212, 4.73162730060748604188e-01) (213, -7.48677234329052421202e-01) (214, 6.42834384761981514345e-01) (215, -1.08558575786419378439e-01) (216, -3.95459453738995048155e-01) (217, 3.96966536365680244813e-01) (218, -7.91043738998241874327e-01) (219, 1.21797998272113280893e-01) (220, -8.39528094209499808898e-01) (221, -5.14109055675335380187e-01) (222, -5.27681514394955503144e-02) (223, 6.35810215793780830751e-01) (224, 2.80830223880938978365e-01) (225, 2.94891913257770033052e-01) (226, -1.07968015519506499444e+00) (227, 4.66911222342145304509e+00) (228, 5.95751483761004951845e-01) (229, -1.03255174604780242120e+00) (230, -1.30378518363065287744e+00) (231, -8.15559069789715262999e-01) (232, 1.26077969394854993990e-01) (233, 5.89881094535317096472e+00) (234, -4.47631756938763059051e-01) (235, -8.29617898143597098937e-01) (236, -5.34097830928631278624e-01) (237, -2.13769356883831473937e-01) (238, -4.81439690269298947722e-01) (239, 6.57901204367603931189e+00) (240, -9.92421786464519950499e-01) (241, -2.49038974918194266905e-01) (242, 2.34861452900104017427e-01) (243, -1.18936983791715689129e+00) (244, 3.29796393238238783052e-01) (245, 7.35469216843571338416e+00) (246, 2.95842483865542543731e-02) (247, -7.35773901618786307921e-01) (248, -6.55594274175839292207e-02) (249, 5.66053111873797920595e-01) (250, -1.28408684877283141290e+00) (251, 7.56953234215702686072e+00) (252, -6.18166904128857108702e-01) (253, -9.34235302335785500194e-03) (254, 3.88124425731830147157e-01) (255, -1.00744752136594817316e+00) (256, -3.84561221278973075499e-01) (257, 7.78306419392552051306e+00) (258, 3.32720239483050794771e-01) (259, -4.58920697845287717254e-01) (260, -1.06670565453893706476e+00) (261, 3.56447775684527845552e-01) (262, 5.30329540597720278106e-02) (263, 7.53399211903538379431e+00) (264, 4.35664136730365303407e-01) (265, -1.06470973340398833429e+00) (266, -1.11284382192022390790e+00) (267, -7.68544535316296073546e-01) (268, 4.90334823953433168731e-02) (269, 6.88033635159458789587e+00) (270, -9.12718025571869484569e-03) (271, 3.84124358020953682313e-01) (272, -1.18592075554258413739e+00) (273, -4.44376568473644650847e-01) (274, 5.22267182193927315126e-01) (275, 7.61849553128208789587e+00) (276, -9.06902621663876029601e-01) (277, -1.18259589351482855002e-01) (278, -9.34496532357998344054e-01) (279, 3.55050523601703138521e-01) (280, -2.22317258991070243468e-01) (281, 3.76538639072072545133e+00) (282, 1.07364733539752441049e-01) (283, 4.87028558574847725282e-01) (284, 4.27099545322589424501e-01) (285, -1.74621741451092216124e-01) (286, -1.19052990821725912518e+00) (287, -6.27572576679058524718e-01) (288, -2.08775560535259696593e-01) (289, 4.69703038059405830751e-01) (290, 2.41019327961139173677e-01) (291, 5.20313576089663637481e-02) (292, 1.56039913021258802583e-01) (293, -3.76058678306408378234e-01) (294, -2.31194536365337821593e-01) (295, -7.84068509710507260957e-02) (296, -1.13255779422588812033e-01) (297, -1.65256663931088315644e-02) (298, 4.80561216198138740907e-01) (299, -7.34333138145275565734e-01) (300, 6.63352676550111319820e-01) (0, 3.50073950278031231775e-01) (1, 4.24633921968209149256e-01) (2, 5.03574112343060376062e-01) (3, 4.10977842199074627771e-01) (4, 3.77219116228091122522e-01) (5, 3.60725244420039059534e-01) (6, 3.99313019501435162439e-01) (7, 3.76710990356671215906e-01) (8, 3.49293189036118389978e-01) (9, 3.77496624278294445887e-01) (10, 4.06557002948986889734e-01) (11, 4.63575998234021069422e-01) (12, 4.43511867808567883387e-01) (13, 4.69860294746624829187e-01) (14, 4.75380549120175244227e-01) (15, 3.17516805516945721521e-01) (16, 3.48583767103421093836e-01) (17, 3.67386063473688961878e-01) (18, 3.32970814692246319666e-01) (19, 3.58876848506199719324e-01) (20, 3.22662794875370861902e-01) (21, -9.83065697081222517051e-02) (22, -1.06010864926113154705e-01) (23, 4.56257680343853833094e-01) (24, 4.75444594310986401453e-01) (25, 5.07022911595570446863e-01) (26, 4.77501118468510510340e-01) (27, -1.24223220599426281696e-01) (28, -2.41070869095459001941e-02) (29, 3.66879796522127987757e-01) (30, 2.45063272588119974993e-02) (31, 4.79088375257717968836e-01) (32, 4.76635182189213635340e-01) (33, 1.32019040458069072952e-02) (34, -9.28123551137580854453e-02) (35, 3.38975766586529614344e-01) (36, -1.40951390815509836063e-01) (37, -8.37786818815612968625e-03) (38, 4.00808224367367627039e-01) (39, -1.06536726904644038494e-01) (40, -1.45759779465927163944e-01) (41, 4.92486694740521202540e-01) (42, 4.21607313029632932433e-02) (43, -1.71264442331924421348e-02) (44, -2.05315830834045427722e-02) (45, 2.66274486707305255498e-03) (46, -1.44881787426605207481e-02) (47, 4.81173688458668591394e-01) (48, -1.44829723490013162479e-01) (49, 3.60411082433318439092e-03) (50, -1.42828028155101816044e-01) (51, -1.37045461190475503788e-01) (52, -1.41580964875949899540e-01) (53, 3.72282644646632077112e-01) (54, 4.33368657754515905489e-03) (55, 1.89851043097839546070e-02) (56, -1.03573012603057915126e-01) (57, -3.30437230594291739272e-02) (58, -1.52116622281803171024e-01) (59, 4.93441456841694603419e-01) (60, 1.89575371615753364429e-02) (61, 2.55112168662415018938e-02) (62, -1.03487404711380022448e-02) (63, -1.92858162052764910144e-02) (64, -8.16539253069305595578e-03) (65, 3.17960435437428357019e-01) (66, 4.81141780541991491427e-03) (67, 4.00472854302977819552e-03) (68, -5.29596532656097587766e-03) (69, -1.09258897108568217571e-01) (70, -1.49410496903194467411e-01) (71, 4.70065796660649182215e-01) (72, -1.31650734198822061405e-01) (73, 4.58717462890014734955e-02) (74, -6.19391831286087019004e-02) (75, 9.39202057586666864269e-04) (76, 1.65599261449432067286e-03) (77, 3.44694184052216412439e-01) (78, -3.27656450398101858901e-02) (79, 9.94775866197204067243e-03) (80, 3.34197399489746527212e-02) (81, -5.92461489088110804246e-01) (82, 2.60238168113098612688e-02) (83, 5.12960323976742738061e-01) (84, 3.49319395892486936339e-02) (85, -1.65210100538864118613e-02) (86, -1.63281780272295534706e-01) (87, -6.85508888161949880846e-01) (88, -6.57371292172209131799e-01) (89, 1.80717823378906440601e-02) (90, -9.27063780789069369348e-01) (91, -9.12651360227304087047e-01) (92, -1.83644187241365969276e-01) (93, -5.64173214084677576707e-01) (94, -5.51456565318838465295e-01) (95, -5.83394053108825666465e-02) (96, -8.06203173715844600977e-01) (97, -8.47696768362298458399e-01) (98, -8.57183358657585325879e-01) (99, -6.13265775091223597215e-01) (100, -5.49661034999624598107e-01) (101, -9.75021752245559675254e-02) (102, -9.03190376479402035059e-01) (103, -7.82363387067094295801e-01) (104, -8.48606385346546643333e-01) (105, -5.68716148552921851866e-01) (106, -5.83190835959486841844e-01) (107, -1.43731448305381814823e-01) (108, -7.82192411143556087794e-01) (109, -9.07946845758929699244e-01) (110, 1.50807025420393858717e+00) (111, -5.77353307974448060058e-01) (112, -5.34005607185391029113e-01) (113, -5.62444920001760828576e-01) (114, -7.97569351513162105860e-01) (115, -7.89244072754159420313e-01) (116, 1.42381604152645979688e+00) (117, -6.24895280510652906258e-01) (118, -7.33344303441157308043e-01) (119, -6.05041438710799073242e-01) (120, -8.56187688429131954493e-01) (121, -9.35477311033979130883e-01) (122, 1.64208269572072862452e+00) (123, -7.03876013219822294076e-01) (124, -5.74054008633364087899e-01) (125, -8.31989007313027828516e-01) (126, -8.11579602081551998438e-01) (127, -8.14520197231545894923e-01) (128, 1.31040011863090288813e+00) (129, -7.57185591668356416939e-01) (130, -7.02189473718870527108e-01) (131, -3.72956556109487902262e+00) (132, -9.04051946718469112696e-01) (133, -8.39642854649796932520e-01) (134, 2.43837401964860545078e+00) (135, -6.46953692943323499520e-01) (136, -6.80942548722494489510e-01) (137, -5.56249271051290428147e+00) (138, -8.40049328524842708887e-01) (139, -8.97397974748387783350e-01) (140, 4.41416748743963882617e+00) (141, -6.65104305655229932626e-01) (142, -7.22340757310856229623e-01) (143, 1.25719821879242465990e+00) (144, -9.15985370297208278956e-01) (145, -9.54173134882226658959e-01) (146, 1.73968773345807603548e+00) (147, -6.25294557124842054208e-01) (148, -5.95471442067853296010e-01) (149, 1.28314754178383361172e+00) (150, -6.80411158413160688241e-01) (151, -1.04149041847964141105e+00) (152, 1.50926703516176941022e+00) (153, -7.06770470649469739755e-01) (154, 8.42387002349878483143e-02) (155, 1.10757588406660589797e+00) (156, -5.54724643004050110839e-01) (157, -6.80306693822611219247e-01) (158, 1.42142131431060225744e+00) (159, -7.13777197808493024667e-01) (160, 2.75624250872950449232e-01) (161, 1.11249656144986497353e+00) (162, -6.76816934716811036132e-01) (163, -6.07584556848276502450e-01) (164, 1.48133433738454400874e+00) (165, -6.85621692151296979745e-01) (166, -5.77371238480829163109e-01) (167, 1.12587081183204995583e+00) (168, -7.07507859951131745646e-01) (169, -7.44815753769984212340e-01) (170, 2.92135082925168210188e-01) (171, -7.31491094738710878609e-01) (172, -6.44620940411321008412e-01) (173, -2.07755514844104982597e-01) (174, -6.90736547059588312791e-01) (175, -5.66951716957119544738e-01) (176, 6.00462083721259642921e-01) (177, -7.56255729407537935494e-01) (178, -6.26509274063137611144e-01) (179, 7.99662118841006019920e-01) (180, -1.49952727807296792850e-01) (181, 4.98625868844258024470e-01) (182, 6.22279589080909301124e-01) (183, -7.36135332197416780708e-01) (184, -6.80396977759175070055e-01) (185, -6.38121685296762830575e-01) (186, -1.05403992784751890377e-01) (187, 3.52792570280300976648e-01) (188, 4.36497104370692778907e-01) (189, -7.46201148540247438667e-01) (190, -6.75863160104025251229e-01) (191, -6.58709703296888715585e-01) (192, -9.82198337741031629600e-02) (193, 4.77860266255604626551e-01) (194, 4.88631215894321013771e-01) (195, -7.46889671594370363472e-01) (196, -7.22639972627628690560e-01) (197, -6.23621559054125196297e-01) (198, -8.55341064460411054649e-02) (199, 3.85018223809468151941e-01) (200, 1.02675981485941536508e-01) (201, -5.47398347443216137798e-01) (202, -6.30164962297551922710e-01) (203, -1.00155256194604871944e-01) (204, -3.00829435659790301455e-03) (205, 4.51638394879567028894e-01) (206, -3.36032066105817830981e-02) (207, -5.86925769506231653772e-01) (208, -5.67808443961874353967e-01) (209, -4.37546926267280630873e-02) (210, -9.40959001608028394736e-02) (211, 4.64288422750698925867e-01) (212, -6.00073742396965009727e-02) (213, -9.52678280599250776328e-02) (214, 2.58900490872726908587e-02) (215, 4.50706506060826184168e-01) (216, 3.23474672906265761640e-02) (217, 3.41607587324845196619e-01) (218, 2.06205067508087348804e-02) (219, 4.53930613868103113862e-02) (220, -1.06856610131992366131e-01) (221, 3.78494361328350903406e-01) (222, -4.75796642429962210463e-02) (223, 4.16045093821751477137e-01) (224, -1.26523952437175762897e-01) (225, 1.76000264756546211109e-02) (226, -3.31076192386283926772e-02) (227, 3.84573103772866131678e-01) (228, -4.02845474608078055190e-02) (229, 5.02479815768467785730e-01) (230, -1.32872494585647600573e-02) (231, -9.30600496657028181113e-02) (232, 2.16319677703247538469e-02) (233, 3.59098365443217160120e-01) (234, -4.00937976963653616713e-02) (235, 4.39745219337212445154e-01) (236, 2.78581795565948954485e-02) (237, -2.91484924681320242690e-02) (238, -1.01131036383642194942e-01) (239, 4.42099327134358288660e-01) (240, -1.19781683636440303142e-01) (241, 4.25894604908692242518e-01) (242, -6.37418875752226221643e-01) (243, -2.66675385363235491198e-02) (244, 1.57482442729339790211e-02) (245, 3.70520761149393917933e-01) (246, -9.08395792074336988486e-02) (247, 4.69217250036465527430e-01) (248, -6.40739530272059321092e-01) (249, -1.17097567272914857006e-01) (250, -2.68239033950808938508e-04) (251, 4.43514713930355908289e-01) (252, 4.14518298494088055506e-01) (253, 3.73273631470667721644e-01) (254, -2.25308033234647708820e-01) (255, -2.68841865189209001941e-02) (256, -1.24004866433872235065e-01) (257, 4.64695149945484997644e-01) (258, 5.10810414242016785913e-01) (259, 4.56832120107876660242e-01) (260, -1.08631608007684329897e-01) (261, -1.73553707726135236777e-02) (262, -1.51106457663311044559e-01) (263, 4.27049921738373639002e-01) (264, 4.94864502834545860743e-01) (265, 4.29921278642880322352e-01) (266, 3.51916612970101239100e-01) (267, 7.84414683507537319196e-03) (268, -1.14105738205446213818e-01) (269, 4.03907077299820782557e-01) (270, 4.03064975427853466883e-01) (271, 3.87234123336541058436e-01) (272, 3.14923146652447583094e-01) (273, 1.16956350676880108108e-02) (274, 4.56880447738037195893e-02) (275, 4.83792895364033581629e-01) (276, 3.35337886499630810633e-01) (277, 3.75970004039275051966e-01) (278, 4.38131602393853070154e-01) (279, -5.02908634669914228477e-02) (280, -5.60060995347633414077e-02) (281, 3.90984872268902661219e-01) (282, 3.46345351921784283533e-01) (283, 5.11633703397976868921e-01) (284, 4.49379974889027478113e-01) (285, 3.76148091541993023768e-01) (286, 4.37871010886895062342e-01) (287, 4.78496605443226696863e-01) (288, 3.25964713381993176355e-01) (289, 4.33802904474007489100e-01) (290, 4.20450212346779705896e-01) (291, 4.63382625865208508387e-01) (292, 3.69569031434523465052e-01) (293, 4.22465251671540142908e-01) (294, 3.75554004596936108484e-01) (295, 3.49554987537133099451e-01) (296, 3.37508002208935620203e-01) (297, 4.12592084991204144373e-01) (298, 5.10520631360280030542e-01) (299, 3.76523768442141415491e-01) (300, 6.30604170445160483460e-01) (301, 3.40212369705829686950e+01) (0, -4.45867065185931554794e-01) (1, -3.95694788391021123886e-01) (2, -3.42908900076773992538e-01) (3, -4.81049939835694662094e-01) (4, -3.96885242158797613143e-01) (5, -3.73994525367644659042e-01) (6, -4.60590589637187353134e-01) (7, -3.35793774420646062850e-01) (8, -4.50741458529857030868e-01) (9, -3.57759948665526739120e-01) (10, -4.38678365046409002304e-01) (11, -3.74635111386206975936e-01) (12, -5.05094833662798947671e-01) (13, -4.41923189753917089462e-01) (14, -4.40133679503825536727e-01) (15, -4.65023565883067480087e-01) (16, -5.18930714423087469100e-01) (17, -4.86352029593482226844e-01) (18, 1.27612955860803484187e-01) (19, 1.81543990962217210994e-01) (20, -3.49745631208708829263e-01) (21, -5.05433294767764440536e-01) (22, -3.45315854842093816757e-01) (23, -4.73193633707061023230e-01) (24, 1.36792518191049400356e-01) (25, 7.09109455272654704006e-02) (26, 1.40822596840570274379e-01) (27, -3.47044270331290594100e-01) (28, -5.14997292155650376877e-01) (29, -4.25257211698568893254e-01) (30, 2.21248164765546623256e-01) (31, 1.50381594888875785854e-01) (32, 1.36468656353662315395e-01) (33, -3.63217830811224828835e-01) (34, -3.72225433741293798562e-01) (35, -5.58446033073939029912e-01) (36, 1.74033578170194880297e-01) (37, 6.81322887465457133205e-02) (38, 6.31808638498286695429e-02) (39, -3.20900339698576897440e-01) (40, -3.23522482132697075663e-01) (41, -4.73526945485151840032e-01) (42, 2.15710498165441799667e-01) (43, 2.61430345248533479996e-01) (44, 2.59930439066244356461e-01) (45, -4.76277913963580101786e-01) (46, -4.55447960710310906229e-01) (47, -5.74989637507475559453e-01) (48, 1.71652450985872812028e-01) (49, 2.01860613893820095566e-01) (50, -3.59967433126616165318e-01) (51, -4.51146204034460707177e-01) (52, -3.42227403084410353173e-01) (53, -4.60920607818640304387e-01) (54, 1.96742541916334695573e-01) (55, 1.24260723419153826241e-01) (56, -3.77729762410902947245e-01) (57, 8.57104061317087856375e-02) (58, 1.06912061400377886300e-01) (59, -4.27166065348661971868e-01) (60, 2.36323512918913430925e-01) (61, 2.76305489070379772798e-01) (62, -4.51304562399758024682e-01) (63, 1.20937425471508638863e-01) (64, 2.32485629446470859483e-01) (65, -3.71169040434690566954e-01) (66, 1.73234374013004954751e-01) (67, 1.44366841591560962632e-01) (68, -4.87854469577444715966e-01) (69, 1.49687848813498142198e-01) (70, 1.35202202774250657136e-01) (71, -3.66678262584539504942e-01) (72, 5.66326102231738071069e-01) (73, 5.95392933105227672996e-01) (74, -3.17861970083952449784e-01) (75, 2.77019672777710612710e-01) (76, 1.16555839605295794015e-01) (77, -5.18774820946785064635e-01) (78, 5.57322597120997520470e-01) (79, 5.19488504146334739708e-01) (80, -5.86820144793850223541e-02) (81, 2.08470322873650193429e-01) (82, 2.52583108670675793306e-01) (83, -4.03852735014848529538e-01) (84, 7.31162319535018756511e-01) (85, 8.08925914222003550336e-01) (86, 7.29849128246925937802e-01) (87, 2.57425972011147197183e-01) (88, 1.69006727464163369890e-01) (89, -5.41669697515044124003e-01) (90, 2.22643689716172143989e+00) (91, 7.64930507743360355022e-01) (92, -2.39948220264982481353e+00) (93, 2.18488685615027072862e-01) (94, 1.60238340325319889024e-01) (95, -3.98907900802168757792e-01) (96, 2.29022889690349806813e+00) (97, 2.29292196886490096119e+00) (98, -1.07690767233186091012e+00) (99, 2.23573542959654453233e-01) (100, 2.82258592374289074556e-01) (101, -4.82407745274000099300e-01) (102, 2.30417244127618303651e+00) (103, 2.33297961941587050916e+00) (104, -7.14681651963816055861e-01) (105, 2.12978102095091464951e-01) (106, 2.10407532579863193467e-01) (107, 1.36838007636285730051e-01) (108, 2.43049582660836183123e+00) (109, 2.25212503960954180116e+00) (110, 2.83453270562711134861e-01) (111, 5.23157618773180455030e-01) (112, 2.61003590948545971528e-01) (113, 5.42405967668198596421e-01) (114, 2.34449174822014683173e+00) (115, 2.34824077776300033094e+00) (116, -6.67938049334466876772e-01) (117, 4.73697113334142272389e-01) (118, 4.90612804722982853711e-01) (119, 5.16809977424341648877e-01) (120, 1.19811678252167586045e+00) (121, 2.17165444152305830983e+00) (122, -7.68805062443825626417e-01) (123, 4.69399021228013413332e-01) (124, 5.20266261250340811273e-01) (125, 1.19644788972086790757e+00) (126, 1.13294057612082954556e+00) (127, 1.20138421555072594238e+00) (128, -2.28012083356343175922e+00) (129, 4.16865919937549012086e-01) (130, 4.25575469841418640993e-01) (131, 8.41177006774835334113e+00) (132, 1.19394720409772392422e+00) (133, 1.27628079446197539859e+00) (134, -4.45664299174054256980e+00) (135, 5.28143500198779425325e-01) (136, 4.94992216338572876833e-01) (137, 8.41628566856415716302e+00) (138, 8.56255939419205858165e-01) (139, 1.18712210463277556549e+00) (140, -1.09310467922452314582e+01) (141, 4.26765789498744385622e-01) (142, 4.27358654548583405397e-01) (143, 6.78652399381243331966e-01) (144, 6.06734869291244205414e-01) (145, 1.24042003921217802720e+00) (146, -2.90378936837214318700e+00) (147, 4.68180319755279128469e-01) (148, 9.89531102443719778883e-01) (149, 5.80814459883760680903e-01) (150, 4.19257757474837677858e-01) (151, 6.67620356507457435313e-01) (152, -1.16610317877536573405e+00) (153, 6.05996186374627932025e-01) (154, 1.09592765694206084603e+00) (155, 5.38894922995161285151e-01) (156, 1.52856262996035024981e-01) (157, 7.32752415664352119151e-01) (158, -1.58983735490287214631e+00) (159, 6.86849150188125312511e-01) (160, 7.48621965097608144113e-01) (161, 6.32763625645231475580e-01) (162, 1.48047503266116237119e-01) (163, 2.70717928781347483280e-01) (164, -1.45073558382603806649e+00) (165, 6.50303135938800513927e-01) (166, 8.55520356480962806955e-01) (167, 7.01216485159620872558e-01) (168, 1.93954840429196140317e-01) (169, 1.85303228515810047838e-01) (170, -2.05644350083497462478e-01) (171, 7.24209274478114783946e-01) (172, 5.00956708172668019330e-01) (173, 1.08446252336906212577e+00) (174, 1.24707222315307120208e-01) (175, 1.81647076935442991497e-01) (176, 1.83273214984509963399e-01) (177, 6.25020827479518592540e-01) (178, 2.74445615277217558337e-01) (179, 6.52540120771576304115e-01) (180, 1.18842683725068939959e-01) (181, 5.20502626821498434739e-02) (182, -5.33909040976265125700e-01) (183, 5.50059790252648950215e-01) (184, 2.82664663917982617036e-01) (185, 9.02200763180230458360e-01) (186, 2.18680188052366081264e-01) (187, -4.64809056217101446151e-01) (188, -5.65193218953956133532e-01) (189, 4.75149412860331910036e-01) (190, 2.15337306443234538511e-01) (191, 5.15136023272929621797e-01) (192, 2.35818549983213249233e-01) (193, -3.40033601815131536483e-01) (194, -6.64098134107936277637e-01) (195, 1.80299393418959119639e-01) (196, 1.03566758516808618551e-01) (197, 3.15244983467987405223e-01) (198, 7.01354890987376383693e-02) (199, -3.92696793968108526229e-01) (200, -6.50334572263110310963e-01) (201, 1.63880405120724825796e-01) (202, 1.24809682551404108053e-01) (203, 1.15938424892389910226e-01) (204, 1.36863656334588829067e-01) (205, -4.78327615334070754827e-01) (206, -4.68970070150242723805e-01) (207, 1.20640370823109285836e-01) (208, 1.82318404145205087419e-01) (209, -3.79811551267531744003e-01) (210, 2.19006821505735221889e-01) (211, -4.09578627122915817083e-01) (212, -4.25790732873953414739e-01) (213, 2.24053717977965000108e-01) (214, 1.92824438042604989763e-01) (215, -4.02533304584243301072e-01) (216, 7.21786394640902689845e-02) (217, -4.53060377234843603134e-01) (218, -5.15079472059634446701e-01) (219, 9.21160577010752407157e-02) (220, 2.26437650449240329698e-01) (221, -3.98873210898909480449e-01) (222, 1.67730487875650285945e-01) (223, -4.02308802897361150741e-01) (224, 1.84608787290761827693e-01) (225, 8.87629835080744472586e-02) (226, 2.68208481199705639497e-01) (227, -4.02803492439010146775e-01) (228, 2.50355660907934041148e-01) (229, -5.26221025580790868759e-01) (230, 1.38312943272302452113e-01) (231, 1.85151725835764474626e-01) (232, 1.28635600037539155061e-01) (233, -4.51463831736124587835e-01) (234, 1.86915561549375414119e-01) (235, 1.82484596960256456599e-01) (236, 7.38039389178256205470e-02) (237, 1.78660102016890115495e-01) (238, 2.16871928341604180979e-01) (239, -4.54617371930159164251e-01) (240, 9.73842255696753672511e-02) (241, 1.87262400977323412166e-01) (242, 1.39399386934945884731e-01) (243, -3.16126618599677056132e-01) (244, -4.35288969492697686015e-01) (245, -3.78515890015638900579e-01) (246, 1.97193399064252733455e-01) (247, 1.48625366382310691860e-01) (248, 1.25844411544511675105e-01) (249, -3.51780880307936638651e-01) (250, -4.05863661384367913065e-01) (251, -5.58457670880831424931e-01) (252, 1.54901586465547386195e-01) (253, 7.36025124713877848537e-02) (254, 1.96654185645292162166e-01) (255, -4.75934784924769371806e-01) (256, -4.88941441729169645747e-01) (257, -4.45877036227263046086e-01) (258, 2.37115055315206352260e-01) (259, 7.78517723009089640529e-02) (260, 1.85322612516591905818e-01) (261, -4.44719012334447660884e-01) (262, -3.91263857637129675027e-01) (263, -3.96781509889639449895e-01) (264, 2.47979760162542167690e-01) (265, 1.15049675099561571345e-01) (266, 1.61573410026738945033e-01) (267, -5.01323737357340704079e-01) (268, -3.70855223233130804061e-01) (269, -4.97896066082991306523e-01) (270, 1.91181927911947130427e-01) (271, 5.62246069237689466425e-02) (272, 6.52366578504542521388e-02) (273, -5.02823758716014257431e-01) (274, -3.29716648752120367050e-01) (275, -4.86041663362063003362e-01) (276, 7.60810151621798685939e-02) (277, 1.97172358624647020564e-01) (278, 2.38454028956601948863e-01) (279, -4.31479651326564184188e-01) (280, -4.24423176640895238876e-01) (281, -4.47060714812770099158e-01) (282, 1.67483352117250322566e-01) (283, -5.00178016712954587319e-01) (284, 1.66073836378763023403e-01) (285, -4.69267528349784246444e-01) (286, -4.85575400138524404525e-01) (287, -3.87980397636321416854e-01) (288, -3.39274238640693059921e-01) (289, -5.00315073723224035263e-01) (290, -3.61983354980376592636e-01) (291, -4.05806366199878087997e-01) (292, -4.28596537405875555038e-01) (293, -4.33849241430190435409e-01) (294, -4.26717545682814947128e-01) (295, -4.32471502417949071884e-01) (296, -3.70654295975592962264e-01) (297, -5.16998868281272172531e-01) (298, -4.14397265607741704940e-01) (299, -4.11813918346789709091e-01) (300, 1.34418050706750857870e+00) (301, -1.96934125165394169343e+00) 
