FANN_FLO_2.1
num_layers=4
learning_rate=0.700000
connection_rate=1.000000
network_type=1
learning_momentum=0.000000
training_algorithm=2
train_error_function=1
train_stop_function=0
cascade_output_change_fraction=0.010000
quickprop_decay=-0.000100
quickprop_mu=1.750000
rprop_increase_factor=1.200000
rprop_decrease_factor=0.500000
rprop_delta_min=0.000000
rprop_delta_max=50.000000
rprop_delta_zero=0.100000
cascade_output_stagnation_epochs=12
cascade_candidate_change_fraction=0.010000
cascade_candidate_stagnation_epochs=12
cascade_max_out_epochs=150
cascade_max_cand_epochs=150
cascade_num_candidate_groups=2
bit_fail_limit=3.49999999999999977796e-01
cascade_candidate_limit=1.00000000000000000000e+03
cascade_weight_multiplier=4.00000000000000022204e-01
cascade_activation_functions_count=10
cascade_activation_functions=3 5 7 8 10 11 14 15 16 17 
cascade_activation_steepnesses_count=4
cascade_activation_steepnesses=2.50000000000000000000e-01 5.00000000000000000000e-01 7.50000000000000000000e-01 1.00000000000000000000e+00 
layer_sizes=301 1 1 2 
scale_included=0
neurons (num_inputs, activation_function, activation_steepness)=(0, 0, 0.00000000000000000000e+00) (0, 0, 0.00000000000000000000e+00) (0, 0, 0.00000000000000000000e+00) (0, 0, 0.00000000000000000000e+00) (0, 0, 0.00000000000000000000e+00) (0, 0, 0.00000000000000000000e+00) (0, 0, 0.00000000000000000000e+00) (0, 0, 0.00000000000000000000e+00) (0, 0, 0.00000000000000000000e+00) (0, 0, 0.00000000000000000000e+00) (0, 0, 0.00000000000000000000e+00) (0, 0, 0.00000000000000000000e+00) (0, 0, 0.00000000000000000000e+00) (0, 0, 0.00000000000000000000e+00) (0, 0, 0.00000000000000000000e+00) (0, 0, 0.00000000000000000000e+00) (0, 0, 0.00000000000000000000e+00) (0, 0, 0.00000000000000000000e+00) (0, 0, 0.00000000000000000000e+00) (0, 0, 0.00000000000000000000e+00) (0, 0, 0.00000000000000000000e+00) (0, 0, 0.00000000000000000000e+00) (0, 0, 0.00000000000000000000e+00) (0, 0, 0.00000000000000000000e+00) (0, 0, 0.00000000000000000000e+00) (0, 0, 0.00000000000000000000e+00) (0, 0, 0.00000000000000000000e+00) (0, 0, 0.00000000000000000000e+00) (0, 0, 0.00000000000000000000e+00) (0, 0, 0.00000000000000000000e+00) (0, 0, 0.00000000000000000000e+00) (0, 0, 0.00000000000000000000e+00) (0, 0, 0.00000000000000000000e+00) (0, 0, 0.00000000000000000000e+00) (0, 0, 0.00000000000000000000e+00) (0, 0, 0.00000000000000000000e+00) (0, 0, 0.00000000000000000000e+00) (0, 0, 0.00000000000000000000e+00) (0, 0, 0.00000000000000000000e+00) (0, 0, 0.00000000000000000000e+00) (0, 0, 0.00000000000000000000e+00) (0, 0, 0.00000000000000000000e+00) (0, 0, 0.00000000000000000000e+00) (0, 0, 0.00000000000000000000e+00) (0, 0, 0.00000000000000000000e+00) (0, 0, 0.00000000000000000000e+00) (0, 0, 0.00000000000000000000e+00) (0, 0, 0.00000000000000000000e+00) (0, 0, 0.00000000000000000000e+00) (0, 0, 0.00000000000000000000e+00) (0, 0, 0.00000000000000000000e+00) (0, 0, 0.00000000000000000000e+00) (0, 0, 0.00000000000000000000e+00) (0, 0, 0.00000000000000000000e+00) (0, 0, 0.00000000000000000000e+00) (0, 0, 0.00000000000000000000e+00) (0, 0, 0.00000000000000000000e+00) (0, 0, 0.00000000000000000000e+00) (0, 0, 0.00000000000000000000e+00) (0, 0, 0.00000000000000000000e+00) (0, 0, 0.00000000000000000000e+00) (0, 0, 0.00000000000000000000e+00) (0, 0, 0.00000000000000000000e+00) (0, 0, 0.00000000000000000000e+00) (0, 0, 0.00000000000000000000e+00) (0, 0, 0.00000000000000000000e+00) (0, 0, 0.00000000000000000000e+00) (0, 0, 0.00000000000000000000e+00) (0, 0, 0.00000000000000000000e+00) (0, 0, 0.00000000000000000000e+00) (0, 0, 0.00000000000000000000e+00) (0, 0, 0.00000000000000000000e+00) (0, 0, 0.00000000000000000000e+00) (0, 0, 0.00000000000000000000e+00) (0, 0, 0.00000000000000000000e+00) (0, 0, 0.00000000000000000000e+00) (0, 0, 0.00000000000000000000e+00) (0, 0, 0.00000000000000000000e+00) (0, 0, 0.00000000000000000000e+00) (0, 0, 0.00000000000000000000e+00) (0, 0, 0.00000000000000000000e+00) (0, 0, 0.00000000000000000000e+00) (0, 0, 0.00000000000000000000e+00) (0, 0, 0.00000000000000000000e+00) (0, 0, 0.00000000000000000000e+00) (0, 0, 0.00000000000000000000e+00) (0, 0, 0.00000000000000000000e+00) (0, 0, 0.00000000000000000000e+00) (0, 0, 0.00000000000000000000e+00) (0, 0, 0.00000000000000000000e+00) (0, 0, 0.00000000000000000000e+00) (0, 0, 0.00000000000000000000e+00) (0, 0, 0.00000000000000000000e+00) (0, 0, 0.00000000000000000000e+00) (0, 0, 0.00000000000000000000e+00) (0, 0, 0.00000000000000000000e+00) (0, 0, 0.00000000000000000000e+00) (0, 0, 0.00000000000000000000e+00) (0, 0, 0.00000000000000000000e+00) (0, 0, 0.00000000000000000000e+00) (0, 0, 0.00000000000000000000e+00) (0, 0, 0.00000000000000000000e+00) (0, 0, 0.00000000000000000000e+00) (0, 0, 0.00000000000000000000e+00) (0, 0, 0.00000000000000000000e+00) (0, 0, 0.00000000000000000000e+00) (0, 0, 0.00000000000000000000e+00) (0, 0, 0.00000000000000000000e+00) (0, 0, 0.00000000000000000000e+00) (0, 0, 0.00000000000000000000e+00) (0, 0, 0.00000000000000000000e+00) (0, 0, 0.00000000000000000000e+00) (0, 0, 0.00000000000000000000e+00) (0, 0, 0.00000000000000000000e+00) (0, 0, 0.00000000000000000000e+00) (0, 0, 0.00000000000000000000e+00) (0, 0, 0.00000000000000000000e+00) (0, 0, 0.00000000000000000000e+00) (0, 0, 0.00000000000000000000e+00) (0, 0, 0.00000000000000000000e+00) (0, 0, 0.00000000000000000000e+00) (0, 0, 0.00000000000000000000e+00) (0, 0, 0.00000000000000000000e+00) (0, 0, 0.00000000000000000000e+00) (0, 0, 0.00000000000000000000e+00) (0, 0, 0.00000000000000000000e+00) (0, 0, 0.00000000000000000000e+00) (0, 0, 0.00000000000000000000e+00) (0, 0, 0.00000000000000000000e+00) (0, 0, 0.00000000000000000000e+00) (0, 0, 0.00000000000000000000e+00) (0, 0, 0.00000000000000000000e+00) (0, 0, 0.00000000000000000000e+00) (0, 0, 0.00000000000000000000e+00) (0, 0, 0.00000000000000000000e+00) (0, 0, 0.00000000000000000000e+00) (0, 0, 0.00000000000000000000e+00) (0, 0, 0.00000000000000000000e+00) (0, 0, 0.00000000000000000000e+00) (0, 0, 0.00000000000000000000e+00) (0, 0, 0.00000000000000000000e+00) (0, 0, 0.00000000000000000000e+00) (0, 0, 0.00000000000000000000e+00) (0, 0, 0.00000000000000000000e+00) (0, 0, 0.00000000000000000000e+00) (0, 0, 0.00000000000000000000e+00) (0, 0, 0.00000000000000000000e+00) (0, 0, 0.00000000000000000000e+00) (0, 0, 0.00000000000000000000e+00) (0, 0, 0.00000000000000000000e+00) (0, 0, 0.00000000000000000000e+00) (0, 0, 0.00000000000000000000e+00) (0, 0, 0.00000000000000000000e+00) (0, 0, 0.00000000000000000000e+00) (0, 0, 0.00000000000000000000e+00) (0, 0, 0.00000000000000000000e+00) (0, 0, 0.00000000000000000000e+00) (0, 0, 0.00000000000000000000e+00) (0, 0, 0.00000000000000000000e+00) (0, 0, 0.00000000000000000000e+00) (0, 0, 0.00000000000000000000e+00) (0, 0, 0.00000000000000000000e+00) (0, 0, 0.00000000000000000000e+00) (0, 0, 0.00000000000000000000e+00) (0, 0, 0.00000000000000000000e+00) (0, 0, 0.00000000000000000000e+00) (0, 0, 0.00000000000000000000e+00) (0, 0, 0.00000000000000000000e+00) (0, 0, 0.00000000000000000000e+00) (0, 0, 0.00000000000000000000e+00) (0, 0, 0.00000000000000000000e+00) (0, 0, 0.00000000000000000000e+00) (0, 0, 0.00000000000000000000e+00) (0, 0, 0.00000000000000000000e+00) (0, 0, 0.00000000000000000000e+00) (0, 0, 0.00000000000000000000e+00) (0, 0, 0.00000000000000000000e+00) (0, 0, 0.00000000000000000000e+00) (0, 0, 0.00000000000000000000e+00) (0, 0, 0.00000000000000000000e+00) (0, 0, 0.00000000000000000000e+00) (0, 0, 0.00000000000000000000e+00) (0, 0, 0.00000000000000000000e+00) (0, 0, 0.00000000000000000000e+00) (0, 0, 0.00000000000000000000e+00) (0, 0, 0.00000000000000000000e+00) (0, 0, 0.00000000000000000000e+00) (0, 0, 0.00000000000000000000e+00) (0, 0, 0.00000000000000000000e+00) (0, 0, 0.00000000000000000000e+00) (0, 0, 0.00000000000000000000e+00) (0, 0, 0.00000000000000000000e+00) (0, 0, 0.00000000000000000000e+00) (0, 0, 0.00000000000000000000e+00) (0, 0, 0.00000000000000000000e+00) (0, 0, 0.00000000000000000000e+00) (0, 0, 0.00000000000000000000e+00) (0, 0, 0.00000000000000000000e+00) (0, 0, 0.00000000000000000000e+00) (0, 0, 0.00000000000000000000e+00) (0, 0, 0.00000000000000000000e+00) (0, 0, 0.00000000000000000000e+00) (0, 0, 0.00000000000000000000e+00) (0, 0, 0.00000000000000000000e+00) (0, 0, 0.00000000000000000000e+00) (0, 0, 0.00000000000000000000e+00) (0, 0, 0.00000000000000000000e+00) (0, 0, 0.00000000000000000000e+00) (0, 0, 0.00000000000000000000e+00) (0, 0, 0.00000000000000000000e+00) (0, 0, 0.00000000000000000000e+00) (0, 0, 0.00000000000000000000e+00) (0, 0, 0.00000000000000000000e+00) (0, 0, 0.00000000000000000000e+00) (0, 0, 0.00000000000000000000e+00) (0, 0, 0.00000000000000000000e+00) (0, 0, 0.00000000000000000000e+00) (0, 0, 0.00000000000000000000e+00) (0, 0, 0.00000000000000000000e+00) (0, 0, 0.00000000000000000000e+00) (0, 0, 0.00000000000000000000e+00) (0, 0, 0.00000000000000000000e+00) (0, 0, 0.00000000000000000000e+00) (0, 0, 0.00000000000000000000e+00) (0, 0, 0.00000000000000000000e+00) (0, 0, 0.00000000000000000000e+00) (0, 0, 0.00000000000000000000e+00) (0, 0, 0.00000000000000000000e+00) (0, 0, 0.00000000000000000000e+00) (0, 0, 0.00000000000000000000e+00) (0, 0, 0.00000000000000000000e+00) (0, 0, 0.00000000000000000000e+00) (0, 0, 0.00000000000000000000e+00) (0, 0, 0.00000000000000000000e+00) (0, 0, 0.00000000000000000000e+00) (0, 0, 0.00000000000000000000e+00) (0, 0, 0.00000000000000000000e+00) (0, 0, 0.00000000000000000000e+00) (0, 0, 0.00000000000000000000e+00) (0, 0, 0.00000000000000000000e+00) (0, 0, 0.00000000000000000000e+00) (0, 0, 0.00000000000000000000e+00) (0, 0, 0.00000000000000000000e+00) (0, 0, 0.00000000000000000000e+00) (0, 0, 0.00000000000000000000e+00) (0, 0, 0.00000000000000000000e+00) (0, 0, 0.00000000000000000000e+00) (0, 0, 0.00000000000000000000e+00) (0, 0, 0.00000000000000000000e+00) (0, 0, 0.00000000000000000000e+00) (0, 0, 0.00000000000000000000e+00) (0, 0, 0.00000000000000000000e+00) (0, 0, 0.00000000000000000000e+00) (0, 0, 0.00000000000000000000e+00) (0, 0, 0.00000000000000000000e+00) (0, 0, 0.00000000000000000000e+00) (0, 0, 0.00000000000000000000e+00) (0, 0, 0.00000000000000000000e+00) (0, 0, 0.00000000000000000000e+00) (0, 0, 0.00000000000000000000e+00) (0, 0, 0.00000000000000000000e+00) (0, 0, 0.00000000000000000000e+00) (0, 0, 0.00000000000000000000e+00) (0, 0, 0.00000000000000000000e+00) (0, 0, 0.00000000000000000000e+00) (0, 0, 0.00000000000000000000e+00) (0, 0, 0.00000000000000000000e+00) (0, 0, 0.00000000000000000000e+00) (0, 0, 0.00000000000000000000e+00) (0, 0, 0.00000000000000000000e+00) (0, 0, 0.00000000000000000000e+00) (0, 0, 0.00000000000000000000e+00) (0, 0, 0.00000000000000000000e+00) (0, 0, 0.00000000000000000000e+00) (0, 0, 0.00000000000000000000e+00) (0, 0, 0.00000000000000000000e+00) (0, 0, 0.00000000000000000000e+00) (0, 0, 0.00000000000000000000e+00) (0, 0, 0.00000000000000000000e+00) (0, 0, 0.00000000000000000000e+00) (0, 0, 0.00000000000000000000e+00) (0, 0, 0.00000000000000000000e+00) (0, 0, 0.00000000000000000000e+00) (0, 0, 0.00000000000000000000e+00) (0, 0, 0.00000000000000000000e+00) (0, 0, 0.00000000000000000000e+00) (0, 0, 0.00000000000000000000e+00) (0, 0, 0.00000000000000000000e+00) (0, 0, 0.00000000000000000000e+00) (0, 0, 0.00000000000000000000e+00) (0, 0, 0.00000000000000000000e+00) (0, 0, 0.00000000000000000000e+00) (0, 0, 0.00000000000000000000e+00) (0, 0, 0.00000000000000000000e+00) (0, 0, 0.00000000000000000000e+00) (0, 0, 0.00000000000000000000e+00) (0, 0, 0.00000000000000000000e+00) (0, 0, 0.00000000000000000000e+00) (0, 0, 0.00000000000000000000e+00) (0, 0, 0.00000000000000000000e+00) (0, 0, 0.00000000000000000000e+00) (301, 15, 2.50000000000000000000e-01) (302, 15, 7.50000000000000000000e-01) (303, 5, 5.00000000000000000000e-01) (303, 5, 5.00000000000000000000e-01) 
connections (connected_to_neuron, weight)=(0, 1.33762692458197673950e+00) (1, 5.36294936468129868068e-01) (2, 4.08218586310868103428e-01) (3, 3.30542783924345273672e-01) (4, 4.65602685892620299368e-02) (5, -2.91694928220506410899e-01) (6, 8.24577016211628488485e-01) (7, 6.65900732873424550107e-01) (8, 4.71785895145037881271e-01) (9, -1.02911920027510372933e-01) (10, 9.23225904755132331658e-01) (11, 1.53068710289701770400e+00) (12, 3.50688827669077163307e-01) (13, -8.21151732050621474546e-02) (14, 4.63110534450399735640e-01) (15, 7.57768894485967292596e-01) (16, 1.26315022495069140263e+00) (17, 1.31282643083911021442e+00) (18, 1.04000117614681664158e+00) (19, 1.47494365499956248122e+00) (20, 1.34457728792208652813e+00) (21, 2.18696884824637949318e-01) (22, 5.99357133478503056878e-01) (23, 9.70714149873584286610e-01) (24, 1.39429520951450358623e+00) (25, 3.68770774330324235812e-01) (26, 1.87785269630212603431e+00) (27, 8.67977654680684218569e-01) (28, 1.48618667260836545552e+00) (29, 2.90986092561471565432e-01) (30, 5.70462990057810648281e-01) (31, 1.35857447294894861933e+00) (32, 1.74100651049077814747e+00) (33, 1.40728525509799462512e+00) (34, -2.44830724941297483976e-01) (35, -3.72371875639990579376e-01) (36, 1.48731463541848407672e+00) (37, 9.86120608072843629621e-01) (38, 1.60488048748611022987e+00) (39, 2.59403679180252644265e-01) (40, 1.13586562128275048167e+00) (41, -3.69777554607367997530e-01) (42, 2.63790409992618546386e-01) (43, 7.31039311700729388388e-02) (44, 2.81024463865123275141e+00) (45, 5.07064860342527845560e-01) (46, 9.70952350347673576181e-01) (47, -1.45594431577518029775e-01) (48, 8.44292004770474724396e-01) (49, 5.17453443447423278023e-01) (50, 6.93377613139694148892e-01) (51, 4.95404753494370464484e-01) (52, 8.98662091870622181666e-01) (53, 6.11842304670787151544e-01) (54, -2.97300600188811103841e-01) (55, 7.47415400651342043403e-01) (56, 2.12981574667679662838e+00) (57, 1.43608561496745279484e+00) (58, -3.04178568446695218874e-01) (59, 1.06343087913425815572e+00) (60, -8.76777015312134588854e-02) (61, 6.78002846805584424850e-01) (62, 7.36260081167545044067e-01) (63, 1.53960897913664096492e+00) (64, 2.94361034742776528361e-01) (65, 1.23272786257266209198e+00) (66, 1.42383395677430524273e+00) (67, -1.57215093239870512543e-01) (68, 1.79678455579716483959e-01) (69, 6.90029635719289990980e-01) (70, 3.58014553892008979830e-01) (71, 5.33429415406745710548e-01) (72, 8.89475656508227796593e-01) (73, 4.34071760595765521185e-01) (74, -9.50885307323233242016e+00) (75, -9.83010644845661585300e-02) (76, -1.14830443179086347238e-01) (77, 9.13904932088544286195e-01) (78, 1.98638269583497201198e-01) (79, 1.08147576073411211262e+00) (80, 1.22016968738676911954e+00) (81, 3.83435318709949846117e-01) (82, -9.17674143228673133699e-01) (83, 1.51118035949295603793e+00) (84, 1.63231729897265420703e+00) (85, -3.49041019999631052517e-01) (86, 8.19807542823649815222e-02) (87, 1.16576679406839001096e+00) (88, 8.47223527714974777858e-01) (89, 1.01885415960076186614e+00) (90, 9.67419282278744296910e-01) (91, 1.21611563982236187131e-01) (92, 4.51616287936057236863e-01) (93, -2.83529802726291246806e-01) (94, -1.55393454964695743037e+00) (95, 1.47089549989679047037e+00) (96, 1.33219273284781447586e+00) (97, -5.61493119402923287348e-03) (98, 1.66742141702439927720e+00) (99, -1.05448571620379863423e-01) (100, -1.59888226300189478790e-01) (101, -4.00877472572353510394e-01) (102, 8.26301903337351761891e-01) (103, 3.48065093159640848164e-01) (104, 1.39018808652427683370e+00) (105, -2.39272178782546279807e-01) (106, -1.26317552927949483532e+00) (107, -7.67711501245167626806e-01) (108, 1.02141589475125238451e+00) (109, 4.36782796040090626200e-01) (110, 1.40092676445021391274e+00) (111, 5.16626712657731079759e-01) (112, -2.23175169945687779105e+00) (113, -7.83197902416413960225e-01) (114, 9.14690194664828232218e-02) (115, 2.84602455767280076993e-02) (116, 1.30627935901537961527e+00) (117, 7.78252522572480898155e-01) (118, -1.44118884273956721076e-01) (119, 1.39615892906977800969e+00) (120, -2.46657598940646272112e+00) (121, -1.71112419379524105523e+00) (122, -3.94926592187290759206e-01) (123, 3.10647176475069841661e-01) (124, -1.01288486522136442214e-01) (125, -5.99967002002229521374e-01) (126, -1.48059898440729553748e+00) (127, -9.36108356070616043354e-01) (128, -1.56506434110060510534e+00) (129, 3.23049154290030948733e-01) (130, -6.31122406442655714542e-01) (131, 1.20423334723290342829e+00) (132, -1.72474495135906935595e+00) (133, -9.99411765370344373771e-01) (134, 1.35608887127163701969e+00) (135, 1.58776207120884338408e+00) (136, 3.58207682971428298391e-01) (137, 2.21321775529709385832e-01) (138, 5.97248606795310110762e-01) (139, -7.62029573789178127363e-01) (140, -1.28331846462097365347e+00) (141, 6.14545605409802409014e-01) (142, 1.00258824770940946358e+00) (143, 1.11653773673874368022e+00) (144, 1.62225867450703563170e-03) (145, -8.72546465998590980995e-01) (146, -5.88076336599605897781e-01) (147, -4.24594452543049366566e-02) (148, 6.18990705508971061910e-01) (149, 1.17244977019498250459e-01) (150, -3.14657728186304552764e-01) (151, 1.47215302817322690743e+00) (152, 5.74968436932567827924e-01) (153, 5.46655576818196042854e-02) (154, -1.27107959497715583552e+00) (155, 5.97147699742763604647e-01) (156, -1.72322684732910819116e-01) (157, -5.86873669278293541574e-01) (158, 7.30661669419083392718e-01) (159, 7.30202062126301676415e-01) (160, -6.71836461181236188622e-01) (161, -7.69217629193480800787e-01) (162, -3.65440442591980357845e-02) (163, 2.62923972216681345326e-01) (164, -2.35628930304218303649e-01) (165, -1.16362030901252827553e-01) (166, 9.40727191720333921765e-01) (167, -6.94087252689409628381e-01) (168, 3.27627512236259021972e-01) (169, -1.21565768843046595471e-01) (170, -2.59886456419311073773e-01) (171, 1.29777268521197558515e-01) (172, -2.82906549524767347847e-01) (173, 2.33975628458889917116e-01) (174, -1.03042652170957357849e-01) (175, -5.00850651272865876606e-01) (176, 1.53751206082535674113e+00) (177, 1.22599132520104014965e+00) (178, 5.60307859830942001089e-01) (179, 9.59729869508022942481e-02) (180, 3.48743293310260993323e-01) (181, 1.49866134692498431669e-01) (182, 8.23344013374708416642e-01) (183, 1.21410920198555571936e+00) (184, 6.12098521386686411638e-01) (185, 8.28651671346653961869e-01) (186, 1.16849818782878944745e+00) (187, -7.52891232273843358236e-01) (188, 1.35304115498047305977e+00) (189, 5.13937810043279430516e-01) (190, 1.05748432756067489713e-01) (191, 1.44836276146824571853e+00) (192, 6.71213695211409167030e-01) (193, 8.51636243546953330963e-01) (194, 1.66507595560524479517e+00) (195, 1.45933737036102084694e+00) (196, 1.35802682456554957291e+00) (197, 2.69783921628859779673e-01) (198, -3.15693866491907823568e-02) (199, 2.76671249898368831754e-01) (200, 2.15336735441591375917e+00) (201, 8.19750549186502142085e-01) (202, 5.90546699285432352688e-01) (203, 1.79915381039182498135e+00) (204, 1.46014429663845102247e+00) (205, 8.98384388425453983551e-01) (206, 7.48284314675624173674e-01) (207, 1.98163101487118881172e-01) (208, 3.11737261211821492513e-01) (209, 1.46488467962889568064e+00) (210, 7.97635537963883423096e-01) (211, 8.57948330828945171511e-01) (212, 1.15090184078016122271e+00) (213, 1.16538391877388014528e+00) (214, 3.02128765185205039323e-01) (215, -9.92277323174175635012e-02) (216, 1.60525761472093464466e-01) (217, 1.64688754332146514159e+00) (218, 7.53859468983364866546e-01) (219, 1.15452579604098670707e+00) (220, 4.36156988798319211753e-01) (221, 1.01342309088775150983e+00) (222, 8.86946991383002925069e-01) (223, 1.28729926509741554597e+00) (224, 6.41739078655200856360e-01) (225, 1.91580050505849502906e-01) (226, 9.84702333414636532538e-01) (227, 1.88036706468458741925e-01) (228, 9.11225531517616316179e-01) (229, 1.33277020914515809125e+00) (230, 8.31361916072073658945e-01) (231, 6.82383233931541877126e-01) (232, 3.61899492693749269545e-01) (233, 1.50478526755623009947e+00) (234, 6.58339138988624283932e-01) (235, 2.19230196013858819049e-01) (236, 7.94061390284109935855e-01) (237, 1.24802505436229593805e+00) (238, 4.67205648568869924553e-01) (239, 1.21954559201824608294e+00) (240, 8.59794059719959813393e-01) (241, 1.70168960015886439052e+00) (242, -4.54059210375916816327e-02) (243, 1.58689444636234466834e+00) (244, 8.29755198356998624476e-01) (245, 8.38388279463260888136e-01) (246, 1.78626129724661408815e+00) (247, 1.33629561215854564260e+00) (248, 2.92463268114231178529e-01) (249, 2.03408860590355497489e-02) (250, 7.30753715486284871616e-01) (251, 1.44940462202482445164e+00) (252, 1.19838698203272153719e+00) (253, -1.75119993819921521139e-01) (254, 6.93443514240253411351e-01) (255, -1.35145963881420555497e-01) (256, 2.77691425735099195471e-01) (257, 2.55937058823919150186e-01) (258, 9.61329290133053349088e-02) (259, 1.28990365905758030962e+00) (260, 1.71553090238475403062e+00) (261, 9.14138277826797573944e-01) (262, 2.61755019326911253508e-01) (263, 4.99792873759971167935e-01) (264, 5.51684797127504622516e-01) (265, 1.04974494632221904133e+00) (266, 8.68097842755639059753e-01) (267, 1.37593448391047856738e+00) (268, 5.65676569839225318326e-01) (269, -7.18228064346242145444e-02) (270, 7.34844354484535111638e-01) (271, 1.55854682125749444133e+00) (272, 1.76779371196504597741e+00) (273, 1.19550654900533315228e+00) (274, 1.40650046518333993184e+00) (275, 1.09258328744529631393e+00) (276, -8.03126638959678618157e-02) (277, 1.09175427155018378578e+00) (278, 5.86345070564163850513e-01) (279, 1.08504746674116425709e+00) (280, 1.57045040560625848158e+00) (281, 1.53961208877174349219e+00) (282, 4.44495897480253476797e-01) (283, 7.28374844164233037347e-01) (284, 1.55752199014125869425e+00) (285, 1.77227206270922832410e+00) (286, 9.76211776541422326936e-01) (287, 3.28282792780704921198e-02) (288, -7.90458121697899529501e-02) (289, 1.03011859008706840868e+00) (290, 1.24056312311644534319e+00) (291, 1.44816054734003996085e-01) (292, 3.88141164939926064381e-01) (293, 1.60691875537545699436e-03) (294, 4.89926108939498394790e-01) (295, 8.47848063201081969531e-01) (296, 9.55362329748055238987e-01) (297, 1.56817912073922194338e+00) (298, 3.72604085300501652878e-01) (299, -3.34809408478409564758e-01) (300, -1.06406107023838991665e+00) (0, 3.93905215304667821741e-01) (1, 1.44618057278904577068e+00) (2, 1.50946205143290357320e+00) (3, 2.95508986851101107529e-01) (4, 7.00140065094356112141e-01) (5, 6.59008449455623201985e-01) (6, 1.76897581280936200265e+00) (7, 8.37853710482689528760e-01) (8, 2.65879554654485761311e-01) (9, 1.41154671986751112378e+00) (10, 1.16613336389488966849e-02) (11, 8.37757456746338058373e-01) (12, 1.36746229372618910425e+00) (13, 1.82483698648512171481e+00) (14, 1.72507739533797077591e+00) (15, 1.05524018872098435118e+00) (16, 1.46374224468731806148e+00) (17, 1.84818604357381538472e-01) (18, 1.53931862717919187844e+00) (19, 1.86998583597242640231e+00) (20, 7.36743468301510606722e-01) (21, 4.80531010507955547162e-01) (22, 1.92112434046286617573e+00) (23, 1.88971717701377639465e+00) (24, 1.49566841692758556448e+00) (25, 9.64600789759028770520e-02) (26, 1.93675969157637517526e-01) (27, 1.01230469691695312839e+00) (28, 7.08693857843781110928e-02) (29, 4.93135978383030249006e-02) (30, 1.71210962837490057731e-02) (31, 6.40088209305382349612e-01) (32, 1.14500999356047628019e+00) (33, 1.61330127619437324604e+00) (34, 9.04519192353874679213e-01) (35, 3.45182404379269447414e-01) (36, 2.89836567555115609540e-01) (37, 7.81094430298390429712e-01) (38, 5.06849578815608325932e-01) (39, 2.18080763258078791367e-01) (40, -1.38537396248790495301e-01) (41, 8.63399311806073765929e-01) (42, 1.40917657605764534701e+00) (43, 1.70914720913062367913e+00) (44, 4.74592718969045201938e-01) (45, 7.65484808918186487858e-01) (46, 4.11313364021670124782e-01) (47, 1.21916701199746749240e-01) (48, 1.33027198549495895286e+00) (49, 4.56631065591023677097e-01) (50, 3.44679921039701409047e-01) (51, -3.36057975536402486760e-01) (52, 5.56569713375736019323e-01) (53, -1.04882822510299608676e-01) (54, -3.09201282203925287284e-02) (55, 6.09244045247470666915e-01) (56, 3.48219962226551771334e-01) (57, 2.19951838606778637963e-01) (58, 1.18597687542133845007e+00) (59, 6.72355982381365735456e-02) (60, 6.76063558908933437408e-01) (61, 1.74787734846463105320e+00) (62, 1.19599922000177749659e+00) (63, -3.77648051164479400810e-02) (64, 9.27713186810862455722e-01) (65, -3.77927498384553084421e-01) (66, 7.12923553509088869795e-01) (67, 1.83215405331683478529e+00) (68, 8.90969562404716475257e-01) (69, 1.55171744687798707218e+00) (70, -6.52060545086372567170e-02) (71, 7.04207876353413086967e-01) (72, 1.15767145458848119688e+00) (73, 1.87555038283815900257e+00) (74, 6.06944750651225772842e-01) (75, -1.48297556337128794146e-01) (76, 6.12301594772381219123e-01) (77, 1.14333257918879649395e+00) (78, 4.16427011674166180910e-01) (79, 4.62930856316251249094e-01) (80, -5.03861634677771341728e-01) (81, 7.15439275259160067932e-01) (82, 1.03631531757505029878e-01) (83, 7.80074003288158346336e-01) (84, 1.41217614063894814080e+00) (85, 4.04871482037468977122e-01) (86, 1.36096552200088005691e+00) (87, 1.75027241225916907474e+00) (88, 7.78744852541569665405e-01) (89, 5.91562346116102921734e-01) (90, 2.90371539695854719021e-01) (91, 1.91908588358617371306e+00) (92, 8.10624877620568784486e-01) (93, 1.36794733752353248057e+00) (94, 2.67881964075170231343e-01) (95, -6.44681321804741358505e-01) (96, 1.45992895438761682847e+00) (97, 7.63711671638762967795e-01) (98, -3.64142863134993416407e-02) (99, 2.86478312034098347993e-01) (100, 1.03223711322151334713e+00) (101, 2.97278614679259034492e-01) (102, 1.16601511965686333028e+00) (103, -2.41419811455007987666e-02) (104, 1.92025786714704188585e-01) (105, 3.15136476001778242928e-01) (106, 5.39652439945321082959e-01) (107, 1.43496521564446877228e+00) (108, -2.22527437158602681144e-01) (109, 1.05691439179381774238e+00) (110, 2.10278174117184013525e+00) (111, 7.03945345964792218441e-02) (112, 2.48898541018679031467e-01) (113, 4.83949652567627341959e-02) (114, 1.04790393309772555952e+00) (115, -3.24953545620051242881e-01) (116, 8.99391378841438937641e-01) (117, 6.48822107747035858871e-01) (118, 1.05788571676984055614e+00) (119, -1.30780942548161110972e-01) (120, 3.22109537075625340652e-01) (121, 1.80638920272688130453e-01) (122, 3.69806591178638011108e-01) (123, 9.30103341209395861888e-01) (124, 1.45659583702304118447e+00) (125, 2.12788907028446716563e-01) (126, 1.62435098751375095461e+00) (127, 1.12096799878606323553e+00) (128, 1.20502259040141113111e+00) (129, 1.43102305303810495296e+00) (130, 1.32835816250930793814e+00) (131, 6.78251953131632556726e-01) (132, 2.73944462630910712253e-01) (133, 1.06654864618297207102e+00) (134, 7.23706433706703067266e-01) (135, 3.83369333993196503840e-01) (136, 1.33017410162158777887e+00) (137, 1.67612680912680911405e+00) (138, -1.95033386089155602594e-01) (139, 1.58790585829264929707e+00) (140, 1.04490092037603687913e+00) (141, -1.92505039323568605258e-01) (142, 1.91736355722038021021e+00) (143, 2.01196388893776223483e+00) (144, 2.37669783257283995237e-01) (145, 9.36212647322570257202e-01) (146, -2.73944325076408701225e-01) (147, 1.41080286723267622762e+00) (148, 3.30067016037609683998e-01) (149, 1.94251574284399985970e+00) (150, -3.56227380610666222172e-01) (151, 3.17170114881490994296e-01) (152, -1.24301034252440878447e-01) (153, 1.68941468231960227088e-03) (154, 9.45024134782732477822e-02) (155, 1.74680605748731965221e+00) (156, 5.54183410504190954171e-01) (157, 1.33115895702817210733e+00) (158, 6.44272881150546483653e-01) (159, 4.41691875871683625743e-01) (160, 1.40672304100406786453e+00) (161, 5.68527846365691980068e-01) (162, 1.25400432806522532658e+00) (163, -5.65189563527717431235e-01) (164, 1.14362179741046099402e+00) (165, 6.67620869340831979422e-01) (166, 7.51916875219839075939e-01) (167, 1.24133467176784662023e+00) (168, 4.52919520541977482786e-01) (169, 4.66185109924983687169e-01) (170, -7.02292176190016270709e-01) (171, -3.92014268039527075116e-02) (172, 1.26157709372886372989e+00) (173, 1.20616661790076751259e+00) (174, -4.42021166095673323504e-01) (175, 9.40878539076935971330e-01) (176, -2.04467494335044808196e+00) (177, -3.67927247666571810569e-02) (178, 1.50279787900144001789e+00) (179, 1.06558516864659091894e+00) (180, -2.00259625069441893341e-01) (181, 1.24656787168234828300e+00) (182, 7.00567330820831890570e-01) (183, 1.15239472745479437643e-01) (184, 1.23279913125279236286e-02) (185, 1.72287223107697107238e+00) (186, -4.20519553085699562822e-02) (187, 8.05526256565266218779e-01) (188, 6.38491772865729445563e-01) (189, 1.01597090508261533870e+00) (190, -1.05882208871812086293e-01) (191, 1.01423353297579366128e+00) (192, -1.96841796660706197519e-01) (193, 1.38571507984809927372e+00) (194, 3.34436030782414128737e-01) (195, -3.52249577864577667619e-01) (196, 6.70033565882879322828e-01) (197, 2.02617532333622163421e+00) (198, 1.09456055081030778631e+00) (199, 1.36528065152656075121e+00) (200, 3.81530933625528478892e-01) (201, 1.50372871905992022690e-01) (202, -1.20245050909151260377e-01) (203, 2.80830679111943259940e-01) (204, 1.15936909465166060329e+00) (205, -9.31881488234034410789e-02) (206, -4.39775708137706611289e-01) (207, 1.53739058197451305965e+00) (208, 1.48853204294127045015e-01) (209, 1.74549883100506830758e+00) (210, 3.55756905982203996963e-01) (211, 3.64641991238489893146e-01) (212, 1.32024355389152581175e+00) (213, -6.81350200132112837625e-02) (214, 7.38428310126699627425e-01) (215, 1.59604124659173063350e+00) (216, 1.60158815712661262154e+00) (217, 1.05683055220116739470e+00) (218, 7.89045551230774355744e-01) (219, 1.02027660419579890849e+00) (220, 4.59952010292789092993e-01) (221, 8.39348743050241541397e-01) (222, 2.90382573382982456245e-01) (223, 9.59811117025148763382e-01) (224, 6.94515616353265752281e-01) (225, 1.40724903731509276561e+00) (226, 6.78909187112016421217e-01) (227, 1.64406128044026456081e+00) (228, 1.45957542256963379579e+00) (229, 3.99173117134139721074e-01) (230, 1.36249484361059924886e+00) (231, 4.32607772548828761749e-01) (232, 6.25133583836378847742e-01) (233, 1.66721092439347073899e+00) (234, 7.27226242400152433909e-01) (235, 4.51930141724441292173e-01) (236, -2.28176313512432726860e-01) (237, 8.99376111438144110188e-01) (238, 4.23012510909721306529e-02) (239, 5.26450038164046230094e-01) (240, 6.92501070583858124863e-01) (241, 1.04519060977855660077e+00) (242, 1.15653988265642126976e+00) (243, 5.11318802469193367521e-01) (244, 9.78542563246984520298e-01) (245, 4.95964634068916887522e-01) (246, 3.22479581321439223718e-01) (247, 1.22561023600570528913e+00) (248, -1.63337041846137398515e-01) (249, 1.63358480598411426321e+00) (250, 3.64204370059023396777e-01) (251, 8.91863097165252693976e-01) (252, 8.49277917982489416460e-01) (253, 1.29618396786721934433e+00) (254, -1.90009066591441733163e-01) (255, 5.82141718632292991253e-04) (256, 8.33751197340194982743e-01) (257, 9.67828785957243420413e-01) (258, -7.12349371295993988307e-02) (259, 9.41393379077845149361e-01) (260, 1.19271826923699220124e+00) (261, -2.32291920729809309165e-01) (262, 1.47073994754005998864e+00) (263, 4.65896073282853817599e-01) (264, -3.91569312539092384551e-01) (265, 8.87034469755469845431e-01) (266, 8.02232728464894351283e-01) (267, 2.02475243255039710766e-01) (268, 1.88420575657477828990e-01) (269, 1.77888643112583322292e+00) (270, 6.75247214157239872279e-01) (271, 1.35698462254974816510e+00) (272, 5.40171278734245086106e-01) (273, 6.58394411081261732299e-01) (274, 2.50281444048470136376e-01) (275, 3.09418332932447970318e-01) (276, 1.47307097573329248696e+00) (277, 1.06545217270362346795e+00) (278, 1.60733935173203557056e+00) (279, 1.78478835768073396117e+00) (280, 1.06691407372011526355e+00) (281, 4.03300110662651645210e-01) (282, 1.01236111535680906037e+00) (283, 3.37481173137282597363e-01) (284, 1.78579836448913509273e+00) (285, 1.27640155903309926444e+00) (286, 7.15363660903523324031e-01) (287, 1.01802496734379710475e+00) (288, 6.27345568081264071125e-01) (289, 1.09016842260015622834e+00) (290, 6.85201694494762120202e-02) (291, 4.63677607591058305037e-01) (292, 1.24400147062053845204e+00) (293, -4.22038359379715982689e-02) (294, 1.31163401021612302522e+00) (295, 1.28865730629339458879e+00) (296, 9.39124888321284823078e-01) (297, 7.06330961128596834797e-01) (298, 1.56277019395483152131e+00) (299, 1.20111913098943845490e+00) (300, -1.31439994458050907200e-01) (301, 8.14085648213248247451e-01) (0, 5.03483297045934419245e-01) (1, 5.75536765625442647831e-01) (2, 5.16255699565375980598e-01) (3, 5.23778862856751459276e-01) (4, 5.85359895005397090628e-01) (5, 4.68934138640336173331e-01) (6, 4.88283528251232890049e-01) (7, 6.35191712064288260819e-01) (8, 5.69577847958247618365e-01) (9, 4.02782116699426873119e-01) (10, 4.05578474399013289009e-01) (11, 5.86434288227748456990e-01) (12, 5.56166150982190909957e-01) (13, -4.08750326951982517754e-02) (14, 6.74174989150152947914e-01) (15, 5.69379333119675257180e-01) (16, 5.83336121979717292518e-01) (17, 4.37913211440933980434e-01) (18, -8.52191219502154290177e-02) (19, -6.98055380833874777879e-02) (20, 9.36024724693925065655e-03) (21, 4.51353449020150621074e-01) (22, -7.31626580904090745294e-02) (23, 1.09513832059363481336e-02) (24, -8.24579394051067754434e-02) (25, 5.62445200877400089401e-03) (26, 7.65147215800072999503e-03) (27, 6.43308520743089973237e-02) (28, 1.01767383421767099866e-02) (29, -8.21075707877519517242e-02) (30, -9.92448302947141619557e-02) (31, -7.61893205102806142515e-02) (32, -1.10686090777674439600e-01) (33, -1.60530407879323350206e-02) (34, 1.11042729678485097705e-02) (35, 3.00325794314104214944e-02) (36, 5.79652741149621342220e-02) (37, -9.10333746002089522209e-02) (38, -3.51992645041901558445e-02) (39, -1.09610774939224775437e-01) (40, -3.70764566263528438927e-01) (41, -3.44034105935232925599e-01) (42, 4.23513178421058900103e-01) (43, 3.56649353099313004556e-01) (44, 6.14904017408910097409e-01) (45, -2.84310114231790256323e-01) (46, -2.25956584163070350879e-01) (47, -2.33228647055714721770e-01) (48, 4.71804757078465197839e-01) (49, 3.99787045531040940993e-01) (50, 5.60489595341473467727e-01) (51, -2.06558998625705869667e-01) (52, -5.03288332915248215471e-01) (53, -5.17116080157391966310e-01) (54, 6.49948492296480662134e-01) (55, 7.50956845721525434456e-01) (56, 6.37195586203538999470e-01) (57, -3.37697502177189134986e-01) (58, -6.36179396782849515546e-01) (59, -8.01426572838053297154e-01) (60, 5.27503813265498888718e-01) (61, 6.23431766133885623127e-01) (62, 5.00427769697893709555e-01) (63, -2.98376485428920035226e-01) (64, -5.25141942678392203980e-01) (65, -1.51876233858481790584e+00) (66, 5.04007666216426342132e-01) (67, 4.22812671369042658576e-01) (68, -2.61709441161660005815e-01) (69, -2.46313518370504858090e-01) (70, -4.79764861835661082790e-01) (71, -5.14925923449334743687e-01) (72, -2.50003976683239245715e-02) (73, -1.00699886095376875406e-01) (74, -1.23588884038691704248e+00) (75, 5.05310301581496812418e-01) (76, -2.86347171478122941579e-01) (77, -2.47566806672384093213e-01) (78, 5.09705267899371206042e-01) (79, 3.32742004853520290109e-01) (80, -1.52209394679355486391e-01) (81, -2.13873494887839299405e-01) (82, -2.46303569525402665796e-01) (83, -4.70641751687244258573e-01) (84, 5.80940854879947954359e-01) (85, 4.65487791746892476397e-01) (86, 5.31250971719892772782e-01) (87, -1.06359193897101453330e-01) (88, -2.59381211447099579992e-01) (89, -6.92862211250165671572e-01) (90, 7.56096594051593906549e-01) (91, 4.61405882716341697591e-01) (92, 2.08324505784798308383e+00) (93, -2.15589310202393413807e-01) (94, -1.91116661553662220419e-01) (95, -1.58341630272478983699e+00) (96, 4.01777801117837396472e-01) (97, -4.85411961464331853655e-01) (98, -9.37145865354325341423e-02) (99, 3.29599500574109804951e-01) (100, -3.61872975068992297487e-01) (101, -3.22033974327978578245e+00) (102, 4.40269418506402943070e-01) (103, -5.59027542756898143672e-01) (104, -8.57592340491348581466e-01) (105, 4.18132271301246416506e-01) (106, -5.24089258175234884440e-01) (107, -3.66355805272020917940e+00) (108, 2.74881829895295914934e-01) (109, -6.88099742221528143382e-01) (110, -9.38398393203446090638e-01) (111, 2.73478775257557038536e-01) (112, -9.50061958171447895616e-01) (113, -3.41819496331562699964e+00) (114, -5.66085546983765453000e-01) (115, -6.20843011782467368853e-01) (116, -3.52216647417707529044e+00) (117, 3.30935491981327711830e-01) (118, -7.84944043912909283911e-01) (119, -1.80462523842585631506e+00) (120, -6.21780105160331553193e-01) (121, -8.62983342370957307033e-01) (122, -4.99214036357731316684e+00) (123, 3.50412327713553628517e-01) (124, -4.44956824766892855560e-01) (125, -2.01376818516777689183e+00) (126, -5.85049089622985740711e-01) (127, -8.87354706229612655299e-01) (128, -8.15837501541904863700e+00) (129, 3.70024239802943744060e-01) (130, -7.08201332733809807429e-01) (131, -3.49978940905189173094e+00) (132, -1.92706973712040929847e-01) (133, -3.23700384138362551312e-01) (134, -1.91034061738099492089e+00) (135, 4.47637627121042547262e-01) (136, -1.26722546993853302233e+00) (137, -1.14604831293664837233e+01) (138, 4.09003185544175029698e-01) (139, 3.02231951122560911493e-02) (140, -1.45365769139568623558e+00) (141, 4.53941364687320381144e-01) (142, -6.47302621411787959538e-01) (143, -3.23282661376117097518e+00) (144, 6.57364503128222921191e-01) (145, -8.99610386285596558276e-02) (146, -3.61754055341976410443e-01) (147, 3.93650324648773364267e-01) (148, 1.27703643063147381786e-01) (149, -1.90256834233212357432e+00) (150, 4.81617759931452060762e-01) (151, -3.48934875299362970424e-02) (152, -1.33364591999266091094e+00) (153, 6.18405156259541510799e-01) (154, 4.41740955149963032689e-01) (155, 3.63015378345662842463e+00) (156, 4.34433747581862705900e-01) (157, 1.05439297204016291243e-01) (158, -1.63804209312645032703e+00) (159, 5.83890092741890853745e-01) (160, 1.12844851849467131544e+00) (161, 2.58847727484040701640e+00) (162, 2.80207497297588814522e-01) (163, -1.66750562002730834399e-01) (164, -3.29045818449591598309e+00) (165, 4.25316833295550977834e-01) (166, 5.57577319211247202091e-01) (167, -9.26511873632868909745e-01) (168, -2.62433496216928408007e-01) (169, -1.43066699996703822206e-01) (170, -2.74062745316539579932e+00) (171, -1.08525002477113469146e-01) (172, 4.95373871697839973649e-01) (173, -2.02024287382895151310e+00) (174, -2.99839552896479011324e-01) (175, -2.35819192379629366529e-01) (176, -4.04627632963118877285e+00) (177, -9.36765673132530646283e-02) (178, 4.97405351601439948972e-01) (179, -1.06058059255047609781e+00) (180, -2.90270953197098058318e-01) (181, -1.34097762847625506799e-01) (182, -2.23338123785038078495e+00) (183, -1.81103320086244301557e-01) (184, 6.64010953783015445140e-01) (185, -2.40685369939659915550e-01) (186, -4.27493484269296369904e-02) (187, 5.03367131655346300434e-01) (188, -1.56654840980225618097e+00) (189, -1.52813276877785231278e-01) (190, 2.00858045070365198725e+00) (191, -7.40517637203403022994e-01) (192, -2.10620156652447682033e-01) (193, 5.15301948292119393891e-01) (194, -3.33188127495483821239e-01) (195, -1.82463899798350925874e-01) (196, 1.22296748960997558875e+00) (197, -6.24838155339491274631e-01) (198, -1.38880167180074093336e-01) (199, 5.14215517482358053236e-01) (200, -3.51897431699733365118e-01) (201, -2.80770707434598310037e-01) (202, 5.77841697840768664385e-01) (203, -1.47170876154419971726e+00) (204, -1.13381796038163673579e-01) (205, 4.59443580648113192311e-01) (206, -1.29334835143605386687e-01) (207, -2.37558249226683532163e-01) (208, 5.76704680944244651997e-01) (209, -3.43751639352939231120e-01) (210, 5.56069476581513066904e-01) (211, 7.70137617814921182635e-01) (212, 7.30085100863109709435e-02) (213, 3.95718834696125232320e-01) (214, 6.62928476750539674711e-01) (215, 3.90997569887022722313e-01) (216, 6.04483752282565900416e-01) (217, 7.54468904973742637843e-01) (218, 6.62648654772022061010e-01) (219, -1.82980453514445737251e-02) (220, 2.81462366830148191799e-01) (221, -3.66827767417063244082e-01) (222, 6.94973985525312976108e-01) (223, 1.28258593161793332804e+00) (224, 7.48494303895378743086e-01) (225, 1.57192565437894948843e-01) (226, 1.60930162235423057648e-01) (227, -1.54809266663704120370e-01) (228, 7.97628726489589046089e-01) (229, 1.61813529446511483734e+00) (230, 9.54511980732655418436e-01) (231, 1.56841139775438564996e-01) (232, 2.00503165995260218546e-01) (233, -5.71435108131192470715e-01) (234, 6.86858699747158407689e-01) (235, 1.55365312154080403850e+00) (236, 8.28975516873522888517e-01) (237, 6.23242775197882931115e-02) (238, -5.50515266881395834431e-02) (239, -1.74360579439830543080e+00) (240, 5.76840518256820589116e-01) (241, 9.61556903451065370092e-01) (242, 9.29644544490060509290e-01) (243, 1.76521039886469416347e-01) (244, -3.60616731272151228027e-02) (245, -2.27065584908492067162e-02) (246, 5.96237365860614154656e-01) (247, 7.21804283186321837817e-01) (248, 7.19777207609720637294e-01) (249, 4.97233922150374652027e-02) (250, 1.54969498425430340927e-01) (251, 1.33969435905360367833e-01) (252, 4.68495117694390117435e-01) (253, 7.19207615912161424276e-01) (254, 5.97096025368333949146e-01) (255, -4.46114348495572424214e-02) (256, 1.42593531838666343764e-02) (257, 6.56835171875305907398e-04) (258, 5.05159642819147047810e-01) (259, 5.90013321467202533910e-01) (260, 4.30670430557633543422e-01) (261, -1.85943235341764420698e-02) (262, -8.54744018100726116183e-02) (263, 2.39358558758005351974e-02) (264, 5.46462343198513389453e-01) (265, 5.91616200098001421281e-01) (266, 5.17194482840484526243e-01) (267, -8.07479181405759555146e-02) (268, 2.80972641082776058985e-02) (269, 2.47937319995609056766e-02) (270, 4.36760642613516048005e-01) (271, 5.06774583361327857212e-01) (272, 5.16156980386223041002e-01) (273, -5.04416819108949379680e-02) (274, -4.34859089157388148394e-02) (275, 4.99637657721641662012e-02) (276, 4.81977420184446780915e-01) (277, 3.66057843871159083182e-01) (278, 5.58327071932869900550e-01) (279, 4.37667494702531703621e-02) (280, -3.02634801646147280369e-04) (281, -3.49140936086356004631e-02) (282, 5.31864652666880100007e-01) (283, 5.22728352705180920879e-01) (284, 5.25844401691573981594e-01) (285, -3.76397431032044552102e-02) (286, -1.04814950355429203910e-01) (287, -2.77126762989715648422e-02) (288, 4.14697642070090854993e-01) (289, 4.81833751882397076649e-01) (290, 4.22333887755668269115e-01) (291, 4.57589804771903474467e-01) (292, 4.09122995677951295512e-01) (293, 4.35045506450894792216e-01) (294, 4.09822047991853399829e-01) (295, 5.27109091777168470294e-01) (296, 5.52813259541176438283e-01) (297, 5.58326260490518144763e-01) (298, 3.92897882802587083972e-01) (299, 4.99536610785487555919e-01) (300, 9.48841220567563370381e-01) (301, 1.61926951563617684826e+01) (302, -8.86977961179326612751e+00) (0, -2.61564533459300807561e-01) (1, -3.53284691480493684423e-01) (2, -3.28159955723501095548e-01) (3, -1.77728159230902099663e-01) (4, -1.89038304489805603081e-01) (5, -2.75324050976307577177e-01) (6, -3.89428168259461471301e-01) (7, -4.96277454796682448990e-01) (8, -6.46612338555301313647e-01) (9, -1.65977589087839022541e-01) (10, -2.53634602436926259728e-01) (11, -1.53620554308048662406e-01) (12, -1.83777789733776258929e-01) (13, -1.36506412103776397782e-01) (14, -7.14691711869763768306e-01) (15, -1.12014274554890089219e-01) (16, -2.58101932334061368035e-01) (17, -1.02671079664145806221e-01) (18, -4.62601894686487311037e-02) (19, -7.65604320362574530812e-02) (20, -4.55841223718249921593e-01) (21, -1.98610818580233133845e-01) (22, -5.54041859475746523156e-02) (23, -1.91932932633520292320e-01) (24, -1.42498861073770077823e-01) (25, -7.85391737163096126384e-02) (26, -4.51296106393026363879e-01) (27, -2.05155521805220231180e-01) (28, -7.79929235730686953865e-02) (29, -1.09528442770696676778e-01) (30, -7.47928188107016556074e-02) (31, -2.25989159971997574661e-02) (32, -4.34206945822321610517e-02) (33, -2.05909100626860575023e-01) (34, -9.61156388878549039489e-02) (35, -1.70947264149949401668e-01) (36, -1.40645316179008605939e-01) (37, -7.41505139185092282395e-02) (38, 4.38883297619606996265e-02) (39, -1.26961509200999578262e-01) (40, -1.29283611956448635238e-01) (41, -2.11730052564643222990e-01) (42, -2.51030632043835300049e-01) (43, -1.87851352228968447589e-02) (44, 2.96702764767605049745e-02) (45, -1.45740574442656256604e-01) (46, -8.05884615557019290399e-02) (47, -1.88249719392209441393e-01) (48, -3.78457108117287666094e-01) (49, -3.37862180117279975455e-01) (50, -2.44395694600967133825e-01) (51, -1.60075243010275869437e-02) (52, 4.10979407292075660241e-01) (53, 7.02944934609522342761e-01) (54, -5.22928872442373182672e-01) (55, -4.14206306855618044960e-01) (56, -1.75081001576504324824e+00) (57, -2.14453546869505407013e-01) (58, 5.37516698177126439617e-01) (59, 1.33355099057168069443e+00) (60, -2.21641585599605117629e-01) (61, -3.28856565311756277037e-01) (62, -2.97527575613436116864e-02) (63, -1.60501277069992009938e-01) (64, 7.20944513185293400781e-01) (65, 1.24557951901211794166e+00) (66, -1.22577984624114483259e-01) (67, -1.18250974991545215742e-01) (68, 9.01510191568231922243e-02) (69, -1.53535035309500189626e-01) (70, 4.52826303761880044618e-01) (71, 5.23423022669787352257e-01) (72, -9.62612614741378269656e-02) (73, 5.45858012389957014676e-02) (74, 1.48096208938956697132e-01) (75, -1.59120891307118622615e-01) (76, 2.45888017538238828896e-01) (77, 1.62979547855924694622e-01) (78, -1.24816747853867079932e-01) (79, -6.97035399565118229948e-02) (80, 1.76460912188034391157e-01) (81, 3.96751185413308365968e-03) (82, 2.73974280485355436987e-01) (83, 1.99362835639769392371e-01) (84, -4.08486380755435141143e-01) (85, -2.61130728220720476074e-01) (86, -5.80488825315571776997e-01) (87, -6.59866479658179350132e-02) (88, 2.95365104201933403871e-01) (89, 7.61515453980529666289e-01) (90, -2.23941657119670706200e-01) (91, -3.73610468108735327419e-01) (92, -1.12367335823471270473e+00) (93, -1.62564151186580324593e-01) (94, 2.50804963222648558130e-01) (95, 7.33159883198237993795e-01) (96, -5.15533401966358356683e-02) (97, 3.44733543842459522200e-02) (98, 5.50798914481518075981e-01) (99, 1.60355227304093544971e-02) (100, 4.11935673683140157753e-01) (101, 9.07119412187816775983e-01) (102, -3.93783596356510542935e-02) (103, -3.89239160868041144878e-03) (104, 5.68321706228017586859e-01) (105, 1.12157700735259768798e-01) (106, 5.24887581732497610076e-01) (107, 1.82545862507893508209e+00) (108, -1.03231966074454534210e-01) (109, 1.09964524625036849659e-01) (110, 7.60690201456391323909e-01) (111, 6.11995549445375625064e-02) (112, 8.93219895997303003909e-01) (113, 5.03245544253157017778e+00) (114, 2.21889518450620021328e-01) (115, 9.17198007358838857117e-02) (116, 2.59589487474457891736e+00) (117, 1.84736138149015599597e-01) (118, 7.11859671671357108202e-01) (119, 1.27257689617681779559e+00) (120, 2.97472029061242870807e-01) (121, 6.37379200594172634631e-01) (122, 3.60354224844327220012e+00) (123, 1.13984816096865004820e-01) (124, 3.67131021792386880165e-01) (125, 1.23100901712695631751e+00) (126, 3.80509051620005200878e-01) (127, 1.42147787313437490297e+00) (128, 7.11243380628418631062e+00) (129, 2.08527298524432219695e-01) (130, 6.57218782166626436236e-01) (131, 1.23139281839673775387e+00) (132, -4.05110602994149110456e-02) (133, -1.64867341328825967040e-02) (134, 7.35561606897446540465e-01) (135, 1.74147208906813261153e-01) (136, 1.41434888671380010194e+00) (137, 3.52572580527466961087e+00) (138, -4.36470774178618833861e-02) (139, -5.12053618642221708424e-02) (140, 5.22601564406053986644e-01) (141, 1.49824268764084861383e-01) (142, 1.96610319238995107094e-01) (143, 1.25749514334908707447e+00) (144, -8.91041433198142690530e-02) (145, -7.97226837613937422411e-02) (146, 4.02223475475621705666e-01) (147, -6.35786918442821508135e-02) (148, -1.78386869579951166942e-02) (149, 1.06512281267557518127e+00) (150, 9.70417813881240959306e-02) (151, -1.98192344708596424052e-01) (152, 5.30881398625382638912e-01) (153, -9.91165717543810442791e-02) (154, 9.66940407123197641359e-03) (155, 1.20046128127931295282e+00) (156, 2.04219839092192323449e-02) (157, -1.41400127166530747980e-01) (158, 9.57785832868168540699e-01) (159, -7.68547694433548006510e-02) (160, -1.54785161791548597776e+00) (161, -1.60718336565066421961e+00) (162, 9.83463997459657623956e-03) (163, -1.18230397228512473795e-01) (164, 1.94030895789848534250e+00) (165, 5.23558550060315708308e-02) (166, -1.58677763963931600655e-01) (167, 6.62930368232947597740e-01) (168, 1.06654715242936959374e-01) (169, 5.37164457364168401732e-01) (170, 1.90854641558393511858e+00) (171, 7.02851885222665201391e-02) (172, -1.57554382206934184829e-01) (173, 7.30940857293531531802e-01) (174, 5.77216865557454328339e-01) (175, 4.25013947175293005376e-01) (176, 1.94135706533804430762e+00) (177, 4.87969401776510505742e-02) (178, -2.68702160010606871943e-01) (179, 8.38759426482248549028e-01) (180, 2.61706028897923714815e-01) (181, 3.88146163442528946419e-01) (182, 1.39682410052700545222e+00) (183, 1.06184354216904849877e-01) (184, -6.67124507587447457269e-01) (185, 6.05569965805168863859e-01) (186, 1.12259069917374720848e-01) (187, -1.29245475937529191723e-01) (188, 7.32248971364110712301e-01) (189, 1.81731881983773879696e-01) (190, -2.56624489927362109398e+00) (191, 8.64080013036813032734e-01) (192, 1.28168313107950848639e-02) (193, -2.01591039849526476591e-01) (194, 2.55606821106081016914e-01) (195, 2.13382257726530855102e-01) (196, -1.47222082399474807346e+00) (197, 9.65595457231230414052e-01) (198, -1.88716895030864237337e-02) (199, -1.02966780794396139953e-01) (200, 1.79630680907093359666e-01) (201, 2.03005247635709873411e-01) (202, -3.27900915749513854891e-01) (203, 1.33594600159434762077e+00) (204, 1.09814828703810743807e-03) (205, -1.98711902302135173803e-01) (206, 1.55842793759254000241e-01) (207, 4.35952245132742791101e-02) (208, -2.66628603444264533628e-01) (209, 9.41773977919141636050e-01) (210, -3.68635373109715072659e-02) (211, -2.38283773827361988751e-01) (212, 4.91340493548635126597e-02) (213, -1.00943954103981853310e-01) (214, -3.01495334415384341753e-01) (215, 1.30108824196007832885e-01) (216, -2.17798980889777372971e-02) (217, -5.53722003590214173485e-01) (218, -4.19593969794563939613e-02) (219, -9.82585687411677705105e-02) (220, -2.70863937951308642038e-01) (221, -5.64626588718282126922e-02) (222, -5.45067230620189871471e-02) (223, -1.50516340937171966274e+00) (224, -1.64872343273717053558e-01) (225, -2.36629348824339724722e-01) (226, -7.12675730561708853372e-01) (227, -8.06314364556927898331e-02) (228, -2.98233654713863038932e-01) (229, -2.52372742228498303518e+00) (230, -2.82690639872320459425e-01) (231, -1.58866130053521625864e-01) (232, -3.32806099804353050509e-01) (233, 7.79128105217755217993e-01) (234, -3.88904468406413517112e-01) (235, -2.48849086992731027834e+00) (236, -5.98562108605337095391e-01) (237, -7.11211763798029333872e-02) (238, -1.72278020528410569234e-01) (239, 2.10209033142807211192e+00) (240, -2.78896356133075340455e-01) (241, -6.29501452658118743066e-01) (242, -3.27027226424102479552e-01) (243, -1.24649076810728648423e-01) (244, -4.87417821117616500981e-01) (245, 2.46593680919278523955e-01) (246, -2.69387339206192899521e-01) (247, -5.58865673237381566096e-01) (248, -2.58406121506627228790e-01) (249, -2.40162777569042806824e-01) (250, -2.63311786884320053748e-01) (251, -6.92608158720608851899e-02) (252, -2.57396934355519302340e-01) (253, -1.64872958059507385142e-01) (254, -4.34139585197998334465e-01) (255, -8.69177537061640304028e-02) (256, -1.75986782967877564143e-01) (257, -9.64389898349665292132e-02) (258, -2.73563826566562584564e-01) (259, -2.23462939481549355270e-01) (260, -1.49656034039564761473e-01) (261, -1.81194677442938240075e-01) (262, -1.98335965454698934241e-02) (263, -4.79293785969571936589e-02) (264, -1.13925460228256544837e-01) (265, -2.68503485229016070068e-01) (266, -1.98993256295966508551e-01) (267, -2.04222709694850124151e-01) (268, -2.28637611735150403369e-01) (269, -2.29595666057711367269e-01) (270, -1.93631604591392947334e-01) (271, -2.14036248750971436206e-01) (272, -2.91562221722391323731e-01) (273, -9.03205607353116807223e-02) (274, -3.43517158113923262719e-02) (275, -1.56579588777666700583e-01) (276, -1.84124325669823868390e-01) (277, -2.32526779914290437912e-01) (278, -1.53723702972333398087e-01) (279, -1.55759200327712177270e-01) (280, -1.68530523556242817218e-01) (281, -4.07626792501233140009e-02) (282, -2.70829869312002424753e-01) (283, -1.60293580910405353279e-01) (284, -1.40401463772783896555e-01) (285, -2.16876871515065905438e-01) (286, -1.61910421370546842024e-01) (287, -6.95975732950111364294e-02) (288, -2.00658463547136650673e-01) (289, -1.85240196010312246910e-01) (290, -2.28350649024958718414e-01) (291, -2.12649053906804497149e-01) (292, -1.24800487434273993381e-01) (293, -2.00161409017452524006e-01) (294, -2.61152314340054203523e-01) (295, -1.39790494709378432248e-01) (296, -2.80910810050179871045e-01) (297, -1.45286777805305522548e-01) (298, -1.17274829935050964314e-01) (299, -1.93813677059033739880e-01) (300, 1.74957136185059081157e+00) (301, -1.31181243733227699266e+01) (302, 8.83420462659657168558e+00) 
