FANN_FLO_2.1
num_layers=3
learning_rate=0.700000
connection_rate=1.000000
network_type=1
learning_momentum=0.000000
training_algorithm=2
train_error_function=1
train_stop_function=0
cascade_output_change_fraction=0.010000
quickprop_decay=-0.000100
quickprop_mu=1.750000
rprop_increase_factor=1.200000
rprop_decrease_factor=0.500000
rprop_delta_min=0.000000
rprop_delta_max=50.000000
rprop_delta_zero=0.100000
cascade_output_stagnation_epochs=12
cascade_candidate_change_fraction=0.010000
cascade_candidate_stagnation_epochs=12
cascade_max_out_epochs=150
cascade_max_cand_epochs=150
cascade_num_candidate_groups=2
bit_fail_limit=3.49999999999999977796e-01
cascade_candidate_limit=1.00000000000000000000e+03
cascade_weight_multiplier=4.00000000000000022204e-01
cascade_activation_functions_count=10
cascade_activation_functions=3 5 7 8 10 11 14 15 16 17 
cascade_activation_steepnesses_count=4
cascade_activation_steepnesses=2.50000000000000000000e-01 5.00000000000000000000e-01 7.50000000000000000000e-01 1.00000000000000000000e+00 
layer_sizes=301 1 2 
scale_included=0
neurons (num_inputs, activation_function, activation_steepness)=(0, 0, 0.00000000000000000000e+00) (0, 0, 0.00000000000000000000e+00) (0, 0, 0.00000000000000000000e+00) (0, 0, 0.00000000000000000000e+00) (0, 0, 0.00000000000000000000e+00) (0, 0, 0.00000000000000000000e+00) (0, 0, 0.00000000000000000000e+00) (0, 0, 0.00000000000000000000e+00) (0, 0, 0.00000000000000000000e+00) (0, 0, 0.00000000000000000000e+00) (0, 0, 0.00000000000000000000e+00) (0, 0, 0.00000000000000000000e+00) (0, 0, 0.00000000000000000000e+00) (0, 0, 0.00000000000000000000e+00) (0, 0, 0.00000000000000000000e+00) (0, 0, 0.00000000000000000000e+00) (0, 0, 0.00000000000000000000e+00) (0, 0, 0.00000000000000000000e+00) (0, 0, 0.00000000000000000000e+00) (0, 0, 0.00000000000000000000e+00) (0, 0, 0.00000000000000000000e+00) (0, 0, 0.00000000000000000000e+00) (0, 0, 0.00000000000000000000e+00) (0, 0, 0.00000000000000000000e+00) (0, 0, 0.00000000000000000000e+00) (0, 0, 0.00000000000000000000e+00) (0, 0, 0.00000000000000000000e+00) (0, 0, 0.00000000000000000000e+00) (0, 0, 0.00000000000000000000e+00) (0, 0, 0.00000000000000000000e+00) (0, 0, 0.00000000000000000000e+00) (0, 0, 0.00000000000000000000e+00) (0, 0, 0.00000000000000000000e+00) (0, 0, 0.00000000000000000000e+00) (0, 0, 0.00000000000000000000e+00) (0, 0, 0.00000000000000000000e+00) (0, 0, 0.00000000000000000000e+00) (0, 0, 0.00000000000000000000e+00) (0, 0, 0.00000000000000000000e+00) (0, 0, 0.00000000000000000000e+00) (0, 0, 0.00000000000000000000e+00) (0, 0, 0.00000000000000000000e+00) (0, 0, 0.00000000000000000000e+00) (0, 0, 0.00000000000000000000e+00) (0, 0, 0.00000000000000000000e+00) (0, 0, 0.00000000000000000000e+00) (0, 0, 0.00000000000000000000e+00) (0, 0, 0.00000000000000000000e+00) (0, 0, 0.00000000000000000000e+00) (0, 0, 0.00000000000000000000e+00) (0, 0, 0.00000000000000000000e+00) (0, 0, 0.00000000000000000000e+00) (0, 0, 0.00000000000000000000e+00) (0, 0, 0.00000000000000000000e+00) (0, 0, 0.00000000000000000000e+00) (0, 0, 0.00000000000000000000e+00) (0, 0, 0.00000000000000000000e+00) (0, 0, 0.00000000000000000000e+00) (0, 0, 0.00000000000000000000e+00) (0, 0, 0.00000000000000000000e+00) (0, 0, 0.00000000000000000000e+00) (0, 0, 0.00000000000000000000e+00) (0, 0, 0.00000000000000000000e+00) (0, 0, 0.00000000000000000000e+00) (0, 0, 0.00000000000000000000e+00) (0, 0, 0.00000000000000000000e+00) (0, 0, 0.00000000000000000000e+00) (0, 0, 0.00000000000000000000e+00) (0, 0, 0.00000000000000000000e+00) (0, 0, 0.00000000000000000000e+00) (0, 0, 0.00000000000000000000e+00) (0, 0, 0.00000000000000000000e+00) (0, 0, 0.00000000000000000000e+00) (0, 0, 0.00000000000000000000e+00) (0, 0, 0.00000000000000000000e+00) (0, 0, 0.00000000000000000000e+00) (0, 0, 0.00000000000000000000e+00) (0, 0, 0.00000000000000000000e+00) (0, 0, 0.00000000000000000000e+00) (0, 0, 0.00000000000000000000e+00) (0, 0, 0.00000000000000000000e+00) (0, 0, 0.00000000000000000000e+00) (0, 0, 0.00000000000000000000e+00) (0, 0, 0.00000000000000000000e+00) (0, 0, 0.00000000000000000000e+00) (0, 0, 0.00000000000000000000e+00) (0, 0, 0.00000000000000000000e+00) (0, 0, 0.00000000000000000000e+00) (0, 0, 0.00000000000000000000e+00) (0, 0, 0.00000000000000000000e+00) (0, 0, 0.00000000000000000000e+00) (0, 0, 0.00000000000000000000e+00) (0, 0, 0.00000000000000000000e+00) (0, 0, 0.00000000000000000000e+00) (0, 0, 0.00000000000000000000e+00) (0, 0, 0.00000000000000000000e+00) (0, 0, 0.00000000000000000000e+00) (0, 0, 0.00000000000000000000e+00) (0, 0, 0.00000000000000000000e+00) (0, 0, 0.00000000000000000000e+00) (0, 0, 0.00000000000000000000e+00) (0, 0, 0.00000000000000000000e+00) (0, 0, 0.00000000000000000000e+00) (0, 0, 0.00000000000000000000e+00) (0, 0, 0.00000000000000000000e+00) (0, 0, 0.00000000000000000000e+00) (0, 0, 0.00000000000000000000e+00) (0, 0, 0.00000000000000000000e+00) (0, 0, 0.00000000000000000000e+00) (0, 0, 0.00000000000000000000e+00) (0, 0, 0.00000000000000000000e+00) (0, 0, 0.00000000000000000000e+00) (0, 0, 0.00000000000000000000e+00) (0, 0, 0.00000000000000000000e+00) (0, 0, 0.00000000000000000000e+00) (0, 0, 0.00000000000000000000e+00) (0, 0, 0.00000000000000000000e+00) (0, 0, 0.00000000000000000000e+00) (0, 0, 0.00000000000000000000e+00) (0, 0, 0.00000000000000000000e+00) (0, 0, 0.00000000000000000000e+00) (0, 0, 0.00000000000000000000e+00) (0, 0, 0.00000000000000000000e+00) (0, 0, 0.00000000000000000000e+00) (0, 0, 0.00000000000000000000e+00) (0, 0, 0.00000000000000000000e+00) (0, 0, 0.00000000000000000000e+00) (0, 0, 0.00000000000000000000e+00) (0, 0, 0.00000000000000000000e+00) (0, 0, 0.00000000000000000000e+00) (0, 0, 0.00000000000000000000e+00) (0, 0, 0.00000000000000000000e+00) (0, 0, 0.00000000000000000000e+00) (0, 0, 0.00000000000000000000e+00) (0, 0, 0.00000000000000000000e+00) (0, 0, 0.00000000000000000000e+00) (0, 0, 0.00000000000000000000e+00) (0, 0, 0.00000000000000000000e+00) (0, 0, 0.00000000000000000000e+00) (0, 0, 0.00000000000000000000e+00) (0, 0, 0.00000000000000000000e+00) (0, 0, 0.00000000000000000000e+00) (0, 0, 0.00000000000000000000e+00) (0, 0, 0.00000000000000000000e+00) (0, 0, 0.00000000000000000000e+00) (0, 0, 0.00000000000000000000e+00) (0, 0, 0.00000000000000000000e+00) (0, 0, 0.00000000000000000000e+00) (0, 0, 0.00000000000000000000e+00) (0, 0, 0.00000000000000000000e+00) (0, 0, 0.00000000000000000000e+00) (0, 0, 0.00000000000000000000e+00) (0, 0, 0.00000000000000000000e+00) (0, 0, 0.00000000000000000000e+00) (0, 0, 0.00000000000000000000e+00) (0, 0, 0.00000000000000000000e+00) (0, 0, 0.00000000000000000000e+00) (0, 0, 0.00000000000000000000e+00) (0, 0, 0.00000000000000000000e+00) (0, 0, 0.00000000000000000000e+00) (0, 0, 0.00000000000000000000e+00) (0, 0, 0.00000000000000000000e+00) (0, 0, 0.00000000000000000000e+00) (0, 0, 0.00000000000000000000e+00) (0, 0, 0.00000000000000000000e+00) (0, 0, 0.00000000000000000000e+00) (0, 0, 0.00000000000000000000e+00) (0, 0, 0.00000000000000000000e+00) (0, 0, 0.00000000000000000000e+00) (0, 0, 0.00000000000000000000e+00) (0, 0, 0.00000000000000000000e+00) (0, 0, 0.00000000000000000000e+00) (0, 0, 0.00000000000000000000e+00) (0, 0, 0.00000000000000000000e+00) (0, 0, 0.00000000000000000000e+00) (0, 0, 0.00000000000000000000e+00) (0, 0, 0.00000000000000000000e+00) (0, 0, 0.00000000000000000000e+00) (0, 0, 0.00000000000000000000e+00) (0, 0, 0.00000000000000000000e+00) (0, 0, 0.00000000000000000000e+00) (0, 0, 0.00000000000000000000e+00) (0, 0, 0.00000000000000000000e+00) (0, 0, 0.00000000000000000000e+00) (0, 0, 0.00000000000000000000e+00) (0, 0, 0.00000000000000000000e+00) (0, 0, 0.00000000000000000000e+00) (0, 0, 0.00000000000000000000e+00) (0, 0, 0.00000000000000000000e+00) (0, 0, 0.00000000000000000000e+00) (0, 0, 0.00000000000000000000e+00) (0, 0, 0.00000000000000000000e+00) (0, 0, 0.00000000000000000000e+00) (0, 0, 0.00000000000000000000e+00) (0, 0, 0.00000000000000000000e+00) (0, 0, 0.00000000000000000000e+00) (0, 0, 0.00000000000000000000e+00) (0, 0, 0.00000000000000000000e+00) (0, 0, 0.00000000000000000000e+00) (0, 0, 0.00000000000000000000e+00) (0, 0, 0.00000000000000000000e+00) (0, 0, 0.00000000000000000000e+00) (0, 0, 0.00000000000000000000e+00) (0, 0, 0.00000000000000000000e+00) (0, 0, 0.00000000000000000000e+00) (0, 0, 0.00000000000000000000e+00) (0, 0, 0.00000000000000000000e+00) (0, 0, 0.00000000000000000000e+00) (0, 0, 0.00000000000000000000e+00) (0, 0, 0.00000000000000000000e+00) (0, 0, 0.00000000000000000000e+00) (0, 0, 0.00000000000000000000e+00) (0, 0, 0.00000000000000000000e+00) (0, 0, 0.00000000000000000000e+00) (0, 0, 0.00000000000000000000e+00) (0, 0, 0.00000000000000000000e+00) (0, 0, 0.00000000000000000000e+00) (0, 0, 0.00000000000000000000e+00) (0, 0, 0.00000000000000000000e+00) (0, 0, 0.00000000000000000000e+00) (0, 0, 0.00000000000000000000e+00) (0, 0, 0.00000000000000000000e+00) (0, 0, 0.00000000000000000000e+00) (0, 0, 0.00000000000000000000e+00) (0, 0, 0.00000000000000000000e+00) (0, 0, 0.00000000000000000000e+00) (0, 0, 0.00000000000000000000e+00) (0, 0, 0.00000000000000000000e+00) (0, 0, 0.00000000000000000000e+00) (0, 0, 0.00000000000000000000e+00) (0, 0, 0.00000000000000000000e+00) (0, 0, 0.00000000000000000000e+00) (0, 0, 0.00000000000000000000e+00) (0, 0, 0.00000000000000000000e+00) (0, 0, 0.00000000000000000000e+00) (0, 0, 0.00000000000000000000e+00) (0, 0, 0.00000000000000000000e+00) (0, 0, 0.00000000000000000000e+00) (0, 0, 0.00000000000000000000e+00) (0, 0, 0.00000000000000000000e+00) (0, 0, 0.00000000000000000000e+00) (0, 0, 0.00000000000000000000e+00) (0, 0, 0.00000000000000000000e+00) (0, 0, 0.00000000000000000000e+00) (0, 0, 0.00000000000000000000e+00) (0, 0, 0.00000000000000000000e+00) (0, 0, 0.00000000000000000000e+00) (0, 0, 0.00000000000000000000e+00) (0, 0, 0.00000000000000000000e+00) (0, 0, 0.00000000000000000000e+00) (0, 0, 0.00000000000000000000e+00) (0, 0, 0.00000000000000000000e+00) (0, 0, 0.00000000000000000000e+00) (0, 0, 0.00000000000000000000e+00) (0, 0, 0.00000000000000000000e+00) (0, 0, 0.00000000000000000000e+00) (0, 0, 0.00000000000000000000e+00) (0, 0, 0.00000000000000000000e+00) (0, 0, 0.00000000000000000000e+00) (0, 0, 0.00000000000000000000e+00) (0, 0, 0.00000000000000000000e+00) (0, 0, 0.00000000000000000000e+00) (0, 0, 0.00000000000000000000e+00) (0, 0, 0.00000000000000000000e+00) (0, 0, 0.00000000000000000000e+00) (0, 0, 0.00000000000000000000e+00) (0, 0, 0.00000000000000000000e+00) (0, 0, 0.00000000000000000000e+00) (0, 0, 0.00000000000000000000e+00) (0, 0, 0.00000000000000000000e+00) (0, 0, 0.00000000000000000000e+00) (0, 0, 0.00000000000000000000e+00) (0, 0, 0.00000000000000000000e+00) (0, 0, 0.00000000000000000000e+00) (0, 0, 0.00000000000000000000e+00) (0, 0, 0.00000000000000000000e+00) (0, 0, 0.00000000000000000000e+00) (0, 0, 0.00000000000000000000e+00) (0, 0, 0.00000000000000000000e+00) (0, 0, 0.00000000000000000000e+00) (0, 0, 0.00000000000000000000e+00) (0, 0, 0.00000000000000000000e+00) (0, 0, 0.00000000000000000000e+00) (0, 0, 0.00000000000000000000e+00) (0, 0, 0.00000000000000000000e+00) (0, 0, 0.00000000000000000000e+00) (0, 0, 0.00000000000000000000e+00) (0, 0, 0.00000000000000000000e+00) (0, 0, 0.00000000000000000000e+00) (0, 0, 0.00000000000000000000e+00) (0, 0, 0.00000000000000000000e+00) (0, 0, 0.00000000000000000000e+00) (0, 0, 0.00000000000000000000e+00) (0, 0, 0.00000000000000000000e+00) (0, 0, 0.00000000000000000000e+00) (0, 0, 0.00000000000000000000e+00) (0, 0, 0.00000000000000000000e+00) (0, 0, 0.00000000000000000000e+00) (0, 0, 0.00000000000000000000e+00) (0, 0, 0.00000000000000000000e+00) (0, 0, 0.00000000000000000000e+00) (301, 10, 1.00000000000000000000e+00) (302, 5, 5.00000000000000000000e-01) (302, 5, 5.00000000000000000000e-01) 
connections (connected_to_neuron, weight)=(0, 8.34127373700449048499e+00) (1, 8.36295361523935376624e+00) (2, 8.87358684544870435218e+00) (3, 7.52390527432272193664e+00) (4, 7.75705341701814710120e+00) (5, 7.42369776671240089172e+00) (6, 1.62475989843994383932e+01) (7, 1.57267285670429455280e+01) (8, 1.64272570993095641256e+01) (9, 1.19813044360975293756e+01) (10, 1.13938101819852821706e+01) (11, 8.46295200087793020316e+00) (12, 1.71623315002113585592e+01) (13, 1.68851554776817565084e+01) (14, 1.61986008669525389791e+01) (15, 1.14178403905729286549e+01) (16, 1.18852100662092237116e+01) (17, 8.76050768592126516410e+00) (18, 3.26914809666349128747e+01) (19, 1.56442020322471844196e+01) (20, 3.31058855227901176477e+01) (21, 1.71644777442604308249e+01) (22, 1.58350431110054259420e+01) (23, 9.08667824961908010550e+00) (24, 3.28586096636726097131e+01) (25, 3.37308169774486259485e+01) (26, 3.28982046119643882776e+01) (27, 1.62726821686416869284e+01) (28, 1.68589495803505187155e+01) (29, 8.07004521586663869925e+00) (30, 3.40362847022487358117e+01) (31, 3.30048999361468986535e+01) (32, 3.44841507844402030969e+01) (33, 1.64044362689644103170e+01) (34, 1.60209933902412657858e+01) (35, 6.12022766285329566927e+00) (36, 3.36304341725780204797e+01) (37, 3.40549950770808891320e+01) (38, 3.32489000133945182824e+01) (39, 1.55363582606703047873e+01) (40, 1.68696381236702208639e+01) (41, 4.46411714955333494004e+00) (42, 3.40345647506190971399e+01) (43, 3.38207487039043144250e+01) (44, 1.69925510074287657858e+01) (45, 3.28668887190295890832e+01) (46, 3.32269838623477653528e+01) (47, 5.85422396167281888779e+00) (48, 3.45075949601604179406e+01) (49, 3.33947554997874931360e+01) (50, 1.71417043592125182272e+01) (51, 3.30921475462390617395e+01) (52, 3.31929563455058769250e+01) (53, 5.12545939874948608406e+00) (54, 3.30614006094409660363e+01) (55, 3.35278566054774955774e+01) (56, 1.68175783540397887350e+01) (57, 3.34358959369136528039e+01) (58, 3.44318854979945854211e+01) (59, 6.69470983558088050813e+00) (60, 3.43861396483852104211e+01) (61, 3.39468373231364921594e+01) (62, 8.54258964755304006644e+00) (63, 3.43489575557185844445e+01) (64, 3.29849966935588554406e+01) (65, 7.19730622120864715896e+00) (66, 3.27184495202972129846e+01) (67, 3.40917214326335624719e+01) (68, 2.50743427806941632241e+00) (69, 3.34436401895953849817e+01) (70, 3.42594264916850761438e+01) (71, 8.46490747933694898109e+00) (72, 3.35510357789470390344e+01) (73, 3.37726582459880546594e+01) (74, 4.63181447587765360296e-01) (75, 3.31773098282291130090e+01) (76, 3.41158377103282646203e+01) (77, 1.11288240245679848073e+01) (78, 3.26771885923816398645e+01) (79, 3.41020997933818534875e+01) (80, 4.85244169272664649384e+00) (81, 3.44502395562602714563e+01) (82, 3.26729143731071189904e+01) (83, 1.06714936188558571217e+01) (84, 3.26944332889987663293e+01) (85, 3.32106056980563835168e+01) (86, 6.01838075622085355576e+00) (87, 3.41433582477046684289e+01) (88, 3.41227923802806571985e+01) (89, 8.92496747975656568030e+00) (90, 3.30873322658015922570e+01) (91, 3.39875991515590385461e+01) (92, 8.49221963111642885735e-01) (93, 3.45101205281688407922e+01) (94, 3.38152239493800834680e+01) (95, 8.81175942426034985999e+00) (96, 1.50737609123586970838e+01) (97, 1.64937233632206279310e+01) (98, 2.74649697198527897868e+00) (99, 3.41987921170665458703e+01) (100, 3.29322714380695060754e+01) (101, 1.61361390139251952291e+01) (102, 1.57970794146656370316e+01) (103, 1.64433570807575542005e+01) (104, 2.88828003544307487793e-01) (105, 3.37248877458049491906e+01) (106, 3.26155747718884185815e+01) (107, 3.41346486978007988000e+01) (108, 1.53258655076622343216e+01) (109, 1.52528132801651334916e+01) (110, 2.20507156010924010303e+00) (111, 3.28303709797336296106e+01) (112, 3.26979607961847023034e+01) (113, 3.38646207026912406945e+01) (114, 1.59716419284939128431e+01) (115, 1.53524439936279630814e+01) (116, 1.04354938771782590479e+00) (117, 3.31519182495547966028e+01) (118, 3.44883335999919609094e+01) (119, 3.41529765300227836633e+01) (120, 1.52102656369804716263e+01) (121, 1.55380922859310484085e+01) (122, -3.83973971034450300976e+00) (123, 3.37242226771785453820e+01) (124, 3.30431206993533805871e+01) (125, 1.53968930249809599076e+01) (126, 1.56693618004917478714e+01) (127, 1.55931722825168943558e+01) (128, -3.06480300597621635461e+01) (129, 3.42149946860744194055e+01) (130, 3.27868722848369316125e+01) (131, 3.09879485970396695294e+00) (132, 1.54686160092949247513e+01) (133, 1.60602423852085429701e+01) (134, -3.08012030295802787805e+01) (135, 3.30036678187324241662e+01) (136, 3.27800380162669853235e+01) (137, 3.53147667302745427165e+00) (138, 1.51007428696154910597e+01) (139, 1.55821941798328733597e+01) (140, -3.24616163208855823541e+01) (141, 3.38086898498012260461e+01) (142, 3.34050966672374443078e+01) (143, -3.22873648576213554406e+01) (144, 3.31519776157809928918e+01) (145, 1.68530292218326884779e+01) (146, 2.29842477693217839274e+00) (147, 3.31821617059184745813e+01) (148, 3.29998554162456230188e+01) (149, -3.19753886036349932454e+01) (150, 3.28138052992297843957e+01) (151, 1.56864117091297483597e+01) (152, 1.60864129965900737318e+01) (153, 3.39093387298061088586e+01) (154, 3.44031657151653007531e+01) (155, -3.09253535441829399133e+01) (156, 3.42987632922603324914e+01) (157, 3.30674354605151847863e+01) (158, 1.51939046090244627152e+01) (159, 3.41768189839793876672e+01) (160, 3.27610972694827751184e+01) (161, -3.20741102866603569055e+01) (162, 3.44634368590785697961e+01) (163, 3.32222447566463188195e+01) (164, 3.40260821752025321985e+01) (165, 3.41883195809795097375e+01) (166, 3.37022031716777519250e+01) (167, -3.07650077514125541711e+01) (168, 3.40050678424312309289e+01) (169, 3.37954776458217338586e+01) (170, 3.28595129720641807580e+01) (171, 3.40671608619167045617e+01) (172, 3.30828345589114860559e+01) (173, 2.93429582967418278727e+00) (174, 3.43035053185893730188e+01) (175, 3.37111028603984550500e+01) (176, 3.35888375215007499719e+01) (177, 3.28872016839458183313e+01) (178, 3.43695552520229057336e+01) (179, 3.40649835042430595422e+01) (180, 3.34355223946048454309e+01) (181, 3.26620275698377326989e+01) (182, 7.34239534833200124808e+00) (183, 3.45144668988658622766e+01) (184, 3.40476570300533012414e+01) (185, 3.26281360484434799218e+01) (186, 3.41151992253734306360e+01) (187, 1.66700313474327330709e+01) (188, 1.54679676824657152956e+00) (189, 3.43016351632549003625e+01) (190, 3.34805734924747184778e+01) (191, 3.34092501573039726281e+01) (192, 3.27536107174827293420e+01) (193, 1.09129499486783974049e+01) (194, 1.63569016417101731342e+00) (195, 3.42559836081935600305e+01) (196, 3.30896641187144950891e+01) (197, 3.32886559538318351770e+01) (198, 3.40170614890529350305e+01) (199, 1.54183431799799208761e+01) (200, 9.37735180644671428851e-01) (201, 3.43528652362300590539e+01) (202, 3.41168506316615776086e+01) (203, 3.31219257883502677942e+01) (204, 3.35724325351192192102e+01) (205, 1.13892957261899940846e+01) (206, 7.53872215562253700227e+00) (207, 3.26399371944143013025e+01) (208, 3.42625155620052055383e+01) (209, 3.41575415305568412805e+01) (210, 3.41812113694621757531e+01) (211, 1.60216491605430846334e+01) (212, 1.71408038522392516256e+01) (213, 3.44038052730037406945e+01) (214, 3.31698391012622550988e+01) (215, 1.66671280051857237936e+01) (216, 3.45082320146037773156e+01) (217, 1.56086494411617504596e+01) (218, 3.31259384326411918664e+01) (219, 3.31587612800075248742e+01) (220, 3.25440077952815727258e+01) (221, 1.69277465726524596334e+01) (222, 3.40443021230174736047e+01) (223, 1.56188532199054943561e+01) (224, 3.29841471783591941858e+01) (225, 3.36307547263576225305e+01) (226, 3.45061834029628471399e+01) (227, 1.63950460340172057272e+01) (228, 3.43957014255000785852e+01) (229, 3.40019121341182426477e+01) (230, 3.35997917823268608117e+01) (231, 3.44347927741481498742e+01) (232, 3.38334446124507621789e+01) (233, 8.02435625796625373596e+00) (234, 3.30353857449962333703e+01) (235, 3.28845442704631523156e+01) (236, 3.25730000197662548089e+01) (237, 3.28233720831348136926e+01) (238, 3.30007721654845909143e+01) (239, 7.54120921903043495149e+00) (240, 3.44572043590022758508e+01) (241, 3.26606507025434211755e+01) (242, 3.29671785406543449426e+01) (243, 3.42317313126994804406e+01) (244, 3.25431230928523973489e+01) (245, 5.44632064803603910264e+00) (246, 3.35325823001338676477e+01) (247, 3.25300222163795069719e+01) (248, 3.38533044032527641320e+01) (249, 3.41348115376903251672e+01) (250, 3.31650741867496208215e+01) (251, 4.21644701995137793915e+00) (252, 3.36962812118007377649e+01) (253, 3.26880434773637489343e+01) (254, 3.41238027982188896203e+01) (255, 1.70016632463127379538e+01) (256, 1.66400329257637267233e+01) (257, 4.45149745978597266571e+00) (258, 3.31854883007480339074e+01) (259, 3.36694575719310478235e+01) (260, 3.35892327002956108117e+01) (261, 1.71065148498207335592e+01) (262, 1.64278614904075865866e+01) (263, 3.24418848194364084492e+00) (264, 3.29355476371719078088e+01) (265, 3.40945938996745780969e+01) (266, 3.32621793322040275598e+01) (267, 1.58297823752552275778e+01) (268, 1.72392006303459410788e+01) (269, 6.09917506170572387703e+00) (270, 3.27753117553664878869e+01) (271, 3.43301280908061698938e+01) (272, 3.38761835269405082727e+01) (273, 1.60637249733597045065e+01) (274, 1.68854705478340392233e+01) (275, 8.49168942668206838675e+00) (276, 3.43083799056483940149e+01) (277, 1.58967199708610777975e+01) (278, 3.39019102029277519250e+01) (279, 1.64852955724388365866e+01) (280, 1.55101986612468962790e+01) (281, 7.14174376227624740920e+00) (282, 1.58375655795723204733e+01) (283, 1.66827706481605773092e+01) (284, 3.27099857352449134851e+01) (285, 1.54400355155855422140e+01) (286, 1.63181568767219786764e+01) (287, 8.81041200166055737952e+00) (288, 1.70249796296745543600e+01) (289, 1.69799358035713439108e+01) (290, 1.59744341160446410299e+01) (291, 1.60928793932586913229e+01) (292, 1.67201738740593199850e+01) (293, 1.16789707235197059987e+01) (294, 1.11158429674009315846e+01) (295, 1.17773406795362465260e+01) (296, 1.12522317460874550221e+01) (297, 1.18543129257062940241e+01) (298, 1.02408460966447822926e+01) (299, 8.46392948632547437171e+00) (300, -5.38216243559624452075e+00) (0, 3.18363754276963284440e-01) (1, 2.01284045551749252168e-01) (2, 2.04097641830178283540e-01) (3, 3.04086847429009488053e-01) (4, 2.51366412465306388047e-01) (5, 2.40031412069531518982e-01) (6, 2.95942379359932949967e-01) (7, 2.35134920303555566834e-01) (8, 2.12238712434502679871e-01) (9, 2.94191850547524502701e-01) (10, 3.26241953496666958756e-01) (11, 2.48722700600358087586e-01) (12, 2.95600144390793850846e-01) (13, 2.73191860143872311539e-01) (14, 1.67021354858609222260e-01) (15, 3.32871107582779934830e-01) (16, 2.91404633049698880143e-01) (17, 3.15117581014367154069e-01) (18, 1.84121078078480743256e-01) (19, 2.08381602738829690979e-01) (20, 2.64063289587231686539e-01) (21, 2.49826101784440118836e-01) (22, 2.88948653464051297135e-01) (23, 2.91463105206223538346e-01) (24, 3.26336441759797146744e-01) (25, 2.97281442408295681901e-01) (26, 1.70917203848095916596e-01) (27, 2.65297359053822567887e-01) (28, 2.30769610230656702088e-01) (29, 2.37447410321376728426e-01) (30, 2.99103064660759976334e-01) (31, 1.94036221329899810639e-01) (32, 2.65491714899273922867e-01) (33, 3.48103566293450406022e-01) (34, 3.43025921110840847916e-01) (35, 1.79903588688514581850e-01) (36, 2.15174975688122160911e-01) (37, 2.66008297795914006034e-01) (38, 2.41798764292927820252e-01) (39, 2.90179414872857144303e-01) (40, 2.22965872113438684510e-01) (41, 2.31086179113529133211e-01) (42, 1.65942105347774815360e-01) (43, 1.45606006378792118827e-01) (44, 3.31038294558259060807e-01) (45, 1.95729179506035827485e-01) (46, 3.41242833261223843522e-01) (47, 2.85488381481311559451e-01) (48, 1.37886757845543217460e-01) (49, 1.52403901214264225761e-01) (50, 3.20630235795708706803e-01) (51, 2.64715766732426693864e-01) (52, 2.64995722298356106705e-01) (53, 2.72624350583694274874e-01) (54, 1.83218865538500141898e-01) (55, 2.18372168833874114036e-01) (56, 1.96666037862034820405e-01) (57, 2.16901781235667306946e-01) (58, 3.46435247187348416276e-01) (59, 2.90481104946277379764e-01) (60, 2.63246591086052250663e-01) (61, 2.72578294272087406913e-01) (62, 3.11277581577035000748e-01) (63, 1.73641162807606053153e-01) (64, 2.65584717387817692558e-01) (65, 3.17348978912971257937e-01) (66, 1.80305010522268605033e-01) (67, 1.43525416845939945976e-01) (68, 2.46122985577724384676e-01) (69, 1.89285852609820004488e-01) (70, 2.00886898337549801852e-01) (71, 3.13991702592513799441e-01) (72, 3.24853072757385563651e-01) (73, 3.07315508718155216972e-01) (74, 3.22363428270957708133e-01) (75, 1.89824840359666291434e-01) (76, 3.90845914295204210909e-02) (77, 3.08509118354461431277e-01) (78, -3.20538862289548309725e-01) (79, -3.84981698037743957919e-01) (80, 6.22431633145904772419e-01) (81, 6.76065630543017104248e-02) (82, 1.47249264948346558768e-01) (83, 2.15434709762068826722e-01) (84, -5.06572049420655479146e-01) (85, -2.40221709326393306760e-01) (86, 1.77880222941369237066e-02) (87, 2.08560070328690894126e-01) (88, 5.71449180057532757360e-02) (89, 2.87910698179932644791e-01) (90, -1.51563791735399133742e+00) (91, -5.93611249943460927980e-01) (92, 1.73489816497767290748e-01) (93, -4.50722171310208474804e-01) (94, 2.19564117949295672938e-01) (95, 3.51605160360070279069e-01) (96, -1.83513198546431288705e+00) (97, -1.90470897737541666750e+00) (98, 7.78960201778631095015e-02) (99, -4.33729710373900567699e-01) (100, 1.92407198708344190363e-01) (101, 2.99269674544068386979e-01) (102, -3.16152899224615957507e+00) (103, -3.02333572019196417102e+00) (104, 8.06777846535769560532e-01) (105, -3.50959085958497951641e-01) (106, 1.43585928242493360285e-01) (107, 2.80064171378346493668e-01) (108, -4.19558138299147742600e+00) (109, -2.98396720994568820373e+00) (110, 4.71838717700593435200e-01) (111, -5.89373017753098360494e-01) (112, -4.87598923804797634851e-01) (113, -3.69294801671501249363e-01) (114, -4.18480482596318381638e+00) (115, -2.71511278387153875968e+00) (116, -3.12676991095191203485e-01) (117, -6.37626953122342854385e-01) (118, -4.82280186469290717000e-01) (119, -5.99781422039056932860e-01) (120, -4.11051582443873808614e+00) (121, -1.98003537333867707382e+00) (122, 3.03661374995097155249e-01) (123, -7.47632558970173333179e-01) (124, -5.69124948317673351461e-01) (125, -1.45091172124927969556e+00) (126, -2.37459937458926351184e+00) (127, -1.63152372378746823856e+00) (128, 2.20517808116785207773e+00) (129, -7.74407972139942613055e-01) (130, -5.75199705019625806557e-01) (131, -1.50893605469059082225e+01) (132, -5.95525738090372014355e-01) (133, -1.54535289395491437503e+00) (134, 1.86490104290777125584e+01) (135, -7.15981659037697282244e-01) (136, -5.59249502148944310775e-01) (137, -1.18896583993408846425e+01) (138, -7.56304938584661412548e-01) (139, -1.17451572732616549288e+00) (140, 3.72533091805452931666e+00) (141, -6.54681850714313950945e-01) (142, -6.70386684084479878010e-01) (143, 1.44100333539231106883e+00) (144, -7.97364723426926103045e-01) (145, -9.06777641105112164333e-01) (146, 7.07615647790303392561e-01) (147, -6.98374918861119686753e-01) (148, -6.42084760637436025021e-01) (149, 1.13560032038709302071e+00) (150, -6.13697637346107049972e-01) (151, -1.14328536156152682501e+00) (152, -5.79950576663175731973e-01) (153, -6.37469678384988247544e-01) (154, -1.35893524262064135932e-01) (155, 1.30116290538331624838e+00) (156, -4.80701167113134375519e-01) (157, -4.09188764745550659363e-01) (158, 7.55312103724141481464e-01) (159, -6.79833177966701951433e-01) (160, -1.51479484578316947463e-01) (161, 1.37339247617029025506e+00) (162, 8.26424851018702499861e-02) (163, 6.73219573120778236319e-02) (164, 2.82552099581558469055e-01) (165, -1.09902291882370928278e+00) (166, -6.50645553333489834458e-01) (167, 6.52702463778418118245e-01) (168, 4.77296242777202409102e-02) (169, 2.19685239407398980038e-01) (170, 1.35337377344432269188e-01) (171, -1.17958576369618395319e+00) (172, -6.46756625933377682358e-01) (173, -1.82988208861876588962e+00) (174, 1.26693144898701454126e-01) (175, 1.00885959414248230215e-01) (176, 8.49581770384477408253e-02) (177, -6.65784780425655808855e-01) (178, -4.51190847930748262229e-01) (179, -1.88627400505897546701e+00) (180, 2.34593786894030209567e-01) (181, 1.46761619149393673922e-01) (182, 4.26027181430499501946e-01) (183, -7.04013507081000744492e-01) (184, -3.68628768234817050242e-01) (185, -7.33267939848630256883e-01) (186, 8.72239327418276727544e-02) (187, 1.88901435562388725353e-01) (188, 4.69822364731471375787e-01) (189, -6.30277625484196968308e-01) (190, -6.18873366297674865066e-01) (191, -5.91502434773175655991e-01) (192, 2.54601203499979555911e-01) (193, 3.53879003052445462174e-01) (194, 5.77785398771781921745e-01) (195, -6.68584230312929461704e-01) (196, -5.76423260548117544211e-01) (197, -6.40203212832445078817e-01) (198, 1.57649323939032193209e-01) (199, 1.22944541254060152324e-01) (200, 6.10450323631782421074e-01) (201, -4.54123946686616819512e-01) (202, -5.84176077355972100946e-01) (203, -3.41395733822580427219e-01) (204, 2.57304560371653889828e-01) (205, 3.09713958029480984635e-01) (206, 1.89216270542285791567e-01) (207, -3.16822700366687637352e-01) (208, -3.90707984730911117577e-01) (209, 3.53548048262330105729e-01) (210, 1.36575397082583760433e-01) (211, 2.43802165810795862244e-01) (212, 1.63075398632304496838e-01) (213, 2.06286617081452100519e-01) (214, 1.63151823442269056086e-01) (215, 2.40663593833180505799e-01) (216, 2.72112693616168299648e-01) (217, 3.17588059429856350846e-01) (218, 2.74467896648661890957e-01) (219, 1.85619079034615247492e-01) (220, 1.10673614304352546656e-01) (221, 2.08673270617457468079e-01) (222, 1.75347790716833706881e-01) (223, 2.32487118069859582947e-01) (224, 1.11871492712444967066e-01) (225, 1.24566719530768088564e-01) (226, 2.81625087256096195976e-01) (227, 2.97526655916901638932e-01) (228, 1.73229069112486477877e-01) (229, 1.97623761568995498505e-01) (230, 2.47511201201624453372e-01) (231, 2.32833701069019682883e-01) (232, 1.66108037228248905937e-01) (233, 2.17532436794183603457e-01) (234, 2.09186949293900165125e-01) (235, 1.63899084751339935151e-01) (236, 2.27280833285141620204e-01) (237, 3.51889295701714566178e-01) (238, 3.51409105782242825455e-01) (239, 2.85773984587333440555e-01) (240, 2.54756577907747805423e-01) (241, 2.10608137969704706238e-01) (242, 2.96105747035033395331e-02) (243, 2.36039241974087793396e-01) (244, 1.88523417536946319428e-01) (245, 3.09259496128700017703e-01) (246, 1.94879882495690076594e-01) (247, 1.83259746257992767182e-01) (248, 1.26881994765091682398e-01) (249, 3.18697227363320401139e-01) (250, 3.40507505659791043229e-01) (251, 3.54052684700629949344e-01) (252, 4.55475379636771926517e-02) (253, 2.38478924030922301291e-01) (254, 8.65742568781860122318e-02) (255, 2.24631345097752649353e-01) (256, 3.21394993190499356217e-01) (257, 1.75833470618865839175e-01) (258, 1.49197998339794468681e-01) (259, 2.17247697407863982200e-01) (260, 7.34916780999191054935e-02) (261, 3.55058549170228054948e-01) (262, 3.30709992174836209244e-01) (263, 2.47233844792983936678e-01) (264, 1.81488386238478016654e-01) (265, 3.11525611405106594987e-01) (266, 1.11167379181671882593e-01) (267, 1.98260748957129501191e-01) (268, 3.08317763929101040787e-01) (269, 2.52347751951358723055e-01) (270, 2.92932118172310185233e-01) (271, 3.03560821537705471940e-01) (272, 1.62990324657250135187e-01) (273, 3.12034232740136197037e-01) (274, 1.84502927784653686372e-01) (275, 3.23142422561379483170e-01) (276, 2.48053973738881189393e-01) (277, 3.51011483196946194596e-01) (278, 3.33442161674164128105e-01) (279, 3.46564648871155789323e-01) (280, 3.14611567382546475358e-01) (281, 3.36715383653374722428e-01) (282, 3.27377585892411282487e-01) (283, 3.31787778262826016373e-01) (284, 2.37960016553135950135e-01) (285, 1.85580512706967376557e-01) (286, 2.01321976457568191377e-01) (287, 2.04257870291205428925e-01) (288, 1.88174238626690887299e-01) (289, 2.13285694097014505433e-01) (290, 2.84271298174592068619e-01) (291, 2.33294582192631799744e-01) (292, 2.13247103814812738465e-01) (293, 2.59884132270546963639e-01) (294, 3.07288689737053921647e-01) (295, 2.57501213078232871201e-01) (296, 2.16312596772643167542e-01) (297, 1.90084738855095886079e-01) (298, 3.00664825563164761490e-01) (299, 1.69533206348153137055e-01) (300, 5.93951856656310117621e-01) (301, 4.14877058172306578676e-01) (0, -2.26077019572280268900e-01) (1, -1.64442769587062220804e-01) (2, -2.78627924025080908610e-01) (3, -2.69139926284573782755e-01) (4, -1.35036981999896305018e-01) (5, -3.10582637190841059915e-01) (6, -1.56857422875108815097e-01) (7, -1.19796983288469480189e-01) (8, -2.95049100505056616228e-01) (9, -1.84715605676196437113e-01) (10, -1.79608217775843959085e-01) (11, -1.32756508290789859705e-01) (12, -1.86990450828942694761e-01) (13, -1.77472892909917273618e-01) (14, -2.24448937683972754575e-01) (15, -1.75832737011663964299e-01) (16, -1.50573704166166832952e-01) (17, -2.00732923448108058206e-01) (18, -1.20420786699938942022e-01) (19, -2.70050312540221382207e-01) (20, -2.43104874304223200765e-01) (21, -2.64558195842258869757e-01) (22, -2.27013147292482175832e-01) (23, -1.66771776378176972422e-01) (24, -2.90031808576274086064e-01) (25, -1.09496268591570980466e-01) (26, -2.77102436086821724004e-01) (27, -2.70157004562961267080e-01) (28, -1.79041399476873142049e-01) (29, -2.91120260357878912760e-01) (30, -1.40948596558261002309e-01) (31, -2.62663091680693794316e-01) (32, -9.97666149946929287085e-02) (33, -2.92233991584468055791e-01) (34, -2.19573288081037321096e-01) (35, -1.35914958417437836680e-01) (36, -2.75474104246783424443e-01) (37, -2.53301049730467964238e-01) (38, -1.19241195878672767705e-01) (39, -2.62506331464934516973e-01) (40, -1.10674115976977474607e-01) (41, -1.99960789978526454203e-01) (42, -2.67920310756850410527e-01) (43, -1.95766742489028117147e-01) (44, -2.47081953248667829381e-01) (45, -1.90471428594279429403e-01) (46, -2.50375996491599250859e-01) (47, -4.89716831978146249771e-01) (48, -2.63861815592932869023e-01) (49, -2.71908159515547920293e-01) (50, -2.47593849113869807210e-01) (51, -2.08078044614482066121e-01) (52, -2.15242865643191477742e-01) (53, -3.73890202875916177749e-01) (54, -2.47507291993785044637e-01) (55, -2.06386032662081858602e-01) (56, -1.86325996039258756642e-01) (57, -2.25721086523223063436e-01) (58, -1.62541601023364207235e-01) (59, -2.64707058072112200175e-01) (60, -1.89498807451415202108e-01) (61, -2.04601559004473826375e-01) (62, -2.22362462205641375768e-01) (63, -1.90376783868956706014e-01) (64, -1.97946909031558176961e-01) (65, -1.27934310359709285665e-01) (66, -1.98949228188681742635e-01) (67, -1.74532371720957896200e-01) (68, -1.11260173985003074648e+00) (69, -2.19301785490203043905e-01) (70, -1.38150054177928111043e-01) (71, -2.94132191462271264104e-01) (72, -2.91920039019274879522e-01) (73, -1.07181730827975371656e-01) (74, -1.02126532190679153445e+00) (75, 4.68366727830484497197e-01) (76, -1.98764520845103404012e-01) (77, -1.42497647328131304967e-01) (78, 3.87143173232390225280e-01) (79, 4.41062369361235551146e-01) (80, -1.11052647517602620653e+00) (81, 5.64960765817691168422e-01) (82, 4.35552981348350631841e-01) (83, -2.31871392352335559117e-01) (84, 8.78321103778200273915e-01) (85, 3.83254312887503445495e-01) (86, 5.73609405367041080837e-01) (87, 6.30919280627299627895e-01) (88, -7.49381695100539424459e-02) (89, -2.03021738452665911900e-01) (90, 1.65456806149954172014e+00) (91, 1.36081887360454745206e+00) (92, -3.81427413644541302151e-01) (93, 5.92415782788325628871e-01) (94, -5.70364955970519074691e-02) (95, -2.07792933804743396031e-01) (96, 2.63560240851727289879e+00) (97, 2.55068321662035746300e+00) (98, 1.81648230908235674974e-01) (99, 6.24581727364589056606e-01) (100, 5.57529833765343041385e-01) (101, -1.22698072118513620832e-01) (102, 2.52886935704916604450e+00) (103, 2.64883295336343538295e+00) (104, 3.01552549831725857921e-01) (105, 5.81886219957400641078e-01) (106, 4.23273731620624649175e-01) (107, -2.11541395395669379331e-01) (108, 2.63780839377611675545e+00) (109, 2.60454460614889660164e+00) (110, -1.65948654621500746309e+00) (111, 5.66318380811740240688e-01) (112, 4.59874811747599698819e-01) (113, 4.61060353221014129765e-01) (114, 2.53286680215567239216e+00) (115, 2.58329907012786463838e+00) (116, -1.92293294327107355812e+00) (117, 4.40085997845311327481e-01) (118, 5.29169502833415239529e-01) (119, 5.14317324425358823881e-01) (120, 1.48049895147726351396e+00) (121, 1.49048038571160601506e+00) (122, 2.34652047478778991163e-01) (123, 5.96490428263869887360e-01) (124, 5.52832437719483760219e-01) (125, 2.45058291581902709666e+00) (126, 1.39363931435901178268e+00) (127, 1.40373268722575450518e+00) (128, 9.36777245712702155700e-02) (129, 5.47707789058413996308e-01) (130, 5.23964547033038519075e-01) (131, 2.92782963940699758609e+00) (132, 5.21651487651753842378e-01) (133, 1.41511899231951976397e+00) (134, -6.22010691251995062601e+00) (135, 5.36465496237006456148e-01) (136, 4.92655337269034709902e-01) (137, 1.85572825761161936953e+01) (138, 6.14042910981233425183e-01) (139, 1.49274881928246783147e+00) (140, -1.42683232202388836640e+01) (141, 6.52329296285834914215e-01) (142, 5.41938315379674628858e-01) (143, 1.04508283822599512547e+00) (144, 5.03798220718827627351e-01) (145, 5.81135892975233159241e-01) (146, -2.08897005955809422773e+00) (147, 6.06896175111909297328e-01) (148, 4.30807839931412583923e-01) (149, 3.68959496002682019178e-01) (150, 5.11932310129132650545e-01) (151, 5.09519519019029476503e-01) (152, 3.14799225174543861883e+00) (153, 6.38375851559694118542e-01) (154, 4.87321206345869839538e-01) (155, 4.42361428279721968782e-01) (156, 5.34207817021298825289e-01) (157, 4.94513081121347231051e-01) (158, -1.73080529038125141561e+00) (159, 5.34775734359946519625e-01) (160, 3.49690498907056154798e-02) (161, 4.10285222540530236657e-01) (162, 6.32986484135766414028e-01) (163, 4.67036219048402700960e-01) (164, -1.78376033083151774861e+00) (165, 5.40714295315645077089e-01) (166, 4.13087671846858184299e-01) (167, 2.26421492892295361798e+00) (168, 6.01771178820659002895e-01) (169, 4.92944470840747550611e-01) (170, -3.40254375369363648574e-01) (171, 6.20656178998849950013e-01) (172, 3.56909889028599991434e-01) (173, 2.71601270398781258208e+00) (174, 6.04067701080371222133e-01) (175, 5.12158463874388680814e-01) (176, -1.93159486314940592733e-01) (177, 5.45461178238120569794e-01) (178, 3.57536782487942517150e-01) (179, -9.54581942934699390069e-02) (180, -2.04282323977637431112e-01) (181, -1.96039880773711344686e-01) (182, -2.28204805165204444029e-01) (183, 4.97311240102429552579e-01) (184, 3.99206110253645718444e-01) (185, 7.31032733607347995353e-01) (186, -1.51025208792376602895e-01) (187, -1.07513341269183285154e-01) (188, -2.64223213818913060802e-01) (189, 5.39513876701970374050e-01) (190, 4.97876334169436551846e-01) (191, 4.39472559693742215181e-01) (192, -1.74458827039885661092e-01) (193, -2.38464276998910290617e-01) (194, -3.43457523313408452648e-01) (195, 4.61830293800015612149e-01) (196, 5.72690832593966803188e-01) (197, 5.20386947359223639431e-01) (198, -1.37701559028315684285e-01) (199, -1.92304257064732947446e-01) (200, -1.96936077773593287699e-01) (201, 4.88097394981909848966e-01) (202, 4.98792725780535795010e-01) (203, 5.99475625136424383754e-01) (204, -2.54740963837790657109e-01) (205, -2.83231492860071709661e-01) (206, -2.80576891601107825114e-01) (207, 5.59468251319244713748e-01) (208, 5.32335688026264519657e-01) (209, -2.22832482082598315465e-01) (210, -1.20947080812144447393e-01) (211, -3.03872916621916344670e-01) (212, -3.00658065586957401472e-01) (213, 4.61226013155296432622e-01) (214, -1.45781873554872848375e-01) (215, -2.26689036710016833531e-01) (216, -1.92151266297984263387e-01) (217, -2.74367633968266910749e-01) (218, -2.12978894970107218709e-01) (219, 6.02053445430115075077e-01) (220, -9.33996204444640237829e-02) (221, -1.69871631784193566350e-01) (222, -1.03081259092974789060e-01) (223, -2.45419002830657290160e-01) (224, -2.84103232583689857549e-01) (225, -2.96590942105937172002e-01) (226, -2.15574587843108317342e-01) (227, -1.66181463522665551213e-01) (228, -2.11199048123049876180e-01) (229, -2.54387500843691993779e-01) (230, -2.34253051838564957388e-01) (231, -2.80792596897769142217e-01) (232, -1.98724324962782999959e-01) (233, -3.66493484321821438865e-01) (234, -4.03111938544982381649e-02) (235, -1.54576647243189896352e-01) (236, -1.29902559480357254751e-01) (237, -2.66985560915160347051e-01) (238, -2.04699824711966654744e-01) (239, -4.20442957814518625259e-01) (240, -9.51545450994247116183e-02) (241, -2.26758266946959635701e-01) (242, -1.16367726416277281198e-01) (243, -1.67354795298266495474e-01) (244, -1.75123687050032755819e-01) (245, -3.23425632353607828140e-01) (246, -1.99380337090181686266e-01) (247, -2.68386314770865608281e-01) (248, -1.86327994131518709375e-01) (249, -1.86910594961333414998e-01) (250, -2.75924290678191352910e-01) (251, -3.63846432801071817398e-01) (252, -1.62118731827425338610e-01) (253, -2.80116926095175911016e-01) (254, -1.97800167166663515284e-01) (255, -2.20773334762740275350e-01) (256, -2.77819226643729377813e-01) (257, -4.24053553875271493911e-01) (258, -1.92291303367304183825e-01) (259, -1.90129633209395548787e-01) (260, -6.99849578375352082693e-02) (261, -2.01095725557494303670e-01) (262, -1.72033581099200388875e-01) (263, -2.94557332396529425456e-01) (264, -2.70101639589953590459e-01) (265, -1.86896148285555979696e-01) (266, -2.55086573595536790504e-02) (267, -1.01115557512927181638e-01) (268, -1.54993075093913162954e-01) (269, -2.56056531667731512858e-01) (270, -2.09385219177889964071e-01) (271, -2.24698986074614664998e-01) (272, -8.20322547265761592428e-02) (273, -1.00304323396372921384e-01) (274, -2.93165142795729805059e-01) (275, -2.60161205530188788249e-01) (276, -1.11556667051005489744e-01) (277, -2.67096857688117195195e-01) (278, -2.01204988321948191610e-01) (279, -2.95278812906432319707e-01) (280, -1.55118811092066849477e-01) (281, -2.06694527864478450052e-01) (282, -1.46951946577715958364e-01) (283, -2.94798101991090244489e-01) (284, -1.59468921980547989614e-01) (285, -1.42146262488055313833e-01) (286, -2.13673609456706187215e-01) (287, -1.66853404939196869883e-01) (288, -2.63154770569744234088e-01) (289, -1.89644514905157240969e-01) (290, -2.32649687438878399748e-01) (291, -1.24414849787625736433e-01) (292, -2.85732563346299595075e-01) (293, -1.31239331662677066737e-01) (294, -3.17074357867263179056e-01) (295, -2.82390262335561026408e-01) (296, -2.19246848821662287943e-01) (297, -1.39977163970492674006e-01) (298, -2.84617181271336783244e-01) (299, -2.75351281613133658244e-01) (300, 1.17107319322081893098e+00) (301, 7.23088932585066679337e-01) 
