FANN_FLO_2.1
num_layers=2
learning_rate=0.700000
connection_rate=1.000000
network_type=1
learning_momentum=0.000000
training_algorithm=2
train_error_function=1
train_stop_function=0
cascade_output_change_fraction=0.010000
quickprop_decay=-0.000100
quickprop_mu=1.750000
rprop_increase_factor=1.200000
rprop_decrease_factor=0.500000
rprop_delta_min=0.000000
rprop_delta_max=50.000000
rprop_delta_zero=0.100000
cascade_output_stagnation_epochs=12
cascade_candidate_change_fraction=0.010000
cascade_candidate_stagnation_epochs=12
cascade_max_out_epochs=150
cascade_max_cand_epochs=150
cascade_num_candidate_groups=2
bit_fail_limit=3.49999999999999977796e-01
cascade_candidate_limit=1.00000000000000000000e+03
cascade_weight_multiplier=4.00000000000000022204e-01
cascade_activation_functions_count=10
cascade_activation_functions=3 5 7 8 10 11 14 15 16 17 
cascade_activation_steepnesses_count=4
cascade_activation_steepnesses=2.50000000000000000000e-01 5.00000000000000000000e-01 7.50000000000000000000e-01 1.00000000000000000000e+00 
layer_sizes=301 2 
scale_included=0
neurons (num_inputs, activation_function, activation_steepness)=(0, 0, 0.00000000000000000000e+00) (0, 0, 0.00000000000000000000e+00) (0, 0, 0.00000000000000000000e+00) (0, 0, 0.00000000000000000000e+00) (0, 0, 0.00000000000000000000e+00) (0, 0, 0.00000000000000000000e+00) (0, 0, 0.00000000000000000000e+00) (0, 0, 0.00000000000000000000e+00) (0, 0, 0.00000000000000000000e+00) (0, 0, 0.00000000000000000000e+00) (0, 0, 0.00000000000000000000e+00) (0, 0, 0.00000000000000000000e+00) (0, 0, 0.00000000000000000000e+00) (0, 0, 0.00000000000000000000e+00) (0, 0, 0.00000000000000000000e+00) (0, 0, 0.00000000000000000000e+00) (0, 0, 0.00000000000000000000e+00) (0, 0, 0.00000000000000000000e+00) (0, 0, 0.00000000000000000000e+00) (0, 0, 0.00000000000000000000e+00) (0, 0, 0.00000000000000000000e+00) (0, 0, 0.00000000000000000000e+00) (0, 0, 0.00000000000000000000e+00) (0, 0, 0.00000000000000000000e+00) (0, 0, 0.00000000000000000000e+00) (0, 0, 0.00000000000000000000e+00) (0, 0, 0.00000000000000000000e+00) (0, 0, 0.00000000000000000000e+00) (0, 0, 0.00000000000000000000e+00) (0, 0, 0.00000000000000000000e+00) (0, 0, 0.00000000000000000000e+00) (0, 0, 0.00000000000000000000e+00) (0, 0, 0.00000000000000000000e+00) (0, 0, 0.00000000000000000000e+00) (0, 0, 0.00000000000000000000e+00) (0, 0, 0.00000000000000000000e+00) (0, 0, 0.00000000000000000000e+00) (0, 0, 0.00000000000000000000e+00) (0, 0, 0.00000000000000000000e+00) (0, 0, 0.00000000000000000000e+00) (0, 0, 0.00000000000000000000e+00) (0, 0, 0.00000000000000000000e+00) (0, 0, 0.00000000000000000000e+00) (0, 0, 0.00000000000000000000e+00) (0, 0, 0.00000000000000000000e+00) (0, 0, 0.00000000000000000000e+00) (0, 0, 0.00000000000000000000e+00) (0, 0, 0.00000000000000000000e+00) (0, 0, 0.00000000000000000000e+00) (0, 0, 0.00000000000000000000e+00) (0, 0, 0.00000000000000000000e+00) (0, 0, 0.00000000000000000000e+00) (0, 0, 0.00000000000000000000e+00) (0, 0, 0.00000000000000000000e+00) (0, 0, 0.00000000000000000000e+00) (0, 0, 0.00000000000000000000e+00) (0, 0, 0.00000000000000000000e+00) (0, 0, 0.00000000000000000000e+00) (0, 0, 0.00000000000000000000e+00) (0, 0, 0.00000000000000000000e+00) (0, 0, 0.00000000000000000000e+00) (0, 0, 0.00000000000000000000e+00) (0, 0, 0.00000000000000000000e+00) (0, 0, 0.00000000000000000000e+00) (0, 0, 0.00000000000000000000e+00) (0, 0, 0.00000000000000000000e+00) (0, 0, 0.00000000000000000000e+00) (0, 0, 0.00000000000000000000e+00) (0, 0, 0.00000000000000000000e+00) (0, 0, 0.00000000000000000000e+00) (0, 0, 0.00000000000000000000e+00) (0, 0, 0.00000000000000000000e+00) (0, 0, 0.00000000000000000000e+00) (0, 0, 0.00000000000000000000e+00) (0, 0, 0.00000000000000000000e+00) (0, 0, 0.00000000000000000000e+00) (0, 0, 0.00000000000000000000e+00) (0, 0, 0.00000000000000000000e+00) (0, 0, 0.00000000000000000000e+00) (0, 0, 0.00000000000000000000e+00) (0, 0, 0.00000000000000000000e+00) (0, 0, 0.00000000000000000000e+00) (0, 0, 0.00000000000000000000e+00) (0, 0, 0.00000000000000000000e+00) (0, 0, 0.00000000000000000000e+00) (0, 0, 0.00000000000000000000e+00) (0, 0, 0.00000000000000000000e+00) (0, 0, 0.00000000000000000000e+00) (0, 0, 0.00000000000000000000e+00) (0, 0, 0.00000000000000000000e+00) (0, 0, 0.00000000000000000000e+00) (0, 0, 0.00000000000000000000e+00) (0, 0, 0.00000000000000000000e+00) (0, 0, 0.00000000000000000000e+00) (0, 0, 0.00000000000000000000e+00) (0, 0, 0.00000000000000000000e+00) (0, 0, 0.00000000000000000000e+00) (0, 0, 0.00000000000000000000e+00) (0, 0, 0.00000000000000000000e+00) (0, 0, 0.00000000000000000000e+00) (0, 0, 0.00000000000000000000e+00) (0, 0, 0.00000000000000000000e+00) (0, 0, 0.00000000000000000000e+00) (0, 0, 0.00000000000000000000e+00) (0, 0, 0.00000000000000000000e+00) (0, 0, 0.00000000000000000000e+00) (0, 0, 0.00000000000000000000e+00) (0, 0, 0.00000000000000000000e+00) (0, 0, 0.00000000000000000000e+00) (0, 0, 0.00000000000000000000e+00) (0, 0, 0.00000000000000000000e+00) (0, 0, 0.00000000000000000000e+00) (0, 0, 0.00000000000000000000e+00) (0, 0, 0.00000000000000000000e+00) (0, 0, 0.00000000000000000000e+00) (0, 0, 0.00000000000000000000e+00) (0, 0, 0.00000000000000000000e+00) (0, 0, 0.00000000000000000000e+00) (0, 0, 0.00000000000000000000e+00) (0, 0, 0.00000000000000000000e+00) (0, 0, 0.00000000000000000000e+00) (0, 0, 0.00000000000000000000e+00) (0, 0, 0.00000000000000000000e+00) (0, 0, 0.00000000000000000000e+00) (0, 0, 0.00000000000000000000e+00) (0, 0, 0.00000000000000000000e+00) (0, 0, 0.00000000000000000000e+00) (0, 0, 0.00000000000000000000e+00) (0, 0, 0.00000000000000000000e+00) (0, 0, 0.00000000000000000000e+00) (0, 0, 0.00000000000000000000e+00) (0, 0, 0.00000000000000000000e+00) (0, 0, 0.00000000000000000000e+00) (0, 0, 0.00000000000000000000e+00) (0, 0, 0.00000000000000000000e+00) (0, 0, 0.00000000000000000000e+00) (0, 0, 0.00000000000000000000e+00) (0, 0, 0.00000000000000000000e+00) (0, 0, 0.00000000000000000000e+00) (0, 0, 0.00000000000000000000e+00) (0, 0, 0.00000000000000000000e+00) (0, 0, 0.00000000000000000000e+00) (0, 0, 0.00000000000000000000e+00) (0, 0, 0.00000000000000000000e+00) (0, 0, 0.00000000000000000000e+00) (0, 0, 0.00000000000000000000e+00) (0, 0, 0.00000000000000000000e+00) (0, 0, 0.00000000000000000000e+00) (0, 0, 0.00000000000000000000e+00) (0, 0, 0.00000000000000000000e+00) (0, 0, 0.00000000000000000000e+00) (0, 0, 0.00000000000000000000e+00) (0, 0, 0.00000000000000000000e+00) (0, 0, 0.00000000000000000000e+00) (0, 0, 0.00000000000000000000e+00) (0, 0, 0.00000000000000000000e+00) (0, 0, 0.00000000000000000000e+00) (0, 0, 0.00000000000000000000e+00) (0, 0, 0.00000000000000000000e+00) (0, 0, 0.00000000000000000000e+00) (0, 0, 0.00000000000000000000e+00) (0, 0, 0.00000000000000000000e+00) (0, 0, 0.00000000000000000000e+00) (0, 0, 0.00000000000000000000e+00) (0, 0, 0.00000000000000000000e+00) (0, 0, 0.00000000000000000000e+00) (0, 0, 0.00000000000000000000e+00) (0, 0, 0.00000000000000000000e+00) (0, 0, 0.00000000000000000000e+00) (0, 0, 0.00000000000000000000e+00) (0, 0, 0.00000000000000000000e+00) (0, 0, 0.00000000000000000000e+00) (0, 0, 0.00000000000000000000e+00) (0, 0, 0.00000000000000000000e+00) (0, 0, 0.00000000000000000000e+00) (0, 0, 0.00000000000000000000e+00) (0, 0, 0.00000000000000000000e+00) (0, 0, 0.00000000000000000000e+00) (0, 0, 0.00000000000000000000e+00) (0, 0, 0.00000000000000000000e+00) (0, 0, 0.00000000000000000000e+00) (0, 0, 0.00000000000000000000e+00) (0, 0, 0.00000000000000000000e+00) (0, 0, 0.00000000000000000000e+00) (0, 0, 0.00000000000000000000e+00) (0, 0, 0.00000000000000000000e+00) (0, 0, 0.00000000000000000000e+00) (0, 0, 0.00000000000000000000e+00) (0, 0, 0.00000000000000000000e+00) (0, 0, 0.00000000000000000000e+00) (0, 0, 0.00000000000000000000e+00) (0, 0, 0.00000000000000000000e+00) (0, 0, 0.00000000000000000000e+00) (0, 0, 0.00000000000000000000e+00) (0, 0, 0.00000000000000000000e+00) (0, 0, 0.00000000000000000000e+00) (0, 0, 0.00000000000000000000e+00) (0, 0, 0.00000000000000000000e+00) (0, 0, 0.00000000000000000000e+00) (0, 0, 0.00000000000000000000e+00) (0, 0, 0.00000000000000000000e+00) (0, 0, 0.00000000000000000000e+00) (0, 0, 0.00000000000000000000e+00) (0, 0, 0.00000000000000000000e+00) (0, 0, 0.00000000000000000000e+00) (0, 0, 0.00000000000000000000e+00) (0, 0, 0.00000000000000000000e+00) (0, 0, 0.00000000000000000000e+00) (0, 0, 0.00000000000000000000e+00) (0, 0, 0.00000000000000000000e+00) (0, 0, 0.00000000000000000000e+00) (0, 0, 0.00000000000000000000e+00) (0, 0, 0.00000000000000000000e+00) (0, 0, 0.00000000000000000000e+00) (0, 0, 0.00000000000000000000e+00) (0, 0, 0.00000000000000000000e+00) (0, 0, 0.00000000000000000000e+00) (0, 0, 0.00000000000000000000e+00) (0, 0, 0.00000000000000000000e+00) (0, 0, 0.00000000000000000000e+00) (0, 0, 0.00000000000000000000e+00) (0, 0, 0.00000000000000000000e+00) (0, 0, 0.00000000000000000000e+00) (0, 0, 0.00000000000000000000e+00) (0, 0, 0.00000000000000000000e+00) (0, 0, 0.00000000000000000000e+00) (0, 0, 0.00000000000000000000e+00) (0, 0, 0.00000000000000000000e+00) (0, 0, 0.00000000000000000000e+00) (0, 0, 0.00000000000000000000e+00) (0, 0, 0.00000000000000000000e+00) (0, 0, 0.00000000000000000000e+00) (0, 0, 0.00000000000000000000e+00) (0, 0, 0.00000000000000000000e+00) (0, 0, 0.00000000000000000000e+00) (0, 0, 0.00000000000000000000e+00) (0, 0, 0.00000000000000000000e+00) (0, 0, 0.00000000000000000000e+00) (0, 0, 0.00000000000000000000e+00) (0, 0, 0.00000000000000000000e+00) (0, 0, 0.00000000000000000000e+00) (0, 0, 0.00000000000000000000e+00) (0, 0, 0.00000000000000000000e+00) (0, 0, 0.00000000000000000000e+00) (0, 0, 0.00000000000000000000e+00) (0, 0, 0.00000000000000000000e+00) (0, 0, 0.00000000000000000000e+00) (0, 0, 0.00000000000000000000e+00) (0, 0, 0.00000000000000000000e+00) (0, 0, 0.00000000000000000000e+00) (0, 0, 0.00000000000000000000e+00) (0, 0, 0.00000000000000000000e+00) (0, 0, 0.00000000000000000000e+00) (0, 0, 0.00000000000000000000e+00) (0, 0, 0.00000000000000000000e+00) (0, 0, 0.00000000000000000000e+00) (0, 0, 0.00000000000000000000e+00) (0, 0, 0.00000000000000000000e+00) (0, 0, 0.00000000000000000000e+00) (0, 0, 0.00000000000000000000e+00) (0, 0, 0.00000000000000000000e+00) (0, 0, 0.00000000000000000000e+00) (0, 0, 0.00000000000000000000e+00) (0, 0, 0.00000000000000000000e+00) (0, 0, 0.00000000000000000000e+00) (0, 0, 0.00000000000000000000e+00) (0, 0, 0.00000000000000000000e+00) (0, 0, 0.00000000000000000000e+00) (0, 0, 0.00000000000000000000e+00) (0, 0, 0.00000000000000000000e+00) (0, 0, 0.00000000000000000000e+00) (0, 0, 0.00000000000000000000e+00) (0, 0, 0.00000000000000000000e+00) (0, 0, 0.00000000000000000000e+00) (0, 0, 0.00000000000000000000e+00) (0, 0, 0.00000000000000000000e+00) (0, 0, 0.00000000000000000000e+00) (0, 0, 0.00000000000000000000e+00) (0, 0, 0.00000000000000000000e+00) (0, 0, 0.00000000000000000000e+00) (0, 0, 0.00000000000000000000e+00) (0, 0, 0.00000000000000000000e+00) (0, 0, 0.00000000000000000000e+00) (0, 0, 0.00000000000000000000e+00) (0, 0, 0.00000000000000000000e+00) (0, 0, 0.00000000000000000000e+00) (0, 0, 0.00000000000000000000e+00) (0, 0, 0.00000000000000000000e+00) (0, 0, 0.00000000000000000000e+00) (0, 0, 0.00000000000000000000e+00) (0, 0, 0.00000000000000000000e+00) (0, 0, 0.00000000000000000000e+00) (0, 0, 0.00000000000000000000e+00) (0, 0, 0.00000000000000000000e+00) (0, 0, 0.00000000000000000000e+00) (0, 0, 0.00000000000000000000e+00) (0, 0, 0.00000000000000000000e+00) (0, 0, 0.00000000000000000000e+00) (0, 0, 0.00000000000000000000e+00) (0, 0, 0.00000000000000000000e+00) (0, 0, 0.00000000000000000000e+00) (301, 5, 5.00000000000000000000e-01) (301, 5, 5.00000000000000000000e-01) 
connections (connected_to_neuron, weight)=(0, -1.16404290222389864007e-01) (1, -8.36154845588042150428e-02) (2, -1.96165225379927338212e-01) (3, -1.74540477716190994828e-01) (4, -1.01155104958279312699e-01) (5, -1.16101766847832368890e-01) (6, -5.39094981782271137627e-02) (7, -1.50148535989983261674e-01) (8, -1.42434480511410416215e-01) (9, -6.09999624125792255791e-02) (10, -2.11287985467179001420e-01) (11, -1.60921553992493332474e-01) (12, -1.67876819991333636750e-01) (13, -2.16161372982723892777e-01) (14, -9.84877971045805822303e-02) (15, -7.50293460719420324256e-02) (16, -1.82246426963074414918e-01) (17, -1.26774097704155624955e-01) (18, -6.72384527556731115272e-02) (19, -6.00586262576414814385e-02) (20, -1.93270104848606766312e-01) (21, -2.30072821401817978471e-01) (22, -1.71405787491066635697e-01) (23, -1.15088115357620882073e-01) (24, -1.33224303745491684525e-01) (25, -1.46469260477287949174e-01) (26, -1.81129998438818662354e-01) (27, -1.53325232588513077348e-01) (28, -5.15964505307509174736e-02) (29, -1.40929507934315384476e-01) (30, -1.32735724472267807572e-01) (31, -1.30175257944328964799e-01) (32, -1.86719487332565964310e-01) (33, -4.73196489422100796673e-02) (34, -3.37501767919673317797e-02) (35, -6.29331000731167024276e-03) (36, -1.69351714574558886994e-01) (37, -8.29742279879881750038e-02) (38, -1.62372137331230792512e-01) (39, -1.03944333623912556902e-02) (40, -4.25824316572215796906e-02) (41, -7.22683610748317273309e-02) (42, -1.53300965359665752885e-01) (43, -2.36200022422535599320e-01) (44, -5.06042259167697461297e-02) (45, 5.84720649013256450061e-03) (46, -9.83760677089955647145e-03) (47, 4.97483290919994731311e-03) (48, -8.31013935040500195672e-02) (49, -6.96767721222056879427e-02) (50, -1.72582956384685279327e-02) (51, -3.85459902118709327179e-02) (52, -3.14979048799541236359e-02) (53, -1.50838577968981507604e-01) (54, -1.15808619035389720464e-01) (55, -1.46707179179646374223e-01) (56, -5.94823377560641519679e-02) (57, -5.91131167840029947413e-02) (58, -4.23964353631999732452e-02) (59, -7.32533054780032666375e-02) (60, -1.62217119557764771764e-01) (61, -1.37306662125494721716e-01) (62, -1.27872140509409842890e-01) (63, -1.11111106200125486776e-01) (64, 9.44339312801098160199e-03) (65, 5.33222235927318950061e-03) (66, -8.56037935142945488609e-02) (67, -1.22082827461865203733e-01) (68, 1.18717236299183084847e-01) (69, -4.78813292812373808571e-02) (70, -1.58218027872946503942e-01) (71, -1.08139710349943893308e-01) (72, 1.26432905384561249107e-02) (73, -7.97183675592374046959e-02) (74, 5.20195121356508277666e-02) (75, -2.22354473899867774445e-02) (76, -1.37342842144873383825e-01) (77, -1.42092602176573518102e-01) (78, 1.15532366413738443733e-01) (79, 1.12348748225834085823e-01) (80, 1.51449812431003749680e-01) (81, -8.60004367660548718622e-02) (82, -1.10471756977942259237e-01) (83, -6.43225925396945508172e-02) (84, 9.59539765903017066728e-02) (85, 1.06512619037296502045e-01) (86, 4.69492795407312368816e-01) (87, -1.47802876157667878454e-01) (88, -1.36875005288031342809e-01) (89, -8.50972624849345715692e-02) (90, 1.11736817140247537972e-01) (91, 3.37008515783807638400e-02) (92, 4.38308166801469778484e-01) (93, -3.81407531332042457062e-02) (94, -6.16847591828372510125e-02) (95, -6.44420700501468213250e-02) (96, 9.99844575711748423386e-02) (97, 1.47773532051708400559e-01) (98, 1.71228949729613622033e+00) (99, -1.24106569064762847776e-01) (100, -1.04192791661478864618e-01) (101, 3.77555765399670024279e-03) (102, 1.00546708185341102104e-01) (103, 1.02520203072693105728e-01) (104, 1.99634789619930241855e+00) (105, -1.00525004474896033357e-02) (106, -1.67556012891991290559e-01) (107, -1.02498086018469575231e-01) (108, 4.58342809345396728915e-04) (109, -1.41981487682798779293e-02) (110, 2.95003672251956094996e+00) (111, -5.44663694732023945244e-02) (112, -1.48039343678219498246e-01) (113, -1.30446827193953396318e-01) (114, 7.75702873655817193299e-02) (115, -1.42598768285253918453e-02) (116, 3.61527965291288344574e+00) (117, -1.87230545007450760453e-01) (118, -2.09903518580658615678e-01) (119, -1.65809179412817309096e-01) (120, 1.24031437415744974495e-01) (121, 1.39658791799213588547e-01) (122, 3.50209023131874053192e+00) (123, -1.71954031013710678666e-01) (124, -1.46322729908688248246e-01) (125, 3.08479715383102259807e-01) (126, 7.92660675564068190058e-02) (127, -1.29315615994257865351e-01) (128, 4.05580187837652950122e+00) (129, -5.63874823658245816205e-02) (130, -1.80460116737349240967e-01) (131, 7.98851464681225142961e-01) (132, -2.08113131945561261049e-02) (133, -6.21655805018207080481e-04) (134, 4.06392450134329585865e+00) (135, -2.36974748205211402374e-02) (136, -8.01707235209776769569e-02) (137, 2.07394652805591910294e+01) (138, -1.14205406410021748087e-01) (139, -4.20624239352008350012e-04) (140, 2.85709635712070397773e+00) (141, -1.52100922388937714880e-01) (142, -8.06277421347929845741e-02) (143, 4.39165653589289561864e+01) (144, -8.84780379365947278192e-02) (145, -1.87331966035826386063e-01) (146, 2.03616002745933322160e+00) (147, -1.02617049438860657995e-01) (148, -1.36737014078362167924e-01) (149, 4.39459529596488849279e+01) (150, -1.42938095056278885453e-01) (151, -1.96980084203942001908e-01) (152, 1.21903845202088012556e+00) (153, -6.70027158966328764689e-03) (154, -2.28252497929082670547e-01) (155, 4.39928399997871295568e+01) (156, -8.50204852454497228553e-02) (157, -1.55419970773918808549e-01) (158, 7.34137854098073305842e-01) (159, -8.75043074960463324041e-02) (160, -3.14881642776475734191e-01) (161, 4.38574180829446689245e+01) (162, -9.76534363858534704139e-02) (163, -1.02020743214352310746e-01) (164, 1.76782320506057549769e-01) (165, -9.70299599377888316587e-02) (166, -1.51458973907692612260e-01) (167, 1.26879712420234689318e+01) (168, -1.13648581229908632317e-01) (169, -1.29136050962670029252e-01) (170, -7.33911273114516149452e-02) (171, -8.49840519063307653358e-02) (172, -1.06977733694775284379e-01) (173, 4.41622071384572478792e+00) (174, -1.66533383452160510529e-01) (175, -2.21196542405350388139e-01) (176, -6.56998333566023717811e-02) (177, -4.66170934073759646310e-02) (178, -1.49554352187378586381e-01) (179, 2.17055487698993437862e-01) (180, -9.87788167826964269569e-02) (181, -5.46669391028715839775e-02) (182, -1.23765940689308809319e-01) (183, -1.95556274526579559891e-01) (184, -8.71079591147734533241e-02) (185, 1.44010108208705717159e-01) (186, -2.00830961488945664017e-01) (187, -1.34302946650250137894e-01) (188, -1.34643527590496719926e-01) (189, -1.98892938815815628617e-01) (190, -2.32752862297756851762e-01) (191, -8.14157355473651145328e-02) (192, -1.39589535915119827836e-01) (193, -9.25807979934050451210e-02) (194, -1.78751028054220884034e-01) (195, -7.35085014150752558137e-02) (196, -1.95541041814549149125e-01) (197, -4.86287159530895962689e-02) (198, -1.16052794181568788567e-01) (199, -7.13641074530913244178e-02) (200, -1.83695054524405182450e-01) (201, -1.02847317921613959357e-01) (202, -1.18522669100029592881e-01) (203, 1.07189772296879225200e-02) (204, -2.29986297809345902055e-01) (205, -4.72305444114042849435e-02) (206, -2.36218335949642838090e-01) (207, 5.70563055762981791857e-03) (208, -2.28821042822016929019e-02) (209, -8.43809264134433301141e-02) (210, -1.84646493666632355302e-01) (211, -1.16975474082691793809e-01) (212, -1.64788628839714679231e-01) (213, -7.02066145649220610392e-03) (214, -3.09504551498669330800e-02) (215, -1.50504836661722901647e-01) (216, -4.98104867570234866037e-02) (217, -2.37711707972748403916e-01) (218, -1.10548558556301773637e-01) (219, -8.30622630547549756219e-02) (220, -1.55023357054449917314e-01) (221, -4.19096442293193580109e-02) (222, -2.23358805202706039994e-01) (223, -1.00543173872692764848e-01) (224, -1.60231212996704758256e-01) (225, -1.00718075258639100378e-01) (226, -1.20595137345289496467e-01) (227, -5.43804930876757713909e-02) (228, -2.18843336128456772416e-01) (229, -4.75935217969252200021e-02) (230, -1.51485371314747513383e-01) (231, -1.01146632654574158972e-01) (232, -9.78201868366267712762e-02) (233, -1.68616281671431306188e-01) (234, -1.79734683506949155518e-01) (235, -1.53547237538559616654e-01) (236, -4.15875938765837283029e-02) (237, -1.14561254007723628545e-01) (238, -1.10016109270956785604e-01) (239, 3.78202475795483012561e-03) (240, -8.82492092482878576210e-02) (241, -1.20403374456627507150e-01) (242, -1.38934220098717392533e-01) (243, -1.51646064443495515173e-01) (244, -8.95985382031466992547e-02) (245, -1.12248705549147398397e-01) (246, -1.91457929932339371293e-01) (247, -1.65149795734150561799e-01) (248, -1.75701181315643967240e-01) (249, -6.14711863901874072669e-04) (250, -2.51817132706397064923e-02) (251, -7.30885656904246838739e-02) (252, -1.31831395351154984086e-01) (253, -5.94861087434126606377e-02) (254, -1.99372506611807526200e-01) (255, 9.32916082629894546918e-03) (256, -1.42189162006832958696e-01) (257, -6.73469843696620495965e-02) (258, -1.34358356618149460404e-01) (259, -1.66962782763703021516e-01) (260, -1.40681262039406479447e-01) (261, -4.26243074820217317245e-03) (262, -6.07101175830974046366e-02) (263, -2.04864127247112934316e-02) (264, -4.23752692572905154123e-02) (265, -2.35759357833130539506e-01) (266, -1.79963952773077695557e-01) (267, -4.61373654239012331857e-02) (268, -1.76061379634602249711e-01) (269, -8.25807828353060935367e-02) (270, -6.80961188905074010780e-02) (271, -2.26485076271755875199e-01) (272, -1.98298699133856476395e-01) (273, -1.69204841279251727570e-01) (274, -2.03871908508999527543e-01) (275, -1.13638008856041597405e-01) (276, -1.07194307171566666215e-01) (277, -1.57504337751133621781e-01) (278, -4.09622815482451052560e-02) (279, -4.50699952475859255685e-02) (280, -1.83859816663725555985e-01) (281, -7.70896104209257970741e-02) (282, -1.43899316810829819291e-01) (283, -7.78657075993849645545e-02) (284, -9.87502214543654333045e-02) (285, -1.05446326457722366898e-01) (286, -9.42773249976469884803e-02) (287, -4.68696829907728762521e-02) (288, -1.98534066700203598588e-01) (289, -1.90810180180533112138e-01) (290, -1.76006960593922318070e-01) (291, -1.01389828049404800980e-01) (292, -2.01002905987961472123e-01) (293, -2.32031638645394028275e-01) (294, -1.27806539558632553666e-01) (295, -2.05552677535278977006e-01) (296, -2.29965495788319290726e-01) (297, -6.99449953667952428749e-02) (298, -2.13864552699787796586e-01) (299, -1.68201374732716235627e-01) (300, 8.04767696057540615762e-01) (0, 2.94354795839255001244e-01) (1, 1.81629016425078032571e-01) (2, 2.30176448251669524270e-01) (3, 1.62975455995266527154e-01) (4, 2.15582601155703129647e-01) (5, 1.54363937105600951272e-01) (6, 2.93606653239195491967e-01) (7, 2.95903771545355465111e-01) (8, 1.51227145816748259621e-01) (9, 2.86362155701582576928e-01) (10, 1.49869452591602919656e-01) (11, 1.11963033105795486954e-01) (12, 1.80288336600725768166e-01) (13, 1.09829246427481277970e-01) (14, 2.51038312341635316827e-01) (15, 1.12667507852976425675e-01) (16, 2.53377437021200746514e-01) (17, 2.41994141961996617196e-01) (18, 1.51958941842978118020e-01) (19, 3.00392761256163265404e-01) (20, 1.03812671627466782120e-01) (21, 2.88394614483778621850e-01) (22, 1.37215338077013609963e-01) (23, 1.09606533672278030900e-01) (24, 1.98413565184538481789e-01) (25, 1.69488161231939882256e-01) (26, 1.17466538574164017228e-01) (27, 1.66294060077135652520e-01) (28, 1.93449109222357390481e-01) (29, 1.87090664531653044778e-01) (30, 2.56279244448607057549e-01) (31, 1.87139443482821105080e-01) (32, 2.68055214907591432549e-01) (33, 1.85791208769743559914e-01) (34, 2.49450429703657688973e-01) (35, 1.82973347033922789651e-01) (36, 2.39490687276785435555e-01) (37, 2.42392613913481297372e-01) (38, 1.78212657000486968117e-01) (39, 2.90053367044394161400e-01) (40, 2.28090300585692046242e-01) (41, 2.27417647268240569192e-01) (42, 1.01351923670237167863e-01) (43, 1.07714160706465347794e-01) (44, 2.36582412745420994638e-01) (45, 2.51725777413313478448e-01) (46, 1.19717202510302170304e-01) (47, 1.89295380737249968606e-01) (48, 1.93055442895357726174e-01) (49, 1.71011685754721282082e-01) (50, 1.89023665513460753518e-01) (51, 1.96203641023104308205e-01) (52, 1.58741827483837721902e-01) (53, 1.42713456190516535527e-01) (54, 2.05145708646242680429e-01) (55, 2.56490930344526857354e-01) (56, 2.33008371907845207582e-01) (57, 2.21947781171267150002e-01) (58, 1.22120521392290695695e-01) (59, 1.04321791566302321530e-01) (60, -1.65821451761142338310e-02) (61, 2.77735292341177608666e-01) (62, 1.48701721050558816062e-01) (63, 2.42140937630897723487e-01) (64, 1.62862032081549257256e-01) (65, 8.80609460677833910669e-02) (66, 3.31174816868885640853e-02) (67, -2.32678789712802529255e-02) (68, -6.19591515955361660239e-02) (69, 1.74231933671608635317e-01) (70, 2.39555360267150435627e-01) (71, 1.47346825926900043546e-01) (72, -6.37561161515149410484e-02) (73, 1.66808479645071755515e-01) (74, 7.25163775983419800486e-02) (75, 2.36903058606758781801e-01) (76, 2.42825909878675999520e-01) (77, -3.83924479978515892364e-02) (78, -3.92072540220650966880e-02) (79, -9.09142088589104946372e-02) (80, -5.57143417144531971630e-01) (81, 2.23761261889922652424e-01) (82, 2.30756058718626616555e-01) (83, 1.01873831480145671247e-01) (84, -5.44997733975167042431e-01) (85, -9.08937868174943264243e-02) (86, -5.43239605570549732860e-01) (87, 1.93926862801973937112e-01) (88, 2.56520628358786195733e-01) (89, 1.40546208954741541630e-01) (90, -4.64745570863003387707e-01) (91, -4.80960686648602142590e-01) (92, -5.44712726915592915233e-01) (93, 2.53438650991385072686e-01) (94, 2.39330395485823216317e-01) (95, 1.79814590848376337773e-01) (96, -5.69972854996437794384e-01) (97, -4.48451300109142914074e-01) (98, -4.81491376603359833020e-01) (99, 2.38725438143675389169e-01) (100, 2.31696858431761382180e-01) (101, 1.71251042521884028202e-01) (102, -5.15532095874066009777e-01) (103, -4.51783467972988739270e-01) (104, -1.72453644499696379100e+00) (105, 2.27641730930273650246e-01) (106, 2.91035815503065731225e-01) (107, 1.04512608385970137692e-01) (108, -5.00513379419560089367e-01) (109, -5.67895655477757221874e-01) (110, -2.22510246786480481163e+00) (111, 1.32060400571291564065e-01) (112, 1.51913739170496581155e-01) (113, 6.91566083201666237379e-02) (114, -4.67670117462391510266e-01) (115, -4.93748460853809967297e-01) (116, -2.26043804588919172716e+00) (117, 1.78807474102442381936e-01) (118, 1.44704766001169798928e-01) (119, -5.75479673512131362223e-01) (120, -6.43640545154328336253e-01) (121, -6.20705266440624958690e-01) (122, -2.34101622405653531089e+00) (123, 2.01363928045694945412e-01) (124, 2.77259736682837154564e-01) (125, -4.73248077846914749767e-01) (126, -5.81815701866860157665e-01) (127, -4.92202620314352912168e-01) (128, -5.46761926527986918956e+00) (129, 1.26410118665163634377e-01) (130, 2.89874225284521724877e-01) (131, -1.09357896989374547836e+00) (132, -3.64158100740902823667e-01) (133, -3.00191247015343609661e-01) (134, -5.54384397979746257334e+00) (135, 2.24405556346838591653e-01) (136, 1.45845766540234206277e-01) (137, -2.46090380011061249377e+01) (138, -4.59466754481617223327e-01) (139, -2.29200975149022101451e-01) (140, -5.23402198529033935159e+00) (141, -2.86683336942540112346e-01) (142, 1.21254696871702774552e-01) (143, -4.38159992027204410192e+01) (144, 2.83729627158110286889e-01) (145, -2.20948801486836460262e-01) (146, -2.85509750026900555042e+00) (147, -3.49404067843304577679e-01) (148, -3.42805803864346558818e-01) (149, -4.38211810070197955724e+01) (150, 2.11437887873117985604e-01) (151, 1.77139765943949339944e-01) (152, -6.16507111407667784952e-01) (153, -3.02273989765988404521e-01) (154, -2.41220519988881082485e-01) (155, -4.38207646387737170812e+01) (156, 1.60799562360708830910e-01) (157, 1.40549893851940749245e-01) (158, -5.88763056613356261515e-01) (159, -4.18171324878083283672e-01) (160, -3.52764205186711254925e-01) (161, -4.39804060909073726293e+01) (162, 1.72009676124518035012e-01) (163, 1.45488839026157973366e-01) (164, -4.81349243141562022075e-01) (165, -2.83185930102215710491e-01) (166, -2.49829814880238504360e-01) (167, -4.19863298528365405105e+01) (168, 2.90109306003515865502e-01) (169, 2.79680236603682186303e-01) (170, -4.46973664976507645274e-01) (171, 2.20975502755110381203e-01) (172, 2.11392171110575260995e-01) (173, -5.31724086873192614000e-01) (174, 2.03090987529223082619e-01) (175, 1.11596247888495467282e-01) (176, 2.06128312982012756871e-01) (177, 1.35984353150789855080e-01) (178, 2.63448550726835817315e-01) (179, -5.53347481705099730753e-01) (180, 1.12918033625547989396e-01) (181, 9.13608807691831809050e-02) (182, 1.58193080461909357792e-01) (183, 1.13672807242338760880e-01) (184, 2.90343254234259273705e-01) (185, -4.99697430349737847788e-01) (186, 2.91022851492827083764e-01) (187, 6.76172736653585793043e-02) (188, 1.75253270901133600956e-01) (189, 1.19521676923697098283e-01) (190, 1.50702315743630049782e-01) (191, -3.95314329414711895794e-01) (192, 1.37230269040529845315e-01) (193, 1.39186448193480555302e-01) (194, 8.57087138661642294890e-02) (195, 2.73142903472845643975e-01) (196, 1.57256870891516326028e-01) (197, -3.81924488692627850384e-01) (198, 2.54236831690733522393e-01) (199, 6.38406302401323816342e-02) (200, 3.32899454602499436651e-02) (201, 2.24525056209032652932e-01) (202, 2.67012744571631044366e-01) (203, 1.44017650521685663945e-01) (204, 2.15403504099314274667e-01) (205, 8.65781817206640463835e-02) (206, 3.78105107316275071416e-02) (207, 2.03728421952192845223e-01) (208, 2.04759150173132481454e-01) (209, 2.00594587958743159062e-01) (210, 2.67642825271551698663e-01) (211, 2.17012725200121464608e-01) (212, 7.41520773240823966033e-02) (213, 2.08032518054907383798e-01) (214, 2.30021058942740080910e-01) (215, 6.38308737048407098813e-02) (216, 1.25596977199976561623e-01) (217, 2.20379441406195281106e-01) (218, 1.13644762671877883053e-01) (219, 2.83046855952208187279e-01) (220, 2.39236667181913914559e-01) (221, 1.63682608641078031209e-01) (222, 1.06127812888090714005e-01) (223, 2.75802447821562379815e-01) (224, 8.50656691560049277312e-02) (225, 1.74033149506514189797e-01) (226, 2.48280897166197361825e-01) (227, 1.41658073998381678349e-01) (228, 2.10503942694132389901e-01) (229, 2.01853244926397917824e-01) (230, 1.87695323265482966191e-01) (231, 2.25990488554899809914e-01) (232, 1.25713832106058714944e-01) (233, 1.54043598807742182499e-01) (234, 1.52204762573902724343e-01) (235, 2.40452870156233372567e-01) (236, 1.05679474200670822648e-01) (237, 1.72211892332499144631e-01) (238, 1.43516826804344771462e-01) (239, 1.26913076973845517781e-01) (240, 1.55003088887398360329e-01) (241, 1.10495186771814926652e-01) (242, 1.26122407044832823830e-01) (243, 2.11351781513159336923e-01) (244, 2.17863246228163359719e-01) (245, 1.72617911137034479863e-01) (246, 2.57379277970259279229e-01) (247, 2.42795764829580845712e-01) (248, 1.75193972315256712990e-01) (249, 1.53220649238293288308e-01) (250, 2.25178151752417204934e-01) (251, 1.13766155566637619523e-01) (252, 2.99099876906340267357e-01) (253, 2.30641498591368315774e-01) (254, 2.88904144789641048607e-01) (255, 1.66362150933210939385e-01) (256, 1.04010179068510635880e-01) (257, 2.36520572926466526864e-01) (258, 2.90216832782690670189e-01) (259, 2.13849648262922825692e-01) (260, 1.37709356274073241311e-01) (261, 2.60108768369619935967e-01) (262, 1.39175678964321730691e-01) (263, 1.62758718605702012994e-01) (264, 1.96348972048227904397e-01) (265, 1.90715975489084782479e-01) (266, 1.02547123457853897599e-01) (267, 2.01363972749178526955e-01) (268, 2.62263401772444337823e-01) (269, 1.45399487938349364358e-01) (270, 1.10473669495051010636e-01) (271, 1.16602025355761154679e-01) (272, 1.55230204935734389382e-01) (273, 1.35931603040163634377e-01) (274, 2.27289333369200347024e-01) (275, 2.72428988840048402764e-01) (276, 2.90746136929457332787e-01) (277, 1.84004149760668395119e-01) (278, 2.14560262288515629647e-01) (279, 1.65275640215342134454e-01) (280, 2.36560329224531712411e-01) (281, 1.39073948736851332741e-01) (282, 1.78377322282259581643e-01) (283, 2.34995737101500096200e-01) (284, 2.69050970103209108331e-01) (285, 1.66617005493109315850e-01) (286, 1.00693411554758652238e-01) (287, 2.72396698023741334893e-01) (288, 1.02473109390204056290e-01) (289, 2.90245785738890316185e-01) (290, 1.85581877257292388039e-01) (291, 1.39517995889847395974e-01) (292, 2.49690070177977146981e-01) (293, 2.24093086447184203225e-01) (294, 2.01612255896990416604e-01) (295, 1.45374576922123549538e-01) (296, 1.14144592906897171525e-01) (297, 2.03494913305704711037e-01) (298, 2.46074094798033299325e-01) (299, 2.75743528630201906182e-01) (300, 4.83698731135365544986e-01) 
