FANN_FLO_2.1
num_layers=4
learning_rate=0.700000
connection_rate=1.000000
network_type=1
learning_momentum=0.000000
training_algorithm=2
train_error_function=1
train_stop_function=0
cascade_output_change_fraction=0.010000
quickprop_decay=-0.000100
quickprop_mu=1.750000
rprop_increase_factor=1.200000
rprop_decrease_factor=0.500000
rprop_delta_min=0.000000
rprop_delta_max=50.000000
rprop_delta_zero=0.100000
cascade_output_stagnation_epochs=12
cascade_candidate_change_fraction=0.010000
cascade_candidate_stagnation_epochs=12
cascade_max_out_epochs=150
cascade_max_cand_epochs=150
cascade_num_candidate_groups=2
bit_fail_limit=3.49999999999999977796e-01
cascade_candidate_limit=1.00000000000000000000e+03
cascade_weight_multiplier=4.00000000000000022204e-01
cascade_activation_functions_count=10
cascade_activation_functions=3 5 7 8 10 11 14 15 16 17 
cascade_activation_steepnesses_count=4
cascade_activation_steepnesses=2.50000000000000000000e-01 5.00000000000000000000e-01 7.50000000000000000000e-01 1.00000000000000000000e+00 
layer_sizes=301 1 1 5 
scale_included=0
neurons (num_inputs, activation_function, activation_steepness)=(0, 0, 0.00000000000000000000e+00) (0, 0, 0.00000000000000000000e+00) (0, 0, 0.00000000000000000000e+00) (0, 0, 0.00000000000000000000e+00) (0, 0, 0.00000000000000000000e+00) (0, 0, 0.00000000000000000000e+00) (0, 0, 0.00000000000000000000e+00) (0, 0, 0.00000000000000000000e+00) (0, 0, 0.00000000000000000000e+00) (0, 0, 0.00000000000000000000e+00) (0, 0, 0.00000000000000000000e+00) (0, 0, 0.00000000000000000000e+00) (0, 0, 0.00000000000000000000e+00) (0, 0, 0.00000000000000000000e+00) (0, 0, 0.00000000000000000000e+00) (0, 0, 0.00000000000000000000e+00) (0, 0, 0.00000000000000000000e+00) (0, 0, 0.00000000000000000000e+00) (0, 0, 0.00000000000000000000e+00) (0, 0, 0.00000000000000000000e+00) (0, 0, 0.00000000000000000000e+00) (0, 0, 0.00000000000000000000e+00) (0, 0, 0.00000000000000000000e+00) (0, 0, 0.00000000000000000000e+00) (0, 0, 0.00000000000000000000e+00) (0, 0, 0.00000000000000000000e+00) (0, 0, 0.00000000000000000000e+00) (0, 0, 0.00000000000000000000e+00) (0, 0, 0.00000000000000000000e+00) (0, 0, 0.00000000000000000000e+00) (0, 0, 0.00000000000000000000e+00) (0, 0, 0.00000000000000000000e+00) (0, 0, 0.00000000000000000000e+00) (0, 0, 0.00000000000000000000e+00) (0, 0, 0.00000000000000000000e+00) (0, 0, 0.00000000000000000000e+00) (0, 0, 0.00000000000000000000e+00) (0, 0, 0.00000000000000000000e+00) (0, 0, 0.00000000000000000000e+00) (0, 0, 0.00000000000000000000e+00) (0, 0, 0.00000000000000000000e+00) (0, 0, 0.00000000000000000000e+00) (0, 0, 0.00000000000000000000e+00) (0, 0, 0.00000000000000000000e+00) (0, 0, 0.00000000000000000000e+00) (0, 0, 0.00000000000000000000e+00) (0, 0, 0.00000000000000000000e+00) (0, 0, 0.00000000000000000000e+00) (0, 0, 0.00000000000000000000e+00) (0, 0, 0.00000000000000000000e+00) (0, 0, 0.00000000000000000000e+00) (0, 0, 0.00000000000000000000e+00) (0, 0, 0.00000000000000000000e+00) (0, 0, 0.00000000000000000000e+00) (0, 0, 0.00000000000000000000e+00) (0, 0, 0.00000000000000000000e+00) (0, 0, 0.00000000000000000000e+00) (0, 0, 0.00000000000000000000e+00) (0, 0, 0.00000000000000000000e+00) (0, 0, 0.00000000000000000000e+00) (0, 0, 0.00000000000000000000e+00) (0, 0, 0.00000000000000000000e+00) (0, 0, 0.00000000000000000000e+00) (0, 0, 0.00000000000000000000e+00) (0, 0, 0.00000000000000000000e+00) (0, 0, 0.00000000000000000000e+00) (0, 0, 0.00000000000000000000e+00) (0, 0, 0.00000000000000000000e+00) (0, 0, 0.00000000000000000000e+00) (0, 0, 0.00000000000000000000e+00) (0, 0, 0.00000000000000000000e+00) (0, 0, 0.00000000000000000000e+00) (0, 0, 0.00000000000000000000e+00) (0, 0, 0.00000000000000000000e+00) (0, 0, 0.00000000000000000000e+00) (0, 0, 0.00000000000000000000e+00) (0, 0, 0.00000000000000000000e+00) (0, 0, 0.00000000000000000000e+00) (0, 0, 0.00000000000000000000e+00) (0, 0, 0.00000000000000000000e+00) (0, 0, 0.00000000000000000000e+00) (0, 0, 0.00000000000000000000e+00) (0, 0, 0.00000000000000000000e+00) (0, 0, 0.00000000000000000000e+00) (0, 0, 0.00000000000000000000e+00) (0, 0, 0.00000000000000000000e+00) (0, 0, 0.00000000000000000000e+00) (0, 0, 0.00000000000000000000e+00) (0, 0, 0.00000000000000000000e+00) (0, 0, 0.00000000000000000000e+00) (0, 0, 0.00000000000000000000e+00) (0, 0, 0.00000000000000000000e+00) (0, 0, 0.00000000000000000000e+00) (0, 0, 0.00000000000000000000e+00) (0, 0, 0.00000000000000000000e+00) (0, 0, 0.00000000000000000000e+00) (0, 0, 0.00000000000000000000e+00) (0, 0, 0.00000000000000000000e+00) (0, 0, 0.00000000000000000000e+00) (0, 0, 0.00000000000000000000e+00) (0, 0, 0.00000000000000000000e+00) (0, 0, 0.00000000000000000000e+00) (0, 0, 0.00000000000000000000e+00) (0, 0, 0.00000000000000000000e+00) (0, 0, 0.00000000000000000000e+00) (0, 0, 0.00000000000000000000e+00) (0, 0, 0.00000000000000000000e+00) (0, 0, 0.00000000000000000000e+00) (0, 0, 0.00000000000000000000e+00) (0, 0, 0.00000000000000000000e+00) (0, 0, 0.00000000000000000000e+00) (0, 0, 0.00000000000000000000e+00) (0, 0, 0.00000000000000000000e+00) (0, 0, 0.00000000000000000000e+00) (0, 0, 0.00000000000000000000e+00) (0, 0, 0.00000000000000000000e+00) (0, 0, 0.00000000000000000000e+00) (0, 0, 0.00000000000000000000e+00) (0, 0, 0.00000000000000000000e+00) (0, 0, 0.00000000000000000000e+00) (0, 0, 0.00000000000000000000e+00) (0, 0, 0.00000000000000000000e+00) (0, 0, 0.00000000000000000000e+00) (0, 0, 0.00000000000000000000e+00) (0, 0, 0.00000000000000000000e+00) (0, 0, 0.00000000000000000000e+00) (0, 0, 0.00000000000000000000e+00) (0, 0, 0.00000000000000000000e+00) (0, 0, 0.00000000000000000000e+00) (0, 0, 0.00000000000000000000e+00) (0, 0, 0.00000000000000000000e+00) (0, 0, 0.00000000000000000000e+00) (0, 0, 0.00000000000000000000e+00) (0, 0, 0.00000000000000000000e+00) (0, 0, 0.00000000000000000000e+00) (0, 0, 0.00000000000000000000e+00) (0, 0, 0.00000000000000000000e+00) (0, 0, 0.00000000000000000000e+00) (0, 0, 0.00000000000000000000e+00) (0, 0, 0.00000000000000000000e+00) (0, 0, 0.00000000000000000000e+00) (0, 0, 0.00000000000000000000e+00) (0, 0, 0.00000000000000000000e+00) (0, 0, 0.00000000000000000000e+00) (0, 0, 0.00000000000000000000e+00) (0, 0, 0.00000000000000000000e+00) (0, 0, 0.00000000000000000000e+00) (0, 0, 0.00000000000000000000e+00) (0, 0, 0.00000000000000000000e+00) (0, 0, 0.00000000000000000000e+00) (0, 0, 0.00000000000000000000e+00) (0, 0, 0.00000000000000000000e+00) (0, 0, 0.00000000000000000000e+00) (0, 0, 0.00000000000000000000e+00) (0, 0, 0.00000000000000000000e+00) (0, 0, 0.00000000000000000000e+00) (0, 0, 0.00000000000000000000e+00) (0, 0, 0.00000000000000000000e+00) (0, 0, 0.00000000000000000000e+00) (0, 0, 0.00000000000000000000e+00) (0, 0, 0.00000000000000000000e+00) (0, 0, 0.00000000000000000000e+00) (0, 0, 0.00000000000000000000e+00) (0, 0, 0.00000000000000000000e+00) (0, 0, 0.00000000000000000000e+00) (0, 0, 0.00000000000000000000e+00) (0, 0, 0.00000000000000000000e+00) (0, 0, 0.00000000000000000000e+00) (0, 0, 0.00000000000000000000e+00) (0, 0, 0.00000000000000000000e+00) (0, 0, 0.00000000000000000000e+00) (0, 0, 0.00000000000000000000e+00) (0, 0, 0.00000000000000000000e+00) (0, 0, 0.00000000000000000000e+00) (0, 0, 0.00000000000000000000e+00) (0, 0, 0.00000000000000000000e+00) (0, 0, 0.00000000000000000000e+00) (0, 0, 0.00000000000000000000e+00) (0, 0, 0.00000000000000000000e+00) (0, 0, 0.00000000000000000000e+00) (0, 0, 0.00000000000000000000e+00) (0, 0, 0.00000000000000000000e+00) (0, 0, 0.00000000000000000000e+00) (0, 0, 0.00000000000000000000e+00) (0, 0, 0.00000000000000000000e+00) (0, 0, 0.00000000000000000000e+00) (0, 0, 0.00000000000000000000e+00) (0, 0, 0.00000000000000000000e+00) (0, 0, 0.00000000000000000000e+00) (0, 0, 0.00000000000000000000e+00) (0, 0, 0.00000000000000000000e+00) (0, 0, 0.00000000000000000000e+00) (0, 0, 0.00000000000000000000e+00) (0, 0, 0.00000000000000000000e+00) (0, 0, 0.00000000000000000000e+00) (0, 0, 0.00000000000000000000e+00) (0, 0, 0.00000000000000000000e+00) (0, 0, 0.00000000000000000000e+00) (0, 0, 0.00000000000000000000e+00) (0, 0, 0.00000000000000000000e+00) (0, 0, 0.00000000000000000000e+00) (0, 0, 0.00000000000000000000e+00) (0, 0, 0.00000000000000000000e+00) (0, 0, 0.00000000000000000000e+00) (0, 0, 0.00000000000000000000e+00) (0, 0, 0.00000000000000000000e+00) (0, 0, 0.00000000000000000000e+00) (0, 0, 0.00000000000000000000e+00) (0, 0, 0.00000000000000000000e+00) (0, 0, 0.00000000000000000000e+00) (0, 0, 0.00000000000000000000e+00) (0, 0, 0.00000000000000000000e+00) (0, 0, 0.00000000000000000000e+00) (0, 0, 0.00000000000000000000e+00) (0, 0, 0.00000000000000000000e+00) (0, 0, 0.00000000000000000000e+00) (0, 0, 0.00000000000000000000e+00) (0, 0, 0.00000000000000000000e+00) (0, 0, 0.00000000000000000000e+00) (0, 0, 0.00000000000000000000e+00) (0, 0, 0.00000000000000000000e+00) (0, 0, 0.00000000000000000000e+00) (0, 0, 0.00000000000000000000e+00) (0, 0, 0.00000000000000000000e+00) (0, 0, 0.00000000000000000000e+00) (0, 0, 0.00000000000000000000e+00) (0, 0, 0.00000000000000000000e+00) (0, 0, 0.00000000000000000000e+00) (0, 0, 0.00000000000000000000e+00) (0, 0, 0.00000000000000000000e+00) (0, 0, 0.00000000000000000000e+00) (0, 0, 0.00000000000000000000e+00) (0, 0, 0.00000000000000000000e+00) (0, 0, 0.00000000000000000000e+00) (0, 0, 0.00000000000000000000e+00) (0, 0, 0.00000000000000000000e+00) (0, 0, 0.00000000000000000000e+00) (0, 0, 0.00000000000000000000e+00) (0, 0, 0.00000000000000000000e+00) (0, 0, 0.00000000000000000000e+00) (0, 0, 0.00000000000000000000e+00) (0, 0, 0.00000000000000000000e+00) (0, 0, 0.00000000000000000000e+00) (0, 0, 0.00000000000000000000e+00) (0, 0, 0.00000000000000000000e+00) (0, 0, 0.00000000000000000000e+00) (0, 0, 0.00000000000000000000e+00) (0, 0, 0.00000000000000000000e+00) (0, 0, 0.00000000000000000000e+00) (0, 0, 0.00000000000000000000e+00) (0, 0, 0.00000000000000000000e+00) (0, 0, 0.00000000000000000000e+00) (0, 0, 0.00000000000000000000e+00) (0, 0, 0.00000000000000000000e+00) (0, 0, 0.00000000000000000000e+00) (0, 0, 0.00000000000000000000e+00) (0, 0, 0.00000000000000000000e+00) (0, 0, 0.00000000000000000000e+00) (0, 0, 0.00000000000000000000e+00) (0, 0, 0.00000000000000000000e+00) (0, 0, 0.00000000000000000000e+00) (0, 0, 0.00000000000000000000e+00) (0, 0, 0.00000000000000000000e+00) (0, 0, 0.00000000000000000000e+00) (0, 0, 0.00000000000000000000e+00) (0, 0, 0.00000000000000000000e+00) (0, 0, 0.00000000000000000000e+00) (0, 0, 0.00000000000000000000e+00) (0, 0, 0.00000000000000000000e+00) (0, 0, 0.00000000000000000000e+00) (0, 0, 0.00000000000000000000e+00) (0, 0, 0.00000000000000000000e+00) (0, 0, 0.00000000000000000000e+00) (0, 0, 0.00000000000000000000e+00) (0, 0, 0.00000000000000000000e+00) (0, 0, 0.00000000000000000000e+00) (0, 0, 0.00000000000000000000e+00) (0, 0, 0.00000000000000000000e+00) (0, 0, 0.00000000000000000000e+00) (0, 0, 0.00000000000000000000e+00) (0, 0, 0.00000000000000000000e+00) (0, 0, 0.00000000000000000000e+00) (0, 0, 0.00000000000000000000e+00) (0, 0, 0.00000000000000000000e+00) (0, 0, 0.00000000000000000000e+00) (0, 0, 0.00000000000000000000e+00) (0, 0, 0.00000000000000000000e+00) (0, 0, 0.00000000000000000000e+00) (0, 0, 0.00000000000000000000e+00) (0, 0, 0.00000000000000000000e+00) (0, 0, 0.00000000000000000000e+00) (0, 0, 0.00000000000000000000e+00) (0, 0, 0.00000000000000000000e+00) (0, 0, 0.00000000000000000000e+00) (0, 0, 0.00000000000000000000e+00) (0, 0, 0.00000000000000000000e+00) (0, 0, 0.00000000000000000000e+00) (0, 0, 0.00000000000000000000e+00) (0, 0, 0.00000000000000000000e+00) (0, 0, 0.00000000000000000000e+00) (0, 0, 0.00000000000000000000e+00) (301, 15, 2.50000000000000000000e-01) (302, 15, 5.00000000000000000000e-01) (303, 5, 5.00000000000000000000e-01) (303, 5, 5.00000000000000000000e-01) (303, 5, 5.00000000000000000000e-01) (303, 5, 5.00000000000000000000e-01) (303, 5, 5.00000000000000000000e-01) 
connections (connected_to_neuron, weight)=(0, 1.49247641332833191896e+00) (1, 1.82687778242318055177e+00) (2, 9.97624735880235813390e-01) (3, 1.05099266363701615568e+00) (4, 9.38641842141961002532e-01) (5, 1.35180741144738036930e+00) (6, 9.77091359489441591002e-01) (7, 1.43631181884147363093e+00) (8, 1.24754951167442040827e+00) (9, 1.20767529706333642814e+00) (10, 1.29780009934401063809e+00) (11, 1.31096465089896274669e+00) (12, 7.50215673379896197392e-02) (13, 8.36087989204407411314e-01) (14, 1.28839414059448187366e+00) (15, 1.52321740730538612851e+00) (16, 6.23154536618926391256e-01) (17, 1.82709402195449799322e+00) (18, 5.63821232937271266117e-01) (19, 6.77401622263814062741e-01) (20, 1.13619662908999252693e+00) (21, 1.63931500347440817222e+00) (22, 1.24696891789596686628e+00) (23, 3.84821975403496635559e-02) (24, 1.61823412169176483744e+00) (25, 6.80034744622349696108e-01) (26, 5.03581900578051633310e-01) (27, 9.18090054514230757832e-01) (28, 5.76235405017744617417e-01) (29, 1.75049263676015631752e+00) (30, 1.00164645796298290570e+00) (31, 2.22399491451330644232e-01) (32, 1.58838687045411441900e+00) (33, 1.89807460361625901513e+00) (34, 1.06643513963554403823e+00) (35, 4.55150482271167777792e-01) (36, 1.16551150531049496628e+00) (37, 3.10705542979762383560e-01) (38, 1.97013344919975663672e+00) (39, 4.71251887519083367817e-01) (40, 1.31459570425037775010e+00) (41, 1.67880596720324426485e+00) (42, 1.78472058398840704996e+00) (43, 1.66450268822409963576e+00) (44, 3.90026577907363614095e-02) (45, 1.20361129934109967188e+00) (46, 1.17057539396725873715e+00) (47, 1.27359962851520691629e+00) (48, 1.06477374727158924372e+00) (49, 1.81799064049201075655e+00) (50, 1.22715894108571510479e+00) (51, 2.95574263789259605861e-01) (52, 2.06315826868920515480e+00) (53, 9.73255175960063834140e-01) (54, 4.00569478368225151410e-01) (55, 9.82607464609547398560e-01) (56, 1.46606724958178191720e+00) (57, 9.53401852299262442259e-01) (58, 2.23842716231677923977e-01) (59, 1.91156385573107767684e-01) (60, 4.32197412321474849772e-01) (61, 7.57902519317409151256e-01) (62, -9.50079021006007629069e+00) (63, 1.94585289714392617455e+00) (64, 7.73439204149812820077e-01) (65, -8.11926232163704741929e-01) (66, -1.50937131600861462744e+00) (67, 1.39972228145426626222e-02) (68, 1.36064739582721117017e+00) (69, -9.22665803133153494819e-01) (70, 4.89386904158870927883e-01) (71, 1.32717102092435146332e+00) (72, 1.80834324187828715536e-01) (73, 3.28427423851578970115e-01) (74, 2.22399632941958802501e-01) (75, 4.92354772835575160705e-01) (76, 1.66657912888222736747e+00) (77, 1.89807344327205851364e+00) (78, 2.06519673206733422877e-02) (79, 3.01772898676438083854e+00) (80, 1.59352453925179116112e+00) (81, 1.33682446143457767107e+00) (82, 1.59165290026940953183e+00) (83, 1.27401051788147201549e+00) (84, 2.01708852208054734145e-01) (85, 2.15738328571160620228e+00) (86, 2.81429352253712217191e+00) (87, -6.80922293190717748540e-03) (88, 4.09858388167898457510e+00) (89, 7.35468498116715552193e-01) (90, 3.51735816958813396482e-01) (91, 2.77707866861753949195e+00) (92, 2.58662847022490316462e+00) (93, 7.08384801267461505780e-01) (94, 1.69935217911650338074e-01) (95, 8.67467622828486439879e-01) (96, -6.82939846791609461718e-01) (97, 2.05702526342554348204e+00) (98, 6.14184265923421568445e-01) (99, 1.84335157188213782931e+00) (100, 1.14988119431261859305e+00) (101, 1.95516041452311806204e+00) (102, 2.70696627089225365370e-02) (103, 3.98351214223945204740e-01) (104, -4.66707967682827273848e+00) (105, 1.30506662724939892506e+00) (106, 2.63778462142504332988e-01) (107, 1.91971462652135671512e+00) (108, -1.03326888994144158035e-02) (109, -1.53778243652444657208e+00) (110, -2.01951251301570744445e+00) (111, 9.67349796614180440502e-02) (112, 3.16290377611556872139e+00) (113, 2.22282674261435220231e+00) (114, 5.03520175832026350982e-01) (115, -2.95334432049048023483e-01) (116, -2.14709096846494995603e+00) (117, 1.14533035019382500863e+00) (118, 3.10803648072228444477e+00) (119, 4.91759120542500394180e+00) (120, 4.42902941951872075599e-01) (121, 7.23143063815767761504e-01) (122, -6.94290667677200801222e+00) (123, 4.77075183407963065996e-01) (124, 2.46432603554522033917e+00) (125, 1.10065227411585775386e+00) (126, -4.42973216001064762359e-01) (127, 2.20435111110463655137e+00) (128, -6.94637748002779886747e-01) (129, 1.31442761571854460634e+00) (130, 3.51623087644836918031e+00) (131, 1.22558840521783718458e+00) (132, 3.93064450392405020929e-02) (133, 1.33791506857467612512e+00) (134, 2.84386126257340077217e+00) (135, 4.20209880148882330975e-01) (136, 4.61049610954389788020e+00) (137, 2.82933891204130105734e+00) (138, 3.51411476910172870802e+00) (139, 3.28024334653831495245e+00) (140, 2.33977804039531500635e+00) (141, 7.56864323429204177707e-01) (142, 2.84140142175310517203e+00) (143, 1.29024527428980406718e+00) (144, 6.08710560457361804509e+00) (145, 4.78816214451257149420e+00) (146, 5.92308522293491979127e+00) (147, 1.19085802759865155842e+00) (148, 3.96652230725985077697e+00) (149, 5.66254655064879841575e+00) (150, 1.09260033152809921120e+00) (151, 2.56173089051797830962e+00) (152, 4.85236036375650403585e+00) (153, 2.39763136276346822129e+00) (154, 1.27768316685059168947e-01) (155, -2.95217872817191073764e+00) (156, 1.86243702157410218057e+00) (157, 3.45346334867300086557e+00) (158, 2.96064876049963654481e+00) (159, 1.52306960824022974421e+00) (160, 2.52896433382913732313e-01) (161, 9.08246980163069039804e-01) (162, -4.66335412737147014806e-01) (163, 1.16384444767024519685e+00) (164, 1.94901791077437103183e+00) (165, 3.80471903402235966940e-01) (166, 1.07076346303313793551e-01) (167, -6.68569266491249591944e-01) (168, 5.86677805673535668340e-01) (169, 1.48880098523406689814e+00) (170, 2.32571590561315311163e+00) (171, 5.01023724948799764611e-01) (172, -6.49554345381962161543e-02) (173, 6.98482825736622792157e-01) (174, 7.66670094008064961777e-01) (175, 2.69817816695141177163e+00) (176, 1.84622080143660194373e+00) (177, 1.14393683541209667531e+00) (178, 9.57621405159083227687e-01) (179, 1.07564087519779438828e+00) (180, 1.86547895780441330693e+00) (181, 2.57136829755912721396e+00) (182, 2.58574725184164355696e+00) (183, 1.36942859767948288408e+00) (184, 1.89275696899875311985e+00) (185, 1.45422663980643718240e+00) (186, 1.00362927935229453991e-01) (187, 1.39183338807096523837e+00) (188, 2.94334807042941148936e+00) (189, 1.59076249169917582904e+00) (190, 1.40168263588237396178e+00) (191, 1.11760211292063882382e+00) (192, 2.01525756789625054566e+00) (193, 1.08533902536550308504e+00) (194, 1.84671240115990720199e+00) (195, 1.55508928360234621735e+00) (196, 1.93058082066456249137e+00) (197, 2.34901617282684194166e+00) (198, 1.39623099294087360533e+00) (199, 2.20147939829900352038e+00) (200, 3.04388782242678246348e+00) (201, 1.87554543688239361288e+00) (202, 3.93006571121826953075e+00) (203, 3.09082851270190106518e+00) (204, -2.36452126470593704255e+00) (205, 4.89478987095522899420e-01) (206, 1.91778102129104954798e+00) (207, 1.50275975856778987172e+00) (208, 3.59561822592688606903e+00) (209, 2.19027495570408037295e+00) (210, 2.46769196160742561308e-02) (211, 2.45693869110790608090e+00) (212, 4.67154059286289680131e+00) (213, 1.63898069482484620707e+00) (214, 1.06810838983985290085e+00) (215, 2.28605639287424633466e+00) (216, 8.54738594438653409568e-01) (217, 1.23856308281661409154e+00) (218, 1.03083010711391320768e+00) (219, -2.26630089994258217267e-02) (220, 2.34990796684992897525e+00) (221, 9.54601334088045261339e-01) (222, -3.32552234062283513794e+00) (223, 2.20172135863112794496e+00) (224, 1.64678035768603781008e+00) (225, 1.06963293682953963781e+00) (226, 5.71111244197797018884e-01) (227, 7.07787708990770481066e-01) (228, 3.21724199231107232944e-01) (229, 3.48107418828520642773e-01) (230, 1.90433496181605321773e+00) (231, -7.21680969820888505023e-03) (232, 1.09128944322508192322e+00) (233, 1.68515098932584206359e+00) (234, 1.20415153040044620170e+00) (235, 1.64503201830685918949e+00) (236, 2.30539983052736063840e+00) (237, 1.04161343424090069298e+00) (238, 4.80782305050542702052e-01) (239, 1.32227589632866671110e+00) (240, 1.59318050034267821857e+00) (241, 9.19664925020204915285e-01) (242, 8.44421565931174566977e-01) (243, 8.98916087865285762248e-01) (244, -3.00569769351163931792e-02) (245, 9.11884392608669047675e-01) (246, 5.26851765180811559830e-01) (247, -4.82745682623229532826e-01) (248, 6.90032551114662662251e-01) (249, 5.37230295032302573865e-01) (250, 5.24182587378613007445e-01) (251, 1.54602692242990724658e+00) (252, 1.27199248097988371065e+00) (253, 9.26803133758153929733e-01) (254, 8.43926107149496340654e-01) (255, 5.85642963911406799760e-01) (256, 5.48796200973460490680e-01) (257, 1.34407259767728115563e+00) (258, 1.04866991781961838015e+00) (259, 1.43913037177906977249e+00) (260, 1.31552985367713670684e+00) (261, 6.15184290554878887569e-01) (262, 1.55351327604181754793e+00) (263, 5.03597892003090685797e-01) (264, 2.20950672293358602039e-01) (265, 1.43264589514130746828e+00) (266, 2.03994157837877088113e+00) (267, 2.06211187140025975495e+00) (268, 5.41023808067254474707e-01) (269, 7.26783759913365301486e-01) (270, 1.49635232803331774676e+00) (271, 2.09309332893241251128e+00) (272, 7.44602765637109254016e-01) (273, 2.03244637151449447643e+00) (274, 1.48098216463006560062e+00) (275, 1.11401465635012630884e+00) (276, 1.21599467132794014645e+00) (277, 1.85048256659496734855e+00) (278, 1.36290324686664954257e+00) (279, 4.62087995316202870821e-01) (280, 1.11772077299212999058e-01) (281, 1.79964779517755557592e+00) (282, 2.22107305259097964623e+00) (283, 1.50422276069809290888e+00) (284, 1.23141697025330398851e+00) (285, 9.95784505237040762360e-01) (286, -3.21787822039541274166e-02) (287, 1.81354884871403476687e+00) (288, 1.07363927120885116473e+00) (289, 1.37786818180681480683e+00) (290, 1.63302016888262002681e+00) (291, 2.98244021434243278268e-01) (292, 1.62137726863808029343e+00) (293, 8.19528807184318641710e-01) (294, 1.21850134640103147099e+00) (295, 2.18522095436772456623e+00) (296, 6.04715210744944609011e-01) (297, 6.51318747753489302177e-01) (298, 1.69398627779155952489e+00) (299, 6.52531426164211225682e-01) (300, 3.23253555685849458534e-01) (0, 7.40814905820415425808e-01) (1, 6.30685132203624654323e-01) (2, 1.48188982552103731827e+00) (3, 1.88092458990560068566e-01) (4, 1.94318622227558246429e+00) (5, 1.83960217114338031585e+00) (6, 4.61698059440735164571e-01) (7, 1.28169756054985839455e+00) (8, 2.70101419479213122887e-01) (9, 2.06999545902207193748e+00) (10, 5.26212601032731708273e-01) (11, 7.61693714228151352863e-01) (12, 2.94423396677371773666e-01) (13, 2.19137785843760868332e+00) (14, 2.12092099119474264413e+00) (15, 2.93938154564773013178e-01) (16, 1.03796023177865337495e+00) (17, 1.49452085367954579098e+00) (18, 1.54099990434250044835e+00) (19, 2.23579580041209124985e+00) (20, 1.60874701515407392272e+00) (21, 1.42996940488335777530e+00) (22, 6.40249395795474351978e-01) (23, 1.47165937541648861320e+00) (24, 1.08170137605475158438e+00) (25, 2.05548485669984337676e+00) (26, 1.44739814236356423294e+00) (27, 1.30114359845324178977e+00) (28, 1.45417117051281086226e+00) (29, 1.66156703022471563536e+00) (30, 1.49463723950044280464e+00) (31, 1.94885725020968680887e-01) (32, 3.93398532376203369232e-01) (33, 8.67019587197366825571e-01) (34, 2.57153657538229829527e-01) (35, 7.03741330955373195488e-02) (36, 7.28827117997985274300e-01) (37, 7.39534106137554991811e-01) (38, 1.33253154243732030437e+00) (39, 5.27737725336103413731e-01) (40, 9.45165555515274508069e-02) (41, 1.21643217147251148091e+00) (42, 1.48525768141237413111e+00) (43, 1.33565408213151282091e+00) (44, 2.26044345123780354712e+00) (45, 1.10815861252649927593e+00) (46, -7.88576914463620104456e-02) (47, 7.86070996608348726564e-02) (48, 6.14289191426019787201e-01) (49, 3.14438081660064094880e-01) (50, 1.06750477538840260472e+00) (51, 1.83458002572394462959e+00) (52, 6.21279311481285678731e-01) (53, 1.21427875050839251259e+00) (54, 1.34405579871056435337e+00) (55, 5.50758376717951692036e-01) (56, 9.86651248612197551147e-01) (57, 4.77051403899877823900e-01) (58, 2.45281965561774129014e+00) (59, 8.58892123882560754033e-01) (60, 2.30949947280150530426e-01) (61, 1.35535903275051361483e+00) (62, 1.57782448090232341187e+00) (63, 2.84014413999431003521e-01) (64, -1.23805239361005958720e+00) (65, 5.31515938789721587021e-01) (66, 5.30808527922043027480e-01) (67, 1.00449545512653637402e+00) (68, 1.61634347009645251703e+00) (69, 1.57422239997147705992e+00) (70, 2.03798321140291349707e+00) (71, 1.90874320800308883150e+00) (72, 1.24401146616613456075e+00) (73, 1.07422227808468195853e+00) (74, 8.60921525113681140873e-01) (75, 6.19029572799943417216e-01) (76, 7.71886719666320608724e-01) (77, 1.22011871638487279235e+00) (78, 1.58435754906955628130e+00) (79, 1.45020902858571054672e+00) (80, 1.49302986896158129682e+00) (81, 1.40878458900105463236e+00) (82, 1.09227788818116855474e+00) (83, 9.42349552163211812150e-01) (84, 5.50246875270841373506e-01) (85, 2.50240357297941740100e+00) (86, 1.46187621650297416842e+00) (87, 1.45220986384291683713e+00) (88, 1.30536486977392396369e+00) (89, 1.32716397735594648921e+00) (90, 1.96056812323249873842e+00) (91, 1.11031676007601176615e+00) (92, 5.93250440031066306190e-01) (93, 2.02389083320736418159e+00) (94, 1.86175069597079323458e+00) (95, 1.98529073055201377151e+00) (96, 1.04036851617639491963e+00) (97, 2.16201801097237256144e+00) (98, 1.77667506546225761888e+00) (99, 1.55223129902154743931e+00) (100, 1.82582050985674437804e+00) (101, 1.10286707159770891451e+00) (102, 1.80340882517430722842e+00) (103, 1.20492230544686518279e+00) (104, 2.34013435884202491977e+00) (105, 1.30893223006768932848e+00) (106, 1.86872966220014902206e+00) (107, 2.15935583300699418530e+00) (108, 5.53499624839798864961e-01) (109, 9.94952937465486519919e-01) (110, 9.26823359567141458193e-01) (111, 1.12426016108036774810e+00) (112, -1.46841008248476123654e+00) (113, 2.12346501959071648491e-01) (114, 2.16047953672839998518e+00) (115, 1.11962367688457908876e+00) (116, 6.39697697424126410226e-01) (117, 2.82187518215542498812e-01) (118, -2.10053622471197076749e+00) (119, 3.87317990711515069968e-01) (120, 2.00469410047747320647e+00) (121, 1.20996432042806278950e+00) (122, 3.20029005820810397154e-01) (123, 8.84071163212070243453e-01) (124, 1.69098428058300176424e+00) (125, 1.57179668874005051826e+00) (126, 4.58905800672475383539e-01) (127, -8.70124136234279726976e-02) (128, 1.41218793560520894381e+00) (129, 1.10076278003782768167e+00) (130, 2.01075979857868292200e+00) (131, 6.58794819305690615430e-01) (132, 1.00368849023586093061e+00) (133, 7.49100920588613328199e-01) (134, 1.09249783589632531999e+00) (135, 1.83204855873171124081e+00) (136, 1.05076338838850952273e-01) (137, -1.10942459751554811653e-01) (138, 1.83571718857286159121e+00) (139, -6.25981673772013080814e-02) (140, 8.78402153287457854169e-01) (141, -4.08696458158953945805e-01) (142, 1.51868680185537807681e+00) (143, 1.44182107058017172641e+00) (144, 1.62312162541619686706e+00) (145, 2.73603183526465676412e-01) (146, -5.35411151834464416055e-01) (147, 4.45313097387221412671e-01) (148, 2.65186037787700834567e-01) (149, 9.25183201564488966184e-01) (150, 5.88160710897121297158e-01) (151, -3.47554163193221854478e-01) (152, 1.32172726428034637003e+00) (153, 6.90957025919565648309e-01) (154, 2.07096676254344158608e+00) (155, 2.92380468384634095713e+00) (156, 8.19199889693713489969e-01) (157, -2.45805759478987279065e-01) (158, 2.56598113549893636076e+00) (159, 1.22583207181054221202e+00) (160, 1.49669919833102960105e+00) (161, 2.37315224911536715169e+00) (162, 2.20620530835908779110e+00) (163, 1.12271679804272839220e+00) (164, 1.34999977049689401376e+00) (165, 1.13220488525207141350e+00) (166, 3.81582305257441634083e-01) (167, 1.84909146055342067660e-02) (168, 1.89106203306034226230e+00) (169, 1.65130930411792747892e-01) (170, 2.44502491052670162253e-01) (171, 1.05642073118604074011e+00) (172, 5.57825613462135327936e-01) (173, 1.99402243961187219945e-01) (174, 2.27929236083298070170e-01) (175, -3.18032318587249007713e-01) (176, 1.39911828488698897210e+00) (177, 5.59493833772486848233e-01) (178, 1.80205794096371318957e+00) (179, 1.01378089951749372766e+00) (180, 3.98715970663690522091e-01) (181, 6.46572183085646789991e-01) (182, -1.50903079210095186768e-01) (183, 5.15819503413708302375e-01) (184, 2.22805364875685718573e+00) (185, -4.03304696379346294677e-01) (186, 1.08085493251584674468e+00) (187, -4.27403183208396042492e-01) (188, -2.83971081030779892718e-01) (189, 5.39592777198055539856e-01) (190, 2.30146616455136054924e+00) (191, 2.51287262281574452771e+00) (192, 5.93095325962521013885e-01) (193, 1.05948291793727022991e+00) (194, 5.31885117577550747825e-01) (195, 1.45346363836065228803e+00) (196, 2.34734648044674631961e+00) (197, 1.86470143325608050944e+00) (198, 6.62550592317821429589e-01) (199, -2.10534112320328981038e-01) (200, 4.05261763333953306532e-01) (201, 2.05952112605830039982e+00) (202, 2.37126902306475928484e+00) (203, 4.02250673035373651487e+00) (204, 1.37295543698486649520e-01) (205, 1.80202599606500579732e+00) (206, 5.66130876909391386742e-02) (207, 1.88962165118537051001e+00) (208, 2.32182874476547551623e+00) (209, 1.78411506298490940559e+00) (210, 4.41314297638708608051e-01) (211, 1.18672659026353530254e-01) (212, 5.55055138984532292490e-01) (213, 4.97906651118084742080e-01) (214, 7.35259246871094451770e-01) (215, 1.01619847856759304427e+00) (216, 8.33139202217256125138e-01) (217, 2.07635129770089932322e+00) (218, 1.76565941010541038736e+00) (219, 1.11969342557992157516e+00) (220, 6.62389610229766501170e-01) (221, 1.00155801074674233320e+00) (222, 8.92798777898511142226e-01) (223, 2.26477029607786706222e+00) (224, 2.57814767805270905754e+00) (225, -7.16418986172731864226e-02) (226, 1.47690102472422224444e+00) (227, 1.54706071358699204232e+00) (228, 1.48583359114895924291e-01) (229, 4.19024042011452657608e-01) (230, 1.59791997723104817197e+00) (231, 1.31332772015458276726e+00) (232, 2.51215402847907265382e+00) (233, 1.36713524907671035713e+00) (234, 1.16589429909514064043e+00) (235, -1.59143262772333121680e-01) (236, 1.71676458084444143182e-02) (237, 1.24316912849152694243e+00) (238, 2.56747265747726016727e+00) (239, 2.57608488501051935415e+00) (240, 2.76587203639389489496e-01) (241, -1.49292926395639902193e-01) (242, 1.75290409300810257065e+00) (243, 6.17918162477564369972e-01) (244, 6.14766733076154592297e-01) (245, 1.25419216436384678426e-01) (246, 7.45669639372584569514e-01) (247, 1.43062751059965020950e+00) (248, 1.50673224149125317695e+00) (249, 1.42326123859540976113e+00) (250, 5.25012889997764298222e-01) (251, 1.57284203060073668468e+00) (252, 1.44425143020643331759e+00) (253, 1.51345858930395182895e+00) (254, 9.46927786890004785647e-01) (255, 1.58538966242461221157e+00) (256, 1.55045898786723612695e+00) (257, 1.94289069143859416400e+00) (258, 1.50401126588813605078e-01) (259, 1.66654913199941123736e+00) (260, -1.45690943942591050186e-01) (261, 1.48701305053949162094e+00) (262, 1.08217283860529844830e+00) (263, 1.99890703062340580054e+00) (264, 3.89207774515973659035e-01) (265, 3.43659277982826583120e-01) (266, 1.27472860527356457450e-01) (267, 3.95814927141463768212e-01) (268, 1.49302770733823031435e+00) (269, 1.93579782282245993486e+00) (270, 5.86849899837705413219e-01) (271, 1.98884051058907673770e+00) (272, 1.98662937265863259739e-01) (273, 3.75768317886192859678e-01) (274, 3.67319692461326285926e-01) (275, 6.65491375570023913077e-01) (276, 7.44983194928057645967e-01) (277, 1.36787256333798845631e+00) (278, 3.31225914096542117804e-01) (279, 1.12800279589309562778e-01) (280, 4.30054994310703875282e-01) (281, 8.05281222155693865439e-01) (282, 1.93244334617820734401e+00) (283, 2.12032981774458484381e+00) (284, 5.39955849795320297346e-01) (285, 8.67627700975176274767e-01) (286, 1.31468654066486356768e+00) (287, 1.90643719930447197441e+00) (288, 1.01425129423665838502e+00) (289, 1.72629564106039601334e+00) (290, 1.93756001293234425553e+00) (291, 8.42239650320553923102e-01) (292, 1.01061564697281935921e+00) (293, 8.00939899047894865447e-01) (294, 8.75428259213995585419e-01) (295, 1.29548883422238758634e+00) (296, 1.05529427512509776932e+00) (297, 1.08473955612074979271e+00) (298, 1.75951087275293738266e+00) (299, 5.72537181766304525965e-01) (300, -1.82346117448214245504e-01) (301, -2.09939295252058122365e-01) (0, -2.68482338046722890379e-01) (1, -1.78280140614204857252e-01) (2, -1.74181009983711693190e-01) (3, -3.14159113305391091142e-01) (4, -2.60536129909337998978e-01) (5, -2.42733049529374855791e-01) (6, -2.11285046796342718123e-01) (7, -2.39765462778431331925e-01) (8, -2.58061901979070973390e-01) (9, -1.19381229104993213941e-01) (10, -1.11909020543916201684e-01) (11, -1.27374689851729755441e-01) (12, -2.73606534610530971463e-01) (13, -1.17239393103380662442e-01) (14, -3.33573215726505278855e-01) (15, 8.38547763070039198219e-01) (16, 3.75912878723710708329e-01) (17, 9.25414455414307113301e-01) (18, -1.27898208360215925872e-01) (19, -4.82432257895831551053e-01) (20, -2.69893099600762242929e-01) (21, 1.00442469967981939938e+00) (22, 6.02699437632925771879e-01) (23, 8.70144060903602856172e-01) (24, -1.31707346301400962663e-01) (25, -3.06801339498456226984e-01) (26, -2.57057061438101086548e-01) (27, 1.02493158326233846367e+00) (28, 5.23806503421484492833e-01) (29, 9.96185025102223509208e-01) (30, -2.27138100240854401424e-01) (31, -2.30817717626678742260e-01) (32, -2.85342209018672021692e-01) (33, 4.50957920230426190233e-01) (34, 4.18020043200598656608e-01) (35, 5.02721187625225995887e-01) (36, -1.25242559238300965596e-01) (37, -4.27669936261110772424e-01) (38, -2.90712426066332907393e-01) (39, 1.23109775559248713073e+00) (40, 7.35974846166994822738e-01) (41, 1.46901523233084208009e+00) (42, -3.55425357401229283227e-02) (43, -2.12849289008862629924e-01) (44, -1.53810628185430092740e-01) (45, 1.63024618811702493026e+00) (46, 5.38547968313195402068e-01) (47, 1.25941432012853260503e+00) (48, 3.87361515918120624669e-01) (49, 3.35940529837460422069e-01) (50, 3.64198372098196498925e-01) (51, 1.24023633925158915936e+00) (52, 1.39360868015226646577e+00) (53, 1.98643590805379566255e+00) (54, 8.30324947952467695700e-01) (55, 2.85862996686711556826e-01) (56, 3.08738815357034568354e-01) (57, 1.00767429968560651155e+00) (58, 1.02002354043773713066e+00) (59, 1.22672451957101946718e+00) (60, 8.14369917922847630365e-01) (61, 6.32330311346696705144e-01) (62, 3.74838146752785095206e-01) (63, 4.82978327037710819525e-01) (64, 3.25606414344357775192e-01) (65, 4.28386951212289313062e-01) (66, 5.20623622636282479270e-01) (67, 2.82980061809386063132e-01) (68, 6.97714393857697623424e-01) (69, -1.70171960817193379523e-01) (70, -3.36965198312897173949e-01) (71, 3.63679104671432162910e-01) (72, 5.30212128471749144509e-01) (73, 6.56601215877657629072e-01) (74, 6.03258676861250342505e-01) (75, -7.45120517758178224632e-01) (76, -4.39133391775592851758e+00) (77, -8.58443528879126782627e-01) (78, 5.10939564615964236793e-01) (79, 5.65128838684176848517e-01) (80, 5.24687240877443672460e-01) (81, -8.30303881857027192837e-01) (82, -1.26255356907915601283e+01) (83, -2.92233217214028062614e+00) (84, 3.25431261094976165271e-01) (85, 2.65491852918992743415e-01) (86, 4.36179616669408354301e-01) (87, -5.68127848048192052310e-01) (88, -2.31117577088899350812e+00) (89, -9.72038400500870536369e-01) (90, 6.07685629787089842679e-01) (91, 3.38048690737995649602e-01) (92, 4.58599723803699121927e-01) (93, -1.05713165019116674820e-02) (94, -1.64792485023787937948e+00) (95, -7.55905163211672448398e-01) (96, 4.78356796988869625853e-01) (97, 3.60696247614074816390e-01) (98, 5.56053227222006674069e-01) (99, 7.50795665511825860428e-01) (100, -7.95609269017682807501e-01) (101, 5.12022864546761713456e-01) (102, 2.85865145678582344146e-01) (103, -1.96299719215509566039e-01) (104, 2.80356279875451475103e-01) (105, 5.30315576208473804520e-01) (106, 8.40084030545653823174e-03) (107, 2.30976271426538065645e-01) (108, 4.64819445764954042311e-01) (109, -1.71899054271813150896e-01) (110, 4.51436446275894187607e-01) (111, 1.06231070244488390308e+00) (112, -1.88254626940210112451e-01) (113, 4.32450834079696921908e-01) (114, 3.54447181974750835654e-01) (115, -1.87945939602607248187e-01) (116, 1.97797522471412273726e-01) (117, 5.63901672655599206507e-01) (118, -1.71147092150661706000e-01) (119, 1.02846981659358294170e-01) (120, 3.67895050586390104375e-01) (121, -3.25296853956344222958e-01) (122, 4.10803102687858412434e-01) (123, 8.40043661427063437230e-01) (124, -1.85508491871596487011e-01) (125, -4.56850509836918605711e-01) (126, 1.16282027909257568155e+00) (127, -5.74892313139976351977e-02) (128, 9.68445310059722230811e-01) (129, 7.78273200637521589407e-01) (130, -4.69941537245055884764e-01) (131, 4.30068332373511108546e-01) (132, 7.05929705871693125019e-01) (133, -3.75845015900068024628e-01) (134, 2.03259125905243642762e-01) (135, 6.34130914416761504171e-01) (136, -6.83232381344649142285e-01) (137, 2.74147966798668984989e-01) (138, 3.09174494096834484580e+00) (139, 2.19602732608525030855e+00) (140, 2.03740473868242366606e+00) (141, 7.54313693232032123070e-01) (142, -7.10322111156160063139e-01) (143, 1.76734431627287025268e-01) (144, 2.03676801079576952347e+00) (145, 2.19553807609151663272e-01) (146, 1.63239087939746285727e+00) (147, 9.99002123947023701334e-01) (148, -8.25286048986332620991e-01) (149, -7.83144115418195757572e-02) (150, 3.30198818708277219702e-01) (151, -1.25676761380116008837e+00) (152, -3.07125826603213192278e-01) (153, -2.12645595865499165145e-01) (154, -5.77066526856566142101e+00) (155, -4.44786144927880577882e+00) (156, 1.66580940472766947380e-01) (157, -1.48008714716280942447e+00) (158, 4.53624639463706735842e-01) (159, -3.84924765136062455029e-02) (160, -3.85213388933144740278e+00) (161, -1.73515484213252912937e+00) (162, -7.95703807599635326575e-01) (163, -9.15246471341825018619e-01) (164, -7.76269399480416094628e-02) (165, 2.34384906603190695806e-01) (166, -1.25043100556227382292e+00) (167, -3.99720473792694042103e-01) (168, -4.45604250964921011491e-01) (169, -1.63992115118653192241e+00) (170, -2.37515857061687185592e+00) (171, 5.18286883976650014638e-01) (172, -4.29095019596286597618e-01) (173, 3.28247514528096029363e-01) (174, -9.26143964350021053900e-02) (175, -2.40156282879766846960e+00) (176, -2.35540019580234805119e+00) (177, 9.14704875916923509926e-01) (178, -5.34275850070000002390e-01) (179, -5.00760432206263303434e-02) (180, -1.18682139447665346843e+00) (181, -9.81923637619257760889e+00) (182, -2.92772646806111769280e+00) (183, 8.31449125059361082712e-01) (184, 3.03931190958109609390e-01) (185, 4.06644779903821584899e-01) (186, -1.30245941265287901167e+00) (187, -3.07361459322779273506e+00) (188, -2.41406900332754759120e+00) (189, 1.30942843998056246413e+00) (190, 1.74133205939626473091e-01) (191, 1.19211321460066810296e+00) (192, -8.02235153604600181865e-01) (193, -1.42846413176614861484e+00) (194, -1.45212648980611502836e+00) (195, 1.45343984281507676570e+00) (196, -1.14003680995192514802e-02) (197, 6.31166734552268460234e-01) (198, 1.01418716671112116301e-01) (199, -7.94628679676771199070e-01) (200, -2.85849246309546334288e-01) (201, 1.18361816587438584136e+00) (202, 4.10399860086921308699e-02) (203, 3.05245600241408232556e-01) (204, 1.34768802237793750010e+00) (205, 3.61905372515542334000e-01) (206, 8.44729346446906448342e-01) (207, 8.60422116889705490550e-01) (208, 1.18201544023602889144e-01) (209, 6.78280096463136222829e-02) (210, 6.30563888091927426949e-01) (211, -2.14610071594052237431e-01) (212, 4.45804738146811707633e-01) (213, 9.12774816006997335993e-02) (214, 1.67370726939638891917e-01) (215, -1.49704915188381953300e-02) (216, 1.04612283081432777543e+00) (217, 5.75161919292650369862e-01) (218, 7.83398005659285634472e-01) (219, 7.84657886071249560667e-02) (220, -7.90206682110887459469e-02) (221, 3.11321378474055998620e-01) (222, 1.01952785774390708440e+00) (223, 3.28980176290338099943e-01) (224, 6.68982678066236902126e-01) (225, 1.34697571479896888169e-01) (226, 3.64887200220755172908e-02) (227, -6.56935520057603528077e-02) (228, 1.30463220806541824182e-01) (229, 4.26436851973224395618e-01) (230, 4.58376713694173543168e-01) (231, 1.67091270085249710142e-01) (232, 1.20006226758075290606e-01) (233, 5.07480377151470540831e-01) (234, 1.42801551848075469753e-01) (235, 2.59727913228687767866e-01) (236, 2.89217145948067577699e-01) (237, 6.85921076556405551194e-01) (238, 5.45176300546157177607e-01) (239, 4.02060522312363111119e-01) (240, 3.27327262536968088824e-01) (241, 3.45966500383177222311e-01) (242, 4.89690824929039869584e-01) (243, 3.98854500186580307464e-01) (244, 3.81697095521960794162e-01) (245, -3.14404861742737873689e-03) (246, 9.49519716668977165064e-01) (247, 5.74154457883972790810e-01) (248, 3.58110714646861616473e-01) (249, 1.09499170838072215628e-01) (250, -2.94868743244202716203e-02) (251, -1.06670863874640184377e-01) (252, 1.33403267073273990029e+00) (253, 1.18552619081371068965e+00) (254, 1.33615954082839727413e+00) (255, -1.45835690331857343281e-03) (256, 5.17384203529850598274e-03) (257, -2.99371295200920706225e-01) (258, 1.12392370398895180550e+00) (259, 9.87806915866471069165e-01) (260, 9.94621540358187172792e-01) (261, 1.13424916245760995515e-01) (262, -1.58610409549856390399e-02) (263, -4.93176103416241365385e-02) (264, 3.63108562872704737634e-02) (265, -1.03960735251645064459e-01) (266, 3.36508346330841381921e-02) (267, 6.25515820976590197766e-01) (268, -6.93393416902137182944e-02) (269, -1.21972751695231321212e-01) (270, -2.73295550986758728484e-01) (271, -1.32953103672848821359e-01) (272, -2.86112654995309301231e-01) (273, -1.78057370929032204865e-01) (274, -5.45640303996153958055e-02) (275, -2.37331904989858427646e-01) (276, -1.58224384467999718007e-01) (277, -3.28573654767512879360e-01) (278, -1.41160841461657804441e-01) (279, -3.25069194254602955585e-01) (280, -2.29578868639450928146e-01) (281, -9.80284261055586858546e-01) (282, -2.27530765708922805279e-01) (283, -2.16266749438159572305e-01) (284, -2.80964067217223834039e-01) (285, -3.09361602453044171046e-01) (286, -3.16809700763949597668e-01) (287, -3.99835723333778925159e-01) (288, -2.31326233026027144879e-01) (289, -2.79883421387910613642e-01) (290, -2.92998119619130914515e-01) (291, -3.95746991538048709103e-01) (292, -6.12001753547622096008e-01) (293, -4.63125676305898570373e-01) (294, -2.90766938863926960313e-01) (295, -2.47860067143007845036e-01) (296, -2.14221515311762311651e-01) (297, -4.03226931545415723246e-01) (298, -3.13537058386483880046e-01) (299, -3.88406173292079659465e-01) (300, 1.71636735592180533772e+00) (301, 3.22512154687862739877e+00) (302, 5.41303606087565025717e+00) (0, 7.98099914111695118990e-01) (1, 6.70269200124344544101e-01) (2, 7.76444987871250935640e-01) (3, 6.30830370556832775719e-01) (4, 6.70359023582459467860e-01) (5, 6.34472650893148637508e-01) (6, 6.91206111258587885260e-01) (7, 8.01642823731532061515e-01) (8, 7.23560406811637246705e-01) (9, 5.61370331325160898395e-01) (10, 5.89800665250371558557e-01) (11, 4.32779072447014079295e-01) (12, 6.24190817272982867436e-01) (13, 6.81568261003127173758e-01) (14, 6.80455233668914027945e-01) (15, 5.32778641803455577097e-01) (16, 6.22405422418406351071e-01) (17, 5.26771618911146877196e-01) (18, 5.84293233835559422396e-01) (19, 6.21206965064635463492e-01) (20, 7.46973562752833331047e-01) (21, 4.62044584087142440332e-01) (22, 3.59731830460076396072e-01) (23, 4.34839883791339254504e-01) (24, 4.19936040030882862251e-01) (25, 7.71683770930399859367e-01) (26, 6.83147307252516822196e-01) (27, 3.70355857337289540165e-01) (28, 4.49931802674705672018e-01) (29, -1.24905350218495123094e-02) (30, 5.50529734777377099952e-01) (31, 6.59362152124222888894e-01) (32, 7.68125839436825774698e-01) (33, -8.36198015878487493913e-02) (34, 5.47070073078054441851e-01) (35, -9.96535280602906144154e-03) (36, 4.01110685872000993779e-01) (37, 6.88356205276538068993e-01) (38, 8.15428018196918680260e-01) (39, -9.57830947265148231751e-03) (40, -8.49095814349085514783e-02) (41, -9.06755660982278000048e-02) (42, 5.55552321086592693078e-01) (43, 7.22443831753820653319e-01) (44, 7.80142901134581068234e-01) (45, -1.23951737410504692072e-01) (46, 5.96459280854633247526e-02) (47, -5.67535872121541148938e-02) (48, 4.99114839998824277867e-01) (49, 5.97650192133475477441e-01) (50, 7.31822340345475774726e-01) (51, -1.26487418300911230729e-01) (52, -7.28781676065895934330e-03) (53, -4.44063226411770747837e-02) (54, 4.68781302840099278750e-01) (55, 5.63875778137006289370e-01) (56, 6.75896086112551031100e-01) (57, -1.20484369593101894869e-01) (58, 3.19093133875710324721e-02) (59, 1.53821032488642792796e-02) (60, 4.41163452358763863437e-01) (61, 5.25419098835456899188e-01) (62, 5.84328480378679571139e-01) (63, -7.23287244856842037599e-01) (64, -6.49423368183340454785e-01) (65, -7.61004154104947594384e-01) (66, -2.49432169198772535346e-01) (67, 4.45124971525503843051e-01) (68, 3.56867585288256461418e-01) (69, -6.60246378456385785150e-01) (70, -6.62851257950004657538e-01) (71, -7.73700123586968491196e-01) (72, -4.28876800801873681035e-01) (73, 2.92825694559563469432e-02) (74, -1.82746612585885898072e-01) (75, -6.73461342220758818478e-01) (76, -7.18986798030322393771e-01) (77, -1.24469832382636091950e+00) (78, -4.01780633851100354992e-01) (79, -6.34062207904415475745e-01) (80, -3.27506327833700816576e-01) (81, -6.44367482849274586520e-01) (82, -7.56004716048044755894e-01) (83, -1.35960464950639625670e+00) (84, -5.60929213882087052134e-01) (85, -5.46430036470733626608e-01) (86, -7.70681477288206684406e-01) (87, -1.00826058023816655940e+00) (88, -1.31899937265216982141e+00) (89, -3.11301656732698583951e+00) (90, -6.42051590835541641233e-01) (91, -1.99250723452414235659e-01) (92, -7.84637485798048039953e-01) (93, -1.07609588531780842047e+00) (94, -1.17544778159264184936e+00) (95, -2.04728062346262573712e+00) (96, -6.03711376531884114094e-01) (97, 2.91648182497521224477e-01) (98, -4.82033681412915970821e-01) (99, -1.90219390475008398589e+00) (100, 1.05567104323258179055e-02) (101, -1.76143813406105631536e+00) (102, -7.39630488209297887181e-01) (103, 4.89009388284091961463e-01) (104, -1.45500332799501086445e-01) (105, -6.69153529257159540578e-01) (106, 3.80385259943368081448e-01) (107, 2.77737977303836536258e-01) (108, -9.43006140944493309597e-01) (109, -6.63947222785805424294e-01) (110, -8.63408852584158004184e-01) (111, -3.20251557329439662247e-01) (112, 6.92075632731139256393e-01) (113, 3.17652677840622121863e-01) (114, -1.05064985489380613437e+00) (115, -8.79353643708753046626e-02) (116, -9.95397589357189582771e-01) (117, -1.91139186100530533707e+00) (118, 8.66361966553966800220e-01) (119, 1.05322367043742182169e+00) (120, -2.95852257197046952797e+00) (121, -7.01952993271154568333e-01) (122, -1.59811653336595416164e+00) (123, -1.27431764747316855768e+00) (124, 1.41593071754604560297e+00) (125, 1.64835085606984965700e+00) (126, -8.24084271097274623230e+00) (127, -1.10635836503350692972e+00) (128, -2.94794112723672885323e+00) (129, -1.29878594869141794632e+00) (130, 1.33046779139510706891e+00) (131, 1.63788674535182421366e+00) (132, -1.85290348170727714461e+00) (133, -5.94536430349131395090e-01) (134, -2.21331821476399248638e+00) (135, -1.80164061345556181237e+00) (136, 3.35901350080607885573e+00) (137, 1.70251815484270641043e+00) (138, -3.08816428243991492053e+00) (139, -9.27863703579488108275e-01) (140, -1.98720861831186224045e+00) (141, -2.30437764943772815940e+00) (142, 3.36286332762703343846e+00) (143, 5.65669689723305557649e-01) (144, -5.51027632407849310425e+00) (145, -1.91815495307075395415e-01) (146, -3.43166590613428512668e+00) (147, -8.75532360326380221238e+00) (148, 3.23293812016757575734e+00) (149, 2.15587142431926864772e-01) (150, -1.71428652410040549547e+00) (151, 1.06510362686446513614e+00) (152, -1.40461134610806026579e+00) (153, -1.82553012208424969565e+00) (154, 5.54413304951675733889e+00) (155, 3.96792104771888265446e+00) (156, -1.41869998429988264377e+00) (157, 9.37374302965468864102e-01) (158, -1.12359800635201922958e+00) (159, -9.69407166395142350090e-01) (160, 4.78875780658589533800e+00) (161, 3.79592975593425574488e+00) (162, -3.11673474292536178964e+00) (163, -1.09731305564728742752e+00) (164, -1.36676573737264672737e+00) (165, -1.04751392840107127036e+00) (166, 3.95494271960818588596e+00) (167, 2.38891168259753561287e+00) (168, -2.59025467329631142732e+00) (169, -1.30164946535557857210e+00) (170, -1.79038871847390712588e+00) (171, -5.99752194346872768982e-01) (172, 2.21918784388617273962e+00) (173, 1.64743842716477595367e+00) (174, -4.31644977136896468295e+00) (175, -9.57204415757587523395e-01) (176, -1.07635433920928513807e+00) (177, -9.04999857342434266272e-01) (178, 1.25664128349516374117e-01) (179, 1.23169507322176907671e+00) (180, -1.08628671003885823865e+00) (181, 4.69091125207454684443e+00) (182, 5.35181973298020641217e-01) (183, -5.19662203579096870776e-01) (184, 2.90284046120961258808e-01) (185, 1.56673095879109686157e-01) (186, -2.38236622411064878635e-03) (187, 5.02871668887419609462e+00) (188, 1.54228329498451199875e+00) (189, -1.22740957915771858877e-01) (190, 3.65322864279926051712e-01) (191, 9.80484778210024242318e-03) (192, -1.02844078689229534440e+00) (193, 2.27856863462076519866e+00) (194, 5.67829483118520550455e-01) (195, 3.98671056859537797923e-01) (196, 6.47474713230210330295e-01) (197, 3.71475161290857114338e-01) (198, -1.09717382719772382771e+00) (199, 6.63842421826285722375e-01) (200, 5.07959447210655445915e-01) (201, 3.69938540036106822129e-01) (202, 6.31377756202298190402e-01) (203, 4.93888552516575429774e-01) (204, -1.13527949438824582451e+00) (205, 9.19845103530649854662e-01) (206, 1.07372149920706716486e+00) (207, -1.07337820575841264015e-01) (208, 4.93104271536087990224e-01) (209, 4.45714620424552121492e-02) (210, -2.80073978129606770970e-01) (211, 1.07488647056556851922e+00) (212, 1.05857232241222876112e+00) (213, 1.76246030978355512631e-02) (214, 6.35732194588690679993e-01) (215, -7.55075201639591742087e-02) (216, -4.17796475427321734042e-01) (217, 2.03984460730295413811e-01) (218, 3.79479319715338658803e-01) (219, 1.70386474679183781700e-03) (220, -5.80832992706208257883e-03) (221, 6.33921480408395354722e-02) (222, -2.43810296394795844588e-01) (223, -1.35762625714739570970e-01) (224, -3.60068436163441418785e-01) (225, -5.68316878842559866647e-02) (226, 2.26864766235565055996e-02) (227, -7.14893142244177881572e-02) (228, -7.06647781610456604540e-02) (229, -8.25350456074278593377e-02) (230, 3.87241653044758035729e-02) (231, -1.23194107933256163934e-01) (232, 2.04159984507131554710e-02) (233, -1.03247711434344496828e-01) (234, 6.38022635547543792711e-02) (235, 5.99530487690770330644e-02) (236, -1.63929123811720395265e-01) (237, -4.37876612213329366452e-02) (238, -3.45712772091515754824e-02) (239, -1.19249974993421312131e-01) (240, -1.13244773760678603403e-02) (241, -7.39726864390191918286e-02) (242, -1.18770532878001544574e-01) (243, -1.55679671094251015351e-01) (244, -2.98961670364394048460e-02) (245, -1.72581145339314401266e-01) (246, -6.88835241338196513361e-02) (247, 8.96207735814228828586e-02) (248, -5.77707212558922905687e-02) (249, -6.91336211003111822393e-02) (250, -1.24642123620290576347e-01) (251, 2.55352663093232311320e-02) (252, 2.04902932387839957495e-02) (253, 8.65484902843394882099e-02) (254, 1.24105134062099387027e-01) (255, -1.13810847766554354421e-01) (256, -1.24900745983113792281e-01) (257, -2.49874423285640911985e-02) (258, -2.16856215981406884319e-02) (259, 1.27007672894979245504e-01) (260, 1.23799874941724993849e-01) (261, 1.75747540899191256880e-02) (262, -1.24387296078130149546e-01) (263, -6.70558763944282491126e-03) (264, 3.47089307683791301051e-02) (265, -7.11426859921596571601e-02) (266, -9.29076882261487824177e-02) (267, -4.12087164084547381837e-03) (268, 9.84455139091821446184e-02) (269, 1.60712967321560047662e-02) (270, -5.06165338348005394709e-02) (271, 1.33616835226627761468e-01) (272, 8.21419004766292121245e-02) (273, 4.54450421356750872137e-02) (274, -1.21944648170801417386e-01) (275, -6.75895856264556033066e-02) (276, 9.54546721847265022820e-02) (277, 6.54909024124888244911e-02) (278, -1.20724944910929679609e-02) (279, 4.75920460943923151476e-01) (280, 4.52008088522235951245e-01) (281, 5.42559747987072071851e-01) (282, 4.89395955249767034001e-01) (283, 9.15729792983739632195e-02) (284, -8.04534348705617310960e-04) (285, 4.60835396283917508864e-01) (286, 6.21231770817854744848e-01) (287, 4.82729689621012036937e-01) (288, 5.65850676583216749549e-01) (289, 5.78644443529197749498e-01) (290, 4.56277339115732816222e-01) (291, 5.84722820256017072893e-01) (292, 5.69285721253873555625e-01) (293, 5.04149971096804039306e-01) (294, 6.13893068081460380192e-01) (295, 6.24929937519235201293e-01) (296, 6.33763781434617201604e-01) (297, 5.41290129757264426580e-01) (298, 5.69555410594728361851e-01) (299, 6.14879583444850497109e-01) (300, 9.29945531562361371591e-01) (301, 2.36089858000073649080e+00) (302, 1.72218544492510572397e+00) (0, 5.91686923983986368114e-01) (1, 5.78249116424019327098e-01) (2, 6.88572105947430124218e-01) (3, 6.14977616300741769528e-01) (4, 5.27378400351153353576e-01) (5, 4.92056456889258420073e-01) (6, 8.61327466589321910639e-01) (7, 8.22345470143155843346e-01) (8, 7.48584653277711620234e-01) (9, 5.56317054704295044232e-01) (10, 4.88962864346271841587e-01) (11, 5.03482743813257083154e-01) (12, 7.80228273231327262849e-01) (13, 7.70964920047069401932e-01) (14, 8.96756774860915206737e-01) (15, 4.17126804349184976406e-01) (16, 4.52657257651400357634e-01) (17, 4.77669207645544935392e-01) (18, 8.20026717503620217187e-01) (19, 8.91101411362197226573e-01) (20, 7.98953369716031147618e-01) (21, 4.44726639258575195957e-01) (22, 4.22941927708682496867e-01) (23, 8.18418678938659271971e-01) (24, 9.87583637985124274117e-01) (25, 1.11278333010188190677e+00) (26, 1.18600690150290222213e+00) (27, 4.18875871197512794630e-01) (28, 4.73979172103579871056e-01) (29, 1.27068662757487604864e+00) (30, 5.33387619079832120406e-01) (31, 8.74929693047510115278e-01) (32, 8.18113151826661999522e-01) (33, 8.71488106460556855026e-01) (34, 7.30178341358552862594e-01) (35, 4.70683250274059261642e+00) (36, 1.76759624705046580750e-01) (37, 2.70722668695355384028e-01) (38, 8.48618614652874581061e-01) (39, 5.88242150161425891852e-01) (40, 6.98444583696448573207e-01) (41, 2.60481658497703483235e+00) (42, -4.51388846171001723029e-01) (43, -6.08274055571641908413e-02) (44, 2.29118085084796668793e-01) (45, -5.00257159043423937916e-01) (46, 3.50092989803680882527e-03) (47, 2.05186151669654437413e+00) (48, -3.78446584133147856388e-01) (49, 7.17969538727095957231e-02) (50, 4.82517662383660062009e-01) (51, -5.97369202362649232008e-01) (52, 1.74773930331830265605e-02) (53, 1.12398914302305391599e-01) (54, -9.82378472710265904233e-01) (55, -7.16130414152216010493e-01) (56, 9.90054453437525072701e-01) (57, -1.80293080246934689370e-01) (58, 8.55904830220928558582e-01) (59, 1.31942474130877984706e+00) (60, -1.24570444847075578743e-01) (61, 3.76759312670377821686e-01) (62, 1.37829497013486768076e+00) (63, 1.39713015060475265194e+00) (64, 8.83699570365831466034e-01) (65, 2.09578604842084192939e+00) (66, 5.11677008930018661914e-01) (67, 9.48836386420129240804e-01) (68, 1.38831122993232658480e+00) (69, 6.50634913541390913494e-01) (70, 6.94277281217890562814e-01) (71, 2.46428761354694980668e+00) (72, -6.47230559836265761930e-01) (73, 1.65615650389465851600e-01) (74, 8.61972938397623567042e-01) (75, 4.65458729747338373350e-01) (76, 4.87844691097095939369e-01) (77, 1.74181286117765199428e+00) (78, -1.08946343128742251238e+00) (79, -3.37703674524316577177e+00) (80, 3.27714043124274656549e-01) (81, 1.88615882968620329763e+00) (82, 1.54476917782690259529e+00) (83, 1.58537338592984378138e+00) (84, -1.56888223652887703885e+00) (85, -3.09192736533357015460e+00) (86, 2.71298669504827838495e-01) (87, 6.38125719404773250609e-01) (88, 1.44343412155757744308e-01) (89, 1.26591644929253455132e+00) (90, -1.13217026458012237633e+00) (91, -4.87801252595130296896e-02) (92, 5.99113557730872936524e-01) (93, -5.61022463911961644101e-01) (94, -3.14327585918693641620e-01) (95, 8.58391401163600020752e-01) (96, -1.35651755091461190261e+00) (97, -1.41924300315927065519e-01) (98, 9.01751209783094753725e-01) (99, 4.01777116999089689564e-01) (100, 1.25925981216942428631e+00) (101, 1.17634545233031917455e+00) (102, -5.45951310521359012284e+00) (103, -9.30719413022400843261e+00) (104, -5.93814614138652441255e-01) (105, -2.21995745825399437567e-01) (106, 1.80342780415633403834e-02) (107, 1.25403711334992751247e+00) (108, -4.42871920278297448448e+00) (109, -4.63873148436972559949e+00) (110, 2.68996554294084777581e+00) (111, -1.28269843312616083075e+00) (112, -8.48034219859570614908e-01) (113, 1.01027850970177479617e+00) (114, -2.34907599328080340939e+00) (115, -4.41344627736573968946e+00) (116, 5.77035347758446537370e+00) (117, -6.46278034546468216348e+00) (118, -3.37925745453645802741e+01) (119, -3.79870434561086245395e+00) (120, -1.47874317502305263616e+00) (121, -3.23353049233936706841e+00) (122, 5.25616811386852500476e+00) (123, -2.28714302875606900756e+00) (124, -1.47873833360706150586e+01) (125, -7.22919257332278575312e-01) (126, -2.25403686158919791538e+00) (127, -1.21179703424437157366e+00) (128, 5.10285793082538052801e+00) (129, -4.91236816312174695565e-01) (130, -3.54866572046193251566e+00) (131, 4.15606236266731210449e-01) (132, -1.92247324592294099865e+00) (133, -1.33622904102676209881e+00) (134, 2.90562447475816032494e+00) (135, 1.03498470502863582077e+00) (136, -1.05050947424717455725e+00) (137, 4.89211310354471018425e-01) (138, -5.05327108046991035906e+00) (139, -3.89933359950494251578e+00) (140, 2.84125250006866769681e+00) (141, 1.29690397446512961643e+00) (142, -1.89703086556379396654e+00) (143, 1.79142379741642043811e-01) (144, -1.12257082321300671879e+01) (145, -1.23579153125745055952e+00) (146, 1.02798951315609188306e+00) (147, 1.11551555309653505077e+01) (148, 1.47880694958042768761e+00) (149, 4.11661609804251593658e+00) (150, 6.94947362297008486287e-01) (151, -3.00158479044503767597e-01) (152, 3.00477917533248994886e+00) (153, 6.03683122670149785449e+00) (154, -3.61422137158988021621e-01) (155, 1.03511571084344011773e+00) (156, -2.63416354487654991168e-01) (157, -4.99579503834845506383e-01) (158, 3.16227865716054790113e+00) (159, 5.33811652642833589510e+00) (160, 2.70728972046665739004e-01) (161, 9.35780779646650517911e-01) (162, 1.39252106750013759928e+00) (163, 6.53531157108835025760e-01) (164, 4.38687974619667819809e+00) (165, 1.83778115339098224723e+00) (166, -1.50050532397383040717e+00) (167, 1.01648054544143273681e+00) (168, 1.37608408319450559176e+00) (169, 1.17612324107819476993e+00) (170, 3.89280819705499991912e+00) (171, 2.73237733289634320000e-02) (172, -1.84412395789374627952e+01) (173, -2.94413712513163727813e-01) (174, 6.07233386935643215665e-01) (175, 9.79540596682058950506e-01) (176, 3.25102454945583074775e+00) (177, -3.65052938793877124191e-01) (178, -1.51131812549094401987e+00) (179, -1.43429388053439410555e+00) (180, 1.79886501237353346738e+00) (181, 1.18468608677824960296e+00) (182, 2.96142127295746693250e+00) (183, -6.71774181992840446753e-01) (184, -3.45374407031130314927e-01) (185, -1.68560047216645214618e+00) (186, 8.32386932004245672090e+00) (187, 1.64842805496400579557e+00) (188, 3.02987922092338246571e+00) (189, -9.59917638081022595031e-01) (190, -2.00501171151885315691e-01) (191, -3.88324580639415606331e-01) (192, 3.39315211011877870817e+00) (193, 1.44433110340984138809e+00) (194, 2.87767377335192531262e+00) (195, -2.66442098283342643228e-01) (196, -3.22209296022933966430e-01) (197, 8.68294314816823176173e-02) (198, 1.20484542130273553084e+00) (199, -6.43358907090994303068e-01) (200, 6.86472217679204077534e-01) (201, -1.02185902653845173127e+00) (202, -1.43816638500415883151e+00) (203, -2.11943651080761574779e-01) (204, -2.98814420623859255954e+00) (205, -5.18378607611659614207e+00) (206, 8.42774346549905684078e-01) (207, -1.07951399919423773888e+00) (208, -5.71092435675308207621e-01) (209, 3.06606475600498640244e-01) (210, 1.21228811603829766952e+00) (211, 1.02177910325489840204e+00) (212, 2.26337678510021067524e+00) (213, -9.63116760178372333101e-01) (214, -5.23050850371789888271e-01) (215, 4.55257809879922092922e-01) (216, 2.40891283902061115185e+00) (217, 3.03784683919608111680e+00) (218, 4.88144833904501762589e+00) (219, -9.95987678187023717236e-01) (220, -1.39978439439695745428e+00) (221, -6.77776905407715540841e-02) (222, 5.92302477080643541285e-01) (223, 8.37695277108475466754e-01) (224, 1.47733533973379360660e+00) (225, 6.57466341354360772620e-02) (226, 3.82336693219895995544e-01) (227, 3.54552528478608852680e+00) (228, -1.16985939214425682664e-01) (229, -8.53792158343859242109e-01) (230, 6.15515597276426129625e-01) (231, 4.82022462150887343046e-01) (232, 1.11837050356559131181e+00) (233, 6.03549931219101765123e+00) (234, 2.12592942074465079960e-01) (235, -9.15090442713178964240e-01) (236, -6.79257430359923586316e-01) (237, -8.24515677077602981981e-01) (238, 1.18130866938889592110e-01) (239, 3.63242726822106876128e+00) (240, -8.11461121631136816923e-01) (241, -1.21412356603873616834e+00) (242, -1.36318444668935079278e+00) (243, -1.22380417331190050056e+00) (244, -9.39063769880955745428e-01) (245, 5.00841660758224893613e-01) (246, -9.88382278980947215352e-01) (247, -1.19056519517360381855e+00) (248, -2.17598249269958810004e+00) (249, -8.83341416620094133094e-01) (250, -1.02231801166920011070e+00) (251, 2.52853412989510495379e+00) (252, -1.03832128598712336576e+00) (253, -1.42996741943978933342e+00) (254, -1.40975832346646567927e+00) (255, -1.27452829900048941747e-01) (256, 1.15381754440785599947e+00) (257, 2.81363973205639306130e+00) (258, -9.26351015645495379225e-01) (259, -1.25560936949536205987e+00) (260, -1.40176371109246278301e+00) (261, -2.16756562238207661775e-01) (262, -3.73013101770947541613e-01) (263, 2.37698979753340999821e+00) (264, -8.65155185677852545112e-01) (265, -9.64537259262483237521e-01) (266, -6.50712760987657734546e-01) (267, -2.55753682012828165160e-01) (268, -5.22184626967810094911e-01) (269, 2.94930131577705090251e+00) (270, 8.37680491784080771822e-01) (271, 2.73865042806261060893e-01) (272, 3.31750718826884727353e-01) (273, 3.08049206045849399693e-01) (274, 7.96720353970850836411e-01) (275, 2.61086055653008175526e+00) (276, 9.52004628975475664099e-01) (277, 8.57733982087654944770e-01) (278, 9.76057232875403357752e-01) (279, 8.51827875136306533754e-01) (280, 1.18090479025005068436e+00) (281, 1.77758079144494862689e+00) (282, 9.81487641492979956404e-01) (283, 9.65703670093578381284e-01) (284, 9.61306122754125635943e-01) (285, 6.45920308386587094240e-01) (286, 6.84157048608735163242e-01) (287, 8.39546558134538600804e-01) (288, 7.97624382702340817275e-01) (289, 8.33673335192432141127e-01) (290, 8.67107554850807038527e-01) (291, 8.19833920513015179665e-01) (292, 8.97865458218511491850e-01) (293, 1.46985312019272895689e+00) (294, 6.10127030853139240563e-01) (295, 8.97363645058979808589e-01) (296, 9.20406905037274625236e-01) (297, 5.94409978749558476352e-01) (298, 6.76145251480386288989e-01) (299, 8.10293571001670320797e-01) (300, 7.01552149378966483084e-01) (301, -2.59522646751824979106e+01) (302, 1.21555628955545849124e+01) (0, 6.28964594085819062030e-01) (1, 5.96945653190023239887e-01) (2, 5.84819125463373001850e-01) (3, 5.14853573575946410479e-01) (4, 3.80963994772560043955e-01) (5, 3.66616340333039136823e-01) (6, 4.43293083613673977172e-01) (7, 4.44184843881603896865e-01) (8, 4.94854198088330365923e-01) (9, 4.82953360339185122641e-01) (10, 4.64976556371334781570e-01) (11, 3.41490605706665950603e-01) (12, 3.75261608334916285656e-01) (13, 4.17803781866263213018e-01) (14, 3.40348671018313009284e-01) (15, 4.07133645254511400413e-01) (16, 1.58268846871933932530e-01) (17, 1.99960527180083003085e-01) (18, 1.67699939402613434902e-01) (19, 3.06029523590940155664e-01) (20, 1.77492974401200764856e-01) (21, 1.59081360390304404895e-01) (22, 7.29142815487239387418e-02) (23, -7.97238519185610033935e-02) (24, 2.01303365398364048078e-01) (25, -1.97807747986208426472e-01) (26, -1.84217501547228212910e-01) (27, 2.75538837272532977085e-01) (28, 1.66188040736260006502e-01) (29, 1.61355327445522139795e-01) (30, -3.15109186052506151654e-01) (31, -7.77245064721349909753e-01) (32, -1.05799001186098262650e+00) (33, 2.89673933759383939179e-01) (34, 2.24830133129506726242e-01) (35, -2.11019129847565267699e-02) (36, -6.28933517874597058928e-01) (37, -1.15490592888302034957e+00) (38, -1.50321078985415779172e+00) (39, 1.89854625600128612550e-01) (40, 2.70975510375039752020e-01) (41, 4.49979629032793218557e-02) (42, -4.39732155587217954373e-01) (43, -1.01501384514661174840e+00) (44, -1.12306130074669963115e+00) (45, 2.61033242407711918442e-01) (46, 1.62417653941308415266e-01) (47, 2.91078679331510416228e-02) (48, -1.78079805777589694760e-01) (49, -2.71799068788230069327e-01) (50, -6.14526481552877368308e-01) (51, 1.79087516540547553312e-01) (52, 2.73008962526843812491e-01) (53, -1.56659240682756029095e+00) (54, 4.66623950903954587410e-01) (55, -1.13470978825618393215e-01) (56, -3.91272792537085745135e-01) (57, 1.18818851363817326594e-01) (58, 2.29988597356692886509e-01) (59, -8.80833764902971494415e-01) (60, 9.09218396793940453193e-01) (61, 2.66034823427966804488e-01) (62, -2.87618534557543159558e-01) (63, 8.44678298803906990599e-01) (64, 3.82044355483585640343e+00) (65, -9.16114257674399135034e-02) (66, 9.80696215511008384524e-01) (67, 7.68663483071501230093e-01) (68, 2.94964900293019138822e-01) (69, 9.06510961091681188861e+00) (70, 7.29049943238542308421e+00) (71, 6.14107773750946717151e-01) (72, 1.22637304560424809097e+00) (73, 9.09790168920791231244e-01) (74, -6.32977173711230078901e-01) (75, 7.02273500547030149477e+00) (76, 3.31172994578243828911e+00) (77, 2.23231978310983625313e-01) (78, 2.02297884290055973722e+00) (79, 4.51396320493323899292e-01) (80, -1.25513401356936404873e+00) (81, 1.24269199869067659137e+01) (82, 1.22373644106450729652e+01) (83, 1.03994482408488320146e+00) (84, 3.96018087301741941730e-02) (85, -1.28524559617531419775e+00) (86, -5.90930809437071236090e+00) (87, 6.24975538216355541721e+00) (88, 2.20207171230968334896e+00) (89, -2.33020327494073642427e+00) (90, 5.93688633009216149006e-02) (91, -8.59215573942856747358e-01) (92, -4.69410805914721951382e+00) (93, 2.85673582462516861824e+00) (94, 2.01045582402282674295e+00) (95, -1.84765450786719718224e+01) (96, -3.96468187696549928534e-02) (97, -1.03078516305968093114e+00) (98, -2.53191059897104642218e+00) (99, 1.00712292052955243449e+00) (100, 6.85834331123036378131e-01) (101, -4.21545686517252971015e+00) (102, 2.47791250777307103803e+00) (103, 9.45743700734472114711e-01) (104, -1.45786593463332869725e+00) (105, -5.36512048736609899885e-03) (106, -2.31840802319211419791e-01) (107, -2.98483181794778396068e+00) (108, 9.13419317862110724526e-01) (109, 8.28823409994132953571e-01) (110, -1.73080655923638038196e+00) (111, 1.50396742675058936456e+00) (112, 1.08586465873409965255e+00) (113, -1.07887890301942790394e+00) (114, 2.10746054360536616556e+00) (115, 2.25336790838596234821e+00) (116, -1.92286559246070493101e-01) (117, 2.29573763254256846267e+00) (118, 3.03721398307767920244e+00) (119, -1.43427755020982394818e+00) (120, 2.54254095018533332606e+00) (121, 1.31956372168543190071e+00) (122, -1.74375021829918752658e+00) (123, 2.06629379138332636145e+00) (124, 1.52397742717255091360e-01) (125, -1.34333597608276544833e+00) (126, 1.59950312202868016875e+00) (127, 5.32112498033454284219e-01) (128, -1.19361285775104919438e+00) (129, 1.87624982896946179700e+00) (130, 4.15711758369207914909e-02) (131, -6.13323656117077509187e-01) (132, 1.10133559200180086712e+00) (133, 3.52201070293977569481e-01) (134, -1.64253630720403620558e+00) (135, 1.72563163541633346476e+00) (136, -1.50560992603401416767e-01) (137, -5.13626819629587583194e+00) (138, -3.01084906945793395749e+00) (139, 2.64988358835178960948e-01) (140, -4.34242275744096328793e+00) (141, 2.44095785075012328136e+00) (142, 1.37394882768009540808e-01) (143, -2.22435409803080563762e+00) (144, 1.17124360482328393473e+00) (145, -6.77675610474139822337e-01) (146, -2.09210152881400945901e+00) (147, 3.87982540265594622042e+00) (148, 5.87079072302208571088e-01) (149, -2.23588117829525057090e+00) (150, 2.41878452762849605051e+00) (151, 1.03191650891864172834e+00) (152, 4.23171789794394126449e-01) (153, 9.76816812565952474756e+00) (154, 6.81423343503210876548e-01) (155, -7.02833398672549791719e-01) (156, 2.19326827133838619943e+00) (157, 1.95554047993048119025e+00) (158, 9.11172863253011833251e-01) (159, 2.38640915485014160069e+00) (160, 5.70118029360762723634e-01) (161, -2.71846254171641188435e+00) (162, 2.46269776032374432262e+00) (163, 2.09483754720627679546e+00) (164, 9.32313967376597663161e-01) (165, 3.13488017607377267293e-01) (166, 5.80757446980671110381e-01) (167, -7.36381398439294621028e+00) (168, 4.15094740902806602634e+00) (169, 2.97846976537288066211e+00) (170, 1.03519241183827648278e+00) (171, -4.87147113423210320615e-01) (172, 3.67069358679717627769e-01) (173, -5.85537273035029937063e+00) (174, 3.90970672674017016845e+00) (175, 1.70860919235509456371e+00) (176, 8.17766230957704065574e-01) (177, -1.60418284420466156215e-01) (178, -1.01781968522309518299e+00) (179, -5.67207066297055995108e+00) (180, 2.60679773976744755259e+00) (181, 2.22502414485667587840e+00) (182, 1.13763564890967283638e+00) (183, -8.62240492154132898150e-01) (184, -1.10990632030737268465e+00) (185, -5.25854098810180303758e+00) (186, 2.66003185771837724616e+00) (187, 4.70124470765614255185e+00) (188, 7.68171063516078778122e-01) (189, -5.22535622418507483822e-01) (190, -1.18503475921048861963e+00) (191, -8.51168648801237992529e+00) (192, 2.73916241912063407327e+00) (193, 1.89859135431399517202e+00) (194, 6.55829311492278965723e-01) (195, -5.40289006531271653877e-01) (196, -1.90943249748002918942e+00) (197, -1.01051768824179983852e+01) (198, 3.16474478084688604085e+00) (199, 1.17240429664454270942e+00) (200, 3.05690835427980700523e-01) (201, -4.64269516528150405499e-01) (202, -5.13502562943752183244e-01) (203, -3.54295571174785095536e+00) (204, 3.09872314460609477038e+00) (205, 2.38472206237238165683e-01) (206, -2.75298423122590651957e+00) (207, 6.03746045560986099865e-01) (208, 9.30456900699002525945e-02) (209, -3.10992636764306595865e+00) (210, 4.68591644822795097558e-02) (211, 6.75675483784971331325e-01) (212, -2.56196223835991609974e+00) (213, 6.28882472028090999672e-01) (214, 3.67315237761261459415e-01) (215, -1.28824883443527249405e+00) (216, -3.95794059100989470412e-01) (217, 2.66759217387647573627e-01) (218, -5.61555112323645966299e-01) (219, 7.62504810005653288485e-01) (220, 4.56806302387624874051e-01) (221, -8.00385628000569115947e-01) (222, 1.94041623058923945466e-01) (223, -2.38283306556741764082e-01) (224, -4.75029528781381271685e-01) (225, 8.57025403520681350322e-01) (226, 4.48231365566349959639e-01) (227, -3.45723484335175579307e-01) (228, 1.72673549246422336489e-01) (229, -3.42453543736981447232e-01) (230, -1.45021261261537293130e+00) (231, 3.27814339036543112016e-01) (232, 1.11181086076685253783e-01) (233, -8.77285633578695822621e-01) (234, -1.52115570057269833271e+00) (235, -3.42036569409739943382e+00) (236, -4.38905827074325838311e+00) (237, 2.98146184124338853305e-01) (238, -7.27209304628542441140e-02) (239, -2.70479169344352621263e-01) (240, -2.90041502038425536014e+00) (241, -3.47011760328641294393e+00) (242, -2.58111003712010989020e+00) (243, 5.92862392550883798847e-01) (244, 2.72853837272534482938e-01) (245, 8.23382039282394700974e-02) (246, 3.02042061356009194917e-01) (247, -1.27405652028378724161e+00) (248, -1.49592166704859619308e+00) (249, 5.81008832350979997905e-01) (250, 3.82458083699417139556e-01) (251, 1.00484684216759781461e-01) (252, -2.66049420399732228226e-01) (253, -4.05812880896207539561e-01) (254, -1.30530350036047826379e+00) (255, 2.24442229383218005978e-01) (256, 2.28296477376203121867e-01) (257, 6.25791003638732634684e-02) (258, 2.57312831596726243610e-01) (259, -3.22000712774321351528e-01) (260, -2.21166093479903874686e-01) (261, -2.96510308656411300521e-02) (262, -8.82868877009216485030e-02) (263, -9.40390761405113462246e-01) (264, 2.80836664724050111275e-01) (265, 3.26535993985472616785e-01) (266, 4.22631302646933493250e-01) (267, 9.79537814905328957371e-02) (268, -3.03121805040068081905e-01) (269, -1.88621946575969423598e-01) (270, 3.54363801112015208705e-01) (271, 4.59754863156747128894e-01) (272, 2.88782299830388222706e-01) (273, 1.25738199770619202278e-01) (274, 1.71480906492788354178e-01) (275, 4.30776536888420255589e-02) (276, 7.01085977932882853381e-01) (277, 4.94810940004482169297e-01) (278, 1.04774040597574535916e+00) (279, 1.62708126775312045265e-01) (280, 2.31340943037698587581e-01) (281, 1.94954993802943121750e-01) (282, 6.07749540353930250980e-01) (283, 6.20829419109005575805e-01) (284, 1.14800853778487987888e+00) (285, 3.34640520062038981930e-01) (286, 3.46461983284903352054e-01) (287, 3.29048836140776401749e-01) (288, 6.69534779619246123161e-01) (289, 7.48786331473736299635e-01) (290, 7.06728803194176191660e-01) (291, 5.03659083232113169437e-01) (292, 5.83499969966527087806e-01) (293, 5.72085261492172647557e-01) (294, 6.98485357630524328343e-01) (295, 1.06592581672724118214e+00) (296, 1.11613457156475481824e+00) (297, 4.32160698592257030981e-01) (298, 4.95245477629305708156e-01) (299, 3.71095553940476829968e-01) (300, 1.05055016433646075669e+00) (301, 2.24185593926811179699e+01) (302, -1.55385214803109796833e+01) (0, 1.09096525700415880600e+00) (1, 1.14253484176124842087e+00) (2, 1.21964668279358967595e+00) (3, 1.12287841474867122749e+00) (4, 1.19324067345118778327e+00) (5, 1.23413909336781779658e+00) (6, 1.18131433784151074207e+00) (7, 1.14746083101498719259e+00) (8, 1.12885483359720772967e+00) (9, 9.73050035806064972377e-01) (10, 9.67101045222645172572e-01) (11, 9.99757133694057942286e-01) (12, 1.28332331644349850741e+00) (13, 1.27415443824582852450e+00) (14, 1.22254687904500980444e+00) (15, 5.85753438878201637685e-01) (16, 4.09326129072079214488e-01) (17, 5.80024670024547162051e-01) (18, 2.08970367843100124361e+00) (19, 1.65891896394634619227e+00) (20, 1.57062000987673133778e+00) (21, 2.80171506418981253184e-01) (22, 2.69512511171285551459e-01) (23, 1.83781811612879319995e-01) (24, 1.09175010953408468950e+00) (25, 8.56715949386354980177e-01) (26, 7.82277789143445145825e-01) (27, 3.08909272524158118323e-01) (28, -1.27249106175489262727e-01) (29, -8.50291161491421865204e-02) (30, 8.10831780607550789419e-01) (31, 4.90736666116334208088e-01) (32, 4.43376759979344614582e-01) (33, -9.59318446787143230825e-02) (34, 1.14398731599155284444e-01) (35, 1.42652391781370763146e-01) (36, 8.45022524565118948736e-01) (37, 2.55846148509178250574e-01) (38, 4.32663368774486745139e-01) (39, -3.61554544826641829913e-02) (40, -1.15946740509395920804e-02) (41, -8.40409576717828649128e-02) (42, 4.66897806163525996848e-01) (43, 2.25390262607912894577e-01) (44, 5.39843031903036396635e-01) (45, -1.27970728830542317817e-02) (46, -9.39066390348278767775e-02) (47, 5.66665580128472082255e-02) (48, 2.66658444561785834548e-01) (49, 2.01762118571193027616e-01) (50, 3.08716725222289323227e-01) (51, 6.12574932313508513371e-02) (52, -1.35369303843502736262e-01) (53, -2.11713949136365792159e-02) (54, -1.47320138158169966491e-01) (55, -7.18303456479484209174e-02) (56, -3.24703088889802329864e-02) (57, 5.04681229398660780028e-02) (58, -9.11036369722778988089e-02) (59, -1.64829697868169762487e-02) (60, -7.98618232600962069112e-02) (61, -8.57772598430398991454e-01) (62, -1.17080581723008014805e+00) (63, -1.06831403772239000305e-01) (64, -7.88703216266508189136e-01) (65, -1.57105647474633847160e-01) (66, -8.94537977705397779893e-01) (67, -3.32043582204529696966e+00) (68, -2.75303632133155407047e+00) (69, -9.31544853368032388374e-01) (70, -2.58031537958986367798e+00) (71, -3.00442741658168754881e+00) (72, -1.41327597666981374935e+00) (73, -7.84036594988634316650e+00) (74, -1.17496616249705869706e+01) (75, -1.03518336974277747053e+00) (76, -5.37998424526884022612e+00) (77, -4.88231161120666712350e+00) (78, -1.19149873447195120413e+00) (79, -1.31345235091561307605e+00) (80, -1.96416721480198996908e+00) (81, -6.36677471156058216728e-01) (82, -5.33902543113714056489e+00) (83, -5.35716609386926734260e+00) (84, -5.66106332987642360544e-02) (85, -2.05388437530099193795e-01) (86, -7.92066267461784767612e-01) (87, -9.92030875894403196824e-01) (88, -3.30614552629082147917e+00) (89, -3.08932273032085280562e+00) (90, 1.29495569509223207305e+00) (91, 2.25279735182959672812e+00) (92, 2.19471838109426053975e+00) (93, 1.67689700452418127830e-01) (94, -8.08040436974660103431e-01) (95, -6.56161634739110821712e-01) (96, 5.45573903981452890122e+00) (97, 9.64257596467340150070e+00) (98, 9.98465537507451017518e+00) (99, 2.38434960616459745708e+00) (100, 1.32553368756349354562e+00) (101, 1.48967673258778265932e+00) (102, 1.05771341047285556414e+01) (103, 4.95269947374975583188e+00) (104, 1.58065702537363748093e+01) (105, 4.35217264164514949787e-01) (106, -1.05793504860233635867e+01) (107, -1.67096587689050202208e+00) (108, 2.70523827582999532027e+00) (109, 2.26200367716050410039e+00) (110, 3.58133458661990644600e+00) (111, 1.58940763775437119421e+01) (112, 1.24229654245094245368e+00) (113, 6.97728073374076451785e+00) (114, 3.14985324478382588964e+00) (115, 1.70958720114999218609e+00) (116, 2.90171357208976621322e+00) (117, 1.01428538426284191587e+01) (118, 4.50173911732337173053e-01) (119, 9.29397208373184824381e+00) (120, 1.93811700873394965328e+00) (121, 1.37039580205955924264e+00) (122, 1.17355307349421944529e+00) (123, 1.08591933172709733668e+01) (124, 4.50363543637584662349e+00) (125, 1.67350386031647495599e+01) (126, 2.03813044147504207615e+00) (127, 9.08156700214813539240e-01) (128, 3.04395942562413812649e-01) (129, 2.26242462999936622126e+00) (130, 5.04718787416213654495e+00) (131, 4.85086175022788523847e+00) (132, -8.19874932235792464041e+00) (133, 5.86323757014045821023e-01) (134, 4.60757900420413896159e-02) (135, -2.33205502753377169611e+00) (136, 1.47059662815055935958e+00) (137, 1.08850555169461649108e+00) (138, -2.07484472338903191968e+00) (139, 2.61401897081225298436e-01) (140, 3.85169860257851381924e-01) (141, -1.88871119907587470266e+01) (142, 9.57207235835360714660e-01) (143, 9.20977794788194525921e-01) (144, 6.43491897812549562552e-01) (145, 1.78506737169719698066e+00) (146, 1.07280680594681077089e+00) (147, -3.71867107518712316505e+01) (148, 5.96516351789752596879e-01) (149, 9.32443063494980961536e-01) (150, 8.87356474707825526593e-01) (151, 8.38154506583366876171e-01) (152, 1.79490337499089203099e+00) (153, -7.57514452841267171834e+00) (154, 1.56605869869760772062e+00) (155, 4.74947848634233249498e+00) (156, -3.92051328739316584659e-01) (157, 4.02192461866988315577e-01) (158, 6.57898642188995963487e-01) (159, -3.47999806870134342773e+00) (160, 1.75736117044680262289e+00) (161, 3.13932962322283382051e+00) (162, 4.28661403343885250017e-01) (163, 4.55349914567230007467e-01) (164, 7.08021691109155582033e-01) (165, -4.51185696386846579742e-01) (166, 2.21115914903703369987e+00) (167, 4.50742963134843144246e+00) (168, 1.62059821600802789199e+00) (169, 5.97342934415109216850e-01) (170, 7.95277753085429250923e-01) (171, 9.24161187944044892895e-01) (172, 1.31934651359710253260e+00) (173, 6.49764321214067486210e+00) (174, 1.53889125472004950623e+00) (175, -3.08993547105107166373e-02) (176, 6.85580779520067684629e-01) (177, 2.71007585014746865681e-01) (178, -2.70896078396510309183e-01) (179, 3.27452325593205673115e+00) (180, 1.26642421193599141738e+00) (181, -2.63923230191797086874e+00) (182, 1.31973294408198910110e-01) (183, -2.77487155775793636892e-01) (184, 3.63429276908556253556e-01) (185, 3.63709544560821829151e+00) (186, 3.15822533860783183357e-01) (187, -3.60808455849797882209e+00) (188, -1.95158479387567074248e+00) (189, -2.02703437985117251863e-01) (190, 4.56049925435756287051e-01) (191, 1.72566772830087278301e+00) (192, 1.63773739300128773344e+00) (193, -9.73515345863810943605e-01) (194, 2.73562986805358843156e-01) (195, 3.62626663328816545295e-01) (196, -1.54406290005297874846e-01) (197, 1.39516719906298147791e+00) (198, -4.33806153738789723739e-01) (199, -5.79296712433245275520e+00) (200, -1.75850649959724569804e+00) (201, 5.36343322148408629957e-01) (202, -3.30192743655009779413e-01) (203, -1.59857863200188188291e-01) (204, -2.68120785476543777026e-01) (205, -2.09027283729469726126e+00) (206, -1.81253990963849864748e+00) (207, -5.50833737153790248264e-01) (208, -8.26933187034837868801e-01) (209, -8.10197689621333538845e-01) (210, 4.37526556203908345566e-01) (211, -1.21002432090737466197e-01) (212, -8.47378116534057923559e-01) (213, -6.35521654286944959189e-01) (214, -3.78425021830652141830e+00) (215, -3.52801973925617273764e+00) (216, 6.64613108618882231227e-01) (217, -4.67430804825991530471e-01) (218, -4.60432789726022528853e-01) (219, -1.25559098940464131111e+00) (220, -4.39518742203751511255e+00) (221, -6.45200094696061565713e+00) (222, -2.47759211779640109441e-01) (223, -5.41322493997254849951e-01) (224, -4.48393706809547432091e-01) (225, -1.26786416745093566405e+00) (226, -4.61843029263836690745e+00) (227, -5.26727570985414139670e+00) (228, 6.04117179556489594661e-02) (229, -1.06470522146948437525e-01) (230, -4.52685489114995481819e-02) (231, -7.08193131422133026476e-01) (232, -1.42096424566314971649e+00) (233, -1.30535105337553503091e+00) (234, 1.38346732434547592394e-01) (235, -8.62496527794191433780e-03) (236, 1.24847868236304532230e-02) (237, -6.33699168371120613585e-01) (238, -1.50383658690352683962e+00) (239, -9.85900724926999649789e-01) (240, 2.49432730139630881583e-01) (241, 2.39173375742472743566e-01) (242, 3.10078275405307357548e-01) (243, -5.95086037138205514729e-01) (244, -8.94655449728677720778e-01) (245, -8.45867939652428790787e-01) (246, 4.09625704088602105024e-01) (247, 5.75125927725230079446e-01) (248, 2.50050353838559391573e-01) (249, -5.54833105843881790875e-01) (250, -8.49847850188740205901e-01) (251, -7.14306304289660576323e-01) (252, 6.42488662464122506357e-01) (253, 4.60456761219892707349e-01) (254, 4.35779711851272788525e-01) (255, -1.43373427924454260873e-01) (256, -7.45279756951682470500e-01) (257, -7.00283451707073012482e-02) (258, 5.91556927688237976781e-01) (259, 5.59533541097619435689e-01) (260, 5.09979804053284802023e-01) (261, -1.46336861388981692711e-01) (262, -7.87456035913454005515e-02) (263, 4.70335474021570040803e-02) (264, 7.00281493265236698598e-01) (265, 5.60391446987142938241e-01) (266, 6.16900699624767678841e-01) (267, 1.38325065193907303929e-01) (268, -1.58538643310838195388e-01) (269, 1.31689687524651655171e-01) (270, 1.12085551486934908993e+00) (271, 1.11863981063474948741e+00) (272, 5.74385130120413256449e-01) (273, 2.74207045941517735255e-01) (274, -2.15981801160051237187e-02) (275, 2.35176894757298915462e-01) (276, 1.27349977737137920464e+00) (277, 1.10340444619764621592e+00) (278, 1.16047671313394862302e+00) (279, 2.81876603009842296998e-01) (280, 3.25946391841451910132e-01) (281, 3.07584896671950380753e-01) (282, 1.27107257486905389499e+00) (283, 1.22565372830102070623e+00) (284, 1.22412834407414705673e+00) (285, 6.12662789284618258812e-01) (286, 4.08303428635667819968e-01) (287, 1.18680469452446391010e+00) (288, 1.09808775128449709335e+00) (289, 1.12264646680678636947e+00) (290, 1.18909204842175753036e+00) (291, 1.40790324001680677846e+00) (292, 1.00234745907162592360e+00) (293, 1.10492377540676800507e+00) (294, 1.21123730482186586777e+00) (295, 1.11447253620097241900e+00) (296, 1.17847481166789136431e+00) (297, 1.12443295965864797914e+00) (298, 1.12033012033469780988e+00) (299, 1.19509395311548849428e+00) (300, 4.04256523158237457416e-01) (301, -1.98088290855978108596e+01) (302, 1.05518075247068612299e+01) 
