FANN_FLO_2.1
num_layers=6
learning_rate=0.700000
connection_rate=1.000000
network_type=1
learning_momentum=0.000000
training_algorithm=2
train_error_function=1
train_stop_function=0
cascade_output_change_fraction=0.010000
quickprop_decay=-0.000100
quickprop_mu=1.750000
rprop_increase_factor=1.200000
rprop_decrease_factor=0.500000
rprop_delta_min=0.000000
rprop_delta_max=50.000000
rprop_delta_zero=0.100000
cascade_output_stagnation_epochs=12
cascade_candidate_change_fraction=0.010000
cascade_candidate_stagnation_epochs=12
cascade_max_out_epochs=150
cascade_max_cand_epochs=150
cascade_num_candidate_groups=2
bit_fail_limit=3.49999999999999977796e-01
cascade_candidate_limit=1.00000000000000000000e+03
cascade_weight_multiplier=4.00000000000000022204e-01
cascade_activation_functions_count=10
cascade_activation_functions=3 5 7 8 10 11 14 15 16 17 
cascade_activation_steepnesses_count=4
cascade_activation_steepnesses=2.50000000000000000000e-01 5.00000000000000000000e-01 7.50000000000000000000e-01 1.00000000000000000000e+00 
layer_sizes=301 1 1 1 1 13 
scale_included=0
neurons (num_inputs, activation_function, activation_steepness)=(0, 0, 0.00000000000000000000e+00) (0, 0, 0.00000000000000000000e+00) (0, 0, 0.00000000000000000000e+00) (0, 0, 0.00000000000000000000e+00) (0, 0, 0.00000000000000000000e+00) (0, 0, 0.00000000000000000000e+00) (0, 0, 0.00000000000000000000e+00) (0, 0, 0.00000000000000000000e+00) (0, 0, 0.00000000000000000000e+00) (0, 0, 0.00000000000000000000e+00) (0, 0, 0.00000000000000000000e+00) (0, 0, 0.00000000000000000000e+00) (0, 0, 0.00000000000000000000e+00) (0, 0, 0.00000000000000000000e+00) (0, 0, 0.00000000000000000000e+00) (0, 0, 0.00000000000000000000e+00) (0, 0, 0.00000000000000000000e+00) (0, 0, 0.00000000000000000000e+00) (0, 0, 0.00000000000000000000e+00) (0, 0, 0.00000000000000000000e+00) (0, 0, 0.00000000000000000000e+00) (0, 0, 0.00000000000000000000e+00) (0, 0, 0.00000000000000000000e+00) (0, 0, 0.00000000000000000000e+00) (0, 0, 0.00000000000000000000e+00) (0, 0, 0.00000000000000000000e+00) (0, 0, 0.00000000000000000000e+00) (0, 0, 0.00000000000000000000e+00) (0, 0, 0.00000000000000000000e+00) (0, 0, 0.00000000000000000000e+00) (0, 0, 0.00000000000000000000e+00) (0, 0, 0.00000000000000000000e+00) (0, 0, 0.00000000000000000000e+00) (0, 0, 0.00000000000000000000e+00) (0, 0, 0.00000000000000000000e+00) (0, 0, 0.00000000000000000000e+00) (0, 0, 0.00000000000000000000e+00) (0, 0, 0.00000000000000000000e+00) (0, 0, 0.00000000000000000000e+00) (0, 0, 0.00000000000000000000e+00) (0, 0, 0.00000000000000000000e+00) (0, 0, 0.00000000000000000000e+00) (0, 0, 0.00000000000000000000e+00) (0, 0, 0.00000000000000000000e+00) (0, 0, 0.00000000000000000000e+00) (0, 0, 0.00000000000000000000e+00) (0, 0, 0.00000000000000000000e+00) (0, 0, 0.00000000000000000000e+00) (0, 0, 0.00000000000000000000e+00) (0, 0, 0.00000000000000000000e+00) (0, 0, 0.00000000000000000000e+00) (0, 0, 0.00000000000000000000e+00) (0, 0, 0.00000000000000000000e+00) (0, 0, 0.00000000000000000000e+00) (0, 0, 0.00000000000000000000e+00) (0, 0, 0.00000000000000000000e+00) (0, 0, 0.00000000000000000000e+00) (0, 0, 0.00000000000000000000e+00) (0, 0, 0.00000000000000000000e+00) (0, 0, 0.00000000000000000000e+00) (0, 0, 0.00000000000000000000e+00) (0, 0, 0.00000000000000000000e+00) (0, 0, 0.00000000000000000000e+00) (0, 0, 0.00000000000000000000e+00) (0, 0, 0.00000000000000000000e+00) (0, 0, 0.00000000000000000000e+00) (0, 0, 0.00000000000000000000e+00) (0, 0, 0.00000000000000000000e+00) (0, 0, 0.00000000000000000000e+00) (0, 0, 0.00000000000000000000e+00) (0, 0, 0.00000000000000000000e+00) (0, 0, 0.00000000000000000000e+00) (0, 0, 0.00000000000000000000e+00) (0, 0, 0.00000000000000000000e+00) (0, 0, 0.00000000000000000000e+00) (0, 0, 0.00000000000000000000e+00) (0, 0, 0.00000000000000000000e+00) (0, 0, 0.00000000000000000000e+00) (0, 0, 0.00000000000000000000e+00) (0, 0, 0.00000000000000000000e+00) (0, 0, 0.00000000000000000000e+00) (0, 0, 0.00000000000000000000e+00) (0, 0, 0.00000000000000000000e+00) (0, 0, 0.00000000000000000000e+00) (0, 0, 0.00000000000000000000e+00) (0, 0, 0.00000000000000000000e+00) (0, 0, 0.00000000000000000000e+00) (0, 0, 0.00000000000000000000e+00) (0, 0, 0.00000000000000000000e+00) (0, 0, 0.00000000000000000000e+00) (0, 0, 0.00000000000000000000e+00) (0, 0, 0.00000000000000000000e+00) (0, 0, 0.00000000000000000000e+00) (0, 0, 0.00000000000000000000e+00) (0, 0, 0.00000000000000000000e+00) (0, 0, 0.00000000000000000000e+00) (0, 0, 0.00000000000000000000e+00) (0, 0, 0.00000000000000000000e+00) (0, 0, 0.00000000000000000000e+00) (0, 0, 0.00000000000000000000e+00) (0, 0, 0.00000000000000000000e+00) (0, 0, 0.00000000000000000000e+00) (0, 0, 0.00000000000000000000e+00) (0, 0, 0.00000000000000000000e+00) (0, 0, 0.00000000000000000000e+00) (0, 0, 0.00000000000000000000e+00) (0, 0, 0.00000000000000000000e+00) (0, 0, 0.00000000000000000000e+00) (0, 0, 0.00000000000000000000e+00) (0, 0, 0.00000000000000000000e+00) (0, 0, 0.00000000000000000000e+00) (0, 0, 0.00000000000000000000e+00) (0, 0, 0.00000000000000000000e+00) (0, 0, 0.00000000000000000000e+00) (0, 0, 0.00000000000000000000e+00) (0, 0, 0.00000000000000000000e+00) (0, 0, 0.00000000000000000000e+00) (0, 0, 0.00000000000000000000e+00) (0, 0, 0.00000000000000000000e+00) (0, 0, 0.00000000000000000000e+00) (0, 0, 0.00000000000000000000e+00) (0, 0, 0.00000000000000000000e+00) (0, 0, 0.00000000000000000000e+00) (0, 0, 0.00000000000000000000e+00) (0, 0, 0.00000000000000000000e+00) (0, 0, 0.00000000000000000000e+00) (0, 0, 0.00000000000000000000e+00) (0, 0, 0.00000000000000000000e+00) (0, 0, 0.00000000000000000000e+00) (0, 0, 0.00000000000000000000e+00) (0, 0, 0.00000000000000000000e+00) (0, 0, 0.00000000000000000000e+00) (0, 0, 0.00000000000000000000e+00) (0, 0, 0.00000000000000000000e+00) (0, 0, 0.00000000000000000000e+00) (0, 0, 0.00000000000000000000e+00) (0, 0, 0.00000000000000000000e+00) (0, 0, 0.00000000000000000000e+00) (0, 0, 0.00000000000000000000e+00) (0, 0, 0.00000000000000000000e+00) (0, 0, 0.00000000000000000000e+00) (0, 0, 0.00000000000000000000e+00) (0, 0, 0.00000000000000000000e+00) (0, 0, 0.00000000000000000000e+00) (0, 0, 0.00000000000000000000e+00) (0, 0, 0.00000000000000000000e+00) (0, 0, 0.00000000000000000000e+00) (0, 0, 0.00000000000000000000e+00) (0, 0, 0.00000000000000000000e+00) (0, 0, 0.00000000000000000000e+00) (0, 0, 0.00000000000000000000e+00) (0, 0, 0.00000000000000000000e+00) (0, 0, 0.00000000000000000000e+00) (0, 0, 0.00000000000000000000e+00) (0, 0, 0.00000000000000000000e+00) (0, 0, 0.00000000000000000000e+00) (0, 0, 0.00000000000000000000e+00) (0, 0, 0.00000000000000000000e+00) (0, 0, 0.00000000000000000000e+00) (0, 0, 0.00000000000000000000e+00) (0, 0, 0.00000000000000000000e+00) (0, 0, 0.00000000000000000000e+00) (0, 0, 0.00000000000000000000e+00) (0, 0, 0.00000000000000000000e+00) (0, 0, 0.00000000000000000000e+00) (0, 0, 0.00000000000000000000e+00) (0, 0, 0.00000000000000000000e+00) (0, 0, 0.00000000000000000000e+00) (0, 0, 0.00000000000000000000e+00) (0, 0, 0.00000000000000000000e+00) (0, 0, 0.00000000000000000000e+00) (0, 0, 0.00000000000000000000e+00) (0, 0, 0.00000000000000000000e+00) (0, 0, 0.00000000000000000000e+00) (0, 0, 0.00000000000000000000e+00) (0, 0, 0.00000000000000000000e+00) (0, 0, 0.00000000000000000000e+00) (0, 0, 0.00000000000000000000e+00) (0, 0, 0.00000000000000000000e+00) (0, 0, 0.00000000000000000000e+00) (0, 0, 0.00000000000000000000e+00) (0, 0, 0.00000000000000000000e+00) (0, 0, 0.00000000000000000000e+00) (0, 0, 0.00000000000000000000e+00) (0, 0, 0.00000000000000000000e+00) (0, 0, 0.00000000000000000000e+00) (0, 0, 0.00000000000000000000e+00) (0, 0, 0.00000000000000000000e+00) (0, 0, 0.00000000000000000000e+00) (0, 0, 0.00000000000000000000e+00) (0, 0, 0.00000000000000000000e+00) (0, 0, 0.00000000000000000000e+00) (0, 0, 0.00000000000000000000e+00) (0, 0, 0.00000000000000000000e+00) (0, 0, 0.00000000000000000000e+00) (0, 0, 0.00000000000000000000e+00) (0, 0, 0.00000000000000000000e+00) (0, 0, 0.00000000000000000000e+00) (0, 0, 0.00000000000000000000e+00) (0, 0, 0.00000000000000000000e+00) (0, 0, 0.00000000000000000000e+00) (0, 0, 0.00000000000000000000e+00) (0, 0, 0.00000000000000000000e+00) (0, 0, 0.00000000000000000000e+00) (0, 0, 0.00000000000000000000e+00) (0, 0, 0.00000000000000000000e+00) (0, 0, 0.00000000000000000000e+00) (0, 0, 0.00000000000000000000e+00) (0, 0, 0.00000000000000000000e+00) (0, 0, 0.00000000000000000000e+00) (0, 0, 0.00000000000000000000e+00) (0, 0, 0.00000000000000000000e+00) (0, 0, 0.00000000000000000000e+00) (0, 0, 0.00000000000000000000e+00) (0, 0, 0.00000000000000000000e+00) (0, 0, 0.00000000000000000000e+00) (0, 0, 0.00000000000000000000e+00) (0, 0, 0.00000000000000000000e+00) (0, 0, 0.00000000000000000000e+00) (0, 0, 0.00000000000000000000e+00) (0, 0, 0.00000000000000000000e+00) (0, 0, 0.00000000000000000000e+00) (0, 0, 0.00000000000000000000e+00) (0, 0, 0.00000000000000000000e+00) (0, 0, 0.00000000000000000000e+00) (0, 0, 0.00000000000000000000e+00) (0, 0, 0.00000000000000000000e+00) (0, 0, 0.00000000000000000000e+00) (0, 0, 0.00000000000000000000e+00) (0, 0, 0.00000000000000000000e+00) (0, 0, 0.00000000000000000000e+00) (0, 0, 0.00000000000000000000e+00) (0, 0, 0.00000000000000000000e+00) (0, 0, 0.00000000000000000000e+00) (0, 0, 0.00000000000000000000e+00) (0, 0, 0.00000000000000000000e+00) (0, 0, 0.00000000000000000000e+00) (0, 0, 0.00000000000000000000e+00) (0, 0, 0.00000000000000000000e+00) (0, 0, 0.00000000000000000000e+00) (0, 0, 0.00000000000000000000e+00) (0, 0, 0.00000000000000000000e+00) (0, 0, 0.00000000000000000000e+00) (0, 0, 0.00000000000000000000e+00) (0, 0, 0.00000000000000000000e+00) (0, 0, 0.00000000000000000000e+00) (0, 0, 0.00000000000000000000e+00) (0, 0, 0.00000000000000000000e+00) (0, 0, 0.00000000000000000000e+00) (0, 0, 0.00000000000000000000e+00) (0, 0, 0.00000000000000000000e+00) (0, 0, 0.00000000000000000000e+00) (0, 0, 0.00000000000000000000e+00) (0, 0, 0.00000000000000000000e+00) (0, 0, 0.00000000000000000000e+00) (0, 0, 0.00000000000000000000e+00) (0, 0, 0.00000000000000000000e+00) (0, 0, 0.00000000000000000000e+00) (0, 0, 0.00000000000000000000e+00) (0, 0, 0.00000000000000000000e+00) (0, 0, 0.00000000000000000000e+00) (0, 0, 0.00000000000000000000e+00) (0, 0, 0.00000000000000000000e+00) (0, 0, 0.00000000000000000000e+00) (0, 0, 0.00000000000000000000e+00) (0, 0, 0.00000000000000000000e+00) (0, 0, 0.00000000000000000000e+00) (0, 0, 0.00000000000000000000e+00) (0, 0, 0.00000000000000000000e+00) (0, 0, 0.00000000000000000000e+00) (0, 0, 0.00000000000000000000e+00) (0, 0, 0.00000000000000000000e+00) (0, 0, 0.00000000000000000000e+00) (0, 0, 0.00000000000000000000e+00) (0, 0, 0.00000000000000000000e+00) (0, 0, 0.00000000000000000000e+00) (0, 0, 0.00000000000000000000e+00) (0, 0, 0.00000000000000000000e+00) (0, 0, 0.00000000000000000000e+00) (0, 0, 0.00000000000000000000e+00) (0, 0, 0.00000000000000000000e+00) (0, 0, 0.00000000000000000000e+00) (0, 0, 0.00000000000000000000e+00) (0, 0, 0.00000000000000000000e+00) (0, 0, 0.00000000000000000000e+00) (0, 0, 0.00000000000000000000e+00) (0, 0, 0.00000000000000000000e+00) (0, 0, 0.00000000000000000000e+00) (0, 0, 0.00000000000000000000e+00) (0, 0, 0.00000000000000000000e+00) (0, 0, 0.00000000000000000000e+00) (0, 0, 0.00000000000000000000e+00) (0, 0, 0.00000000000000000000e+00) (0, 0, 0.00000000000000000000e+00) (0, 0, 0.00000000000000000000e+00) (0, 0, 0.00000000000000000000e+00) (0, 0, 0.00000000000000000000e+00) (0, 0, 0.00000000000000000000e+00) (0, 0, 0.00000000000000000000e+00) (0, 0, 0.00000000000000000000e+00) (0, 0, 0.00000000000000000000e+00) (301, 15, 2.50000000000000000000e-01) (302, 14, 2.50000000000000000000e-01) (303, 10, 1.00000000000000000000e+00) (304, 15, 2.50000000000000000000e-01) (305, 5, 5.00000000000000000000e-01) (305, 5, 5.00000000000000000000e-01) (305, 5, 5.00000000000000000000e-01) (305, 5, 5.00000000000000000000e-01) (305, 5, 5.00000000000000000000e-01) (305, 5, 5.00000000000000000000e-01) (305, 5, 5.00000000000000000000e-01) (305, 5, 5.00000000000000000000e-01) (305, 5, 5.00000000000000000000e-01) (305, 5, 5.00000000000000000000e-01) (305, 5, 5.00000000000000000000e-01) (305, 5, 5.00000000000000000000e-01) (305, 5, 5.00000000000000000000e-01) 
connections (connected_to_neuron, weight)=(0, 6.08542528982997654730e-01) (1, 1.23520732057040860674e+00) (2, -3.14314878428996913318e-01) (3, 9.91314876892763874316e-01) (4, 2.79496463303123998667e-01) (5, 1.40643166384955087267e+00) (6, 4.37868888516021403934e-01) (7, 1.09425113563443154874e+00) (8, 6.67741166423557630516e-01) (9, -1.37603457812886492695e-01) (10, -2.86955483317607229488e-01) (11, -2.84385024927138130302e-01) (12, -3.99720975921577015288e-01) (13, -2.89914797176427541103e-01) (14, 3.04299765898564167355e-01) (15, 6.13830278823953912060e-01) (16, 6.33555728774716997442e-01) (17, -2.39315571054485753955e-01) (18, 6.54106093160091051075e-01) (19, 1.54431930000158201821e-01) (20, 3.02715316958980962259e-01) (21, 9.50052379400914248642e-01) (22, 9.38612619314807883342e-01) (23, 1.18265546730592863156e+00) (24, 1.33177825074021677354e-01) (25, 1.04055637517493626554e+00) (26, 1.18106484309741466276e+00) (27, 1.08286153159399667345e+00) (28, -1.81708079285750057075e-01) (29, -1.70677335618868220024e-01) (30, 1.43097323155399303030e-01) (31, 8.29385604178959456867e-01) (32, 1.52363221011146343642e+00) (33, 1.84713655160150223844e-02) (34, 2.86150223111098833684e-01) (35, 2.40342475036567998492e-01) (36, 8.35735166061805367921e-02) (37, 1.27209826264635039728e+00) (38, -2.63789914349199655641e-02) (39, 1.36562149542021638027e+00) (40, -4.50044123688461916721e-01) (41, 2.29634636532714653256e-01) (42, -2.78900805277449759245e-01) (43, 1.47338736627797950440e-01) (44, 6.37331481449285308649e-01) (45, 6.75986906549212784867e-01) (46, 1.20104061654665517089e+00) (47, -3.81618244401324469006e-01) (48, 9.68441480493491879677e-01) (49, 4.43494107722062214094e-01) (50, 5.74490025202522458514e-01) (51, 3.84304157804474869065e-02) (52, -2.90394006303533902535e-01) (53, -2.74390710413420113589e-01) (54, -5.01398252542768152473e-01) (55, 1.75784524215763238164e-02) (56, -4.49312939458677951254e-01) (57, 1.53495802411947712685e+00) (58, -3.03749755740399807191e-01) (59, -2.90446517140642235244e-01) (60, -7.10212226330191209733e-01) (61, -2.66067001377633116643e-02) (62, 1.10779471991711564449e+00) (63, -1.94934011243931643032e-01) (64, 6.94984734261549497170e-01) (65, -9.90195933623087554132e-02) (66, 3.43223888396726739547e-01) (67, 1.03345363126601008652e+00) (68, -3.84091728507701901663e-01) (69, 1.05879992860875882243e+00) (70, 1.08489326119453877162e+00) (71, -3.22925089915586993605e-01) (72, -3.20031878474119513278e-01) (73, 1.16489617200963935240e+00) (74, 4.32742498404783515475e-01) (75, 7.43058224316668014531e-01) (76, 3.07619044787392104112e-01) (77, 4.61869131400985330482e-02) (78, 9.30421892393892391304e-01) (79, -1.80653383792225091797e-01) (80, 9.78329555108199189206e-01) (81, -1.59165809496985577454e+00) (82, -6.61595571474955290725e-01) (83, 6.11873738359036356549e-01) (84, 3.72273005553312996696e-01) (85, 4.29272639412524414926e-01) (86, -2.89934504775584356295e-01) (87, -4.98764866656741912010e-01) (88, -7.63379104107477918228e-02) (89, -7.68244276014562355037e-01) (90, 6.64712227889127205138e-01) (91, 5.36889846048765773112e-01) (92, 1.95223753629407498211e-01) (93, -1.48582427461677518687e-01) (94, -2.48078848109013838652e+00) (95, 1.17982827126369316240e+00) (96, 4.00375959510184620260e-01) (97, -4.46767316249513712911e-01) (98, 8.13815617373762734132e-01) (99, 4.02464582703251694262e-01) (100, -1.65026623637286240509e+00) (101, -9.60914792849537957586e-01) (102, 7.44969448002018252986e-01) (103, 1.27227824059610905572e+00) (104, -6.55699932964032700111e-02) (105, -3.23639501122230444086e-01) (106, -4.82064854101446116363e-01) (107, 3.20698492210735486285e-01) (108, 1.46607021813843718672e-01) (109, -1.06868185300507068103e-01) (110, 1.04129871071707147401e+00) (111, -2.93841329534037132287e-01) (112, -3.42759091244493552253e-01) (113, 4.30825551139199902639e-01) (114, 1.12996235671136746603e+00) (115, 1.33451385168090586042e+00) (116, 6.76031671528991462417e-01) (117, 1.65380842128683358538e+00) (118, -7.23387563428089963580e-01) (119, -2.49629307015446721962e+00) (120, 1.41442964958426542488e+00) (121, 1.39261239928641145092e+00) (122, 1.16236629294710874793e-01) (123, 7.04011577386261078182e-01) (124, 1.02291490966304277066e+00) (125, 3.17876786101628905357e+00) (126, -3.21508309461664421036e-01) (127, 1.32193535580900500825e+00) (128, -9.21065506012662543744e-02) (129, 2.07304094034460550944e+00) (130, 6.25519591107714711953e-01) (131, 2.08964489846733192380e+00) (132, -1.19280431189454555474e-01) (133, -1.34127161612451976241e-02) (134, 5.07468660277729632924e+00) (135, 1.51240477191683986291e+00) (136, 6.62936718441086814124e-01) (137, -1.29115655332675771660e+00) (138, -3.62921938116711695343e-01) (139, 4.69430021464325664127e-01) (140, 1.85890605010854803592e-01) (141, 4.03079940778280843006e+00) (142, 3.72647505005424894975e+00) (143, 2.35096730184258273511e+00) (144, -3.45551901240351497235e-02) (145, 3.36239974731011470599e-01) (146, 6.42118496955995654574e-01) (147, 1.58623445285610964461e+00) (148, -3.26613296240462114284e+00) (149, 2.64825126890651718625e+00) (150, -3.84810161176934784066e-01) (151, -1.02537711954471211229e+00) (152, -3.65152825187237906057e-01) (153, 9.29791260551437237503e-01) (154, 1.37662034289193657699e+00) (155, 1.48723471663865347558e+00) (156, 1.15828146824154321060e+00) (157, 7.27949137804338120006e-01) (158, -3.20831674098433028419e+00) (159, -6.08101529147271002707e-01) (160, 5.54429473126273553163e+00) (161, 4.97348617661021652481e+00) (162, 1.36226477213903951480e+00) (163, -3.45601741314790600335e-01) (164, 1.35887239546716753757e+00) (165, 1.12761681667402546836e+00) (166, 3.79587213457225458590e-01) (167, -3.62289644435415392199e-02) (168, 1.22250333266419830558e+00) (169, 3.04487601969246290956e-01) (170, 1.15761542403899819753e+00) (171, -1.50846157894220667811e-03) (172, 9.54395806246978312126e-02) (173, -2.44269321198626032654e+00) (174, 1.36719263008230496048e+00) (175, 6.48012239697908110081e-01) (176, 3.33123412193536072579e+00) (177, 6.42854727201494280386e-01) (178, -1.50875636759652564933e+00) (179, -1.61419650891312045360e+01) (180, 5.91923535787403420905e-01) (181, 9.36474473879251312347e-01) (182, 4.11527160987686357885e+00) (183, 6.22236434273040539544e-01) (184, -8.30628230559416702583e-01) (185, -1.45952649736311990125e+00) (186, 1.35988922514924115426e+00) (187, 1.92541350025194540896e-01) (188, 2.08849846311639586460e+00) (189, -1.08756968956698799045e-01) (190, -7.53245663232321338576e-01) (191, 1.68502906992808543230e+00) (192, 1.37402271448715951330e+00) (193, -1.80251767600615703246e-01) (194, 2.53191668453971585606e+00) (195, 1.02836267946139314766e+00) (196, 8.59964120551513833135e-01) (197, 3.82468644600187879234e+00) (198, 1.22912199428908519572e+00) (199, 7.78791067289502536575e-01) (200, -2.37453302905161652003e-02) (201, 5.40828855467710756244e-01) (202, 1.90179461090835721926e+00) (203, 3.64842165075260194129e+00) (204, 1.02902545119344468461e+00) (205, 6.46700423396577850355e-02) (206, 6.91202136776150832809e-01) (207, 5.30113472372493621521e-01) (208, 4.93356738368833425135e-01) (209, 2.18648955953808821207e+00) (210, 7.99845942405054355362e-01) (211, 1.18352711736781746055e+00) (212, 1.55127431786514513590e+00) (213, -1.20994762427044780240e-01) (214, 1.80766864534643278972e+00) (215, 2.91289974973054333063e+00) (216, 4.32313699777802373792e-01) (217, -1.37709392007100112076e-01) (218, -1.52083267580721126500e+00) (219, 7.45533875981136850974e-01) (220, 2.22287903638503214765e+00) (221, 4.34971126300222010741e+00) (222, 6.18311498605603637735e-01) (223, -6.62730484715981504884e-01) (224, -1.91004518437325554459e+00) (225, 5.32546719187287465047e-01) (226, -5.55237750963209417132e-02) (227, 6.73375172952591083408e-01) (228, 1.33416800448293271231e+00) (229, 5.31276130395174628340e-01) (230, -6.39919977863060318590e-01) (231, 1.25710814102039014628e+00) (232, 4.98126773734882954958e-01) (233, 1.51674353303931397363e+00) (234, 7.31742906063742593048e-01) (235, -1.02965929048600379758e+00) (236, 3.65623411666065822878e-01) (237, -4.51268736740697284926e-01) (238, 6.85555857458977735419e-01) (239, -4.16828322371572634886e-01) (240, -1.00528645391811166654e-01) (241, 1.61186994770901370622e-01) (242, -5.00145083203304530173e-01) (243, -4.64750417277187799492e-01) (244, 4.47918170871792031829e-01) (245, 4.35408916528575495875e-01) (246, -5.52100104658470418328e-03) (247, 1.29724450580438532832e+00) (248, 1.26935239716133718701e+00) (249, 6.18794907298605867396e-01) (250, 3.88887092947781454200e-01) (251, 1.99193074850650464480e-01) (252, -2.86664303066306913603e-01) (253, 1.50248582885299453160e+00) (254, 1.07557197526720438319e+00) (255, 7.09347656125681069739e-01) (256, 1.32285787822137984593e-01) (257, 1.33161277375662145950e+00) (258, -1.01975120442509725738e-01) (259, 2.53524640416940560961e-01) (260, 1.40644206186472064957e+00) (261, 1.04363166242184252086e-01) (262, 7.68192187207994564568e-02) (263, 2.73503494552643056092e-01) (264, 6.34949700769656677490e-02) (265, 1.35430394894326733279e+00) (266, 5.70475855557193156642e-01) (267, -3.73394729123990576358e-01) (268, 1.28205989655988483733e+00) (269, 1.10234603762447855302e-01) (270, -6.93991974144892165288e-02) (271, -2.35516943554748475753e-01) (272, 6.25467348059972172436e-01) (273, 8.17507165151828973926e-02) (274, -2.73558221573015791783e-01) (275, -2.42451775179997025544e-01) (276, 1.10208757111239363802e+00) (277, 2.17322669213497216001e-01) (278, -8.39515314951255975373e-01) (279, 8.52152077444011002427e-01) (280, 1.30680929525456135387e+00) (281, 4.40742531882429067203e-01) (282, -4.75492741686853293004e-01) (283, 1.43805610637326708456e+00) (284, 3.72848250793028426764e-02) (285, 1.10299774784615212120e+00) (286, 9.98166319697066928285e-01) (287, 1.33497006493767411683e+00) (288, 8.69238475375314845195e-01) (289, 9.38348730384512608182e-01) (290, -3.85071698906340020852e-01) (291, 6.83402488186634515799e-01) (292, -3.86804219501654736324e-02) (293, 6.51959222911055569227e-01) (294, -5.12170746889312855643e-01) (295, 4.08000335508957312491e-01) (296, 3.73921711030999914804e-01) (297, 7.33680726301309649173e-01) (298, 6.51059072491971591035e-01) (299, 3.57861912097781675879e-01) (300, 2.90064554595188894837e+00) (0, 8.73424580021587626533e-01) (1, 2.78904247411208050522e+00) (2, 1.68458926804976205638e+00) (3, 1.39709434166154933266e+00) (4, 1.90286762523492947174e+00) (5, 1.93604647627393977594e+00) (6, 2.70631636904892136641e+00) (7, 1.67502129280506517617e+00) (8, 1.37498253786503221718e+00) (9, 1.14454398248965749652e+00) (10, 1.05337686483842785101e+00) (11, 6.93291078064370958067e-01) (12, 2.23076793150715557701e+00) (13, 1.56084612429566504943e+00) (14, 2.43710271245635645698e+00) (15, 2.01130023643047461945e+00) (16, 2.23193287207740986844e+00) (17, 2.30760111868594819384e+00) (18, 1.53508503110073268871e+00) (19, 2.08979846084490494817e+00) (20, 1.60645568929135151848e+00) (21, 1.68025955575171015433e+00) (22, 1.44802576399811888663e+00) (23, 5.16249187148656862867e-01) (24, 2.23485246741095044953e+00) (25, 2.20498836848976109692e+00) (26, 8.22959687665410721813e-01) (27, 1.24492852077375659725e+00) (28, 1.19319844327294810604e+00) (29, 4.92726800257770380931e-01) (30, 2.61328464133747306875e+00) (31, 1.64053205926094292089e+00) (32, 8.90976687075944129290e-01) (33, 1.09517050833609652649e+00) (34, 2.01416593837130086797e+00) (35, 1.61051994008431265115e+00) (36, 2.41120024123566434326e+00) (37, 2.26739599739403807632e+00) (38, 8.82868853185435065178e-01) (39, 9.62289708771306262491e-01) (40, 4.32960164197386754292e-01) (41, 9.09516896522902240640e-01) (42, 1.04064498273801508965e+00) (43, 1.93273765853750911781e+00) (44, 1.70160536835703624092e+00) (45, 2.58856719536476420629e+00) (46, 1.26760541327360676256e+00) (47, 1.21575819303491816648e+00) (48, 2.31068367706020749708e+00) (49, 2.03906910070483560204e+00) (50, 5.03640022203740711504e-01) (51, 9.48595846444362011951e-01) (52, 1.07124896154854898356e+00) (53, 1.58960675873753820575e+00) (54, 1.19029201520691274574e+00) (55, 5.92890827704337208814e-01) (56, 1.20199070278510600218e+00) (57, 1.24537565782665793357e+00) (58, 1.49746191796169436650e+00) (59, 2.32427543913671685871e+00) (60, 1.42759573290530639156e+00) (61, 7.73726211864400603702e-01) (62, 1.00590171931388439042e+00) (63, 1.48229114739600875694e+00) (64, 1.54960707033954858680e+00) (65, 9.52893862655365131431e-01) (66, 7.84127204049901549432e-01) (67, 8.98965415139674206557e-01) (68, 2.30240825798427417581e+00) (69, 9.51886193460165119795e-01) (70, 1.52972360457701173075e+00) (71, 6.71801565926017030250e-01) (72, 1.56129936045783890286e+00) (73, 1.88334253150479224992e+00) (74, 2.29561527606641524457e+00) (75, 8.10146673100822223290e-01) (76, 1.75857531819381684990e+00) (77, 1.14954542701433104490e+00) (78, 1.73246201585743864193e+00) (79, 1.36547274747922231519e+00) (80, 8.80690884986190969386e-01) (81, 1.77076236591325320013e+00) (82, 1.60708047762059691443e+00) (83, 1.53537888916173037579e+00) (84, 1.19940295042242861534e+00) (85, 2.13046393174445203300e+00) (86, 1.86685316920159438681e+00) (87, 1.81510013217128873819e+00) (88, 2.63154188157185187080e+00) (89, 2.52196955732261463012e+00) (90, 1.64587703862505363439e+00) (91, 1.43215486499807531651e+00) (92, 1.46282689183326675142e+00) (93, 2.13696047391156485062e+00) (94, 2.15029183921026278981e+00) (95, 1.81903369723019303628e+00) (96, 2.49499142852192923314e+00) (97, 2.37022557920997289926e+00) (98, 3.36598273865158859053e+00) (99, 2.37769271708887375283e+00) (100, 2.51752696244701912320e+00) (101, 1.13644972739021699049e+00) (102, 2.41729830765450648400e+00) (103, 1.47909705235450106287e+00) (104, 2.87126566104660740919e+00) (105, 1.95022697585905291362e+00) (106, 1.43593167931038423468e+00) (107, -2.23215375995047815572e-01) (108, 2.41160297146394375645e+00) (109, 2.50637618414513196896e+00) (110, 2.24020296619381475978e+00) (111, 2.58363893896722096599e+00) (112, 1.43490327590464517016e+00) (113, 7.30491919118247512444e-01) (114, 1.45922003315516235489e+00) (115, 1.92076243133783552963e+00) (116, 2.44399797168150723081e+00) (117, 2.55057041769953762866e+00) (118, 7.18871653999478277264e-01) (119, 3.63343983617096943917e+00) (120, 2.38804497439133367465e+00) (121, 1.73131090642442431182e+00) (122, 1.11886567990509222525e+00) (123, 7.95183737057770678724e-01) (124, 9.65823053957913790768e-01) (125, 2.55157624779969349760e+00) (126, 1.92907494001056400990e+00) (127, 9.06251777329745933365e-01) (128, 2.20628509180215592878e+00) (129, 1.73823280128324042515e+00) (130, 2.55691799599386460073e+00) (131, 8.52140892969799956802e+00) (132, 2.22670220728562417989e+00) (133, 2.09946453776367070176e+00) (134, 5.52903653678862405663e-01) (135, 2.08047126722767927731e+00) (136, 1.04193339427070363890e+00) (137, 9.55941810277847281441e+00) (138, 6.44270904683662659629e-01) (139, 1.20463990607825355283e+00) (140, 4.29311657685142455954e-01) (141, 2.30637306122373830775e+00) (142, -8.54058466321336084981e-01) (143, -7.30908369890128817303e+00) (144, 6.59187106646214715511e-01) (145, 1.91541959289640861819e+00) (146, -1.34404206688859293450e+01) (147, 2.47209034070271638228e+00) (148, 4.19634131419567069088e+00) (149, 1.40414400895243929313e+01) (150, 2.21804355021698329509e+00) (151, 1.92008997366863276568e+00) (152, 3.14896851745843697756e+00) (153, 6.52848477666112647633e-01) (154, -9.61566369721355584943e+00) (155, -2.79409121651260239361e+00) (156, 2.71650006172534075333e+00) (157, 2.03780272552991759127e+00) (158, 3.42045294168298852355e+00) (159, 2.15053824067465981784e+00) (160, 1.98771738966252775604e+00) (161, 1.67954289274479418026e+00) (162, 1.84334108006562269466e+00) (163, 1.27150277167139549306e+01) (164, 2.48766891367043907479e+00) (165, 1.75984329329121025332e+00) (166, 7.47107650643215825959e-01) (167, 1.15309339437798907824e+00) (168, 9.16073876805984510518e-01) (169, 4.16027897113324307554e+00) (170, 2.13850482064338853760e+00) (171, 1.47139612846683798253e+00) (172, -6.15137641350919847638e-02) (173, -4.96074516782625929423e-01) (174, 1.17058393274250338578e+00) (175, 1.41427212596030704717e+00) (176, 2.01386882386927723587e+00) (177, 1.97063756484414942527e+00) (178, 1.92129560798641407793e+00) (179, 2.07329347192898055807e-01) (180, 1.11883335567203401339e+00) (181, 1.84517494134934079142e+00) (182, 1.98067076246417217433e+00) (183, 1.44602628982455971851e+00) (184, 1.67738428914038673057e+00) (185, 6.60966559272080700360e-01) (186, 2.18375606088869567145e+00) (187, 1.69510385842858402050e+00) (188, 8.23449956619511480582e-01) (189, 1.36311818020542929730e+00) (190, 1.27056759271169417147e+00) (191, 2.13145006126255998069e+00) (192, 2.30084749250762277129e+00) (193, 2.67460121500807557204e-01) (194, -1.60718344851002448159e+00) (195, 1.07940366605734139327e+00) (196, 1.32687697347515443091e+00) (197, 1.08972707768068266532e+00) (198, 2.53362545902827829281e+00) (199, 7.33883595729109661221e-01) (200, 1.96419998711541976544e-01) (201, 7.69726667407511500052e-01) (202, 2.28871589506277617332e+00) (203, 1.52243049023499366079e+00) (204, 1.32899577875883445621e+00) (205, 5.39461681424497352388e-01) (206, 1.05569496899880266305e+00) (207, 1.31314601211579207174e+00) (208, 2.15141056339633163219e+00) (209, 1.46062216091467700352e+00) (210, 2.05980939825426290213e+00) (211, 4.39228932165242058616e-01) (212, 2.56762192356763341294e-01) (213, 1.78411418778301111843e+00) (214, 1.27998305192406292008e+00) (215, 2.19667579319262129545e+00) (216, 2.20528353535667775986e+00) (217, 7.15972262587202590289e-01) (218, 8.37362828926004443275e-01) (219, 8.56851514189383656195e-01) (220, 1.75071822070857896492e+00) (221, 4.34227302741091725213e-01) (222, 2.61205601402809373113e+00) (223, 9.82859599560262475748e-01) (224, 1.41229123297548508909e+00) (225, 1.20434723009927213688e+00) (226, 1.33274673032717050347e+00) (227, 1.20649143248088752678e+00) (228, 1.95935485794062524967e+00) (229, 1.21919971392631731888e+00) (230, 2.26060042557076545933e+00) (231, 1.01273963865864424783e+00) (232, 1.22987645109732812720e+00) (233, 9.72805723097762586882e-01) (234, 2.19417248203272530205e+00) (235, 1.94575447864960837663e+00) (236, 4.75891565896411905534e-01) (237, 1.20831692766252207782e+00) (238, 3.74905521700637844873e-01) (239, 9.72942950968558317726e-01) (240, 2.35534131740595187310e+00) (241, 1.82265481865900969005e+00) (242, 1.97952064977304931226e+00) (243, 6.15331818983679390556e-01) (244, 8.56444743303062416828e-01) (245, 1.02289254194929665753e-01) (246, 2.57219825179888150757e+00) (247, 1.60193530033727021822e-01) (248, 1.16254717996826584248e+00) (249, 1.40993062959613446594e+00) (250, 5.72474497050379893537e-01) (251, -2.80537278991293492769e-01) (252, 1.82615703170715426573e+00) (253, 5.82286254073809739218e-01) (254, 8.33327850114740642518e-01) (255, 1.43330675890627468050e+00) (256, 1.10752602157177726383e+00) (257, 2.11820259148621259371e+00) (258, 6.78224259660822559326e-01) (259, 4.81193480953946428613e-01) (260, 1.03499310061014671014e+00) (261, 2.30189959281405620573e+00) (262, 8.01936517288849293195e-01) (263, 1.93561128778322921740e+00) (264, 2.43172279257951462483e+00) (265, 2.62557004763564094674e+00) (266, 1.72924252214265172789e+00) (267, 2.57075758274504062584e+00) (268, 1.01141196816570011485e+00) (269, 1.65277838131618803885e+00) (270, 2.38231260961295632228e+00) (271, 1.01068351628351327243e+00) (272, 1.47030734202776525166e+00) (273, 2.28789268858114391847e+00) (274, 7.98113629824238612898e-01) (275, 1.74019480078822930125e+00) (276, 1.05827059708266513205e+00) (277, 1.01506303606414727270e+00) (278, 2.14661157806806102144e+00) (279, 2.18486026808979749703e+00) (280, 2.11105245500814353576e+00) (281, 2.41861994123456724992e+00) (282, 2.31901210364590237845e+00) (283, 1.26623090075442434888e+00) (284, 2.63181801363736544985e+00) (285, 1.07440670440254870677e+00) (286, 2.34994956071225002958e+00) (287, 1.35027711417925422310e+00) (288, 8.80665992010377762789e-01) (289, 2.42115494208149595323e+00) (290, 1.41286111417003623636e+00) (291, 1.48791378678241459355e+00) (292, 2.30698892616525030874e+00) (293, 1.81714315976454354740e+00) (294, 1.22976402394947625929e+00) (295, 2.23758077748732464585e+00) (296, 2.07971377352354025447e+00) (297, 2.24913764741881649911e+00) (298, 1.97553591577883147501e+00) (299, 2.44244474321615134826e+00) (300, -5.81350657855744246127e-01) (301, 3.64990719041860289806e+00) (0, 5.18356748705869279092e+01) (1, 2.01974959958396382831e+01) (2, -2.01024478031613398343e+01) (3, 5.06404085045819840616e+01) (4, 9.98353451296309799545e+01) (5, 9.92290692135314316147e+01) (6, 1.00141916732452330052e+02) (7, 9.93642722174147934311e+01) (8, 5.01955028658872208780e+01) (9, 9.91782707973937363022e+01) (10, 9.92553345366935104721e+01) (11, 9.89927736922721237534e+01) (12, 9.87100795313338608139e+01) (13, 9.97519211575011581772e+01) (14, 9.83755176022271484726e+01) (15, 9.87671882912139267319e+01) (16, 9.84282211169223160141e+01) (17, 9.88601984187583298080e+01) (18, 1.00073033194206175267e+02) (19, 1.00127869586608824193e+02) (20, 9.88169876739005417221e+01) (21, 9.92037856980780929916e+01) (22, 9.92487389847258896225e+01) (23, 9.92004050418357223862e+01) (24, 9.97176801964263290756e+01) (25, 9.86358040079097122543e+01) (26, 9.97339778944472641342e+01) (27, 9.87803935512523025864e+01) (28, 1.00117074708602842747e+02) (29, 9.88269433185080856674e+01) (30, 9.90789921089629501694e+01) (31, 1.00018423061035093724e+02) (32, 9.88563524290541977280e+01) (33, 9.97109303280333847397e+01) (34, 9.87245049580554336899e+01) (35, 9.83798556208233208054e+01) (36, 9.86281577750663132065e+01) (37, 9.85545798644046158188e+01) (38, 9.94372384354094833725e+01) (39, 9.88942864343146652573e+01) (40, 9.94259613558272690170e+01) (41, 9.83807311087469429367e+01) (42, 9.95801706119994491928e+01) (43, 9.98291513725737900131e+01) (44, 9.98257628485183090561e+01) (45, 9.96487989231566757553e+01) (46, 1.00289450268409666478e+02) (47, 5.15695794707303605264e+01) (48, 1.00202107886932310521e+02) (49, 1.00050641636512693822e+02) (50, 9.97631224199752182358e+01) (51, 9.87072537645320267075e+01) (52, 9.89425854488829941147e+01) (53, 9.87000195785979599350e+01) (54, 9.96007693811873764389e+01) (55, 9.83484237447003692978e+01) (56, 9.90289342209319443100e+01) (57, 9.90229054495314926498e+01) (58, 9.88219278856734604233e+01) (59, 5.04566519742971024698e+01) (60, 9.95429593130568832748e+01) (61, 9.95940305992583603256e+01) (62, 9.85407483979682297104e+01) (63, 1.00092422227523741185e+02) (64, 9.89931191011885971420e+01) (65, 9.89583639308432907455e+01) (66, 1.00165388445518431126e+02) (67, 9.93143874212722153061e+01) (68, 9.92060544296721786850e+01) (69, 9.92907851144294113510e+01) (70, 9.99017844006041855209e+01) (71, 9.83201738886157841080e+01) (72, 9.93646268650512070053e+01) (73, 9.91701133653144211166e+01) (74, 9.98424359365920395248e+01) (75, 9.88785478874663681381e+01) (76, 9.85070704474667877548e+01) (77, 9.98200444981078476303e+01) (78, 9.85138007357339233749e+01) (79, 9.83973365380982727402e+01) (80, 9.95588441893081039780e+01) (81, 9.99700338646392197006e+01) (82, 9.87977009221534103744e+01) (83, 1.00194540242813047826e+02) (84, 9.83582115128259033554e+01) (85, 1.00091580848358091771e+02) (86, 1.00236074666641172826e+02) (87, 9.90802562638739914291e+01) (88, 9.88026444717864364975e+01) (89, 9.87461607262114853256e+01) (90, 9.96075340315322250717e+01) (91, 1.00038714389465269505e+02) (92, 1.00033301930091795384e+02) (93, 9.98413930937270492905e+01) (94, 9.98192949100951523178e+01) (95, 9.87145792051772446030e+01) (96, 9.84879152282695145004e+01) (97, 9.96728415295104355209e+01) (98, 9.97220773502806991928e+01) (99, 9.93870801731566757553e+01) (100, 9.86517849072436661118e+01) (101, 9.93120199247817367905e+01) (102, 9.94003647371749252670e+01) (103, 9.97095223471145004623e+01) (104, 1.00175243954322752415e+02) (105, 9.89309587880591720932e+01) (106, 1.00281180839202818333e+02) (107, 9.83704725458840698593e+01) (108, 9.84391614004592270248e+01) (109, 9.84831397339324325912e+01) (110, 9.84609196886042923325e+01) (111, 9.96911161943892807358e+01) (112, 1.00146284203193602025e+02) (113, 9.89517311855773300522e+01) (114, 5.11962995415692887491e+01) (115, 1.00197606186531004369e+02) (116, 9.87314702376345962875e+01) (117, 9.94980475708464950912e+01) (118, 9.89660206839064926498e+01) (119, 9.92272253438453049057e+01) (120, 5.15598037129407487100e+01) (121, 1.00266665439269957005e+02) (122, 9.89540979072074264877e+01) (123, 9.96587790056685776108e+01) (124, 9.97962167068938583725e+01) (125, 9.84615509911994308823e+01) (126, 3.92423839873352022778e+01) (127, 9.99772424503783554428e+01) (128, 9.98275031849364609116e+01) (129, 9.94767042204360336655e+01) (130, 9.90524808570365280502e+01) (131, 4.11386250027600937074e+01) (132, 5.00993671601777634805e+01) (133, 1.00145956258438047826e+02) (134, 9.95700791880111069077e+01) (135, 4.99627692511444649881e+01) (136, 9.87650732501963943832e+01) (137, 3.86579169162714322283e+01) (138, 9.84038675903896660202e+01) (139, 9.88973452254752487534e+01) (140, 9.97156685396651596420e+01) (141, 9.85578978761653274887e+01) (142, 1.00281572084091123997e+02) (143, 5.17887962117121247729e+00) (144, 9.92027396961669296616e+01) (145, 9.95435448690871567123e+01) (146, 9.94358751579741806381e+01) (147, -4.54825983835019087564e+00) (148, 9.87297506734351486557e+01) (149, -9.65187723442534775131e+01) (150, 5.01651888972287736124e+01) (151, 9.83552276931325764053e+01) (152, 1.00049830059669432103e+02) (153, -6.44933576645030726127e+00) (154, 9.97071172996978134506e+01) (155, -9.70795738502959579819e+01) (156, 5.09670590048795304483e+01) (157, 9.94617441698531479233e+01) (158, -4.97597478223599409830e+00) (159, 1.85361878846404515286e+01) (160, 9.86266065939883560532e+01) (161, -9.66685817047576279037e+01) (162, 2.35134389947706985424e+01) (163, 9.87965995773295730942e+01) (164, 2.36988729339923143158e+00) (165, 9.99839823051909775131e+01) (166, 9.88299945994834274643e+01) (167, -9.63762835070113510483e+01) (168, 9.92115586205939621323e+01) (169, 9.89269727870444626205e+01) (170, 5.04454835539823136514e+01) (171, 9.86153853043536514633e+01) (172, 9.91779812976340622299e+01) (173, -1.35804842526108480172e+01) (174, 9.98586067959288925522e+01) (175, 1.00073831538818296849e+02) (176, 1.00029384593627867162e+02) (177, 9.89826400681952804916e+01) (178, 9.93893103405455917709e+01) (179, 8.06092318959832532244e+00) (180, 9.87658047481994003647e+01) (181, 9.96251250311354965561e+01) (182, 9.84956317498902649277e+01) (183, 9.85037929966668457382e+01) (184, 9.85031958028296799057e+01) (185, 9.98958596989135116928e+01) (186, 9.97311085268477768295e+01) (187, 9.95408805414656967514e+01) (188, 9.90457619830588669174e+01) (189, 9.86188722356776565903e+01) (190, 1.00094226817748960912e+02) (191, 9.93654792114714950912e+01) (192, 1.00257179836891111790e+02) (193, 9.85031773551921219223e+01) (194, 9.98551894232253403061e+01) (195, 9.97246495291213363998e+01) (196, 1.00180270175598082005e+02) (197, 9.83733421220998138779e+01) (198, 9.96503031059722275131e+01) (199, 9.90799869104842514389e+01) (200, 9.89934255286673874252e+01) (201, 5.17888973837857804483e+01) (202, 9.93884827896575302475e+01) (203, 9.98645174309233993881e+01) (204, 9.86472997173289627426e+01) (205, 9.89352477594832748764e+01) (206, 9.96265071436385483139e+01) (207, 1.66330368231006460178e+01) (208, 9.96109983726958603256e+01) (209, 9.87039757176856369369e+01) (210, 9.85052465602378219955e+01) (211, 1.00069913725517210423e+02) (212, 1.00022211413047728001e+02) (213, -2.03472864879586268216e+01) (214, 5.18893021231656632608e+01) (215, 2.50111642133051681469e+01) (216, 1.00282959203384336888e+02) (217, 9.96860840126494736069e+01) (218, 9.94475564762572616928e+01) (219, 5.06393641119962296671e+01) (220, 9.99980667635421127670e+01) (221, 9.92299414082984299057e+01) (222, 1.00075469116828855931e+02) (223, 9.99434050127486557358e+01) (224, 9.94262293383101791733e+01) (225, 9.96188165947417587631e+01) (226, 9.93562127157668442123e+01) (227, 9.92946576878051132553e+01) (228, 9.96852693363646835678e+01) (229, 9.86946739956359238022e+01) (230, 1.00067755202911314427e+02) (231, 9.83668530463795036667e+01) (232, 9.85492446526507706039e+01) (233, 9.91443962856749863022e+01) (234, 9.99244811340789169662e+01) (235, 9.88896549746016830795e+01) (236, 9.97727546497802109116e+01) (237, 9.92391464516143173569e+01) (238, 9.89476080342749924057e+01) (239, 9.90719112559775680893e+01) (240, 9.96362327143172592514e+01) (241, 9.91459651991347641342e+01) (242, 9.88299832149962753647e+01) (243, 9.93466023012618393295e+01) (244, 9.95330647036055893295e+01) (245, 9.87849587306002945297e+01) (246, 9.92532781764487594955e+01) (247, 9.95041820808867782944e+01) (248, 1.00164153318069395482e+02) (249, 9.83889927968005508774e+01) (250, 1.00214171986244139134e+02) (251, 9.98503783747176498764e+01) (252, 9.93120448395232529037e+01) (253, 9.99777991577605575912e+01) (254, 2.42745881329829025219e+01) (255, 9.84264323442797035568e+01) (256, 9.92847740456084579819e+01) (257, 9.85263123914222092026e+01) (258, 5.10366854554181657022e+01) (259, 5.02806863671308121866e+01) (260, 4.13455233478827643978e+00) (261, 9.91701141401748031967e+01) (262, 9.87181652292231888168e+01) (263, 9.91564522191504806869e+01) (264, 2.48002676020914840649e+01) (265, 1.65989987636872129428e+01) (266, -1.93020575596310663968e+01) (267, 9.94685338541488022202e+01) (268, 9.92630614444236130112e+01) (269, 9.83749840437988609665e+01) (270, 1.85017500902481870639e+01) (271, -2.04538230253674555570e+01) (272, -1.98272155477025080472e+01) (273, 9.87516970738391250961e+01) (274, 9.96271651789168686264e+01) (275, 9.84352828368167251938e+01) (276, 2.40224129210764694164e+01) (277, 3.78905684256835106893e+00) (278, 4.85303083563132275913e+00) (279, 9.90820779010276169174e+01) (280, 9.86507049008826584213e+01) (281, 9.95349056526641220444e+01) (282, 2.04818119432828851245e+01) (283, 1.79240547205277280796e+01) (284, 1.74690574790306882846e+01) (285, 9.97956665560225815170e+01) (286, 9.97754033609847397202e+01) (287, 1.00178747753761228978e+02) (288, 2.99938065410864922455e+01) (289, 2.88564791680586907319e+01) (290, 5.01475923096900544351e+01) (291, 9.86173446878413528793e+01) (292, 9.97409868046264023178e+01) (293, 9.89363832875708908432e+01) (294, 9.94669074818114609116e+01) (295, 9.94367661282042831772e+01) (296, 9.89602983399848312729e+01) (297, 9.88942834540824264877e+01) (298, 9.85934581562499374741e+01) (299, 9.99164705082396835678e+01) (300, -1.08654816572120900275e+01) (301, -9.80986067607621521347e+01) (302, 1.69382597802614291993e+01) (0, 2.85866504521911035663e-01) (1, 9.73179172477068421543e-01) (2, 2.16987465769461734810e-01) (3, 9.88680637770046666368e-01) (4, 3.53915676488214148154e-01) (5, 1.47626796209729849174e+00) (6, 6.32478810178907835393e-01) (7, 1.76212375181601732521e+00) (8, 3.44732943352921317182e-01) (9, 1.56936802437660305465e+00) (10, 1.74954751866869528953e+00) (11, 1.53149476681799856514e+00) (12, 2.92553597691902866895e-01) (13, 1.23522365116091670245e+00) (14, 7.34853781541455197690e-01) (15, 1.95690397295143347911e+00) (16, 1.02173958163706535274e+00) (17, 1.05803717775806815915e+00) (18, 1.56219071170567991302e-01) (19, 9.13834652629586075001e-01) (20, 1.26619564772458170765e+00) (21, 2.03266036969017394043e+00) (22, 1.15516473594669788483e+00) (23, 1.88780519476308272786e+00) (24, 4.41594699981613214579e-01) (25, 1.33038430891984882365e+00) (26, 1.30287644955083248277e+00) (27, 1.02904186104638872834e+00) (28, 1.15289322586831111117e+00) (29, 5.58660101611949122535e-01) (30, 1.93803058488188661990e+00) (31, 9.30132047075913015455e-01) (32, 1.27952401495647771767e+00) (33, 1.76861281134748526966e+00) (34, 2.04859257879345335596e+00) (35, 1.57383446297314955054e+00) (36, 2.15788892165486245744e+00) (37, 4.84399560042718613229e-01) (38, 1.06627579207000389161e+00) (39, 1.27579639857196647235e+00) (40, 1.93606218136770236171e+00) (41, 7.48565050172941170992e-01) (42, 1.14259494527151650445e+00) (43, 2.08972089271676031430e+00) (44, 2.46451725220634321190e+00) (45, 1.20862959407145864610e+00) (46, 1.87461768172557241563e+00) (47, 5.55649245040750972002e-01) (48, 2.36924007689780147246e+00) (49, 1.85874985380055735007e+00) (50, 2.03431722541196480236e+00) (51, 1.48225446069186528320e+00) (52, 1.52489629906021817440e+00) (53, 2.48764902824987893526e-01) (54, 1.17756133193172263240e+00) (55, 1.72834892440087650733e+00) (56, 2.30790771644534098428e+00) (57, 1.10735537135546979748e+00) (58, 3.99790160517635051463e-01) (59, 7.27857737341380151008e-01) (60, 1.73279756699840370437e+00) (61, 2.62844392715122987525e+00) (62, 2.18229976595160923836e+00) (63, 8.40029480519185356435e-01) (64, 1.50653543376255982800e+00) (65, 1.36945424213518340828e+00) (66, 4.99370481095966711749e-01) (67, 4.73491758817762786737e-01) (68, 8.52768948710097979271e-02) (69, 1.17831950981826882874e+00) (70, 1.16097439441950922578e+00) (71, 1.09843478443509390274e+00) (72, -1.29217722566349141333e-01) (73, 2.43445754204321129777e+00) (74, -2.56919966275474020989e+00) (75, 1.47387384531578291558e+00) (76, 5.64970710819151289428e-01) (77, 1.02923981364877556444e-01) (78, 1.93250610173084891308e+00) (79, 1.55250192303549106043e+00) (80, 1.54653319981283110529e+00) (81, 9.53079018123986210220e-01) (82, 8.09188301999273253140e-03) (83, 4.13201593548967807679e-02) (84, 1.38827573111775603998e+00) (85, 1.37886692446306025062e+00) (86, 1.18945752492555026358e-01) (87, 1.05673342665181979605e+00) (88, 3.22444247821558407918e-02) (89, -5.98980774674713778438e-01) (90, 6.06032124464184127066e-02) (91, 1.68985332544976474267e+00) (92, 2.96170919662016376983e-02) (93, 1.73017384163713394685e+00) (94, 4.77821111410692833665e-01) (95, -3.78860333091551315654e-02) (96, 1.57790076036366588852e+00) (97, 3.90035775588289113092e-01) (98, 6.09963502479474395379e-01) (99, 1.46323078502709580384e+00) (100, 1.65731074168638170541e+00) (101, -3.97884767668684613540e+00) (102, 1.62871338928969588977e+00) (103, 1.38805519770476104569e+00) (104, 2.24095166285608060619e+00) (105, 1.30369727335332541429e+00) (106, 1.36616829939526240878e+00) (107, 5.05319764305874219446e-01) (108, 6.84073862490668593850e-01) (109, 6.64033629424579996403e-01) (110, 1.98576095599253976687e+00) (111, 1.71565500592018360670e+00) (112, 4.91139813148969395229e+00) (113, -2.51418127933122503848e+00) (114, 4.79248074579741500933e-01) (115, 1.48807386221731996478e+00) (116, 1.40119798623933511372e+00) (117, 4.70467902147332694973e-01) (118, 3.04559571912950621808e+00) (119, 1.53035325131170107937e+00) (120, 1.53739751453472339726e+00) (121, 1.00553312855014853611e+00) (122, 1.87018525074357278015e+00) (123, -4.35320586417736830193e-03) (124, 3.03067784618110191985e+00) (125, 1.20316558975043097490e+01) (126, 5.31400980307887849108e-01) (127, 6.71577938819837294560e-01) (128, 2.42250755984942012233e+00) (129, 1.05880459627047529558e+00) (130, -1.81425146900672515926e+01) (131, -7.31910397065241369319e+00) (132, 1.34470913463212071726e+00) (133, 2.60212566385549370906e+00) (134, 1.16619264102322417465e+00) (135, 1.20254938569190250597e+00) (136, 5.21138670372790713259e+00) (137, 2.29106207902991521053e+01) (138, 2.46290703880107708645e-01) (139, 3.52112682080228456272e+00) (140, 1.14771228224211085944e+00) (141, 1.84239981569799216032e+00) (142, 5.10176119874391087450e+00) (143, 3.40287369357489533073e+00) (144, 1.95581613617601712818e+00) (145, 4.56552215747553979952e+00) (146, 3.10332631570995642889e+00) (147, 8.51052759732824903871e-01) (148, -1.86633431584345608201e+01) (149, -1.52964832088588642556e+00) (150, 4.58953181942600429988e-01) (151, 1.90436647695189442686e+00) (152, 9.95691328371598061153e+00) (153, 1.13257296526903772360e+00) (154, 6.11861438400048651687e+00) (155, 6.16467664957784489133e+00) (156, 3.95353961127746733606e-01) (157, 1.65644215061417576784e+00) (158, 7.84118266557532916927e-01) (159, 1.89158076250096551796e+00) (160, 1.93988837965754457038e+00) (161, 8.32861990302479870962e-01) (162, 5.28269399163712516376e-01) (163, 1.69521682764491155027e+00) (164, 1.76081144220650243071e+00) (165, 1.84117349795875490104e-01) (166, 3.04838154514396464378e+00) (167, 2.27693636756848505343e-01) (168, 7.41289688965676707433e-01) (169, 6.81577075849635449778e-01) (170, -1.05940558649610192532e+01) (171, 1.33521838604187825794e+00) (172, 1.13450077460927789552e+00) (173, 3.28895139687893967029e-01) (174, 2.35593716056171231799e+00) (175, 2.44002736695722255433e-01) (176, -5.86967974141693282775e+00) (177, 1.50545396262947450694e+00) (178, 1.89885623014773829986e+00) (179, 1.13398854060203624350e+00) (180, 3.14744882980573947862e+00) (181, 1.01743229570298998610e+00) (182, -1.37221857677042713419e+00) (183, 9.48317836868724062249e-01) (184, 5.04974282343218394686e+00) (185, 2.11224048682208564998e+00) (186, 1.52217989408459186684e+00) (187, 4.89858187826688329380e-01) (188, -4.44118063495982706712e-01) (189, 1.32154322343175500976e+00) (190, 7.34701756369381731027e-01) (191, 1.45596619516405390016e+00) (192, 3.26248298626240629261e+00) (193, 4.19951313096185774310e-01) (194, 5.83579901333450834500e-01) (195, 1.55390672673884711052e+00) (196, 8.53640928432038093021e-01) (197, 1.40448311898805644482e+00) (198, 3.04895167418086066036e+00) (199, 1.16533998796475124493e+00) (200, 6.69795052145576796931e+00) (201, 1.82361162266800591603e+00) (202, 7.58922527620712439322e-01) (203, 1.14506499689694174471e+00) (204, 5.33810220754456721259e-01) (205, 5.71181175151027731296e-01) (206, 5.46569107003433440894e+00) (207, 2.03135711660584261651e+00) (208, 2.95633770740857437787e+00) (209, 2.50417273479447954898e+00) (210, 1.19238925181394206376e+00) (211, 1.63732775068768909854e+00) (212, 1.52143081651384015629e+00) (213, 1.46375193850256390959e+00) (214, 1.97831356411425840491e+00) (215, 1.93810036485977210674e+00) (216, 6.55993153853142496601e-01) (217, 1.54645527825531048371e+00) (218, 1.20260354199802166342e+00) (219, 1.38413118824038283705e+00) (220, 1.80500172761759802853e+00) (221, 2.29900956899311470494e+00) (222, 3.38808527257010605460e-01) (223, 3.89707528451085749577e-01) (224, 1.64700836383827931009e+00) (225, 1.01784951957308789083e+00) (226, 4.96605036793718923605e-01) (227, 6.66130473714166893018e-01) (228, 1.84522362745575069232e-01) (229, 3.09831825976739361206e-01) (230, 1.60005540039152460707e+00) (231, 2.20859165540773560998e-01) (232, 3.32541086358171311677e-01) (233, 3.59782854049256195506e-01) (234, 5.37804811855362108197e-01) (235, 3.18087098906613630067e-01) (236, 4.27855254570179532880e-01) (237, 1.16993729991825290426e+00) (238, 2.23401056588048985141e-01) (239, 3.84496364227130849045e-01) (240, 5.84704414777133085757e-01) (241, 1.46499859102162166558e+00) (242, 2.16364581745110529098e-01) (243, 1.38474179645423522977e+00) (244, 6.16449956872365478766e-01) (245, 1.33541800319075054659e+00) (246, 2.10024711377456235750e-01) (247, 1.05103747543097791883e+00) (248, 9.73600238875201973165e-01) (249, 1.73660061142586141791e+00) (250, 3.60598479487797884957e-01) (251, 3.93361452938306099814e-01) (252, 1.09581565880223763543e+00) (253, 7.37895597026553162756e-01) (254, 1.12230741902448460934e+00) (255, 1.00698277583499407051e+00) (256, 1.60130137216138246359e+00) (257, 1.43298312293319796140e+00) (258, 1.37669543315978581965e+00) (259, 1.66136151758213923557e+00) (260, 1.66313285561238366483e+00) (261, 1.02274797968940767134e+00) (262, 1.73765454095803217882e+00) (263, 1.80949800746375011329e+00) (264, 1.03844586898894886140e+00) (265, 2.17979182101253776693e+00) (266, 2.07256743790600950206e+00) (267, 1.53108487722711572587e+00) (268, 1.15330406773096671991e+00) (269, 4.54624435019650552370e-01) (270, 1.78900207994947169077e+00) (271, 1.62492319070365431877e+00) (272, 1.57280715199414689032e+00) (273, 2.10388897310342937175e+00) (274, 8.02890779422438694013e-01) (275, 6.27782981062679046325e-01) (276, 1.16978869860800305247e+00) (277, 8.91511556650915637512e-01) (278, 1.27856308527272410913e+00) (279, 3.47931796157559425353e-01) (280, 4.19630085163436916673e-01) (281, 1.74002101497897188054e+00) (282, 5.81573795088719869284e-01) (283, 1.37304103090933904419e+00) (284, 1.57204683242937209853e-01) (285, 1.58195429479784999138e+00) (286, 2.19575338492717397898e+00) (287, 1.68975813272846075996e+00) (288, 8.13709244765357997409e-01) (289, 1.42943577531726950802e+00) (290, 1.17813878967932805786e+00) (291, 3.54753933148993394475e-01) (292, 2.64835926177980740537e-01) (293, 6.11689429777037219083e-01) (294, 1.98215034901429820735e+00) (295, 1.16859524608598253081e+00) (296, 6.95797505630097457008e-01) (297, 1.94571355670010182060e+00) (298, 5.05729768565076565068e-01) (299, 1.65656056845105825737e+00) (300, 2.04792960547531155413e+00) (301, 1.85374295139258027376e+00) (302, 2.42251840705152332589e+00) (303, 1.58921106719100846405e+00) (0, 2.34303262627183234157e-01) (1, 1.03552842984899265422e-01) (2, 2.21095187738782145148e-01) (3, 9.23698335978154094761e-01) (4, 9.73651086842671098509e-01) (5, 1.07982618356761617129e+00) (6, -5.32570629929664640656e-01) (7, -6.22717575265459011291e-01) (8, -6.85131525151324582978e-01) (9, 8.34618648660041095866e-01) (10, 1.01747837963977305620e+00) (11, 9.83517491533953736038e-01) (12, -4.48195132643421145779e-01) (13, -4.46506606648676529492e-01) (14, -8.53769490882226866901e-01) (15, 9.21339882540445492820e-02) (16, 8.58254971411515632518e-01) (17, 7.79845814132316017542e-01) (18, 1.26692579155286283443e-01) (19, -5.64763072860773318595e-01) (20, -2.07711175886877219554e+00) (21, 2.10420880900319545725e-01) (22, 8.59281178392409694666e-01) (23, 1.52409315557610558489e-01) (24, 2.06798487549187059997e-01) (25, -5.97889165281654477724e-01) (26, -1.75982285279105044040e+00) (27, 1.27424027444610815651e-01) (28, 2.28465166451181839191e-01) (29, 1.92290979972172260126e-02) (30, 8.70909573284873950172e-01) (31, -7.91684105354743872240e-01) (32, -5.91103332088462263272e+00) (33, -3.75593086257635544456e-01) (34, -3.47081208724632661600e-01) (35, -5.30943010482883503975e-01) (36, 1.62956085735327227404e+00) (37, 1.04532242098415850684e+00) (38, -3.92956435191122277484e-01) (39, -4.47682640015579169646e-01) (40, -5.00647881235898428720e-01) (41, -1.67217865603052406875e+00) (42, 4.15148304967891235151e+00) (43, 1.23183173591396588620e+00) (44, -1.38979326081619891653e-01) (45, -4.48699724947485278914e-01) (46, -4.42556273042955417019e-01) (47, -1.53228078580105253614e+00) (48, 1.72469676569091889817e+00) (49, -1.26927337135057133333e-01) (50, -3.10460902203111788200e-01) (51, -4.35976069178296066209e-01) (52, -3.02184693592469300061e-01) (53, -6.72310087188098481903e-01) (54, 1.13155981437866226536e+00) (55, -5.07102328689534531669e-01) (56, -9.52239305033143801360e-01) (57, -3.97478823792937197013e-01) (58, -4.74825667576749266274e-01) (59, -6.74374306115269828155e-01) (60, -5.63754149592745820718e-02) (61, -1.16625249234713868063e+00) (62, -4.36703243606050595105e+00) (63, 5.78335863410602557533e-02) (64, 1.13260734258313525147e-01) (65, -4.69803395193545192399e-01) (66, -3.69878973425772694661e-01) (67, -1.34463567524564964195e+00) (68, -2.49436235860400845610e+00) (69, 2.29890601662713411901e-01) (70, 2.30734443028564689682e-01) (71, -3.90712333173741377390e-01) (72, -4.49272924741193235842e-01) (73, -3.33805565799122905268e-01) (74, -2.07678909642331888108e+00) (75, 9.46517573615245799701e-01) (76, 3.02834970916637247207e-01) (77, 1.06687654563908565497e-01) (78, 6.83113861497151170221e-02) (79, -6.72099737317747580878e-02) (80, -1.02483590962922521683e+00) (81, 1.03146129829518917731e+00) (82, 1.28442417446504003609e-01) (83, -4.31798770496692796428e-01) (84, 8.65660859718721670264e-02) (85, -2.69886724685525880574e-01) (86, -5.50618670083714012442e-01) (87, 2.95561933176301638859e-01) (88, -3.70468251916281521297e-01) (89, -7.93888219410261219977e-01) (90, 1.94314235985618644076e-01) (91, -4.39613894029687535259e-01) (92, -5.85817410527702420175e-01) (93, 3.66992512758841094023e-01) (94, -2.06162012745257999802e-01) (95, -2.98907916176955446019e-01) (96, 2.19542858459253198422e-01) (97, 2.02296151508859683998e-01) (98, -4.47971688357194919305e-01) (99, 5.57645785347689049161e-01) (100, 6.84832745511143370365e-01) (101, 6.73321464267375602297e-01) (102, 1.48408397367357669516e-01) (103, 1.74457676249484744391e-01) (104, 3.17322257027621429382e-02) (105, 1.10709983110678078511e+00) (106, 6.57324658413193585460e+00) (107, 1.49148564312211586724e+01) (108, 9.20214094630752571513e-02) (109, 2.63413683528577025061e-01) (110, 4.51367895155781462257e-02) (111, 6.61026561534806988973e-01) (112, 6.07929210169296019295e-01) (113, 2.66807420014303220412e+00) (114, 2.02046903809632583116e-01) (115, 3.25743046114314427353e-01) (116, 1.07326751705366582601e-01) (117, -1.00759554703686762811e-01) (118, -3.76462518933928791398e+00) (119, -3.56972237269194252463e+01) (120, 1.12992889699059975706e-01) (121, 8.40989453830791461320e-02) (122, -5.65009887216604417270e-02) (123, -5.87944109037254247774e-01) (124, -2.23804293024155986913e+00) (125, 2.62969655366313830314e+01) (126, 1.00452888202189324907e-01) (127, -3.04221974921561555405e-01) (128, -5.36588483162595997200e-01) (129, -1.55159877149325442502e+00) (130, -2.29717661241594370836e+01) (131, 1.69996599923266558108e+01) (132, 2.05487897958162329948e-01) (133, 5.92074457138466070383e-01) (134, -5.45934827866624283743e-01) (135, -5.03964023400117078211e+00) (136, -1.79996072312481345534e+01) (137, 7.38506412229371189682e+00) (138, 1.35889066700852989555e-01) (139, 5.71063933566878567660e-01) (140, -1.56274177345173037601e+00) (141, -1.34051042089098659815e+00) (142, 2.31972373572537016173e+01) (143, 4.00023129960133605465e+00) (144, 1.76296211468442043380e-01) (145, 9.48676287749370183988e-01) (146, -9.21764373712616524870e+00) (147, -9.55707864676016871641e-01) (148, 1.26949861829372050437e+01) (149, 2.95757755835475721895e+00) (150, 1.15115269110776033412e-01) (151, 7.94315023830995148302e+00) (152, -2.75166492306442078686e-01) (153, -8.92486615610000533216e-01) (154, 1.86878103253983662846e+00) (155, 5.66862918575126784049e+00) (156, 2.05982733871278772542e-01) (157, 4.24516588519367576993e+00) (158, 2.00628106419417218120e+00) (159, -1.45437137894604062716e+00) (160, -2.15273441150177795578e+01) (161, -1.56283061709348669588e+00) (162, -3.35099891020850415568e-01) (163, 1.77967814055713913213e+00) (164, 1.29288120952034368827e+00) (165, 7.86144530911401906437e-01) (166, -8.96283645153292951591e+00) (167, 9.80845221079428952748e+00) (168, -6.13687573629513094531e-01) (169, 3.17489206878155227898e+00) (170, -2.43076083232211082041e-01) (171, 9.59786055996624143383e-01) (172, -8.08459694762051839234e+00) (173, 1.30388055800649826921e-01) (174, -8.59208110567400984436e-01) (175, 1.51410662846781440827e+00) (176, -5.62994050840458637452e+00) (177, 3.24521405073392665841e-01) (178, -8.98666954789033134432e-01) (179, -9.60382283538920744625e-01) (180, -5.58162988660704906252e-01) (181, 8.74503977252375164220e-01) (182, -1.59128246246156628274e+01) (183, 5.52956775197005034883e-01) (184, -4.25639833376819598509e-01) (185, 1.82371969329644723068e+00) (186, -2.63309150415547477131e-01) (187, 1.66184699397034059132e+01) (188, 5.59888463009753412081e+00) (189, 1.73457974854284469046e+00) (190, 1.54543380379625383547e+00) (191, 5.75482506099438823055e-02) (192, -4.02087477127586467862e-01) (193, 3.73568338427505430843e+00) (194, 8.79637764114979958663e+00) (195, 1.45033165194559177102e+00) (196, 9.74452740616757240311e-01) (197, -2.92532701024332680850e-02) (198, -4.43824433889717595569e-01) (199, -5.66594437467890177373e-01) (200, -4.20863206882839513412e+00) (201, 4.38835624407060309604e-01) (202, 2.25974967587179564887e+00) (203, 3.98639904761725283322e-01) (204, -5.68035093522250900122e-01) (205, -1.24299698817350123825e+00) (206, -1.04714631531467503578e+01) (207, 3.69312926395742646690e-01) (208, 2.72430469782789597133e+00) (209, 8.24379477651167036356e-01) (210, -5.07081526904473389727e-01) (211, -7.00215060208162487498e-01) (212, -2.73731451211416443314e+00) (213, -2.37028911825271110247e-01) (214, -1.27922217617292027780e-01) (215, -1.92989609191575123281e-01) (216, -4.45757927825606803385e-01) (217, -5.58710263036910292911e-01) (218, -4.88309420719689024626e-01) (219, -4.71950849164522623358e-01) (220, -1.19843050593179158148e-02) (221, -1.99042568715805001656e-01) (222, -4.52715338806478684308e-01) (223, -4.46672541498145780903e-01) (224, 8.83558827850172368024e-01) (225, 4.27796377912970982038e-01) (226, 5.52462721588106608905e-01) (227, -4.28099599316354856304e-02) (228, -4.93102060002431452634e-01) (229, -7.89802649814242280213e-02) (230, 1.00692773665412360629e+00) (231, 9.37428865835577135313e-02) (232, 5.17884138841286700838e-01) (233, -1.71150828631574297711e-01) (234, 8.29077009940389492160e-02) (235, -9.89194033665202338002e-02) (236, 5.96099028955217935533e-01) (237, 3.49480192882250934039e-02) (238, 4.64530018693323776269e-02) (239, -5.77448774279016419086e-01) (240, -4.39042277086322763058e-01) (241, -5.55684267413957044823e-01) (242, 6.01045749258952599625e-01) (243, 1.01948072705677197924e-01) (244, 1.15705218265475320849e-01) (245, -4.26142527640986812365e-01) (246, 8.98482250573322399623e-02) (247, -6.54110922179918841124e-01) (248, 5.35002272103415665860e-01) (249, -2.90558694990845998302e-03) (250, 5.31199255320476682041e-02) (251, -6.03429963947852199269e-01) (252, 5.33633010040239774696e-02) (253, -6.02116857976252917162e-01) (254, -9.04121289721565163378e-02) (255, 5.45125672676894240665e-02) (256, 2.10811873511884240173e-01) (257, -2.94632619960685349092e-01) (258, 7.45653024399205555106e-01) (259, -1.38572409331776807973e-01) (260, 5.99176389457159896956e-01) (261, 1.16603363601982687459e-01) (262, 7.81588930344137455819e-01) (263, 7.80374991648490751173e-02) (264, 7.85243911052535770168e-01) (265, 6.35009277936313121238e-01) (266, 8.13079084750763403378e-01) (267, 2.56070055028668308594e-01) (268, 1.15554301114355273405e+00) (269, 8.73725936950612069865e-01) (270, 6.08838130515942266285e-01) (271, 7.65640735358551483003e-01) (272, 9.22436969404506146297e-01) (273, 2.57334724761948074878e-01) (274, 1.57183507325901206109e+00) (275, 8.46648708862112076012e-01) (276, 7.49252699783378606213e-01) (277, 9.93162466682112721195e-01) (278, 8.94474274046957673612e-01) (279, 9.65521235482387080173e-02) (280, 8.23616084313015250906e-01) (281, 1.64505389653930411686e-01) (282, 7.20744055586889809106e-01) (283, 1.05379244966786767002e+00) (284, 9.56352405601399002677e-01) (285, 1.75637494252684045470e-01) (286, 7.52979329198208979790e-01) (287, 8.82339680626737732361e-01) (288, 7.59251839904733438757e-01) (289, 1.04962950483381978195e+00) (290, 1.10288454878682462557e+00) (291, 1.98211044064722952118e-01) (292, 1.79389077173536443111e-01) (293, 1.66693492727344821924e-01) (294, 8.29221443123014489984e-01) (295, 7.33577649557917377265e-01) (296, 8.36944607073209057013e-01) (297, 9.47107678920978246495e-01) (298, 7.31005422882893385328e-01) (299, 8.91109189650405864036e-01) (300, 1.33698963353792277253e+00) (301, -1.02992487927834863726e+00) (302, 6.48208831641011062885e-01) (303, 5.82722966117694918253e-01) (304, -2.09819236132227748826e-01) (0, -5.97598340762603499887e-02) (1, -1.04056332841855628257e-01) (2, 2.62610501917720888521e-02) (3, -3.64531958276344048020e-01) (4, -6.02850995419415891519e-01) (5, -6.34371526702919297236e-01) (6, 4.12354744058189615075e-01) (7, 3.20445858774296710170e-02) (8, 1.89493533272739572704e-01) (9, -7.16766768601074244494e-02) (10, -8.13334464020183167676e-01) (11, -1.72613018186251365726e+00) (12, 1.82597505267701742948e-01) (13, 1.84811972388902151510e-01) (14, 2.37496145367626421141e-01) (15, -1.24570067693140024145e-01) (16, -4.85645696351292788240e-01) (17, -1.24730540660401167941e+00) (18, 7.23299704648583507982e-01) (19, 2.86145229597624173312e-01) (20, 6.92318751092090733934e-01) (21, 5.02244234836988698301e-02) (22, -1.88876411490460416331e-01) (23, -3.60961874344296450995e-03) (24, 1.52264859327930857091e+00) (25, 3.98121001725297296581e-01) (26, 6.76030324886206290813e-01) (27, -9.82406615488020662497e-02) (28, -3.55321254740176006859e-01) (29, -1.58483554661488085236e-01) (30, 4.95938439798113250845e+00) (31, -4.35170055857053872383e-01) (32, 1.72463865807994554125e+00) (33, 9.79628917073783050951e-02) (34, -2.24043862990143199942e-01) (35, -2.31994976544557234693e-03) (36, 6.22389189666248014987e+01) (37, 2.01493073473642508864e-01) (38, 1.02354265688131622625e+01) (39, 3.84236917816371204015e-01) (40, -2.28564772896476808839e-01) (41, 2.59063208462822935907e-01) (42, 2.97223190263206538120e+00) (43, -2.15791237649093492479e+00) (44, 1.89009380181733877002e+00) (45, 6.59545294472259735485e-01) (46, 3.13457334439903034795e-01) (47, 7.93342522689338025543e-01) (48, 4.25923388767844413039e-01) (49, -2.52291088634111950739e+01) (50, 1.01237189259470383718e+00) (51, 1.91202835329610992821e-01) (52, 1.21053496142634775534e-01) (53, 2.11094130669543467160e-01) (54, 4.71284156085943872760e-01) (55, -1.36461862931932831344e+01) (56, 7.08636026844399857794e-01) (57, 6.80086569341494945329e-02) (58, 7.52819676065173415402e-02) (59, 3.61163825108448133250e-01) (60, 2.48283109413738456439e+00) (61, -2.84176720307174939251e+01) (62, 9.72340106916269375503e-01) (63, 2.75954341995805707555e-01) (64, 2.23032642256066546138e-02) (65, 1.40160217873927905874e-01) (66, 2.12440273736548626005e+01) (67, -1.90982384568309671025e+00) (68, 4.34773608394073551864e+00) (69, 2.39156558619216003114e-01) (70, -4.32296914152293654254e-02) (71, 1.91554401491126513601e-01) (72, 2.34701140650599278104e+01) (73, -3.11675040285120674710e+00) (74, 2.45558019062040688851e+00) (75, 1.21722075616912811524e-01) (76, -9.34799758527988466916e-01) (77, 3.48289354368260029027e-01) (78, 1.49332398760287112793e+01) (79, -4.25387234775734501824e+00) (80, 1.88746629819178579623e+00) (81, 3.77580036348405478908e-01) (82, -1.16587988007234399923e+00) (83, 3.85663863127235662098e-01) (84, 5.46909714200634855530e+00) (85, -6.47552763405677378472e+00) (86, 1.87555798920124594531e+00) (87, 4.49891353082982559108e-01) (88, -3.87089815753298394085e+00) (89, 3.89615720110119745367e-01) (90, 6.27485358492965783483e+00) (91, -1.49980776495177048346e+00) (92, 2.72319909139511961982e+00) (93, 4.09518879495153143022e-01) (94, -4.67414657800359467643e+00) (95, 1.12267829640944297176e-01) (96, 8.33805773276267636618e+00) (97, -1.68667384725708058291e+00) (98, 1.00636365624577339695e+00) (99, 5.51271746190266198617e-01) (100, -2.97954800015547194292e+00) (101, 4.41792292544628595330e-01) (102, 1.65578708559146399182e+01) (103, -1.49390938212386381601e+00) (104, 1.34831521570270274069e+00) (105, 5.52461395455321802039e-01) (106, -2.72587849128351544792e+00) (107, 1.13187487145734833049e+00) (108, 1.22994346551252267119e+01) (109, -1.37362185323101737566e+00) (110, 6.03092624914686403770e-01) (111, 8.26503048744270163439e-01) (112, -1.94331125525246145580e-01) (113, 4.53678340715984695919e+00) (114, 7.18827454893405004555e+00) (115, -1.42141323675785580249e+00) (116, 5.26365568150311546880e-01) (117, 3.47724650012822544820e-01) (118, -2.97655218724761150284e+00) (119, 5.98642331571510366572e-01) (120, 1.14660808733237851165e+00) (121, -1.87220056523555844485e+00) (122, 2.76458989594431880921e-01) (123, -2.08507281404146510573e-01) (124, -2.06832028549945583507e+01) (125, -8.64993768752479397222e+00) (126, 8.71015322601982444617e-01) (127, -1.90911386608439093138e+00) (128, 1.10923308210549562136e-01) (129, -4.72298727030306536578e-02) (130, -2.14702401660141184436e+01) (131, -8.96034663180032708851e+00) (132, 5.30535893181510775918e+00) (133, -9.49179216842724216008e-01) (134, 1.43203595209835776725e-01) (135, 4.20966303852888690251e-01) (136, -2.74581868731260847483e+01) (137, -2.36702199601869303081e+01) (138, 1.19742554780645549251e+00) (139, -4.74877002315704066504e-01) (140, 2.44968219852232743650e-01) (141, 5.82384953012380912618e-01) (142, -6.50301336339705926548e+00) (143, -1.03648789739403266452e+01) (144, 1.21637426965130537870e-01) (145, -4.91945773386439633157e+00) (146, -5.25948923739144635903e+00) (147, 9.10041091542948876736e-01) (148, 3.51644134425865857452e+01) (149, 9.60571008097702438988e+00) (150, -4.92022220212759847646e-02) (151, -1.06534250493775650703e+00) (152, -1.61912151529160319718e+00) (153, 1.70249940191093379616e-01) (154, -2.14748532254032031830e+00) (155, -2.96909272120328999733e+01) (156, -5.55234353212264927779e-02) (157, -2.75726523897470376934e-01) (158, -4.60709366601182224166e-01) (159, -4.46769972730608755374e-01) (160, -6.94138157850930692661e+00) (161, -6.20424697562261950878e+00) (162, -2.34751402162867939261e-01) (163, 9.06228067946252213716e-01) (164, 6.27650036867914096206e-01) (165, -5.80859680934912137040e-01) (166, -1.07407750178822425369e+01) (167, -2.31981684416312283759e+00) (168, -1.11810283349146222243e-01) (169, 3.97392711839669177110e+00) (170, 2.05360523100687286657e+00) (171, -6.15645993962059989713e-01) (172, -4.02748173162057021557e+00) (173, -9.20381278025363402939e-01) (174, -6.88381186531597088346e-03) (175, 1.62785879380748603751e+01) (176, 1.54737112806774690377e+00) (177, -7.71596752317649503539e+00) (178, -4.19699981734365223929e+00) (179, 6.26183241263475021121e-01) (180, -6.12504350649555884267e-02) (181, 6.29655580167501138789e+00) (182, 1.32465376466077966455e+00) (183, -2.35178339810298675516e+00) (184, -2.64196177689527811339e+00) (185, 9.79835207241995798100e-01) (186, -6.22616569871142222503e-01) (187, 3.85120406194125219912e+00) (188, 1.06131902570984237855e+00) (189, 2.58392512427344511750e-01) (190, -1.12762965874970988445e+00) (191, 1.97075834969544350095e+00) (192, -6.88157163012078521014e-01) (193, 5.81527183798603575227e-01) (194, 1.99956835812783950690e-01) (195, 6.98364934113542390470e-01) (196, 1.32680294705449342008e-01) (197, 3.52467809933576736725e+00) (198, -2.89450239309283352540e+00) (199, 3.02371170655572285568e-01) (200, -2.49045034359180711414e-01) (201, 8.67171233457409429413e-01) (202, 6.57294521568759892993e-01) (203, 3.19839428344851794961e+00) (204, -6.77272776123986397501e-01) (205, 9.57605834055362037383e-01) (206, 7.59622209732702335927e-01) (207, 1.50229284632960480295e+00) (208, 6.06124039725333685347e-01) (209, 2.30342022943356328213e+00) (210, -8.53201065532748353926e-02) (211, 1.94533512860313106962e+00) (212, 7.32784144403043069538e-01) (213, 1.83716728613848134799e+00) (214, 4.42275156014040604635e-01) (215, 2.02811922607610117808e+00) (216, 2.99856070878104993827e-02) (217, 1.12795974864806480831e+00) (218, 1.40236161113429291802e+00) (219, 8.93008908134523382572e-01) (220, 1.50546539091075765038e-01) (221, 1.00842414571482064112e+00) (222, 1.69408947455640918056e-01) (223, 5.05223048763612236911e-01) (224, 1.06604255940187298002e+00) (225, 7.69497806221339897270e-01) (226, 9.97450587381453340763e-02) (227, 4.90587132383269564073e-01) (228, 8.88119399158298072905e-02) (229, 2.49970639017161766482e-01) (230, 6.01839814398986483468e-01) (231, 3.24619558102048899606e-01) (232, 3.81425310850548149322e-01) (233, 6.97895693792714877368e-01) (234, -2.99474815017616129154e-02) (235, 1.56164828453393661478e-01) (236, 2.97793788823208949168e-01) (237, 2.56595990707214893778e-01) (238, 1.42550113398946881604e-01) (239, 4.94762220840897770646e-01) (240, -1.72668224813175119614e-01) (241, 7.02443472654010192535e-02) (242, 1.88905259367283501204e-01) (243, 1.94345965660437380862e-01) (244, 3.39264068577576904939e-01) (245, 3.94740899122016708489e-01) (246, -2.81454798554450436043e+00) (247, 9.95375573852466666303e-03) (248, -2.50281572538732337285e-02) (249, 2.06483550325143982995e-01) (250, 3.75962277522625065718e-01) (251, 4.55180920847134296015e-01) (252, -8.41034272684217576455e+00) (253, -1.47883579877872151087e-01) (254, -1.65992118211779643433e-01) (255, 3.93390072617665120802e-01) (256, 3.68812172746518618371e-01) (257, 3.62719760699574400586e-01) (258, -1.69502557549859811381e+00) (259, -3.95912306937426655695e-02) (260, -6.81921863481769474635e-02) (261, 2.50160781540721632865e-01) (262, 1.46082525918490718775e-01) (263, 1.33181594374619655108e-01) (264, -7.69285089363392127204e-01) (265, 2.27377641092458703150e-04) (266, -4.69317822879154813998e-02) (267, 1.82535088570336762048e-01) (268, 8.48220771972264669936e-02) (269, -1.45531446151057515526e-02) (270, -1.14397823620164498792e-01) (271, 1.72344840185354210294e-02) (272, 5.28255004735791594550e-02) (273, 1.36382804538521834603e-01) (274, 2.08012772028951409276e-01) (275, 7.78525398892715575494e-02) (276, -9.24622445989165542279e-01) (277, -8.83477835987426518560e-02) (278, 1.06890571680985126124e-02) (279, 1.61231183786972667726e-02) (280, 1.87572611742350014996e-01) (281, -1.19595995655975839700e-01) (282, -1.25542830301027374257e-02) (283, -1.97966816282337323973e-02) (284, -7.92532863191331982122e-01) (285, -1.05841164309146182343e-01) (286, -4.13261094928232819434e-02) (287, -1.97113016050459222139e-01) (288, -4.54437476470794313177e-02) (289, -1.10765585812552649903e-01) (290, -6.38318018272145994152e-03) (291, -2.64184155185391400522e-01) (292, -1.40459984938977711089e-01) (293, -2.98987196716524017415e-01) (294, -1.15131311047385928581e-01) (295, 2.30529913881471239245e-02) (296, -6.00443626958454892972e-02) (297, -1.53575837389597069649e-01) (298, -2.46719993104348139790e-01) (299, -2.49551225904502543829e-01) (300, 2.47872013140919866814e+00) (301, 9.59476685092916348196e+00) (302, 2.79603007222566724010e+01) (303, 1.26088226001185543801e+00) (304, 8.97458012041227171096e+00) (0, 1.19210049380121785312e+00) (1, 1.05410549012558885096e+00) (2, 1.21529587758795742936e+00) (3, 1.17262312708026650299e+00) (4, 1.22279992306863971585e+00) (5, 1.16835979543058132712e+00) (6, 9.76919470183212013126e-01) (7, 1.06491910580394799624e+00) (8, 8.66945709358129756872e-01) (9, 1.10497102891967480254e+00) (10, 1.02605479445854230747e+00) (11, 1.01382863792322619467e+00) (12, 3.03266674605604191761e-01) (13, 8.36640593772101204273e-01) (14, 9.33499531410860949876e-01) (15, 9.78034075834225524737e-01) (16, 4.82224988463007542272e-01) (17, 3.48839032010178962118e-01) (18, -6.13037825483490061984e-01) (19, -1.15995674201576148832e+00) (20, -1.13457663325511481922e+00) (21, 3.70331581175956825458e-01) (22, -4.03057829224788694011e-02) (23, -1.12745397145314729670e-01) (24, -1.35884903650280519649e+00) (25, -2.44448700967643395288e+00) (26, -2.49063168240703491918e+00) (27, -1.13689138550715565512e-01) (28, -1.04773554208630947926e+00) (29, -1.38900945644549023150e+00) (30, -1.65443989980126615613e+00) (31, -1.59893871719514357732e-01) (32, -2.49813864128557217015e-01) (33, 3.42624775287641958332e-01) (34, -7.99515689757327785436e-01) (35, -8.92006748673265681404e-01) (36, -3.52427663895662268700e+00) (37, -1.86466911072951047057e-01) (38, -5.82264992830532346346e-01) (39, 4.26187896531980692227e-01) (40, -1.03854667958695634500e-01) (41, 2.54627830457191450808e-01) (42, -8.85529886436048796483e-01) (43, 1.00703508393241425445e+00) (44, 7.32256365638995765366e-01) (45, 5.29977864605616799665e-01) (46, 4.88106127298381209378e-01) (47, 3.87094243888490285865e-01) (48, -1.05193125664188213975e+00) (49, 2.58859359975636182938e+00) (50, 9.94464222978332146319e-01) (51, 9.98895539562881240592e-01) (52, 4.72352694031990760770e-01) (53, 3.98379807563833066020e-01) (54, -1.38589254017444862832e+00) (55, 6.06885089664248034147e-01) (56, -1.96676061839680449417e-01) (57, 7.47311908864857765700e-01) (58, 9.39732539228936847309e-01) (59, 8.34046653350093203372e-01) (60, -3.40061698587608596256e+00) (61, -4.55228873549993029446e-01) (62, -7.62199698433713712653e-01) (63, 8.80699345225807284088e-01) (64, 8.48304756413519323033e-01) (65, 8.78756470060260030941e-01) (66, -1.38241627345924178449e+00) (67, -3.52647753844960221148e-01) (68, -7.20745668280186602139e-01) (69, 8.07589580717456900771e-01) (70, 7.95908351712047434923e-01) (71, 8.37217292908886023817e-01) (72, -9.43675303752184779782e-01) (73, -5.62653979549368910007e-01) (74, -8.27483005869929622023e-01) (75, 1.52555338033898424399e-01) (76, 2.60941605423007427778e-01) (77, 2.49725137308057260066e-01) (78, -8.48793285661566754285e-01) (79, -6.07683679317385871954e-01) (80, -2.06099656222925364801e+00) (81, 2.15731575480860138239e-01) (82, 2.48285522826313165279e-01) (83, 3.63095454697123953824e-01) (84, -7.80545511236055644666e-01) (85, -6.14659004002900966057e-01) (86, -2.28573418988769994087e+00) (87, -7.29028104051842151812e-01) (88, 5.66499925511447455229e-01) (89, 4.25152179316339196014e-01) (90, -7.13947376110898646040e-01) (91, -8.25462923213172272696e-01) (92, -5.30093487585798683881e+00) (93, -8.63245873576963695939e-01) (94, -1.70964049657330446896e-01) (95, 6.99033453994837711276e-02) (96, -8.02803795319779855966e-01) (97, -2.14669624437635098158e-01) (98, -7.29354976722109693554e-01) (99, -7.95307161827071507076e-01) (100, 1.80959802919708513669e-02) (101, -1.11742840851953670334e-01) (102, -8.16649082757163191637e-01) (103, -5.18683194808352454608e-01) (104, -1.72785969838377884145e+00) (105, -8.76090282997558311706e-01) (106, 1.33221788296216048231e+00) (107, 9.45935949585736346457e-01) (108, -8.43304593220223885908e-01) (109, -4.41162148726655600761e-01) (110, -9.12125951995269468320e-01) (111, -1.12722917630252883470e+00) (112, 1.92129257200502467917e+00) (113, 1.33737367655280348089e+00) (114, -1.02441945721751248577e+00) (115, 4.53094750886425146064e-01) (116, 7.94407391389949889271e-03) (117, -2.15499653964023707431e+00) (118, 7.35952322336909880995e-01) (119, 1.49633051028142083361e+00) (120, -9.25015677378415279719e-01) (121, -9.60545086416239590754e-03) (122, -4.17171900831292741252e-01) (123, -1.58318173386770433275e+00) (124, 1.26965512878424924281e+00) (125, 7.16590288214706161440e-01) (126, -9.20757845771305261096e-01) (127, 3.33358320670737251490e+00) (128, 2.73520837763452284719e+00) (129, -1.24606172713238705363e+00) (130, 8.79768811760166613567e+00) (131, 2.19781331676757757387e-01) (132, -9.51559173829037208137e-01) (133, 3.04400670730081657211e+00) (134, 3.13559153666311951625e+00) (135, -8.42185220027992675895e-01) (136, 8.78762263574388491350e+00) (137, -7.89922196178153779300e+00) (138, -1.00006492133651958554e+00) (139, 4.72627342433923036680e+00) (140, 4.17159053282618064173e+00) (141, -9.64737774541935211303e-01) (142, 1.00256559928229176393e+01) (143, -1.19174017487031296270e+01) (144, -9.94564352053532885201e-01) (145, 1.43177411499417051033e+01) (146, 6.00757308860266636685e+00) (147, -3.64127576438349642718e-01) (148, -5.96566998505048684542e-01) (149, -1.42139910817243215746e+01) (150, 2.82770532049186285040e-01) (151, 9.56856421488416586385e+00) (152, 5.34366641996649338608e+00) (153, -1.18135390323579780869e+00) (154, 5.44619900387004370057e-03) (155, -1.65249750778772828141e+01) (156, -3.47349007198297976551e-01) (157, 1.32477421626718760983e+00) (158, -2.34070796575508977000e+00) (159, -3.68436711531784499840e+00) (160, 2.11340589781173058270e+01) (161, 3.35828224634494709733e+00) (162, -1.14112211061269164247e+00) (163, -7.64119403214089332188e-01) (164, -2.27881486103852211045e+01) (165, -4.96257403256496498756e+00) (166, 8.77665943199221487703e+00) (167, 5.02207120194947398417e-01) (168, -3.99410915426135770812e-01) (169, 5.54702030545089486147e-01) (170, -8.84916438671805583027e-01) (171, -1.08632335054291946363e+01) (172, 5.75098338435338440888e+00) (173, 3.46840538434229372911e+00) (174, -5.38994210156877984197e-01) (175, -8.04717964126882678855e-01) (176, 1.70337536146456791641e+00) (177, -1.83324068696647413113e+00) (178, 1.30620366152483202704e+00) (179, 6.00417423322257115537e-01) (180, -1.00231055507246605285e-01) (181, 1.83342981869070009715e+00) (182, 4.69406235210406741487e+00) (183, -5.04188491594209642344e-01) (184, 4.19778717860035288645e-01) (185, 1.44489798252973589143e-01) (186, -7.69974741105728055501e-01) (187, 4.64839954533110777390e+00) (188, 1.34732381612361500345e+01) (189, 2.42264363569195395609e-01) (190, 2.81798117981790374742e+00) (191, 4.08719557449526682547e+00) (192, -5.36925831902453243316e-01) (193, 1.18335779508566796281e+00) (194, 1.28825850666530494770e+00) (195, -2.78098318710778169560e-01) (196, -1.36982556603126887085e-01) (197, 6.28534006612869924208e-03) (198, -3.96570954461583913275e-01) (199, 3.86104512660885912378e-01) (200, -4.78440878352383192063e-01) (201, -9.34087915701530713264e-01) (202, -7.77049839457315427715e-01) (203, -7.61677768035968205673e-01) (204, 1.78876444304078563441e-01) (205, 5.85271765895198137208e-01) (206, -8.91353797292517152639e-02) (207, -9.14608155016648716185e-01) (208, -2.27215527488880519869e+00) (209, -2.54132460556751560432e+00) (210, 1.43266773827032622979e-01) (211, 4.24066541079815284565e-01) (212, -1.90018759213890081616e-01) (213, -1.15580537787178694309e+00) (214, -1.42191110846091151032e+00) (215, -2.45101944652769354605e+00) (216, 2.11166702380822246532e-01) (217, 4.95477373372297746901e-01) (218, 9.49404227393082639219e-02) (219, -8.25734917654743050264e-01) (220, -7.68402752850801840090e-01) (221, -8.25754318328085878953e-01) (222, 3.38973552990458060208e-01) (223, 2.83658703915731946754e-01) (224, -6.37553728804826722737e-03) (225, -7.57218324070505821588e-01) (226, -9.59461507162865656628e-02) (227, -1.66187986032431178618e-01) (228, 6.87227917512948649481e-01) (229, 1.89910220849791366859e-01) (230, -3.72859596698789236280e-02) (231, -2.15052630995794080704e-01) (232, 3.52659300964935640277e-01) (233, 3.67015126235099964358e-01) (234, 7.74786868649651849772e-01) (235, 2.06978007442662370607e-01) (236, -3.05696975160432080076e-02) (237, 1.79306771960272615107e-01) (238, 4.51454217276817559856e-01) (239, 4.24075463481785486231e-01) (240, 7.09358899726679759112e-01) (241, -4.32964568401841554124e-01) (242, -2.31595074729393557433e-01) (243, 2.69308147220707172487e-01) (244, 4.68840885354344427682e-01) (245, 3.27396005579670024144e-01) (246, 1.93500286417277511664e-01) (247, -1.02395049993978282110e+00) (248, -9.01775040259032434342e-01) (249, 2.45846611811862514330e-01) (250, 2.98031926133756064345e-01) (251, 1.36902662612368913875e-01) (252, 7.60131815549061506943e-01) (253, -4.83159842063552946723e-01) (254, 1.33158523863175920487e-01) (255, 2.32825629472767803296e-01) (256, -7.45026286001060245034e-01) (257, -9.80799252458495640639e-01) (258, 8.32418005239166203246e-01) (259, -3.79468681531305473964e-01) (260, 9.93405953005844361003e-02) (261, 1.55706838038003558822e-01) (262, -9.02476298191500880819e-01) (263, -1.11572835941019454786e+00) (264, 8.36290694445062432472e-01) (265, -4.74930176440700402285e-01) (266, 9.33710951875673239586e-02) (267, 2.36001693834722192644e-01) (268, -9.84206923904227704014e-01) (269, -1.38744633826241048347e+00) (270, 6.77095096945148910983e-01) (271, 2.61418430683038938156e-01) (272, 1.37149601433389112248e-01) (273, 1.68970899249720196700e-01) (274, -2.99321692418550777681e-01) (275, -1.02244360208576767768e+00) (276, 8.42645109719469265208e-01) (277, 2.70699800674238655329e-01) (278, 2.79660261528197173764e-01) (279, 4.06677095410035938094e-01) (280, 4.54195926967797591889e-01) (281, 3.76719732038457377765e-01) (282, 1.10336018196891316734e+00) (283, 2.21746731367718302730e-01) (284, 3.05258619553132826141e-01) (285, 1.07284907485247038572e+00) (286, 1.18816303343127271930e+00) (287, 5.49311143033811344338e-01) (288, 1.20676811117560767173e+00) (289, 9.23125903854011720107e-01) (290, 7.63165669012913716607e-01) (291, 1.20547207192526717456e+00) (292, 1.20905786280315674652e+00) (293, 1.26834824412787439130e+00) (294, 1.22662578834677926665e+00) (295, 1.03103504617091279449e+00) (296, 1.17808388321724533121e+00) (297, 1.18826800570294399684e+00) (298, 1.32934935841974644077e+00) (299, 1.21338586215195198825e+00) (300, 1.00182638176996974266e+00) (301, -2.38876245493124272912e+00) (302, 4.03590704314791448581e+00) (303, 7.31255067059328078827e-01) (304, -1.90318119647605754619e-01) (0, 4.09051724251651704911e-01) (1, 2.85213703508577998136e-01) (2, 2.65949962879620360745e-01) (3, 2.87600805534827752563e-01) (4, 4.17329838014003751123e-01) (5, 3.24562391383573067838e-01) (6, 2.57321886024896417933e-01) (7, 2.52301579482687110545e-01) (8, 1.76307798161841666751e-01) (9, 2.97590086125281427787e-01) (10, 3.58116417612123150160e-01) (11, 2.26963070043011388988e-01) (12, -5.21230844256020064975e-01) (13, -5.33538262892488734934e-01) (14, -5.00545823379358378880e-01) (15, 3.60406907694478029214e-01) (16, 3.90890134604303607357e-01) (17, 3.02123072086391608604e-01) (18, 6.69516593150230182596e-02) (19, -5.14273246489615698529e-01) (20, -5.77801603362874338643e-01) (21, 2.35065585991090814089e-01) (22, 4.41805218472816896291e-01) (23, 2.40313441277638706328e-01) (24, -4.15756752301961574059e-01) (25, -7.41046649148788816319e-01) (26, -1.17331127588574979370e+00) (27, 2.08127993317987397548e-01) (28, 2.90905309462362482442e-01) (29, 2.87889928990543553233e-01) (30, -3.52876866998002303166e-01) (31, -6.78508334138088975429e-01) (32, -1.25644000359144936141e+00) (33, 3.19110932126664692543e-01) (34, 2.92117939273149995749e-01) (35, 3.06985646431188585748e-01) (36, -2.50646010204910507646e-01) (37, -8.66282634297499187781e-01) (38, -1.50879205731088528175e+00) (39, 2.89339793109780363256e-01) (40, 3.03292595486571281427e-01) (41, 3.05279374788169410859e-01) (42, -2.69496025982203013527e-01) (43, -1.12342601256421814604e+00) (44, -9.02515879604870541186e+00) (45, -2.13854206006781372151e-01) (46, 2.49450067325392904616e-01) (47, -2.93319352766524821252e-01) (48, -1.98122885718315155934e-01) (49, -4.10426775190693496342e-02) (50, -1.06377303053322425086e+00) (51, -2.87360983781874135268e-01) (52, -3.19463737215807286329e-01) (53, -3.17597306588627670276e-01) (54, -2.44949896425783214537e-01) (55, 4.46861177122921560123e-01) (56, -1.63114411612252180328e-01) (57, -4.45091676475307507221e-01) (58, -3.29745547053331922172e-01) (59, -6.91895393882745679548e-01) (60, -3.73593945557046891448e-01) (61, 5.59217124117075137235e-01) (62, -3.54309812032419679806e-01) (63, -9.07882102341080687857e-01) (64, -8.08010996831473926605e-01) (65, -1.24489204727518676386e+00) (66, -2.72910416509819786501e-01) (67, 5.97905108633397741613e-01) (68, 2.22249371255074240628e-01) (69, -7.28395456710665967215e-01) (70, -4.98486312998492997473e-01) (71, -7.29557059091377024806e-01) (72, 3.36422919182143231875e-01) (73, 3.50242737096021450327e+00) (74, 4.75544954471107506055e-01) (75, -2.89958470277061008957e-01) (76, 2.52201977193338089389e-01) (77, -3.59130476087098526872e-01) (78, 2.97321136979069367001e-01) (79, 3.65216328730561601290e+00) (80, 3.51606491699012868590e-01) (81, -1.60049626642362052831e-01) (82, 3.82503414381560213897e-01) (83, 1.88621412470812516160e-01) (84, 2.46850932345320600581e-01) (85, 5.26210120231941846924e+00) (86, 8.97500885680932225519e-01) (87, -2.12506992294132918131e-01) (88, -3.17788235974063304479e-01) (89, -3.25589809321400469599e-01) (90, 2.63377260652795264217e-01) (91, 2.04634561880832244185e+00) (92, 5.78165158324754346886e-01) (93, -2.38107401334876761512e-01) (94, -2.90316071387068608267e-01) (95, -7.33918843114040875264e-01) (96, 1.42226014598925615262e-01) (97, 2.08762444996929730223e+00) (98, 6.66111738602476077808e-01) (99, -3.27851324255800935514e-01) (100, -5.27692221074071918241e-02) (101, -9.28619361890320904607e-01) (102, -2.27023145950911608981e-01) (103, 1.60997779901767645860e+00) (104, 8.47806150412111936276e-01) (105, 2.27302683016852996589e-01) (106, 7.52005595609547272673e-01) (107, 9.95752149676240261300e-01) (108, -3.90127165252928842509e-01) (109, 3.28413473628531071835e-01) (110, 2.82429885926185286760e-01) (111, 4.28912149038082113339e-01) (112, 5.85756093991899629003e+00) (113, 1.52046441710978808004e+00) (114, -3.76105791269311262592e-01) (115, 2.17926557355142103134e-01) (116, -5.79839983626409982698e-01) (117, 9.63573194126267851267e-01) (118, 1.91859256646056053341e+00) (119, 7.84392565248113182719e-01) (120, -5.82631663929715104544e-01) (121, -4.28158278308254647282e-01) (122, -1.95003819734069816505e+00) (123, 2.09586952309254503923e-01) (124, 9.31073087802949039826e+00) (125, 4.14886654122870623951e+00) (126, -3.61389483144245626800e-01) (127, -5.56692570151584686933e-01) (128, -1.61055970510991564026e+00) (129, -5.99867503112886391037e-01) (130, 4.85985123496184112657e-01) (131, -8.22834667335012426292e+00) (132, -3.95034835700391162572e-01) (133, -5.01217600033555754635e-01) (134, -7.82395362519460291217e-01) (135, -1.25832429175308591063e+00) (136, 1.90253954898095822834e+00) (137, -1.27935158183489350314e+00) (138, -3.38873598983956469954e-01) (139, -8.60207344443275762069e-02) (140, -3.49590149762129820399e-01) (141, -6.11429088663322239938e+00) (142, -1.55528502508324151243e+00) (143, -4.08737715410957136442e+00) (144, -3.27656622578227696430e-01) (145, 6.49712499551676425646e-01) (146, 3.56255731367863903714e+00) (147, -2.98308273471138640787e+00) (148, 2.88960848267699632608e-01) (149, -1.16347761516381265068e+01) (150, -3.89610562077252864377e-01) (151, 6.48365783892697500335e-01) (152, 4.78986092107720695665e-01) (153, -7.50158190252987555624e+00) (154, -7.91056981631304001468e-01) (155, -5.95269405405189133695e-01) (156, -4.08686490731185125824e-01) (157, 3.96329332205934870004e+00) (158, 1.40159999547002600551e+00) (159, -5.86789940647528762696e-01) (160, 2.04983855383469970590e+00) (161, 1.16109524844701113011e+01) (162, 1.80701835960955431437e-01) (163, 1.32986241647649769959e+01) (164, 6.41349817163128133046e+00) (165, -4.26964367379826181814e-01) (166, 1.63321243300097940221e+00) (167, -1.50042645995624779331e+00) (168, -2.77647131617746525944e-02) (169, 1.74501909128517596059e+00) (170, 5.29116125786808400022e+00) (171, 1.81387774261420192667e-01) (172, 1.10205795764620795296e+01) (173, 3.28891536431932340889e+00) (174, -4.86308502645063867043e-01) (175, -1.60114190502667091964e-01) (176, -1.13984363597413773661e+00) (177, 1.19112319019029730405e-01) (178, 8.08995567757491373939e-01) (179, 2.30278925551726243448e-01) (180, -4.14584560963289994184e-01) (181, -5.39946174505399500987e-01) (182, -3.57284661094423228178e+00) (183, -8.00034380399791023031e-01) (184, -8.34598169144181389889e-01) (185, -2.68115470277673928479e+00) (186, -4.34418628395337458326e-01) (187, -2.45851101213738232332e+00) (188, -9.91845200102513935292e+00) (189, -1.21394188909407718668e+00) (190, -1.20769776703930165063e+00) (191, -5.19205426746639453484e+00) (192, -3.16356329584516871023e-01) (193, -4.95385930314367595173e+00) (194, -6.30922781880427496759e+00) (195, -5.15561817425837620732e-01) (196, -1.11866652940183852749e+00) (197, -2.14737758956685675926e+00) (198, -4.57376313329282913056e-01) (199, -5.28804588406242226384e-01) (200, -1.73860259627516811065e+00) (201, -1.90183521903192043201e-01) (202, 2.33119676999445135657e-01) (203, 7.16970857276541390091e-02) (204, -4.30408536053097812157e-01) (205, 2.68414306275581882044e-01) (206, -9.47215392031873215650e-02) (207, -3.01129894147102006308e-01) (208, 3.89060460535999741438e-01) (209, 3.16341912093687505081e-01) (210, 3.18320641978675988870e-01) (211, 4.23767901937191604489e-01) (212, 2.04938927783576085861e-01) (213, 1.95804541205186255493e-01) (214, 6.10431000889468333703e-01) (215, 6.49000573625898691255e-01) (216, 2.45683457643922298352e-01) (217, 2.48562754634047949898e-01) (218, 1.86312034097573020475e-01) (219, 2.35634477865013264308e-01) (220, 3.56654361934989450056e-01) (221, 2.82057560477040725200e-01) (222, 1.37551257084326694624e-01) (223, 3.85716541215124109065e-01) (224, 1.26963953204501378558e-01) (225, 3.48831650007068228003e-01) (226, 3.59185524278761103556e-01) (227, 2.75903328994836605226e-01) (228, 2.02789070358455003618e-01) (229, 3.37899453655844783651e-01) (230, 3.61166026084083380265e-01) (231, 2.03754896315130773488e-01) (232, 2.14271103377779020827e-01) (233, -2.63217585037823775806e-01) (234, 3.74686242797301949370e-01) (235, 3.25866122192466667329e+00) (236, 1.93374794586161802279e+00) (237, -1.90900657885431979111e-01) (238, -3.03477730988247706989e-01) (239, -4.43854669607482599236e-01) (240, 3.05200578429626168120e-01) (241, 1.16824121685746051824e+00) (242, 6.47004818547921356497e-01) (243, -2.08876823040953701893e-01) (244, -3.32253692232658992545e-01) (245, -4.86433611410156230281e-01) (246, 3.14242409326957405913e-01) (247, 5.41401318983526058659e-01) (248, 3.07263481052645170966e-01) (249, 2.16242049409638925628e-01) (250, 3.65571192612064665983e-01) (251, -2.89851985465726214031e-01) (252, 3.40107762400974511507e-01) (253, 8.71813949884391869993e-01) (254, 6.71360752813661920690e-01) (255, 2.07579511680271333596e-01) (256, 3.69887300997345791487e-01) (257, 2.42769981024490433263e-01) (258, 5.41375046894564393440e-01) (259, 2.01116354932469754146e+00) (260, 1.42546276566682106335e+00) (261, 1.68000964882145858992e-01) (262, 2.46607805741583224757e-01) (263, 3.15717741188065725844e-01) (264, 5.25821558574866232405e-01) (265, 1.28481385983748253032e+00) (266, 8.72873712906244936249e-01) (267, 3.01626371068732079816e-01) (268, 4.34851283588619130782e-01) (269, 2.52521142658777952850e-01) (270, 6.11255338951693372174e-01) (271, 6.53425274899851249444e-01) (272, 4.15357433982374513182e-01) (273, 2.00946290422290424482e-01) (274, 2.99785446785256481927e-01) (275, 3.09313804829465244239e-01) (276, 3.31560296244388652553e-01) (277, 2.76833746261368085495e-01) (278, 3.40589594509006943213e-01) (279, 3.41414053157502284108e-01) (280, 2.72991500779142970412e-01) (281, 2.26754270591877998831e-01) (282, 3.33309086085986638892e-01) (283, 2.89093264143894579377e-01) (284, 2.90166281406156856271e-01) (285, 3.89062385521926290544e-01) (286, 2.90936184212915449621e-01) (287, 2.26949696646764509378e-01) (288, 2.53015077540595878514e-01) (289, 2.85284726236627039775e-01) (290, 2.48325245172809294658e-01) (291, 3.77218403607562979829e-01) (292, 3.59571980863756857083e-01) (293, 3.08313895826487271989e-01) (294, 3.25418409825203480690e-01) (295, 2.70274563119275779144e-01) (296, 3.65338744953734861909e-01) (297, 3.52647625005446219149e-01) (298, 4.54949119372320187615e-01) (299, 4.04987685872094993478e-01) (300, 1.81249382244654766438e+00) (301, 1.35221602741037649764e+01) (302, 4.49862595115472085894e+00) (303, 5.70754695232300712782e-01) (304, -1.72097236468423986366e+00) (0, 9.71592004556208976851e-01) (1, 9.04567237008130242693e-01) (2, 7.98418998784042210914e-01) (3, -2.40421110489582284808e-01) (4, -2.79809990623211379823e-01) (5, -2.61241267976802749029e-01) (6, 9.46369685841862540165e-01) (7, 1.09246627639394677800e+00) (8, 9.61629381520491710589e-01) (9, 7.80896771463061134533e-01) (10, 8.04880090218056287732e-01) (11, 9.20435248922018001139e-01) (12, 1.41815579574576000610e+00) (13, 2.61149981427818600466e+00) (14, 1.53672442781322193817e+00) (15, 7.44542122189308375191e-01) (16, 7.47519161457937730830e-01) (17, -2.66989294263660748019e-01) (18, 1.14305080403723802185e+00) (19, 1.01881717681845973544e+00) (20, 1.20974552278219937840e+00) (21, 1.03918746750644705457e-01) (22, 7.51053845946179493565e-02) (23, -3.80502929980086335160e-01) (24, 1.84909328004973128046e+00) (25, 5.80324820998133539263e-01) (26, 1.45085464792465645978e+00) (27, 6.27233829451504798502e-02) (28, -3.95456468546465433889e-01) (29, -6.03941975998484759103e-01) (30, 4.51617362321566506722e+00) (31, -5.94476806537656887741e-01) (32, 3.57236410325125319787e-01) (33, 8.57445612046261240735e-01) (34, 7.45265597515517991267e-02) (35, -4.25870883192389582117e-01) (36, -8.97622481337602556861e-02) (37, -1.80416632738258653212e+00) (38, -1.17560588374313779170e+00) (39, 7.23885517385413068681e-01) (40, -3.55524161741528510472e-01) (41, -4.17549359952474608004e-01) (42, 6.69635000974065586199e-01) (43, -2.42854308204281643668e+00) (44, -1.17597299292281798344e+00) (45, -9.47224221264290733302e-01) (46, -1.17285044171832453230e+00) (47, -3.13761937685950753618e+00) (48, 6.33833654356638298566e-01) (49, -3.57653056062406005111e+00) (50, -2.16016867896056607989e+00) (51, -9.63224663608926334746e-01) (52, -1.14550979738416680576e+00) (53, -4.51806203482672685823e+00) (54, -1.19048050475625699640e+00) (55, -1.10023345208650944471e+01) (56, -4.74143019345272431764e+00) (57, -2.23955590612097632519e-01) (58, -9.74173633190622556555e-01) (59, -2.29676311325673543351e+00) (60, -1.32734663172065192605e+00) (61, -1.08080798997154481356e+01) (62, -3.58176841791509659174e+00) (63, 3.33644881004432403149e-01) (64, -1.12595814888732448367e+00) (65, -1.42341823789178079096e+00) (66, -1.06421005044775451864e+00) (67, -7.43268608219162629780e+00) (68, -2.05881349033435823159e+00) (69, -2.41317477063057422848e-01) (70, -8.64370849611126423895e-01) (71, -9.22804706495968463109e-01) (72, -1.06723117341952367099e+00) (73, -2.51055438588257251453e+00) (74, -2.62727532440572542072e+00) (75, 1.04995585848433131693e-01) (76, 6.28229972003213482656e-02) (77, -3.45474728138669751054e-01) (78, 3.96488918822997360447e-01) (79, -2.54371651201275361664e-01) (80, -1.01626870528368962177e+00) (81, 5.60844172722218203830e-01) (82, 1.80233305736141186104e-01) (83, 2.37496482023279775753e-01) (84, 6.32526847705723649362e-01) (85, 5.37788029155535224346e-02) (86, 2.25385157181433204432e-01) (87, 2.16785789048422783409e+00) (88, 2.81494672257792766246e+00) (89, 8.68049069774762038776e+00) (90, 1.43967124837471627252e+00) (91, 3.22903611687969605004e-01) (92, 7.83075545647454185350e-01) (93, 2.49219031006736813083e+00) (94, 1.30928916827592001226e+00) (95, 3.49013064143494133873e+00) (96, 2.15337628642494127718e+00) (97, 1.40645202890941978247e+00) (98, 1.05630851008593729112e+00) (99, 3.58726103464528112141e+00) (100, 1.78774470168530652536e+00) (101, 7.18483525347051443788e+00) (102, 3.01308309952341168980e+00) (103, 1.49977724469422590836e+00) (104, 9.23620597260030540276e-01) (105, 1.79552910862007597537e+00) (106, 5.88408062161007161528e-01) (107, 1.48261526078272209972e+00) (108, 5.89389979930596918933e+00) (109, 2.02062540517056321576e+00) (110, 1.22987679012611894613e+00) (111, 9.64896698675830499781e-01) (112, -2.25054285640340800967e+00) (113, 4.05593672274440555925e-02) (114, 2.54605245105939914652e+00) (115, 1.33487336095353748000e+00) (116, 6.75880358004140702199e-01) (117, 8.00789011273173367833e-01) (118, -5.86493245920443495578e-01) (119, -4.47457884328369193128e+00) (120, 2.03403678402088017307e+00) (121, 1.17937919561817494696e+00) (122, 3.85681948340927838181e-01) (123, 3.26424255790199335792e+00) (124, 8.04536093514746419864e-01) (125, 1.73202834446957716352e+01) (126, 1.43764543246126819120e+00) (127, 1.27420482669637591400e+00) (128, -8.83667161458340455482e-01) (129, 1.38695482334418009884e+01) (130, 1.33437065356855355525e+00) (131, 2.19962680010940436759e+00) (132, 1.00083706013735485030e+00) (133, 7.08474346715819547349e-01) (134, -3.23601049291701192701e+00) (135, 1.45108092800084076401e+00) (136, -8.39001339706165971677e-01) (137, -2.07649795724782677553e+01) (138, 7.91149281446121066530e-01) (139, 3.21027765107045837123e-01) (140, -9.89392540344234561189e+00) (141, 6.80723342372953399426e-01) (142, 4.88840295228908594538e-01) (143, -2.76956741853884969018e+00) (144, 1.02839789468910769443e+00) (145, 4.26173924612754273511e-01) (146, -3.20240447611571266151e+00) (147, 4.26044474137692752436e-01) (148, 3.67699454464933350728e-01) (149, -4.92467075029438738909e+00) (150, 7.89643023466594096149e-01) (151, 3.79672071612650929850e-01) (152, -7.77352260658231131174e+00) (153, -1.39065631801776307119e-01) (154, 3.00128512573715700018e-01) (155, 9.70467464161368975617e-01) 