FANN_FLO_2.1
num_layers=4
learning_rate=0.700000
connection_rate=1.000000
network_type=1
learning_momentum=0.000000
training_algorithm=2
train_error_function=1
train_stop_function=0
cascade_output_change_fraction=0.010000
quickprop_decay=-0.000100
quickprop_mu=1.750000
rprop_increase_factor=1.200000
rprop_decrease_factor=0.500000
rprop_delta_min=0.000000
rprop_delta_max=50.000000
rprop_delta_zero=0.100000
cascade_output_stagnation_epochs=12
cascade_candidate_change_fraction=0.010000
cascade_candidate_stagnation_epochs=12
cascade_max_out_epochs=150
cascade_max_cand_epochs=150
cascade_num_candidate_groups=2
bit_fail_limit=3.49999999999999977796e-01
cascade_candidate_limit=1.00000000000000000000e+03
cascade_weight_multiplier=4.00000000000000022204e-01
cascade_activation_functions_count=10
cascade_activation_functions=3 5 7 8 10 11 14 15 16 17 
cascade_activation_steepnesses_count=4
cascade_activation_steepnesses=2.50000000000000000000e-01 5.00000000000000000000e-01 7.50000000000000000000e-01 1.00000000000000000000e+00 
layer_sizes=301 1 1 2 
scale_included=0
neurons (num_inputs, activation_function, activation_steepness)=(0, 0, 0.00000000000000000000e+00) (0, 0, 0.00000000000000000000e+00) (0, 0, 0.00000000000000000000e+00) (0, 0, 0.00000000000000000000e+00) (0, 0, 0.00000000000000000000e+00) (0, 0, 0.00000000000000000000e+00) (0, 0, 0.00000000000000000000e+00) (0, 0, 0.00000000000000000000e+00) (0, 0, 0.00000000000000000000e+00) (0, 0, 0.00000000000000000000e+00) (0, 0, 0.00000000000000000000e+00) (0, 0, 0.00000000000000000000e+00) (0, 0, 0.00000000000000000000e+00) (0, 0, 0.00000000000000000000e+00) (0, 0, 0.00000000000000000000e+00) (0, 0, 0.00000000000000000000e+00) (0, 0, 0.00000000000000000000e+00) (0, 0, 0.00000000000000000000e+00) (0, 0, 0.00000000000000000000e+00) (0, 0, 0.00000000000000000000e+00) (0, 0, 0.00000000000000000000e+00) (0, 0, 0.00000000000000000000e+00) (0, 0, 0.00000000000000000000e+00) (0, 0, 0.00000000000000000000e+00) (0, 0, 0.00000000000000000000e+00) (0, 0, 0.00000000000000000000e+00) (0, 0, 0.00000000000000000000e+00) (0, 0, 0.00000000000000000000e+00) (0, 0, 0.00000000000000000000e+00) (0, 0, 0.00000000000000000000e+00) (0, 0, 0.00000000000000000000e+00) (0, 0, 0.00000000000000000000e+00) (0, 0, 0.00000000000000000000e+00) (0, 0, 0.00000000000000000000e+00) (0, 0, 0.00000000000000000000e+00) (0, 0, 0.00000000000000000000e+00) (0, 0, 0.00000000000000000000e+00) (0, 0, 0.00000000000000000000e+00) (0, 0, 0.00000000000000000000e+00) (0, 0, 0.00000000000000000000e+00) (0, 0, 0.00000000000000000000e+00) (0, 0, 0.00000000000000000000e+00) (0, 0, 0.00000000000000000000e+00) (0, 0, 0.00000000000000000000e+00) (0, 0, 0.00000000000000000000e+00) (0, 0, 0.00000000000000000000e+00) (0, 0, 0.00000000000000000000e+00) (0, 0, 0.00000000000000000000e+00) (0, 0, 0.00000000000000000000e+00) (0, 0, 0.00000000000000000000e+00) (0, 0, 0.00000000000000000000e+00) (0, 0, 0.00000000000000000000e+00) (0, 0, 0.00000000000000000000e+00) (0, 0, 0.00000000000000000000e+00) (0, 0, 0.00000000000000000000e+00) (0, 0, 0.00000000000000000000e+00) (0, 0, 0.00000000000000000000e+00) (0, 0, 0.00000000000000000000e+00) (0, 0, 0.00000000000000000000e+00) (0, 0, 0.00000000000000000000e+00) (0, 0, 0.00000000000000000000e+00) (0, 0, 0.00000000000000000000e+00) (0, 0, 0.00000000000000000000e+00) (0, 0, 0.00000000000000000000e+00) (0, 0, 0.00000000000000000000e+00) (0, 0, 0.00000000000000000000e+00) (0, 0, 0.00000000000000000000e+00) (0, 0, 0.00000000000000000000e+00) (0, 0, 0.00000000000000000000e+00) (0, 0, 0.00000000000000000000e+00) (0, 0, 0.00000000000000000000e+00) (0, 0, 0.00000000000000000000e+00) (0, 0, 0.00000000000000000000e+00) (0, 0, 0.00000000000000000000e+00) (0, 0, 0.00000000000000000000e+00) (0, 0, 0.00000000000000000000e+00) (0, 0, 0.00000000000000000000e+00) (0, 0, 0.00000000000000000000e+00) (0, 0, 0.00000000000000000000e+00) (0, 0, 0.00000000000000000000e+00) (0, 0, 0.00000000000000000000e+00) (0, 0, 0.00000000000000000000e+00) (0, 0, 0.00000000000000000000e+00) (0, 0, 0.00000000000000000000e+00) (0, 0, 0.00000000000000000000e+00) (0, 0, 0.00000000000000000000e+00) (0, 0, 0.00000000000000000000e+00) (0, 0, 0.00000000000000000000e+00) (0, 0, 0.00000000000000000000e+00) (0, 0, 0.00000000000000000000e+00) (0, 0, 0.00000000000000000000e+00) (0, 0, 0.00000000000000000000e+00) (0, 0, 0.00000000000000000000e+00) (0, 0, 0.00000000000000000000e+00) (0, 0, 0.00000000000000000000e+00) (0, 0, 0.00000000000000000000e+00) (0, 0, 0.00000000000000000000e+00) (0, 0, 0.00000000000000000000e+00) (0, 0, 0.00000000000000000000e+00) (0, 0, 0.00000000000000000000e+00) (0, 0, 0.00000000000000000000e+00) (0, 0, 0.00000000000000000000e+00) (0, 0, 0.00000000000000000000e+00) (0, 0, 0.00000000000000000000e+00) (0, 0, 0.00000000000000000000e+00) (0, 0, 0.00000000000000000000e+00) (0, 0, 0.00000000000000000000e+00) (0, 0, 0.00000000000000000000e+00) (0, 0, 0.00000000000000000000e+00) (0, 0, 0.00000000000000000000e+00) (0, 0, 0.00000000000000000000e+00) (0, 0, 0.00000000000000000000e+00) (0, 0, 0.00000000000000000000e+00) (0, 0, 0.00000000000000000000e+00) (0, 0, 0.00000000000000000000e+00) (0, 0, 0.00000000000000000000e+00) (0, 0, 0.00000000000000000000e+00) (0, 0, 0.00000000000000000000e+00) (0, 0, 0.00000000000000000000e+00) (0, 0, 0.00000000000000000000e+00) (0, 0, 0.00000000000000000000e+00) (0, 0, 0.00000000000000000000e+00) (0, 0, 0.00000000000000000000e+00) (0, 0, 0.00000000000000000000e+00) (0, 0, 0.00000000000000000000e+00) (0, 0, 0.00000000000000000000e+00) (0, 0, 0.00000000000000000000e+00) (0, 0, 0.00000000000000000000e+00) (0, 0, 0.00000000000000000000e+00) (0, 0, 0.00000000000000000000e+00) (0, 0, 0.00000000000000000000e+00) (0, 0, 0.00000000000000000000e+00) (0, 0, 0.00000000000000000000e+00) (0, 0, 0.00000000000000000000e+00) (0, 0, 0.00000000000000000000e+00) (0, 0, 0.00000000000000000000e+00) (0, 0, 0.00000000000000000000e+00) (0, 0, 0.00000000000000000000e+00) (0, 0, 0.00000000000000000000e+00) (0, 0, 0.00000000000000000000e+00) (0, 0, 0.00000000000000000000e+00) (0, 0, 0.00000000000000000000e+00) (0, 0, 0.00000000000000000000e+00) (0, 0, 0.00000000000000000000e+00) (0, 0, 0.00000000000000000000e+00) (0, 0, 0.00000000000000000000e+00) (0, 0, 0.00000000000000000000e+00) (0, 0, 0.00000000000000000000e+00) (0, 0, 0.00000000000000000000e+00) (0, 0, 0.00000000000000000000e+00) (0, 0, 0.00000000000000000000e+00) (0, 0, 0.00000000000000000000e+00) (0, 0, 0.00000000000000000000e+00) (0, 0, 0.00000000000000000000e+00) (0, 0, 0.00000000000000000000e+00) (0, 0, 0.00000000000000000000e+00) (0, 0, 0.00000000000000000000e+00) (0, 0, 0.00000000000000000000e+00) (0, 0, 0.00000000000000000000e+00) (0, 0, 0.00000000000000000000e+00) (0, 0, 0.00000000000000000000e+00) (0, 0, 0.00000000000000000000e+00) (0, 0, 0.00000000000000000000e+00) (0, 0, 0.00000000000000000000e+00) (0, 0, 0.00000000000000000000e+00) (0, 0, 0.00000000000000000000e+00) (0, 0, 0.00000000000000000000e+00) (0, 0, 0.00000000000000000000e+00) (0, 0, 0.00000000000000000000e+00) (0, 0, 0.00000000000000000000e+00) (0, 0, 0.00000000000000000000e+00) (0, 0, 0.00000000000000000000e+00) (0, 0, 0.00000000000000000000e+00) (0, 0, 0.00000000000000000000e+00) (0, 0, 0.00000000000000000000e+00) (0, 0, 0.00000000000000000000e+00) (0, 0, 0.00000000000000000000e+00) (0, 0, 0.00000000000000000000e+00) (0, 0, 0.00000000000000000000e+00) (0, 0, 0.00000000000000000000e+00) (0, 0, 0.00000000000000000000e+00) (0, 0, 0.00000000000000000000e+00) (0, 0, 0.00000000000000000000e+00) (0, 0, 0.00000000000000000000e+00) (0, 0, 0.00000000000000000000e+00) (0, 0, 0.00000000000000000000e+00) (0, 0, 0.00000000000000000000e+00) (0, 0, 0.00000000000000000000e+00) (0, 0, 0.00000000000000000000e+00) (0, 0, 0.00000000000000000000e+00) (0, 0, 0.00000000000000000000e+00) (0, 0, 0.00000000000000000000e+00) (0, 0, 0.00000000000000000000e+00) (0, 0, 0.00000000000000000000e+00) (0, 0, 0.00000000000000000000e+00) (0, 0, 0.00000000000000000000e+00) (0, 0, 0.00000000000000000000e+00) (0, 0, 0.00000000000000000000e+00) (0, 0, 0.00000000000000000000e+00) (0, 0, 0.00000000000000000000e+00) (0, 0, 0.00000000000000000000e+00) (0, 0, 0.00000000000000000000e+00) (0, 0, 0.00000000000000000000e+00) (0, 0, 0.00000000000000000000e+00) (0, 0, 0.00000000000000000000e+00) (0, 0, 0.00000000000000000000e+00) (0, 0, 0.00000000000000000000e+00) (0, 0, 0.00000000000000000000e+00) (0, 0, 0.00000000000000000000e+00) (0, 0, 0.00000000000000000000e+00) (0, 0, 0.00000000000000000000e+00) (0, 0, 0.00000000000000000000e+00) (0, 0, 0.00000000000000000000e+00) (0, 0, 0.00000000000000000000e+00) (0, 0, 0.00000000000000000000e+00) (0, 0, 0.00000000000000000000e+00) (0, 0, 0.00000000000000000000e+00) (0, 0, 0.00000000000000000000e+00) (0, 0, 0.00000000000000000000e+00) (0, 0, 0.00000000000000000000e+00) (0, 0, 0.00000000000000000000e+00) (0, 0, 0.00000000000000000000e+00) (0, 0, 0.00000000000000000000e+00) (0, 0, 0.00000000000000000000e+00) (0, 0, 0.00000000000000000000e+00) (0, 0, 0.00000000000000000000e+00) (0, 0, 0.00000000000000000000e+00) (0, 0, 0.00000000000000000000e+00) (0, 0, 0.00000000000000000000e+00) (0, 0, 0.00000000000000000000e+00) (0, 0, 0.00000000000000000000e+00) (0, 0, 0.00000000000000000000e+00) (0, 0, 0.00000000000000000000e+00) (0, 0, 0.00000000000000000000e+00) (0, 0, 0.00000000000000000000e+00) (0, 0, 0.00000000000000000000e+00) (0, 0, 0.00000000000000000000e+00) (0, 0, 0.00000000000000000000e+00) (0, 0, 0.00000000000000000000e+00) (0, 0, 0.00000000000000000000e+00) (0, 0, 0.00000000000000000000e+00) (0, 0, 0.00000000000000000000e+00) (0, 0, 0.00000000000000000000e+00) (0, 0, 0.00000000000000000000e+00) (0, 0, 0.00000000000000000000e+00) (0, 0, 0.00000000000000000000e+00) (0, 0, 0.00000000000000000000e+00) (0, 0, 0.00000000000000000000e+00) (0, 0, 0.00000000000000000000e+00) (0, 0, 0.00000000000000000000e+00) (0, 0, 0.00000000000000000000e+00) (0, 0, 0.00000000000000000000e+00) (0, 0, 0.00000000000000000000e+00) (0, 0, 0.00000000000000000000e+00) (0, 0, 0.00000000000000000000e+00) (0, 0, 0.00000000000000000000e+00) (0, 0, 0.00000000000000000000e+00) (0, 0, 0.00000000000000000000e+00) (0, 0, 0.00000000000000000000e+00) (0, 0, 0.00000000000000000000e+00) (0, 0, 0.00000000000000000000e+00) (0, 0, 0.00000000000000000000e+00) (0, 0, 0.00000000000000000000e+00) (0, 0, 0.00000000000000000000e+00) (0, 0, 0.00000000000000000000e+00) (0, 0, 0.00000000000000000000e+00) (0, 0, 0.00000000000000000000e+00) (0, 0, 0.00000000000000000000e+00) (0, 0, 0.00000000000000000000e+00) (0, 0, 0.00000000000000000000e+00) (0, 0, 0.00000000000000000000e+00) (0, 0, 0.00000000000000000000e+00) (0, 0, 0.00000000000000000000e+00) (0, 0, 0.00000000000000000000e+00) (0, 0, 0.00000000000000000000e+00) (0, 0, 0.00000000000000000000e+00) (0, 0, 0.00000000000000000000e+00) (0, 0, 0.00000000000000000000e+00) (0, 0, 0.00000000000000000000e+00) (0, 0, 0.00000000000000000000e+00) (0, 0, 0.00000000000000000000e+00) (0, 0, 0.00000000000000000000e+00) (0, 0, 0.00000000000000000000e+00) (0, 0, 0.00000000000000000000e+00) (0, 0, 0.00000000000000000000e+00) (0, 0, 0.00000000000000000000e+00) (0, 0, 0.00000000000000000000e+00) (0, 0, 0.00000000000000000000e+00) (0, 0, 0.00000000000000000000e+00) (0, 0, 0.00000000000000000000e+00) (0, 0, 0.00000000000000000000e+00) (0, 0, 0.00000000000000000000e+00) (0, 0, 0.00000000000000000000e+00) (0, 0, 0.00000000000000000000e+00) (0, 0, 0.00000000000000000000e+00) (0, 0, 0.00000000000000000000e+00) (0, 0, 0.00000000000000000000e+00) (0, 0, 0.00000000000000000000e+00) (0, 0, 0.00000000000000000000e+00) (0, 0, 0.00000000000000000000e+00) (0, 0, 0.00000000000000000000e+00) (301, 5, 1.00000000000000000000e+00) (302, 17, 5.00000000000000000000e-01) (303, 5, 5.00000000000000000000e-01) (303, 5, 5.00000000000000000000e-01) 
connections (connected_to_neuron, weight)=(0, -9.12534180641648429155e-03) (1, 7.70757202806305996567e-01) (2, -1.19897957143949240866e-01) (3, 5.22858644235117409060e-01) (4, 6.46347052931623561323e-02) (5, -1.92341899168507440843e-01) (6, -7.04563109784978824912e-01) (7, -1.83472228158028938250e-01) (8, -4.46188759911568255667e-01) (9, -7.77726162537770493444e-01) (10, -2.56180528864101086928e-01) (11, -2.38013481390492248613e-01) (12, -9.92799593923024192854e-01) (13, 4.53649131179751641252e-01) (14, 5.75768626937280952882e-02) (15, -2.17849051249043329515e-01) (16, -7.89704028829770310338e-01) (17, -4.15833632795374191771e-02) (18, -2.17712397543122576637e-01) (19, 2.31473280461287872489e-01) (20, -3.04923204046089690866e-01) (21, 8.92294550645334583194e-01) (22, 6.85245180833322753422e-01) (23, 9.74494124162180397342e-01) (24, 6.59501633039724088903e-01) (25, 2.28192425452332675606e-01) (26, 9.40075851164916764802e-01) (27, 6.05585299654425424087e-01) (28, 6.64609633608282845962e-01) (29, -1.44745565728721686805e-01) (30, 3.99449071279777356835e-01) (31, -3.53515556094315230862e-01) (32, -3.78170573033231982585e-01) (33, -7.00747771184502599162e-01) (34, -8.12932414929924962443e-01) (35, 6.99679814501227181900e-01) (36, 9.28007761834473837714e-02) (37, -5.26146753225714913782e-01) (38, -4.81332790784599173772e-01) (39, 6.82734267790259363728e-01) (40, -2.85620493810233522236e-01) (41, 2.85567300398293089092e-01) (42, -5.67241812912158360760e-01) (43, -2.91685123345247099280e-01) (44, -2.67017604452417844918e-01) (45, 5.31155624278358384771e-01) (46, 5.19130716239563860803e-01) (47, -2.16298008807979461054e-02) (48, -5.24925851230992890351e-01) (49, -7.11201850407005897736e-01) (50, -8.07998309695584948642e-01) (51, 2.07894840129188157585e-01) (52, -7.88926855025169126989e-01) (53, 9.14599730049911352481e-01) (54, 1.68615348477929277715e-01) (55, 8.57718022954294778692e-01) (56, 1.26199605079293730725e-01) (57, 1.25904643680438077524e-01) (58, 4.71979140572902022832e-01) (59, -1.93705976671818685952e-01) (60, 9.74513523176057105957e-01) (61, -1.24361000988080547258e-01) (62, 4.53552159138227051205e-01) (63, -3.90375759985082448900e-01) (64, 1.70923245603021994876e-01) (65, 6.43649473848720066194e-01) (66, -6.89359714422231761866e-01) (67, -7.22976027433784973475e-01) (68, -8.71166794006737355005e-01) (69, -2.25636766874113214865e-01) (70, 8.63560326232360786491e-01) (71, -2.53148372171568214473e-01) (72, -8.73150857395212143253e-01) (73, -6.02173608277682959056e-01) (74, 5.62474520761864216212e-01) (75, -2.11746858799105430737e-01) (76, 7.70066170095876967316e-01) (77, -1.34713398809518464239e-01) (78, 8.48352202162434232413e-01) (79, -6.12200301713790917546e-01) (80, 3.08277796823788197145e-01) (81, -9.37534259013612425449e-01) (82, 5.27409139433895224336e-01) (83, 5.37344611357444601474e-01) (84, 9.77900036558796648123e-01) (85, -2.44641235209704877018e-01) (86, 1.86746563922658509460e-01) (87, 1.20368303360239403688e-01) (88, 8.37042594446464116587e-01) (89, -1.42923509584145069784e-01) (90, 9.35841211065937872426e-01) (91, 8.67836449643850649238e-01) (92, 7.14902379808894705704e-01) (93, 4.14751173517732441010e-01) (94, -4.77533482860873104148e-01) (95, 9.77318664161728675732e-03) (96, 5.56190097185884427256e-02) (97, -2.11576959401575670494e-01) (98, 2.47585006571774790540e-01) (99, 2.04813686546830492352e-01) (100, 7.16189401091691602019e-01) (101, 2.89356808232043849483e-01) (102, -1.23033292203019506417e+00) (103, 3.39312655044587685449e-01) (104, -7.14538775060804987049e-01) (105, 6.29725574043524360945e-01) (106, -2.14379414002860063659e-01) (107, 6.50489547040810300871e-01) (108, -3.22268726187396603589e-01) (109, -7.54009305293052767283e-01) (110, -2.35378279887199903797e+00) (111, -8.88114583850251881891e-01) (112, -3.78363682253781030695e-01) (113, 6.04709624767387210476e-01) (114, 6.99405205891015624431e-01) (115, -4.21887088352905115229e-01) (116, -8.14610276211009565195e-01) (117, 1.91607710173570977563e-01) (118, 8.44639633254835375809e-01) (119, -6.78279136401342741536e-01) (120, -8.65561390140036523988e-01) (121, 7.16923149324409703098e-01) (122, -7.06402615586220528066e-01) (123, -1.01718183112004023627e+00) (124, 5.75678484770673515314e-01) (125, -3.57654315490108024034e-02) (126, -2.45448163449864861091e-03) (127, -7.57514235535842850311e-01) (128, 6.91298215657140224799e-01) (129, -6.82366905442917004443e-01) (130, 7.91522300676603451919e-01) (131, 8.16460145962534578068e-01) (132, 5.92570711165681607291e-01) (133, 5.09342929455490200930e-01) (134, 2.16020651848773975745e-01) (135, 2.75830904771307949819e-01) (136, 2.58547901903922128231e-01) (137, 9.97332792926930777888e-01) (138, -9.84449704972053252217e-02) (139, 8.64088927393182326675e-01) (140, -4.69521193360019517549e-01) (141, -7.20711990824368237130e-02) (142, -9.48555119519656542160e-01) (143, 2.17632306898648764104e-01) (144, -3.82993911286999166865e-01) (145, 7.36659232045481005002e-01) (146, 8.77256562735545419862e-01) (147, 5.21161436542901604363e-02) (148, -1.95920492579817195899e-01) (149, -1.60495447464614818256e-02) (150, 5.02698573963248129814e-01) (151, 1.14884829424156842403e-01) (152, 4.50570891030247333564e-01) (153, 8.20105768609344476516e-01) (154, 3.88310520776852630132e-01) (155, 2.77897947279548904187e-02) (156, -3.00611630587249045732e-01) (157, -8.53164069747159303780e-01) (158, -1.07560241243236848208e-01) (159, -5.97497739696366880757e-01) (160, -3.58184959380607667589e-02) (161, -1.74106822457617688160e-01) (162, 8.13605989646883243083e-01) (163, -9.06531033190087986995e-01) (164, 8.82236117526681740131e-01) (165, 3.53351625513615708041e-02) (166, 6.49414306366746241217e-01) (167, 4.09862916581552327866e-01) (168, 7.61116608996683426808e-03) (169, -6.94411413131188592907e-01) (170, -6.01120858897749923977e-02) (171, 5.43946972572844411609e-01) (172, 4.10664268522355602187e-01) (173, -3.84617912028405242730e-02) (174, -2.28477399778895778892e-01) (175, 8.99925063017481319250e-01) (176, -2.83399426746503313446e-01) (177, -3.50246914963011801714e-01) (178, 5.05895572073727858853e-02) (179, 6.83309858452453955380e-01) (180, -6.44165326986318675928e-01) (181, -4.74993111364895359561e-01) (182, -1.29408924056755914034e-01) (183, 8.01027806878209180930e-01) (184, -5.98391025559498301867e-01) (185, 9.59361212665627127727e-01) (186, -5.39046440586285813268e-01) (187, 7.24593980383337193940e-02) (188, -8.38704785479771453005e-01) (189, 3.38635165798661097458e-01) (190, 4.35590837438304845364e-01) (191, -4.84430273337780104015e-01) (192, 7.29898679362060098796e-01) (193, 3.06939063794559319209e-01) (194, -3.09990646116787005315e-01) (195, 5.96592300555476184876e-01) (196, -6.78071041527439022367e-01) (197, -9.60831319775653724946e-01) (198, -3.31336748494383659391e-01) (199, 3.74726353414005119991e-01) (200, -6.15736903421932435521e-01) (201, 5.91277641330588576984e-01) (202, -9.71986003091082073624e-02) (203, 6.17013606944536885379e-01) (204, -4.40932581731990513862e-01) (205, 7.06746278531497740261e-01) (206, 5.38885783882803504063e-01) (207, 2.64913637208409546986e-01) (208, -6.56488582827765787542e-01) (209, -4.87704828717426930318e-01) (210, -6.18561463336991038120e-02) (211, -2.73418059746651676001e-01) (212, 4.43182768572039920141e-02) (213, 7.34614927339022893982e-01) (214, -4.77764834433493101873e-01) (215, 3.80963897793446804041e-01) (216, 6.66447056256717185185e-01) (217, -5.01811112589993328637e-03) (218, -5.50231970631682720807e-01) (219, 7.56327082803530670319e-01) (220, -6.43157052076870461299e-01) (221, 9.21017421208804698551e-01) (222, -6.63239355562215693318e-01) (223, -9.14466914424938770445e-01) (224, 2.16579604258495789226e-01) (225, 1.83023382019423599965e-02) (226, 7.00687208635959568603e-01) (227, 5.67390520238382767282e-01) (228, 7.78644867414898383950e-02) (229, -6.31161515635197623020e-01) (230, -7.09036110735354468959e-02) (231, 4.55104010183754403851e-01) (232, 9.70717276412303209376e-01) (233, 8.53989209654457126497e-01) (234, 8.29817839140362251138e-02) (235, -4.68595789946131435766e-01) (236, 5.42485488377994040654e-01) (237, -3.81334815499655144233e-01) (238, 8.05271046240271570760e-01) (239, 9.04963578703529503144e-01) (240, 1.36548171606059032257e-01) (241, -2.59082423723749843969e-01) (242, -3.85548459566645351781e-01) (243, -8.18697635409706081511e-01) (244, -5.09280694195273664349e-01) (245, 1.61224002983896219643e-01) (246, 5.60128403805994490305e-01) (247, -8.49279966188008161865e-01) (248, -8.56273259950215193115e-01) (249, -9.68564080971749508109e-01) (250, 9.18826483208664779312e-01) (251, -4.65641740426962436050e-01) (252, 9.40188656415933632360e-01) (253, -7.51764964294964532776e-01) (254, -4.10139303637079899456e-01) (255, 1.75167198326913742257e-01) (256, 2.73156272700783964158e-01) (257, -6.73851135835593417767e-01) (258, -2.72427137193845148033e-01) (259, -6.54657583666378717346e-01) (260, -3.36303930712275211956e-01) (261, 6.71574988253883065070e-01) (262, 8.06613244899085701789e-01) (263, -3.30911759004537675555e-01) (264, 5.09473158025050110176e-01) (265, -1.15631263685756172088e-01) (266, 1.70691449212498153054e-01) (267, 6.67413640808485336686e-02) (268, 5.05343692381323927876e-01) (269, -1.96673644347764055296e-02) (270, -4.09808028704874011128e-02) (271, -3.60605519247584049847e-01) (272, 7.17052537965243597107e-01) (273, 5.84726029585601159155e-01) (274, -1.78144460965392575913e-01) (275, -7.96645898684697373326e-01) (276, -2.73107754088138365844e-01) (277, -6.15233134460980157776e-01) (278, -6.44424658251339654846e-01) (279, -1.21905569299892851953e-01) (280, -5.94709340795712693151e-01) (281, -7.30245624050336106237e-01) (282, 3.82835159864421570308e-01) (283, -6.51319097710186700745e-01) (284, -4.80509381723933093333e-01) (285, 9.76042147413058169825e-01) (286, 5.11675436067050681821e-01) (287, 7.84591991471713323669e-01) (288, -7.25050081644064037256e-01) (289, -7.52160404953962413721e-01) (290, -8.64251216087347229333e-01) (291, -5.92683367257646337434e-02) (292, 9.11135751771396051879e-01) (293, 9.34083301591342340942e-01) (294, 5.81462989416116626806e-01) (295, 4.29876337614055248348e-01) (296, -1.75733734998707730179e-01) (297, -2.43383508158259653786e-01) (298, -5.05879443121487359925e-01) (299, -6.72887396050030450745e-01) (300, 3.39295646423222985177e+00) (0, 3.04968956991268524970e-01) (1, 1.66423318175895373905e+00) (2, 5.95743987842632716223e-01) (3, 1.07783682282215820258e+00) (4, 1.60677529509312377876e+00) (5, 1.25508786375767456001e+00) (6, 1.94281066114738254491e+00) (7, 1.73261953050925998632e+00) (8, 2.58903569529798371907e-01) (9, 3.65400539280737790548e-01) (10, 1.36140549326118409645e+00) (11, 1.78749800856358276313e+00) (12, 1.57280989131741022469e+00) (13, 1.94276219939020378114e+00) (14, 1.34415549372461540223e+00) (15, 3.69304405094946774923e-01) (16, 5.49014271737898740255e-01) (17, 8.18106781795088666698e-01) (18, 3.00537563573400334782e-01) (19, 4.34962571088344573944e-01) (20, 1.49697413120606648285e+00) (21, 2.02270078802284070107e+00) (22, 9.91491736413801838523e-01) (23, 5.64367156579558271190e-01) (24, 1.63166817810872943895e+00) (25, 3.25318445409806311641e-01) (26, 1.20874276911309852522e+00) (27, 6.15805776359404477560e-01) (28, 2.64054761769140944327e-01) (29, 1.18579065942939698708e+00) (30, 1.61626626412537022226e+00) (31, 4.22958051850027383356e-01) (32, 7.01713746477787392308e-01) (33, 2.10814725627625865201e+00) (34, 1.39883315706428468239e+00) (35, 2.04282821657026908424e-01) (36, 1.22218947856478354907e+00) (37, 1.19342445756968995596e+00) (38, 1.79092764284190675284e+00) (39, 1.37304496040071155605e+00) (40, 1.45777582397187854824e+00) (41, 1.04903941621507312831e+00) (42, 1.01864097217802540563e+00) (43, 8.83215013533525161726e-01) (44, 8.54986729823522417782e-01) (45, 2.60992221591773987388e-01) (46, 1.14545943490626300765e+00) (47, 1.28886914521714190940e+00) (48, 9.39668758293652817137e-01) (49, 1.31783229449361094510e+00) (50, 1.60934118388169578040e+00) (51, 3.41826028147953986380e-01) (52, 1.22547721146534138725e+00) (53, 4.80708620338986036824e-01) (54, 7.76205651450678213443e-01) (55, 7.35264594402400994966e-01) (56, 6.99390405674545467818e-01) (57, 1.87827525181593357750e+00) (58, 1.22242637879647686461e+00) (59, 8.30841099996333154465e-01) (60, 9.46122332163661150517e-01) (61, 7.29228458398237910920e-01) (62, 1.15774579959840417942e+00) (63, 1.52800295812835362774e+00) (64, 6.97856380915134799636e-01) (65, 4.18675452749125875940e-01) (66, 1.62516902151182129899e+00) (67, 1.81729453325399203933e+00) (68, 1.52632091543059011940e+00) (69, 1.29764129938244221485e+00) (70, 1.03020231829828956549e+00) (71, 8.22493541391555726960e-01) (72, 2.24758117895168890721e-01) (73, 1.95346681938002619816e+00) (74, 1.62505447232575095384e+00) (75, 9.69003311983340775981e-01) (76, 1.64595321634580149528e+00) (77, -1.16855717129672975751e+00) (78, 1.50556412174490311662e-01) (79, 9.20109454349947841756e-01) (80, 1.86530083771176435903e+00) (81, 1.65096536415066186265e+00) (82, 1.06822777196947860112e+00) (83, 8.33469468081636244428e-01) (84, 2.02814814690313660606e+00) (85, 1.80188426581853344821e+00) (86, 1.57630669378760179811e+00) (87, 6.25854331542250230669e-01) (88, 1.51277747980925858506e+00) (89, 6.86598593981352145477e-01) (90, 1.35323251219055862293e+00) (91, 3.92438748909179790925e-01) (92, 1.32598231163498936347e+00) (93, 4.15058374084230297107e-01) (94, 1.86424385429123007363e+00) (95, 1.99715385819708068915e+00) (96, 7.16893943228658958589e-01) (97, 1.01574115395951869445e+00) (98, 1.48913185331574471348e+00) (99, 1.54594452245453595207e-01) (100, 3.49276573148029345628e-01) (101, 3.52010723898784627650e-01) (102, 7.28087031860538247408e-01) (103, 2.68630441096050831540e-01) (104, 1.09444882538540622097e-01) (105, 4.09147983058714304061e-01) (106, 1.24316927707892599386e+00) (107, 2.56653293207832478018e-01) (108, 8.98306620513937059691e-01) (109, 1.37218810967081306096e+00) (110, 1.04835945543002662106e+00) (111, 7.30116959031362311450e-01) (112, 8.88881130960433196719e-01) (113, 1.40395163443534615189e-01) (114, 1.58539313431210659999e+00) (115, 8.39329001595868762209e-01) (116, 1.87160945253476795891e+00) (117, 1.12882992558135564209e+00) (118, 1.49999315298726698664e+00) (119, 2.00740265902704573264e+00) (120, 1.73152947784749433602e+00) (121, 5.69672806627778749444e-01) (122, 1.63332675255063053399e+00) (123, 1.02977050158670135893e+00) (124, 2.12044150510882012384e+00) (125, 2.59466729610010249374e+00) (126, 8.47273198740076671776e-01) (127, 1.31017646819917010781e+00) (128, 2.65063279230622672600e-01) (129, 5.03421568193555324378e-01) (130, 2.67166271093782370372e+00) (131, 2.10868297451066943893e+00) (132, 9.26233124296843346457e-01) (133, 1.10428991254642228093e-01) (134, 1.21626353292106936799e+00) (135, 1.28591761358940948057e+00) (136, 2.30099147673888504428e+00) (137, 3.65380253604188243166e-01) (138, 1.66996685125545152317e+00) (139, 1.09614407475495334587e+00) (140, 3.20290627017858417491e-02) (141, 8.50040193060975002304e-01) (142, 8.77667763398785494289e-01) (143, 1.64984066847893284802e+00) (144, 1.08233091690257676731e+00) (145, 1.69517961904230896053e+00) (146, 7.72840844695683315546e-02) (147, 1.02900493633611045396e+00) (148, 2.11378572929040764450e+00) (149, 2.75159946588111115062e+00) (150, 4.22305930009210572784e-01) (151, 3.22184940606393299678e-01) (152, 1.33207328631834320820e-01) (153, 1.33041307941379804980e-01) (154, 3.67059478159988383794e+00) (155, 1.09902716670889910588e+00) (156, 1.55846437147905381160e+00) (157, 1.94509938485842814870e+00) (158, 6.22795419397398686279e-01) (159, 2.05878224157933858995e-01) (160, 9.18430388876266545761e-03) (161, -8.02464842460943322822e-02) (162, 1.33487369425791224664e+00) (163, 1.10387958089784987692e+00) (164, 6.16060976187631448298e-01) (165, 8.55635417939435871659e-01) (166, -2.41309444382130117157e-01) (167, 1.00033368082877704985e+00) (168, 1.95391233510324568989e+00) (169, 1.87716097321815578169e+00) (170, 1.09967140415518960239e+00) (171, 3.88669729930044227650e-01) (172, 3.37420780142501264276e-01) (173, 8.72336275232192703832e-01) (174, 1.80939192948286642348e+00) (175, 1.60522682880210276757e+00) (176, 8.14185459769646069361e-01) (177, 1.25258689213039814403e-01) (178, 5.31327462871698852354e-01) (179, 9.36014144681171722517e-01) (180, 1.84155851244405566192e+00) (181, 8.56905304132882794654e-01) (182, 1.65512669408890689127e+00) (183, 1.66098087856127590856e-01) (184, 4.28307210506306601516e-01) (185, -2.40459046773590173762e-01) (186, 1.50897886804998471177e+00) (187, 3.39161280541159348978e-01) (188, 6.16280216903315580801e-01) (189, 1.98053011804047357503e-01) (190, 9.91791561800404140870e-03) (191, 3.53165210043968225140e-01) (192, 8.02650014602699801713e-01) (193, 1.82341781796639268443e+00) (194, 1.49599357352596773474e+00) (195, 1.58625551971545797336e+00) (196, 4.07886824576000783793e-01) (197, 1.89743050095234355723e+00) (198, 1.11111744516987043241e+00) (199, 6.75977616885484300369e-01) (200, 1.75447762923556505044e+00) (201, 2.05834116873341566034e+00) (202, 5.47522856387799516931e-01) (203, 1.76653144761570235488e-01) (204, 1.15463087960437871260e+00) (205, 6.53413950780213803604e-01) (206, 1.73102057891207872231e+00) (207, 1.83968842172798097145e+00) (208, 2.51247224833161753033e-01) (209, 2.02822790293829191555e+00) (210, 1.13373365206539111760e+00) (211, 2.37695765433627403951e+00) (212, 8.08895835450470057637e-01) (213, 6.40898169519270810568e-01) (214, 2.04307053239751201801e+00) (215, 1.44819408880142774798e+00) (216, 1.26339923610414173183e+00) (217, 1.48026624412755714033e+00) (218, 1.69118538589696632002e+00) (219, 1.72661165937306204654e+00) (220, 1.62160173135143170775e+00) (221, 1.90373423772197569726e+00) (222, 3.67136798998962177176e-01) (223, 3.22153607530003216475e-01) (224, 1.42699684901058154729e+00) (225, 1.98283841363551149861e+00) (226, 1.77724902376057425357e+00) (227, 1.73798827871205130435e+00) (228, 1.79672071723563830936e+00) (229, 7.53145896002366033173e-01) (230, 1.92709168057115221018e+00) (231, 1.35887911073328937483e+00) (232, 6.51529893721358277503e-01) (233, 3.38500529969947172582e-01) (234, 1.42118637139400827429e+00) (235, 1.69801541428239533005e+00) (236, 5.05040280624939552645e-01) (237, 9.72352506162489582664e-01) (238, 1.38052596799494708968e+00) (239, 6.22809014240520930628e-01) (240, 8.87592689659664313417e-01) (241, 4.06373195454193703036e-01) (242, 5.10403685375763527254e-01) (243, 1.51855372657502796230e+00) (244, 8.92337939659374690393e-01) (245, 4.12311634937542914603e-01) (246, 8.50295010420856089972e-01) (247, 2.05467494587571719578e+00) (248, 1.73446603874833771286e+00) (249, 3.56001787087569965262e-01) (250, 1.63926691353583242616e+00) (251, 1.22585601151251699648e+00) (252, 1.43032971902920025276e-01) (253, 1.89830752472551056442e+00) (254, 1.42484077076585480270e+00) (255, 1.44384514560426380214e+00) (256, 1.73888189137244131288e+00) (257, 1.06091342651437092748e+00) (258, 1.05332240848167102421e+00) (259, 1.43212171654374786911e+00) (260, 1.68653091053636261520e+00) (261, 8.37975911996017397421e-01) (262, 6.50516383549819887655e-01) (263, 1.97820775410781357628e-01) (264, 1.04562477643093454382e+00) (265, 1.97327180962236115036e+00) (266, 1.76737149815232941208e+00) (267, 1.41505634059632923183e+00) (268, 7.96326340677107724630e-01) (269, 1.00452502103183416438e+00) (270, 1.90676943833431544739e+00) (271, 1.58164682440221859849e+00) (272, 1.27131237788021045354e+00) (273, 2.72460166498257050360e-01) (274, 9.46625215435771161232e-01) (275, 2.03078012325924639470e+00) (276, 5.60535623379557979007e-01) (277, 1.67166933803184192264e+00) (278, 1.94251633009630175764e+00) (279, 1.49354982624201215735e-01) (280, 1.89827273550107866740e+00) (281, 1.44734023275449708024e+00) (282, 1.24945971755607287967e+00) (283, 1.92063448218925114652e+00) (284, 1.19728359965903918827e+00) (285, 5.24068606520442403784e-01) (286, 1.23259235079124240819e+00) (287, 8.06057876895215907886e-01) (288, 1.45838734893424670780e+00) (289, 1.63243550940586318321e-01) (290, 2.09230408458335404021e+00) (291, 9.94442290614392931936e-01) (292, 8.71820969010142721167e-01) (293, 6.10933310340192714527e-01) (294, 1.06497648744208972538e+00) (295, 1.80042586984708741227e+00) (296, 4.36085198207928070868e-01) (297, 6.81871837924268642261e-01) (298, 1.08452881033256320897e+00) (299, 1.10370249206855564061e+00) (300, 1.15530648654702328137e+00) (301, -1.50095349127942334633e+00) (0, 3.21234226507672721018e-02) (1, 1.27183564727000625316e-01) (2, 6.02056279525083060111e-02) (3, 1.56858470972953356615e-01) (4, 1.88072507020412005296e-01) (5, 1.92475921448975489936e-01) (6, 6.88593995225591504195e-02) (7, -5.60469519743194144468e-01) (8, -5.44615156181553317083e-01) (9, 1.30234911081105297903e-01) (10, 2.77169129785805157251e-01) (11, 2.87585035150738133058e-01) (12, 6.30575634412787744409e-02) (13, -5.20294543213267179915e-01) (14, -5.51361963611044614275e-01) (15, 1.12468487557679269750e-01) (16, 2.94017619427948739830e-01) (17, 1.94853984003754449050e-01) (18, 8.72690774333536312124e-02) (19, -4.97778670255291877389e-01) (20, -4.67728664776181080054e-01) (21, 1.78023733382912413559e-01) (22, 1.32087074404450360854e-01) (23, 1.30770668571682846526e-01) (24, 1.86079110729079788555e-01) (25, 5.66870672706405731578e-02) (26, 8.58528865579406413877e-02) (27, 1.83999002164097619216e-01) (28, 2.65287205761166267060e-01) (29, 2.77803125431932973477e-01) (30, 8.68812360506676373273e-02) (31, 1.36507235543309485282e-01) (32, 2.35153610691909917274e-02) (33, 2.39942069070447544510e-01) (34, 1.34491513287425784595e-01) (35, 2.91174688972709150292e-01) (36, 2.53666427950384222589e-02) (37, -5.35732462416310117881e-01) (38, -4.40384546067163151761e-01) (39, 2.06425237374414011216e-01) (40, 2.12624541288018942264e-01) (41, 2.87215682582963316438e-01) (42, 1.11440940545419531205e-01) (43, -4.08113358864504338630e-01) (44, -4.86030463132572032592e-01) (45, 2.73489183673817637388e-01) (46, 2.78667044576583144977e-01) (47, 1.94110296028754070186e-01) (48, 1.17074477711478650011e-01) (49, -4.97647925048222972144e-01) (50, -5.34934985679386354462e-01) (51, 1.48634120184084783656e-01) (52, 2.30494815370576811020e-01) (53, 1.47599343601473476095e-01) (54, 1.68703723836837321537e-01) (55, 1.51373982933901585213e-01) (56, 1.96436870361912124805e-01) (57, 4.32334817739789545321e-02) (58, 6.66257617211241277844e-03) (59, 1.54994943786107675088e-01) (60, 2.48057835925970554536e-01) (61, 1.30081496757245146378e-01) (62, 1.36041813223167828983e-01) (63, 3.46847722543245848281e-02) (64, 1.67581177584411766812e-01) (65, 1.43966018170865683867e-01) (66, 2.67128051186476034307e-01) (67, 2.61593223576589484214e-01) (68, 6.98126211711747601818e-02) (69, -4.70642025052049273182e-01) (70, -6.27586842032544556247e-01) (71, -5.55702843985652172876e-01) (72, 1.90690086640398742679e-01) (73, 1.93748546159987239390e-01) (74, 1.45560238952794240852e-01) (75, -6.86797182719984022903e-01) (76, -3.76425555296221947543e+00) (77, -4.31379745651786095095e+00) (78, 1.18468930692274820871e-01) (79, -3.64778896374249872459e-01) (80, -3.92844831791127890863e-01) (81, 1.01306532788053182959e-01) (82, 7.52441400226210865831e-02) (83, 7.32886000389786247677e-03) (84, 2.17815635549989172759e-01) (85, -4.59378349417945364142e-01) (86, -5.33134790355117460514e-01) (87, 1.73096916390756694337e-01) (88, 1.81270473640451623698e-02) (89, -2.27154409988627927625e-03) (90, 1.54602621604953860412e-01) (91, -5.49369051318017387331e-01) (92, -4.74749567685189777233e-01) (93, 2.83075791570284229781e-01) (94, 2.50713554622159807972e-02) (95, 8.50906487143547329843e-02) (96, 2.59293072588378747945e-01) (97, -1.63986575531873159106e-02) (98, 9.94356663650925037823e-02) (99, 1.91173958328821891328e-01) (100, 2.24268946921987233356e-01) (101, 9.44294977026721271685e-01) (102, -3.92362726776421977259e-01) (103, -4.71745913810095673924e-01) (104, -4.10817873768861419048e-01) (105, 5.81048154598267779791e-02) (106, 8.42419587112307577392e-01) (107, 2.25318387778776640928e+00) (108, -3.32686431611187383162e-01) (109, -3.29126150929044236637e-01) (110, 2.95473230762988869902e-01) (111, -4.96622431389372231969e-01) (112, -2.10629225259490515665e-01) (113, 1.21879534303364928105e-01) (114, -3.99734528763029506315e-01) (115, 1.49398603588002693021e-01) (116, 2.67383724775538178520e-01) (117, -5.80605598939324951679e-01) (118, -5.88984360295860831513e+00) (119, -1.87516823389080999895e+00) (120, -2.95924212607837855415e-01) (121, 2.10593216777029523801e-01) (122, 5.72666761032915694329e-01) (123, -3.78354869612815947200e-01) (124, 1.80507587652580819837e-01) (125, -4.66959640918842067148e-01) (126, 2.29623141189476326351e-01) (127, 3.38580387047590192218e-01) (128, 1.67005846981467520607e+00) (129, -3.46287167872344758823e-01) (130, 1.06547878953435826155e+00) (131, 3.55808852191903945972e-01) (132, 2.67790409729951994766e-01) (133, 6.16721618985829680981e-02) (134, 4.88077528650257719267e-01) (135, -5.22426661476924958372e-01) (136, -5.99774371827818231218e-01) (137, 2.47137519705619618238e-01) (138, 1.23399999741841126522e-01) (139, 1.57778892422317906785e-01) (140, 5.75004967398494604147e-01) (141, -2.95146851747269511890e-01) (142, -1.11174478014885988464e-01) (143, 2.21080659644892207893e-01) (144, 1.72831016293909289772e-01) (145, 2.65442578570705828289e-02) (146, 4.65766347460371599176e-01) (147, -2.07807296328626517345e-01) (148, -3.85110404488617685814e+00) (149, 3.61049240977443641754e+00) (150, 5.05357638287596763749e-02) (151, 1.13482862283376020884e-01) (152, 4.94777386665954999057e-01) (153, 5.49663090079225091777e-01) (154, 1.96398091813159503261e+00) (155, 1.27067396532171699164e+01) (156, 1.11115423535141769062e-01) (157, -9.30242579952298143109e-02) (158, 1.67975145966492517280e-01) (159, 5.13331252292017592431e-01) (160, 9.81055300564906529459e-01) (161, 7.64424706392754504947e+00) (162, 6.08779249811810113657e-02) (163, -1.83619949439920715495e-01) (164, 6.05141849138184154122e-02) (165, 1.55121201965372046416e-01) (166, -8.32480105571224426875e-01) (167, 8.20219829665256972007e-01) (168, 4.79432463084535770426e-02) (169, -1.42845972085393513318e+00) (170, 1.24166014492545669079e-02) (171, -3.31603025154662167662e-01) (172, -7.15797767156183706305e+00) (173, -2.04432373361635422171e+00) (174, 1.92035158017488549742e-01) (175, -5.63620621013120493004e-01) (176, 6.55745401959219043064e-02) (177, 1.16393084801430152231e-01) (178, -8.92352420058760253951e-01) (179, -1.05981653750328336239e-01) (180, 1.50104860694739661309e-01) (181, -1.71326841023384746077e-01) (182, -1.54529032363125012894e-02) (183, 1.78481535468608565331e-01) (184, -8.71759478664458020702e-01) (185, -3.45026650781089516684e-01) (186, 8.17146825856761294116e-02) (187, -1.00132190297898243658e-01) (188, 1.20166662889917633117e-02) (189, 7.08543435774575958153e-02) (190, -9.37387965890635443955e-01) (191, -2.33827160886559054509e-01) (192, 1.15449705943864444624e-01) (193, -7.43249603201964897936e-02) (194, 1.23810122477692782783e-01) (195, 1.80293945523858190061e-01) (196, -5.41231897056977917515e+00) (197, -1.06124927897762399986e+00) (198, 1.35246129753108401683e-01) (199, -6.88666274921014981425e-02) (200, 3.41485915696871228375e-02) (201, 2.08452628850721993770e-01) (202, -4.66349697261352114097e-01) (203, -4.24381905538341541728e-01) (204, 1.36681661239565210852e-01) (205, 8.31026455223438514919e-02) (206, 2.05223119170812318135e-01) (207, 1.74438916785667530451e-01) (208, 1.89117395840002949781e-01) (209, 3.03130181297209977398e-01) (210, 1.90505696598482987536e-01) (211, 6.21352202763648248096e-02) (212, 2.39978878854470618898e-02) (213, 1.56298676043605727637e-01) (214, 9.15053605567430899947e-02) (215, 1.28804717674261909321e-01) (216, 5.19680495187956337233e-02) (217, -2.09655818979368260835e-02) (218, 1.12603368683637419800e-01) (219, 1.65836379116268944900e-01) (220, 1.39454485566649494244e-01) (221, 2.50544626628085409514e-01) (222, 1.30021777264805460383e-01) (223, 8.90344264856719469492e-02) (224, 1.66736282010827574496e-01) (225, 1.54763951817533190747e-01) (226, 1.96348210044134358077e-01) (227, 2.67022847845320321358e-01) (228, 1.63226876668663645198e-01) (229, -3.95178243411636806459e-02) (230, 9.05748638741325912127e-02) (231, 2.64724045911809535703e-01) (232, 7.22298074438459392077e-02) (233, 2.19705565776686623236e-01) (234, 1.39414739124508552104e-01) (235, 4.37653171769523050005e-02) (236, 9.16865994666306825811e-03) (237, 2.10388585845014380871e-01) (238, 3.00379648724576620022e-01) (239, 1.78737461354832843918e-01) (240, 1.32151965312691327403e-01) (241, 1.15169048188779002406e-01) (242, -4.33599356669454039093e-02) (243, 2.63522925427355336758e-01) (244, 2.79722823301245149263e-01) (245, 1.48248413242576371207e-01) (246, 1.81126049189043902832e-01) (247, -4.96400919565362364061e-02) (248, 2.96196407553373126931e-02) (249, 2.05970763125926215054e-01) (250, 1.70205740729261922883e-01) (251, 2.72766402819663245083e-01) (252, 4.20155270182179102489e-02) (253, 1.27282804894131379436e-01) (254, 6.04844181699355845638e-02) (255, 1.23003943720370517712e-01) (256, 1.33050268080005501536e-01) (257, 1.98849085547097070847e-01) (258, 1.71265926786570377161e-01) (259, 1.20903477948298490596e-01) (260, 3.03597371446998019751e-02) (261, 2.23428876735446563240e-01) (262, 2.63566204942939530387e-01) (263, 2.93102048780220669766e-01) (264, 2.56379530114659894002e-02) (265, 5.23978708417378348516e-03) (266, 1.46185165775131686861e-01) (267, 1.92543844333090269361e-01) (268, 2.77908789830316138580e-01) (269, 3.16064813770530195214e-01) (270, 1.60689499803690738489e-01) (271, 5.51936078553885919873e-02) (272, 1.41361523280298273519e-01) (273, 2.68458190279115327392e-01) (274, 2.93360226815672808787e-01) (275, 2.57625359015573152099e-01) (276, 1.79649731544924640136e-01) (277, 1.55665566644320518819e-01) (278, 1.42500608485156166072e-01) (279, 1.34335376506539261321e-01) (280, 1.29191992481877238053e-01) (281, 1.11692510729523575286e-01) (282, 2.12456610628275699426e-01) (283, 7.46805857020594182627e-02) (284, 2.01827117239439635110e-01) (285, 1.95412181502075982253e-01) (286, 1.47932918419768189011e-01) (287, 1.17620878105851089934e-01) (288, 1.60197023614077393994e-01) (289, 2.28595398724655396450e-01) (290, 2.10381974863265486242e-01) (291, 2.99679964965077039185e-01) (292, 1.82899867793251763581e-01) (293, 2.13008687084408648849e-01) (294, 1.15078269162670610015e-01) (295, 1.34574926116959009414e-01) (296, 1.83417324705130724283e-01) (297, 1.48041607489516113816e-01) (298, 2.49836196800400561768e-01) (299, 2.05856293624134906173e-01) (300, 1.14244152864169867811e+00) (301, 3.58242877989943764305e+01) (302, 3.38859264674297051556e+01) (0, 7.48944338516493168800e-02) (1, 1.68422341351858517733e-01) (2, 1.90379843120924319155e-01) (3, -6.88597564150799923421e-02) (4, 5.27304034183513695155e-02) (5, 1.37507389734279686366e-02) (6, 2.20681289936205671243e-01) (7, 1.72867333756587249205e-01) (8, 1.23578476084307650740e-01) (9, -7.84204904486645315576e-02) (10, 3.69353364656459792759e-02) (11, -5.02654221537466028291e-02) (12, 4.54230400137432821506e-02) (13, 2.63249974894803950853e-01) (14, 1.26890618551057904329e-01) (15, -2.93126443098659910519e-03) (16, -5.54902168682109633857e-02) (17, -4.85667053573491103169e-02) (18, 7.81748328083331223137e-02) (19, 1.16019676647237807154e-01) (20, 1.88812881495586587510e-01) (21, -6.93105433292259542899e-02) (22, 2.25495274953973028065e-02) (23, 4.79430045969126555905e-02) (24, 1.43053787404304050268e-01) (25, 1.47803457777271468609e-01) (26, 1.87782569590032671902e-01) (27, 1.90365561687090394105e-02) (28, 3.21878889047243696431e-02) (29, -2.97301201413573801258e-01) (30, 2.34814201560252983070e-01) (31, 1.55328205225602450357e-01) (32, 2.60470937360155307960e-01) (33, -5.52872766279635330378e-01) (34, -4.52976054108999229286e-02) (35, -4.99475877511950730470e-02) (36, 1.45805095899517761504e-01) (37, 2.08174440948782873972e-01) (38, 1.63688823338984684730e-01) (39, -5.86851341957496330792e-01) (40, -3.35239967866524032902e-02) (41, -5.51570926331934829889e-01) (42, 4.09116923620368444503e-02) (43, 2.36296150591611103797e-01) (44, 2.73005805597723638645e-01) (45, -7.49247124953850013318e-02) (46, -7.60150841355563267054e-02) (47, -1.00337279045000199451e-01) (48, 1.42832214716702016188e-01) (49, 1.82593792559985451662e-01) (50, 1.74812063333033756996e-01) (51, 7.30487594146732033273e-02) (52, -1.58416200858135756968e-02) (53, 1.76571131643818296508e-02) (54, 1.10224936919930766033e-01) (55, 9.51890163363991320677e-02) (56, 8.99507588070814906311e-02) (57, 2.30977150909394218781e-01) (58, 5.43902584684125889325e-01) (59, 5.26164084452843572315e-01) (60, 4.39458580434695933459e-02) (61, 2.20484613447447658219e-01) (62, 9.97995799472530392693e-02) (63, 4.21946008433683017458e-01) (64, 1.45390029974455869954e+00) (65, 1.02763036644935357167e+00) (66, -2.40582063665830611643e-02) (67, 5.23804776781008687991e-02) (68, 4.48186313633350333352e-02) (69, 2.41428629598677974011e-01) (70, 4.51585152925492172571e-01) (71, 5.95271097303868401696e-01) (72, 7.05071170954464383068e-03) (73, 2.91110954208244829267e-02) (74, 7.97641805076579335498e-02) (75, 2.97011281256071735246e-01) (76, 9.58562114297737744018e-01) (77, 9.48273223306107748698e-01) (78, 5.15624934453929942291e-02) (79, 1.20377587841462699303e-01) (80, 3.62719862886848376515e-01) (81, 3.18803397808500588173e-01) (82, 4.49728468851232632275e-01) (83, 4.69380336064732950341e-01) (84, 5.46546398329498181456e-02) (85, 2.93362948801755119010e-01) (86, 2.98795951315213359489e-01) (87, 1.23149332647450274192e-01) (88, 4.82706497613419216464e-01) (89, 3.87181841481400335070e-01) (90, 4.37018010644634816164e-02) (91, 2.85589810399828836207e-01) (92, 1.26596782295523596629e-01) (93, 7.62454423653286667006e-02) (94, 8.87033161150258542271e-01) (95, 4.59408028148237335131e-01) (96, 4.30024469920331012252e-02) (97, 4.86699652452046049866e-01) (98, 3.94759312298949671671e-01) (99, 7.22585069168124455308e-02) (100, 1.24519512631456641394e+00) (101, 8.89968776613035639222e-01) (102, 4.16743301276085831297e-01) (103, 4.96103418793882311455e-01) (104, 4.42953264873367835719e-01) (105, 1.78144966201782189996e-01) (106, 9.20426391589598158482e-01) (107, -9.05354270443159414583e-01) (108, 2.95634419700296011135e-02) (109, 5.10857075880340238960e-01) (110, 4.06458336419514232318e-01) (111, 3.08979419617340489435e-01) (112, 1.38394503747878094835e+00) (113, 1.45944869071124094795e+00) (114, -3.51506289006429332306e-03) (115, 4.40491138141708482578e-01) (116, -5.34342148914135339766e-01) (117, 2.54241692624020354518e-01) (118, 8.87997440439076690666e+00) (119, 4.45783689708884800496e+00) (120, 7.99110611157205635857e-02) (121, 2.07981724036617438012e-01) (122, -5.67226846849602339695e-01) (123, 2.31005769472056338154e-01) (124, 1.48990386441656075256e+00) (125, 1.27689129217773023051e+00) (126, 3.57852721502152915090e-02) (127, -2.89143765692088453023e-02) (128, -1.25422286322671983072e+00) (129, 5.96221432386423721983e-02) (130, -4.17756182561206479420e+00) (131, -8.10408689996792386268e-01) (132, 7.06316358536634020249e-02) (133, 9.27175173178010486597e-02) (134, -6.30729573424360756562e-01) (135, 2.13225139619661024915e-01) (136, -1.98501386247716071765e+00) (137, -2.33600160816174318157e+00) (138, 1.66450626649599785385e-04) (139, 4.45837489580716561655e-01) (140, 5.24023303744562754525e-02) (141, -6.13443452774789621529e-01) (142, -1.10893027160951307408e+00) (143, -1.48946730218286571557e+00) (144, 1.56934632612670238450e-01) (145, 4.20832865700049629787e-01) (146, 3.11477671266731891142e-03) (147, 4.32459291256873587517e-02) (148, -9.81433634671490320867e-03) (149, -1.93554907547357690767e+00) (150, 1.25603233834898492249e-01) (151, 4.94402873369603201859e-01) (152, 9.89455307594447469599e-02) (153, -1.15968205161371615275e-01) (154, -2.89471134746243041747e+00) (155, -1.61663909805347181248e+01) (156, 1.35865641314684676422e-01) (157, 2.65248747329224321412e-01) (158, 1.71752777373188475485e-01) (159, -8.18987344748197898525e-01) (160, -2.08225472420477775159e+00) (161, -5.49060229281507616861e+00) (162, 1.65491951057035707739e-01) (163, 2.82786140686593634452e-01) (164, 2.08006019105217071496e-01) (165, -5.75505663761271213374e-01) (166, -1.10217720795336515671e+00) (167, -1.27280474843128921236e+00) (168, 2.05580414612866746449e-01) (169, 3.52761895763883059907e-01) (170, 9.66254830781419077335e-02) (171, -4.48282699425975816876e-01) (172, -5.16053566346981629209e-01) (173, -1.39943233213272621995e+00) (174, 1.45247941266681446226e-01) (175, 2.70628148078940422572e-01) (176, 1.70252111690609442274e-01) (177, 1.32353206753544089258e-01) (178, -4.38954131970243355276e-01) (179, -5.03504247256760573137e-01) (180, 1.86716818958680697005e-01) (181, 2.76804313154462300339e-01) (182, 1.25718871430511525134e-01) (183, 6.69710209436019388018e-02) (184, 1.45981619649391575200e-01) (185, 2.12039912621522746994e-01) (186, 5.10230193983342295017e-02) (187, 2.06504907745904270344e-01) (188, 2.80308711958265240061e-02) (189, 4.19184072508756860875e-02) (190, 3.56555096424514161857e-01) (191, 2.08514382985930585290e-01) (192, 7.22067363946373441674e-02) (193, 1.13115154127972322717e-01) (194, 1.83152816583198319034e-01) (195, 2.25616732351410748114e-01) (196, 5.59240542031247311883e+00) (197, 4.94365311689263842165e-01) (198, 4.07386921682850594584e-02) (199, 1.16704982244749608244e-01) (200, -5.66399268865707128384e-01) (201, 1.42279942934192604742e-01) (202, 1.72703775620737021157e-01) (203, -4.88072212382752501636e-01) (204, 1.53567117299105548867e-01) (205, 2.23264419201362279699e-01) (206, -1.02478376701949126792e-02) (207, -6.53733171515784361461e-01) (208, -4.26892297566010936460e-01) (209, -5.65888873379126078333e-01) (210, 8.09896380512016150766e-02) (211, 2.26370193091377791550e-01) (212, 8.45004999272019469148e-02) (213, -5.11266164975141212956e-01) (214, 1.03370881815131168691e-01) (215, -5.41343796176779190610e-01) (216, 1.15761862427033401790e-01) (217, 2.85407635496842781997e-01) (218, 7.89333397043563839146e-02) (219, -1.30356033935043920391e-02) (220, 1.15817742715168814360e-02) (221, 2.66353013422267297095e-02) (222, 2.01992001659175468564e-01) (223, 2.96354025633462803135e-01) (224, 6.80250244229380351957e-02) (225, 1.77869530824054204732e-02) (226, 2.01526245966504972962e-02) (227, -4.40818689625055645798e-02) (228, 6.98963890179414570891e-02) (229, 1.70147880942949580874e-01) (230, 6.75020906972948753211e-02) (231, -3.92319662110534456145e-02) (232, 8.21330956116269883527e-02) (233, -1.12251031107717808011e-01) (234, 1.67815864007694992566e-01) (235, 2.72351153357493824814e-01) (236, 8.85896668436032680427e-02) (237, -1.99237254352515220923e-02) (238, -1.52958542634437033580e-01) (239, -2.23830501044085146412e-02) (240, 5.48813282396058005341e-02) (241, 1.36036863982866351730e-01) (242, 1.73452927231977527267e-01) (243, -2.33176655184356151906e-01) (244, -9.48339258923027866865e-02) (245, -9.54151311445171623760e-01) (246, 4.27612887810026251478e-02) (247, 2.30827366048842796964e-01) (248, 2.50476119099473537588e-01) (249, -8.79329907222568873948e-01) (250, -6.74010092637358670942e-01) (251, -1.00629448498407891854e+00) (252, 5.06248923133169256849e-02) (253, 1.72562380312299645801e-01) (254, 2.55565343856999971361e-01) (255, -9.11809602308208955179e-01) (256, -6.86220556812371818012e-01) (257, -9.90635621519949549629e-01) (258, 1.98718622524574783927e-01) (259, 2.42677730499124166830e-01) (260, 2.52170852939939071913e-01) (261, -9.50538205428897997606e-01) (262, -8.30029906875189293913e-01) (263, -1.34704218047009049997e+00) (264, 9.23423438196536855438e-02) (265, 1.52950882534837628857e-01) (266, 2.09654412786817456738e-01) (267, -6.78194281974956236780e-01) (268, -6.92148333943746613128e-02) (269, -7.95014154691530583463e-01) (270, 9.63902847955977054584e-02) (271, 1.67665406307963116284e-01) (272, 9.22676329642854314850e-02) (273, -1.39569995418872772053e-01) (274, -6.30103175883975213933e-02) (275, -6.38059553229269882380e-01) (276, 2.50826479981696090493e-02) (277, 1.17865573175781446214e-01) (278, 1.01774982529143173671e-01) (279, -1.18556625704264673171e-01) (280, 7.08720679202743120140e-02) (281, 5.31237848210445243180e-02) (282, 1.48183924052600560911e-02) (283, 1.74670086113708974973e-02) (284, 1.20703748186865508774e-01) (285, -8.85763203052868652865e-02) (286, -3.16390921553903262109e-02) (287, -1.02405365302978973441e-01) (288, 1.46592891189029794763e-01) (289, 4.17634935106509438962e-02) (290, 1.82207957994066305218e-01) (291, 4.48053251455318435337e-02) (292, -3.67941752992837281533e-02) (293, -1.11419621818425775006e-02) (294, 4.41162599356404797057e-02) (295, 7.30260808138687156355e-02) (296, -3.26073582313657073239e-02) (297, -9.47911541678370453412e-03) (298, -5.67131386123865058324e-02) (299, -2.35129748036373396880e-02) (300, 1.35053701268290882176e+00) (301, -1.99114893172302032553e+02) (302, -2.04971560859083155037e+01) 
