FANN_FLO_2.1
num_layers=3
learning_rate=0.700000
connection_rate=1.000000
network_type=1
learning_momentum=0.000000
training_algorithm=2
train_error_function=1
train_stop_function=0
cascade_output_change_fraction=0.010000
quickprop_decay=-0.000100
quickprop_mu=1.750000
rprop_increase_factor=1.200000
rprop_decrease_factor=0.500000
rprop_delta_min=0.000000
rprop_delta_max=50.000000
rprop_delta_zero=0.100000
cascade_output_stagnation_epochs=12
cascade_candidate_change_fraction=0.010000
cascade_candidate_stagnation_epochs=12
cascade_max_out_epochs=150
cascade_max_cand_epochs=150
cascade_num_candidate_groups=2
bit_fail_limit=3.49999999999999977796e-01
cascade_candidate_limit=1.00000000000000000000e+03
cascade_weight_multiplier=4.00000000000000022204e-01
cascade_activation_functions_count=10
cascade_activation_functions=3 5 7 8 10 11 14 15 16 17 
cascade_activation_steepnesses_count=4
cascade_activation_steepnesses=2.50000000000000000000e-01 5.00000000000000000000e-01 7.50000000000000000000e-01 1.00000000000000000000e+00 
layer_sizes=301 1 3 
scale_included=0
neurons (num_inputs, activation_function, activation_steepness)=(0, 0, 0.00000000000000000000e+00) (0, 0, 0.00000000000000000000e+00) (0, 0, 0.00000000000000000000e+00) (0, 0, 0.00000000000000000000e+00) (0, 0, 0.00000000000000000000e+00) (0, 0, 0.00000000000000000000e+00) (0, 0, 0.00000000000000000000e+00) (0, 0, 0.00000000000000000000e+00) (0, 0, 0.00000000000000000000e+00) (0, 0, 0.00000000000000000000e+00) (0, 0, 0.00000000000000000000e+00) (0, 0, 0.00000000000000000000e+00) (0, 0, 0.00000000000000000000e+00) (0, 0, 0.00000000000000000000e+00) (0, 0, 0.00000000000000000000e+00) (0, 0, 0.00000000000000000000e+00) (0, 0, 0.00000000000000000000e+00) (0, 0, 0.00000000000000000000e+00) (0, 0, 0.00000000000000000000e+00) (0, 0, 0.00000000000000000000e+00) (0, 0, 0.00000000000000000000e+00) (0, 0, 0.00000000000000000000e+00) (0, 0, 0.00000000000000000000e+00) (0, 0, 0.00000000000000000000e+00) (0, 0, 0.00000000000000000000e+00) (0, 0, 0.00000000000000000000e+00) (0, 0, 0.00000000000000000000e+00) (0, 0, 0.00000000000000000000e+00) (0, 0, 0.00000000000000000000e+00) (0, 0, 0.00000000000000000000e+00) (0, 0, 0.00000000000000000000e+00) (0, 0, 0.00000000000000000000e+00) (0, 0, 0.00000000000000000000e+00) (0, 0, 0.00000000000000000000e+00) (0, 0, 0.00000000000000000000e+00) (0, 0, 0.00000000000000000000e+00) (0, 0, 0.00000000000000000000e+00) (0, 0, 0.00000000000000000000e+00) (0, 0, 0.00000000000000000000e+00) (0, 0, 0.00000000000000000000e+00) (0, 0, 0.00000000000000000000e+00) (0, 0, 0.00000000000000000000e+00) (0, 0, 0.00000000000000000000e+00) (0, 0, 0.00000000000000000000e+00) (0, 0, 0.00000000000000000000e+00) (0, 0, 0.00000000000000000000e+00) (0, 0, 0.00000000000000000000e+00) (0, 0, 0.00000000000000000000e+00) (0, 0, 0.00000000000000000000e+00) (0, 0, 0.00000000000000000000e+00) (0, 0, 0.00000000000000000000e+00) (0, 0, 0.00000000000000000000e+00) (0, 0, 0.00000000000000000000e+00) (0, 0, 0.00000000000000000000e+00) (0, 0, 0.00000000000000000000e+00) (0, 0, 0.00000000000000000000e+00) (0, 0, 0.00000000000000000000e+00) (0, 0, 0.00000000000000000000e+00) (0, 0, 0.00000000000000000000e+00) (0, 0, 0.00000000000000000000e+00) (0, 0, 0.00000000000000000000e+00) (0, 0, 0.00000000000000000000e+00) (0, 0, 0.00000000000000000000e+00) (0, 0, 0.00000000000000000000e+00) (0, 0, 0.00000000000000000000e+00) (0, 0, 0.00000000000000000000e+00) (0, 0, 0.00000000000000000000e+00) (0, 0, 0.00000000000000000000e+00) (0, 0, 0.00000000000000000000e+00) (0, 0, 0.00000000000000000000e+00) (0, 0, 0.00000000000000000000e+00) (0, 0, 0.00000000000000000000e+00) (0, 0, 0.00000000000000000000e+00) (0, 0, 0.00000000000000000000e+00) (0, 0, 0.00000000000000000000e+00) (0, 0, 0.00000000000000000000e+00) (0, 0, 0.00000000000000000000e+00) (0, 0, 0.00000000000000000000e+00) (0, 0, 0.00000000000000000000e+00) (0, 0, 0.00000000000000000000e+00) (0, 0, 0.00000000000000000000e+00) (0, 0, 0.00000000000000000000e+00) (0, 0, 0.00000000000000000000e+00) (0, 0, 0.00000000000000000000e+00) (0, 0, 0.00000000000000000000e+00) (0, 0, 0.00000000000000000000e+00) (0, 0, 0.00000000000000000000e+00) (0, 0, 0.00000000000000000000e+00) (0, 0, 0.00000000000000000000e+00) (0, 0, 0.00000000000000000000e+00) (0, 0, 0.00000000000000000000e+00) (0, 0, 0.00000000000000000000e+00) (0, 0, 0.00000000000000000000e+00) (0, 0, 0.00000000000000000000e+00) (0, 0, 0.00000000000000000000e+00) (0, 0, 0.00000000000000000000e+00) (0, 0, 0.00000000000000000000e+00) (0, 0, 0.00000000000000000000e+00) (0, 0, 0.00000000000000000000e+00) (0, 0, 0.00000000000000000000e+00) (0, 0, 0.00000000000000000000e+00) (0, 0, 0.00000000000000000000e+00) (0, 0, 0.00000000000000000000e+00) (0, 0, 0.00000000000000000000e+00) (0, 0, 0.00000000000000000000e+00) (0, 0, 0.00000000000000000000e+00) (0, 0, 0.00000000000000000000e+00) (0, 0, 0.00000000000000000000e+00) (0, 0, 0.00000000000000000000e+00) (0, 0, 0.00000000000000000000e+00) (0, 0, 0.00000000000000000000e+00) (0, 0, 0.00000000000000000000e+00) (0, 0, 0.00000000000000000000e+00) (0, 0, 0.00000000000000000000e+00) (0, 0, 0.00000000000000000000e+00) (0, 0, 0.00000000000000000000e+00) (0, 0, 0.00000000000000000000e+00) (0, 0, 0.00000000000000000000e+00) (0, 0, 0.00000000000000000000e+00) (0, 0, 0.00000000000000000000e+00) (0, 0, 0.00000000000000000000e+00) (0, 0, 0.00000000000000000000e+00) (0, 0, 0.00000000000000000000e+00) (0, 0, 0.00000000000000000000e+00) (0, 0, 0.00000000000000000000e+00) (0, 0, 0.00000000000000000000e+00) (0, 0, 0.00000000000000000000e+00) (0, 0, 0.00000000000000000000e+00) (0, 0, 0.00000000000000000000e+00) (0, 0, 0.00000000000000000000e+00) (0, 0, 0.00000000000000000000e+00) (0, 0, 0.00000000000000000000e+00) (0, 0, 0.00000000000000000000e+00) (0, 0, 0.00000000000000000000e+00) (0, 0, 0.00000000000000000000e+00) (0, 0, 0.00000000000000000000e+00) (0, 0, 0.00000000000000000000e+00) (0, 0, 0.00000000000000000000e+00) (0, 0, 0.00000000000000000000e+00) (0, 0, 0.00000000000000000000e+00) (0, 0, 0.00000000000000000000e+00) (0, 0, 0.00000000000000000000e+00) (0, 0, 0.00000000000000000000e+00) (0, 0, 0.00000000000000000000e+00) (0, 0, 0.00000000000000000000e+00) (0, 0, 0.00000000000000000000e+00) (0, 0, 0.00000000000000000000e+00) (0, 0, 0.00000000000000000000e+00) (0, 0, 0.00000000000000000000e+00) (0, 0, 0.00000000000000000000e+00) (0, 0, 0.00000000000000000000e+00) (0, 0, 0.00000000000000000000e+00) (0, 0, 0.00000000000000000000e+00) (0, 0, 0.00000000000000000000e+00) (0, 0, 0.00000000000000000000e+00) (0, 0, 0.00000000000000000000e+00) (0, 0, 0.00000000000000000000e+00) (0, 0, 0.00000000000000000000e+00) (0, 0, 0.00000000000000000000e+00) (0, 0, 0.00000000000000000000e+00) (0, 0, 0.00000000000000000000e+00) (0, 0, 0.00000000000000000000e+00) (0, 0, 0.00000000000000000000e+00) (0, 0, 0.00000000000000000000e+00) (0, 0, 0.00000000000000000000e+00) (0, 0, 0.00000000000000000000e+00) (0, 0, 0.00000000000000000000e+00) (0, 0, 0.00000000000000000000e+00) (0, 0, 0.00000000000000000000e+00) (0, 0, 0.00000000000000000000e+00) (0, 0, 0.00000000000000000000e+00) (0, 0, 0.00000000000000000000e+00) (0, 0, 0.00000000000000000000e+00) (0, 0, 0.00000000000000000000e+00) (0, 0, 0.00000000000000000000e+00) (0, 0, 0.00000000000000000000e+00) (0, 0, 0.00000000000000000000e+00) (0, 0, 0.00000000000000000000e+00) (0, 0, 0.00000000000000000000e+00) (0, 0, 0.00000000000000000000e+00) (0, 0, 0.00000000000000000000e+00) (0, 0, 0.00000000000000000000e+00) (0, 0, 0.00000000000000000000e+00) (0, 0, 0.00000000000000000000e+00) (0, 0, 0.00000000000000000000e+00) (0, 0, 0.00000000000000000000e+00) (0, 0, 0.00000000000000000000e+00) (0, 0, 0.00000000000000000000e+00) (0, 0, 0.00000000000000000000e+00) (0, 0, 0.00000000000000000000e+00) (0, 0, 0.00000000000000000000e+00) (0, 0, 0.00000000000000000000e+00) (0, 0, 0.00000000000000000000e+00) (0, 0, 0.00000000000000000000e+00) (0, 0, 0.00000000000000000000e+00) (0, 0, 0.00000000000000000000e+00) (0, 0, 0.00000000000000000000e+00) (0, 0, 0.00000000000000000000e+00) (0, 0, 0.00000000000000000000e+00) (0, 0, 0.00000000000000000000e+00) (0, 0, 0.00000000000000000000e+00) (0, 0, 0.00000000000000000000e+00) (0, 0, 0.00000000000000000000e+00) (0, 0, 0.00000000000000000000e+00) (0, 0, 0.00000000000000000000e+00) (0, 0, 0.00000000000000000000e+00) (0, 0, 0.00000000000000000000e+00) (0, 0, 0.00000000000000000000e+00) (0, 0, 0.00000000000000000000e+00) (0, 0, 0.00000000000000000000e+00) (0, 0, 0.00000000000000000000e+00) (0, 0, 0.00000000000000000000e+00) (0, 0, 0.00000000000000000000e+00) (0, 0, 0.00000000000000000000e+00) (0, 0, 0.00000000000000000000e+00) (0, 0, 0.00000000000000000000e+00) (0, 0, 0.00000000000000000000e+00) (0, 0, 0.00000000000000000000e+00) (0, 0, 0.00000000000000000000e+00) (0, 0, 0.00000000000000000000e+00) (0, 0, 0.00000000000000000000e+00) (0, 0, 0.00000000000000000000e+00) (0, 0, 0.00000000000000000000e+00) (0, 0, 0.00000000000000000000e+00) (0, 0, 0.00000000000000000000e+00) (0, 0, 0.00000000000000000000e+00) (0, 0, 0.00000000000000000000e+00) (0, 0, 0.00000000000000000000e+00) (0, 0, 0.00000000000000000000e+00) (0, 0, 0.00000000000000000000e+00) (0, 0, 0.00000000000000000000e+00) (0, 0, 0.00000000000000000000e+00) (0, 0, 0.00000000000000000000e+00) (0, 0, 0.00000000000000000000e+00) (0, 0, 0.00000000000000000000e+00) (0, 0, 0.00000000000000000000e+00) (0, 0, 0.00000000000000000000e+00) (0, 0, 0.00000000000000000000e+00) (0, 0, 0.00000000000000000000e+00) (0, 0, 0.00000000000000000000e+00) (0, 0, 0.00000000000000000000e+00) (0, 0, 0.00000000000000000000e+00) (0, 0, 0.00000000000000000000e+00) (0, 0, 0.00000000000000000000e+00) (0, 0, 0.00000000000000000000e+00) (0, 0, 0.00000000000000000000e+00) (0, 0, 0.00000000000000000000e+00) (0, 0, 0.00000000000000000000e+00) (0, 0, 0.00000000000000000000e+00) (0, 0, 0.00000000000000000000e+00) (0, 0, 0.00000000000000000000e+00) (0, 0, 0.00000000000000000000e+00) (0, 0, 0.00000000000000000000e+00) (0, 0, 0.00000000000000000000e+00) (0, 0, 0.00000000000000000000e+00) (0, 0, 0.00000000000000000000e+00) (0, 0, 0.00000000000000000000e+00) (0, 0, 0.00000000000000000000e+00) (0, 0, 0.00000000000000000000e+00) (0, 0, 0.00000000000000000000e+00) (0, 0, 0.00000000000000000000e+00) (0, 0, 0.00000000000000000000e+00) (0, 0, 0.00000000000000000000e+00) (0, 0, 0.00000000000000000000e+00) (0, 0, 0.00000000000000000000e+00) (0, 0, 0.00000000000000000000e+00) (0, 0, 0.00000000000000000000e+00) (0, 0, 0.00000000000000000000e+00) (0, 0, 0.00000000000000000000e+00) (0, 0, 0.00000000000000000000e+00) (0, 0, 0.00000000000000000000e+00) (0, 0, 0.00000000000000000000e+00) (0, 0, 0.00000000000000000000e+00) (0, 0, 0.00000000000000000000e+00) (0, 0, 0.00000000000000000000e+00) (0, 0, 0.00000000000000000000e+00) (0, 0, 0.00000000000000000000e+00) (0, 0, 0.00000000000000000000e+00) (0, 0, 0.00000000000000000000e+00) (0, 0, 0.00000000000000000000e+00) (0, 0, 0.00000000000000000000e+00) (0, 0, 0.00000000000000000000e+00) (0, 0, 0.00000000000000000000e+00) (0, 0, 0.00000000000000000000e+00) (0, 0, 0.00000000000000000000e+00) (0, 0, 0.00000000000000000000e+00) (0, 0, 0.00000000000000000000e+00) (0, 0, 0.00000000000000000000e+00) (0, 0, 0.00000000000000000000e+00) (0, 0, 0.00000000000000000000e+00) (0, 0, 0.00000000000000000000e+00) (0, 0, 0.00000000000000000000e+00) (0, 0, 0.00000000000000000000e+00) (0, 0, 0.00000000000000000000e+00) (0, 0, 0.00000000000000000000e+00) (0, 0, 0.00000000000000000000e+00) (0, 0, 0.00000000000000000000e+00) (0, 0, 0.00000000000000000000e+00) (0, 0, 0.00000000000000000000e+00) (0, 0, 0.00000000000000000000e+00) (0, 0, 0.00000000000000000000e+00) (301, 10, 5.00000000000000000000e-01) (302, 5, 5.00000000000000000000e-01) (302, 5, 5.00000000000000000000e-01) (302, 5, 5.00000000000000000000e-01) 
connections (connected_to_neuron, weight)=(0, 6.89949221154179248572e+00) (1, 6.36925847073521289587e+00) (2, 6.50555635233845386267e+00) (3, 5.13696267201137324321e+00) (4, 4.90547825886440058696e+00) (5, 4.12470360590648521537e+00) (6, 7.75176972886051807166e+00) (7, 7.10164625187840137244e+00) (8, 6.62511063357319507361e+00) (9, 5.15533806873988886821e+00) (10, 3.84678622080516641191e+00) (11, 3.71514845384788339189e+00) (12, 6.55446273823704395056e+00) (13, 7.52585489293064746619e+00) (14, 6.46861393714848986747e+00) (15, 3.78685634328555886796e+00) (16, 4.86260618759822627055e+00) (17, 4.62530841423702021586e+00) (18, 6.08641958971943530798e+00) (19, 7.34137970944370898962e+00) (20, 7.01754660869542590262e+00) (21, 6.02515699704613361121e+00) (22, 6.49669856568302783728e+00) (23, 6.68284244800511828544e+00) (24, 7.71037776013340625525e+00) (25, 6.31167990704502734900e+00) (26, 5.31122340752315302836e+00) (27, 5.97586279352631244421e+00) (28, 7.61007971306767139197e+00) (29, 6.97370404740299854041e+00) (30, 6.26845959564175281287e+00) (31, 6.69235391159977588416e+00) (32, 7.52336782952274951697e+00) (33, 6.95442146798100147009e+00) (34, 6.21099144955601367712e+00) (35, 6.81052101393665942908e+00) (36, 7.45842368145908984900e+00) (37, 6.14554304619755420447e+00) (38, 6.09494922300305042029e+00) (39, 6.26631606360401782752e+00) (40, 7.68017978211369189978e+00) (41, 6.32103396197285327673e+00) (42, 6.36076308032002124548e+00) (43, 6.41742432852711353064e+00) (44, 6.02967064817871722937e+00) (45, 7.63390965004887256384e+00) (46, 6.58357918997730884314e+00) (47, 7.27157527943577441931e+00) (48, 6.64089304944004688025e+00) (49, 6.85040421029057178259e+00) (50, 6.79573685666050586462e+00) (51, 6.46534890671696338416e+00) (52, 7.05596668263401660681e+00) (53, 7.47284097214665088416e+00) (54, 5.95510058840241107703e+00) (55, 6.94912631054844531775e+00) (56, 5.96730265756573352576e+00) (57, 7.64562243958439502478e+00) (58, 7.10539454956974658728e+00) (59, 7.75778777142491016150e+00) (60, 6.80210835476841602087e+00) (61, 7.55425960560764941931e+00) (62, 6.63292355080570850134e+00) (63, 6.50825811167683276892e+00) (64, 6.69146294136967334509e+00) (65, 7.02432055016483936072e+00) (66, 7.49918467541660938025e+00) (67, 6.33266837140049609900e+00) (68, 7.35026902695622119666e+00) (69, 7.77453929921116504431e+00) (70, 6.77938986559834155798e+00) (71, 5.01433732105922480571e+00) (72, 6.27835509916271838904e+00) (73, 7.32055825730290088416e+00) (74, 7.81106025715794238806e+00) (75, 6.48843122263874683142e+00) (76, 7.13725001355137500525e+00) (77, 4.37852825714778770561e+00) (78, 5.94278838475670490027e+00) (79, 5.96092488606896075964e+00) (80, 3.30090743766527872083e+00) (81, 6.91893059750523242712e+00) (82, 6.60667920847859058142e+00) (83, 6.84697956582035693884e+00) (84, 2.80578981808882899074e+00) (85, 6.74218524237599048377e+00) (86, 8.96037458914461071302e-01) (87, 6.72226149579014453650e+00) (88, 6.57058966895069751502e+00) (89, 7.26468772431339893103e+00) (90, 8.25083760818718703334e-01) (91, 6.40887000311722143664e+00) (92, -4.63745994111027481921e+00) (93, 7.47616023560490283728e+00) (94, 6.24414346357311877966e+00) (95, 5.87597391744579944373e+00) (96, 8.45515040954827101771e-01) (97, 7.76043869967927624209e-01) (98, -5.25014144917454395056e+00) (99, 6.21631333967175159216e+00) (100, 3.68453798188400094560e+00) (101, 7.34884292622532520056e+00) (102, 1.77220186432289916745e+00) (103, 9.47325514395702783510e-01) (104, -4.78700596829380753405e+00) (105, 7.60379142304386768103e+00) (106, 4.81213512016963740336e+00) (107, 6.17221499224629077673e+00) (108, 2.63098317743496679100e-01) (109, 1.27812577996369003408e+00) (110, -5.32564381500210437537e+00) (111, 6.15500757833447131873e+00) (112, 6.23593465229000720740e+00) (113, 7.10062999268498096228e+00) (114, 1.08149619734402135940e+00) (115, 1.13479711327667831533e+00) (116, -5.61359203597035083533e+00) (117, 7.34168571968998584509e+00) (118, 5.89593688388790759802e+00) (119, 6.77659220238651904822e+00) (120, 6.88258964182095533957e-01) (121, 8.83077161647039643455e-01) (122, -5.12671161433186206580e+00) (123, 5.97366631766285571814e+00) (124, 6.39811552306141528845e+00) (125, 2.92346279913645812343e+00) (126, 3.77949350036341225056e-01) (127, 1.40568722996826767080e+00) (128, -4.59564728280033829577e+00) (129, 6.59949875613178882361e+00) (130, 7.65850228806461963416e+00) (131, 2.02452816023224846376e+00) (132, 1.12152496458790107425e+00) (133, 1.79913715318556444167e+00) (134, -4.00921363373722794421e+00) (135, 7.16371233006443652869e+00) (136, 7.23780674477543506384e+00) (137, 1.23331791723693062757e+00) (138, 2.50673401834270759281e+00) (139, 2.77260816575786872562e+00) (140, -5.49839962264027271033e+00) (141, 6.01265986999001178503e+00) (142, 6.11999634643520984412e+00) (143, 9.66661876091605920536e-01) (144, 2.28409660341045661625e+00) (145, 2.47319555761120124515e+00) (146, -3.91076070805516007312e+00) (147, 7.49969787140812549353e+00) (148, 7.00726193924870166541e+00) (149, 5.19830503961812406821e-01) (150, 1.44947320701382054153e+00) (151, 9.69600384252284008824e-01) (152, 5.86961297976831941625e-01) (153, 7.15195483704533252478e+00) (154, 6.13327080746616992712e+00) (155, -7.21268477754851478068e-01) (156, 1.26216441871425999466e+00) (157, 1.33412319900295628372e+00) (158, 1.05940934970628930500e+00) (159, 7.49571032067265186072e+00) (160, 7.12362617989506397009e+00) (161, -1.43541884692217913688e+00) (162, 3.99876220988908137599e+00) (163, 4.64804687070527400294e+00) (164, 5.34708827283498999705e-01) (165, 6.59862781306233081580e+00) (166, 6.78164923926319751502e+00) (167, -9.09489117857321449634e-01) (168, 5.40392579628658076274e+00) (169, 4.28187068297099937553e+00) (170, 4.82120480107941951076e+00) (171, 5.92639020820583972693e+00) (172, 6.67382908602680835486e+00) (173, -5.72809785594668063879e+00) (174, 6.66392517825092944861e+00) (175, 6.15030623217548999548e+00) (176, 7.57429105778660449744e+00) (177, 6.57513553639378223181e+00) (178, 5.83278590430941257239e+00) (179, 6.63438457609372145285e-01) (180, 6.56268823882069263220e+00) (181, 6.47226322432484302283e+00) (182, 6.92393929501499805212e+00) (183, 4.68271150159516658107e+00) (184, 7.18049605155889025809e+00) (185, 2.22801685811779304203e+00) (186, 6.95784897347416553259e+00) (187, 6.25916839381184253455e+00) (188, 7.76174289723362598181e+00) (189, 3.10333506482520382619e+00) (190, 3.73876747979354684404e+00) (191, 2.05855215074322028812e+00) (192, 4.46305247141551753032e+00) (193, 4.11682822274842585841e+00) (194, 4.48719467713069697368e+00) (195, 7.06746310730900439978e+00) (196, 7.68296987553562793494e+00) (197, 4.86103405522981013576e+00) (198, 6.89356929799046191931e+00) (199, 6.84444315696660510184e+00) (200, 6.31168813248600635291e+00) (201, 6.68466419716801318884e+00) (202, 7.57536632557835254431e+00) (203, 4.37881435918488826076e+00) (204, 6.77616096278156909705e+00) (205, 6.42207325240101489783e+00) (206, 7.49663431187595996619e+00) (207, 4.33434077097606529350e+00) (208, 4.97872116162013789165e+00) (209, 4.72271730470338191310e+00) (210, 7.47797400494541797400e+00) (211, 5.92308441539730701209e+00) (212, 6.16487068673100147009e+00) (213, 3.79758693742432917873e+00) (214, 5.37441660954189082133e+00) (215, 3.36516763734498303151e+00) (216, 6.00509264310326251746e+00) (217, 6.71394056817021045447e+00) (218, 6.59184981127705249548e+00) (219, 3.16250898408570568776e+00) (220, 3.99768104123750056544e+00) (221, 2.61566259867396677663e+00) (222, 7.19817358990635547400e+00) (223, 7.62714046975102100134e+00) (224, 7.79425782700504932166e+00) (225, 3.27993487286248486257e+00) (226, 4.09027709531464900294e+00) (227, 3.56575634485926951101e+00) (228, 5.89796755453076038123e+00) (229, 5.95373656590904865027e+00) (230, 7.31136209507908496619e+00) (231, 2.29580786234584266481e+00) (232, 4.03169782924332942287e+00) (233, 2.29445235808091396734e+00) (234, 7.73638922711338672400e+00) (235, 7.77537269135441455603e+00) (236, 7.67198879261936816931e+00) (237, 3.32155218130793894460e+00) (238, 2.39713510281291419801e+00) (239, 1.34198179795992089680e+00) (240, 7.10841280957188281775e+00) (241, 6.15214426060642871619e+00) (242, 7.13587481518711719275e+00) (243, 3.35943570143428171804e+00) (244, 2.82299175268855417897e+00) (245, 2.11690859873490566656e+00) (246, 7.78637034436192188025e+00) (247, 7.10274297734226855994e+00) (248, 7.78631240864720020056e+00) (249, 2.46674879795756751832e+00) (250, 3.13851251608577097585e+00) (251, 1.97882591564851018084e+00) (252, 7.45132321854557666541e+00) (253, 6.61372119923557910681e+00) (254, 6.56380600472416553259e+00) (255, 3.33410992628779734304e+00) (256, 4.07406153249421443263e+00) (257, 2.84653906901078457281e+00) (258, 7.27115447064366016150e+00) (259, 6.93954283734287891150e+00) (260, 7.75573892136540088416e+00) (261, 3.97819008397736872951e+00) (262, 4.72290100621857966701e+00) (263, 3.97021861838975276271e+00) (264, 6.01759045561279926062e+00) (265, 7.42918033143009814978e+00) (266, 6.71548140784229907752e+00) (267, 3.08525284099259655690e+00) (268, 4.24065925645509089748e+00) (269, 4.60016693639436091701e+00) (270, 7.08515173932041797400e+00) (271, 6.31896234293903980017e+00) (272, 7.71982485791172656775e+00) (273, 3.61670007276215876857e+00) (274, 3.75654000534248178056e+00) (275, 4.62095858647060175883e+00) (276, 7.47618026276554736853e+00) (277, 5.92458534975971851111e+00) (278, 6.10537654896702441931e+00) (279, 5.24638154102992793071e+00) (280, 4.46709968640041132915e+00) (281, 5.31965472294521113383e+00) (282, 6.38194019337620410681e+00) (283, 6.30009800930943164587e+00) (284, 6.31505084773029956580e+00) (285, 4.92725851132106562602e+00) (286, 3.71234978480768029740e+00) (287, 5.15773298336696406352e+00) (288, 6.30640299583379260184e+00) (289, 7.36280293007816943884e+00) (290, 6.47895080586399707556e+00) (291, 4.67015792919826289165e+00) (292, 4.11199005438518394584e+00) (293, 3.97284894181918923906e+00) (294, 7.18265600467626086356e+00) (295, 5.88475169206563464286e+00) (296, 7.15720052982274523856e+00) (297, 4.50615366293620844829e+00) (298, 4.36275257660579551811e+00) (299, 4.79298426701259394633e+00) (300, -5.39046177736266507452e+00) (0, 6.51978528817322433575e-01) (1, 6.38760710825350463971e-01) (2, 7.90598938931849182232e-01) (3, 6.07691052128699005230e-01) (4, 6.98719563652899444683e-01) (5, 7.73583526482012451275e-01) (6, 7.58714149464991272076e-01) (7, 7.81094188560869651106e-01) (8, 7.32231984605219321516e-01) (9, 7.74159486164477050885e-01) (10, 7.54079739322092712506e-01) (11, 7.06661867668059051617e-01) (12, 7.06165096869448394301e-01) (13, 5.47642502149323195937e-01) (14, 6.61522037496546477797e-01) (15, 6.60261428673889816388e-01) (16, 7.52769524921801269635e-01) (17, 7.11443844010260284527e-01) (18, 3.22446134895958913535e-01) (19, 5.07760920627777112557e-01) (20, 4.27138601452984600915e-01) (21, 7.64794985522654235943e-01) (22, 6.04846614082769074017e-01) (23, 6.13338987101938903912e-01) (24, 3.62659084068531145650e-01) (25, 3.01120680780091298789e-01) (26, 2.45715442879309048374e-01) (27, 6.90783793796923339947e-01) (28, 4.19462754448919006300e-01) (29, 6.26760224570658386334e-01) (30, 1.55672683523098431824e-01) (31, 3.00782269463972518064e-01) (32, 2.25868916163103200523e-01) (33, 4.50564092626288825727e-01) (34, 5.30452046302902435748e-01) (35, 7.60692412723925293072e-01) (36, 9.69215119689520593349e-02) (37, 2.32693027281302255993e-01) (38, 3.02134567895786354530e-01) (39, 4.17991861848534096424e-01) (40, 3.64923857299984444325e-01) (41, 6.92318233420279205426e-01) (42, 9.49165187224059042626e-02) (43, 1.66521905150837867815e-01) (44, 2.77988949201053714422e-01) (45, 2.77481392173470009510e-01) (46, 4.22655999808014382069e-01) (47, 6.84035870005514801129e-01) (48, 1.24719079540929242422e-01) (49, 8.43155569776205954247e-02) (50, 1.86042425048819209943e-01) (51, 3.12030146452846934846e-01) (52, 4.49447331697429341979e-01) (53, 6.23063402940657318219e-01) (54, 1.27740485262229558350e-01) (55, 1.98612594718721752196e-01) (56, 2.40425035762943051232e-01) (57, 3.47091057044328854531e-01) (58, 2.76702754747220502907e-01) (59, 7.94430221189882934674e-01) (60, -5.41822171500995833360e-02) (61, 1.36892376136138638199e-01) (62, 4.59093324905910982192e-01) (63, 1.63278765897103300686e-01) (64, 2.80299025522706579672e-01) (65, 7.06895264555838287457e-01) (66, -4.73608451824802934027e-02) (67, 9.82328799623828907706e-02) (68, 9.78857359019678630041e-01) (69, 1.88160367776998099787e-01) (70, 2.03561510354118790911e-01) (71, 7.11542951633360565289e-01) (72, -3.87459276479839506702e-02) (73, 6.94876269345151426071e-02) (74, 1.56294382574638524019e+00) (75, 1.80774629429480138132e-01) (76, 1.77526102073538305515e-01) (77, 7.45552981962588012799e-01) (78, -7.77338215076178284946e-01) (79, -6.73894901793847034277e-01) (80, 9.32331814349792620256e-01) (81, 3.28985051057785471418e-02) (82, 1.93329066641676261540e-01) (83, 7.80316765179064231184e-01) (84, -1.49831804266425527850e+00) (85, -1.08545572647005550415e+00) (86, 1.11489137874256316607e+00) (87, -5.67575224692464103127e-02) (88, 9.47016558126092811154e-02) (89, 6.41874278654482544049e-01) (90, -1.68635215975975927272e+00) (91, -1.12093764182508937033e+00) (92, 1.51473931126025163074e+00) (93, 8.06301029796781254522e-02) (94, 1.76144019372808935398e-01) (95, 7.32743243445780234602e-01) (96, -4.69352878926198169296e+00) (97, -3.93577399867344679407e+00) (98, 1.25585372962386115914e-01) (99, 2.26139638730746619921e-03) (100, 1.72570045217860401632e-01) (101, 5.86781281826554534931e-01) (102, -7.21978378266993825463e+00) (103, -3.45459207909311682982e+00) (104, -7.89077249024657846610e-03) (105, 1.09560523071973267561e-01) (106, -2.15444139102710513489e-02) (107, 4.28067404278834717779e-01) (108, -6.66925716558582326599e+00) (109, -4.80412272465150103073e+00) (110, 1.89565850094039867191e-01) (111, -6.30838689968865384827e-01) (112, 1.15805647723474167132e-01) (113, -5.62279313775521788488e-02) (114, -8.16009810307828509224e+00) (115, -4.61385990721006589155e+00) (116, -2.04653549959797953495e-01) (117, -1.03020481544163344800e+00) (118, -5.55932350343345427213e-01) (119, 1.13569440234897761632e-01) (120, -8.15518126377669894111e+00) (121, -2.64173621025697569209e+00) (122, 1.10858185302173617437e+00) (123, -2.02865399035720761489e+00) (124, -1.00145498922785725071e+00) (125, -1.02485141178175753751e+00) (126, -2.98529091581468586369e+00) (127, -1.75616150666667469871e+00) (128, 7.85265453992794704163e+00) (129, -3.90585664809675581211e+00) (130, -2.42969311796436260309e+00) (131, -2.22911567495102929115e+01) (132, -1.82155431040963211586e+00) (133, -1.10209708556329544216e+00) (134, 3.09008670711945221399e+01) (135, -1.98903507041977278824e+00) (136, -1.54318721010951853678e+00) (137, -1.79127700558729294755e+01) (138, -1.87766399958571428286e+00) (139, -1.23599861584990611263e+00) (140, 1.01675846350764835790e+01) (141, -1.85343297870476786393e+00) (142, -8.92155800311316693474e-01) (143, 3.71960994319532334274e+00) (144, -1.65216907130748102972e+00) (145, -1.41358379610456119657e+00) (146, 3.20151291315428787598e+00) (147, -1.55054426560849778483e+00) (148, 2.63797514684139602914e-02) (149, 3.14090771046487748919e+00) (150, -1.20072149210276934994e+00) (151, -5.81685265337419110665e+00) (152, -2.00461904503912768938e-01) (153, -1.03322250122815884055e+00) (154, 4.31162795463804038310e-01) (155, 5.64753148069923049945e+00) (156, -7.34094472952445675773e-01) (157, -3.00822910856757230746e+00) (158, 3.36247852429545313058e+00) (159, -1.58308562444989409101e+00) (160, 5.60785206312509276749e-01) (161, 3.64582263032852260665e+00) (162, 1.63772749272532713860e-01) (163, -1.07688709708378804741e+00) (164, 2.41723023840530837347e+00) (165, -4.26666318612426564982e+00) (166, -1.03472717128524882568e+00) (167, 2.03501989153349294170e+00) (168, 3.70616368840023802100e-02) (169, -6.97329793001992825907e-01) (170, 4.00276521048598621366e-01) (171, -4.06555136351120349758e+00) (172, -8.83327165283979809374e-01) (173, -1.03462991724925568171e+00) (174, 1.35691360117856513190e-01) (175, 9.28695488764307575114e-02) (176, 4.74286379893735343671e-01) (177, -1.87402198415169651824e+00) (178, -6.57896546651140501361e-01) (179, -1.16932544578687602765e+00) (180, 1.94435911124414106954e-01) (181, 3.69615189878643390919e-01) (182, 7.40941382604843323811e-01) (183, -1.60468337337486222083e+00) (184, 9.25073966424841825917e-02) (185, -1.65806834348839715609e+00) (186, 2.63882518808588151238e-01) (187, 5.37668036898091505904e-01) (188, 9.55462335170435661524e-01) (189, -1.62414096791876794157e+00) (190, -6.95133609861391277285e-01) (191, -1.96293820070851876558e+00) (192, 2.46917025299461245780e-01) (193, 7.02261472811129272564e-01) (194, 1.31409040240860308657e+00) (195, -1.18908577850638463858e+00) (196, -8.86270587800899289910e-01) (197, -1.09654274134662732543e+00) (198, 4.55123677997291808950e-01) (199, 7.84298504461672485455e-01) (200, 8.90244873191448404803e-01) (201, -6.26831800365841740330e-01) (202, 1.89845115128522146097e-02) (203, 1.49682703870943012436e-01) (204, 4.16216238459615417433e-01) (205, 6.84346603919890106305e-01) (206, 6.07578950693037689312e-01) (207, 1.11514947968890207330e-01) (208, -8.82134790383838976457e-03) (209, 5.57975769279611011342e-01) (210, 4.49761316327751403676e-01) (211, 6.97793031801607788189e-01) (212, 7.86023284067537963971e-01) (213, -2.52456837333020628344e-02) (214, 5.85978894010664996816e-02) (215, 7.31650587019978870806e-01) (216, 4.41578373460472461964e-01) (217, 7.44053060879137695416e-01) (218, 5.07530490537599021650e-01) (219, 1.65400808501610291357e-01) (220, 1.25745654709684961947e-01) (221, 5.68297851679383514423e-01) (222, 3.86422579290063517021e-01) (223, 5.77987479647115165449e-01) (224, 4.23390342911748596144e-01) (225, 1.03495255716192821605e-01) (226, 1.12620947578733934802e-01) (227, 5.88857892749367950458e-01) (228, 3.89145289661080973076e-01) (229, 3.89574906846551605177e-01) (230, 2.03340974749715630576e-01) (231, 2.10913436497971062966e-01) (232, 7.89021975228092337096e-02) (233, 7.85690705050852478131e-01) (234, 2.25455709018441391445e-01) (235, 4.23083438595800109816e-01) (236, 2.33180502549846208060e-01) (237, 2.08058034939662239715e-01) (238, 1.96329224243294964136e-01) (239, 6.84559884240057647808e-01) (240, 1.29718404501393491657e-01) (241, 3.19314029215277295215e-01) (242, 2.96554999354209036788e-01) (243, 3.67227505181091318232e-01) (244, 3.06897363651981225363e-01) (245, 6.27001392414000213726e-01) (246, 2.83830095320656672353e-01) (247, 2.62849238724389200339e-01) (248, 2.65993493662378954756e-01) (249, 2.94130909283151498190e-01) (250, 2.62587218571891545249e-01) (251, 6.82850691248800933941e-01) (252, 2.35222293717050057182e-01) (253, 2.46043850690999127417e-01) (254, 1.35532508142674396057e-01) (255, 4.13189695249899457963e-01) (256, 3.77987216660102154364e-01) (257, 7.44056562652018249615e-01) (258, 4.25488312751927166833e-01) (259, 3.32762260944523713402e-01) (260, 1.32375617075335710870e-01) (261, 2.78666421918571938221e-01) (262, 3.44825916139782417957e-01) (263, 6.24105456044104278668e-01) (264, 4.18999169976391583337e-01) (265, 5.35598495109741001841e-01) (266, 2.54188245112010158255e-01) (267, 3.29072274415196042163e-01) (268, 3.60324442534149635975e-01) (269, 8.00348396171953857525e-01) (270, 4.97783877952758857521e-01) (271, 4.87929180240662840884e-01) (272, 2.46535157084584566345e-01) (273, 3.90662931053341377918e-01) (274, 3.47959809152782906239e-01) (275, 7.08109888007071197613e-01) (276, 5.41801951801808456821e-01) (277, 5.34277587344626159194e-01) (278, 3.69185079843678487510e-01) (279, 3.83396640567482460682e-01) (280, 3.55852872280777443592e-01) (281, 7.58680353631403625592e-01) (282, 6.94986305346468657973e-01) (283, 6.44963926782587737563e-01) (284, 5.72445727860959263644e-01) (285, 3.52276376506356903029e-01) (286, 4.20031956454782195998e-01) (287, 6.76441135575201690777e-01) (288, 7.79939721097376303938e-01) (289, 6.98077711035635650738e-01) (290, 6.81526265254000396254e-01) (291, 7.95403922666933715924e-01) (292, 7.00336823930170715435e-01) (293, 6.44798598011162460431e-01) (294, 6.17735328843023956402e-01) (295, 6.86512592007544220074e-01) (296, 6.18064018656637848004e-01) (297, 7.46756965984728515728e-01) (298, 7.39177564849283652570e-01) (299, 7.01981159617331207379e-01) (300, 4.88825227503555947983e-01) (301, 3.03419519771643053652e-01) (0, -3.12935626134981034752e-02) (1, 8.16694432868850100915e-02) (2, 8.08904552831542361657e-02) (3, 1.14827812378023544349e-01) (4, -1.55451713015949313096e-02) (5, 1.01040758395161411887e-02) (6, 3.76557832298437741847e-02) (7, -1.05006857375498207502e-02) (8, -4.24312787924870302159e-02) (9, -3.86998870328919067352e-02) (10, 9.18905145569785669624e-02) (11, 1.12360016171549267905e-01) (12, -4.85188948784931947666e-02) (13, 1.93709130642142589307e-02) (14, 2.45713552356135678245e-01) (15, -2.13025929037209300898e-02) (16, -7.29789817336675000758e-02) (17, -5.83859615468635337332e-02) (18, -2.08711699504413004946e-02) (19, 3.54770347334709065801e-02) (20, 1.13069237132660302403e-01) (21, -2.34451510048221234417e-01) (22, -2.19400468861337405446e-01) (23, -2.16706943964814435777e-01) (24, 1.53682700936343091813e-01) (25, 2.88917495947323028915e-02) (26, 5.66578137608058529651e-01) (27, -2.46755238528724690772e-01) (28, -3.65849122070302790188e-01) (29, -2.86921237428687914139e-01) (30, 2.10829309810057458074e-01) (31, 2.17123851235671780358e-02) (32, 2.35318338428880918789e-01) (33, -4.68063279910166718523e-01) (34, -5.04102259798128948809e-01) (35, -9.00014767744619970102e-01) (36, 1.55229672541969138805e-02) (37, -1.36885986773480461398e-01) (38, 1.19416885343961901023e-01) (39, -1.06710589312823378449e+00) (40, -1.06207971283109747773e+00) (41, -1.24234680951226850176e+00) (42, -3.79538655776337108261e-01) (43, -4.67433679809866053922e-01) (44, 1.56786500615121560109e-01) (45, -1.09437662440846583678e+00) (46, -1.96288884423422826941e+00) (47, -1.13427555680860092657e+00) (48, -5.59012696296156241793e-01) (49, -4.07956861108720980624e-01) (50, 7.90442819416418973599e-02) (51, -9.15434779733448111827e-01) (52, -1.08455786186764857604e+00) (53, -1.09686313535179169598e+00) (54, -1.59465901083482269884e-01) (55, -2.95661324459323859859e-01) (56, 2.54327676672889024800e-01) (57, -4.48598343937285815031e-01) (58, -6.52088924976095385411e-01) (59, -4.75152854258752088690e-01) (60, -1.21720796420563631690e-01) (61, -2.05641827016516676174e-01) (62, 9.88188419764844505622e-01) (63, -1.71826828847403273448e-01) (64, -2.54850997102720466803e-01) (65, -2.09298055410072902927e-01) (66, 3.49931250164795329405e-02) (67, -2.51525442298122070550e-01) (68, 6.11566996270034635153e-01) (69, -2.33715277914370751777e-02) (70, -3.94383834501050370425e-02) (71, -2.16913974537997794600e-01) (72, 1.12300079698951682516e+00) (73, -3.62282351310409533873e-01) (74, 1.27622373358417764422e+01) (75, 6.25800017061929527568e-03) (76, -3.08225640266796933886e-02) (77, 3.56386340154399711144e-02) (78, 3.39509561265305265243e-02) (79, -1.22700925983747310966e+01) (80, 3.14984432240138545467e+00) (81, 2.90131160303070574635e-02) (82, -1.52018678505645397914e-02) (83, -3.46259324939235738072e-02) (84, -1.11870649615771991514e-01) (85, -6.20346606710418591035e+00) (86, 7.17317453314669783992e-01) (87, 4.97458843768654873641e-02) (88, 2.90099449429957224889e-02) (89, 7.80575213663728829233e-03) (90, 5.16247501090707849869e+00) (91, -3.02890064010640402969e+00) (92, 7.21436175248857614051e-01) (93, -5.07958894801143548414e-02) (94, 6.36183810022704094439e-03) (95, -1.39903554353185133330e-01) (96, 6.26434018472353315587e+00) (97, -1.51823695997154284321e+00) (98, 1.76771141184180624606e+00) (99, 9.14888881721818564285e-02) (100, -1.10467314302424915451e-01) (101, -8.67151026302299815507e-02) (102, 1.35004084004692326282e+00) (103, -3.73992143094503903811e+00) (104, 1.63767846442376785454e+00) (105, 4.83546489287202008178e-01) (106, 1.04300602253890789539e-01) (107, 7.19996936312534807634e-01) (108, 1.63992777936101341574e+00) (109, -1.62262264448870108247e+00) (110, -3.25297037837951774630e-01) (111, 7.18563084684174735450e-01) (112, 8.18220034086821965125e-03) (113, 1.80842517037087602283e+00) (114, 1.78084110466553369179e+00) (115, -3.44624981705574595647e-01) (116, -1.46078782967171139084e+00) (117, 7.44286841700625534379e-01) (118, 4.40776423898857697137e-02) (119, 3.19203088688881830848e+00) (120, 2.07883849669978992836e+00) (121, -2.84280110701417843000e-01) (122, -2.04470645304589604407e+00) (123, 5.54541776404871011863e-01) (124, -3.87677788358864530704e-02) (125, 5.51813890712033128239e-01) (126, 3.60892666629705738401e+00) (127, 6.05335080049275275904e-01) (128, -4.47179141094389276390e+00) (129, 6.45005264410271395015e-01) (130, -9.36938623622551591819e-02) (131, 3.48468617881200382058e+00) (132, 1.94939257471893911955e+00) (133, 1.01403553744333740916e+00) (134, -8.09307075863432956453e+00) (135, 1.39607307640038841301e-01) (136, -3.19843028957223329822e-01) (137, -6.79674232291340807421e+00) (138, 8.97220750156407786946e-01) (139, -2.13764972907316941342e-01) (140, -1.74125063106470818752e+01) (141, -7.89961438520136657870e-03) (142, -9.88619308308057886947e-01) (143, -4.69200884548205010560e+00) (144, 6.11698785424451885184e-01) (145, 2.26946632152888114198e-02) (146, -1.15179562266210133714e+00) (147, -5.29700801355779352791e-03) (148, -7.66438759914612077750e-01) (149, -1.55667592680284161410e+00) (150, 1.04250750224186727877e+00) (151, 3.29399060973814883369e-01) (152, 5.41944014529346596021e-01) (153, 9.84371528559080805065e-02) (154, -1.40921765267285309386e-01) (155, -3.77639471956829098076e+01) (156, 8.44241208183881153282e-01) (157, 2.83324583729717027758e-01) (158, 4.67713707203956718939e-01) (159, 7.24911885496537372608e-02) (160, -8.74442342917517156931e-02) (161, -4.59587412903275591702e+01) (162, 3.61743676349644202594e-02) (163, 1.00117726804282977660e-01) (164, -5.23765488029284964622e-02) (165, 5.50174748697077276027e-01) (166, 1.17794482344697965318e-03) (167, -5.33213396854941645842e+00) (168, 8.82907453514072959599e-03) (169, 1.25621210434360891517e-01) (170, -1.18013827656460665305e-02) (171, 5.93659836527732021061e-01) (172, 2.92607394203842144376e-02) (173, 5.31046905862395419717e+01) (174, -1.88226566401713923948e-01) (175, -1.96614084274285616516e-01) (176, -2.31634454727500632698e-01) (177, 1.16789682516367024356e-01) (178, -6.49655047286709381310e-03) (179, 2.54195971817168064888e+00) (180, -1.55580116038730037475e-02) (181, -1.43339627758272719626e-01) (182, -4.12764784197034231839e-02) (183, -2.31440015496639402148e-02) (184, 2.29124646113173270623e-02) (185, 2.25031605887332064597e+00) (186, 3.03991029569477093364e-02) (187, 2.50373274978977220298e-04) (188, -7.66347028439506444686e-02) (189, 1.13442925327834745475e-01) (190, 5.71165910815301589021e-02) (191, 5.20543511776520251289e-01) (192, 7.52176114717536425935e-01) (193, 5.84449188211970449558e-01) (194, 6.17327016933429173484e-01) (195, -9.54415628311917618731e-02) (196, -1.83437923052216025899e-02) (197, 1.19468920575470458761e-02) (198, -5.21631345393504045060e-02) (199, -9.05082533512624604066e-02) (200, -6.83777722635280083008e-02) (201, 4.00031866685749484813e-02) (202, 2.92173328715348429307e-02) (203, 1.41838620357913253178e-01) (204, -2.69837816606378788631e-01) (205, -6.51084415839832814088e-02) (206, -1.40161110561120794138e-01) (207, 1.26135980051709895022e-01) (208, 6.09388385421077219406e-02) (209, 5.15839682882469841019e-01) (210, -1.48621157153515121019e-01) (211, -1.49242939135217023150e-01) (212, -2.15823134880292616389e-01) (213, 5.56044224134137454740e-01) (214, 8.44000810840026954862e-02) (215, 4.73828161125820823685e-01) (216, -2.83107530667452256257e-01) (217, -1.93823146612164487479e-01) (218, -2.05095266070558196470e-01) (219, 6.41009888621579593249e-01) (220, 6.76823831403878473090e-01) (221, 7.72450842393030634447e-01) (222, -1.97034740249729306560e-01) (223, -4.72609995293898077495e-02) (224, -2.14758699305205830177e-01) (225, 6.04739418907294656869e-01) (226, 6.72011024559167169379e-01) (227, 7.14318000209917536303e-01) (228, -1.80629320024380507492e-01) (229, -1.75883007874869684573e-01) (230, -2.77197221766937174081e-01) (231, 5.32445846779475484567e-01) (232, 6.89044102104913180895e-01) (233, 7.82418074713392197594e-01) (234, -3.11353159851998698149e-02) (235, -1.75101958750326608394e-01) (236, -1.99449292897114577316e-01) (237, 6.06954547474536476592e-01) (238, 5.21933766608476235049e-01) (239, 4.43135785768184020661e-01) (240, -1.60173190465354303713e-01) (241, -8.55951226500731299218e-02) (242, -1.98440270903588844575e-01) (243, 5.16549238876384042563e-01) (244, 3.70582074031718611273e-01) (245, 5.00947460690510881776e-01) (246, 5.51444583052771580833e-02) (247, -2.40612467385159095601e-02) (248, 1.67940729531648701156e-02) (249, 4.23152645458327036909e-01) (250, 3.04381740619288077010e-01) (251, 4.13629296804174595437e-01) (252, -8.90385564665246431737e-02) (253, 1.92551929255080668535e-02) (254, -3.56781639233454267446e-02) (255, 3.99986344691061423973e-01) (256, 2.65407967682623313621e-01) (257, 3.12627598013424323753e-01) (258, 8.03960213293178210803e-02) (259, 3.76418102284026973026e-02) (260, -3.48068606357026522069e-02) (261, -6.65954177758901061379e-02) (262, 4.64406855544181249029e-02) (263, -8.75225619762916851041e-02) (264, -8.20498069892781206613e-02) (265, 2.48844194908690898027e-02) (266, -5.47897834579396669774e-02) (267, 3.72693635663124134272e-02) (268, -9.05060779130182312124e-03) (269, 4.72980081643107411193e-02) (270, 4.75933948387248575984e-02) (271, 4.00740290059935985734e-02) (272, -3.36133893827844087987e-02) (273, -1.00473058954802046960e-01) (274, -2.14972497132988743518e-02) (275, 5.99698587220795064495e-04) (276, 2.64722952474696557323e-02) (277, -3.51542374119867204185e-02) (278, -9.93210207919526522069e-02) (279, -3.88677165892044110262e-02) (280, 9.22864789232762661175e-02) (281, -1.07986821369367991252e-01) (282, 8.96507153143030893760e-02) (283, -9.13046961650956917511e-02) (284, 4.09175390376937467285e-02) (285, -2.42669964305682883676e-02) (286, 5.43910628088193348617e-02) (287, 4.69057574102550115663e-03) (288, 2.68475064863307397167e-02) (289, 3.38513338937651772631e-02) (290, -3.41127719737182623361e-03) (291, -9.48064276901260660768e-02) (292, 6.84672834945418834485e-02) (293, -6.12153547241817835856e-02) (294, -5.79110881458180723480e-02) (295, 8.93453145398985376646e-02) (296, 8.55955565347564090173e-02) (297, 1.36575392938004264859e-02) (298, 4.89754545094457302556e-02) (299, 1.99793515920481225615e-03) (300, 1.14026681005232499722e+00) (301, 8.24590012487389723006e-01) (0, -3.81964357149153221904e-02) (1, -8.58811461877374837659e-02) (2, 3.08989076364488135518e-02) (3, -6.65166359132609991134e-02) (4, -2.48221694213153799835e-02) (5, -8.02332218474231112504e-02) (6, -1.32581144932754885213e-01) (7, -1.23796335563989015616e-01) (8, -6.42432872095188012285e-02) (9, -6.36932011431537575818e-02) (10, 3.35585866385616216068e-02) (11, -6.90485952215461190606e-02) (12, -7.11739452116963156048e-02) (13, -1.48299261731973719414e-01) (14, -1.38534007964017186199e-01) (15, 4.90267018615377254964e-03) (16, 8.38691394916896300858e-04) (17, -1.66581353709910728877e-01) (18, -6.64795915823481603502e-02) (19, -6.04578192855428561692e-02) (20, -9.25737890307142541335e-02) (21, -1.46762429220335787611e-02) (22, -4.92726863642486689887e-02) (23, 3.80787218394218751616e-02) (24, -2.29454878260886875607e-02) (25, -9.54614352667790266871e-02) (26, -7.79796140179384034141e-01) (27, -2.89072082434551902441e-02) (28, -8.24957472830106647299e-02) (29, -4.95701809809534765794e-02) (30, -2.46207400828607134158e-02) (31, -3.47053285076658751818e-02) (32, -1.15842810239629778746e-01) (33, 7.08846054922666723996e-01) (34, 7.47232937554035525629e-01) (35, -2.13730688629323144212e-02) (36, 4.09855544070961752556e-01) (37, -7.83736604721021051789e-02) (38, -1.30093306522087920341e-01) (39, 8.09743665413117041929e-01) (40, 8.57616316781496523802e-01) (41, 6.92170533576339397364e-01) (42, 8.67225051951453163035e-01) (43, 8.97965521645591069344e-01) (44, 5.08523385777705505539e-01) (45, 7.81924555568088819335e-01) (46, 1.19333684108999871221e+00) (47, 7.93520918604071145985e-01) (48, 7.32971202179732772564e-01) (49, 7.66249409125839942014e-01) (50, 9.04308620693700104809e-01) (51, 8.91267935304035474608e-01) (52, 9.24102643994678896178e-01) (53, 6.27163032806893117055e-01) (54, 5.25379130201655608623e-01) (55, 5.73383755215391865967e-01) (56, -4.32667642882911374080e-01) (57, 7.92119005167126077893e-01) (58, 9.13507552289604674023e-01) (59, 4.38362179350442124348e-02) (60, 6.44960554204698888192e-01) (61, 8.63812782305288240359e-01) (62, -8.05026783961559355696e-01) (63, 8.48616472963155121789e-01) (64, 8.60416312437499275489e-01) (65, -2.46083087376526392365e-02) (66, 3.03996800951776446897e-01) (67, 9.70410405701581990634e-01) (68, -4.68881048655705345851e-01) (69, 1.07276036548527325953e-01) (70, 2.80848443151569149290e-01) (71, -2.27211941664499039728e-01) (72, 6.57766978052177653247e-01) (73, 7.64799364762094313619e-01) (74, -6.69267185520839547053e+00) (75, -6.56579434296852056802e-03) (76, 2.09560092794395164129e-01) (77, -1.28008610442847392541e-01) (78, 9.17575190589098865779e-01) (79, 1.20932729755189161125e+00) (80, -1.36042392755708032581e+01) (81, 4.25792552526475076569e-01) (82, 1.66230009219204555304e-01) (83, -1.91386978498223683798e-02) (84, 2.27657877408802722385e+00) (85, 2.07747107050044244048e+00) (86, -5.34558920582475760597e+00) (87, 3.79147574985133073433e-01) (88, 7.47069762939033248789e-03) (89, -1.89911511664919485654e-01) (90, 2.31885380648103733847e+00) (91, 3.09160397466368674912e+00) (92, -1.03026051890028043090e+01) (93, -1.59433377562479272616e-02) (94, 3.95477750891426449442e-02) (95, -1.97501007334291212025e-01) (96, 2.69175974990491617689e+00) (97, 7.90268345887714573905e+00) (98, -2.69753376812937961660e+00) (99, -7.41732906251672541309e-02) (100, -7.23659561393656253214e-02) (101, -5.95649920532733245793e-01) (102, 6.78614958669187551266e+00) (103, 1.24808484977652796033e+01) (104, -2.87627631824822316275e-01) (105, -1.81367092882556341094e-01) (106, -1.84976393835838033575e-02) (107, -3.62519430505668038833e+00) (108, 4.68190157481518465232e+00) (109, 1.15280325612193781382e+01) (110, 8.08030908560767202609e-01) (111, -1.46122071653115498391e-01) (112, -3.67711597910014842405e-02) (113, -7.26322401559799413207e+00) (114, 1.01579106819754594326e+00) (115, 2.45249444618693512865e+00) (116, 9.81470157223419126247e-01) (117, -7.69973639072660587246e-01) (118, 4.17132541856184702045e-02) (119, -6.04985181578761110899e+00) (120, 1.21718504843471975185e+00) (121, 1.99225012465210649104e+00) (122, -4.34064258537175451380e-01) (123, -8.89271131804521830500e-02) (124, 2.35744974057581685445e-01) (125, 3.09102384242946892634e-01) (126, -6.50615744425374953330e-01) (127, 1.03029598989213355686e+00) (128, -9.03278971623818649483e-01) (129, 2.83886487245930629886e-01) (130, 1.20386564948280860854e+00) (131, 6.49325137065905355627e+00) (132, -6.68970372807530022641e-01) (133, 6.51523909147388002872e-01) (134, -7.55672625794695029811e+00) (135, 7.79110181528926193373e-01) (136, 1.44145983319133086376e+00) (137, 1.88555972286700708196e+01) (138, 6.04382999518637224062e-03) (139, 9.59200692457266579360e-01) (140, -9.26535061424089811943e-01) (141, 1.33028589861060786426e+00) (142, 2.02368194426838510225e+00) (143, 5.34221719511317516549e+00) (144, -9.45764702331079454289e-02) (145, 4.69616657744060306268e-01) (146, 1.86017151338678604633e-01) (147, 9.19381472992466197702e-01) (148, 2.60054765005688626189e+00) (149, 7.49427777857907706505e+00) (150, -7.41524538827820323128e-01) (151, 1.04250989601695598363e-01) (152, -1.72593114876101116906e+00) (153, 8.32472353490680938570e-01) (154, 1.03109126753786983777e+00) (155, 8.59217759310260476013e+00) (156, -5.89879720950963526427e-01) (157, 1.15090974628379028033e-01) (158, -1.14199861376532374457e+00) (159, 6.97463071415644231266e-01) (160, 9.86345446591562979854e-01) (161, 1.14766666261510366098e+01) (162, 2.17384034071824189249e-01) (163, 2.89825861293386666251e-01) (164, 1.36399972795585217034e-01) (165, 7.46574965147058566828e-01) (166, 9.60505924806060562560e-01) (167, 5.14443948021463182130e+00) (168, 2.82275053133988096388e-01) (169, 1.52177842332840373984e-01) (170, 1.83992707908497060698e-01) (171, 4.31698363478875468680e-01) (172, 4.40529353177223026439e-01) (173, -1.32432799633411590889e+01) (174, 1.28477408677007132187e-01) (175, 3.02408319939868053261e-01) (176, 1.01904117712133104878e-01) (177, 3.85987851422227967735e-01) (178, 4.80794368746580380591e-01) (179, -1.37405024087786142850e+00) (180, -2.50214408265635596118e-02) (181, 1.98798039305649015818e-01) (182, 1.53042179607585315804e-01) (183, 4.75235438449856439913e-01) (184, 3.96832459695152739432e-01) (185, -6.14093811844661829902e-01) (186, -7.04998041734743174924e-02) (187, 2.24916075124692825538e-02) (188, -3.52310567280975442395e-02) (189, 6.73850719166386169512e-01) (190, 3.17097782328059851764e-01) (191, -5.05573017756883791307e-01) (192, -9.85381050065715635711e-01) (193, -1.23848761977573817994e+00) (194, -4.40110873814359049305e+00) (195, 9.29967866755400107692e-01) (196, 9.22879930714789242785e-01) (197, 3.79479083104807823901e-01) (198, -7.01540357970775914354e-03) (199, 5.60902310168294726545e-02) (200, 6.72712456468957664679e-02) (201, 8.18791704341530063305e-02) (202, 3.44093327113897229363e-01) (203, -1.54351672503065973086e-01) (204, 3.52999712443714114274e-02) (205, -4.78321430369199052102e-02) (206, 3.82697027984168769432e-01) (207, -1.97943682965722345113e-01) (208, -6.39269843140296695205e-02) (209, -1.28634378070459587384e+00) (210, 9.46910002493787372746e-02) (211, 7.99331101493060830476e-02) (212, 3.85043881182490443926e-01) (213, -1.06816454265840493632e-01) (214, -9.20023947925236867951e-02) (215, -1.27446771239826772693e+00) (216, 5.41905341132374526736e-02) (217, 7.39142455696424893752e-02) (218, 5.77666640073782433618e-01) (219, -4.00314788135724353157e-01) (220, -1.73107949817674744430e-01) (221, -1.99820485057625374381e+00) (222, 5.54381025230224963596e-02) (223, 8.36550151699389822613e-03) (224, 6.99217114389664051721e-01) (225, -5.31420939248209545092e-01) (226, -2.24871052216102734755e-01) (227, -3.20065055871652193176e+00) (228, 1.75344089923689050448e-01) (229, 4.62745287060102178378e-02) (230, 6.35714715983309641700e-01) (231, -1.11307322454510226883e+00) (232, -2.96467095950019743356e-01) (233, -2.96666455466828038467e+00) (234, 3.42353555434615486330e-02) (235, -6.69696567462423203443e-02) (236, 2.89595348847082156851e-01) (237, -4.62157695604979934512e-01) (238, -3.38019708179391475955e-01) (239, -3.76183947627820725046e+00) (240, 1.77144319301002689526e-01) (241, 4.73024748790879662197e-02) (242, 2.74178465470629739720e-01) (243, -1.88478160639212993788e-01) (244, -2.94016866156817491262e-01) (245, -2.18100040095865788103e+00) (246, 1.27660930781257536681e-01) (247, -2.62000306061606069719e-02) (248, 2.92728514328424616053e-01) (249, -3.52675125534681443984e-01) (250, -1.97431102796738700000e-01) (251, -1.30054161404791135404e+00) (252, -1.92713015997228315213e-02) (253, 4.09484714786405093467e-02) (254, 7.72683717803822889270e-02) (255, -2.75812420068032804199e-01) (256, -7.90906614994354995041e-02) (257, -4.98393191702836135804e-01) (258, 8.23137302643536933333e-02) (259, 7.13324441974156394503e-03) (260, 1.10727216351620971757e-01) (261, -1.35635015567609179543e-01) (262, -2.00665505682778577690e-01) (263, -1.42462546134346779159e-01) (264, -6.10541562789202393868e-02) (265, -8.37833541231880890576e-02) (266, 1.00909728719621005766e-01) (267, -2.06131643398469482920e-01) (268, -9.36758005512701996675e-02) (269, -6.22323593072404909754e-02) (270, -9.79973033023606582281e-02) (271, -3.89711067033539568238e-02) (272, 2.32689990659994024036e-02) (273, -4.39289095731385526022e-02) (274, -5.19306122944963866050e-02) (275, -6.49904522298439812911e-02) (276, -9.93976835416878617968e-02) (277, -1.01262003861819452344e-01) (278, -7.34529244952917131917e-02) (279, 3.98456404464199581694e-02) (280, -9.43341704147434706451e-02) (281, 7.04083893572958214452e-03) (282, 7.37740018139732972591e-02) (283, -3.32359827388870321396e-02) (284, 1.17531229981527652641e-03) (285, -6.95960735553848158785e-02) (286, 8.85804730455550838608e-03) (287, -2.80817668519530022619e-02) (288, -1.08140544545203276527e-02) (289, -5.60811306193426876814e-04) (290, -1.07449174605761713086e-01) (291, -6.06131858457672201279e-02) (292, -9.69944528569328251466e-02) (293, -8.06044011642084862190e-02) (294, 4.44330059429690685247e-02) (295, -4.69268919479399193584e-02) (296, -4.80657653462439049541e-02) (297, -4.88751469832660392911e-02) (298, -7.15323625785114491915e-02) (299, -1.54425406334996434543e-01) (300, 1.15134699542045093601e+00) (301, 7.42364726338544556050e-01) 
