FANN_FLO_2.1
num_layers=3
learning_rate=0.700000
connection_rate=1.000000
network_type=1
learning_momentum=0.000000
training_algorithm=2
train_error_function=1
train_stop_function=0
cascade_output_change_fraction=0.010000
quickprop_decay=-0.000100
quickprop_mu=1.750000
rprop_increase_factor=1.200000
rprop_decrease_factor=0.500000
rprop_delta_min=0.000000
rprop_delta_max=50.000000
rprop_delta_zero=0.100000
cascade_output_stagnation_epochs=12
cascade_candidate_change_fraction=0.010000
cascade_candidate_stagnation_epochs=12
cascade_max_out_epochs=150
cascade_max_cand_epochs=150
cascade_num_candidate_groups=2
bit_fail_limit=3.49999999999999977796e-01
cascade_candidate_limit=1.00000000000000000000e+03
cascade_weight_multiplier=4.00000000000000022204e-01
cascade_activation_functions_count=10
cascade_activation_functions=3 5 7 8 10 11 14 15 16 17 
cascade_activation_steepnesses_count=4
cascade_activation_steepnesses=2.50000000000000000000e-01 5.00000000000000000000e-01 7.50000000000000000000e-01 1.00000000000000000000e+00 
layer_sizes=301 1 2 
scale_included=0
neurons (num_inputs, activation_function, activation_steepness)=(0, 0, 0.00000000000000000000e+00) (0, 0, 0.00000000000000000000e+00) (0, 0, 0.00000000000000000000e+00) (0, 0, 0.00000000000000000000e+00) (0, 0, 0.00000000000000000000e+00) (0, 0, 0.00000000000000000000e+00) (0, 0, 0.00000000000000000000e+00) (0, 0, 0.00000000000000000000e+00) (0, 0, 0.00000000000000000000e+00) (0, 0, 0.00000000000000000000e+00) (0, 0, 0.00000000000000000000e+00) (0, 0, 0.00000000000000000000e+00) (0, 0, 0.00000000000000000000e+00) (0, 0, 0.00000000000000000000e+00) (0, 0, 0.00000000000000000000e+00) (0, 0, 0.00000000000000000000e+00) (0, 0, 0.00000000000000000000e+00) (0, 0, 0.00000000000000000000e+00) (0, 0, 0.00000000000000000000e+00) (0, 0, 0.00000000000000000000e+00) (0, 0, 0.00000000000000000000e+00) (0, 0, 0.00000000000000000000e+00) (0, 0, 0.00000000000000000000e+00) (0, 0, 0.00000000000000000000e+00) (0, 0, 0.00000000000000000000e+00) (0, 0, 0.00000000000000000000e+00) (0, 0, 0.00000000000000000000e+00) (0, 0, 0.00000000000000000000e+00) (0, 0, 0.00000000000000000000e+00) (0, 0, 0.00000000000000000000e+00) (0, 0, 0.00000000000000000000e+00) (0, 0, 0.00000000000000000000e+00) (0, 0, 0.00000000000000000000e+00) (0, 0, 0.00000000000000000000e+00) (0, 0, 0.00000000000000000000e+00) (0, 0, 0.00000000000000000000e+00) (0, 0, 0.00000000000000000000e+00) (0, 0, 0.00000000000000000000e+00) (0, 0, 0.00000000000000000000e+00) (0, 0, 0.00000000000000000000e+00) (0, 0, 0.00000000000000000000e+00) (0, 0, 0.00000000000000000000e+00) (0, 0, 0.00000000000000000000e+00) (0, 0, 0.00000000000000000000e+00) (0, 0, 0.00000000000000000000e+00) (0, 0, 0.00000000000000000000e+00) (0, 0, 0.00000000000000000000e+00) (0, 0, 0.00000000000000000000e+00) (0, 0, 0.00000000000000000000e+00) (0, 0, 0.00000000000000000000e+00) (0, 0, 0.00000000000000000000e+00) (0, 0, 0.00000000000000000000e+00) (0, 0, 0.00000000000000000000e+00) (0, 0, 0.00000000000000000000e+00) (0, 0, 0.00000000000000000000e+00) (0, 0, 0.00000000000000000000e+00) (0, 0, 0.00000000000000000000e+00) (0, 0, 0.00000000000000000000e+00) (0, 0, 0.00000000000000000000e+00) (0, 0, 0.00000000000000000000e+00) (0, 0, 0.00000000000000000000e+00) (0, 0, 0.00000000000000000000e+00) (0, 0, 0.00000000000000000000e+00) (0, 0, 0.00000000000000000000e+00) (0, 0, 0.00000000000000000000e+00) (0, 0, 0.00000000000000000000e+00) (0, 0, 0.00000000000000000000e+00) (0, 0, 0.00000000000000000000e+00) (0, 0, 0.00000000000000000000e+00) (0, 0, 0.00000000000000000000e+00) (0, 0, 0.00000000000000000000e+00) (0, 0, 0.00000000000000000000e+00) (0, 0, 0.00000000000000000000e+00) (0, 0, 0.00000000000000000000e+00) (0, 0, 0.00000000000000000000e+00) (0, 0, 0.00000000000000000000e+00) (0, 0, 0.00000000000000000000e+00) (0, 0, 0.00000000000000000000e+00) (0, 0, 0.00000000000000000000e+00) (0, 0, 0.00000000000000000000e+00) (0, 0, 0.00000000000000000000e+00) (0, 0, 0.00000000000000000000e+00) (0, 0, 0.00000000000000000000e+00) (0, 0, 0.00000000000000000000e+00) (0, 0, 0.00000000000000000000e+00) (0, 0, 0.00000000000000000000e+00) (0, 0, 0.00000000000000000000e+00) (0, 0, 0.00000000000000000000e+00) (0, 0, 0.00000000000000000000e+00) (0, 0, 0.00000000000000000000e+00) (0, 0, 0.00000000000000000000e+00) (0, 0, 0.00000000000000000000e+00) (0, 0, 0.00000000000000000000e+00) (0, 0, 0.00000000000000000000e+00) (0, 0, 0.00000000000000000000e+00) (0, 0, 0.00000000000000000000e+00) (0, 0, 0.00000000000000000000e+00) (0, 0, 0.00000000000000000000e+00) (0, 0, 0.00000000000000000000e+00) (0, 0, 0.00000000000000000000e+00) (0, 0, 0.00000000000000000000e+00) (0, 0, 0.00000000000000000000e+00) (0, 0, 0.00000000000000000000e+00) (0, 0, 0.00000000000000000000e+00) (0, 0, 0.00000000000000000000e+00) (0, 0, 0.00000000000000000000e+00) (0, 0, 0.00000000000000000000e+00) (0, 0, 0.00000000000000000000e+00) (0, 0, 0.00000000000000000000e+00) (0, 0, 0.00000000000000000000e+00) (0, 0, 0.00000000000000000000e+00) (0, 0, 0.00000000000000000000e+00) (0, 0, 0.00000000000000000000e+00) (0, 0, 0.00000000000000000000e+00) (0, 0, 0.00000000000000000000e+00) (0, 0, 0.00000000000000000000e+00) (0, 0, 0.00000000000000000000e+00) (0, 0, 0.00000000000000000000e+00) (0, 0, 0.00000000000000000000e+00) (0, 0, 0.00000000000000000000e+00) (0, 0, 0.00000000000000000000e+00) (0, 0, 0.00000000000000000000e+00) (0, 0, 0.00000000000000000000e+00) (0, 0, 0.00000000000000000000e+00) (0, 0, 0.00000000000000000000e+00) (0, 0, 0.00000000000000000000e+00) (0, 0, 0.00000000000000000000e+00) (0, 0, 0.00000000000000000000e+00) (0, 0, 0.00000000000000000000e+00) (0, 0, 0.00000000000000000000e+00) (0, 0, 0.00000000000000000000e+00) (0, 0, 0.00000000000000000000e+00) (0, 0, 0.00000000000000000000e+00) (0, 0, 0.00000000000000000000e+00) (0, 0, 0.00000000000000000000e+00) (0, 0, 0.00000000000000000000e+00) (0, 0, 0.00000000000000000000e+00) (0, 0, 0.00000000000000000000e+00) (0, 0, 0.00000000000000000000e+00) (0, 0, 0.00000000000000000000e+00) (0, 0, 0.00000000000000000000e+00) (0, 0, 0.00000000000000000000e+00) (0, 0, 0.00000000000000000000e+00) (0, 0, 0.00000000000000000000e+00) (0, 0, 0.00000000000000000000e+00) (0, 0, 0.00000000000000000000e+00) (0, 0, 0.00000000000000000000e+00) (0, 0, 0.00000000000000000000e+00) (0, 0, 0.00000000000000000000e+00) (0, 0, 0.00000000000000000000e+00) (0, 0, 0.00000000000000000000e+00) (0, 0, 0.00000000000000000000e+00) (0, 0, 0.00000000000000000000e+00) (0, 0, 0.00000000000000000000e+00) (0, 0, 0.00000000000000000000e+00) (0, 0, 0.00000000000000000000e+00) (0, 0, 0.00000000000000000000e+00) (0, 0, 0.00000000000000000000e+00) (0, 0, 0.00000000000000000000e+00) (0, 0, 0.00000000000000000000e+00) (0, 0, 0.00000000000000000000e+00) (0, 0, 0.00000000000000000000e+00) (0, 0, 0.00000000000000000000e+00) (0, 0, 0.00000000000000000000e+00) (0, 0, 0.00000000000000000000e+00) (0, 0, 0.00000000000000000000e+00) (0, 0, 0.00000000000000000000e+00) (0, 0, 0.00000000000000000000e+00) (0, 0, 0.00000000000000000000e+00) (0, 0, 0.00000000000000000000e+00) (0, 0, 0.00000000000000000000e+00) (0, 0, 0.00000000000000000000e+00) (0, 0, 0.00000000000000000000e+00) (0, 0, 0.00000000000000000000e+00) (0, 0, 0.00000000000000000000e+00) (0, 0, 0.00000000000000000000e+00) (0, 0, 0.00000000000000000000e+00) (0, 0, 0.00000000000000000000e+00) (0, 0, 0.00000000000000000000e+00) (0, 0, 0.00000000000000000000e+00) (0, 0, 0.00000000000000000000e+00) (0, 0, 0.00000000000000000000e+00) (0, 0, 0.00000000000000000000e+00) (0, 0, 0.00000000000000000000e+00) (0, 0, 0.00000000000000000000e+00) (0, 0, 0.00000000000000000000e+00) (0, 0, 0.00000000000000000000e+00) (0, 0, 0.00000000000000000000e+00) (0, 0, 0.00000000000000000000e+00) (0, 0, 0.00000000000000000000e+00) (0, 0, 0.00000000000000000000e+00) (0, 0, 0.00000000000000000000e+00) (0, 0, 0.00000000000000000000e+00) (0, 0, 0.00000000000000000000e+00) (0, 0, 0.00000000000000000000e+00) (0, 0, 0.00000000000000000000e+00) (0, 0, 0.00000000000000000000e+00) (0, 0, 0.00000000000000000000e+00) (0, 0, 0.00000000000000000000e+00) (0, 0, 0.00000000000000000000e+00) (0, 0, 0.00000000000000000000e+00) (0, 0, 0.00000000000000000000e+00) (0, 0, 0.00000000000000000000e+00) (0, 0, 0.00000000000000000000e+00) (0, 0, 0.00000000000000000000e+00) (0, 0, 0.00000000000000000000e+00) (0, 0, 0.00000000000000000000e+00) (0, 0, 0.00000000000000000000e+00) (0, 0, 0.00000000000000000000e+00) (0, 0, 0.00000000000000000000e+00) (0, 0, 0.00000000000000000000e+00) (0, 0, 0.00000000000000000000e+00) (0, 0, 0.00000000000000000000e+00) (0, 0, 0.00000000000000000000e+00) (0, 0, 0.00000000000000000000e+00) (0, 0, 0.00000000000000000000e+00) (0, 0, 0.00000000000000000000e+00) (0, 0, 0.00000000000000000000e+00) (0, 0, 0.00000000000000000000e+00) (0, 0, 0.00000000000000000000e+00) (0, 0, 0.00000000000000000000e+00) (0, 0, 0.00000000000000000000e+00) (0, 0, 0.00000000000000000000e+00) (0, 0, 0.00000000000000000000e+00) (0, 0, 0.00000000000000000000e+00) (0, 0, 0.00000000000000000000e+00) (0, 0, 0.00000000000000000000e+00) (0, 0, 0.00000000000000000000e+00) (0, 0, 0.00000000000000000000e+00) (0, 0, 0.00000000000000000000e+00) (0, 0, 0.00000000000000000000e+00) (0, 0, 0.00000000000000000000e+00) (0, 0, 0.00000000000000000000e+00) (0, 0, 0.00000000000000000000e+00) (0, 0, 0.00000000000000000000e+00) (0, 0, 0.00000000000000000000e+00) (0, 0, 0.00000000000000000000e+00) (0, 0, 0.00000000000000000000e+00) (0, 0, 0.00000000000000000000e+00) (0, 0, 0.00000000000000000000e+00) (0, 0, 0.00000000000000000000e+00) (0, 0, 0.00000000000000000000e+00) (0, 0, 0.00000000000000000000e+00) (0, 0, 0.00000000000000000000e+00) (0, 0, 0.00000000000000000000e+00) (0, 0, 0.00000000000000000000e+00) (0, 0, 0.00000000000000000000e+00) (0, 0, 0.00000000000000000000e+00) (0, 0, 0.00000000000000000000e+00) (0, 0, 0.00000000000000000000e+00) (0, 0, 0.00000000000000000000e+00) (0, 0, 0.00000000000000000000e+00) (0, 0, 0.00000000000000000000e+00) (0, 0, 0.00000000000000000000e+00) (0, 0, 0.00000000000000000000e+00) (0, 0, 0.00000000000000000000e+00) (0, 0, 0.00000000000000000000e+00) (0, 0, 0.00000000000000000000e+00) (0, 0, 0.00000000000000000000e+00) (0, 0, 0.00000000000000000000e+00) (0, 0, 0.00000000000000000000e+00) (0, 0, 0.00000000000000000000e+00) (0, 0, 0.00000000000000000000e+00) (0, 0, 0.00000000000000000000e+00) (0, 0, 0.00000000000000000000e+00) (0, 0, 0.00000000000000000000e+00) (0, 0, 0.00000000000000000000e+00) (0, 0, 0.00000000000000000000e+00) (0, 0, 0.00000000000000000000e+00) (0, 0, 0.00000000000000000000e+00) (0, 0, 0.00000000000000000000e+00) (0, 0, 0.00000000000000000000e+00) (0, 0, 0.00000000000000000000e+00) (0, 0, 0.00000000000000000000e+00) (0, 0, 0.00000000000000000000e+00) (0, 0, 0.00000000000000000000e+00) (0, 0, 0.00000000000000000000e+00) (0, 0, 0.00000000000000000000e+00) (0, 0, 0.00000000000000000000e+00) (0, 0, 0.00000000000000000000e+00) (0, 0, 0.00000000000000000000e+00) (0, 0, 0.00000000000000000000e+00) (0, 0, 0.00000000000000000000e+00) (0, 0, 0.00000000000000000000e+00) (0, 0, 0.00000000000000000000e+00) (0, 0, 0.00000000000000000000e+00) (0, 0, 0.00000000000000000000e+00) (0, 0, 0.00000000000000000000e+00) (0, 0, 0.00000000000000000000e+00) (0, 0, 0.00000000000000000000e+00) (0, 0, 0.00000000000000000000e+00) (0, 0, 0.00000000000000000000e+00) (0, 0, 0.00000000000000000000e+00) (0, 0, 0.00000000000000000000e+00) (0, 0, 0.00000000000000000000e+00) (0, 0, 0.00000000000000000000e+00) (0, 0, 0.00000000000000000000e+00) (0, 0, 0.00000000000000000000e+00) (0, 0, 0.00000000000000000000e+00) (0, 0, 0.00000000000000000000e+00) (0, 0, 0.00000000000000000000e+00) (301, 14, 2.50000000000000000000e-01) (302, 5, 5.00000000000000000000e-01) (302, 5, 5.00000000000000000000e-01) 
connections (connected_to_neuron, weight)=(0, 2.64427958005157304200e+00) (1, 1.79876933568206842651e+00) (2, 1.01082362555948312988e+00) (3, 1.16768423789230402221e+00) (4, 1.38455068773377543145e+00) (5, 2.44846230683069965295e+00) (6, 8.96892353729840330345e-01) (7, 1.42528788959475116727e+00) (8, 2.44304855762855233081e+00) (9, 2.33037589066711348096e+00) (10, 2.79128890009752783641e+00) (11, 2.37878327371292286330e+00) (12, 1.82444094335527973172e+00) (13, 1.79740423576908603387e+00) (14, 1.51600154345029336511e+00) (15, 9.38271309371986439452e-01) (16, 1.95438622143534046494e+00) (17, 1.66153876688745860690e+00) (18, 1.93011876045600616614e+00) (19, 2.45829992525094631617e+00) (20, 1.29134199762090484676e+00) (21, 2.81859486542169657142e+00) (22, 2.53553234489363710225e+00) (23, 2.58168395968282959885e+00) (24, 1.46544121957740625106e+00) (25, 1.12662233372258646646e+00) (26, 2.67872114750470169398e+00) (27, 2.09384058650581517114e+00) (28, 2.06327067454618751086e+00) (29, 5.73647308636088260059e-01) (30, 2.08188955048188883978e+00) (31, 2.20907340978799249243e+00) (32, 1.98194462183690567336e+00) (33, 2.13381998948696738339e+00) (34, 2.22329767073774720032e+00) (35, 2.13202435955650937416e+00) (36, 1.73763037917321483405e+00) (37, 2.45586703492863778209e+00) (38, 1.29557795562882316354e+00) (39, 1.19480166357352546314e+00) (40, 1.51978800536779856678e+00) (41, 2.59957069346679414679e+00) (42, 2.68105520007317599251e+00) (43, 2.89064775026972631267e+00) (44, 1.84624460141249757683e+00) (45, 1.23947982354905650304e+00) (46, 3.44889240225255522265e-01) (47, 2.23509592087435304819e+00) (48, 2.17196211818381224035e+00) (49, 1.42598929453933842559e+00) (50, 2.12354654607747272976e+00) (51, 2.42718431236234710724e+00) (52, 1.43436317409439539894e+00) (53, 1.77216945043479845445e+00) (54, 2.25821840863970368929e+00) (55, 1.92836512801015769192e+00) (56, 1.78545691056008570818e+00) (57, 1.94689283403215229740e+00) (58, 1.04878526296845864252e+00) (59, 1.60440132753358954965e+00) (60, 2.18156581235496416227e+00) (61, 2.30161579108295599738e+00) (62, 7.66525672699775451058e-01) (63, 1.08961484423887311479e+00) (64, 1.50963118968189036195e+00) (65, 1.96616625642312503608e+00) (66, 2.74512133857028928219e+00) (67, 3.96569205207117081446e-01) (68, 2.13472819654484258223e+00) (69, 2.68049199015111705435e+00) (70, 1.29951433519985615206e+00) (71, 7.69237068038679194792e-01) (72, 2.70321579939186751318e+00) (73, 5.76404429939360030133e-01) (74, 1.19804196637213067334e+00) (75, 1.36141613578139764051e+00) (76, 1.52121529810920330661e+00) (77, 7.19506139079682305315e-01) (78, 1.40398149141106198812e+00) (79, 2.20208274357739552940e+00) (80, 2.24536727946340874951e+00) (81, 2.78857107685259109076e+00) (82, 2.14922704975361167357e+00) (83, 9.03941048660556578653e-01) (84, 2.09775371768211504886e+00) (85, 1.67191434448681119918e+00) (86, 1.69566219990990152411e+00) (87, 1.46524577170716185925e+00) (88, 2.62950586141434783372e+00) (89, 1.13989258660048098371e+00) (90, 2.56475295075210629747e+00) (91, 1.99396495503829251916e+00) (92, 2.32980612750977034153e+00) (93, 2.84640166434402130946e+00) (94, 2.09910363403588462461e+00) (95, 2.16456301020669927837e+00) (96, 2.86520055437577036983e+00) (97, 2.93720876350987536441e+00) (98, 3.53589330816815250458e+00) (99, 2.36961830090225156198e+00) (100, 1.63369571561318283059e+00) (101, 6.54824474124947597531e-01) (102, 8.58090883831008621740e-01) (103, 2.89317455044826532529e+00) (104, 3.09768282416044193894e+00) (105, 1.54428667058045476779e+00) (106, 1.97177183924957999395e+00) (107, 1.57931697632595602343e+00) (108, 2.14497264680837673723e+00) (109, 2.24080506003000445858e+00) (110, 1.94954906312108389166e+00) (111, 1.81498439623027207901e+00) (112, 2.27090270355360335230e+00) (113, 4.27147240465340161109e+00) (114, 2.31214742971031084195e+00) (115, 1.21406603035865501283e+00) (116, 2.18905054539785526302e+00) (117, 2.51325730898483001852e+00) (118, 1.74676040550328215417e+00) (119, 3.04044501811342460229e+00) (120, 1.24792299495227299033e+00) (121, 1.20001344029848100448e+00) (122, 1.11918869593923453465e+00) (123, 2.12040166475875535568e+00) (124, 2.19766649551733994628e+00) (125, 7.96611149475032398470e+00) (126, 2.00170478755804248649e+00) (127, 1.05173552720085727863e+00) (128, 2.59049875842194854414e-01) (129, 2.07008220886948457462e+00) (130, 2.51858577162799468496e+00) (131, 1.96006377231886119716e+00) (132, 2.43879959518285804876e+00) (133, 2.48088160073215746593e+00) (134, 2.01172315908962184849e+00) (135, 1.16126399403870750326e+00) (136, 1.24045653703149993952e+00) (137, 7.48786275969432479904e-01) (138, 2.40355174562388063109e+00) (139, 2.24286244802414413968e+00) (140, 8.99140938081341878352e-01) (141, 1.56283165344451679957e+00) (142, 2.00080285051863127066e+00) (143, 1.94256511092974504251e+00) (144, 2.07226941582072266002e+00) (145, 2.43864610516982960320e+00) (146, 2.37278880873873809776e+00) (147, 1.33837112999391849577e+00) (148, 2.50143356423526475041e+00) (149, 3.75965436304453515248e+00) (150, 2.35507210743474137971e+00) (151, 2.07975474494617262877e+00) (152, 1.77731448652199253146e+00) (153, 2.51994026456767317157e+00) (154, 2.04272084384732188767e+00) (155, -1.55165913355117557337e+00) (156, 1.84723338476259457686e+00) (157, 2.07141603634411497481e+00) (158, 1.09259615020562006471e+00) (159, 2.43412933346140913926e+00) (160, 2.13006530503813884536e+00) (161, 1.43420214413132907083e+00) (162, 1.62284327584909826570e+00) (163, 2.46899138120233496707e+00) (164, 7.33090947852711005694e-01) (165, 1.56920088156460457718e+00) (166, 3.23468396432235483218e+00) (167, 2.43173221878204248725e+00) (168, 2.26814844528795056533e+00) (169, 2.01765859272880554443e+00) (170, 1.06886726115623487132e+00) (171, 2.46121032154474272957e+00) (172, 3.32155970165834357744e+00) (173, -7.32058636077415614274e-01) (174, 1.75189124157423892214e+00) (175, 1.62558901270058431265e+00) (176, 4.72674340656826064144e-01) (177, 1.40011907478039576702e+00) (178, 2.01519595714290122856e+00) (179, 4.36819467365203162323e-01) (180, 1.72859939257265260437e+00) (181, 1.22867976995405858709e+00) (182, 2.77137756984026616125e-02) (183, 2.45505924141321196785e+00) (184, 2.95116103389505557431e+00) (185, 8.56808064822793591375e-01) (186, 1.25311371008516481140e+00) (187, 1.68444280300156279395e+00) (188, 2.12416360895542144505e+00) (189, 2.18860657131586089363e+00) (190, 1.29965488169413734276e+00) (191, 2.53128952492585401757e+00) (192, 2.46942567784768618466e+00) (193, 1.81737445801238939325e+00) (194, 2.47272715972700263265e+00) (195, 2.26282213403680998454e+00) (196, 2.53182924647991614009e+00) (197, 1.75644056917714341814e+00) (198, 2.01010592172244839659e+00) (199, 1.77118609210174526858e+00) (200, 1.64091373383158001253e+00) (201, 1.01058514180802694327e+00) (202, 1.43705231846968550791e+00) (203, 8.33672939908871368786e-01) (204, 1.88776977760901565340e+00) (205, 2.15048791869903377361e+00) (206, 1.73236734764834143796e+00) (207, 2.14663953697595610848e+00) (208, 2.65326634808218697614e+00) (209, 7.75316428248209343899e-01) (210, 1.10545445600256320162e+00) (211, 1.30969723581752672814e+00) (212, 1.97530343411336128945e+00) (213, 1.26013465763882059889e+00) (214, 2.89519274486525501899e+00) (215, 1.92236857548104689286e+00) (216, 1.50496431806787844820e+00) (217, 1.18609735183628806077e+00) (218, 2.63532940620203648407e+00) (219, 1.06041459696244722011e+00) (220, 2.53561205573562231663e+00) (221, 3.14540676689321063719e+00) (222, 2.77948750490635942967e+00) (223, 1.89885644083172611118e+00) (224, 1.94827608851667077872e+00) (225, 2.31396050267758202068e+00) (226, 1.25977480675260955501e+00) (227, 1.69450634017128898279e+00) (228, 1.63273781903434533902e+00) (229, 2.15080920128576291717e+00) (230, 2.16685742168646955363e+00) (231, 2.28490724332619521419e+00) (232, 2.34774462276778006498e+00) (233, 2.87121142777810600677e+00) (234, 2.66451511931351880946e+00) (235, 1.16038336468307767824e+00) (236, 1.75550385348366955185e+00) (237, 1.98826736666137615650e+00) (238, 2.35085370207566590750e+00) (239, 1.60976259396411647273e+00) (240, 2.25977926564781084195e+00) (241, 2.48695072475634004761e+00) (242, 1.77960701179806335404e+00) (243, 1.08798652449850075108e+00) (244, 2.75660305194073584900e+00) (245, 1.85784023940143461218e+00) (246, 1.89029132438270841554e+00) (247, 1.33182740312365344160e+00) (248, 1.85667789315558273699e+00) (249, 1.52102426663799383810e+00) (250, 1.35066691455717413639e+00) (251, 1.37853058040681197838e+00) (252, 1.56005590272514615968e+00) (253, 1.27172557628068894076e+00) (254, 2.17013222898222979396e+00) (255, 2.49295318563770251785e+00) (256, 2.51327423193306787041e+00) (257, 2.47590855478146032453e+00) (258, 1.11108808827965055421e+00) (259, 1.27762569105539292025e+00) (260, 1.61182101530296084668e+00) (261, 2.49534307146360312402e+00) (262, 2.49143306352944238213e+00) (263, 1.03095036187023914032e+00) (264, 2.37604790044395342008e+00) (265, 2.27291084190075354243e+00) (266, 1.32147937316964747545e+00) (267, 1.31969162530053263360e+00) (268, 1.15044678792443288984e+00) (269, 2.59711698629708065411e+00) (270, 1.99301153429377775339e+00) (271, 2.50170606382716353977e+00) (272, 2.21568907346336851916e+00) (273, 9.59444914821272920591e-01) (274, 2.58621924499006849985e+00) (275, 1.93571488604035391035e+00) (276, 1.91775590189326505808e+00) (277, 1.57452434309352140573e+00) (278, 2.39445420403550768285e+00) (279, 9.60331513855274154778e-01) (280, 2.14432489757843702805e+00) (281, 2.75110762694807631235e+00) (282, 1.49127380845875778803e+00) (283, 2.79957407720912065940e+00) (284, 1.09284136307804380372e+00) (285, 2.87523828023162675294e+00) (286, 2.34256773895371539496e+00) (287, 2.63877415221493460962e+00) (288, 2.51516531011501509596e+00) (289, 2.55575615175593551243e+00) (290, 9.93782749896928163658e-01) (291, 1.34291080706802423705e+00) (292, 2.10254738801208418408e+00) (293, 2.51944762406092426232e+00) (294, 1.46979228728500421752e+00) (295, 1.55011274888846073416e+00) (296, 1.85017977258602250856e+00) (297, 1.80057040923324640502e+00) (298, 1.95005069249359186401e+00) (299, 2.06459329598632734815e+00) (300, -1.13900347032579940532e+00) (0, -6.25869966384372533597e-01) (1, -6.46373666163883031643e-01) (2, -6.67364588812746184487e-01) (3, -7.46851165796805355201e-02) (4, -1.26822744650767260666e-01) (5, -5.47304582653642610057e-02) (6, -5.11874920373242114913e-01) (7, -5.31172044294106582285e-01) (8, -6.94135330614251255810e-01) (9, -1.38785280586969900218e-01) (10, -1.03734917807963386571e-01) (11, -1.65178524763415351950e-01) (12, -6.20272777971428990185e-01) (13, -7.13911847782361053127e-01) (14, -1.66796165923777023332e-01) (15, 3.01636110483937402993e-01) (16, 3.48670014244034487394e-01) (17, 3.63145956844204309544e-01) (18, -5.11704488992825168303e-01) (19, -5.11459364390393411703e-01) (20, -1.29859524503382894878e-01) (21, 4.40024600446786318120e-01) (22, 3.30292886547437658518e-01) (23, 5.04345259122244149452e-01) (24, -5.31852261624132571782e-01) (25, -5.76601411342379965852e-01) (26, -5.09528915435401713596e-02) (27, 4.27774952817921716441e-01) (28, 6.11711439222688113659e-01) (29, 5.92298191518182193249e-01) (30, -5.76247176324892862453e-01) (31, -5.73672373212046005087e-01) (32, -8.64797352964104648620e-01) (33, 4.05136066954060625189e-01) (34, 6.49944533140057956189e-01) (35, 5.50246011943215984630e-01) (36, -5.99172273965896562409e-01) (37, -6.23110075202780167025e-01) (38, -9.48537004847410991637e-01) (39, 1.30694433049296510063e-01) (40, 6.19732244702613677134e-01) (41, 5.80289252228062490957e-01) (42, -5.73564937523791784635e-01) (43, -6.49461189844430020202e-01) (44, -1.20253182097330957312e+00) (45, 4.67909820231068029894e-01) (46, 5.74463099267474630594e-01) (47, 4.89622518545906937337e-01) (48, -6.06374508049489446826e-01) (49, -1.83786888197736120176e+00) (50, -1.92164149309479448391e+00) (51, 4.73587189466380620306e-01) (52, 5.57930657797208406912e-01) (53, 4.77333641407377273769e-01) (54, -7.84258730731861697372e-01) (55, -5.58504639125788138188e+00) (56, -2.60186957557481957082e+00) (57, 6.24491785256286235928e-01) (58, 5.14921727386600580623e-01) (59, 5.13532771525270548274e-01) (60, 2.50708872081752187633e-01) (61, -2.98086429161630572793e+00) (62, -1.73199045166121390338e+00) (63, 6.18062279607352826893e-01) (64, 5.93104026076681112301e-01) (65, 2.50207112601309900057e-01) (66, 2.21523202611676850449e-01) (67, -2.05220157411564496641e+00) (68, -1.60270103656180040730e+00) (69, 4.65817523907704422736e-01) (70, 5.02243827909978568513e-01) (71, 3.98024174332050673097e-01) (72, 3.40261948581756790144e-01) (73, -1.58174195358213642848e+00) (74, -1.55023192458279224226e+00) (75, 4.89878223996443928900e-01) (76, 2.43916118792871589038e-01) (77, 7.44146278335791784564e-03) (78, 2.91481303209202680105e-01) (79, -1.12540310759366590787e+00) (80, -1.48162216537125202009e+00) (81, 5.04129715474983641776e-01) (82, 2.53495572761946341700e-01) (83, 7.10961994515590389732e-02) (84, 3.15569492215054536732e-01) (85, -1.57559060894179081558e+00) (86, -1.48501754396088214705e+00) (87, 4.66327267343372320330e-01) (88, 1.82626078182633350133e-01) (89, -9.06288055911302015133e-01) (90, 3.38515828532513218807e-01) (91, -1.29735392028958163024e+00) (92, -1.66607938550837175740e+00) (93, 1.01702385507078316151e-01) (94, 2.15245042697223804007e-01) (95, -2.02584661070654670212e+00) (96, 3.14769391062763970179e-01) (97, -1.39615158230747393731e+00) (98, -1.09206258450070525789e+00) (99, 3.81719384255686244867e-01) (100, 6.16390613626523142798e-01) (101, -1.32929700487816360166e+00) (102, 2.68050025386150914120e-01) (103, -1.65652763279420189857e-01) (104, -1.27659299571051731981e+00) (105, 1.29733154486070478839e-01) (106, 6.07683950546868745235e-01) (107, -7.90339862276647764361e-01) (108, 2.66939941031273442196e-01) (109, 4.12149828519033201157e-01) (110, 3.49397922842373809260e-02) (111, 1.34716702557026724030e-01) (112, 6.35317931609174157970e-01) (113, 4.42468976346285181034e-01) (114, 5.66671509654745220175e-01) (115, 5.54318587009122065723e-01) (116, 1.95514374609210526967e-02) (117, 6.99049644584816776138e-01) (118, 8.85882418844709307315e-01) (119, 3.19821003555205485291e-01) (120, 6.11568551150530881344e-01) (121, 4.83625983742034082358e-01) (122, -4.19907241393513597227e-01) (123, 7.75321201196030207470e-01) (124, 9.10049047563085355961e-01) (125, 9.53351255346621795361e-01) (126, 5.66988642898768491207e-01) (127, 5.31498951981171252612e-01) (128, -5.28129440942589956087e-01) (129, 5.84959275160924829784e-01) (130, 6.34495842030745715867e-01) (131, -1.51621683175532306898e+00) (132, 5.26465637579170087079e-01) (133, 6.76240814481574137318e-01) (134, 5.31883346478129181989e-02) (135, 5.36341023059114574423e-01) (136, 6.59447542472876291342e-01) (137, -9.29992323506430240698e-01) (138, 5.70084991484854697319e-01) (139, 6.61426612737180841251e-01) (140, 4.61203499551302797954e-01) (141, 4.16690797125036038739e-01) (142, 6.53709933277708099553e-01) (143, -6.83153528200748461074e+00) (144, 6.40324602454874991508e-01) (145, 8.67562422510460895531e-01) (146, 6.51158174045651683137e-01) (147, 3.29514160023945346101e-01) (148, 1.09768656333063607811e+00) (149, 8.79413346395610595607e+00) (150, 5.74056538594288290334e-01) (151, 7.72802265342549032923e-01) (152, 7.22050701859971111318e-01) (153, 4.71743860503971268461e-01) (154, 1.06122603704308082762e+00) (155, 6.55249556460752913267e+00) (156, 5.98731155348343313527e-01) (157, 8.29445323585384697296e-01) (158, 5.99250659767732729577e-01) (159, 5.83761737903892519164e-01) (160, 8.50352119896421232426e-01) (161, 2.33394393039185743532e+00) (162, 5.99017197817538260551e-01) (163, 1.08498256286746808108e+00) (164, 1.03336213478884442196e+00) (165, 4.70033919028825242226e-01) (166, 6.93095021005327494024e-01) (167, 2.18423860603281250192e+00) (168, 5.04913380920861132317e-01) (169, 1.09867506107456036624e+00) (170, 8.76632921070679804743e-01) (171, 5.05717775404427527519e-01) (172, 9.20159717661782061704e-01) (173, 1.83721949177307508627e+00) (174, 5.52520180672381400200e-01) (175, 1.06645243248111554202e+00) (176, 9.45540315900657235559e-01) (177, 5.22124877750847815605e-01) (178, 7.09883800823770227950e-01) (179, 9.28969633233423963681e-01) (180, 6.89711901200336652273e-01) (181, 7.98590818401650137659e-01) (182, 5.93781853927581870778e-01) (183, 6.50786676984603018603e-01) (184, 6.44597845924419821095e-01) (185, 4.88020896967948925038e-01) (186, 6.57766774459115910467e-01) (187, 7.29513583686426825281e-01) (188, 5.01854596205323799651e-01) (189, 4.92102425851936808865e-01) (190, 6.87538492334408002371e-01) (191, 1.72140818861738653656e-01) (192, 6.24390966441860650882e-01) (193, 7.53397522124054086490e-01) (194, 6.12284564856179658321e-01) (195, -6.08023188245051415812e-01) (196, 1.68008905164116956188e-01) (197, -1.30993254972755690524e+00) (198, 1.13161412147989151600e-01) (199, 6.68362967797633711342e-01) (200, 4.14990491101857705836e-01) (201, -6.64947252224427742817e-01) (202, -3.07933499824654344224e-01) (203, -1.36969786939395721248e+00) (204, -8.06894541903510446879e-03) (205, 6.02677382656451987586e-01) (206, 4.78607505288677848032e-01) (207, -2.30490448505399014856e-01) (208, 3.24500532936657870575e-01) (209, -1.35413409220383851306e+00) (210, -4.10954247522252180680e-03) (211, 6.59643821545955244545e-01) (212, 5.27421014421779243975e-01) (213, 4.63622544195686159263e-01) (214, 5.79715464733907226424e-01) (215, -3.05174797593559143927e-01) (216, -7.94552822973107059079e-02) (217, 6.42188861149670775497e-01) (218, 3.96339860539763499947e-01) (219, 5.05482988684372802624e-01) (220, 4.11874885963880721373e-01) (221, 5.66248579465270407418e-01) (222, -4.99847433909394067708e-01) (223, 6.18915329719231022132e-01) (224, -8.31078697239866159840e-01) (225, 1.52137861960503828485e-01) (226, -7.02198821108862336615e-01) (227, 3.93498825453879763625e-01) (228, -1.46360053836607018063e+00) (229, 2.52106430452107121987e-01) (230, -1.38669557228295126095e+00) (231, 1.46124355209613226991e-01) (232, 2.50756977062404573520e-01) (233, 4.60779962565317002809e-01) (234, -1.63814315914415398190e+00) (235, 2.36468292707501137606e-01) (236, -8.99881238975822950188e-01) (237, 3.99567688019455025117e-01) (238, 5.96725922120655116743e-01) (239, 4.68262008508163518616e-01) (240, -7.03385652181846121600e-01) (241, 3.02845313967639917507e-01) (242, -6.99308742318871412458e-01) (243, 3.57737452775185593712e-01) (244, 5.76317886853859318030e-01) (245, 6.29220364402813925331e-01) (246, -8.67468745586615797016e-01) (247, 3.57727548556752039666e-01) (248, -7.43191253957481756665e-01) (249, -1.74810302901492846395e-02) (250, 2.74256523659808737481e-01) (251, 6.05423865646058878554e-01) (252, -9.90087222221245344400e-01) (253, 2.14909797576305738875e-01) (254, -7.44443930758310501439e-01) (255, -2.01404783383718560819e-01) (256, -2.01340609571380696474e-01) (257, -2.04129035101137862318e-01) (258, -7.92464128664317701833e-01) (259, 1.48732938106917067511e-01) (260, 1.45180139642646005571e-01) (261, -1.33266407505384459897e-01) (262, -7.24480946485623111819e-01) (263, -2.13327878137734211483e-01) (264, -1.14523438824051804197e-01) (265, 1.76190353922813208731e-01) (266, 2.43017035931419822514e-01) (267, -4.56370988007221076166e-02) (268, -5.51076987135963203279e-01) (269, -6.88439258311613788699e-01) (270, -5.93804647031157123438e-02) (271, 3.86345239659194872317e-01) (272, 3.50824739941411722910e-01) (273, -4.49788319605470485185e-02) (274, -6.29087553668575272248e-01) (275, -6.71784335125045539705e-01) (276, -6.55383895189147469562e-02) (277, 3.41505363251941584934e-01) (278, 2.68162429481797248698e-01) (279, -1.13180224849569924239e-01) (280, -6.34030714139733997392e-01) (281, -6.42320915565286365556e-01) (282, -1.45032952112807256295e-01) (283, -1.62793316964961576332e-01) (284, 4.03765272080399473253e-01) (285, -1.96253282083857144569e-01) (286, -6.76593811949005363715e-01) (287, -1.93963756008074778014e-01) (288, -1.41663243904767532921e-01) (289, -1.34190190524071661926e-01) (290, -1.83435695790050590226e-01) (291, -5.92927643756995734203e-02) (292, -6.39987143890977383531e-02) (293, -1.79127648772490016826e-01) (294, -7.04362380429842893648e-01) (295, -1.17696379971090392402e-01) (296, -1.67045792293134737205e-01) (297, -9.55316954951415525654e-02) (298, -1.61627268398870566068e-01) (299, -1.86943312456755800222e-01) (300, 1.98201587952189628439e+00) (301, 1.00377904793164120179e+02) (0, 2.40532337293469761219e-01) (1, 4.34062844679200643405e-01) (2, 2.71906839395205546239e-01) (3, 3.99020067021691793308e-01) (4, 2.75450114183770189413e-01) (5, 3.23559518926487821311e-01) (6, 2.63922387791836354776e-01) (7, 2.23517128909270251791e-01) (8, 1.65085399581158059901e-01) (9, 4.29265788361871236667e-01) (10, 3.20890974276410112509e-01) (11, 2.76263911300049791464e-01) (12, 2.08879622385454849498e-01) (13, 3.41960052714300744015e-01) (14, 2.28160114784495521301e-01) (15, 1.85105091528860149497e-01) (16, 1.41207584099481725515e-01) (17, 2.11805031554411077321e-01) (18, 2.79927427635145886775e-01) (19, 2.40815119476391198416e-01) (20, 2.77245066475301948916e-01) (21, 1.96112178496551131657e-01) (22, -4.20703582221227390114e-01) (23, -5.41572054656133672346e-01) (24, 2.46280522675587115744e-01) (25, 2.71534281537485822078e-01) (26, 3.44250864574460080370e-01) (27, 1.32717319063376942845e-01) (28, -3.33612385699096569702e-01) (29, -8.15787295780120991218e-01) (30, 3.20175462992264181494e-01) (31, 4.15851454454962632390e-01) (32, 3.83121277013743211093e-01) (33, 1.81602367968183880942e-01) (34, -2.61471734419956525208e-01) (35, -9.10836803696094432503e-01) (36, 1.59506903533078753243e-01) (37, 2.64956967868068771210e-01) (38, 6.17411011841518475585e-01) (39, 2.55191265210950257725e-01) (40, -1.68616929476313376357e-01) (41, -2.45601540552804198381e-01) (42, 2.79442477309363113136e-01) (43, 2.81301951411368433842e-01) (44, 5.39003654716130098379e-01) (45, -1.24735364038751114779e-01) (46, -3.76791461753590850581e-02) (47, -2.06686047024859181898e-01) (48, 2.59411821827841559962e-01) (49, 9.51903628252927735964e-01) (50, 1.19272570166803659752e+00) (51, -3.12828243211271561641e-01) (52, -1.34041678826210292064e-01) (53, -3.23500591768516199132e-01) (54, 2.97663691723005996437e-01) (55, 1.50564972441930056135e+00) (56, 1.50433053714079845165e+00) (57, 2.42465959611426667974e-01) (58, -2.56929199938283503446e-01) (59, -2.30900641239775744618e-01) (60, 2.39648929863857523825e-01) (61, 1.48927237969178438703e+00) (62, 1.30716271664409378062e+00) (63, 2.39560561285176193413e-01) (64, -1.67807807866486441428e-01) (65, -4.00007567263940683189e-02) (66, 3.11058790547325769715e-01) (67, 6.10799107576443178758e-01) (68, 1.13666587252860629143e+00) (69, 2.58606431924825408419e-01) (70, -1.72425711102561829424e-01) (71, 3.56625343546300044295e-01) (72, 1.35479779107048808884e-01) (73, 5.67827569208103843934e-01) (74, 1.23670656163936221184e+00) (75, -2.09062610671986309763e-01) (76, -1.52777651359479571536e-01) (77, -6.44872856740675570730e-02) (78, 2.94620837599108176263e-01) (79, 4.29318661429679448993e-01) (80, 1.22401973702414190726e+00) (81, -1.25238988778581972205e-01) (82, -3.77196774475038604235e-02) (83, 1.65757932218178472006e-02) (84, 3.10517855839441470067e-01) (85, 4.03957320205366898769e-01) (86, 1.19651949502928411917e+00) (87, 3.13216657220905192460e-01) (88, -1.91839511287357655789e-01) (89, 7.95171100505418282367e-01) (90, 1.39186621563146734060e-01) (91, 4.20185842514641194612e-01) (92, 1.03058896393197740871e+00) (93, 2.25406625897957263449e-01) (94, -1.54497039160475690966e-01) (95, 7.66439589788801889370e-01) (96, 1.83141975554114960767e-01) (97, 2.15307519519945866904e-01) (98, 1.00944910409067101220e+00) (99, 2.04404095036257199558e-01) (100, -1.49142368644363032537e-01) (101, 5.18863315815852210733e-01) (102, 2.20200787812540460520e-01) (103, 2.67703786336786930811e-01) (104, 5.80592747101766448736e-01) (105, -2.99371572119032203219e-01) (106, -2.99894562313980372892e-01) (107, 6.71519296508557461678e-01) (108, 1.92486793653677129567e-01) (109, -4.62337929964626359602e-01) (110, 4.63853166524142324079e-01) (111, -9.23731570019859948850e-01) (112, -9.51710064252270337981e-01) (113, -2.23240121284760617559e-01) (114, -3.13886301282972568494e-01) (115, -1.69805678763694595235e-01) (116, 3.29546073255638782840e-01) (117, -1.00928631679031632906e+00) (118, -1.29324722865417318651e+00) (119, -6.16063307716457786434e-01) (120, 1.93416641159910945857e-01) (121, -1.92196249395113843983e-01) (122, 4.05023536535534134373e-01) (123, -1.13556398274648429059e+00) (124, -3.29908409031509375353e+00) (125, -1.03982250767846173822e+00) (126, -8.97318152540239055703e-01) (127, -9.04533327071633141969e-01) (128, 7.82805173027742440262e-01) (129, -9.76658011931126668337e-01) (130, -1.03838102722112290976e+00) (131, 3.00396660846737351136e+00) (132, -7.77373187689747391360e-01) (133, -1.06628326585231980594e+00) (134, -3.16533791986346291214e-01) (135, -8.91120093643292698893e-01) (136, -1.15330818189994022127e+00) (137, 5.17838857376312500236e+00) (138, -7.60809964508448399734e-01) (139, -1.00445933676120024991e+00) (140, -7.88129800527131996191e-01) (141, -1.05428244544263249871e+00) (142, -1.05453925250249214152e+00) (143, 1.06301323593995196148e+01) (144, -8.26926688038301604955e-01) (145, -9.93116597691149460836e-01) (146, -8.49790711008466925769e-01) (147, -9.40632513075403631220e-01) (148, -1.48061208229526086733e+00) (149, -5.78680583680391658064e-01) (150, -9.06207431804135765674e-01) (151, -1.19221016131820678474e+00) (152, -1.03446469510535399294e+00) (153, -3.74026338515420886388e-01) (154, -1.24691198321749285860e+00) (155, -1.29097628731676330460e+01) (156, -1.89294069620719207503e-01) (157, -1.40596412203813403430e+00) (158, -1.09063969786548220497e+00) (159, -2.27559476189188147899e-01) (160, -1.10430272697523546022e+00) (161, -3.48203088437688279555e+00) (162, -3.28963735147275837534e-01) (163, -3.16220850309705348025e+00) (164, -8.72437075838928932647e-01) (165, -8.75028078758295468909e-01) (166, -9.55293858153391961530e-01) (167, -4.23051866751034622016e-01) (168, -2.21063305093262246759e-01) (169, -1.88288826661808195162e+00) (170, -8.60836879477387184600e-01) (171, -9.04917112185085525944e-01) (172, -1.14904733953214788222e+00) (173, -8.78322648404331607352e-01) (174, -2.03624443777836255931e-01) (175, -1.57424078963304370227e+00) (176, -6.03577574523077031721e-01) (177, -3.41581680262337039622e-01) (178, -1.11612994999366788029e+00) (179, -7.52319914830302360897e-01) (180, -3.37708208623712757834e-01) (181, -1.12793236338081404035e+00) (182, -3.26166279575905160293e-01) (183, -2.21860918332118656204e-01) (184, -1.18506798349066699849e+00) (185, -2.48457221555332202767e-01) (186, -2.99004799459609671430e-01) (187, -9.58720062415155394042e-01) (188, -1.29073574382042893793e-01) (189, 1.64970377308596122257e-01) (190, -1.02574066610227809804e+00) (191, 5.58274833028265304868e-01) (192, -1.69297963828669739694e-01) (193, -9.97072587497112583499e-01) (194, -3.04302763234567952289e-01) (195, 2.77196388029711471290e-01) (196, -3.04300888546301884219e-01) (197, 4.83810508238819103610e-01) (198, 3.04602672412056629803e-01) (199, -1.54471338617792525172e-01) (200, -2.55551412452113997642e-02) (201, 2.92706960470749399938e-01) (202, 1.80356109341799214496e-01) (203, 5.15465412293409919187e-01) (204, 1.93361801161427288021e-01) (205, -1.49377316741448412651e-01) (206, 2.56291084579663042131e-01) (207, 2.67847179903549670321e-01) (208, 1.51699043347401058002e-01) (209, 6.01111599303333354882e-01) (210, 3.10887603626096020726e-01) (211, -3.05570907702926164440e-01) (212, 9.00989485280398877398e-02) (213, 3.07540721728367327792e-01) (214, 2.84659702300806505271e-01) (215, 3.87847525072192556017e-01) (216, 4.21254506871545308933e-01) (217, -1.30260033433321181784e-01) (218, 1.11083618363899044867e-01) (219, 3.06902583825551245056e-01) (220, -2.89696823775155487546e-01) (221, 2.21696278184596334837e-01) (222, 3.28857122526013623265e-01) (223, -1.38622842541221452661e-01) (224, 3.40191152521783890528e-01) (225, -1.90349524958754928727e-01) (226, 7.47458087173244023482e-01) (227, -9.08527831569305860393e-02) (228, 3.89851983862059880970e-01) (229, -2.36283796652027561214e-01) (230, 3.09929115297953416963e-01) (231, 3.06988906138287553915e-01) (232, -3.49945336080267899170e-03) (233, -2.60475489635707935232e-01) (234, 2.50400182085173950153e-01) (235, -2.38542678333940272317e-01) (236, 2.34426045310860808879e-01) (237, 1.98587994992514088599e-01) (238, -1.50439705557800812441e-01) (239, -3.29636010503256415838e-01) (240, 1.89429493678772348231e-01) (241, -2.51570150666576675125e-01) (242, 2.34972284981431356332e-01) (243, 3.33924372746605691020e-01) (244, -3.18037443297202626624e-01) (245, -3.41210174692138656916e-01) (246, 4.24640070872443486927e-01) (247, -3.17436683290761467724e-01) (248, 3.77368881140445422417e-01) (249, 2.87199725463051502850e-01) (250, 3.39804308133201837805e-01) (251, 1.64708254777913537525e-01) (252, 2.83532846944468897021e-01) (253, -2.16702391748972350571e-01) (254, 1.55184138998160719991e-01) (255, 2.12722342830568761363e-01) (256, 1.51347561840249916765e-01) (257, 2.68511772412321159109e-01) (258, 2.74815814627373256052e-01) (259, 3.03561884247915969581e-01) (260, -3.27858027336462409806e-01) (261, 2.79486883800894259089e-01) (262, 2.44650314316702505169e-01) (263, 1.70665362494068301169e-01) (264, 3.39148217869961077220e-01) (265, -2.17744319049407636379e-01) (266, -2.43374354167524703518e-01) (267, 1.71121884160386011908e-01) (268, 3.08917741045904858943e-01) (269, 2.43359314963770473339e-01) (270, 1.92985268367493106867e-01) (271, -1.25459118095924082592e-01) (272, -1.76577102531768975746e-01) (273, 2.51696679764138231405e-01) (274, 3.35235575271808916575e-01) (275, 3.41846043930006615597e-01) (276, 2.43679555190765756434e-01) (277, -1.58106414882232232388e-01) (278, -3.24943227848696114535e-01) (279, 2.50456232600556327750e-01) (280, 2.55863616300785579050e-01) (281, 3.56102282239162737376e-01) (282, 2.72792236937248744333e-01) (283, 2.84549767837477429744e-01) (284, -2.29919342547161092982e-01) (285, 2.98924338095532426962e-01) (286, 3.63883268111096502828e-01) (287, 2.39389520507723302378e-01) (288, 2.20845339877569629694e-01) (289, 2.69864635599815883005e-01) (290, 1.99145792738152277446e-01) (291, 3.01153032646023999241e-01) (292, 2.77669007495486619419e-01) (293, 3.68556699321114789036e-01) (294, 3.25284077391469250706e-01) (295, 1.67157773297697515025e-01) (296, 1.69475559514433354869e-01) (297, 4.20105016395890706882e-01) (298, 2.58433705732667384769e-01) (299, 4.11898037955605977878e-01) (300, 7.49740956726750229500e-01) (301, -3.24596348071247078337e+01) 
