FANN_FLO_2.1
num_layers=5
learning_rate=0.700000
connection_rate=1.000000
network_type=1
learning_momentum=0.000000
training_algorithm=2
train_error_function=1
train_stop_function=0
cascade_output_change_fraction=0.010000
quickprop_decay=-0.000100
quickprop_mu=1.750000
rprop_increase_factor=1.200000
rprop_decrease_factor=0.500000
rprop_delta_min=0.000000
rprop_delta_max=50.000000
rprop_delta_zero=0.100000
cascade_output_stagnation_epochs=12
cascade_candidate_change_fraction=0.010000
cascade_candidate_stagnation_epochs=12
cascade_max_out_epochs=150
cascade_max_cand_epochs=150
cascade_num_candidate_groups=2
bit_fail_limit=3.49999999999999977796e-01
cascade_candidate_limit=1.00000000000000000000e+03
cascade_weight_multiplier=4.00000000000000022204e-01
cascade_activation_functions_count=10
cascade_activation_functions=3 5 7 8 10 11 14 15 16 17 
cascade_activation_steepnesses_count=4
cascade_activation_steepnesses=2.50000000000000000000e-01 5.00000000000000000000e-01 7.50000000000000000000e-01 1.00000000000000000000e+00 
layer_sizes=301 1 1 1 4 
scale_included=0
neurons (num_inputs, activation_function, activation_steepness)=(0, 0, 0.00000000000000000000e+00) (0, 0, 0.00000000000000000000e+00) (0, 0, 0.00000000000000000000e+00) (0, 0, 0.00000000000000000000e+00) (0, 0, 0.00000000000000000000e+00) (0, 0, 0.00000000000000000000e+00) (0, 0, 0.00000000000000000000e+00) (0, 0, 0.00000000000000000000e+00) (0, 0, 0.00000000000000000000e+00) (0, 0, 0.00000000000000000000e+00) (0, 0, 0.00000000000000000000e+00) (0, 0, 0.00000000000000000000e+00) (0, 0, 0.00000000000000000000e+00) (0, 0, 0.00000000000000000000e+00) (0, 0, 0.00000000000000000000e+00) (0, 0, 0.00000000000000000000e+00) (0, 0, 0.00000000000000000000e+00) (0, 0, 0.00000000000000000000e+00) (0, 0, 0.00000000000000000000e+00) (0, 0, 0.00000000000000000000e+00) (0, 0, 0.00000000000000000000e+00) (0, 0, 0.00000000000000000000e+00) (0, 0, 0.00000000000000000000e+00) (0, 0, 0.00000000000000000000e+00) (0, 0, 0.00000000000000000000e+00) (0, 0, 0.00000000000000000000e+00) (0, 0, 0.00000000000000000000e+00) (0, 0, 0.00000000000000000000e+00) (0, 0, 0.00000000000000000000e+00) (0, 0, 0.00000000000000000000e+00) (0, 0, 0.00000000000000000000e+00) (0, 0, 0.00000000000000000000e+00) (0, 0, 0.00000000000000000000e+00) (0, 0, 0.00000000000000000000e+00) (0, 0, 0.00000000000000000000e+00) (0, 0, 0.00000000000000000000e+00) (0, 0, 0.00000000000000000000e+00) (0, 0, 0.00000000000000000000e+00) (0, 0, 0.00000000000000000000e+00) (0, 0, 0.00000000000000000000e+00) (0, 0, 0.00000000000000000000e+00) (0, 0, 0.00000000000000000000e+00) (0, 0, 0.00000000000000000000e+00) (0, 0, 0.00000000000000000000e+00) (0, 0, 0.00000000000000000000e+00) (0, 0, 0.00000000000000000000e+00) (0, 0, 0.00000000000000000000e+00) (0, 0, 0.00000000000000000000e+00) (0, 0, 0.00000000000000000000e+00) (0, 0, 0.00000000000000000000e+00) (0, 0, 0.00000000000000000000e+00) (0, 0, 0.00000000000000000000e+00) (0, 0, 0.00000000000000000000e+00) (0, 0, 0.00000000000000000000e+00) (0, 0, 0.00000000000000000000e+00) (0, 0, 0.00000000000000000000e+00) (0, 0, 0.00000000000000000000e+00) (0, 0, 0.00000000000000000000e+00) (0, 0, 0.00000000000000000000e+00) (0, 0, 0.00000000000000000000e+00) (0, 0, 0.00000000000000000000e+00) (0, 0, 0.00000000000000000000e+00) (0, 0, 0.00000000000000000000e+00) (0, 0, 0.00000000000000000000e+00) (0, 0, 0.00000000000000000000e+00) (0, 0, 0.00000000000000000000e+00) (0, 0, 0.00000000000000000000e+00) (0, 0, 0.00000000000000000000e+00) (0, 0, 0.00000000000000000000e+00) (0, 0, 0.00000000000000000000e+00) (0, 0, 0.00000000000000000000e+00) (0, 0, 0.00000000000000000000e+00) (0, 0, 0.00000000000000000000e+00) (0, 0, 0.00000000000000000000e+00) (0, 0, 0.00000000000000000000e+00) (0, 0, 0.00000000000000000000e+00) (0, 0, 0.00000000000000000000e+00) (0, 0, 0.00000000000000000000e+00) (0, 0, 0.00000000000000000000e+00) (0, 0, 0.00000000000000000000e+00) (0, 0, 0.00000000000000000000e+00) (0, 0, 0.00000000000000000000e+00) (0, 0, 0.00000000000000000000e+00) (0, 0, 0.00000000000000000000e+00) (0, 0, 0.00000000000000000000e+00) (0, 0, 0.00000000000000000000e+00) (0, 0, 0.00000000000000000000e+00) (0, 0, 0.00000000000000000000e+00) (0, 0, 0.00000000000000000000e+00) (0, 0, 0.00000000000000000000e+00) (0, 0, 0.00000000000000000000e+00) (0, 0, 0.00000000000000000000e+00) (0, 0, 0.00000000000000000000e+00) (0, 0, 0.00000000000000000000e+00) (0, 0, 0.00000000000000000000e+00) (0, 0, 0.00000000000000000000e+00) (0, 0, 0.00000000000000000000e+00) (0, 0, 0.00000000000000000000e+00) (0, 0, 0.00000000000000000000e+00) (0, 0, 0.00000000000000000000e+00) (0, 0, 0.00000000000000000000e+00) (0, 0, 0.00000000000000000000e+00) (0, 0, 0.00000000000000000000e+00) (0, 0, 0.00000000000000000000e+00) (0, 0, 0.00000000000000000000e+00) (0, 0, 0.00000000000000000000e+00) (0, 0, 0.00000000000000000000e+00) (0, 0, 0.00000000000000000000e+00) (0, 0, 0.00000000000000000000e+00) (0, 0, 0.00000000000000000000e+00) (0, 0, 0.00000000000000000000e+00) (0, 0, 0.00000000000000000000e+00) (0, 0, 0.00000000000000000000e+00) (0, 0, 0.00000000000000000000e+00) (0, 0, 0.00000000000000000000e+00) (0, 0, 0.00000000000000000000e+00) (0, 0, 0.00000000000000000000e+00) (0, 0, 0.00000000000000000000e+00) (0, 0, 0.00000000000000000000e+00) (0, 0, 0.00000000000000000000e+00) (0, 0, 0.00000000000000000000e+00) (0, 0, 0.00000000000000000000e+00) (0, 0, 0.00000000000000000000e+00) (0, 0, 0.00000000000000000000e+00) (0, 0, 0.00000000000000000000e+00) (0, 0, 0.00000000000000000000e+00) (0, 0, 0.00000000000000000000e+00) (0, 0, 0.00000000000000000000e+00) (0, 0, 0.00000000000000000000e+00) (0, 0, 0.00000000000000000000e+00) (0, 0, 0.00000000000000000000e+00) (0, 0, 0.00000000000000000000e+00) (0, 0, 0.00000000000000000000e+00) (0, 0, 0.00000000000000000000e+00) (0, 0, 0.00000000000000000000e+00) (0, 0, 0.00000000000000000000e+00) (0, 0, 0.00000000000000000000e+00) (0, 0, 0.00000000000000000000e+00) (0, 0, 0.00000000000000000000e+00) (0, 0, 0.00000000000000000000e+00) (0, 0, 0.00000000000000000000e+00) (0, 0, 0.00000000000000000000e+00) (0, 0, 0.00000000000000000000e+00) (0, 0, 0.00000000000000000000e+00) (0, 0, 0.00000000000000000000e+00) (0, 0, 0.00000000000000000000e+00) (0, 0, 0.00000000000000000000e+00) (0, 0, 0.00000000000000000000e+00) (0, 0, 0.00000000000000000000e+00) (0, 0, 0.00000000000000000000e+00) (0, 0, 0.00000000000000000000e+00) (0, 0, 0.00000000000000000000e+00) (0, 0, 0.00000000000000000000e+00) (0, 0, 0.00000000000000000000e+00) (0, 0, 0.00000000000000000000e+00) (0, 0, 0.00000000000000000000e+00) (0, 0, 0.00000000000000000000e+00) (0, 0, 0.00000000000000000000e+00) (0, 0, 0.00000000000000000000e+00) (0, 0, 0.00000000000000000000e+00) (0, 0, 0.00000000000000000000e+00) (0, 0, 0.00000000000000000000e+00) (0, 0, 0.00000000000000000000e+00) (0, 0, 0.00000000000000000000e+00) (0, 0, 0.00000000000000000000e+00) (0, 0, 0.00000000000000000000e+00) (0, 0, 0.00000000000000000000e+00) (0, 0, 0.00000000000000000000e+00) (0, 0, 0.00000000000000000000e+00) (0, 0, 0.00000000000000000000e+00) (0, 0, 0.00000000000000000000e+00) (0, 0, 0.00000000000000000000e+00) (0, 0, 0.00000000000000000000e+00) (0, 0, 0.00000000000000000000e+00) (0, 0, 0.00000000000000000000e+00) (0, 0, 0.00000000000000000000e+00) (0, 0, 0.00000000000000000000e+00) (0, 0, 0.00000000000000000000e+00) (0, 0, 0.00000000000000000000e+00) (0, 0, 0.00000000000000000000e+00) (0, 0, 0.00000000000000000000e+00) (0, 0, 0.00000000000000000000e+00) (0, 0, 0.00000000000000000000e+00) (0, 0, 0.00000000000000000000e+00) (0, 0, 0.00000000000000000000e+00) (0, 0, 0.00000000000000000000e+00) (0, 0, 0.00000000000000000000e+00) (0, 0, 0.00000000000000000000e+00) (0, 0, 0.00000000000000000000e+00) (0, 0, 0.00000000000000000000e+00) (0, 0, 0.00000000000000000000e+00) (0, 0, 0.00000000000000000000e+00) (0, 0, 0.00000000000000000000e+00) (0, 0, 0.00000000000000000000e+00) (0, 0, 0.00000000000000000000e+00) (0, 0, 0.00000000000000000000e+00) (0, 0, 0.00000000000000000000e+00) (0, 0, 0.00000000000000000000e+00) (0, 0, 0.00000000000000000000e+00) (0, 0, 0.00000000000000000000e+00) (0, 0, 0.00000000000000000000e+00) (0, 0, 0.00000000000000000000e+00) (0, 0, 0.00000000000000000000e+00) (0, 0, 0.00000000000000000000e+00) (0, 0, 0.00000000000000000000e+00) (0, 0, 0.00000000000000000000e+00) (0, 0, 0.00000000000000000000e+00) (0, 0, 0.00000000000000000000e+00) (0, 0, 0.00000000000000000000e+00) (0, 0, 0.00000000000000000000e+00) (0, 0, 0.00000000000000000000e+00) (0, 0, 0.00000000000000000000e+00) (0, 0, 0.00000000000000000000e+00) (0, 0, 0.00000000000000000000e+00) (0, 0, 0.00000000000000000000e+00) (0, 0, 0.00000000000000000000e+00) (0, 0, 0.00000000000000000000e+00) (0, 0, 0.00000000000000000000e+00) (0, 0, 0.00000000000000000000e+00) (0, 0, 0.00000000000000000000e+00) (0, 0, 0.00000000000000000000e+00) (0, 0, 0.00000000000000000000e+00) (0, 0, 0.00000000000000000000e+00) (0, 0, 0.00000000000000000000e+00) (0, 0, 0.00000000000000000000e+00) (0, 0, 0.00000000000000000000e+00) (0, 0, 0.00000000000000000000e+00) (0, 0, 0.00000000000000000000e+00) (0, 0, 0.00000000000000000000e+00) (0, 0, 0.00000000000000000000e+00) (0, 0, 0.00000000000000000000e+00) (0, 0, 0.00000000000000000000e+00) (0, 0, 0.00000000000000000000e+00) (0, 0, 0.00000000000000000000e+00) (0, 0, 0.00000000000000000000e+00) (0, 0, 0.00000000000000000000e+00) (0, 0, 0.00000000000000000000e+00) (0, 0, 0.00000000000000000000e+00) (0, 0, 0.00000000000000000000e+00) (0, 0, 0.00000000000000000000e+00) (0, 0, 0.00000000000000000000e+00) (0, 0, 0.00000000000000000000e+00) (0, 0, 0.00000000000000000000e+00) (0, 0, 0.00000000000000000000e+00) (0, 0, 0.00000000000000000000e+00) (0, 0, 0.00000000000000000000e+00) (0, 0, 0.00000000000000000000e+00) (0, 0, 0.00000000000000000000e+00) (0, 0, 0.00000000000000000000e+00) (0, 0, 0.00000000000000000000e+00) (0, 0, 0.00000000000000000000e+00) (0, 0, 0.00000000000000000000e+00) (0, 0, 0.00000000000000000000e+00) (0, 0, 0.00000000000000000000e+00) (0, 0, 0.00000000000000000000e+00) (0, 0, 0.00000000000000000000e+00) (0, 0, 0.00000000000000000000e+00) (0, 0, 0.00000000000000000000e+00) (0, 0, 0.00000000000000000000e+00) (0, 0, 0.00000000000000000000e+00) (0, 0, 0.00000000000000000000e+00) (0, 0, 0.00000000000000000000e+00) (0, 0, 0.00000000000000000000e+00) (0, 0, 0.00000000000000000000e+00) (0, 0, 0.00000000000000000000e+00) (0, 0, 0.00000000000000000000e+00) (0, 0, 0.00000000000000000000e+00) (0, 0, 0.00000000000000000000e+00) (0, 0, 0.00000000000000000000e+00) (0, 0, 0.00000000000000000000e+00) (0, 0, 0.00000000000000000000e+00) (0, 0, 0.00000000000000000000e+00) (0, 0, 0.00000000000000000000e+00) (0, 0, 0.00000000000000000000e+00) (0, 0, 0.00000000000000000000e+00) (0, 0, 0.00000000000000000000e+00) (0, 0, 0.00000000000000000000e+00) (0, 0, 0.00000000000000000000e+00) (0, 0, 0.00000000000000000000e+00) (0, 0, 0.00000000000000000000e+00) (0, 0, 0.00000000000000000000e+00) (0, 0, 0.00000000000000000000e+00) (0, 0, 0.00000000000000000000e+00) (0, 0, 0.00000000000000000000e+00) (0, 0, 0.00000000000000000000e+00) (0, 0, 0.00000000000000000000e+00) (0, 0, 0.00000000000000000000e+00) (0, 0, 0.00000000000000000000e+00) (0, 0, 0.00000000000000000000e+00) (0, 0, 0.00000000000000000000e+00) (0, 0, 0.00000000000000000000e+00) (0, 0, 0.00000000000000000000e+00) (0, 0, 0.00000000000000000000e+00) (0, 0, 0.00000000000000000000e+00) (0, 0, 0.00000000000000000000e+00) (0, 0, 0.00000000000000000000e+00) (0, 0, 0.00000000000000000000e+00) (0, 0, 0.00000000000000000000e+00) (0, 0, 0.00000000000000000000e+00) (0, 0, 0.00000000000000000000e+00) (0, 0, 0.00000000000000000000e+00) (301, 15, 2.50000000000000000000e-01) (302, 15, 2.50000000000000000000e-01) (303, 15, 1.00000000000000000000e+00) (304, 5, 5.00000000000000000000e-01) (304, 5, 5.00000000000000000000e-01) (304, 5, 5.00000000000000000000e-01) (304, 5, 5.00000000000000000000e-01) 
connections (connected_to_neuron, weight)=(0, 9.11289528992220376757e-01) (1, 1.94574635844272059160e+00) (2, 1.01509236912768785466e+00) (3, 2.19548273790295539465e-01) (4, 6.81069131899292745658e-01) (5, 1.86284608012207897332e+00) (6, 1.19339810829031534034e+00) (7, 4.39075668858171230813e-01) (8, 1.00897412519323914637e+00) (9, 9.15391651201554301664e-01) (10, 8.05366591599031900195e-01) (11, 1.91542240666088225964e+00) (12, 1.84158000119885323365e+00) (13, 9.06241855951581243289e-01) (14, 2.13828491448738544634e+00) (15, 4.10013114767013298056e-01) (16, 1.34398550916739023542e+00) (17, 7.44786003988983980051e-01) (18, 6.51643253623389262508e-01) (19, 9.99410261017356860158e-01) (20, 1.68140733388127006087e+00) (21, 7.90429778368517577114e-01) (22, 1.50293534010986129523e+00) (23, 7.80552286292079622321e-01) (24, 1.84665099145476108156e+00) (25, 1.71819528797477172333e+00) (26, 2.32157780321535694990e-01) (27, 1.97158687914349917136e+00) (28, 1.57628940756604074558e+00) (29, 1.97625666464307192527e+00) (30, 3.97578421846072393997e-01) (31, 3.24573695926870575690e-01) (32, 1.72488234160789644100e+00) (33, 1.26135952904590564749e+00) (34, 5.15777911791584497969e-01) (35, 3.78695186028263630629e-01) (36, 1.07056407662420172144e+00) (37, 1.51539204372084390648e+00) (38, 6.23986759316088601679e-01) (39, 1.93499049360674590936e+00) (40, 4.26910150591530201947e-01) (41, 1.40025800074078965451e+00) (42, 1.77648419063253237837e+00) (43, 1.85461183256155193178e+00) (44, -8.40376951670072924738e-02) (45, 1.69418275339374213573e+00) (46, 4.57631022349582250452e-01) (47, 1.66347959797050282127e+00) (48, 4.37686318425105247432e-01) (49, -2.06370850659597399046e-01) (50, -6.75213881395542392383e-01) (51, 1.91762403480947996037e+00) (52, 1.84817313901014590449e+00) (53, 1.95361825042794934326e+00) (54, 8.42798654185473838929e-01) (55, 6.94029622971175874646e-01) (56, 7.82361679970382639659e-01) (57, 8.40735308530633829172e-01) (58, 1.49733648696545862400e+00) (59, 1.24716209740269690087e+00) (60, 9.58488595610633820066e-01) (61, 1.63159570428712608070e+00) (62, 2.20329707979651434613e+00) (63, 4.81622694179211829901e-01) (64, 9.10007103097235758860e-01) (65, 1.94663128893287429300e+00) (66, 9.72530198464515494017e-01) (67, 2.56861147538266232360e+00) (68, 2.35531487760364255379e+00) (69, 1.51576882531688816869e+00) (70, 1.52290415538607226686e+00) (71, 1.65801195626038166964e+00) (72, 8.80470060775263241304e-01) (73, 2.14526589813418988584e+00) (74, 2.67834431858892951794e+00) (75, 6.70412696097565152797e-01) (76, 5.12804423954431154442e-01) (77, 1.81865998348037893884e+00) (78, 2.25539885812403362308e+00) (79, 1.75446127410222429965e+00) (80, 1.56236944568327218441e+00) (81, 8.77902222690716688147e-02) (82, 5.03885201085342071536e-01) (83, 2.98728171095703209925e-02) (84, 1.90709777691199966476e+00) (85, 1.20991013182119955260e+00) (86, 1.47070390246507631815e+00) (87, 1.03299450035861473118e+00) (88, -2.44123721559151504734e-02) (89, -6.05220409860072972030e-01) (90, 2.04043569808827207623e+00) (91, 4.17981403409686202988e-01) (92, 1.88354308902687650473e+00) (93, 1.21088261259542728787e+00) (94, 2.73979341031987178035e-01) (95, 3.72280650116207756373e-01) (96, 8.87046185125866304411e-01) (97, 1.32923503631084871657e+00) (98, 1.91800866891722487928e+00) (99, 1.64788288333382704209e+00) (100, 4.81146804945207395843e-01) (101, 1.11336654382805688712e+00) (102, 1.05741121698643425475e+00) (103, -1.61790428638535299655e+00) (104, 1.14297155068743960804e+00) (105, 2.97949684650670287844e-01) (106, -7.86511857579970441456e-01) (107, -2.82884085167831145213e+00) (108, 1.25935403536846929340e-01) (109, 1.08331198465743394621e+00) (110, 4.81671778511438719583e-01) (111, 5.64393148312030690228e-01) (112, 7.12545962954197475980e-01) (113, 1.59509399294966369709e+00) (114, 1.17329373281368454229e+00) (115, 9.77413279639846588331e-01) (116, 5.33128759804795238075e-01) (117, 1.86192848829901502761e+00) (118, 7.72384667459943274892e-01) (119, 4.92029525307009982238e-02) (120, 2.15888306996571299745e-01) (121, 1.72904127899780801769e+00) (122, 3.95526790193356403424e-01) (123, 2.05188442151987482376e+00) (124, -2.22680996755322893610e-02) (125, 8.34121103626828230837e-01) (126, 2.84717950976548561659e-01) (127, 1.25211083402641243367e+00) (128, 2.11557379307026049986e+00) (129, 1.98694696565123796184e+00) (130, 5.56866074351054507474e-01) (131, 6.68615164890045354795e-01) (132, 8.52624050864612015310e-01) (133, 1.77868033182370410827e+00) (134, 1.14698813566057333801e+00) (135, 3.97774362083090737841e+00) (136, 1.55246113808117858213e+00) (137, 2.04655231534336223831e+00) (138, 8.85258189925586136404e-01) (139, 2.10629491207965280353e+00) (140, 1.68168997642982120944e+00) (141, 3.83785993639681466405e+00) (142, 1.20744532806382021128e+00) (143, 1.30105842163654439325e+00) (144, 1.29139227898147801454e+00) (145, 1.15855702510225699875e+00) (146, 1.82619680894069547072e+00) (147, 2.65563803354628991116e+00) (148, 1.14491864845675817008e+00) (149, 1.34172590897580024105e+00) (150, 1.84981258124663017206e+00) (151, 1.07638250756516717921e+00) (152, 1.30210643411055482233e+00) (153, 2.77609024359072087407e+00) (154, 6.38784330366240271637e-01) (155, -2.35585774443237783160e+00) (156, 2.64900465677111229823e+00) (157, 1.36350002387622581956e+00) (158, 7.29191542333684683541e+00) (159, 2.40495294557489946996e+00) (160, 1.26529236767497921257e+00) (161, -3.22551538099353996003e-01) (162, 2.05584501640219707852e+00) (163, 1.66308108106522190006e+00) (164, 3.11799791842897233707e+00) (165, 3.72053700836284928499e+00) (166, 4.44225964247140492347e+00) (167, 2.11703839326797682574e+00) (168, 7.69398108366034616523e-01) (169, 6.08159270394370787827e-01) (170, 1.55498250955369998749e+00) (171, 2.35957354913278916086e+00) (172, 4.52755626737646377222e+00) (173, 3.51763494999390946560e+00) (174, 1.06486971700479893244e+00) (175, 1.34189685020730120613e+00) (176, 8.08671387879984493452e-01) (177, 9.39422707267044909685e-01) (178, 2.17779251731644007961e+00) (179, 2.53766230587410257513e+00) (180, 2.45772015886366279602e+00) (181, 5.51176864120979215222e-01) (182, 2.31582429634746356228e+00) (183, 1.59789202224685622511e+00) (184, 1.37265753861860351215e+00) (185, 2.06474306525062267781e+00) (186, 2.17232300377234022193e+00) (187, 1.45565952767906026111e+00) (188, 1.93690014448941272285e+00) (189, 1.83291350513724782267e+00) (190, 7.04122222882184289894e-01) (191, 2.50642818101141839904e+00) (192, 1.34949405784134612851e+00) (193, 1.48008955525706209500e+00) (194, 2.40196226096391463045e+00) (195, 2.17158382803662464156e+00) (196, 1.64980591048814195787e+00) (197, 1.12499589662923238365e+00) (198, 1.29365439920779823346e+00) (199, 3.28066225379656639660e+00) (200, 2.57280723213002460170e+00) (201, 2.07694983233692775926e+00) (202, 3.03302121461496709820e-01) (203, 1.25338309925509450160e+00) (204, 1.51510621226966768482e+00) (205, 1.31536486758778847772e+00) (206, 1.49711450093860820587e+00) (207, 1.66023886342209947564e+00) (208, 1.73798393954517904625e+00) (209, 9.98116316476555520687e-01) (210, 8.91331909773074970715e-01) (211, 1.76132326510615566661e+00) (212, 2.31001322698224731411e+00) (213, 6.40690534573902459314e-01) (214, 5.07047572100802090844e-01) (215, 1.34911654578350992395e+00) (216, 1.37730344587147723878e+00) (217, 1.56195316029814046388e+00) (218, 1.68354829642844383564e+00) (219, 7.89461242866516865746e-01) (220, 7.34848636655578313359e-01) (221, 4.96896467586876611211e-01) (222, 7.92998552234738474098e-01) (223, 1.96472101953412403574e+00) (224, 2.87415577310901904085e+00) (225, 1.86029218406677543385e+00) (226, 1.53453366574590233107e+00) (227, 1.12179744940500536465e+00) (228, 6.73357985368725264763e-01) (229, 6.76437360509479668202e-01) (230, 2.15873484467166454337e+00) (231, 1.69505556265762757917e+00) (232, 1.54804218452357034153e-01) (233, 1.15847782722414449630e+00) (234, 8.17526658228169278431e-01) (235, 1.30073452316609960988e+00) (236, 2.99895151201606591229e-01) (237, 9.67534524959078878759e-01) (238, 1.04213676981962088952e+00) (239, 1.75394648377377282422e+00) (240, 1.71108753727584006477e+00) (241, 1.50364079480258605592e+00) (242, 1.82196311220069873116e+00) (243, 8.29891343819730842313e-01) (244, 2.15860362218889800801e+00) (245, 1.55778685895160928787e+00) (246, 1.51479931964090624996e-01) (247, 1.31806801624388802985e+00) (248, 1.47130537758700374873e+00) (249, 8.54090498502981576578e-01) (250, 2.07331505714372177351e+00) (251, 1.39227985186055036593e+00) (252, 1.15763472778580966960e+00) (253, 7.10382837725589411093e-01) (254, 9.03388456372174908360e-01) (255, 1.06558704215289101747e+00) (256, 5.30338846907709493550e-01) (257, 1.33203887135655141272e+00) (258, 1.94233320962879463245e+00) (259, 1.11768626435162365951e+00) (260, 7.63244438839862482382e-01) (261, 1.14894852636941924295e+00) (262, 6.73406726108874198466e-01) (263, 8.70735476853941148256e-01) (264, 2.05160015460398614806e+00) (265, 1.25022715383441362924e+00) (266, 2.06411747100902198682e+00) (267, 2.21613475766538137179e+00) (268, 2.19083630079006974611e+00) (269, 6.29200793223612775407e-01) (270, 1.47683006163981422887e+00) (271, 1.72317535318161785263e+00) (272, 1.71047163750597275289e+00) (273, 3.85839696459149172902e-01) (274, -1.03325124283162961270e+00) (275, 1.29634631993542770445e+00) (276, 1.48045442567831808667e+00) (277, 4.78632652739492514549e-01) (278, 4.80787791270696374113e-01) (279, 1.98491407198069280682e+00) (280, -3.29768293634969955619e+00) (281, -1.17382086303386845572e+00) (282, 9.03241853580537323865e-01) (283, 2.03985064623734180245e+00) (284, 6.29380935410466468838e-01) (285, 1.45554901948828940839e+00) (286, 5.37904959721892450553e-01) (287, 6.89792753151061810435e-01) (288, 1.61892006860739523511e+00) (289, 5.91136966296907373497e-01) (290, 1.56335258896040785181e+00) (291, 2.02909520017808153725e+00) (292, 1.33624655644053258463e+00) (293, 2.04192281245429940739e+00) (294, 6.33849356260544172237e-01) (295, 1.37061366805101347843e+00) (296, 1.01650295721060479615e+00) (297, 3.56701211189419220560e-01) (298, 1.27442552254119600974e+00) (299, 9.18342308258205508587e-01) (300, -3.23300922845625393620e-01) (0, 2.11262095471874911112e+00) (1, 1.16984134447781662480e+00) (2, 1.61005075914056439146e+00) (3, 9.12932259610334750910e-01) (4, 1.80460747224481243833e+00) (5, 1.04311946341054051501e+00) (6, 8.42303667290034585591e-01) (7, 5.83763904346134343548e-01) (8, 2.30324596859326424791e+00) (9, 1.85712378076213724398e+00) (10, 6.38812692320707586902e-01) (11, 1.64547102502483255648e+00) (12, 6.39550938036349325699e-01) (13, 5.15000427832814411389e-01) (14, 2.32732326792738231092e+00) (15, 2.00804786453540540236e+00) (16, 4.80344708205065973328e-01) (17, 1.13987011389509818038e+00) (18, 2.17654908832374838212e+00) (19, 1.90231283397092121312e+00) (20, 1.43568446130170124242e+00) (21, 1.01323359097303988818e+00) (22, 1.53940950246322882933e+00) (23, 2.25519156482981797396e+00) (24, 9.53758631887663410609e-01) (25, 1.30767719385605807325e+00) (26, 1.35170993048060084085e+00) (27, 1.73181407999165282163e+00) (28, 2.04530633260988281563e+00) (29, 1.63559644334635345686e+00) (30, 1.64989200073588038187e+00) (31, 1.76056862759313292877e+00) (32, 2.42078710484227466182e+00) (33, 7.99643301074691281727e-01) (34, 2.09649123389202074463e+00) (35, 1.78279870746500468393e+00) (36, 1.25682643694229589926e+00) (37, 9.38085472700110334365e-01) (38, 2.16658830966873239277e+00) (39, 1.28720286538504558038e+00) (40, 1.89894285663491602101e+00) (41, 1.91666526135186976454e+00) (42, 6.22797710005905336139e-01) (43, 2.35293088950066353604e+00) (44, 2.43804420421901602012e+00) (45, 4.25987880153282982842e-01) (46, 1.87053445851363098207e+00) (47, 2.22963455799447496375e+00) (48, 1.27070894565124214992e+00) (49, 1.82740940044704403000e+00) (50, 1.92283667515102352219e+00) (51, 2.17509932875705302990e+00) (52, 2.21110299465042281497e+00) (53, 7.52818586595494276814e-01) (54, 1.80927783222027338539e+00) (55, 5.22768453899586482692e-01) (56, 1.32932883381836242087e+00) (57, 9.16724339724308667776e-01) (58, 2.03016093624338900270e+00) (59, 1.11313955366579686590e+00) (60, 1.91998278049185278071e+00) (61, 1.04323488548053866509e+00) (62, 2.38760968480866170305e-01) (63, 2.13981648239151089896e+00) (64, 1.60514793275480260881e+00) (65, 2.30508320219570084220e+00) (66, 1.28100184007108364170e+00) (67, 3.73976310675654066706e-01) (68, 2.74573716049314575649e-01) (69, 1.04489196803634953881e+00) (70, 1.52178948394216351225e+00) (71, 2.18522107438233259558e+00) (72, 7.73231872664025043917e-01) (73, 1.40146310758136105612e+00) (74, 2.05441876758518038315e+00) (75, 6.09066412460361639170e-01) (76, 1.71924123349395818749e+00) (77, 1.55716774049011297265e+00) (78, 3.99575833594550289263e-01) (79, 5.28218151450864925600e-01) (80, 7.13673217878880827847e-01) (81, 1.72626680720275205161e+00) (82, 2.23598726757407151311e+00) (83, 5.23982090515940579500e-01) (84, 2.06065583763385085092e+00) (85, 1.82626598729822897660e+00) (86, 8.07321189290529095395e-01) (87, 1.11251656704032897416e+00) (88, 2.39302807731550348791e+00) (89, 2.48658590650410715739e+00) (90, 1.80340503528238182973e+00) (91, 2.02416031707055887878e+00) (92, 1.17498765450339126559e+00) (93, 1.80296036164584938533e+00) (94, 1.71037140440663759655e+00) (95, 2.33902831666409616318e+00) (96, 1.65071130317071190774e+00) (97, 7.92287958169811235010e-01) (98, 4.93392405584129667417e-01) (99, 1.75606925645779843315e+00) (100, -4.29330363390549418767e-01) (101, 1.56945088648776431839e+00) (102, 1.49285486749978879573e+00) (103, 1.80810150690898874259e+00) (104, 3.57949063442978998584e-01) (105, 1.27631578115000521301e+00) (106, 1.67219259186178637044e+00) (107, 2.13416636036375972907e+00) (108, 2.23612205422315701853e+00) (109, 2.46682273143676322746e+00) (110, 2.48542182790954235827e+00) (111, 8.75358624659978823424e-01) (112, 1.10873993536133741422e+00) (113, 3.61739910762854233184e+00) (114, 5.99145275931164400518e-01) (115, 1.39201841329090725274e+00) (116, 1.82520746903842945308e+00) (117, 8.64348500274823794420e-01) (118, 1.86076084183421452956e+00) (119, 1.63062531112255437726e+00) (120, 9.51527248063760544561e-01) (121, 2.22246508700548606186e+00) (122, 2.00431807714982745949e+00) (123, 1.47341389759101493162e+00) (124, 2.30809944890194929101e+00) (125, 2.19496636495792118993e+00) (126, 1.60929689434931466607e+00) (127, 7.66575986762493322146e+00) (128, 2.58274810677294164307e+00) (129, 1.47763120923778190630e+00) (130, 8.31008033590140970936e-02) (131, 9.98495173690229220753e-01) (132, 9.80545587711773691808e-01) (133, 3.09310328111213506119e+00) (134, 1.78074219172347647522e+00) (135, 1.00879840796303987815e+00) (136, 6.06725652788716707242e-01) (137, 7.29686642473950208831e-01) (138, 1.22120619680972919419e+00) (139, 5.09596543676931457156e+00) (140, 3.33894646992925991924e+00) (141, -1.76393855488873851911e+00) (142, -7.66522120719220434459e-01) (143, 7.33584138080020875528e-01) (144, 5.43344067805596298015e-01) (145, 1.00385900578637099478e+00) (146, 2.11699045139575936503e+00) (147, 8.99154544183087156561e-01) (148, 8.86605837763023596487e-01) (149, 1.58317561634692821615e-01) (150, 2.29864032637090431876e+00) (151, 1.88572702960707272446e+00) (152, 1.76049139844629332075e+00) (153, 3.30769414047706267201e-01) (154, 4.21989236666957312494e-01) (155, 7.57294925055898238142e-01) (156, 4.83095706265626367859e-01) (157, 3.35488602334825025686e-01) (158, 9.18212473627682435051e-01) (159, 4.73258158339428691708e-01) (160, 1.50137618343365342177e+00) (161, 1.26768177870170561938e+00) (162, 1.95107845261705414863e+00) (163, 2.53672833683784848535e-01) (164, 1.17023388734622324492e+00) (165, 7.18071238203864870009e-01) (166, 1.42927057953860336958e+00) (167, 1.60981563163772412040e+00) (168, 8.20163205349261348331e-01) (169, 2.12283832315823106640e+00) (170, 1.83404649411401132753e+00) (171, 1.06448779353147893190e+00) (172, 7.97915249737740417402e-01) (173, 2.18717205200663356024e+00) (174, 1.96430312099671078307e+00) (175, 7.90637614268687172192e-01) (176, 8.11795626031459272021e-01) (177, 1.18029385018694266130e+00) (178, 1.99514323928024794874e+00) (179, 1.71206989090679395638e+00) (180, 2.05178372110137896556e+00) (181, 1.71979575283800345531e+00) (182, 1.35957283079033941497e+00) (183, 1.34882507332644663300e+00) (184, 2.12147672352002025775e+00) (185, -3.12012028034547694855e-01) (186, 4.57785617340631501015e-01) (187, 1.98928651782689036587e+00) (188, 8.43387751244814853901e-02) (189, 7.33427481953735305176e-01) (190, 3.67392697898112297050e-01) (191, 6.54899068347308155325e-01) (192, 1.75372048282554637844e+00) (193, 1.59746704562875918576e+00) (194, 1.53375094927579969095e+00) (195, 5.81412541961818130076e-01) (196, 1.75185982788785915565e-01) (197, 3.90302626196436019956e-01) (198, 1.93514954543838557655e+00) (199, 1.11154614292046960422e+00) (200, 8.97700896183606378287e-01) (201, 1.61368423940939198502e+00) (202, 1.66205473200858100391e+00) (203, 1.49063605373421870226e+00) (204, 1.31798551860781265610e+00) (205, 1.32976159434304452844e+00) (206, 2.55641505191384343920e-01) (207, 1.78111811969196764949e+00) (208, 2.36663969701628895681e-01) (209, -4.35968198145551610878e+00) (210, 1.27895735016725686783e+00) (211, 1.84531270358428511891e+00) (212, 9.61078603420648547306e-01) (213, 6.41795827472193547436e-01) (214, 1.05013669207081683510e+00) (215, 1.09794084781963152686e+00) (216, 7.36453654981088279285e-01) (217, 1.21020118852533764553e+00) (218, 1.59063616604006363708e-01) (219, 1.12005797232146897535e+00) (220, 2.06526734562561697928e+00) (221, 1.74621599825806872452e+00) (222, 8.57144439002738844913e-01) (223, 2.01304876956067202443e+00) (224, 1.44256657669968779700e+00) (225, 8.70360412901070135128e-01) (226, 7.94565188974501457331e-01) (227, 1.97527268732543626051e+00) (228, 1.88346555461312736846e+00) (229, 5.03060593259105126585e-01) (230, 5.50407874944067510015e-01) (231, 8.69335012454429678641e-01) (232, 1.85896056458872926953e+00) (233, 2.19168396787353225719e+00) (234, 2.35080584764677080756e+00) (235, 7.91760871253986198148e-01) (236, 1.16828983246009743269e+00) (237, 4.25621201216275446555e-01) (238, 2.20577875857996463793e+00) (239, 1.28100769656547819331e+00) (240, 2.30023519389515529454e+00) (241, 1.15112775803942701813e+00) (242, 1.12337774981004479002e+00) (243, 1.67820421341287362438e+00) (244, 1.40935337566319751623e+00) (245, 1.93801239802365388165e+00) (246, 1.03865846900825453680e+00) (247, 1.73483852872234645126e+00) (248, 1.11422509194750807282e+00) (249, 2.34749133727998460230e+00) (250, 5.09037820919659989016e-01) (251, 1.03898533650912350268e+00) (252, 1.96971321844868785256e+00) (253, 9.94522349127442195638e-01) (254, 8.63191195297934199537e-01) (255, 1.37427804856502322473e+00) (256, 1.42252452091158909653e+00) (257, 1.23232606533395516735e+00) (258, 9.76784124832938083216e-01) (259, 9.37300450532587259289e-01) (260, 1.46054411120334681762e+00) (261, 1.30055406886400737321e+00) (262, 1.37902930266370171708e+00) (263, 7.99447857993731414439e-01) (264, 1.11024971054945287285e+00) (265, 1.31806526868361340021e+00) (266, 1.20578629466787456970e+00) (267, 1.94207816671498045835e+00) (268, 1.43325004413931700320e+00) (269, 9.57899465836024033294e-01) (270, 8.28122913044283648354e-01) (271, 1.24583826749342785334e+00) (272, 1.68528292863386974787e+00) (273, 1.54563003133900389585e+00) (274, 7.25166578155239438530e-01) (275, 7.91915075332388584961e-01) (276, 1.09633781549022435442e+00) (277, 1.14599796765039063651e+00) (278, 1.90291801912499192184e+00) (279, 1.79575252048379563341e+00) (280, 1.31809079523564820491e+00) (281, 2.10424782764998985485e+00) (282, 4.12704810353027806702e-01) (283, 6.08544673732254515208e-01) (284, 4.57200480049919644188e-01) (285, 8.47875105664197215027e-01) (286, 1.76657414239504118036e+00) (287, 1.56584984718307462792e+00) (288, 1.67503217420386540937e+00) (289, 2.13699143998198781702e+00) (290, 1.96350006019916922817e+00) (291, 7.08704104927215250420e-01) (292, 1.07391860806697603259e+00) (293, 9.71585400298518808704e-01) (294, 1.08751146525000796927e+00) (295, 1.73606415537420355477e+00) (296, 1.81769605425420843758e+00) (297, 1.84797301838573391208e+00) (298, 1.26041149434686206021e+00) (299, 7.68280270402766585214e-01) (300, 1.96395915719978941816e+00) (301, 4.42377778552593525774e+00) (0, 1.32566186738703933878e-01) (1, -8.55267465584533675971e-02) (2, 6.50212267407639238348e-02) (3, -1.74733933492282722533e-01) (4, 1.19607718725779155200e+00) (5, 1.38583442662003819557e+00) (6, -2.19066119086221727796e-01) (7, 1.29759205272740074655e+00) (8, -2.71383981047748912285e-01) (9, 2.93313115163329696244e-01) (10, -3.16723601843871604977e-01) (11, 2.41555643107508183354e-01) (12, 6.90862406019961183823e-01) (13, 4.83724706849501251416e-01) (14, 9.99328845223829587141e-01) (15, 1.61684489434093359161e-01) (16, -3.00856265875971140566e-01) (17, -6.02578390659251672545e-01) (18, 5.28020554265423713858e-01) (19, 1.45242280462579542721e+00) (20, -2.56827533749772518590e-01) (21, 1.68439279495879756787e+00) (22, -3.57102775946465555990e-01) (23, 9.70292216166648180398e-01) (24, 2.25669457660000016830e-01) (25, 1.80247381555676655651e-01) (26, 5.39147738442985691165e-01) (27, 6.93606556271038843242e-01) (28, -1.02410906008518498567e+00) (29, -4.15541492281319313484e-01) (30, -2.07109810697276908176e-01) (31, 1.68713854770220300638e-01) (32, 2.11158209890483644644e-01) (33, 3.26662934010356842407e-01) (34, 5.50811276236651048421e-01) (35, -1.05192914208294588385e-01) (36, -4.05075629311344720396e-02) (37, 5.73250001892644300838e-01) (38, 1.43726444753689230893e+00) (39, -3.96501013039075728139e-02) (40, 1.10569465203539762932e+00) (41, -1.93006695525089588816e-01) (42, 5.19082436151295678606e-01) (43, 1.38146338476136276707e-01) (44, 5.46047335215768758765e-01) (45, -1.46411051415516690888e-01) (46, 5.49842176651554215283e-01) (47, 8.45684892414987565701e-01) (48, -1.37546479604951560338e-01) (49, 1.48129229812213392137e+00) (50, 7.00653497256429114159e-01) (51, -4.24755319709742007461e-02) (52, 1.35697088103517993218e+00) (53, 9.88572570613956314034e-01) (54, 1.61891993153620017409e+00) (55, 9.28941895795947214509e-02) (56, 1.71786125356361751848e+00) (57, 5.72279130031913330079e-01) (58, 9.47395417026615005440e-01) (59, -2.91467860630639508113e-01) (60, 9.33846578624756507025e-01) (61, 1.18534586721949675159e+00) (62, 3.40842976211839343570e-01) (63, 1.54528444931694020070e+00) (64, -3.06412004518808456233e-01) (65, 1.06372213034521445607e+00) (66, -6.77502323342321410848e-01) (67, -3.42871715344937932901e-01) (68, -3.30429052497087039075e-01) (69, 1.45009810898844371252e+00) (70, 3.58713241004459060246e-01) (71, 1.41690038417554609040e+00) (72, 1.14494716641708937921e+00) (73, 8.51323838730174919931e-01) (74, -4.80793927411716226494e-01) (75, 3.55736115600472468934e-01) (76, 1.38542869844388305545e+00) (77, 7.48846919917575126746e-01) (78, 1.16885774155866895008e+00) (79, 1.20566382261342996962e+00) (80, 1.24671401516150054389e-01) (81, 4.81553086723219503362e-01) (82, -1.66158321014859944320e-01) (83, 1.51309717868548937458e-01) (84, -6.42102279342814719065e-01) (85, -6.05234214079887200555e-01) (86, 7.51230409617128780386e-02) (87, -3.10365565321122527376e-01) (88, 6.44676417445701588349e-01) (89, -3.02063723168691899978e-01) (90, -3.70674250984106390394e-01) (91, -1.80584820571738940975e-01) (92, 7.09808085913011588275e-01) (93, 3.04750105209317612154e-01) (94, -2.38233222768300278993e-01) (95, 1.17481635315721022472e+00) (96, -3.56262550219065499135e-01) (97, -3.77356677398106243881e-01) (98, 1.03623726317020992127e+00) (99, -2.13642128945757819869e-02) (100, 1.55756105448022852400e+00) (101, 1.59867505308288304633e-01) (102, -3.12992466088244880584e-01) (103, 1.36867745709920107799e+00) (104, -3.34269332964449050749e-01) (105, -1.28568081036293913044e-01) (106, 5.95607616848316881453e-02) (107, 1.38302108792221134514e+00) (108, 8.73408586591448710124e-01) (109, -1.58398411725217874713e-01) (110, 1.18678268605642944777e+00) (111, -3.49980013075624540875e-01) (112, 6.39230855344443238408e-01) (113, 1.34643159046038651816e+00) (114, 1.59577710433864178308e-01) (115, 7.98544384770382364991e-01) (116, 1.44950655522000637632e+00) (117, 9.55848761755510256677e-01) (118, 1.22414195552194848826e-01) (119, -2.86142884847943368420e-01) (120, 9.74232349851282819486e-01) (121, 5.23548483650109419685e-01) (122, 6.83909503010216024421e-01) (123, 5.02656706709245115761e-01) (124, 1.00641641457889297051e+00) (125, 2.70902423673131553805e-01) (126, -3.93465688769503163513e-02) (127, 1.21282307034681546831e+00) (128, 9.43748269454733001993e-01) (129, -1.67774967421891046948e-01) (130, -1.08388948249015931724e-01) (131, 6.46860206337202203741e-01) (132, 2.90739513742953037401e-01) (133, -8.17697043090969966084e-02) (134, 5.43672919783004582328e-01) (135, 1.77127484748396346603e-01) (136, -1.30405025075149783031e-01) (137, 6.19673946188163515814e-01) (138, 1.33676622708203685086e-03) (139, 1.43013772617766243833e+00) (140, 1.17154059553365930135e+00) (141, 4.73326695591687995890e-01) (142, 1.37577266096005179641e+00) (143, -2.40929783072876962935e-01) (144, 1.31798568146617522956e+00) (145, 5.71589183576258139108e-02) (146, 1.40096375782433324453e+00) (147, 1.06245844524649846186e+00) (148, 1.08633319151204243980e+00) (149, 4.16754971401169072021e-01) (150, -2.79108900028685498473e-02) (151, 7.56369453360484111926e-01) (152, -1.46271020571965087997e-01) (153, 1.06085929968470948914e+00) (154, -3.28233551275302459782e-01) (155, 4.71684576315515580180e-01) (156, 2.84537320782890235105e-01) (157, 3.09847139460506862396e-02) (158, -2.42514665861148587256e-01) (159, 1.60324833710312408819e+00) (160, 3.08932644631440822547e-01) (161, 1.27264254044402391752e-01) (162, 8.11844262705288532977e-01) (163, 9.13394837728586761472e-01) (164, 2.86089279644470950714e-01) (165, -1.04458171576440134176e-01) (166, 1.80747637130723837195e+00) (167, 1.18235408487002580102e+00) (168, 1.03534518572870548603e+00) (169, 4.17510498640721178232e-03) (170, 6.04575576643533674215e-01) (171, 7.51124601638505695611e-01) (172, 1.53970698942809625098e-01) (173, 7.32486212601342168149e-01) (174, 1.19247448390922006212e+00) (175, -2.91925357968854382040e-01) (176, 9.43820097439270200290e-01) (177, 7.82556046363209079075e-01) (178, 1.44667190785742838521e+00) (179, 9.12807377322135349296e-01) (180, -1.02461770488896264375e-01) (181, 1.64270926873002243163e+00) (182, -3.16080609380306631895e-01) (183, -1.46101134559637441113e-01) (184, 7.67613218163077037914e-01) (185, -2.75487248078449209476e-01) (186, -8.68698222110546834640e-03) (187, -6.42654594676373203121e-01) (188, 6.99070965693213697278e-02) (189, 2.40945516867871550870e-01) (190, -4.88258874213921167939e-01) (191, 6.79600442589593845000e-01) (192, 3.92792687224375880461e-01) (193, 4.50993429532468959042e-01) (194, -1.10390007323337813183e-01) (195, 1.12807057840367574997e+00) (196, 6.51275152732579076797e-01) (197, -1.83723635411296853936e-01) (198, 1.56884220499671267479e-01) (199, -1.25052651065609865544e-01) (200, 1.77069974905506438700e-01) (201, 1.19934931468504024643e+00) (202, 9.34261540259362366356e-01) (203, 4.96297531390155921560e-01) (204, -7.44755131727772023975e-02) (205, 3.05506717608477973425e-01) (206, 5.54764496637498605303e-01) (207, 1.30064931582944942612e+00) (208, -2.58503510922584889276e-01) (209, 1.47819978806044222130e-01) (210, 2.58207832363571421208e-01) (211, -1.17992102813027410768e-01) (212, 1.43690604207291849903e-01) (213, 4.07118631189700486139e-01) (214, 3.72558891790940815980e-01) (215, -4.45905620738248353874e-01) (216, 6.94175330039892179990e-01) (217, 1.08141949974777973331e+00) (218, -5.22853127573463360989e-01) (219, 1.29894331519514549811e+00) (220, -2.06675486521368134696e-01) (221, -3.18731079397231720218e-01) (222, 4.73027521635756564855e-01) (223, 9.40822136882896398191e-01) (224, 6.81183673145959400763e-01) (225, 8.90949989325731772638e-01) (226, 5.64592967372383958136e-01) (227, 5.33665299988187180613e-02) (228, 1.28305392887757907516e+00) (229, -5.24468033351984330714e-01) (230, 6.54665615268396283710e-01) (231, 3.57535107816763009225e-01) (232, 1.24723477666942450526e+00) (233, 5.04799703424771081806e-03) (234, 1.42088810823259636962e+00) (235, 1.96886723195950352761e-01) (236, 1.53518566364903996657e+00) (237, 1.76902164449815213487e-01) (238, -3.36868182926922776765e-01) (239, -6.55259795214127360730e-01) (240, 1.40269509013333504299e+00) (241, 1.15738755379053870342e+00) (242, 4.45381610342460210195e-01) (243, -4.70006801595340528710e-01) (244, -2.65789064476689873562e-01) (245, 1.00714478555564501683e+00) (246, 2.32735297228003096270e-01) (247, 1.67039674434992591046e+00) (248, 1.36443373436589787673e+00) (249, 2.05538406916359800425e-01) (250, 1.06849760344574473692e+00) (251, -3.16559938727636769329e-01) (252, 6.37923708702230918277e-01) (253, 7.88598596194710732554e-01) (254, 1.53320077911278462857e+00) (255, -2.25423819735193958769e-01) (256, 1.40252075201927395298e-01) (257, 6.30139464498737478237e-01) (258, 4.31669536039926471371e-01) (259, 1.64072099135018772964e-01) (260, 1.00758917234807121588e+00) (261, 1.54439353382704824824e+00) (262, 7.83470575848759231974e-01) (263, 8.71409587422406928248e-01) (264, 2.88357418993093472803e-01) (265, 5.87667387941457342038e-01) (266, 1.45590346171965845379e+00) (267, -7.77493725858794948458e-02) (268, 1.22444161212151159113e+00) (269, -2.81941313955157701887e-01) (270, 5.94864101879588060527e-04) (271, 1.00157326937958757185e+00) (272, 1.01323215387163401147e+00) (273, 7.09539171743810204163e-01) (274, 1.19806689430017354603e+00) (275, 1.31447668582257448655e+00) (276, 3.46868384480745362008e-01) (277, 1.66320569297837628220e+00) (278, 1.31334311048755991713e+00) (279, -2.46470099695517419480e-02) (280, 1.87964085824680299242e-01) (281, 1.05278343368310878247e+00) (282, -5.16930924354330328940e-02) (283, 1.05794101020398301216e+00) (284, 7.09951081795104077532e-02) (285, 1.39603584008202141753e+00) (286, 1.12103768490376687339e+00) (287, 4.98802911560844275396e-01) (288, 6.64803106933997356442e-01) (289, -2.64639066158072269741e-02) (290, 1.08956601157801058477e+00) (291, -4.16516010533415526051e-01) (292, -3.13043714148174612166e-01) (293, 3.81349558281172881791e-02) (294, 9.32604315829966279416e-01) (295, 5.13560598576853655217e-01) (296, 1.16637233886806979122e+00) (297, 4.91495913815583718165e-01) (298, 4.11133583772345989615e-01) (299, 6.67813086649626908020e-01) (300, 9.75215332583356464546e-01) (301, 1.47207452650450720810e+00) (302, 6.09140884945075788970e-01) (0, 3.08355170334543959854e-01) (1, 4.22348055089678542373e-01) (2, 3.77498995444264795474e-01) (3, 3.49192038034849105976e-01) (4, 3.26405488010468536331e-01) (5, 3.74565698062829910420e-01) (6, 8.08883298032311515158e-01) (7, 7.11304947773983897719e-01) (8, 7.06833764950802745375e-01) (9, 3.67597209968137939029e-01) (10, 2.05277398901883151305e-01) (11, 2.33604548187395816283e-01) (12, 1.21981955007923614787e+00) (13, 1.30389117137802590385e+00) (14, 1.14333784268511329252e+00) (15, -1.41498810967635474389e-01) (16, -2.07062803824047597656e-01) (17, -2.49978314928323758215e-01) (18, 1.25238910551438853425e+00) (19, 9.11732652807643151327e-01) (20, 8.58037264669349153401e-01) (21, -3.12262379565717451690e-01) (22, -1.33794113051480145771e-01) (23, -3.68421674716672864491e-01) (24, 2.18315053313802343027e+00) (25, 6.87780304880971304904e-01) (26, 6.09904912985547165150e-01) (27, -3.70694883919618134449e-01) (28, -2.75405123231836634901e-01) (29, -9.15072160075197760243e-01) (30, 3.10427286206446817474e+00) (31, 5.84226064998441207976e-01) (32, 7.04815418142610283780e-01) (33, -9.00621952722559515614e-01) (34, -4.11641781084539415403e-01) (35, -2.37642128001125563230e+00) (36, 9.95348967147322238880e-01) (37, 5.46670396226787813632e-01) (38, 5.87171511673136525822e-01) (39, -6.92136140888799489268e-01) (40, -3.32259977283969387685e-01) (41, -1.48363641016742109358e+00) (42, 8.85385274530975152629e-01) (43, 2.43971973837457278833e-01) (44, 3.82852270465687372081e-01) (45, -2.98230452924038491602e-01) (46, -1.86549781748507864654e-01) (47, -6.97718865572408364351e-01) (48, 5.19640042887349773437e-01) (49, 2.54874275630885771537e-01) (50, 3.33671052470815632240e-01) (51, -3.74779435335661492701e-01) (52, -2.75972130037910878819e-01) (53, -9.35450764911739507390e-01) (54, 3.26529329903762821630e-01) (55, -2.33685197003732331167e-01) (56, -4.72195186914326825445e-01) (57, -4.74696685045715049966e-01) (58, -3.07210660280711034265e-01) (59, -4.76065594663313385038e-01) (60, 3.38116281872525625829e-01) (61, -2.96971305217405334709e-01) (62, -5.05341770533281220423e-01) (63, -2.47033170513295236015e-01) (64, -2.45601185712378183856e-01) (65, -3.56625229724017445143e-01) (66, 3.09751660160145991796e-01) (67, -5.00045658784440294475e-01) (68, -5.88753504105072100749e-01) (69, -1.83547690274650038278e-01) (70, -1.78414495912557619084e-01) (71, -3.49743164556893360029e-01) (72, -2.30099702186111948476e-01) (73, -5.90131715214194607633e-01) (74, -8.57101398154356819425e-01) (75, 3.04586974900644125164e-01) (76, 5.12716625519783808507e-01) (77, 2.42215114600181857796e-01) (78, -3.41595191230758765677e-01) (79, -5.80552666381608406532e-01) (80, -1.25033280316925754505e+00) (81, 3.21366791055631317864e-01) (82, 2.57679544198016141632e-01) (83, 2.59590627408040508506e-01) (84, -4.66158081566900472925e-01) (85, -6.02777503340651721331e-01) (86, -2.58416211030545239780e+00) (87, -1.37510037204881502282e-01) (88, -1.68775688948055335725e-01) (89, -2.79835232282165946582e-01) (90, -4.38968696328479457414e-01) (91, -6.55721232141231791246e-01) (92, -2.53690075950734827970e+00) (93, -1.61083669207948171342e-01) (94, -2.39879357642867580003e-01) (95, -2.74077088255382739224e-01) (96, -2.76072595981041224444e-01) (97, -4.22292139515608899725e-01) (98, -4.78652929716052277787e-01) (99, 7.48957955706196942813e-01) (100, 3.14264737354058187879e-01) (101, 2.55798809865884824166e-01) (102, -1.43657669327705211915e-01) (103, -2.78023184499836040207e-01) (104, -3.81870524920193132878e-01) (105, 2.15502510616348175176e-01) (106, 9.30664036692475549195e-01) (107, 7.15687179866300371422e-01) (108, -2.86288255568226679415e-01) (109, -1.47324382182908802941e-01) (110, -3.83120009382375892315e-01) (111, 1.60139293876001120864e+00) (112, 1.63571451769523479314e+00) (113, 1.49534423482517775383e+00) (114, -2.33496428368893227390e-01) (115, 8.90676155109939027277e-01) (116, -3.00967988131516983596e-01) (117, 1.77246922586787492016e+00) (118, 2.84915802311064059182e+00) (119, 1.48800130080458004045e+00) (120, 5.10315037944724991803e-01) (121, 1.55499051258534759512e+00) (122, 5.48236425256805159911e-01) (123, 1.00960936501236520080e+00) (124, 1.46806520890480407537e+00) (125, 9.86771591583209040088e-01) (126, 4.35530765171503242428e-01) (127, 3.17001680863406098965e+00) (128, 7.43853138318286699615e-01) (129, 6.36907489191816722496e-01) (130, 8.23065026425953472078e-01) (131, -2.80781490767770758321e-01) (132, 4.04804133694475487548e-01) (133, 9.52504292870503199708e-01) (134, 3.83873410800950387589e-01) (135, 2.80397978138651415847e-01) (136, 2.78881170839114844728e-01) (137, -9.70507660747305878068e-01) (138, -4.92272602898102040747e-01) (139, 6.79303106016042712589e-01) (140, -6.38236743415199647700e-01) (141, 2.72128158449636226024e-01) (142, 5.52897471892821235073e-01) (143, -3.01611002305574471549e+00) (144, -1.01365174630940013678e+00) (145, 3.85203033819710549679e-01) (146, -8.27754725895399556812e-01) (147, 5.29707623465171861810e-01) (148, 8.73068208191962624731e-01) (149, -3.76236970969638084838e+00) (150, -1.73091173422969119011e-01) (151, 9.37669357893170407614e-01) (152, -1.34525720015322119982e-01) (153, 3.97191966234279492109e-01) (154, 1.98099168293222258064e-02) (155, -2.13978914107309980963e+00) (156, 2.78395808194979998973e-01) (157, 9.18708830715743607342e-01) (158, 4.24726175490443280669e-01) (159, 1.22604466539493930921e-01) (160, -2.55951899135244131944e-01) (161, -6.14922279100757762649e+00) (162, -2.48574089251724666960e-01) (163, 6.25066746728737410166e-01) (164, 2.15633705710316647686e-01) (165, -4.17809931855843974535e-01) (166, 8.96696129540897751697e-02) (167, -3.78369822972569735953e+00) (168, -3.04667465035917128802e-01) (169, 3.35710877133319429699e-01) (170, -2.85435472398062606292e-01) (171, -2.55412841536028389910e-01) (172, 2.63589922040923969881e-02) (173, -1.26138477756903788496e+00) (174, -2.00229275863155836701e-01) (175, 3.60161342471985834734e-01) (176, -3.31926533060662165564e-01) (177, 3.82749891725979951573e-01) (178, 2.96333123155842925733e-01) (179, -2.65673848509501153714e-01) (180, -2.85642982795914157634e-01) (181, 2.16519726944697732396e-01) (182, -3.85013602154172018821e-01) (183, 5.69096563690249745981e-01) (184, 1.43424476618828200536e+00) (185, 1.46082512757079441279e+00) (186, -1.78988781943418245879e-01) (187, 3.53369144666737300398e-01) (188, -4.27334027066656685356e-01) (189, 1.11483887229671640995e+00) (190, 1.44164369089760358023e+00) (191, 1.06918001915679261593e+00) (192, -2.25338222020132067369e-01) (193, -2.08909088721531299715e-01) (194, -5.40755151527303690173e-01) (195, 9.24656717508640979553e-01) (196, 1.32323146713936434793e+00) (197, 3.45103704125619248355e-01) (198, -3.37136790961259480426e-01) (199, -1.47856239781522152965e-01) (200, -8.22842663108185323750e-01) (201, 1.73055440866947768397e-01) (202, 8.42654730265070317508e-01) (203, 1.58365742347105070698e-01) (204, -2.33403516212490752535e-01) (205, 1.51926865427893742488e-01) (206, 7.13661921642608221283e-02) (207, 1.65482700443099317589e-01) (208, 1.61349782497912680457e-01) (209, 8.34022604972973341519e-02) (210, -1.95170174098009380215e-01) (211, 6.59956998978172837411e-01) (212, 1.44351704931971729778e-02) (213, 1.29225978038712691065e-01) (214, 2.58506546664902359112e-01) (215, 1.44809477005439196651e-01) (216, -2.69279786282783595297e-01) (217, 7.98221592489419262684e-01) (218, 1.27984251498474865816e-01) (219, -2.84039892789572423482e-01) (220, 3.11015314070315906925e-01) (221, -3.36501516662182531547e-01) (222, -2.62144177964422908644e-01) (223, 7.21520655304314861844e-01) (224, 2.83066621202371117294e-02) (225, -1.90741389261762345209e-01) (226, 2.42613851670661406779e-01) (227, -1.55651250461799367519e-01) (228, -1.24431643928534063637e-01) (229, 2.20226850718250821703e-01) (230, 1.07004444301960294217e-01) (231, -2.01284243918663535711e-01) (232, 2.37367187642869320596e-01) (233, -3.13581364341413593166e-01) (234, -1.49049342231085568677e-01) (235, 7.54534209193282845440e-01) (236, 1.71583278665055766199e-01) (237, -2.02805687676700568955e-01) (238, 3.30328730687323601778e-01) (239, -2.35189973619628706070e-01) (240, -8.78049547009006337017e-02) (241, 8.49217561201581427888e-01) (242, 1.38384902075660148890e-01) (243, -3.22716933322249155403e-01) (244, -2.91667550461570557196e-01) (245, -5.26437944073926522570e-01) (246, -2.42759626852050464096e-01) (247, 7.01565272091653202580e-01) (248, 2.43471221615337657385e-01) (249, -1.70809404094324351897e-01) (250, -2.16496257969593958181e-01) (251, -4.72482315484335224642e-01) (252, 4.07341437145148255183e-01) (253, 4.64956466573505089457e-01) (254, 7.21832243473348844631e-01) (255, -3.47456103785490244551e-01) (256, -2.37025216731841098516e-01) (257, -5.58060127986671594691e-01) (258, 2.99652322185750996653e-01) (259, 4.48064250689180820775e-01) (260, 3.53140632904713591689e-01) (261, -2.27478740744028712362e-01) (262, -1.49943988292495139492e-01) (263, -4.48983208393161803418e-01) (264, 2.93777667604586678607e-01) (265, 5.07703929951613619487e-01) (266, 4.58316392796936089571e-01) (267, -2.68043045960460746269e-01) (268, -3.43865799752092859976e-01) (269, -4.64039200102394355785e-01) (270, 2.81062234858429071949e-01) (271, 5.69129727250363481872e-01) (272, 3.21201751848280037116e-01) (273, -5.76028055813785244688e-01) (274, -9.40902370939503795988e-01) (275, -2.07318342915054198983e+00) (276, 3.27016507321958083132e-01) (277, 2.76384269184487108006e-01) (278, 3.66531652008511898977e-01) (279, -4.03366413878786467251e-01) (280, -9.30257122943650371916e-01) (281, -1.32894196476636672344e+00) (282, 3.58178538316850314516e-01) (283, 2.79264060120906876250e-01) (284, 2.57470653699948648363e-01) (285, -2.33081544445894989215e-01) (286, -2.77581129301043505464e-01) (287, -2.76772618634735123599e-01) (288, 3.29061110550527113894e-01) (289, 3.91983267358684162041e-01) (290, 2.34544885395612773271e-01) (291, 3.50444792024920181994e-01) (292, -1.39186165486629070953e-01) (293, -1.20796173102539580735e-01) (294, 3.01043942626538441054e-01) (295, 4.08331093424920688051e-01) (296, 3.20900321062626892044e-01) (297, 2.60072514271192489765e-01) (298, 3.03158801024762225573e-01) (299, 3.04368909424153399890e-01) (300, 1.56977593147512428651e+00) (301, -1.69466667579653496034e+00) (302, 2.25240516701181157089e+01) (303, 5.72804010154619636097e+00) (0, -2.11961827509914074730e-01) (1, -2.85180866055999626685e-01) (2, -1.81149478484475462414e-01) (3, 2.48175921180596864568e-01) (4, 3.04651939046190201044e-01) (5, -3.42217063182124858756e-01) (6, -2.87652179871944746470e-01) (7, -2.88888573919681868052e-01) (8, -2.46519878779796725032e-01) (9, 3.92390311819520776204e-01) (10, -9.07507181430468184979e-02) (11, -8.82092781286720750700e-01) (12, -6.98865825573031451690e-01) (13, -3.94821445947064975091e-01) (14, -5.14803707157745593648e-01) (15, -2.44683094343834450779e-01) (16, -2.55094406713184784774e-01) (17, -1.01237349146986654880e+00) (18, -3.02692764378271028658e-01) (19, -3.85340386591495609458e-01) (20, -4.00070462750354516324e-01) (21, 7.50328042912317694224e-01) (22, -9.65502047914607308687e-02) (23, -3.09338424317720683820e-01) (24, -3.13840204648817122646e-01) (25, -8.61376632840992750850e-01) (26, -4.59917292582610492957e-01) (27, 8.79852215171948559558e-01) (28, -1.70857113552792233557e-01) (29, 2.46043791885642071371e-01) (30, -3.37335195405310095396e-01) (31, -8.10573909991462393521e-01) (32, -9.23104974055883098494e-01) (33, 8.05082933472012540754e-01) (34, -1.73534277406362874574e-01) (35, 8.85336349840038505654e-01) (36, -1.49916300057215567954e-01) (37, 4.93220293371777140923e-01) (38, 4.28547053202362082658e-01) (39, 8.60352203459713971156e-01) (40, 8.77652286398725278715e-01) (41, 8.26518607871012167543e-01) (42, -3.00792224964352497563e-02) (43, 5.35680919229792884551e-01) (44, 5.77196099890795011333e-01) (45, 9.52435709961440668536e-01) (46, 8.62995294399702350674e-01) (47, 9.30766308253186402943e-01) (48, 1.20946383178398808589e+00) (49, 1.52343367093572479298e+00) (50, 2.59954796841210011848e+00) (51, 7.57463823841612038379e-01) (52, 3.77368503504972085949e-01) (53, 9.55159967588360414581e-01) (54, 4.57167147253754513336e-01) (55, 1.19606379913947691307e+00) (56, 2.15439082093439315813e+00) (57, 4.03446034756543947530e-01) (58, -1.68990897402394424365e-01) (59, 4.93185005908169049604e-01) (60, -3.33859745065404611708e-02) (61, 4.35850469817800345584e-01) (62, 9.87249533780174437503e-01) (63, 2.95352232115282720137e-01) (64, 3.04481920811181749897e-01) (65, 3.43390710031948542813e-01) (66, -4.63273625336521124862e-02) (67, -3.67831959426524413015e-01) (68, 2.64649184455769570512e-01) (69, 8.19256854813436019569e-01) (70, 3.49509346839551704456e-01) (71, 2.13566377940788809653e-01) (72, -7.16330514903597892484e-01) (73, -2.81024792017819713408e-01) (74, -1.46984803732934515841e-01) (75, 7.40006848118807014636e-01) (76, 9.35224454200573540597e-01) (77, 3.36438376431533625599e-01) (78, -2.06865815321220614109e-01) (79, -5.85902910622114192485e-01) (80, -4.11013930911871827600e-01) (81, -2.66272842124458397617e-01) (82, -1.95530255523813090157e-02) (83, 4.14740462340381643713e-01) (84, -9.55336790305995386952e-01) (85, -2.54625908051939520149e+00) (86, -2.40452956979153542605e+00) (87, -6.34834666172259254324e-01) (88, -2.05524861632703989556e-02) (89, 4.55260933474055037862e-02) (90, -9.34573687472891712069e-01) (91, -3.61435055955383344184e+00) (92, -3.45356516940085178646e+00) (93, -1.30748592148755039821e-02) (94, 9.19556220880485164493e-01) (95, 9.86927279349453123736e-01) (96, -1.17650336047817072327e+00) (97, -3.46720326194043115819e+00) (98, -5.20880974306930788487e+00) (99, -1.17439179544818556034e-01) (100, -6.12297661151638195065e-01) (101, -4.71585003247222356304e-01) (102, -7.69415379221170980806e-01) (103, -1.39516573302836566217e-01) (104, 3.16609817668365267629e-01) (105, 2.54285813312080562210e-02) (106, -5.63119048605846939104e-01) (107, -5.11453574167863300737e-01) (108, -8.00358837823769819764e-01) (109, 8.47247373126973402080e-01) (110, 9.65637033922177812073e-01) (111, -1.10446869718234891300e-01) (112, -6.32607305154413546155e-01) (113, -1.91139954040435072757e-01) (114, 3.62014375269627985965e-01) (115, 3.05343135233173113008e+00) (116, 5.13055234613434762991e+00) (117, -6.63439517144797541448e-01) (118, -4.69263943609450062677e-01) (119, 1.17970426153818974679e-01) (120, -6.78647180165101948646e-01) (121, 7.68779375689844113317e-01) (122, 4.96568396540059242561e-01) (123, -8.96631276174461033790e-01) (124, -8.02759395355871152589e-01) (125, 4.53510632030852511853e-01) (126, -9.38477880009494724867e-01) (127, 9.66021532850919517621e-01) (128, 4.39827647573009461457e-01) (129, -9.85502612347199824505e-01) (130, 4.01078611022563258359e-01) (131, 1.08858137320084669142e+00) (132, -3.70802730614032460821e-01) (133, 1.07932061741949203437e+00) (134, 9.66133636177956889313e-01) (135, -1.09042716976086184744e+00) (136, 2.61074991148062651725e-01) (137, 1.10146529181663765939e+00) (138, -2.92897431345728320728e-01) (139, 1.69388973748241089545e+00) (140, 3.23334720701620437211e+00) (141, -1.58473552163414432847e+00) (142, 6.15718585487542213741e-01) (143, 2.00578230098229548517e+00) (144, 4.42005741504966409572e-01) (145, 1.23612954182544299009e+00) (146, 8.80734318307545005489e-01) (147, -7.57202786893456214479e-01) (148, 2.17410353033240033582e+00) (149, 2.54762427957499504316e+00) (150, -3.60703766948736570530e-01) (151, -3.65140261906101493139e-01) (152, -2.15853063954467044860e-01) (153, 4.49779426472413534910e-01) (154, 2.58361922985972247702e+00) (155, 3.52394123137597681250e+00) (156, 2.64319281086454804797e-01) (157, -4.15558285781953806737e-01) (158, -1.21723242108589979615e-01) (159, 1.87218263914912230739e+00) (160, 2.46404628332509201272e+00) (161, 3.99535271123492652379e+00) (162, 2.09369502395439166520e-01) (163, 3.55417835355644196049e-01) (164, -5.20910285412916132519e-02) (165, 1.90429080129746997052e+00) (166, 3.20269206853995624940e+00) (167, 4.68928164431559313385e+00) (168, -1.89870809124089434672e-01) (169, -3.37792724927479415253e-01) (170, -2.87794105096121355380e-01) (171, 1.17858844011297136944e+00) (172, 2.42797134940534409253e+00) (173, 2.71555188218510368259e+00) (174, -4.47397750976456010097e-01) (175, -1.44716161069545851126e-01) (176, -8.26619900507147287172e-01) (177, 3.06239245310041319215e-01) (178, 5.04167625929728746570e-01) (179, 1.40782167963247406561e+00) (180, -9.06963589144703097311e-01) (181, -1.12901645276131779028e-01) (182, -8.00373052250319405587e-01) (183, -2.62406071862154088858e-01) (184, -3.07437653943354372021e-01) (185, 3.12835686049605599113e-01) (186, -1.14009198091468255676e+00) (187, -1.26938534211948761410e+00) (188, -1.57592415557377885094e+00) (189, -3.04871981745386211315e-01) (190, -4.91786290667765801921e-01) (191, 7.00708886696527338822e-02) (192, -9.85416203755431374667e-01) (193, -1.32792928604436033524e+00) (194, -1.02930461011477447641e+00) (195, -3.10862736973320341605e-01) (196, -8.75977036524531738060e-01) (197, -5.85432887267264945308e-01) (198, -2.60052742405451675634e-01) (199, -7.32433691020970334407e-01) (200, -6.93627308784763751959e-01) (201, 3.40716471848758417629e-01) (202, -2.53568624147245680334e-01) (203, 2.83048748087204982138e-01) (204, 3.82016512180660516851e-01) (205, -7.16905127413015375026e-01) (206, -3.48103322738608667031e-01) (207, -3.88554989590289945323e-01) (208, -6.81385245618375989807e-01) (209, -6.75642237817438706671e-01) (210, 3.92613206984580631609e-01) (211, -8.01337092942389084271e-01) (212, -2.42741423188018390356e-01) (213, -2.02907656261294450095e-01) (214, -1.00711127624063712105e+00) (215, -2.53185267937242941549e-01) (216, 3.41440313646063420272e-01) (217, -3.11441216693975952978e-01) (218, -1.30470754938598942907e-01) (219, -1.03038784379440806482e-01) (220, -1.47195531747478325357e+00) (221, -1.40175940575689761403e+00) (222, 4.56482566958270163937e-01) (223, 3.37243971094328243154e-01) (224, 4.12421538417071964489e-01) (225, -2.64085060581326913631e-01) (226, -2.06306378346726937423e+00) (227, -4.18429842524771833379e-01) (228, 3.33941145567399289007e-01) (229, 3.57201168098685295504e-01) (230, 5.22739467533939738964e-01) (231, -4.13861949132155737541e-01) (232, -4.61922456148119719987e-01) (233, -1.04007051738491473891e+00) (234, 3.88137639564438141626e-01) (235, -2.94765005151069015010e-01) (236, -1.20741121764035577724e-01) (237, 1.62144515782984777186e-01) (238, -4.14960736241766714461e-01) (239, -5.31198959765272427092e-01) (240, 4.06414381219637355080e-01) (241, -2.96990810711033670355e-01) (242, -1.85124903632671922171e-01) (243, -4.73147348847999305033e-01) (244, -3.62654657632591026495e-01) (245, 5.23451825296933695442e-02) (246, 3.99435609615010456253e-01) (247, -1.63031080590121113527e-01) (248, -6.37733411337709499289e-02) (249, -3.22616187561951595075e-01) (250, -2.91639464603657250219e-01) (251, 3.03838796729331617197e-01) (252, 3.53181766738953961671e-01) (253, -6.55291583533105681525e-01) (254, -2.41116525458831609807e-01) (255, 3.61568432649885529440e-01) (256, 7.24543410600609116834e-01) (257, 7.28080380122542059063e-01) (258, 3.90380057955109549539e-01) (259, -7.29228256762068816066e-01) (260, -6.36808532435222618417e-01) (261, 8.34084415173418247669e-01) (262, 8.23211816242272020894e-01) (263, 9.33499096752766432949e-01) (264, 2.88784085476058438591e-01) (265, -8.16549577505420343115e-01) (266, -8.01549533114474521689e-01) (267, 8.83655781267766893272e-01) (268, 9.02780902638222637613e-01) (269, 8.37468151753706258056e-01) (270, -3.02536696370311053439e-01) (271, -7.34747276923932268744e-01) (272, -7.22457446511903356168e-01) (273, 7.99433013111617518653e-01) (274, 9.71204031989821636728e-01) (275, 9.55035740899926377523e-01) (276, -2.01696433070121500242e-01) (277, -6.89897965393220014008e-01) (278, -6.58167139727216188305e-01) (279, 8.05117574814603886857e-01) (280, 8.05740813590185678272e-01) (281, 8.45630433266811754045e-01) (282, -3.42060394998002059719e-01) (283, -7.05635377493916582381e-01) (284, -6.19278434617478446000e-01) (285, 7.25520427746652041279e-01) (286, 8.19024082335031766711e-01) (287, 7.57346395382596626611e-01) (288, 2.96433155853016938597e-01) (289, -7.87166327876456906054e-01) (290, -7.10628528463967290563e-01) (291, 2.12627691948028441082e-01) (292, 8.62108091365777595705e-01) (293, 8.79958830483662524102e-01) (294, 4.00613044553979003037e-01) (295, -3.33779852145679012398e-01) (296, 4.17831835765107351133e-01) (297, 3.99868441544690478295e-01) (298, 4.06721104729905413855e-01) (299, -2.27961177197696651664e-01) (300, 1.36603346023888327920e+00) (301, -1.16380164540270971685e+01) (302, -1.54956553203904690008e+01) (303, 1.20302204953010960509e+01) (0, 2.66476696912989419186e-01) (1, 2.45235669051155791287e-01) (2, 3.53160696660027417781e-01) (3, 4.20888692206132897233e-01) (4, 2.52269434850553142535e-01) (5, 4.00089769013475371473e-01) (6, -2.17934665784295156232e-01) (7, -1.73513277205784854917e-01) (8, -2.44473895761330384246e-01) (9, 4.96570968403074242126e-01) (10, 4.06767971278460926943e-01) (11, 5.05945562737526222108e-01) (12, -1.85224367415240065426e-01) (13, -2.91381744850217838660e-01) (14, -2.04733210311596580677e-01) (15, 8.19454848515906553175e-01) (16, 4.14294309520313874806e-01) (17, 1.05839301361908133536e+00) (18, -2.84487307381174725496e-01) (19, -1.81311356501309306477e-01) (20, -2.73410310833451020152e-01) (21, 1.01971859148250865168e+00) (22, 4.15244116703499810406e-01) (23, 1.00718666666101719365e+00) (24, -3.13346080809510818543e-01) (25, -1.94874115065079400733e-01) (26, -2.87386348946871206245e-01) (27, 1.38694609164015214553e+00) (28, 4.53360598620376253898e-01) (29, 1.14516946540672104327e+00) (30, -3.20199051576021076482e-01) (31, -1.92384613942672838549e-01) (32, -1.64988938369307225340e-01) (33, 1.72619614397819831630e+00) (34, 4.35578081460496702171e-01) (35, 9.83563041849915720150e-01) (36, -8.11423875445956066521e-01) (37, -3.98298841017238780537e-01) (38, -4.36929155864159812772e-01) (39, 9.18201720695293044372e-01) (40, 3.56806552031389390134e-01) (41, 8.33181580410415789650e-01) (42, -8.23970692380875502359e-01) (43, -6.76315016206204489002e-01) (44, -6.19902839358681512216e-01) (45, 4.29245430151123819051e-01) (46, -2.57742230093826185655e-01) (47, 3.65044527097503679336e-01) (48, -9.20303848557009529507e-01) (49, -1.41142240945039776356e+00) (50, -1.46975460601486029866e+00) (51, 3.87210680546801133683e-01) (52, 3.29933004144763508680e-01) (53, 2.95129239360540029935e-01) (54, -7.30096235532071813346e-01) (55, -1.99183669455125378356e+00) (56, -1.51603944597332662703e+00) (57, 4.38151177921602685839e-01) (58, 2.55718672892427167920e-01) (59, 3.09992895405662161057e-01) (60, -5.28952211166345276361e-01) (61, -4.13560919123184511648e+00) (62, -1.75642543953162477699e+00) (63, 3.49333754731697532225e-01) (64, 1.74222043001392185024e-01) (65, 3.34326069848692675190e-01) (66, -3.93249830449383164233e-01) (67, -3.88870068393141776752e+00) (68, -1.24121026152419910993e+00) (69, 2.75950958420681347061e-01) (70, -3.49193651083653244793e-01) (71, 2.50604737037209368555e-01) (72, -2.22293657027449798047e-01) (73, -4.09599499047221815573e-01) (74, 2.04298092441967865662e-01) (75, -1.92288378663195508311e-01) (76, -3.65099720717772580070e-01) (77, -2.65082132559900096602e-01) (78, 4.56605736801220518650e-01) (79, -4.22188148471518809313e-01) (80, 4.35969206573541712135e-01) (81, -1.21641036793482176792e-01) (82, -1.85738954654484700324e-01) (83, -1.48831558059043050912e-01) (84, 1.41796881273273145396e+00) (85, 8.57381866289557037497e-01) (86, 2.01199714090702919123e+00) (87, -2.06638272140042128511e-01) (88, -3.70239465310008231125e-01) (89, -2.39918272616395672481e-01) (90, 1.88494894208055052687e+00) (91, 1.37636474585201828980e+00) (92, 2.86075481302167933251e+00) (93, -2.80166542581927857647e-01) (94, -7.00047657767572828469e-01) (95, -4.64424020866847864220e-01) (96, 1.54203706961700381939e+00) (97, 4.40627738748417652204e-01) (98, 1.53141645345370958076e+00) (99, -5.12680763672010764154e-01) (100, -1.24915129023166149302e+00) (101, -6.66582967492970301926e-01) (102, 4.45610925398521484642e-01) (103, -4.43694050919665294863e-01) (104, 1.18273334180440725660e-01) (105, -3.91606361039199046825e-01) (106, -1.65227661488034116566e+00) (107, -6.08081253314635694629e-01) (108, 3.47994052868572711912e-01) (109, -4.40537836755298561897e-01) (110, 1.96959440849461292489e-01) (111, -3.29327605150921243204e-01) (112, -5.54348928654598283039e-01) (113, 4.39002239241308087059e-02) (114, -2.79935460056508045312e-01) (115, -7.00851338981506444270e+00) (116, -6.45539405853336911711e-01) (117, -1.83490046266645584483e-01) (118, -1.05111862992501015057e+00) (119, 1.56835056735919825543e-01) (120, 3.32938718189506266398e-01) (121, -5.61498037400039784472e-01) (122, 2.28333610729101854631e-01) (123, -2.87057446312512398734e-01) (124, -8.67907200874628470544e-01) (125, -1.04077000074996831036e-01) (126, -6.16902684640879273026e-02) (127, -1.46367588389669300852e+00) (128, 2.47643917183944017868e-01) (129, -4.93132287685258519083e-01) (130, -4.29029734805159890243e+00) (131, -4.17686520493063262460e-01) (132, 4.73204037696114965250e-01) (133, -6.55685681455900226666e-01) (134, 3.99374037129703152171e-01) (135, 3.45208525255608855709e-01) (136, -2.19669384954598578830e+00) (137, 1.05067307660317910134e+00) (138, 8.69138918581180530687e-01) (139, -3.15926525145558023677e-01) (140, 4.34575564687096627114e-01) (141, 1.87304758516840719196e+00) (142, -2.13913895535088771638e-01) (143, 4.20455450569711697284e+00) (144, 1.01803852594154320421e+00) (145, -2.84935511833562249429e-01) (146, 3.29563406788369428480e-01) (147, 2.02969067049118878643e+00) (148, -3.93042692613529476287e-01) (149, 2.06221267897798998803e+00) (150, 4.09299312513190349794e-01) (151, -2.63218249472865983840e-01) (152, 4.15206560314230921360e-01) (153, 2.66739298192606832938e-01) (154, -4.66149452393498897607e+00) (155, 4.44757393994394567560e-01) (156, -1.79213940777086799816e-01) (157, -3.79209596318917707691e-01) (158, 4.41368931524459717775e-01) (159, 9.46130591271198556624e-02) (160, -3.45322360543095685514e+00) (161, -1.63802372805780360743e+00) (162, 3.76372085722364302374e-01) (163, -4.15692570175829723134e-01) (164, 2.48421912710415387915e-01) (165, -4.10852163900621458748e-01) (166, -4.37828636863875164664e+00) (167, -2.91344376454669573562e+00) (168, 4.05299799363191382007e-01) (169, -5.44915621486431689391e-01) (170, 2.13351926501082533871e-01) (171, -2.11761550962217659499e-01) (172, -6.82589928792206479535e-01) (173, -6.67676785360128088875e-01) (174, 4.32402580437448391670e-01) (175, -3.83479087213676517187e-01) (176, 3.56080337178820760524e-01) (177, -2.31406264890435031667e-01) (178, -4.19100722155766158838e-01) (179, -2.77530416573934790581e-01) (180, 6.56793673409929668061e-01) (181, -4.28193805003395711051e-01) (182, 3.18326883007262806391e-01) (183, -2.91191964358296029314e-01) (184, -1.27051389917426371667e-01) (185, -7.67206317321825065347e-02) (186, 5.83242643785590098027e-01) (187, -2.02095745421541544973e-01) (188, 4.88197322119512278071e-01) (189, -8.25889185185002400180e-02) (190, -1.28499712594924875297e-01) (191, 5.90001203019199157995e-02) (192, 7.08447644927313269214e-01) (193, -1.83882653299089232624e-01) (194, 4.66452000185849979808e-01) (195, 4.23015286258122069629e-01) (196, -6.46553999736373813390e-02) (197, 3.34897276966638901552e-01) (198, 5.60310267195324507306e-01) (199, -4.49836895787747215181e-01) (200, 3.94114539107337791268e-01) (201, 4.26009147414973088352e-01) (202, -1.86589701276991037915e-01) (203, 5.67983907442054403170e-01) (204, 4.04339447936948981344e-01) (205, -4.23770896743942360185e-01) (206, 2.91526129381728893453e-01) (207, 4.20383164703903910997e-01) (208, -1.43613938752749942251e-01) (209, 4.10168906317306458664e-01) (210, 3.84457775276874746950e-01) (211, 1.96318218326043486543e-01) (212, 3.08025674364047208353e-01) (213, 3.79229007405731732838e-01) (214, -2.03108636438086520570e-01) (215, 3.59671714811604259499e-01) (216, 4.82029771470310619552e-01) (217, 1.98539578837822000557e-01) (218, 1.30164891585352909820e-01) (219, 3.23710268026435044053e-01) (220, -2.97808596230192845766e-01) (221, 2.75675057620933638969e-01) (222, 4.33163113534799804061e-01) (223, 1.93116154636595843685e-01) (224, 1.85804655180097672007e-01) (225, 3.20658823956410821143e-01) (226, -2.64885706676362298051e-01) (227, 2.23143806832348717828e-01) (228, 3.63714076221338500350e-01) (229, 1.69529620999161106942e-01) (230, 1.98079487732083753260e-01) (231, 4.93122450958439206836e-01) (232, 3.77640520129071399769e-01) (233, 3.70618602266626739894e-01) (234, 4.32370494995577170361e-01) (235, 3.14718365856801740588e-01) (236, 2.35489264216937249641e-01) (237, 6.99867578200762396889e-01) (238, 3.92218643806214406489e-01) (239, 5.65687298315246889224e-01) (240, 3.07493584718732837491e-01) (241, 2.83733866211188290318e-01) (242, 2.60837276197515455234e-01) (243, 9.19957588900491840533e-01) (244, 3.02850874285770288452e-01) (245, 9.74806016333554348208e-01) (246, 2.95370374417480541229e-01) (247, 3.11574489069459781287e-01) (248, 2.86834785943982983891e-01) (249, 1.00166250428606540268e+00) (250, 2.79555985980267374114e-01) (251, 5.81598554481987939369e-01) (252, 4.00116564821811737662e-01) (253, -3.05836214161265884659e-01) (254, 2.62593373847482547401e-01) (255, 9.08325608958463259768e-01) (256, 4.68422409992602928330e-01) (257, 5.74172873796114813238e-01) (258, 2.52330446731658664117e-01) (259, -4.02239751718201365982e-01) (260, -3.19821737964487540218e-01) (261, 5.72177565837609591881e-01) (262, 2.82659575365513060508e-01) (263, 5.31251587333007480041e-01) (264, -2.79308793134104893507e-01) (265, -2.75514626519945293737e-01) (266, -4.09617217489952167853e-01) (267, 5.89588596853264590436e-01) (268, 4.50004353785258326415e-01) (269, 5.12157522532908693336e-01) (270, -3.45036954157228070716e-01) (271, -4.13303357226796119761e-01) (272, -3.59289538945662956237e-01) (273, 5.14992219142606177940e-01) (274, 3.45029762436798892455e-01) (275, 4.74174020173380728060e-01) (276, -2.04341345004911190131e-01) (277, -3.08880683391330845833e-01) (278, -3.76091260486081713221e-01) (279, 4.44511076131536841949e-01) (280, 3.13133114849881655228e-01) (281, 3.96066361042339887266e-01) (282, -2.09883414678449287116e-01) (283, -3.65919480145498854373e-01) (284, -3.32865553007507919414e-01) (285, 3.87854516674908333940e-01) (286, 2.97792727866276585313e-01) (287, 3.46202970496820472412e-01) (288, 4.16666673612209381705e-01) (289, -3.28273042831984718237e-01) (290, -2.80989453666085797767e-01) (291, 4.17301814326524689314e-01) (292, 3.81137316336656761795e-01) (293, 3.96837185695144478714e-01) (294, 4.22529639792057098990e-01) (295, 2.51365062212638989969e-01) (296, 3.16317724179836223808e-01) (297, 2.79027829005314476074e-01) (298, 2.58555497324580108032e-01) (299, 3.29463012346928041385e-01) (300, 1.33560712393058333980e+00) (301, 1.20504202631429588877e+01) (302, -2.84973141756831171989e+00) (303, -4.42413044588736337204e+00) (0, -5.19069153499614355241e-01) (1, -4.48855500352394132246e-01) (2, -4.70450730044085163595e-01) (3, -5.75519813050324513526e-01) (4, -5.36005746464431220843e-01) (5, -5.32758312325443794677e-01) (6, -4.00083983978136270565e-01) (7, -4.19101742159246892783e-01) (8, -4.59557911399970153710e-01) (9, -4.86434366262214090693e-01) (10, -5.38550868655838677057e-01) (11, -5.40942669987940716325e-01) (12, -5.59502233861674969084e-01) (13, -6.19617082046531986173e-01) (14, -5.69140005904660406522e-01) (15, -4.23853850057915426675e-01) (16, -4.88168688767341651946e-01) (17, -4.53366667415542878850e-01) (18, -4.69667104752337194462e-01) (19, -4.99130358853134059594e-01) (20, -6.13045303084644777059e-01) (21, -5.81534146648572947136e-01) (22, -5.32145985060146431422e-01) (23, -5.43973808487607346507e-01) (24, -5.00450101811418135433e-01) (25, -2.59947734488818922582e-02) (26, -9.94771936332336376152e-02) (27, -2.37139735496164938411e+00) (28, -4.83748063687420126744e-01) (29, -8.90733941460071676488e-01) (30, -4.56270136168343276584e-01) (31, 5.48207825139314319784e-01) (32, -7.41155937351389987322e-02) (33, -6.02224668900176784980e-01) (34, -3.78669436114525304049e-01) (35, -5.95146932202177736393e-01) (36, -4.89020440968738256959e-01) (37, 5.63582068146683212717e-01) (38, 5.74615498323434836792e-01) (39, -5.97022438090601625937e-01) (40, -4.68505869927068496761e-01) (41, -5.80916189301274865642e-01) (42, -6.17944079603946760937e-02) (43, 1.04123485536742221846e+00) (44, 9.03224591459466430443e-01) (45, -5.19854741248870433346e-01) (46, 5.14303230415164902567e-01) (47, -4.91886157160029591218e-01) (48, 3.97367537615530452833e-01) (49, 1.02726404221906086889e+00) (50, 9.07118486337814444731e-01) (51, -5.89542865976739771661e-01) (52, 6.12252643578791388990e-01) (53, 4.33434558160832872353e-01) (54, 1.02579078458945316399e+00) (55, 1.55997641672555631409e+00) (56, 1.19556064900152358987e+00) (57, -4.60025916346215091313e-01) (58, 4.42415240698459610869e-01) (59, 4.26669607206177248226e-01) (60, 9.55017283152519658174e-01) (61, 3.30208737876119240440e+00) (62, 1.92141967838435601124e+00) (63, -8.10110468652660287159e-02) (64, 9.70046526886046533988e-01) (65, 5.89231429138381779254e-01) (66, 1.04295625760875609878e+00) (67, 1.05934982106171506899e+01) (68, 2.35880508706655422912e+00) (69, 8.96606286481905323527e-01) (70, 1.24464501324865461918e+00) (71, 9.98149421394644353889e-01) (72, 1.01237211075305211239e+00) (73, 2.22965301874971366658e+00) (74, 1.98955794174400701912e+00) (75, -6.41736187600036589451e-01) (76, 1.03208892225176573909e+00) (77, 1.02122461946272768962e+00) (78, 9.49234627699643507270e-01) (79, 3.92341482498040328153e+00) (80, 2.09174009340742239615e+00) (81, -2.13827318748739114707e-01) (82, 1.08096763464549594502e+00) (83, 3.04319236538065418518e-01) (84, 1.04168604235982487083e+00) (85, 6.01159574554165310190e+00) (86, 2.18086224198078237890e+00) (87, 2.97785701781532519128e-01) (88, 7.52292528219562495195e-01) (89, 6.18834974007071103586e-01) (90, 1.01549954592987368152e+00) (91, 2.55645109311666285379e+00) (92, 1.64687521419773674758e+00) (93, -1.17076453305101038649e-01) (94, 3.11534734815476499481e-01) (95, 2.21045843940506581138e-01) (96, 1.00555210831156704998e+00) (97, 2.30690309592920250736e+00) (98, 1.45245492135201903494e+00) (99, 4.61766178392341852810e-01) (100, 3.94879446324807714674e+00) (101, 2.69521361668131520517e+00) (102, 1.02253999926532834763e+00) (103, 1.24607487724232246507e+00) (104, 1.21025745999484768411e+00) (105, -4.91968652163777497854e-01) (106, 7.65164524486222741295e-01) (107, 2.55485372986893832792e-01) (108, 9.49545354210256098426e-01) (109, 1.10587218433421408115e+00) (110, 4.95119742339042212542e-01) (111, -1.25846878824681662756e+00) (112, -7.37570276658568779737e-01) (113, -3.35482314331497688542e+00) (114, -1.28012012349497772412e-01) (115, 5.04681863509363615172e-01) (116, -3.53656625832994231384e-01) (117, 9.89106558450287415285e-02) (118, -8.26117094309621879944e-01) (119, -2.37126709007115588079e+00) (120, -1.65840205241861826657e+00) (121, 2.67347285061338035828e-01) (122, -1.01890465362638438229e+00) (123, 7.11334246724840579823e-01) (124, 8.68839991292683300195e-01) (125, -7.22367959756341493360e-01) (126, -1.88763584431636965988e+00) (127, -1.17157016040506789523e+00) (128, -8.95412707796539564242e+00) (129, 1.05885701393952058602e+00) (130, 2.59330462855812937661e+00) (131, -4.20642825713300611001e-02) (132, -1.71235921262785772967e+00) (133, 3.31050556924187000529e-01) (134, -1.07888903752998395191e+01) (135, 9.49934682105251670947e-01) (136, 1.29923478675096282231e+00) (137, 2.36257238493715326921e-01) (138, -1.62570241679618199271e+00) (139, 3.57573247972782060078e-01) (140, -2.02308068459415002494e+00) (141, 9.55487738642460060490e-01) (142, 5.67319169888102825539e-01) (143, 2.50248990669389975022e-03) (144, -1.58793479827051053910e-01) (145, 9.35625870741116250073e-01) (146, 1.26553025024082332894e-01) (147, 3.24708882881156795860e-03) (148, 5.23411356446600306569e-01) (149, -4.32593720188027663909e+00) (150, 2.20470052976442065784e-01) (151, 1.03469261070291507210e+00) (152, 7.62594685057860766086e-01) (153, -1.66757116614824757450e-01) (154, 5.52807632628292799915e-01) (155, -1.36758928156288828148e+00) (156, -1.05378680859670170733e-01) (157, 9.40361275274009811298e-01) (158, 1.45620801552371562787e-02) (159, -4.97019822107437544978e-02) (160, 6.51824310081855706756e-01) (161, -7.43377764767235049703e-01) (162, -3.18223182090663775368e-02) (163, 9.83674285939605597129e-01) (164, 5.41997410110482968904e-01) (165, -4.77117346843499157139e-01) (166, -4.91462312917001660495e-03) (167, -1.41137488806751743020e+00) (168, -1.29507966933934293152e-01) (169, 9.55954169035555301193e-01) (170, 5.36757403483589468074e-01) (171, -6.51245774845392144670e-01) (172, 6.17104480893327020374e-02) (173, -4.35003643749446555766e-01) (174, -9.06652518680156060960e-02) (175, 9.61293278470384149337e-01) (176, 3.67707693067288010624e-01) (177, -5.50470667588823792116e-01) (178, 4.86972123944646229088e-01) (179, 5.21065811980957957483e-02) (180, -4.68751918788366250812e-01) (181, 1.00134318157581203579e+00) (182, 3.36089630243810097432e-02) (183, -6.67258954916032820393e-01) (184, -3.22736665115676765736e-02) (185, -8.03928833486570404432e-01) (186, -5.22578985631900194697e-01) (187, 1.08419166282596002304e+00) (188, 8.44781032115042573860e-02) (189, -8.02278632035313243875e-01) (190, -4.90972883946902416419e-01) (191, -7.60883115265536869032e-01) (192, -5.40352818757729891352e-01) (193, 5.79044548429620720142e-01) (194, 9.44654058067773971796e-02) (195, -5.17164043883570512250e-01) (196, 5.86778802029091842152e-02) (197, -4.98545008441101319963e-02) (198, -6.04362352664736701691e-01) (199, 5.40723521755928748789e-01) (200, -4.94273600982337024679e-01) (201, -6.05886503177438306977e-01) (202, 7.21122672630684635742e-02) (203, -5.07306523996919445096e-01) (204, -6.51274331413225993082e-01) (205, 4.06741195904489871715e-01) (206, -5.18570177426534661969e-01) (207, 5.88242236452027222882e-01) (208, 9.36159784248298709741e-01) (209, 1.03549901841085456589e+00) (210, -5.17954696103628764448e-01) (211, 5.51027097324760184449e-01) (212, -5.25753618191700855533e-01) (213, -4.13450948423631614581e-01) (214, 1.07696034539158036480e+00) (215, 1.11332158684400051030e+00) (216, -5.14383233333143952137e-01) (217, 5.43543766595100397154e-01) (218, -4.23588206733243988200e-01) (219, 5.71698110200927089863e-01) (220, 1.24521074486365912470e+00) (221, 1.14855580695778014544e+00) (222, -6.85351038629705588967e-01) (223, 4.79181032903146175705e-01) (224, -4.15133955542518084947e-01) (225, 4.70690438322421578210e-01) (226, 1.31785527079253106386e+00) (227, 7.14548426455082985598e-01) (228, -6.95490224303775939063e-01) (229, -4.07840866766588150405e-01) (230, -5.77912461820225598075e-01) (231, 5.60681214858533616407e-01) (232, 6.35956723266939860650e-01) (233, 6.34939020433849421465e-01) (234, -6.21086307370217305390e-01) (235, -4.84413333165007065073e-01) (236, -6.52333337410934355205e-01) (237, -5.40152415580757105928e-01) (238, 5.47931301046767682550e-01) (239, -4.92787870641254385773e-02) (240, -6.91674829431019433379e-01) (241, -5.72811376397068139354e-01) (242, -6.78192639304583511084e-01) (243, -3.69394531887300092698e-01) (244, 6.31011008650944282827e-01) (245, -2.36467217462795996352e-02) (246, -6.81471616931400903105e-01) (247, -4.74283439656339844692e-01) (248, -5.04069417826658039417e-01) (249, -4.55477255925348267773e-01) (250, 5.73034428893015479467e-01) (251, 4.49928884671506101878e-01) (252, -5.36419698537914824144e-01) (253, -4.18319955286112044046e-01) (254, -5.30059856562075548680e-01) (255, -4.35321599060252251157e-01) (256, 9.32020177304647923222e-01) (257, 2.83006800020591010869e-02) (258, -5.67958336109496642052e-01) (259, -4.90495682622045459098e-01) (260, -5.40957247177584088504e-01) (261, -5.06137279899098624369e-01) (262, -3.63854513388592523682e-02) (263, -5.78895718510813894753e-01) (264, -5.18861902954606879490e-01) (265, -3.85763817155385824176e-01) (266, -4.13632792055082465499e-01) (267, -9.53017039422608069899e-01) (268, -1.15773039905128383165e-01) (269, -1.54893592702766857983e+00) (270, -4.76326780413578843021e-01) (271, 6.51062983119107818730e-02) (272, -4.27806237703991676380e-01) (273, -5.35817889349690545941e-01) (274, 8.97298695198759863056e-03) (275, -1.38426896130065368862e-01) (276, -4.65585531686734277468e-01) (277, 1.70717907257921762409e-02) (278, -1.13837984359645375682e-02) (279, -5.06308058869622712450e-01) (280, -1.27656371741316443380e-01) (281, -4.15998531820928260649e-02) (282, -4.61187197781758928539e-01) (283, 7.94970494710253022808e-02) (284, 9.05751401833333885660e-02) (285, -5.33860199172205174278e-01) (286, -2.66926589239243929053e-02) (287, -1.21545461648681601963e-01) (288, -4.64743005131672937136e-01) (289, -4.29082714025819711434e-01) (290, -4.71833208735365328135e-01) (291, -3.98396619504789328836e-01) (292, -5.88242491736457706608e-01) (293, -4.50788928912529862636e-01) (294, -3.84461191675987745686e-01) (295, -5.01514223597373964836e-01) (296, -4.63518929860916750751e-01) (297, -3.91478411878742549312e-01) (298, -3.95941324557461116207e-01) (299, -4.31347645844616267574e-01) (300, 2.30068285549617179697e+00) (301, -1.20697469489019137967e+00) (302, -6.90525822952207213312e-01) (303, -1.20161562773934171844e+00) 
