FANN_FLO_2.1
num_layers=18
learning_rate=0.700000
connection_rate=1.000000
network_type=1
learning_momentum=0.000000
training_algorithm=2
train_error_function=1
train_stop_function=0
cascade_output_change_fraction=0.010000
quickprop_decay=-0.000100
quickprop_mu=1.750000
rprop_increase_factor=1.200000
rprop_decrease_factor=0.500000
rprop_delta_min=0.000000
rprop_delta_max=50.000000
rprop_delta_zero=0.100000
cascade_output_stagnation_epochs=12
cascade_candidate_change_fraction=0.010000
cascade_candidate_stagnation_epochs=12
cascade_max_out_epochs=150
cascade_max_cand_epochs=150
cascade_num_candidate_groups=2
bit_fail_limit=3.49999999999999977796e-01
cascade_candidate_limit=1.00000000000000000000e+03
cascade_weight_multiplier=4.00000000000000022204e-01
cascade_activation_functions_count=10
cascade_activation_functions=3 5 7 8 10 11 14 15 16 17 
cascade_activation_steepnesses_count=4
cascade_activation_steepnesses=2.50000000000000000000e-01 5.00000000000000000000e-01 7.50000000000000000000e-01 1.00000000000000000000e+00 
layer_sizes=301 1 1 1 1 1 1 1 1 1 1 1 1 1 1 1 1 27 
scale_included=0
neurons (num_inputs, activation_function, activation_steepness)=(0, 0, 0.00000000000000000000e+00) (0, 0, 0.00000000000000000000e+00) (0, 0, 0.00000000000000000000e+00) (0, 0, 0.00000000000000000000e+00) (0, 0, 0.00000000000000000000e+00) (0, 0, 0.00000000000000000000e+00) (0, 0, 0.00000000000000000000e+00) (0, 0, 0.00000000000000000000e+00) (0, 0, 0.00000000000000000000e+00) (0, 0, 0.00000000000000000000e+00) (0, 0, 0.00000000000000000000e+00) (0, 0, 0.00000000000000000000e+00) (0, 0, 0.00000000000000000000e+00) (0, 0, 0.00000000000000000000e+00) (0, 0, 0.00000000000000000000e+00) (0, 0, 0.00000000000000000000e+00) (0, 0, 0.00000000000000000000e+00) (0, 0, 0.00000000000000000000e+00) (0, 0, 0.00000000000000000000e+00) (0, 0, 0.00000000000000000000e+00) (0, 0, 0.00000000000000000000e+00) (0, 0, 0.00000000000000000000e+00) (0, 0, 0.00000000000000000000e+00) (0, 0, 0.00000000000000000000e+00) (0, 0, 0.00000000000000000000e+00) (0, 0, 0.00000000000000000000e+00) (0, 0, 0.00000000000000000000e+00) (0, 0, 0.00000000000000000000e+00) (0, 0, 0.00000000000000000000e+00) (0, 0, 0.00000000000000000000e+00) (0, 0, 0.00000000000000000000e+00) (0, 0, 0.00000000000000000000e+00) (0, 0, 0.00000000000000000000e+00) (0, 0, 0.00000000000000000000e+00) (0, 0, 0.00000000000000000000e+00) (0, 0, 0.00000000000000000000e+00) (0, 0, 0.00000000000000000000e+00) (0, 0, 0.00000000000000000000e+00) (0, 0, 0.00000000000000000000e+00) (0, 0, 0.00000000000000000000e+00) (0, 0, 0.00000000000000000000e+00) (0, 0, 0.00000000000000000000e+00) (0, 0, 0.00000000000000000000e+00) (0, 0, 0.00000000000000000000e+00) (0, 0, 0.00000000000000000000e+00) (0, 0, 0.00000000000000000000e+00) (0, 0, 0.00000000000000000000e+00) (0, 0, 0.00000000000000000000e+00) (0, 0, 0.00000000000000000000e+00) (0, 0, 0.00000000000000000000e+00) (0, 0, 0.00000000000000000000e+00) (0, 0, 0.00000000000000000000e+00) (0, 0, 0.00000000000000000000e+00) (0, 0, 0.00000000000000000000e+00) (0, 0, 0.00000000000000000000e+00) (0, 0, 0.00000000000000000000e+00) (0, 0, 0.00000000000000000000e+00) (0, 0, 0.00000000000000000000e+00) (0, 0, 0.00000000000000000000e+00) (0, 0, 0.00000000000000000000e+00) (0, 0, 0.00000000000000000000e+00) (0, 0, 0.00000000000000000000e+00) (0, 0, 0.00000000000000000000e+00) (0, 0, 0.00000000000000000000e+00) (0, 0, 0.00000000000000000000e+00) (0, 0, 0.00000000000000000000e+00) (0, 0, 0.00000000000000000000e+00) (0, 0, 0.00000000000000000000e+00) (0, 0, 0.00000000000000000000e+00) (0, 0, 0.00000000000000000000e+00) (0, 0, 0.00000000000000000000e+00) (0, 0, 0.00000000000000000000e+00) (0, 0, 0.00000000000000000000e+00) (0, 0, 0.00000000000000000000e+00) (0, 0, 0.00000000000000000000e+00) (0, 0, 0.00000000000000000000e+00) (0, 0, 0.00000000000000000000e+00) (0, 0, 0.00000000000000000000e+00) (0, 0, 0.00000000000000000000e+00) (0, 0, 0.00000000000000000000e+00) (0, 0, 0.00000000000000000000e+00) (0, 0, 0.00000000000000000000e+00) (0, 0, 0.00000000000000000000e+00) (0, 0, 0.00000000000000000000e+00) (0, 0, 0.00000000000000000000e+00) (0, 0, 0.00000000000000000000e+00) (0, 0, 0.00000000000000000000e+00) (0, 0, 0.00000000000000000000e+00) (0, 0, 0.00000000000000000000e+00) (0, 0, 0.00000000000000000000e+00) (0, 0, 0.00000000000000000000e+00) (0, 0, 0.00000000000000000000e+00) (0, 0, 0.00000000000000000000e+00) (0, 0, 0.00000000000000000000e+00) (0, 0, 0.00000000000000000000e+00) (0, 0, 0.00000000000000000000e+00) (0, 0, 0.00000000000000000000e+00) (0, 0, 0.00000000000000000000e+00) (0, 0, 0.00000000000000000000e+00) (0, 0, 0.00000000000000000000e+00) (0, 0, 0.00000000000000000000e+00) (0, 0, 0.00000000000000000000e+00) (0, 0, 0.00000000000000000000e+00) (0, 0, 0.00000000000000000000e+00) (0, 0, 0.00000000000000000000e+00) (0, 0, 0.00000000000000000000e+00) (0, 0, 0.00000000000000000000e+00) (0, 0, 0.00000000000000000000e+00) (0, 0, 0.00000000000000000000e+00) (0, 0, 0.00000000000000000000e+00) (0, 0, 0.00000000000000000000e+00) (0, 0, 0.00000000000000000000e+00) (0, 0, 0.00000000000000000000e+00) (0, 0, 0.00000000000000000000e+00) (0, 0, 0.00000000000000000000e+00) (0, 0, 0.00000000000000000000e+00) (0, 0, 0.00000000000000000000e+00) (0, 0, 0.00000000000000000000e+00) (0, 0, 0.00000000000000000000e+00) (0, 0, 0.00000000000000000000e+00) (0, 0, 0.00000000000000000000e+00) (0, 0, 0.00000000000000000000e+00) (0, 0, 0.00000000000000000000e+00) (0, 0, 0.00000000000000000000e+00) (0, 0, 0.00000000000000000000e+00) (0, 0, 0.00000000000000000000e+00) (0, 0, 0.00000000000000000000e+00) (0, 0, 0.00000000000000000000e+00) (0, 0, 0.00000000000000000000e+00) (0, 0, 0.00000000000000000000e+00) (0, 0, 0.00000000000000000000e+00) (0, 0, 0.00000000000000000000e+00) (0, 0, 0.00000000000000000000e+00) (0, 0, 0.00000000000000000000e+00) (0, 0, 0.00000000000000000000e+00) (0, 0, 0.00000000000000000000e+00) (0, 0, 0.00000000000000000000e+00) (0, 0, 0.00000000000000000000e+00) (0, 0, 0.00000000000000000000e+00) (0, 0, 0.00000000000000000000e+00) (0, 0, 0.00000000000000000000e+00) (0, 0, 0.00000000000000000000e+00) (0, 0, 0.00000000000000000000e+00) (0, 0, 0.00000000000000000000e+00) (0, 0, 0.00000000000000000000e+00) (0, 0, 0.00000000000000000000e+00) (0, 0, 0.00000000000000000000e+00) (0, 0, 0.00000000000000000000e+00) (0, 0, 0.00000000000000000000e+00) (0, 0, 0.00000000000000000000e+00) (0, 0, 0.00000000000000000000e+00) (0, 0, 0.00000000000000000000e+00) (0, 0, 0.00000000000000000000e+00) (0, 0, 0.00000000000000000000e+00) (0, 0, 0.00000000000000000000e+00) (0, 0, 0.00000000000000000000e+00) (0, 0, 0.00000000000000000000e+00) (0, 0, 0.00000000000000000000e+00) (0, 0, 0.00000000000000000000e+00) (0, 0, 0.00000000000000000000e+00) (0, 0, 0.00000000000000000000e+00) (0, 0, 0.00000000000000000000e+00) (0, 0, 0.00000000000000000000e+00) (0, 0, 0.00000000000000000000e+00) (0, 0, 0.00000000000000000000e+00) (0, 0, 0.00000000000000000000e+00) (0, 0, 0.00000000000000000000e+00) (0, 0, 0.00000000000000000000e+00) (0, 0, 0.00000000000000000000e+00) (0, 0, 0.00000000000000000000e+00) (0, 0, 0.00000000000000000000e+00) (0, 0, 0.00000000000000000000e+00) (0, 0, 0.00000000000000000000e+00) (0, 0, 0.00000000000000000000e+00) (0, 0, 0.00000000000000000000e+00) (0, 0, 0.00000000000000000000e+00) (0, 0, 0.00000000000000000000e+00) (0, 0, 0.00000000000000000000e+00) (0, 0, 0.00000000000000000000e+00) (0, 0, 0.00000000000000000000e+00) (0, 0, 0.00000000000000000000e+00) (0, 0, 0.00000000000000000000e+00) (0, 0, 0.00000000000000000000e+00) (0, 0, 0.00000000000000000000e+00) (0, 0, 0.00000000000000000000e+00) (0, 0, 0.00000000000000000000e+00) (0, 0, 0.00000000000000000000e+00) (0, 0, 0.00000000000000000000e+00) (0, 0, 0.00000000000000000000e+00) (0, 0, 0.00000000000000000000e+00) (0, 0, 0.00000000000000000000e+00) (0, 0, 0.00000000000000000000e+00) (0, 0, 0.00000000000000000000e+00) (0, 0, 0.00000000000000000000e+00) (0, 0, 0.00000000000000000000e+00) (0, 0, 0.00000000000000000000e+00) (0, 0, 0.00000000000000000000e+00) (0, 0, 0.00000000000000000000e+00) (0, 0, 0.00000000000000000000e+00) (0, 0, 0.00000000000000000000e+00) (0, 0, 0.00000000000000000000e+00) (0, 0, 0.00000000000000000000e+00) (0, 0, 0.00000000000000000000e+00) (0, 0, 0.00000000000000000000e+00) (0, 0, 0.00000000000000000000e+00) (0, 0, 0.00000000000000000000e+00) (0, 0, 0.00000000000000000000e+00) (0, 0, 0.00000000000000000000e+00) (0, 0, 0.00000000000000000000e+00) (0, 0, 0.00000000000000000000e+00) (0, 0, 0.00000000000000000000e+00) (0, 0, 0.00000000000000000000e+00) (0, 0, 0.00000000000000000000e+00) (0, 0, 0.00000000000000000000e+00) (0, 0, 0.00000000000000000000e+00) (0, 0, 0.00000000000000000000e+00) (0, 0, 0.00000000000000000000e+00) (0, 0, 0.00000000000000000000e+00) (0, 0, 0.00000000000000000000e+00) (0, 0, 0.00000000000000000000e+00) (0, 0, 0.00000000000000000000e+00) (0, 0, 0.00000000000000000000e+00) (0, 0, 0.00000000000000000000e+00) (0, 0, 0.00000000000000000000e+00) (0, 0, 0.00000000000000000000e+00) (0, 0, 0.00000000000000000000e+00) (0, 0, 0.00000000000000000000e+00) (0, 0, 0.00000000000000000000e+00) (0, 0, 0.00000000000000000000e+00) (0, 0, 0.00000000000000000000e+00) (0, 0, 0.00000000000000000000e+00) (0, 0, 0.00000000000000000000e+00) (0, 0, 0.00000000000000000000e+00) (0, 0, 0.00000000000000000000e+00) (0, 0, 0.00000000000000000000e+00) (0, 0, 0.00000000000000000000e+00) (0, 0, 0.00000000000000000000e+00) (0, 0, 0.00000000000000000000e+00) (0, 0, 0.00000000000000000000e+00) (0, 0, 0.00000000000000000000e+00) (0, 0, 0.00000000000000000000e+00) (0, 0, 0.00000000000000000000e+00) (0, 0, 0.00000000000000000000e+00) (0, 0, 0.00000000000000000000e+00) (0, 0, 0.00000000000000000000e+00) (0, 0, 0.00000000000000000000e+00) (0, 0, 0.00000000000000000000e+00) (0, 0, 0.00000000000000000000e+00) (0, 0, 0.00000000000000000000e+00) (0, 0, 0.00000000000000000000e+00) (0, 0, 0.00000000000000000000e+00) (0, 0, 0.00000000000000000000e+00) (0, 0, 0.00000000000000000000e+00) (0, 0, 0.00000000000000000000e+00) (0, 0, 0.00000000000000000000e+00) (0, 0, 0.00000000000000000000e+00) (0, 0, 0.00000000000000000000e+00) (0, 0, 0.00000000000000000000e+00) (0, 0, 0.00000000000000000000e+00) (0, 0, 0.00000000000000000000e+00) (0, 0, 0.00000000000000000000e+00) (0, 0, 0.00000000000000000000e+00) (0, 0, 0.00000000000000000000e+00) (0, 0, 0.00000000000000000000e+00) (0, 0, 0.00000000000000000000e+00) (0, 0, 0.00000000000000000000e+00) (0, 0, 0.00000000000000000000e+00) (0, 0, 0.00000000000000000000e+00) (0, 0, 0.00000000000000000000e+00) (0, 0, 0.00000000000000000000e+00) (0, 0, 0.00000000000000000000e+00) (0, 0, 0.00000000000000000000e+00) (0, 0, 0.00000000000000000000e+00) (0, 0, 0.00000000000000000000e+00) (0, 0, 0.00000000000000000000e+00) (0, 0, 0.00000000000000000000e+00) (0, 0, 0.00000000000000000000e+00) (0, 0, 0.00000000000000000000e+00) (0, 0, 0.00000000000000000000e+00) (0, 0, 0.00000000000000000000e+00) (0, 0, 0.00000000000000000000e+00) (0, 0, 0.00000000000000000000e+00) (0, 0, 0.00000000000000000000e+00) (0, 0, 0.00000000000000000000e+00) (0, 0, 0.00000000000000000000e+00) (0, 0, 0.00000000000000000000e+00) (0, 0, 0.00000000000000000000e+00) (0, 0, 0.00000000000000000000e+00) (0, 0, 0.00000000000000000000e+00) (0, 0, 0.00000000000000000000e+00) (0, 0, 0.00000000000000000000e+00) (0, 0, 0.00000000000000000000e+00) (0, 0, 0.00000000000000000000e+00) (0, 0, 0.00000000000000000000e+00) (0, 0, 0.00000000000000000000e+00) (0, 0, 0.00000000000000000000e+00) (0, 0, 0.00000000000000000000e+00) (0, 0, 0.00000000000000000000e+00) (0, 0, 0.00000000000000000000e+00) (0, 0, 0.00000000000000000000e+00) (0, 0, 0.00000000000000000000e+00) (301, 3, 2.50000000000000000000e-01) (302, 17, 7.50000000000000000000e-01) (303, 17, 1.00000000000000000000e+00) (304, 15, 2.50000000000000000000e-01) (305, 10, 1.00000000000000000000e+00) (306, 17, 5.00000000000000000000e-01) (307, 15, 1.00000000000000000000e+00) (308, 10, 1.00000000000000000000e+00) (309, 3, 1.00000000000000000000e+00) (310, 3, 1.00000000000000000000e+00) (311, 3, 2.50000000000000000000e-01) (312, 3, 2.50000000000000000000e-01) (313, 3, 7.50000000000000000000e-01) (314, 3, 2.50000000000000000000e-01) (315, 3, 7.50000000000000000000e-01) (316, 15, 2.50000000000000000000e-01) (317, 5, 5.00000000000000000000e-01) (317, 5, 5.00000000000000000000e-01) (317, 5, 5.00000000000000000000e-01) (317, 5, 5.00000000000000000000e-01) (317, 5, 5.00000000000000000000e-01) (317, 5, 5.00000000000000000000e-01) (317, 5, 5.00000000000000000000e-01) (317, 5, 5.00000000000000000000e-01) (317, 5, 5.00000000000000000000e-01) (317, 5, 5.00000000000000000000e-01) (317, 5, 5.00000000000000000000e-01) (317, 5, 5.00000000000000000000e-01) (317, 5, 5.00000000000000000000e-01) (317, 5, 5.00000000000000000000e-01) (317, 5, 5.00000000000000000000e-01) (317, 5, 5.00000000000000000000e-01) (317, 5, 5.00000000000000000000e-01) (317, 5, 5.00000000000000000000e-01) (317, 5, 5.00000000000000000000e-01) (317, 5, 5.00000000000000000000e-01) (317, 5, 5.00000000000000000000e-01) (317, 5, 5.00000000000000000000e-01) (317, 5, 5.00000000000000000000e-01) (317, 5, 5.00000000000000000000e-01) (317, 5, 5.00000000000000000000e-01) (317, 5, 5.00000000000000000000e-01) (317, 5, 5.00000000000000000000e-01) 
connections (connected_to_neuron, weight)=(0, -3.03350864678951392950e-01) (1, -6.65452792078587096469e-01) (2, 1.14221097200778484715e-01) (3, 1.86965228289035334530e-01) (4, 4.75697280138400957483e-01) (5, 2.92473078936008379358e-01) (6, -9.44670110050165046101e-02) (7, -3.33189275771709592089e-01) (8, -3.42966821700664670214e-01) (9, -6.85556366200548938927e-01) (10, 3.69976187614442508789e-01) (11, 4.10727039818661654458e-01) (12, -6.30083190895387779129e-01) (13, 1.03830262770526760008e+00) (14, 7.94622508190801490890e-01) (15, 1.15026335611510188706e+00) (16, -7.42829195315939716515e-01) (17, 3.33477581602854122877e-01) (18, 5.51413394747632290560e-01) (19, 1.09859881573762341311e+00) (20, 6.04370015248234873639e-02) (21, 7.75965272319801391276e-01) (22, -2.10813896708897420551e-02) (23, -5.26058088416977917556e-02) (24, -7.66059384310376567662e-01) (25, -4.84814964795243441564e-01) (26, -5.19403271937501354039e-01) (27, -3.90991143271948171645e-01) (28, -1.52152718787711138670e-01) (29, 1.20064296438668727252e-01) (30, 8.49594490190975437649e-01) (31, 3.32009737998532949987e-01) (32, 1.78857272178220033654e-01) (33, -4.16208126998198618685e-02) (34, -5.93188626108878125365e-01) (35, -3.75131518709175215687e-01) (36, 9.46692560114780534697e-01) (37, 1.02129044505693961087e-01) (38, -1.01351502265678290564e-03) (39, -4.50007201915305021789e-01) (40, 3.02788938147348807295e-01) (41, -6.88668826406519829497e-01) (42, 6.12355145115803134459e-01) (43, 4.70996799441912583628e-01) (44, 1.10860932003021606107e+00) (45, 4.04462212114185537537e-01) (46, 5.03503695969479747596e-01) (47, -7.06311629896681725249e-01) (48, -6.25946257043555998045e-01) (49, -1.75690085367948167772e-01) (50, -8.78901892082482594226e-01) (51, 4.87340296370310177565e-01) (52, -5.81825172039030724669e-01) (53, -7.85976403784124921792e-03) (54, -1.01840731667921269299e+00) (55, -6.17420194249202358705e-01) (56, 2.13790268929813703780e-01) (57, -4.83665927405459439292e-01) (58, -1.53674152404400132799e-01) (59, 9.97449124914927431895e-01) (60, 1.70702092548754291723e-01) (61, -6.14451228357915435474e-01) (62, -1.03620589290428291585e-02) (63, -6.12129433781239074008e-01) (64, 2.45992326968701380263e-01) (65, 3.93489822291449409253e-01) (66, -4.27341014197902435701e-01) (67, -9.27027990393150119752e-02) (68, -7.91902689911489265917e-01) (69, 6.28439740742758101710e-01) (70, 3.93078055473443377377e-01) (71, 5.01609282009322643425e-01) (72, 5.59853972218866569044e-01) (73, -1.62009165778232960831e-01) (74, -2.97218023516301721454e-01) (75, 7.13265619586802679386e-01) (76, -8.78972126658331021076e-01) (77, -9.05789311511414285683e-01) (78, 7.53421853516349604440e-01) (79, -5.53302189548704137501e-01) (80, -2.11455710724383794119e-01) (81, 7.93705477709611639803e-01) (82, 7.74042398814267285090e-01) (83, 4.33902166863595478707e-02) (84, -3.34788000980972888510e-01) (85, 9.51985089437675346957e-01) (86, 5.61972630344039547623e-01) (87, 7.47921947741138293253e-01) (88, -8.59093406162548145488e-01) (89, -8.87606971459816707082e-01) (90, 6.89990694110115043713e-01) (91, 5.16388248039348685126e-01) (92, -3.11579092938295776349e-01) (93, -4.56000876115471298622e-01) (94, 5.81067330279064098164e-01) (95, 6.39190147748288195473e-01) (96, 9.80319253890673203422e-01) (97, -6.20909340088191541440e-01) (98, -2.34207853416844663519e-01) (99, -9.62851792587873678286e-01) (100, 6.29613017562102306179e-01) (101, 8.57992065241746759696e-01) (102, 6.08451881307229158757e-01) (103, 4.79635552968100453697e-01) (104, -5.42495974864945149085e-02) (105, -8.43326274338718429036e-01) (106, -1.30770140252399469372e-01) (107, -1.29862834582033986885e-01) (108, -5.73223940791231845182e-01) (109, -2.42029154637232374325e-01) (110, 5.99446886567921111144e-01) (111, 1.78446994830357003048e-01) (112, -7.04721581624657367193e-01) (113, 2.38697962185337980712e-01) (114, -6.48671766253470116759e-01) (115, 2.66957916878734421995e-02) (116, 3.36651263946969148133e-01) (117, 6.00280754254224557798e-01) (118, -4.33815192865044052528e-01) (119, 4.46129559612825146719e-02) (120, 9.47336283825567115890e-01) (121, -6.78221805721851866977e-01) (122, -8.82134784633689106315e-02) (123, -6.16215517076784902173e-01) (124, -2.87994690253374152622e-01) (125, -9.10758703244974210378e-01) (126, -7.83164518977505497155e-01) (127, -2.54094051628877937166e-01) (128, -1.85721491711812541903e-01) (129, -1.84035334865114752478e-01) (130, -4.61467086525276404263e-01) (131, -8.65096273232965784494e-01) (132, -2.42838009352786043937e-01) (133, -7.01604426294138772136e-01) (134, 9.01810492140574182507e-01) (135, 5.26487806880101327778e-01) (136, -5.18399663750136574514e-01) (137, -2.84740992530862102594e-01) (138, -5.37456079478365711388e-01) (139, -2.14994326620867287625e-01) (140, 4.49052154499333777693e-01) (141, 8.64981114806057216349e-01) (142, 1.15209535996252454559e+00) (143, 7.71266118359671959404e-01) (144, 1.52921471088794225235e-01) (145, 1.07255040913361154864e+00) (146, -3.47044904196746883951e-01) (147, -7.26202099990230443005e-01) (148, 6.81250728867936694577e-01) (149, 2.60535136532889621819e-01) (150, 6.21454867809680511215e-01) (151, 4.45969184121518757991e-01) (152, 4.27155487029711677938e-01) (153, -6.36308291890994026652e-01) (154, 7.65269660960860353960e-01) (155, 4.17379150790337272170e-01) (156, -2.43422319334414077874e-01) (157, 6.98876796116429832573e-01) (158, -3.19550992569353986550e-01) (159, 3.94728551545708294945e-01) (160, -6.16758800793534178730e-01) (161, 2.80915619144892214631e-01) (162, 7.97203633368584574370e-01) (163, -3.14411541322881862848e-02) (164, 3.75061331142980403097e-01) (165, 5.21430060390582261753e-01) (166, -7.26192055639133360323e-01) (167, 6.52845503393306936246e-01) (168, -7.94880037364896652186e-01) (169, -3.41807628151703513097e-01) (170, -6.21463837275904040780e-01) (171, 4.74727468471553448737e-01) (172, -1.18635053105962540165e+00) (173, -1.71185830681664907793e+00) (174, 1.19146935432116032882e-01) (175, 4.63651526285499049340e-01) (176, -8.68184908147746181584e-01) (177, 6.02333122236248685866e-01) (178, 1.16040219451600382095e-01) (179, -8.81238204729776430923e-01) (180, -2.60557539970715568156e-01) (181, 7.56697538627085358742e-02) (182, 8.11374168213022523011e-02) (183, 1.00779637938843635858e+00) (184, 1.19187460923965343751e-01) (185, -2.49922229265396533826e-01) (186, 1.07628621186788531183e+00) (187, 9.15534980101158191168e-01) (188, -2.55872008941539663684e-01) (189, -2.84131210575531589768e-01) (190, 2.21000255272384177330e-01) (191, 2.94413508102889687201e-01) (192, 1.07268772218214358816e+00) (193, -1.57651725936607228773e-01) (194, -6.52380466512279655333e-01) (195, 5.50534578622444370488e-01) (196, -6.53574834251612335478e-01) (197, -6.46845499517620797780e-02) (198, 4.33078658351938372562e-01) (199, -6.96778747964576727902e-01) (200, 5.99188916584398434395e-01) (201, 9.10359616576804198118e-01) (202, 7.64938314771443694795e-01) (203, -7.87459845328539520537e-01) (204, -8.17761573966366395183e-01) (205, -1.90772973561417813482e-01) (206, 7.67763449401231645730e-01) (207, -6.29070516111934319170e-01) (208, -7.52269308040028783502e-01) (209, 3.98122450295161578460e-01) (210, -8.18238209958893403240e-01) (211, -1.02476835276705258160e-01) (212, -4.49518661964405541465e-01) (213, 3.78796562165448824633e-01) (214, -2.31897856735141266737e-01) (215, 8.79656602844410162589e-01) (216, -6.47917903722864840788e-01) (217, -2.75949180152040784986e-01) (218, 8.47381722698252071169e-01) (219, 1.42550416371449717445e-01) (220, 3.12414956778714836272e-01) (221, 6.27033494888394188349e-02) (222, -5.60747440848442524342e-01) (223, 2.46586241620645019168e-01) (224, 9.33477259611952381313e-01) (225, -1.80161710772606148412e-01) (226, -3.22204492193594316252e-01) (227, -7.85834861692427222302e-01) (228, 6.71261675736531393532e-01) (229, 9.64025773900612947820e-01) (230, -4.63713928799077079734e-01) (231, 3.08598724507024801955e-01) (232, 7.55993009775546509488e-01) (233, -7.49812423343760303673e-01) (234, 4.36589844605550392309e-01) (235, 7.84642300578275997402e-01) (236, -1.07681497673436377127e-01) (237, 1.01508811955349748102e-01) (238, 1.02943754312363155989e+00) (239, 7.07997241066864180237e-02) (240, -6.32961665433314335516e-01) (241, 1.04266654759186350176e+00) (242, 7.84908683909698479120e-01) (243, -2.02962203974825866615e-01) (244, 3.03791762560275901972e-01) (245, -5.33674552197558216271e-01) (246, -4.77718372982408989724e-01) (247, 4.87869136626896737763e-01) (248, 6.96209253244055824295e-03) (249, -7.46391242299796919824e-01) (250, -4.70048024411303555503e-01) (251, -7.82295541154818807605e-01) (252, 1.44031000823209104356e-01) (253, -2.05379553348859045236e-01) (254, 2.94053569694117444833e-01) (255, 1.48582291074476641884e-03) (256, 4.91249219422238370125e-01) (257, 8.81918679987295117684e-01) (258, 4.85368153676313555597e-04) (259, -7.75597196951586815433e-04) (260, 6.50197401900842963940e-01) (261, 4.47117101465566380014e-01) (262, -8.17442047501904522910e-01) (263, 3.14282666956289091775e-01) (264, 4.80414040467366854070e-01) (265, 4.53484811681375166170e-01) (266, -8.88218874401001806662e-02) (267, -7.02727200274985253081e-01) (268, -5.86656748409373096642e-01) (269, -1.55240941728250619880e-01) (270, 1.39123594424351904042e-01) (271, -3.84523770910635220854e-01) (272, -2.85905740362539628752e-01) (273, -1.38290168529074636306e-01) (274, 2.68487111573117276375e-01) (275, 9.20181047235830273934e-01) (276, 9.90864392729847304198e-02) (277, 6.25863351720437166570e-01) (278, 2.34718718427285644168e-01) (279, 1.04134970735974974332e+00) (280, 7.29973451142209239784e-01) (281, 6.21521080595774377819e-01) (282, 1.03409767267075070052e+00) (283, -2.88687608343496660002e-01) (284, -7.44523099762335660579e-01) (285, 2.08357180220407695037e-01) (286, 5.28189436440365867043e-01) (287, 6.02699295525448985877e-01) (288, -1.20485900670620149633e-01) (289, -6.30017933160397003434e-01) (290, -5.56769009623619526295e-01) (291, -5.90959935541254810509e-01) (292, 6.25643516448975867128e-01) (293, -5.23107810969454578576e-01) (294, 5.11061907976535167997e-01) (295, -3.88039934936491720530e-02) (296, 7.68791915148166138394e-01) (297, -7.19938440949055236118e-01) (298, 5.19480120834384523354e-02) (299, 1.01619613286819920894e+00) (300, 2.11775873189986540979e+00) (0, -4.58173629993726405640e-01) (1, 1.45751206094570129324e+00) (2, 1.36523477250881164480e+00) (3, 1.32534209247651912911e-01) (4, -3.65615913052369789771e-01) (5, 1.21557975433368659068e+00) (6, -5.28745765762784064590e-02) (7, 1.11211494491738771551e+00) (8, 5.62866984520464685993e-01) (9, -2.86007725968844050968e-01) (10, 3.22504723988131014600e-01) (11, 1.30509751792902828349e+00) (12, 3.04608081613579495528e-01) (13, 3.02651153422294039164e-01) (14, 5.46311401736107371541e-01) (15, 7.16981243863509032366e-01) (16, 1.46143321928705494095e+00) (17, 1.20776404217933186480e+00) (18, 7.37300056751200250105e-01) (19, 3.80688733432070491869e-02) (20, 7.79533213946596026389e-02) (21, 6.31260156822708418112e-01) (22, 5.15109197090743098357e-01) (23, -2.42337977187823294667e-01) (24, 2.01093751724192443264e-01) (25, -1.23183788017972792317e-01) (26, 7.60459616578042063573e-01) (27, 1.33491970037375651259e+00) (28, 5.60561900405332935726e-01) (29, 6.63406175744723908272e-02) (30, 1.16514556108421918346e+00) (31, 5.28546748533937682524e-01) (32, -8.32381165448244433880e-03) (33, 9.46256711490261248620e-01) (34, 1.19797244151998749651e+00) (35, 1.76187094579875719313e-01) (36, 7.42029248824938147955e-01) (37, -4.44591524228360290838e-01) (38, -2.54430503867837942700e-01) (39, -2.88042679810571300436e-01) (40, -2.04527323637713615012e-01) (41, 5.67937364444273673492e-01) (42, -6.06852493334329667896e-01) (43, 3.81295842147178709602e-01) (44, 1.23255258676879009272e+00) (45, 6.73386487162605407164e-01) (46, -2.02200071246723567242e-01) (47, 1.30482858892902342518e+00) (48, 1.69806929310710730263e-01) (49, 9.06888716075788248183e-01) (50, -2.76969699899059340620e-01) (51, 1.07611632812976121265e+00) (52, 3.27962571746394038197e-01) (53, 9.66468457169327166412e-01) (54, 1.34249516268963597909e+00) (55, 1.05600251713459547531e+00) (56, -5.15022060101836154367e-01) (57, 8.44033524774170373917e-01) (58, 9.85071285855145806210e-01) (59, 5.69987164812157165450e-01) (60, 1.39206840922621677414e+00) (61, 5.10461917827447986262e-01) (62, -3.21915669955548822134e-01) (63, -2.86579551475162896956e-02) (64, -3.01870716033271237200e-02) (65, 1.38280647702410641742e+00) (66, 1.17131292263374575668e+00) (67, 1.15892691686958015929e+00) (68, -4.78233532705773289884e-01) (69, 7.96415312370420180876e-01) (70, 1.36715176486760947583e+00) (71, -1.74372537184442510938e-01) (72, 5.79547547033547161277e-01) (73, 1.41988696925854340769e+00) (74, 9.11436074115036576337e-01) (75, -2.67896498110239023038e-01) (76, 3.54755358312434654344e-01) (77, 9.85333592336091190766e-01) (78, -2.13020209187089276659e-01) (79, 1.50848111569715381819e+00) (80, 8.39806912889551115953e-01) (81, -1.92152985468071308382e-03) (82, 1.03653329841913133258e+00) (83, -6.09372201960844295243e-01) (84, -3.12610699061222185868e-01) (85, 9.18955698650197438937e-01) (86, 1.18499570578385515773e+00) (87, -5.33698961768023116825e-01) (88, -4.90941230204177819774e-02) (89, 3.78504393771291913762e-01) (90, 7.57829684265657443909e-01) (91, 8.30910600967330603694e-02) (92, -3.89409837827437266267e-01) (93, 7.18483630422764751877e-01) (94, 5.14588701445226837095e-01) (95, -1.64472321593116171945e-01) (96, 8.21308681224436898383e-01) (97, -2.85118610890373824773e-01) (98, -3.86652371812847950316e-01) (99, 6.40110905599372115304e-01) (100, 1.20377564069026821159e+00) (101, -6.50664840905122221493e-01) (102, 1.18803367036219253983e+00) (103, -2.72714936248488915016e-01) (104, -6.05915268650468963330e-01) (105, 5.95380442998209136185e-01) (106, 2.05508329297148378823e-01) (107, 5.58599706711089161182e-01) (108, 3.18162378574435522616e-01) (109, 4.62334203201620164148e-01) (110, 7.43640121967115930168e-01) (111, -5.77388586145563209584e-01) (112, -1.91585279574257250079e-01) (113, 7.48474405868144870846e-02) (114, -2.38598923167728627082e-01) (115, 1.46504704145941522242e+00) (116, -3.21052539682595894366e-01) (117, 1.76043441985968707186e+00) (118, -5.31013400873198149199e-01) (119, 2.41433160432555360408e-01) (120, 2.32604208996535027909e-01) (121, 7.76452037472702860654e-01) (122, 8.87360411505509150132e-01) (123, 9.74259113064572690455e-01) (124, -1.66213466136538645657e-01) (125, 9.91792597443373002974e-01) (126, 6.08603830757445063426e-01) (127, -9.89463602564808475393e-01) (128, -1.81174201146625879488e+00) (129, -2.47085346528725042017e-03) (130, -5.12177430710600845032e-01) (131, 1.52929554024900632436e-01) (132, -1.23998936581895491393e+00) (133, -3.96724782847208634617e-01) (134, -2.60103804567939533854e+00) (135, 1.06611911838999554036e-01) (136, 5.86975467452597737816e-02) (137, 1.24710017131876838015e+00) (138, -8.74342850893669448764e-02) (139, -1.12458395881070005728e+00) (140, -8.65416547282190751211e-01) (141, 4.42456685428463059040e-01) (142, 8.25452397301110196715e-01) (143, -4.76272324482610726060e-02) (144, -5.36120320438033537425e-02) (145, 3.82542957087485258061e-01) (146, -6.59167475316005391228e-01) (147, 1.00746224595246802735e+00) (148, 1.98874410204773099942e+00) (149, 5.26846799808487697980e-01) (150, 1.04803719631514358213e+00) (151, -1.02007902502644492992e-01) (152, 9.37583291850535904821e-01) (153, 8.86290802978953018432e-01) (154, 1.50444117170577840170e+00) (155, 9.83658158729186632430e-02) (156, 6.67058098316579695108e-01) (157, 9.99551613572385422302e-01) (158, 8.82801634742448743109e-02) (159, 1.79086210115486665906e+00) (160, -5.26788658041777324570e-01) (161, -1.23112045963834271234e+00) (162, -4.56828362237742147123e-01) (163, 1.18662085023141461448e+00) (164, 1.00021573881153291730e+00) (165, 2.95902392722353468901e-01) (166, 1.30381392287479291880e+00) (167, 9.80684619180773653468e-01) (168, -3.16132487699401276693e-01) (169, 2.65782443630025921877e+00) (170, 7.16284994547561115752e-01) (171, 2.07500794738469190870e-01) (172, 2.20744493224198601311e+00) (173, 6.24835836444669223688e-01) (174, 4.17604651087654321628e-01) (175, -2.84835333601124417180e-02) (176, -3.10140517543054550220e-01) (177, 7.96414616066739133871e-01) (178, 2.73314861870487080253e+00) (179, 2.91903507344916457455e+00) (180, 9.19553786747057344542e-01) (181, 4.53267036328766748099e-01) (182, -8.44647931398955637006e-02) (183, 6.84541856284852645587e-01) (184, 1.35594656712101579998e+00) (185, 2.61738568324030473899e-01) (186, 1.25626474187837011698e+00) (187, 6.16286138959260210157e-01) (188, 1.48682973671173446206e+00) (189, 2.76649762670949060650e-02) (190, 5.20775113646900100761e-01) (191, 1.07317107038358727777e+00) (192, 3.62852017312505159552e-01) (193, 7.47351409903542207580e-01) (194, 8.73741405299458762101e-01) (195, -6.79033813800713620390e-02) (196, 1.45951442239885564867e+00) (197, 6.29440235624018185057e-01) (198, -7.73590553329883551248e-02) (199, 1.77687967787649531148e-01) (200, 2.85291802734178590040e-01) (201, 1.06338752392461199925e+00) (202, 3.05644615741666347830e-01) (203, 5.51933936501454502910e-01) (204, -3.09860300976459668298e-01) (205, 1.40462839692783481027e+00) (206, 1.92972702207656854334e+00) (207, -2.49230353369199825186e-01) (208, 3.28110600330785595613e-01) (209, -5.18411351848338974868e-01) (210, -2.84890116865360032428e-01) (211, -1.21125147565189911214e-01) (212, 1.55246836884273120560e+00) (213, 1.78083684211834153421e-01) (214, 1.05164600727486368115e+00) (215, 1.16458067463449310708e+00) (216, 5.64290007941603666275e-01) (217, 8.46040508164886295717e-01) (218, 4.61873579119484956035e-01) (219, 4.60380160302887420087e-01) (220, 1.37115048820513418804e+00) (221, 1.39676391616939943319e+00) (222, 2.34444246433013758768e-01) (223, 2.39220904809532508573e-01) (224, 6.72875057695212941411e-01) (225, 1.28505558898023619641e+00) (226, 6.38314048811929324323e-01) (227, 5.13369581790331874771e-01) (228, 6.39666906022250514319e-01) (229, 1.17938196773353820568e+00) (230, 9.44677106406961120122e-01) (231, 5.91151427526989015071e-01) (232, 6.68563428798154446575e-01) (233, -4.60823695377449216171e-01) (234, 3.99000939717467417722e-01) (235, 9.62584595445311719253e-01) (236, 1.61248313826739297916e+00) (237, -5.12303753155541954922e-02) (238, 1.21865639151977389609e+00) (239, 2.67131429894824912186e-01) (240, 1.32940815563963221635e+00) (241, 1.69722351212344535476e+00) (242, 9.39596199274813415059e-01) (243, 9.45965065385157455324e-01) (244, 1.23809630365292730469e-01) (245, 2.31060965971600612567e-01) (246, 1.01766715003965080300e+00) (247, 1.24489257791700413947e+00) (248, -1.36485116888662993961e-01) (249, -3.26032529215426081226e-01) (250, 1.37157288486866923982e-01) (251, -5.48264932765115120539e-01) (252, -2.81470309990317468785e-01) (253, 7.65088283596502938266e-01) (254, 5.58467709926397160025e-01) (255, 7.34680026564184740501e-01) (256, 4.70882567222516867922e-01) (257, 1.16745450078760226731e+00) (258, -9.03295205866855993593e-02) (259, 1.48783834204509823884e+00) (260, 1.09947215038547807531e+00) (261, 1.03700036643241721990e+00) (262, 5.19051521074857302729e-01) (263, 1.00138979651138854132e-01) (264, 1.23708806585238084708e+00) (265, 1.25395809028333382606e+00) (266, -3.37899155894309966008e-01) (267, 1.05510884038110974714e+00) (268, -3.43522042653621795250e-01) (269, 1.30617091819458530644e+00) (270, -2.02188377483128664536e-02) (271, 1.25174112146323945893e+00) (272, 1.40486344073981794800e+00) (273, 1.12093159156980104463e+00) (274, 6.69641757033357709616e-01) (275, -2.78881500601481646662e-02) (276, 2.07439324299646780936e-02) (277, 4.92722856199972070873e-03) (278, -2.07431880751042185818e-01) (279, 8.53008693849862803527e-02) (280, 1.66136688629370948833e-01) (281, 3.82540061985266965916e-01) (282, 1.80664152189719567909e-01) (283, 3.81406094614203938775e-01) (284, -3.25677901048958273744e-01) (285, 8.64591065641265310582e-01) (286, -3.90604853438826782330e-01) (287, 6.21726999155859161306e-01) (288, 8.21640644595003077910e-01) (289, -2.29840246545242946064e-02) (290, 6.45029475287447806586e-01) (291, 3.22564759713834747767e-01) (292, -4.55003998053577496385e-01) (293, -3.59122544335814697369e-01) (294, 1.07065512541142937586e+00) (295, 1.24703897879414093985e+00) (296, 1.38081620759180467850e+00) (297, 1.17868848552729921231e+00) (298, 8.45875486850070523737e-01) (299, -4.21765728431516773167e-01) (300, 2.25568873950248471871e+00) (301, -6.85684389278699342185e+01) (0, 1.09241397076394330945e+00) (1, 1.77483984763882024493e-01) (2, 1.41441054039742719617e+00) (3, 1.67261145344148864922e+00) (4, 1.50206985615568400227e+00) (5, 1.33134946370256268544e+00) (6, 1.10952251604000418084e+00) (7, 9.12664310386465560399e-01) (8, 2.01979593684958103061e-01) (9, 1.08266523248233026422e+00) (10, 6.49685975290430928197e-01) (11, 1.02197128010957394295e+00) (12, 4.80820173529781402788e-01) (13, 9.90452182796467128778e-02) (14, 1.84677851703632378566e-02) (15, 2.13782245647598762028e-01) (16, 1.78050368664373359628e+00) (17, 7.40705267455494920092e-01) (18, 9.95208655911575590380e-01) (19, 5.76172223864906754565e-02) (20, 1.16221623214439051530e+00) (21, 3.62064091029541179623e-01) (22, 1.21658640740026435800e+00) (23, 4.31911595907401912875e-01) (24, 9.64192669958858217250e-01) (25, 1.61747995383640397193e+00) (26, 8.27466154721991253851e-01) (27, 1.22596487183641267293e+00) (28, 1.11441319820989526157e+00) (29, 8.46793294780473909666e-02) (30, 1.69912964752343853547e+00) (31, 4.44574984240139137182e-01) (32, 5.20239194089014755917e-01) (33, 1.25354796509938171134e+00) (34, 3.03842451549662773136e-01) (35, 1.70787473958209257141e-01) (36, 8.68541426742180489029e-01) (37, 1.58051150800617623560e+00) (38, 1.28868984818769671818e+00) (39, 1.14292271349867768926e+00) (40, 8.36284335828913594213e-01) (41, 3.04587350222334136973e-02) (42, 4.16075069416053600069e-01) (43, 1.47569576081210018792e+00) (44, 3.39886116496715406932e-01) (45, 5.15184510798926909025e-01) (46, -1.39258947097168794826e-01) (47, 2.34955997026538937478e-01) (48, 1.41011382262372686469e+00) (49, 9.38067588365645854687e-01) (50, 4.06105772243334828264e-01) (51, 7.34859872909064626434e-01) (52, 1.57744886457963540138e+00) (53, -1.79068419330739858619e-01) (54, 1.31944817736052755208e+00) (55, 4.84719136536882144739e-01) (56, 1.55323849899547394848e+00) (57, 3.01189332162563938589e-01) (58, 6.25906296139719098282e-02) (59, 8.56303327154956051004e-01) (60, 5.84502807062447504727e-01) (61, -2.47548668989626213799e-01) (62, 1.43139937162839281370e+00) (63, 1.23840203450251884476e+00) (64, 1.35116152483129892126e+00) (65, -8.85867900647878681042e-02) (66, 1.11229451679599899983e+00) (67, -4.78176615284829631403e-01) (68, 1.09573877978994871363e+00) (69, 1.04875559059574552379e+00) (70, 1.70970019899471781244e+00) (71, 6.40373378877761911809e-01) (72, 7.98218223757997669132e-01) (73, -5.78884002056323065943e-01) (74, -5.97338321269326621987e-01) (75, -2.03407817161398829509e-01) (76, 9.97874372360136985272e-01) (77, -2.08987322281965343107e-01) (78, -2.69035397838401024728e-01) (79, 4.98138873267576665071e-01) (80, 8.94361532718583651658e-01) (81, 3.73279175378643635064e-01) (82, 1.06767509187840548002e+00) (83, 6.70988266375602937508e-01) (84, 9.21180327356967421082e-01) (85, 1.13247948073844395545e+00) (86, -8.74865802611558440738e-01) (87, 1.93534353293836974830e-01) (88, 1.13612489972944064043e+00) (89, -5.19832747707237086132e-01) (90, -2.18812839373110884500e-01) (91, 5.25801104045113598673e-01) (92, -3.20946938026853367809e-01) (93, 9.37036779738998792944e-01) (94, -9.17409860759511364137e-01) (95, -8.36926872526341236735e-01) (96, 1.58767531285346485959e+00) (97, 1.82908407946672002531e+00) (98, 4.57013744542999866827e-01) (99, 9.42356307043451968397e-01) (100, 5.09590247695168696573e-01) (101, -9.51188538348063730710e-03) (102, 3.18781965079475038127e-01) (103, 6.21797673297482145216e-01) (104, 8.70644575400769449303e-01) (105, 3.11723555693358467256e-01) (106, 6.14831027208083066848e-02) (107, -3.34428510803346623614e-01) (108, 1.35273305268412480373e+00) (109, 9.36164799472103958955e-01) (110, 9.96282228307266870537e-01) (111, 5.45033648714147611614e-01) (112, -4.09853125961401942856e-01) (113, -1.13636381528611579705e-01) (114, 3.16088622067104196844e-01) (115, 1.11909281581809838535e+00) (116, 7.59225703751089525673e-02) (117, -3.67861443616167779758e-02) (118, -6.76459850452408195665e-01) (119, -1.73511303424899665515e+00) (120, 1.32564065394877350634e+00) (121, 4.72378788714752292921e-02) (122, 6.05451417392965707265e-01) (123, -5.10110494252163482187e-01) (124, -9.46802430596774380334e-01) (125, -2.00753255109272193968e-01) (126, 2.18478332152815285516e-01) (127, 1.67895072374052323205e+00) (128, 8.74254888046305689286e-01) (129, 1.06506565207175185606e+00) (130, 1.18764358994968421968e+00) (131, -1.69753171909348998803e+00) (132, -2.19393920011488940958e-01) (133, -1.20250174653011895898e-01) (134, 8.79655473951692523649e-01) (135, 1.06279940142281126292e+00) (136, 7.84317305727501801194e-01) (137, -3.85143388519046780960e-01) (138, 1.49550214405677106555e+00) (139, 4.77036346729990901050e-01) (140, 3.30974300313839675525e-01) (141, 8.42754261702337803541e-01) (142, -3.74127115681125610447e-01) (143, -1.01920604491388022694e+00) (144, -4.38219139075959884799e-02) (145, 4.91165109327218518676e-01) (146, 8.15622266894206582322e-01) (147, 2.16656167366068880265e-01) (148, 6.85282198929520691699e-01) (149, -1.07099551998572062317e+00) (150, 8.68148704171614604697e-01) (151, 8.46624586339342788399e-01) (152, 1.00272628324009516199e+00) (153, -4.01202462307650609130e-01) (154, -1.66443493788863960958e+00) (155, -5.12338500982747024892e+00) (156, 1.01826284294470648106e+00) (157, 1.55213662068387669990e+00) (158, 1.17227161494019882504e+00) (159, 1.03531990834564616155e-01) (160, -2.22290305151934397543e+00) (161, -8.54811186970634828697e+00) (162, 4.99816398104896253418e-01) (163, 8.26039973864121868097e-01) (164, 7.60881126073176372593e-01) (165, 1.60818940418199640696e+00) (166, -8.75225461897288448121e-01) (167, -6.57194294441025483877e+00) (168, 1.59660959076367769960e+00) (169, 4.78792261262179386083e-01) (170, 1.02372977259285780072e+00) (171, 7.24070830688806399422e-01) (172, 8.40013476459658958717e-01) (173, -9.67348595880309414241e-01) (174, 3.20252202300367827537e-01) (175, 1.17256298917631651690e+00) (176, -2.25332854961082712508e-01) (177, 1.37099062769515933624e+00) (178, -1.30416165691410096406e-01) (179, -4.99503696539601915738e-01) (180, 9.17480584884462491146e-01) (181, 9.87229610656861988893e-01) (182, 7.79640623529633591815e-01) (183, 8.49870778193755116448e-01) (184, 9.57856800081549830672e-01) (185, 7.62824499564357827452e-01) (186, 9.31707110053972664687e-01) (187, -2.82403288453331562102e-02) (188, 1.49322685707215158102e-01) (189, 9.98531849612117383685e-01) (190, 4.88152314034630052664e-01) (191, -9.01688431284138336430e-02) (192, 4.35768130532199815530e-01) (193, 5.97763066644851792653e-01) (194, -1.07612242958311593588e-01) (195, 2.73372395255288780369e-01) (196, 1.09566206959131351439e+00) (197, 1.51360575951582254639e+00) (198, 9.49055810062850557784e-01) (199, -2.38564829295590192029e-03) (200, -2.28946039250706556700e+00) (201, 7.67314346181128925650e-01) (202, 1.50310205041105016122e+00) (203, 5.51151797470954107894e-01) (204, 2.03136701672043146205e-01) (205, -5.32286559707775164263e-01) (206, -3.81966357370670694937e-01) (207, 7.77285130368445820181e-01) (208, -2.07740987452986164419e-01) (209, 5.42842361737805201294e-01) (210, 6.82338908389645171226e-01) (211, 1.73271917379449830188e-01) (212, -1.01719078854376476784e+00) (213, 2.78584545570745245602e-01) (214, 1.12308122107384250610e-01) (215, 1.09475112893663739655e+00) (216, 9.79430537442972148909e-01) (217, 7.06456269387772062274e-01) (218, 8.11679353768601674624e-01) (219, 2.18442880446399652350e-02) (220, 4.08090820246407026683e-01) (221, 1.89835706688874894521e-01) (222, -7.67621699615514407888e-01) (223, 5.71012334630215168119e-01) (224, 8.48490288941327497341e-01) (225, 1.33760181015528600845e+00) (226, 1.49520277757958708342e+00) (227, 9.09651130375884742207e-01) (228, 3.30183776728367572861e-01) (229, 3.07595872195447317399e-01) (230, -6.92606555911038701545e-01) (231, 1.16853158011565150254e+00) (232, 1.73715092605147591875e+00) (233, -8.87606963711839863640e-02) (234, 4.82454857221510324816e-01) (235, -2.03175922386205159986e-01) (236, 8.94042138205669439932e-02) (237, 1.23063950905550867354e+00) (238, 1.23284317916426888750e+00) (239, 4.94925177384173464734e-01) (240, 1.35604670635129986866e-01) (241, -2.26226941342866472162e-01) (242, 1.38270853593271647597e+00) (243, 1.71960085091962200377e-01) (244, 7.06995769255824746402e-01) (245, -3.00380835199691685611e-02) (246, 1.45582221016938451186e+00) (247, 4.15443910075017422412e-02) (248, 1.08290820160972112163e+00) (249, 1.12407712871260501153e+00) (250, 2.08297958788674714148e-01) (251, -3.77763161325790075562e-02) (252, 1.57641402154780063682e+00) (253, 4.77674032247244695348e-01) (254, 9.39669181814445586554e-01) (255, 1.43105035273255243311e+00) (256, 2.37661476225025439235e-02) (257, 9.59374458190492496179e-01) (258, 5.83937464634611602676e-01) (259, 1.40645423799372348839e+00) (260, -3.22421806444088021593e-01) (261, 7.27475976023639669954e-01) (262, 7.80670264720735418429e-01) (263, -7.30995947746848340199e-02) (264, 8.77644598821839427849e-01) (265, 1.48910494443598295788e+00) (266, 1.18976021742171964024e-01) (267, 1.50045343660237473493e+00) (268, 9.36349022129664421144e-01) (269, -1.11430007362204819277e-01) (270, 2.28861087604317947619e-01) (271, 1.28713107696416440007e+00) (272, 3.88669337008885840135e-01) (273, 1.41641223658344667102e-01) (274, 1.68475060786009334102e+00) (275, 1.31285716940853358636e+00) (276, 3.50734883590493762284e-01) (277, 1.34877512928071885412e+00) (278, 1.56430842054797047957e+00) (279, -2.55639952283889283768e-02) (280, 7.03937425967653407355e-01) (281, 4.98887853571602750413e-03) (282, 1.64588555318989998577e-01) (283, 4.79969601593646877369e-01) (284, 6.85105582937668544652e-01) (285, 1.64337246596947594846e+00) (286, 1.41473801251374375898e-01) (287, 9.56761350551694422784e-01) (288, 8.42565403389627487485e-01) (289, 9.28874187821822072664e-01) (290, 5.48841426337876470143e-01) (291, 1.05803947627678751608e+00) (292, -1.16629919111575663937e-01) (293, 1.55872461286934949065e+00) (294, 1.23153410952060937689e+00) (295, 9.77359412324862342203e-01) (296, 1.25256520695003947807e+00) (297, -9.42340055549026472947e-02) (298, 6.96371834427053526539e-01) (299, 4.02832012325460953051e-01) (300, -7.88153882612282141729e-01) (301, 2.48378684476893729638e+00) (302, 2.26447828752923285833e+00) (0, 1.50097477891143582518e+00) (1, 8.47319369098507690907e-01) (2, 1.06612378813918873277e+00) (3, 1.68764274141881798208e+00) (4, 5.31458409913490137377e-01) (5, 8.63380494006584231492e-01) (6, 1.17858892459468700409e+00) (7, 9.60726854987905554140e-01) (8, 7.80492065139577917421e-01) (9, 1.92809681357401507817e+00) (10, 1.89974376624633745081e+00) (11, 3.00903592646183326575e-01) (12, 1.60816263400165770925e+00) (13, 2.15564297877399946302e+00) (14, 3.00643635388376684325e-01) (15, 3.31794175429020177237e-01) (16, 1.34333843869533420268e+00) (17, 2.12151749383023879858e+00) (18, 1.81116186656526045873e+00) (19, 3.95783339591367799848e-01) (20, 6.94683288188321701462e-01) (21, 4.59285420968528645957e-01) (22, 1.93869152963299962167e+00) (23, 1.78770013104490232969e+00) (24, 1.42208389426626102825e+00) (25, 3.62442793467211366032e-01) (26, 1.78768206752746050547e+00) (27, 2.13107949054707246361e+00) (28, 3.83856392710746507912e-01) (29, 1.49118402898450108651e+00) (30, 1.18465429895753904255e+00) (31, 1.65899664964360304964e+00) (32, 2.11846954431217948667e+00) (33, 2.04869084782013555213e+00) (34, 1.17971888010120218304e+00) (35, 4.84355418129917780767e-01) (36, 7.02075211963605116949e-01) (37, 2.13557355551721084197e+00) (38, 1.22101243333730336005e+00) (39, 1.29833851357134677507e+00) (40, 1.89653584192292723465e+00) (41, 9.49962952749951572429e-01) (42, 1.38797336355785638773e+00) (43, 1.25640453952566355511e+00) (44, 8.62056597525228895940e-01) (45, 1.55991973537325723242e+00) (46, 1.48540570895593826428e+00) (47, 2.06330922071551814412e+00) (48, 1.45405563670139836852e+00) (49, 9.52388185931435593545e-01) (50, -7.85008859590717450461e-02) (51, 2.05145280778895422458e+00) (52, 1.47460728895957937645e+00) (53, 2.07260019953794927261e+00) (54, 1.61430789748743941381e+00) (55, 2.89205173765182288470e-01) (56, -3.57677003922163549987e+00) (57, 1.35030263903649916379e+00) (58, 7.49433196807370971548e-01) (59, 5.80941996808008398467e-01) (60, 6.12300599893526364959e-01) (61, 1.52762567523302528194e+00) (62, 1.93723750305155650864e+00) (63, 9.87595665182060766796e-01) (64, 2.12475919727927742287e+00) (65, 1.63268768791800966689e+00) (66, 9.12481310435420134297e-01) (67, 2.04674070862591861442e+00) (68, 9.89763941135184954767e-01) (69, 3.11472731892333554171e+00) (70, 2.02290210158475725066e+00) (71, 2.84599431431239757728e+00) (72, 7.99354616517379046314e-01) (73, 4.51952528893281968436e-01) (74, 1.89227727860259720138e+00) (75, 1.99846614026817137599e+00) (76, 2.51639768810240527230e+00) (77, 3.09111425458487509843e+00) (78, 1.43220151141037477238e+00) (79, 1.13775171712265099622e+00) (80, 1.56831635164474930688e-01) (81, 1.68185607131400494119e+00) (82, 1.57268882300669843310e+00) (83, 2.03207607509211785057e+00) (84, 1.45240783446899546227e+00) (85, 4.59441564349988673666e-01) (86, 1.94948630605862760490e+00) (87, 1.59870595169782592215e+00) (88, 1.59824817491239246081e+00) (89, 4.38278540597836663295e-01) (90, 2.00021234517322676894e+00) (91, 2.06531596026844344038e+00) (92, 1.93696865411718688321e+00) (93, 1.81086108342954132944e+00) (94, 4.85950711698604320699e-01) (95, 1.30269684542259867044e+00) (96, 7.26633586280014953651e-01) (97, 1.26737321012140746745e+00) (98, 1.25275130784507582327e+00) (99, 1.57293014999796265663e+00) (100, 1.06060410483460731967e+00) (101, 2.54011342364360293011e-01) (102, 3.23822027129949507884e-01) (103, 1.78017422505652667120e+00) (104, 6.56908462658322811478e-01) (105, 1.93083497127371894742e+00) (106, 1.03938095786930118081e+00) (107, 2.10098810538764724232e-01) (108, 1.05710287626789534166e+00) (109, 4.19087329386348184102e-01) (110, 1.35942480508420970864e+00) (111, 1.00584581387771554439e+00) (112, 1.70219519656359707938e+00) (113, 2.32833881984278034949e+00) (114, 3.07219415192844347295e-01) (115, 1.06319314894118521764e+00) (116, 4.57859664347156802844e-01) (117, 2.11080454367423486772e+00) (118, 3.89207061063979231630e-01) (119, 2.09491396252247241705e+00) (120, 3.60888775708346765114e-01) (121, 2.46160751482052297945e-01) (122, 2.01483169817476825969e+00) (123, 2.14345814201755224815e+00) (124, 1.47433842463339681572e+00) (125, 1.01291404773935264649e-01) (126, 1.31137046526501643839e+00) (127, 6.67860846455033296820e-01) (128, 1.14132071573084603600e+00) (129, 4.35663835733367144076e-01) (130, 9.85619069350543441921e-01) (131, -1.18611507797479580339e-02) (132, 5.57454842463724453694e-01) (133, 2.13254458485162867731e+00) (134, 1.60232181656576000428e+00) (135, 1.08126233358886425506e+00) (136, 1.16148087705526603663e+00) (137, 8.31026943621334224233e-01) (138, 1.18480374422828060865e+00) (139, 6.28976369468824514364e-01) (140, -3.54727218515729969539e-01) (141, 3.29045669458445766420e-01) (142, -7.80793697968998112735e-01) (143, -1.06676581809331629813e+01) (144, 2.96401858209849877746e-01) (145, 1.59403765946340869597e+00) (146, -8.53116172442351050620e-01) (147, 6.36856100447872108816e-01) (148, -2.43054359593226765313e+00) (149, -3.43106999724656702710e+00) (150, 3.30838058335605089688e-01) (151, 1.47808245379559632937e+00) (152, -5.01224155837000751035e-01) (153, 2.09301636564201176682e+00) (154, 2.49903512921397785718e+00) (155, 2.83161050692716731447e+00) (156, 1.98241301605566211386e+00) (157, 7.32199014737068165637e-01) (158, 2.65891856391837932971e-01) (159, 1.13137577627160856863e+00) (160, 4.83708743604191049315e+00) (161, 5.16954046355375140820e+00) (162, 1.20047711585312355531e+00) (163, 1.37027336913772090909e+00) (164, 2.00625863222773981320e+00) (165, 8.65920396007008208450e-01) (166, 4.96089666960762953885e-01) (167, 1.42163401090064067667e+00) (168, 1.52429545412829603457e+00) (169, 1.63893750702016971488e+00) (170, 2.16700162449896671646e+00) (171, 4.45909564554018755800e-01) (172, 2.01220271836326247694e+00) (173, 1.13642850098270020709e+00) (174, 9.52557829781573550676e-01) (175, 2.20367720163721436677e+00) (176, 1.94274556741906589963e+00) (177, 3.99330028908851442093e-01) (178, 2.08499707909611281531e-01) (179, 1.64363229810266520126e+00) (180, 1.63545409577963651859e-01) (181, 3.66768691676465641294e-01) (182, 1.27801295020997707219e+00) (183, 2.04929884380295668223e+00) (184, 6.17447686272657586537e-02) (185, -2.43715078244324123702e+00) (186, 1.67935036369113643850e+00) (187, 2.04676446853363280809e+00) (188, 1.54802336257306993872e+00) (189, 1.67974791964437253355e+00) (190, 9.31574449541760940541e-01) (191, -5.99537729729951340829e-01) (192, 1.34198132668581004978e+00) (193, 2.01291335142321337059e+00) (194, 1.82773144840170154168e+00) (195, 8.97716223427920012590e-01) (196, 7.11192077067045902439e-01) (197, 4.55550251858253749115e-02) (198, 1.91651349611544863372e+00) (199, 2.10160247113252784956e+00) (200, 1.44536181455053269751e+00) (201, 1.45505477369220814765e+00) (202, 2.02420866471793831076e-01) (203, -9.24466994594408952857e-01) (204, 2.32762604080475610235e-01) (205, 1.18872549199725829894e+00) (206, 5.71584403926594264433e-01) (207, 3.73947594562107965555e-01) (208, 1.10555993782505890266e+00) (209, -1.25671216233429028364e+00) (210, 1.95733367564562765750e+00) (211, 1.40718048474831824990e+00) (212, 1.04772949411787141827e+00) (213, 1.02565886441187603673e+00) (214, 1.26537115180796955194e+00) (215, 1.00752648130801647497e+00) (216, 1.74097940345233825887e+00) (217, 8.41279816166364158292e-01) (218, 1.10497604073426680671e+00) (219, 1.11580102155166538402e+00) (220, 3.57464780393330461283e-01) (221, 1.81802688726864269952e+00) (222, 1.48966150882008929734e+00) (223, 1.69792399577298436242e+00) (224, 1.75245080296954980348e+00) (225, 1.28885654712892416818e+00) (226, 3.51507494724584423906e-01) (227, 3.00804653735395943759e-01) (228, 1.27981751508975283294e+00) (229, 2.48945146086300889143e-01) (230, 3.00971497998277826014e-01) (231, 7.32274596473538208485e-01) (232, 1.46084153327587351612e+00) (233, 4.78318582705850425807e-01) (234, 1.53928147920575608687e+00) (235, 1.61443625146329328146e+00) (236, 1.54584435029694744479e+00) (237, 2.04928613164123341051e+00) (238, 1.76950255304921788557e+00) (239, 7.03412300019760627912e-01) (240, 5.58590103201777155029e-01) (241, 1.54104721273466838127e+00) (242, 2.00000147733966571195e+00) (243, 1.41057823669831416957e+00) (244, 4.15118055247521933193e-01) (245, 1.10049471542197330187e+00) (246, 2.37158493719133445232e-01) (247, 1.92577102164685309837e+00) (248, 1.67888141934221080120e+00) (249, 1.10078608118685394857e+00) (250, 9.30721863085718137398e-01) (251, 1.88858258688747793208e+00) (252, 7.39047031289579270386e-01) (253, 2.14421242115879595591e-01) (254, 1.34794546429460337933e+00) (255, 3.23820663109003759050e-01) (256, 1.41032410214361991763e+00) (257, 1.55100786650478750239e+00) (258, 4.56414624210275399196e-01) (259, 5.25070839598418159788e-01) (260, 1.56880134194327336417e+00) (261, 5.95503216272658009167e-01) (262, 1.14847327628222939389e+00) (263, 9.38979248652094700134e-01) (264, 9.30388733824518254778e-01) (265, 4.77974767742842032714e-01) (266, 2.79798939110051936296e-01) (267, 2.47762256238536010544e-01) (268, 3.67141895377852578441e-01) (269, 1.91996335817879337782e+00) (270, 8.05488891188650524278e-01) (271, 7.55182308569132154652e-01) (272, 1.28542520470787291487e+00) (273, 5.68686906635822109202e-01) (274, 1.97321762387256516291e+00) (275, 1.52209382461637243722e+00) (276, 1.48680770852264187987e+00) (277, 2.08294004875853921988e+00) (278, 1.33512700059112332518e+00) (279, 1.04306494808683325459e+00) (280, 9.59262928314959184561e-01) (281, 2.09627239661838515872e+00) (282, 8.57200567504727173329e-01) (283, 1.57618260838683865721e+00) (284, 2.21928504328336273499e-01) (285, 2.02259350883658273190e+00) (286, 1.67604633140145553583e+00) (287, 1.41725232217175811655e+00) (288, 1.56595874287780545409e+00) (289, 2.00909269311126381652e+00) (290, 1.89957051956837430495e+00) (291, 9.29511011456324531821e-01) (292, 3.49303427797140964017e-01) (293, 7.39129749896318299918e-01) (294, 1.81367314316924832518e+00) (295, 1.14806771733459256346e+00) (296, 1.17652935244735501463e+00) (297, 1.92397950179346977073e+00) (298, 1.18314359671839652854e+00) (299, 1.32284412867793021995e+00) (300, 1.07796431602455111687e+00) (301, -1.11965216980019585669e-01) (302, -6.39758772850595747173e+00) (303, 8.56271595543942254380e+00) (0, 1.23056121790563488538e+00) (1, 2.63882400715505349709e+00) (2, 2.09102763855611506472e+00) (3, 2.00897993749944392405e+00) (4, 2.57660796350805032517e+00) (5, 1.11291571564046720688e+00) (6, 2.01205112660085383425e+00) (7, 9.01474482061022208690e-01) (8, 1.64197470867788131166e+00) (9, 2.50883938992177712990e+00) (10, 8.67883921490784526753e-01) (11, 1.51183207953130538392e+00) (12, 8.84393027664774344920e-01) (13, 2.14592148983632791115e+00) (14, 7.05686396600359366893e-01) (15, 1.96853588699247161742e+00) (16, 1.98946444248461440374e+00) (17, 1.48252173388158614564e+00) (18, 1.50997254875919195705e+00) (19, 7.25592683960455286929e-01) (20, 1.60812022160436463025e+00) (21, 6.68572680939691799118e-01) (22, 2.43882630925733367988e+00) (23, 1.72418143457738670676e+00) (24, 1.10809229048227098069e+00) (25, -7.72492731960038969512e-05) (26, 5.02856685638410683126e-01) (27, 2.04894392950727199931e+00) (28, 7.90295635842333532572e-01) (29, 1.34650827157875374596e+00) (30, 1.59059384285718352636e+00) (31, 5.84257594747964348336e-01) (32, 5.44689819875299074958e-01) (33, 1.78929103124519572887e+00) (34, 7.08231767200480200053e-01) (35, 1.23254542213041218268e+00) (36, 1.47293212830335051855e+00) (37, 1.25900514149807984943e+00) (38, -7.66034582995726687216e-01) (39, 1.22362630247022563523e+00) (40, 1.90831147294599312580e+00) (41, 2.45923347461800023694e+00) (42, -1.47627385838064340007e-01) (43, -1.75335320184233589558e-01) (44, -3.27512420054057673546e-01) (45, 2.12743853210355560179e+00) (46, 1.44044186794912243421e+00) (47, 1.26641945073883976924e+00) (48, -1.27668871167030406610e+00) (49, 6.07160998260848142061e-02) (50, -8.97524557799177946649e-01) (51, 1.89714184726750811905e+00) (52, 2.30553582634007847574e+00) (53, 1.11365685750046394809e+00) (54, -1.25712585124763176481e+00) (55, -1.48309692719586427856e+00) (56, -9.98951183759308025678e-01) (57, 1.57650403211396095138e+00) (58, 2.14153690326790258069e+00) (59, 1.36275346071997538466e+00) (60, 5.45689136052219248008e-02) (61, -3.90118442267256948508e-01) (62, -4.04347881032317957306e+00) (63, 1.52676931666133858245e-01) (64, -1.82710328283296544183e-02) (65, 1.14782317803575040216e+00) (66, -7.09489151235530690620e-01) (67, -3.55763116295186287985e+00) (68, -4.58065717235819302999e+00) (69, -4.15846453437398011488e-01) (70, -1.62197771988393291132e+00) (71, -1.96605049461249836718e+00) (72, -9.41814625224566548400e-02) (73, -3.57666876728383309469e+00) (74, -3.85646140310768270609e+00) (75, -8.31996618414077460102e-01) (76, -7.33346880968667735878e-01) (77, -1.68461050459612393659e+00) (78, -2.11161061521480314385e-01) (79, -3.82188530844940466125e+00) (80, -3.42795611911388897752e+00) (81, -1.54676684357501237344e+00) (82, -1.17761962352722338032e+00) (83, -3.99662635867094329090e-01) (84, -1.09084568857760100258e+00) (85, -3.95340578051443514163e-01) (86, -3.67828404305586387224e+00) (87, 9.19435241360285204770e-01) (88, -3.45697277630781785174e-02) (89, 8.94945709984849790963e-01) (90, 1.77726939920475418555e-01) (91, 1.28983974931184713908e-01) (92, -1.16324526004178419036e+00) (93, 1.02450821651897605591e+00) (94, 1.63484224585826254383e+00) (95, 4.00619697531552576564e-01) (96, 4.82420213534451636228e-01) (97, 6.83383283648834827240e-01) (98, -9.61127936166356833247e-01) (99, -1.01875817331445225888e-01) (100, 1.23022604663345122566e-01) (101, -9.95803999290162722424e-01) (102, 1.46538899043889658813e+00) (103, 3.72410464930217399715e-01) (104, -6.05642416629842528231e-01) (105, -4.05877059863748446134e-01) (106, -1.42073471860097622077e+00) (107, -1.78510974363492747052e+00) (108, 1.40954980549941955026e+00) (109, 4.37097001719157829402e-01) (110, 3.37146075879967033195e-01) (111, -5.58069105473876572732e-02) (112, -7.07438738744150946713e-02) (113, -1.29784014040658290945e+00) (114, 1.03309807477127013620e+00) (115, -1.12481774358508812561e+00) (116, -3.51036476772617689335e+00) (117, -6.76476404180775814368e-01) (118, -8.10570844863102296651e-02) (119, -3.39509851312291388581e+00) (120, -1.49260990626795231329e+00) (121, -3.76231088922002687713e-01) (122, -4.94802504792112252119e+00) (123, -1.09276543568635919890e+00) (124, -5.07861999249111928378e+00) (125, -3.78183836316716437409e+00) (126, -4.26948660841920069053e-01) (127, -5.77844567405555142869e+00) (128, -6.32105654890920298783e+00) (129, 1.89220349123427306059e-01) (130, -5.03896365784219657513e+00) (131, -4.56761475108357029029e+00) (132, -8.09425099525521218879e-01) (133, -4.80160769515846030941e+00) (134, -1.15643914542259942380e+01) (135, 1.43263354787577817939e-01) (136, -4.34061725638600126587e+00) (137, -4.63021581741324528281e+00) (138, 3.54745232323861070522e-01) (139, -6.27934505061963488259e+00) (140, -1.12314019386508956444e+01) (141, -3.54889533293550263338e+00) (142, -5.91595037589124306265e+00) (143, -4.59959515578325994767e+00) (144, -1.10610266892366904123e+00) (145, -5.98031967319664659044e+00) (146, -1.32643513658837282065e+01) (147, -1.43002221842897325743e+00) (148, -3.81857255677468199195e+00) (149, -4.73823091036852606095e+00) (150, 2.85000211267632197476e-01) (151, -1.58942191701997326270e+00) (152, -6.91382806941412475510e+00) (153, -1.98107240222678027131e+00) (154, -2.45470267211658654816e+00) (155, -5.29230109433418505205e+00) (156, 2.28440440375451414567e+00) (157, 1.46833144931193437799e+00) (158, -7.88179442702856558611e-01) (159, 2.10119558117526539220e+00) (160, -7.41417187646639663789e-01) (161, 1.25726089975458976689e+00) (162, 1.44602874366408507001e+00) (163, -1.48341361633234125605e+00) (164, 5.47988197314196179288e-02) (165, 2.19545984947535766096e+00) (166, -1.94849353107952039110e+00) (167, -1.49470145491918088299e-01) (168, 1.42699381206673581168e+00) (169, 1.10226945092367079049e-01) (170, -3.89224049811147387867e-01) (171, 6.06105312246116745278e-01) (172, -1.51995014207701295561e+01) (173, -1.93455952744256909348e+00) (174, 1.89786435815930465409e+00) (175, -1.55632081629671836787e+00) (176, -1.21893242938585033563e+00) (177, 1.63301839157172046235e+00) (178, -1.03923165592796387102e+01) (179, -2.21183586694348621737e-01) (180, 2.93706586023100602034e+00) (181, 7.36781643479328063329e-01) (182, 2.78670377473900776621e-01) (183, 5.79796290657200774632e+00) (184, 2.07506138960999386711e+00) (185, 3.31321906632733886866e+00) (186, 4.63223638716240326829e+00) (187, 1.18775835346687408389e+00) (188, 1.15894196765233936652e+00) (189, 9.49216287390188639961e+00) (190, 1.67969062966623661204e+00) (191, 1.10482092780419431932e+01) (192, 3.40999888949118279413e+00) (193, 1.21117900635100927964e+00) (194, 2.58200298871312927673e+00) (195, 1.64628211206895613827e+01) (196, 8.31128311312700818192e-01) (197, -4.88702295007956450945e+01) (198, 6.54833476587343632502e+00) (199, 2.23688595755292674028e+00) (200, 3.17638291646928161427e+00) (201, 7.84877932111900733503e+00) (202, -3.06691634345518302496e+01) (203, 6.77300810813401210631e-01) (204, 4.50422109516091140335e+00) (205, 7.37681361453144557316e-01) (206, 1.95846174058988964362e+00) (207, 4.76191846922997985558e+00) (208, 2.25406607879665887850e+00) (209, 1.82302509027821657561e+00) (210, 2.27381736250845145619e+00) (211, 1.57039971909280384743e+00) (212, 1.03394445726713790634e+00) (213, 2.22603580553296653832e+00) (214, 1.51141250388081083145e+00) (215, 1.58904729792200805072e+00) (216, 1.55231301863624726600e+00) (217, 4.64582401130158695324e-01) (218, 2.47242685712459664416e+00) (219, 1.60270727111975364032e+00) (220, 5.72036356978430582387e-01) (221, -3.75048722031763454021e-02) (222, 1.44167391297188940413e+00) (223, 4.52380865369186924152e-01) (224, 2.31877180493953760632e+00) (225, 1.34463760005119326024e+00) (226, -8.37647299537048334317e-02) (227, 8.49734855592707449823e-01) (228, 1.01757573524816136157e+00) (229, 6.45695523565738421778e-02) (230, 2.68750734988391881686e+00) (231, 2.35255783084915037762e+00) (232, 1.35436880888200961159e+00) (233, 1.26223223281155561004e+00) (234, 1.16761806039743554209e+00) (235, 1.86892583582043103618e+00) (236, 1.41655784780743032591e-01) (237, 1.98294180347278237164e+00) (238, 6.79187017149167848729e-01) (239, 1.82053643166643297491e+00) (240, 1.25852062730722558115e+00) (241, 4.43137898931254770041e-01) (242, 1.51750162644747721430e+00) (243, 1.36755774025125176330e+00) (244, 1.41493638104839880576e+00) (245, 1.32572502007000370128e+00) (246, 2.40016760854654309654e+00) (247, 1.87789776537060193462e+00) (248, 1.90383794519543103618e+00) (249, 1.93829897925951311066e+00) (250, 7.97849612898068327738e-01) (251, 5.68628767945681401486e-01) (252, 2.02337355406561592019e+00) (253, 1.58576176418743308716e+00) (254, 1.13397731992840178350e+00) (255, 1.40928730968637139220e+00) (256, 2.55626964039045112553e-01) (257, 1.15291080854168925818e+00) (258, 1.60988141012167673694e+00) (259, 6.18767515863291484024e-01) (260, 1.32361532851587715420e+00) (261, 1.37164328102273613830e+00) (262, 3.00510960287290351811e-01) (263, 7.83846239068422212526e-01) (264, -2.36384182109048608667e-02) (265, 8.12886433409292341601e-01) (266, 7.49888198183614851366e-01) (267, 9.58427885032675286325e-01) (268, 1.30593315053515235391e-01) (269, 1.54486678025952417492e+00) (270, 1.24592752860624600419e-01) (271, 7.31026189135152937304e-01) (272, 1.51521290998323521215e+00) (273, 2.48897747085191989314e+00) (274, 1.44175386457496168546e+00) (275, 1.03699195413642408781e+00) (276, 1.15921379802873669718e+00) (277, 1.94493285427524353892e+00) (278, 1.78254495801655865606e+00) (279, 1.92299943691565200510e+00) (280, 4.48634604432498362847e-01) (281, -8.21426674044983817780e-02) (282, 2.60991313183461892677e+00) (283, 2.58524690808980039947e+00) (284, 2.38607425403570871936e+00) (285, 1.83596238482863127750e+00) (286, 5.61063908621731943782e-01) (287, -2.06282016121080609417e-02) (288, 1.09744482344953353525e+00) (289, 2.28615958404516916858e+00) (290, 1.48293579530691843615e+00) (291, 2.53221593974973480101e+00) (292, 9.94304716760710527446e-01) (293, 1.13072561990522357789e+00) (294, 1.42430986154656036291e+00) (295, 1.08448360550980127393e+00) (296, 8.18694275504155188905e-01) (297, 2.28667428219472634865e+00) (298, 1.38974680609075429416e+00) (299, 1.06629934036886053761e+00) (300, 2.20418097785592959070e+00) (301, -2.86978313602516854619e-01) (302, -1.04402388541608086570e+01) (303, -2.98736649826175195699e+01) (304, 5.14880002615113099296e+01) (0, 4.00539945495788862750e-01) (1, 2.32363890541259721090e-01) (2, 1.39744479550189248940e+00) (3, 2.79789751690735777334e-01) (4, 1.43006967514442195899e+00) (5, 1.77966844051765193946e+00) (6, 1.09851487082615606461e+00) (7, 1.65381603959947748317e-01) (8, 1.16932578486576788102e+00) (9, 1.69585495359361049239e+00) (10, 2.09081046945511950241e+00) (11, 2.63361131922250468751e-01) (12, 9.54221530713652232869e-01) (13, 1.54018043361171907968e+00) (14, 7.67455387930717547462e-01) (15, 5.09810429854465563260e-01) (16, 4.60286182208133720639e-01) (17, 2.03920390612080693060e+00) (18, 1.94082301936371925954e+00) (19, 1.58827644667847756033e+00) (20, 1.88653148632013589747e+00) (21, 1.97819782292118140354e+00) (22, 3.12832454793357861433e-01) (23, 1.93861641872533074782e+00) (24, 1.85007751331320546839e+00) (25, 1.60332529251958821881e+00) (26, 2.08561740867156369950e-01) (27, 1.61651405225966571244e+00) (28, 2.04013510298588629510e+00) (29, 6.19671667921286140057e-01) (30, 8.64468076238325888738e-01) (31, 3.48640342216710974466e-01) (32, 7.70915907695894464524e-01) (33, 1.40735685834601054189e-01) (34, 4.09949023061232653564e-01) (35, 1.97820037923670732916e+00) (36, 1.74148402441965721721e+00) (37, 1.43663515507709171892e+00) (38, 7.28917304687283634790e-02) (39, 8.84854129304090908370e-01) (40, 9.85941231311243004853e-01) (41, 1.10902546266703466021e-02) (42, 1.04278525365631802302e+00) (43, 1.86368025409629312072e+00) (44, 1.48190023533628179031e+00) (45, 1.70652456004685393331e+00) (46, 2.23375434640383035978e-01) (47, 1.79751227188991902217e+00) (48, 1.63029677483276325134e+00) (49, 4.49963536618346870988e-02) (50, 1.29642340315902426795e+00) (51, 1.49431450088089934347e+00) (52, 1.91219932298630324041e+00) (53, 1.57393876313623026775e+00) (54, 1.31346482546321685625e+00) (55, 1.62192973844701149311e+00) (56, 9.38181254860484759028e-01) (57, 1.38827545596441437326e+00) (58, 1.11767417276998748399e+00) (59, 9.57090361791299026883e-01) (60, 1.90145338861007640041e+00) (61, 1.85783169110341073171e+00) (62, 1.07727510226827005724e+00) (63, 5.33353095421076339733e-01) (64, 1.89036953829512754943e+00) (65, 1.58086375780646659628e+00) (66, 4.07943480159315974287e-01) (67, 1.57566114773412224714e+00) (68, 8.68033799240898074068e-01) (69, 5.27922796967855600947e-01) (70, 3.50010157476865757520e-01) (71, 1.94868108733440825731e+00) (72, 4.01486281966103086827e-01) (73, 1.20627701776816742552e+00) (74, 1.64085596370189179538e+00) (75, 1.97738339896097214954e+00) (76, 8.52441977053945643128e-01) (77, 1.87454390747734822575e+00) (78, 1.53681144883590237171e+00) (79, 2.86871301556156199641e-01) (80, 1.88705287503183583020e+00) (81, 8.81112701941919040927e-01) (82, 1.72176751840041331043e+00) (83, 1.78958977532622154349e+00) (84, 2.23441219052063599904e-01) (85, 8.92323317780036706637e-01) (86, 1.39576179204182238003e+00) (87, 1.23187679022515395033e+00) (88, 1.37455759689333822937e-01) (89, 4.53623288827949500135e-01) (90, 8.65451506933354042239e-02) (91, 1.95805558058008388755e+00) (92, 3.46597843282591189240e-01) (93, 1.15500827716256648792e+00) (94, 3.87689131724404334456e-01) (95, 2.28155666530298478767e-01) (96, 3.94001253232941661686e-01) (97, 7.55805449807330109735e-01) (98, 1.80374424008099132344e+00) (99, 1.47050028183717973462e+00) (100, 1.20226121856710266300e+00) (101, 1.41045895657983866300e-01) (102, 1.00114095747097175959e+00) (103, 1.56616396722455397672e+00) (104, 1.23029616870075386714e+00) (105, 9.49651546461246387487e-01) (106, 1.46305567681547765702e+00) (107, 2.63026006346186058682e-01) (108, 7.41709685620845271536e-01) (109, 1.09021051711833827369e+00) (110, 1.14749204887129072072e-01) (111, 7.13899814772761320825e-01) (112, -1.10577285674387272574e-02) (113, 3.49709949052076751741e-01) (114, 6.55201239827337023058e-01) (115, 2.36748513714915842510e-01) (116, 1.17372309312549538696e+00) (117, 1.93383599291871410841e+00) (118, 1.60653501479816274156e+00) (119, 1.46508951542568888193e+00) (120, 6.12052957705434885760e-01) (121, 1.84887433347272001072e+00) (122, 1.58921311768902784323e+00) (123, 8.41632931238738390967e-01) (124, 9.21491321856963141457e-01) (125, 1.62723785229664952290e+00) (126, 1.23245841965574931542e+00) (127, 1.66149112144218991105e+00) (128, 2.81540563530933818370e-01) (129, 9.70962380481040221447e-01) (130, 1.04967639205010287995e+00) (131, 1.55153048034344331896e+00) (132, 1.22814032481794344065e+00) (133, -1.42867969255511900739e-01) (134, 6.18873860743307302457e-01) (135, 5.91955215724020100687e-01) (136, -9.51706824494564562755e-01) (137, -2.31843723869652185154e-01) (138, 9.93767304677402041335e-01) (139, -2.42591651989919970811e-01) (140, -1.69600204800307885478e+00) (141, 1.57619854559214545020e+00) (142, -5.10688478504364495869e-01) (143, -3.58897569104305791399e+00) (144, 2.05872244092987921604e+00) (145, 1.35350561407635239242e+00) (146, -7.17405124500455237957e-01) (147, 1.26330537156058531068e+00) (148, 6.86170845200977597145e-01) (149, -2.38593641716413973342e+00) (150, 7.86231231772318239770e-01) (151, 2.00525708007126990395e+00) (152, 1.84414625050734914957e+00) (153, 2.95874646022256104771e-01) (154, 4.85395151302450311714e-01) (155, 2.94162600580371380588e+00) (156, 1.65486183713858869826e-01) (157, 2.17479162486201804683e+00) (158, 7.29182134557986083578e-01) (159, 8.97014150773302709752e-01) (160, -3.84767301011068552086e+00) (161, 1.22700423918908985144e+00) (162, 7.47301750212582605037e-01) (163, 1.16479440394937891479e-01) (164, 1.78631512184662177845e+00) (165, 3.49404274085683863582e-01) (166, 1.44796305588705975786e+00) (167, 3.25990060082456301060e+00) (168, 1.33193013624871747780e+00) (169, 1.55759116936267005826e+00) (170, 1.35021511884634159983e+00) (171, 1.55450123183630606327e+00) (172, 3.61244602850937335248e+00) (173, 2.77419420733420407643e+00) (174, 1.88438692289819242909e+00) (175, 1.47102607511574379195e+00) (176, 2.26083007227871490841e+00) (177, 3.65918667867577096509e-01) (178, 3.01814337530725618208e+00) (179, 4.14674250224969842549e+00) (180, 7.08397540712791595752e-01) (181, 1.56081546567970863570e+00) (182, 1.80525273281035714135e+00) (183, 5.83685925536125083113e-01) (184, 2.03708078366773914780e+00) (185, 3.66220445174488207218e-01) (186, 1.46010686118377308595e+00) (187, 1.98442592148289609355e+00) (188, 1.23890680988225920789e-01) (189, 2.04846954848248330450e+00) (190, 6.79701443090680146319e-01) (191, 1.13299454827415257974e+00) (192, 1.48771372508217458730e+00) (193, 1.44148448471715306951e+00) (194, 1.22819573821599159480e+00) (195, 1.45253670059092709899e+00) (196, 1.74048193894493863354e+00) (197, 2.00404757001812816597e+00) (198, 6.71085264185392049718e-01) (199, 1.04706734243676891083e+00) (200, 1.60615976502485757749e+00) (201, 2.08167492400189857449e+00) (202, 5.61614451849081985912e-01) (203, 9.80509473336015013878e-01) (204, 4.05442346836970557433e-01) (205, 3.12665360949927417789e-01) (206, -2.07292333562494934807e-01) (207, 2.54828341884667963768e-01) (208, 6.50319563733674832484e-01) (209, 6.92512292533398521321e-01) (210, 1.52893139963532997960e+00) (211, 1.15438477912592585284e+00) (212, -1.69419306486168985693e-01) (213, 8.38180219304078377718e-01) (214, 1.72812026871036605868e+00) (215, 1.59777946019140881795e+00) (216, 9.35545958966324975314e-01) (217, 1.12583362914904472341e+00) (218, 6.70177658534933828882e-01) (219, 1.07523345121330970997e+00) (220, 1.07628473986444639365e+00) (221, 1.99104887766536253757e+00) (222, 1.49253688634464531937e-01) (223, 4.82841340236614957604e-01) (224, 1.33482858829006523216e+00) (225, 1.36933237175895716753e+00) (226, 1.77662442589923363911e+00) (227, 1.02400955726295395110e+00) (228, 1.33978405527033839206e+00) (229, 3.84094235290120933346e-01) (230, 2.10016941354126762675e+00) (231, 9.11053737608405134196e-01) (232, 2.96610652330656920928e-01) (233, 5.80014591645280797039e-01) (234, 1.81624987491072276136e+00) (235, 6.42626204218395780110e-01) (236, 8.50178588008838942436e-01) (237, 1.85899990518667990180e+00) (238, 7.30357124331732721068e-01) (239, 1.35014355702308774809e+00) (240, 4.66069430566242115521e-01) (241, 2.34898534094818173257e-01) (242, 4.69315042602856891119e-01) (243, 3.15816004392339477747e-01) (244, 9.08209954438246147568e-01) (245, 2.06021324550808371256e+00) (246, 1.82582562582866980705e+00) (247, 1.80217028116436339680e+00) (248, 1.14970344959168557786e+00) (249, 1.03986882885077291938e+00) (250, 7.06941553062363281512e-01) (251, 8.64912361672255380896e-02) (252, 9.64255575135440357037e-01) (253, 8.10542890666460236204e-01) (254, 5.37213732499659646358e-01) (255, 2.29321574677168599221e-01) (256, 2.05687434885231112958e+00) (257, 2.48337524049084906741e-01) (258, 1.23229077678958498510e+00) (259, 1.29943344184384534934e+00) (260, 5.46191315390435860877e-01) (261, 1.21429246525718714800e+00) (262, 1.17815164734064892205e-01) (263, 7.73963650573431638513e-01) (264, 1.74231225513463128252e+00) (265, 1.82952129365649329706e+00) (266, 1.30942890478804563337e+00) (267, 4.81501747565122983907e-01) (268, 1.59489475696967830665e+00) (269, 1.99024483794800421954e+00) (270, 1.77448642590414418230e+00) (271, 1.94087671286962004658e+00) (272, 2.09167609049513636421e+00) (273, 1.24822626532765587615e-01) (274, 1.57265642133223360055e-01) (275, 8.06999904697278003241e-01) (276, 2.10760184997659516526e+00) (277, 1.87193133791870813809e+00) (278, 4.77590517991441976253e-01) (279, 1.12627003220971522168e+00) (280, 8.14076056179272700142e-01) (281, 1.11014529627552471780e+00) (282, 1.13194666654678810502e+00) (283, 1.66613320782866680680e+00) (284, 1.91607043677258692682e+00) (285, 1.56278115272979056805e+00) (286, 1.80139172852835982575e+00) (287, 1.87264461018917649504e+00) (288, 1.70853492557891173398e+00) (289, 9.15814399358405362150e-01) (290, 1.05465314322400294245e+00) (291, 1.42282757547272986631e-01) (292, 2.03378396324526100614e+00) (293, 1.07730232767473688149e+00) (294, 8.19567008324589618695e-01) (295, 1.66626847039802128414e+00) (296, 7.96483798333134540570e-01) (297, 2.03854797632309292510e+00) (298, 2.04996584142512361382e+00) (299, 2.81373871051156188017e-01) (300, 1.88305539401798283095e+00) (301, 2.21162393460549377977e+00) (302, 5.28377671218006650378e+00) (303, 1.81879295883564173764e+00) (304, 1.50748841829857371799e+00) (305, 1.06091524418457527901e+00) (0, -3.03957086888393790414e-01) (1, 3.80291785212913013847e-01) (2, 4.78920723411002779990e-01) (3, 5.95122446941200644588e-01) (4, 1.08193867309861677106e-01) (5, 3.13749187095934023439e-01) (6, -6.78134329130215401937e-02) (7, 1.58178328686280855742e+00) (8, -1.76261014442638891397e-01) (9, 7.98099553607209410977e-02) (10, -1.56886121771691006144e-01) (11, 2.00284529261145011203e-01) (12, 3.56479437417359656948e-01) (13, -1.44163905316023910341e-01) (14, -8.80241630914070692995e-04) (15, 3.31833905018402042231e-01) (16, 8.37690485361193171165e-01) (17, -2.20400972269262779291e-01) (18, 6.48369518021592594614e-02) (19, -8.26984421896406057817e-02) (20, -2.47183189206547304639e-01) (21, 9.14125200897463519034e-01) (22, 8.00508107560892190335e-01) (23, -7.37969716131599978715e-02) (24, -3.15267542855577842520e-01) (25, 1.48036190955202462405e+00) (26, 1.27764372446802099148e+00) (27, 3.92234187514544030417e-01) (28, 5.97625122869748892640e-01) (29, -7.15221842433333143685e-02) (30, 9.57375670676388290659e-01) (31, 6.89019581614342402354e-01) (32, 8.93189620478347046095e-01) (33, -3.72272268506931347520e-01) (34, -5.12389645549702898997e-01) (35, 1.20110785163389488517e+00) (36, 5.26242867293038041332e-01) (37, -9.61174301765899824490e-03) (38, 1.36287078948223894237e+00) (39, 5.60366275017891601884e-01) (40, 2.96179952951240998971e-01) (41, 1.41818068249058493180e+00) (42, 1.35549033839818733327e+00) (43, 1.21042555436114240841e+00) (44, -1.60708500601836973276e-01) (45, -4.56217544699005217446e-01) (46, -5.78626220741353461396e-02) (47, 8.95554490522789015117e-01) (48, -8.00801475532342821317e-02) (49, 5.60978465509200385775e-01) (50, 1.38643828921837131141e+00) (51, -1.26996333398172372986e-01) (52, -1.23761304346929737474e-01) (53, 4.01339188797781298845e-01) (54, 4.63730687618065962052e-01) (55, 1.08344953127576554275e-01) (56, 4.44091331296488089908e-01) (57, -1.39635189999501196922e-01) (58, 9.23230496223422902879e-01) (59, 1.26080832498295114519e+00) (60, 6.41372837552388164184e-01) (61, 4.02954379059929035378e-01) (62, 5.18093296842957462545e-01) (63, -3.51805786828538358257e-01) (64, 4.54824540434585589121e-01) (65, 3.95776031407404138562e-01) (66, 1.81908422844242956273e+00) (67, 1.53048649257574842508e+00) (68, 9.71426674681092006125e-01) (69, 1.18111100433681115440e+00) (70, 4.86814642574213973791e-01) (71, -3.58413406405493129014e-01) (72, 1.63571361294780182050e+00) (73, 3.78819635425249101601e-01) (74, 1.42903664763165649809e+00) (75, 1.57587697256738845653e+00) (76, 4.94727173242691387056e-01) (77, -6.24333732773588515053e-02) (78, 1.15205315919184836382e+00) (79, 7.82308512925361410062e-01) (80, 8.81589355809769270600e-01) (81, 7.83022148029555387083e-01) (82, 1.21249636837569929604e+00) (83, 1.32481420102401270533e+00) (84, 2.36966048584222571671e-01) (85, -2.10072054036109900910e-01) (86, -2.43681482005988214734e-01) (87, 5.55832629986623860674e-01) (88, 3.83514377957648422424e-01) (89, 1.29776494587251112200e+00) (90, 8.31267990831526248918e-01) (91, 1.25885937655253998813e+00) (92, 4.10467482354426593805e-02) (93, 1.26210420513635668271e+00) (94, 1.48370175650267155376e+00) (95, 1.06812176897544452991e+00) (96, 1.83601932088525598985e-01) (97, 1.44217820231403148767e+00) (98, 9.68967631296231313165e-01) (99, 1.54991355769015926036e+00) (100, 1.10418202614729832334e+00) (101, -6.05934990408496798597e-02) (102, -3.01499458128053232642e-01) (103, 8.87078004402350517310e-01) (104, 7.77159050139888951669e-01) (105, 1.56951991955322300853e+00) (106, 4.01907706846814483104e-01) (107, -9.36565248616883283539e-01) (108, -3.01117686541115814336e-01) (109, 1.97931364400769665979e-01) (110, 2.97823898740639747551e-01) (111, 1.14137855466448256969e+00) (112, 5.65475635066948867369e-01) (113, -3.76701975025806157227e-01) (114, 6.69079872887768378753e-01) (115, 1.39349483270157503689e+00) (116, -3.26532266972169304964e-01) (117, 1.03277854160617277302e+00) (118, -2.72978200410495808192e-01) (119, -1.57566032782980780524e+00) (120, 5.66478106301464667816e-01) (121, 1.06855283269885514841e+00) (122, 9.70545786222822948197e-01) (123, 1.25872376106911421090e+00) (124, 3.57529624371391685500e-01) (125, 1.18644791044471475949e+00) (126, 5.72812650363237363393e-01) (127, 1.32052597694701723263e+00) (128, 7.92112943271444769344e-01) (129, 2.70980071497997798691e-01) (130, 9.44928350246940218504e-01) (131, 1.41922492561129698352e+00) (132, 4.73541329619813045060e-01) (133, 1.06224134932246294660e+00) (134, -4.27921988167166200689e-01) (135, -8.82477175479408210146e-02) (136, 1.22243454879047930284e+00) (137, -4.79068804721125118817e+00) (138, -1.78947836424958650614e-01) (139, -7.69131088268395934904e-01) (140, -1.29752105485079510805e-01) (141, 1.39366564162221906464e+00) (142, 6.29353037284421934494e-01) (143, -3.18415415912287702582e+00) (144, -3.30131028930512493424e-01) (145, -8.65525742829777178233e-03) (146, -2.83950781692969222991e-01) (147, 1.81594659093027921415e+00) (148, -1.87767208973407173644e+00) (149, -6.12613205792295278940e-01) (150, 9.10583537446793878090e-01) (151, 1.58456143290861828365e-01) (152, -1.32731199819763978631e+00) (153, 1.42593610946287929764e+00) (154, -1.48780227341770410199e+00) (155, -5.44131613284496440386e-01) (156, 2.65760206210591487519e-01) (157, -5.80314442020579246417e-01) (158, -1.31378207380577305408e+00) (159, 9.11846887702667863174e-01) (160, -3.76678241568389049476e+00) (161, -3.57172116368546088694e+00) (162, 1.01009069402375017965e+00) (163, 1.62471616591408030139e+00) (164, 1.62488329582667101469e+00) (165, 3.05725014181038645678e-01) (166, -4.68256498297523915397e-01) (167, 4.05053842407820052784e-01) (168, -1.69600351000084914599e-01) (169, 3.17202832049930660840e-01) (170, -2.97327432744153574706e-01) (171, 5.52078988018710803409e-01) (172, -6.58365703364040322221e-01) (173, 5.22534683000190902646e-01) (174, 7.46432176923275014779e-01) (175, 6.15956640828603796400e-01) (176, 5.77588391833229519712e-01) (177, 1.68882057068874646966e+00) (178, 2.05399251286932954530e-01) (179, 7.65338512348128663376e-01) (180, 3.61268685903335495802e-01) (181, 1.72941501432172600738e-01) (182, 5.87881977975135305847e-01) (183, 1.33419682625934954423e+00) (184, -4.60727332920563115159e-01) (185, -4.68789300650000628767e-01) (186, 1.60085646226013644799e+00) (187, 8.89495460987989039481e-01) (188, 1.79750535484981932566e-01) (189, -4.62626859568976533943e-01) (190, 1.40672984186910543514e+00) (191, 8.63865261365785452874e-01) (192, -2.74323391072509192856e-01) (193, 1.51843865691193835588e+00) (194, 1.29357087196189013412e+00) (195, -4.67114622226233899838e-01) (196, -3.40830064239711849616e-01) (197, 1.15433030395406155399e+00) (198, -3.29063974873701925450e-01) (199, 1.83762217675599914823e-01) (200, 5.76548349073339627680e-01) (201, -3.48399689406298840311e-01) (202, 7.32528887338196987855e-01) (203, 2.75136707683497572230e-01) (204, -2.39518149795560825188e-01) (205, -9.31563016379167857517e-02) (206, 1.59317665962295951232e+00) (207, 6.85636550301890634884e-01) (208, 1.37121598402326205779e+00) (209, 1.07988517656879126627e-01) (210, 5.32044718608190927989e-02) (211, 1.62612055288116702512e-01) (212, 9.17156156578830761283e-01) (213, 1.07764298719383511127e+00) (214, -5.01091955846415526565e-02) (215, 8.00333567811982393714e-01) (216, 1.19537071865488919720e+00) (217, -2.01558559060368458482e-01) (218, -1.50209801131959141962e-02) (219, -1.98767486886564204163e-01) (220, 3.31562843065663116759e-03) (221, 7.83432549345742523794e-02) (222, 1.07984000612274799735e+00) (223, 2.96841051784343208306e-03) (224, -1.33005879173438007479e-01) (225, 7.63493883554774210864e-01) (226, 2.05923369507847786597e-01) (227, 2.73483866014050946980e-01) (228, 3.64035072795009850832e-01) (229, 1.47234143827009028582e-01) (230, 7.28290887880551185418e-01) (231, 8.49646050332591440402e-01) (232, 3.49940063397146838842e-01) (233, 1.36772683237661729638e-01) (234, -2.92514798172855139402e-01) (235, 4.93430470481426020068e-01) (236, 4.90629962613967407492e-01) (237, -4.80476395594577998516e-01) (238, -4.65416573877617922861e-01) (239, 5.38323565045267682372e-01) (240, 2.82118845106825055780e-01) (241, -2.50940086413706173185e-02) (242, 1.14534627041631198452e+00) (243, 1.23581930989873911564e+00) (244, 1.35263836543016013891e+00) (245, -3.43100599719669996368e-01) (246, 6.76840313883432020958e-01) (247, 9.32955047938606174540e-01) (248, 8.21141836717875495122e-02) (249, 1.02102350048589651799e+00) (250, 1.04149994344098728583e+00) (251, 4.74530307222892022700e-01) (252, -2.47778082359555645864e-01) (253, 6.95001870935302079602e-01) (254, 1.13540200641655619762e+00) (255, -3.46173491300167598950e-02) (256, -2.01805113846229844388e-01) (257, -3.14760861304619610213e-01) (258, 9.02165713905473509726e-01) (259, 7.49221974181514038804e-01) (260, 4.93185533058826452990e-01) (261, 1.39478277324616234401e-01) (262, 2.96849615216118412064e-01) (263, 1.30022384205384811118e+00) (264, 7.51050880647859409045e-01) (265, 4.14912134293339340818e-01) (266, 2.57724680405847172970e-01) (267, -2.29993229715469316154e-01) (268, 6.50861295913585324868e-01) (269, 7.88448204069879476918e-01) (270, 7.80708932370758224017e-01) (271, 1.33348360580431268829e+00) (272, 1.07405456908493235346e+00) (273, 4.67962358120555588226e-01) (274, 1.10047049219988335444e+00) (275, 9.08346460113253706403e-01) (276, 6.00762945290524430497e-01) (277, 1.70043008407980478225e-01) (278, 4.76252113019087430779e-01) (279, 8.82403455946456638515e-01) (280, -2.83418754904984360188e-01) (281, -1.21061593743841178217e-01) (282, 1.95354036987495220147e-04) (283, -1.41378203773963845302e-01) (284, 1.32911678458396820268e+00) (285, 1.47983550149625164849e+00) (286, 3.69246194379965808618e-01) (287, -5.10169523693999260594e-01) (288, -3.69654244666813680542e-01) (289, -3.55022007368787029247e-01) (290, 9.89772029581752366134e-01) (291, 4.68460662156323703886e-01) (292, 1.57880453256687453001e-01) (293, -3.38637981765958939739e-01) (294, 2.35472909040873590314e-01) (295, 1.29537080788702363421e+00) (296, 6.43339863062803885008e-01) (297, 1.04813722578069445923e+00) (298, 1.45079628548004935240e+00) (299, -3.20050059050533519667e-01) (300, -2.53357350874792774942e-01) (301, 1.96885655854514984853e+00) (302, 3.05048438962073165115e+00) (303, 8.97950166111303293981e-01) (304, 2.24429520740492627340e+00) (305, 1.26702494462596089164e+01) (306, 4.50228036227450267859e+00) (0, 1.05673236379606390045e+01) (1, 1.22920602986795568512e+01) (2, 1.07279351333362722443e+01) (3, 1.32434513945906111587e+01) (4, 1.06337112317068243073e+01) (5, 1.11123892271456146119e+01) (6, 4.02214479350029279203e+01) (7, 3.57811172148572751439e+01) (8, 3.61123543521749326146e+01) (9, 9.55533198485177770465e+00) (10, 1.07997788585166336617e+01) (11, 5.08389316575981276003e+00) (12, 4.59167451914284185932e+01) (13, 4.15028521322189618559e+01) (14, 4.12340297006546308012e+01) (15, 2.21647505353349529855e+01) (16, 3.60402683159696408666e+01) (17, 8.15516050293537730909e+00) (18, 4.57880151327583746479e+01) (19, 4.51815269049141363666e+01) (20, 4.01005383931576062650e+01) (21, 9.69935395132271871432e+00) (22, 1.11623099052843475221e+01) (23, 5.22473751085258619753e+00) (24, 1.42398680184025749895e+02) (25, 1.42526890669007286760e+02) (26, 7.60026734084930808422e+01) (27, 6.25695304649330097391e+00) (28, 8.03440459206196422315e+00) (29, 9.57789011256424460683e-01) (30, 1.43556686136860832903e+02) (31, 1.43140645477910027239e+02) (32, 1.42359152290959343645e+02) (33, 6.44317190425849872781e+00) (34, 5.57054142730690138308e+00) (35, 8.66640098349777732167e-01) (36, 1.42802417550225243303e+02) (37, 1.43454276058812126848e+02) (38, 1.43002128217358574602e+02) (39, 6.30687229412055927469e+00) (40, 4.84357722180343941432e+00) (41, 1.35110218073579457787e+00) (42, 1.42230811689038262102e+02) (43, 1.43730082485814079973e+02) (44, 7.58095035166588218090e+01) (45, 6.44963149803138691141e+00) (46, 6.44546251075721698953e+00) (47, 1.93709117914887962719e+00) (48, 1.43147708389897331926e+02) (49, 1.43191719625134453509e+02) (50, 4.49046901520225958393e+01) (51, 6.23303680198646503641e+00) (52, 5.70265214221931593386e+00) (53, 1.82004792238923696068e+00) (54, 1.42297820571799263689e+02) (55, 1.43614148709912285540e+02) (56, 4.46760668810341314838e+01) (57, 1.21313242146951818512e+01) (58, 3.68156191846715756810e+01) (59, 6.04435353057838575808e+00) (60, 1.42198416177172646258e+02) (61, 1.43091635558743462298e+02) (62, 4.52293531950447516010e+01) (63, 1.10811413075181630639e+00) (64, 5.69735722320533888308e+00) (65, 2.14613241697999512780e+00) (66, 1.43395866844792351458e+02) (67, 1.42001072693605408404e+02) (68, 4.12370102905212689848e+01) (69, 9.37022454993454489980e-01) (70, 6.48201291339851337625e+00) (71, -1.47106350191347683420e+01) (72, 7.67292441339340598461e+01) (73, 1.91705790361619001771e+01) (74, 6.29675798194862323953e+00) (75, 1.03776127840730336693e+00) (76, 7.12343372538181895948e+00) (77, 1.95874447371217308422e+00) (78, 4.02349765204368878813e+01) (79, 2.04432848593449598695e+01) (80, 9.92636839518350377887e+00) (81, 1.29662651564332631615e+00) (82, 1.59764093901368764428e+00) (83, -1.82490480698403767512e+00) (84, 1.21636258740751692642e+01) (85, 1.88131290410536387014e+01) (86, 4.57843653934456185084e+00) (87, 7.79172940685841108888e+00) (88, 5.97140841262794630495e+00) (89, 1.84013015772553978344e+00) (90, 1.10557682344896459625e+01) (91, 1.33199978251783797134e+01) (92, 1.09431547667237905053e+00) (93, 1.83594414924162485647e+01) (94, 5.23807881849266188112e+00) (95, 2.92970687107770411117e-01) (96, 8.12995048000904674268e+00) (97, 4.79649533408142403346e+00) (98, -1.36784841408185648959e+01) (99, 1.09707695986482289818e+00) (100, -1.55836528070681179514e+01) (101, -1.63785645194761855237e+01) (102, 1.00250083948823598412e+00) (103, -1.57118657358400906077e+01) (104, -1.89683530702071330154e+01) (105, 1.20614360947935530533e+01) (106, 1.95347268130036888500e+00) (107, 1.17873299862596181420e+00) (108, 5.45373417393891779525e-01) (109, -3.90280325486571388893e+00) (110, -5.22598530080362451145e+01) (111, 1.65597755457612660912e+00) (112, -1.52353007324450100413e+01) (113, -1.66181626838110787503e+01) (114, 1.97053188826295433422e+00) (115, -4.11976767852217751198e+00) (116, -5.10090202119394433566e+01) (117, 1.06751393474082352242e+01) (118, -3.11235196664244728737e+00) (119, -1.52783364780657375803e+01) (120, -1.24586084772996557035e+01) (121, -1.68494652236185444849e+01) (122, -1.96862792659753225166e+01) (123, 9.18172917732995763629e+00) (124, -1.98372186113351247627e+01) (125, -1.89353842426293752510e+01) (126, -1.61710513063185317151e+01) (127, -5.25079438712640893527e+01) (128, -2.06375908691638372261e+01) (129, 1.21855164547293135513e+01) (130, -1.96084327388757131416e+01) (131, -2.00838458632473830789e+01) (132, -3.22962267472655373268e+00) (133, -2.08198598761313817818e+01) (134, -2.11796526258234862894e+01) (135, 1.08465351484801413307e+01) (136, -2.07118920778279189676e+01) (137, -1.94285897110943679422e+01) (138, -3.62761445119292336159e+00) (139, -1.98787489820474050362e+01) (140, -2.11420483236555938333e+01) (141, -1.42089039064182980354e+01) (142, -2.09268787299637679666e+01) (143, -5.42381911669024958655e+01) (144, -5.16771900680109155246e+01) (145, -2.06800954330914876778e+01) (146, -1.96686766242031936258e+01) (147, -1.85321759356932780349e+01) (148, -5.58108372073719039008e+01) (149, -5.57609079625759562759e+01) (150, -5.24744516041322839328e+01) (151, -1.93466614175790212471e+01) (152, -2.09616243933682326883e+01) (153, 1.16859078609880828736e+01) (154, -1.89806965280526540596e+01) (155, -5.50873562243137939731e+01) (156, -2.66152067258269386940e+00) (157, -5.25405328300043237277e+01) (158, -1.90503424097054860908e+01) (159, 1.43608393881459221575e+02) (160, -5.18183052566095483371e+01) (161, -1.97895829368585012276e+01) (162, -1.55695893295519436350e+01) (163, -1.84640721666000260370e+01) (164, -1.97287321973794362862e+01) (165, 1.43075157139439568255e+02) (166, -3.70670986975453597978e+00) (167, -1.90697344232552907783e+01) (168, -1.54475700386278713694e+01) (169, -1.82938986296139134424e+01) (170, -2.00792910743707082588e+01) (171, 1.43234780643124565813e+02) (172, 1.28593833823530623306e+01) (173, -3.48683199335464433233e+00) (174, 1.22085816408845571068e+00) (175, -1.60346366294138533704e+01) (176, -5.14395085599466455051e+01) (177, 1.42535075459618553850e+02) (178, 4.60353090818855719135e+01) (179, 4.58635058458778814838e+01) (180, 1.03041135467032791695e+01) (181, 1.09469864289016456382e+01) (182, 1.21945840861055043725e+00) (183, 1.43723546836514458391e+02) (184, 7.65173785896149070140e+01) (185, 1.42731476459641442034e+02) (186, 9.17700876604287252292e+00) (187, 2.10044747654024313022e+01) (188, 1.13309396707949066041e+01) (189, 1.42983635876317009661e+02) (190, 1.42796139273781761858e+02) (191, 1.42132228914637551043e+02) (192, 4.46063014324638800190e+01) (193, 4.43856649566326098011e+01) (194, 7.51792068691101462719e+01) (195, 1.43215223643918022844e+02) (196, 1.43091833923001274798e+02) (197, 4.63376704510185675190e+01) (198, 1.43014681551594719622e+02) (199, 7.52803296358433158275e+01) (200, 1.41980240631837830279e+02) (201, 1.43816101167340264055e+02) (202, 4.62122274692985968159e+01) (203, 4.59193912800285772846e+01) (204, 7.60700204582062156078e+01) (205, 3.61193210026609250463e+01) (206, 7.49777642549124152538e+01) (207, 1.42484541151661858294e+02) (208, 4.12357746862350751371e+01) (209, 4.14746078752456952543e+01) (210, 4.45105968173477606342e+01) (211, 1.11165176832613372682e+01) (212, 4.62330398615333990620e+01) (213, 4.08351189397751141996e+01) (214, 1.18033214504570693748e+01) (215, 6.01115672367073194948e+00) (216, 1.41878615569312557909e+02) (217, 3.99260379277645398588e+01) (218, 1.42537650380272850725e+02) (219, 3.65724010011541196263e+01) (220, 1.71638430640719263920e+01) (221, 8.46623917057606156789e+00) (222, 1.43435478541989311907e+02) (223, 7.64905324191894919750e+01) (224, 1.43524534318585381243e+02) (225, 1.34061034102766463150e+01) (226, 1.98139922217964361550e+01) (227, 5.44016973751045362917e+00) (228, 7.67459174604263694164e+01) (229, 4.45685862656567053364e+01) (230, 7.62333157272186667797e+01) (231, 1.01231425979670905946e+01) (232, 1.59348117992899762640e+01) (233, 5.70628158824897901980e+00) (234, 1.43419103953976616594e+02) (235, 4.57713185604546026752e+01) (236, 1.41883681122202858660e+02) (237, 8.50931091740223344289e+00) (238, 4.53660510184623078089e+00) (239, 1.81947190310212758568e+00) (240, 7.63575642318573386547e+01) (241, 4.45600181873772100971e+01) (242, 1.42467619869847283098e+02) (243, 8.14847226574513072705e+00) (244, 1.22307682926506728904e+01) (245, 1.76633805777284291771e+00) (246, 4.52456016000244574116e+01) (247, 4.57713590916130499409e+01) (248, 1.43639436695713982317e+02) (249, 3.68574832221853085912e+01) (250, 2.04993135396066890053e+01) (251, 5.69645027893043653933e+00) (252, 4.56277273949120001362e+01) (253, 7.51380695612278373119e+01) (254, 1.42668273780484184954e+02) (255, 3.62149747750150510228e+01) (256, 1.59799897060416089545e+01) (257, 2.06711823488923585046e+00) (258, 4.62677974756691412495e+01) (259, 1.41937819156784996721e+02) (260, 1.41878720439959749910e+02) (261, 5.76185159461952345339e+00) (262, 4.64183981793381050807e+00) (263, 4.33447070376603571518e-01) (264, 4.01587090395866681547e+01) (265, 7.65937670678940207836e+01) (266, 1.43459299895901665423e+02) (267, 7.42406196849075827870e-01) (268, 1.66371686007234242943e+00) (269, 1.88519889857026634594e+00) (270, 2.22561625505942188852e+01) (271, 4.06378757857261945219e+01) (272, 7.67197581739273459789e+01) (273, 9.89637978331772361074e-01) (274, 5.16464240805833307846e-01) (275, 1.41439802195283559350e+00) (276, 2.24502605165499531381e+01) (277, 4.08671296142517377348e+01) (278, 4.49718292411301092670e+01) (279, 3.44034530179231134994e-01) (280, 9.69891257540909323964e-01) (281, 1.49935311819764760521e+00) (282, 2.34615134860533522954e+01) (283, 3.52838539211439439214e+01) (284, 4.12655356429992963285e+01) (285, 4.66889871733642891627e+00) (286, 5.44770954626060621706e+00) (287, 2.01491052653047120202e+00) (288, 2.21455274450737320535e+01) (289, 3.61169684073316403783e+01) (290, 4.16008496784149457426e+01) (291, 4.57487748640037850123e+00) (292, 4.59815032856918648463e+00) (293, 2.69935548262326463487e-01) (294, 2.24293532635229908578e+01) (295, 3.58623653790342160619e+01) (296, 4.14918154977737714262e+01) (297, 8.73641260101887162648e+00) (298, 1.12135842049059295533e+01) (299, 5.75232653396583692995e+00) (300, -2.22288437290342022479e+00) (301, 3.29842496652808048196e+00) (302, -1.41610893297929749224e+02) (303, 2.31059502829403911051e+01) (304, 1.41880392946292147371e+02) (305, 2.25879540702886743020e+01) (306, 2.70581514377798892923e+00) (307, 1.42220031354565605852e+02) (0, 8.49238030133990240422e-01) (1, 4.69614259420184920746e-01) (2, -3.28189873494654504871e-02) (3, 5.07225505529192877141e-01) (4, 4.33067433057574835420e-01) (5, 7.42135397611407676699e-01) (6, 9.86140619352419256494e-01) (7, 1.02187503440674154476e+00) (8, -5.25946455533808476801e-01) (9, 8.43123547254351568547e-01) (10, -3.44928004326076786956e-01) (11, 8.10214034734515142766e-01) (12, -6.34231069472629749306e-01) (13, 9.08406219097774081384e-01) (14, -3.03652414468127795910e-01) (15, 4.48203674970416632295e-01) (16, -5.06470911146169822104e-01) (17, 1.19291912716463199828e+00) (18, -2.74718382743197986340e-01) (19, 2.58799037548702537403e-01) (20, -3.10958066371280150708e-01) (21, -6.99389807821279907429e-01) (22, 7.92397297977441184003e-01) (23, 9.54511798976892422708e-01) (24, 7.58025116370548368572e-01) (25, -4.54966598106990471884e-01) (26, 1.07249864062945321486e+00) (27, 8.64859022258752219159e-01) (28, 7.45803501733011797725e-01) (29, 1.86857369073100354484e-01) (30, 6.83329435909054483389e-01) (31, 4.38227301570957905597e-01) (32, -4.98753831429335714454e-01) (33, -6.13000802637106323445e-01) (34, -3.59671536557010673718e-01) (35, 6.39908578522868198846e-01) (36, 6.00622011462174087981e-01) (37, -5.24086874131739821614e-01) (38, 1.82907789206917525959e-01) (39, -7.95304587568348542170e-01) (40, 1.08220748231512597926e+00) (41, 9.29470580078185393269e-01) (42, 7.31644464493380497494e-01) (43, 1.18418731515688602229e+00) (44, 5.58058502124886612883e-01) (45, -7.03161679686756913021e-01) (46, 4.34569350896625128389e-01) (47, 9.20933000264910650579e-01) (48, -8.62240764186016916959e-01) (49, 9.44629360698434505927e-01) (50, -4.80973680524575467055e-02) (51, -2.71115359122559795857e-01) (52, 1.06181798125503235042e+00) (53, -4.48339937782035680147e-01) (54, -6.29937964365117064602e-01) (55, 5.93763370778614740786e-01) (56, -1.64988896173491522701e-01) (57, -6.40518480764769471136e-01) (58, 2.73017976229383951825e-01) (59, -5.53231176192567564165e-01) (60, 2.21639269403870714514e-01) (61, -2.26699378702400949903e-01) (62, 6.56756280472079234656e-01) (63, 6.22524712031080729169e-01) (64, -2.67762531685485291599e-02) (65, 1.11961442365671692833e+00) (66, 6.35223758970070023766e-02) (67, -2.77948295380841592372e-01) (68, -6.34266858603727223809e-01) (69, -6.57476021504150964780e-01) (70, -2.65598662676067576172e-01) (71, 1.20840286415651432250e+00) (72, 1.06769789734529818581e+00) (73, -6.30695109870206715996e-01) (74, 1.21642323801302021380e+00) (75, 4.33759257813498666501e-01) (76, -5.74172549428196732357e-01) (77, 3.98368708310870733857e-01) (78, 1.21619537264577456948e-01) (79, -5.09634541095224213869e-01) (80, -1.09505865828042892041e-01) (81, 8.41066167374655115907e-01) (82, -3.64616316875672030751e-01) (83, -3.83160401104886250145e-01) (84, 1.16887201347994196254e+00) (85, -7.40185578487888989896e-02) (86, -1.27776755518409990131e+00) (87, -5.18770831387781905519e-01) (88, 9.01396838738935911317e-03) (89, 9.09028102680634400579e-03) (90, -3.14767640480324795149e-01) (91, -1.07388276783845881823e+00) (92, 3.18546881991404573498e-01) (93, -8.96824883979105758058e-01) (94, 5.33847581625978229170e-01) (95, -7.19446001770963849964e-01) (96, -1.02289981807164842564e+00) (97, -8.37436344857862335900e-01) (98, -4.61470690007855066650e-01) (99, -8.85852071207308577883e-01) (100, -4.99782968281705208824e-01) (101, 2.78030069348345898472e-01) (102, -9.19354716739032573614e-01) (103, -6.73279600785682164066e-01) (104, 1.80698691203306727182e-01) (105, -9.58298904822670771786e-01) (106, 5.24246198374485938842e-01) (107, 6.15745526435382051211e-01) (108, 5.52472064433723986099e-01) (109, -6.02932717529683026569e-01) (110, 6.35065363239379232496e-01) (111, -9.13729725406967951962e-01) (112, -1.00919506530221236851e+00) (113, -4.04226917145244057927e-01) (114, 1.24282741475831015610e-01) (115, 8.62462345221202353329e-01) (116, 6.29723914994770650466e-01) (117, -1.50223388313895978019e-01) (118, -5.22531619179560591348e-01) (119, -2.76843459869312136234e-01) (120, -8.07999838289725658136e-01) (121, 5.44898283621741419402e-01) (122, 