FANN_FLO_2.1
num_layers=6
learning_rate=0.700000
connection_rate=1.000000
network_type=1
learning_momentum=0.000000
training_algorithm=2
train_error_function=1
train_stop_function=0
cascade_output_change_fraction=0.010000
quickprop_decay=-0.000100
quickprop_mu=1.750000
rprop_increase_factor=1.200000
rprop_decrease_factor=0.500000
rprop_delta_min=0.000000
rprop_delta_max=50.000000
rprop_delta_zero=0.100000
cascade_output_stagnation_epochs=12
cascade_candidate_change_fraction=0.010000
cascade_candidate_stagnation_epochs=12
cascade_max_out_epochs=150
cascade_max_cand_epochs=150
cascade_num_candidate_groups=2
bit_fail_limit=3.49999999999999977796e-01
cascade_candidate_limit=1.00000000000000000000e+03
cascade_weight_multiplier=4.00000000000000022204e-01
cascade_activation_functions_count=10
cascade_activation_functions=3 5 7 8 10 11 14 15 16 17 
cascade_activation_steepnesses_count=4
cascade_activation_steepnesses=2.50000000000000000000e-01 5.00000000000000000000e-01 7.50000000000000000000e-01 1.00000000000000000000e+00 
layer_sizes=301 1 1 1 1 7 
scale_included=0
neurons (num_inputs, activation_function, activation_steepness)=(0, 0, 0.00000000000000000000e+00) (0, 0, 0.00000000000000000000e+00) (0, 0, 0.00000000000000000000e+00) (0, 0, 0.00000000000000000000e+00) (0, 0, 0.00000000000000000000e+00) (0, 0, 0.00000000000000000000e+00) (0, 0, 0.00000000000000000000e+00) (0, 0, 0.00000000000000000000e+00) (0, 0, 0.00000000000000000000e+00) (0, 0, 0.00000000000000000000e+00) (0, 0, 0.00000000000000000000e+00) (0, 0, 0.00000000000000000000e+00) (0, 0, 0.00000000000000000000e+00) (0, 0, 0.00000000000000000000e+00) (0, 0, 0.00000000000000000000e+00) (0, 0, 0.00000000000000000000e+00) (0, 0, 0.00000000000000000000e+00) (0, 0, 0.00000000000000000000e+00) (0, 0, 0.00000000000000000000e+00) (0, 0, 0.00000000000000000000e+00) (0, 0, 0.00000000000000000000e+00) (0, 0, 0.00000000000000000000e+00) (0, 0, 0.00000000000000000000e+00) (0, 0, 0.00000000000000000000e+00) (0, 0, 0.00000000000000000000e+00) (0, 0, 0.00000000000000000000e+00) (0, 0, 0.00000000000000000000e+00) (0, 0, 0.00000000000000000000e+00) (0, 0, 0.00000000000000000000e+00) (0, 0, 0.00000000000000000000e+00) (0, 0, 0.00000000000000000000e+00) (0, 0, 0.00000000000000000000e+00) (0, 0, 0.00000000000000000000e+00) (0, 0, 0.00000000000000000000e+00) (0, 0, 0.00000000000000000000e+00) (0, 0, 0.00000000000000000000e+00) (0, 0, 0.00000000000000000000e+00) (0, 0, 0.00000000000000000000e+00) (0, 0, 0.00000000000000000000e+00) (0, 0, 0.00000000000000000000e+00) (0, 0, 0.00000000000000000000e+00) (0, 0, 0.00000000000000000000e+00) (0, 0, 0.00000000000000000000e+00) (0, 0, 0.00000000000000000000e+00) (0, 0, 0.00000000000000000000e+00) (0, 0, 0.00000000000000000000e+00) (0, 0, 0.00000000000000000000e+00) (0, 0, 0.00000000000000000000e+00) (0, 0, 0.00000000000000000000e+00) (0, 0, 0.00000000000000000000e+00) (0, 0, 0.00000000000000000000e+00) (0, 0, 0.00000000000000000000e+00) (0, 0, 0.00000000000000000000e+00) (0, 0, 0.00000000000000000000e+00) (0, 0, 0.00000000000000000000e+00) (0, 0, 0.00000000000000000000e+00) (0, 0, 0.00000000000000000000e+00) (0, 0, 0.00000000000000000000e+00) (0, 0, 0.00000000000000000000e+00) (0, 0, 0.00000000000000000000e+00) (0, 0, 0.00000000000000000000e+00) (0, 0, 0.00000000000000000000e+00) (0, 0, 0.00000000000000000000e+00) (0, 0, 0.00000000000000000000e+00) (0, 0, 0.00000000000000000000e+00) (0, 0, 0.00000000000000000000e+00) (0, 0, 0.00000000000000000000e+00) (0, 0, 0.00000000000000000000e+00) (0, 0, 0.00000000000000000000e+00) (0, 0, 0.00000000000000000000e+00) (0, 0, 0.00000000000000000000e+00) (0, 0, 0.00000000000000000000e+00) (0, 0, 0.00000000000000000000e+00) (0, 0, 0.00000000000000000000e+00) (0, 0, 0.00000000000000000000e+00) (0, 0, 0.00000000000000000000e+00) (0, 0, 0.00000000000000000000e+00) (0, 0, 0.00000000000000000000e+00) (0, 0, 0.00000000000000000000e+00) (0, 0, 0.00000000000000000000e+00) (0, 0, 0.00000000000000000000e+00) (0, 0, 0.00000000000000000000e+00) (0, 0, 0.00000000000000000000e+00) (0, 0, 0.00000000000000000000e+00) (0, 0, 0.00000000000000000000e+00) (0, 0, 0.00000000000000000000e+00) (0, 0, 0.00000000000000000000e+00) (0, 0, 0.00000000000000000000e+00) (0, 0, 0.00000000000000000000e+00) (0, 0, 0.00000000000000000000e+00) (0, 0, 0.00000000000000000000e+00) (0, 0, 0.00000000000000000000e+00) (0, 0, 0.00000000000000000000e+00) (0, 0, 0.00000000000000000000e+00) (0, 0, 0.00000000000000000000e+00) (0, 0, 0.00000000000000000000e+00) (0, 0, 0.00000000000000000000e+00) (0, 0, 0.00000000000000000000e+00) (0, 0, 0.00000000000000000000e+00) (0, 0, 0.00000000000000000000e+00) (0, 0, 0.00000000000000000000e+00) (0, 0, 0.00000000000000000000e+00) (0, 0, 0.00000000000000000000e+00) (0, 0, 0.00000000000000000000e+00) (0, 0, 0.00000000000000000000e+00) (0, 0, 0.00000000000000000000e+00) (0, 0, 0.00000000000000000000e+00) (0, 0, 0.00000000000000000000e+00) (0, 0, 0.00000000000000000000e+00) (0, 0, 0.00000000000000000000e+00) (0, 0, 0.00000000000000000000e+00) (0, 0, 0.00000000000000000000e+00) (0, 0, 0.00000000000000000000e+00) (0, 0, 0.00000000000000000000e+00) (0, 0, 0.00000000000000000000e+00) (0, 0, 0.00000000000000000000e+00) (0, 0, 0.00000000000000000000e+00) (0, 0, 0.00000000000000000000e+00) (0, 0, 0.00000000000000000000e+00) (0, 0, 0.00000000000000000000e+00) (0, 0, 0.00000000000000000000e+00) (0, 0, 0.00000000000000000000e+00) (0, 0, 0.00000000000000000000e+00) (0, 0, 0.00000000000000000000e+00) (0, 0, 0.00000000000000000000e+00) (0, 0, 0.00000000000000000000e+00) (0, 0, 0.00000000000000000000e+00) (0, 0, 0.00000000000000000000e+00) (0, 0, 0.00000000000000000000e+00) (0, 0, 0.00000000000000000000e+00) (0, 0, 0.00000000000000000000e+00) (0, 0, 0.00000000000000000000e+00) (0, 0, 0.00000000000000000000e+00) (0, 0, 0.00000000000000000000e+00) (0, 0, 0.00000000000000000000e+00) (0, 0, 0.00000000000000000000e+00) (0, 0, 0.00000000000000000000e+00) (0, 0, 0.00000000000000000000e+00) (0, 0, 0.00000000000000000000e+00) (0, 0, 0.00000000000000000000e+00) (0, 0, 0.00000000000000000000e+00) (0, 0, 0.00000000000000000000e+00) (0, 0, 0.00000000000000000000e+00) (0, 0, 0.00000000000000000000e+00) (0, 0, 0.00000000000000000000e+00) (0, 0, 0.00000000000000000000e+00) (0, 0, 0.00000000000000000000e+00) (0, 0, 0.00000000000000000000e+00) (0, 0, 0.00000000000000000000e+00) (0, 0, 0.00000000000000000000e+00) (0, 0, 0.00000000000000000000e+00) (0, 0, 0.00000000000000000000e+00) (0, 0, 0.00000000000000000000e+00) (0, 0, 0.00000000000000000000e+00) (0, 0, 0.00000000000000000000e+00) (0, 0, 0.00000000000000000000e+00) (0, 0, 0.00000000000000000000e+00) (0, 0, 0.00000000000000000000e+00) (0, 0, 0.00000000000000000000e+00) (0, 0, 0.00000000000000000000e+00) (0, 0, 0.00000000000000000000e+00) (0, 0, 0.00000000000000000000e+00) (0, 0, 0.00000000000000000000e+00) (0, 0, 0.00000000000000000000e+00) (0, 0, 0.00000000000000000000e+00) (0, 0, 0.00000000000000000000e+00) (0, 0, 0.00000000000000000000e+00) (0, 0, 0.00000000000000000000e+00) (0, 0, 0.00000000000000000000e+00) (0, 0, 0.00000000000000000000e+00) (0, 0, 0.00000000000000000000e+00) (0, 0, 0.00000000000000000000e+00) (0, 0, 0.00000000000000000000e+00) (0, 0, 0.00000000000000000000e+00) (0, 0, 0.00000000000000000000e+00) (0, 0, 0.00000000000000000000e+00) (0, 0, 0.00000000000000000000e+00) (0, 0, 0.00000000000000000000e+00) (0, 0, 0.00000000000000000000e+00) (0, 0, 0.00000000000000000000e+00) (0, 0, 0.00000000000000000000e+00) (0, 0, 0.00000000000000000000e+00) (0, 0, 0.00000000000000000000e+00) (0, 0, 0.00000000000000000000e+00) (0, 0, 0.00000000000000000000e+00) (0, 0, 0.00000000000000000000e+00) (0, 0, 0.00000000000000000000e+00) (0, 0, 0.00000000000000000000e+00) (0, 0, 0.00000000000000000000e+00) (0, 0, 0.00000000000000000000e+00) (0, 0, 0.00000000000000000000e+00) (0, 0, 0.00000000000000000000e+00) (0, 0, 0.00000000000000000000e+00) (0, 0, 0.00000000000000000000e+00) (0, 0, 0.00000000000000000000e+00) (0, 0, 0.00000000000000000000e+00) (0, 0, 0.00000000000000000000e+00) (0, 0, 0.00000000000000000000e+00) (0, 0, 0.00000000000000000000e+00) (0, 0, 0.00000000000000000000e+00) (0, 0, 0.00000000000000000000e+00) (0, 0, 0.00000000000000000000e+00) (0, 0, 0.00000000000000000000e+00) (0, 0, 0.00000000000000000000e+00) (0, 0, 0.00000000000000000000e+00) (0, 0, 0.00000000000000000000e+00) (0, 0, 0.00000000000000000000e+00) (0, 0, 0.00000000000000000000e+00) (0, 0, 0.00000000000000000000e+00) (0, 0, 0.00000000000000000000e+00) (0, 0, 0.00000000000000000000e+00) (0, 0, 0.00000000000000000000e+00) (0, 0, 0.00000000000000000000e+00) (0, 0, 0.00000000000000000000e+00) (0, 0, 0.00000000000000000000e+00) (0, 0, 0.00000000000000000000e+00) (0, 0, 0.00000000000000000000e+00) (0, 0, 0.00000000000000000000e+00) (0, 0, 0.00000000000000000000e+00) (0, 0, 0.00000000000000000000e+00) (0, 0, 0.00000000000000000000e+00) (0, 0, 0.00000000000000000000e+00) (0, 0, 0.00000000000000000000e+00) (0, 0, 0.00000000000000000000e+00) (0, 0, 0.00000000000000000000e+00) (0, 0, 0.00000000000000000000e+00) (0, 0, 0.00000000000000000000e+00) (0, 0, 0.00000000000000000000e+00) (0, 0, 0.00000000000000000000e+00) (0, 0, 0.00000000000000000000e+00) (0, 0, 0.00000000000000000000e+00) (0, 0, 0.00000000000000000000e+00) (0, 0, 0.00000000000000000000e+00) (0, 0, 0.00000000000000000000e+00) (0, 0, 0.00000000000000000000e+00) (0, 0, 0.00000000000000000000e+00) (0, 0, 0.00000000000000000000e+00) (0, 0, 0.00000000000000000000e+00) (0, 0, 0.00000000000000000000e+00) (0, 0, 0.00000000000000000000e+00) (0, 0, 0.00000000000000000000e+00) (0, 0, 0.00000000000000000000e+00) (0, 0, 0.00000000000000000000e+00) (0, 0, 0.00000000000000000000e+00) (0, 0, 0.00000000000000000000e+00) (0, 0, 0.00000000000000000000e+00) (0, 0, 0.00000000000000000000e+00) (0, 0, 0.00000000000000000000e+00) (0, 0, 0.00000000000000000000e+00) (0, 0, 0.00000000000000000000e+00) (0, 0, 0.00000000000000000000e+00) (0, 0, 0.00000000000000000000e+00) (0, 0, 0.00000000000000000000e+00) (0, 0, 0.00000000000000000000e+00) (0, 0, 0.00000000000000000000e+00) (0, 0, 0.00000000000000000000e+00) (0, 0, 0.00000000000000000000e+00) (0, 0, 0.00000000000000000000e+00) (0, 0, 0.00000000000000000000e+00) (0, 0, 0.00000000000000000000e+00) (0, 0, 0.00000000000000000000e+00) (0, 0, 0.00000000000000000000e+00) (0, 0, 0.00000000000000000000e+00) (0, 0, 0.00000000000000000000e+00) (0, 0, 0.00000000000000000000e+00) (0, 0, 0.00000000000000000000e+00) (0, 0, 0.00000000000000000000e+00) (0, 0, 0.00000000000000000000e+00) (0, 0, 0.00000000000000000000e+00) (0, 0, 0.00000000000000000000e+00) (0, 0, 0.00000000000000000000e+00) (0, 0, 0.00000000000000000000e+00) (0, 0, 0.00000000000000000000e+00) (0, 0, 0.00000000000000000000e+00) (0, 0, 0.00000000000000000000e+00) (0, 0, 0.00000000000000000000e+00) (0, 0, 0.00000000000000000000e+00) (0, 0, 0.00000000000000000000e+00) (0, 0, 0.00000000000000000000e+00) (0, 0, 0.00000000000000000000e+00) (0, 0, 0.00000000000000000000e+00) (0, 0, 0.00000000000000000000e+00) (0, 0, 0.00000000000000000000e+00) (0, 0, 0.00000000000000000000e+00) (0, 0, 0.00000000000000000000e+00) (0, 0, 0.00000000000000000000e+00) (0, 0, 0.00000000000000000000e+00) (0, 0, 0.00000000000000000000e+00) (0, 0, 0.00000000000000000000e+00) (0, 0, 0.00000000000000000000e+00) (0, 0, 0.00000000000000000000e+00) (0, 0, 0.00000000000000000000e+00) (0, 0, 0.00000000000000000000e+00) (0, 0, 0.00000000000000000000e+00) (0, 0, 0.00000000000000000000e+00) (0, 0, 0.00000000000000000000e+00) (0, 0, 0.00000000000000000000e+00) (0, 0, 0.00000000000000000000e+00) (0, 0, 0.00000000000000000000e+00) (0, 0, 0.00000000000000000000e+00) (0, 0, 0.00000000000000000000e+00) (301, 14, 5.00000000000000000000e-01) (302, 15, 7.50000000000000000000e-01) (303, 15, 2.50000000000000000000e-01) (304, 3, 2.50000000000000000000e-01) (305, 5, 5.00000000000000000000e-01) (305, 5, 5.00000000000000000000e-01) (305, 5, 5.00000000000000000000e-01) (305, 5, 5.00000000000000000000e-01) (305, 5, 5.00000000000000000000e-01) (305, 5, 5.00000000000000000000e-01) (305, 5, 5.00000000000000000000e-01) 
connections (connected_to_neuron, weight)=(0, 4.42571503601320082044e-01) (1, 8.36702358688122371788e-01) (2, 1.24370599981666374312e+00) (3, 5.25569073062804204000e-01) (4, 4.72064725261596540573e-01) (5, 5.96978656154540376910e-01) (6, 6.26263028163982049534e-01) (7, 1.22513531840092082525e+00) (8, 2.99844837529781582663e-01) (9, 8.98706225518534768115e-02) (10, 1.62773693796516227827e+00) (11, 1.38376821276069450484e+00) (12, 1.29672029760323370695e+00) (13, 9.45411427557917155573e-02) (14, 1.20801587518834474544e+00) (15, 1.40752790419502460395e+00) (16, 1.91888276532643042849e+00) (17, 7.27076397302526156174e-01) (18, 1.44758715211101929299e+00) (19, 1.53782573895153351629e+00) (20, 2.00286609593718495370e-01) (21, 7.26463559089944865832e-01) (22, 1.53751951736097169920e+00) (23, 1.37386483855927110653e+00) (24, 6.70069087197173618442e-01) (25, 1.57807948839209588598e+00) (26, 1.01607015951160839506e+00) (27, 1.11252558068808227176e+00) (28, 7.13118136530031199172e-01) (29, 1.98337949176903283188e+00) (30, 5.57889609077162784700e-01) (31, 1.01181637113272260287e+00) (32, 7.10284837465527618683e-01) (33, 1.90487187425647142014e+00) (34, 1.73892331177812864418e+00) (35, 1.36273360312472680000e+00) (36, 4.56076380231567712897e-01) (37, 2.52889403458572248340e-01) (38, 3.50668627669204924224e-01) (39, 7.50019758636723654632e-01) (40, 4.35212716765484897152e-01) (41, 2.10191981072653710783e+00) (42, 5.36399113959288298403e-02) (43, 1.56298356658251269558e+00) (44, 2.07732674081947799039e+00) (45, 1.20380160302874972267e+00) (46, 1.06032253253563535367e+00) (47, 1.93128925759371417037e+00) (48, 1.82822038389587238072e+00) (49, 2.79865672091175854419e-01) (50, 9.83790760808192721321e-01) (51, 2.19992075174861900777e+00) (52, 1.01179686859430728596e+00) (53, 8.72279497296438721676e-01) (54, 1.41672784821495767460e+00) (55, 1.51960574218798716295e+00) (56, -1.08012113252589816992e-01) (57, 5.59792236536915677192e-01) (58, 5.26274499642925386311e-01) (59, 8.76433033995655197401e-01) (60, 1.27497567046167409321e-01) (61, 9.36212028404074803056e-01) (62, -2.87631080605914080106e-01) (63, 9.88698963833913979649e-01) (64, 9.21410019380268785483e-01) (65, 1.39840959137715814542e+00) (66, 1.92845229241510951468e+00) (67, 1.10120280344159837682e+00) (68, 9.50527987489525827414e-01) (69, 3.87511811923141102909e-01) (70, 1.90515437002822896062e+00) (71, 1.96655989968773781129e+00) (72, 1.80571818682161738812e-01) (73, 1.74845285970838304479e+00) (74, 5.23797130692148060760e-01) (75, 3.14701314582098212735e-01) (76, 1.06165859191339184697e+00) (77, 2.11296347030268316658e+00) (78, 1.82409652990614068457e+00) (79, 6.96976056151547562756e-01) (80, -1.52109796317972767454e+00) (81, 1.11599394782503202883e+00) (82, 7.82930089346938640205e-01) (83, 1.13022598145586994356e+00) (84, 1.56914088053022515723e+00) (85, 4.48722324925204876789e-02) (86, 3.84134278862048539338e-01) (87, 1.74165469903272174257e+00) (88, 5.60164284185032057550e-01) (89, 1.42000397011016477045e+00) (90, 2.71081951993969116899e-01) (91, 5.41644824736293828416e-01) (92, 1.81777955911277255829e+00) (93, 1.99652604015349810496e+00) (94, 1.47171960935771672929e+00) (95, 9.45754319400566201281e-01) (96, 9.86630946393637464631e-01) (97, 1.30826024635608906266e+00) (98, 1.85290744849711397357e+00) (99, 3.78084228459880877793e-01) (100, 1.87134547567078657337e+00) (101, 2.08574551870157343103e+00) (102, 1.95455197369155619924e+00) (103, 1.80544588618540724489e+00) (104, 2.14701015291773256166e+00) (105, 1.11573515261345601601e+00) (106, 2.30486580099526472409e+00) (107, 8.18418034661690385612e-01) (108, 1.10880148319990823325e+00) (109, 1.86203946238914008759e+00) (110, 1.18285846660722637758e+00) (111, 1.34151782015525755654e+00) (112, 1.22614200245492521724e+00) (113, 1.70614929564770800852e+00) (114, 2.76338454671479882840e-01) (115, 5.25597913147348383411e-01) (116, 2.17352117112468778970e+00) (117, 7.05749029224970070295e-01) (118, 7.43439564511140349445e-01) (119, 1.44675359741887610276e-01) (120, 1.61265709736116980011e+00) (121, 5.32022493566053356062e-01) (122, 8.35563982818488537596e-01) (123, 1.49500037651345718537e+00) (124, 1.17852553229575685023e+00) (125, 1.88097988676871286096e+00) (126, 2.00292564705452491580e+00) (127, 1.18985533140748134251e+00) (128, 1.21038643005368662386e+00) (129, 1.71931028184147116633e+00) (130, 1.47873908781347918051e+00) (131, 4.98678088036372091363e-01) (132, 1.13789827295163226140e+00) (133, 1.30839353010634940055e+00) (134, 3.84920611767786802204e-01) (135, -2.96896666453518309758e-01) (136, 3.58946051686783285106e-01) (137, -1.38714223756968024759e+00) (138, 5.38698137082419092891e-01) (139, 1.42258188245636785219e+00) (140, 1.95870537602286898249e+00) (141, 4.80353039943044235471e-01) (142, 5.07337977070613677100e-01) (143, -3.00934725443687023372e+00) (144, 1.03656451712953434630e+00) (145, 9.44624174693762919119e-01) (146, 1.14826290914545348087e+00) (147, 7.24497861295449241403e-01) (148, 1.90218934453158405873e+00) (149, 1.66441853001957407177e-01) (150, 7.44539570149097440499e-01) (151, 1.21867227313731985028e+00) (152, 1.48903613958616065638e+00) (153, 1.30821427572144632911e+00) (154, 7.39040482858002722999e-01) (155, 5.28149533030776163756e-01) (156, 1.20683365837225942130e+00) (157, 5.84104851680198211561e-01) (158, 7.09373562531411927523e-01) (159, 3.15316821818413972611e-01) (160, 2.54675591181843852251e-01) (161, -3.00321039933348077344e-01) (162, 9.95155363284931038237e-01) (163, 1.34500510236480863568e+00) (164, 1.40775909600910309472e+00) (165, 1.23775016457478770349e+00) (166, 1.80318452490800451571e+00) (167, 1.88931698030500161423e+00) (168, 1.57317783728221827211e+00) (169, 2.14844087230119024090e-01) (170, 1.08228931934335070864e+00) (171, 1.41753600288730452483e+00) (172, 1.76093678948690679498e+00) (173, 1.97110485021959003227e+00) (174, 2.75353869690439623241e-01) (175, 7.04853159658449079927e-01) (176, 6.37930153418422629663e-01) (177, 1.20860891466761177782e+00) (178, 1.35795632212758765611e+00) (179, 5.32686101270815282049e-01) (180, 5.20454029348413338418e-01) (181, 2.01857136084484833916e+00) (182, 1.42498878711509724404e+00) (183, 1.98732290360087127112e+00) (184, 8.36251765730428364698e-01) (185, 7.91930148684245049928e-01) (186, 1.61365053586315987388e+00) (187, 5.10755242324135383392e-01) (188, 5.83415847999394499013e-01) (189, 3.62213053594274803082e-01) (190, 5.93036927025765270294e-01) (191, 9.90297252900448010671e-01) (192, 4.58391271610933737080e-01) (193, 1.80947449942859606153e+00) (194, 1.07412728646373231700e-01) (195, 1.83918814147650677704e+00) (196, 9.71959153131696784733e-01) (197, 2.27340595198442185776e+00) (198, 1.56970546435986979539e+00) (199, 6.82879888370626297878e-01) (200, -4.11454932113137425431e-02) (201, 7.04785869646786800047e-01) (202, 1.69558695712156426438e-01) (203, 1.45835495007058457695e+00) (204, 5.27646837830871295871e-01) (205, 5.16981693191139735077e-01) (206, 1.80317291100899140810e-01) (207, 1.22584441672922883626e+00) (208, 1.76082049721443989476e+00) (209, 1.45258764727562272867e+00) (210, 1.57162300116630238023e+00) (211, 3.12410197283854107475e-01) (212, 1.45334747281776799355e+00) (213, 1.05467490467388436137e+00) (214, 2.02845142449790544203e-01) (215, 5.08843775392794794854e-01) (216, 1.17956137181423104110e+00) (217, 1.86954857702340015990e+00) (218, 1.33320111157997045481e+00) (219, 1.83548986187836216111e+00) (220, 1.90836879985933405290e-01) (221, 8.91584152147629344087e-02) (222, 7.05027547864654380305e-01) (223, 6.30633610440146985532e-01) (224, 1.90530605439155231728e+00) (225, 8.95962854569824274087e-01) (226, 4.47522507146397963140e-01) (227, 9.24354221152598687361e-01) (228, 7.59345551639952875966e-01) (229, 1.98004697281268993159e+00) (230, 1.65468017421651492072e+00) (231, 7.95307451061171510887e-01) (232, 5.65411273653419921281e-01) (233, 1.69856226293604084532e+00) (234, 4.85408552736160903152e-01) (235, 1.01116871737957514377e+00) (236, 1.16934691815369279366e-01) (237, 7.08641852249257131469e-01) (238, 3.21612680133756378975e-01) (239, 1.76889990223297322025e+00) (240, 1.45897800808891531243e-01) (241, 1.75150554446460593461e+00) (242, 1.61923501680911130496e-01) (243, 1.77377308911072884001e+00) (244, 9.10672358419475691527e-01) (245, -2.37490858198400656143e-01) (246, 4.91400946180297781840e-01) (247, -5.76003434354122045846e-02) (248, 2.67059145912296014291e-01) (249, 1.87920695715530716718e+00) (250, 1.85817779862817311631e+00) (251, 4.44870452558188633763e-01) (252, 1.87546861578072410204e+00) (253, 4.51704178503937792133e-01) (254, 1.03654244269216855301e+00) (255, 1.69437297501799166710e+00) (256, 1.36861236898558957797e+00) (257, 1.46038035005945476819e+00) (258, 7.23971951370635191658e-01) (259, -1.60031100734037215472e-02) (260, 1.39781162300020711520e+00) (261, 4.26469338245499818285e-01) (262, 8.31157488226267560094e-01) (263, 1.44469983476475105633e-02) (264, 1.19652165800182133659e-01) (265, 1.13583847079436517369e+00) (266, 1.11646171994064369315e+00) (267, 2.88465477650830470768e-01) (268, 1.91463152122233659647e+00) (269, 1.49459606666389399621e+00) (270, 4.23267031824318684663e-01) (271, 1.53216339865894946026e-01) (272, 1.29435542936012448756e+00) (273, 5.05595928132087535367e-01) (274, 1.72028371742584407222e+00) (275, 1.34169698154358807418e-01) (276, 1.16446429586431299263e+00) (277, 4.31382420354929407846e-01) (278, 3.71472284796915741545e-01) (279, 1.31994164340411113123e+00) (280, 1.26185115357870913932e-01) (281, 5.17264963771070333809e-03) (282, 1.95416058820357330106e+00) (283, 2.17320348561853060598e-01) (284, 6.84534348426827699008e-01) (285, 8.74248684230871986323e-01) (286, 1.86965484265180759138e+00) (287, 1.85098741769249697242e+00) (288, 5.66141781980763481030e-01) (289, 7.91055016219802897837e-01) (290, 1.24075864814502903610e-01) (291, 1.80509828696814023097e+00) (292, 1.07424770961370841249e+00) (293, 7.21273122713074310575e-01) (294, 1.88097289270126211136e+00) (295, 1.26774520200785212332e+00) (296, 1.17370253126725700155e-02) (297, 9.97567645412352654866e-01) (298, 1.61256658206549130519e+00) (299, 1.86172567973700009425e+00) (300, -4.44643873386036281303e-01) (0, -3.55914306261072288518e-01) (1, 1.02755572680052686962e+00) (2, 6.18323460944348979318e-01) (3, 5.65692777726735873678e-01) (4, -1.29833272804270094536e-01) (5, 1.06157667268370659031e+00) (6, 1.16930869605289255997e-01) (7, 7.53887620951878112407e-01) (8, -5.47448312706276474238e-01) (9, -6.85570373283418632582e-01) (10, -7.20822378572815947173e-01) (11, -3.33060995780619040207e-01) (12, -1.42007492302300764031e+00) (13, 4.56160361350615217724e-01) (14, 6.69184009230886056585e-01) (15, -1.20369060862964039060e+00) (16, -1.33736435469082842742e-01) (17, -1.39818349049389789585e+00) (18, -2.17576747027545858160e+00) (19, -1.04366939730346142134e+00) (20, -2.06013946490811256096e-01) (21, -1.73949975297259507023e+00) (22, 1.52013384147285879333e-01) (23, -3.26561977017569782245e-01) (24, -1.85118130678618753038e+00) (25, -4.08313263922780778081e-01) (26, 2.56683474471257500049e-01) (27, -5.02381199922050658557e-01) (28, -7.21316462561293003652e-01) (29, -6.70397125663919846161e-01) (30, -1.45775049217339813801e+00) (31, -7.09569952511553636576e-01) (32, -1.23378138394197534033e+00) (33, -2.00885277135049644670e+00) (34, -1.31443955842610527007e+00) (35, -1.10827288039130195108e-01) (36, -2.09866739432528959242e+00) (37, -3.54632943065944616912e-01) (38, -9.77190306291261800986e-01) (39, -1.83518495304261741730e+00) (40, 6.92163256822281580671e-02) (41, -1.79072878580638716883e+00) (42, -3.15863187891848307132e-01) (43, -3.50454990511840813738e-01) (44, -2.27129377798368814467e+00) (45, -1.33710756236112526807e+00) (46, -2.25408493655314146054e+00) (47, -1.08753704301282816402e+00) (48, -3.80458293671114666790e-01) (49, -4.99684608156194309814e-01) (50, 6.40742496465754984847e-01) (51, -1.77226327037026498701e+00) (52, -2.09847802956754536652e+00) (53, -1.26382947120261013296e+00) (54, -5.51878587598721437324e-01) (55, -6.78885361422886246530e-02) (56, 2.27792060218435399310e-01) (57, -1.28770000216795987846e+00) (58, -2.42428055927741858966e+00) (59, -2.43948271400036365009e+00) (60, -2.21672022905624332978e+00) (61, 1.51651161024387359788e-01) (62, -3.64289288160821234097e-01) (63, -1.70048738971885748938e+00) (64, -1.35791833573156695003e+00) (65, -1.89130850038877151853e+00) (66, -1.47992200311860266915e+00) (67, 1.26351402053742112308e+00) (68, 5.42502455926944349152e-01) (69, -2.18137365129890836712e+00) (70, -2.75349112903492887483e+00) (71, -3.09048168359307950936e+00) (72, -5.73885832083411373539e-01) (73, -3.33946868066303470535e-01) (74, 1.51794748440953952695e+00) (75, -4.73908251349872300384e-01) (76, -8.84658376147295477665e-01) (77, -2.59793855722426325627e+00) (78, -8.27515586879237097229e-01) (79, 1.02432379916425553290e+00) (80, 6.33162964513684700663e-01) (81, -1.27388125377332173116e+00) (82, -4.96373576367490298988e-01) (83, -1.21387108441885049892e+00) (84, 5.45641160473850805879e-01) (85, 5.66100924552271456136e-01) (86, -1.95897415134079044829e-01) (87, -7.17994558497128121388e-02) (88, -4.61551423805219573904e-01) (89, -4.45493365678756358950e-01) (90, 3.25090199326517448331e-01) (91, -4.42571121445960669050e-01) (92, -6.05092605138218608829e-01) (93, 4.20676462791524818918e-01) (94, 6.90445998327200327616e-01) (95, 1.01214341707150090599e+00) (96, -6.42459785156280105411e-01) (97, -5.64020663027524404853e-01) (98, 5.18523110250135865762e-01) (99, 3.19899701833526506345e-01) (100, -3.99893270719596127805e-01) (101, 7.70992128236738905045e-01) (102, 2.98555892747904894069e-01) (103, 1.33261929893939146119e-01) (104, 6.19672218834996582637e-02) (105, 2.96268314275784760969e-01) (106, 1.12102528307982285405e+00) (107, 3.42484321386318124603e-01) (108, -5.01460675924869647702e-01) (109, -4.86811577454007049504e-01) (110, -1.84892205817030519377e+00) (111, -9.28573124905778674032e-02) (112, -1.37059412527693325057e-01) (113, 3.30182004488167257783e-01) (114, -1.51193090756089132398e+00) (115, -8.87752249460371345435e-01) (116, -2.72338094317876588946e+00) (117, 1.28550705483139959817e+00) (118, 3.60352839030484706218e-01) (119, 4.81575046743101919944e-01) (120, -1.59831655424333241022e+00) (121, -8.03928486558784793914e-01) (122, -2.27998811352580332823e+00) (123, 9.73793820439406876410e-01) (124, 4.85581843039926241978e-01) (125, 7.56027096903280404483e-01) (126, -1.14005683802486523781e+00) (127, -2.43962277485925893572e+00) (128, -2.85155298858393591033e+00) (129, 3.60689441382098741062e-01) (130, 5.26752647921645444917e-01) (131, -1.45716729906293834818e-01) (132, -1.91372836667378987130e+00) (133, -3.71651928685427401788e+00) (134, -5.44219410844999273991e+00) (135, -2.19778937438301430474e-01) (136, 1.29404288600676253829e+00) (137, 5.64001300117557113900e-01) (138, -1.82758255389324930640e+00) (139, -2.76632783242644508803e+00) (140, -2.98389650984776721998e+00) (141, -1.86574928588956467923e-01) (142, -2.83553594402435615862e+00) (143, 4.83220007793463302015e-01) (144, -2.88575767921820558470e+00) (145, -2.66785118410645338827e+00) (146, -3.20221715907456871975e+00) (147, 5.82487764745866387628e-01) (148, -1.92838504626397932995e+00) (149, 9.04467975448202232691e-01) (150, -1.78108280320326151092e+00) (151, -2.06380507198644380651e+00) (152, -2.71748440742683960991e+00) (153, -4.89459406714097045032e-01) (154, -1.27897931566146394466e+00) (155, 2.33485908922449469927e-02) (156, -3.42755040009031208825e+00) (157, -3.34547669580312945214e+00) (158, -1.56768306788078892744e+00) (159, 3.69560879911078193905e-02) (160, -7.63842082719658255208e-01) (161, -6.37141089709949565156e-02) (162, -1.89110399765349557200e+00) (163, -2.13625507064031072701e+00) (164, -1.33093380945824146799e+00) (165, -8.70871235746255134558e-01) (166, -1.56876619835391983848e+00) (167, -7.06498918009690779485e-01) (168, -1.84317733106851244784e+00) (169, -2.29861187128001542845e+00) (170, -3.36651284963939811945e+00) (171, -5.79900883252894350228e-01) (172, 6.75063849038661900614e-01) (173, -9.00080911378140724466e-01) (174, -2.05606610089768038208e+00) (175, -3.94210083920979359462e+00) (176, -1.60569336154855957233e+00) (177, -1.04698928447836303590e+00) (178, 5.69383681191295343282e-01) (179, -5.47798477037889641750e-01) (180, -1.55644941982643314482e+00) (181, -1.83827458777897212450e+00) (182, -3.28701855434162126812e+00) (183, -9.11434616281545650907e-01) (184, -6.13051617706017348830e-01) (185, 2.86642233619134101374e-01) (186, -1.63340131955147138676e+00) (187, -2.71188898755695850795e+00) (188, -1.06467994595765014232e+00) (189, -1.98275449493538880041e+00) (190, -1.01914138227763739764e+00) (191, -8.39783849855711139742e-02) (192, -6.94139330004403198870e-01) (193, -1.16310313187780800526e+00) (194, -2.14776324231772752782e+00) (195, -1.73235940235502194895e+00) (196, -5.69018422296001302740e-01) (197, -2.63250096282827583671e-01) (198, 9.00784758937407059598e-01) (199, -9.29990533423479592834e-01) (200, -4.92587401829366888784e-01) (201, -2.29291419934330020780e+00) (202, -5.99343860797699606868e-02) (203, -1.77571139105346587073e+00) (204, -5.77661648720814574487e-02) (205, -6.44684774498976209678e-01) (206, 1.67335884743703949828e-01) (207, -1.90267338519866702207e+00) (208, -1.70196136325534586042e+00) (209, -1.66331579079582669856e+00) (210, 4.29626417873216481791e-01) (211, -8.81710867053319247155e-01) (212, -5.85804112708760427175e-01) (213, -8.75765026727804207773e-01) (214, -2.08576431692813679675e+00) (215, -1.52572354185302283547e+00) (216, 8.55116686153314653485e-02) (217, 4.70341270505892430909e-02) (218, 6.49758325778041490040e-01) (219, -1.53656578556530987179e+00) (220, -8.81592242801704784050e-01) (221, -6.96144540535741040976e-01) (222, -7.54288631973178191892e-01) (223, 1.74566453476768385089e-01) (224, 6.18615109860262246677e-01) (225, -1.55389947637910252887e+00) (226, -2.50416773553734506308e+00) (227, -2.28220774845224561034e+00) (228, 1.04618344154652875844e+00) (229, 7.52435705704933011084e-01) (230, -4.02893200827374897699e-01) (231, -2.09524249667756157223e+00) (232, -6.83042009806766881042e-01) (233, -8.95243497171388291633e-01) (234, -2.04916539927301605273e-01) (235, -3.97233614533561540938e-01) (236, -7.47431621696916570485e-01) (237, -5.31997306730904506722e-01) (238, -1.29334308739777115171e+00) (239, -1.43915258086885522459e+00) (240, -1.63257339512807103654e-01) (241, -5.57229424390278005319e-01) (242, 1.63096204667490779494e-01) (243, -1.22693423446833826951e+00) (244, -2.39948178352420526949e+00) (245, -8.80374614190195692309e-01) (246, -5.52325480255992817824e-01) (247, 1.95975673930948945944e-01) (248, -3.49233509927254437422e-01) (249, -5.83737677446604541487e-01) (250, -2.31138136070092059526e+00) (251, -2.20174506883938736479e+00) (252, 9.13217328444568710033e-01) (253, -7.52074953835211834630e-01) (254, 4.54055238427848173455e-01) (255, -1.14939065293567388437e+00) (256, -1.04646260567004123487e+00) (257, -1.02445641297500955602e+00) (258, 7.55718012574664865788e-01) (259, 2.76545544389241060301e-01) (260, 4.02937421311096832799e-01) (261, -2.09714192942119037610e+00) (262, -7.60365923995727777118e-01) (263, -1.21856710564143089215e+00) (264, 9.63371080317966366202e-01) (265, -4.87212227835661926267e-01) (266, 8.31044723560242060145e-01) (267, -2.24069796837927626143e+00) (268, -1.97447429068693591780e+00) (269, -1.40405540208649659562e+00) (270, 2.82664817729466277818e-01) (271, 3.43183939835541462759e-01) (272, 5.21771599819092046779e-01) (273, -1.97335107413734212045e+00) (274, -1.82373720019637675094e+00) (275, -3.32673364061873366726e-01) (276, 1.10013094289092139277e+00) (277, -9.13459239811970774570e-02) (278, -1.39221141765685701985e-01) (279, -2.05859986267683869876e-01) (280, -1.62974473917118445332e-01) (281, 7.27338099876542604205e-02) (282, 1.02267943838779865051e-01) (283, -4.18736803373820465346e-01) (284, 3.45232059528259915826e-01) (285, -4.10658148251173304999e-01) (286, 9.45740603906997323591e-01) (287, -4.13473123342881387909e-01) (288, 9.56919349249111678146e-02) (289, 5.33254069247714679314e-01) (290, 6.91476871539978388270e-01) (291, 3.13075068509944987039e-01) (292, 7.19630099309448878486e-01) (293, 2.18868489552440231849e-01) (294, -6.35531392635736769314e-01) (295, 5.05408836190117782827e-01) (296, 5.57439441773976973593e-01) (297, 1.03158925809668500229e+00) (298, 5.54362433681096833382e-01) (299, 8.80037156042473345252e-01) (300, 1.22158516759877500135e+00) (301, -1.18315653113282182041e+00) (0, 2.23967519970050421563e+00) (1, 1.07960069910747158417e+00) (2, 8.96234102408710597842e-01) (3, 1.09046538708794304995e+00) (4, 2.24760553645367577857e+00) (5, 1.42493310326790423304e+00) (6, 5.80728142141279990440e-01) (7, 1.51194667159564644088e+00) (8, 5.52317229898165673596e-01) (9, 2.32025108415978609244e+00) (10, 5.19192211062446951075e-01) (11, 2.37247299931581068222e+00) (12, 1.75454062337701066632e+00) (13, 1.19377615768929934426e+00) (14, 1.30251626240386597644e+00) (15, 1.53369404085316940467e+00) (16, 4.97483493891806238807e-01) (17, 4.63210771092907924729e-01) (18, 1.26350272005467090253e+00) (19, 8.96707814914282308472e-01) (20, 7.01731667530511860065e-01) (21, 1.49320861646556446445e+00) (22, 6.86513661161514354703e-01) (23, 1.78604167376781708398e+00) (24, 3.62720596846625276122e-01) (25, 2.09087077973514334772e+00) (26, 3.43530726166262734278e-01) (27, 1.96908221919759895968e+00) (28, 1.87300704200491252571e+00) (29, 1.79383421407932264202e+00) (30, 1.03656720180111916463e+00) (31, 1.83248612276351052763e+00) (32, 3.08111490983919600328e-01) (33, 1.77402322497549946867e+00) (34, 5.87023435311338270814e-01) (35, 2.23400373476966906949e+00) (36, 6.64571725404630608836e-01) (37, 7.65803191728243959346e-01) (38, 1.14756531530910654837e+00) (39, 8.14792370987235448077e-01) (40, 7.24556567917608473905e-01) (41, 1.44203790273472387540e+00) (42, 6.23824717682430418542e-01) (43, 2.20904585553969168288e+00) (44, 2.09644186085733785774e+00) (45, 1.60925107195348759959e+00) (46, 1.42775830963087813075e+00) (47, 3.11043355002321852965e+00) (48, 1.52447371304907242084e+00) (49, 2.45909899445389434902e+00) (50, 1.15320541638331097722e+00) (51, 2.04742971147719243774e+00) (52, 1.96964352636625550375e+00) (53, 1.51077902524724883015e+00) (54, 1.52269298953223741755e+00) (55, 1.74186430076147003021e+00) (56, 1.20266861724958085134e+00) (57, 1.41536414982598479639e+00) (58, 1.74175470098714590961e+00) (59, 1.23274087905998053216e+00) (60, 7.85647180914793685780e-01) (61, 2.09128421447505230546e+00) (62, 2.27963687530438408047e+00) (63, 6.50744286048898445962e-01) (64, 1.90156350825712028296e+00) (65, 3.01794704585555439991e+00) (66, 6.29019816786851038160e-01) (67, 1.66028622247647983379e+00) (68, 7.65757136153743411811e-01) (69, 1.33908076882019044795e+00) (70, 2.59637277069831284848e+00) (71, 1.85520807574265766959e+00) (72, 2.39599269899278155549e+00) (73, 2.19017042787359095257e+00) (74, 7.05143840874879468394e-01) (75, 1.99130878775030750738e+00) (76, 1.80267729739004645140e+00) (77, 3.27386220644865844065e+00) (78, 1.99609440835862983477e+00) (79, 2.40332240321710344233e+00) (80, 1.52820359929153060108e+00) (81, 6.32611583144407352286e-01) (82, 2.40195519751360908600e+00) (83, 2.33032790581555104836e+00) (84, 1.34308361740865556122e+00) (85, 9.27570170742493038674e-01) (86, 1.87843708954585553172e+00) (87, 1.82517017539668136017e+00) (88, 2.48275610188299822312e+00) (89, 1.62616406932178736433e+00) (90, 2.17357733363297889184e+00) (91, 2.23916044202974129362e+00) (92, 2.34213211094594564443e+00) (93, 1.78065374226448480677e+00) (94, 2.91168578375176245743e+00) (95, 1.70739616440927810537e+00) (96, 1.86248471342812060847e+00) (97, 5.95424953333301809622e-01) (98, 2.34322313377773294718e+00) (99, 2.48877451146240202817e+00) (100, 1.83624869995962369806e+00) (101, 2.15052517476065663260e+00) (102, 5.48414183050401127240e-01) (103, 2.10189666884958814563e+00) (104, 2.19846161846042420507e+00) (105, 1.36641843505681137572e+00) (106, 1.14752966404110345877e+00) (107, 2.59077392064494915758e+00) (108, 1.81012633945164935767e+00) (109, 3.16162180446069251971e+00) (110, 2.87315964599901230159e+00) (111, 7.29302175016694809173e-01) (112, -3.30000148454102637530e-01) (113, 1.52167581533016060824e+00) (114, 9.59400307336592761409e-01) (115, 1.60879478177687995633e+00) (116, 2.44522182545287103395e+00) (117, 2.15763415618084142267e+00) (118, 6.15543594315091424640e-01) (119, 1.49238018654494086768e+00) (120, 4.29625997523344904661e-01) (121, 2.81814107032253247098e+00) (122, 1.81486872229956008873e+00) (123, 2.19581336665197524027e+00) (124, 1.84763617552074621564e+00) (125, 3.54221961720872391410e-01) (126, 9.05851607799274094468e-01) (127, 8.70324428741970024248e-01) (128, 2.42163836808559418401e+00) (129, 7.92803396085626888024e-01) (130, 9.82960033210715344865e-01) (131, 2.39360888745789024412e+00) (132, 1.96306613612149516435e+00) (133, 5.35212677288329330416e-01) (134, 1.05328015089485083067e+00) (135, 9.41196621886114748179e-01) (136, 8.03617077847997296480e-01) (137, 9.93215203128817281097e-01) (138, 5.31842885906535167706e-01) (139, 2.09943067904838143178e+00) (140, 1.10756572537200015383e+00) (141, 2.25853091749248990894e+00) (142, 2.55354306919064288905e+00) (143, 7.51890083363897954172e-01) (144, 1.09759773485749345667e+00) (145, 6.59775379195171596258e-01) (146, 2.01436250073609990352e+00) (147, 6.67734312384079320424e-01) (148, 4.31728071334658625169e-01) (149, 2.27412677356827730435e+00) (150, 1.38006808922476054136e+00) (151, 4.97919802162229807596e-01) (152, 2.07947487628602001308e+00) (153, 1.34426758740397533920e+00) (154, 1.21776284317733085594e+00) (155, -1.44317811969598852606e+00) (156, 5.11677724504117859006e-01) (157, 8.48413759005805956370e-01) (158, 1.95420271304586545824e+00) (159, 8.81051857783345382380e-01) (160, 3.95294421180223176648e-01) (161, -3.21234141454309840569e+00) (162, 7.66238289364820190919e-01) (163, 7.21872442639428180122e-01) (164, 2.18655864344394013088e+00) (165, 1.27445707173577105209e+00) (166, 1.08132719026732337930e+00) (167, 2.17387303642754448063e+00) (168, 2.25293823612581256555e+00) (169, 1.32810225518500790720e+00) (170, 2.98152099320710783914e+00) (171, 9.50153643302743211585e-01) (172, 1.04104262238559064357e+00) (173, 3.66582236507548708815e+00) (174, 1.85402258181615753330e+00) (175, 1.74301340202022148063e+00) (176, 2.42576873387411851013e+00) (177, 1.43908533002202121409e+00) (178, 2.64635944186348925911e+00) (179, 4.48643185613703465719e+00) (180, 1.11035886686804796675e+00) (181, 7.29321042463881852314e-01) (182, 2.83829165230570801270e+00) (183, 6.72752735112491784264e-01) (184, 3.16474375660421847201e+00) (185, 4.16489530048577982768e+00) (186, 1.60849415775497051051e+00) (187, 2.51799358440996856601e+00) (188, 1.14565421621381102746e+00) (189, 8.96748762316389669280e-01) (190, 1.95525418629400293824e+00) (191, 2.05448569078215914629e+00) (192, 2.34536982020150253092e+00) (193, 1.53615284875403435016e+00) (194, 2.08036387692271595995e+00) (195, 1.82584925031147671248e+00) (196, 2.10999713606332006677e+00) (197, 1.15608264370334978821e+00) (198, 1.71861767404553433813e+00) (199, 2.00254732595996554068e+00) (200, 9.41149044961153924405e-01) (201, 1.01517724384166041496e+00) (202, 4.51614954252268274715e-01) (203, 8.73524125873255674612e-01) (204, 2.42602347741709634121e+00) (205, 1.85476457189357502031e+00) (206, 7.68019614352451363004e-01) (207, 1.91757239627787945402e+00) (208, 7.41521405526861410173e-01) (209, 2.19964034546510145418e+00) (210, 1.69536759962182559391e+00) (211, 1.37750747560521036306e+00) (212, 4.48601857255952418679e-01) (213, 1.37107691181618118748e+00) (214, 1.61838137799028758401e+00) (215, 2.46272799896333749459e+00) (216, 1.16070449494861138717e+00) (217, 7.38139534966574140107e-01) (218, 2.31335642697926013867e+00) (219, 1.15310058976141172060e+00) (220, 8.50085760712927407390e-01) (221, 1.26442706309779939744e+00) (222, 2.03853822788623562090e+00) (223, 7.27773163617783436230e-01) (224, 2.02337509448744556906e+00) (225, 9.65392449067657643091e-01) (226, 1.95054537987917320230e+00) (227, 2.02326499872219045528e+00) (228, 7.48546830776696703325e-01) (229, 1.20051090913092894930e+00) (230, 1.39214622961159584236e+00) (231, 1.24967769496442082655e+00) (232, 1.91071601281464364952e+00) (233, 2.03169157616918027998e+00) (234, 2.32721352654144020278e+00) (235, 1.80414138600872719920e+00) (236, 9.86260063070981241040e-01) (237, 6.59443594055287518607e-01) (238, 1.43799810228027369341e+00) (239, 1.51725791582620073150e+00) (240, 2.34280856264440329184e+00) (241, 2.43466956906102893754e+00) (242, 2.28288753323339133061e+00) (243, 2.38394715937653201010e+00) (244, 1.46418439679169831713e+00) (245, 1.85191166485861535840e+00) (246, 2.28933389477513937749e+00) (247, 2.04610283833962469657e+00) (248, 1.68259711724740301797e+00) (249, 2.18827535439396081429e+00) (250, 8.49110648011904278754e-01) (251, 2.30017513686227115244e+00) (252, 6.61982865614196169801e-01) (253, 2.23803588649863183235e+00) (254, 4.49695430458724454414e-01) (255, 2.37871284421579165524e+00) (256, 8.45115489053074431247e-01) (257, 2.30245705390019894665e+00) (258, 1.74040012285542000647e+00) (259, 1.06585574905263213985e+00) (260, 9.99772876133818599875e-01) (261, 8.26851676904029941895e-01) (262, 1.86935639231380190672e+00) (263, 4.35345958097251184427e-01) (264, 1.93570497691349485692e+00) (265, 1.75115868042529543303e+00) (266, 1.73401507328570803068e+00) (267, 5.97911462815484351374e-01) (268, 2.07396424052716277231e+00) (269, 6.56524959040455380332e-01) (270, 1.35678348834282402890e+00) (271, 1.87482863541260114104e+00) (272, 5.47608337193909999741e-01) (273, 1.27990511693056596698e+00) (274, 1.90207327480593302305e+00) (275, 1.56659478725345624461e+00) (276, 2.23058489854103481065e+00) (277, 1.64911839697509599034e+00) (278, 1.10067305603641707457e+00) (279, 1.54935572184618486347e+00) (280, 1.46415392197664750995e+00) (281, 1.42296133847389394411e+00) (282, 1.26037648839312166338e+00) (283, 1.73332840349935235480e+00) (284, 1.29510509844437038396e+00) (285, 1.30398844472205999168e+00) (286, 1.76823434866961015643e+00) (287, 1.68444115760630119816e+00) (288, 1.13428569599374129417e+00) (289, 1.09873626155214831890e+00) (290, 2.35519653337601786447e+00) (291, 1.81376781104195305971e+00) (292, 1.60702798403795732440e+00) (293, 1.81343470743873735884e+00) (294, 1.66963782391038728647e+00) (295, 9.66015409711739159171e-01) (296, 1.06001765656842739105e+00) (297, 1.16573216555702874331e+00) (298, 1.20272167561638543276e+00) (299, 7.68054684382560637346e-01) (300, -2.67729084794731064800e-01) (301, 1.57875988031329694827e+00) (302, 4.39618118613590702637e+00) (0, 1.11225672019401966573e+00) (1, 1.00666477808154991580e-01) (2, -6.86963469258152326091e-01) (3, 4.79557658521307939026e-02) (4, 6.02088644632495784137e-01) (5, 5.43044045099414729449e-01) (6, 5.84650828966297053668e-01) (7, 1.14712829841057240010e+00) (8, 1.18752315172351768924e-01) (9, -4.01818767658077558025e-01) (10, -4.60693434348903974040e-01) (11, -4.35039923063122113689e-01) (12, 2.43950202593006065799e-01) (13, -4.91309617670404596979e-02) (14, 5.08930518755115413043e-01) (15, -4.28172275892101605876e-01) (16, 1.04131098044792591573e+00) (17, -2.89922212274896784479e-02) (18, 6.44666268953479670856e-01) (19, -2.73848698011242230876e-01) (20, 8.95573928484119763382e-01) (21, 3.99046767620246933816e-01) (22, 1.47761570301453493137e+00) (23, 8.61445654300850405249e-01) (24, -5.79402104488216718181e-01) (25, 4.62617232927478694293e-01) (26, 7.36673071512378152548e-01) (27, -6.22759913118707819635e-02) (28, -5.71830407253109296306e-01) (29, 8.27768791584175156473e-01) (30, 3.63407209047473811481e-01) (31, -8.93169714155996885552e-01) (32, -8.33480788412893858208e-01) (33, 5.23323609956897639606e-01) (34, 2.75266125330127620074e-01) (35, 8.89087870248950862262e-01) (36, -3.67228193226660115656e-01) (37, -5.73679072800482359185e-01) (38, 6.02620260771905558173e-01) (39, 8.72004106172717952106e-01) (40, 1.44982233175434044314e-01) (41, -7.44469151368938764080e-01) (42, -9.96631836536730375542e-01) (43, -1.04466368073543414141e+00) (44, -2.20320208016241303461e-01) (45, 6.32778599390186213824e-01) (46, -3.52355912795864423259e-01) (47, -6.54051159532892389947e-02) (48, -8.29809619131887998833e-01) (49, 8.65590231475031002262e-01) (50, -2.57784609788038521216e+00) (51, -8.20631683340870221599e-01) (52, 4.99209905950201981994e-02) (53, 4.96926024088062190387e-01) (54, 2.85773770865594523016e-01) (55, 4.37988210288635659850e-02) (56, -3.28592513793089135987e+00) (57, 1.36051073202289513064e-01) (58, 1.10200281394401966573e+00) (59, 7.45968366948737415800e-02) (60, -7.98096193018759336724e-01) (61, 3.18139958945862222350e-02) (62, -2.78356509202101021216e+00) (63, -2.37496898046337334698e-01) (64, -3.31258222928844769939e-01) (65, -5.82822755447231610759e-01) (66, -5.08404985538326581462e-01) (67, 1.48393528517877265616e-01) (68, -3.12149410241224511964e+00) (69, -7.92180702558361371501e-01) (70, 1.34001686700977257205e-01) (71, 9.55840423235096325882e-01) (72, -6.89769849649273236736e-01) (73, 2.57849886545337581012e-01) (74, 1.03165681613365589619e+00) (75, 2.10390045770801475955e-01) (76, -2.69367442003094037517e-01) (77, -4.80695084205471356853e-01) (78, 9.91864993700184216507e-01) (79, 2.13029528943671220276e-02) (80, -1.73180710407096705161e-01) (81, 3.39495256075061702106e-01) (82, 4.75512887326849931213e-02) (83, -3.91050549475964570600e-01) (84, -3.23574766984783490642e-01) (85, -5.53070798984371503337e-01) (86, -1.18976782890159449302e-01) (87, 3.22852566370166682574e-01) (88, 4.29860308298267268512e-01) (89, -1.29164082023364001905e+00) (90, -7.62546733489834149822e-01) (91, 7.52244188913501199423e-01) (92, 9.75324142841499819312e-01) (93, 3.86240437158740901324e-01) (94, -9.18848780933226194634e-01) (95, -1.63060097863946551477e+00) (96, 6.50297715791858577106e-01) (97, 2.15463527719192970977e-02) (98, 7.52943623928230332254e-01) (99, -5.45720056167446454509e-01) (100, -1.03842529865961941127e+00) (101, -1.05940161425810308593e+00) (102, -4.21555492909747808739e-01) (103, 2.33355809120338514306e-01) (104, 1.22566318296830800705e+00) (105, 1.12866122973839222432e+00) (106, 1.29062579956452250229e+00) (107, 1.01682491220732096338e+00) (108, -1.83709692092735132896e-01) (109, 1.12249480572144322288e+00) (110, 1.13726369490756185066e+00) (111, 1.61669541267555311181e-01) (112, 3.01993955043952988504e-01) (113, 7.72563289778426920407e-01) (114, 1.40384982910553834934e+00) (115, 8.25299251941841172098e-01) (116, 2.32550416340960675043e+00) (117, -2.03443001838523707114e-01) (118, -1.18443480451887461768e-02) (119, 7.28603471187751816629e-01) (120, 1.38147045044105604150e-01) (121, 7.24889525453263072752e-02) (122, 3.20851612953346299051e-01) (123, -3.74844785662490576073e-01) (124, 1.30560945358673929917e+00) (125, 5.22482980159919785379e-01) (126, -3.72214864822227209373e-01) (127, 4.67591002115405940387e-01) (128, 1.06258915748993687522e+00) (129, 5.70968582758106135699e-01) (130, 7.68750980028308328329e-01) (131, -6.77801281681858380779e-01) (132, 8.16477849611438211141e-01) (133, 8.65755393633045100543e-01) (134, 7.41144563047065052519e-02) (135, 1.59840896257556847049e-01) (136, 8.34420755037463601766e-01) (137, -1.23575792184673516338e-01) (138, 8.07166243878974232207e-02) (139, -8.37605000941656907543e-01) (140, -4.89397034517132123455e-01) (141, 8.69775369295276545856e-01) (142, -4.30975539627874715265e-01) (143, -1.70443139556254563693e-01) (144, 5.46389176973499202106e-01) (145, -2.41841719022594658917e-01) (146, -3.31859931817852338298e-01) (147, 5.16812398561633967731e-01) (148, -4.28324780944194127841e-01) (149, -2.91061668389417915748e+00) (150, -2.42900178304516045635e-01) (151, 7.29982330927051004110e-01) (152, 7.65904500612414773641e-01) (153, 3.22911398467218058173e-01) (154, 2.45732165827149406923e+00) (155, 2.58983671170930973560e+00) (156, -3.69321778884731610759e-01) (157, 7.46442453917657511298e-01) (158, -3.82807118836248738702e-01) (159, 2.80958255777007726017e-01) (160, 2.43765389425020329028e+00) (161, 1.50618674856882206470e+00) (162, -6.25969902149044354900e-01) (163, -1.86103148403967133540e-01) (164, -1.29629269945939928910e+00) (165, -2.79044775956251411841e+00) (166, 1.56108380021370951596e+00) (167, 1.35347414674080912533e+00) (168, 1.01832874072472034932e+00) (169, -2.58661551419103852290e-01) (170, 6.22282998618280069891e-01) (171, -6.31064251533352216228e-01) (172, -7.76882253173198034091e-01) (173, -3.50696073763944848878e+00) (174, 5.46972706445850276324e-01) (175, 8.44387071189080851141e-01) (176, -9.00500845344908151802e-02) (177, 1.06199271930138050557e+00) (178, 2.01203362998162910147e-01) (179, 8.30105083045159952704e-01) (180, 7.68523956624640736113e-02) (181, 1.07878322852531849385e+00) (182, 6.73691465982593440387e-01) (183, -3.17238972059093793376e-01) (184, 2.41698639449273749991e-01) (185, 1.13792793807183906241e-01) (186, 1.11283893836418568135e+00) (187, 9.92856814989246716507e-01) (188, 2.47439339288867882205e-01) (189, -1.56364128461681572979e-01) (190, 7.71088259276544230048e-01) (191, -3.56701384776212915284e+00) (192, 1.90063789018787315799e-01) (193, -7.41277643016182263835e-01) (194, 4.52835395464099788043e-01) (195, -3.13488077553160104927e-02) (196, -2.68484537594892769263e+00) (197, -2.69841508858778267310e+00) (198, -3.11366771372186823541e-02) (199, 2.58959725031055354449e-01) (200, -7.58000188043915112956e-01) (201, -2.95249566903911908611e-01) (202, 2.01175468024408027334e-01) (203, -6.88002429488505651278e-01) (204, 1.30142107137836388064e-01) (205, -1.38247833124004571026e-01) (206, -2.28411362043224541729e-01) (207, -8.46304007342659314617e-01) (208, -2.36251160970531670635e-01) (209, 8.19672005232965128485e-01) (210, 1.10428126109520374776e+00) (211, 6.87481238969959163043e-01) (212, 1.01205928576866566182e+00) (213, 6.17976620325244807574e-01) (214, -7.89753664753042539104e-01) (215, 9.37619376746765820219e-02) (216, -1.54626533857189385479e-01) (217, -8.36910712069474538310e-01) (218, 2.00222804674304893924e-01) (219, 9.39692928918995251664e-01) (220, -1.46394774785839287823e-01) (221, 8.49151159612311634550e-02) (222, -7.01844588390194257244e-01) (223, 8.90549018510975232132e-01) (224, 1.90517499574817589236e-01) (225, 5.97870781549610041949e-01) (226, -2.71957968386041804010e-02) (227, -8.42451674881781187310e-01) (228, -1.75067887178264824932e-01) (229, 7.88547589906848367391e-01) (230, 5.36988093980945491168e-01) (231, -8.61881230982172175104e-02) (232, -6.66697994342647870525e-01) (233, -4.21832425537908894952e-01) (234, 5.74289515146411799762e-01) (235, 3.10324027666248225543e-01) (236, 5.60399725565112971637e-01) (237, -8.14117759934269269451e-01) (238, 3.10900046953357600543e-01) (239, -1.10944740382900342013e+00) (240, 1.12603433383385120869e+00) (241, 2.55185320505298518512e-01) (242, 6.98513939508594416949e-01) (243, 9.78097632059254040726e-01) (244, -2.86834106317364057048e-01) (245, 7.55640223154223855673e-01) (246, 1.85463621744312218143e-01) (247, 4.05419423708118342731e-01) (248, 7.65609576830066140829e-01) (249, -7.74309576025806745037e-01) (250, 1.85116365083850792361e-01) (251, -5.40781215301357587322e-01) (252, 1.57485559114612511111e-01) (253, 3.30151631960071467731e-01) (254, -8.10228173157774289592e-01) (255, -8.11993033161960919841e-01) (256, -2.31973454824291436260e-01) (257, 9.45605290810003218382e-03) (258, -5.33964649310909589275e-01) (259, 4.39838721880115413043e-01) (260, -3.61992344728313764080e-01) (261, 8.49903538355029519735e-01) (262, -8.06345388761364301189e-01) (263, -1.81810304990612237042e-01) (264, -4.58324954381786664470e-01) (265, 6.14824130663074397418e-01) (266, 9.75393726953663220414e-01) (267, 9.48954775461353650101e-01) (268, 6.47586419710315608356e-01) (269, 1.26297845968402794314e-01) (270, 9.59987475999988904007e-01) (271, 6.13624766000903987262e-01) (272, -7.78512925377689679607e-01) (273, 4.98505427965320491168e-01) (274, 4.31726410516895198199e-01) (275, -2.18467042318187920635e-01) (276, 9.41497231809272083769e-02) (277, -5.42805985084377606853e-01) (278, 1.03383238566795765401e+00) (279, -3.00236747136913617595e-01) (280, -4.70235541930996259197e-01) (281, 5.89526439992560380432e-02) (282, 5.86207164207819264590e-03) (283, 5.34129932054675959918e-01) (284, -7.70891570022903760417e-01) (285, 4.25138617841376298401e-02) (286, 5.69017007478870295856e-01) (287, -1.55985042920910088604e-01) (288, 8.98849918970264782914e-01) (289, 8.81932213434375666949e-01) (290, 1.13073368323723255635e+00) (291, -6.23138338795505841716e-01) (292, 5.71839764246143245074e-01) (293, -8.35607710762523492320e-01) (294, 4.19313455907477372619e-02) (295, 9.60394814142383923539e-01) (296, 6.26096441873706721637e-01) (297, -1.42670914998851983135e-01) (298, 7.49353602060473855673e-01) (299, 1.13686933645404747439e-01) (300, 2.67716474422492023422e+00) (301, 3.44705592564803309230e+00) (302, 1.44970261514700626826e+00) (303, 2.78126093209303570930e+00) (0, 1.05607702776230061303e+00) (1, 1.17467153110879451994e+00) (2, 1.18702205611833133680e+00) (3, 1.23229045683288052082e+00) (4, 1.18932544746552859571e+00) (5, 1.34204326876555790626e+00) (6, 7.50655664940933609053e-01) (7, 6.20213135507270418856e-01) (8, 1.81022286371323004595e-01) (9, 7.02317794249335713985e-01) (10, 8.67836119714494480526e-01) (11, 7.14985186253538240742e-01) (12, 7.49769145136830683640e-01) (13, -3.44691451471518306438e-01) (14, -3.62690900052107190188e-01) (15, 1.34082698841810787904e+00) (16, 1.15151252131592918282e+00) (17, 1.17888116502061568447e+00) (18, -3.43472569131149929600e-01) (19, -5.06014359447642836365e-01) (20, -4.73251226563365268163e-01) (21, 1.54498187165527300913e+00) (22, 2.37850751363499535174e+00) (23, 2.63464272884364003602e+00) (24, -9.74000392821680271993e-01) (25, -1.10086690957193211737e+00) (26, -1.16979849063647711738e+00) (27, 1.25893499605993697266e+00) (28, 1.16105455669141588437e+00) (29, 1.36465352030106878978e+00) (30, -9.64635947655803072109e-01) (31, -1.23783068172834420650e+00) (32, -1.58529445709653393770e+00) (33, 7.14313607863574784318e-01) (34, 1.72160423093448394782e-01) (35, 8.75980796370471465062e-02) (36, -1.04191665460084581518e+00) (37, -1.33166943572117557615e+00) (38, -1.31977370230351609415e+00) (39, 2.07952197209482159135e-01) (40, -9.98585738247221299524e-01) (41, -8.52891261515651089020e-01) (42, -1.03180830118787203453e+00) (43, -1.35410181549472707907e+00) (44, -1.25455007483526759238e+00) (45, 6.89830612201638659897e-01) (46, -3.99676458480628771230e-01) (47, 1.87482328898683325846e-01) (48, -8.81050100294956006763e-01) (49, -2.07016560209794420189e+00) (50, -1.67977007295924107844e+00) (51, 7.27207589002960563818e-01) (52, 8.14310921901930884204e-01) (53, 7.13729250606208065477e-01) (54, -8.60400917650816055016e-01) (55, -2.18153882651923636260e+00) (56, -3.49640943253632530130e+00) (57, 7.22825682399745983453e-01) (58, 1.01625760653900734654e-01) (59, 8.11702320909394758885e-01) (60, -1.05987075920412610053e+00) (61, -1.26885684156424960456e+00) (62, -1.39949234179014370127e+00) (63, 5.89553362742753273018e-01) (64, 1.10976463445354181503e-01) (65, 8.29825361379277981477e-01) (66, -1.05363386925856716836e+00) (67, -1.04934739186561132307e+00) (68, -9.65839853062795850036e-01) (69, 7.55202114644383137865e-01) (70, -7.00487601693108197232e-01) (71, 6.70041775910632408930e-01) (72, -8.86396480206740111640e-01) (73, -9.20923965627831853098e-01) (74, -3.29824879732996747994e-02) (75, 5.16264755787479434623e-01) (76, -1.28612691720693961273e+00) (77, 4.28305666249526761913e-01) (78, -3.20821297694977247694e-01) (79, 4.83546596401458306236e-01) (80, 2.61668103130506057852e+00) (81, -2.14767859487015560886e-04) (82, -1.47556243961493027683e+00) (83, -5.39186492018376206659e-01) (84, -3.69969687546004677436e-01) (85, 1.78913853699026376143e-01) (86, 4.03818023501553291510e+00) (87, -9.48782046555804670085e-01) (88, -1.20235519545917957096e+00) (89, -1.19249013638688450278e+00) (90, -2.90883347463965158397e-01) (91, -4.14630028268517525358e-01) (92, 2.54357357527366145789e+00) (93, -1.27095551934746620049e+00) (94, -1.89825162409207837122e+00) (95, -1.76730644123807101309e+00) (96, 7.39925630642933818137e-01) (97, 2.60826391405651725197e-01) (98, 4.21043961367535235496e+00) (99, -5.80171830282109168841e-01) (100, -8.88827171366660007124e-01) (101, -7.81551767779328665497e-01) (102, 7.21045415335982098348e-01) (103, 4.32534499502576386121e-01) (104, 6.03103695930555883109e+00) (105, -3.15772813095888116308e-01) (106, -3.87930304491333921568e-01) (107, 9.33156078883481260311e-02) (108, 7.07094467256637160268e-01) (109, 8.38779780249712447748e-01) (110, 4.28982478941693301522e+00) (111, -3.22610494089917931859e-01) (112, 6.98945133434227539038e-02) (113, -1.84996898314937312235e-02) (114, 6.22301089299096110707e-01) (115, 8.40969424845170898664e-01) (116, 3.04163153961399901348e+00) (117, 1.11253880351588230191e+00) (118, 2.34526557532159868336e-01) (119, -1.18307514219359655172e+00) (120, 7.96346106278909227072e-01) (121, 1.23202750180555109516e+00) (122, 3.11471970674375198129e+00) (123, 1.32982729773081498337e+00) (124, 9.63775688286253151560e-01) (125, -2.45179425820061969166e-01) (126, 7.08059398764586345187e-01) (127, 7.70950187794584462786e-01) (128, 2.26449762245816454964e+00) (129, 3.56038198151454654550e-01) (130, -1.84473561119078625740e-03) (131, 7.06182877009515874711e-01) (132, 6.30285170832178054390e-01) (133, 8.71694019942641284970e-01) (134, 8.46536974471701952893e-01) (135, 9.62673922530770331818e-01) (136, 1.85428017250817966932e+00) (137, 1.41494637530103539724e+00) (138, 6.22653981678818468914e-01) (139, 6.82752607115115317526e-01) (140, 6.69883251748597197128e-01) (141, -7.36758898060491551618e-01) (142, -3.13559645180753687743e-01) (143, -1.32900930303092779106e+00) (144, 5.97981909626070562425e-01) (145, 7.22964387691643506351e-01) (146, 5.16738964072848805387e-01) (147, 9.69240335365424976466e-01) (148, -1.32318594558173824316e-01) (149, -1.01754671954905751008e+00) (150, 6.89574529164054150776e-01) (151, 6.79386383015598838142e-01) (152, 5.36762026982581574863e-01) (153, -3.83011414940190475509e-01) (154, -7.16677450519744407842e-01) (155, -1.48368510684037802072e+00) (156, 5.24974383892196083679e-01) (157, 4.83304337984589049704e-01) (158, -1.19400602389952381621e+00) (159, -1.27519975840236887699e+00) (160, -1.45111983390709209374e+00) (161, -2.73532936947417537610e+00) (162, 2.49887960690074947823e-02) (163, -6.86393608184696635277e-01) (164, -1.10134716755647339426e+01) (165, -6.30302832299144188966e-01) (166, -4.03528947033664264765e-01) (167, -7.10541921486669947328e-01) (168, -9.44196217353488742585e-02) (169, -9.29461094089380934768e-01) (170, -3.70861278947638428605e+00) (171, 4.41419541172818272190e-02) (172, 7.33250213385696070212e-02) (173, 9.21524660693379960019e-02) (174, 2.61938303774142990099e-02) (175, -7.46113293659219189990e-01) (176, -3.56132984598958346467e+00) (177, 6.37105345364581854284e-01) (178, 5.61144699625380827257e-01) (179, 6.31776485157308220764e-01) (180, 3.03645413038026341923e-02) (181, -6.11408999975982636599e-01) (182, -1.26945804045066035215e+00) (183, 6.56705389225895275196e-01) (184, 5.34653743714333384851e-01) (185, 5.08521325094067444539e-01) (186, 1.09072759500507543429e-01) (187, -3.77137222354021195425e-02) (188, -3.41951776724281064634e-01) (189, 6.29847986006882631926e-01) (190, -1.23505895998788894907e+00) (191, -1.88477676191165577357e+00) (192, 1.87088374535670870502e-01) (193, 6.23885189320143376812e-02) (194, -8.53699127099492360848e-01) (195, -1.19144544043607747419e+00) (196, -1.87963617455233111819e+00) (197, -4.65274021011485938715e+00) (198, 1.11365545754131239908e-01) (199, -4.22053818964722327056e-01) (200, -7.46427801302596782840e-01) (201, -5.33849429927053642508e-01) (202, -1.52114356317534671348e+00) (203, -2.57263846075399449376e+00) (204, -3.94189231821397922939e-01) (205, -1.01586804936998564841e+00) (206, -1.35518762810201720548e+00) (207, 1.11625441652776477564e-01) (208, -7.58093748829359426189e-01) (209, -1.57980648022671998909e+00) (210, -2.98604254042131256330e-01) (211, -1.02036435067344699590e+00) (212, -7.06133946613228258293e-01) (213, 6.61114293470112746043e-01) (214, 5.53657665345360650022e-01) (215, -8.75462594847285502375e-02) (216, 8.98074135901738290766e-02) (217, -3.54195561086214361080e-01) (218, -5.49957256261924598562e-01) (219, 6.36115406218413892425e-01) (220, 7.13561961942142053417e-01) (221, 3.15739301524830791659e-03) (222, -3.11234613235326029734e-01) (223, -4.09635817665513768393e-01) (224, -1.25225401578694128801e+00) (225, -2.65109041125178544751e-02) (226, 6.98527245951334474494e-02) (227, -4.29538605813068963268e-01) (228, -3.61769103971440963985e-01) (229, -5.50299531407465569721e-01) (230, -1.16007818434462972590e+00) (231, 6.71111305466529084462e-01) (232, 4.81719994818317009955e-01) (233, 3.73152382993329367888e-01) (234, -3.11817665276672040253e-01) (235, -5.26377686531657729141e-01) (236, -1.35398940952820079353e+00) (237, 4.75015932289226450180e-01) (238, 4.37147493724061975140e-01) (239, 1.15825681161996152380e-01) (240, -3.58624432269723569799e-01) (241, -5.58143641493831221823e-01) (242, -9.04319314536730534115e-01) (243, 6.38983131816548755033e-01) (244, 5.52496334967921276515e-01) (245, -2.34989736818304977006e-02) (246, -2.28679165732356859397e-01) (247, -4.55911101080026082144e-01) (248, -4.47503152378427637714e-01) (249, 6.20261600938844637199e-01) (250, 6.31673213023602575511e-01) (251, -3.72995555675809317697e-02) (252, 5.85756756218992036267e-01) (253, -3.87210505281605055217e-01) (254, -4.12217705404046452777e-01) (255, 6.32441417023372309814e-01) (256, 6.55981521042835580282e-01) (257, 5.50255318943409510446e-01) (258, 6.96848347301728177072e-01) (259, -2.53837169073000246122e-01) (260, -3.09611625332089468454e-01) (261, 6.35310309081724478020e-01) (262, 7.04935592680004941002e-01) (263, 6.62736077305317472508e-01) (264, 6.76315010288315754394e-01) (265, 9.04646218973683274855e-02) (266, 6.29620744265691340003e-02) (267, 6.34772283337346143739e-01) (268, 9.10764929481194585037e-01) (269, 8.67976535695704320972e-01) (270, 8.13271767617698038144e-01) (271, 1.87364723322398896155e-01) (272, 1.52361618234391982263e-01) (273, 7.38733468342267274309e-01) (274, 7.23073423390448999371e-01) (275, 6.60475452143597596688e-01) (276, 7.09245376381317127468e-01) (277, 9.13055235620802013718e-02) (278, 1.62041109216559564565e-01) (279, 7.00592715718111880285e-01) (280, 7.83958415530317642705e-01) (281, 6.34359498713896408084e-01) (282, 1.24109334383783820321e+00) (283, 7.87973466827777579979e-01) (284, 7.60210453855016177194e-01) (285, 7.50233855523428916356e-01) (286, 7.22044285811743735692e-01) (287, 6.54982473242733509444e-01) (288, 1.25647950623064885711e+00) (289, 1.20045360573135684312e+00) (290, 1.07669728959211208341e+00) (291, 7.60721534963683998498e-01) (292, 8.96572046454982785058e-01) (293, 8.12413368733672758282e-01) (294, 1.01897389052742770588e+00) (295, 5.64271864233931719212e-01) (296, 9.25271338770050522093e-01) (297, 7.86896151311535119177e-01) (298, 8.71959052200933171228e-01) (299, 8.31313822637243404756e-01) (300, 1.36705908497617012465e+00) (301, 8.09734792314395690482e+00) (302, -1.90086735566548897802e-01) (303, -5.75829751813558754492e+00) (304, 6.69661151308117846837e-02) (0, 5.72979386036077675826e-01) (1, 9.51605084929472155864e-01) (2, 4.72864678206321553677e-01) (3, 1.27831751639457369407e+00) (4, 1.67050126626143091713e+00) (5, 2.41370843363279785621e+00) (6, 5.23335931436976320441e-01) (7, 4.38157414444426962508e-01) (8, 3.31316703007510704460e-01) (9, 1.16003514143108610313e+00) (10, 2.42925223007609147885e+00) (11, 2.48877722909491794212e+00) (12, 4.50929551811719675491e-01) (13, 4.07407242068039854299e-01) (14, -2.01534271777949025584e-01) (15, 3.54670260169107187664e-01) (16, 9.64801692352744849623e-02) (17, 1.30815170884480203028e+00) (18, 6.50596159083463132511e-01) (19, -8.48287477551804003362e-02) (20, -7.96016926038664696108e-01) (21, -3.21126983608957805583e-01) (22, -4.20413070603962213401e-01) (23, -1.73940701063412506144e+00) (24, -1.15035739276307405476e-01) (25, -1.05683952216192381113e-01) (26, -7.08016219152349801647e-01) (27, -1.44533941101954027664e-01) (28, -1.00701390105786506290e-01) (29, -2.04741989118659317715e-01) (30, -2.00179593783536863283e-01) (31, -8.35111101984964854239e-01) (32, -9.60866056737016749345e-01) (33, 3.73089473769095292255e-01) (34, -4.48841434307703582296e-02) (35, -7.12671759958413836289e-02) (36, -2.78463973589010219123e-02) (37, -6.73247200877014506659e-01) (38, -7.45250040153579540458e-01) (39, 4.11625655848132210313e-01) (40, -4.81868299970608301996e-03) (41, -2.33940844248588068754e-02) (42, -7.49061858137195779594e-02) (43, -1.08768891090234518242e-04) (44, -7.93307810476207242445e-01) (45, 1.88790088621015289538e-01) (46, 8.99724874748132896762e-02) (47, -1.04240061497669900259e-01) (48, -2.29410595522539749458e-02) (49, 5.12033909470933773500e-02) (50, -7.01413622631686495268e-01) (51, 7.70732171563329404584e-01) (52, 2.55144683452570575355e-01) (53, 7.35549794211033058922e-01) (54, -1.62559973540365915179e-01) (55, 1.38607802182187572759e-01) (56, -7.56175137633002369952e-01) (57, 7.02343898223691809335e-01) (58, -1.60765497401485803197e-02) (59, 6.40781402351454087984e-01) (60, -2.46514058732733680468e-02) (61, 6.24061079130383999924e-01) (62, -1.31670072862846776474e+00) (63, 6.26595512480822791623e-01) (64, -3.66401503859467569946e-02) (65, 4.44722935218412829261e-01) (66, -2.81223632589407100679e-02) (67, 6.85485252758398999617e-01) (68, -6.02058449602735024087e-01) (69, 6.08030261704992525118e-01) (70, -5.18175066788438831722e-02) (71, 5.74843186324168198276e-01) (72, -7.25942512906012638041e-02) (73, 6.46111600589423629160e-01) (74, -5.01914591362839002109e-01) (75, 1.14275375904863851773e+00) (76, -5.57722035463522058940e-02) (77, 8.27604144440741706923e-01) (78, -1.29043780936000246351e-01) (79, 5.49499073472245580518e-01) (80, 5.57458456779171829254e-01) (81, 4.07990341885422880264e-01) (82, -1.17465985945319581485e-01) (83, 5.99878672155295444846e-01) (84, -2.07014530881720754119e-01) (85, -1.92513164468298275667e-01) (86, -4.95146582332549212158e-01) (87, 6.36131036194116483706e-01) (88, 4.31179015792568121057e-01) (89, 5.53381546381530475820e-01) (90, -2.34432008955742954281e-01) (91, -7.22132792416942059788e-01) (92, -1.12481214728356948562e+00) (93, 4.58614386787301486770e-01) (94, -1.89594624397026595419e-01) (95, -5.47098301336327752509e-01) (96, -5.29306775019058942111e-02) (97, 2.50043943814989280336e-03) (98, -1.18229050774824054337e-01) (99, -1.57174732343460826778e-01) (100, 2.76758279083889335848e-01) (101, 4.12836940385080952698e-01) (102, -2.39312576018002431955e-01) (103, -3.13659018765617969571e-01) (104, -4.57983197713550949093e-01) (105, -4.68406850856245421388e-02) (106, 2.23067239317285448408e+00) (107, 4.63952680210040924874e-03) (108, -2.07392411267465548441e-01) (109, -1.27023584239603026802e+00) (110, -1.30371685324030606168e+00) (111, -1.58716800706500432705e-01) (112, 8.98445071269304007533e-02) (113, -9.76121418481240077369e+00) (114, -2.86483559539499679780e-02) (115, -4.37882340831116878554e-01) (116, -3.53099651453400720236e-01) (117, -1.18411201017520095746e+00) (118, -1.11970530074751373206e+00) (119, -1.33114118748928653702e+01) (120, 3.97052318285884109361e-01) (121, 1.92423127344151900786e+00) (122, 1.36060673950866517501e+00) (123, -1.11905003274659220480e+00) (124, -3.95430251811707211829e-01) (125, -1.04750174362363370761e+01) (126, 6.23678650168364656636e-01) (127, 5.91599354183612202718e+00) (128, 1.32243329924286712185e+00) (129, -2.54970119438283016056e-01) (130, -7.80574920397827942686e-01) (131, -2.35621881123042964390e+00) (132, 3.36081054954148417124e-01) (133, 2.47906535075209377705e-01) (134, -2.23687760826366849320e-01) (135, -3.66190716183579303977e-02) (136, 2.05700256886983678939e+00) (137, 4.52413497461990843362e+00) (138, -1.00045905728499445742e-01) (139, -2.29847406148496924416e+00) (140, -2.60059480238137785690e+00) (141, 3.64406480825854806049e-01) (142, 5.10413337871320482719e-01) (143, -1.33984382972585552851e-01) (144, 5.06249295112723540768e-01) (145, -9.14115252325638366626e-02) (146, 2.49037613282282355165e-01) (147, 4.20959357051365312685e+00) (148, 5.20676225622343658017e+00) (149, 3.49721375764849273793e+00) (150, -6.87486045552811175785e-02) (151, -2.69128335611596436472e-01) (152, -1.88824581304673078108e+00) (153, 1.31950426208806224082e+01) (154, 6.61006774592868318052e+00) (155, 3.66973885125051468847e+00) (156, -5.17752602381177998159e-02) (157, -1.64700033510792487323e-01) (158, -1.21287680276968679038e+00) (159, 1.09386810874761764012e+00) (160, -7.85829269599068180874e-01) (161, -2.24956879735885717508e+00) (162, 5.23125712075013793445e-01) (163, 4.14870190222863532981e-01) (164, 4.26795331863132176853e-01) (165, -6.71028147544045272532e-01) (166, -7.15964295538502493166e-01) (167, -4.41160533945717359128e-01) (168, -4.04968135894919548101e-02) (169, 6.02739395585204285055e-01) (170, 4.74753892473720684464e-01) (171, -7.92369586466270675595e-02) (172, -1.61808614570232811580e+00) (173, 3.03321736973318589747e+00) (174, -5.17098759683900580097e-02) (175, -1.55243988290260426233e-01) (176, 4.52463483674360122944e-01) (177, 2.41531057638321555725e-01) (178, -6.07992146887023743318e+00) (179, 5.74842197697299939207e-01) (180, 1.14776884583888308389e-01) (181, 4.58757531368069793043e-01) (182, -1.10778555804423431419e-01) (183, -1.71382197389916363095e-01) (184, -1.85783682584374831848e+00) (185, -1.05513518504922698682e+00) (186, 1.20613305260603737024e-01) (187, 5.90928873191831405265e-01) (188, -7.35433523925522969478e-01) (189, -2.23746868585339375723e-01) (190, -1.37566193335650543972e+00) (191, -4.27949413282557156180e+00) (192, -1.70712102415034427949e-01) (193, -8.22829290927040574166e-02) (194, -1.04317597070515777347e+00) (195, 3.19693115525723325909e-01) (196, -1.66454428276545929322e+00) (197, -2.73455230746995026081e+00) (198, -1.50721871459390116543e-02) (199, -2.09360841136069619761e-01) (200, -1.37172669426104021362e+00) (201, -4.09617699514046973430e-01) (202, -1.27316150107049441687e+00) (203, -8.04138178521236146601e-01) (204, 6.40629775321430505741e-01) (205, 4.12160230176859043727e-01) (206, -8.89437313732176271230e-01) (207, 2.10752627563634636898e-01) (208, 1.13210764575286101929e-01) (209, 1.27146146130672699215e+00) (210, 1.06326872799567873074e+00) (211, 7.02315067438978646308e-01) (212, 5.23403254101939663379e-01) (213, -3.21024820767772001151e-01) (214, -3.90516357314548423485e-01) (215, -9.54868069627369142616e-01) (216, 1.04611233200153219691e+00) (217, 5.29604493070548354439e-01) (218, 4.34544503386725899929e-01) (219, -1.44742628392142247407e-01) (220, -2.80526228403468136374e-01) (221, -5.76746632153719795966e-01) (222, 1.01952709404719810138e+00) (223, 5.43921779065897892380e-01) (224, 4.34981315037102578280e-01) (225, -1.48190446261598163247e-01) (226, -2.99111764679733160843e-01) (227, -4.29256030438813551697e-01) (228, 2.81573599151214604142e-01) (229, -1.47129080888827507012e-01) (230, -2.64067314614463921618e-01) (231, -1.13074414366058403902e-01) (232, -6.76971182742663046827e-02) (233, -2.67709921566817887761e-01) (234, -1.00237218949602038820e-01) (235, -9.29326704715368462351e-02) (236, -1.16769247015810831436e-01) (237, 3.16909506819533004496e-01) (238, 4.59875691037597844613e-01) (239, -3.14156896938403595865e-01) (240, -8.44721175128871348825e-02) (241, -1.15846550476386714323e-01) (242, -1.36217822795105775180e-01) (243, 1.05955112768459724926e+00) (244, 9.53348490980204688050e-01) (245, 4.40414928618541867689e-01) (246, -2.04847417848552398878e-01) (247, -1.56802014188730493016e-01) (248, -2.48749262488353883871e-01) (249, 1.11045909207546666941e+00) (250, 1.23649989748839694848e+00) (251, 1.09251152035944376628e+00) (252, -1.80741814070746076304e-01) (253, -1.77237440465200929429e-01) (254, -1.89875452021264573554e-01) (255, 1.30211277874170416879e+00) (256, 1.45820866043342411977e+00) (257, 1.34009188475414142694e+00) (258, -9.65987076889431861559e-02) (259, -5.18531551487883685114e-02) (260, -2.08762989222202766104e-01) (261, 1.26714485978910573749e+00) (262, 1.61206859806204150232e+00) (263, 1.20898948192302180260e+00) (264, 3.77246152957193325861e-01) (265, -4.13238373800437069905e-02) (266, -8.00921599561071340112e-02) (267, 1.59034410080938060084e+00) (268, 1.55483481934528366963e+00) (269, 1.33413317189431701593e+00) (270, -1.00678307715408810186e-01) (271, -7.56440719602814864997e-02) (272, -1.61625000666758555923e-01) (273, 1.56984514653091133951e+00) (274, 1.55600672274329432376e+00) (275, 1.25204933453315736536e+00) (276, 3.80626659607045003675e-01) (277, -1.11255696613746457579e-01) (278, -5.12338966702603620940e-02) (279, 7.09848283540349456189e-01) (280, 5.80873622828107727400e-01) (281, 7.12219811313729911362e-01) (282, -9.72688269361240004374e-02) (283, -1.20873327434656077650e-01) (284, -1.73925246256588506011e-01) (285, 5.53492709332090271346e-01) (286, 5.95668240719419372908e-01) (287, 6.10590861587111399800e-01) (288, -1.98931081583999698481e-02) (289, -3.58006676125223327611e-02) (290, -1.91738384773322917409e-01) (291, 5.98000553325955364059e-01) (292, 6.51584788494687927596e-01) (293, 6.79919935176907852536e-01) (294, 3.93917550724680709529e-01) (295, 3.45627215411085764174e-01) (296, 4.01009083672667909770e-01) (297, 5.40667680273345441222e-01) (298, 6.92895396362882332042e-01) (299, 6.76271846711254953632e-01) (300, 1.70153244356594424147e+00) (301, -3.26119954627584149875e+01) (302, -1.96476235266184993122e+01) (303, -4.77902777836639980347e-01) (304, -3.38910449403121702971e+01) (0, 3.51518269275891748205e-01) (1, 3.45825430769329089653e-01) (2, 3.01882007345952330102e-01) (3, 4.49329259783342760404e-01) (4, 3.67940995863505981855e-01) (5, 3.06611018226226161865e-01) (6, 3.15219268049670209297e-01) (7, 2.35005075841012156523e-01) (8, 2.60367841740730576738e-01) (9, 3.61711828598018036995e-01) (10, 3.55379405058239228321e-01) (11, 5.54945190069010996226e-01) (12, 1.50534510893417128319e-01) (13, -3.16764717991884547921e-01) (14, -2.13623589934274521474e-01) (15, 2.66107477134558567666e-01) (16, 3.19803635951250109226e-01) (17, 6.53674334283475211294e-01) (18, -4.29316225458885092348e-01) (19, -3.01990177663195913382e-01) (20, -4.41524835960930783774e-01) (21, 2.24345504448833638067e-01) (22, -8.03429735521436413914e-03) (23, -2.58836601761190276960e-01) (24, -4.49798287800402707415e-01) (25, 1.42189124657451315681e-01) (26, -3.16413446673609044524e-01) (27, 2.94262673184307821383e-01) (28, 1.24677945950783242157e-01) (29, 1.36606731953541893354e-01) (30, -4.06715661035986719707e-01) (31, 2.03701673217875134370e-01) (32, 1.42970796261990384934e-01) (33, 8.38461126972013581771e-01) (34, 6.71363987291099140187e-01) (35, 3.58034035009826279161e-01) (36, -4.07671580052647641867e-01) (37, 3.86332126925215624258e-01) (38, 2.15819648949199194288e-01) (39, 3.65604660932959790731e-01) (40, 2.20339302359215727378e-01) (41, 3.57644833894024072318e-01) (42, -2.89382206856262647054e-01) (43, -2.61712767534735823993e-01) (44, -4.13157398499607364517e-01) (45, 3.52189434296616254993e-01) (46, 2.61498377981002894099e-01) (47, 2.50351554114413565877e-01) (48, -4.48703557593926716240e-01) (49, -2.98168644778982194765e-01) (50, -4.05933398987054661067e-01) (51, 2.78252300782774908416e-01) (52, 4.22204416207935862015e-01) (53, 3.50490775278723465380e-01) (54, -4.10259425102851682521e-01) (55, -2.48727064103902439918e-01) (56, -6.49975540154185682518e-01) (57, 3.41966714412928751710e-01) (58, 8.85088861350439293219e-01) (59, 5.15575685931149330088e-01) (60, -4.07705141640730406305e-01) (61, -3.17005015055664488011e-02) (62, -6.98941089688584260564e-01) (63, 5.24670061181282787466e-01) (64, 2.82478020840575227979e+00) (65, 1.49908973913967979996e+00) (66, -3.82790527058457230591e-01) (67, -1.95359970797188697844e-01) (68, -1.70125477166861527323e+00) (69, 1.01181297971688355375e+00) (70, 1.45178395613063537795e+00) (71, 1.07144238885935672023e+00) (72, -4.35929036651149792725e-01) (73, -7.83682646106865915536e-02) (74, -1.84200835344279156836e+00) (75, 9.55227289149066183249e-01) (76, 1.02949471074187237640e+00) (77, 1.02147681278189073062e+00) (78, 1.20082425480691382114e-01) (79, 2.41821590941568631550e-01) (80, -5.01328912714118835048e-01) (81, 3.96620220216249763645e-01) (82, 5.67494987773782266771e-01) (83, 2.46540541585676481473e-01) (84, 5.07972047305530582939e-01) (85, 5.28190425040158006986e-01) (86, -2.45523651480605148434e-01) (87, 1.75301547447202193952e-01) (88, -1.18359820605238502678e-01) (89, -2.85916210082117150382e-01) (90, 2.64443724718239459026e-01) (91, 5.75549931758363886303e-01) (92, -5.32131735549031259502e-01) (93, -2.61888290896338582492e-01) (94, 3.51635046790706118358e-01) (95, -3.96649094730426865496e-01) (96, -4.11491853033425780684e-01) (97, -5.21989929984368106197e-01) (98, -1.55511656167433121034e+00) (99, -4.48359367959100640899e-01) (100, -5.45019144741809014043e-01) (101, -2.88577908093609636353e+00) (102, -5.75000072596772437983e-01) (103, -6.41567764030723020063e-01) (104, -1.54570693627022293093e+00) (105, -5.44016223327086878570e-01) (106, -2.24548378200837817076e+00) (107, -3.30261114063908856053e+00) (108, -7.73613806361344136242e-01) (109, -9.18626124918788589113e-01) (110, -1.25176243554658324086e+01) (111, -6.52446595643080828886e-01) (112, -7.77804333023444982587e-01) (113, -1.71715774746800975414e+00) (114, -7.00105287257326458494e-01) (115, -7.35334028369334369302e-01) (116, -4.63352414577152416086e+00) (117, -5.42082446798644146391e-01) (118, -3.33720060172260568621e+00) (119, -9.25816645722516873285e-01) (120, -2.27903624598394127787e+00) (121, -2.59320782945572636535e+00) (122, -4.71309494566373299307e+00) (123, 1.35695406582090172254e-01) (124, 2.35152300644597411772e-01) (125, -1.72641696936379962501e+00) (126, -5.39717618729575576708e-01) (127, 1.70888845500951569445e-01) (128, 2.35396160829030753892e-01) (129, 4.20282150821800426499e-01) (130, 5.84822960721557016939e+00) (131, 3.37723311892505417831e+00) (132, 2.91788505585734367354e-02) (133, 6.16486727306205795074e-01) (134, 2.17335542478602450345e+00) (135, 9.02770412247686088181e-02) (136, 1.88750389397353712795e+00) (137, 1.39586692496241604466e+00) (138, 2.48860274798485575642e-01) (139, 1.91426516256940226768e+00) (140, 3.69316650670428670011e+00) (141, 8.14022381045191978366e-01) (142, 2.20145256141383960369e+00) (143, 2.90651926721542697152e+00) (144, 1.43303786498183732823e-01) (145, 1.71952649155667325331e+00) (146, 2.38765941978514861788e+00) (147, -4.63160024367409578483e-02) (148, -1.30355239831636771086e-01) (149, -4.20377584120160241454e-01) (150, 3.20814944693887271754e-01) (151, 1.73563122359861221611e+00) (152, 4.27120418523580713810e+00) (153, -1.22634408621025747799e+00) (154, -2.10252715854658128736e-01) (155, -3.50791187208158117272e+00) (156, 1.96625320767198880079e-01) (157, 1.52980702038565397061e+00) (158, 2.00649683009350709995e+00) (159, -8.09215389701420262369e-01) (160, -4.01325245639086516936e-02) (161, -3.34005547761652987759e+00) (162, 3.46771873908241837214e-02) (163, 9.48328362962160498206e-01) (164, 1.67907945151865845013e+00) (165, -2.14572918150240044000e+00) (166, -2.98785333930086383081e-01) (167, -3.88458112248777964748e-01) (168, 1.82730574461068329128e-01) (169, 6.51746725207124844026e-01) (170, 3.96914414697928319420e-01) (171, 1.50016361279785764848e-01) (172, 2.68189060397538980851e-01) (173, 7.83449470842948331173e-02) (174, 2.43685144212708204581e-01) (175, 5.14294577588019219405e-01) (176, 4.58572604983201015383e-01) (177, 2.88080238185386694472e-01) (178, 7.75990162658090620873e-01) (179, 5.58282530569420343269e-01) (180, 5.76452103768734125389e-01) (181, 5.23269470039242401427e-01) (182, 4.78707179246661285177e-01) (183, 2.95620619533143058622e-01) (184, 7.10152094656618382285e-02) (185, -8.26998211821132478416e-02) (186, 1.16378669276292723289e+00) (187, 1.69434148043153420815e+00) (188, 1.58074818518524384814e+00) (189, -2.19759865291709655111e-01) (190, -7.29094285537204567227e-02) (191, -4.31426133379279486135e-01) (192, 5.96282626750438082830e-01) (193, 6.34450488282453872735e-01) (194, 4.12400685917624743038e-01) (195, -1.49102559620969743470e-01) (196, -3.82326873714667836435e-01) (197, -6.28708610895793440498e-01) (198, 3.04704648227746843769e-01) (199, 3.56842468266935053389e-01) (200, 1.36338824850629258822e-01) (201, 2.28068479272437230065e-01) (202, -3.73185959211012441283e-01) (203, -3.50000050575618226745e-01) (204, 2.41431562934127014186e-01) (205, 2.31280042076039471510e-01) (206, 1.98810426883801183440e-01) (207, 2.82091338341507569254e-01) (208, -1.38617225669637272878e-01) (209, -1.99683742602940861310e-01) (210, 4.23632524457689452202e-01) (211, 3.01073749138911050949e-01) (212, 1.60403922799309206493e-01) (213, 2.29431490043171398829e-01) (214, 5.60013613154013937395e-04) (215, -1.32996386026882656983e-01) (216, 3.63769494426573747337e-01) (217, 2.95762856304528087836e-01) (218, 3.99226909500243920537e-01) (219, 9.47006945542205047506e-02) (220, -3.50737369037519675086e-01) (221, -3.39087816894812210666e-01) (222, 3.13305293772010051701e-01) (223, 3.83524215386616684764e-01) (224, 2.97532603857717237172e-01) (225, -4.21411128317968952661e-01) (226, -5.25880681567339691718e-01) (227, -8.37885487384256277821e-01) (228, 2.34012896112406165727e-01) (229, 3.33776599611125102118e-01) (230, 2.14156266939598272092e-01) (231, -5.42855860658776223637e-01) (232, -5.64904844023886743010e-01) (233, -9.54864484347302089340e-01) (234, 2.22901228561076969470e-01) (235, 3.38557850343679966887e-01) (236, 3.80723015153995703042e-01) (237, -4.78313640006223506074e-01) (238, -6.36564446859039345661e-01) (239, -1.08786876656774311733e+00) (240, 3.04305340288400116844e-01) (241, 3.18869771411838087705e-01) (242, 2.50203394782059773682e-01) (243, -3.97437869977319002679e-01) (244, -4.20617621568430022361e-01) (245, -5.80126203152473096658e-01) (246, 3.80488432635940398985e-01) (247, 2.81435619132117842423e-01) (248, 2.35719565347945692046e-01) (249, 1.55366553074816560187e-01) (250, -3.81939586501454264589e-01) (251, -5.74203488165386355391e-01) (252, 3.92162624992092034848e-01) (253, 3.33046414815320324099e-01) (254, 3.06397849405733280204e-01) (255, -4.10006365248826665226e-01) (256, -3.47188553490769047372e-01) (257, -4.07150854859991695456e-01) (258, 2.59372867871805856677e-01) (259, 2.50569795464975375587e-01) (260, 1.61734149664740284313e-01) (261, 1.48223931474886189141e-01) (262, -2.81810450800398237803e-01) (263, -3.11653588695797123531e-01) (264, 3.56218388702372601440e-01) (265, 2.11309177137048165296e-01) (266, 1.09891242674483372022e-01) (267, -1.98734024108219331506e-01) (268, -2.82314776818560708715e-01) (269, -4.12858520645272342176e-01) (270, 2.43488145957069801462e-01) (271, 2.50904548979814345788e-01) (272, 4.76104605891134805007e-02) (273, 2.61628362636725730894e-01) (274, -1.72454975486882294833e-01) (275, -3.40121963341579125473e-01) (276, 2.81780761111889932469e-01) (277, 2.46907776744092199994e-01) (278, 2.14852745819713419895e-01) (279, 2.98795800458201588068e-01) (280, 2.52216181081406531916e-01) (281, -1.30052043405905842777e-01) (282, 3.81853508993967860619e-01) (283, 2.36095345313548643507e-01) (284, 2.28692802022275515350e-01) (285, 2.85793483583971330564e-01) (286, 2.59781206295482125501e-01) (287, 2.62829164224288258644e-01) (288, 2.78914220195486950438e-01) (289, 2.90239505615631943058e-01) (290, 2.40908627690332249882e-01) (291, 3.54164977627907662239e-01) (292, 2.39357164992452964292e-01) (293, 3.33525322907789079085e-01) (294, 3.05058134181575291155e-01) (295, 3.91908936713550482001e-01) (296, 2.74437985214472324191e-01) (297, 4.30608303019931526467e-01) (298, 4.09260420096339838647e-01) (299, 3.42995103866161998862e-01) (300, 1.81630546354319566404e+00) (301, -4.39568743387918736687e+00) (302, 1.21717978465142397937e+01) (303, 6.18905136888676432605e-01) (304, -2.67096477228345863253e+00) (0, 3.92060392561342507811e-01) (1, 4.72906635008498499317e-01) (2, 5.25712877628121910689e-01) (3, 4.58680101977662069146e-01) (4, 3.84410159038380494501e-01) (5, 4.87144133747414498359e-01) (6, 5.85152447339807313398e-01) (7, 5.04886986530294290532e-01) (8, 4.25842925607235689434e-01) (9, 8.24028651247078136599e-01) (10, 2.33132961590983756039e+00) (11, 2.22598665457543498647e+00) (12, 5.27233350417780188835e-01) (13, 5.21633314224929867109e-01) (14, 6.14033378520438266612e-01) (15, 8.91222313041586944315e-01) (16, 2.46092648257710733262e+00) (17, 2.10659697514600141588e+00) (18, 6.65839934776440323105e-01) (19, 6.61615426238244874746e-01) (20, 1.02668422867829400857e+00) (21, 9.97829318076068672028e-01) (22, 2.38638528080047152002e+00) (23, 3.41873233894200279082e+00) (24, 7.25658455644379918326e-01) (25, 1.17850722976459332259e+00) (26, 2.07991799180109548928e+00) (27, 5.40015952022277034850e-01) (28, 2.38674717683721393513e+00) (29, 3.74804840597239241617e+00) (30, 1.17635451391408984989e+00) (31, 1.55395204825275512484e+00) (32, 4.76603277616489151569e+00) (33, 5.72509021334373757739e-01) (34, 2.52548687132548543843e+00) (35, 4.07826909412381954922e+00) (36, 6.94139647536788140236e-01) (37, 1.08960675043709276366e+00) (38, 3.63789307741329270840e+00) (39, 4.99007484534725376246e-01) (40, 1.22081654522061788803e+00) (41, 1.44738266170473384165e+00) (42, 6.31774693053023583822e-01) (43, 9.42436452590019069220e-01) (44, 3.62733113835892062582e+00) (45, 5.36000253531915604732e-01) (46, 5.79970355465469489253e-01) (47, 1.21114623984741043294e+00) (48, 6.23787857444677129592e-01) (49, 8.40212708981731171143e-01) (50, 3.68005003850302170321e+00) (51, -1.14625244581973567692e-01) (52, 5.93223030210638713200e-01) (53, 6.01038991867650529421e-01) (54, 6.47727744237186042753e-01) (55, 7.07577245301751367457e-01) (56, 1.55390172899346601376e+00) (57, -1.37381230778533480752e+00) (58, -8.67208256673766664235e-01) (59, -4.94900439903224464988e-01) (60, 2.30045307760137832109e-02) (61, 4.65914120364014028297e-01) (62, 7.85753137302138360276e-01) (63, -1.36163722004584863967e+00) (64, -1.12178685666535260523e+00) (65, -5.54364673592031564908e-01) (66, -1.06097754574266200933e+00) (67, -1.20991855082219781914e-01) (68, 7.03712145857378401637e-01) (69, -1.05904579976923884921e+00) (70, -1.39695559045847211843e-01) (71, -1.07358953064797979504e-01) (72, -2.25202009872664632439e+00) (73, -2.86118104311355647695e+00) (74, -1.19685118033638149271e+00) (75, -1.09204048698236988457e+00) (76, -1.30973628069040337607e+00) (77, -1.01526214663830938179e+00) (78, -2.79120681139908066726e+00) (79, -4.28819027369567074004e+00) (80, -3.37652975425643564478e+00) (81, -9.09639983397999118964e-01) (82, -5.69039172839219786759e-01) (83, -3.00754917076989480851e-01) (84, -8.99791942155633606149e+00) (85, -1.39291417389709089036e+01) (86, -9.45786531209162362188e+00) (87, 3.64633925701365546601e-01) (88, 5.51975052321741932460e-01) (89, 2.18417876095999918817e+00) (90, -2.02457329318510446114e+01) (91, -3.67686741286819156471e+01) (92, -1.07511960299321600587e+01) (93, 2.26546289577640724833e-01) (94, 3.41122846504950949509e+00) (95, 9.61881086560729947621e+00) (96, -8.27230873979492464798e+00) (97, -6.22786122197952263235e+00) (98, -2.87789566392928675143e+00) (99, -1.08905037230910251012e+00) (100, 1.08015895084210333810e-01) (101, 5.51145840503186068560e+00) (102, -3.80661131380097117471e+00) (103, -8.19350844959353064034e-01) (104, -5.53373100055733702085e-01) (105, -8.13736660214672058444e-01) (106, 1.04937979492456134878e+00) (107, 1.46129346687675241157e+01) (108, -1.88911734525460794920e+00) (109, -4.20799252458112227337e-01) (110, -2.75944345206425689643e-01) (111, -7.55320772458547118333e-01) (112, 1.17053676727101096944e+00) (113, 3.34202201473462281456e+01) (114, -8.07260567653286464918e-01) (115, 7.90701310647981103763e-01) (116, 9.70156606215294092799e-01) (117, -2.23920104757006033225e+00) (118, 2.51002560668096508234e-01) (119, 3.00623016985789481836e+00) (120, -5.89976297305838004448e-01) (121, 6.41733736761538886562e-01) (122, 2.23369922610719218170e+00) (123, -1.95967993495506687118e+00) (124, 8.23310815599696654843e-01) (125, 5.06308482864887654529e+00) (126, -8.72729243572214818947e-01) (127, 7.05387071840792856392e-01) (128, 1.71660263795880996263e+00) (129, -2.46652123603121875561e+00) (130, 1.74971930018795007733e+00) (131, 6.00928810824836112658e+00) (132, -2.65195312194546728435e+00) (133, 6.81477831703781400385e-01) (134, 1.58523048303018176952e+00) (135, -2.72302398844817394874e+00) (136, 1.35593211474431041275e+00) (137, 2.13315456564551508833e+00) (138, -1.65500749332498320321e+00) (139, 9.87415573706881599669e-01) (140, 9.20284114576371159444e-01) (141, -1.17816038882032447788e+01) (142, -2.24536750160162856815e+00) (143, -5.91321549783139577272e+00) (144, -1.41414598527647217274e+00) (145, 2.24966627364894877772e+00) (146, 2.32793867472471260882e+00) (147, -2.24101152377566208429e+01) (148, -2.12246563639352325836e+00) (149, -1.77845405993676064504e+00) (150, -2.25453364763924274383e-01) (151, 4.45455278631437145975e+00) (152, 7.57708788871862815029e+00) (153, -3.50371836190989194293e+00) (154, 1.40109712032689714967e+00) (155, 4.40064919525690978475e+00) (156, -1.44012178704874149737e-01) (157, 6.10783873082037409574e+00) (158, 1.65750109691566862580e+01) (159, -1.36709846466330198211e+00) (160, 6.30029331268377568165e+00) (161, 1.13281442342317681948e+01) (162, -6.78140891895199104944e-01) (163, 5.68890059665135794376e+00) (164, 5.89880414373517858451e+00) (165, 3.84412413183205931011e-02) (166, 8.81330392525130612569e+00) (167, 5.28296570499451476621e+01) (168, 1.21347301394525604323e-02) (169, 3.03402047807485253372e+00) (170, 5.33668341159349246539e+00) (171, -2.23458655163031849611e+00) (172, 8.81324297074983831202e-01) (173, 1.31521916979868569442e+00) (174, -2.19025911122675068232e-02) (175, 2.32203422157585270824e+00) (176, 3.63562190192415446433e+00) (177, -1.96699201990486183256e+00) (178, -2.70833634093132769038e-01) (179, -2.29215749020509035327e-01) (180, -7.63276559528678760769e-02) (181, 1.69100770703421554586e+00) (182, 2.58401819293773327146e+00) (183, -3.09803251009390923087e+00) (184, -3.77159023550441219186e+00) (185, -4.61835317748241092062e+00) (186, 2.05931634581782777027e-02) (187, 2.09931563664533626934e+00) (188, 2.20822618307955353956e+00) (189, -1.74879987519600565982e+00) (190, -2.76510205372888551167e+00) (191, -4.11678184157364235318e+00) (192, -2.52832438749370502773e-02) (193, 1.94421116329082099838e+00) (194, 2.29838319851452599352e+00) (195, -2.01564758844439007035e+00) (196, -3.62892186476679423635e+00) (197, -1.37878008122480633091e+01) (198, 4.60258237076684798006e-02) (199, 1.38019039976314306095e+00) (200, 9.92226875575786482209e-01) (201, -2.55974835400986266976e+00) (202, -3.63195291795656372003e+00) (203, -7.17435911466920028801e+00) (204, 3.17326734501681695377e-02) (205, 8.00922983836639734712e-01) (206, 4.19947919048112572327e-01) (207, -2.14139875788112821198e+00) (208, -2.14603842045902659663e+00) (209, -2.20904659511727530230e+00) (210, -8.29875789462876795044e-02) (211, 3.74048564866825916653e-01) (212, 3.44670192806971753541e-01) (213, -1.48401631945286438530e-01) (214, -1.71086052689054413101e-01) (215, -7.97417956498348012850e-01) (216, -9.43818834735910688893e-02) (217, 8.13376662962742136287e-01) (218, 2.00243150938202690847e-01) (219, 5.67489765237823795552e-01) (220, 5.65060828338446730079e-01) (221, 2.48933836889783960400e-01) (222, -1.87855138291976420106e-01) (223, 7.03117031708007877988e-01) (224, 8.06118161232930230398e-01) (225, 8.84593630455073887120e-01) (226, 1.20571785978446954779e+00) (227, 1.42030391275149248109e+00) (228, 5.53604933711921987083e-01) (229, 6.61691745402804953891e-01) (230, 7.31670612318292001852e-01) (231, 6.66199882280884891905e-01) (232, 1.01993592576057889865e+00) (233, 1.03354209904239158213e+00) (234, 3.78428911014111246658e-01) (235, 5.79206932285694753304e-01) (236, 5.90303024179382629377e-01) (237, 5.61993496282128135455e-01) (238, 6.38391244190674167491e-01) (239, 9.54536359827588443139e-01) (240, 4.39975466141987459068e-01) (241, 7.30239467983442192001e-01) (242, 6.84518474901911755381e-01) (243, -2.29821996318070626009e-01) (244, -1.58522405159624429904e-01) (245, -1.23797966981729727631e-03) (246, 4.44434790284993219700e-01) (247, 6.27973070352337514599e-01) (248, 8.51490890124178112508e-01) (249, -2.29170713424033167804e-01) (250, -2.95367988711239815025e-01) (251, -2.93769536896215210930e-01) (252, 5.13931681560107600504e-01) (253, 6.92074672250488798220e-01) (254, 1.66076042778848020909e+00) (255, -2.01736107893888239051e-01) (256, -1.38210808557532427443e-01) (257, -2.00105854116012504829e-01) (258, 4.31588185757912579099e-01) (259, 8.37116048217595776215e-01) (260, 1.54092029390910023601e+00) (261, -2.94082879788615914052e-01) (262, -1.75229187148083359604e-01) (263, -2.02286220425938578771e-01) (264, 4.12616202436658641162e-01) (265, 6.64901972842751654014e-01) (266, 1.68333464038759506032e+00) (267, -2.48920258737849398045e-01) (268, -2.02269033151400268178e-01) (269, -2.11370700081932538783e-01) (270, -8.81787232928250341857e-01) (271, 5.86787335088965744667e-01) (272, 1.07093360726449993159e+00) (273, -2.88837039220843250220e-01) (274, -1.95266556203797625457e-01) (275, -2.40403179084327123238e-01) (276, -9.61546117604751504615e-01) (277, 4.97764253274379619985e-01) (278, 7.13412360756297436737e-01) (279, 4.99830949229367826891e-01) (280, -1.64932851420281911814e-01) (281, -2.81232677209109049876e-01) (282, -9.39381013793523234057e-01) (283, 5.70042576743945095252e-01) (284, 6.31108860158416051789e-01) (285, 3.60926155849402796605e-01) (286, -2.65716020304300415411e-01) (287, -1.74775327853765871655e-01) (288, 5.07732739356715145895e-01) (289, 5.00724821546654874638e-01) (290, 4.96583392271422285891e-01) (291, 3.46618604678004649244e-01) (292, 4.86337940703301607748e-01) (293, -2.32276677451935253949e-01) (294, 5.31347588414615712438e-01) (295, 4.19285292041238655258e-01) (296, 4.61813878685713219419e-01) (297, 4.88968477891759012444e-01) (298, 5.13435528920964112665e-01) (299, 3.63760529757336525947e-01) (300, 1.70566245093853452452e+00) (301, 2.46054661182941902808e+00) (302, -2.80126519097447435058e+00) (303, -1.17409430730806368937e-01) (304, 2.91678448364100528778e+00) (0, 5.28485056605483144443e-02) (1, 6.01572717088689479237e-02) (2, 1.51016521375159380042e-02) (3, 6.38416964560352684366e-02) (4, -2.40201485856088130244e-02) (5, 1.20360927511879489682e-01) (6, 1.32258743161903669083e-01) (7, 1.20424822944022846816e-01) (8, 1.75929075411958568687e-01) (9, -1.10562579936893598531e-02) (10, 2.55487747431518315289e-02) (11, -1.98478291917081640927e-02) (12, 1.33983550039736165616e-01) (13, 9.60298745536576625614e-02) (14, 9.40313310613542230332e-02) (15, 6.77055367610038677517e-02) (16, -2.56388443158620804585e-02) (17, 3.74625840553864794188e-03) (18, 3.32879906080641163602e-02) (19, -8.15426054147770362768e-02) (20, -3.89581879837393452171e-02) (21, 1.05418378562718947911e-01) (22, 8.44612017852718333089e-02) (23, -7.21074654166190681659e-02) (24, -4.44306357763031636865e-02) (25, -1.48372005127322320606e-01) (26, -5.03482149454563335245e-02) (27, -6.77673742485531446604e-06) (28, 1.13076197296466895992e-01) (29, 4.87702853843292108427e-02) (30, -3.95942752612781015409e-02) (31, -1.72192132062817221394e-01) (32, -2.42987853082768934243e-01) (33, -4.08996465768707365140e-02) (34, 6.16813107475385410949e-02) (35, -9.38305753043820606196e-02) (36, -1.20709827266869809681e-01) (37, -2.53423412209282661323e-01) (38, -3.32198628484266456073e-01) (39, -3.40635196035348822297e-02) (40, 5.35196751664407735505e-02) (41, -1.82889791462850226367e-01) (42, -3.29687116204417152154e-01) (43, -2.47946052130409433367e-01) (44, -2.50346865785271266436e-01) (45, -1.28966392467332602312e-01) (46, -1.18161800001172781482e-01) (47, -1.20086816306942067989e-01) (48, -8.55355205572594146091e-01) (49, -3.49978046487823546418e-01) (50, -1.61009167671249758813e-01) (51, -2.04803716713403416438e-01) (52, -1.25056134253113876431e-01) (53, -3.92762473821820001785e-01) (54, -5.86797173691237294868e-01) (55, -2.88842735537819361724e-01) (56, -1.84725168554802865462e-01) (57, -1.94829996483734835255e-01) (58, -3.47849260698898932187e-01) (59, -1.37156184390709467991e+00) (60, -6.22670644635157713442e-02) (61, -6.58037824499538570588e-02) (62, -1.36258515074314023874e-01) (63, -2.89023683605645620442e-01) (64, -6.01479066342132995260e-01) (65, -6.33257216722475035908e-01) (66, -1.19888995751270432955e-01) (67, -3.99668539753273432957e-01) (68, -2.48548388475824277855e-01) (69, -1.38685083568895084483e-01) (70, -4.07965223305757407335e-01) (71, -6.60727004238978454786e-01) (72, -2.53197333726657536346e-01) (73, -5.24910512100595916252e-01) (74, -3.52102712317254651353e-01) (75, -2.42358042083451102888e-01) (76, -1.15574605426550713894e+00) (77, -6.20812987398942861539e-01) (78, -2.35248436698586527172e-01) (79, -2.15487442409327734083e+00) (80, -1.16689314801174615077e+00) (81, -1.90884832046213093193e-01) (82, -1.75049739089331524156e-01) (83, -1.49694625650837576103e-01) (84, -1.52103990399617361451e-01) (85, -4.51563951485784365047e+00) (86, -1.50674515471336190053e+00) (87, -7.94895348082489960895e-02) (88, -2.26693020267688671865e-01) (89, -2.58035114472658755336e-01) (90, -1.68846850406454862537e-01) (91, -3.23217903976166454072e-01) (92, -7.28074041908091884601e-01) (93, -1.98060673494416278340e-01) (94, -3.83757202140420472514e-01) (95, -5.96197914740966061764e-01) (96, -2.51430854880053678002e-01) (97, -2.81325872904447937817e-01) (98, -4.73561952483941006609e-01) (99, -2.56435090808833698883e-01) (100, -9.24117256598400715895e-01) (101, -5.63354679710604711040e-01) (102, -1.19244492837000670704e-01) (103, -4.45679034121746142638e-01) (104, -2.65618285585931701576e-01) (105, 8.88623535059949532303e-04) (106, -1.92022239132470184941e-01) (107, 4.94052454014318076503e-01) (108, 5.12685936152110999231e-01) (109, 2.09234678186395239852e-01) (110, 1.71009609026727238401e-01) (111, 6.37804454672415754857e-01) (112, 3.53645763115259470499e-01) (113, 2.53198812004575968260e+00) (114, 5.23077231920077934113e-01) (115, 1.89107406997163940421e-01) (116, 1.53051623687052662515e-01) (117, 4.93517017035125904467e-01) (118, 5.64256936806698181086e-02) (119, 3.06601137543719159950e+00) (120, 6.16888323868428178898e-01) (121, 2.22401923186551442324e-01) (122, -6.60098535542191444669e-01) (123, 2.12633882445804056616e-02) (124, -7.78876370206621482239e-01) (125, 3.59690137088763739470e-01) (126, 5.89797263550501105200e-01) (127, -1.17023404839049671722e+00) (128, -4.40879546589554927039e+00) (129, -3.09663176449802846069e-01) (130, -7.04630407744993370045e+00) (131, -9.70282316576291270493e-01) (132, -6.75130077736642575381e-02) (133, -5.35113340820912064544e+00) (134, -1.32890970758507886984e+00) (135, 8.11987812443541179253e-02) (136, -2.21701713803378153145e+00) (137, -1.16853885637406595954e+00) (138, 2.39876156044157747005e-02) (139, -2.28839491544812173585e-01) (140, -2.73035163762381294372e-01) (141, -2.17932675221938737531e-01) (142, -1.99140811333129996719e+00) (143, -1.79477052782616297577e+01) (144, 1.87447764789880517988e-02) (145, -2.16655300379592075100e-01) (146, -1.80964626821863122652e-01) (147, -3.67809641851076618568e-01) (148, -1.02945318938216878735e+00) (149, -7.14127334885679698750e-01) (150, -1.69369547480596294164e-01) (151, -3.69665630647730780733e-01) (152, -1.49732626997028578364e-01) (153, 5.34970366857736800981e-01) (154, 