FANN_FLO_2.1
num_layers=5
learning_rate=0.700000
connection_rate=1.000000
network_type=1
learning_momentum=0.000000
training_algorithm=2
train_error_function=1
train_stop_function=0
cascade_output_change_fraction=0.010000
quickprop_decay=-0.000100
quickprop_mu=1.750000
rprop_increase_factor=1.200000
rprop_decrease_factor=0.500000
rprop_delta_min=0.000000
rprop_delta_max=50.000000
rprop_delta_zero=0.100000
cascade_output_stagnation_epochs=12
cascade_candidate_change_fraction=0.010000
cascade_candidate_stagnation_epochs=12
cascade_max_out_epochs=150
cascade_max_cand_epochs=150
cascade_num_candidate_groups=2
bit_fail_limit=3.49999999999999977796e-01
cascade_candidate_limit=1.00000000000000000000e+03
cascade_weight_multiplier=4.00000000000000022204e-01
cascade_activation_functions_count=10
cascade_activation_functions=3 5 7 8 10 11 14 15 16 17 
cascade_activation_steepnesses_count=4
cascade_activation_steepnesses=2.50000000000000000000e-01 5.00000000000000000000e-01 7.50000000000000000000e-01 1.00000000000000000000e+00 
layer_sizes=301 1 1 1 4 
scale_included=0
neurons (num_inputs, activation_function, activation_steepness)=(0, 0, 0.00000000000000000000e+00) (0, 0, 0.00000000000000000000e+00) (0, 0, 0.00000000000000000000e+00) (0, 0, 0.00000000000000000000e+00) (0, 0, 0.00000000000000000000e+00) (0, 0, 0.00000000000000000000e+00) (0, 0, 0.00000000000000000000e+00) (0, 0, 0.00000000000000000000e+00) (0, 0, 0.00000000000000000000e+00) (0, 0, 0.00000000000000000000e+00) (0, 0, 0.00000000000000000000e+00) (0, 0, 0.00000000000000000000e+00) (0, 0, 0.00000000000000000000e+00) (0, 0, 0.00000000000000000000e+00) (0, 0, 0.00000000000000000000e+00) (0, 0, 0.00000000000000000000e+00) (0, 0, 0.00000000000000000000e+00) (0, 0, 0.00000000000000000000e+00) (0, 0, 0.00000000000000000000e+00) (0, 0, 0.00000000000000000000e+00) (0, 0, 0.00000000000000000000e+00) (0, 0, 0.00000000000000000000e+00) (0, 0, 0.00000000000000000000e+00) (0, 0, 0.00000000000000000000e+00) (0, 0, 0.00000000000000000000e+00) (0, 0, 0.00000000000000000000e+00) (0, 0, 0.00000000000000000000e+00) (0, 0, 0.00000000000000000000e+00) (0, 0, 0.00000000000000000000e+00) (0, 0, 0.00000000000000000000e+00) (0, 0, 0.00000000000000000000e+00) (0, 0, 0.00000000000000000000e+00) (0, 0, 0.00000000000000000000e+00) (0, 0, 0.00000000000000000000e+00) (0, 0, 0.00000000000000000000e+00) (0, 0, 0.00000000000000000000e+00) (0, 0, 0.00000000000000000000e+00) (0, 0, 0.00000000000000000000e+00) (0, 0, 0.00000000000000000000e+00) (0, 0, 0.00000000000000000000e+00) (0, 0, 0.00000000000000000000e+00) (0, 0, 0.00000000000000000000e+00) (0, 0, 0.00000000000000000000e+00) (0, 0, 0.00000000000000000000e+00) (0, 0, 0.00000000000000000000e+00) (0, 0, 0.00000000000000000000e+00) (0, 0, 0.00000000000000000000e+00) (0, 0, 0.00000000000000000000e+00) (0, 0, 0.00000000000000000000e+00) (0, 0, 0.00000000000000000000e+00) (0, 0, 0.00000000000000000000e+00) (0, 0, 0.00000000000000000000e+00) (0, 0, 0.00000000000000000000e+00) (0, 0, 0.00000000000000000000e+00) (0, 0, 0.00000000000000000000e+00) (0, 0, 0.00000000000000000000e+00) (0, 0, 0.00000000000000000000e+00) (0, 0, 0.00000000000000000000e+00) (0, 0, 0.00000000000000000000e+00) (0, 0, 0.00000000000000000000e+00) (0, 0, 0.00000000000000000000e+00) (0, 0, 0.00000000000000000000e+00) (0, 0, 0.00000000000000000000e+00) (0, 0, 0.00000000000000000000e+00) (0, 0, 0.00000000000000000000e+00) (0, 0, 0.00000000000000000000e+00) (0, 0, 0.00000000000000000000e+00) (0, 0, 0.00000000000000000000e+00) (0, 0, 0.00000000000000000000e+00) (0, 0, 0.00000000000000000000e+00) (0, 0, 0.00000000000000000000e+00) (0, 0, 0.00000000000000000000e+00) (0, 0, 0.00000000000000000000e+00) (0, 0, 0.00000000000000000000e+00) (0, 0, 0.00000000000000000000e+00) (0, 0, 0.00000000000000000000e+00) (0, 0, 0.00000000000000000000e+00) (0, 0, 0.00000000000000000000e+00) (0, 0, 0.00000000000000000000e+00) (0, 0, 0.00000000000000000000e+00) (0, 0, 0.00000000000000000000e+00) (0, 0, 0.00000000000000000000e+00) (0, 0, 0.00000000000000000000e+00) (0, 0, 0.00000000000000000000e+00) (0, 0, 0.00000000000000000000e+00) (0, 0, 0.00000000000000000000e+00) (0, 0, 0.00000000000000000000e+00) (0, 0, 0.00000000000000000000e+00) (0, 0, 0.00000000000000000000e+00) (0, 0, 0.00000000000000000000e+00) (0, 0, 0.00000000000000000000e+00) (0, 0, 0.00000000000000000000e+00) (0, 0, 0.00000000000000000000e+00) (0, 0, 0.00000000000000000000e+00) (0, 0, 0.00000000000000000000e+00) (0, 0, 0.00000000000000000000e+00) (0, 0, 0.00000000000000000000e+00) (0, 0, 0.00000000000000000000e+00) (0, 0, 0.00000000000000000000e+00) (0, 0, 0.00000000000000000000e+00) (0, 0, 0.00000000000000000000e+00) (0, 0, 0.00000000000000000000e+00) (0, 0, 0.00000000000000000000e+00) (0, 0, 0.00000000000000000000e+00) (0, 0, 0.00000000000000000000e+00) (0, 0, 0.00000000000000000000e+00) (0, 0, 0.00000000000000000000e+00) (0, 0, 0.00000000000000000000e+00) (0, 0, 0.00000000000000000000e+00) (0, 0, 0.00000000000000000000e+00) (0, 0, 0.00000000000000000000e+00) (0, 0, 0.00000000000000000000e+00) (0, 0, 0.00000000000000000000e+00) (0, 0, 0.00000000000000000000e+00) (0, 0, 0.00000000000000000000e+00) (0, 0, 0.00000000000000000000e+00) (0, 0, 0.00000000000000000000e+00) (0, 0, 0.00000000000000000000e+00) (0, 0, 0.00000000000000000000e+00) (0, 0, 0.00000000000000000000e+00) (0, 0, 0.00000000000000000000e+00) (0, 0, 0.00000000000000000000e+00) (0, 0, 0.00000000000000000000e+00) (0, 0, 0.00000000000000000000e+00) (0, 0, 0.00000000000000000000e+00) (0, 0, 0.00000000000000000000e+00) (0, 0, 0.00000000000000000000e+00) (0, 0, 0.00000000000000000000e+00) (0, 0, 0.00000000000000000000e+00) (0, 0, 0.00000000000000000000e+00) (0, 0, 0.00000000000000000000e+00) (0, 0, 0.00000000000000000000e+00) (0, 0, 0.00000000000000000000e+00) (0, 0, 0.00000000000000000000e+00) (0, 0, 0.00000000000000000000e+00) (0, 0, 0.00000000000000000000e+00) (0, 0, 0.00000000000000000000e+00) (0, 0, 0.00000000000000000000e+00) (0, 0, 0.00000000000000000000e+00) (0, 0, 0.00000000000000000000e+00) (0, 0, 0.00000000000000000000e+00) (0, 0, 0.00000000000000000000e+00) (0, 0, 0.00000000000000000000e+00) (0, 0, 0.00000000000000000000e+00) (0, 0, 0.00000000000000000000e+00) (0, 0, 0.00000000000000000000e+00) (0, 0, 0.00000000000000000000e+00) (0, 0, 0.00000000000000000000e+00) (0, 0, 0.00000000000000000000e+00) (0, 0, 0.00000000000000000000e+00) (0, 0, 0.00000000000000000000e+00) (0, 0, 0.00000000000000000000e+00) (0, 0, 0.00000000000000000000e+00) (0, 0, 0.00000000000000000000e+00) (0, 0, 0.00000000000000000000e+00) (0, 0, 0.00000000000000000000e+00) (0, 0, 0.00000000000000000000e+00) (0, 0, 0.00000000000000000000e+00) (0, 0, 0.00000000000000000000e+00) (0, 0, 0.00000000000000000000e+00) (0, 0, 0.00000000000000000000e+00) (0, 0, 0.00000000000000000000e+00) (0, 0, 0.00000000000000000000e+00) (0, 0, 0.00000000000000000000e+00) (0, 0, 0.00000000000000000000e+00) (0, 0, 0.00000000000000000000e+00) (0, 0, 0.00000000000000000000e+00) (0, 0, 0.00000000000000000000e+00) (0, 0, 0.00000000000000000000e+00) (0, 0, 0.00000000000000000000e+00) (0, 0, 0.00000000000000000000e+00) (0, 0, 0.00000000000000000000e+00) (0, 0, 0.00000000000000000000e+00) (0, 0, 0.00000000000000000000e+00) (0, 0, 0.00000000000000000000e+00) (0, 0, 0.00000000000000000000e+00) (0, 0, 0.00000000000000000000e+00) (0, 0, 0.00000000000000000000e+00) (0, 0, 0.00000000000000000000e+00) (0, 0, 0.00000000000000000000e+00) (0, 0, 0.00000000000000000000e+00) (0, 0, 0.00000000000000000000e+00) (0, 0, 0.00000000000000000000e+00) (0, 0, 0.00000000000000000000e+00) (0, 0, 0.00000000000000000000e+00) (0, 0, 0.00000000000000000000e+00) (0, 0, 0.00000000000000000000e+00) (0, 0, 0.00000000000000000000e+00) (0, 0, 0.00000000000000000000e+00) (0, 0, 0.00000000000000000000e+00) (0, 0, 0.00000000000000000000e+00) (0, 0, 0.00000000000000000000e+00) (0, 0, 0.00000000000000000000e+00) (0, 0, 0.00000000000000000000e+00) (0, 0, 0.00000000000000000000e+00) (0, 0, 0.00000000000000000000e+00) (0, 0, 0.00000000000000000000e+00) (0, 0, 0.00000000000000000000e+00) (0, 0, 0.00000000000000000000e+00) (0, 0, 0.00000000000000000000e+00) (0, 0, 0.00000000000000000000e+00) (0, 0, 0.00000000000000000000e+00) (0, 0, 0.00000000000000000000e+00) (0, 0, 0.00000000000000000000e+00) (0, 0, 0.00000000000000000000e+00) (0, 0, 0.00000000000000000000e+00) (0, 0, 0.00000000000000000000e+00) (0, 0, 0.00000000000000000000e+00) (0, 0, 0.00000000000000000000e+00) (0, 0, 0.00000000000000000000e+00) (0, 0, 0.00000000000000000000e+00) (0, 0, 0.00000000000000000000e+00) (0, 0, 0.00000000000000000000e+00) (0, 0, 0.00000000000000000000e+00) (0, 0, 0.00000000000000000000e+00) (0, 0, 0.00000000000000000000e+00) (0, 0, 0.00000000000000000000e+00) (0, 0, 0.00000000000000000000e+00) (0, 0, 0.00000000000000000000e+00) (0, 0, 0.00000000000000000000e+00) (0, 0, 0.00000000000000000000e+00) (0, 0, 0.00000000000000000000e+00) (0, 0, 0.00000000000000000000e+00) (0, 0, 0.00000000000000000000e+00) (0, 0, 0.00000000000000000000e+00) (0, 0, 0.00000000000000000000e+00) (0, 0, 0.00000000000000000000e+00) (0, 0, 0.00000000000000000000e+00) (0, 0, 0.00000000000000000000e+00) (0, 0, 0.00000000000000000000e+00) (0, 0, 0.00000000000000000000e+00) (0, 0, 0.00000000000000000000e+00) (0, 0, 0.00000000000000000000e+00) (0, 0, 0.00000000000000000000e+00) (0, 0, 0.00000000000000000000e+00) (0, 0, 0.00000000000000000000e+00) (0, 0, 0.00000000000000000000e+00) (0, 0, 0.00000000000000000000e+00) (0, 0, 0.00000000000000000000e+00) (0, 0, 0.00000000000000000000e+00) (0, 0, 0.00000000000000000000e+00) (0, 0, 0.00000000000000000000e+00) (0, 0, 0.00000000000000000000e+00) (0, 0, 0.00000000000000000000e+00) (0, 0, 0.00000000000000000000e+00) (0, 0, 0.00000000000000000000e+00) (0, 0, 0.00000000000000000000e+00) (0, 0, 0.00000000000000000000e+00) (0, 0, 0.00000000000000000000e+00) (0, 0, 0.00000000000000000000e+00) (0, 0, 0.00000000000000000000e+00) (0, 0, 0.00000000000000000000e+00) (0, 0, 0.00000000000000000000e+00) (0, 0, 0.00000000000000000000e+00) (0, 0, 0.00000000000000000000e+00) (0, 0, 0.00000000000000000000e+00) (0, 0, 0.00000000000000000000e+00) (0, 0, 0.00000000000000000000e+00) (0, 0, 0.00000000000000000000e+00) (0, 0, 0.00000000000000000000e+00) (0, 0, 0.00000000000000000000e+00) (0, 0, 0.00000000000000000000e+00) (0, 0, 0.00000000000000000000e+00) (0, 0, 0.00000000000000000000e+00) (0, 0, 0.00000000000000000000e+00) (0, 0, 0.00000000000000000000e+00) (0, 0, 0.00000000000000000000e+00) (0, 0, 0.00000000000000000000e+00) (0, 0, 0.00000000000000000000e+00) (0, 0, 0.00000000000000000000e+00) (0, 0, 0.00000000000000000000e+00) (0, 0, 0.00000000000000000000e+00) (0, 0, 0.00000000000000000000e+00) (0, 0, 0.00000000000000000000e+00) (0, 0, 0.00000000000000000000e+00) (0, 0, 0.00000000000000000000e+00) (0, 0, 0.00000000000000000000e+00) (0, 0, 0.00000000000000000000e+00) (0, 0, 0.00000000000000000000e+00) (0, 0, 0.00000000000000000000e+00) (0, 0, 0.00000000000000000000e+00) (0, 0, 0.00000000000000000000e+00) (0, 0, 0.00000000000000000000e+00) (0, 0, 0.00000000000000000000e+00) (0, 0, 0.00000000000000000000e+00) (0, 0, 0.00000000000000000000e+00) (0, 0, 0.00000000000000000000e+00) (0, 0, 0.00000000000000000000e+00) (0, 0, 0.00000000000000000000e+00) (0, 0, 0.00000000000000000000e+00) (0, 0, 0.00000000000000000000e+00) (0, 0, 0.00000000000000000000e+00) (0, 0, 0.00000000000000000000e+00) (0, 0, 0.00000000000000000000e+00) (0, 0, 0.00000000000000000000e+00) (0, 0, 0.00000000000000000000e+00) (0, 0, 0.00000000000000000000e+00) (0, 0, 0.00000000000000000000e+00) (0, 0, 0.00000000000000000000e+00) (0, 0, 0.00000000000000000000e+00) (0, 0, 0.00000000000000000000e+00) (301, 14, 2.50000000000000000000e-01) (302, 14, 5.00000000000000000000e-01) (303, 10, 7.50000000000000000000e-01) (304, 5, 5.00000000000000000000e-01) (304, 5, 5.00000000000000000000e-01) (304, 5, 5.00000000000000000000e-01) (304, 5, 5.00000000000000000000e-01) 
connections (connected_to_neuron, weight)=(0, 2.04857561482305827738e+00) (1, 6.80397306936878498718e-01) (2, 1.27748325455543199070e+00) (3, 1.09273302295915275550e+00) (4, 1.95453825682064152858e+00) (5, 1.28885826273902903694e+00) (6, 1.26195303978645445575e+00) (7, 1.62103695382650903056e+00) (8, 1.91235295363012625103e+00) (9, 4.79929946730217271700e-01) (10, 1.51940715496102130011e+00) (11, 1.23240077678719317511e+00) (12, 1.18777320684238651971e+00) (13, 1.76943158926042776180e+00) (14, 1.24048049328057663487e+00) (15, 1.86751878002397164735e+00) (16, 2.08672806549012124222e+00) (17, 2.26113668152456925853e+00) (18, 2.00788623634082918912e+00) (19, 2.08113018972394137052e+00) (20, 1.43690414031419844143e+00) (21, 1.55491793055422777847e+00) (22, 8.15177654454966815756e-01) (23, 1.78912922754829550875e+00) (24, 9.46930430598711958545e-01) (25, 1.76876428362864146493e+00) (26, 5.85586647900627177421e+00) (27, 2.12458866303769200456e+00) (28, 8.77905172952125445462e-01) (29, 1.26295786481638527832e+00) (30, 2.07774698351656672557e+00) (31, 9.59128691872886407488e-01) (32, 3.99842525690263705940e+00) (33, 7.32958307745364412433e-01) (34, 1.58257734656381177096e+00) (35, 1.24781398839841739523e+00) (36, 1.99269665021403441507e+00) (37, 1.11003300905279833621e+00) (38, 2.34812434560140292916e+00) (39, 1.13790864924749124398e+00) (40, 7.33273896038948547194e-01) (41, 1.72439793894875004199e+00) (42, 2.30326291189002141380e+00) (43, 1.66321585318031162082e+00) (44, 2.68587407024076485484e+00) (45, 1.06110244129222941467e+00) (46, 1.09637012635850572551e+00) (47, 8.95637261764127945440e-01) (48, 1.06593602617428295787e+00) (49, 1.02213882873673878038e+00) (50, 2.06881843428760747727e+00) (51, 1.53078443945468323228e+00) (52, 2.00247476745611452387e+00) (53, 9.49309350886889835586e-01) (54, 1.18350998426687659126e+00) (55, 6.92056838534093277104e-01) (56, 4.06815952979028772063e+00) (57, 7.22505200819886783670e-01) (58, 2.53040774783583610752e-01) (59, 7.48700348213837685307e-01) (60, 1.73060439947564370655e+00) (61, 2.20833078061029963735e+00) (62, 2.85663682659974371703e+00) (63, 1.06867592930294530440e+00) (64, 3.98193726308903817035e-01) (65, 3.19982656071678694953e-01) (66, 1.84887284347493108250e+00) (67, 2.18548090325810129286e+00) (68, 8.39906842146581178454e-01) (69, 2.14423729640963500742e+00) (70, 1.62359537218383032098e-01) (71, -3.18497029804135300957e-01) (72, 1.33222346163530280805e+00) (73, 8.52136517380742475325e-01) (74, 3.76735792596698537693e-01) (75, 2.30925446617568574936e+00) (76, 1.26907581245593692465e+00) (77, 7.24177205715625715854e-01) (78, 6.40769610246769483197e-01) (79, 2.09362495419055649748e+00) (80, 1.56954319767784244988e+00) (81, 1.17060639112886288871e+00) (82, 1.35357546054549837677e+00) (83, 2.24241978841130729094e+00) (84, 1.53800639079581502600e+00) (85, 1.89448208291425812533e+00) (86, 1.61307324562041398686e+00) (87, 1.63532687470984505751e+00) (88, 6.38206826009422134582e-01) (89, 2.34747832783587462302e+00) (90, 1.80389994862057467806e+00) (91, 1.65316635259179900430e+00) (92, 1.30499813922204199734e+00) (93, 9.66123348012162819209e-01) (94, 6.14786490545045194445e-01) (95, 1.99195478001209802521e+00) (96, 8.52403592471873805536e-01) (97, 9.30970903253237724861e-01) (98, 1.43246243706018461239e+00) (99, 1.52002099927805955915e+00) (100, 2.11065880907167446878e+00) (101, 2.20792377841997344845e+00) (102, 1.95075099841581756088e+00) (103, -1.75049736186208382271e+00) (104, 7.39711970917683703242e-01) (105, 2.39302722034719028699e+00) (106, 1.16360796045767722617e+00) (107, 8.50846278816097623121e+00) (108, 9.22036545191714629333e-01) (109, 1.11506990515188375568e+00) (110, 2.05326626252881716539e+00) (111, 2.45468677615527219871e+00) (112, 2.13704835644198887223e+00) (113, 2.02298902391827217784e+00) (114, 1.28519412925728770958e+00) (115, 1.01105284054160260432e+00) (116, 3.46864094808371259404e+00) (117, 6.23377815057663986487e-01) (118, 2.09219537427583945899e+00) (119, 2.35232209693315041932e+00) (120, 1.95302526712419455279e+00) (121, 1.52142337582000997109e+00) (122, 1.94816494676583418233e+00) (123, 1.07978758550375308900e+00) (124, 1.93663309156711460624e+00) (125, -3.31105771377720792259e-01) (126, 6.70591296602513708969e-01) (127, 4.30940379317231003764e-01) (128, 5.34592381978105990470e+00) (129, 1.81473208685492526371e+00) (130, 1.92203523606055926010e+00) (131, -6.79710008788670361213e+00) (132, 1.94227134592018613191e+00) (133, 1.15714721207982096374e+00) (134, 2.71959191838581215706e+00) (135, 2.28205805343185330614e+00) (136, 8.52675107925713215984e-01) (137, 1.26305404755135386452e+00) (138, 2.22774219574983245451e+00) (139, 1.36627576138857764754e+00) (140, 1.27716689365524560529e+00) (141, 1.63695981993423145262e+00) (142, 2.05682955537023648418e+00) (143, 1.98202248522124402363e+00) (144, 1.02710423236703185523e+00) (145, 3.34247887146755462418e-01) (146, 1.84532127694498226944e+00) (147, 1.57799521202028691924e+00) (148, 1.40990434420106924840e+00) (149, 2.71415802255194815729e+00) (150, 1.37018367192403944799e+00) (151, 2.13196693210078835889e+00) (152, 1.20903498518057728184e+00) (153, 4.47774029298721565340e-01) (154, 2.11127129021003412390e+00) (155, 1.16096899393932169176e+01) (156, 1.92733133899373432207e+00) (157, 7.18883645597094944613e-01) (158, 1.48244856365757149419e+00) (159, 1.04975126474134072829e+00) (160, 2.66097195579257572717e+00) (161, 1.73817922677403524645e+00) (162, 2.06275008845715523975e+00) (163, 1.39749905796757278864e+00) (164, 1.64003895819561540392e+00) (165, 1.60750098831156873480e+00) (166, 1.72604690892115608669e+00) (167, 8.29112733509392629827e-01) (168, 1.74976655426654859049e+00) (169, 1.32120490293342807142e+00) (170, 1.74224109078735489575e+00) (171, 9.77885217359335978671e-01) (172, 9.67596796866106112489e-01) (173, 3.53853321076385185506e+00) (174, 1.68292768566596828705e+00) (175, 1.69545285299739090235e+00) (176, 1.25094072955478896603e+00) (177, 1.44601452707512012630e+00) (178, 1.49433097241811707612e+00) (179, 4.48169805814694743873e+00) (180, 7.71197326031572538696e-01) (181, 2.21028810790158036781e+00) (182, 1.05604971000658331981e+00) (183, 1.66375020094596015596e+00) (184, 2.43662517121057753400e+00) (185, 1.20847259213764712804e+00) (186, 2.30886196329426196527e+00) (187, 1.70075315819279437868e+00) (188, 1.49750188531380068468e+00) (189, 1.35760452408004272939e+00) (190, 5.47294011214791598086e-01) (191, 9.20590438126064891655e-01) (192, 1.61050949137316545823e+00) (193, 2.17500419603030969995e+00) (194, 3.60749309324784828146e-01) (195, 9.18844734111184724412e-01) (196, 4.80067469421260384355e-01) (197, -1.55676713350004525260e+00) (198, 9.74646022121886668188e-01) (199, 8.45544476226547492281e-01) (200, 2.22988566514797792451e+00) (201, 4.47337273658653944430e-01) (202, -2.35955697909050510219e+00) (203, 1.26047211175782131187e-01) (204, 1.14273149678110175209e+00) (205, 2.11183684138898275506e+00) (206, 2.01435785211102302839e+00) (207, 1.98997159797087008748e+00) (208, 5.16061564115610105219e-01) (209, 4.80025690721662678939e-01) (210, 9.85202511989392570868e-01) (211, 1.37923741684437084487e+00) (212, 4.99855566029764109004e-01) (213, 1.86702757723045897897e+00) (214, 6.67856617222971182812e-01) (215, 7.15330411495521012455e-01) (216, 8.46833792103031668397e-01) (217, 8.33556405585940796144e-01) (218, 1.63293616858134282843e+00) (219, 2.23652135094694237694e+00) (220, 1.68468681218049987081e+00) (221, 2.14455129599554572550e+00) (222, 1.08500078510999919956e+00) (223, 9.13566060577202576631e-01) (224, 1.86927878056802443396e+00) (225, 1.12480612419204950569e+00) (226, 1.50931925946287148754e+00) (227, 6.25444797692333076533e-01) (228, 2.25621261191487665343e+00) (229, 2.19487353893102010716e+00) (230, 1.14111722005501681210e+00) (231, 2.09549272097606209542e+00) (232, 2.24154344046455111794e+00) (233, 1.51269242870382725208e+00) (234, 6.59980687952611999592e-01) (235, 1.00149121464914636626e+00) (236, 1.49608032105657029476e+00) (237, 2.25868478080354995186e+00) (238, 6.74288688365817900916e-01) (239, 2.00052702131180382139e+00) (240, 9.58371058446354839866e-01) (241, 1.32197113337535565591e+00) (242, 1.20819795156593068342e+00) (243, 1.31802814438979343237e+00) (244, 6.89742820044433546656e-01) (245, -2.30493660938875111199e+00) (246, 1.82301743790623116404e+00) (247, 1.05542092564441247760e+00) (248, 1.75042116411968140532e+00) (249, 1.50702546289411576375e+00) (250, 8.12545076418260348028e-01) (251, 1.13924800650001811775e+00) (252, 1.49989454194289417721e+00) (253, 1.73357859446252615676e+00) (254, 1.75917525670248497960e+00) (255, 1.04120628523636726825e+00) (256, 2.24051413310955432889e-01) (257, 1.07496087065538881156e+00) (258, 1.53277343150671607752e+00) (259, 2.39167603283839147466e+00) (260, 1.11348842535481362681e+00) (261, 2.18370675291779070548e+00) (262, 1.91348669568429596843e+00) (263, 8.02555195919294028783e-01) (264, 1.52607136219294403645e+00) (265, 2.45116809595767914942e+00) (266, 1.83961297172881232953e+00) (267, 5.62251163358229333333e-01) (268, 2.16536837309244090122e+00) (269, 1.99183833659788556147e+00) (270, 5.43683301695265241982e-01) (271, 9.88849525750826074955e-01) (272, 1.30557224624021817050e+00) (273, 1.54112885589602699454e+00) (274, 1.76503019117701076546e+00) (275, 1.51664805702111049612e+00) (276, 8.81258240622704969169e-01) (277, 1.46121128805595956734e+00) (278, 5.66817681163927278298e-01) (279, 6.84621946223998967263e-01) (280, 4.41327708249410810559e-01) (281, 8.67487493075341453697e-01) (282, 1.65731975446831403254e+00) (283, 1.79805234545731495999e+00) (284, 2.38570996932525725143e+00) (285, 1.38595813709259929603e+00) (286, 2.68986763840040610241e-01) (287, 2.78248609686630621329e-01) (288, 2.12739784207249460479e+00) (289, 1.70703844114774572205e+00) (290, 2.42197557766672533219e+00) (291, 7.87214488440384219103e-01) (292, 1.32090440592510427464e+00) (293, 1.98537954643499636731e+00) (294, 1.47910340589709021764e+00) (295, 6.78040539333698677460e-01) (296, 2.14856887398430052016e+00) (297, 7.71216874020403952983e-01) (298, 7.50386563978043819034e-01) (299, 1.89362439318641673225e+00) (300, -1.29936034609713146892e+00) (0, -1.00396858576565017884e+00) (1, -5.11871607610570933389e-01) (2, 7.07749512695438620646e-01) (3, -3.79480582419409628869e-01) (4, -2.78170057739204001912e-01) (5, 6.05522024124133140255e-01) (6, -6.51747709396602314946e-01) (7, -3.55984597735367003235e-01) (8, 4.52643503614483799780e-02) (9, 3.62608987149224515356e-01) (10, 6.05627200084136285696e-01) (11, -5.67821809257453513631e-01) (12, -3.61411492214340934748e-01) (13, -1.95538319414549049968e-01) (14, 1.72918982803403786797e-01) (15, -5.40449399551088505156e-01) (16, 8.66105085728010593016e-01) (17, 8.32979804394087253172e-01) (18, -7.63877348543351097909e-01) (19, -1.37281141344014168126e+00) (20, -1.04134833180307007083e+00) (21, -2.95654450709557314880e-01) (22, 6.38231833314953922454e-01) (23, 2.32922238975573625552e-01) (24, -9.54170779871475360778e-01) (25, -1.45310442736449574319e+00) (26, -4.84952127516989461853e-01) (27, -5.93223449000704117218e-01) (28, 1.16009277221478046549e+00) (29, -1.98434316902303779784e-02) (30, -3.77898834647175718704e-01) (31, -4.96483862987665169886e-01) (32, 5.34234080207353523306e-01) (33, -5.20613023041951783476e-01) (34, 1.04558312144001588906e-01) (35, -5.43007762116104020222e-01) (36, -2.20549867499022944628e+00) (37, -1.14318666754049802492e+00) (38, 1.54320636081731576983e-01) (39, -1.55967593027547313245e-01) (40, 9.28679951286218025031e-02) (41, -6.65219425314513418401e-02) (42, -1.14129295148832965445e+00) (43, -6.95993264399064393011e-01) (44, 1.17686642164303134628e+00) (45, -6.15852310887593096256e-02) (46, -1.09981238550733140258e+00) (47, 7.68953067428167602593e-01) (48, -1.56771945802585754848e+00) (49, -4.17282875044745482640e-01) (50, 1.69946598589520575517e-01) (51, 1.12577389091077159633e-01) (52, -5.31738060348932117805e-01) (53, -5.36720870650850168104e-01) (54, -1.94695405361687190471e+00) (55, -1.03025511469207331494e+00) (56, 7.12672855289966822312e-01) (57, -7.35867428949842583563e-01) (58, -5.62923651845342098987e-01) (59, 1.09290865602615708263e-01) (60, 2.94389173564249317927e-01) (61, 5.21329600324146880119e-01) (62, 3.15262878268326274256e-01) (63, -1.85505804019215590761e-02) (64, 1.23804664040912415501e+00) (65, 6.52972014449364479560e-01) (66, -9.22900172867017198897e-01) (67, -6.06297256461658440330e-01) (68, 3.28231456273208210828e-01) (69, -1.95879148711500666868e-01) (70, 5.27236111799292417324e-01) (71, 9.81127696258644932392e-01) (72, -8.27513167517816450314e-01) (73, -1.73095396934645345821e-01) (74, 4.24034795318388391117e-01) (75, -7.13280397012400646517e-01) (76, 1.01129873340197562470e+00) (77, -1.65502713278073060321e-01) (78, -1.02370861270087631922e+00) (79, -5.53267032914246725817e-01) (80, 2.12117599194510342286e-01) (81, -2.00747390596110886207e+00) (82, 5.12149661199556738289e-01) (83, 2.13382204475068282257e-02) (84, -1.58188153782232188149e+00) (85, -7.96831512932586361053e-01) (86, 1.04764280732231340743e+00) (87, -1.96033760862892325605e+00) (88, -2.03513588428791220020e-01) (89, 5.69565154510143778488e-01) (90, 4.72563238045315137104e-01) (91, -4.61531141303954284272e-01) (92, 5.01668345061729414880e-01) (93, -3.92956105979745395906e-01) (94, 9.28730274505450981160e-01) (95, 4.90965575965217504439e-01) (96, -5.51810890092689465547e-01) (97, -9.96220851245247784878e-02) (98, 4.32056717615565299973e-01) (99, 1.82923610048118828741e-01) (100, 1.29876896553933884881e+00) (101, -1.16163159471431715053e-01) (102, 4.00825802594833136006e-01) (103, 4.08650028067428949807e-01) (104, 5.78257404605792349472e-03) (105, 1.11952918501815479324e+00) (106, 7.96738394265880001122e-01) (107, 2.40177396550102228989e-02) (108, -3.50308615173464329984e-02) (109, 1.42222755221631053102e-01) (110, -8.04540181803945708694e-01) (111, 8.07437504994811372505e-01) (112, 1.29218077717539547855e+00) (113, 3.79934725495352398905e-01) (114, -3.63727353711550294157e-01) (115, -4.90214386667397195030e-01) (116, -6.54240972862878966687e-01) (117, -5.97263641466431849381e-01) (118, 7.53166788216574456527e-01) (119, 1.65849010641657002019e+00) (120, -6.44300728021563795522e-01) (121, -6.72525012720228132501e-01) (122, 7.19984802472743323776e-01) (123, 3.42644708247100915344e-01) (124, 6.27005204530923676565e-01) (125, -3.07074039464122838794e+00) (126, -5.17028381507075751600e-01) (127, -1.91545420658408960257e-01) (128, 4.74604785771571113795e-01) (129, 3.45054148360481094393e-01) (130, 4.21742542402281817004e-01) (131, 9.23200968808887689754e-01) (132, 5.62331675552218482328e-02) (133, 1.40492752447431246132e+00) (134, 3.51748419852968674526e-01) (135, 1.25863426344966766735e+00) (136, 4.19726372832972405291e+00) (137, 1.56432924412297347239e+00) (138, -4.28915387603823305973e-01) (139, -4.97794795662853950535e-01) (140, 3.60355381690959097885e-01) (141, 5.30248786043816977553e-01) (142, 1.04132269231963014988e+00) (143, 1.40549624559429076065e+00) (144, 1.25299739039072521862e+00) (145, -8.97109816926282666039e-01) (146, 1.73302755947422215677e+00) (147, 2.98741260247299633690e-01) (148, 5.45389940231806868987e-01) (149, -8.54382969361566435573e-01) (150, -2.07282066219915163396e-02) (151, 4.54897973586654513767e-01) (152, 4.01710124917638244924e-01) (153, -3.05472892248140837079e-01) (154, 1.41664235289244300198e+00) (155, 1.13784117389319527902e+00) (156, 5.91253415240147739418e-01) (157, 1.42335303801304879912e+00) (158, 7.00659817728004563619e-01) (159, -3.35742956806370895784e-01) (160, 3.36205609738228994310e-01) (161, -5.41700190003048476228e-01) (162, 1.32888517455671362200e+00) (163, 1.69063171080716911909e+00) (164, 1.77539112702553314449e+00) (165, -2.05663476129712641249e-01) (166, 7.00514061623759953790e-01) (167, 1.85122838049289417661e-01) (168, -5.19078403374884311816e-01) (169, 2.35146851823223634881e+00) (170, 2.08558284000020321969e+00) (171, -2.61739502177695260166e-01) (172, 4.35293816376758235798e-01) (173, 5.62859956280378881388e-01) (174, 7.81148937442274537979e-01) (175, 1.99315584124602818150e+00) (176, 2.49463635173237818776e+00) (177, 2.72672516306659062924e-01) (178, -6.32823620713175549746e-01) (179, 1.85742212891647962003e+00) (180, 4.72572234370679411519e-01) (181, 1.48249750255908074870e+00) (182, 2.06679972617693746839e-01) (183, 8.04258571187096982236e-01) (184, 4.42414670161896728118e-01) (185, 1.92903895996033147853e+00) (186, 2.98964842074135983552e-01) (187, 2.94526185446754018571e-01) (188, 1.25882935532965856140e+00) (189, -9.14185855752853826495e-01) (190, 6.49959981127967045822e-01) (191, 1.35973295554024353748e+00) (192, 1.15801413187160529006e+00) (193, 1.15570401544237144620e+00) (194, 1.69848737156755680289e+00) (195, 1.00492384720828997757e-01) (196, 1.16979267323281166391e+00) (197, 8.02799018893929461349e-01) (198, 1.18895798685329734390e+00) (199, -2.00023984629854240103e-01) (200, 1.26056789533464086439e+00) (201, -2.82908505607793070435e-01) (202, -3.35292363269614368537e-01) (203, -5.81224897075030555449e-01) (204, 7.82015991497185258829e-01) (205, 8.33692471297955567389e-02) (206, 1.50207779460850465725e+00) (207, -3.66057129741483466834e-01) (208, 1.00570661085845891591e+00) (209, 7.08674397763656482852e-01) (210, -2.81694826440590850858e-01) (211, 1.03062933021276070811e+00) (212, 4.16599162044584359066e-01) (213, -2.88621151697829980698e-01) (214, 5.54973468201654274168e-01) (215, 1.67957869892278427448e-01) (216, -4.82093097885431032257e-01) (217, 3.93824217221392602895e-01) (218, -1.10638148585681037050e-02) (219, -1.09050208458561392888e+00) (220, -2.20820009185845073096e-01) (221, 3.53782646071008288757e-01) (222, 7.61435322002109393758e-01) (223, 5.73210139268253926481e-01) (224, 8.46214465261317827505e-01) (225, 4.51078325642996269540e-01) (226, -1.03231766106987921106e+00) (227, -9.85381385987160962614e-01) (228, -2.65082778652490469451e-01) (229, 1.55523829987326145385e+00) (230, 4.14913701283237401629e-01) (231, -9.03109552428515538480e-01) (232, -1.48170535587700019642e-01) (233, -9.09755757688891220081e-02) (234, -4.44851647262674509964e-01) (235, -6.47095844140812559431e-01) (236, 1.16754885861638180167e+00) (237, -2.04345878115264367736e+00) (238, -1.08610874649552680005e+00) (239, -4.37950934903851507585e-01) (240, -9.57763822281900822908e-01) (241, 6.11365743154904994761e-01) (242, 1.39846215144633106986e-01) (243, -1.66705644045051215585e+00) (244, -1.74925039619259514723e+00) (245, -4.21396705559484510695e-02) (246, -5.76586796788888911180e-01) (247, 7.60191169368961833230e-02) (248, -2.66265912443533619980e-02) (249, -1.58777350604089417807e+00) (250, 1.98391664818264645831e-01) (251, -8.55920979931204084501e-01) (252, -6.59803449706912736872e-01) (253, -8.10034189506489143984e-02) (254, -1.05646900590299908096e+00) (255, 3.36438001725066382352e-01) (256, -3.65358817285451720203e-01) (257, -9.31453953220639618849e-01) (258, -8.26756119327426652887e-01) (259, 3.96002098022695259161e-01) (260, -1.02491902294020942321e+00) (261, 3.37258971270384469432e-02) (262, 6.56925584011386676231e-01) (263, -4.12034986982927758925e-02) (264, -6.85467183189273576716e-01) (265, -6.86879939808124451162e-01) (266, 3.94497990653320085297e-01) (267, -1.09320416831900546484e+00) (268, -3.04095898442300893727e-01) (269, -3.51491890677688156863e-01) (270, 2.05270169805194635515e-01) (271, -1.84909916784531447309e-01) (272, -5.85530877068238697625e-01) (273, 7.67699363768421072507e-01) (274, 5.68690893264444663480e-01) (275, 9.95053446836866375969e-03) (276, 5.59852717946672462368e-01) (277, -9.28184357735403198220e-01) (278, -7.37840526563243392921e-01) (279, -1.04187408950929016882e+00) (280, -9.66100406349128526529e-02) (281, 5.03987258172240326637e-01) (282, 2.38312199741658015117e-01) (283, 3.35931867230065184238e-01) (284, -3.31441370987678840532e-01) (285, 3.17649186227804303240e-01) (286, -2.23955722131205875458e-01) (287, 3.57418565779882735356e-01) (288, 3.96373188141233678827e-01) (289, 4.33107014206431974179e-03) (290, -1.01845732055519472281e-01) (291, 5.26665466552598493521e-01) (292, -8.14640441988327523859e-01) (293, -3.11406532381392375797e-01) (294, -5.39581762749170246174e-01) (295, -1.02027385769455447573e+00) (296, 2.97890824427293199328e-02) (297, -9.84017222020053483611e-01) (298, -3.88256805031653218219e-01) (299, -1.06174767577654693973e+00) (300, 1.64421986938725850358e+00) (301, -1.02077301558166544382e+00) (0, 6.24996686716999683142e+00) (1, 6.87173516293491992712e+00) (2, 7.33151716729130420447e+00) (3, 7.64220220585789355994e+00) (4, 7.24938530465092334509e+00) (5, 7.09768051644291553259e+00) (6, 6.04876413186516437293e+00) (7, 7.29420430203404102087e+00) (8, 6.54474020739521655798e+00) (9, 6.58619917174305591345e+00) (10, 6.83284170170750293494e+00) (11, 6.52254611988987598181e+00) (12, 7.54700250168766650916e+00) (13, 6.63677585860218677283e+00) (14, 6.81725139161076221228e+00) (15, 6.05673009892429980994e+00) (16, 7.43338114758457813025e+00) (17, 6.45945317288365039587e+00) (18, 7.62765700360264453650e+00) (19, 7.46343667050327930212e+00) (20, 7.24356562634434375525e+00) (21, 7.41925997277226123572e+00) (22, 5.94512302418675098181e+00) (23, 5.92265448709454211951e+00) (24, 6.64164186259236011267e+00) (25, 6.89561087628330859900e+00) (26, 6.38717687865223560095e+00) (27, 6.81100309630360278845e+00) (28, 7.35041338940586719275e+00) (29, 6.01287776967014941931e+00) (30, 6.22274655838932666541e+00) (31, 7.78078562756504688025e+00) (32, 7.06501836319889697791e+00) (33, 7.73466927548374805212e+00) (34, 7.59844095250095996619e+00) (35, 6.48985678692783984900e+00) (36, 7.00780255337681445837e+00) (37, 5.82265801717962894202e+00) (38, 5.95951410373177203894e+00) (39, 7.73294825097050342322e+00) (40, 6.58926261206593189002e+00) (41, 6.97276122113194141150e+00) (42, 6.43094737072910938025e+00) (43, 6.31171814342465076209e+00) (44, 7.78994256993260059119e+00) (45, 7.42860419293369922400e+00) (46, 6.54885370274510059119e+00) (47, 7.39877671738590869666e+00) (48, 6.06351035078491840125e+00) (49, 6.35196364661183032752e+00) (50, 7.03766626854862842322e+00) (51, 7.48748142262425098181e+00) (52, 5.94667663415398273230e+00) (53, 7.16319472332920703650e+00) (54, 7.59054131051029834509e+00) (55, 6.76872391243900928259e+00) (56, 6.23425865908589038611e+00) (57, 6.15317118903126392127e+00) (58, 7.76013249894108447791e+00) (59, 7.76507753869022998572e+00) (60, 6.34645438929524097205e+00) (61, 6.15833208700146350623e+00) (62, 7.72131616612400684119e+00) (63, 7.59187824269261035681e+00) (64, 6.06845427294697437048e+00) (65, 7.49521011849369678259e+00) (66, 6.25718794008221301794e+00) (67, 7.25666231652226123572e+00) (68, 7.49827343960728320837e+00) (69, 6.39710748930897388220e+00) (70, 7.16506356736149463416e+00) (71, 6.26298911114658984900e+00) (72, 7.55027420063938770056e+00) (73, 7.77641648789372119666e+00) (74, 6.75511265536274585486e+00) (75, 7.51566977044071826697e+00) (76, 7.38047356148686084509e+00) (77, 7.48437172909702930212e+00) (78, 7.08989948769535693884e+00) (79, 7.62438947697605762244e+00) (80, 6.01178843518223438025e+00) (81, 6.30301878591503772498e+00) (82, 7.28732378025974902869e+00) (83, 6.13887048502888355017e+00) (84, 7.64661891003575000525e+00) (85, 7.05331820984806689978e+00) (86, 7.08799988766636523962e+00) (87, 6.05633062859501514197e+00) (88, 7.38689476986851367712e+00) (89, 7.02358538647617969275e+00) (90, 5.99686110754933032752e+00) (91, 5.90880213668074283362e+00) (92, 7.36232287426914844275e+00) (93, 5.89363027354206714392e+00) (94, 7.68108565350498828650e+00) (95, 7.61118263741459522009e+00) (96, 7.56924576302494678259e+00) (97, 6.11372668286289844275e+00) (98, 7.04329795380558643103e+00) (99, 7.24297220250095996619e+00) (100, 6.69123960276569995642e+00) (101, 6.38381452103581104041e+00) (102, 7.68636686345066699744e+00) (103, 6.41696680327381763220e+00) (104, 6.33568388958897266150e+00) (105, 6.61693251868214282752e+00) (106, 6.10808954378094348669e+00) (107, 3.95277045817602523670e+00) (108, 6.27675724764790210486e+00) (109, 7.37839443226780566931e+00) (110, 7.69640535851444873572e+00) (111, 6.46895111342396411658e+00) (112, 5.85686619569983157874e+00) (113, 3.65166309490122564796e+00) (114, 6.78822702904667529822e+00) (115, 7.68389064808811816931e+00) (116, 6.38795322915043506384e+00) (117, 6.05167994638409290076e+00) (118, 5.91567422439779910803e+00) (119, 2.44278194024481631885e+00) (120, 7.25567073365177783728e+00) (121, 6.09294075509037647009e+00) (122, 6.03950852890934619666e+00) (123, 6.79344666739430103064e+00) (124, 6.16697645922627124548e+00) (125, 2.38852825030007220874e+00) (126, 6.58008224507298145056e+00) (127, 5.91167522211994800330e+00) (128, 6.19017941494908008337e+00) (129, 7.80378562947239551306e+00) (130, 7.33505291481938037634e+00) (131, 3.55430546417155035499e+00) (132, 6.36305309077229175330e+00) (133, 7.19687265892948779822e+00) (134, 7.65919668217625293494e+00) (135, 6.87914247055973682166e+00) (136, 5.98925822218384418250e+00) (137, 5.94273921092476520300e+00) (138, 6.95115835209812793494e+00) (139, 6.44642091532673511267e+00) (140, 7.50153905888523730994e+00) (141, 6.82301671048130664587e+00) (142, 7.09577745934452686072e+00) (143, 7.53881067772831592322e+00) (144, 6.15765175958599719763e+00) (145, 6.05945753296341571570e+00) (146, 7.39815432568516406775e+00) (147, 6.72601044913258228064e+00) (148, 6.29154289504017505408e+00) (149, 7.49423403283085498572e+00) (150, 6.85671681900944385291e+00) (151, 7.72761911889042529822e+00) (152, 7.76758021851505908728e+00) (153, 7.07663089772190723181e+00) (154, 6.69651872654881152869e+00) (155, 6.11000958820309314490e+00) (156, 7.15308351059879932166e+00) (157, 7.45700628300633105994e+00) (158, 6.20209024091686877966e+00) (159, 7.52366847535099658728e+00) (160, 7.43624491234745654822e+00) (161, 7.71754855652775439978e+00) (162, 6.76094586392368945837e+00) (163, 5.97475097318615588904e+00) (164, 7.08987433453526172400e+00) (165, 6.59559554596867236853e+00) (166, 7.03429884453739795447e+00) (167, 7.25953800221409473181e+00) (168, 6.71874017258610400916e+00) (169, 6.16091013689961108923e+00) (170, 2.37389286994256831775e+00) (171, 6.39573223134007129431e+00) (172, 7.16433221837010059119e+00) (173, 7.15759474774326953650e+00) (174, 6.10999593873943958044e+00) (175, 7.50238949795689258337e+00) (176, 3.88993874206461676124e+00) (177, 7.68855566521610889197e+00) (178, 6.40385282774891528845e+00) (179, 5.86445368816580447913e+00) (180, 7.35824269791569385291e+00) (181, 7.44097513695683154822e+00) (182, 4.26495912685312994483e+00) (183, 7.30127567788090381384e+00) (184, 6.69305897494282397986e+00) (185, 6.64444989701237354041e+00) (186, 7.59169084568943652869e+00) (187, 6.02159550031151447058e+00) (188, 4.33806921692121871814e+00) (189, 5.96923405667271289587e+00) (190, 7.72566933175053272009e+00) (191, 5.88860715170826587439e+00) (192, 5.86223566522326144934e+00) (193, 6.66206813593830737830e+00) (194, 6.04376355548824939490e+00) (195, 7.13251549740757617712e+00) (196, 7.43806917210545215369e+00) (197, 7.25846774121250781775e+00) (198, 6.56750643988575610877e+00) (199, 6.33226228495564136267e+00) (200, 7.59978336831059131384e+00) (201, 6.62932378788914355994e+00) (202, 6.90840000649418506384e+00) (203, 6.93956858654942188025e+00) (204, 5.96237161000694904089e+00) (205, 7.19880134602512988806e+00) (206, 6.61741108437504443884e+00) (207, 7.54023487111057910681e+00) (208, 7.06280989190067920447e+00) (209, 7.20166940232243213416e+00) (210, 7.58509392281498584509e+00) (211, 6.59650558968510303259e+00) (212, 6.81809747954334888220e+00) (213, 7.53302509327854785681e+00) (214, 6.07323435684170398474e+00) (215, 7.69156188508000049353e+00) (216, 6.35292804976429614783e+00) (217, 5.84037818936135444403e+00) (218, 5.88861038526024493933e+00) (219, 6.81024271985020313025e+00) (220, 5.99001767476524982214e+00) (221, 7.79468507309879932166e+00) (222, 6.87925536175694141150e+00) (223, 6.03265877803291949988e+00) (224, 6.63220632811512622595e+00) (225, 7.10342425843205127478e+00) (226, 7.34557957192387256384e+00) (227, 6.24572841068234119177e+00) (228, 6.53734511872257861853e+00) (229, 6.08853907128300342322e+00) (230, 6.75839609642948779822e+00) (231, 6.31258142729725513220e+00) (232, 6.89826828976597461462e+00) (233, 5.84224906367685470343e+00) (234, 7.43255550404514941931e+00) (235, 7.04104525586094531775e+00) (236, 7.22145587941136035681e+00) (237, 6.22541952868427905798e+00) (238, 6.75673312684025439978e+00) (239, 6.45971877118076953650e+00) (240, 7.60749430199589404822e+00) (241, 6.51728004952397022009e+00) (242, 7.23662979145970020056e+00) (243, 6.60104478140797290564e+00) (244, 6.22575820227589282752e+00) (245, 7.49026972790684375525e+00) (246, 6.46805966635670337439e+00) (247, 6.75909168263401660681e+00) (248, 7.51105327149357471228e+00) (249, 6.53707546730961475134e+00) (250, 7.74973983307804736853e+00) (251, 7.68147630234684619666e+00) (252, 6.50721365948643359900e+00) (253, 6.80444813509907397986e+00) (254, 5.88958813240255985022e+00) (255, 7.31982535859074268103e+00) (256, 6.08332539339985522986e+00) (257, 7.41557318707432422400e+00) (258, 7.74595922966923389197e+00) (259, 6.80107588311161670447e+00) (260, 7.68451768895115527869e+00) (261, 6.67980832596745166541e+00) (262, 7.29406280060734424353e+00) (263, 6.75823903819050464392e+00) (264, 6.70246279974903735877e+00) (265, 6.90207130452122363806e+00) (266, 5.97473730882134113074e+00) (267, 6.09937161942448291541e+00) (268, 7.30789620419468555212e+00) (269, 6.91187591095890674353e+00) (270, 6.73949582119908008337e+00) (271, 7.09084338685002002478e+00) (272, 7.60956139107670459509e+00) (273, 6.15157864232983264685e+00) (274, 5.86734125008310947180e+00) (275, 6.01077257832016620398e+00) (276, 7.82225365181889209509e+00) (277, 6.51580638428654346228e+00) (278, 6.95026964684452686072e+00) (279, 7.50875992318119678259e+00) (280, 7.23328728218998584509e+00) (281, 6.87546247979130420447e+00) (282, 7.36568922539677295447e+00) (283, 5.91595391174282703162e+00) (284, 5.85536357378091487647e+00) (285, 7.43568284054722461462e+00) (286, 7.41618461152043018103e+00) (287, 6.11909437914814624548e+00) (288, 7.02670902749027881384e+00) (289, 7.33759696026768359900e+00) (290, 7.10057575245823535681e+00) (291, 6.88667983551945361853e+00) (292, 6.19285822649922046423e+00) (293, 6.57009149332966480017e+00) (294, 5.82037177421821105838e+00) (295, 7.07572645684208545447e+00) (296, 7.65256804963078174353e+00) (297, 5.97551452358688983679e+00) (298, 7.35550350686039600134e+00) (299, 7.13591725369419727087e+00) (300, -5.32814425965275439978e+00) (301, -1.36191324333556851300e+00) (302, 1.99803925233413059992e+00) (0, -1.72881188559003612371e-01) (1, -1.13650620606811775248e-01) (2, -5.61411999177345022449e-02) (3, -1.82780719171595801287e-01) (4, -6.02732470198260483762e-01) (5, -5.99672619849630161859e-01) (6, -4.10766496350401105753e-02) (7, 3.31637702833067204988e-01) (8, -1.32965837134194575508e-01) (9, -2.26739411911562466218e-01) (10, -6.56689584092175260288e-01) (11, -6.27228254909898086389e-01) (12, 1.75168556442464977418e-02) (13, -1.21332579930024497816e-01) (14, -6.83699405832742468370e-01) (15, 3.76582613435639479427e-01) (16, -1.43353163489146312459e-01) (17, -1.03195711838988471443e-01) (18, 4.60382711506570271864e-02) (19, -5.10016815940868450951e-01) (20, -1.05047403645187653609e+00) (21, 8.84590072899718915522e-01) (22, -1.48485915969648440971e-01) (23, -7.88647796563530234515e-02) (24, 4.82038863367824865769e-01) (25, -4.75279602777565424176e-01) (26, -1.08111786159473655111e+00) (27, 8.86222995450894113212e-01) (28, -9.82992363827972503998e-02) (29, -1.05779008480362896050e-01) (30, 6.27886312479624897342e-01) (31, -1.60898098911718190340e-01) (32, -8.60779176236820653401e-01) (33, 9.25164325077568183708e-01) (34, -2.19663501629429380735e-01) (35, -5.47480269165691660338e-02) (36, 2.31277073594893745057e-01) (37, -5.99112993450589992328e-01) (38, -1.07668213550853142380e+00) (39, 8.84731785540958770575e-01) (40, -2.92586467460768551163e-01) (41, 4.42633568423147327753e-01) (42, 5.60751027171147442552e-01) (43, -2.55937148164057381994e-02) (44, -4.12439412776060887467e-01) (45, 9.98049629956241135531e-01) (46, -1.79275404551711842194e-01) (47, 9.93448384143242879674e-01) (48, 2.08218626835267039965e-02) (49, -2.83955015082071049459e-01) (50, -3.47737593518094012524e+00) (51, 1.01636454831020484058e+00) (52, -9.04306796496416209763e-01) (53, 5.02199892711175599480e-01) (54, 8.97916679268341288989e-01) (55, -5.69915219441185505467e-01) (56, -1.91560586848853353636e-01) (57, 9.92440425629083522452e-01) (58, -5.28913306074705102944e-01) (59, 6.65487831503668442190e-02) (60, 9.52358909659103858303e-01) (61, -5.97370183996117964931e-01) (62, -1.49014888449465060516e-01) (63, 1.02980521449400042044e+00) (64, -5.53216975451984671608e-01) (65, 5.29908764791923959578e-04) (66, 8.68196483342819624873e-01) (67, -6.12673998599849611857e-01) (68, -9.80727686338760638873e-03) (69, 8.93768126925443939790e-01) (70, -6.24722568703312997052e-01) (71, -2.69457053635106746903e-01) (72, 1.05967877255974984863e+00) (73, -3.31171853084763045949e-01) (74, 3.32371028547406188736e-01) (75, 4.57736215414422498160e-01) (76, -3.69530455446093197835e-01) (77, -1.22418731033132152652e-01) (78, 9.18524877458189559221e-01) (79, -2.87945367925137973852e-01) (80, -7.27827932675002842178e-02) (81, 1.05315582298550514118e+00) (82, 1.88416574986660784186e-01) (83, 6.58522688713001347338e-01) (84, 9.42997593608638995377e-01) (85, 2.29575733904022971643e-01) (86, -6.52125293702421227060e-01) (87, 1.27169285851682012378e+00) (88, 8.68407051854390571455e-02) (89, 1.36528231670586863711e-01) (90, 1.07399764188925805897e+00) (91, 1.46943869029057899711e-01) (92, -7.02858934825139503033e-01) (93, 1.43164063443111877483e+00) (94, -5.52052332223990638305e-01) (95, 2.18545124754694564118e-01) (96, 1.01543751405221693851e+00) (97, -1.03139259924082926645e+00) (98, -7.95906763364639391334e-01) (99, 2.00494974363514888438e+00) (100, -1.36343037970436986583e+00) (101, 8.75344538113602549378e-02) (102, 3.45552337134768294824e-01) (103, -2.43337804089256115603e+00) (104, -1.02413948623737649513e+00) (105, 1.97312269741887358343e+00) (106, -6.07356706841394866636e-01) (107, -3.30510439446622394932e-01) (108, 8.10521083670668218701e-01) (109, -1.01922820811472867319e+01) (110, -1.87359554213234469344e+00) (111, 2.44177650174079019507e+00) (112, 4.19905800736433548748e-02) (113, -3.53215393507775976545e-01) (114, 1.01817692264206072217e+00) (115, 2.00680366312185748390e-01) (116, 1.65585008234953634521e+00) (117, 2.94656904350637871559e+00) (118, -1.06681023911835551332e-01) (119, 4.41397738812351891902e-01) (120, 1.20506526496555466110e+00) (121, 2.62038039062853445049e-01) (122, 1.31854842066703592529e+00) (123, 4.21245879034450521061e+00) (124, -1.38107580427349230234e+00) (125, 2.69028344175449629638e-01) (126, 9.31058153545317068733e-01) (127, -8.43449270439916132247e-01) (128, 1.04709185709565430478e-01) (129, 7.40366018956853189081e+00) (130, -2.35731192031738423509e-01) (131, 3.76143766988420891195e-01) (132, 1.06810355258672440293e+00) (133, -1.05930810690281740349e+00) (134, 1.05287962016873667959e-01) (135, 2.45147577044376818733e+00) (136, -3.84611557709222751100e+00) (137, -9.28024180044914048793e-01) (138, 9.26227887759304868709e-01) (139, -1.48662328188521586370e+00) (140, 1.72587094105037114344e-01) (141, 1.03438374641730779224e+00) (142, -3.48208169890352259301e+00) (143, -6.04729044105887059146e+00) (144, 1.51620073413284806030e+00) (145, -8.29202293648814148241e-01) (146, 1.67224232137074269033e-01) (147, 6.33607515148856936804e-01) (148, -1.27375664654713105506e+00) (149, -3.79433025496834819279e+00) (150, 2.13097066198568629858e+00) (151, -7.24865117042671425196e-01) (152, 6.54245223793429198089e-01) (153, 1.07278780299698150991e+00) (154, -1.26656969328454716006e+00) (155, -1.76411099952864147689e+00) (156, 2.12305506448360814531e+00) (157, -1.94026199092025808390e+00) (158, -6.64612388166028744685e-01) (159, 1.17973836157610789677e+00) (160, -6.45768256363567383360e-01) (161, -6.09761303806278243123e-01) (162, 2.22603603596031351941e+00) (163, -1.57709606457987239203e+00) (164, -7.98612533244597688764e-01) (165, 1.27130044471495073921e+00) (166, -1.61834520346152466175e+00) (167, -6.02418949351735566466e-01) (168, 4.22847920073749072856e+00) (169, -2.35237910142092321308e+00) (170, -8.06250373492551797305e-01) (171, 1.34707208153610080714e+00) (172, -5.35271236832944818929e+00) (173, -8.19645186157456628884e-01) (174, 4.03105963119259325111e+00) (175, -1.55608975224944234839e+00) (176, -1.08437428644017641588e+00) (177, 9.32464843289676048599e-01) (178, -5.81383621761039304232e+00) (179, -1.54571804212590557803e+00) (180, 3.65290386887301110619e+00) (181, -8.66259583450370684865e-01) (182, -3.37869923942955618923e-01) (183, 5.94428508615050921193e-01) (184, -6.10977715419828104615e+00) (185, -3.73906051469929945341e+00) (186, 1.94542794144061748085e+00) (187, -6.13977017059077812000e-01) (188, -3.31489290619945475846e-01) (189, 6.70103048975839499235e-01) (190, -1.84534749805293407654e+00) (191, -2.28762403083199750142e+00) (192, 1.07033298885358418850e+00) (193, 1.16971650909686281095e-01) (194, -2.11058726482168390604e-01) (195, 4.97327614401744888539e-01) (196, -1.41721914721929276304e+00) (197, -5.09998731094770230143e-01) (198, 9.90418235829601090181e-01) (199, -3.45379794188719280168e-01) (200, -5.43789892712868566660e-02) (201, 1.09465195807046633547e+00) (202, -3.56997354287625690006e-01) (203, 2.22413179615656236843e-01) (204, 8.68281899930695266754e-01) (205, -1.98421046316316229685e+00) (206, -1.73703894530545438490e-01) (207, 5.96761790922066603926e-01) (208, -2.39943432651854693383e-01) (209, 3.15396307611417792138e-01) (210, 6.37120032760747023737e-01) (211, 2.30301519684971561786e-01) (212, -1.40074528498227518503e-01) (213, 4.88156566977467398782e-01) (214, -2.67803948437425720641e-01) (215, 5.06381414676484564730e-01) (216, 1.07352737593578745345e-01) (217, -9.98672251289513757122e-01) (218, -5.86507009442764681850e-01) (219, 9.87091181868444467185e-01) (220, -2.76336502167693232046e-01) (221, 3.93315686207510284422e-01) (222, 2.33428544713953911582e-01) (223, -1.08112046849571186158e+00) (224, -9.33891552810803271534e-01) (225, 9.50221121033096194353e-01) (226, 2.02070165539701612767e-01) (227, 5.34372871638080559897e-01) (228, 1.16010665474331281510e-01) (229, -1.13267040138581220887e+00) (230, -2.57895641316895574136e-01) (231, 5.16366559469055519394e-01) (232, 2.28859278103137331328e-01) (233, 3.21947394291786162523e-02) (234, 1.04331666261375383131e-01) (235, -8.10262773409825109994e-01) (236, -8.93388346720671022716e-02) (237, 9.94535700790061705234e-01) (238, 3.27814662332179762583e-01) (239, 5.39401132520069492848e-01) (240, 5.65615224793462254005e-02) (241, -6.58941225056575596852e-01) (242, -1.52289646564262859396e-01) (243, 9.27345206065667171380e-01) (244, 4.60625398409824915458e-01) (245, 5.52471135680321245864e-01) (246, 4.46083668050485826484e-01) (247, -7.41371998976225521361e-01) (248, -1.12551859153540032010e-01) (249, 4.55288456749464887086e-01) (250, 2.68998934670914457978e-01) (251, 3.65811160496527232322e-01) (252, 8.50398713660720839691e-01) (253, -9.77310660360422356341e-01) (254, -1.05654465661223009865e-01) (255, 3.76594068397981429630e-01) (256, 2.34323022866897712202e-01) (257, 4.43032947383516562123e-01) (258, 4.33401673358298988870e-01) (259, -1.00840332562211987266e+00) (260, -1.81642746977021457555e-01) (261, 9.44114680252218563261e-01) (262, -9.57830695478765897777e-02) (263, 4.42744898583828427885e-01) (264, 9.13790922616237843989e-01) (265, -2.05328138876650312383e+00) (266, -2.14168291308837716036e-01) (267, 8.85314684486375069739e-01) (268, -7.40078148948060260404e-02) (269, 5.07100435019790851676e-01) (270, 3.69888860578561351478e-01) (271, -1.63493787449283511926e+00) (272, -1.62195369285486667987e-01) (273, 9.15414867203187876399e-01) (274, 3.22336510665975739531e-01) (275, 4.64979742758765690613e-01) (276, 2.77176657889876276730e-01) (277, -1.81927561258406855771e+00) (278, -5.89002874738524195841e-01) (279, 8.92951931683044319854e-01) (280, 2.89609162329909741729e-01) (281, 1.01310279059355856646e+00) (282, -2.57477576291106902140e-01) (283, -2.11055384115716604398e+00) (284, -7.06544519591262187852e-01) (285, 8.83899662831655996698e-01) (286, 4.13759030257687177023e-01) (287, 8.17153986644851393351e-01) (288, -2.91350648317495852790e-01) (289, -1.97809364211251415000e+00) (290, -1.30235395714537061096e+00) (291, 8.47463727229935681606e-01) (292, 3.06708187056584924424e-01) (293, 8.20640807900622659687e-01) (294, -1.42888057590882161518e-01) (295, -1.59857041339950400882e+00) (296, -1.39681085128864435063e+00) (297, -1.86471281921353454480e-01) (298, -5.95110647600124553769e-01) (299, -3.78234036419618849245e-02) (300, 2.17938497587667390221e+00) (301, 2.12523975263342528308e+01) (302, 6.46458417501838500385e+00) (303, 8.43292353389645366057e-01) (0, 5.88433773879950772212e-01) (1, 5.84501141524836564933e-01) (2, 5.32263796546362022433e-01) (3, 5.74234318022944112414e-01) (4, -7.76443694087350644306e-02) (5, -9.73641526254498679283e-02) (6, 4.07756329754511537278e-01) (7, 1.23878018424985521934e-02) (8, 8.43129592966169669199e-03) (9, 5.61858560924746175402e-01) (10, -2.02325553430915905384e-01) (11, -4.88508954545308488049e-02) (12, 5.25127563895290916385e-01) (13, -1.38626926751882428857e-01) (14, -3.95020324948151674294e-02) (15, 4.30547666877532597685e-01) (16, -2.11643693196621851538e-01) (17, -2.51584213225749697695e-01) (18, -1.18020171741976293012e-01) (19, -3.13507941830542091743e-01) (20, -2.92274154282206377609e-01) (21, 5.22521876881580804586e-01) (22, -1.90385272378785358471e-01) (23, -2.97326810343317093910e-01) (24, -2.03650120883371393843e-01) (25, -6.49994272362458547221e-01) (26, -1.51465073931355598269e+00) (27, 5.25832056916418322245e-01) (28, -5.21830532687508785727e-01) (29, -3.15714964573039658102e-01) (30, -1.12016263794707748858e+00) (31, -1.55482659660374156196e+00) (32, -3.70404149292142070848e+00) (33, 4.61457708215529671669e-01) (34, -5.25308210647698614615e-01) (35, -3.76567362492075952130e-01) (36, -1.13823927238530586692e+00) (37, -1.86454153795660237947e+00) (38, -4.43044106195105680257e+00) (39, 4.91924755269578461991e-01) (40, -1.93049755710328585501e+00) (41, -1.17619503427132054973e+00) (42, -1.18216834261960457297e+00) (43, -4.45513566420036699611e+00) (44, -5.18277783561175198201e+00) (45, 4.89848397272155011706e-01) (46, -3.82839443828839476325e+00) (47, -1.43623646987635078531e+00) (48, -3.44293850905357967651e-01) (49, -5.31779034259962557485e+00) (50, -8.06427289010409609205e+00) (51, 4.62127109352893472582e-01) (52, -8.69203229285935385917e+00) (53, -1.41962970116824416245e+00) (54, -2.51336871438952613733e-01) (55, -1.32553099837720078646e+00) (56, -2.66383617894868951481e+00) (57, 5.28093871085622779127e-01) (58, -2.86458834167148790328e+00) (59, -1.53781387196158325636e+00) (60, -9.43988528229202650266e-02) (61, -1.84732900983930137251e+00) (62, -2.77761721597059807465e+00) (63, 6.05578483223523811319e-01) (64, -2.34380100156206472306e+00) (65, -1.57655669013946608814e+00) (66, -1.30406206566144794445e-01) (67, -1.33770638984198253496e+00) (68, -2.10428071506772695898e+00) (69, 6.11826176895405970946e-01) (70, -3.06509079245567850336e+00) (71, -2.70887059573852706507e+00) (72, -8.87893853786902165215e-02) (73, -1.27803942982639084924e+00) (74, -3.80513837801383703052e+00) (75, 5.50215735946575690285e-01) (76, -2.43404426409230589812e+00) (77, -2.64751878322535993959e+00) (78, -2.83900095227675140774e-02) (79, -8.60938718885591702801e-01) (80, -3.09411920132839846076e+00) (81, 5.75102430449501711429e-01) (82, -1.58963115436034652106e+00) (83, -1.43414360800500872983e+00) (84, -1.00406210620800323552e-01) (85, -4.60824811849486870585e-01) (86, -4.49811676309464569812e+00) (87, 6.14319267914948174969e-01) (88, -2.81288961719934338390e-02) (89, -1.43676675390501240592e+00) (90, 6.10975692371830469973e-01) (91, -1.69559471188743660086e+00) (92, -3.25621251548302659273e+00) (93, 4.93318309914203279032e-01) (94, 7.17907391435729569373e-01) (95, -3.18211755045210065163e+00) (96, 5.71052649556031743927e-01) (97, -3.23631526291243476479e+00) (98, -6.13953942553442200136e+00) (99, 6.28080950309998775616e-01) (100, 2.82995037889875433734e+00) (101, -7.20856565171996788166e+00) (102, 6.42968212176003084402e-01) (103, -6.98710688825915915423e-01) (104, -4.17723362655263308341e+00) (105, 5.76737449296174875535e-01) (106, 3.86002315360567607172e+01) (107, -5.08880292848580317866e+00) (108, 6.65188697984764432114e-01) (109, 7.31814139600035051814e-01) (110, -2.18589817013261106249e-01) (111, 3.07381277459026595877e-02) (112, 1.72876577838670222320e+01) (113, -2.45666008486207054773e+00) (114, 1.44280393933060668843e+00) (115, 8.88390750393024952736e-01) (116, 7.27640650876803629643e-01) (117, -1.25453658240530407930e+00) (118, 9.58190856958579750824e+00) (119, -4.21908556021165921379e+01) (120, 1.54285365104617899767e+00) (121, 1.05062078341939590942e+00) (122, 1.09799554779132635396e+00) (123, -9.57736111291479175200e-01) (124, 2.18274143087253058582e+01) (125, -9.18473175855097778708e+00) (126, 1.00681165713290043939e+00) (127, 2.14306981844588584352e+00) (128, 1.17150885858154785168e+00) (129, -1.26179591256351564255e+00) (130, 1.83793206382895348838e+01) (131, -1.28541706400209037042e+01) (132, 7.40612540445276135159e-01) (133, 5.70251104956087306874e+00) (134, 1.16953148185433408734e+00) (135, -1.27122350523535332378e+00) (136, 6.69960574047304504575e+01) (137, -1.45837375833734084196e+00) (138, 6.14971260930623042640e-01) (139, 8.06178984820867583494e+00) (140, 1.18108421210557823500e+00) (141, -4.06725059791602838732e-01) (142, 3.13491786130538905297e+01) (143, 8.55533170912653595508e+00) (144, 8.32616454886429546711e-01) (145, 2.12834953731474385563e+00) (146, 1.26158186941312333573e+00) (147, 2.84503451178545807565e-01) (148, 1.65402454606561377659e+01) (149, 2.59623906910925961178e-01) (150, 7.42463512977354911371e-01) (151, 1.28759885275870078480e+00) (152, 8.52714266580347879376e-01) (153, 4.04218018522392752434e-01) (154, 4.11901532892814703501e+00) (155, -2.33312049077562155830e+00) (156, 5.97678090107675585863e-01) (157, 4.05400859729809415199e+00) (158, 2.40100339812203156242e+00) (159, 2.66772355235042168964e-01) (160, 3.06916619385945343979e+00) (161, -1.56488998427702852290e+00) (162, 2.29500083098855583996e-01) (163, 2.78841482277605834383e+00) (164, 5.33430393659733770306e+00) (165, 3.51543674130411210044e-01) (166, 2.04901112242649752204e+00) (167, -8.28975433740945621963e-01) (168, -3.53000861128762222219e-01) (169, 1.44974095352446608054e+00) (170, 1.11603774006941662833e+01) (171, 3.38758406544962031859e-01) (172, 1.91726622094823206943e+00) (173, 4.98608046972149193676e-02) (174, -3.59371480045437341477e-01) (175, 1.53327557498274846814e+00) (176, 1.44607901716136044712e+00) (177, 3.20756330804242484334e-01) (178, 8.35731976921610608677e-01) (179, 2.99891416802136011321e-02) (180, -1.17165848872531874747e+00) (181, 4.64321043631618302072e+00) (182, -3.82432725087973823808e-01) (183, 3.29594703902414631891e-01) (184, 7.95819684289547413236e-01) (185, 8.10857573345374720020e-03) (186, -3.99989996805613146069e-01) (187, 4.74021475439665529450e+00) (188, -4.48718461395381407186e-01) (189, 3.22411264844209677349e-01) (190, 6.24679796943187204405e-01) (191, -1.96150238493504436299e-01) (192, -4.00464366449557906957e-01) (193, 1.11678280153667208729e+00) (194, -1.00608791716223566759e+00) (195, 2.79466237613566648168e-01) (196, 5.33875154744080093749e-01) (197, 6.54171049461831771721e-02) (198, -3.12762779546107150264e-01) (199, 9.59550448592808136183e-01) (200, -3.96731311221823979007e-01) (201, 1.22072268830869787304e-01) (202, 5.46733056891101076857e-01) (203, -2.25585831821565191424e-01) (204, 1.82864960076778354514e-01) (205, 7.97303327341700618369e-01) (206, 1.15559890937373663244e-01) (207, -3.89409630180170412972e-02) (208, 5.64273697356046821660e-01) (209, -3.13251487231137160094e-01) (210, 1.21346546416347969566e-01) (211, 7.76619151180096278786e-01) (212, 1.08709251950682136978e-01) (213, 3.53140939400885811583e-02) (214, 4.34003724298210269428e-01) (215, -3.78090591405155607152e-01) (216, 1.68515663169424706469e-01) (217, 9.17354275969047727735e-01) (218, 3.41264694836711568460e-01) (219, 2.64141055686199999197e-01) (220, 4.76629087851724586589e-01) (221, -3.92697367439258870903e-01) (222, 1.27807593017707388228e-01) (223, 1.02497810832320368490e+00) (224, 1.72431508144839013008e-01) (225, 4.04683809859063159386e-01) (226, 5.07114543005982798540e-01) (227, 2.93929259720537683354e-01) (228, 3.82875283189177018084e-01) (229, 9.61915670279124168651e-01) (230, 1.06476991241864105131e-01) (231, 4.52053450977368209696e-01) (232, -1.56713255379442584214e-01) (233, -1.38398062005358701843e-01) (234, -3.04019450003996882792e-01) (235, 1.41437043505263371213e-01) (236, 1.68951489939736139434e-02) (237, 4.47964322928636027310e-01) (238, -9.75893285824041001320e-02) (239, -1.32894988061739716123e-01) (240, -7.93634222082762574857e-01) (241, -7.68420967092313250690e-02) (242, -6.64047169398465364498e-02) (243, 5.13690308177626842046e-01) (244, -1.06842422174454720896e-01) (245, 5.44468869821377543516e-01) (246, -7.86920947290426608944e-01) (247, -6.81177990842084662981e-02) (248, -1.41315872539614661996e+00) (249, 5.26040611349995357315e-01) (250, -9.56796257172944780711e-02) (251, 5.49914330625182579126e-01) (252, -7.24663500748301769860e-01) (253, 6.75400699222328260163e-02) (254, -1.12345821854855221211e+00) (255, 4.69358998993681442169e-01) (256, 4.44222633703579283804e-01) (257, 4.60358264605084832599e-01) (258, -2.67290826719450841376e-02) (259, -1.22522584520445468326e-01) (260, -6.40014361415608301620e-01) (261, 4.66099007981661650479e-01) (262, 4.72143107166774267380e-01) (263, 5.04957655958963913534e-01) (264, -1.37210321351114022947e-01) (265, 5.26648724178570781795e-01) (266, -2.29473290324741681367e-02) (267, 5.56071539436391204525e-01) (268, 5.52695356570349405345e-01) (269, 5.27252144740621764285e-01) (270, -8.98723288873257419862e-02) (271, 5.24516834367617312829e-01) (272, -7.17577063682958097429e-03) (273, 5.61643457733258300024e-01) (274, 5.35901627231100574633e-01) (275, 4.72920930838450825906e-01) (276, 5.93656355831321924654e-01) (277, 5.71457738741094734003e-01) (278, 4.94703805543068031447e-01) (279, -1.72958111002699949088e-01) (280, -3.99799170502271039584e-02) (281, 5.51144381959410289973e-01) (282, 5.97943186579093510780e-01) (283, 5.90835681860988559677e-01) (284, 6.13326252225877222024e-01) (285, -7.61956593954883076858e-02) (286, -1.20884755615878358714e-01) (287, -2.29420445334983791330e-01) (288, 4.65109750348756012528e-01) (289, 5.72618838657725226504e-01) (290, 4.12849666213897348310e-01) (291, -7.18399705919884612459e-02) (292, -2.36935645168536213045e-01) (293, -1.93869610234179284847e-01) (294, 5.16134183888651287830e-01) (295, 5.96234231022275129597e-01) (296, 6.09499152784563680285e-01) (297, 4.09052248707080123857e-01) (298, -1.92065106249580841435e-01) (299, -7.63621657857240371259e-02) (300, 1.23538408051756731787e+00) (301, -2.90619800742563931806e+01) (302, 1.18956889914711005929e+01) (303, 1.76071651265352513427e-01) (0, 4.42122186484326773481e-01) (1, 1.38526920520198304487e+00) (2, 1.33904888258445686766e+00) (3, 2.84938095074998176681e-01) (4, 3.67316435887667103177e-01) (5, 2.43846907992812167443e-01) (6, 3.26281122655929733956e-01) (7, 1.41654013500305442363e+00) (8, 2.22886197276496300645e+00) (9, 1.77173717785189505092e-01) (10, 1.14556508675658741403e+00) (11, 1.07680473198726178730e+00) (12, 3.09716406061283366924e-01) (13, 1.40978933865879696441e+00) (14, 7.66802859749276199963e-01) (15, 3.02669787210022633861e-01) (16, 9.91023722587327959843e-01) (17, 1.07039874249028388320e+00) (18, 4.33286841333497096951e-01) (19, 1.35702663717024285539e+00) (20, 1.53407186532184725003e+00) (21, 2.06557725685303034124e-01) (22, 1.14669465124366531938e+00) (23, 3.73273599688762891535e-01) (24, 2.97428496139713116619e-01) (25, 6.56219620083347443540e-01) (26, 1.16172776702844249286e+00) (27, 4.13678479432348436551e-02) (28, 4.43764250278773420000e-01) (29, 1.59286872440164317677e-01) (30, 3.99949806455597800525e-01) (31, 1.04294795943308149511e+00) (32, 1.37986620059684539363e+00) (33, -3.08696323030787089792e-01) (34, 4.99992618451301662486e-01) (35, 2.07778307326186573167e-01) (36, 1.58897187335187123347e-01) (37, 6.83509232192357152336e-01) (38, 6.83218340561295822688e-01) (39, 1.72366860891183359961e-01) (40, 1.73251414661560843022e+00) (41, 2.76251138468956380922e-01) (42, 2.05447702254064168415e-01) (43, 1.16087824353671953403e+00) (44, 8.07602666139076164065e-01) (45, 1.57964651324101562624e-01) (46, 2.80541964155247081081e+00) (47, 4.44740973390587546188e-01) (48, 3.20970424868297909970e-02) (49, 9.46845413729028972938e-01) (50, 5.13965124178291099533e-01) (51, 1.62641797555776262962e-01) (52, 3.01020868145849807007e+00) (53, 4.14230377643465208504e-01) (54, -3.59590337419186556467e-01) (55, 6.91890975581752942780e-01) (56, -8.19081856246052092407e-02) (57, 5.27437843710559586818e-02) (58, 3.70927497801707062308e+00) (59, 7.34657208200374944873e-01) (60, -4.13876206648959632517e-01) (61, 6.67364892094731598782e-01) (62, 1.80743419296626045556e-02) (63, 1.72076825344278892815e-02) (64, 2.49011789471358735426e+00) (65, 1.18394647590091151024e+00) (66, -4.84696822319141851221e-01) (67, 6.49557706364719655845e-01) (68, 3.07471049893935477471e-01) (69, -7.13507328566107767998e-01) (70, 1.06832238634947329636e+00) (71, 9.52347722154288089946e-01) (72, -5.19701861310216228773e-01) (73, 2.93377321310971994617e-01) (74, 9.85409885542876451403e-01) (75, -1.32664967773820197117e+00) (76, 8.72778134949905304296e-01) (77, 2.77924135342636713375e+00) (78, -1.08250741012762596860e+00) (79, 2.37789341885175420366e-01) (80, 1.06878366267473290385e+00) (81, -6.36230401386231214644e-01) (82, 4.44529015304772845418e-01) (83, 6.86727933348500685362e-01) (84, -1.02625166176648696670e+00) (85, 7.54201142364592569400e-01) (86, 1.11914465296936072036e+00) (87, -9.58315520218180449952e-01) (88, 3.89778653846582279208e-01) (89, 1.25006277169842638930e-01) (90, -1.18169293086481652644e+00) (91, 2.71909782578593217650e-01) (92, 1.11267320939353409059e+00) (93, -7.06072267104561124285e+00) (94, -9.12795310107042401349e-02) (95, 9.90356766564182366963e-01) (96, -2.15193532385532870777e+00) (97, 6.17276880579296527429e-01) (98, 1.55170010013968306950e+00) (99, -8.92035760882190054133e+00) (100, -3.11263820937505986119e-01) (101, -8.21449928746041169170e-01) (102, -1.35919852399370233442e+00) (103, 5.99475306019165876670e-01) (104, 1.67398782250130628846e+00) (105, -8.01892013792019930918e+00) (106, -2.72463184662457491569e+00) (107, -2.10603325392567386487e+00) (108, -2.34239160937274970564e+00) (109, 7.97750797012894863336e-01) (110, 1.29258281822021636742e+00) (111, -7.00319837521692445392e+00) (112, -1.78319943353306098466e+00) (113, -8.59526035550482014891e-01) (114, -2.67988787618972201798e+00) (115, 2.48664513176948126505e-01) (116, 3.37946629272301735103e-01) (117, -5.64628913239972884952e+00) (118, -1.15745002903958504881e+00) (119, -1.57306593768015895440e-01) (120, -3.44486376542675243329e+00) (121, 2.40575723240841948813e-01) (122, 2.46683963347422374746e-01) (123, -1.17594462526385656886e+00) (124, -7.83223917616537201880e-01) (125, 4.06434805999257164899e+00) (126, -2.92737761679615138277e+00) (127, 2.30678761696776590817e-01) (128, 4.26064244205958064793e-01) (129, -9.78073255793925344648e-01) (130, -1.24732218408196016135e+00) (131, -8.18381692382484926540e-01) (132, -1.94576945660331035448e+00) (133, 5.08656078490557772565e-02) (134, -4.35242740541651851327e-01) (135, -8.34682072408323372237e-01) (136, -1.55895234625732537204e+00) (137, -1.98668209860252154009e+00) (138, -1.04245326104374447240e+00) (139, 1.38469709409202307304e-01) (140, 8.91670501274120508306e-02) (141, -5.07252219771236245727e-01) (142, -5.84183800503537908888e-01) (143, 1.90443855664488692625e+00) (144, -1.43046652534796958633e+00) (145, 7.12923422191879319065e-01) (146, 1.27653638217755327489e+00) (147, -4.33432178315091232168e-01) (148, -5.69125488590997763438e-01) (149, -9.05887464303033240753e-01) (150, -2.34456025061388517727e+00) (151, 2.03529020753588196779e-01) (152, 1.23704976250934595150e+00) (153, -1.05233387250861465390e+00) (154, -6.82491955874647504565e-01) (155, -8.01570213294018063532e-02) (156, -2.34197861223732894942e+00) (157, -1.39653112399272083533e-01) (158, 2.47087447324821507522e+00) (159, -1.14491919148255627547e+00) (160, -7.07313587395743015307e-01) (161, 3.40436823504557617426e-01) (162, -1.17011635647636680346e+00) (163, -1.01255485911816864308e-01) (164, 4.91973700236063349323e-01) (165, -9.28574541849146783967e-01) (166, -4.66233773060981238068e-01) (167, 3.76135622099023791964e-01) (168, -1.49838943024935056236e+00) (169, -1.96365163054606828297e-01) (170, -6.01584166955894894535e-01) (171, -5.68060257376416188890e-01) (172, -3.58869267012864645583e-01) (173, 2.16393946870536035831e-01) (174, -1.71414297285645678137e+00) (175, 7.45787350893649558792e-01) (176, -3.77871018446009759861e-02) (177, -5.42522221367488621802e-01) (178, -1.13441093507165205456e-01) (179, 1.27407762674746599663e-01) (180, -3.44247077584958294239e+00) (181, 1.68706590583873405897e+00) (182, 3.70584366952702137787e-01) (183, -5.01970968191408850601e-01) (184, -3.70827559310456300601e-01) (185, 3.88455844734505673088e-01) (186, -1.39237820126501610218e+00) (187, 2.85832189549243587123e+00) (188, 3.03196876507228285647e+00) (189, -3.93022661446918386563e-01) (190, -4.07373993931081257447e-01) (191, 1.90211822084638160213e-01) (192, -1.61243515948660820492e+00) (193, 1.51588475866325245178e+00) (194, 8.63129165007512078045e-02) (195, -1.52994737112323475614e+00) (196, 3.27351366517064312767e-01) (197, 1.09041948464758994830e-01) (198, -1.76895113176551643797e+00) (199, 1.29909182613698104269e+00) (200, -5.82482626145924387018e-01) (201, -7.92659657656441418716e-01) (202, 3.75483648181804963162e-01) (203, 3.08798864519537752393e-01) (204, -1.44717981274025331295e+00) (205, 4.64769992146193966498e-01) (206, -6.56372453668122579629e-01) (207, -1.49036789250046419752e+00) (208, 3.04264628850132334836e-01) (209, 2.18279978363499743699e-01) (210, -1.10121358845545436189e+00) (211, 1.23084939337848542351e+00) (212, -2.38845251791887841497e-01) (213, -1.30621921945488894679e+00) (214, 7.20355395093182471200e-01) (215, -2.01113125233339906650e-01) (216, -3.67531219687379950845e-01) (217, 1.27995986207209577756e+00) (218, -2.60329025203341501982e-01) (219, -4.20310857457256992209e-01) (220, 1.63702793431011617287e+00) (221, 5.21433680809849087190e-01) (222, -4.07377266445031915865e-01) (223, 1.21541963681502429573e+00) (224, -8.79371854183206069777e-01) (225, -4.85397637767345957460e-01) (226, 1.30150905064453525917e+00) (227, 3.94312308330560690184e-01) (228, -2.46955710883702522773e-01) (229, 1.19441582394806466993e+00) (230, -3.64860700398085657792e-01) (231, -5.03829773958633819753e-01) (232, 1.97671525242761392249e+00) (233, 3.40316365556158129113e-01) (234, 2.70951137589959145657e-01) (235, 1.10806883683732904089e+00) (236, -1.94369774229483260886e-01) (237, -3.82796954867361816088e-01) (238, 1.82544248485219728906e+00) (239, 1.69363559325145657253e-01) (240, 2.14908067272082031751e-01) (241, 1.19702821803533376865e+00) (242, 2.42374282937571405849e-01) (243, -4.65630065606293053193e-01) (244, 1.31269559850940131795e+00) (245, 2.00590796937014509416e-01) (246, 3.11635862576197630869e-01) (247, 3.84638478440339326436e-01) (248, -3.40479276195666313853e-01) (249, -3.34042414469996717941e-01) (250, 1.14714896281702327663e+00) (251, 1.55369502211045368290e-01) (252, 4.41706478393103174618e-01) (253, 4.68155886384097885689e-01) (254, 2.43059421922461993404e-01) (255, -4.84328505831769506873e-01) (256, 8.84954226749298134003e-01) (257, -2.34658990554173302323e-01) (258, 4.38918749452486434137e-01) (259, 1.04467030522426118644e+00) (260, 2.31324470950680760595e-01) (261, -4.72493685498139415202e-01) (262, 1.38732015007319686717e-01) (263, -4.41777490394642091687e-01) (264, 3.97988339375998201319e-01) (265, 1.03450233501647748113e+00) (266, 2.92605875001110460332e-01) (267, 2.31573780966576742157e-01) (268, 8.32172377372911997728e-02) (269, -4.84474692931578632127e-01) (270, 4.15424500728585666121e-01) (271, 1.12055450200020079166e+00) (272, 4.20331132138900498418e-01) (273, 2.21345237860250454442e-01) (274, 1.86014700894359119587e-01) (275, -3.10773006240499860553e-01) (276, 5.22011098603982981459e-01) (277, 1.09523859064637218985e+00) (278, 9.60857986709706457518e-01) (279, 2.89331382400437375768e-01) (280, 3.19978001465422934313e-01) (281, 2.41987668626097301994e-01) (282, 3.48296724199893104057e-01) (283, 1.25824830849720781245e+00) (284, 1.23664222956378266893e+00) (285, 1.59669823531288418428e-01) (286, 3.25222235691002670155e-01) (287, 2.33469572517615270302e-01) (288, 1.16896559466903005031e+00) (289, 1.38027198532413342136e+00) (290, 1.40052889498339894203e+00) (291, 1.83222469482337363411e-01) (292, 1.07063026448323728168e+00) (293, 9.74391449582643454086e-01) (294, 1.14816838149649647072e+00) (295, 1.34544554638340452257e+00) (296, 1.40506084353693228017e+00) (297, 2.45367377391442736956e-01) (298, 1.26460290428007504637e+00) (299, 1.25675172986505545580e+00) (300, 1.41814992905969439185e+00) (301, -2.13310915406385737114e+00) (302, -2.07385099236979648651e+01) (303, 4.19907848610394596189e-01) (0, 9.16044363677192330364e-01) (1, 3.48847129041162662411e-01) (2, 2.05920030916916046992e-01) (3, 2.57162832804337548875e-01) (4, 1.99007677710112934610e-01) (5, 3.48726774430332064902e-01) (6, 2.43364188430647693240e-01) (7, 3.25694409831443654202e-01) (8, 2.31338002738248393886e-01) (9, 1.79741723524552310387e-01) (10, 1.88036909127151874443e-01) (11, 2.30040340992865577352e-01) (12, 2.30379375957164539424e-01) (13, 3.65507858320800349539e-01) (14, 2.86386438514362906549e-01) (15, 1.52425616269460856289e-01) (16, 1.80582182363856758034e-01) (17, 1.41597142075483545254e-01) (18, 3.78946347090777457822e-01) (19, 5.38960639484933001775e-01) (20, -6.00803031044051083498e-01) (21, 9.11429313569357135716e-02) (22, -3.46030771241796097915e-01) (23, -9.37237725165646962111e-01) (24, -6.67732705259263870090e-01) (25, 4.45018312752936961996e-01) (26, -7.06736425956926872516e-01) (27, -3.12231930689792935851e-01) (28, -3.19502871808696242706e-01) (29, -8.24190887649187686748e-01) (30, -6.47115889439372815595e-01) (31, 5.37249796229123610658e-01) (32, -4.17146803622865769423e-01) (33, -7.50407764068931282253e-01) (34, -2.98582578575979362689e-01) (35, -8.02888038288182226410e-01) (36, -6.17396109334475973185e-01) (37, 1.19643821423573282203e+00) (38, -1.38179680090361106659e-01) (39, -7.88651834052440436906e-01) (40, -2.33265591560177065755e-01) (41, -9.37203619165752122022e-01) (42, -6.93608198738318360022e-01) (43, 1.00866115409666523561e+00) (44, 4.36596947513483824022e-01) (45, -9.22040892483491414389e-01) (46, -8.31302019976603023821e-01) (47, -1.18161444551906136269e+00) (48, -1.27163632933884107601e-01) (49, 3.46463778585204051907e+00) (50, 2.48601348484226658542e+00) (51, -7.40554361159029173045e-01) (52, -2.25767544080798632233e-01) (53, -8.97610948859551172063e-01) (54, 3.61506102340290624841e-01) (55, 2.66150204944482471348e+00) (56, 9.81542193099636506304e+00) (57, -6.96450675954733866568e-01) (58, 4.23511362872732721740e-01) (59, -5.66304956138138915200e-01) (60, 2.99995623543260092614e-01) (61, 2.36104421819952436934e+00) (62, 2.06273039709080707738e+00) (63, 9.64532171713479824504e-01) (64, 1.20108089873101597789e+00) (65, 8.64449502887625786940e-01) (66, 3.79966016804589468148e-01) (67, 2.85247851851760936270e+00) (68, 9.35495660169312848176e-01) (69, 1.24081461816558968891e+00) (70, 2.00102782910508913972e+00) (71, 1.05113841952595987728e+00) (72, -6.23342032080075880707e-01) (73, 1.52130868696396670536e+00) (74, -4.41375395045414342654e-01) (75, 1.08796566728342947172e+00) (76, 1.19698050202257411101e+00) (77, 6.78558970870429489786e-01) (78, -9.66501635905973183194e-02) (79, 1.17932614328756368849e+00) (80, 1.11886231756990595088e+00) (81, 4.88986592680575149483e-01) (82, 8.13878442201620089236e-01) (83, 2.74141021109536808797e-01) (84, 6.91904401281696279646e-01) (85, 8.21487539223499929619e-01) (86, 3.23469250227689575361e-01) (87, 9.02348977376182581622e-01) (88, 6.34420196535858238462e-01) (89, 1.41172176431522220647e-02) (90, 1.74408393947279721781e-01) (91, 9.09225234751741551165e-01) (92, 4.60401334935616857180e-01) (93, 1.05515953545544771686e+00) (94, 4.40332146796653445264e-01) (95, 6.11839417754598491328e-01) (96, 2.49660261225014168396e-01) (97, 6.75595583879171845965e-01) (98, 1.09754075900685954537e+00) (99, -9.91931131382612317482e-03) (100, -4.34387496355260804837e-01) (101, -4.91450134676625960406e-01) (102, 2.44022644512792014071e-01) (103, 6.02495035311130577860e-01) (104, 1.23188270395848542549e+00) (105, 4.43011705797500598969e-01) (106, -5.76967559405828112062e-01) (107, -2.45541265571722799876e+00) (108, -1.75361116288731688773e-01) (109, 6.46246303630483076574e-01) (110, 3.89618148612438153222e-01) (111, 4.01675479859178230502e-01) (112, -1.13488778678704038683e+00) (113, -4.93436994698134778758e+00) (114, -5.38465687337219223174e-01) (115, -5.67454829791573356346e-01) (116, -5.84087221337528106346e-01) (117, 3.91096426291432153199e-01) (118, -4.05790008192974060997e-01) (119, 9.12134257552751209763e-02) (120, 9.46884769843149148860e-02) (121, -4.34884407038967690795e-01) (122, -4.54992680076448829940e-01) (123, 4.43001760686052570293e-01) (124, -5.85803028594736097112e-01) (125, -3.76801413495172221602e+00) (126, 2.90253742810706483191e-01) (127, -7.44584265035329484483e-01) (128, 3.97539589187272168758e-01) (129, -2.06966330449818824988e-01) (130, -2.44991361008259955767e+00) (131, -6.01812559415116599126e+00) (132, 2.50245414803161814188e-01) (133, -1.48123855498641554540e+00) (134, -3.29740138100251156672e-01) (135, 8.61768099623708927481e-01) (136, -1.75903191246934292868e-01) (137, 1.45428084699744317732e+01) (138, 2.96201550696452597933e-01) (139, -2.49589452132354194802e+00) (140, 3.92516331938451312755e-01) (141, 7.45849595626655648140e-01) (142, -9.51880631233926632895e-01) (143, 2.54888937156159549602e+01) (144, 1.91499621655256135888e-01) (145, -1.73876578419688865296e+00) (146, 5.22890612512658448097e-01) (147, 3.28918806214720693681e-01) (148, -1.40340638867858902294e+00) (149, 1.09395912285591041524e+01) (150, 7.50857479510922964927e-01) (151, -2.40344446642518239088e+00) (152, -5.35900755751587687392e-01) (153, -1.61122759313163305128e-01) (154, -1.17667548491156193080e+00) (155, 1.83321280416009679826e+00) (156, 4.03651291940199385966e-01) (157, -3.44981498898632921168e+00) (158, -5.66750874267512694260e-01) (159, -4.12034697038520247858e-01) (160, -1.10614468056221104675e+00) (161, -1.62279621440250920728e+00) (162, -1.55835818749569116060e-01) (163, -2.47680237591727125945e+00) (164, -6.83997792708796459316e-01) (165, -8.88861046422061984451e-01) (166, -4.69050788498713799868e+00) (167, -8.81026120016950109459e+00) (168, -1.88466786566438920802e-01) (169, -2.58999816283137018758e+00) (170, -9.93013872838046540714e-01) (171, 3.27478829012313399360e-01) (172, 1.06647770184975149155e-01) (173, 3.29830674745722918217e-01) (174, -9.18041731972043945076e-02) (175, -1.82660446460935887991e+00) (176, -8.80922267071101550151e-01) (177, 3.10383375585192078372e-01) (178, 5.37757612112582772390e-01) (179, 1.62258987062107129518e+00) (180, 4.46249244891984142569e-01) (181, -1.79076818975726492766e+00) (182, -7.99404156996321502149e-01) (183, 4.75968787592541131559e-01) (184, 2.03816600747284415451e-01) (185, 1.21328916476287096415e+00) (186, 5.38381729815523235594e-01) (187, -2.15040633311199957944e+00) (188, -6.85555920421479725313e-01) (189, 1.04177823661983648407e+00) (190, 8.56363385892336070881e-01) (191, 1.75749887376459623667e+00) (192, 3.51073298250188126080e-01) (193, -1.72923342626471066019e+00) (194, -1.23803317291175524195e-01) (195, 1.27682119629583978870e+00) (196, 8.19756353943649096472e-01) (197, 4.14874468915562388815e+00) (198, 4.95460506652761645263e-01) (199, 2.20208254894620550357e-02) (200, -2.57322208126907980841e-01) (201, 4.69211447373354628709e-01) (202, 3.40569678743463555293e-01) (203, -3.27979608738276084967e-01) (204, 5.04255425661635392487e-01) (205, 1.59184812414323223484e-01) (206, 5.76854379037758241422e-02) (207, 3.87156378647279308947e-01) (208, 4.53709118136861044857e-01) (209, -1.25111906647778670099e+00) (210, 5.65435912885066671585e-01) (211, 7.34640364021113545512e-02) (212, -3.76866386678514353470e-01) (213, 2.30364051827768034908e-01) (214, 4.32912416730195426240e-01) (215, -3.15698240913857386403e+00) (216, 4.66449196438535218512e-01) (217, -2.65113399825833775947e-02) (218, -1.34624838558708681546e+00) (219, 2.84217082390330888497e-01) (220, 5.05768615019544620637e-01) (221, -7.66835479110974271855e-01) (222, 3.62535734469976611560e-01) (223, 6.61832650518110743310e-02) (224, -8.74248630845809282519e-01) (225, 1.56835547568256850059e-01) (226, 3.95825516816355638117e-01) (227, -2.75926032575264268409e-01) (228, 2.84032337315092975327e-01) (229, -6.50184789810812589772e-03) (230, -9.03943968589232427213e-01) (231, 2.45075411482282096154e-01) (232, 1.71229562911007576753e-01) (233, -6.71078477440295473322e-01) (234, 2.47619643033942932187e-01) (235, -9.63154966864202960464e-02) (236, -1.23406641969765562550e+00) (237, 7.43307612569739789565e-02) (238, 2.45231434980866219719e-01) (239, -7.81282424331578240206e-01) (240, 2.57467391314963489624e-01) (241, 1.11277986223950204475e-02) (242, -2.16671652141605974862e+00) (243, -4.44645483641147365450e-01) (244, -8.33434612876265967785e-01) (245, -3.41520886180285598854e+00) (246, 2.28502521737233454946e-01) (247, 1.06905668479393908821e-01) (248, -1.92602177082828296406e+00) (249, -3.22802669833600452964e-01) (250, -2.96660019501476801551e-01) (251, -1.20982534056007762224e+00) (252, 1.67025864320098305082e-01) (253, 1.20764439272926821234e-01) (254, -1.71053778247501209187e+00) (255, -2.94623084042594962639e-01) (256, -6.83904852996019219091e-01) (257, -1.98046720124186181877e+00) (258, 7.81827998136315871491e-01) (259, 1.87227878871844999331e-01) (260, -3.07002056723935823346e-01) (261, -3.00983746119156958532e-01) (262, -2.17799137092264255555e-01) (263, -1.20801332788229887072e+00) (264, 6.94913400762582234016e-01) (265, 7.40392074737665328854e-01) (266, -1.66976014920973858668e-01) (267, -4.15213077696303667352e-01) (268, -2.50149041162961660589e-01) (269, -8.07130207451475456537e-01) (270, 8.65171810176716182816e-01) (271, 7.02444645996736283244e-01) (272, 1.94291723409038136205e-01) (273, -2.55637098358304892809e-01) (274, 2.01125605668268092607e-01) (275, -9.06521375338040447112e-01) (276, 8.73089126583867058962e-01) (277, 9.33780751301331424230e-01) (278, 8.26070418231614977955e-01) (279, 9.26261358223143538293e-02) (280, 2.47260722609662170202e-01) (281, -8.31436973275371915548e-01) (282, 9.90443588556556786529e-01) (283, 9.33777529649988502491e-01) (284, 8.22073555286343071735e-01) (285, 1.10550354989594978861e-01) (286, 1.53229488150373682753e-01) (287, 1.24714996146303241931e-01) (288, 9.78234491772979386504e-01) (289, 9.62734865581609700058e-01) (290, 8.81718192977316128633e-01) (291, 1.76013479660633409551e-01) (292, 1.77241353969457948736e-01) (293, 1.92675958851811851558e-01) (294, 9.06642449661949845208e-01) (295, 8.37685837144406031385e-01) (296, 9.27602491397175432652e-01) (297, 2.74256609500457715356e-01) (298, 2.54317454412604171399e-01) (299, 2.46317193602379330697e-01) (300, 1.46200336179033363315e+00) (301, -1.21215860339076826335e+01) (302, 5.19029597209026061222e+00) (303, 7.72382829700436035480e-01) 
