FANN_FLO_2.1
num_layers=4
learning_rate=0.700000
connection_rate=1.000000
network_type=1
learning_momentum=0.000000
training_algorithm=2
train_error_function=1
train_stop_function=0
cascade_output_change_fraction=0.010000
quickprop_decay=-0.000100
quickprop_mu=1.750000
rprop_increase_factor=1.200000
rprop_decrease_factor=0.500000
rprop_delta_min=0.000000
rprop_delta_max=50.000000
rprop_delta_zero=0.100000
cascade_output_stagnation_epochs=12
cascade_candidate_change_fraction=0.010000
cascade_candidate_stagnation_epochs=12
cascade_max_out_epochs=150
cascade_max_cand_epochs=150
cascade_num_candidate_groups=2
bit_fail_limit=3.49999999999999977796e-01
cascade_candidate_limit=1.00000000000000000000e+03
cascade_weight_multiplier=4.00000000000000022204e-01
cascade_activation_functions_count=10
cascade_activation_functions=3 5 7 8 10 11 14 15 16 17 
cascade_activation_steepnesses_count=4
cascade_activation_steepnesses=2.50000000000000000000e-01 5.00000000000000000000e-01 7.50000000000000000000e-01 1.00000000000000000000e+00 
layer_sizes=301 1 1 4 
scale_included=0
neurons (num_inputs, activation_function, activation_steepness)=(0, 0, 0.00000000000000000000e+00) (0, 0, 0.00000000000000000000e+00) (0, 0, 0.00000000000000000000e+00) (0, 0, 0.00000000000000000000e+00) (0, 0, 0.00000000000000000000e+00) (0, 0, 0.00000000000000000000e+00) (0, 0, 0.00000000000000000000e+00) (0, 0, 0.00000000000000000000e+00) (0, 0, 0.00000000000000000000e+00) (0, 0, 0.00000000000000000000e+00) (0, 0, 0.00000000000000000000e+00) (0, 0, 0.00000000000000000000e+00) (0, 0, 0.00000000000000000000e+00) (0, 0, 0.00000000000000000000e+00) (0, 0, 0.00000000000000000000e+00) (0, 0, 0.00000000000000000000e+00) (0, 0, 0.00000000000000000000e+00) (0, 0, 0.00000000000000000000e+00) (0, 0, 0.00000000000000000000e+00) (0, 0, 0.00000000000000000000e+00) (0, 0, 0.00000000000000000000e+00) (0, 0, 0.00000000000000000000e+00) (0, 0, 0.00000000000000000000e+00) (0, 0, 0.00000000000000000000e+00) (0, 0, 0.00000000000000000000e+00) (0, 0, 0.00000000000000000000e+00) (0, 0, 0.00000000000000000000e+00) (0, 0, 0.00000000000000000000e+00) (0, 0, 0.00000000000000000000e+00) (0, 0, 0.00000000000000000000e+00) (0, 0, 0.00000000000000000000e+00) (0, 0, 0.00000000000000000000e+00) (0, 0, 0.00000000000000000000e+00) (0, 0, 0.00000000000000000000e+00) (0, 0, 0.00000000000000000000e+00) (0, 0, 0.00000000000000000000e+00) (0, 0, 0.00000000000000000000e+00) (0, 0, 0.00000000000000000000e+00) (0, 0, 0.00000000000000000000e+00) (0, 0, 0.00000000000000000000e+00) (0, 0, 0.00000000000000000000e+00) (0, 0, 0.00000000000000000000e+00) (0, 0, 0.00000000000000000000e+00) (0, 0, 0.00000000000000000000e+00) (0, 0, 0.00000000000000000000e+00) (0, 0, 0.00000000000000000000e+00) (0, 0, 0.00000000000000000000e+00) (0, 0, 0.00000000000000000000e+00) (0, 0, 0.00000000000000000000e+00) (0, 0, 0.00000000000000000000e+00) (0, 0, 0.00000000000000000000e+00) (0, 0, 0.00000000000000000000e+00) (0, 0, 0.00000000000000000000e+00) (0, 0, 0.00000000000000000000e+00) (0, 0, 0.00000000000000000000e+00) (0, 0, 0.00000000000000000000e+00) (0, 0, 0.00000000000000000000e+00) (0, 0, 0.00000000000000000000e+00) (0, 0, 0.00000000000000000000e+00) (0, 0, 0.00000000000000000000e+00) (0, 0, 0.00000000000000000000e+00) (0, 0, 0.00000000000000000000e+00) (0, 0, 0.00000000000000000000e+00) (0, 0, 0.00000000000000000000e+00) (0, 0, 0.00000000000000000000e+00) (0, 0, 0.00000000000000000000e+00) (0, 0, 0.00000000000000000000e+00) (0, 0, 0.00000000000000000000e+00) (0, 0, 0.00000000000000000000e+00) (0, 0, 0.00000000000000000000e+00) (0, 0, 0.00000000000000000000e+00) (0, 0, 0.00000000000000000000e+00) (0, 0, 0.00000000000000000000e+00) (0, 0, 0.00000000000000000000e+00) (0, 0, 0.00000000000000000000e+00) (0, 0, 0.00000000000000000000e+00) (0, 0, 0.00000000000000000000e+00) (0, 0, 0.00000000000000000000e+00) (0, 0, 0.00000000000000000000e+00) (0, 0, 0.00000000000000000000e+00) (0, 0, 0.00000000000000000000e+00) (0, 0, 0.00000000000000000000e+00) (0, 0, 0.00000000000000000000e+00) (0, 0, 0.00000000000000000000e+00) (0, 0, 0.00000000000000000000e+00) (0, 0, 0.00000000000000000000e+00) (0, 0, 0.00000000000000000000e+00) (0, 0, 0.00000000000000000000e+00) (0, 0, 0.00000000000000000000e+00) (0, 0, 0.00000000000000000000e+00) (0, 0, 0.00000000000000000000e+00) (0, 0, 0.00000000000000000000e+00) (0, 0, 0.00000000000000000000e+00) (0, 0, 0.00000000000000000000e+00) (0, 0, 0.00000000000000000000e+00) (0, 0, 0.00000000000000000000e+00) (0, 0, 0.00000000000000000000e+00) (0, 0, 0.00000000000000000000e+00) (0, 0, 0.00000000000000000000e+00) (0, 0, 0.00000000000000000000e+00) (0, 0, 0.00000000000000000000e+00) (0, 0, 0.00000000000000000000e+00) (0, 0, 0.00000000000000000000e+00) (0, 0, 0.00000000000000000000e+00) (0, 0, 0.00000000000000000000e+00) (0, 0, 0.00000000000000000000e+00) (0, 0, 0.00000000000000000000e+00) (0, 0, 0.00000000000000000000e+00) (0, 0, 0.00000000000000000000e+00) (0, 0, 0.00000000000000000000e+00) (0, 0, 0.00000000000000000000e+00) (0, 0, 0.00000000000000000000e+00) (0, 0, 0.00000000000000000000e+00) (0, 0, 0.00000000000000000000e+00) (0, 0, 0.00000000000000000000e+00) (0, 0, 0.00000000000000000000e+00) (0, 0, 0.00000000000000000000e+00) (0, 0, 0.00000000000000000000e+00) (0, 0, 0.00000000000000000000e+00) (0, 0, 0.00000000000000000000e+00) (0, 0, 0.00000000000000000000e+00) (0, 0, 0.00000000000000000000e+00) (0, 0, 0.00000000000000000000e+00) (0, 0, 0.00000000000000000000e+00) (0, 0, 0.00000000000000000000e+00) (0, 0, 0.00000000000000000000e+00) (0, 0, 0.00000000000000000000e+00) (0, 0, 0.00000000000000000000e+00) (0, 0, 0.00000000000000000000e+00) (0, 0, 0.00000000000000000000e+00) (0, 0, 0.00000000000000000000e+00) (0, 0, 0.00000000000000000000e+00) (0, 0, 0.00000000000000000000e+00) (0, 0, 0.00000000000000000000e+00) (0, 0, 0.00000000000000000000e+00) (0, 0, 0.00000000000000000000e+00) (0, 0, 0.00000000000000000000e+00) (0, 0, 0.00000000000000000000e+00) (0, 0, 0.00000000000000000000e+00) (0, 0, 0.00000000000000000000e+00) (0, 0, 0.00000000000000000000e+00) (0, 0, 0.00000000000000000000e+00) (0, 0, 0.00000000000000000000e+00) (0, 0, 0.00000000000000000000e+00) (0, 0, 0.00000000000000000000e+00) (0, 0, 0.00000000000000000000e+00) (0, 0, 0.00000000000000000000e+00) (0, 0, 0.00000000000000000000e+00) (0, 0, 0.00000000000000000000e+00) (0, 0, 0.00000000000000000000e+00) (0, 0, 0.00000000000000000000e+00) (0, 0, 0.00000000000000000000e+00) (0, 0, 0.00000000000000000000e+00) (0, 0, 0.00000000000000000000e+00) (0, 0, 0.00000000000000000000e+00) (0, 0, 0.00000000000000000000e+00) (0, 0, 0.00000000000000000000e+00) (0, 0, 0.00000000000000000000e+00) (0, 0, 0.00000000000000000000e+00) (0, 0, 0.00000000000000000000e+00) (0, 0, 0.00000000000000000000e+00) (0, 0, 0.00000000000000000000e+00) (0, 0, 0.00000000000000000000e+00) (0, 0, 0.00000000000000000000e+00) (0, 0, 0.00000000000000000000e+00) (0, 0, 0.00000000000000000000e+00) (0, 0, 0.00000000000000000000e+00) (0, 0, 0.00000000000000000000e+00) (0, 0, 0.00000000000000000000e+00) (0, 0, 0.00000000000000000000e+00) (0, 0, 0.00000000000000000000e+00) (0, 0, 0.00000000000000000000e+00) (0, 0, 0.00000000000000000000e+00) (0, 0, 0.00000000000000000000e+00) (0, 0, 0.00000000000000000000e+00) (0, 0, 0.00000000000000000000e+00) (0, 0, 0.00000000000000000000e+00) (0, 0, 0.00000000000000000000e+00) (0, 0, 0.00000000000000000000e+00) (0, 0, 0.00000000000000000000e+00) (0, 0, 0.00000000000000000000e+00) (0, 0, 0.00000000000000000000e+00) (0, 0, 0.00000000000000000000e+00) (0, 0, 0.00000000000000000000e+00) (0, 0, 0.00000000000000000000e+00) (0, 0, 0.00000000000000000000e+00) (0, 0, 0.00000000000000000000e+00) (0, 0, 0.00000000000000000000e+00) (0, 0, 0.00000000000000000000e+00) (0, 0, 0.00000000000000000000e+00) (0, 0, 0.00000000000000000000e+00) (0, 0, 0.00000000000000000000e+00) (0, 0, 0.00000000000000000000e+00) (0, 0, 0.00000000000000000000e+00) (0, 0, 0.00000000000000000000e+00) (0, 0, 0.00000000000000000000e+00) (0, 0, 0.00000000000000000000e+00) (0, 0, 0.00000000000000000000e+00) (0, 0, 0.00000000000000000000e+00) (0, 0, 0.00000000000000000000e+00) (0, 0, 0.00000000000000000000e+00) (0, 0, 0.00000000000000000000e+00) (0, 0, 0.00000000000000000000e+00) (0, 0, 0.00000000000000000000e+00) (0, 0, 0.00000000000000000000e+00) (0, 0, 0.00000000000000000000e+00) (0, 0, 0.00000000000000000000e+00) (0, 0, 0.00000000000000000000e+00) (0, 0, 0.00000000000000000000e+00) (0, 0, 0.00000000000000000000e+00) (0, 0, 0.00000000000000000000e+00) (0, 0, 0.00000000000000000000e+00) (0, 0, 0.00000000000000000000e+00) (0, 0, 0.00000000000000000000e+00) (0, 0, 0.00000000000000000000e+00) (0, 0, 0.00000000000000000000e+00) (0, 0, 0.00000000000000000000e+00) (0, 0, 0.00000000000000000000e+00) (0, 0, 0.00000000000000000000e+00) (0, 0, 0.00000000000000000000e+00) (0, 0, 0.00000000000000000000e+00) (0, 0, 0.00000000000000000000e+00) (0, 0, 0.00000000000000000000e+00) (0, 0, 0.00000000000000000000e+00) (0, 0, 0.00000000000000000000e+00) (0, 0, 0.00000000000000000000e+00) (0, 0, 0.00000000000000000000e+00) (0, 0, 0.00000000000000000000e+00) (0, 0, 0.00000000000000000000e+00) (0, 0, 0.00000000000000000000e+00) (0, 0, 0.00000000000000000000e+00) (0, 0, 0.00000000000000000000e+00) (0, 0, 0.00000000000000000000e+00) (0, 0, 0.00000000000000000000e+00) (0, 0, 0.00000000000000000000e+00) (0, 0, 0.00000000000000000000e+00) (0, 0, 0.00000000000000000000e+00) (0, 0, 0.00000000000000000000e+00) (0, 0, 0.00000000000000000000e+00) (0, 0, 0.00000000000000000000e+00) (0, 0, 0.00000000000000000000e+00) (0, 0, 0.00000000000000000000e+00) (0, 0, 0.00000000000000000000e+00) (0, 0, 0.00000000000000000000e+00) (0, 0, 0.00000000000000000000e+00) (0, 0, 0.00000000000000000000e+00) (0, 0, 0.00000000000000000000e+00) (0, 0, 0.00000000000000000000e+00) (0, 0, 0.00000000000000000000e+00) (0, 0, 0.00000000000000000000e+00) (0, 0, 0.00000000000000000000e+00) (0, 0, 0.00000000000000000000e+00) (0, 0, 0.00000000000000000000e+00) (0, 0, 0.00000000000000000000e+00) (0, 0, 0.00000000000000000000e+00) (0, 0, 0.00000000000000000000e+00) (0, 0, 0.00000000000000000000e+00) (0, 0, 0.00000000000000000000e+00) (0, 0, 0.00000000000000000000e+00) (0, 0, 0.00000000000000000000e+00) (0, 0, 0.00000000000000000000e+00) (0, 0, 0.00000000000000000000e+00) (0, 0, 0.00000000000000000000e+00) (0, 0, 0.00000000000000000000e+00) (0, 0, 0.00000000000000000000e+00) (0, 0, 0.00000000000000000000e+00) (0, 0, 0.00000000000000000000e+00) (0, 0, 0.00000000000000000000e+00) (0, 0, 0.00000000000000000000e+00) (0, 0, 0.00000000000000000000e+00) (0, 0, 0.00000000000000000000e+00) (0, 0, 0.00000000000000000000e+00) (0, 0, 0.00000000000000000000e+00) (0, 0, 0.00000000000000000000e+00) (0, 0, 0.00000000000000000000e+00) (0, 0, 0.00000000000000000000e+00) (0, 0, 0.00000000000000000000e+00) (0, 0, 0.00000000000000000000e+00) (0, 0, 0.00000000000000000000e+00) (0, 0, 0.00000000000000000000e+00) (0, 0, 0.00000000000000000000e+00) (0, 0, 0.00000000000000000000e+00) (0, 0, 0.00000000000000000000e+00) (0, 0, 0.00000000000000000000e+00) (0, 0, 0.00000000000000000000e+00) (0, 0, 0.00000000000000000000e+00) (0, 0, 0.00000000000000000000e+00) (0, 0, 0.00000000000000000000e+00) (0, 0, 0.00000000000000000000e+00) (0, 0, 0.00000000000000000000e+00) (0, 0, 0.00000000000000000000e+00) (0, 0, 0.00000000000000000000e+00) (0, 0, 0.00000000000000000000e+00) (0, 0, 0.00000000000000000000e+00) (0, 0, 0.00000000000000000000e+00) (0, 0, 0.00000000000000000000e+00) (0, 0, 0.00000000000000000000e+00) (0, 0, 0.00000000000000000000e+00) (0, 0, 0.00000000000000000000e+00) (0, 0, 0.00000000000000000000e+00) (0, 0, 0.00000000000000000000e+00) (301, 15, 7.50000000000000000000e-01) (302, 15, 7.50000000000000000000e-01) (303, 5, 5.00000000000000000000e-01) (303, 5, 5.00000000000000000000e-01) (303, 5, 5.00000000000000000000e-01) (303, 5, 5.00000000000000000000e-01) 
connections (connected_to_neuron, weight)=(0, 7.66219098605193216223e-01) (1, 1.99438534924720856090e+00) (2, 1.60756324479316647924e+00) (3, 9.20708404249030332167e-01) (4, 2.04478907193380665674e+00) (5, 3.79989770850050978535e-01) (6, 1.17438001991485885256e+00) (7, 2.86095185505622906508e-01) (8, 1.50200594060348802117e+00) (9, 1.72818406012435366037e+00) (10, 1.38025405253598787425e+00) (11, 7.14385377347556693728e-01) (12, 1.94674647443222292864e+00) (13, 8.70887410217111246347e-01) (14, 1.16679587932687667262e+00) (15, 1.06547915083438571315e+00) (16, 1.16261354124604299187e+00) (17, 1.21517210299114619687e+00) (18, 1.98446847357571742876e+00) (19, 1.21963626374164202382e+00) (20, 4.98192914753748217205e-01) (21, 9.09619143361045878748e-01) (22, 1.00661928449551107967e+00) (23, 1.22163270393515621670e+00) (24, 1.16464961676767209120e+00) (25, 2.14891868457679402482e+00) (26, 8.85031772178344833257e-01) (27, 9.98298195118148545824e-01) (28, 9.63605106368922159632e-01) (29, 8.98746013224531958841e-01) (30, 1.93993970119150294096e+00) (31, 1.82455361293246309806e+00) (32, 7.06663354480288830040e-01) (33, 9.03524502139732232919e-01) (34, -1.73480637749364369204e-01) (35, 8.52152903529153737949e-01) (36, 1.42077568092873485206e+00) (37, 1.53080163153800641318e+00) (38, 7.68027534605976613946e-01) (39, 3.92648670157700108163e-01) (40, 9.55793079662756062120e-01) (41, 1.47363119578566981183e+00) (42, 1.31856974967824158718e+00) (43, 6.33752201513510526887e-01) (44, 5.96084950243708666662e-01) (45, -7.21563996984574823612e-02) (46, 9.65913770016449957367e-01) (47, 1.13886878920176681795e+00) (48, 1.42227186774023239835e+00) (49, 1.24062467039337254171e+00) (50, 6.88857110189466159689e-01) (51, -6.64459999382971511217e-01) (52, -3.89647135548614853562e-01) (53, 1.21888439931895353752e+00) (54, 7.26784144288142752721e-01) (55, 1.12001312808259867460e+00) (56, 1.68821381146341975565e+00) (57, -7.08396789654247349688e-01) (58, -5.38278722256883113140e-01) (59, 2.35674026790675728016e-01) (60, -1.53946155688112235049e-01) (61, 1.83833288247737769439e+00) (62, -5.85809963221451623916e-01) (63, 2.49754556319880771653e+00) (64, 8.99025991889688680381e-01) (65, 6.91818720936017927947e-01) (66, 1.24444456873526809737e+00) (67, -6.82943432670242850380e-02) (68, -6.13163651684466959324e-01) (69, 7.80644619633515668422e-02) (70, 8.31002738875036173205e-01) (71, 7.39215787282873626474e-01) (72, 1.15730330483987198242e+00) (73, -2.79487870259272519480e-01) (74, 6.99852724477763254995e-01) (75, -2.88871809241248445055e-01) (76, 9.72669034009951832820e-02) (77, 7.90168858571804744173e-01) (78, 9.11005086253070972546e-01) (79, 1.28700649348471918287e+00) (80, 1.36225288905337960088e+00) (81, 4.13010176365136913446e-02) (82, 1.47757723931943618645e+00) (83, 1.95319885636977041976e+00) (84, 1.63271240566836062236e+00) (85, 7.12623753002696092018e-01) (86, 6.83244961584033028146e-01) (87, 1.01862706681737424930e+00) (88, 8.11347916758034859441e-01) (89, 6.50989195795974695535e-01) (90, 8.71247331480373587986e-01) (91, -3.95516650712983641736e-01) (92, 1.08230656714016815201e+00) (93, 5.91734144935386549569e-02) (94, 6.14559423314839037289e-01) (95, 1.03508652367827869156e+00) (96, 1.43852534426450273664e+00) (97, 1.00351266463463395517e+00) (98, 2.87712506491615771509e+00) (99, 8.16916027866567695526e-01) (100, 3.56580692599170578916e-01) (101, -4.11880101234819329115e-01) (102, -1.20929402632029142639e-01) (103, 6.96094821141759134697e-01) (104, 8.75154197159578428611e-01) (105, 8.47660091495889722601e-01) (106, 9.18778165818745717885e-01) (107, 1.06663197116151708954e+00) (108, -1.09472695892531035611e+00) (109, 4.38278022096173280886e-01) (110, 1.30368418459282620070e+00) (111, -2.93487709289713682992e-01) (112, 2.40313651855211835029e-01) (113, 6.40858066110602142551e-01) (114, 4.57365058905858434812e-01) (115, 1.31533461023997011452e+00) (116, 3.52034522241365832596e-01) (117, 9.30009672693960176559e-01) (118, 5.11902362140858713246e-01) (119, 1.32211521380130725412e+00) (120, -1.24480735531683830986e-01) (121, 1.01660540193429782541e+00) (122, 1.65199565838427386844e+00) (123, 8.10099159550228042903e-01) (124, -3.51105111714171913562e-01) (125, 3.02818632555036604259e-01) (126, -1.28184268402073975324e+00) (127, 2.98782420512390178846e-01) (128, -2.68678759288177415598e-01) (129, 7.58323458396121030667e-01) (130, 1.47402011372648167331e+00) (131, 6.06552935393964598454e-01) (132, -1.52997369325651888516e+00) (133, 5.71903358229324365603e-01) (134, 7.05734975633184324906e-02) (135, 7.42272340161577948159e-01) (136, 1.71132677899140800415e-02) (137, -1.01517236321572701385e+00) (138, 1.16517647114034739175e+00) (139, -5.81741878342210916308e-01) (140, 5.31966483105715037816e-01) (141, -1.64560274204635953454e-01) (142, -1.67583624003954168025e+00) (143, -7.43127870243616595047e-01) (144, 7.71023021147567044764e-01) (145, -4.44252615887979596110e-01) (146, 5.87170143962846502461e-01) (147, -3.11245594882606944551e-03) (148, -1.76981306125635029503e+00) (149, -4.32949561037673291697e-01) (150, 5.01189115268028562156e-01) (151, -1.01765291254865086756e+00) (152, -1.80651057004743886836e+00) (153, -8.62210317432084649703e-01) (154, -2.86115354371258678867e+00) (155, -1.86345228984476030121e+00) (156, -9.87141839820413813378e-01) (157, -5.65455931728746308274e-01) (158, -2.87738525510851372857e+00) (159, -1.96377157951555458837e+00) (160, -3.88818991486773013477e+00) (161, -1.17873195610664693866e+00) (162, -1.40957152579868461029e-01) (163, 3.64491697249721524621e-01) (164, -8.33213953420739228406e-01) (165, -2.43300496534670251947e+00) (166, -2.24443269684720858592e+00) (167, -4.39070123596005856825e+00) (168, 4.00098847091015286104e-01) (169, -1.67565886664417718066e+00) (170, -1.27926611008498514188e+00) (171, 1.17913153583171470551e+00) (172, -1.16060220988821516386e+00) (173, -3.77674639217238583555e+00) (174, 3.03177899433997577461e+00) (175, 2.04483885639106549581e-01) (176, -6.31713658155635515712e-01) (177, -5.41258772263504051026e-01) (178, -1.81673662160732329873e+00) (179, -3.56328030901185011103e+00) (180, 1.01351065136113205334e+00) (181, -8.68208329117139188114e-01) (182, -1.12313780883404956690e+00) (183, 6.40810793272100109874e-01) (184, -7.48107373694322647095e-02) (185, 6.61792853090936161742e-01) (186, 7.95353645124100117059e-01) (187, -1.26069269471084960399e-01) (188, 2.36480129770056425598e-02) (189, 2.44552200854930873453e-01) (190, 7.82903709352337995320e-01) (191, 6.03141252528356375251e-01) (192, -3.31209440316751035915e-01) (193, 4.46786293851905214058e-01) (194, 2.36436655132561318604e-01) (195, -5.01375166478918374291e-02) (196, -2.14382648476007409144e+00) (197, -6.36820476960693770963e+00) (198, 8.02700315834833477702e-01) (199, 1.97107838495985454585e-01) (200, 2.12625891928430926781e-01) (201, 4.02164104860668669694e-01) (202, -3.49367439931045242751e-01) (203, -2.12307278302399016212e+00) (204, -2.55731830013084193709e-01) (205, 4.25266416577974093460e-01) (206, -1.77278129502385084493e-01) (207, -6.18556175444571532118e-01) (208, 6.14798383421953142935e-01) (209, -1.89743050261135826062e+00) (210, -2.21193651730350382412e-01) (211, 1.30385269442461704248e-01) (212, -2.25848415043430089666e-01) (213, 8.56281195109408060917e-02) (214, -1.07908922000388218798e+00) (215, -7.27720559892518076284e-02) (216, 5.48916093954760930806e-01) (217, 1.41292401387653376865e+00) (218, 9.95275564984732380447e-02) (219, -2.94465523927514294389e-01) (220, -1.51487879755549392780e-01) (221, 4.96323351285973490832e-01) (222, 1.30372008502138436725e+00) (223, 1.23056664560271000752e+00) (224, 1.09058681640993548889e+00) (225, -1.39283671346600734786e+00) (226, -4.72254680159415185514e-01) (227, 9.02938741028689539903e-01) (228, 1.44328564616427335032e+00) (229, -1.60069127273192932104e-02) (230, 6.75571326475179922966e-01) (231, -8.99537550516718464877e-01) (232, -7.73675952475849748602e-01) (233, -6.04624181605556643149e-01) (234, -6.69897265060059865505e-01) (235, 7.04200433639839973310e-02) (236, 1.35338784922641086617e+00) (237, 4.62487860495379571324e-02) (238, -6.70582203262495568641e-02) (239, 1.17994011595252024094e+00) (240, 9.94418409654965196331e-01) (241, 9.84383388827323679848e-01) (242, 6.39531194045492079603e-01) (243, 1.05933827856466233897e+00) (244, 4.74027012995735463896e-01) (245, 4.10570406678434141057e-01) (246, 1.36862209296500059175e+00) (247, 1.52484257260944211509e+00) (248, 9.96977611617164249935e-01) (249, 1.37825005769145003676e+00) (250, 2.04274466699402834635e+00) (251, 1.88007324877651260664e+00) (252, 1.34548521475408122683e+00) (253, 1.02739257213303658567e+00) (254, 1.56187046537868612361e+00) (255, 9.13303091382955400945e-01) (256, 3.87741731209833240257e-01) (257, 2.31860631443483206082e-01) (258, 7.19441342586819576610e-01) (259, 3.13975176376281583934e-01) (260, 8.66843528552840525414e-01) (261, 1.85029110884161207551e+00) (262, 1.31566243485701828142e+00) (263, 8.94857229037455237375e-01) (264, 2.51578833214743669000e-01) (265, 1.29464678599866922504e+00) (266, 1.44515197786005078484e+00) (267, 5.66895912723494391217e-02) (268, 5.12508675068103602968e-01) (269, 3.44349261368977921371e-01) (270, 1.91936361752179873719e+00) (271, 1.96143336439454452069e+00) (272, 1.32625601458437114566e+00) (273, 6.12683457597273273265e-01) (274, 1.65631986281330378930e+00) (275, 2.00737723863517514289e+00) (276, 1.63405474130374850361e+00) (277, 8.35466449716381953650e-01) (278, 1.34899619204050824628e+00) (279, 2.67832323342480249639e-01) (280, 2.94871650961199160967e-01) (281, 5.36916737388634657258e-01) (282, 2.10695460374853427155e+00) (283, 1.69675391798536900900e+00) (284, 1.63184146349814085397e+00) (285, 1.64391803768069144631e+00) (286, 7.25617018261379476129e-01) (287, 2.03730911771282618972e+00) (288, 2.02776711401682208091e+00) (289, 1.34156113618795735931e+00) (290, 1.94635858179972337512e-01) (291, 7.12728180352688145405e-01) (292, 1.42418494686280983075e+00) (293, 1.73609437653074105690e+00) (294, 1.69388660785205980019e+00) (295, 1.41610082980640550332e+00) (296, 9.72777873244362933924e-01) (297, 1.20428771281938340465e+00) (298, 1.43412349513332881834e+00) (299, 1.44202707103054561522e+00) (300, 8.27869210662630972131e-01) (0, 1.95048583893417903923e+00) (1, 9.99583720257420038635e-01) (2, 2.03571486382736521747e+00) (3, 1.24794992480401312207e+00) (4, 1.90072795424584661816e+00) (5, 2.03438087973717784962e+00) (6, 2.05840859585021629385e+00) (7, 7.73351641651269794409e-01) (8, 1.91365049057220404372e+00) (9, 1.56731866230528704698e+00) (10, 1.27889927709828876701e+00) (11, 5.10015750773060716483e-01) (12, 1.22251804684904441523e+00) (13, 1.45268648093458985215e+00) (14, 2.01995657843926590402e+00) (15, 6.95726440654735184266e-02) (16, 1.64325630981395853780e+00) (17, 1.21875219939232448674e-01) (18, 1.19848709548981102735e+00) (19, 1.95080419937786953000e+00) (20, 2.49573495554978347366e-01) (21, 2.73821494448671480526e-02) (22, 1.17244205282230318232e+00) (23, -1.73085382606928933624e-01) (24, 1.71958819399556928076e+00) (25, 3.33346484672897624968e-01) (26, 1.24677219845043985025e+00) (27, 7.83510213639179720069e-01) (28, 2.45336204214132297396e-01) (29, 1.63623873053034474268e+00) (30, 1.60514363796394610162e+00) (31, 6.59455722206907513083e-01) (32, 9.43724402344130686160e-01) (33, 1.11031666982431231894e+00) (34, 1.25686920243359079308e+00) (35, 3.36868374798101388734e-01) (36, 1.39815362775110352267e+00) (37, 1.81591495167627470231e+00) (38, 1.45625466459673602593e+00) (39, 7.32371264789678844132e-01) (40, 4.46514608629413778385e-01) (41, 7.06974203774612397488e-02) (42, 1.36318219318155464670e+00) (43, 1.71991713530334516813e-01) (44, 1.91346991490715900852e+00) (45, 5.59460255106523640656e-01) (46, 2.02847245563310518701e-01) (47, 1.01267618162901107404e+00) (48, 1.33924050326741217454e+00) (49, 1.52830168958595025153e+00) (50, 1.25892461648653952722e+00) (51, 3.62269968357166682882e-01) (52, 1.57203213746041203791e+00) (53, -1.79609277599992456231e-01) (54, 1.49201638926430502075e+00) (55, 1.32793965203566144417e+00) (56, 7.71475417659459483666e-01) (57, 4.08283451449147738455e-01) (58, 1.93428340872176002252e-01) (59, 7.57916558706919651911e-01) (60, 3.68847583722257621464e-01) (61, 1.59391530180426999053e+00) (62, 1.29895119343188425454e+00) (63, 5.48197258220351035796e-01) (64, 9.19103062623843669599e-01) (65, 2.88471964153301840827e-01) (66, 1.60519660175837852734e+00) (67, 1.96302096601651709928e-01) (68, 1.57903731176550848891e-01) (69, 5.78777338788625694832e-01) (70, 1.51745047274989119934e+00) (71, 1.15570422216142798533e+00) (72, 8.24896512932241199323e-01) (73, 7.59229336243602448420e-01) (74, 1.02572100932705478904e+00) (75, 8.04027808791487275109e-01) (76, 1.42751165383464617697e+00) (77, 1.62952730055121741692e+00) (78, -6.81575016969126479260e-01) (79, -5.98707458249208901435e-01) (80, 8.60683730608485242364e-01) (81, 1.40600355480152972021e+00) (82, 1.83695088790461102946e+00) (83, 8.36425732627112838991e-01) (84, -6.03676815852024706288e-01) (85, 1.08929036197211170922e+00) (86, -2.07089347879698570942e-01) (87, 6.32020131925879580237e-01) (88, 1.44457111787495179334e-01) (89, 5.32391681009913297906e-01) (90, -4.00962809104786599423e-01) (91, 1.98961432572997032331e-01) (92, -5.08734445626052092515e-02) (93, 1.15752213665809855492e+00) (94, 2.15577770995395878728e+00) (95, 1.35172067939600037967e+00) (96, -1.17638560622813734269e-01) (97, 1.40973810652339781591e+00) (98, 1.55036126280294639379e+00) (99, 2.33804413086558610102e-01) (100, 1.10945812553343858831e+00) (101, 1.30070017412099181442e+00) (102, 1.29801334697568182541e+00) (103, 8.37718719169963654814e-02) (104, 8.12191171008236206807e-02) (105, 4.27562505871173781369e-01) (106, 1.88215852859413868003e+00) (107, 1.09362045674883545665e+00) (108, 3.51370455445601970190e-01) (109, -7.03248881044063189893e-02) (110, 6.12076886528970964818e-01) (111, 9.09132121378411817147e-01) (112, 1.73028244092399829945e+00) (113, 4.43502374031793433762e-01) (114, 2.29777759874372655702e-01) (115, 2.12748999582225456484e-01) (116, 1.75298197971993219291e+00) (117, -7.00954455006488452717e-01) (118, 8.47801379496385787427e-01) (119, -5.19441999614069116475e-01) (120, 1.13232745023191827549e+00) (121, 1.54307606192408530710e+00) (122, 7.62268426276054400503e-01) (123, 2.38122795452986001086e-02) (124, 4.71586024975024997730e-01) (125, 3.76001914171369244766e-01) (126, 3.89479893123097775653e-01) (127, 1.26265305585208520434e+00) (128, 4.86179319185499669853e-01) (129, -1.91283453724604673996e-01) (130, 1.65716183049335707977e+00) (131, -4.45344151840935231768e-01) (132, 1.18496634837993686240e+00) (133, 1.65754121143513311054e+00) (134, 1.12936834953458187236e+00) (135, 5.91851978021767588523e-01) (136, -1.18624742071703970225e+00) (137, 3.00799256578946055257e-03) (138, -2.85071268725773874220e-01) (139, 1.16172127327959451293e+00) (140, -6.30157174817393084254e-01) (141, 3.80054235337888790536e-01) (142, 1.97143809734972835779e-01) (143, 8.24481706793437574277e-01) (144, -7.57049094044813575266e-01) (145, 6.75765400419179873559e-01) (146, 6.46697312576671956563e-01) (147, 2.14311657319751880379e+00) (148, 1.08809429819842895526e+00) (149, 3.60266760171187694350e-01) (150, -3.54429659013451803240e-01) (151, 2.06756981346322060711e-01) (152, -4.83689270567884022078e-01) (153, -9.56990538811334882918e-03) (154, 1.45301560365475457282e+00) (155, 3.55969478992499588355e-01) (156, 1.13487490800848411787e+00) (157, 5.07356580335978912810e-02) (158, -3.65735208760872620992e-01) (159, -2.90713253598182808091e+00) (160, 4.19898597443847221289e-01) (161, 1.51992594883509690717e+00) (162, 5.08919907769642909656e-01) (163, -5.06537730923807383299e-01) (164, 6.86829395191626446149e-01) (165, 5.96329668369296683750e-01) (166, -2.22806453588992536829e-01) (167, -2.54394827532001932546e-01) (168, -2.85307022066971005536e-01) (169, 1.46893695699240467434e+00) (170, 8.73200100255280498018e-01) (171, 1.26202409689921402070e+00) (172, -1.50737957161607538659e-01) (173, -3.99636385421693607345e-01) (174, -4.30721217674505940654e-01) (175, -1.91079019286392509658e-01) (176, 3.28173486619277365861e-01) (177, -1.58299889315190789318e-01) (178, -2.86406792649165388431e-02) (179, 3.85412121943981111905e-01) (180, 1.59113552251044038099e-01) (181, -3.25540900412499667471e-01) (182, 6.12055967999810324187e-01) (183, 5.13577214109816937437e-01) (184, 9.02711534024495776407e-01) (185, 9.39470864598173860394e-01) (186, 1.39913860411028778685e+00) (187, 2.11534574394891261573e-01) (188, 1.01067781317381255590e+00) (189, 1.51311394433392054637e+00) (190, 4.70493028527768253344e-01) (191, -7.80144921241646832621e-02) (192, 1.75346911129030447185e+00) (193, 2.14999952028745466848e+00) (194, 8.94566197214833103146e-01) (195, 1.00754463239175717781e+00) (196, 9.34804603978905079842e-01) (197, 7.36774330829914170238e-01) (198, 1.47907728117300885096e+00) (199, 1.30867699674569926138e+00) (200, -4.48880326375792337856e-02) (201, 4.93738629836790898775e-01) (202, 6.72233312155609663563e-01) (203, -1.23869528220916111372e-01) (204, 9.13811406137994941545e-01) (205, 2.20824908391061480728e+00) (206, 7.07236354973781566891e-01) (207, 1.74980506204407038062e+00) (208, 1.21223892830794288678e+00) (209, 4.64784174956578310933e-01) (210, 9.87864325451203395545e-01) (211, 3.29591819354196791103e-01) (212, 1.53751993688327615040e+00) (213, 1.76502360467537755540e-01) (214, 7.58552526990127540252e-01) (215, -9.59826423238347437028e-02) (216, 1.37505343305370120177e+00) (217, 8.96991633818137179546e-01) (218, 1.35418997164576326853e+00) (219, 1.49445040385910909997e+00) (220, 2.11440407960839821255e-01) (221, 1.58056995539045241905e+00) (222, 6.20675738718981725994e-02) (223, -6.84124982506293527473e-02) (224, 2.29384594631128502229e+00) (225, 1.40852880032256089216e+00) (226, 1.27021195906759287730e+00) (227, 5.41969238200922132087e-01) (228, 6.95125919217892573876e-01) (229, 9.29404061510753165543e-01) (230, 1.81648722347421998080e+00) (231, 8.43407132078485277660e-01) (232, 1.45982276022287926764e+00) (233, 2.89729370974653788195e-01) (234, 1.70142426188079953775e+00) (235, 4.78289439310110364723e-01) (236, 2.40111763359726904099e+00) (237, 4.35722496220635538422e-02) (238, 2.42574601853919324945e-01) (239, 8.73873461506713966607e-01) (240, 1.32670931211128895200e+00) (241, 1.03329012232307415609e+00) (242, 9.24151725231149856477e-01) (243, 4.10443696849178141228e-01) (244, 1.45742882629439862718e+00) (245, 1.83853112184031086684e+00) (246, 5.47563181464019610445e-01) (247, 1.47420013051968568085e+00) (248, 6.05801249497653238052e-01) (249, -1.61615542985432875112e-01) (250, 9.67336092654239365629e-01) (251, 7.05991928217803543788e-01) (252, 1.58429977061771154467e+00) (253, 1.41661213370213845408e+00) (254, 7.31715211194214898427e-01) (255, 1.24658917372000765944e+00) (256, 9.87274276599474087668e-01) (257, 1.45946193245087063595e-01) (258, 6.71747764739737684980e-02) (259, 2.00499666179878266448e+00) (260, 1.08272531136209537728e+00) (261, 1.67603199790239454359e+00) (262, 8.20731100280169489913e-01) (263, 5.52336433266834236910e-01) (264, 2.52815761308139097530e-01) (265, 4.12459688821538827952e-01) (266, 9.87453873310702778809e-01) (267, 1.68673078536797427240e+00) (268, 3.94878877154019536366e-01) (269, 1.28605764686820234211e+00) (270, 9.29102667453302388800e-01) (271, 1.79489202775192779882e+00) (272, 5.67370628352904304847e-01) (273, 1.73220979444976808104e+00) (274, 2.95737074503573449391e-01) (275, 2.20711177011740700138e+00) (276, 1.95610712801924169213e+00) (277, 1.39569694106905384245e+00) (278, 1.46350063656507956011e+00) (279, 1.88730171097316712370e-01) (280, 1.26828061464362873423e+00) (281, 7.65890255790649399081e-01) (282, 1.22108287720380603858e+00) (283, 1.19152948651138057556e+00) (284, 2.02252424590212820377e+00) (285, 1.78898332452995934005e+00) (286, 6.35460982845015842635e-01) (287, 1.16853912807645810013e+00) (288, 2.56781854354094063453e-01) (289, 6.48338625913124078082e-01) (290, 9.65649991773886662294e-01) (291, 1.25606940703900149536e+00) (292, 4.83976085709589942674e-01) (293, 1.87232669167425114232e+00) (294, 1.82593495655582493953e+00) (295, 7.21043620431045528818e-01) (296, 2.01221000575641961738e-01) (297, 6.53800002222932330476e-01) (298, 5.59740343897351388947e-01) (299, 6.61598908328215440378e-01) (300, 2.08020829911031412962e+00) (301, 3.83574930736880537196e+00) (0, -3.49452432519938294142e-01) (1, -4.12970807678248230665e-01) (2, -3.56217544800783936232e-01) (3, 2.71744405012456169413e-01) (4, 3.06152070401993880999e-01) (5, 1.14090631245461662790e-01) (6, -4.75142430150085837148e-01) (7, -4.53259534769827276968e-01) (8, -3.21204218649441042288e-01) (9, 2.13046128341128904182e-01) (10, 3.29389144866015892710e-01) (11, 2.17924440183501044732e-01) (12, -4.39372420250292772259e-01) (13, -3.99557975974528911678e-01) (14, -4.40313709822147125728e-01) (15, 1.95144447390358688477e-01) (16, 3.04305156289594536112e-01) (17, 2.72896466390507630440e-01) (18, -3.94329249792030545052e-01) (19, -3.78835309973003409034e-01) (20, -4.06084715052716704875e-01) (21, 2.96063395272733731467e-01) (22, 3.21910734193785574853e-01) (23, 3.00978287380380682414e-01) (24, -3.13538798413456665237e-01) (25, -4.49194440694019592186e-01) (26, 1.39052980538213133421e-01) (27, 3.48639072347044332023e-01) (28, 2.71455432212599545583e-01) (29, 2.49234154146356634563e-01) (30, 1.95755315515476119304e-01) (31, 1.83019316862711139970e-01) (32, 9.67475949930039491598e-02) (33, 2.51665008451604277351e-01) (34, 2.60500975670031165166e-01) (35, 2.39226080087556358666e-01) (36, 9.12170098378794064198e-02) (37, 8.47547389354940360062e-03) (38, -2.88139365143358396060e-02) (39, 4.33954580662700373228e-01) (40, 3.83942129130171616591e-01) (41, 4.95818798787391545879e-01) (42, 1.48183190415345472646e-01) (43, 7.78965632030674259845e-02) (44, 1.06870750440143061355e-01) (45, 1.14166613710145359306e+00) (46, 6.76351540373344328749e-01) (47, 7.91234652007326899614e-01) (48, 1.63017924371296474284e-01) (49, 1.56584399203543278567e-01) (50, 1.78635342146452935630e-01) (51, 5.06206744104272488016e+00) (52, 2.43476728993766844411e+00) (53, 3.12172309689406057842e+00) (54, 1.71507385378676491250e-01) (55, 3.38186274946127796159e-01) (56, 1.72848323673668091693e-01) (57, 5.84583631428886918435e-01) (58, 4.81587312121952437760e-01) (59, 4.96297897990284064829e-01) (60, 1.76464382810494979648e-01) (61, 1.51769660203162820578e-01) (62, 1.87993838817392233675e-01) (63, 1.27412497810254210506e-01) (64, 6.43671760739396858764e-02) (65, 6.03539013171484506337e-01) (66, 3.64744909865129973703e-01) (67, 2.51965797470271812841e-01) (68, 2.57346096836488458237e-01) (69, -2.80195044469358278683e-01) (70, -1.19554107287981059571e+00) (71, 3.76559183815389442174e-01) (72, 4.10289456202151403552e-01) (73, 3.59539841404117099799e-01) (74, 2.99797929001702545548e-01) (75, -3.94087172750074488103e-01) (76, -9.94884243919168076431e-01) (77, 8.20847865596347064931e-02) (78, 4.22094626593433996931e-01) (79, 2.81314265733299539995e-01) (80, 1.73448117268424656379e-01) (81, -1.26179274222119297555e+00) (82, -4.93677847504090205888e+00) (83, -1.86697584506493297063e+00) (84, 8.05116318296124289233e-01) (85, 2.35089379321946650991e-01) (86, 9.06915877097349332203e-01) (87, -3.21942792807090982787e-01) (88, -1.29674254690794588107e+00) (89, -5.18541465214044317023e-01) (90, 3.32524057221038338295e-02) (91, 6.56525148740428887706e-02) (92, 1.77736783144782983790e+00) (93, -6.59857672985265875099e-01) (94, -1.33130873237126734487e+00) (95, -1.16098626062000484516e-01) (96, -2.99003021311695982298e-01) (97, -5.45893583769375467796e-01) (98, 7.16171112449215607754e-01) (99, -5.67089610661982046480e-01) (100, -8.04635030191855893378e-01) (101, 8.69186691442160319632e-02) (102, 8.76473141507691649865e-02) (103, -6.19806246393117321603e-01) (104, 2.01491661515222575396e-01) (105, -9.95833601979566329643e-02) (106, -2.82497535915704367504e-01) (107, 2.98204273225540050785e-01) (108, -3.12241509957581875323e-01) (109, -5.43306645528407794465e-01) (110, 1.52175792333571341386e-01) (111, 1.90875262130925427151e-01) (112, -7.34512916627654555146e-02) (113, 5.46185610057648318616e-01) (114, -5.65689028655333103757e-01) (115, -5.95728967462273772959e-01) (116, 2.39346711463551242716e-01) (117, 4.95977210084586339622e-01) (118, -2.48852597190718366482e-01) (119, 3.62687735829261892473e-01) (120, -3.98598687523777139852e-01) (121, -5.94989813736812700462e-01) (122, 5.82788850590373108673e-01) (123, 3.45310673814650470614e-01) (124, -5.49558699226013191996e-01) (125, 4.36964284254771351268e-01) (126, 9.48363869099247080996e-01) (127, -9.30965261211006089859e-01) (128, 1.57885242319965835023e+00) (129, 2.40295373106635706817e-01) (130, -1.40173351350086994316e+00) (131, 8.32727989028096138302e-02) (132, 1.00130709895960720579e-01) (133, -1.44357805688257201382e+00) (134, 8.25945994885097234395e-01) (135, 2.56056362298211992456e-01) (136, -1.99340052325421068780e+00) (137, -3.40449445702442565764e-01) (138, 1.02780171972248113299e+00) (139, -8.42504453845654865951e-01) (140, 2.20390498855730232464e+00) (141, 2.62717428112516915295e-01) (142, -2.17514602407801760364e+00) (143, 4.05157333614250825260e-01) (144, 7.21831654632420494089e-01) (145, -1.74914003538407181182e+00) (146, 1.62431357602042680810e+00) (147, -2.98426804739872486572e-01) (148, -2.17237913766533807802e+00) (149, -4.88376174620020031547e-01) (150, 1.75358194326127564411e-01) (151, -1.40314016596103785517e+00) (152, 7.02674192728995561374e-01) (153, 2.24929616153223155273e-01) (154, -4.18026668138220092175e+00) (155, -2.39808532402931184890e+00) (156, 5.40032829227671817840e-01) (157, -1.04067518578738882340e+00) (158, 4.81146477883962420119e-01) (159, 3.10318019508132980633e-01) (160, -2.93288082551185524949e+00) (161, -1.26231388151784118534e+00) (162, -7.77792335815705615509e-01) (163, -1.44819065328396212600e+00) (164, -1.08697171463189551366e-01) (165, 2.19719433629745525272e-01) (166, -2.26337064298458212619e+00) (167, -5.72112607682541907117e-01) (168, -7.51878860512360414070e-01) (169, -5.16862612628680651028e+00) (170, -1.41886347676634305692e+00) (171, 5.06367429940396851507e-01) (172, -6.43407681363800443286e-01) (173, 3.58716965083418076743e-02) (174, -3.36010569106214351809e-01) (175, -1.62579949138444934675e+00) (176, 3.74444893130463085651e-01) (177, 4.18647709968696990490e-01) (178, 2.46312005434775438406e-01) (179, 2.09434745655068699222e-01) (180, -8.67933895599004912036e-01) (181, -2.08151586378138109268e+00) (182, -6.65997723945994102301e-01) (183, 3.98301615768997419043e-01) (184, 1.73392825223419616565e-01) (185, 4.59958033351526407451e-01) (186, -9.70255755993025936768e-01) (187, -2.81342505108664475699e+00) (188, -1.86802820540448255571e+00) (189, 4.18051483300459769676e-02) (190, -4.57973361474232273927e-02) (191, 4.69202220395159130817e-01) (192, -6.23916833080049970661e-01) (193, -1.74943183188579287624e+00) (194, -4.82979016222264190272e-01) (195, 5.46006050495537742506e-01) (196, -1.15633500813782041927e-01) (197, 4.64108666955091619943e-01) (198, -6.61350489643524885874e-02) (199, -8.97755827860618471625e-01) (200, -6.99370364456027737710e-01) (201, -5.17646796846662760050e-02) (202, -1.97654900893154489294e-01) (203, 4.41843560814224434186e-01) (204, 5.01558428570226366716e-01) (205, -6.57451683003640430236e-01) (206, 2.17299058090309499258e-01) (207, 5.32385589779020507173e-01) (208, -1.54887879581584425592e-01) (209, 5.33901386831353463869e-01) (210, 3.57766103563201431914e-01) (211, -2.60130820113502858604e-01) (212, -5.28891336384731070019e-01) (213, 4.85676362459035226848e-01) (214, 1.32282778980360199439e-01) (215, 4.60713083484366292542e-01) (216, 4.06146564928239361958e-01) (217, 2.12356887360736573678e-01) (218, 3.29805076357757298577e-01) (219, 1.67935482923758788720e-01) (220, 2.30429924439973093930e-01) (221, 3.67865654964050436959e-01) (222, 2.60787742903756503132e-01) (223, 3.44424277050503324649e-01) (224, 3.04563997170855305097e-01) (225, 1.80092489970984453995e-01) (226, 1.21291586395941092258e-01) (227, 3.31601316201021789620e-01) (228, 4.34050850705628599169e-01) (229, 4.97001463617186500787e-01) (230, 6.98040715092929975327e-01) (231, 4.39321506790381233198e-01) (232, 2.61871420889066841564e-01) (233, 4.82476836005187703638e-01) (234, 6.58987901923646313129e-01) (235, 7.13411626719042346600e-01) (236, 7.58642128982113694846e-01) (237, 3.59588321977545088970e-01) (238, 2.33342513760881636875e-01) (239, 4.68146308666202048965e-01) (240, 6.74054282779009472648e-01) (241, 9.03429801052811010109e-01) (242, 8.75408791346070969119e-01) (243, 2.85384545078462170675e-01) (244, 3.29073469931262463373e-01) (245, 2.36074101897814137008e-01) (246, 7.06743044740872905507e-01) (247, 4.79892680783982894521e-01) (248, 9.69177189136866790165e-01) (249, 2.61895619602806106752e-01) (250, 2.46752400156228179906e-01) (251, 1.72494200064441660647e-01) (252, 1.22691356641257565130e+00) (253, 1.17222416832796083597e+00) (254, 1.53830119561155953534e+00) (255, 2.12042916087880617404e-01) (256, 1.62077035389767587503e-01) (257, 1.70389226108735747367e-01) (258, 6.02711102183012825684e-01) (259, 6.32897010262160164551e-01) (260, 1.41091655891266132272e+00) (261, 3.40301506732177849734e-01) (262, 1.61504262709666779330e-01) (263, 1.12865548023718315074e-01) (264, 3.99539048038307087474e-01) (265, 3.82967350805154760351e-01) (266, 2.27468551884818459552e-01) (267, 3.31629650343821913427e-01) (268, 3.21390462081521777193e-01) (269, 2.24661373244660594883e-01) (270, 2.03974430362753200718e-01) (271, 1.66492474005368124024e-01) (272, 1.36594316599834175729e-01) (273, 1.29937421109230816230e-01) (274, 1.12885245340334380848e-01) (275, 1.06680114087373725806e-01) (276, -3.96571676814133078359e-01) (277, -5.22965190854518535701e-01) (278, -5.07232924738312274116e-02) (279, 1.48041840032596766497e-01) (280, 2.00927405312740864352e-01) (281, 9.89701589142917975694e-02) (282, -4.09583624088341147207e-01) (283, -4.27001742568462128169e-01) (284, -6.34490381894335042645e-01) (285, 2.44156463619649488628e-01) (286, 2.50178528921989551392e-01) (287, 1.48833190724302399932e-01) (288, -4.78592332088524252676e-01) (289, -4.08662702524238974355e-01) (290, -5.04849157221809452523e-01) (291, 1.78809172242792357999e-01) (292, -2.40740584782687006005e-01) (293, 9.09453708688326978304e-02) (294, -3.92468195044571310781e-01) (295, -4.55075144403749853872e-01) (296, -4.81572661184841543935e-01) (297, -1.68556953340729925861e-01) (298, -2.71665728211364143618e-01) (299, -2.90972965329846733340e-01) (300, 1.73278579990333270189e+00) (301, 4.07444654140140727350e+00) (302, -1.17948125151610803130e+01) (0, 3.98297565685158672100e-01) (1, 4.17750048147087993389e-01) (2, 3.97785084949379863506e-01) (3, 4.04176287730287964184e-01) (4, 4.28040765603136474926e-01) (5, 4.32777174194406921703e-01) (6, 3.71292696184449211305e-01) (7, 3.03540416843228466615e-01) (8, 4.08448592609696625733e-01) (9, 2.72997957776284105869e-01) (10, 3.26029976650762887136e-01) (11, 3.10855739292242139182e-01) (12, 3.12436968869500397705e-01) (13, 4.10371019918076174182e-01) (14, 5.27177813876024692341e-01) (15, 3.15115739734668720562e-01) (16, 2.30342888742692486481e-01) (17, 1.99100304970845631836e-01) (18, 2.31868418388590791235e-01) (19, 4.43408499480854090269e-01) (20, 3.36045744837890458800e-01) (21, 1.85658497195848815053e-01) (22, 2.02707123587235860107e-01) (23, 2.08336690870505186757e-01) (24, 1.76048416689515735412e-01) (25, 3.31350811203073913891e-01) (26, 3.29840533812593872387e-01) (27, 1.94352021892692128358e-01) (28, 5.37992819093083274318e-01) (29, 4.88328568513731686718e-01) (30, 1.59181275096395541402e-01) (31, 2.87618456765404761910e-01) (32, 2.84847909202692872732e-01) (33, 2.03142428678351860682e-01) (34, 4.42350826454145418243e-01) (35, 4.50420859797840023031e-01) (36, 2.91145869431614523481e-01) (37, 3.24279113098374371926e-01) (38, 2.77620771517870790213e-01) (39, 1.61018186623916342848e-01) (40, 4.33779157075873833538e-01) (41, 3.95179744406585597982e-01) (42, 8.87463335006223874579e-02) (43, 2.56452242113167416804e-01) (44, 2.71946618534142203760e-01) (45, -2.78510893708022233550e-01) (46, 4.82542942786044648518e-01) (47, 5.69670239080581120028e-01) (48, 4.79127924540990735025e-02) (49, 1.81786487023105625127e-01) (50, 2.35202854512099712725e-01) (51, -4.20455505597734424672e-01) (52, 5.90577566613349369540e-01) (53, 3.39967785294086721759e-01) (54, 1.44166874964119506863e-01) (55, 2.63782532521591783770e-01) (56, 3.41793186291346751116e-01) (57, 1.08823641653423841547e-01) (58, 5.74062840630206516757e-01) (59, 3.66147040123389555522e-01) (60, 1.14913361978929665086e-01) (61, 2.46712038858929338936e-01) (62, 1.52575738595142396115e-01) (63, -5.66553361437349023433e-01) (64, 5.48006456497461269528e-01) (65, -2.55545369650342635293e-01) (66, -6.40836062589468458128e-01) (67, -4.32203233096180972073e-01) (68, 2.56978223999037580505e-01) (69, -1.20457398558558348434e+00) (70, -7.49194115720382192158e-01) (71, -8.21029711024132136110e-01) (72, -6.59474131099625049401e-01) (73, -5.69052052440521038967e-01) (74, -5.15396588104228170479e-01) (75, -1.30810955123659078403e+00) (76, -6.96222283532686447849e-01) (77, -6.87814493699387408121e-01) (78, -6.73107769720001636315e-01) (79, -5.58627155365821637112e-01) (80, -5.40518937259190868083e-01) (81, -1.33137366988124239420e+00) (82, 2.45029398743401044536e-01) (83, -2.73795045742280251932e-01) (84, -7.11978529028340023643e-01) (85, -4.97228632575125228943e-01) (86, -6.42853582018055647040e-01) (87, -1.38658428688323431821e+00) (88, -7.99394642385009235319e-01) (89, -3.22096671589178373818e-01) (90, -1.88073021296139786251e+00) (91, -7.08266820041977829270e-01) (92, -7.54980514724216122957e-01) (93, -1.78614071755182757251e+00) (94, 1.69981075137693976584e-01) (95, 3.57887981540354893628e-01) (96, -1.80420017376261454523e+00) (97, -1.02152792538472181327e+00) (98, -1.20849816407147048203e+00) (99, -9.24800958302368303343e-01) (100, 6.30167865861280263040e-01) (101, 1.80395617209283959381e-01) (102, -1.17172105620978017626e+00) (103, -4.32215364382278532940e-01) (104, -3.99552308138990786013e-01) (105, -6.10220710969864854611e-01) (106, 4.51174633214424247729e-01) (107, 6.93134334590803313780e-01) (108, -1.16942069737272436036e+00) (109, 1.83510458828887307314e-01) (110, -4.13303923328608602272e-01) (111, -4.86602943006131605230e-01) (112, 1.01402789784438418508e+00) (113, 7.05773361950091659978e-01) (114, -1.11101715702038505995e+00) (115, 2.54591933459858532629e-01) (116, 2.87269512432477502895e-01) (117, -9.22604851279394400088e-01) (118, 8.06553716351901650583e-01) (119, 6.24037500984688131567e-01) (120, -1.19148312446459980762e+00) (121, 3.97055863411049536627e-01) (122, 1.55009345074753029925e-01) (123, -1.61670947086140359694e+00) (124, 5.07262481414715638017e-01) (125, 9.55621854255387037647e-01) (126, -2.48540357403393885605e+00) (127, -3.42507334393883644541e-02) (128, -4.06142982588913403763e-01) (129, -2.23667812086384998338e+00) (130, 6.08818914237560293579e-01) (131, 1.79525230236799338002e+00) (132, -1.44789796159696737554e+00) (133, 1.36430556536602354267e-01) (134, -3.45011129625030499302e-01) (135, -1.75227033852987057472e+00) (136, 2.77849196346552496095e+00) (137, 9.73418750361530582538e-01) (138, -3.90492289549597604292e+00) (139, 4.10535045303106749248e-02) (140, -1.51525240191019916480e+00) (141, -1.19045284563255782118e+00) (142, 3.35320390462555284472e+00) (143, 9.59334408375040581518e-01) (144, -1.60021822667044077981e+00) (145, 1.19415436453170875630e-01) (146, -1.85750949317866731469e+00) (147, -3.42966806076789332280e+00) (148, 2.13358550971956084652e+00) (149, 1.11934610058191585935e+00) (150, -1.69121630136666589728e+00) (151, 1.94054672491621316155e+00) (152, -1.69615717507211183346e+00) (153, -9.08890091894974827547e-01) (154, 5.62197368366112293359e+00) (155, 2.11244639779394960399e+00) (156, -2.38387373728026208397e+00) (157, 5.72286762707349905277e-01) (158, -2.35428996655629152457e+00) (159, -6.98569398173765288007e-01) (160, 5.97471376069623616445e+00) (161, 3.27955336290116328257e+00) (162, -3.02593939785798404785e+00) (163, -3.71129608865924331962e-01) (164, -4.33920340973465901158e+00) (165, -6.07355824299587565562e-01) (166, 2.28997079446554430149e+00) (167, 3.03602312494256487696e+00) (168, -4.57329106374794314149e+00) (169, -4.96838036650567527186e-01) (170, -5.76482865704900238057e+00) (171, -5.83481315655232535278e-01) (172, 7.51045023665845801197e-01) (173, 1.93634881386378765455e+00) (174, -3.05712270038428002294e+00) (175, -3.98240351142647497351e-01) (176, -1.65783788594561531937e+00) (177, -1.23238452171338122576e-01) (178, 5.51395623919933908219e-01) (179, -9.41843961119169126306e-01) (180, -9.36145752175830292430e-01) (181, 3.68603807319383314223e+00) (182, 2.33336289539937652426e-01) (183, -1.87326939582824425479e-01) (184, 4.53524912073400454648e-01) (185, -4.53368466356398602812e-01) (186, -5.63297640961721857167e-01) (187, 8.74661848368717720348e+00) (188, 6.31376822564108430846e-01) (189, 1.70724917112328698765e-02) (190, 3.96774648104762095446e-01) (191, 4.86455262016822209681e-02) (192, -3.10747878292790602472e-01) (193, 1.84112647594873601875e+00) (194, 6.04401137093857898641e-01) (195, 1.19799043215328360201e-01) (196, 3.87076753466358225442e-01) (197, 1.74575225074334344777e-01) (198, -6.15840399770445801053e-01) (199, 4.55722322017852621290e-01) (200, 1.82228243896850300443e-01) (201, 1.61238347402998277724e-01) (202, 4.44951032773912402707e-01) (203, 2.93499216743672131091e-01) (204, -1.52355393007539618999e+00) (205, 1.41175230525926426184e-01) (206, -1.63326925719965682093e-01) (207, 6.79567439518979632407e-02) (208, 3.99054394348071994614e-01) (209, 1.98535234973102381328e-01) (210, -9.81697673147310378994e-01) (211, 3.83508873785487203190e-01) (212, 3.03348347302846599316e-01) (213, 1.10546304364825778710e-01) (214, 3.42863966948683096536e-01) (215, 2.79329102338612689227e-01) (216, -1.24847257950178688879e-01) (217, 4.76874493714726621629e-01) (218, 1.49984945620841553238e-01) (219, 4.21427868499404667535e-02) (220, 1.03979273819915521426e-01) (221, 4.01180663398379711015e-01) (222, -7.26475101814075818751e-01) (223, 2.65467527484294640860e-01) (224, -1.59423811535263237893e+00) (225, 1.97937139017964058851e-01) (226, 1.88595451348087583821e-01) (227, 7.81820090717255528068e-02) (228, -1.29511413511703310508e-01) (229, 1.28820376077195736242e-01) (230, -7.74298765409034084328e-01) (231, 1.82097189898664663099e-01) (232, 1.79449303217686567669e-01) (233, -4.38079167857594653501e-01) (234, 1.10195158344571345066e-01) (235, 5.91627776593548898587e-02) (236, -9.20532693515020566943e-02) (237, 1.54855307188715096700e-01) (238, 2.53777704114885489795e-02) (239, -4.99831474230294670047e-01) (240, 1.10533817878157206160e-01) (241, 1.54714620698247734554e-01) (242, 1.33333126429467735408e-01) (243, 1.66900457835939541873e-01) (244, 3.02584707238064444523e-02) (245, 1.69950025066843441596e-03) (246, 1.55124698516020037564e-01) (247, 8.08884281238643060297e-02) (248, 1.71350236506469438824e-01) (249, 8.59072420245541729100e-02) (250, 2.75088209004588461759e-02) (251, 3.14283783961514101568e-02) (252, 1.34848192156402535424e-01) (253, 1.47703934531872804747e-01) (254, 1.18371486803821972245e-02) (255, 1.81502447311872899816e-01) (256, 9.20428869815210076721e-02) (257, 1.78399175994399611378e-01) (258, 1.10773732615531181334e-01) (259, 1.38544498041966890334e-01) (260, 5.69151132875752446827e-02) (261, 1.55390471222490056391e-01) (262, 9.37481112802923816085e-02) (263, 1.72154320374544561600e-01) (264, 1.58499164066934650208e-01) (265, 2.12398803119792062288e-01) (266, 1.77021911398271003524e-01) (267, 7.22563274550385020722e-02) (268, 1.53134265330868352128e-01) (269, 1.63967102287293192697e-01) (270, 2.95579258860982407864e-01) (271, 1.08595077838321840691e-01) (272, 1.91362889529177404579e-01) (273, 1.03941914525683937187e-01) (274, 2.07028102961238358315e-01) (275, 1.53584002969742533518e-01) (276, 2.74015982954352033119e-01) (277, 3.17370563715120235226e-01) (278, 3.53818178146501460812e-01) (279, 8.45352188909925250648e-02) (280, 4.65017141544736070657e-02) (281, 1.68907697949966899287e-02) (282, 3.55945895121937472272e-01) (283, 4.10536669976048707031e-01) (284, 4.16035950965218781494e-01) (285, 1.63520300757842101946e-01) (286, 9.83103751712370160787e-02) (287, 1.95235686973527389210e-01) (288, 3.37070869909172732282e-01) (289, 4.04725805706315056032e-01) (290, 3.71499576455883995241e-01) (291, 2.68902894082801879883e-01) (292, 1.79899085286395948868e-01) (293, 2.33546957614122308033e-01) (294, 3.77162598854832664674e-01) (295, 3.79096411949925438112e-01) (296, 3.80649820751481071657e-01) (297, 2.26561122580574703100e-01) (298, 3.63781685636883567181e-01) (299, 4.38486012326126772809e-01) (300, 1.22704445089267766278e+00) (301, 3.96133216923893638484e-01) (302, 2.33882946682940007221e+00) (0, 9.44423940958023511172e-01) (1, 9.01559644372702195803e-01) (2, 9.58852530451059781313e-01) (3, 5.46929044190268776049e-01) (4, 6.07150939765792152514e-01) (5, 4.20164798858981947127e-01) (6, 1.01182002497316392287e+00) (7, 1.11332017145477313314e+00) (8, 1.16278167031131762776e+00) (9, 4.67744290691181174857e-01) (10, 1.17276770384646233936e+00) (11, 8.76940923634392133224e-01) (12, 1.11639111896286968850e+00) (13, 1.41976290262634519124e+00) (14, 1.45427783645088437581e+00) (15, 4.56002291495824718659e-01) (16, 1.01187191265275666652e+00) (17, 9.62803409570958002028e-01) (18, 1.26816625582243203141e+00) (19, 1.84045971020541920815e+00) (20, 1.88462857084019130838e+00) (21, 3.00907808123029862912e-01) (22, 8.76606456061004069014e-01) (23, 1.00887179915162183974e+00) (24, 1.35690899156464750419e+00) (25, 1.47727432065142805229e+00) (26, 1.50166442208422790117e+00) (27, 6.89347086499727423892e-01) (28, 1.01008816332023587670e+00) (29, 1.44598522435096410454e+00) (30, 4.04665481988049469120e-01) (31, 5.26424538978659262156e-01) (32, 5.81901109388285875390e-01) (33, 8.13553299749276814801e-01) (34, 1.33981150930744674632e+00) (35, 1.45848464689782764125e+00) (36, 4.57203995006727537120e-01) (37, 4.72956974420307096896e-01) (38, 2.55868109780320596158e-01) (39, 9.33419882308484605282e-01) (40, 9.42078470843267012924e-01) (41, 1.36491122144183285592e+00) (42, 6.40918444666520592534e-02) (43, 1.83690386877203987170e-02) (44, 1.97985726596525968279e-01) (45, 3.78379228233598263742e-01) (46, 1.03055839572544671867e+00) (47, 1.03761915296277540399e+00) (48, -7.46939954718281173829e-02) (49, -1.09369216413174222269e-01) (50, 1.66501699070334407971e-01) (51, -1.41617765953168439630e-01) (52, 1.70540734337277843924e-01) (53, 9.65992344154616433549e-02) (54, -7.28181000077463141951e-02) (55, -1.73179019248346222071e-01) (56, -1.53886345118834449996e-01) (57, -5.35189975994244560020e-01) (58, 2.56732742293788285259e-01) (59, 3.19539133909727490757e-01) (60, -1.64383772427242641490e-01) (61, -1.40394461929705838266e-01) (62, 2.15572151524947741574e-01) (63, -6.42100675604884263414e-01) (64, 3.32370198462265842299e-01) (65, 9.16704920049974947283e-02) (66, -2.16620672474632069981e-01) (67, 2.01817381699671338779e-01) (68, 1.72649034825880259847e-01) (69, -7.70996615054102107933e-01) (70, -1.34168402029992625546e-02) (71, -1.68241304889303472381e-01) (72, -7.57904838103332645360e-01) (73, 1.40661131822653384660e-01) (74, 1.74302571966563846217e-01) (75, -1.34307650216538254639e+00) (76, -7.93382003492417442470e-02) (77, -2.78030913248505207047e-01) (78, -1.88191897003750630013e+00) (79, -4.32295998971272910083e-01) (80, -1.02450350631856945682e+00) (81, -5.03274229635453651532e-01) (82, 3.40189623545804897820e-01) (83, 2.64037546912863296811e-01) (84, -1.17236854218507655645e+01) (85, -2.46148240238199056407e+00) (86, -1.66757787371790011655e+00) (87, 3.44023424038899128252e-01) (88, 4.60809423688528896346e-01) (89, 7.93616121235073856965e-01) (90, -3.26187240785853260761e+00) (91, -2.44809227968970401224e-02) (92, 2.28429057768126303474e-01) (93, 3.48667382455023211474e-01) (94, 3.93710589124358634194e-01) (95, 4.39658330233096472650e-01) (96, -2.46168761176379780053e+00) (97, -4.90851182513996897594e-01) (98, -8.96859209493205078445e-01) (99, 3.23942046781018566648e-01) (100, 4.09746682269718220937e-01) (101, 3.97193787560083444443e-01) (102, -2.45781227323074835667e+00) (103, -9.03961451795303516654e-01) (104, 4.74423597533962237982e-01) (105, -1.60600965616464808061e-01) (106, 6.99272915358827157339e-02) (107, -3.07027103977544901792e-01) (108, 7.61199155655481574101e-01) (109, 1.65301035349445122336e+01) (110, 8.82919413653818629939e+00) (111, -5.55222933792444472978e-01) (112, 1.90189185706568886225e+00) (113, -6.23375386376900042507e-01) (114, -4.37055658356376941498e+00) (115, -1.50776228348760299447e+00) (116, 3.42893068538239553789e+00) (117, -5.21761505125876379196e+00) (118, -4.92299368119732161375e+00) (119, -5.59653941417301226124e+00) (120, -2.03879239374362741799e+00) (121, -2.13821144199273538433e+00) (122, 2.44183590265178329659e+00) (123, -3.29719172172746111116e+00) (124, -9.22970799431823429870e+00) (125, -1.57059262360174081152e+01) (126, -3.21679446123796424217e+01) (127, -9.78416058519391818038e+00) (128, -1.01172591795569779549e+01) (129, 4.75011079492511534283e+00) (130, -4.00996886457953749527e+00) (131, -2.25266009822769364135e+00) (132, -4.69750164470091391422e+00) (133, -3.15610711992909909185e+00) (134, 1.12551633708010601076e+00) (135, 8.73403288200602923030e-02) (136, -1.03346427031712977396e+01) (137, -1.02672131447264480819e+00) (138, 9.90818051074738748163e-01) (139, 4.42141247835338924155e-01) (140, 1.97563622799355353976e+00) (141, 2.49022118444687805550e+01) (142, 1.22917298376499140034e+00) (143, 1.46708710392184049631e+00) (144, 1.73186812821290536668e+00) (145, 1.84709877628566276897e+00) (146, 2.07503865493493133698e+00) (147, 5.06709766014802198697e+01) (148, 9.70919516361545831273e+00) (149, 5.70768679244073950940e+00) (150, -1.36529335812349406076e+00) (151, -1.00593504332106453703e+00) (152, 7.60153154320694968149e-01) (153, 2.55022312429179587312e+00) (154, 1.12165934553301749332e+00) (155, 5.00295359560153696243e-01) (156, 1.73622705006088184909e+00) (157, 1.20027935277619390853e+00) (158, 2.42452490860306024700e+00) (159, -1.54371343341353273182e+00) (160, -2.89770951287340006175e+00) (161, -2.09320189921467052219e-02) (162, 2.08999342383575248405e+00) (163, 1.36736590847430039553e+00) (164, 2.48969749561018138806e+00) (165, -1.61056383614046993991e+00) (166, -5.47360119160829672325e+00) (167, -5.19895105365156506849e+00) (168, 1.59087351664191545275e+00) (169, 1.31505905634967645845e+00) (170, 2.26775167839348679166e+00) (171, -1.03405195547621833185e+01) (172, -1.38072356640436826325e+01) (173, -9.04170460266281850181e+00) (174, 1.58064703394728378605e+00) (175, 8.43779445022626362061e-01) (176, 1.71904810191356660631e+00) (177, -6.50334654529882794094e+00) (178, -8.78969689594988423664e+00) (179, -8.51390509280107110612e+00) (180, 1.00942800535570897935e+00) (181, 7.56835822695880455768e-01) (182, 1.20167542864728282836e+00) (183, -2.92794479448883038231e+00) (184, -1.01843736449997179783e+00) (185, -3.34219127944731297930e+00) (186, 1.77551197965959883796e+00) (187, 1.77690493892816725463e+00) (188, 3.46997601416367418281e+00) (189, -1.38658002904642962960e+00) (190, 2.76896116244351619962e-01) (191, 2.15463895773727709404e-01) (192, 1.81218778093012500285e+00) (193, 1.12414956583545233570e+00) (194, 1.41052731898892091955e+00) (195, 2.91601984275652481582e-01) (196, 2.85878617516388655595e-01) (197, 1.20321773823483288424e-01) (198, 1.42844395283743885727e+00) (199, 1.12410923438177201561e+00) (200, 1.27356587230837825508e+00) (201, 3.60424285043517367289e-01) (202, 2.10368473469080802252e-01) (203, 3.77237346740947609991e-01) (204, 1.08962438775620684694e+00) (205, -3.74800825554739969192e+00) (206, 1.81091389587126472271e+00) (207, -4.82308287393607981741e-02) (208, -2.98883158471839827097e-01) (209, 5.24025362703772645823e-01) (210, 3.22621630916897572661e+00) (211, 2.31973602574792669984e+00) (212, 3.23171978942602811102e+00) (213, 5.93169430552744292306e-01) (214, 2.83095144225097627988e-01) (215, 4.97893324839280337901e-01) (216, 2.44281712822192620393e+00) (217, 4.37900462433167181331e+00) (218, 2.79978493706971676147e+00) (219, -8.57616790738864098742e-01) (220, -6.01936216957586811560e-01) (221, -2.52660389541906116317e-01) (222, -2.50049317149561645124e+00) (223, 1.27049074147971330362e+00) (224, 7.04883171186378332251e-01) (225, 5.07664316112462210562e-01) (226, 2.25025586382915976369e-01) (227, 5.02326088690940419923e-01) (228, -1.63970401363775786230e+00) (229, 2.08266806213457300601e+00) (230, 5.27464898044158858603e-01) (231, 4.68425372600672018653e-01) (232, 3.36208232107502003050e-01) (233, 1.01230044674099417534e+00) (234, -7.36704443208951009758e-01) (235, 3.60152049883058156254e-01) (236, 8.85334335379341502703e-02) (237, -5.59641252846513337360e-02) (238, 5.60497353399033393373e-01) (239, 9.62014042418200210349e-01) (240, -2.67064840496732847086e+00) (241, -2.54555115036072043821e+00) (242, -3.68165874739189158404e+00) (243, -1.32978741162951552557e-01) (244, 1.13945678699593405669e-01) (245, 1.12174554020184569225e+00) (246, -6.49166118050696683284e-01) (247, -1.41873076325514202445e+00) (248, -3.51019492398420807078e+00) (249, 5.28901311297554466151e-01) (250, 1.18136857698433184183e+00) (251, 2.42148117848613608771e+00) (252, -4.95424788938029908580e-02) (253, -1.20482398095529985582e+00) (254, -2.54361670641585657648e+00) (255, 1.07726421682544604153e+00) (256, 1.37241849514777269903e+00) (257, 2.60882219566812434408e+00) (258, -3.75963749717212525336e-01) (259, -3.87692128291089399550e-01) (260, -5.92321346279343630137e-01) (261, 1.09964540220176010266e+00) (262, 1.06758760468135727173e+00) (263, 2.48817634477128812875e+00) (264, -1.68708101197020815532e-01) (265, -2.41540594863966534556e-01) (266, -3.27927494649140893745e-01) (267, 1.03238450394912639752e+00) (268, 1.28737568210761121890e+00) (269, 1.97729233020058581261e+00) (270, 4.39117934114706467974e-02) (271, 3.84043720888791670354e-02) (272, 2.65854761693334320713e-03) (273, 1.39261400728957274175e+00) (274, 1.78309112388160673213e+00) (275, 3.39869705383706044444e+00) (276, 4.31616112940606255766e-01) (277, 1.75106558444800664009e-01) (278, 1.36176068339782990746e-01) (279, 1.24292105555755716395e+00) (280, 1.94910319763704609208e+00) (281, 4.20125247756439090807e+00) (282, 9.01033348574731385305e-01) (283, 8.75679541120600424264e-01) (284, 1.01191121114671211956e+00) (285, 5.42135281083953812775e-01) (286, 1.23314290877394339141e+00) (287, 1.25575608559900619987e+00) (288, 9.72172290588594667504e-01) (289, 9.20187157214206408185e-01) (290, 8.90709614938150151531e-01) (291, 4.68811267528157937790e-01) (292, 1.14626922592476243601e+00) (293, 1.18635784223631257639e+00) (294, 1.01348681027656639664e+00) (295, 1.03303297633892143814e+00) (296, 9.91438210258541730013e-01) (297, 6.01421818838317245870e-01) (298, 5.39727023938265548786e-01) (299, 6.13655052283373469990e-01) (300, 4.23201390091982931896e-01) (301, -7.55311789432391833543e+01) (302, -3.42369588974679350812e+00) (0, 5.89482509511759622534e-01) (1, 4.92373027819445252540e-01) (2, 5.53011582213690622289e-01) (3, 4.77040253829359439663e-01) (4, 4.68880848254692006449e-01) (5, 5.83711568298790228759e-01) (6, 5.72254168005316476986e-01) (7, 5.54948170510421889823e-01) (8, 6.56544076646523033780e-01) (9, 2.07353137350951816087e-01) (10, 9.92075968164824323337e-02) (11, -3.87219487093109548947e-01) (12, 5.70376824295913853469e-01) (13, 4.91883850702115210662e-01) (14, 5.85259895765135484957e-01) (15, -6.21016108011368528352e-02) (16, -1.72973051857782500473e-01) (17, -1.99237619257340448087e+00) (18, 5.08498012348451045028e-01) (19, 5.13099105511612196828e-01) (20, 4.46718591727868263863e-01) (21, -1.86383912282829133922e-01) (22, -2.43956253231535857839e-01) (23, -9.55004805135725498566e-01) (24, 4.74612181360491824922e-01) (25, 2.75432704462150068636e-01) (26, -4.99846194688410919160e-02) (27, 4.12773367258841075711e-02) (28, -1.90174664269802812244e-01) (29, -2.68141890317578790448e-01) (30, 5.39817769579324369111e-02) (31, -8.97853843515732524816e-02) (32, -2.16176654336159984604e-01) (33, -2.28576564508498919492e-01) (34, -5.41023696944608167847e-01) (35, -5.15690575065796630305e-01) (36, -8.36183581651538526680e-02) (37, -4.46131860750088926615e-01) (38, -5.68340606381723012497e-01) (39, -3.88299726822293911344e-01) (40, -1.21535455292682836870e+00) (41, -2.03940747929726606813e+00) (42, -1.27595150425326542276e-01) (43, -1.07444105050175015004e-01) (44, -2.19210327956076589384e-01) (45, -3.19610944210991843040e-01) (46, -1.58724870561549691317e+00) (47, -2.11498281278335520383e+00) (48, 1.87935778545621455515e-02) (49, -9.86163830298393273566e-02) (50, -1.68714874014853438711e-01) (51, -7.58484175759625789404e-01) (52, -1.39747697852053698320e+00) (53, -2.04421598553276595567e+00) (54, 4.83857022352731092063e-01) (55, 4.23882681296748886624e-01) (56, -6.46771571813411355611e-02) (57, -4.60448139367690079116e-01) (58, -6.77973936596812154498e-01) (59, -1.27216124348402392918e+00) (60, 6.81691602884273106788e-01) (61, 6.49141790002662699699e-01) (62, -5.72525524759546627918e-02) (63, -2.54744010667679265936e-01) (64, -6.89602045757133769177e-02) (65, -2.23360078421664248749e-01) (66, 8.53124542126746931991e-01) (67, 6.91109789838395438544e-01) (68, -1.23993479365980374673e-01) (69, 1.29086092339426317110e+00) (70, 1.18728665521136544925e+00) (71, 5.12796146949713205210e-01) (72, 7.13908914098577040974e-01) (73, 5.76313605051375188459e-01) (74, -1.02775336776467329791e+00) (75, 1.92073076352869565042e+00) (76, 4.63967007647449936059e+00) (77, 3.30325814110351501096e-01) (78, 6.29213500493079336273e-01) (79, 1.18661487255235648108e-01) (80, -6.41308046978094958845e-01) (81, 1.95082879630792649372e+00) (82, 2.00595336155101078290e+00) (83, -1.12134653814446627607e+00) (84, 8.06665297241180856425e-01) (85, 3.06657032966307141475e-01) (86, -8.13534000780524735319e-01) (87, 1.35545244702055200925e+00) (88, 1.42138928606925296627e+00) (89, -3.40214214446241447476e-01) (90, 4.89738702256435898263e-01) (91, 4.86998328154302828619e-01) (92, -1.27753393785909752367e+00) (93, 4.75595542217087530190e+00) (94, 4.04598775049831527184e+00) (95, -8.98104587803107284882e-02) (96, 1.66188034790469951751e+00) (97, 1.31942471996684251856e+00) (98, -3.87410270588224747712e-01) (99, 3.48521649368732755470e-01) (100, 2.16669407012571063609e-01) (101, -6.29595518657856921541e-03) (102, 1.35005202022262582595e+00) (103, 1.28754940809686924119e+00) (104, -2.88465381434902190527e-01) (105, 1.69596902825924267244e-01) (106, -7.51780213028815369469e-01) (107, -1.07932452776495724223e+00) (108, 9.48718904674396457111e-01) (109, -6.35531529302351544386e-02) (110, -5.83172868224677509730e-01) (111, -3.07025964069183920913e-01) (112, -1.05076292372843727030e+00) (113, -1.27222174265274334815e+00) (114, 2.03533118579193095243e+00) (115, 2.79620904040760764886e+00) (116, 1.61179484127223004997e+00) (117, 1.37859303276990030618e+00) (118, 6.01513739389816781689e-01) (119, -2.96056095746049685591e-01) (120, 2.66657269553774112225e+00) (121, 4.93634238703386341029e+00) (122, -2.24929600375105431809e+00) (123, 1.53671249334616066839e+00) (124, 1.17042465616060553657e+00) (125, -4.17950049809538773382e-02) (126, 1.98715848609969802929e+00) (127, 3.90916841180041840786e+00) (128, -6.65567820906505414058e+00) (129, 1.52860534100527978296e+00) (130, 1.68623801816221474681e+00) (131, -1.47944838193046734887e+00) (132, 1.05622247448165529349e+00) (133, 5.22495301420247582058e-01) (134, -5.26605725961870607676e+00) (135, 1.12539294980301995963e+00) (136, 6.78981978681001269171e-02) (137, -1.33496850446436843285e+00) (138, 7.15382577938927788352e-01) (139, -3.65798408777601238850e-02) (140, -7.73630197032860600359e+00) (141, 1.34212800800460496653e-01) (142, 2.67576943880876771953e-01) (143, -1.15723411412637489093e+00) (144, 2.13447501676633821788e+00) (145, 8.46240571543483310890e-01) (146, -1.02249837419051581300e+00) (147, 1.74907496813492158161e-01) (148, -3.72647547564027459277e-01) (149, -9.65362221673319420567e-01) (150, 3.14159299066263608680e+00) (151, 3.06696237525692838588e+00) (152, 2.01180602307933054096e-01) (153, 9.40088411094044396066e-01) (154, 2.07709908054836578373e+00) (155, -3.56107205116170610903e-01) (156, 3.22616635071221447006e+00) (157, 2.17146178894712393870e+00) (158, -5.95496201835116867329e-01) (159, 6.17207437281051651823e-01) (160, 1.12935985878842037877e+00) (161, -9.00360468617498077570e-01) (162, 3.17533891029825410257e+00) (163, 2.25051116995489719486e+00) (164, -3.22649480681091171963e-01) (165, 3.04806475975565149827e-01) (166, 3.65129343009393148023e-01) (167, -1.86088191197391417120e+00) (168, 3.12648386141258649573e+00) (169, 1.83108063263437914614e+00) (170, 2.20136131322363093332e-01) (171, 1.01811527302325655064e+00) (172, 5.96082208344585473547e-01) (173, -1.18287306310412468346e-01) (174, 1.72397603973197943716e+00) (175, 1.74039046439635236574e+00) (176, -3.69336835528810025764e-01) (177, -6.06357369975237037174e-01) (178, -5.92047578174852984212e-01) (179, -9.77720461610087965276e-01) (180, 1.34868433847008173387e+00) (181, 9.28300986729362787031e-01) (182, -3.69452555684090522270e-01) (183, -3.15352487156915994859e-01) (184, -9.92850634892737837767e-01) (185, -9.61521568019930272797e-01) (186, 1.47262300324494455062e+00) (187, 1.11457127760690455354e+00) (188, 6.52833748553826725969e-02) (189, -2.24197116280002550770e-01) (190, -9.59638165488613026355e-01) (191, -1.08158604210104214438e+00) (192, 1.40678661513710001607e+00) (193, 1.19859147421868894590e+00) (194, 9.18371189613719218769e-02) (195, -2.34300715325931968591e-01) (196, -1.44344791930184523920e+00) (197, -1.76894898435240710555e+00) (198, 1.49906533647429163203e+00) (199, 6.25082625107421629984e-01) (200, -5.68936869864201777425e-01) (201, -2.76221656638886869928e-01) (202, -4.06355154556697462098e-01) (203, -9.05541764534037341150e-01) (204, 5.69083589577821125083e-01) (205, -9.39015225165324290968e-02) (206, -1.78324932600440932973e+00) (207, -1.93065767036511626298e-01) (208, -9.82283504999877266073e-01) (209, -1.00537920239603328909e+00) (210, 3.97898673108166955892e-01) (211, -6.63176440902203956362e-02) (212, -1.28792708449523907177e+00) (213, -3.40410887909203818680e-01) (214, -8.51120565116738170275e-01) (215, -5.30545267412666721185e-01) (216, 4.75698378000193461412e-02) (217, -7.33930238265488199545e-01) (218, -1.70420125528611277055e+00) (219, -3.02577830421590476817e-01) (220, -3.09084469000896033819e-01) (221, -4.65321976027016082078e-01) (222, 1.88821431150170276903e-02) (223, -1.14693042243586160178e-01) (224, -1.03478233015382836690e+00) (225, -2.53654647895010243452e-01) (226, -3.55113056814802763306e-01) (227, -3.48949020724403424776e-01) (228, -8.55881510651285704050e-02) (229, -3.47613006082432493549e-02) (230, -1.55194843960638984015e-01) (231, -3.66396475839923518869e-01) (232, -1.67620352554298690517e-01) (233, -8.92532079731558791735e-01) (234, -1.13665677068660575522e+00) (235, -1.00562427992511205233e+00) (236, -1.59783882351316997017e+00) (237, -1.27332363519863500656e+00) (238, -8.82942056868401659031e-01) (239, -1.57495208887916637863e+00) (240, -4.68385259148669463869e-01) (241, -6.48071754656870946398e-01) (242, -1.04331173691298029205e+00) (243, -3.58366468710682672949e-01) (244, -3.67392939315032973635e-01) (245, -6.21155786118112618333e-01) (246, -1.35330630190922701628e-01) (247, -1.42440680876965930501e-01) (248, -7.59301101143238926783e-02) (249, 3.87789153370930034237e-02) (250, -7.62679263225524706193e-01) (251, -1.05787827842431103598e+00) (252, -2.01057007555961508860e-01) (253, -1.44958176187380549660e-01) (254, -4.91336138613421014032e-01) (255, 6.97255591682872100101e-01) (256, -1.03550756351375849995e+00) (257, -1.02015355432377385902e+00) (258, 5.67315658712726073043e-02) (259, -5.74876920441337035950e-02) (260, -5.46733006925141928889e-02) (261, 9.68532258973235082866e-02) (262, -7.59318173658065781462e-02) (263, -8.39838350670874644877e-01) (264, -2.75255485389828725984e-02) (265, 6.56023912659897401323e-02) (266, 1.03627960608450725433e-01) (267, 9.52389234206534457394e-02) (268, -1.17622543830394138409e-01) (269, -9.07726613456922959422e-01) (270, 1.28734563079674874109e-01) (271, 5.74118239553766257499e-02) (272, 9.58577310222845924148e-02) (273, -1.76037777603762879419e-01) (274, -6.17024664397199829047e-01) (275, -5.67972628941752710752e-01) (276, 1.05032223840656552261e-01) (277, 1.40038320102931351796e-01) (278, 2.53584476979664741325e-01) (279, 3.78155666291793590705e-01) (280, 2.31722243174412485811e-02) (281, -6.54613910765636242139e-02) (282, 5.91666785311668719238e-01) (283, 6.01181801950031013959e-01) (284, 7.61921051744527288996e-01) (285, 8.32576133568603160562e-01) (286, 7.61559658747385515021e-01) (287, 7.65083176553691957089e-01) (288, 5.66859364804713217190e-01) (289, 6.07761106736085632285e-01) (290, 5.31403575387684679043e-01) (291, 5.40317470383829268066e-01) (292, 5.19689728241987669577e-01) (293, 6.03758171317785641286e-01) (294, 6.32760709673259702512e-01) (295, 6.49432924874863704012e-01) (296, 6.33202589359233125599e-01) (297, 5.08612408150763473103e-01) (298, 4.59186744613853781161e-01) (299, 5.51260803690491241191e-01) (300, 7.13090609173584022429e-01) (301, 1.40559367354888937740e+01) (302, 5.06001806870048742582e+00) 
