FANN_FLO_2.1
num_layers=4
learning_rate=0.700000
connection_rate=1.000000
network_type=1
learning_momentum=0.000000
training_algorithm=2
train_error_function=1
train_stop_function=0
cascade_output_change_fraction=0.010000
quickprop_decay=-0.000100
quickprop_mu=1.750000
rprop_increase_factor=1.200000
rprop_decrease_factor=0.500000
rprop_delta_min=0.000000
rprop_delta_max=50.000000
rprop_delta_zero=0.100000
cascade_output_stagnation_epochs=12
cascade_candidate_change_fraction=0.010000
cascade_candidate_stagnation_epochs=12
cascade_max_out_epochs=150
cascade_max_cand_epochs=150
cascade_num_candidate_groups=2
bit_fail_limit=3.49999999999999977796e-01
cascade_candidate_limit=1.00000000000000000000e+03
cascade_weight_multiplier=4.00000000000000022204e-01
cascade_activation_functions_count=10
cascade_activation_functions=3 5 7 8 10 11 14 15 16 17 
cascade_activation_steepnesses_count=4
cascade_activation_steepnesses=2.50000000000000000000e-01 5.00000000000000000000e-01 7.50000000000000000000e-01 1.00000000000000000000e+00 
layer_sizes=301 1 1 5 
scale_included=0
neurons (num_inputs, activation_function, activation_steepness)=(0, 0, 0.00000000000000000000e+00) (0, 0, 0.00000000000000000000e+00) (0, 0, 0.00000000000000000000e+00) (0, 0, 0.00000000000000000000e+00) (0, 0, 0.00000000000000000000e+00) (0, 0, 0.00000000000000000000e+00) (0, 0, 0.00000000000000000000e+00) (0, 0, 0.00000000000000000000e+00) (0, 0, 0.00000000000000000000e+00) (0, 0, 0.00000000000000000000e+00) (0, 0, 0.00000000000000000000e+00) (0, 0, 0.00000000000000000000e+00) (0, 0, 0.00000000000000000000e+00) (0, 0, 0.00000000000000000000e+00) (0, 0, 0.00000000000000000000e+00) (0, 0, 0.00000000000000000000e+00) (0, 0, 0.00000000000000000000e+00) (0, 0, 0.00000000000000000000e+00) (0, 0, 0.00000000000000000000e+00) (0, 0, 0.00000000000000000000e+00) (0, 0, 0.00000000000000000000e+00) (0, 0, 0.00000000000000000000e+00) (0, 0, 0.00000000000000000000e+00) (0, 0, 0.00000000000000000000e+00) (0, 0, 0.00000000000000000000e+00) (0, 0, 0.00000000000000000000e+00) (0, 0, 0.00000000000000000000e+00) (0, 0, 0.00000000000000000000e+00) (0, 0, 0.00000000000000000000e+00) (0, 0, 0.00000000000000000000e+00) (0, 0, 0.00000000000000000000e+00) (0, 0, 0.00000000000000000000e+00) (0, 0, 0.00000000000000000000e+00) (0, 0, 0.00000000000000000000e+00) (0, 0, 0.00000000000000000000e+00) (0, 0, 0.00000000000000000000e+00) (0, 0, 0.00000000000000000000e+00) (0, 0, 0.00000000000000000000e+00) (0, 0, 0.00000000000000000000e+00) (0, 0, 0.00000000000000000000e+00) (0, 0, 0.00000000000000000000e+00) (0, 0, 0.00000000000000000000e+00) (0, 0, 0.00000000000000000000e+00) (0, 0, 0.00000000000000000000e+00) (0, 0, 0.00000000000000000000e+00) (0, 0, 0.00000000000000000000e+00) (0, 0, 0.00000000000000000000e+00) (0, 0, 0.00000000000000000000e+00) (0, 0, 0.00000000000000000000e+00) (0, 0, 0.00000000000000000000e+00) (0, 0, 0.00000000000000000000e+00) (0, 0, 0.00000000000000000000e+00) (0, 0, 0.00000000000000000000e+00) (0, 0, 0.00000000000000000000e+00) (0, 0, 0.00000000000000000000e+00) (0, 0, 0.00000000000000000000e+00) (0, 0, 0.00000000000000000000e+00) (0, 0, 0.00000000000000000000e+00) (0, 0, 0.00000000000000000000e+00) (0, 0, 0.00000000000000000000e+00) (0, 0, 0.00000000000000000000e+00) (0, 0, 0.00000000000000000000e+00) (0, 0, 0.00000000000000000000e+00) (0, 0, 0.00000000000000000000e+00) (0, 0, 0.00000000000000000000e+00) (0, 0, 0.00000000000000000000e+00) (0, 0, 0.00000000000000000000e+00) (0, 0, 0.00000000000000000000e+00) (0, 0, 0.00000000000000000000e+00) (0, 0, 0.00000000000000000000e+00) (0, 0, 0.00000000000000000000e+00) (0, 0, 0.00000000000000000000e+00) (0, 0, 0.00000000000000000000e+00) (0, 0, 0.00000000000000000000e+00) (0, 0, 0.00000000000000000000e+00) (0, 0, 0.00000000000000000000e+00) (0, 0, 0.00000000000000000000e+00) (0, 0, 0.00000000000000000000e+00) (0, 0, 0.00000000000000000000e+00) (0, 0, 0.00000000000000000000e+00) (0, 0, 0.00000000000000000000e+00) (0, 0, 0.00000000000000000000e+00) (0, 0, 0.00000000000000000000e+00) (0, 0, 0.00000000000000000000e+00) (0, 0, 0.00000000000000000000e+00) (0, 0, 0.00000000000000000000e+00) (0, 0, 0.00000000000000000000e+00) (0, 0, 0.00000000000000000000e+00) (0, 0, 0.00000000000000000000e+00) (0, 0, 0.00000000000000000000e+00) (0, 0, 0.00000000000000000000e+00) (0, 0, 0.00000000000000000000e+00) (0, 0, 0.00000000000000000000e+00) (0, 0, 0.00000000000000000000e+00) (0, 0, 0.00000000000000000000e+00) (0, 0, 0.00000000000000000000e+00) (0, 0, 0.00000000000000000000e+00) (0, 0, 0.00000000000000000000e+00) (0, 0, 0.00000000000000000000e+00) (0, 0, 0.00000000000000000000e+00) (0, 0, 0.00000000000000000000e+00) (0, 0, 0.00000000000000000000e+00) (0, 0, 0.00000000000000000000e+00) (0, 0, 0.00000000000000000000e+00) (0, 0, 0.00000000000000000000e+00) (0, 0, 0.00000000000000000000e+00) (0, 0, 0.00000000000000000000e+00) (0, 0, 0.00000000000000000000e+00) (0, 0, 0.00000000000000000000e+00) (0, 0, 0.00000000000000000000e+00) (0, 0, 0.00000000000000000000e+00) (0, 0, 0.00000000000000000000e+00) (0, 0, 0.00000000000000000000e+00) (0, 0, 0.00000000000000000000e+00) (0, 0, 0.00000000000000000000e+00) (0, 0, 0.00000000000000000000e+00) (0, 0, 0.00000000000000000000e+00) (0, 0, 0.00000000000000000000e+00) (0, 0, 0.00000000000000000000e+00) (0, 0, 0.00000000000000000000e+00) (0, 0, 0.00000000000000000000e+00) (0, 0, 0.00000000000000000000e+00) (0, 0, 0.00000000000000000000e+00) (0, 0, 0.00000000000000000000e+00) (0, 0, 0.00000000000000000000e+00) (0, 0, 0.00000000000000000000e+00) (0, 0, 0.00000000000000000000e+00) (0, 0, 0.00000000000000000000e+00) (0, 0, 0.00000000000000000000e+00) (0, 0, 0.00000000000000000000e+00) (0, 0, 0.00000000000000000000e+00) (0, 0, 0.00000000000000000000e+00) (0, 0, 0.00000000000000000000e+00) (0, 0, 0.00000000000000000000e+00) (0, 0, 0.00000000000000000000e+00) (0, 0, 0.00000000000000000000e+00) (0, 0, 0.00000000000000000000e+00) (0, 0, 0.00000000000000000000e+00) (0, 0, 0.00000000000000000000e+00) (0, 0, 0.00000000000000000000e+00) (0, 0, 0.00000000000000000000e+00) (0, 0, 0.00000000000000000000e+00) (0, 0, 0.00000000000000000000e+00) (0, 0, 0.00000000000000000000e+00) (0, 0, 0.00000000000000000000e+00) (0, 0, 0.00000000000000000000e+00) (0, 0, 0.00000000000000000000e+00) (0, 0, 0.00000000000000000000e+00) (0, 0, 0.00000000000000000000e+00) (0, 0, 0.00000000000000000000e+00) (0, 0, 0.00000000000000000000e+00) (0, 0, 0.00000000000000000000e+00) (0, 0, 0.00000000000000000000e+00) (0, 0, 0.00000000000000000000e+00) (0, 0, 0.00000000000000000000e+00) (0, 0, 0.00000000000000000000e+00) (0, 0, 0.00000000000000000000e+00) (0, 0, 0.00000000000000000000e+00) (0, 0, 0.00000000000000000000e+00) (0, 0, 0.00000000000000000000e+00) (0, 0, 0.00000000000000000000e+00) (0, 0, 0.00000000000000000000e+00) (0, 0, 0.00000000000000000000e+00) (0, 0, 0.00000000000000000000e+00) (0, 0, 0.00000000000000000000e+00) (0, 0, 0.00000000000000000000e+00) (0, 0, 0.00000000000000000000e+00) (0, 0, 0.00000000000000000000e+00) (0, 0, 0.00000000000000000000e+00) (0, 0, 0.00000000000000000000e+00) (0, 0, 0.00000000000000000000e+00) (0, 0, 0.00000000000000000000e+00) (0, 0, 0.00000000000000000000e+00) (0, 0, 0.00000000000000000000e+00) (0, 0, 0.00000000000000000000e+00) (0, 0, 0.00000000000000000000e+00) (0, 0, 0.00000000000000000000e+00) (0, 0, 0.00000000000000000000e+00) (0, 0, 0.00000000000000000000e+00) (0, 0, 0.00000000000000000000e+00) (0, 0, 0.00000000000000000000e+00) (0, 0, 0.00000000000000000000e+00) (0, 0, 0.00000000000000000000e+00) (0, 0, 0.00000000000000000000e+00) (0, 0, 0.00000000000000000000e+00) (0, 0, 0.00000000000000000000e+00) (0, 0, 0.00000000000000000000e+00) (0, 0, 0.00000000000000000000e+00) (0, 0, 0.00000000000000000000e+00) (0, 0, 0.00000000000000000000e+00) (0, 0, 0.00000000000000000000e+00) (0, 0, 0.00000000000000000000e+00) (0, 0, 0.00000000000000000000e+00) (0, 0, 0.00000000000000000000e+00) (0, 0, 0.00000000000000000000e+00) (0, 0, 0.00000000000000000000e+00) (0, 0, 0.00000000000000000000e+00) (0, 0, 0.00000000000000000000e+00) (0, 0, 0.00000000000000000000e+00) (0, 0, 0.00000000000000000000e+00) (0, 0, 0.00000000000000000000e+00) (0, 0, 0.00000000000000000000e+00) (0, 0, 0.00000000000000000000e+00) (0, 0, 0.00000000000000000000e+00) (0, 0, 0.00000000000000000000e+00) (0, 0, 0.00000000000000000000e+00) (0, 0, 0.00000000000000000000e+00) (0, 0, 0.00000000000000000000e+00) (0, 0, 0.00000000000000000000e+00) (0, 0, 0.00000000000000000000e+00) (0, 0, 0.00000000000000000000e+00) (0, 0, 0.00000000000000000000e+00) (0, 0, 0.00000000000000000000e+00) (0, 0, 0.00000000000000000000e+00) (0, 0, 0.00000000000000000000e+00) (0, 0, 0.00000000000000000000e+00) (0, 0, 0.00000000000000000000e+00) (0, 0, 0.00000000000000000000e+00) (0, 0, 0.00000000000000000000e+00) (0, 0, 0.00000000000000000000e+00) (0, 0, 0.00000000000000000000e+00) (0, 0, 0.00000000000000000000e+00) (0, 0, 0.00000000000000000000e+00) (0, 0, 0.00000000000000000000e+00) (0, 0, 0.00000000000000000000e+00) (0, 0, 0.00000000000000000000e+00) (0, 0, 0.00000000000000000000e+00) (0, 0, 0.00000000000000000000e+00) (0, 0, 0.00000000000000000000e+00) (0, 0, 0.00000000000000000000e+00) (0, 0, 0.00000000000000000000e+00) (0, 0, 0.00000000000000000000e+00) (0, 0, 0.00000000000000000000e+00) (0, 0, 0.00000000000000000000e+00) (0, 0, 0.00000000000000000000e+00) (0, 0, 0.00000000000000000000e+00) (0, 0, 0.00000000000000000000e+00) (0, 0, 0.00000000000000000000e+00) (0, 0, 0.00000000000000000000e+00) (0, 0, 0.00000000000000000000e+00) (0, 0, 0.00000000000000000000e+00) (0, 0, 0.00000000000000000000e+00) (0, 0, 0.00000000000000000000e+00) (0, 0, 0.00000000000000000000e+00) (0, 0, 0.00000000000000000000e+00) (0, 0, 0.00000000000000000000e+00) (0, 0, 0.00000000000000000000e+00) (0, 0, 0.00000000000000000000e+00) (0, 0, 0.00000000000000000000e+00) (0, 0, 0.00000000000000000000e+00) (0, 0, 0.00000000000000000000e+00) (0, 0, 0.00000000000000000000e+00) (0, 0, 0.00000000000000000000e+00) (0, 0, 0.00000000000000000000e+00) (0, 0, 0.00000000000000000000e+00) (0, 0, 0.00000000000000000000e+00) (0, 0, 0.00000000000000000000e+00) (0, 0, 0.00000000000000000000e+00) (0, 0, 0.00000000000000000000e+00) (0, 0, 0.00000000000000000000e+00) (0, 0, 0.00000000000000000000e+00) (0, 0, 0.00000000000000000000e+00) (0, 0, 0.00000000000000000000e+00) (0, 0, 0.00000000000000000000e+00) (0, 0, 0.00000000000000000000e+00) (0, 0, 0.00000000000000000000e+00) (0, 0, 0.00000000000000000000e+00) (0, 0, 0.00000000000000000000e+00) (0, 0, 0.00000000000000000000e+00) (0, 0, 0.00000000000000000000e+00) (0, 0, 0.00000000000000000000e+00) (0, 0, 0.00000000000000000000e+00) (0, 0, 0.00000000000000000000e+00) (0, 0, 0.00000000000000000000e+00) (0, 0, 0.00000000000000000000e+00) (0, 0, 0.00000000000000000000e+00) (0, 0, 0.00000000000000000000e+00) (0, 0, 0.00000000000000000000e+00) (0, 0, 0.00000000000000000000e+00) (0, 0, 0.00000000000000000000e+00) (0, 0, 0.00000000000000000000e+00) (0, 0, 0.00000000000000000000e+00) (0, 0, 0.00000000000000000000e+00) (0, 0, 0.00000000000000000000e+00) (0, 0, 0.00000000000000000000e+00) (0, 0, 0.00000000000000000000e+00) (0, 0, 0.00000000000000000000e+00) (0, 0, 0.00000000000000000000e+00) (0, 0, 0.00000000000000000000e+00) (0, 0, 0.00000000000000000000e+00) (0, 0, 0.00000000000000000000e+00) (0, 0, 0.00000000000000000000e+00) (0, 0, 0.00000000000000000000e+00) (0, 0, 0.00000000000000000000e+00) (0, 0, 0.00000000000000000000e+00) (0, 0, 0.00000000000000000000e+00) (0, 0, 0.00000000000000000000e+00) (0, 0, 0.00000000000000000000e+00) (0, 0, 0.00000000000000000000e+00) (0, 0, 0.00000000000000000000e+00) (0, 0, 0.00000000000000000000e+00) (301, 15, 5.00000000000000000000e-01) (302, 14, 2.50000000000000000000e-01) (303, 5, 5.00000000000000000000e-01) (303, 5, 5.00000000000000000000e-01) (303, 5, 5.00000000000000000000e-01) (303, 5, 5.00000000000000000000e-01) (303, 5, 5.00000000000000000000e-01) 
connections (connected_to_neuron, weight)=(0, 1.87649312902624187949e+00) (1, 6.56205865632838669654e-01) (2, 1.44569735782447583716e+00) (3, 1.40174512039951015829e+00) (4, 5.39928477678370155601e-01) (5, 1.80368498932651211142e+00) (6, -7.64197677363897577563e-03) (7, 1.80872367638427866687e+00) (8, 6.73565213423827580108e-01) (9, 5.58012474780866796209e-03) (10, 1.67421581883487569087e+00) (11, 2.13737862079759366463e-01) (12, 1.25373899603355365429e+00) (13, 1.41809567644005918297e+00) (14, 5.61387080371239632903e-01) (15, 7.09943966835160589213e-01) (16, 1.72476641932110696942e+00) (17, -3.36878399958628477195e-02) (18, 3.03714462220530778680e-01) (19, 1.49066210746853977653e+00) (20, 1.40112849728417310224e+00) (21, 1.28198286765150415434e+00) (22, 1.26950944307557245239e+00) (23, 1.63126750016481159022e+00) (24, 5.90664478862179764818e-01) (25, 1.52572213932458500274e+00) (26, 4.41213302214223390685e-01) (27, 6.94064927779743712222e-01) (28, 1.70899258485841620825e+00) (29, 1.68733393485950466939e+00) (30, 8.77064176499705028256e-01) (31, 1.65349445017565721550e+00) (32, 6.95836968619900630983e-01) (33, 3.54356382061316088627e-01) (34, 1.13312549363581926976e+00) (35, 9.95741017758707713803e-01) (36, 2.39144235569787450002e-01) (37, 1.21111178279611864106e+00) (38, 9.79987152464438460164e-01) (39, 9.13607739756917447416e-01) (40, 1.22647758200971046527e+00) (41, 6.38952879918205263188e-01) (42, 1.22222269505281166957e+00) (43, 5.62666295773717739515e-01) (44, 1.98272849682823021356e-01) (45, 1.84280423672744952945e+00) (46, 1.28429527953473487933e+00) (47, 1.87996926785765872125e+00) (48, 1.81440020200902019099e+00) (49, 1.59120261268422535927e+00) (50, 1.57626382229923578393e+00) (51, 1.21638849494944834007e+00) (52, 9.41462004903015570179e-01) (53, 6.90197356641154002865e-01) (54, 9.49288330396046875492e-01) (55, 1.53838648991953252931e+00) (56, 9.43333341962934390779e-01) (57, 1.07044920941261856306e+00) (58, 2.42277872296285584630e-01) (59, 3.40714941797842923998e-02) (60, 8.42634062550433160510e-01) (61, 1.21860103640416639337e+00) (62, 2.27426454955376788902e+00) (63, 1.22973567907299607960e+00) (64, 1.54281464508211940689e+00) (65, 8.54268289661470947571e-01) (66, -6.86567848330728869310e-02) (67, 1.84998968156709575617e+00) (68, -1.22626058680039042026e-02) (69, 1.12969512736153632204e+00) (70, 7.47231099880799942703e-01) (71, 1.23896486237793279628e+00) (72, 1.73589873140962902553e+00) (73, -8.80256236976819164686e-03) (74, 1.72934456095872168824e+00) (75, 1.80421241777755425595e+00) (76, 1.72864003553265610513e+00) (77, 1.00745056165397794956e+00) (78, 1.62903916171163953841e+00) (79, 1.58161099252345671573e+00) (80, 7.03188105545471731084e-01) (81, 1.01387575258438955572e+00) (82, 8.33130973491600146374e-01) (83, 1.91020196394403329876e+00) (84, 1.75275189732141623011e+00) (85, 1.74626539501396282894e+00) (86, 1.23972863101467467573e+00) (87, 1.01233782419730029833e-02) (88, 7.38414668484051350816e-01) (89, 1.56483190557580531532e+00) (90, 1.03156160784353106985e-01) (91, 1.72344077049066179974e+00) (92, 1.20810486093060731605e+00) (93, 1.80039041320061232732e+00) (94, 9.94231920577619998625e-01) (95, 4.12362289484644040094e-01) (96, 6.80052474993976141526e-01) (97, 1.30480031904415150201e+00) (98, 6.53012833586402052788e-01) (99, 7.44960571347733746528e-01) (100, 5.69275680596237232400e-01) (101, 2.61506082904749526108e+00) (102, -1.55334506513543114947e-03) (103, 2.88680374811029427651e-01) (104, 1.55802577734358793649e+00) (105, 1.70980282970645780516e+00) (106, -1.35441669889694832341e-01) (107, 8.75386389465743430804e-01) (108, 8.44416022410389266462e-01) (109, 1.79737970645610500853e+00) (110, 1.08580350287847093860e+00) (111, 1.56168794398223487185e+00) (112, 7.39563296536010272852e-01) (113, 1.17328751413886567256e+00) (114, 1.14292793274330617415e+00) (115, 6.19579450496971939621e-01) (116, 1.57110904932467021489e+00) (117, 4.27254751738138205397e-01) (118, 1.02532216188400604473e+00) (119, -2.19002655280170183127e-01) (120, -1.00153527133746644839e-01) (121, 8.29936808193601271988e-01) (122, 2.22587037456611991360e+00) (123, 6.98351807742850216876e-01) (124, 8.98565213908699145229e-01) (125, 2.42908018977956496887e-01) (126, 9.75863021988605638946e-01) (127, 1.45651094022536597983e+00) (128, 7.30840810584284628071e-01) (129, 1.22938456030752218950e+00) (130, 9.63638206408648168022e-01) (131, 6.19417273757913666721e-01) (132, 1.80019145164821842142e-01) (133, 5.30988346016694867657e-01) (134, 1.22453602118829718570e+00) (135, 1.27638024925974646884e+00) (136, 3.65707012320584889942e-01) (137, 1.48225168409134777647e+00) (138, 3.77360452580323482707e-02) (139, 1.27081679194589192150e+00) (140, 5.76883279271551918654e-01) (141, 6.64438953536297005620e-01) (142, 9.35327606225350272062e-01) (143, 2.25498328509339529546e+00) (144, -1.43679731333163335227e-01) (145, -6.65701758273235660868e-02) (146, -7.93801779776097810037e-02) (147, 1.31300735093880827087e+00) (148, 7.14539012960082708936e-01) (149, 2.64041884830409712137e+00) (150, 1.23418051212420309959e+00) (151, 4.65574600418588946393e-01) (152, -1.19828507052041466352e+00) (153, 1.68476057133196399640e+00) (154, 1.44687931270794956085e+00) (155, 2.76845947942082615256e+00) (156, 1.86224074573379916320e-01) (157, 2.79770203550836649153e-01) (158, -4.33524220570204565917e-01) (159, 4.90243446691182138686e-01) (160, 1.79299446845566312625e+00) (161, 1.62255077656338819736e+00) (162, 1.14260727951781682066e+00) (163, 1.82059387179233800325e+00) (164, -1.42648657493366592952e+00) (165, 3.11770453786601731139e-01) (166, 1.34070832570610187773e+00) (167, 3.57089193115001934942e+00) (168, 1.30864750262073981091e+00) (169, 1.29564700036470714650e+00) (170, -6.22329000208987404008e-01) (171, 3.09828882540676475710e-01) (172, 1.86569932022045970044e-01) (173, 5.04449541310302507213e+00) (174, 4.54937321053903651058e-02) (175, 6.60389155543016498351e-02) (176, 6.90669756312902838324e-01) (177, 5.99280354943596438311e-01) (178, 1.60006428180123605465e+00) (179, 3.30529933832580891107e+00) (180, 1.81206305379987164805e+00) (181, 8.80323408185429312489e-01) (182, 3.49550990899467672879e-01) (183, 2.04612422234358959372e+00) (184, 4.17273290134045238275e-01) (185, 2.00089557423899977451e+00) (186, 8.94133055043944136031e-01) (187, 4.86423222361988427664e-01) (188, 1.31789174790053720265e+00) (189, 1.34421291418502986126e+00) (190, 9.75096794866307736704e-01) (191, 1.85461856121681889498e+00) (192, 1.24129482937583038304e-01) (193, 2.50057402623314328771e-01) (194, 2.39704766272996172560e+00) (195, 1.27487730695839673878e+00) (196, 4.21121832710706134328e-01) (197, 9.55173310450469603694e-01) (198, 7.11650326888501827405e-01) (199, 2.07051315284567305497e+00) (200, 1.03088904121684121762e+00) (201, 1.34763524126620826138e+00) (202, 2.19690962666616501631e-01) (203, 3.97101713192051952728e-01) (204, 7.18520470880749440035e-01) (205, 4.84337906407656670904e-01) (206, 1.18852940961860586988e+00) (207, 2.13376428161518194582e-01) (208, 9.43006161225456884800e-01) (209, 2.00128075779722935934e+00) (210, 1.98850680312018218698e-01) (211, 9.21004943222001437597e-01) (212, 1.19573225588468723402e+00) (213, 7.94550479877186632827e-01) (214, 7.96168405034718418278e-01) (215, 1.13872303621902859483e+00) (216, 6.13260783842824119816e-01) (217, 1.83013519891192522060e+00) (218, 1.92484794415839099990e+00) (219, 8.41261125337560478066e-01) (220, 9.94932862799875361581e-01) (221, 5.98286991172587101495e-01) (222, 6.80851443215766516381e-01) (223, 1.14195494712849709984e+00) (224, 1.25089394973320655602e+00) (225, 4.32089405634405676615e-01) (226, 4.37486560305085425693e-01) (227, 1.41986496148523499983e+00) (228, 1.38166237005298997431e+00) (229, 1.20083837570210549828e+00) (230, 1.81870126716052848970e+00) (231, 1.78863283390126159844e+00) (232, 5.36699710591219680822e-01) (233, 1.62864208150137179665e+00) (234, 1.16522407272609956896e-01) (235, 1.29033868373890969750e+00) (236, 2.41171866177301419398e+00) (237, 7.36817113033480741713e-01) (238, 1.63385287188486527654e+00) (239, 1.04895977583527599819e+00) (240, 6.37291475914456118090e-01) (241, 1.79838332516398957672e+00) (242, 1.64728546812792275844e+00) (243, 1.58355030623136450174e+00) (244, 5.96423094207551018897e-01) (245, 6.46585411537339393995e-01) (246, 6.37944475726422655093e-01) (247, 1.22256966103492015208e+00) (248, 1.61827575020079633683e-01) (249, 2.76307401403988073252e-01) (250, 1.03917931253219922305e-01) (251, 1.31239835757756795331e+00) (252, 8.52238206391990771316e-01) (253, 7.83393218133113911072e-01) (254, 4.35452183400935610713e-01) (255, 1.77685060853080267762e+00) (256, 1.25431776761349556004e+00) (257, 1.08332505482860930179e+00) (258, 1.16503536824833076047e+00) (259, 6.70309409775138309584e-01) (260, 2.98243662522603425469e-01) (261, 4.94855980570267861562e-01) (262, 4.28499856965904812878e-01) (263, 9.93530657849292841988e-01) (264, 8.39521232765139957532e-02) (265, 5.96180667173849321294e-01) (266, 3.25414985682514090737e-01) (267, -5.17619540126367377875e-02) (268, 1.32512344664442305309e+00) (269, 1.93239885247964071624e+00) (270, 8.99054081320030618052e-01) (271, -2.72100003326706148254e-02) (272, 1.76302981318025087099e+00) (273, 3.51067250436202349384e-01) (274, 1.53438913808165788843e+00) (275, 3.76912398542379623034e-01) (276, 1.07317524764598082321e+00) (277, 2.01680540948446812566e-01) (278, 1.65681109501278123197e+00) (279, 1.15884590569762035983e+00) (280, 4.48037367226146732158e-01) (281, 1.74958423993423872744e+00) (282, 5.66949338618309428561e-01) (283, 1.40678554764324159621e+00) (284, 6.25842084071714821469e-01) (285, 1.06715928107232271849e+00) (286, 1.20505516073176321967e+00) (287, 1.91292032517368104649e+00) (288, 1.64440354122657533820e-01) (289, 4.30700656944326132347e-01) (290, 6.53501984444401884389e-01) (291, 5.33163109736727869326e-01) (292, 1.00077785612538483484e+00) (293, 1.14726152768727285292e+00) (294, 1.53299537053700429823e+00) (295, 1.11689838260052720642e+00) (296, 1.79107459700044224782e+00) (297, 1.91185613152327182895e+00) (298, 1.18685240794425861388e+00) (299, 1.13300664898695591098e+00) (300, 2.33167585806145760685e+00) (0, 2.07866138565375457858e+00) (1, 1.69671046568978023394e+00) (2, 1.04514604642021846637e+00) (3, 1.71143395054175639913e+00) (4, 1.62504726993872905538e+00) (5, 2.03315586197211395358e+00) (6, 1.06120950208115583102e+00) (7, 1.38917730973355069146e+00) (8, 1.85868616938398090177e+00) (9, 1.65133543178892572278e+00) (10, 6.93882885100532975642e-01) (11, 1.30915073091577305320e+00) (12, 1.86586938286884840288e+00) (13, 9.69102415751477486161e-01) (14, 1.40097069757963943459e+00) (15, 2.28204241309975808250e+00) (16, 1.60959818211378102859e+00) (17, 1.67441155594692725472e+00) (18, 1.07842054584518121096e+00) (19, 2.48787020935448488501e+00) (20, 6.91170424674695138556e-01) (21, 1.46467621490812738294e+00) (22, 2.14646150914014866018e+00) (23, 2.15609017572813899122e+00) (24, 1.49714915264924997018e+00) (25, 2.40169787038456794548e+00) (26, 2.63304453209325961538e+00) (27, 6.07063755820628880855e-01) (28, 2.05167529205073773113e+00) (29, 5.15109475488540691224e-01) (30, 2.45281128395875880344e+00) (31, 1.81742845123105656313e+00) (32, 1.91389759716924801047e+00) (33, 8.36438484502818546673e-01) (34, 7.18051543675624959207e-01) (35, 7.19627299767157335708e-01) (36, 2.43875063655281287822e+00) (37, 1.49994443004422794985e+00) (38, 1.96341072791023196764e+00) (39, 1.57550297289862673011e+00) (40, 2.18360995354093967435e+00) (41, 1.72273115588019454236e+00) (42, 2.51758842820424089126e+00) (43, 1.87512631303814192307e+00) (44, 2.23882274877734444019e+00) (45, 1.14529846360334675026e+00) (46, 2.73400952943921748961e-01) (47, 8.70239870462137243834e-01) (48, 2.44580917117148555207e+00) (49, 2.02585920045474576767e+00) (50, 8.74713601400729401369e-01) (51, 2.39611435322356536304e+00) (52, 8.76993432123651661669e-01) (53, 8.08384958280083831816e-01) (54, 2.19844290573582323844e+00) (55, 1.67681486613220465109e+00) (56, 1.83320614271866255685e+00) (57, 2.07420765264115836146e+00) (58, 1.79748034266949408000e+00) (59, 2.15597754023005938606e+00) (60, 2.16017987208095174623e+00) (61, 1.55247112544305077009e+00) (62, 8.27205284629829451504e-01) (63, 1.26250498072938466265e+00) (64, 1.87650045439115231716e+00) (65, 1.56811957164392357100e+00) (66, 1.52803985205130476999e+00) (67, 1.61857553751814031706e+00) (68, 1.55400782864303876885e+00) (69, 6.02139818642777213675e-01) (70, 7.36601567157600056746e-01) (71, 2.28716735644921875803e+00) (72, 1.90056599982522533843e+00) (73, -2.66913675164339447843e-01) (74, 4.19938889883914590051e-01) (75, 1.58359614361793510362e+00) (76, 1.26954446228657369389e+00) (77, 2.41821361784051136468e+00) (78, 2.24792749304545047551e+00) (79, -1.61132932512828314087e-01) (80, 8.48155883692660594875e-01) (81, 8.72117178926282043960e-01) (82, 9.55970711763437508424e-01) (83, 2.19419954335090094943e+00) (84, 9.17479489953517024503e-01) (85, 1.85768541011778931527e+00) (86, 1.15142639142358782500e+00) (87, 9.86200854608236920917e-01) (88, 2.08445064511608357805e+00) (89, 8.38694822602423784019e-02) (90, 2.36642684288726501407e+00) (91, 1.54625819927127361453e+00) (92, 1.69385134262949255124e+00) (93, 1.11920324172446394861e+00) (94, 2.70715541308522711361e+00) (95, 9.41428317441589390668e-01) (96, 1.92301193112917645500e+00) (97, 5.32705011644925785497e-01) (98, 2.07387547337133337777e+00) (99, 1.23761967436390385444e+00) (100, 2.16991747020772596244e+00) (101, 2.06502902252660192062e+00) (102, 1.18471369875617460465e+00) (103, -1.04389465372589251846e-01) (104, 2.34934872037995656768e+00) (105, 2.23674021854407989451e+00) (106, 1.19612595266165633312e+00) (107, 5.55513537775808363683e-01) (108, 2.08430499204699914984e+00) (109, 5.56653625598177992373e-01) (110, 1.50606833187390520834e+00) (111, 1.42746058759552485462e+00) (112, 1.12271989504352109890e+00) (113, 1.45388556946943325876e+00) (114, 1.02844389947798720009e+00) (115, 1.22127370613618890793e+00) (116, 1.80287552248676385958e+00) (117, 1.28951085444754598441e+00) (118, 1.94584546433959748590e+00) (119, 1.09202333501432824470e+00) (120, 1.91177832158949279062e+00) (121, 1.42053916691318127263e+00) (122, 2.40226693819738779112e+00) (123, 8.37431890735771511380e-01) (124, 2.20746045388262190912e+00) (125, 1.66315699245687276253e+00) (126, 1.40146212341878140251e+00) (127, 1.26918142775831488400e+00) (128, 8.37904109993813706048e-01) (129, 7.90343757924180656538e-01) (130, 6.60142186897854310601e-01) (131, 1.29641143861151464378e+00) (132, 2.37278129273189231085e+00) (133, 1.07270322392149308754e+00) (134, 3.16145753070073443070e+00) (135, 1.99698326723865093868e+00) (136, 4.69753114639394286911e-01) (137, 2.09615899112711012720e+00) (138, 2.30894254813945565274e+00) (139, 6.28834346918908243529e-02) (140, 1.28296649702858878150e+00) (141, 1.15272288319598947837e+00) (142, 6.33969758350609091657e-01) (143, 1.05788985927582945834e+00) (144, 2.40633818650141906303e+00) (145, 9.26593930226871642652e-01) (146, 5.27137841683765984158e-01) (147, 1.52913821385676529374e+00) (148, 4.53837092309297140957e-01) (149, 1.62968024359068097695e-01) (150, 1.67686910920718168505e+00) (151, 1.65416925567888073445e+00) (152, 1.83945274169479944248e+00) (153, 1.79389927465793497241e+00) (154, 6.71663124109784029359e-03) (155, 7.29488017292351687004e-01) (156, 6.85806629684879154318e-01) (157, 7.72947455996437993164e-01) (158, 1.09555698089109565529e+00) (159, 1.23203406271611215494e+00) (160, 7.94949681613320136009e-01) (161, 1.31414455283205189318e+00) (162, 1.43412096723459425718e+00) (163, 6.16877060698637569303e-01) (164, 7.07508626746399249541e-01) (165, 2.64615282202938040257e+00) (166, -7.57421062109345566427e-01) (167, -1.19942328016069676977e+00) (168, 2.16157996401138108311e+00) (169, 1.74053887700022680285e+00) (170, 1.52952624596577324567e+00) (171, 7.60646169317950815447e-01) (172, -1.72303885091986991318e-01) (173, -2.59244046178914100409e+00) (174, 1.85936051422756687401e+00) (175, 2.06540441171183397628e+00) (176, 2.61415237325128035906e+00) (177, 2.58076707570810182091e+00) (178, 6.79038114086872868214e-01) (179, 2.40465300084715338791e-01) (180, 1.63562935410835286199e+00) (181, 4.70089009887088460360e-01) (182, 2.52063716656177971842e+00) (183, 2.44345484243095034671e+00) (184, 1.31349455842752327328e+00) (185, 1.39885137708499959763e-02) (186, 2.80462654935926503086e+00) (187, 1.83885848409309504703e+00) (188, 2.05666913446641563823e+00) (189, 1.02808749184026559931e+00) (190, 2.96195347751377235923e-01) (191, 1.43174264780531479424e+00) (192, 3.05932145502705932216e+00) (193, 1.54040060827921720943e+00) (194, 1.73504240713092561244e+00) (195, 8.96686390618889217485e-01) (196, 1.54149333113359454650e+00) (197, 7.22995068042341482162e-01) (198, 2.24942744361193680547e+00) (199, 1.24455527368039575720e+00) (200, 8.75993921012674037208e-01) (201, 1.46924750564536399366e+00) (202, 1.31978546336355972990e+00) (203, 1.53066359753805314448e+00) (204, 1.76413725625019623955e+00) (205, 1.35017712762829167339e+00) (206, 1.14264436757744025641e+00) (207, 1.43012471577484534535e+00) (208, 6.35409099820543610271e-01) (209, 2.80005635399032293265e+00) (210, 1.53273702672432743377e+00) (211, 1.21698597944032815832e+00) (212, 1.46551884765822193479e+00) (213, 1.59680883678704232942e+00) (214, 1.49053901174893299597e+00) (215, 2.35548206650984326416e+00) (216, 1.62492511289505237038e+00) (217, 2.22582127673914120791e+00) (218, 4.27901154155207075203e-01) (219, 2.73454516321795981781e+00) (220, 2.81496013249726262373e+00) (221, 2.44323669889706396319e+00) (222, 2.55276793081705166699e+00) (223, 2.15870511288482669343e+00) (224, -3.19721394242208356573e-01) (225, 1.25018385652190811008e+00) (226, 2.48427224064986695851e+00) (227, 3.28647418093360865754e+00) (228, 1.79619298612462863218e+00) (229, 1.69093675407198440475e+00) (230, 9.26913189369294010511e-01) (231, 2.06484084391516997670e+00) (232, 1.73224232449774029341e+00) (233, 7.91115386805418485672e-01) (234, 2.52398394668410208652e+00) (235, 1.44124317669466983638e+00) (236, 1.92984110536237873923e+00) (237, 7.95448173449489592812e-01) (238, 2.10396840265299145400e+00) (239, 1.93085432125507261425e+00) (240, 1.84191019394984412116e+00) (241, 9.00611566493000670341e-01) (242, 9.91306630626667906192e-01) (243, 1.04566073825402217068e+00) (244, 1.70921282505090021964e+00) (245, 7.21755900694360574832e-01) (246, 1.63641947600586967759e+00) (247, 2.65943024016873863502e+00) (248, 8.24203948676115016880e-01) (249, 2.02952074298530460439e+00) (250, 2.59365171718294229564e+00) (251, 1.90742934535352487435e-01) (252, 7.84841215526804303337e-01) (253, 2.48422934344321300060e+00) (254, 2.23440841492828079495e+00) (255, 1.13880216366480535584e+00) (256, 2.57960842164823234146e-01) (257, 1.18570576402128025073e+00) (258, 1.06268323436102773982e+00) (259, 2.09637565514415280532e+00) (260, 9.63481178881213873311e-01) (261, 2.29949163120856603371e+00) (262, 7.23252906505458703634e-01) (263, 4.95362678449937504643e-02) (264, 8.72595838108974009018e-01) (265, 1.34872815987406835525e+00) (266, 1.46602097278947796077e+00) (267, 2.10089606085922753209e+00) (268, 8.25265961210454035424e-01) (269, 1.64160594200426590561e+00) (270, 1.82083455731337062744e+00) (271, 6.92033899051180956263e-01) (272, 1.13310497556052336421e+00) (273, 2.18554957154375406603e+00) (274, 3.99348278151798852242e-01) (275, 1.54134777498553954267e+00) (276, 7.22386534113335754270e-01) (277, 2.01327267057955694440e+00) (278, 2.16286374440833428778e+00) (279, 9.27932723790230840066e-01) (280, 7.47160393476860917872e-01) (281, 1.48304727983783446454e+00) (282, 9.32539647881192479417e-01) (283, 1.53558340437472473639e+00) (284, 1.94956114993960438753e+00) (285, 2.53138130237897929220e+00) (286, 1.44311051363475484344e+00) (287, 2.33460093251731493069e+00) (288, 1.78570739037196068999e+00) (289, 2.42678715898957353403e+00) (290, 1.72102544429457382513e+00) (291, 2.12477191412503785273e+00) (292, 2.11862461124867929030e+00) (293, 6.80261157498053048442e-01) (294, 2.19281572449042450046e+00) (295, 2.30134854403038291437e+00) (296, 1.38011649933357394282e+00) (297, 1.07309124876921169189e+00) (298, 1.82260315141561402008e+00) (299, 2.32584027967336570697e+00) (300, -4.76039499090043061180e-01) (301, -4.20075421703309359600e-01) (0, 8.30614553857845328011e-01) (1, 9.38039978424061393625e-01) (2, 7.93530038416425331782e-01) (3, 6.39789606179388847806e-01) (4, 7.77373685236367406581e-01) (5, 7.29850603933724473293e-01) (6, 7.79854547037133083442e-01) (7, 8.71178171469251916292e-01) (8, 8.04710902572115638343e-01) (9, 6.37212620094994131037e-01) (10, 2.23686362011769807046e-01) (11, 6.73712536313458731918e-01) (12, 7.47336477219091799284e-01) (13, 8.27045662849431928443e-01) (14, 6.65940034135419800521e-01) (15, 7.29872905758347401139e-01) (16, 3.06907566590646496696e-01) (17, 2.55535796481825450144e-01) (18, 7.32674932094627640033e-01) (19, 7.44807512904738011628e-01) (20, 6.79349179198250108236e-01) (21, 6.31057762843617586768e-01) (22, 1.74220057853338577969e-01) (23, 1.34298851687040282643e-01) (24, 1.93744771304556695490e-01) (25, 6.41048190453041843995e-01) (26, 6.79994710567515481259e-01) (27, 7.14158369127203873639e-01) (28, 8.90202279868982510047e-02) (29, 6.49440731540785881615e-02) (30, 2.07522274576226295473e-01) (31, 2.00052173727128357328e-01) (32, 6.58376981041155939778e-01) (33, 4.67613696212516749551e-01) (34, 8.99527234995937258200e-02) (35, 1.60025743806935585867e-02) (36, 1.65146538676607917973e-01) (37, 1.62896191590870376142e-01) (38, 2.81355655577591456940e-01) (39, 4.59373778772844895690e-03) (40, -1.43187217712205355769e-01) (41, -7.26206784023507911918e-01) (42, 7.43346174014564264887e-01) (43, 8.13762062897755544810e-01) (44, 1.45476693078557511862e-01) (45, 6.08479668364374781664e-02) (46, -2.22361976407689732049e-01) (47, -6.18479936970976251764e-01) (48, 6.79554225245289633683e-01) (49, 1.84005250386091812054e+00) (50, 2.58863208037849734655e-01) (51, -8.22016151380628584677e-02) (52, -9.27346712958378893710e-01) (53, -9.77342244746390753640e-01) (54, 7.09301876789504626153e-01) (55, 3.30314008046645346539e+00) (56, 1.94675348467385211926e-01) (57, -4.84357165059850769406e-01) (58, -1.29965704968784390161e+00) (59, -2.36115127580809724961e+00) (60, 7.49509417161306590316e-01) (61, 8.33722120904958119425e-01) (62, -3.01376246381810597441e-01) (63, -3.78856740930174629156e-01) (64, -1.45191933279432139337e+00) (65, -3.09317069654028520276e+00) (66, 3.22739430177114483556e-01) (67, 3.85062074700640410985e-01) (68, -1.37314702155233647751e+00) (69, 2.73266160258016921336e-01) (70, -1.06618191464332645602e+00) (71, -1.41593177876683840033e+00) (72, 3.16675011052096389008e-01) (73, -7.35352298523439529276e-01) (74, -2.36545775677570935258e+00) (75, 3.84167670805396876954e-01) (76, 1.84544871108663272041e-01) (77, 1.90429723158947433737e-01) (78, 3.02705073028458726547e-01) (79, 2.02215264113176557137e-01) (80, -4.80999304466626642629e-01) (81, 1.84656911796804656944e-01) (82, 2.55713154120548402659e-01) (83, 2.29885727141481088776e-01) (84, 2.19458943593153599227e-01) (85, 1.35257336327893584738e+00) (86, 6.55556067562924171810e-01) (87, -3.42722839048751559687e-01) (88, 6.88335423189862405380e-01) (89, 2.13005897262278559579e-01) (90, 3.08389059538472620758e-01) (91, 4.50392415949566859990e-01) (92, 4.26520050869256317494e-01) (93, -5.88025665769388083959e-01) (94, 8.28064175271576163873e-01) (95, -3.12162374804842102094e-01) (96, 1.92084282903729836045e-01) (97, 3.41564903384562745803e-01) (98, 3.07808580341842830119e-01) (99, 3.48025379248688926381e-01) (100, 7.86842881250344294841e-01) (101, -2.52521624925828414021e-01) (102, 7.73281070196331771216e-02) (103, -9.12953403237881988552e-01) (104, -1.08383065724559454757e-01) (105, 2.84752309497799116489e-01) (106, -4.28817447923572514501e-01) (107, -2.57350176360582438839e-01) (108, 1.87587556575903369183e-01) (109, -1.12657938789458200723e+00) (110, -2.31691161034217024683e-01) (111, 4.18787560275548476074e-01) (112, -3.02962722280703360134e-02) (113, -5.31607325384588658146e-01) (114, 7.01623403742955148443e-02) (115, -6.12029903832722710355e-01) (116, -2.55073713217753017535e-01) (117, 4.06849030161793023819e-01) (118, -1.42661705138899486123e+00) (119, -1.89606354889402384245e+00) (120, 1.61638063737459702907e-01) (121, -1.38557584469156697127e-01) (122, 3.40132462208529662284e-01) (123, 3.61932775768471270972e-01) (124, -2.05163219897658821722e+00) (125, -6.09141749417714706283e+00) (126, 9.15674531497825405779e-02) (127, -9.47296231026865664937e-01) (128, -1.78169055620703864484e+00) (129, 2.40935976640991617037e-01) (130, -3.40272268237222119680e+00) (131, -2.27578202760454324505e+01) (132, 2.97134633983635376708e-01) (133, -6.09661050515628133439e-01) (134, -1.42681938127141072492e+00) (135, 3.35085042990146242392e-01) (136, -2.80512349753432355115e+00) (137, -3.07930242702737855254e+00) (138, 3.02953553137745801305e-01) (139, 2.80192471398507780833e-01) (140, 1.60676058220246970043e-01) (141, 3.44533112847182909633e-01) (142, -4.74781321166931724598e-01) (143, 2.65696592196278225106e-01) (144, 4.36144955407045176177e-01) (145, -7.01184720087751414686e-03) (146, -1.48025556992454510041e-01) (147, 4.09244591365417242912e-01) (148, 1.96688770304794535715e-01) (149, 6.08014965138736984684e-01) (150, 2.20876129811898969102e-01) (151, -1.38917227293255618470e-01) (152, -9.11891152804803928333e-01) (153, 4.61146391569497493546e-01) (154, 3.46787552311116020753e-01) (155, 4.33280457286292552954e-01) (156, 1.78803994012737804686e-01) (157, -5.91341435356446010196e-01) (158, -1.43422762620327448602e+00) (159, 3.62236360701063075940e-01) (160, 1.06927654920825965235e+00) (161, 3.86898700302099191051e-02) (162, 3.36081324607231612944e-01) (163, -1.21291765256502737103e+00) (164, -3.26286654647249152461e+00) (165, 2.99129254502319086306e-01) (166, -2.23919654536583953575e-02) (167, -6.81255501228097304356e-01) (168, 3.25343450891462437902e-01) (169, -1.24263317630557490467e+00) (170, -2.21960252919431910712e+00) (171, 3.63424806670023303745e-01) (172, 3.35124735536946327663e-01) (173, -2.71065090429633803737e+00) (174, -8.54848053315995559664e-01) (175, -1.63256939485319030325e+00) (176, -3.21060997001985537480e+00) (177, 2.49774886568412957111e-01) (178, 2.10182834389538275577e-01) (179, -1.64031189839936542008e+00) (180, -6.69551078498184293331e-01) (181, -1.58271870692114569046e+00) (182, -5.08122806775479585184e+00) (183, 2.51119290876549550173e-01) (184, 5.28168329159712235388e-01) (185, -3.96362058628223601353e-01) (186, -2.67882330955244829518e-01) (187, -9.30835547931064155591e-01) (188, -1.61660384163324910567e+00) (189, 2.04494225507515753337e-01) (190, 4.48707429571643501287e-01) (191, -1.62825888024035858592e-01) (192, -1.48413955563204968957e-01) (193, -8.84432789836911537051e-01) (194, -1.48154569231944788221e+00) (195, 1.90698133808921255206e-01) (196, 5.27842716130876410396e-01) (197, -1.42042398676020864556e-01) (198, 3.58285480053032900916e-01) (199, -8.56760734918909805380e-01) (200, -1.11959265565261678610e+00) (201, 2.40693003160367735571e-01) (202, 2.87433738530705806813e-01) (203, -2.99259646682377533633e-01) (204, 2.07138854766266089502e-01) (205, -2.40367341489529873222e-01) (206, -8.43806874004377371890e-01) (207, 3.32350958581097810640e-01) (208, 3.32268313684769167615e-01) (209, -2.54348550283380603343e-01) (210, 2.07583734172833100917e-01) (211, -7.08728769038354800003e-01) (212, -2.36963804498210417471e-01) (213, 3.00708732536866585328e-01) (214, 7.60189281994686716359e-01) (215, 3.76439850641398898734e-01) (216, 4.76804788599614060018e-01) (217, -6.62549330420412752041e-01) (218, -4.44281353875246864948e-02) (219, 2.91818241901485808665e-01) (220, 8.85141589507989157148e-01) (221, -6.82103949829523797943e-02) (222, 5.67724801281584756651e-01) (223, 4.32482614397673770235e-01) (224, 8.89273044649717903098e-01) (225, 4.52553397027182779944e-01) (226, 1.75597800613911569911e+00) (227, 3.05907553192859352209e-02) (228, 6.15551551935224372514e-01) (229, 1.06730167873696801806e+00) (230, 1.88831383768954519375e+00) (231, 3.36623392531645249104e-01) (232, 8.49079036061282099723e-01) (233, 1.59491095540941936470e-02) (234, 7.42027580358811889027e-01) (235, 1.13528243626787084253e+00) (236, 1.94623815260806165561e+00) (237, 2.86639157708180158934e-01) (238, 1.36906811319711885222e-01) (239, -2.89557762926773397394e-02) (240, 2.16492531996081760681e-01) (241, 8.21366134397983227444e-01) (242, 8.60268394402402547527e-01) (243, 2.82121756360707631739e-01) (244, 1.13935931928314393424e+00) (245, 5.40138277569606639616e-01) (246, 7.33057575696860808101e-01) (247, 5.29472847234702892472e-01) (248, 8.28466424182017546762e-01) (249, 1.70444288040864533329e-01) (250, 5.04442933766479972846e-01) (251, 4.31378182447024138835e-01) (252, 4.32380097713200517440e-01) (253, 4.85272131909746440304e-01) (254, 8.54240859990581968830e-01) (255, 1.30096083724152850047e-01) (256, 9.51710447725777480832e-02) (257, 8.11310214907225574210e-02) (258, 4.09331506905718400802e-01) (259, 4.11219266246957315669e-01) (260, 8.77008633254399039281e-01) (261, 1.04721395632191363601e-01) (262, 7.09769845758671941161e-02) (263, 2.44264767995783782517e-02) (264, 7.24325309243162629436e-01) (265, 6.77479297555363957350e-01) (266, 3.66792604846371439464e-01) (267, 1.59682133336905424104e-01) (268, -5.23064838631729367435e-01) (269, 1.22282521843993241539e-02) (270, 8.05362792273528693698e-01) (271, 7.29154746513177576261e-01) (272, 7.37901195096463791145e-01) (273, 1.31892297457971100633e-02) (274, -4.11171406109432313603e-01) (275, -4.17727558434909107543e-01) (276, 8.53538632905401439821e-01) (277, 7.71754741986424575018e-01) (278, 7.02067454261238399482e-01) (279, -4.97543458920675696344e-01) (280, -5.60204581552176339443e-01) (281, -3.73288980969866790449e-01) (282, 7.03121361070981221175e-01) (283, 6.69123957890816800642e-01) (284, 7.64392211643115326858e-01) (285, 2.14913718821774152312e-01) (286, -4.45577313471754665741e-01) (287, -5.11706818690599640753e-01) (288, 8.69055352039278861120e-01) (289, 6.82835386547860800910e-01) (290, 8.59317190138239483943e-01) (291, 6.40615876549572860199e-01) (292, 7.14028658903217650078e-01) (293, 1.85730635233891161473e-01) (294, 7.50259781763478628136e-01) (295, 7.76596480462369953557e-01) (296, 7.57175960069084719173e-01) (297, 7.76918553508566089860e-01) (298, 7.43897553679344625266e-01) (299, 7.43225391553703707004e-01) (300, 5.75010042629313988805e-01) (301, -2.94194487389113987774e+01) (302, -7.11838790079428029856e+00) (0, -1.51121655496260526297e-01) (1, -2.10111187278658212430e-01) (2, -1.66794173882066715242e-01) (3, -1.51800595960444123511e-01) (4, -2.50948526701754326407e-01) (5, -2.63225556156462425772e-01) (6, -1.71105866622747598838e-01) (7, -9.41027044052184791223e-02) (8, -2.22498645513683673824e-01) (9, -1.99514571071569807303e-01) (10, -3.76812188919224133610e-01) (11, -5.11872439678348944980e-01) (12, -2.75594638168245531507e-01) (13, -1.30291729216783530587e-01) (14, -3.84509569221035546471e-02) (15, -2.41617438223984570822e-01) (16, -3.82162152822651146611e-01) (17, -5.27450246423200042045e-01) (18, -2.75238822639887137367e-01) (19, -1.36715941708614202588e-01) (20, -3.39231389209049105649e-01) (21, -4.12410517841295065633e-01) (22, -5.17729950755551948660e-01) (23, -6.42391158887185786952e-01) (24, -5.03304084449723965200e-01) (25, -2.21729435489236986756e-01) (26, -5.21010225325540199393e-01) (27, -5.26377929061368377006e-01) (28, -1.30630984514547776598e+00) (29, -2.43587593916012101758e+00) (30, -5.21347275968231160803e-01) (31, -2.30938981932441222966e-01) (32, -4.77573839634374663898e-01) (33, -4.27446445136979880086e-01) (34, -2.64558332110380378666e+00) (35, -2.53202547314716630567e+00) (36, -5.08876848851636642834e-01) (37, -1.37455680617031589241e-01) (38, -1.16973384724252427169e+00) (39, -3.70180754955448498844e-01) (40, -2.55947880011365258568e+00) (41, -2.55328200194193177808e+00) (42, -5.60863493094500897840e-01) (43, -3.64995295126660124208e-01) (44, -2.57544399231517928683e+00) (45, -5.34599176641143758459e-01) (46, -9.73743925530327625317e-01) (47, -6.03366130815081103123e+00) (48, -5.73585769632332875823e-01) (49, -2.56806124863597162733e-01) (50, -5.56965968935204625012e+00) (51, -2.97395135701601420752e-01) (52, -4.77813241690115020344e-01) (53, -6.99975958713330959071e-01) (54, -1.00951054097515979802e-01) (55, -3.16846850057889206642e-01) (56, -2.61708771463190581485e+00) (57, -4.66337798313852247567e-02) (58, -1.60275006965714533758e-01) (59, -4.94705976605132824453e-01) (60, -7.76726090920991374400e-02) (61, -2.44620535720866560947e-01) (62, -3.66949426997184413590e-01) (63, -1.78128365933128279819e-01) (64, -1.37608572816854984877e-01) (65, -1.13090941745606188285e-01) (66, -7.57452531931035177859e-02) (67, -2.02512059322296572583e-01) (68, -1.92449673190381170818e-01) (69, -1.87704109161325433108e-01) (70, -1.97711670587385784925e-01) (71, -8.52453802412421746126e-02) (72, -1.07317947357126297625e-01) (73, -1.34971163089948859026e-01) (74, -1.29450551195137902871e-01) (75, -1.39303555447944898971e-01) (76, -9.28577704932467551391e-02) (77, -1.85429299047553897140e+00) (78, -2.24433347411608336008e-01) (79, -4.05083228724053695524e-02) (80, -1.38778887142350787487e-01) (81, -2.08196170456862089670e-01) (82, -1.74621081210267398154e-01) (83, -1.02977413741298899907e+01) (84, -1.34886932509053342200e-01) (85, -1.88984347659624546401e-01) (86, -1.48088105810700393361e-01) (87, -8.38978201451876515193e-02) (88, -2.14470339187638497913e-01) (89, -1.03634046468943132879e+01) (90, -1.94043561513430919130e-02) (91, -2.05631383088914973523e-03) (92, -3.70302990506277129867e-02) (93, -8.53293727011385505499e-02) (94, -1.50841010751698062498e-01) (95, -2.39449594007271127083e+00) (96, -1.66367903210245055012e-01) (97, -1.71713679613043485039e-01) (98, -2.23726308576538940320e-01) (99, -5.15824218183485172506e-02) (100, -3.33464833785230285734e-02) (101, 3.42887600570603590100e+00) (102, -4.12818864304169419466e-01) (103, -1.96679400702226198083e-01) (104, -8.25493028515202342810e-01) (105, -1.93815719047161633126e-01) (106, 3.39722363179403386013e+00) (107, 5.39772801681590053136e+00) (108, -3.18743599542093469790e-01) (109, -1.15583636295949199191e-01) (110, -1.71105560353061858514e+00) (111, -2.97581650611203285539e-01) (112, 3.53317687602757102283e+00) (113, 2.14986875396913283964e+01) (114, -1.01425000678063481629e-01) (115, -1.87592903574216401941e-01) (116, -1.68976960642600326779e+00) (117, -5.69865802510453711704e-01) (118, 2.81474209949314442269e+01) (119, 1.48152260303497467220e+01) (120, -4.41488109657909300054e-02) (121, -2.46228342548486280050e-02) (122, -5.06924184762938323523e-01) (123, -6.17168994646177471175e-01) (124, 2.88899253594739811035e+01) (125, 1.55819749538197314109e+01) (126, -1.03773843628100805037e-02) (127, 4.08833195784611275192e-02) (128, -4.28617912565505243538e-01) (129, -6.59409652953261482544e-01) (130, 2.85441149726447235935e+02) (131, 2.73204515267360079633e+01) (132, 3.04484931570028656556e-02) (133, -5.20538524173293493114e-02) (134, -1.56941661238793800370e-01) (135, -4.95648568620482898872e-01) (136, 1.18652722477433325565e+01) (137, 4.50896390527805692727e+01) (138, -2.05332415222074168848e-03) (139, 2.27101919572448451845e+00) (140, 2.33153834421650163478e+00) (141, -6.71422561459019351382e-01) (142, 2.50988849995190839437e-02) (143, -8.76179762673222910507e+01) (144, 7.37549666587623414804e-02) (145, 5.83110765223380322908e+00) (146, 5.95097851057796667362e+00) (147, -2.92992140057810768194e-01) (148, 7.01342957004247669062e+00) (149, 2.15646387731387925157e+01) (150, 4.86429395225515953660e-02) (151, 8.40687527319565397477e+00) (152, 7.45585410229034994956e+00) (153, -2.18948579195201081804e-01) (154, 9.48186719527773824723e+00) (155, 9.84657898324836367010e+00) (156, 6.93059476163855048281e-02) (157, 1.07578552774741105225e+01) (158, 8.05199128557410581664e+00) (159, -3.09135894958970369739e-01) (160, 8.15828075743872638270e+00) (161, 6.21294069216866873262e+00) (162, 3.65213773360998222861e-02) (163, 7.95004286654191005823e+00) (164, 6.53215582572716790821e+00) (165, -2.28338733185584980001e-01) (166, 7.54688146886047839246e+00) (167, 6.80288845243178830202e+00) (168, -1.36698539435987836965e-01) (169, 5.18801309771059937503e+00) (170, 3.83318703840524133142e-01) (171, -2.40932946009808135468e-01) (172, 7.53351460146449980471e+00) (173, 7.86572188832554264337e+00) (174, -2.48045194626425435924e-01) (175, 6.08859773869162257398e+00) (176, 3.14625912158240605976e+00) (177, -1.90498869370144985336e-01) (178, 1.08708375591093133750e+01) (179, 1.32616348567786026535e+01) (180, -3.03508871106133726325e-01) (181, 5.97843065699633591237e+00) (182, 2.46829503881351541850e+00) (183, -7.29324281480522168541e-02) (184, 1.07290474447661452473e+01) (185, 1.53475703652295081270e+01) (186, -9.77763238149536029198e+00) (187, 7.73291361277139621677e+00) (188, 3.28769025947872339799e+00) (189, -5.71809355782132155976e-02) (190, 7.27662783889105480029e+00) (191, 8.82117666050183046877e+00) (192, -9.57641405745186169440e+00) (193, 6.69587437178950217742e+00) (194, 4.25932159357261497235e+00) (195, -1.39841792834434125448e-01) (196, 5.51077853685732765854e+00) (197, 8.79348639883567706477e+00) (198, -9.72349630801715214545e+00) (199, 6.69086275257646878600e+00) (200, 5.41875223933255512065e+00) (201, -9.79331938843694543850e-02) (202, 5.83977113758293775447e+00) (203, 8.24881238606399769253e+00) (204, -1.57581305699148049859e-01) (205, 2.67135417227286753317e+00) (206, 5.45159587695033298615e+00) (207, -2.43660476664367131594e-01) (208, 2.74374755650678325836e+00) (209, 8.78443675008705859852e+00) (210, -2.54402564309465561987e-01) (211, 1.29801200505247016359e-01) (212, -9.82951144502990636909e+00) (213, -5.94148215437735188749e-02) (214, 1.12518819130459113431e+00) (215, -3.54715693561696632230e+00) (216, -2.82129623674399698796e-01) (217, 5.40634008446889552379e-02) (218, -9.70822716308775746086e+00) (219, -2.12850408469390274535e-02) (220, 1.18687330326444473449e+00) (221, -3.32444474829207692324e+00) (222, -2.73501492275561253198e-01) (223, 8.52963283143534228836e-02) (224, -9.60083288245781041326e+00) (225, -7.86075086740988943079e-02) (226, 1.12019601334113327873e+00) (227, -3.27785708846326251376e+00) (228, -4.14740795495598779663e-01) (229, 1.40578115678444803827e-01) (230, -1.79457020819049323235e-01) (231, 1.70103597002856862797e-02) (232, 2.39559815675708470684e-01) (233, 2.56606983133231114635e+00) (234, -3.06011030676453688049e-01) (235, 3.64331334314836191579e-02) (236, -1.53901116884423733167e-01) (237, -9.29155978252832748243e-02) (238, 1.27724658507885391323e-01) (239, 5.20081449132161255378e-01) (240, -1.77700711938346134211e-01) (241, -6.03359279462786501913e-02) (242, -1.70675585462899070954e-01) (243, 6.70331891181613487296e-02) (244, 1.30314306943725699561e-01) (245, -1.68324920748796486025e-01) (246, -1.70420122345039642964e-01) (247, -5.91379010486652034739e-02) (248, -2.48276265318717825892e-01) (249, -1.26465222800680926474e-01) (250, -7.81695703104654943116e-02) (251, -1.63080658277775486509e-01) (252, 9.84859090741662702995e-03) (253, 3.45913436891224224112e-02) (254, -1.87801014684570201363e-02) (255, -3.73725190942814089468e-02) (256, -1.24080794280186507139e-01) (257, -1.67712816354904953320e-01) (258, -1.71351754952273928334e-02) (259, -1.20738863962763842697e-01) (260, 2.15586691252496708004e-02) (261, -1.53874150913382273798e-01) (262, 4.38819646057344997514e-02) (263, -2.18779857639587765883e-01) (264, -1.77255377681505760235e-01) (265, -1.69174063298452720394e-01) (266, -4.27005555605117381734e-01) (267, -9.87297935747806776341e-02) (268, -8.18490930437659053309e-04) (269, -3.11368417826265973802e-02) (270, -4.91898031806114743869e-02) (271, -1.76238399404620799116e-01) (272, -5.21143119906607887870e-01) (273, -7.59169769373508052102e-02) (274, -4.24553309005590850944e-02) (275, -4.62606087893520701027e-01) (276, -4.44691850483222017587e-02) (277, -9.97713685963044494276e-02) (278, -2.99201228130197283139e-01) (279, -1.73499895034548629047e-01) (280, -7.32924354140691292070e-02) (281, -1.16058391604859556523e+00) (282, -1.66003033728412602299e-01) (283, -1.00377264711607488978e-01) (284, -3.14790796894168611875e-01) (285, -4.65473214273566249233e-02) (286, -9.37886664254637403282e-02) (287, -3.99160035045614425275e-01) (288, -5.06982005433027904662e-02) (289, -1.69747817609060630550e-01) (290, -2.09240869424170333746e-01) (291, -4.11407280406000525064e-02) (292, -6.20602150396787066722e-02) (293, -1.94252276129000561733e-01) (294, -2.30289215524572710159e-01) (295, -1.01786020490873818645e-01) (296, -1.06489259097326788295e-01) (297, -1.19398894091028495712e-01) (298, -1.54071096188048400899e-01) (299, -8.30505302610199114266e-02) (300, 5.26490972903832687990e+00) (301, -5.83948251689770572170e+01) (302, 5.73408174829859085264e+00) (0, 1.58993084722805266829e-01) (1, 2.26644277417069939240e-01) (2, 2.16489314877397087677e-01) (3, 1.06067508132799206977e-01) (4, 1.88386427238290299346e-01) (5, 1.97397412731950272491e-01) (6, 2.55783352896248483699e-01) (7, 2.03113761138750070767e-01) (8, 2.84314025533033531978e-01) (9, 2.28751367395994026355e-01) (10, 4.41275603677334815611e-01) (11, 2.98317335600331134948e-01) (12, 1.54185470088993581417e-01) (13, 1.83817169029304033900e-01) (14, 2.08142723470629509297e-01) (15, 2.63412608440493523076e-01) (16, 7.15231668066135251038e-01) (17, 5.24936199780151713234e-01) (18, 1.88455190954915190182e-02) (19, 2.12074181463587502217e-01) (20, 3.23466206295199731890e-01) (21, 3.81469358998780538883e-01) (22, 7.16620535349332121733e-01) (23, 4.43758530539860973629e-01) (24, 1.74646216330215486856e-01) (25, 9.16493018912823698141e-02) (26, 1.08105817391994318832e-01) (27, 3.14112564903305524489e-01) (28, 3.02243968750360414433e+00) (29, 9.04021010765314270152e-01) (30, -8.30741637444594796524e-03) (31, 2.18525480075198286212e-01) (32, -5.22454032186606243116e-01) (33, 3.05254918323300317162e-01) (34, 4.73498829593026382412e+00) (35, 2.94161199071450729647e+00) (36, 5.54799650821428437519e-03) (37, 2.26615833236553293473e-01) (38, 5.69687535867699004766e-02) (39, 1.77311991141579416986e-01) (40, 3.07696940788073991513e+00) (41, 7.47617429215835405110e-01) (42, 3.01307251213692346703e-02) (43, 2.14270039404564627272e-01) (44, 8.68374613386316135388e-02) (45, 2.06374837030802255056e-01) (46, 8.28214578506473397823e-01) (47, 6.78258889288382182947e-01) (48, 1.54154149177324895081e-02) (49, 3.28115151295870599579e-01) (50, 1.99261983517728363813e-01) (51, 6.56253954570865192381e-03) (52, 4.67884505143159989959e-01) (53, 3.80709912192593369351e-01) (54, 1.50929274745328578788e-01) (55, 3.37914811163694317475e-01) (56, 2.84404430115523132461e-01) (57, 6.65370936294095577379e-02) (58, 3.32969132585668459168e-01) (59, 2.53450407952540368584e-01) (60, 1.91415544148392430257e-01) (61, 1.20671849591835966820e+00) (62, 3.71443086032704095079e-01) (63, 1.50624947380780110917e-01) (64, 2.22990989669533484774e-01) (65, 5.30200144105355333779e-02) (66, 1.03305258001122904354e-01) (67, 4.54798629673780652194e-01) (68, 2.36126072747495002746e-01) (69, 7.05204275535414176757e-02) (70, 2.61081824004979257126e-01) (71, -6.96017532680353323560e-02) (72, 3.38034825619972084665e-02) (73, 4.08861446925246341255e-01) (74, 2.10730125502267273685e-01) (75, 3.19103275089804086506e-02) (76, 2.00129746730087459961e-01) (77, -2.44780696920468589239e-02) (78, 9.22237328778652103167e-03) (79, 3.05552019448175171679e-01) (80, 2.88418619000608222880e-01) (81, 6.01048132212411365116e-02) (82, 5.55629842375077939720e-02) (83, -1.47378020953142702121e-01) (84, -7.72863782620196032580e-02) (85, 3.45292639328636741247e-01) (86, 1.60891301746754866731e-01) (87, -4.82785494363450889965e-02) (88, -6.46389561441719495694e-02) (89, -7.81545359463288069612e-01) (90, 5.82702588842705111044e-03) (91, 2.78650629166641516932e-01) (92, 2.49666381235335049782e-01) (93, -1.93764357508914741857e-01) (94, -1.43628131212296394903e-01) (95, -3.17676223622650244494e+00) (96, -1.77297117622650622637e-02) (97, 2.67092114878948905243e-01) (98, -2.94398913649833227080e-01) (99, -2.67389149534827230692e-01) (100, -4.70460092420248499057e-01) (101, -9.13712422162757320621e+00) (102, -1.70959311283203491127e-01) (103, 2.49227788288726409549e-01) (104, -1.16557420687822954619e+00) (105, -1.62624686723868400184e-01) (106, 2.13100841982657579488e-01) (107, -8.80957447988225506030e-01) (108, -6.26265678749274856685e-02) (109, 1.62675221822813603767e-01) (110, -1.54512063845025804376e+00) (111, -1.27388131362972251148e-01) (112, 3.89474998312241083021e-01) (113, -2.52853168610094714008e-01) (114, -5.45852270649973408956e-02) (115, 2.83406542954468820827e-01) (116, -1.92557037308092016126e+00) (117, -2.84326936911097116756e-01) (118, 4.41356879953116731929e-01) (119, 1.74331008234117262878e-01) (120, -1.77121442035540033189e-01) (121, -4.76379729712786192941e-01) (122, -2.84109694100168574948e+00) (123, -2.30114564648398550739e-01) (124, 2.94840081317864044497e-01) (125, 1.72550023920686551593e-01) (126, -8.49626141639717030740e-02) (127, 1.05694118434811051843e-01) (128, -1.35790447540771253010e+00) (129, -4.71770355878976643815e-01) (130, 1.99560394080982056453e-01) (131, 3.53436348451057827380e-02) (132, -3.29109586126696759822e-02) (133, 2.52141346406798305679e-01) (134, -3.44942082436847208271e-01) (135, -8.54294697171691264082e-01) (136, -4.39839803082356983754e-01) (137, -4.33094236285344769133e-01) (138, -2.63887651490525565467e-01) (139, 3.00346853032661231797e-01) (140, -2.19006584894976714939e-02) (141, -3.97992344815522147705e-01) (142, -1.08730573559253818061e+00) (143, 3.13401223424106145643e-01) (144, -1.29353530132461258528e-01) (145, 7.35495831023912471913e-01) (146, 1.09159811165842723923e-01) (147, -4.76655311810393556016e-01) (148, 1.90953542193521758064e-01) (149, 3.50892806820383540423e-01) (150, 3.03631792084212235455e-03) (151, 1.47305008170434836856e+00) (152, 7.45673052553742499171e-01) (153, -4.09388886930437290168e-01) (154, 1.98907820436778182138e-01) (155, 6.31216726523581628250e-01) (156, -8.32720374170925758950e-02) (157, 8.25248145465282578748e-01) (158, 1.78288956795222497398e-01) (159, -1.91584485222409089955e-01) (160, -9.05828024565228595577e-01) (161, -3.16994307055748825164e-01) (162, -3.19496434905809589822e-01) (163, 9.03110271731840996701e-01) (164, 7.35827847938985923903e-01) (165, -8.51383492989663814843e-02) (166, 1.85427473274926757352e-01) (167, 2.38429630362270800203e-01) (168, -6.17518703523223022600e-01) (169, 2.66128382726153633886e-01) (170, 8.51380730561496434916e-01) (171, 4.04818243703080060669e-02) (172, 3.19828849302465856308e-01) (173, 3.83165753710230760909e-01) (174, -1.80382013370506100181e+00) (175, 6.64869776584480903781e-02) (176, 2.22702200053416898839e-01) (177, -5.94406948251632594182e-02) (178, -6.62452368652015399775e-01) (179, -5.66374342311136591555e-01) (180, -1.35930354985199897122e+00) (181, 7.28954011401491824840e-02) (182, 1.66378407765321006950e-01) (183, 5.86675176958536084316e-04) (184, -3.56265992801716391281e-01) (185, 3.19559817035722115719e-01) (186, -1.78059540947302274994e+00) (187, 5.81637797932953309887e-02) (188, 1.70322197505533262651e-01) (189, -4.74540473397770251607e-02) (190, 8.37916503944505008938e-01) (191, 2.53339662599053561109e+00) (192, -1.56841006049380671250e+00) (193, 2.44192379577768375887e-01) (194, 1.29794127650697116438e-01) (195, -9.42539545356981256496e-02) (196, 7.54635524375143695863e-01) (197, 1.17114044578701381738e+00) (198, -1.55329400527153804745e+00) (199, 2.68370355314202557739e-01) (200, 9.95899830234792449168e-01) (201, 5.35614587485466475680e-02) (202, 7.74071474421011762601e-01) (203, 7.35199354948874561622e-01) (204, -2.78720908468642669664e-01) (205, 3.07317630373644345987e-01) (206, 8.45384395076277939118e-01) (207, -1.79848002420876875752e-03) (208, 2.09435278277078196218e-01) (209, -5.14305486063722505641e-02) (210, 1.59047762751647579760e-02) (211, 4.55360663575392399238e-01) (212, 1.08567625573210824186e+00) (213, 6.41525913666884679137e-03) (214, 1.05680423487102742586e-01) (215, -2.03311443844587380614e-01) (216, -5.24803045191513314882e-02) (217, 2.11541910729503745969e+00) (218, 2.40994264976887517804e+00) (219, -3.55458691924568585124e-03) (220, 9.77864346710625442771e-02) (221, -3.90982875340635860351e-01) (222, 1.10586100075766913253e-01) (223, 2.47538828398341204107e+00) (224, 2.19111152822999555312e+00) (225, -8.02696478427153081725e-01) (226, -7.97693858431412161636e-01) (227, -1.13950106292366082350e+00) (228, 7.16791164917976886956e-03) (229, 6.91238217792125797523e-01) (230, 1.89553376668973116992e+00) (231, -6.50696569141980929452e-01) (232, -7.54753901108588198809e-01) (233, -1.32167653435831167208e+00) (234, 1.27255901322118586405e-01) (235, 3.45334929392272338422e-01) (236, 5.28677720936779893535e-01) (237, -6.61590074579474607397e-01) (238, -1.06543907287673356166e+00) (239, -2.00654628015462321855e+00) (240, 1.67196807444145445487e-01) (241, 2.41128299505846410700e-01) (242, 3.96865956652682594363e-01) (243, -2.04604444436467941548e-01) (244, -1.23237504402699915573e+00) (245, -2.70880302085291768677e+00) (246, 1.68630935214484134477e-01) (247, 2.16529172034399280955e-01) (248, 2.95014140331778751403e-01) (249, -1.29120029631054594743e-01) (250, -1.22214110885598481460e+00) (251, -2.23107266296016337748e+00) (252, 1.16179584302620389491e-01) (253, 3.47621409514015822229e-01) (254, 2.77887638778822221308e-01) (255, -3.19863796044847006894e-02) (256, -7.42558607885468791032e-01) (257, -9.72140477092799826231e-01) (258, 1.08229438692556592660e-01) (259, 1.20546516143782853070e-01) (260, 2.93552442515213785068e-01) (261, 2.85481578079249329050e-02) (262, -5.85724871521556833542e-01) (263, -7.24275383124776350741e-01) (264, 5.75677752438896739307e-02) (265, 1.88270622839759593781e-01) (266, 1.93060411410884452676e-01) (267, 2.74785044449884843787e-02) (268, -2.60585945489477041614e-02) (269, -7.66624602542695932073e-01) (270, 3.23143118989074745739e-02) (271, 1.39680618224024111207e-01) (272, 1.42328457230984112281e-01) (273, 3.45622881628286811317e-03) (274, 2.83160479560711983438e-02) (275, -1.16611751362141066735e-01) (276, 1.86791002936323918826e-01) (277, 1.88917931084855383883e-01) (278, 9.20289456861399235432e-02) (279, 5.50613642051937524080e-02) (280, 1.07134787985343579719e-01) (281, -8.82496427014029527491e-02) (282, 2.59742924559641319426e-01) (283, 1.72074200361030160700e-01) (284, 2.17053087231992902773e-01) (285, 1.78545733705370995859e-02) (286, 1.15596178904997431980e-01) (287, 6.45601155651153724158e-02) (288, 2.08383594654836662441e-01) (289, 1.87235674698925325110e-01) (290, 2.67180094196732886846e-01) (291, 9.22432646999796386489e-03) (292, 1.80817884550111412922e-01) (293, 1.15491596207635618954e-01) (294, 2.08842744968978477615e-01) (295, 1.87651892810185405569e-01) (296, 2.08799674819031055861e-01) (297, 2.50655398066262358192e-02) (298, 1.55754036110393567771e-01) (299, 1.86592197817317950737e-01) (300, 1.27330872605253775376e+00) (301, 5.14965604203314608611e+00) (302, -5.46702816944362002261e+00) (0, 2.93489086902894713571e-01) (1, 1.42546138405721056763e-01) (2, 1.40743833991941291739e-01) (3, 1.35432511097946156609e-01) (4, 3.27722289158563884204e-01) (5, 2.30865300192098665821e-01) (6, 1.73915151997070360768e-01) (7, 6.47804523455984826441e-01) (8, 7.12152178037054772730e-01) (9, 2.24599558389940168190e-01) (10, 1.11602595204143034691e-01) (11, 2.74233027176141452852e-01) (12, 2.39991429365784159078e-01) (13, 5.71195765215115169866e-01) (14, 2.00177817863219809080e-01) (15, 2.21253709240393670044e-01) (16, 1.26522963994769505058e-01) (17, 1.49314187869647119200e-01) (18, 1.34233490631735175036e-01) (19, 2.06260521005300512254e-01) (20, 2.62948328782002638260e-01) (21, 1.21568114644325264706e-01) (22, 1.71651640278100925396e-01) (23, 1.71674119347717202277e-01) (24, 3.55201246241449927754e-02) (25, 7.19215383496886628834e-01) (26, 2.75809559528009007323e-01) (27, 1.19274747112077285360e-02) (28, 1.74694282670854850181e-01) (29, 2.31190020132034323996e-01) (30, 8.58275506608058985636e-02) (31, 6.80497561406843143317e-01) (32, 1.47425802110449394311e-01) (33, 1.02587197540917843264e-01) (34, 2.07147816136211471161e-01) (35, -3.89095413047784973240e-03) (36, 4.96322396310710650669e-02) (37, 1.05771204378899724707e-01) (38, 1.00145670284133750383e-01) (39, 1.02523326731183875293e-01) (40, 1.15089722965150312306e-01) (41, 1.05425375650424188456e-01) (42, -3.02855798769047224184e-02) (43, 6.93438978878930523120e-02) (44, 1.15415238841330217157e-01) (45, -6.01278998624097740788e-02) (46, 1.78760106340329683050e-01) (47, -1.76909672782175862726e-02) (48, -9.57468810490136462699e-02) (49, 1.02343765843104020363e-01) (50, 5.90768958959027243316e-02) (51, -4.23822939554723554512e-02) (52, 1.08824942568458996051e-01) (53, -6.94549003411201459901e-02) (54, 9.79812873306329032430e-03) (55, 6.03745679891603895251e-02) (56, 1.15202214322018145487e-01) (57, 5.98261387501593591698e-02) (58, -5.83415246086522593094e-02) (59, -5.86654205386024987789e-02) (60, -6.70285539372488404358e-03) (61, 2.32974539227106924866e-01) (62, 6.71449971956542129847e-02) (63, 9.90016491566532846891e-02) (64, -2.52412104004306261928e-02) (65, -2.33391307568942746320e-01) (66, -9.68767285083503432164e-02) (67, 2.42998393132950268880e-01) (68, -6.35947962893317064736e-02) (69, 6.40770123093486188015e-02) (70, 1.77985365036914132322e-04) (71, -5.24743776050261012678e-02) (72, -1.73569890341738371220e-02) (73, 1.61662639047797318526e-01) (74, -9.50795350223813118262e-02) (75, -8.06125318378479865933e-02) (76, -7.34248535023810863787e-03) (77, -1.74559333915871722764e-01) (78, 1.12024869058208343536e-02) (79, 3.15198467320547459636e-01) (80, 3.51506766455474198296e-02) (81, -1.49648958895481382081e-01) (82, 2.14514932334121423418e-02) (83, -1.44711858570660573120e-01) (84, -4.57235509038183690622e-02) (85, 9.11342283906697997464e-02) (86, -6.00817683408966102254e-02) (87, -1.50648862537224426106e-01) (88, -5.38991854740568099302e-02) (89, -2.36848832328772102018e-01) (90, -3.22154248322373215618e-01) (91, -7.94869809041192226795e-02) (92, -3.50762223350398638644e-01) (93, -1.42651623655189352391e-01) (94, -1.77140002074125002540e-01) (95, -4.51801022749182157323e-01) (96, -4.18363817950666183609e-01) (97, -2.09215718494956737228e-01) (98, -6.08801650013508055537e-01) (99, -3.29223273520283299387e-01) (100, -2.42856654482256684169e-01) (101, -1.10912948972839897621e+00) (102, -5.79896099616832721990e-02) (103, 1.77523265741750080338e+00) (104, 5.01368715934760622588e-01) (105, -4.42798951052088274327e-01) (106, -1.83671382593823345752e-01) (107, -1.65570496536274447408e+00) (108, -1.49227510526385220846e-01) (109, 4.40521860413645338639e+00) (110, 2.55403761095785419855e+00) (111, -4.37061200883956946228e-01) (112, -1.77398466982086500110e-01) (113, -3.16512712381233329850e+00) (114, -4.24547903346319421836e-01) (115, 2.52296305172910750869e+00) (116, 6.84293849518723962255e-01) (117, -5.09145619294154472279e-01) (118, -2.50607477401625033941e-01) (119, -4.26308944787690879963e+00) (120, -2.57690827504171160456e-01) (121, 1.48460099159483682740e+00) (122, 1.59059162538266507525e+00) (123, -7.41230423154587758638e-01) (124, -2.68675464954647114091e-01) (125, -2.16318096596133235821e+00) (126, -4.56338247431500865225e-01) (127, 6.35030959049025289787e-01) (128, 1.24393718287006405099e+00) (129, -9.40150178628032850980e-01) (130, 6.13768537490425813985e-01) (131, -4.82891380359377175857e-01) (132, -1.37044490963603693423e+00) (133, 1.22536842384361202574e-01) (134, 6.71696418851582960352e-02) (135, -5.42834439454769723810e-01) (136, 1.92005990392176317805e+00) (137, 9.77362986285371215800e-01) (138, -2.61717518465659981786e+00) (139, 1.61946110922414898692e-01) (140, 3.48782860408083164594e-02) (141, -5.59721588139024950337e-01) (142, 1.97501445069915315678e+00) (143, -5.25840823473481400185e+00) (144, -2.44805395142429649269e+00) (145, 2.47147478601099257478e-01) (146, -9.72157363552113573668e-02) (147, -1.30744934226575959535e-01) (148, 1.93872134988175859327e+00) (149, -2.10719124024406756490e+00) (150, -2.65451098416554920334e+00) (151, 4.28524388930217742244e-02) (152, -9.50346512504003093635e-02) (153, -1.03498996294540013263e-01) (154, 8.00904456983460910635e+00) (155, -4.80815418622993137610e-02) (156, -1.67325405550928607568e+00) (157, 1.40062500385254917745e-01) (158, -2.77476663392362044025e-01) (159, -2.19549358265269972668e-01) (160, 3.69884803509072739303e+01) (161, 2.53748729064291751456e+01) (162, -1.63441436272575346678e+00) (163, 1.22412804271811045953e-01) (164, -3.19998491215274571964e-01) (165, -1.46817777376472280437e-01) (166, 6.81473411585264443602e+00) (167, 4.17861523088662156766e+00) (168, -8.71051721306238313502e-01) (169, 2.09545238332208533238e-01) (170, -5.01335567076432009337e-01) (171, -5.00152124702392675282e-02) (172, 3.83674382334592056765e+00) (173, 2.30586293186403290534e+00) (174, -3.41887599987169055193e-01) (175, 1.67494655648067064524e-01) (176, -7.90494023551717939213e-01) (177, -4.16678723420481622597e-01) (178, 3.21673430232935730899e+00) (179, 1.00098895049576386285e+00) (180, -2.33175614442095863188e-01) (181, 1.80896259651169760696e-01) (182, -6.21129347362427752799e-01) (183, -7.69123809607919817211e-01) (184, 2.40064107772314772049e+00) (185, 7.60523480787772654388e-01) (186, -4.60603954059837950030e-01) (187, 6.99319714195626856990e-02) (188, -1.02168995662589900952e+00) (189, -5.42350848112144734436e-01) (190, 8.92733456672465841564e-01) (191, -3.59913202569096646322e-01) (192, -2.04237372207115852607e-01) (193, 2.09764727980428916654e-01) (194, -1.69174493318699437072e-01) (195, -3.11978688632831346883e-01) (196, 9.21526910806071297699e-01) (197, -1.14798213175078345216e+00) (198, -1.99687885512496499096e-01) (199, 2.73686513874039027971e-01) (200, -2.13233820549426661417e-01) (201, -5.78034212114271972460e-01) (202, 1.25189813567983393439e-01) (203, -4.85029143149146957370e+00) (204, -2.53162287844702738049e-01) (205, 2.36234687356455835827e-01) (206, -2.74367933074897041301e-01) (207, -5.58906007864903631166e-01) (208, 9.70627358427223613235e-02) (209, -8.54660463707924589194e-01) (210, -3.02794673891710386382e-01) (211, 1.31817067675885774003e-01) (212, -3.93560596670647022677e-01) (213, -4.02775227043972172680e-01) (214, 7.85260006154802903122e-02) (215, -1.75210098193744501227e-01) (216, -9.39873576238610897171e-01) (217, -4.95164669347544147970e-02) (218, -2.99186522167899582314e+00) (219, -3.07895818932435227921e-01) (220, 8.40951793878075108679e-03) (221, -2.69744196680020031920e-01) (222, -5.09603310544699761309e-01) (223, -3.65445755673346250880e-01) (224, -1.75864348289471483788e+00) (225, -1.23800736059149915635e-01) (226, 4.74076076886660313647e-01) (227, -1.84065873331869744867e-01) (228, -3.53875322325038710325e-01) (229, -4.18707955637930728798e-01) (230, -1.80858779553420201403e+00) (231, -4.77356960722331372104e-02) (232, 5.92326076948391344601e-01) (233, 3.86756756840443527423e-01) (234, -2.06226126880679011544e-01) (235, -1.28517706900983574858e-01) (236, -6.92779888658295761594e-01) (237, -7.77935579974783908419e-02) (238, 5.52701029111152375428e-01) (239, 4.91215573345118283743e-01) (240, -5.21850982327963647256e-02) (241, -1.19463796540801949798e-03) (242, -2.06364565147901551923e-01) (243, -2.06901446044085779441e-01) (244, 5.41266513664594994815e-01) (245, 1.16363472406937340509e-01) (246, -3.06138154052829104812e-02) (247, 4.79684274995307080580e-01) (248, -1.01507225562382646933e-01) (249, -1.55482869600171158542e-01) (250, 1.14162934129495213798e-01) (251, 5.39679255233371721334e-02) (252, -1.15242095993972684664e-02) (253, 7.77459966115177925072e-02) (254, -9.27114900019310600454e-02) (255, 8.57656820640733258410e-02) (256, 2.30308326981570998804e-01) (257, 1.99527651088172275351e-01) (258, -4.51779554019467038950e-02) (259, 4.12938649417836159405e-02) (260, -9.27001251799024206246e-02) (261, 1.00629106075049337687e-01) (262, 1.98684938558606527526e-01) (263, 2.03500796681340689886e-01) (264, 1.13573662970031685759e-01) (265, 5.13744564691279298474e-02) (266, -1.71157679435253423650e-01) (267, 1.51357083833503075487e-01) (268, 3.87242576858854270494e-01) (269, 4.97001843894091910325e-01) (270, 4.26567831092255211889e-02) (271, 1.21455306006935659369e-01) (272, 3.88139749130725075776e-02) (273, 6.52036241276616190810e-02) (274, 3.24759819460437693106e-01) (275, 6.10418264764230111830e-01) (276, 1.14350015111872437695e-02) (277, 9.67233063760739447678e-02) (278, 1.41034270811492418174e-01) (279, 5.53740269767159162817e-02) (280, 6.51993568545221502397e-01) (281, 7.58624505573388785429e-01) (282, 1.14794313866092290155e-01) (283, 1.04530604191552439763e-01) (284, 1.68790166699043175935e-01) (285, 1.58292073789757875568e-01) (286, 3.10556583878407066468e-01) (287, 8.00701782127828276536e-01) (288, 1.36023191610867011381e-01) (289, 1.63520939403000553636e-01) (290, 7.43553163347062257005e-02) (291, 6.81180947560844768374e-02) (292, 3.26671593663105552796e-01) (293, 3.69842746135601474489e-01) (294, 1.72663146505648124052e-01) (295, 1.14663199408324895101e-01) (296, 1.13803089483054814535e-01) (297, 2.02053474138075173094e-01) (298, 4.03883520661344752600e-01) (299, 3.40902593134394138463e-01) (300, 1.22296294847623832069e+00) (301, 2.19265227680351522110e+01) (302, 3.87466699171455601913e+01) (0, -3.25520460617480911214e-01) (1, -3.23603721254713816435e-01) (2, -2.45507540351806524681e-01) (3, -2.53679359907244050820e-01) (4, -2.51395858836267915848e-01) (5, -3.14226953429318223154e-01) (6, -2.80110212570581995628e-01) (7, -4.12201513108586881096e-01) (8, -5.00761223948868461342e-01) (9, -1.90609276218725254282e-01) (10, -1.97466278109485110503e-01) (11, -2.70324734327048454841e-01) (12, -3.15420810564997600167e-01) (13, -2.99532547286389894126e-01) (14, -4.85191318701885587750e-01) (15, -1.61914235472620071654e-01) (16, -1.68165235963075060388e-01) (17, -1.75054276284161564048e-01) (18, 1.27766841743974735035e-01) (19, 2.32577080579454892328e-01) (20, -3.26788396625656396566e-01) (21, -2.96101020649775281690e-01) (22, -3.05240152170013934185e-01) (23, -1.39771603151827239486e-01) (24, 2.33945865388347412628e-01) (25, 1.85958377241507544220e-01) (26, -3.32523920707660236573e-01) (27, -3.02189401677972202531e-01) (28, -2.78001415016069730601e-01) (29, -1.81570866250867185565e-01) (30, 2.67884522706532290925e-01) (31, 1.86839169241936886579e-01) (32, 1.95545369835594506913e-01) (33, -1.16951961535268489367e-01) (34, -1.71171540735217453388e-01) (35, -2.07083464878672657283e-01) (36, 3.77586798753475672008e-01) (37, 3.03651044193705310636e-01) (38, 5.16124033574158369575e-01) (39, -2.48006772973284078665e-01) (40, -3.11614412170024668303e-01) (41, -1.35716698476502362070e-01) (42, 4.77387911978264578572e-01) (43, 3.14566844633218434257e-01) (44, 4.06851149732164629746e-01) (45, -1.00139990683500018642e-01) (46, -9.20160557507203741290e-02) (47, 8.91555185320152404627e-02) (48, -7.43379656864384934928e-03) (49, -2.26156462921355799756e-01) (50, 4.06928522977091366997e-02) (51, -5.22388967511317192649e-02) (52, 2.09390893921756998663e-01) (53, 6.08804496468816735977e-01) (54, -1.43606579813475049301e-01) (55, -1.32920390328651127909e+00) (56, -3.73168907516306935790e-01) (57, -2.15462950386776069811e-01) (58, 4.49598561765023552184e-01) (59, 5.67873079974764216615e-01) (60, -1.59959225570043050979e-01) (61, -1.62347209593454500087e+00) (62, -6.55998386677024369895e-01) (63, 4.74208925251393964562e-01) (64, 5.51794348755543895280e-01) (65, 8.93704322783723248413e-01) (66, 2.34373149802530322816e-01) (67, -1.03682259231018725210e+00) (68, -3.46975726945300433357e-01) (69, 3.10421263367491373497e-01) (70, 2.75401713453644170215e-01) (71, 6.22027672698325928557e-01) (72, 3.22396956457416394848e-01) (73, -3.29581808187942582045e-01) (74, 2.80935181802791256178e-01) (75, 1.63087835555647098218e-01) (76, 3.21441412219547140161e-01) (77, 3.75483113009177527086e-01) (78, -3.26587139213119770353e-01) (79, -8.15721107349336449488e-01) (80, -1.05039116844048624477e-01) (81, 3.91259098614296196850e-01) (82, 2.26961204738555633043e-01) (83, 3.74875647413310586487e-01) (84, -2.42537318523292771966e-01) (85, -7.51691437059460287884e-01) (86, -5.89477525520461176356e-01) (87, 3.91304676785403815487e-01) (88, 1.01382095329026089559e-01) (89, 4.85105542418789337233e-01) (90, -1.73053937460094064971e-01) (91, -4.69662634322416949750e-01) (92, 2.06581850557472163077e-01) (93, 5.65419633603505999986e-01) (94, 2.18345232329503258217e-01) (95, 9.96215366638727450876e-01) (96, 4.20009729993988598085e-02) (97, -2.71242921353895438674e-01) (98, 9.43209725769234785808e-01) (99, 4.69759052922792907925e-01) (100, 2.07187677135758280267e-01) (101, 9.01813665002952236094e-01) (102, 6.92343168191456026506e-01) (103, 2.18701162836364398911e-01) (104, 2.30310861595515198319e-01) (105, 9.42391510824263201052e-01) (106, -1.39797771908114154549e+00) (107, 8.93834570592242472209e-01) (108, 6.49227811549506594879e-01) (109, 2.22332686001561918854e-01) (110, 6.29843397155183004621e-01) (111, 9.29431313039200124315e-01) (112, -2.29885735408396379986e-01) (113, 1.96321905190423584564e+00) (114, 1.38076747065289739957e+00) (115, 2.75786865289341820429e-01) (116, 2.08773240906078472179e+00) (117, 1.18912725374167904668e+00) (118, -1.98008020163631281996e-01) (119, 3.14529968595984321666e+00) (120, 1.56351369570567877432e+00) (121, 4.08310664747832063881e-01) (122, 3.35591369996220389993e+00) (123, 1.34565654865370887272e+00) (124, -1.78330493102410198025e-01) (125, 2.30091998906052719320e+00) (126, 1.63764040868356519631e+00) (127, 3.82640297299632170525e-01) (128, 3.33152140125716567098e+00) (129, 1.23824524152269188626e+00) (130, -5.14789797506617796685e-01) (131, 3.16997616533998671784e+00) (132, 1.31056328618201578529e+00) (133, -1.93296220221876507983e-01) (134, 1.99600347488429918918e+00) (135, 9.67668417606198483227e-01) (136, -5.36900450810621321374e-01) (137, -2.55452339148806917279e+00) (138, 7.18579680038724410984e-01) (139, -2.86599378525215109370e-01) (140, 8.16228576504381631018e-01) (141, 9.93121003865724771842e-01) (142, 2.39577880297662515474e+00) (143, 6.67002535039495580982e-01) (144, 5.22370975020369332498e-01) (145, -1.80725280997351167578e+00) (146, 7.35636547114821071069e-01) (147, 6.84210482452161428135e-01) (148, -2.35929338397135834882e+00) (149, 2.82454878773053752461e-01) (150, 5.60139958325196252176e-01) (151, -1.27854754746874399451e+00) (152, 7.02954230723219497534e-01) (153, 5.40156512784629172508e-01) (154, -3.47949539230665649825e+00) (155, -1.02715868110229191501e+00) (156, 6.29406068192864043276e-01) (157, -4.44983381440725800360e-01) (158, 7.42681173791421178620e-01) (159, 6.70468472845875740340e-01) (160, -7.15120253767835833969e+00) (161, -7.88669123735963317756e-03) (162, 1.10323960558996625458e+00) (163, -3.52322083406994279731e-01) (164, 1.06762249260754216174e+00) (165, 7.63561906661422651332e-01) (166, -2.40624625268040848169e+00) (167, 3.48860744682818746387e-02) (168, 1.28266200006201125383e+00) (169, -3.63352339687515735189e-01) (170, 1.42859063161437438438e+00) (171, 6.45609785752103149115e-01) (172, -1.73489472288454926741e+00) (173, -1.56545076586708936661e-01) (174, 1.27991917990108650116e+00) (175, -3.76990205907719533318e-01) (176, 1.43335924597115349499e+00) (177, 6.57782216505810701790e-01) (178, -1.37744050619862479223e+00) (179, -1.07967819661258249142e-01) (180, 9.91215414044039233588e-01) (181, -4.77640619321427595256e-01) (182, 1.09374483016680623670e+00) (183, 3.17758777719616969382e-01) (184, -1.70925002055982355742e+00) (185, -3.73514340530079202995e-02) (186, 8.75000315083823032580e-01) (187, -4.61729420620658970176e-01) (188, 1.10605556931579718238e+00) (189, 4.41284544784897592162e-01) (190, -8.13238689182140817024e+00) (191, -1.29931530910814579949e-01) (192, 8.86537779831598427016e-01) (193, -1.69670164308754700677e+00) (194, 4.44677255216677502769e-01) (195, 4.03263057852523754132e-01) (196, -2.00831153304673204474e+00) (197, -1.65721688909293979330e-01) (198, 8.88621437348814491308e-01) (199, -2.96254486713637099626e+00) (200, 1.38718637327117921831e-01) (201, 3.86949821810525340648e-01) (202, -9.84348974597723080926e-01) (203, -1.64692735587569305533e-01) (204, 6.11891263162905207906e-01) (205, -1.62185402622271124251e+00) (206, -2.15364139225776546338e-01) (207, 3.24116981788903302242e-01) (208, -1.08054592526971826594e+00) (209, -9.49168244098261698616e-02) (210, 5.95637395994717433467e-01) (211, -6.70239155722118673530e-01) (212, -2.86247950492721725535e-01) (213, 2.28153712120481688697e-01) (214, -6.94662261776024747562e-01) (215, -5.79422285013476812132e-01) (216, 3.16170522242913198951e-01) (217, -6.98226525807568387805e-01) (218, 6.03624311101709290495e-02) (219, 3.14835173172757609716e-01) (220, -5.27920222390622084774e-01) (221, -9.24013701026179246067e-02) (222, 5.34361412012072878319e-01) (223, -5.23910619502767960221e-01) (224, 1.85187451841393402319e-01) (225, 3.16357188933529043240e-01) (226, -9.12263873310520612137e-01) (227, 3.95085585625331442428e-02) (228, 4.26648571853218472327e-01) (229, -3.62967435149535333494e-01) (230, 8.02624026923628025587e-02) (231, 3.79439431118883230276e-01) (232, -8.42567860725941142341e-01) (233, 3.48672380759067312983e-01) (234, 3.86041203225167106616e-01) (235, -3.24904878387567763731e-01) (236, 1.09039740750510580347e-01) (237, 2.09630819693147424365e-01) (238, -7.87944009874944284455e-01) (239, 2.91767911741121099833e-01) (240, 5.09814563911152651698e-01) (241, -4.34689737911955753624e-01) (242, -2.34098202310137420978e-01) (243, 2.17275736567775795693e-01) (244, -6.88762386010148053295e-01) (245, 1.38361422365825131875e-01) (246, 3.03218938430789064498e-01) (247, -3.64617849227875157059e-01) (248, -2.29594711289688307998e-01) (249, 3.31860771912557861452e-01) (250, 1.34392234448019842752e-01) (251, 1.62042546476662052690e-01) (252, 2.45947235650959467046e-01) (253, -3.15906670143979551035e-01) (254, -1.67634309950551313451e-01) (255, 3.50735990701910971268e-01) (256, -2.18089149076930916005e-01) (257, 3.72780704881077451507e-01) (258, 3.48285685941462530568e-01) (259, 2.81707574173961639019e-01) (260, 3.50722988050835682294e-01) (261, 3.94991221136477999032e-01) (262, -1.10660498426026612795e-01) (263, 2.55464993769485670949e-01) (264, 2.83826279668324576999e-01) (265, 1.15505939265961504736e-01) (266, 2.24619885504573874035e-01) (267, 2.59697164382325262899e-01) (268, 2.23029403125928504803e-01) (269, 3.05488204118622819205e-01) (270, -8.03906505928634190772e-02) (271, 1.71195383109676607658e-01) (272, 4.09613361562351729894e-01) (273, 2.76810191789189308231e-01) (274, 2.32091193689247077270e-01) (275, 2.94522590608594037054e-01) (276, -1.98341422606593154043e-01) (277, -2.83572369631502285703e-01) (278, 1.73284649908229448911e-01) (279, 2.42346804908808721724e-01) (280, 2.09322529961124492726e-01) (281, 2.22116717408805286471e-01) (282, -2.37672930840455237655e-01) (283, -3.31593631526369225782e-01) (284, -2.32553523713711962628e-01) (285, 2.83303688050248969610e-01) (286, 3.81548295274879767369e-01) (287, 2.00154769951519539983e-01) (288, -3.11504256966989356847e-01) (289, -1.92640530136216542312e-01) (290, -2.24793360452580248676e-01) (291, -7.45274206499399738401e-02) (292, -1.92354033461671236616e-01) (293, -1.48392716816924452594e-01) (294, -1.56135366083852117347e-01) (295, -1.63785108442613097646e-01) (296, -2.11275380125011263965e-01) (297, -1.42233611836636131276e-01) (298, -3.29882414786665079109e-01) (299, -1.77030325842003150028e-01) (300, 1.79227289901901687408e+00) (301, 7.89991807651356392483e+00) (302, -6.42967226755571097385e+00) 
