FANN_FLO_2.1
num_layers=26
learning_rate=0.700000
connection_rate=1.000000
network_type=1
learning_momentum=0.000000
training_algorithm=2
train_error_function=1
train_stop_function=0
cascade_output_change_fraction=0.010000
quickprop_decay=-0.000100
quickprop_mu=1.750000
rprop_increase_factor=1.200000
rprop_decrease_factor=0.500000
rprop_delta_min=0.000000
rprop_delta_max=50.000000
rprop_delta_zero=0.100000
cascade_output_stagnation_epochs=12
cascade_candidate_change_fraction=0.010000
cascade_candidate_stagnation_epochs=12
cascade_max_out_epochs=150
cascade_max_cand_epochs=150
cascade_num_candidate_groups=2
bit_fail_limit=3.49999999999999977796e-01
cascade_candidate_limit=1.00000000000000000000e+03
cascade_weight_multiplier=4.00000000000000022204e-01
cascade_activation_functions_count=10
cascade_activation_functions=3 5 7 8 10 11 14 15 16 17 
cascade_activation_steepnesses_count=4
cascade_activation_steepnesses=2.50000000000000000000e-01 5.00000000000000000000e-01 7.50000000000000000000e-01 1.00000000000000000000e+00 
layer_sizes=301 1 1 1 1 1 1 1 1 1 1 1 1 1 1 1 1 1 1 1 1 1 1 1 1 7 
scale_included=0
neurons (num_inputs, activation_function, activation_steepness)=(0, 0, 0.00000000000000000000e+00) (0, 0, 0.00000000000000000000e+00) (0, 0, 0.00000000000000000000e+00) (0, 0, 0.00000000000000000000e+00) (0, 0, 0.00000000000000000000e+00) (0, 0, 0.00000000000000000000e+00) (0, 0, 0.00000000000000000000e+00) (0, 0, 0.00000000000000000000e+00) (0, 0, 0.00000000000000000000e+00) (0, 0, 0.00000000000000000000e+00) (0, 0, 0.00000000000000000000e+00) (0, 0, 0.00000000000000000000e+00) (0, 0, 0.00000000000000000000e+00) (0, 0, 0.00000000000000000000e+00) (0, 0, 0.00000000000000000000e+00) (0, 0, 0.00000000000000000000e+00) (0, 0, 0.00000000000000000000e+00) (0, 0, 0.00000000000000000000e+00) (0, 0, 0.00000000000000000000e+00) (0, 0, 0.00000000000000000000e+00) (0, 0, 0.00000000000000000000e+00) (0, 0, 0.00000000000000000000e+00) (0, 0, 0.00000000000000000000e+00) (0, 0, 0.00000000000000000000e+00) (0, 0, 0.00000000000000000000e+00) (0, 0, 0.00000000000000000000e+00) (0, 0, 0.00000000000000000000e+00) (0, 0, 0.00000000000000000000e+00) (0, 0, 0.00000000000000000000e+00) (0, 0, 0.00000000000000000000e+00) (0, 0, 0.00000000000000000000e+00) (0, 0, 0.00000000000000000000e+00) (0, 0, 0.00000000000000000000e+00) (0, 0, 0.00000000000000000000e+00) (0, 0, 0.00000000000000000000e+00) (0, 0, 0.00000000000000000000e+00) (0, 0, 0.00000000000000000000e+00) (0, 0, 0.00000000000000000000e+00) (0, 0, 0.00000000000000000000e+00) (0, 0, 0.00000000000000000000e+00) (0, 0, 0.00000000000000000000e+00) (0, 0, 0.00000000000000000000e+00) (0, 0, 0.00000000000000000000e+00) (0, 0, 0.00000000000000000000e+00) (0, 0, 0.00000000000000000000e+00) (0, 0, 0.00000000000000000000e+00) (0, 0, 0.00000000000000000000e+00) (0, 0, 0.00000000000000000000e+00) (0, 0, 0.00000000000000000000e+00) (0, 0, 0.00000000000000000000e+00) (0, 0, 0.00000000000000000000e+00) (0, 0, 0.00000000000000000000e+00) (0, 0, 0.00000000000000000000e+00) (0, 0, 0.00000000000000000000e+00) (0, 0, 0.00000000000000000000e+00) (0, 0, 0.00000000000000000000e+00) (0, 0, 0.00000000000000000000e+00) (0, 0, 0.00000000000000000000e+00) (0, 0, 0.00000000000000000000e+00) (0, 0, 0.00000000000000000000e+00) (0, 0, 0.00000000000000000000e+00) (0, 0, 0.00000000000000000000e+00) (0, 0, 0.00000000000000000000e+00) (0, 0, 0.00000000000000000000e+00) (0, 0, 0.00000000000000000000e+00) (0, 0, 0.00000000000000000000e+00) (0, 0, 0.00000000000000000000e+00) (0, 0, 0.00000000000000000000e+00) (0, 0, 0.00000000000000000000e+00) (0, 0, 0.00000000000000000000e+00) (0, 0, 0.00000000000000000000e+00) (0, 0, 0.00000000000000000000e+00) (0, 0, 0.00000000000000000000e+00) (0, 0, 0.00000000000000000000e+00) (0, 0, 0.00000000000000000000e+00) (0, 0, 0.00000000000000000000e+00) (0, 0, 0.00000000000000000000e+00) (0, 0, 0.00000000000000000000e+00) (0, 0, 0.00000000000000000000e+00) (0, 0, 0.00000000000000000000e+00) (0, 0, 0.00000000000000000000e+00) (0, 0, 0.00000000000000000000e+00) (0, 0, 0.00000000000000000000e+00) (0, 0, 0.00000000000000000000e+00) (0, 0, 0.00000000000000000000e+00) (0, 0, 0.00000000000000000000e+00) (0, 0, 0.00000000000000000000e+00) (0, 0, 0.00000000000000000000e+00) (0, 0, 0.00000000000000000000e+00) (0, 0, 0.00000000000000000000e+00) (0, 0, 0.00000000000000000000e+00) (0, 0, 0.00000000000000000000e+00) (0, 0, 0.00000000000000000000e+00) (0, 0, 0.00000000000000000000e+00) (0, 0, 0.00000000000000000000e+00) (0, 0, 0.00000000000000000000e+00) (0, 0, 0.00000000000000000000e+00) (0, 0, 0.00000000000000000000e+00) (0, 0, 0.00000000000000000000e+00) (0, 0, 0.00000000000000000000e+00) (0, 0, 0.00000000000000000000e+00) (0, 0, 0.00000000000000000000e+00) (0, 0, 0.00000000000000000000e+00) (0, 0, 0.00000000000000000000e+00) (0, 0, 0.00000000000000000000e+00) (0, 0, 0.00000000000000000000e+00) (0, 0, 0.00000000000000000000e+00) (0, 0, 0.00000000000000000000e+00) (0, 0, 0.00000000000000000000e+00) (0, 0, 0.00000000000000000000e+00) (0, 0, 0.00000000000000000000e+00) (0, 0, 0.00000000000000000000e+00) (0, 0, 0.00000000000000000000e+00) (0, 0, 0.00000000000000000000e+00) (0, 0, 0.00000000000000000000e+00) (0, 0, 0.00000000000000000000e+00) (0, 0, 0.00000000000000000000e+00) (0, 0, 0.00000000000000000000e+00) (0, 0, 0.00000000000000000000e+00) (0, 0, 0.00000000000000000000e+00) (0, 0, 0.00000000000000000000e+00) (0, 0, 0.00000000000000000000e+00) (0, 0, 0.00000000000000000000e+00) (0, 0, 0.00000000000000000000e+00) (0, 0, 0.00000000000000000000e+00) (0, 0, 0.00000000000000000000e+00) (0, 0, 0.00000000000000000000e+00) (0, 0, 0.00000000000000000000e+00) (0, 0, 0.00000000000000000000e+00) (0, 0, 0.00000000000000000000e+00) (0, 0, 0.00000000000000000000e+00) (0, 0, 0.00000000000000000000e+00) (0, 0, 0.00000000000000000000e+00) (0, 0, 0.00000000000000000000e+00) (0, 0, 0.00000000000000000000e+00) (0, 0, 0.00000000000000000000e+00) (0, 0, 0.00000000000000000000e+00) (0, 0, 0.00000000000000000000e+00) (0, 0, 0.00000000000000000000e+00) (0, 0, 0.00000000000000000000e+00) (0, 0, 0.00000000000000000000e+00) (0, 0, 0.00000000000000000000e+00) (0, 0, 0.00000000000000000000e+00) (0, 0, 0.00000000000000000000e+00) (0, 0, 0.00000000000000000000e+00) (0, 0, 0.00000000000000000000e+00) (0, 0, 0.00000000000000000000e+00) (0, 0, 0.00000000000000000000e+00) (0, 0, 0.00000000000000000000e+00) (0, 0, 0.00000000000000000000e+00) (0, 0, 0.00000000000000000000e+00) (0, 0, 0.00000000000000000000e+00) (0, 0, 0.00000000000000000000e+00) (0, 0, 0.00000000000000000000e+00) (0, 0, 0.00000000000000000000e+00) (0, 0, 0.00000000000000000000e+00) (0, 0, 0.00000000000000000000e+00) (0, 0, 0.00000000000000000000e+00) (0, 0, 0.00000000000000000000e+00) (0, 0, 0.00000000000000000000e+00) (0, 0, 0.00000000000000000000e+00) (0, 0, 0.00000000000000000000e+00) (0, 0, 0.00000000000000000000e+00) (0, 0, 0.00000000000000000000e+00) (0, 0, 0.00000000000000000000e+00) (0, 0, 0.00000000000000000000e+00) (0, 0, 0.00000000000000000000e+00) (0, 0, 0.00000000000000000000e+00) (0, 0, 0.00000000000000000000e+00) (0, 0, 0.00000000000000000000e+00) (0, 0, 0.00000000000000000000e+00) (0, 0, 0.00000000000000000000e+00) (0, 0, 0.00000000000000000000e+00) (0, 0, 0.00000000000000000000e+00) (0, 0, 0.00000000000000000000e+00) (0, 0, 0.00000000000000000000e+00) (0, 0, 0.00000000000000000000e+00) (0, 0, 0.00000000000000000000e+00) (0, 0, 0.00000000000000000000e+00) (0, 0, 0.00000000000000000000e+00) (0, 0, 0.00000000000000000000e+00) (0, 0, 0.00000000000000000000e+00) (0, 0, 0.00000000000000000000e+00) (0, 0, 0.00000000000000000000e+00) (0, 0, 0.00000000000000000000e+00) (0, 0, 0.00000000000000000000e+00) (0, 0, 0.00000000000000000000e+00) (0, 0, 0.00000000000000000000e+00) (0, 0, 0.00000000000000000000e+00) (0, 0, 0.00000000000000000000e+00) (0, 0, 0.00000000000000000000e+00) (0, 0, 0.00000000000000000000e+00) (0, 0, 0.00000000000000000000e+00) (0, 0, 0.00000000000000000000e+00) (0, 0, 0.00000000000000000000e+00) (0, 0, 0.00000000000000000000e+00) (0, 0, 0.00000000000000000000e+00) (0, 0, 0.00000000000000000000e+00) (0, 0, 0.00000000000000000000e+00) (0, 0, 0.00000000000000000000e+00) (0, 0, 0.00000000000000000000e+00) (0, 0, 0.00000000000000000000e+00) (0, 0, 0.00000000000000000000e+00) (0, 0, 0.00000000000000000000e+00) (0, 0, 0.00000000000000000000e+00) (0, 0, 0.00000000000000000000e+00) (0, 0, 0.00000000000000000000e+00) (0, 0, 0.00000000000000000000e+00) (0, 0, 0.00000000000000000000e+00) (0, 0, 0.00000000000000000000e+00) (0, 0, 0.00000000000000000000e+00) (0, 0, 0.00000000000000000000e+00) (0, 0, 0.00000000000000000000e+00) (0, 0, 0.00000000000000000000e+00) (0, 0, 0.00000000000000000000e+00) (0, 0, 0.00000000000000000000e+00) (0, 0, 0.00000000000000000000e+00) (0, 0, 0.00000000000000000000e+00) (0, 0, 0.00000000000000000000e+00) (0, 0, 0.00000000000000000000e+00) (0, 0, 0.00000000000000000000e+00) (0, 0, 0.00000000000000000000e+00) (0, 0, 0.00000000000000000000e+00) (0, 0, 0.00000000000000000000e+00) (0, 0, 0.00000000000000000000e+00) (0, 0, 0.00000000000000000000e+00) (0, 0, 0.00000000000000000000e+00) (0, 0, 0.00000000000000000000e+00) (0, 0, 0.00000000000000000000e+00) (0, 0, 0.00000000000000000000e+00) (0, 0, 0.00000000000000000000e+00) (0, 0, 0.00000000000000000000e+00) (0, 0, 0.00000000000000000000e+00) (0, 0, 0.00000000000000000000e+00) (0, 0, 0.00000000000000000000e+00) (0, 0, 0.00000000000000000000e+00) (0, 0, 0.00000000000000000000e+00) (0, 0, 0.00000000000000000000e+00) (0, 0, 0.00000000000000000000e+00) (0, 0, 0.00000000000000000000e+00) (0, 0, 0.00000000000000000000e+00) (0, 0, 0.00000000000000000000e+00) (0, 0, 0.00000000000000000000e+00) (0, 0, 0.00000000000000000000e+00) (0, 0, 0.00000000000000000000e+00) (0, 0, 0.00000000000000000000e+00) (0, 0, 0.00000000000000000000e+00) (0, 0, 0.00000000000000000000e+00) (0, 0, 0.00000000000000000000e+00) (0, 0, 0.00000000000000000000e+00) (0, 0, 0.00000000000000000000e+00) (0, 0, 0.00000000000000000000e+00) (0, 0, 0.00000000000000000000e+00) (0, 0, 0.00000000000000000000e+00) (0, 0, 0.00000000000000000000e+00) (0, 0, 0.00000000000000000000e+00) (0, 0, 0.00000000000000000000e+00) (0, 0, 0.00000000000000000000e+00) (0, 0, 0.00000000000000000000e+00) (0, 0, 0.00000000000000000000e+00) (0, 0, 0.00000000000000000000e+00) (0, 0, 0.00000000000000000000e+00) (0, 0, 0.00000000000000000000e+00) (0, 0, 0.00000000000000000000e+00) (0, 0, 0.00000000000000000000e+00) (0, 0, 0.00000000000000000000e+00) (0, 0, 0.00000000000000000000e+00) (0, 0, 0.00000000000000000000e+00) (0, 0, 0.00000000000000000000e+00) (0, 0, 0.00000000000000000000e+00) (0, 0, 0.00000000000000000000e+00) (0, 0, 0.00000000000000000000e+00) (0, 0, 0.00000000000000000000e+00) (0, 0, 0.00000000000000000000e+00) (0, 0, 0.00000000000000000000e+00) (0, 0, 0.00000000000000000000e+00) (0, 0, 0.00000000000000000000e+00) (0, 0, 0.00000000000000000000e+00) (0, 0, 0.00000000000000000000e+00) (0, 0, 0.00000000000000000000e+00) (0, 0, 0.00000000000000000000e+00) (0, 0, 0.00000000000000000000e+00) (0, 0, 0.00000000000000000000e+00) (0, 0, 0.00000000000000000000e+00) (0, 0, 0.00000000000000000000e+00) (0, 0, 0.00000000000000000000e+00) (0, 0, 0.00000000000000000000e+00) (0, 0, 0.00000000000000000000e+00) (0, 0, 0.00000000000000000000e+00) (0, 0, 0.00000000000000000000e+00) (0, 0, 0.00000000000000000000e+00) (0, 0, 0.00000000000000000000e+00) (0, 0, 0.00000000000000000000e+00) (0, 0, 0.00000000000000000000e+00) (0, 0, 0.00000000000000000000e+00) (0, 0, 0.00000000000000000000e+00) (0, 0, 0.00000000000000000000e+00) (0, 0, 0.00000000000000000000e+00) (0, 0, 0.00000000000000000000e+00) (0, 0, 0.00000000000000000000e+00) (0, 0, 0.00000000000000000000e+00) (301, 5, 5.00000000000000000000e-01) (302, 15, 5.00000000000000000000e-01) (303, 15, 7.50000000000000000000e-01) (304, 15, 1.00000000000000000000e+00) (305, 15, 1.00000000000000000000e+00) (306, 15, 1.00000000000000000000e+00) (307, 14, 2.50000000000000000000e-01) (308, 15, 1.00000000000000000000e+00) (309, 10, 1.00000000000000000000e+00) (310, 10, 5.00000000000000000000e-01) (311, 3, 7.50000000000000000000e-01) (312, 3, 1.00000000000000000000e+00) (313, 15, 5.00000000000000000000e-01) (314, 15, 7.50000000000000000000e-01) (315, 3, 2.50000000000000000000e-01) (316, 15, 5.00000000000000000000e-01) (317, 15, 5.00000000000000000000e-01) (318, 15, 1.00000000000000000000e+00) (319, 14, 2.50000000000000000000e-01) (320, 15, 1.00000000000000000000e+00) (321, 15, 5.00000000000000000000e-01) (322, 15, 5.00000000000000000000e-01) (323, 14, 2.50000000000000000000e-01) (324, 7, 2.50000000000000000000e-01) (325, 5, 5.00000000000000000000e-01) (325, 5, 5.00000000000000000000e-01) (325, 5, 5.00000000000000000000e-01) (325, 5, 5.00000000000000000000e-01) (325, 5, 5.00000000000000000000e-01) (325, 5, 5.00000000000000000000e-01) (325, 5, 5.00000000000000000000e-01) 
connections (connected_to_neuron, weight)=(0, 2.33005063564591247127e-01) (1, 7.48027449685332634921e-01) (2, -7.13234661190695784505e-01) (3, 6.66229327924263481364e-01) (4, -1.44741336100088463512e-01) (5, 6.52464234900603790024e-02) (6, 2.77025568700266733302e-01) (7, -9.04093058823532969015e-01) (8, 7.51218819330799036926e-01) (9, -3.68013004057394510493e-01) (10, -3.10564434456695945275e-02) (11, 4.54047424363441753936e-01) (12, -8.73392937417498682606e-02) (13, 4.46783320689329133124e-01) (14, 6.57072336162843995133e-01) (15, 8.27659879829493849712e-01) (16, -6.26012334816443916097e-01) (17, -3.50155130101193590164e-01) (18, 1.02259646675629811696e+00) (19, 1.39440730684295105535e-01) (20, -3.61481415371831815708e-01) (21, 7.86493198117820369042e-01) (22, -1.07476286834619561006e+00) (23, -5.59269055796612790665e-01) (24, 8.76888750256849203168e-01) (25, -1.05080211991698502239e+00) (26, -7.30800878844650614319e-01) (27, 2.66272455279394193450e-01) (28, -4.76790668349376556279e-01) (29, 6.44793352058822821782e-01) (30, -1.03830883734018564191e+00) (31, 6.07887168089920493230e-01) (32, -3.21916970400342061787e-01) (33, -7.94877007635486187986e-01) (34, 4.75910834563056384106e-01) (35, -4.81297369582686263012e-01) (36, 5.20613970660239178123e-01) (37, -4.24476241860793301885e-01) (38, -3.97421918240250637844e-01) (39, 7.44381832272792975935e-02) (40, 3.93158092446947382559e-01) (41, 6.26206147750678732145e-01) (42, -6.25136309576832804868e-02) (43, -6.11944104272514111109e-01) (44, 1.03079579558878531298e-01) (45, -7.32565340992628044603e-01) (46, -1.09408417612175701272e+00) (47, 5.08454950643697389800e-01) (48, 2.72284617149911423173e-01) (49, -6.83840885119428643080e-01) (50, -2.33704156601331591858e-01) (51, 4.71496997827462349662e-01) (52, -1.90858526183032450874e+00) (53, -3.49076140353279662509e-01) (54, -2.10054883834048217173e-01) (55, 1.01308428438807873739e+00) (56, -5.82739736430703259007e-02) (57, -6.35587051682969805810e-01) (58, -7.66291689404480780290e-01) (59, 3.51245706586728656529e-01) (60, -3.68385067854492709305e-01) (61, 4.73568682729746337490e-01) (62, 4.88933723846940671010e-01) (63, -1.20034179108669469827e+00) (64, 2.06357646079061901601e-01) (65, -7.09800504220263056565e-02) (66, -1.26733464962936970277e-01) (67, 3.26476141418546250694e-01) (68, 9.61884317935112753695e-01) (69, 1.60830771986327863976e-01) (70, -6.67068269110125511290e-01) (71, 3.35258838131264391702e-01) (72, 3.00064826361477410277e-01) (73, 2.81138201041630231281e-01) (74, 9.30722954999832263745e-01) (75, -7.29386567765397120233e-01) (76, 5.65393081558200893966e-01) (77, -7.48449268767125586166e-01) (78, 1.06210475552632011009e+00) (79, -2.51063245523605038656e-01) (80, -5.06013322819619082438e-01) (81, -1.93689507051500342527e-01) (82, -4.39144345947987624346e-01) (83, -2.79351096842099244633e-01) (84, 5.74786587744651522591e-01) (85, -3.89497043457752822881e-01) (86, -4.55992522400139654870e-01) (87, -4.55498906197181585576e-01) (88, 4.34290458419209157714e-01) (89, 1.28835550939049148234e+00) (90, 9.53759000901526654559e-01) (91, 7.04685917937899808372e-01) (92, 2.40430028363546766101e-01) (93, 5.11446832586229027662e-01) (94, 1.05096695510515547589e+00) (95, 2.23447501645027823969e+00) (96, -6.73982707049592288939e-01) (97, -4.56206558610326495806e-01) (98, -8.62716817100796506956e-01) (99, -7.30867445611451449494e-01) (100, -9.92805337986639946379e-01) (101, 5.55607865333508499361e+00) (102, 5.77350193492407570695e-01) (103, 1.83013749409563886150e-01) (104, 9.60627599255325481664e-01) (105, 4.58146345716953895533e-01) (106, 5.27820980101036507648e-01) (107, 9.51659997741862717646e-01) (108, 5.75175256761279785067e-01) (109, 6.43204750961459126302e-01) (110, -5.58474768779416264053e-01) (111, -9.62365773323502815551e-01) (112, -1.72338472328474412443e+00) (113, -6.77270762774759171876e-01) (114, -4.31499386223637260152e-01) (115, 9.56189231607222023257e-01) (116, 5.25982388924587151990e-01) (117, 1.56470944523984245578e-01) (118, -2.31926909329593122777e+00) (119, -1.95400530477661121820e-01) (120, -6.19449342333029839835e-01) (121, -6.88419559086390298042e-01) (122, -6.43861556427633985322e-02) (123, -8.49414815117132793176e-01) (124, -3.27700635682416940853e+00) (125, -5.61918319968680357590e+00) (126, -5.28752645044244018457e-01) (127, -8.55483784502792055093e-01) (128, 1.04965718336629043606e+00) (129, 2.59143765026922878736e-01) (130, 1.31425619588927578008e+00) (131, -4.84551219351442297167e-01) (132, 7.94498816657296158539e-01) (133, -9.21452164434589549025e-01) (134, 1.57062323250925894857e-01) (135, 7.67126825549139690352e-01) (136, 9.60608576721340257087e-01) (137, 2.02724997167733578252e+00) (138, 2.24846365266767350688e-01) (139, 3.62779584925870590695e-01) (140, 8.45831059515631533685e-01) (141, 4.74859218463531351784e-01) (142, 1.41450424356647608271e+00) (143, 4.52301405375511555995e-01) (144, -8.05140134035712384808e-01) (145, 9.91921245232000980963e-01) (146, 1.66369457460329439602e-01) (147, 5.57629718641262428491e-01) (148, 1.10421286323532230611e+00) (149, -5.98385881812032560667e-01) (150, -8.05486402525895539561e-01) (151, -9.42471350863535173303e-01) (152, -1.24358239507472179142e+00) (153, -2.48053424514822623559e-01) (154, 1.04575435281305022528e+01) (155, -6.22246197825903113454e+00) (156, 5.81114342985813991938e-02) (157, 4.70678578148439608064e-01) (158, 7.63058628628041413222e-01) (159, -1.01462646335246753360e+00) (160, -9.16553547732925494307e-03) (161, -6.82088092972754811427e+00) (162, -2.11217025415535754329e-02) (163, -1.17133319065389606556e-02) (164, 2.17236841818369930124e+00) (165, -7.49297985299927499225e-02) (166, -7.16657743659702139993e-01) (167, 8.66560195335924432491e-01) (168, -2.90735229303116071709e-01) (169, -1.34908694025572950537e+00) (170, -1.03307179947437446921e-01) (171, -8.48674820714914401876e-01) (172, 5.09316088399724309355e-01) (173, -2.04353053807061896263e-01) (174, 4.32136328098680522203e-01) (175, -2.05770689389578187445e+00) (176, -9.70574306153530394492e-03) (177, 2.39618311270627215581e-01) (178, 4.09710067989020265689e-01) (179, 3.29110994368224718531e-01) (180, -3.38486585857591948390e-01) (181, -2.71993523102197531927e+00) (182, 2.25881316033099377449e+00) (183, 4.89775130477579784261e-02) (184, -4.10014443252674498641e-01) (185, 7.36292866408525203958e-01) (186, -3.82070648856262462534e-01) (187, -7.64795852661763864155e-01) (188, 1.33942686344785100161e+00) (189, -3.55759709196755202765e-01) (190, 9.11820658459155719555e-01) (191, -5.62261327894340690037e-01) (192, -2.54887060670814791230e-01) (193, -7.30863540895356322835e-01) (194, 5.91738335744774635039e-01) (195, 3.44538858394263861062e-02) (196, -6.98305018365140695025e-01) (197, -7.75870019974463032142e-01) (198, -4.19190155302049449748e-01) (199, -1.63870289235086147306e-01) (200, -5.82369374259122607462e-01) (201, 5.22133403618253555400e-01) (202, 4.97705841469407994637e-01) (203, 9.76458487434703092944e-01) (204, 5.08183409312969236460e-01) (205, 2.21962345709174363462e-01) (206, 1.02909544128459184975e+00) (207, 6.59952196156210479927e-01) (208, -3.66260516485852560820e-01) (209, 3.67470442735149616098e-01) (210, -1.97440721000328417434e-01) (211, 6.01588170917069731125e-01) (212, 3.24907661208340803327e-01) (213, -7.43404022109895645798e-01) (214, -2.00653057551872127107e-01) (215, 8.83375538665935100546e-01) (216, -9.00115696194594083757e-01) (217, 5.57011133627564603010e-01) (218, 7.76434610596097529722e-01) (219, 6.34159316176955978328e-01) (220, -7.30061422233993728703e-01) (221, 7.08501676872416163988e-01) (222, -9.29076001381672900159e-01) (223, 5.32662186563426370833e-02) (224, -2.56728931630025414279e-01) (225, 4.62862641377563888145e-01) (226, -9.82124514781826274401e-01) (227, -9.45789964596212562320e-02) (228, 6.13490492129722064796e-01) (229, -3.25502094966295618672e-01) (230, -7.92002485598830574531e-01) (231, 8.01627165718348910772e-01) (232, -9.14758707755078059876e-01) (233, 5.07312546187313695434e-01) (234, 6.46394008650228335533e-01) (235, 6.73857803835399171710e-01) (236, -5.58166070835865238409e-02) (237, 2.33263964122977007776e-01) (238, 1.39025753049741102041e-01) (239, 3.40154779876391200055e-01) (240, -4.06214715446577834257e-01) (241, -8.91436097998331455905e-01) (242, 1.06433968551133267821e-01) (243, 6.26228639149476462578e-01) (244, -7.48244678312097399875e-01) (245, 7.28029664087975314501e-01) (246, 5.45043930588485991962e-01) (247, -4.66632052324055413006e-01) (248, 4.47813125561520530837e-01) (249, 1.98695550354113598113e-01) (250, -9.16020384764860695626e-01) (251, 6.79251242670868338180e-01) (252, -8.81139953918227414320e-02) (253, -6.89586542360705934129e-01) (254, -1.53648074348616547891e-01) (255, 5.46077283623994880202e-01) (256, 7.72690956550992957830e-01) (257, -1.58278182221860075352e-01) (258, -5.08677703174315598567e-01) (259, 5.15157702496331970643e-01) (260, 6.25972601848341470010e-01) (261, -3.95869163271603319298e-01) (262, 3.49969093932738395392e-01) (263, 7.65209447772454254277e-01) (264, -7.64421416690666322147e-01) (265, 1.53261103008933891045e-01) (266, 5.35266652489643113277e-01) (267, 5.22941847958949060371e-02) (268, -5.24719196975677482087e-01) (269, -2.10886166414362419275e-01) (270, -4.24557477077113221142e-01) (271, 2.74549583429630816855e-01) (272, 5.52062011522927095775e-02) (273, 6.15845614750264225279e-01) (274, -4.11277172528825701869e-02) (275, 4.23520870940702787166e-01) (276, 5.26010041977052145157e-01) (277, -1.19351149330660766257e-01) (278, -7.38593610681878565138e-01) (279, -1.53377130026858699702e-02) (280, -1.03190885021965073065e+00) (281, -7.02712252059756958822e-01) (282, -2.56993557910624344232e-02) (283, 2.31252160355063685060e-01) (284, -7.51621173633530981206e-02) (285, 6.78196103423293283896e-01) (286, -2.98634851933938849644e-01) (287, -3.51774553092758457407e-01) (288, -1.56288602540940374519e-01) (289, 5.38820058146980196412e-01) (290, -5.70644408424827664916e-01) (291, -6.50249867588822194620e-01) (292, -9.05994444042985014320e-01) (293, 7.50137051311691505084e-01) (294, -6.16802523443318984064e-01) (295, -4.09295389959431599181e-01) (296, 1.18391503980540310770e-01) (297, 8.00060352094185356364e-01) (298, 6.12866243131172661052e-01) (299, 5.98765095479500297770e-01) (300, 1.64868310581835353368e+00) (0, 5.12466386544305319006e-01) (1, 5.01767394217195406014e-01) (2, 9.98964724215212207525e-01) (3, 1.15868703860656796500e+00) (4, 5.00118897570858145230e-01) (5, 4.28807506578877450920e-01) (6, -2.92292535832806787965e-01) (7, 2.51911507447718063801e-01) (8, -4.99309956895013284939e-01) (9, -2.99128092648278165466e-01) (10, -1.91798047550181288701e-01) (11, 6.20062602011253627410e-01) (12, 5.55903673902724548839e-01) (13, 7.50143848470600338452e-01) (14, 5.92350445798786595653e-01) (15, -3.46786968044940857592e-01) (16, 4.40228352302174108512e-01) (17, -1.15772282594813716305e-01) (18, 1.20140522669577864967e-01) (19, -3.21266060828899135959e-01) (20, 4.93740582704807529080e-01) (21, 1.37379145654176504365e+00) (22, 2.95508288866011048501e-01) (23, -2.91014290147161812372e-02) (24, 4.60488293598616538205e-01) (25, -2.58320487477161249423e-02) (26, 1.13743878236037798679e+00) (27, 5.20606364001736876546e-01) (28, 1.06558605574853548781e+00) (29, -1.89812711043808396427e-01) (30, -9.80433821553154810635e-02) (31, -2.60891712798782815508e-01) (32, 4.67098948832469607062e-01) (33, 1.51914216913677835308e+00) (34, -3.98995899727172254057e-01) (35, -3.14361360599025307927e-01) (36, 2.22813832735840294808e-01) (37, -3.06743093030178348712e+00) (38, -2.23683844000979042965e-01) (39, 4.90061003346220269705e-01) (40, 7.29941553782712942988e-02) (41, 8.00458094870937442167e-01) (42, -4.89495195319789744293e-01) (43, 9.35266377871979859293e-01) (44, -1.84227555876676302171e-01) (45, 7.56460436017495241323e-01) (46, 1.36695798777825916481e+00) (47, 1.04090289342453123922e+00) (48, 9.76910520900583057013e-01) (49, -4.96387331276734525276e-02) (50, 1.17087984499262942606e+00) (51, 2.24522525221453439492e-01) (52, -3.46585128845766782257e-02) (53, 1.31404069900882713995e-01) (54, 5.57816490758027749841e-01) (55, 9.37749683980191095500e-01) (56, 6.38235938069199426614e-01) (57, 4.88435426619968360296e-01) (58, 6.99198628478092387706e-02) (59, 3.37695410853446231769e-01) (60, 6.59934658650141892089e-01) (61, 4.95003371680167392199e-01) (62, 6.92444798317615850536e-01) (63, -3.29874404689002448388e-02) (64, -7.14369040086668016798e-01) (65, -4.89410688778566194124e-01) (66, 1.42689805988459483821e-01) (67, 1.35108326172754256156e+00) (68, 1.21905570731145607155e+00) (69, 1.14926821642516663324e+00) (70, -9.52713159282750465806e-01) (71, -1.55716684744771227678e+00) (72, 4.55679934982447132352e-01) (73, 3.40135214025442667030e-01) (74, -5.16398350927169347280e-01) (75, 1.03249491537604920488e+00) (76, -1.76374183557080410623e+00) (77, 1.02917054454937306751e+00) (78, 4.50061914649124927834e-01) (79, 1.31084354682464110375e+00) (80, -1.21347330463943636758e-01) (81, 3.88890572606733819772e-01) (82, -1.49392490070199301933e+00) (83, -9.88297449723596760363e-02) (84, 1.02888427788750869141e+00) (85, 1.66559308579112896886e+00) (86, 5.58985686860524189079e-01) (87, 5.89670173174551504047e-01) (88, -3.51434191483267821532e-01) (89, -2.45534562887625117111e-02) (90, 1.00571090770875914977e+00) (91, 1.24412862439691807026e+00) (92, -4.28129263820928085416e-01) (93, 6.41556910521200673969e-01) (94, -8.50851799209562220661e-01) (95, 5.73896568998181644261e-01) (96, -3.71747262307849990481e-01) (97, 2.98728807781675154143e-01) (98, 4.68655055210573934232e-01) (99, 1.76947473051832160351e+00) (100, -5.93828901848493795335e-01) (101, 1.41429019916935261314e+00) (102, -2.83252855992902674576e-01) (103, 8.70013607463711591272e-01) (104, 2.73442269047449670882e-01) (105, -3.49962319389641562939e-01) (106, -1.19998239593951128157e+00) (107, 5.97967672016327056461e-01) (108, -6.59734500889175623506e-01) (109, -5.07861733206980359157e-01) (110, 3.89951036507830306466e-01) (111, 9.00548120551160347080e-02) (112, 4.77481422085318449322e-02) (113, 9.94162883024500176887e-01) (114, 8.08022574918840996716e-01) (115, -1.03477461131246006865e+00) (116, -2.62194013960671323815e-01) (117, -5.04898817763497431699e-01) (118, 4.21466649016054017984e-01) (119, -1.36322458268684554294e-01) (120, 6.75528118716794190313e-01) (121, -7.38849634920913267422e-01) (122, 1.65663022765918543922e-01) (123, -2.08348593931152181735e-01) (124, 2.60109444325786087759e-01) (125, -3.09844012700441429065e-01) (126, -5.34507710041394884515e-02) (127, 2.36803785454916315700e-01) (128, -1.43799034879030940282e+00) (129, 3.20275429893715976593e-02) (130, -5.29678787774137474487e-02) (131, -4.05795881915311795751e+00) (132, 1.02330739647086899069e+00) (133, 1.08053938230927304431e+00) (134, 2.30444513172457010608e-01) (135, -9.89053279518053551911e-01) (136, -1.17305755941915301754e+00) (137, -1.00631984851213402976e+01) (138, 1.05102026202006815225e+00) (139, 1.68430816056261312141e-01) (140, -8.36532957757935569099e-01) (141, -9.57524644972133520682e-01) (142, -2.07932993431498314152e+00) (143, -6.16042649338017569982e-02) (144, 1.15735664736738597114e+00) (145, 4.72282019417796017358e-01) (146, -1.96225020398318217296e+00) (147, -7.08498581143606198651e-01) (148, 4.00244500582552564794e+00) (149, 1.43771993064502923154e+00) (150, 1.30685665305009823811e+00) (151, 3.83795402025860843409e+00) (152, 4.19994939539716838350e-01) (153, -6.45655526776506394349e-01) (154, -8.33025001318267732664e-01) (155, 9.21591543258289624951e-01) (156, -4.91542551531357410632e-02) (157, -9.92558316411994157047e-02) (158, -5.26648964952816212026e-01) (159, -1.65630864186085124956e+00) (160, -1.12470958559549338851e+00) (161, -6.01056251717818190022e-03) (162, 3.57168587307124363317e-01) (163, -7.69769474542552734064e-01) (164, -1.54770188868295921480e+00) (165, -1.19274706278795217251e+00) (166, -6.11337738294618793233e-01) (167, -4.53767497848030831875e-01) (168, -6.02602651744399753220e-01) (169, -7.81581657523917283648e-01) (170, -2.33035135958725980743e+00) (171, 2.80300644067464521658e-01) (172, -3.00860189124048682530e+00) (173, 2.25931255001271757976e+00) (174, -3.17836222940598300823e+00) (175, -1.19913239624038858722e+00) (176, -2.61823591199738769930e+00) (177, -2.70003966439065101746e-01) (178, -4.37099076477318249090e+00) (179, -9.15869024626319472304e-01) (180, -8.07285126404662101152e+00) (181, -1.19505759896806940112e+00) (182, -2.30632730527489782091e+00) (183, -3.25807639431654305628e-01) (184, -2.83834056223437825039e+00) (185, -6.89735022457729751721e+00) (186, -1.57073314876936676043e+00) (187, -2.67832848857320104941e+00) (188, -2.87746129854380328084e+00) (189, -1.41954910325156752338e-01) (190, -3.17629036804664310889e-01) (191, -1.04284159371314455456e+00) (192, -3.26879251459371999999e+00) (193, -2.19776337305575264480e+00) (194, -2.95277619068520280621e+00) (195, 7.54924049213787640156e-01) (196, -1.61448652266755998674e+00) (197, -1.71470965870820024612e+00) (198, -3.15837546990870254859e+00) (199, -3.17221350455294093251e+00) (200, -3.66347202774162683525e+00) (201, 1.22191484908017078403e+00) (202, -3.47236357510223081491e+00) (203, -6.13761766618690640662e-01) (204, -3.33961956270510063050e+00) (205, -2.81992911828665970830e+00) (206, -1.21499410538237229140e+00) (207, 6.38679031605438485286e-01) (208, -2.78335040190584581676e-01) (209, -1.37651424472668759691e+00) (210, -2.59699988897380107389e+00) (211, -4.10437641888255200229e+00) (212, -1.88406802319730215522e+00) (213, 3.65144975199921784093e-01) (214, -1.15745190289331589817e+00) (215, -1.43106959386595411488e+00) (216, -3.76066215829645100754e+00) (217, -4.30373948683712015395e+00) (218, -1.27210559933882039196e+00) (219, -2.99825089377603326568e-01) (220, -2.23855100954589403273e+00) (221, -1.67158782811483930253e+00) (222, -6.37136991971289701198e-01) (223, -2.81402834181578231920e+00) (224, -3.40790727923071878891e+00) (225, -4.72074383886600279503e-01) (226, -2.53468764290087955615e+00) (227, -1.66407168902689428513e+00) (228, -1.35433636886358454987e+00) (229, -2.70828145240494011503e+00) (230, -3.60682743080321221996e+00) (231, 1.33610991733003697801e-01) (232, -9.64365204848329771181e-01) (233, -1.62849871390047828967e+00) (234, 4.83169555852530963058e-01) (235, -2.51376131435419392091e+00) (236, -1.48030772648972130945e+00) (237, 1.15574102668684908224e+00) (238, -1.44581580041447765872e+00) (239, -1.79668532829765137393e+00) (240, -1.24072402031190964777e+00) (241, -4.03979137994510306697e+00) (242, -1.52489374656288823040e+00) (243, 8.67603218848834067956e-01) (244, 6.79199723160706647640e-02) (245, -3.02755968758710514166e+00) (246, 4.82647944554999486222e-01) (247, -2.96151949546636350519e+00) (248, -3.55164986337007348993e+00) (249, 1.39579251678634141953e+00) (250, 7.90496119472728020483e-01) (251, 9.16945065145817750363e-02) (252, -1.66990062586769599795e-01) (253, -3.98973211339585365209e+00) (254, -3.39347133420503643819e+00) (255, 4.32998610877040543410e-02) (256, -3.92272957627450236107e-01) (257, 6.57773614977265608239e-01) (258, 5.32664906473462762548e-01) (259, -3.90284213814035663148e+00) (260, -3.46769977629445236289e+00) (261, 6.62082058656396528484e-03) (262, 2.94201142127836712259e-01) (263, 9.56296368111199557305e-01) (264, 4.98280413600584115574e-01) (265, -7.18857684876455849121e-01) (266, -3.84945371891989185364e-01) (267, 1.04539454597853698203e+00) (268, -1.84405767385636992772e-01) (269, 8.65092810220612573602e-01) (270, -6.45737115887163537487e-01) (271, -9.04657308763131440266e-01) (272, -2.43267067581712410906e-02) (273, -2.59562442334550891321e-01) (274, 1.33792692135768720441e+00) (275, 1.42226026746563860570e+00) (276, -1.15095177391034386716e+00) (277, 3.29952703067915797952e-01) (278, -4.08121088292135669739e-01) (279, 1.11158068699977491400e-01) (280, 1.10682178154890076271e+00) (281, -2.19900461101807165321e-01) (282, 2.73131784605208871586e-01) (283, -5.54838087673253821386e-01) (284, -1.03291111839652050008e+00) (285, -1.16023883484734635640e-01) (286, 8.78751173208675129267e-01) (287, -2.57647667433564438177e-02) (288, 1.06635188996336616185e+00) (289, 3.37285162637528723728e-01) (290, -7.48534023106371404488e-01) (291, -3.08573627466141253706e-01) (292, 1.29574986646862955197e+00) (293, 9.47854342588264398017e-01) (294, 1.15912860573187548319e+00) (295, 1.20428111809844140545e+00) (296, -3.40198077849000912742e-01) (297, 1.71321593522470755344e-01) (298, 7.05278387990995292434e-01) (299, -4.62115493144547515025e-02) (300, 3.12609907896296546070e+00) (301, 2.00662496565212133959e+00) (0, -8.81716377240127080483e-03) (1, 1.47467528123373270432e-01) (2, -1.78611493422426992339e-01) (3, 1.90604110278334654138e-01) (4, 7.86725421640792399458e-01) (5, 6.45810588428182424936e-02) (6, 4.84300335146649121865e-02) (7, 7.57264398020541240619e-01) (8, 7.30480223615686541372e-01) (9, -4.02310328172065301278e-01) (10, 7.68639489787233731732e-01) (11, 7.87102038884720411893e-01) (12, 9.25762748744827224101e-01) (13, 1.47301354389533045719e+00) (14, -2.58274465395094243725e-01) (15, 5.08693494828647008177e-01) (16, 2.48362480282880465632e-01) (17, 6.78029919532886077294e-02) (18, 2.68146745839992484139e-01) (19, -4.62938714902869849488e-02) (20, 5.46027331609368782317e-01) (21, 1.24596309030900465054e+00) (22, 1.43735571247301630038e+00) (23, 2.61481685483129833170e-01) (24, 7.17101397194186196415e-01) (25, 1.01337695682455408708e+00) (26, -1.47094462848462670390e-01) (27, 1.33148428669691609727e+00) (28, 6.98393208568092616062e-01) (29, 1.21146400211363713950e+00) (30, 2.97403843902150077927e-01) (31, 8.06915280492802144963e-01) (32, -6.05263442307158894273e-01) (33, 9.40804018762247173946e-01) (34, -1.67514524147044825686e-02) (35, 9.32492560291430905295e-01) (36, 1.29328777781115600298e+00) (37, 5.91414744839167463852e-02) (38, -7.61607935208613445743e-02) (39, 7.46122067878375427874e-01) (40, 6.27454973375780933331e-01) (41, 6.68171935615058387725e-01) (42, -6.36611904474390533082e-01) (43, -4.14023575637069096711e-01) (44, 8.10149096789866907109e-01) (45, -1.13030091823672698692e-02) (46, 2.30876245725493117744e-01) (47, -8.94915923715442263031e-01) (48, 2.10734939817819710850e-01) (49, -4.53912847219452575409e-01) (50, -1.60911631610728800279e-01) (51, -2.32918923482933665214e-01) (52, 1.27400658828475488171e+00) (53, -6.27849313872455017105e-01) (54, 8.00923175483821525589e-01) (55, 8.02834849709261555439e-01) (56, 1.20986231400949439951e+00) (57, 1.31108459687282019601e+00) (58, -1.59537441330665363814e+00) (59, -6.16570345414099274528e-01) (60, 8.88335919276167507164e-01) (61, 2.87654540867340546839e+00) (62, -3.06868110133584615085e-01) (63, 5.97416282633653650258e-01) (64, -5.13085161742409812113e-02) (65, -9.64792746769405962226e-01) (66, 2.33881417876260211397e-01) (67, 1.26273145019973953573e+00) (68, 4.80354475764602106835e-01) (69, 7.99617823235699298756e-01) (70, -3.01776949701196617326e-01) (71, 1.04528672942476275054e+00) (72, 3.88650878647978814673e-01) (73, 1.52062928020484156022e-01) (74, 1.45834827827402646605e+00) (75, 1.91771693739691917457e+00) (76, 3.89165603126010894997e-01) (77, 4.52680961501045031614e-01) (78, -4.56843733398830317838e-02) (79, 1.09058008316923316094e+00) (80, 4.62296137891426872635e-01) (81, 2.23154630860042196838e-01) (82, 1.47130784763868804887e+00) (83, 1.27891542227329280818e-02) (84, 4.11809211998695412493e-01) (85, 6.10872788162451496596e-01) (86, -9.66250613297850308170e-02) (87, 3.95304466047473435086e-01) (88, 5.63256351968882573722e-01) (89, 8.19082291372676740693e-01) (90, 9.92694360465736225230e-01) (91, 1.18823021049577159935e+00) (92, 3.14120035381604267855e-01) (93, 9.65439686855817602584e-01) (94, 4.54166930679682279148e-01) (95, 1.52106064550524289203e+00) (96, 9.10661687107360062754e-01) (97, 4.51899751020537338020e-02) (98, -5.99151056315702534860e-01) (99, -6.33619843082220413066e-02) (100, 1.53360016557760658884e+00) (101, 6.24886265194452672489e-01) (102, 1.73869448100639867327e+00) (103, -9.25230349585634548326e-02) (104, 3.36961281950041824373e-01) (105, 9.16373859065285345515e-01) (106, -1.93217684153055124785e-01) (107, 1.48208461742392771932e+00) (108, 2.92236039881505815785e-01) (109, 1.44083430641278709139e-01) (110, 8.55651352285529354091e-01) (111, 7.63838533957148846376e-01) (112, 5.38130817305893627278e-01) (113, 7.78570167116627631643e-01) (114, 4.64749149744022177488e-02) (115, 1.66366579154485250136e+00) (116, 2.75696348479957165090e-01) (117, -1.39436725974632330649e-01) (118, 4.11034309090393512598e-01) (119, 7.62548488526498036144e-01) (120, 6.00545093108149963257e-01) (121, 2.82594257075290011816e-01) (122, 1.08565255447602337924e+00) (123, 1.77161989428522170797e+00) (124, 1.25575495128536762657e+00) (125, 7.54708124540531821722e-01) (126, 1.17320258215795059087e+00) (127, 1.45383121196253428664e+00) (128, 1.85219427807450043311e+00) (129, 1.01019080322770349323e-01) (130, 1.31365707515687168971e+00) (131, 1.83911422245338718184e+00) (132, 6.76148644620413130646e-01) (133, 9.53079285506327367195e-01) (134, 1.59049705766677895724e+00) (135, 1.04831325919800232016e-02) (136, 7.76408801200393239306e-01) (137, 9.06318051899858367904e-01) (138, -2.80255413951728649113e-01) (139, 8.23030604348996996933e-01) (140, 6.67328509867730762517e-02) (141, 1.14797977869820178043e+00) (142, -4.65970275045155712945e+00) (143, 1.24779571300816627399e+00) (144, 1.97426063777083438122e-01) (145, 1.27811054360056908230e+00) (146, 7.99019000539292978402e-01) (147, 5.66866043630419591537e-01) (148, 1.87250697328145054854e+00) (149, 1.21231620401473461079e+00) (150, 1.11345163615135023250e+00) (151, 1.17578474461902682258e+00) (152, 1.81737524448368970020e+00) (153, 1.69396322579417546450e+00) (154, 1.54272941521786655095e+00) (155, 2.53684640606448796873e+00) (156, 7.92573951929333331279e-01) (157, 6.69992146124426479759e-01) (158, 1.43422909615044114062e+00) (159, 4.42392703213500049220e-01) (160, 1.76133720802188031840e+00) (161, 6.54839823712612401074e-01) (162, 9.41942388392867785418e-02) (163, 1.32929381168424370907e-01) (164, 5.33225550615348597994e-01) (165, 1.83840762973790772250e+00) (166, 6.01915340856162939254e-01) (167, 3.59267870144004642860e-03) (168, 1.88170320559471404565e+00) (169, 8.34870781203740142118e-01) (170, -1.53177192919602106480e-01) (171, 1.08214822712761726820e-01) (172, 2.31661209865663443586e-02) (173, 9.47576648286977740732e-01) (174, 1.17774344751267956433e+00) (175, 5.73311625233129174006e-01) (176, 6.08073520484897822591e-01) (177, 2.16305575346338457843e-01) (178, 1.44635002580610905198e+00) (179, 1.62461329656170816449e+00) (180, -1.76012087097828395788e-01) (181, 9.88468009577899153761e-01) (182, -2.48066560464766799887e-01) (183, 1.74299923205039797303e+00) (184, 6.35565491374346591691e-01) (185, 8.49298586238581676433e-01) (186, 1.33328304770004324453e+00) (187, 1.60643449251245562515e+00) (188, -2.31720183962952352985e-01) (189, 3.05742317561252585634e-01) (190, 4.09570883953552442036e-02) (191, 1.22315580199362972103e+00) (192, 1.44697241228628525889e+00) (193, 3.41539921571955229496e-01) (194, 1.42752632007660862357e+00) (195, 2.22775272383692379830e-01) (196, 2.29549983541390445474e-01) (197, 7.61031823280997749004e-02) (198, 6.94120277310884326027e-01) (199, 3.57334446541087702442e-01) (200, 1.10165222775873106187e+00) (201, 6.60903579388759321311e-01) (202, 3.43688589914047992746e-01) (203, 1.35628295064506909640e+00) (204, 2.39453556236324222040e-01) (205, -8.56282887948830173652e-02) (206, 4.95885958258144687871e-01) (207, 1.04172205334735146209e+00) (208, 1.47515529906637160584e-01) (209, 2.03921196464300513718e-01) (210, -3.09365331406348080534e-02) (211, 1.50938872210346436420e-01) (212, 1.44626361013506921083e+00) (213, -7.14809243783874892486e-02) (214, 1.34664396565588651011e-01) (215, 6.02409383848858226429e-01) (216, 1.15069637182680373222e+00) (217, -4.68770644809368142170e-01) (218, 2.85338079412730594164e-01) (219, 1.44695439264895875375e+00) (220, -1.64050243246805643738e-02) (221, 8.34515980329350703926e-01) (222, 8.50805350381913516600e-01) (223, -1.36568166271476380824e-02) (224, -3.88343165925045086251e-01) (225, 7.11598983609229907010e-01) (226, -6.59520316881459733871e-01) (227, -2.27773686279373888119e-01) (228, 1.31712356547429365605e+00) (229, -3.45183767906313165863e-01) (230, 8.02614725132662631957e-01) (231, 7.05496410977607513182e-01) (232, 7.01152706409623127648e-01) (233, -3.94914869425387837776e-01) (234, 5.62966591071304756078e-01) (235, 1.65113843619537203899e+00) (236, -1.59339030419645616421e-01) (237, 1.45724202396455426722e+00) (238, 9.13042945374981207429e-01) (239, 5.03545950620914339879e-01) (240, 3.88657299829437030692e-01) (241, 1.52344186308959694820e+00) (242, 1.43260557287085732447e+00) (243, 1.18032187111981615169e-01) (244, -3.35538984331510192760e-01) (245, -1.83232004839307627275e-01) (246, 1.45009721979192951480e+00) (247, 1.63298092505339575986e+00) (248, 2.57675686010838400630e-01) (249, 2.64576194639673800690e-01) (250, 1.24834956145959719009e+00) (251, 8.59326538216235724654e-01) (252, -8.66070520554869521801e-02) (253, 9.50601198087761223299e-01) (254, -1.80824657478179218195e-01) (255, -1.48815047962130214687e-01) (256, -2.84337943634998223386e-02) (257, 8.04741101035904238259e-01) (258, 7.92096634828773238368e-01) (259, -2.38072774275659600207e-02) (260, 1.33544424833913799588e+00) (261, -2.85877836689215014676e-01) (262, 9.37851872317657986322e-01) (263, 3.89196812013483273152e-01) (264, 5.27436680637759017221e-02) (265, 2.00542755890719265333e-01) (266, 6.15716226182981163362e-01) (267, 2.10698100776418151270e-01) (268, 1.25758501944941064599e-01) (269, -2.47427694918718965589e-01) (270, 1.36943901718050842220e+00) (271, 5.47170769576136417633e-01) (272, -4.26641297914056361051e-01) (273, 1.21074303068033772846e+00) (274, 1.34641529137136184424e+00) (275, -9.41759734761032779593e-02) (276, 1.30295139625802969263e+00) (277, 8.13360989840181458632e-01) (278, -3.85829889560448391350e-01) (279, -1.59742587079399790684e-02) (280, 1.64300943607106320066e+00) (281, 1.68662604653735193061e+00) (282, 1.18085323879029813199e+00) (283, -3.75576135998033466823e-01) (284, 6.78241472186547622591e-01) (285, 1.46883467045198390366e+00) (286, 1.25870724416661111666e-01) (287, 1.44807068579712217016e+00) (288, 5.82991621644363244847e-01) (289, 9.41499343602918981055e-01) (290, 1.30271032443988188376e+00) (291, 3.66610583762210895387e-01) (292, 1.50097157547562187752e+00) (293, 9.16577490238054792826e-01) (294, 1.08406296598303475420e+00) (295, -2.45512330436866432759e-01) (296, 1.10863579801743594722e+00) (297, -2.02281018420709557404e-01) (298, 4.37928030565725712187e-01) (299, 1.31897939212654713437e+00) (300, 4.12801213340338202240e-01) (301, 1.91015434501988012883e+00) (302, -4.47461910872969437225e-01) (0, 1.23688756361546081664e+00) (1, -2.33910998412526716095e-01) (2, 1.32810871079559666974e+00) (3, -2.51841829757560475844e-01) (4, -5.27183089485569467136e-01) (5, 6.44445214340285899013e-01) (6, 5.41939459428933067997e-01) (7, 8.89553432427730716991e-02) (8, -4.25070336932495018711e-01) (9, -5.05530205466620974342e-01) (10, 6.11198697019719405787e-01) (11, -3.20701685571205485914e-01) (12, 1.18660292229278385712e+00) (13, -7.17579228194484053382e-01) (14, -1.94863461001003018813e-01) (15, 2.42778037558079862190e-01) (16, 4.33368205530258177038e-01) (17, -2.76192866280285942437e-01) (18, -1.21644666253869812578e-01) (19, 1.10620900658820442430e+00) (20, 1.04526987316980873866e-01) (21, 3.33511483716670331656e-01) (22, 9.22982461696278955188e-01) (23, -4.00619207196036497542e-01) (24, 3.19940947920089757694e-01) (25, -4.13237864728218107224e-01) (26, -7.68016203326819524300e-01) (27, 9.01601512544767502710e-01) (28, 5.80469077075754374961e-02) (29, -3.26087707446688523927e-01) (30, 4.46780954954469289309e-01) (31, -3.15983387019190976180e-03) (32, 1.29526232316596856542e+00) (33, -1.33242018630800435584e-03) (34, 2.59101108884143616073e-01) (35, 2.50489357262708878249e-01) (36, -3.29876951948414265381e-01) (37, -5.39914720649314339163e-01) (38, 2.15617314212037358701e+00) (39, -3.15944935231513290841e-01) (40, -5.42438509985493144683e-01) (41, 1.45859238520492401348e-01) (42, 9.43595533763069843625e-02) (43, 1.31386143554872036887e+00) (44, 1.74055692786589499832e+00) (45, 4.74167457928924340749e-01) (46, 1.68151096677112088518e-01) (47, -4.33609818056417739562e-01) (48, 1.10398924806734366477e+00) (49, 8.65373783005190966300e-01) (50, -4.09649941805843631482e-01) (51, -2.42900418939800383233e-01) (52, 2.10032560031955972679e-01) (53, 8.88779511699148150328e-01) (54, 3.77079486307558997549e-01) (55, -1.24933993360954986862e+00) (56, -6.34851772961704918785e-01) (57, 2.59383182105808463014e-01) (58, 1.25206983003930583109e+00) (59, 4.98394532167627912767e-01) (60, 8.24150094102928942874e-01) (61, 6.89523356820442995252e-02) (62, 8.12192829227745161091e-01) (63, -5.97703214224500900542e-01) (64, -6.54526593921735733161e-01) (65, 1.36557036907487494570e-01) (66, 1.56618908433426212712e-01) (67, 1.29109003611450945392e-01) (68, 6.15440351673256391685e-01) (69, -2.30898292510276936795e-01) (70, 7.46554612956661090006e-02) (71, 3.32105255345602590200e-01) (72, 5.30772100694894333195e-01) (73, 1.76993919993175286010e+00) (74, 1.22734742975070876270e+00) (75, -2.60597338166908110146e-01) (76, 1.76395413553033370002e-01) (77, 9.33006664081335368444e-01) (78, -1.01190419650918780881e-01) (79, 1.12945652820401232219e+00) (80, 1.65197207935065626394e+00) (81, 2.81267365089142240553e-01) (82, 5.66743149775875587615e-01) (83, -7.50895392853501264518e-01) (84, 1.21876261743826527773e-01) (85, 1.00956870691769440285e+00) (86, -1.30228366629860675685e-01) (87, 6.10502416128386182770e-01) (88, 9.89239258350704919742e-01) (89, -7.37852491035312363366e-01) (90, -1.93374820559954641030e-01) (91, 2.00544229136478424635e+00) (92, 8.66604257630803953560e-01) (93, -3.76733145874931396602e-01) (94, 1.38443690462137913855e+00) (95, 7.07199949201320454684e-01) (96, 3.90932841876078907006e-01) (97, 1.46283641769979183556e-01) (98, 4.93851435442394848252e-01) (99, -7.98318083777820208802e-01) (100, -5.67777615735305940525e-01) (101, -2.38143518735632248040e-01) (102, 1.99947686652962003384e-01) (103, 5.90738931191767679962e-01) (104, 6.21060063067126688630e-01) (105, -9.52192932319199103475e-01) (106, 9.98278627577979804641e-01) (107, 1.24740522619077531807e+00) (108, 8.37167828167165062325e-01) (109, 3.46842526518353788667e-01) (110, 2.51726878353986271986e-01) (111, 1.45382993376262925622e+00) (112, 1.51126974209498854407e+00) (113, 1.72826433709901450264e+00) (114, 2.60427490244594606050e-01) (115, 1.16821095511159822600e+00) (116, -1.64599160827176099753e-01) (117, 1.21243725170148253234e+00) (118, 1.84737245511279635224e+00) (119, 2.38917588051200668886e+00) (120, 6.63616933237376582788e-01) (121, -4.21700773622279700970e-01) (122, -2.35357217776093696759e-01) (123, 1.45868321729601690961e+00) (124, 6.41950833063439030290e-01) (125, 5.67034988611326506991e-01) (126, -8.82656191439259218967e-01) (127, -4.86788057603492585468e-01) (128, -7.42049998482236072839e-01) (129, 2.24039638881861780106e+00) (130, 1.18092758069343745086e-01) (131, -1.70490389253945384684e-01) (132, 1.06748931326926066454e+00) (133, 8.46000669939247829099e-01) (134, -6.12912835265763400461e-02) (135, 2.30573782107643454609e+00) (136, 1.23479145751941499221e+00) (137, -7.21820776911465511461e-01) (138, -5.82966106184618193531e-01) (139, 6.81029709452660503288e-01) (140, 2.57002569839178574007e-01) (141, 1.53423463084090339059e+00) (142, 1.30830621344478914558e+00) (143, 6.71479799491247919541e-01) (144, -2.73699305028062389589e-01) (145, 1.04919813049932475479e+00) (146, -3.55817975502787209319e-01) (147, 6.35718739365591090085e-01) (148, 1.89029367957324168081e+00) (149, 2.25470162124662287795e+00) (150, 5.51534054727340405933e-01) (151, 1.30454111803834288397e-01) (152, 1.43130575579352692372e+00) (153, 1.27069470819922258897e-01) (154, 2.19879735760179606530e+00) (155, 1.80044028044703785518e+00) (156, 3.49542498879402585565e-01) (157, 2.09112210288720934415e+00) (158, 1.05110140290710085686e+00) (159, 2.91670722865684206582e+00) (160, 2.80313495611435259391e+00) (161, 1.88232014049366358499e+00) (162, 6.17698524086452649406e-01) (163, 1.68921262434978491918e+00) (164, 9.38680670219447677027e-01) (165, 3.36640308660218501302e+00) (166, 1.54464438884819510456e+00) (167, 1.03970323499930317190e+00) (168, 6.84919313383995809197e-01) (169, 1.77396737364604883957e+00) (170, 1.93721030616718947748e+00) (171, 1.35946134831434273238e+00) (172, 1.29729692510219773993e+00) (173, 6.93022727574089225655e-01) (174, 7.51403641692999668678e-01) (175, 2.07604741069067344483e+00) (176, 2.18609016593278755736e-02) (177, -3.30414314932330699381e-01) (178, 1.65530562906786871125e+00) (179, 1.03883377712221935951e+00) (180, 4.02065181758197942585e-01) (181, 1.63734104128772917086e+00) (182, 1.37538849450881706105e+00) (183, 1.43259246778046711590e+00) (184, 2.01043098407845333142e+00) (185, 1.23243155236383494788e+00) (186, -5.13757502345255523402e-01) (187, 1.37056775484927984010e+00) (188, 1.52849144125824465412e+00) (189, 6.85475986938263281978e-01) (190, 9.28651120102371052667e-01) (191, 3.30407594420457362272e-01) (192, 3.97546901573469571578e-02) (193, 4.74281702517035663735e-01) (194, 2.04207888866857745214e+00) (195, -8.67187642752616283381e-01) (196, 1.82798416385322437527e+00) (197, 5.87126634655094736814e-01) (198, -4.75487893922921178724e-01) (199, 1.59230120771699157345e+00) (200, -1.88277766040016697469e-01) (201, -3.03744424160699799664e-01) (202, 8.61915505960213601533e-01) (203, 3.17635038465364949456e-01) (204, -1.87989762471654497933e-02) (205, 8.03086531659466307254e-01) (206, 1.12871200310908581521e+00) (207, 2.08900232997344392771e-01) (208, -7.16595322370604970175e-01) (209, -5.40541060137560092080e-01) (210, -6.21620735096791499075e-01) (211, 4.92787896488134646855e-01) (212, 2.31127302099380482758e+00) (213, -5.73659870982519803917e-01) (214, 8.69985208267114451530e-01) (215, 3.36740893032545729469e-01) (216, 9.87075826133778755356e-01) (217, 9.10162433996936193203e-01) (218, 1.29175075294221342048e+00) (219, 1.17136326296627971133e-01) (220, -8.21520574470259279387e-01) (221, -3.31956210534053941519e-01) (222, 6.65831573361590711713e-01) (223, 7.26292156341635131156e-01) (224, 5.18238646073796216385e-01) (225, 2.49996222033498943782e-01) (226, 7.75758241388436298180e-01) (227, -8.63579590789992246336e-01) (228, 9.88566138433880192693e-01) (229, -3.58897125231229630060e-01) (230, 1.05098816982881215765e+00) (231, 9.29215040558592386688e-01) (232, 2.27164674987009707063e-01) (233, 7.93908032902470695014e-01) (234, 5.94424387688108415984e-02) (235, -5.55039068421239956130e-01) (236, -4.84780882553231595722e-01) (237, 7.24902792056664857512e-01) (238, 5.84911139581120620434e-01) (239, -3.11110172898394932162e-01) (240, -4.73212792573272145180e-01) (241, 1.13223092357145183051e+00) (242, -7.70695264210334296529e-02) (243, 9.05476147500817063474e-01) (244, -5.32883258862991482374e-01) (245, -6.50236974328555206171e-01) (246, 5.57476733441100713584e-01) (247, -4.88269664388680968425e-01) (248, 3.44335729021979342068e-01) (249, 5.03972994852031508373e-01) (250, 5.34529749159934119973e-01) (251, 2.70168286808902466389e-02) (252, -6.99904832429984580244e-01) (253, 2.72385865967658846731e-01) (254, -1.57311604055424214543e-01) (255, -1.62262623980441139659e-01) (256, -6.81690177054283474867e-01) (257, 8.11494090395407430272e-01) (258, 1.20126855187317707618e-01) (259, 1.44373318397629857301e+00) (260, -4.89239334233448119882e-01) (261, -7.52679688760781617773e-01) (262, 1.16813459251343165768e+00) (263, -7.31502230755373544779e-02) (264, -8.27109290963183529932e-01) (265, 3.37918838823214384703e-01) (266, 4.69370244906911038285e-01) (267, -8.81137262308727686744e-01) (268, -1.13786328061115757371e-01) (269, -4.30343081811176586537e-01) (270, -3.78529894756409079903e-01) (271, -5.00052740579594659498e-02) (272, -5.93678215127119601746e-01) (273, 2.99371817655767868960e-01) (274, -3.46600982829331537641e-03) (275, -4.21031997597881402218e-01) (276, 4.56264993952466113569e-01) (277, 1.09201224067104130100e+00) (278, -3.07457971139749652867e-01) (279, -4.93910207951368085411e-01) (280, 7.50548127588747449046e-01) (281, 9.42548851930991027359e-01) (282, 6.41706781501509504473e-01) (283, 7.14958009711453956747e-01) (284, -6.16231422191471756022e-01) (285, 8.97220563016399852430e-01) (286, -2.11254851182958169886e-01) (287, -2.44884411337887158977e-01) (288, 8.15425114745833123919e-01) (289, 8.87721668000493457917e-01) (290, -6.10981566311019741455e-01) (291, 7.38704545616345131798e-01) (292, 1.06468482818631171583e+00) (293, -4.20724560200359476436e-01) (294, -2.20508624796594165929e-01) (295, 1.22937251162079563827e+00) (296, 4.41589127297674466366e-01) (297, 7.87104976332173689180e-01) (298, 1.37221313730477101345e+00) (299, 1.04896494311175270120e+00) (300, 2.79279131425672044742e+00) (301, 2.79878375953004909782e-01) (302, 8.98433590217233901676e-01) (303, 8.68229132198518605001e-01) (0, 8.19001914483804327460e-01) (1, 1.08055810438415722530e+00) (2, 1.41053094863874273202e+00) (3, 7.13229730806134498700e-01) (4, -1.07416057935739257465e-03) (5, 1.93576325767334023187e-01) (6, 8.13580040146009486612e-01) (7, 1.53081259312237749626e+00) (8, 1.00574084600238333742e+00) (9, 8.66196746412038032226e-01) (10, 1.13638058815201703489e+00) (11, 3.96808999924466498932e-01) (12, 1.20890200395987301718e+00) (13, 8.86547440959787103054e-01) (14, 3.50206113167213950454e-01) (15, 1.22334464176007884362e+00) (16, 3.00362930195943289569e-01) (17, 1.36803616138445494066e+00) (18, 7.36932924522619048346e-01) (19, 3.18392747794543906625e-01) (20, 3.59660321628009482797e-01) (21, 9.18344572267316028302e-01) (22, 1.23930571116141141630e+00) (23, 1.03300869918645488177e+00) (24, 7.13047899561539799684e-01) (25, 7.70486878433054744875e-01) (26, 1.38730762534349416626e+00) (27, 1.33584315495921090999e+00) (28, 1.32347703932496840729e+00) (29, 1.22453595030735384874e+00) (30, 5.93815452864304149649e-01) (31, 2.28401132921284832911e-01) (32, 3.94221609646326742737e-01) (33, 3.16604942943258083066e-01) (34, 1.45219870250268434653e+00) (35, 8.07978634908764314915e-01) (36, 7.47473245023805965559e-01) (37, -2.39805364237781648562e-01) (38, 5.20831971628827883336e-01) (39, 9.47809398284443216376e-02) (40, 1.72825988023882159972e+00) (41, 1.08871749639602569126e-01) (42, 7.53536400565807840124e-01) (43, 9.88914582885654480648e-01) (44, 1.42692895064961566831e+00) (45, 1.57019873802588882938e+00) (46, 7.12176606654454369405e-01) (47, 2.04714858992798443699e-03) (48, 1.21374371786544177354e+00) (49, 1.72637338632272085981e+00) (50, 9.03309082146792396983e-01) (51, -4.16676938579048417033e-01) (52, 5.69666038235431715364e-01) (53, 2.54343765636530994012e-01) (54, 1.26563865673584508009e+00) (55, -1.52817023747100988462e-01) (56, 1.80883452227873720020e+00) (57, 6.41157119151246956967e-01) (58, 1.12083504917105125642e+00) (59, 1.06187800209280980290e+00) (60, 7.90084155046127056821e-01) (61, 2.15915574167311136167e-01) (62, -4.34553762708819457661e-02) (63, 9.45308177348268663387e-01) (64, 6.06746326174866901226e-01) (65, 1.53757986081111441834e+00) (66, 8.49500990357829777189e-01) (67, -1.67179991374543923666e-01) (68, 3.51391541408064000951e-01) (69, 1.01889148373417026683e+00) (70, -5.22301983343363279699e-02) (71, 3.73438937260680614560e-01) (72, -5.00446315166793276319e-01) (73, 8.77862548581900714595e-01) (74, -3.33905034400824141105e-01) (75, 1.06830876539446051332e+00) (76, 1.01189964041351032620e+00) (77, 7.19890847278113588104e-01) (78, 1.35474478850399826513e+00) (79, 2.40430973911525847075e-01) (80, 2.13296682069925969127e-01) (81, 6.32505073246245053120e-01) (82, 6.79177090034406405472e-01) (83, -1.85086660230248750691e-01) (84, 8.12436774290327123893e-01) (85, -5.66071073661345361416e-02) (86, -5.67615644627383453269e-01) (87, 8.20587113396787803943e-01) (88, 1.29089915800682719649e+00) (89, 1.74239597561660075620e+00) (90, -2.39402042918840596286e-01) (91, -2.92801319940527271513e-01) (92, -3.86439589555117313235e-01) (93, 1.40334643040956580373e-01) (94, -3.93033775886323821780e-01) (95, 1.63599187077767282972e+00) (96, -4.80100171199200009831e-01) (97, -3.25249991096722368411e-01) (98, 5.53256215063775202978e-01) (99, 1.63467898673421041522e-01) (100, -1.17213060962847032132e-01) (101, 8.33151159485975983943e-02) (102, 6.86700906937337762770e-01) (103, -6.94647484001933768205e-01) (104, -7.38860136710531856252e-01) (105, 1.14945602055721907142e+00) (106, -4.03323586305018799703e-01) (107, 1.15097129166262468480e+00) (108, -3.86454073620503546493e-01) (109, -1.32772554599288583610e+00) (110, 6.19827528703823307787e-03) (111, 1.11819686766383252774e+00) (112, 4.08039131563344315001e-01) (113, 9.91578360325438001865e-01) (114, 6.18804653372429069869e-01) (115, -1.63751168060517288128e-01) (116, -3.40105355540644915813e-01) (117, 1.23974333465217489980e+00) (118, 8.68317977210881331018e-01) (119, 1.16119586910031102889e+00) (120, 7.96340787892989676600e-01) (121, 1.36258648901623291572e+00) (122, 6.76894976967297168358e-02) (123, -2.36563042767776232633e-01) (124, -3.44681031399738047050e-01) (125, 2.69943913529782530958e-01) (126, 1.11822226415046022119e+00) (127, 2.25528458810636996124e-02) (128, 1.07485935582080949224e+00) (129, 1.48017818831626857268e+00) (130, 5.34025571491060335738e-01) (131, 1.49675881424761381133e+00) (132, -3.60692151642054092964e-01) (133, 2.90904398554357679352e-01) (134, 1.31408733077272132928e-01) (135, 1.90615333632307870637e-01) (136, -1.78404735436874695154e+00) (137, -2.62801227929572223108e-01) (138, -4.35252908016236339517e-01) (139, 3.63566011902612062912e-01) (140, 6.26638190580309895061e-01) (141, 3.86413087548922673520e-01) (142, 1.38517167226737591967e+00) (143, 1.59223635147722597516e+00) (144, -4.32781669562032345056e-01) (145, 6.61677158889728889157e-01) (146, -2.72902666049225528511e-01) (147, -8.29628628655150468507e-02) (148, 2.24845514526444051340e-01) (149, 1.89724308849566969393e+00) (150, -3.80705728857114455987e-01) (151, -1.16897743935801531889e-01) (152, 1.21685094770288326771e+00) (153, 5.84664517472292755151e-01) (154, 9.81468637747178740405e-02) (155, 2.08431883749622226532e+00) (156, 7.53265401861857974986e-01) (157, -1.07029412499707515805e-01) (158, 1.35730554731336305885e+00) (159, 6.53588321861709009575e-01) (160, -2.43836492632467961850e-02) (161, 1.30735512543806509100e+00) (162, 1.47377804877338897116e-01) (163, 1.48952254204132661375e-01) (164, 9.67049083221088734419e-01) (165, 7.22415558174125616020e-01) (166, 9.69230921587767690895e-01) (167, 1.35613762142560911883e+00) (168, 1.13915294834117797329e+00) (169, 9.72567251151038703050e-01) (170, -1.07534313134270975709e+00) (171, -1.93065438094594032936e-01) (172, -2.45971732466305548215e-01) (173, -4.67044927895503114712e-01) (174, -5.48029948639895181373e-01) (175, -2.31663840952451793864e-01) (176, 6.39580652984091946323e-01) (177, -5.22952181982807906557e-01) (178, -6.84469901297820176866e-02) (179, -6.21616190194993367690e-01) (180, 9.60830915291082665597e-01) (181, 4.10162138535160925024e-01) (182, 1.28112985839216653172e-01) (183, 7.60871653030593675382e-01) (184, 8.63543135861729149738e-01) (185, 4.24437640289556550321e-01) (186, -1.92731023588751160247e-01) (187, 5.90858614516354463397e-01) (188, 1.36249767119298881290e+00) (189, -1.38357375914326091726e-01) (190, -7.51863488288872727772e-01) (191, -6.11515885220795141208e-01) (192, 9.55480370214528362816e-01) (193, 2.42231765401298704266e-01) (194, 6.33291979846760666462e-01) (195, 5.75331011284577753528e-01) (196, -7.24065577698080664604e-01) (197, -2.65626260399808189483e-01) (198, 4.84852308534934717255e-01) (199, 1.22454980612724750877e+00) (200, -3.93630379600570290410e-01) (201, 7.12432123996673438704e-01) (202, -5.13539404024106138635e-01) (203, -3.70696993826680087913e-01) (204, 7.92391652368858112609e-01) (205, -2.59417413212054193128e-01) (206, 3.93567805403871262548e-01) (207, 9.87385454594119360561e-02) (208, -1.42400171963365795857e-01) (209, 9.96482211910187709591e-01) (210, 3.72556919359519567170e-01) (211, -5.40000069696326412405e-01) (212, 2.82000193996444548095e-01) (213, 1.11031634430589520868e+00) (214, 3.56115376669874750259e-01) (215, 9.69278046852298652558e-02) (216, 5.05919190246041705628e-01) (217, 7.91291061679002205587e-01) (218, 1.32023977625885580167e+00) (219, 4.27212350112038563577e-01) (220, 1.19630373740560536078e+00) (221, -6.04882600877702514275e-01) (222, 7.59500147123240321179e-01) (223, 7.35542203817663442500e-01) (224, 2.48829358023303831571e-01) (225, -7.18181573053947863716e-02) (226, 6.48485490728960833895e-02) (227, 3.36429469127042080068e-01) (228, 5.30717770586540238398e-01) (229, 1.14806124415276333828e+00) (230, 1.66395061415332251586e-01) (231, 7.75844708810175642810e-01) (232, 4.97476836494346097428e-01) (233, 4.79372317294742666949e-01) (234, 1.63887343206767632786e+00) (235, 2.19048524214413675715e-01) (236, 8.38954608688123437688e-01) (237, 3.31701738614156360629e-01) (238, 6.37053305606509634451e-01) (239, 1.35748821222043303258e+00) (240, 5.02132496037798525812e-01) (241, -6.06810373385170687133e-02) (242, -2.44650587855003875948e-01) (243, 1.07435944782312597923e+00) (244, 1.33948008269304685847e+00) (245, 4.16248123350088317096e-01) (246, 1.38134470044591534110e-01) (247, 7.82607747338548653815e-01) (248, 1.63166844059707188963e-01) (249, -2.51953313942184120577e-01) (250, -5.13463546333368769936e-01) (251, -3.51481039994485711109e-01) (252, 1.01400303078703971082e-01) (253, 1.19348942749724717949e+00) (254, 1.34718304007252553944e+00) (255, 6.48781772646218168887e-01) (256, -6.11541425032561147823e-01) (257, -2.59543251887811854406e-01) (258, -6.57874088874291079732e-02) (259, 8.78333827749785966965e-01) (260, -2.02696941477779279950e-01) (261, 3.96958141764722161060e-01) (262, -8.07756385864632636684e-02) (263, 6.30968711687332928228e-01) (264, -1.72415328787751120920e-01) (265, 1.79245469291205716811e-01) (266, 1.43215903551874390587e+00) (267, 9.50016642737422589704e-01) (268, 7.73324011679896727856e-01) (269, 3.18366038815796892347e-01) (270, 1.27648341251520558437e+00) (271, -9.95772656607672584927e-02) (272, 9.13275184741213497119e-01) (273, 1.30647944866239495987e+00) (274, 1.20100155326148061441e+00) (275, 7.89308259335100181886e-01) (276, 3.72289897120359369875e-01) (277, 1.74225401999697909750e-02) (278, -5.32946869819686530612e-02) (279, 8.06236765807589295108e-01) (280, 3.57590774816886780574e-01) (281, 5.04178403785780337304e-03) (282, 1.11192995420730400546e+00) (283, 7.89187749068403832098e-01) (284, 1.56003513467244814272e+00) (285, 7.28803249734452984754e-01) (286, 3.89049776790286530592e-02) (287, 1.55440308864375831277e+00) (288, 1.08254474512374687656e+00) (289, 2.92003394282224715273e-01) (290, 7.59665073073270136206e-01) (291, 1.16697961743974376603e+00) (292, 1.30680719941047551735e+00) (293, 1.29587739412981006737e+00) (294, 3.90246655465560088327e-01) (295, 1.46468638542264595337e+00) (296, -2.00616306987736497947e-01) (297, 1.12325474875425379562e-01) (298, 1.02845986213014262134e+00) (299, 1.18616458472649899392e+00) (300, 1.61713154783529389213e+00) (301, 1.70460960094546831733e+00) (302, 3.78751740230756639427e-01) (303, -5.11525054681342239427e-01) (304, 4.88236989133948084962e-01) (0, 1.04456024610687236986e+00) (1, -1.31158461150125804640e-01) (2, 1.40741144915262439419e+00) (3, 6.47105032917192457553e-01) (4, 9.38652264941993719205e-01) (5, 3.65603955158332438735e-01) (6, 6.39272871499697359354e-01) (7, 1.57905591536985201451e+00) (8, 1.17519841158605431453e+00) (9, -6.51338141630720457442e-01) (10, -2.65528108380165772662e-01) (11, -3.40834885676820631417e-01) (12, 1.58535309721230932567e+00) (13, 1.06450523024139465100e+00) (14, -6.89652137865889081070e-01) (15, 9.94032208165707475978e-01) (16, 9.27784946380577180136e-01) (17, -9.92519352399088977679e-02) (18, 1.51005414268672755185e+00) (19, 1.21626338665502209402e+00) (20, -6.67245914803887396616e-01) (21, 8.32949609946992741705e-01) (22, 7.42293983052788042265e-01) (23, 1.12036358877834585357e+00) (24, 1.59299983305125780753e+00) (25, -6.57001628861217601418e-01) (26, 6.70324532317692067807e-01) (27, 7.31656704106464661486e-01) (28, 1.22457265764754086312e+00) (29, -3.36000188337855332232e-01) (30, 1.15497159814331484817e+00) (31, 6.85254671132955794910e-01) (32, 5.46557955072817680531e-01) (33, 5.45349823042245551719e-01) (34, -3.67849987052216442773e-01) (35, -7.33752577396809990695e-01) (36, 4.11325128459421110461e-02) (37, 8.48243470274816502297e-01) (38, -1.72682474225322485362e-01) (39, 1.20769563461007289895e+00) (40, 7.66637335217359772166e-01) (41, -2.85748066060264982458e-01) (42, -2.76575992178601570703e-01) (43, 3.04439906766471923838e-01) (44, 1.70433186762266236647e-01) (45, -2.74881132187064725070e-01) (46, 4.51591140161101300965e-01) (47, -7.57429094664773705503e-01) (48, 4.71269456416987087000e-01) (49, -9.40164665661580127576e-03) (50, -3.60122288293056591613e-01) (51, 5.06085339054542560078e-01) (52, -7.68013395352009214934e-02) (53, 7.28775738058919042572e-01) (54, 4.54887192875440715678e-01) (55, -5.59487857089812412603e-01) (56, -7.37462206814892162754e-01) (57, -2.01853331863291268755e-01) (58, -6.22628538977943013499e-01) (59, -1.16658269910690171045e+00) (60, 7.66322562313792698951e-01) (61, 4.96644534535566395395e-01) (62, 8.27242417071690328001e-01) (63, -1.94803372001553093407e-01) (64, 1.76474533567335084561e-01) (65, 6.59293026663570369550e-01) (66, 3.72666538061101615398e-01) (67, 6.99944255992280051082e-01) (68, 6.70702195151212321456e-01) (69, 6.98214822660229605944e-01) (70, 5.13390964798807969416e-01) (71, -4.18965403978774242333e-01) (72, -2.83203310351062886863e-01) (73, 1.02480054909892381865e+00) (74, -3.29280828208283971037e-01) (75, 3.67511045137687064610e-01) (76, -6.56670681524136989893e-01) (77, 2.54117728753181115753e-01) (78, 9.33524788881212486125e-01) (79, 6.17043697126571366596e-01) (80, -3.57767310946162583885e-02) (81, -7.47544949342894060607e-01) (82, -2.89086357443965658032e-01) (83, 5.49484244135695285016e-02) (84, 1.31423459002713305388e+00) (85, 9.47362824225007282841e-01) (86, 1.19966915922408201567e+00) (87, -7.39640352290412916858e-01) (88, -2.31728748514810650727e-01) (89, -8.71978078364934905409e-01) (90, -5.61552333832866290564e-01) (91, 8.12554256118794060448e-01) (92, 8.95593387396145690360e-01) (93, 3.68487508360686943920e-01) (94, -8.62647585572129504961e-01) (95, -3.81762449886970056667e-01) (96, 7.57196379896456939207e-01) (97, 3.44404977273283618988e-01) (98, -9.19886498262685203819e-01) (99, -4.25057606179814584380e-01) (100, -3.29840410157567098803e-01) (101, 3.45374036739420242625e-01) (102, 8.69548746509907877211e-01) (103, -4.90168767065361776769e-01) (104, -3.53200903588710632408e-02) (105, 6.79099022516691741558e-01) (106, -8.28876568521425882707e-01) (107, 2.94851787041335799966e-01) (108, 1.10456839362071276844e-01) (109, 3.40020829130719237643e-01) (110, -4.73082683340072529532e-01) (111, -1.05189504264997046867e+00) (112, 1.81299450864305589093e+00) (113, 5.22873072336653588188e-01) (114, -4.83328536028171731886e-03) (115, 3.37567075533356242278e-01) (116, -3.80568745296068378092e-01) (117, 1.05363093964461840280e+00) (118, 1.69596711107646003214e+00) (119, 3.86102841778882543977e-01) (120, 1.08891327837493875896e-01) (121, 1.17747501109706176337e+00) (122, -6.08533829455023322907e-01) (123, 9.49391880635670815103e-01) (124, 2.62991033238779869929e-01) (125, -2.30449735477883665968e-01) (126, 5.53973343662633732620e-01) (127, 1.58422965342705418523e-01) (128, 8.24845203998930354139e-01) (129, 1.66903760321260241639e+00) (130, 1.71007816374027155071e+00) (131, -5.71802333475637136750e-01) (132, -1.18980952414847102050e-01) (133, 2.80811124901249986596e-01) (134, 3.33674560838090550341e-01) (135, -3.35305440186601189101e-01) (136, 1.28095326849651836021e+00) (137, 2.05590503862096207754e+00) (138, -1.07402322846511619203e-01) (139, -4.06585938489728127010e-01) (140, 6.54148206880660665341e-01) (141, 1.46239807554899314823e+00) (142, 1.07366101873053887417e+00) (143, 2.05898902945561301792e+00) (144, -1.01210843119960380854e+00) (145, -7.33280479786988403923e-01) (146, -3.01992182998482794343e-01) (147, 2.47458312243394484842e-01) (148, 1.14132122525037904559e+00) (149, 2.83421352832459727544e-01) (150, 5.02610427249261082494e-01) (151, 3.91246570678117425168e-02) (152, 1.36791097843037778858e+00) (153, 4.31563986414811695536e-01) (154, 1.15109464542511097385e+00) (155, 1.32535070290243606195e+00) (156, 5.44540769022857529258e-01) (157, 9.58702759185227626482e-01) (158, -2.14865126661785948992e-01) (159, 2.60046043605887844397e-01) (160, -4.21964088997727526653e-01) (161, 1.43683551654394170427e-01) (162, -3.95404739817760766951e-02) (163, -3.16005429031424311948e-01) (164, 1.31833816051560637206e+00) (165, 1.29362694359673491284e+00) (166, -9.18915102870306976790e-01) (167, 1.13510120957436844158e+00) (168, 2.15434781455819263085e-01) (169, 9.66507814268534826141e-01) (170, -3.41744475417879167711e-01) (171, 1.23373991645395619798e+00) (172, 5.07022458032904688174e-01) (173, 1.06708149985833866680e+00) (174, 1.11115350026216697099e-01) (175, 5.72993077439117981520e-01) (176, 7.11324193115038028168e-01) (177, -1.56365604324342655218e-01) (178, 1.46369545154100522133e+00) (179, 7.27670817522551360845e-01) (180, 3.73728734972126996894e-01) (181, 2.20827254083505508664e-01) (182, 8.83008117211395049395e-01) (183, -2.30671535977334807299e-01) (184, -4.68467669330014657714e-01) (185, 4.24930097957391117447e-01) (186, 1.10635542153201926752e+00) (187, 8.90669673141365358937e-01) (188, 8.01333879594982145811e-01) (189, -2.76515587515005267782e-01) (190, 2.81684255700292873748e-01) (191, 1.94242962147788467142e-01) (192, 3.35104019456631097018e-01) (193, 6.00040918421299473984e-01) (194, 1.20920700700776095893e+00) (195, -5.25312484478415372968e-03) (196, 5.78628020943275811483e-01) (197, 8.93213423280477036847e-01) (198, -4.76494811571810839013e-01) (199, -3.95073001047381300310e-01) (200, 7.84070686970705255092e-01) (201, -5.11776469826817015374e-01) (202, 1.19450246350737043777e+00) (203, -2.93189575682027692149e-01) (204, 3.28429657700755051053e-01) (205, -7.26549719924611037136e-01) (206, 1.18324066885931999948e+00) (207, -3.95610455340273448055e-01) (208, 1.08770420345660812078e-01) (209, 1.01262312954348732141e+00) (210, -2.85123350862770859326e-02) (211, 4.86107177327867012728e-01) (212, -1.51481622296443657616e-01) (213, -6.11408983384242543657e-01) (214, 1.35272932935983480895e+00) (215, 3.64285993534173291319e-01) (216, 2.35744078031665971196e-01) (217, 9.16900842450428910091e-01) (218, -2.49381522661873383795e-01) (219, -6.88711023701877200764e-01) (220, -2.31575361111205468845e-01) (221, 4.72937471914841922604e-01) (222, -7.15473867889450554358e-01) (223, 3.03214949389320864714e-01) (224, 2.28844566970949153673e-01) (225, 5.48022846566597277018e-01) (226, 1.33110260511729050492e+00) (227, 9.51322603099395314175e-01) (228, 3.33432791995313393407e-01) (229, -3.89331945412201563261e-01) (230, 1.55901186935243174503e+00) (231, 1.22624015179770418094e+00) (232, -3.94065780071518045879e-01) (233, 1.04173187308831871611e+00) (234, 6.66249826862364558089e-02) (235, 1.05502068301318097099e+00) (236, 2.46719571593047470870e+00) (237, -5.05226803899952670029e-01) (238, 1.07899461965469134483e+00) (239, 7.65019057462628521149e-02) (240, -3.54628588202384797956e-01) (241, 3.26627472580580724415e-01) (242, -8.07459776623765945747e-02) (243, 2.91752855746162977069e-02) (244, 9.57425350120408857890e-02) (245, -4.75631055749087428008e-01) (246, 1.42810127638376060943e+00) (247, -2.27755053885168395889e-01) (248, -1.22011790547879528379e-01) (249, -3.11318386299512472881e-01) (250, -5.23881018756171767947e-01) (251, -8.05363519585301640413e-02) (252, 1.16593605429460223100e+00) (253, 1.80592090837770141709e-01) (254, 1.53853225060815379521e+00) (255, 1.21334850432664720365e+00) (256, 1.00703890063408318944e+00) (257, 1.13304855588857478210e+00) (258, 1.17107556601912565775e+00) (259, 7.24889958728490851891e-02) (260, 1.53261688876212009980e+00) (261, 5.42410031542874038202e-01) (262, -3.20515344056577444753e-01) (263, -5.86431686904743232347e-01) (264, 5.75851873663197122433e-01) (265, 4.73071727343755965567e-01) (266, 1.25859722910350524394e+00) (267, 1.84873470201263268020e-01) (268, 3.60333272932904236097e-01) (269, 7.29804779419967908360e-01) (270, 1.36944852063732125380e+00) (271, 7.34920583213781286602e-01) (272, -2.07744946106575761879e-01) (273, -7.24463007288237981207e-01) (274, 1.13006668141002530881e+00) (275, 2.64244271995070945103e-01) (276, -5.55414510271824424237e-02) (277, 8.98107161549374533038e-01) (278, 3.84019105102708369071e-01) (279, -2.02281917016590595537e-01) (280, -7.14654893994598472418e-01) (281, 6.03552583479658677490e-01) (282, 8.11240956140210078829e-01) (283, 1.21868400255661457621e+00) (284, 1.53401828543787432935e+00) (285, 3.24980899804278022813e-01) (286, 7.66578630541034033996e-01) (287, 8.75211390442668157874e-01) (288, 4.96104055607390181937e-01) (289, 6.62668902553249949960e-01) (290, -3.19253612814309639667e-01) (291, 5.76192429653201027007e-02) (292, -4.51084203205298517325e-01) (293, -2.93277711571117427614e-01) (294, 1.78146154313595372898e-01) (295, 4.86906410008227930053e-01) (296, 5.04789087727094076818e-01) (297, -1.91247536513873966912e-01) (298, -5.97753286599091770981e-01) (299, -3.77801419199367549684e-01) (300, 3.41445184903805998289e+00) (301, 2.23167689433991034420e+00) (302, 1.79139505567598877889e+00) (303, 3.97910546155419764247e+00) (304, 2.50623903308684647939e+00) (305, -1.45484778898787325829e+00) (0, 1.23442813955358321465e+00) (1, 1.43600437246373946465e+00) (2, 1.44431260429433638848e+00) (3, 2.41163151051758006815e+00) (4, 2.16187028672455028300e+00) (5, 1.11964325692413724234e+00) (6, 9.94086726431491762845e-01) (7, 1.89426712276496811427e+00) (8, 1.70190017524218406564e+00) (9, 2.19257320093891072688e+00) (10, 2.39514241890855839046e+00) (11, 1.82853272055887705605e+00) (12, 1.71721197460810581781e+00) (13, 1.95730885344967608930e+00) (14, 1.71916246366355962572e+00) (15, 1.76788679394351477825e+00) (16, 1.05674028907464623295e+00) (17, 1.74879009476347713203e+00) (18, 1.58496251496374873646e+00) (19, 2.25362041107762589576e+00) (20, 8.51660455385333525768e-01) (21, 7.11207432553982998868e-01) (22, 1.00103247906542347501e+00) (23, 1.58226909068000232139e+00) (24, 1.56089398932503597983e+00) (25, 1.11804258992002902851e+00) (26, 1.15871748496817050800e+00) (27, 1.33819939529116216370e+00) (28, 2.48301351749361609578e+00) (29, 1.14100727325851436511e+00) (30, 1.14830297767711297929e+00) (31, 1.04366732380818150183e+00) (32, 2.00959502190658545473e+00) (33, 1.94893709435148942966e+00) (34, 8.45239374327276693499e-01) (35, 1.55026235577865389992e+00) (36, 2.19473235743572292478e+00) (37, 1.58878393777525162012e-01) (38, 6.32362980975961219698e-01) (39, 1.49232119970591359248e+00) (40, 7.45319187446967790223e-01) (41, 2.53297711505412381783e+00) (42, 5.62725878732965090201e-01) (43, -1.36540641300911880229e+00) (44, 1.75411998763285281733e+00) (45, 1.77481635464681697378e+00) (46, 9.62352683617039406094e-01) (47, 2.36483815441747191599e+00) (48, 1.15844533822577644422e+00) (49, -4.21580656229180306127e+00) (50, 1.82086963657482470147e+00) (51, 1.51888047368216039246e+00) (52, 2.04888293643559871171e+00) (53, 2.44906939097942633055e+00) (54, 7.08285327566816169664e-01) (55, -2.13368083729011681626e+00) (56, 6.73660152192082528622e-01) (57, 1.36319580468589207634e+00) (58, 1.66358781508705910746e+00) (59, 7.84365437645626273344e-01) (60, 1.91366223179915384556e+00) (61, 1.98082156364818962047e+00) (62, 1.04726828801966820315e+00) (63, 1.35084283604067145745e+00) (64, 1.49282629907677466541e+00) (65, 1.36394508980235884543e+00) (66, 2.36153023130459427392e+00) (67, 1.20910147561340641786e+00) (68, 1.97047730932888920385e+00) (69, 2.44197435674876173195e+00) (70, 2.19518500317527776033e+00) (71, 2.15659136400704998238e+00) (72, 2.36027552223843972712e+00) (73, 2.87554878082567011433e+00) (74, 2.46341905666072324976e+00) (75, 1.55723359070959288530e+00) (76, 1.33609477799523124197e+00) (77, 1.67638615055218664907e+00) (78, 1.29268689490003074738e+00) (79, 3.51600743296974815877e+00) (80, 4.47780631219351565875e+00) (81, 2.60894536374256524880e+00) (82, 7.57274772754035874200e-01) (83, 2.25339174443013678939e+00) (84, 2.37423748602735118496e+00) (85, 2.53896919849747293441e+00) (86, 3.89349378386212086056e+00) (87, 2.62794178445787318665e+00) (88, 1.68909860009443679729e+00) (89, 1.44524431401021624666e+00) (90, 6.44187019004015870571e-01) (91, 9.30078197464425548979e-01) (92, 5.45950460073565513319e-01) (93, 1.26251610802262237421e+00) (94, 1.66758663506699345014e+00) (95, 1.70917753518492787634e+00) (96, 1.97890460132150614037e+00) (97, 1.57831379683980199680e+00) (98, 2.13957616793662808163e+00) (99, 1.36891701785151220783e+00) (100, 1.02693630020252046897e+00) (101, 1.71726430014975584015e+00) (102, 2.33476441452634997376e+00) (103, 1.01689458456190351399e+00) (104, 1.59119213660323355342e+00) (105, 1.43132289099560305878e+00) (106, 1.62199996974197535593e+00) (107, 1.84653948313988536256e+00) (108, 2.78639012699547539142e+00) (109, 2.56700211738897055014e+00) (110, 1.31436077500603265555e+00) (111, 6.52691641666255595311e-01) (112, 2.15985499187896357043e+00) (113, -1.79440583239642986735e-02) (114, 2.77907129521366869085e+00) (115, 2.33447747161883079059e+00) (116, 2.57788016762441951624e-01) (117, 2.04205244474406333310e+00) (118, 1.57678752883256168005e+00) (119, 2.34544080514251351843e+00) (120, 8.34860502688925087966e-01) (121, 2.47796073461689525530e+00) (122, 1.20373563296769847675e-01) (123, 1.12446093694704818411e+00) (124, 2.27822494340721837247e+00) (125, 2.91598169371999649258e+00) (126, 2.13202382321045114111e+00) (127, 1.89589131577395519912e+00) (128, 2.71463248598168860326e+00) (129, 1.67107241954426721797e+00) (130, -7.57772584137050397857e-01) (131, 6.18593687854949392246e-01) (132, 9.55627142287302944190e-01) (133, 1.01659526126919774747e+00) (134, -2.15969272401124123828e-01) (135, 1.41803628335029485719e+00) (136, 1.74654172880985680827e+00) (137, 3.58654958239973931100e+00) (138, 5.86272058232682136136e-01) (139, 1.55155040610939032319e+00) (140, 1.17163829142900288716e+00) (141, 1.00209095418892135676e+00) (142, 1.62776479344294600082e+00) (143, 2.17603010038751681909e-01) (144, 9.44330829275303873516e-01) (145, 3.03635810652595994341e+00) (146, 3.17309001374579180421e+00) (147, 2.37068861449205003922e+00) (148, 8.22571439479547250606e-01) (149, 1.01787819863114314956e+00) (150, 1.56253840123271192653e+00) (151, 7.96299286057930988392e-01) (152, 2.19176685810308269353e+00) (153, 2.37797550200881913085e+00) (154, -3.20525576888345398174e+00) (155, -2.43221750627425947755e+00) (156, 6.79291577004114022209e-01) (157, -6.22761285191141378270e-01) (158, 7.96523635500316795621e-01) (159, 9.67734845642027829982e-01) (160, 1.67996466442672987007e+00) (161, 1.79526877429835951538e+00) (162, -3.56144653485710449559e-02) (163, 1.17046638793957380464e+00) (164, 6.73403356738907277190e-01) (165, 1.88278532863173331258e+00) (166, 5.18963785278167488713e+00) (167, 1.94383419439945903662e+00) (168, -6.14664382964876104820e-02) (169, 5.36726483201962256686e-01) (170, 1.16653689149113226620e+00) (171, 1.79716110884724655783e+00) (172, 5.91090208851824261416e+00) (173, 9.57742450772361419986e-01) (174, 1.11525323888717076137e+00) (175, 2.06807386103245605113e+00) (176, 8.38580757099372409158e-01) (177, 1.62104238203113970584e+00) (178, 2.46583757483276144740e+00) (179, -3.68568287073146860777e+00) (180, 1.70174756547866246059e+00) (181, 1.63680101394621657640e+00) (182, 1.17950139805043940910e+00) (183, 6.64267366234271183778e-01) (184, 1.78517423979263933909e+00) (185, -1.02357430223850798257e+01) (186, 6.98379769582360587776e-01) (187, 4.63788686130339411484e-01) (188, 1.01278163460788106498e+00) (189, 2.23438470886192108722e+00) (190, 1.24864066498909509484e+00) (191, 4.71986907549664658212e-01) (192, 1.59913517143874162052e+00) (193, 1.88590241078211495740e+00) (194, 3.48117108098343064349e-01) (195, 1.31455682359635717127e+00) (196, 9.34609496385948146369e-01) (197, 1.17377129086858134066e+00) (198, 1.94934343499161877311e+00) (199, 9.17689118935179015679e-01) (200, 1.15772631294523331569e+00) (201, 1.57493372934409081587e+00) (202, 2.59324650678937951298e+00) (203, 2.59174876837504308824e+00) (204, 2.20385085743882402909e+00) (205, 1.06268391920714644350e+00) (206, 2.03763062778079184767e+00) (207, 1.41319100448385892577e+00) (208, 2.78927526833997863065e+00) (209, 2.10487963299313252108e+00) (210, 8.80388635384655504623e-01) (211, 2.19111560270772987025e+00) (212, 1.45652781034076772571e+00) (213, 5.38483896069205214552e-01) (214, 2.34698305228283077284e+00) (215, 1.02371380907231657176e+00) (216, 1.20851256910325899341e+00) (217, 2.47807575946589819793e+00) (218, 1.23834364848642741741e+00) (219, 1.98951007430072279725e+00) (220, 2.22618683408881068431e+00) (221, 7.26978798875457243867e-01) (222, 2.61982632282397887025e+00) (223, 1.23924160449513154347e+00) (224, 2.51973560568169396845e+00) (225, 5.57051159385875349628e-01) (226, 1.85804605846570614069e+00) (227, 6.94780669545979723267e-01) (228, 1.14803392294071149315e+00) (229, 1.32380141130015638318e+00) (230, 2.01560830082033248800e+00) (231, 2.02812549064716707292e+00) (232, 2.27757659184147476239e+00) (233, 1.16452259541602121118e+00) (234, 2.03864164173674744518e+00) (235, 2.03111358795583996084e+00) (236, 2.63119873056646369491e+00) (237, 1.91800578909509944481e+00) (238, 6.49333208108216597410e-01) (239, 1.91591094842922471386e+00) (240, 1.67882527662127256640e+00) (241, 1.29226311074221134056e+00) (242, 2.14825186582778160371e+00) (243, 1.01693314784055566236e+00) (244, 1.07746327318708789988e+00) (245, 1.32161212163129415664e+00) (246, 1.77837845269461491959e+00) (247, 2.06230852343444004404e+00) (248, 1.81710628053638756363e+00) (249, 9.01556712530546700002e-01) (250, 1.40808477290760691858e+00) (251, 1.02814416605973835139e+00) (252, 1.06044515954959361892e+00) (253, 1.66740732261443280748e+00) (254, 2.01739844177629068511e+00) (255, 9.48098411230246074233e-01) (256, 1.41489325187488224067e+00) (257, 9.29411750777648926203e-01) (258, 1.57710057971888550910e+00) (259, 2.21456627914213832753e+00) (260, 1.96372060388266023168e+00) (261, 9.06453853372772067054e-01) (262, 1.36131272525707647247e+00) (263, 1.30768620403530855256e+00) (264, 1.99115561471927260406e+00) (265, 1.04422435030089455488e+00) (266, 1.04518193504165246566e+00) (267, 1.90188348668619044979e+00) (268, 2.32742877401325021225e+00) (269, 9.67449861678079892080e-01) (270, 1.70440410416066989718e+00) (271, 1.31562891832620620924e+00) (272, 1.95171946298246257179e+00) (273, 1.14777617851469937449e+00) (274, 1.72048590494950581764e+00) (275, 2.38057665937350604324e+00) (276, 2.34012060556286183299e+00) (277, 7.99733662064458061813e-01) (278, 2.05874681338415843612e+00) (279, 1.45937150042348817713e+00) (280, 1.06122123594188511042e+00) (281, 1.10518717634952023943e+00) (282, 2.14389572281588502989e+00) (283, 1.40824774254457074640e+00) (284, 2.10310138173227345604e+00) (285, 1.41892934724128871871e+00) (286, 1.69920003983722600616e+00) (287, 1.09657850559171099469e+00) (288, 2.00649721918314982716e+00) (289, 2.58846956990537613308e+00) (290, 2.65963518891860273285e+00) (291, 1.26728684085412868221e+00) (292, 8.52880381278879440288e-01) (293, 1.67035336070526363450e+00) (294, 2.25837821267423599636e+00) (295, 2.15463000415428851397e+00) (296, 2.06359487651451711798e+00) (297, 2.59889932250530986124e+00) (298, 1.40179501252123039912e+00) (299, 1.71819148735948723505e+00) (300, -1.05679257837920093088e+00) (301, 6.47344469578039261037e-01) (302, -8.10154876737539497711e-01) (303, 7.39155278347783628590e+00) (304, 7.62313174460161757651e+00) (305, -2.82176709109503265349e-01) (306, 2.65440420861663683993e+00) (0, 2.55625462403766934294e-01) (1, 1.05368305280075769126e+00) (2, -8.14926819576196753703e-02) (3, 6.99655403504261474978e-01) (4, 1.14102285960174376633e+00) (5, -1.33664809946169221844e-01) (6, 2.70922658133716576234e-01) (7, 6.82000468512849455927e-02) (8, 1.18575445362870057764e+00) (9, -1.18307047000443549961e-02) (10, 7.68800892129085644555e-01) (11, 7.85989058236573501226e-01) (12, 1.63001944512472241033e-02) (13, 8.89286971899794775887e-01) (14, 1.92153539070467858918e-02) (15, -3.47773025325400886310e-01) (16, 1.52376192525371467745e+00) (17, 9.02037750138912491904e-02) (18, -2.05000890765934973281e-01) (19, 8.98880463022297515607e-01) (20, 3.25153148981858153288e-01) (21, 7.84763086346768834467e-01) (22, 1.01844586846796050783e-01) (23, 5.71123552080730640529e-03) (24, 5.05055381152853866134e-01) (25, -1.57735790517170765268e-01) (26, 7.03812514957074086830e-01) (27, -4.32169528589181506373e-01) (28, -3.51646029779680124872e-01) (29, 8.16566535229139800478e-01) (30, 9.61432426875966084090e-02) (31, 3.88166610691706881475e-01) (32, 3.38169970567915700865e-01) (33, 4.45114901115484462579e-01) (34, 1.45690134980329766279e+00) (35, -1.69694912676932790907e-01) (36, 7.22771709569653308947e-01) (37, 1.96483769472334285355e-01) (38, 4.06311533935518109928e-01) (39, 3.39319619001546224357e-01) (40, 5.24279314792777562104e-01) (41, 1.53216069028001644625e+00) (42, -4.47127271335515663608e-01) (43, 1.06352614812949575196e+00) (44, 9.40417157242508849890e-01) (45, -8.72828982605407671658e-02) (46, 1.05299292402052624418e+00) (47, 8.37038585529668144325e-01) (48, 6.33490625332547296900e-01) (49, 1.37453516831494138017e+00) (50, 2.51086262815750027588e-01) (51, 1.22625571384832565691e+00) (52, 4.48170085798110406916e-01) (53, 6.37242440527654663285e-01) (54, -1.01695280086387326857e-01) (55, -3.54708105808940743486e-01) (56, 1.05313862331466534528e+00) (57, 9.40408375289115361362e-01) (58, -3.77266115273951319065e-01) (59, 1.03832640129868991608e+00) (60, 2.58394941068117445226e-01) (61, 2.56377841318435439888e-01) (62, -9.20624266612731362303e-02) (63, 9.29573448883759034800e-01) (64, 1.12108733903053181535e+00) (65, -2.73592729266764533858e-01) (66, 1.29240300518620943038e+00) (67, 3.70132976461483242936e-01) (68, 3.83495084568974353711e-01) (69, 4.19967804137244479779e-02) (70, 1.14022434661280436252e+00) (71, 1.32687123714941113128e+00) (72, 6.28750794354135111863e-02) (73, 1.03180097850080376709e+00) (74, 5.78374954880679137403e-01) (75, 1.37498173894796660299e+00) (76, -3.25777496152767409576e-01) (77, 3.06554099691661419147e-01) (78, 6.54830828493679684144e-01) (79, 5.25301539801440009470e-01) (80, -1.52929283866142656789e-01) (81, 1.31896447583555698202e+00) (82, 5.34099305343024521875e-01) (83, 8.41950581231466710364e-01) (84, 4.89183705800090462557e-01) (85, 6.46744897550480257742e-01) (86, 6.20435559630899358119e-01) (87, -6.07240707762290443661e-02) (88, -5.74714065674140905937e-03) (89, 9.39669359115387514692e-01) (90, 1.47132834589205407916e+00) (91, 6.79115995097501312650e-01) (92, -5.16660272263748554522e-01) (93, -2.48348895144796133483e-01) (94, 5.23702981259453748120e-02) (95, 1.18038699609632424803e+00) (96, -7.75782832292983420830e-02) (97, -3.39021847713890212006e-01) (98, -2.26046517426486487379e-01) (99, 5.08745509938324236288e-01) (100, 4.39569809376764264464e-01) (101, -4.36911992664296144895e-01) (102, 4.66609773420828433110e-01) (103, 6.42781993194253220558e-01) (104, 9.60752441530196010788e-01) (105, -4.88275288125421924601e-01) (106, 9.36591608578412282426e-01) (107, 1.71542992501024871288e+00) (108, 1.53944968018803751697e-01) (109, -4.03865938479167740915e-01) (110, 3.22650730247034833731e-01) (111, 6.99987207698479108053e-01) (112, 1.62023647698309170018e+00) (113, 1.53152804129045816417e+00) (114, 8.66424086337946874892e-02) (115, 1.95243391683213196597e-01) (116, 5.17686666787682048252e-01) (117, -3.55630670972503726279e-01) (118, 8.92780937522207107548e-01) (119, 1.60186972291628793030e+00) (120, 1.17383069194050126960e+00) (121, 3.89794044121210214726e-01) (122, 3.12990281737546949259e-01) (123, -5.52803370159292484232e-01) (124, 5.11273690291727977986e-01) (125, 9.32243452379295733934e-01) (126, 1.36253677962478048080e+00) (127, 8.89396712236771636029e-01) (128, 1.13193627789783968218e+00) (129, -3.77560428533583902766e-01) (130, 4.03198933584357721571e+00) (131, 4.83146206813580336714e-01) (132, -1.63838368854924532059e-01) (133, 6.77744611985255374087e-01) (134, 9.40001851818088596247e-01) (135, -7.19665390180951103360e-01) (136, 5.53093350731404309606e-01) (137, 2.60432004184607615582e-02) (138, 1.25664432448673180076e+00) (139, -5.15813909992411279148e-01) (140, -3.82669758615337349261e-02) (141, -6.41098933009884436318e-02) (142, -1.58969653296823043576e+00) (143, -9.48205608689056816951e-02) (144, 8.10885478803963916095e-02) (145, -3.84139779894286492734e-01) (146, -5.92284760357240758211e-01) (147, 1.23573169583176545316e+00) (148, -1.30553174817474704206e+00) (149, 1.72311234323184153672e-01) (150, 9.14484077526121930113e-01) (151, -1.47027009013445605912e-02) (152, 1.03460565316613295472e+00) (153, -1.92779676701346103229e-01) (154, 1.81337988368111963089e-01) (155, 4.62043288925458539573e-01) (156, 1.40765452671770385784e+00) (157, -1.57356087891818069435e-01) (158, -1.38175207473412497983e-01) (159, 1.21091838163932474792e+00) (160, 7.89083853232313003900e-01) (161, 5.19735744628091911324e-01) (162, -1.90681970129883304743e-01) (163, 5.53287483715751315927e-01) (164, 1.98288211488973264984e+00) (165, 1.60934592930355591101e+00) (166, 4.38566785425217986472e-01) (167, 1.48386409459687484969e+00) (168, 4.02846782241333856156e-01) (169, 3.46675499016982358036e-01) (170, 1.74938197693631197760e-01) (171, 1.27554346109332628068e+00) (172, 9.63121787438881549193e-01) (173, 1.36102483385898853641e+00) (174, 1.33206945514750992043e-02) (175, 1.58852925760881924511e+00) (176, -7.50510252273869082895e-02) (177, 1.47817640454347065671e+00) (178, 9.74987981424703997746e-01) (179, 5.23670227881524175118e-01) (180, 1.16833664646822044109e-01) (181, 4.98428012933631092718e-01) (182, 9.85519354076244802343e-01) (183, -2.99092509984235699338e-01) (184, 8.70297141272034280313e-01) (185, 2.07881986966086973467e+00) (186, 4.31756733570031803193e-01) (187, 2.90811923245837822272e-01) (188, -3.88414659834144360140e-01) (189, 7.93542839355675155844e-01) (190, 2.23637287033305598438e-01) (191, 3.15431296489388224291e-01) (192, -3.25522988914364264090e-01) (193, 1.59119834630749024118e-01) (194, 1.37092465207564934149e-01) (195, 1.31756456605011146310e-01) (196, 4.38421755941223401098e-01) (197, 1.77656165904402640887e-01) (198, 1.24009812946384745391e-01) (199, 9.98000063476035426113e-01) (200, 3.66474329968268397462e-01) (201, 4.47463836594157615689e-01) (202, 8.46978872930533643881e-01) (203, 3.20766591055006378141e-01) (204, 2.41432998653345054496e-01) (205, 1.06462207818866283482e+00) (206, 5.22322142254719387622e-02) (207, 8.16459433314712934582e-01) (208, 1.15158558706388713944e+00) (209, -2.61630475001671969348e-01) (210, -4.78125004798380492943e-01) (211, -5.16822787268244376868e-01) (212, 6.70293192316326669200e-01) (213, 1.16993006602411631079e+00) (214, -1.99211904809599327226e-01) (215, 8.21506263721124146970e-02) (216, 9.46455699877655098895e-01) (217, 4.86500867734895259265e-01) (218, 7.84987974737598181996e-01) (219, 1.15416095166927301641e+00) (220, 2.59890478910423383674e-02) (221, -3.45925320734501939857e-01) (222, -2.37913269038290631219e-01) (223, -1.54041833661631655250e-01) (224, 2.65571447737958210578e-01) (225, 1.42998557946051341183e+00) (226, 7.48666041973650386865e-01) (227, 1.32729725669444209579e+00) (228, -9.81775135705686002874e-02) (229, 1.19670922653699451921e+00) (230, 8.42916799357630641687e-01) (231, 1.26173538603765833521e+00) (232, 1.59352393541060483040e-01) (233, 1.65809690795353792403e-01) (234, -6.39367426807884303708e-02) (235, 9.41800638614211038657e-01) (236, -2.23947071855730123202e-01) (237, 6.61013130422049122181e-01) (238, 1.81459815607927843484e-01) (239, 1.35009610992543360730e+00) (240, 1.02780611065105387247e+00) (241, 2.30186997089968148344e-01) (242, 1.45364365712995136093e+00) (243, 3.01912246118515026350e-01) (244, -2.49554990130205850418e-01) (245, -3.43342414810618890009e-01) (246, 7.84020260671042024114e-01) (247, 1.13517187996295643160e+00) (248, 8.17703575856228659369e-01) (249, 2.50029302744702419670e-01) (250, 6.28318058056095529729e-01) (251, 1.18025254198162921071e+00) (252, 3.26014031684329019800e-01) (253, 7.88258875075170784008e-01) (254, -3.08146113023975376510e-01) (255, 1.21338612151513847159e+00) (256, 6.36755783857817947435e-01) (257, 7.93923384635024764755e-01) (258, 8.90068626961266318176e-01) (259, 8.69800506690831642942e-01) (260, 3.96915305264641582461e-01) (261, 1.50784166212326847800e-01) (262, 4.91272462027795231432e-01) (263, 9.44193016480306290816e-01) (264, 6.61826964925112060101e-01) (265, 8.18497610219150906197e-01) (266, 2.43118530058985204967e-01) (267, 8.79581546762634447489e-01) (268, -1.03539445087013862179e-01) (269, 8.16956593773418338067e-01) (270, 6.35734142749343811296e-01) (271, 1.30262614171782487027e+00) (272, 1.31451234210589684714e+00) (273, 5.14049942668514225907e-01) (274, 4.65431481848534028822e-02) (275, -3.60015745341414006297e-01) (276, 4.65734872325202831078e-01) (277, 1.11356939447548408673e+00) (278, 1.04733099378117677780e+00) (279, -1.74522407896441633657e-01) (280, -8.52730366168944903249e-02) (281, 2.29916361173812117125e-01) (282, 1.30414739559485703957e+00) (283, 6.36973201276371692181e-01) (284, 1.30555247697621790159e+00) (285, 1.56023583135513965736e+00) (286, 2.83149978672687485659e-01) (287, 4.25459436700790394337e-01) (288, 6.38526710290596710706e-01) (289, -4.39609650721797140527e-01) (290, -3.05308903511145812715e-01) (291, -3.89771566817820880324e-01) (292, 1.36362754307759265204e-01) (293, 6.27761051296859440285e-01) (294, 8.57166682999126017251e-01) (295, 1.24261338517122621461e+00) (296, -2.53232238787875152397e-01) (297, -3.37155176372944842544e-01) (298, 5.26271836965991446355e-01) (299, 1.73439860002285339835e-01) (300, 1.56885128832202069837e+00) (301, 1.87484553874998116640e+00) (302, -4.99336908440415006005e-01) (303, 1.56843404782110229512e+00) (304, 1.04153317704756265272e+00) (305, 1.97339628295912294931e+00) (306, -8.26858540613421899579e-01) (307, 2.13242723736194328410e+00) (0, 1.95550794475238265413e+00) (1, 3.28050728624926402066e-01) (2, 7.24066680343792179464e-01) (3, 8.15464383037731388448e-01) (4, 3.88279982055858396972e-01) (5, 2.18435943690125755623e+00) (6, 3.31959288794097728825e+00) (7, 1.35277032799569219002e+00) (8, 2.17997270304260037932e+00) (9, 2.45362236432148472787e+00) (10, 2.47312118939472691537e+00) (11, 2.11291923926723379523e+00) (12, 1.85014717039120024644e+00) (13, 2.02620388409959550913e+00) (14, 3.29975963449187714716e+00) (15, 1.51650075013776297617e+00) (16, 1.05372385079999442148e+00) (17, 8.22340373094514132113e-01) (18, 2.69757712697692353387e+00) (19, 1.81389600848861110016e+00) (20, 1.58641393884613912668e+00) (21, 2.21584040007743232614e-01) (22, -9.32263068042666065427e-02) (23, -5.52535249193745747753e-01) (24, 9.63935632552650689675e-01) (25, 9.50442631091621858985e-01) (26, 2.03638776048615399716e+00) (27, 7.07858928991749958293e-01) (28, 4.02518974051418676474e-01) (29, -1.11085242204796275090e+00) (30, 1.13578449956725080483e+00) (31, 1.07826349906275709145e+00) (32, 1.39495297543356855385e+00) (33, 9.34489820607508625550e-01) (34, -9.36897901875267113958e-01) (35, -1.52287722965104999062e+00) (36, 1.37782274953673322671e+00) (37, 1.53573935500929792397e+00) (38, 1.51208568062194959047e+00) (39, 8.20526113041537774606e-01) (40, 1.43826123569884667397e-01) (41, -3.75516129931049935653e-01) (42, 1.02125786941150842324e+00) (43, 2.91358968424914888118e+00) (44, 1.03171386640080586794e+00) (45, -4.61943543587199911826e-01) (46, -9.25562693079548637343e-01) (47, -2.76442719935304694751e-03) (48, 1.47369316916565118447e+00) (49, 1.44525083708881019184e+00) (50, 2.24270845549404596042e+00) (51, -2.77322961290913272414e-01) (52, 4.48611740923034740813e-02) (53, 5.21243012413989070808e-01) (54, 2.22778610091308637564e+00) (55, 1.94774510024841829292e+00) (56, 2.41572420991009773061e+00) (57, 3.73724470024282606762e-01) (58, 6.28112296841313089146e-01) (59, -7.66034115769694823328e-01) (60, 2.39725789237140229915e+00) (61, 5.23646068412622511801e-01) (62, 1.08937697804516897548e+00) (63, 1.32490763331956484805e+00) (64, -5.70449967601130980555e-01) (65, -2.20732647373508950039e-01) (66, 1.38072037506221367842e+00) (67, 9.79044942596462131057e-01) (68, 2.33186401485260619282e+00) (69, 3.83621725097365362522e-01) (70, -1.08502330203277930210e+00) (71, 9.69132600285300682685e-02) (72, 1.48905298503377248043e-01) (73, 3.03977024468788881162e-01) (74, 9.17707483916296862247e-01) (75, 4.62846748424132259370e-01) (76, -1.02027245183212622592e+00) (77, -8.52772015526127580287e-01) (78, 4.26773041390296037356e-01) (79, -8.30055178176205832319e-02) (80, -1.85250728202944386913e-01) (81, 7.55688122082313062933e-01) (82, -7.52802866890263322475e-01) (83, 4.64010876224209167784e-01) (84, -5.49554307489838245182e-01) (85, 9.46998970239175896779e-01) (86, 1.27717095367921085192e-01) (87, 1.75468426187094062030e+00) (88, -5.39481955959629777553e-01) (89, -2.18584019138645446745e-01) (90, -1.45894495305720267586e-01) (91, -9.21756012947388292389e-01) (92, 3.53949529816434890761e-02) (93, 8.26792769027311580388e-01) (94, -1.23048617263061821347e+00) (95, 5.00775974795986011934e-01) (96, -7.26002126078107878904e-01) (97, -8.16045211484424104498e-01) (98, -4.00824712445727149301e-01) (99, -9.11181303604097214688e-02) (100, 6.05471163387955590984e-01) (101, -6.16129060013210876068e-03) (102, 2.41787832472124403216e-01) (103, -1.24648934774636299672e+00) (104, 4.37920404741773072743e-01) (105, 1.24083866937200348879e+00) (106, -1.01333080868222763504e-01) (107, -1.11651154210825920288e+00) (108, 3.65932982656755778628e-01) (109, -1.10017453482409477417e+00) (110, -1.53180200364789992351e-01) (111, 9.59267877173821226222e-01) (112, 6.90819223099147006195e-01) (113, -9.81024782250621840696e-01) (114, -6.11688541104785432623e-01) (115, -3.34820555379381934458e-01) (116, -1.46860782601474793019e+00) (117, 2.73636740897218011526e-01) (118, 8.14230583447251576867e-02) (119, -7.87401057940687459924e-02) (120, 5.07242644169033973789e-01) (121, 6.15280086729910122290e-02) (122, -1.71591566731921163491e-01) (123, 6.28630390620602774732e-01) (124, -4.50645492241975198500e-01) (125, -1.08196960954894882967e+00) (126, 1.10582995477686019115e-01) (127, -6.08856009175769319341e-01) (128, -3.52685841638431174516e+00) (129, 8.45851912333372535358e-01) (130, 