FANN_FLO_2.1
num_layers=5
learning_rate=0.700000
connection_rate=1.000000
network_type=1
learning_momentum=0.000000
training_algorithm=2
train_error_function=1
train_stop_function=0
cascade_output_change_fraction=0.010000
quickprop_decay=-0.000100
quickprop_mu=1.750000
rprop_increase_factor=1.200000
rprop_decrease_factor=0.500000
rprop_delta_min=0.000000
rprop_delta_max=50.000000
rprop_delta_zero=0.100000
cascade_output_stagnation_epochs=12
cascade_candidate_change_fraction=0.010000
cascade_candidate_stagnation_epochs=12
cascade_max_out_epochs=150
cascade_max_cand_epochs=150
cascade_num_candidate_groups=2
bit_fail_limit=3.49999999999999977796e-01
cascade_candidate_limit=1.00000000000000000000e+03
cascade_weight_multiplier=4.00000000000000022204e-01
cascade_activation_functions_count=10
cascade_activation_functions=3 5 7 8 10 11 14 15 16 17 
cascade_activation_steepnesses_count=4
cascade_activation_steepnesses=2.50000000000000000000e-01 5.00000000000000000000e-01 7.50000000000000000000e-01 1.00000000000000000000e+00 
layer_sizes=301 1 1 1 13 
scale_included=0
neurons (num_inputs, activation_function, activation_steepness)=(0, 0, 0.00000000000000000000e+00) (0, 0, 0.00000000000000000000e+00) (0, 0, 0.00000000000000000000e+00) (0, 0, 0.00000000000000000000e+00) (0, 0, 0.00000000000000000000e+00) (0, 0, 0.00000000000000000000e+00) (0, 0, 0.00000000000000000000e+00) (0, 0, 0.00000000000000000000e+00) (0, 0, 0.00000000000000000000e+00) (0, 0, 0.00000000000000000000e+00) (0, 0, 0.00000000000000000000e+00) (0, 0, 0.00000000000000000000e+00) (0, 0, 0.00000000000000000000e+00) (0, 0, 0.00000000000000000000e+00) (0, 0, 0.00000000000000000000e+00) (0, 0, 0.00000000000000000000e+00) (0, 0, 0.00000000000000000000e+00) (0, 0, 0.00000000000000000000e+00) (0, 0, 0.00000000000000000000e+00) (0, 0, 0.00000000000000000000e+00) (0, 0, 0.00000000000000000000e+00) (0, 0, 0.00000000000000000000e+00) (0, 0, 0.00000000000000000000e+00) (0, 0, 0.00000000000000000000e+00) (0, 0, 0.00000000000000000000e+00) (0, 0, 0.00000000000000000000e+00) (0, 0, 0.00000000000000000000e+00) (0, 0, 0.00000000000000000000e+00) (0, 0, 0.00000000000000000000e+00) (0, 0, 0.00000000000000000000e+00) (0, 0, 0.00000000000000000000e+00) (0, 0, 0.00000000000000000000e+00) (0, 0, 0.00000000000000000000e+00) (0, 0, 0.00000000000000000000e+00) (0, 0, 0.00000000000000000000e+00) (0, 0, 0.00000000000000000000e+00) (0, 0, 0.00000000000000000000e+00) (0, 0, 0.00000000000000000000e+00) (0, 0, 0.00000000000000000000e+00) (0, 0, 0.00000000000000000000e+00) (0, 0, 0.00000000000000000000e+00) (0, 0, 0.00000000000000000000e+00) (0, 0, 0.00000000000000000000e+00) (0, 0, 0.00000000000000000000e+00) (0, 0, 0.00000000000000000000e+00) (0, 0, 0.00000000000000000000e+00) (0, 0, 0.00000000000000000000e+00) (0, 0, 0.00000000000000000000e+00) (0, 0, 0.00000000000000000000e+00) (0, 0, 0.00000000000000000000e+00) (0, 0, 0.00000000000000000000e+00) (0, 0, 0.00000000000000000000e+00) (0, 0, 0.00000000000000000000e+00) (0, 0, 0.00000000000000000000e+00) (0, 0, 0.00000000000000000000e+00) (0, 0, 0.00000000000000000000e+00) (0, 0, 0.00000000000000000000e+00) (0, 0, 0.00000000000000000000e+00) (0, 0, 0.00000000000000000000e+00) (0, 0, 0.00000000000000000000e+00) (0, 0, 0.00000000000000000000e+00) (0, 0, 0.00000000000000000000e+00) (0, 0, 0.00000000000000000000e+00) (0, 0, 0.00000000000000000000e+00) (0, 0, 0.00000000000000000000e+00) (0, 0, 0.00000000000000000000e+00) (0, 0, 0.00000000000000000000e+00) (0, 0, 0.00000000000000000000e+00) (0, 0, 0.00000000000000000000e+00) (0, 0, 0.00000000000000000000e+00) (0, 0, 0.00000000000000000000e+00) (0, 0, 0.00000000000000000000e+00) (0, 0, 0.00000000000000000000e+00) (0, 0, 0.00000000000000000000e+00) (0, 0, 0.00000000000000000000e+00) (0, 0, 0.00000000000000000000e+00) (0, 0, 0.00000000000000000000e+00) (0, 0, 0.00000000000000000000e+00) (0, 0, 0.00000000000000000000e+00) (0, 0, 0.00000000000000000000e+00) (0, 0, 0.00000000000000000000e+00) (0, 0, 0.00000000000000000000e+00) (0, 0, 0.00000000000000000000e+00) (0, 0, 0.00000000000000000000e+00) (0, 0, 0.00000000000000000000e+00) (0, 0, 0.00000000000000000000e+00) (0, 0, 0.00000000000000000000e+00) (0, 0, 0.00000000000000000000e+00) (0, 0, 0.00000000000000000000e+00) (0, 0, 0.00000000000000000000e+00) (0, 0, 0.00000000000000000000e+00) (0, 0, 0.00000000000000000000e+00) (0, 0, 0.00000000000000000000e+00) (0, 0, 0.00000000000000000000e+00) (0, 0, 0.00000000000000000000e+00) (0, 0, 0.00000000000000000000e+00) (0, 0, 0.00000000000000000000e+00) (0, 0, 0.00000000000000000000e+00) (0, 0, 0.00000000000000000000e+00) (0, 0, 0.00000000000000000000e+00) (0, 0, 0.00000000000000000000e+00) (0, 0, 0.00000000000000000000e+00) (0, 0, 0.00000000000000000000e+00) (0, 0, 0.00000000000000000000e+00) (0, 0, 0.00000000000000000000e+00) (0, 0, 0.00000000000000000000e+00) (0, 0, 0.00000000000000000000e+00) (0, 0, 0.00000000000000000000e+00) (0, 0, 0.00000000000000000000e+00) (0, 0, 0.00000000000000000000e+00) (0, 0, 0.00000000000000000000e+00) (0, 0, 0.00000000000000000000e+00) (0, 0, 0.00000000000000000000e+00) (0, 0, 0.00000000000000000000e+00) (0, 0, 0.00000000000000000000e+00) (0, 0, 0.00000000000000000000e+00) (0, 0, 0.00000000000000000000e+00) (0, 0, 0.00000000000000000000e+00) (0, 0, 0.00000000000000000000e+00) (0, 0, 0.00000000000000000000e+00) (0, 0, 0.00000000000000000000e+00) (0, 0, 0.00000000000000000000e+00) (0, 0, 0.00000000000000000000e+00) (0, 0, 0.00000000000000000000e+00) (0, 0, 0.00000000000000000000e+00) (0, 0, 0.00000000000000000000e+00) (0, 0, 0.00000000000000000000e+00) (0, 0, 0.00000000000000000000e+00) (0, 0, 0.00000000000000000000e+00) (0, 0, 0.00000000000000000000e+00) (0, 0, 0.00000000000000000000e+00) (0, 0, 0.00000000000000000000e+00) (0, 0, 0.00000000000000000000e+00) (0, 0, 0.00000000000000000000e+00) (0, 0, 0.00000000000000000000e+00) (0, 0, 0.00000000000000000000e+00) (0, 0, 0.00000000000000000000e+00) (0, 0, 0.00000000000000000000e+00) (0, 0, 0.00000000000000000000e+00) (0, 0, 0.00000000000000000000e+00) (0, 0, 0.00000000000000000000e+00) (0, 0, 0.00000000000000000000e+00) (0, 0, 0.00000000000000000000e+00) (0, 0, 0.00000000000000000000e+00) (0, 0, 0.00000000000000000000e+00) (0, 0, 0.00000000000000000000e+00) (0, 0, 0.00000000000000000000e+00) (0, 0, 0.00000000000000000000e+00) (0, 0, 0.00000000000000000000e+00) (0, 0, 0.00000000000000000000e+00) (0, 0, 0.00000000000000000000e+00) (0, 0, 0.00000000000000000000e+00) (0, 0, 0.00000000000000000000e+00) (0, 0, 0.00000000000000000000e+00) (0, 0, 0.00000000000000000000e+00) (0, 0, 0.00000000000000000000e+00) (0, 0, 0.00000000000000000000e+00) (0, 0, 0.00000000000000000000e+00) (0, 0, 0.00000000000000000000e+00) (0, 0, 0.00000000000000000000e+00) (0, 0, 0.00000000000000000000e+00) (0, 0, 0.00000000000000000000e+00) (0, 0, 0.00000000000000000000e+00) (0, 0, 0.00000000000000000000e+00) (0, 0, 0.00000000000000000000e+00) (0, 0, 0.00000000000000000000e+00) (0, 0, 0.00000000000000000000e+00) (0, 0, 0.00000000000000000000e+00) (0, 0, 0.00000000000000000000e+00) (0, 0, 0.00000000000000000000e+00) (0, 0, 0.00000000000000000000e+00) (0, 0, 0.00000000000000000000e+00) (0, 0, 0.00000000000000000000e+00) (0, 0, 0.00000000000000000000e+00) (0, 0, 0.00000000000000000000e+00) (0, 0, 0.00000000000000000000e+00) (0, 0, 0.00000000000000000000e+00) (0, 0, 0.00000000000000000000e+00) (0, 0, 0.00000000000000000000e+00) (0, 0, 0.00000000000000000000e+00) (0, 0, 0.00000000000000000000e+00) (0, 0, 0.00000000000000000000e+00) (0, 0, 0.00000000000000000000e+00) (0, 0, 0.00000000000000000000e+00) (0, 0, 0.00000000000000000000e+00) (0, 0, 0.00000000000000000000e+00) (0, 0, 0.00000000000000000000e+00) (0, 0, 0.00000000000000000000e+00) (0, 0, 0.00000000000000000000e+00) (0, 0, 0.00000000000000000000e+00) (0, 0, 0.00000000000000000000e+00) (0, 0, 0.00000000000000000000e+00) (0, 0, 0.00000000000000000000e+00) (0, 0, 0.00000000000000000000e+00) (0, 0, 0.00000000000000000000e+00) (0, 0, 0.00000000000000000000e+00) (0, 0, 0.00000000000000000000e+00) (0, 0, 0.00000000000000000000e+00) (0, 0, 0.00000000000000000000e+00) (0, 0, 0.00000000000000000000e+00) (0, 0, 0.00000000000000000000e+00) (0, 0, 0.00000000000000000000e+00) (0, 0, 0.00000000000000000000e+00) (0, 0, 0.00000000000000000000e+00) (0, 0, 0.00000000000000000000e+00) (0, 0, 0.00000000000000000000e+00) (0, 0, 0.00000000000000000000e+00) (0, 0, 0.00000000000000000000e+00) (0, 0, 0.00000000000000000000e+00) (0, 0, 0.00000000000000000000e+00) (0, 0, 0.00000000000000000000e+00) (0, 0, 0.00000000000000000000e+00) (0, 0, 0.00000000000000000000e+00) (0, 0, 0.00000000000000000000e+00) (0, 0, 0.00000000000000000000e+00) (0, 0, 0.00000000000000000000e+00) (0, 0, 0.00000000000000000000e+00) (0, 0, 0.00000000000000000000e+00) (0, 0, 0.00000000000000000000e+00) (0, 0, 0.00000000000000000000e+00) (0, 0, 0.00000000000000000000e+00) (0, 0, 0.00000000000000000000e+00) (0, 0, 0.00000000000000000000e+00) (0, 0, 0.00000000000000000000e+00) (0, 0, 0.00000000000000000000e+00) (0, 0, 0.00000000000000000000e+00) (0, 0, 0.00000000000000000000e+00) (0, 0, 0.00000000000000000000e+00) (0, 0, 0.00000000000000000000e+00) (0, 0, 0.00000000000000000000e+00) (0, 0, 0.00000000000000000000e+00) (0, 0, 0.00000000000000000000e+00) (0, 0, 0.00000000000000000000e+00) (0, 0, 0.00000000000000000000e+00) (0, 0, 0.00000000000000000000e+00) (0, 0, 0.00000000000000000000e+00) (0, 0, 0.00000000000000000000e+00) (0, 0, 0.00000000000000000000e+00) (0, 0, 0.00000000000000000000e+00) (0, 0, 0.00000000000000000000e+00) (0, 0, 0.00000000000000000000e+00) (0, 0, 0.00000000000000000000e+00) (0, 0, 0.00000000000000000000e+00) (0, 0, 0.00000000000000000000e+00) (0, 0, 0.00000000000000000000e+00) (0, 0, 0.00000000000000000000e+00) (0, 0, 0.00000000000000000000e+00) (0, 0, 0.00000000000000000000e+00) (0, 0, 0.00000000000000000000e+00) (0, 0, 0.00000000000000000000e+00) (0, 0, 0.00000000000000000000e+00) (0, 0, 0.00000000000000000000e+00) (0, 0, 0.00000000000000000000e+00) (0, 0, 0.00000000000000000000e+00) (0, 0, 0.00000000000000000000e+00) (0, 0, 0.00000000000000000000e+00) (0, 0, 0.00000000000000000000e+00) (0, 0, 0.00000000000000000000e+00) (0, 0, 0.00000000000000000000e+00) (0, 0, 0.00000000000000000000e+00) (0, 0, 0.00000000000000000000e+00) (0, 0, 0.00000000000000000000e+00) (0, 0, 0.00000000000000000000e+00) (0, 0, 0.00000000000000000000e+00) (0, 0, 0.00000000000000000000e+00) (0, 0, 0.00000000000000000000e+00) (0, 0, 0.00000000000000000000e+00) (0, 0, 0.00000000000000000000e+00) (0, 0, 0.00000000000000000000e+00) (0, 0, 0.00000000000000000000e+00) (0, 0, 0.00000000000000000000e+00) (0, 0, 0.00000000000000000000e+00) (0, 0, 0.00000000000000000000e+00) (0, 0, 0.00000000000000000000e+00) (0, 0, 0.00000000000000000000e+00) (0, 0, 0.00000000000000000000e+00) (0, 0, 0.00000000000000000000e+00) (0, 0, 0.00000000000000000000e+00) (0, 0, 0.00000000000000000000e+00) (0, 0, 0.00000000000000000000e+00) (0, 0, 0.00000000000000000000e+00) (0, 0, 0.00000000000000000000e+00) (0, 0, 0.00000000000000000000e+00) (0, 0, 0.00000000000000000000e+00) (0, 0, 0.00000000000000000000e+00) (0, 0, 0.00000000000000000000e+00) (0, 0, 0.00000000000000000000e+00) (0, 0, 0.00000000000000000000e+00) (0, 0, 0.00000000000000000000e+00) (0, 0, 0.00000000000000000000e+00) (0, 0, 0.00000000000000000000e+00) (0, 0, 0.00000000000000000000e+00) (0, 0, 0.00000000000000000000e+00) (0, 0, 0.00000000000000000000e+00) (0, 0, 0.00000000000000000000e+00) (0, 0, 0.00000000000000000000e+00) (0, 0, 0.00000000000000000000e+00) (0, 0, 0.00000000000000000000e+00) (0, 0, 0.00000000000000000000e+00) (0, 0, 0.00000000000000000000e+00) (0, 0, 0.00000000000000000000e+00) (301, 15, 5.00000000000000000000e-01) (302, 15, 1.00000000000000000000e+00) (303, 15, 2.50000000000000000000e-01) (304, 5, 5.00000000000000000000e-01) (304, 5, 5.00000000000000000000e-01) (304, 5, 5.00000000000000000000e-01) (304, 5, 5.00000000000000000000e-01) (304, 5, 5.00000000000000000000e-01) (304, 5, 5.00000000000000000000e-01) (304, 5, 5.00000000000000000000e-01) (304, 5, 5.00000000000000000000e-01) (304, 5, 5.00000000000000000000e-01) (304, 5, 5.00000000000000000000e-01) (304, 5, 5.00000000000000000000e-01) (304, 5, 5.00000000000000000000e-01) (304, 5, 5.00000000000000000000e-01) 
connections (connected_to_neuron, weight)=(0, 6.27092034497566563900e-01) (1, 8.06934726946659575120e-01) (2, 3.26275442052550657124e-01) (3, 1.13688630005446000837e+00) (4, 2.15581864258375732746e+00) (5, 1.01823532721128962031e+00) (6, 1.23882724919467057667e+00) (7, 1.28752555921179023812e+00) (8, 7.91978224139126885106e-01) (9, 4.67464396545314131437e-01) (10, 1.61645886725986231980e+00) (11, 1.76376066035831202683e+00) (12, 3.75374162929907106978e-01) (13, 1.68267335418329588848e+00) (14, 3.74737144821023659969e-01) (15, 2.21267644816650488337e+00) (16, 1.24061178488578716106e+00) (17, 2.23189135661506599106e+00) (18, -2.43335714864444024874e-01) (19, 4.30458061176076156595e-01) (20, 7.22887718667617029666e-01) (21, 3.70721226028430439481e-01) (22, 2.06440280572073575627e+00) (23, 4.73569089540673504590e-01) (24, -3.34811666207387281791e-01) (25, 2.25772739315013604156e+00) (26, 1.53988803670926732714e+00) (27, 1.14428806614901645844e+00) (28, 2.10433982145224751648e+00) (29, 4.16916548738264891583e-01) (30, 2.98163159082195650118e-01) (31, 5.43119909576223136582e-01) (32, 1.23687612224301624053e+00) (33, 4.52493764634318840212e-01) (34, 1.38010506204675165165e+00) (35, 8.99493662184785103264e-01) (36, 1.18888653765004748131e+00) (37, 4.61212145325686329045e-01) (38, 1.98886342160611317986e+00) (39, 1.81407777113694712590e+00) (40, 5.88591308187230044524e-01) (41, 1.29025535562564952485e+00) (42, 1.27801339181800721612e+00) (43, 1.90146450227856234072e+00) (44, 1.00024593501011582752e+00) (45, 1.35451469252589373760e+00) (46, 1.43462092778479943789e+00) (47, 1.63820091083945107435e+00) (48, 1.30808914620008631680e+00) (49, 2.02993812847418197975e+00) (50, 1.45561325438196198512e+00) (51, 1.92679527000990979957e+00) (52, 1.73358993512131975834e+00) (53, 1.49914031781133272325e+00) (54, 2.05854586499743552608e+00) (55, 2.22722368780406787536e+00) (56, 6.16446736529084216016e-01) (57, 1.32528211377769555845e+00) (58, 7.72338705288468041488e-01) (59, 1.13593664315510056717e+00) (60, 1.26013358724430979407e+00) (61, 8.20224903852138309546e-01) (62, 1.34070730512316704797e+00) (63, 2.61629522445125994867e-01) (64, 1.12287779505176077421e+00) (65, 5.84825485241807996317e-01) (66, 8.76391367481592964417e-01) (67, 2.07837048241268496085e+00) (68, 7.20527828523875313316e-01) (69, 6.42409142671184762996e-01) (70, 1.70445145759477267866e+00) (71, 1.14535854734284536782e+00) (72, 1.71057758949147431515e+00) (73, 7.60027257892111673954e-01) (74, 3.78756023486776394193e-01) (75, 2.11359811813649578482e+00) (76, 1.84576978778210309962e+00) (77, 1.55178050374258313937e+00) (78, 1.52771850755078242301e+00) (79, 9.25130234781049054504e-01) (80, 9.20271338922083348422e-01) (81, 9.62559317820812054833e-01) (82, 6.02005515077170483274e-01) (83, 3.91314470374243439377e-01) (84, 2.36779342966212585919e-01) (85, 5.20343887176699881891e-01) (86, 1.97480929965906293333e+00) (87, 1.26236983499141275367e+00) (88, 1.59741732131599944999e+00) (89, 5.27050319411439316397e-01) (90, 2.15846669862902640347e+00) (91, 7.81113767037617812150e-01) (92, 1.19197153819461476587e+00) (93, 1.36794178324044501949e+00) (94, 9.53570310272409904506e-01) (95, 2.10400700623020364688e+00) (96, 1.67615408180433056451e+00) (97, 1.36355260500941422031e+00) (98, 1.92368515046230470489e+00) (99, 2.82257154257803677400e-01) (100, 2.12276664675698167883e+00) (101, 1.47504054425694874908e+00) (102, 1.11688297706591899150e+00) (103, 1.20681586788308581326e+00) (104, 8.50773856987198318080e-01) (105, 1.35951549339424460072e+00) (106, 1.77893835581518389155e+00) (107, 1.51912213270740004134e+00) (108, 5.86454589277246252088e-01) (109, 3.70952866834799166451e-01) (110, -1.67708237225495798706e-01) (111, 1.35997620371010130569e+00) (112, 1.79130771769942676030e+00) (113, 3.90529001229334538081e-01) (114, 1.49894355560305858610e+00) (115, 1.67280131234087048320e+00) (116, 1.07301695699994481537e+00) (117, 1.31916229251982253246e+00) (118, 4.03489205855376176224e-01) (119, -5.94973158429591375551e+00) (120, 1.69728626136968263616e+00) (121, 7.34559746932229029603e-01) (122, 1.16544522956941820624e+00) (123, 6.74612292724152573520e-01) (124, 1.21684066993455997086e+00) (125, -1.07158113098065421731e+00) (126, 6.10966054004900671615e-01) (127, 1.39137582937957127172e+00) (128, 1.34009421525501370986e+00) (129, 3.28428561246407846319e-01) (130, 5.13235901191820165224e-01) (131, 9.35220199205821245414e+00) (132, 1.64359768916691573182e+00) (133, 3.63517474296208176199e-01) (134, 8.76727489895041789403e-01) (135, 1.36284338972385765665e+00) (136, 4.82931521152630497534e-03) (137, 2.52071195794684710378e+00) (138, 8.29621895783253293644e-01) (139, 2.25890222121737949124e+00) (140, 1.02471921324948511689e+00) (141, 8.86837683512205487979e-01) (142, -2.39405357461422685361e+00) (143, -1.48602329312773795422e+00) (144, 1.42004474777711453548e+00) (145, 8.04948024100017089921e-01) (146, 1.68921521538826069353e+00) (147, 2.18216129154146720737e+00) (148, 8.90852797849427058274e-01) (149, 1.23081306841533599794e+00) (150, 4.34084557416619942760e-01) (151, 9.84249666324004679474e-01) (152, 3.87272172682114612652e-01) (153, 1.40076882932993651565e+00) (154, 7.01316972301399332856e-01) (155, 2.31847989074748728200e+00) (156, 9.20701253592395962855e-01) (157, 1.73002016852604101338e+00) (158, 1.01141178159634370637e+00) (159, 1.93623972249508069510e+00) (160, -6.23587242989641007962e-02) (161, -1.41079589391951559785e-01) (162, 8.04214129861558379986e-01) (163, 1.25304400543701466297e+00) (164, 2.20656017198822940184e-01) (165, 1.04961806618013775427e+00) (166, 1.13442379674165677583e-01) (167, 9.57077273090504276887e-01) (168, 6.38665681624663417182e-01) (169, 1.01530281706251446217e+00) (170, -1.35019319011467198166e+00) (171, 8.65363388914074604941e-01) (172, 9.67448420838387446175e-01) (173, 5.35991805087129158380e+00) (174, 5.05505314650025794343e-01) (175, 7.70577612254128796465e-01) (176, 3.38180811033734152193e-01) (177, 1.55661666858236724664e+00) (178, 4.80665138143984593810e-01) (179, 6.93581918758852888907e-01) (180, 1.17507749831019636666e+00) (181, 9.06828929577670139750e-01) (182, -4.80158863709616634541e-01) (183, 1.21053370225479817179e+00) (184, 1.55927287862663210838e+00) (185, 2.37130587484816829358e-01) (186, 9.48405726692711947834e-01) (187, 5.19793987339977059392e-01) (188, -1.38493835009235888300e+00) (189, 1.32160389163789893097e+00) (190, -6.71190699748033470229e-01) (191, 2.87264619879342542053e-01) (192, 1.71457740639793687620e+00) (193, 9.68020115716149542884e-01) (194, -2.93299684385185832625e+00) (195, 1.16754203558688907094e+00) (196, 1.68113665138262358134e+00) (197, -4.15261712849218228572e-02) (198, 9.54898375749381411737e-01) (199, 3.96181650847138744354e-01) (200, 1.55945892852511502902e+00) (201, 6.28403325983425298240e-01) (202, 9.89433166493271176734e-01) (203, 1.43948579976584212226e+00) (204, 1.21568438135183187754e+00) (205, 1.30694793650424334608e+00) (206, 2.20693474973264702754e+00) (207, 2.97708762941143290082e-01) (208, 6.05700657622080473885e-01) (209, 7.61009725386509905398e-01) (210, 1.30275856890448626935e+00) (211, 1.60021682097022299729e+00) (212, 1.78240337407080562393e+00) (213, 4.57084871441657769608e-01) (214, 6.23585740266713317581e-01) (215, 9.72763348039576314363e-01) (216, 8.62372035167302208869e-01) (217, 1.35615464449798328594e+00) (218, 4.14779858078269059174e-01) (219, 6.92895537052391041755e-01) (220, 8.83628746329675585081e-01) (221, 9.31436455156358644736e-02) (222, 2.22401150171269224032e+00) (223, 4.00222923729644519675e-01) (224, 1.82260428710494259974e+00) (225, 8.31418999313670137319e-01) (226, 1.93329921485593914099e+00) (227, 8.46662551435048760240e-01) (228, 1.70355494920719974239e+00) (229, 6.54619813080109969050e-01) (230, 1.88805191711632347484e+00) (231, 1.55523650064558549566e+00) (232, 2.20428202348652169107e+00) (233, 5.48043098224352931425e-01) (234, 7.10367778648747116854e-01) (235, 1.14634860506416602632e+00) (236, 1.79543208359105177507e+00) (237, 7.49552965965578854579e-01) (238, 1.64808652597370719484e+00) (239, 2.07498013593072716532e+00) (240, 1.38861534487742233068e+00) (241, 6.72101859431889714358e-01) (242, 1.58522251945061110057e+00) (243, 9.91301291740799728203e-01) (244, 1.00805282212610247683e+00) (245, 1.88915512758198356202e+00) (246, 5.07937214534637027086e-01) (247, 1.59754108533835958994e+00) (248, 1.08373744053275733457e+00) (249, 7.09964771652232706778e-01) (250, 2.08809926716595040119e+00) (251, 1.69334023550834755767e+00) (252, 1.27581127895362178570e+00) (253, 2.04061410543793986250e+00) (254, 1.86096741129050036179e+00) (255, 7.80917457797339564785e-01) (256, 6.56367345206634089649e-01) (257, 1.52205805117806369786e+00) (258, 2.05221982081849363411e+00) (259, 2.09976543396728132507e+00) (260, 1.89685721570715570827e+00) (261, 1.53451307456063523738e+00) (262, 1.34003682772683396784e+00) (263, 1.88166249081063696735e+00) (264, 1.78096382149467213907e+00) (265, 1.77374237015472036028e+00) (266, 7.28282802232830817069e-01) (267, 1.16784407536553636042e+00) (268, 3.34703314546646313321e-01) (269, 2.21124761485804199879e+00) (270, 9.41366144289670470080e-01) (271, 1.38251868475256811664e+00) (272, 5.38228185126667257876e-01) (273, 2.15866488952825452685e+00) (274, 2.13434345713414375112e+00) (275, 1.38074917013663034382e+00) (276, 1.73808161887779322186e+00) (277, 3.72429747991943393970e-01) (278, 6.43475958939401904146e-01) (279, 5.09650879436515213960e-01) (280, 8.57575258948849561413e-01) (281, 5.11261400297449486452e-01) (282, 1.89955988460907132520e+00) (283, 1.88111056863174530562e+00) (284, 3.04364087257953108701e-01) (285, 1.49352645794570504378e+00) (286, 4.35288800778401707703e-01) (287, 7.36662893799415741114e-01) (288, 7.69210867573164702726e-01) (289, 2.45401893987108626893e-01) (290, 6.02471958453174694093e-01) (291, 4.56919277673128176875e-01) (292, 1.49620838148678658719e+00) (293, 1.66571078877868350432e+00) (294, 2.12395981641323894351e+00) (295, 1.11397161846921433082e+00) (296, 1.27852145524533300502e+00) (297, 5.93351828122937074994e-01) (298, 1.94893639944111707329e+00) (299, 1.23069975953521426604e+00) (300, -1.37280086409874946263e+00) (0, -1.23615223235093760201e-01) (1, 7.69592665381953477954e-01) (2, 1.10787169330696055880e+00) (3, 1.16098958276360519903e+00) (4, 3.13083424372260998858e-01) (5, -1.91308410085359925645e-01) (6, 8.71403314938162809611e-01) (7, -6.13452171353065289772e-01) (8, -5.57940298488968311474e-01) (9, 1.06866153559118437499e+00) (10, -6.21812338114451357285e-01) (11, -1.42918892748429116057e-01) (12, 1.16284226094355735981e+00) (13, 1.11687334561916526421e-01) (14, 9.53189054728936335792e-01) (15, 2.69021429765949338098e-01) (16, 1.07583176043712391845e+00) (17, 1.75559832429525969344e-01) (18, -6.05399533364083364262e-01) (19, 1.12646611066700796933e+00) (20, 8.63303646040378902526e-01) (21, -4.51299558347873497333e-01) (22, -5.52141042332240705726e-01) (23, 1.15695450657733434063e+00) (24, 1.35981172454378840264e+00) (25, 1.21973592184428136775e+00) (26, 4.96662690842670784264e-01) (27, -5.09732624412687074233e-01) (28, 4.48313508447889530473e-01) (29, 3.52119593953242160378e-01) (30, 1.92290209655418126156e-01) (31, 1.38193090870316748209e+00) (32, 2.05868070244831169457e-01) (33, 2.73068485285282880337e-01) (34, 1.12472847621170246590e+00) (35, 1.07239996485163868734e+00) (36, 9.58963916916350411768e-01) (37, 2.24894616331308450086e+00) (38, -4.22003063684734169847e-01) (39, 1.18264984715859777786e+00) (40, 6.95294712746295839878e-01) (41, -5.61710315969009887915e-01) (42, -2.82593719158598821739e-01) (43, 8.74541075181785032555e-01) (44, 5.02190194037699377816e-01) (45, -4.03378698528583989891e-01) (46, -2.51614244810864473578e-01) (47, -1.85229739373475116304e-01) (48, 2.31728691647062001735e-01) (49, -8.07596807968972707492e-02) (50, -1.34873742350442998861e-01) (51, 4.59956336485445482776e-01) (52, 5.73498472210294263363e-01) (53, 4.77460391517518734084e-01) (54, 3.45828666882537105742e-01) (55, -1.80862151861770259487e+00) (56, -5.40526125914211452717e-01) (57, -5.36253111532574600062e-01) (58, 8.56926563041664701714e-01) (59, -2.61150301606054235926e-01) (60, 5.38469872549294459319e-01) (61, -6.13801941711922038891e-01) (62, -7.12824214187410820642e-01) (63, 1.38311477745188748933e+00) (64, 1.08654850797126312223e+00) (65, -3.63458059626868668079e-01) (66, 1.24104606844727416437e+00) (67, 6.15067582521366285064e-01) (68, 1.16149942515058191006e+00) (69, -6.12196652471359681336e-01) (70, 7.84707250042497417297e-01) (71, 8.23423212303860951877e-01) (72, -3.41846969334979156052e-01) (73, -6.69959427879797453365e-01) (74, 2.44562683444260464682e-01) (75, 9.05377374066699713850e-01) (76, -1.50534046957182698900e-01) (77, 9.44115601146914951158e-01) (78, -1.31984430739356933121e-02) (79, 1.14393226049697438462e+00) (80, -3.09161997086633943965e-01) (81, 1.04842472832953803596e+00) (82, 3.04002541477936760739e-01) (83, 9.05396858914732760582e-01) (84, 3.42809466894991310415e-01) (85, 1.25515365407118917318e+00) (86, 9.59134221629464045478e-02) (87, -4.75570678888417308627e-01) (88, -4.13605318984836656249e-01) (89, -4.59100208196488113188e-01) (90, -2.78779173774344357639e-01) (91, 5.79211485154994432101e-01) (92, 2.59920954194764075584e-01) (93, 5.65748977396765689862e-02) (94, 8.48775527869602086639e-01) (95, -1.36810869973588905557e-01) (96, 2.81777940484378708330e-01) (97, 7.87438180116821651033e-01) (98, 1.37335021912512500464e+00) (99, 2.30134733924625134449e-01) (100, 7.62206562021846556476e-01) (101, 6.93061786453730399593e-01) (102, -1.47439412033791211742e-01) (103, 1.47448212745741513707e+00) (104, 7.18261858574333000860e-01) (105, 7.21291745024451036450e-01) (106, 2.98808695887434527805e+00) (107, 1.45431515150595180863e+00) (108, 2.94437613954009802519e-01) (109, 1.15734881186789806407e+00) (110, 1.04113872560749443075e+00) (111, 1.00975714959337925514e+00) (112, 1.10249293431051675896e+00) (113, -4.73990774243376530861e-03) (114, 5.75887135877921174654e-01) (115, -3.75917764889082961499e-01) (116, -8.30934317864969601564e-02) (117, 9.77281923186824830196e-01) (118, -4.74315914573159747025e-01) (119, 1.57672675010854090871e+00) (120, 1.49638578938346089586e+00) (121, 7.37508942540519574216e-02) (122, 1.22487863100931493321e+00) (123, -3.83701889819853189656e-02) (124, -7.41371983864501427064e-01) (125, -5.87897058029570462878e+00) (126, 4.80701067063570186555e-01) (127, -7.83910199746852692781e-02) (128, -4.73626003353946223307e-01) (129, 1.89617026683025352574e-01) (130, 7.05415693234191509831e-01) (131, 1.31513433281340519354e-01) (132, -2.69225362190775419080e-01) (133, 9.20669055012384718317e-01) (134, -1.49289583580636953108e+00) (135, 8.71738047072364907741e-01) (136, 7.11622246940702307683e-01) (137, 2.01721640271143032308e+00) (138, 9.29769943210122407073e-01) (139, 1.05456749511547909215e+00) (140, 6.16677726892092992195e-01) (141, 4.22533371720940242877e-01) (142, 5.91830586382496193210e-01) (143, 5.40318756021579282844e+00) (144, 1.16226341801158095102e+00) (145, 6.38643586232708115880e-01) (146, -5.68916974780611428564e-01) (147, -4.03513789175973969225e-01) (148, 4.82717927835765447941e-01) (149, 1.96953944236083278163e+00) (150, 2.18466307245409385729e-01) (151, -5.32888377215061659342e-01) (152, 1.20713745913908016005e-01) (153, 7.79107103212887952548e-02) (154, -1.48119467418376737911e+00) (155, 1.98228419541206424270e+00) (156, -7.72566633060118190812e-01) (157, -4.02359541444278878686e-01) (158, 4.14558542308034516655e-01) (159, -7.04665753515850701305e-01) (160, 2.37933619282522501592e+00) (161, 2.67180623402170702718e+00) (162, 9.41171487440250476020e-01) (163, 1.42555016914331633693e+00) (164, -3.82521600315736731712e-01) (165, -8.35895906144333067367e-01) (166, -3.14191995730362660932e-01) (167, 1.55195727855174381293e-01) (168, -3.56344392236761842163e-01) (169, 6.21321267299042800936e-01) (170, -6.88924470261895294243e-01) (171, 9.10940986158515930704e-01) (172, -1.15547622937283644973e+00) (173, -9.47630063720429488550e-02) (174, -2.04908985525549258710e-01) (175, -8.14165946156183539806e-01) (176, -5.20173770026521209431e-01) (177, 1.01068230281802406978e+00) (178, 6.34635863969217228764e-01) (179, 8.44207001756321684383e-01) (180, 1.74519294904206867525e-01) (181, 2.33260855318241727696e-01) (182, 6.99649692820830892970e-01) (183, 9.34182335555014398132e-03) (184, 6.40110332398499291481e-04) (185, 1.65493094985081135029e-01) (186, 1.43089048233308524516e+00) (187, -1.16654372893973984349e-01) (188, 1.06760489285178605812e+00) (189, 1.06627284570232339078e+00) (190, 2.76858719251838955588e-02) (191, 2.41942565698907902094e-01) (192, 6.68507814684501100455e-02) (193, -6.07340305183562342850e-02) (194, 8.35611742557185621649e-01) (195, 4.22243445988881305198e-01) (196, 5.55301505667504691210e-01) (197, -6.47038468374167563546e-02) (198, -3.93611550268174015255e-01) (199, 9.72418172035228178807e-01) (200, 8.09164838726683766090e-01) (201, 5.19721613147000272015e-01) (202, 1.14463188710024921235e+00) (203, -5.19227512673796298692e-01) (204, 2.20601030632433720013e-01) (205, -5.40849923361506057518e-01) (206, -6.81998176744257111892e-01) (207, -1.38180225513899745948e-01) (208, 1.03967919386444407337e+00) (209, -2.90455202828217018407e-01) (210, 3.36735552657859815717e-01) (211, -1.77680836116404589076e-01) (212, -4.28986942846676322372e-01) (213, 1.08854127163205291473e-01) (214, 4.96030313281576706874e-01) (215, 1.14972128660068478867e-01) (216, 1.20175389329935855542e+00) (217, 6.16872091072581563154e-01) (218, 9.37767964480749172118e-01) (219, 8.39018146640450934726e-01) (220, 2.46891989161126562680e-01) (221, -2.68072037900308923764e-01) (222, 4.89669840053186394835e-02) (223, 1.02842008311062205195e+00) (224, 2.43901406308895896125e-01) (225, 1.11068069110094813645e+00) (226, -1.50242220454104125071e-01) (227, -3.75206530626847167831e-01) (228, -2.47623098166981442381e-01) (229, 1.44692413051406010283e-01) (230, 7.95539520393927723774e-01) (231, -5.44506986573072060409e-01) (232, 1.35037383633568608410e+00) (233, 6.77077425727477644202e-01) (234, -7.17010989814442889489e-01) (235, 1.46013858935918588999e-01) (236, 5.82786188942019500736e-01) (237, -6.01632137883085227337e-01) (238, 5.99089696031104734786e-01) (239, 6.27366709036517145037e-01) (240, 1.93841267249483861779e-01) (241, -2.84773132750656299272e-01) (242, 8.27414737564150848392e-01) (243, 4.82162170980994120306e-01) (244, 4.16173814444092793341e-01) (245, 3.20374584147569141379e-01) (246, -5.89008819557965801472e-01) (247, 2.17812886147837919681e-01) (248, -8.11855792488163308107e-01) (249, 8.05287957833549006281e-01) (250, -3.51142298176976008772e-01) (251, 3.51797361844703893041e-01) (252, 1.18391071041042295064e+00) (253, 3.02392349728932308128e-01) (254, -2.23076250440970763611e-01) (255, 1.18607839625061495248e-01) (256, 4.60776886759325168819e-02) (257, 2.25568680897651502315e-01) (258, 3.78451946225607516183e-01) (259, 3.65304392189314097728e-01) (260, 9.84419795364251282166e-01) (261, 2.65470848708238116309e-01) (262, 4.43585587002948311675e-01) (263, 9.22969510204317056257e-01) (264, -1.86523067763776556616e-01) (265, 4.86935494558922099539e-01) (266, -9.41604818712649255241e-02) (267, -5.15982915228153760090e-01) (268, 7.18436086553390307330e-01) (269, -7.12324910746343964441e-01) (270, 9.63585335251256669409e-01) (271, -3.38073013037440472939e-01) (272, -1.74074440412118142119e-01) (273, 8.83524965724816757628e-01) (274, 9.44886523657167076706e-01) (275, 1.03125242461326838139e+00) (276, 1.50748343493673445798e-02) (277, 1.08030715043848890566e+00) (278, 8.15151053242036960356e-02) (279, 3.33626239602484997437e-01) (280, 7.26806230376088269196e-01) (281, 5.20524918592502827686e-01) (282, -5.09471371648100079810e-01) (283, 6.74278566092158304635e-01) (284, -3.49830684701031846551e-01) (285, 6.96947236020380583854e-02) (286, -3.74421712220822044959e-01) (287, 4.95325910521794032793e-01) (288, 1.08961407852432512477e+00) (289, 7.70357705277231907814e-01) (290, -3.39826219854405087162e-01) (291, 8.58473230789259189599e-01) (292, -1.25651673905920663321e-01) (293, 9.14764139187197899972e-01) (294, 5.70825099935329705048e-01) (295, 4.59957718839444584802e-01) (296, 2.02558517446316976862e-01) (297, -7.45746994728685441700e-01) (298, 7.71529978483274536671e-01) (299, -2.70834200869495389519e-01) (300, 1.78787716925498191278e-01) (301, -1.26427089163254935400e+00) (0, 1.93123174571224720530e+00) (1, 3.15808656811173182888e+00) (2, 2.93420343815517714603e+00) (3, 1.33076731336261278038e+00) (4, 2.64062457996363608714e+00) (5, 2.46026488360302630909e+00) (6, 2.85313962342332594346e+00) (7, 2.86862085702012770128e+00) (8, 2.32341669442247189536e+00) (9, 2.22511192794132783845e+00) (10, 1.91342202884329437573e+00) (11, 1.56018945745584569629e+00) (12, 2.10317963195930346387e+00) (13, 2.00950927908574339398e+00) (14, 1.98603368194760898646e+00) (15, 2.20108485473156312295e+00) (16, 2.50095801329298472737e+00) (17, 1.88512879253006992997e+00) (18, 2.55291152989390957018e+00) (19, 4.02581221743095851728e-01) (20, 3.23697979872081043062e-01) (21, 1.95920257701143185614e+00) (22, 2.05467349675471089299e+00) (23, 6.49078349327827708315e-01) (24, 1.71434514305751739549e+00) (25, 1.61348940879586821850e+00) (26, 6.12460579057398257774e-01) (27, 3.02220507850926400906e+00) (28, 2.64572971711088333890e+00) (29, 2.10678405778607702459e+00) (30, 3.07084973863077248524e+00) (31, -5.73534609132380301943e-01) (32, 1.92270271956894056586e+00) (33, 2.83363185097938874435e+00) (34, 9.75348286432616951025e-01) (35, 1.58792841473368406824e+00) (36, 1.69137801404772902814e+00) (37, 1.64149691458472068994e+00) (38, 1.52070794773707285152e+00) (39, 7.17590188004770257457e-01) (40, 1.66031124344974756468e+00) (41, 2.15380096972047807569e+00) (42, 1.31095968514223737422e+00) (43, 1.47698765149051958190e+00) (44, 1.70923211126984342378e+00) (45, 2.42808480718863739511e+00) (46, 1.67676400143676818111e+00) (47, 1.24232995203000218254e+00) (48, 1.48591576676901127030e+00) (49, 1.11773556779944027717e+00) (50, 2.74189943400889646341e+00) (51, 2.14553200852425751677e+00) (52, 2.26562166438795120627e+00) (53, 2.42450478198085050963e+00) (54, 2.11857193371409158189e+00) (55, 1.82526338203585347664e+00) (56, 1.79846255181099090592e+00) (57, 3.13554963541161324514e+00) (58, 2.48102339606086275126e+00) (59, 1.56994353908890271754e+00) (60, 2.78015242006839535804e+00) (61, 2.19185611386421896896e+00) (62, 1.67351714966560516373e+00) (63, 2.36182969894886962692e+00) (64, 2.12371727981306168687e+00) (65, 2.27350418441844848161e+00) (66, 1.45790687756214287774e+00) (67, 2.85599785504652103896e+00) (68, 2.73805649938882922356e+00) (69, 2.20012161249650439743e+00) (70, 1.21549706533192058977e+00) (71, 1.62587046668722967624e+00) (72, 1.33797567144495799241e+00) (73, 1.34354794457913073735e+00) (74, 2.32049651878928164805e+00) (75, 1.97524514782991111872e+00) (76, 2.68216272792601229114e+00) (77, 2.68769731084540453026e+00) (78, 1.91694981888312887541e+00) (79, 1.25062923011724125288e+00) (80, 2.86629733141188758339e+00) (81, 1.93837729449792672831e+00) (82, 2.21787860850910290011e+00) (83, 2.08674197469547317851e+00) (84, 8.79191806402109921059e-01) (85, 1.04426995340833683734e+00) (86, 1.62629259452313990053e+00) (87, 1.79143222924074541069e+00) (88, 1.05481461255715180947e+00) (89, 2.95307161208527091389e+00) (90, 1.93484926710119253812e+00) (91, 2.68107306658411070899e+00) (92, 1.90149931672872130051e+00) (93, 3.27543309726446763008e+00) (94, 2.63981728281564675953e+00) (95, 1.83984112677591271634e+00) (96, 1.63771291165354337949e+00) (97, 2.25132557728735749336e+00) (98, 3.06139817836560057529e+00) (99, 1.58437464491793256194e+00) (100, 1.69812621360314164320e+00) (101, 3.77637352542405535516e+00) (102, 1.29062492508640191957e+00) (103, 1.87539098204681775606e+00) (104, 1.59006046420962188215e+00) (105, 2.12218006049686547243e+00) (106, 3.09101425300525844975e+00) (107, 3.09671167144453596265e+00) (108, 1.37699441928645227584e+00) (109, 1.89125977961713953590e+00) (110, 1.26610073722698746046e+00) (111, 1.91100179243419177055e+00) (112, 2.75715189325132437048e+00) (113, 2.51671368887937507708e+00) (114, 2.54105915497382017776e+00) (115, 2.79729411189106436098e+00) (116, 8.57563596803607830488e-01) (117, 3.20354816609643178182e+00) (118, 8.09864585544419424146e-01) (119, -3.86589968469791722683e+00) (120, 2.74103520560485414137e+00) (121, 2.80255808618756763195e+00) (122, -2.18658690117202647585e+00) (123, 1.99531995768641601252e+00) (124, 1.44318017809074450319e+00) (125, -1.57045229764132510120e+00) (126, 1.82634946835348910277e+00) (127, 3.11475416899529777837e+00) (128, 2.17795790013063994550e+00) (129, 2.09854050221864207870e+00) (130, -1.42440586588532958068e+00) (131, -8.86394724035554915087e-02) (132, 1.72226415397051968448e+00) (133, 3.48925705245800399368e+00) (134, 3.38900976310619883591e+00) (135, 2.32614793210677772706e+00) (136, 9.28734989280797340605e-01) (137, -3.66526377262777680599e+00) (138, 2.01112725490790733573e+00) (139, 2.74322740446528623437e+00) (140, 2.86681994849444254925e+00) (141, 2.36686286738306161936e+00) (142, -5.82192156957476480983e+00) (143, -1.14527080062838448882e+00) (144, 3.10041213303730245343e+00) (145, 1.09350865052264101251e+00) (146, -2.66390154200279916097e+00) (147, 3.11521889686600017555e+00) (148, 1.63203541885686043145e+00) (149, -5.06494522441439620764e+00) (150, 1.98998311423989249214e+00) (151, 1.35215722264062310209e+00) (152, 6.09479513182286214423e-01) (153, 1.13958625962510717855e+00) (154, 1.63030053145402975545e+00) (155, -3.95504475039036629269e-01) (156, 1.85348333400234666080e+00) (157, 1.69898529302340928204e+00) (158, 1.66720437928858600252e+00) (159, 1.44948148632815421166e+00) (160, 1.33058330193112550610e+00) (161, 1.01149433761569529366e+01) (162, 2.02252257661544287970e+00) (163, 2.71850422629524679508e+00) (164, 1.66627402457059581309e+00) (165, 1.45394288215860445490e+00) (166, 1.36318025088399341627e+00) (167, 7.54032599899334865512e+00) (168, 2.54188470604281047116e+00) (169, 1.77304200659555921682e+00) (170, 1.08791077736084962346e+00) (171, 2.78674025104180067558e+00) (172, 3.05739659387904305632e+00) (173, 9.47068839776768811589e+00) (174, 2.63059438807454970544e+00) (175, 2.48438227771183317572e+00) (176, 1.95721992253263477046e+00) (177, 2.58616443850769162083e+00) (178, 2.18282303401724453451e+00) (179, 1.94579879511153186478e+00) (180, 3.02958790881267292505e+00) (181, 2.16372262084554112249e+00) (182, 2.18424048655518321382e+00) (183, 1.67181824999307071522e+00) (184, 3.12531590314494289728e+00) (185, 2.73048447613120126576e+00) (186, 3.00808011816273790373e+00) (187, 5.12920596684338425675e-01) (188, 1.66444246736354628524e+00) (189, 3.47042129995281944943e+00) (190, 2.72788307311614497408e+00) (191, 1.79021983949239493761e+00) (192, 1.39616975956894906474e+00) (193, 7.84793049298419309601e-01) (194, 2.09241969960057794253e+00) (195, 2.91217695655316077818e+00) (196, 9.18559260837482960405e-01) (197, 3.14839316376119171537e+00) (198, 1.21033158623755388028e+00) (199, 2.10784379406343314045e+00) (200, 1.52596763395153711684e+00) (201, 2.24570521672690581738e+00) (202, 2.54979310738875097897e+00) (203, 2.07838169265419292486e+00) (204, 3.14454921150971111743e+00) (205, 1.14507904456924292091e+00) (206, 1.00910999192207295749e+00) (207, 2.34561537061534730597e+00) (208, 3.38339658316213753864e+00) (209, 2.63736899758153064965e+00) (210, 2.50776235694830340606e+00) (211, 2.36368963679883803408e+00) (212, 1.38630091097236674003e+00) (213, 2.31459848294092340737e+00) (214, 3.11742072695650662695e+00) (215, 2.32268621942129804836e+00) (216, 1.19025258413758883158e+00) (217, 2.23664176084781107789e+00) (218, 2.14230827367684373286e+00) (219, 2.61569181683213169975e+00) (220, 3.15784502292335700346e+00) (221, 1.85158173229638478574e+00) (222, 2.87811018174284205529e+00) (223, 2.48170044304897308152e+00) (224, 1.38445906674991281449e+00) (225, 2.45390060915680718878e+00) (226, 2.63972300172608909108e+00) (227, 2.26697474504856311128e+00) (228, 2.17663017045410622785e+00) (229, 1.90077356017802667765e+00) (230, 1.27020470958585063315e+00) (231, 2.99586545752264887810e+00) (232, 1.49681234300907761714e+00) (233, 3.13281719565499860991e+00) (234, 1.47394041586250601483e+00) (235, 6.94164698493224707754e-01) (236, 1.65137947889336866858e+00) (237, 1.95171667419587646641e+00) (238, 2.39847250223931096613e+00) (239, 1.66086199849535276485e+00) (240, 2.99399485551580291087e+00) (241, 9.79829078089934912832e-01) (242, 8.42207124085255109947e-01) (243, 1.96551253751614729559e+00) (244, 2.53206158876095788202e+00) (245, 1.42350202222292421261e+00) (246, 2.85598072576324568672e+00) (247, 1.94449315463789496050e+00) (248, 3.23106385781335170293e+00) (249, 2.40191465796345271499e+00) (250, 2.08316282428980681374e+00) (251, 2.85340388843106085304e+00) (252, 3.13558754223341962231e+00) (253, 1.18923914799217800287e+00) (254, 2.29284662516670190158e+00) (255, 1.95002629446267961022e+00) (256, 3.13362191753893215562e+00) (257, 2.15482771465226541352e+00) (258, 3.03353554996023655477e+00) (259, 1.51745576427706496681e+00) (260, 9.19382310632865018540e-01) (261, 1.74620195031702984956e+00) (262, 1.96525072835192338161e+00) (263, 1.16047633030294994327e+00) (264, 1.59511187707486179477e+00) (265, 1.64429240772465656839e+00) (266, 1.32804314460751826665e+00) (267, 2.08123165708896307180e+00) (268, 2.96651974765150949764e+00) (269, 2.47903030652385547583e+00) (270, 2.50164693091896639388e+00) (271, 2.73360859178486981236e+00) (272, 1.54112297016468624555e+00) (273, 2.75071120602008534206e+00) (274, 1.54991259363813171923e+00) (275, 2.30004378881522342226e+00) (276, 2.90561141477024209578e+00) (277, 1.21394382260384214867e+00) (278, 2.33765576169931987849e+00) (279, 2.88019409537261950049e+00) (280, 2.49211580119194220373e+00) (281, 6.57774384334552819631e-01) (282, 2.57947345065968924871e+00) (283, 2.44121426001000951800e+00) (284, 1.96798679714927149398e+00) (285, 2.21714648545903392218e+00) (286, 1.26098801704212326591e+00) (287, 1.96934343723196914056e+00) (288, 3.21873290824788504949e+00) (289, 3.12418871342373227762e+00) (290, 2.96271837178120156508e+00) (291, 1.60273127106566359856e+00) (292, 1.69955767282141811947e+00) (293, 1.74517551647698243578e+00) (294, 2.18247950497517084756e+00) (295, 2.13026678982624506631e+00) (296, 2.89189124527821039834e+00) (297, 2.98296611420635793266e+00) (298, 3.01851318834496629151e+00) (299, 2.64239123508210882463e+00) (300, 7.23483066991792767020e-01) (301, -3.41411457011446017873e+00) (302, 3.45000284355448760820e+00) (0, 8.80039150316926366280e-01) (1, 9.00509576544585410574e-01) (2, 9.61996848810286242504e-01) (3, 1.01001930684930996129e+00) (4, 8.70259319527901142877e-01) (5, 9.30203933492708578967e-01) (6, -2.55250404969506849984e-01) (7, -6.88755364424840310633e-01) (8, -5.30752395491546513639e-01) (9, 9.11214623724446060038e-01) (10, 1.02549014769174129391e+00) (11, 9.29356526544303340742e-01) (12, 1.43985380734574397454e-01) (13, -2.76223055860172705955e-01) (14, -1.03883799031750490016e+00) (15, 8.24213227105282664198e-01) (16, 9.78799602728093631754e-01) (17, 4.19389156368338344993e-01) (18, 5.23759387147538668650e-01) (19, -6.93301362006774751778e-02) (20, -6.21742792577224756556e-01) (21, 4.38539892067785541663e-01) (22, 1.01338973887198835477e+00) (23, 9.46869444851587860335e-01) (24, 1.11367831425004970569e+00) (25, -7.84429435532660868091e-02) (26, -1.17227915605282118072e+00) (27, 3.80910788389974830359e-01) (28, 9.14557993396274748754e-01) (29, 8.88044131484443610702e-01) (30, 5.25228573616290539405e+00) (31, 8.71032339607875960574e-01) (32, -9.47042586070840630708e-02) (33, 3.12025822938535535300e-01) (34, 4.03814731120115399943e-01) (35, -9.12422508274781940418e-02) (36, 6.89178952710015035876e+00) (37, 1.42421065732415641492e+00) (38, 4.61711188228115243515e-01) (39, 3.23178623762322092539e-01) (40, -1.41765785633029522961e-01) (41, -1.75146313617804305629e+00) (42, 6.27396005032177672689e+00) (43, 1.11857550610960188031e+00) (44, -5.78234209629394924068e-02) (45, -9.36189920544597820040e-02) (46, -2.16421547923333096319e-01) (47, -3.72867631950122024875e+00) (48, 2.20770947679484086379e+00) (49, -1.46023372344377039278e-01) (50, -5.14139110976442603729e-01) (51, -7.21405032543158575287e-01) (52, -1.09114952435113621299e+00) (53, -2.11215545423319817075e+00) (54, 9.89444542683315497733e-01) (55, -5.78061414334865464326e-01) (56, -1.08537801892378027446e+00) (57, -6.74517076655414160591e-01) (58, -1.24750850254355860613e+00) (59, -5.10712771157347233952e+00) (60, 1.30905877006645043892e+00) (61, -2.24087185131957494777e-01) (62, -1.00583925685983177623e+00) (63, -3.08212810138662231252e-02) (64, -2.91041597713682542725e-01) (65, -2.46497342862661339424e+00) (66, 9.76052819144798466944e-01) (67, -5.63221032977108349016e-01) (68, -9.11298682270071602751e-01) (69, -8.84746106940016013853e-02) (70, -5.85282387400405043620e-02) (71, -8.73562057896495991471e-01) (72, 3.22105410951319337531e-01) (73, -6.77344192368232733692e-01) (74, -5.10582852770434469925e-01) (75, -1.00233194557466639973e-01) (76, -3.15697300398365132690e-02) (77, -6.78161661705171447956e-01) (78, 2.18629834635770736728e-01) (79, -6.09907752234561395532e-01) (80, -4.99819736944993375793e-01) (81, -7.20593168659423768257e-03) (82, -1.17163743729060895737e-01) (83, -1.28243595272934718388e+00) (84, 7.99846901786845226878e-02) (85, -6.49127792608694242915e-01) (86, -4.33824381671486847267e-01) (87, -9.46729571375049205884e-01) (88, -1.02350592929990025226e+00) (89, -2.05298403556416131366e+00) (90, -1.22196766307869249257e-02) (91, 4.57200879233383761235e-01) (92, 1.82578258179471042411e-02) (93, -9.73207586905752042306e-01) (94, -1.00710393176231005619e+00) (95, -1.20107348701539562441e+00) (96, -2.67433274141637561394e-02) (97, 3.61584554919908540693e-01) (98, -1.21415860593047153504e-01) (99, -2.75121721516037476274e-01) (100, 6.99541917540800750608e-01) (101, -5.36783378823678325453e-01) (102, 4.50164173821378132967e-01) (103, 4.76991435654586737325e-01) (104, -1.80895934416548970214e-01) (105, 2.14401119577296073171e-01) (106, 3.04771458559036556579e+00) (107, -2.17026624271430879087e-01) (108, 4.54830604966068530182e-01) (109, 2.52312670502921054805e-01) (110, -7.70962490956946355780e-01) (111, -2.64695229284064803554e-01) (112, 2.12974257564213891036e-02) (113, -1.71029333925058901755e+00) (114, 4.79948321541999567419e-01) (115, 3.78066086449163285543e-01) (116, -3.12951628461897279898e-01) (117, -6.67741203993611476264e-01) (118, -2.94017562642897889447e+00) (119, -8.97218333002171419821e+00) (120, 4.65033789733745261952e-01) (121, 4.23775682238429374227e-01) (122, -1.36927521902195792336e+00) (123, -8.16183766625558360097e-01) (124, -1.60398223430370134857e+00) (125, 9.99939962811656712915e+00) (126, 2.74513892503466250261e-01) (127, -2.19942542644521177309e-01) (128, -1.76165754690351672451e+00) (129, -9.60226531175669251184e-01) (130, -1.76290938136110035828e+01) (131, 6.32663517314789114465e+00) (132, 4.00765178139659949963e-01) (133, 2.90711595847548520677e-01) (134, -8.75001495408418250577e+00) (135, -1.93879059087060867661e+00) (136, -1.08849082115518740466e+01) (137, 3.46595255719217387735e+00) (138, 5.46396913503646608490e-01) (139, 7.06481761721877488114e-01) (140, -7.59642642724633554430e-01) (141, -3.67489056034527550310e+00) (142, -4.47904816493170621072e+00) (143, 4.48997276428737635001e+00) (144, 4.36055244127729613179e-01) (145, 4.75979671406358573194e+00) (146, 1.37527054915083701836e+00) (147, -2.53376370336978196107e+00) (148, 3.03343207442262858820e+01) (149, 1.32958421038319567486e+01) (150, 3.74491235825861024100e-01) (151, 3.63744778396865386938e+00) (152, 3.96700657820921842589e-01) (153, -2.13680035189648354077e+00) (154, 7.38025844491963223248e+00) (155, 2.26404644451978320774e+01) (156, 3.12524818403902671093e-01) (157, 4.15070634643338554071e+00) (158, 8.38580236885118512902e-01) (159, -1.45132752385641228265e+00) (160, -2.89196943990700852112e+01) (161, 2.83418324245224173552e+00) (162, -3.84933571172152655393e-01) (163, 7.86128083490144025092e+00) (164, 1.68589538898787161258e+00) (165, -8.23679307263250060078e-02) (166, -4.31111030374384824881e+01) (167, -7.22262216608943585783e+00) (168, -1.77359140636605117081e+00) (169, 9.19478830674941605139e+00) (170, -6.87681714223026374633e-01) (171, 1.15468859141120594458e+00) (172, -2.84082778384838929853e+00) (173, 1.29221328323139399430e+01) (174, -6.92583897587658814388e+00) (175, 2.16163851750692348475e+00) (176, -9.03432130281518752657e-03) (177, 2.27837920324833032026e+00) (178, -2.80291269828834233024e-01) (179, 6.10730431380341998171e-01) (180, -1.93335807219679978175e+00) (181, 2.63988061232105764020e+00) (182, -9.94765137295288703889e-01) (183, 6.75746494595000690708e+00) (184, 1.08602484021419321003e+00) (185, 2.47278972007459163507e+00) (186, -1.80621731054062262256e-01) (187, 7.33945213018518671788e+00) (188, 2.33945141282341761979e+00) (189, 3.19135019468549296917e+00) (190, 1.55647039550673471631e+00) (191, 1.65476519788214293527e+00) (192, -2.33574789006909810940e-02) (193, 2.38162389574568811312e+00) (194, -1.98453007219040800102e-01) (195, 2.89644287972471037307e+00) (196, 1.22445078301148146949e+00) (197, 4.51142276363651895110e-01) (198, -1.48034872086816898795e-01) (199, -7.12703315024231565111e-01) (200, -4.92444093318807851745e+00) (201, 1.47319141036607015316e+00) (202, 1.55980438310080882225e+00) (203, 2.13034080076228232725e-01) (204, -7.15630340993061331289e-01) (205, -1.40094569053731388131e+00) (206, -4.27591832994799680989e+00) (207, 1.46291374053382461362e+00) (208, 6.96355241784450518239e-01) (209, -6.03987397772294376530e-01) (210, -4.49918992383590343742e-01) (211, -5.05992800853454771648e-01) (212, -2.36586076390326649488e+00) (213, 6.18520134094942219960e-01) (214, 1.36532561130412732897e-01) (215, -8.29943940120175360775e-01) (216, -5.97662787181446164553e-01) (217, -8.95717696572823074419e-01) (218, -1.31776800513978398222e+00) (219, 3.68940586259053696083e-02) (220, 5.48422711859657852074e-01) (221, -9.94865515366376906847e-01) (222, -4.44526974688864429108e-01) (223, -8.33885060145473366866e-01) (224, -6.13862678044131748756e-01) (225, -5.91169901635739902801e-01) (226, -7.97459647967376367150e-02) (227, -1.04326042676581143276e+00) (228, -5.25044688051544139462e-01) (229, -3.01385463744192894087e-01) (230, 1.52331595767682959064e-01) (231, -6.80387756509550856165e-01) (232, -4.87147599689494559261e-01) (233, -1.57651918364591114852e+00) (234, 1.01644201517196486328e+00) (235, 4.59726627534200515957e-01) (236, 1.57485968301313367101e-01) (237, -6.96611017573907975731e-01) (238, -5.21389344234751583862e-01) (239, -2.86207400338653039640e+00) (240, 8.47251857247828366049e-01) (241, -8.70756782896431741348e-02) (242, 6.97843030254590601658e-01) (243, -5.78721553489165208006e-01) (244, -4.84636779452910337884e-01) (245, -8.08424265120204821322e-01) (246, 8.74368419360428417164e-01) (247, 4.08167642896815341391e-01) (248, 7.66856923113167887607e-01) (249, -6.56333540833520134861e-01) (250, -3.81110252840289043252e-02) (251, -5.80784822609944018090e-01) (252, 7.96928795229337683104e-01) (253, 2.34823241453300496362e-01) (254, 8.62160044652447665747e-01) (255, -1.41486502455715562609e-01) (256, 3.82086985497577802384e-01) (257, -6.11894254147770322305e-01) (258, 8.97265596015206834402e-01) (259, 8.36986891545465461206e-01) (260, 8.31371371717752438713e-01) (261, 5.02614444701265372650e-01) (262, 1.07977780416844071354e+00) (263, 4.14317688824301588735e-01) (264, 9.46358562661335334099e-01) (265, 8.66262644747257226641e-01) (266, 8.40485970663884640608e-01) (267, 5.58960848936516097041e-01) (268, 2.07241385556472446083e+00) (269, 9.26679863162628958406e-01) (270, 8.52527483612003256219e-01) (271, 9.00071085597536346690e-01) (272, 7.33309773100440875915e-01) (273, 8.49856590780991072442e-01) (274, 2.01644996027699274777e+00) (275, 1.14312717315687173425e+00) (276, 8.55532820936524496247e-01) (277, 9.08191020924582703699e-01) (278, 8.26046106905747978821e-01) (279, 9.98615676656318562721e-01) (280, 1.02512971593124802006e+00) (281, 8.52296982541355330198e-01) (282, 9.19590370531215839378e-01) (283, 8.44548843878403787677e-01) (284, 7.00084432569084702536e-01) (285, 9.34565348137371909587e-01) (286, 1.00308385201635896777e+00) (287, 8.86345085655526609969e-01) (288, 9.49589433555726780689e-01) (289, 7.74611613109396190957e-01) (290, 8.74446877188575277806e-01) (291, 8.66995048361539732973e-01) (292, 8.61142240540453851594e-01) (293, 8.16648716470850022375e-01) (294, 9.85293193676721634766e-01) (295, 9.92999886753862526234e-01) (296, 8.66450913842741976545e-01) (297, 8.83729169797032865219e-01) (298, 9.87057419298769445071e-01) (299, 8.39894056459028037764e-01) (300, 8.21708421199857985684e-01) (301, -8.28265048048981356033e+00) (302, 1.05473945131431712241e+01) (303, -5.93220310937596995160e+00) (0, -1.86000376143898062120e-02) (1, 1.29179725359747671343e-01) (2, 1.17005133866429647527e-01) (3, 1.03344332503460270556e-01) (4, 3.01716076152902357155e-01) (5, 2.71851376491178131634e-01) (6, 4.42189680747578778286e-02) (7, -1.43928250320019629482e-01) (8, 1.29976232411189614180e-02) (9, 1.47846890313257678384e-01) (10, 1.35492798323188196052e-01) (11, 2.27122778396885521834e-01) (12, -1.18673542461358549893e+00) (13, -2.96212331353226288044e+00) (14, -1.52950303669614817714e+00) (15, 2.12629927817181790806e-01) (16, 2.07669993707675720751e-01) (17, 3.63916499829907424957e-01) (18, -2.12873664599914524942e+00) (19, -9.78659697879034773393e+00) (20, -2.42014121682117755441e+00) (21, 1.50676138567103740096e-01) (22, -4.27053813447592189867e-01) (23, 3.17716836318392814587e-01) (24, -7.76955132344423704538e-01) (25, -2.68419253664790069536e+00) (26, -9.39716488611064937331e-01) (27, 2.00835381210522662121e-01) (28, -4.93217757344522111929e-01) (29, 2.26976651992843253547e-01) (30, -6.97127548561436549690e-01) (31, -5.66862264117923864148e+00) (32, -1.32982506319228588332e+00) (33, 3.76911965510227653375e-01) (34, -4.06042021795212426660e-01) (35, 4.29138437296976094082e-01) (36, 2.53104738042099763895e-01) (37, -5.12193568308458857530e-01) (38, 1.74172458990234313436e-01) (39, 9.05904003758622788922e-01) (40, 9.20556645182030869323e-02) (41, 3.52690020601955422919e+00) (42, 3.70618284847763712619e-01) (43, 2.95430844721611199355e-02) (44, 5.91158809199143320257e-01) (45, 3.07018848127799515169e+00) (46, 2.62468217659663016761e+00) (47, 4.65884903733651789537e+00) (48, 5.58233733998532932752e-01) (49, 3.27319739469245196695e-01) (50, 4.81627895860091526092e-01) (51, 2.70408779840233481906e-01) (52, 1.07655190642338381701e-02) (53, 2.95610232375819736994e-01) (54, 6.23467440204550804594e-01) (55, 4.17764231012305753410e-01) (56, 5.63999295174685166820e-01) (57, 1.73538338765620664406e-01) (58, 5.34911040399653758826e-02) (59, 1.51340515310259021708e-01) (60, 2.69348271330986044347e+00) (61, 5.01491340408363517334e-01) (62, 8.29644518721479595769e-01) (63, 1.06510547937048130618e-01) (64, 1.05647598627818264938e-01) (65, 3.65369866740721693787e-01) (66, 2.75085313668803124187e+01) (67, 6.88935355691594808469e-01) (68, 1.16347270467552714734e+01) (69, 2.05561731473057923703e-01) (70, -4.82094000132843453210e-02) (71, 1.30577845318638724459e-01) (72, 3.80323836948819362647e+01) (73, 7.23154509998646832791e-01) (74, 2.28662099973097667771e+01) (75, -3.48604391090144433152e-02) (76, -2.07591782841159616657e-01) (77, -4.45130062297453971132e-02) (78, 1.12823626820753801780e+01) (79, 2.91977049289363022044e-01) (80, 5.17499674604777393228e+00) (81, -9.49601126905126741162e-02) (82, -4.09520527651216048604e-01) (83, 2.05228766196548532627e-03) (84, 1.02924158375380621067e+01) (85, 8.88578455366229730261e-02) (86, 7.40994252359266258878e+00) (87, 3.95161136586476540583e-03) (88, -2.41570557183506799959e+01) (89, -5.04047516365071612832e-01) (90, 2.06481474580613948433e+01) (91, 1.85508859452872987283e-01) (92, 1.36110288966404429090e+01) (93, 1.45136169537460973933e-01) (94, -3.64708363750309549900e+00) (95, -4.93894578156930719182e-01) (96, 8.66430546187515027157e+00) (97, 3.46559857036203775027e-02) (98, 4.25973253245844052373e+00) (99, -7.69886496124063605777e-04) (100, -1.30134459189938023194e+00) (101, -1.12571881754110680873e+00) (102, 2.10370192119651306939e+01) (103, 1.47714678696276358050e-01) (104, 7.34259577736354707156e+00) (105, -1.47827607489145418374e-01) (106, -1.64160799967514869913e+00) (107, -2.64722643525719725233e+00) (108, 2.19213791657794274670e+01) (109, -1.56513678656059335159e-01) (110, 3.98147808034802430655e+00) (111, 8.50207691556627703777e-02) (112, -1.12194506512283043165e+00) (113, -1.73753003078552881178e+00) (114, 1.30025079092450699392e+01) (115, -8.82444460521294216093e-01) (116, 1.30391943933023135571e+00) (117, 1.59090796851007298951e-01) (118, -3.59268799979977515591e+00) (119, -2.55981416458194424024e+01) (120, 8.51647886636302153818e+00) (121, -8.71494816650283832260e-01) (122, 4.34791610446353837816e-01) (123, 1.37743935306143316932e-01) (124, -5.53404681032739365065e+00) (125, -6.42921363973049420082e+00) (126, 4.59225074474273053937e+00) (127, -9.92544043356159866320e-01) (128, -1.85276093453873719197e-01) (129, 3.89127509781612479500e-01) (130, -1.08959716226503888770e+00) (131, -2.53463545988124838715e+00) (132, 5.74632986447091931304e-01) (133, -2.33592607971116361654e+00) (134, -2.71858555326363438009e-01) (135, 5.64903237166142435655e-01) (136, -7.91046469793717177410e-01) (137, -2.44759833329977061211e+00) (138, 3.63559418148308943763e-01) (139, -1.40346518147664269804e+01) (140, -3.26528915320082013807e+00) (141, 3.09425329358971823446e-01) (142, -1.23683946030826286133e+00) (143, -1.59253203881340628101e+01) (144, 5.61078136757847123484e-02) (145, -2.75183276645586349929e+00) (146, -4.72504110009219502331e+00) (147, 5.00460091108251986514e-03) (148, -6.78261917680321602120e+00) (149, -4.83865118338084343463e+01) (150, -2.23943290569959291281e-01) (151, -2.92019751216093759183e+00) (152, -1.27311682823550924581e+01) (153, 6.39525968577701053874e-02) (154, -1.09108127514596287000e+00) (155, -3.03415860347446741940e+00) (156, -2.50318694748299763742e-01) (157, -8.12793214122514129372e+00) (158, -2.00744518140653660510e+01) (159, 2.82241665221914100892e-03) (160, -1.53279905139607741660e+01) (161, -3.87231299870226877147e+01) (162, -2.26710941938855631284e-01) (163, -2.73763776711717721213e+00) (164, -7.77921402318102828133e+00) (165, 1.73255041270516191299e-01) (166, -1.64668677224963411199e+00) (167, -1.77237612713787351382e+00) (168, -1.45408556670789140819e-01) (169, -8.79205397063156368631e-01) (170, -2.61447771534912565272e+00) (171, 3.19516979733830197574e-01) (172, -6.57521497159758161466e-01) (173, 4.82770939070389759618e-01) (174, -3.88217598446002898349e-02) (175, -5.89087704375207188434e-01) (176, -8.45912725801737486186e-01) (177, 8.88618194467543781601e-02) (178, -1.10108625147451877346e+00) (179, 4.04050124122876719301e-01) (180, -1.13422177852816094545e-01) (181, 1.54334141699079968602e-01) (182, -2.40792747434423574926e-02) (183, 4.75531299175080343633e-02) (184, -6.84740358255344405691e-01) (185, 1.25999435462619069348e+00) (186, 5.78253047812200965394e-02) (187, 5.74342231765809563271e-01) (188, 7.25644883094222148401e-01) (189, 1.77837374006947490646e-01) (190, -5.82356055336096911645e-01) (191, -4.54317696051502128984e-01) (192, 2.64891396307608099903e-02) (193, 8.64634593159648301430e-01) (194, 1.44476124204694067465e+00) (195, 1.45014244793155916424e-01) (196, -6.31938085906795121716e-01) (197, -3.91130937920075583136e-01) (198, 1.70568541160224823594e-01) (199, 1.83350672554286364679e+00) (200, 3.55929290410626553154e+00) (201, 3.96693605227125489776e-01) (202, -8.57540796673168237430e-02) (203, 1.52294586203334414432e-01) (204, -6.21213767974983163689e-02) (205, 3.92718066433548729233e-01) (206, 1.06122130389112911963e+00) (207, 4.23035405299474698282e-01) (208, -2.09904202304316167549e-01) (209, -8.14585798208441735913e-02) (210, 1.94764907030617911987e-01) (211, 3.46160051447228722665e-01) (212, 5.39485413788096890286e-01) (213, 6.08413457605352370194e-01) (214, 7.53132554447674684717e-02) (215, 1.90090795051327428322e-02) (216, 1.27363926177663094874e-01) (217, 3.41043349422363473167e-01) (218, 3.57814365927201505357e-01) (219, 4.99904012146673626393e-01) (220, 1.08146733221515689571e-01) (221, 2.97702294285178026279e-01) (222, -3.24368053966803682187e-02) (223, 1.41178192632281013230e-01) (224, 3.00441255145147412264e-01) (225, 7.04353665590921940165e-01) (226, 5.95154324926705710630e-02) (227, 2.67526785423575108602e-01) (228, -1.34690841385277121356e-01) (229, 1.66100823531607461048e-01) (230, 2.07575067271462514185e-02) (231, 2.30442662053074870387e-01) (232, 8.25945730433098601608e-02) (233, 1.59578448854292065384e-01) (234, -6.49948277376571209585e-03) (235, -8.45531767700464648163e-02) (236, 7.03959046410764094359e-02) (237, 2.91886594585554659531e-01) (238, 1.43999732433758020900e-01) (239, 1.27073164697339563434e-01) (240, 1.43524455173282168563e-02) (241, -4.07181575631303804830e-02) (242, 1.86817609445031201920e-01) (243, 1.51535881374387310094e-01) (244, -8.03284945408505243747e-03) (245, 1.26452846994579953810e-01) (246, -3.36405018124490140519e-02) (247, -1.21854993380338436082e-01) (248, 1.75672301544454968411e-03) (249, 1.47637067696413465390e-01) (250, -1.54864035405122696387e-01) (251, -1.40320584442231478806e-02) (252, -4.88627608610124608557e-02) (253, -3.19520203989519524512e-02) (254, -6.44384853151932640580e-02) (255, 2.15653907473756824287e-02) (256, -4.12092184662463001388e-01) (257, -5.39786502144648377977e-02) (258, 2.74510258330039292815e-03) (259, 6.28233227452046766315e-02) (260, 3.66009874034788629249e-02) (261, 4.95535630788710990124e-01) (262, 3.35432914300814871700e-02) (263, 1.97959117003499301957e-01) (264, -2.70618734218599291119e-02) (265, 1.77169994635606592448e-01) (266, 1.85292741042850289679e-01) (267, 4.52344384040818225934e-01) (268, 3.37051397698365451383e-01) (269, 3.35363893477973573631e-01) (270, 6.84880270799112927937e-02) (271, 2.14757071696233398095e-01) (272, 2.23145834999824238531e-01) (273, 1.82121851994044209322e-01) (274, 2.71027617842435564199e-01) (275, 2.72727639437040036974e-01) (276, 7.86750363902051635945e-02) (277, 2.26457419124812459055e-01) (278, 3.56487034280800141328e-01) (279, 2.02759729449175835070e-01) (280, 2.58104293342073964901e-01) (281, 2.21394051571965871927e-01) (282, 1.86837175458889809265e-01) (283, 2.31128142828635280148e-01) (284, 1.99485497056464095023e-01) (285, 2.99673569702079867216e-01) (286, 1.28864300699031569808e-01) (287, 2.52433996844285635230e-01) (288, 1.54709986635563429003e-01) (289, 2.47349159361142684199e-01) (290, 1.92904365944206318551e-01) (291, 1.12912358407787835612e-01) (292, 2.30551198220512815196e-01) (293, 2.29779514355455655172e-01) (294, 7.84601458173305871258e-02) (295, 2.45270617226249626475e-01) (296, 1.31827043456304665581e-01) (297, 2.06892129989992096251e-01) (298, 1.89497347574131030923e-01) (299, 2.83209189024367813392e-01) (300, 1.64011395996284781162e+00) (301, 1.91960712345964346071e+01) (302, -4.97898555276108201184e+00) (303, -1.13022647039021872928e+00) (0, 9.58746353418289287696e-01) (1, 1.08585457531017781641e+00) (2, 1.25597811722677987767e+00) (3, 1.11878744583520828293e+00) (4, 1.12834049961408067198e+00) (5, 9.90898730371792768601e-01) (6, 4.09525606104333805835e-01) (7, 2.79174422656400578191e-01) (8, 5.15787187808209202089e-01) (9, 8.52108728188349262567e-01) (10, 1.12378840238681099173e+00) (11, 1.08515033807846017488e+00) (12, -1.18667595923896973531e+00) (13, 1.33718083102661422501e-01) (14, 2.80293517581420625895e-01) (15, 7.09296325666689875256e-01) (16, 9.60619145933881535271e-01) (17, 8.33788695354044429031e-01) (18, -4.52074893124202148442e+00) (19, -3.01135024719152566419e+00) (20, -2.59606699137658170073e+00) (21, 6.65738242370906951884e-01) (22, 2.90196280904590597771e-01) (23, 7.50247875031125444067e-01) (24, -9.99816789442984621417e+00) (25, -1.51651342658509458161e+00) (26, -7.60617568223088347246e-01) (27, -8.09812433697251754516e-02) (28, 1.99489941047250388118e-02) (29, -1.15019522554971900807e-01) (30, -1.17729373692617986791e+01) (31, -3.40639866492560328126e+00) (32, -8.58567988162468376245e-01) (33, -2.03383020812930387367e-01) (34, -1.01289587495459576516e-01) (35, -1.72510001876516966268e-01) (36, -2.48057799996614969373e+00) (37, -4.79577739436641767301e-02) (38, 2.24550847360071824388e-02) (39, -1.58440331977965920274e-01) (40, -1.86097047599610987412e-02) (41, -1.62571523353966324033e-01) (42, -5.58272243628541886551e-01) (43, 1.73312605785276907522e-01) (44, 3.27275936753499474552e-01) (45, -2.13495096095237701928e-01) (46, -1.68878819421796194655e-01) (47, 3.05878709601540510477e-01) (48, 1.44783732643077284186e-01) (49, 4.04430431747880070326e-01) (50, 2.02384218177701552532e-01) (51, 3.12923104196471846272e-01) (52, 3.19997567075865352315e-01) (53, 2.70545470544605648477e-01) (54, 3.98420474972217691922e-02) (55, 4.01173539896398478888e-01) (56, 3.34152882121066252541e-01) (57, 3.36951845820322171132e-01) (58, 3.26113730827471581808e-01) (59, 2.96706419092050754927e-01) (60, 9.28376889574613339828e-02) (61, 2.83661004462629318112e-01) (62, 3.65384826794363792857e-01) (63, 4.04213904103633059339e-01) (64, 3.66693793120113908923e-01) (65, 3.84231801440585774010e-01) (66, -3.25152017766002221499e-01) (67, 4.02125618469844514635e-01) (68, -1.42911615931295227222e-01) (69, 4.06863055663148620589e-01) (70, 7.90198766634800486841e-01) (71, 1.17543079286606788614e+00) (72, -3.77061872408946563429e-01) (73, -2.73977783936579899482e-01) (74, -3.04214074203427220500e-01) (75, 2.21759062899035852556e-01) (76, 3.76283485488121627327e-01) (77, 5.40572378460976499248e-01) (78, -4.11886523721104846896e-01) (79, -5.07952835323915996568e-01) (80, -5.25980962328843171250e-01) (81, 1.79995202651531599480e-01) (82, 3.77296331002434315316e-01) (83, 3.48876269973983188510e-01) (84, -3.01809385596381318795e-01) (85, -2.73695732332100405415e+00) (86, -3.08708413560749717064e+00) (87, 2.13136292081719941338e-01) (88, 4.04588270049056730748e-01) (89, 6.89768581753245291210e-01) (90, -2.66460670955977252383e-01) (91, -2.23276771227696935185e+00) (92, -3.03430313863595912949e+00) (93, 2.93787004444356125710e-01) (94, 4.47509171949586448402e-01) (95, 8.51829756509357216565e-01) (96, -4.32642009549905559584e-01) (97, -1.04220179411433733208e+00) (98, -6.56432459673908619280e-01) (99, -4.51573276848890758917e-01) (100, -2.98792447806924932330e-01) (101, -3.20045406279871047506e-01) (102, 2.98741620654441708549e-01) (103, -2.93988298069822606706e+00) (104, -1.42361646651420081788e+00) (105, -5.62200253932242044463e-01) (106, -3.73729171420657757530e-01) (107, -5.20297296123445218718e-01) (108, 2.97001021537361464819e-01) (109, -3.74787075512705847302e+00) (110, -1.81590091926919661169e+00) (111, -8.64578392214296775897e-01) (112, 3.86803778324718072756e-01) (113, 6.92496229462769424812e-02) (114, 2.91117610724162367841e-01) (115, -7.13620898405228687444e-01) (116, 1.92473738068294097925e-01) (117, -1.34040950700946464025e+01) (118, 1.04286303499144206164e+00) (119, -1.44609108944325193136e+00) (120, 1.75569955075229655606e-01) (121, -4.42985223650024351194e-01) (122, 4.02595210992136687267e-01) (123, -2.89303707957050892929e+00) (124, 1.14965971867536501105e-01) (125, -1.19956887273238477221e+00) (126, 2.68073778399599393918e-01) (127, 5.60917888296077582488e-01) (128, 2.17718115822916979951e+00) (129, -2.86670348082908743592e+00) (130, 1.19587119279784825920e+01) (131, 2.42293986841980801827e+00) (132, 3.20540384652705012680e-01) (133, 1.36384837270309988710e+00) (134, 7.84399812232212223506e+00) (135, -1.93689936778063320766e+00) (136, 2.03475790467079171719e+01) (137, -2.04308150846883451734e+00) (138, 2.39766496936211104263e-01) (139, 3.82073152885696298853e+00) (140, 9.10482842322088181675e+00) (141, -5.48156844220715866456e-01) (142, 3.98133597076355059130e+01) (143, 4.30821352949343483463e-01) (144, 2.42467680407649627261e-01) (145, 3.34159912127126679238e+00) (146, 1.36407409590646300224e+00) (147, -1.36180961249174292682e+00) (148, -1.29704606898487562194e-01) (149, -3.49983590648086320130e+01) (150, 1.90474303071805517451e-01) (151, 6.07750633615009916433e-01) (152, -4.53746806476086916859e+00) (153, -1.38407297553653707567e+00) (154, -6.34390481277649187497e-01) (155, -1.56471688522319514192e+01) (156, -1.08931519277792071554e-01) (157, -1.72136783471139531709e-01) (158, -3.23514709455773896707e+00) (159, -2.47205956695601569706e+00) (160, 1.19092384801405852812e+01) (161, 3.47074492557918468094e+00) (162, -8.96907911776403499182e-01) (163, -6.61386302293959449372e-01) (164, -8.68195077949635574122e-01) (165, -1.44808320487817732136e+00) (166, 2.52416527692551229123e+00) (167, 7.28058804002882253847e-01) (168, -3.91478004211865249218e+00) (169, -6.31376334710073927603e-01) (170, -7.64050301102515927454e-01) (171, -3.59956291660141358690e+00) (172, -8.21888813823313135742e-01) (173, -1.18254599811976000012e+01) (174, -8.30090975377963169457e-01) (175, -2.83141787445702841630e-01) (176, -4.52927957709191253421e-01) (177, 1.71293607246415652279e-01) (178, -6.72207335279489170965e-01) (179, -1.62297110340355293934e-01) (180, -8.36974946646035555808e-01) (181, 2.31209088349275493357e+00) (182, 1.31438804616148274818e+00) (183, 3.19587740937323450119e-01) (184, -4.13873842702218219802e-01) (185, 1.20468749942506628270e-01) (186, -7.07265395158222176519e-01) (187, 5.77205489355167467025e-01) (188, 1.11940513413388420538e+00) (189, 4.86072260903313735358e-01) (190, 4.90437260442216071965e+00) (191, 3.33863692610116302717e+00) (192, -6.69048327454839553141e-01) (193, -4.76163415709676962617e-02) (194, -7.26527497131406740927e-02) (195, 1.17684681405278013244e+00) (196, 1.23740212922212471369e+01) (197, 1.08521802385236529886e+01) (198, -5.80559704416811928063e-01) (199, -5.18993080052648658729e-01) (200, -8.62811305295805408555e-01) (201, 3.92816847578765115934e-01) (202, 8.43922804951886984526e-01) (203, 2.85406425897734239427e+00) (204, 1.72935391581923003645e-01) (205, 1.06032228307939874190e-01) (206, -3.13210961845535762471e-01) (207, -2.65474362585418510729e-01) (208, 3.22278582073271466224e-02) (209, -3.91363649125016699326e-01) (210, 2.98646695697628805632e-01) (211, 2.49984350693431700563e+00) (212, 6.87855708610678795445e-01) (213, -3.26021795855649443308e-01) (214, -1.21145831193094938305e-01) (215, -6.10963922229708744638e-01) (216, 3.32269035543523938436e-01) (217, 4.00465997445765342633e+00) (218, 7.34507311846851584924e-01) (219, -8.43678544600796720410e-01) (220, -2.58821704348842385190e-01) (221, 3.18316675882515276452e-01) (222, 3.84380743427023219283e-01) (223, 7.53858639863753787758e-01) (224, 1.30672134564413011670e-01) (225, 3.07448988207185025523e-01) (226, 1.76150795668684301276e-01) (227, 3.53131205754300625532e-01) (228, 2.95925746430155789390e-01) (229, 3.39127128744699468665e-01) (230, 2.62353672004448756905e-01) (231, 2.22650272409308125354e-01) (232, 1.84264682179965055830e-01) (233, 3.22160951581051069326e-01) (234, 2.16250827550032109770e-01) (235, 5.40522629810764598801e-01) (236, 2.02813518403803516588e-01) (237, 3.23142324516484169550e-01) (238, 2.23232441224187283524e-01) (239, 3.23547446509727498754e-01) (240, 3.07305050412689462203e-01) (241, 2.94012479530909920378e-01) (242, 9.77406834377783362289e-02) (243, 2.53659627913884355710e-01) (244, 3.12793196045345056611e-01) (245, 2.68818661472273345847e-01) (246, 2.70747307459822172948e-01) (247, 8.28558073415054385791e-02) (248, 7.39343834038073827175e-02) (249, 1.13370409764756735482e-01) (250, 1.74065577811480354242e-01) (251, 1.08583021178882577207e-01) (252, 2.61615382489861936222e-01) (253, 3.64089583547417106058e-01) (254, 2.49875797786774794806e-01) (255, -2.40460184631585915938e-01) (256, -1.01505459331654876443e-01) (257, -2.25583965519038054381e+00) (258, 5.58717899159266173648e-01) (259, 3.10311395158900882318e-01) (260, 1.17737655382914169211e-01) (261, -9.60718815659063196666e-02) (262, -6.12172778268067929730e-01) (263, -2.97963749459970861366e+00) (264, 5.35764380403659368213e-01) (265, 3.74357777792039991827e-01) (266, 1.64500349673738915923e-01) (267, 1.73061515899497947446e-01) (268, -4.22878416956239067126e-01) (269, -1.31596351802530442399e+00) (270, 6.01428841920287671208e-01) (271, 4.04983196327742545062e-01) (272, 2.66716853596458969289e-01) (273, 2.48319790958660302493e-01) (274, 3.31472737049781029928e-01) (275, -4.40542255239574354064e-01) (276, 5.70118963348192120399e-01) (277, 5.57374533384796255753e-01) (278, 2.73222668666553702987e-01) (279, 4.50046388871137015286e-01) (280, 5.46098887659910880998e-01) (281, 4.35084763896052828525e-01) (282, 7.77977478913873365940e-01) (283, 1.02194265880534662649e+00) (284, 3.05972080130925638830e-01) (285, 7.36318438092183780164e-01) (286, 8.44250033136676458767e-01) (287, 7.13434417718076918646e-01) (288, 1.04944612288555272350e+00) (289, 1.72692077179405356624e+00) (290, 1.06843242623417400416e+00) (291, 7.98887482307382046365e-01) (292, 9.67605514641864838943e-01) (293, 9.46161006804241977441e-01) (294, 1.86659283428745781386e+00) (295, 2.73282467258722050474e+00) (296, 2.26513858280845292725e+00) (297, 1.09394104611502540614e+00) (298, 1.14684862098535034214e+00) (299, 9.51748248190752654807e-01) (300, 3.90615691656761077066e-01) (301, 4.49135691530069713906e+00) (302, 7.41373096338847137332e+00) (303, 2.21277138891784730390e+00) (0, 7.32568990143237064316e-01) (1, 6.03388452775655115268e-01) (2, 6.74337917098868588894e-01) (3, 6.01539886337247753367e-01) (4, 6.21409482273846958122e-01) (5, 7.47757062599508914857e-01) (6, -3.13496843030273864006e-01) (7, -3.12669888549479357831e-01) (8, -3.73585579653049115745e-01) (9, 5.79764520034025454542e-01) (10, 7.23510819563263796184e-01) (11, -1.56513368749343656505e-01) (12, -7.49071136865126940840e-01) (13, -3.40184107566495974595e-01) (14, -1.09327726649968615114e+00) (15, 7.40621557582164191658e-01) (16, 2.38366961294318197018e-01) (17, -2.55317500505925276677e-01) (18, -3.74704430247336961468e-01) (19, -3.45831153973593041773e-01) (20, -4.10111068508032527991e-01) (21, 7.75904788714443238717e-01) (22, 8.32211857228905560468e-01) (23, 2.15388170174542814550e-01) (24, -4.66144503113491259771e-01) (25, -9.54022100918927473678e-01) (26, -1.10389236337510276975e+00) (27, 7.87021252553595340729e-01) (28, 9.43890516254737299562e-01) (29, 3.74577157904883661921e-01) (30, -3.54444180137968078981e-01) (31, -2.46489644437783406161e+00) (32, -5.33611054249155447593e+00) (33, 3.41702702946880210177e-01) (34, 8.55989835172786706075e-01) (35, 2.24497259551000361011e-01) (36, -3.53427140506194836789e-01) (37, -1.52860002174052533874e+00) (38, -4.47849499068521339495e+00) (39, 1.57047454972153027741e-01) (40, 2.98870781871494073378e-01) (41, 3.24216652557078488517e-01) (42, -7.03501878748997167001e-01) (43, -4.92277202787755641111e+00) (44, -5.73201369814814665204e+00) (45, 1.89024880478154022612e-01) (46, 4.26212925607307724363e-01) (47, 2.81810202519176822289e-01) (48, 4.09157884990629452937e-02) (49, -1.83220842119693894112e+00) (50, -3.19623900873264821243e+00) (51, -3.99643194516752453538e-01) (52, 1.77225343950026953399e-01) (53, 1.22580315029166608820e-01) (54, 1.64524954700617509484e-01) (55, -6.97369568385839522229e-01) (56, -6.78397209141363366491e-01) (57, -9.50929039310008272778e-01) (58, -2.57729838575680048063e-01) (59, -9.29780126882378654685e-01) (60, 2.94357953341486666687e+00) (61, 4.33693773670398741160e-01) (62, -5.75248649461389760518e-01) (63, -1.13883945435665734358e+00) (64, -6.34720140195504489711e-01) (65, -2.78972795579809229594e+00) (66, -2.96959681451005819142e-01) (67, 4.38743444049144670771e-01) (68, 2.95126196784833483289e-01) (69, -1.66959806021809709087e+00) (70, -1.33465068331534175705e+00) (71, -5.13254425284257820294e+00) (72, -4.85716443960668098345e-01) (73, 4.71303801845105341251e-01) (74, 3.85494524361716106586e-01) (75, -3.87295345488318343286e-01) (76, -5.19384995554830308784e-01) (77, -5.14606613619182917674e-01) (78, -1.16067071770061724933e+00) (79, 4.68658439906129209440e-01) (80, 4.69229474183185613079e-01) (81, -2.31210150780883166854e-01) (82, 2.94990710815650036825e-01) (83, 2.76017230827010739969e-01) (84, -6.23925355602254261278e-01) (85, 8.79840672275132074098e-01) (86, 4.19131777812922212689e-01) (87, 2.06038553648380329264e+00) (88, 8.50819040730123044014e-01) (89, 6.51729370832184962126e-01) (90, -5.32181184627779746421e-01) (91, 4.43048998540859551021e-01) (92, 4.96642184812698672669e-01) (93, 1.36582704551034428420e+00) (94, 1.70007036240627940060e+00) (95, 1.56020271443003299972e+00) (96, 1.10695654855014827267e-01) (97, 5.42045307555781064046e-01) (98, 7.97720623049858357234e-01) (99, 1.58628804146306023881e+00) (100, 6.42998075923162826228e+00) (101, 7.71944297153773639764e+00) (102, 4.54410525736208381620e-01) (103, 6.99836894304547763035e-01) (104, 9.02952991521170256206e-01) (105, 1.23160997700549579292e+00) (106, 1.43574835968980019096e+00) (107, 1.71208488786102179802e+01) (108, 8.66417891880731511067e-02) (109, 6.56815446695006910360e-01) (110, 1.01097479630574049736e+00) (111, 9.80460594254960599025e-02) (112, 2.03079504653784503887e+00) (113, 1.92899858895266107517e+00) (114, -1.59399733149899991425e+00) (115, -6.31628340896749129740e-01) (116, -5.08343352761245981242e-01) (117, -3.22136214705550594228e-01) (118, 7.02370683790446759254e-01) (119, 3.92606021538614069488e-01) (120, -2.37029250126076940219e+00) (121, -4.60811335407029787348e-01) (122, -3.82146343448701852896e-01) (123, 2.17303158309922028746e-01) (124, 7.18777755628756342965e-01) (125, 2.70036381126564783983e+00) (126, -4.84741566420121339220e-01) (127, -1.19719610167627155128e+00) (128, -6.67367198491562230167e-01) (129, 2.21723118201987562381e-01) (130, -7.91515810287024201841e+00) (131, -8.95852046175361671487e+00) (132, -5.30621378364359941315e+00) (133, -1.65194448018135675582e+00) (134, -1.85351192263368913515e+00) (135, -1.16999821192561848093e+00) (136, -9.41153911214828120535e+00) (137, -7.55907232138158935442e+00) (138, -1.12285176704227884770e+00) (139, -3.82065839388809391775e-01) (140, 4.83041935022665924748e+00) (141, -2.10104103247602047588e+00) (142, -1.08907879644473979397e+01) (143, -3.67471003017058919227e+01) (144, -9.92151571955357636234e-01) (145, 6.20656945905074475256e-01) (146, 1.91856333630984678962e+01) (147, -6.41353605770365042815e-01) (148, 1.81736789282544997093e+01) (149, -7.82658971323744734327e-01) (150, -1.47734228792793853557e+00) (151, 9.48371516053764573861e-01) (152, 2.20068317962622339579e+00) (153, -4.52603131188905771776e-01) (154, 5.64118539086959458473e+01) (155, 1.28443817813411453876e+00) (156, -9.29731849765409235076e-01) (157, 6.18673784815495064748e+00) (158, 2.14990790651201386652e+01) (159, 5.39594689974365396279e-02) (160, 9.67210462250358560254e+00) (161, -1.25619445731356016438e+00) (162, -8.00891443819170101293e-01) (163, 4.36097080452736207690e+00) (164, 2.78771673301840188230e+01) (165, -5.81491621899836386156e-01) (166, -1.36643113579910853161e+01) (167, -1.00165331878665124776e+01) (168, -7.92259185789112141407e-01) (169, 1.19751859075873112737e+00) (170, -1.82255420774941945261e+00) (171, 4.04125219138120717055e-01) (172, 8.54391670844060513446e+00) (173, 5.85424940680198080400e+00) (174, -2.68170432527906399400e-01) (175, -2.01868167468130688125e-01) (176, -2.15965772139155731679e+01) (177, 1.25025619794119302597e-01) (178, 3.75281138737834396579e+00) (179, 4.06728010935826311822e+00) (180, -2.42265470355310014172e-01) (181, -3.98845094664147703512e+00) (182, -1.92301238741257343179e+01) (183, -4.42705680334049389568e-01) (184, 2.72022560131395307881e-01) (185, 9.07511592971629754700e-01) (186, 2.55328849115324163499e-01) (187, -6.13612685280948033650e-01) (188, -3.20441849814059054324e+00) (189, -4.14132110285417576190e-01) (190, 7.34291296145628602510e-01) (191, 9.22225177430370379739e+00) (192, -2.54885083687674984798e-01) (193, -6.81963125793637492400e-01) (194, -7.12507639661675629128e+00) (195, -2.76596901271417061619e-01) (196, -5.32925543215155061993e-01) (197, 1.13180542766444125480e-01) (198, 2.19943554057905249488e-01) (199, 5.79371117486050385414e-02) (200, -2.80702229785451651267e+00) (201, -6.32506206477905008612e-01) (202, -7.05326460208941630192e-01) (203, -8.64610410779257931857e-01) (204, 3.02987908536646366464e-01) (205, 6.15021600235893473041e-01) (206, 2.82364999862257770591e-01) (207, -4.44371968667602146308e-01) (208, -4.58057666875045677024e-01) (209, -4.24605822513544339802e-01) (210, 3.06706984887276212781e-01) (211, 1.88196687141673063559e-01) (212, 3.37601816411283672803e-01) (213, -3.22562712866058920458e-01) (214, 7.76159873827668711499e-01) (215, 6.12242590209681969426e-01) (216, 2.59149928940308305059e-01) (217, 2.07460287159358242048e-01) (218, -3.29878031593159801171e-02) (219, -5.51394528704341135850e-01) (220, -5.39485691898615449258e-02) (221, 1.62337452862296005573e-01) (222, 2.17099735571361224240e-01) (223, 2.20208488394014217926e-01) (224, 1.25905583257212239090e-01) (225, -6.15128961878733004909e-01) (226, 4.04379550405118415313e-02) (227, -8.42918028082430409453e-02) (228, 1.35648457893115165218e-01) (229, 1.28591646701344819448e-01) (230, -1.61692929073755153890e-01) (231, -6.69781426655833511674e-01) (232, -6.49515436160688769407e-02) (233, -9.30694282843825271279e-02) (234, 5.92706576149590991243e-01) (235, 6.38519388831257694861e-01) (236, 3.11654059215229872759e-01) (237, -1.20948274842682934604e+00) (238, -2.19059022720080154301e-01) (239, -6.08397716886871497977e-01) (240, 7.58025320816651748679e-01) (241, 5.22623279574968901962e-01) (242, 4.44247179775774936328e-01) (243, -4.77751969341000115588e-01) (244, -6.13838189605243611524e-01) (245, -5.37052120552565015466e-01) (246, 6.36360073719941965464e-01) (247, 7.71052995645147509762e-01) (248, 5.17000335864532090113e-01) (249, -2.72898982989784100184e-01) (250, -3.10180538446134992231e-03) (251, -5.10907929988705600266e-01) (252, 6.40483429121988412369e-01) (253, 1.29967726820277840183e+00) (254, 7.21375159129405751912e-01) (255, 9.95125947093517121411e-02) (256, -8.89195176020050881416e-02) (257, -9.50572194758121602476e-01) (258, 7.91576198854720303189e-01) (259, 1.73634492259524786384e+00) (260, 1.05743943104799242860e+00) (261, 2.66225872700304011520e-01) (262, 1.76739715809761027687e-01) (263, 2.79400025629978378261e-02) (264, 7.67904784500533676983e-01) (265, 2.26810248598559471844e+00) (266, 1.04532110182875381810e+00) (267, 3.22699213169457599371e-01) (268, 2.29823524729654810050e-01) (269, 3.04017525592439274984e-01) (270, 8.18806719332170973580e-01) (271, 2.66695296062771713963e+00) (272, 9.13852518926803414345e-01) (273, 2.92016560481319797926e-01) (274, 2.11767229612779689374e-01) (275, 1.28294717705924848916e-01) (276, 8.40644867072961043952e-01) (277, 1.88275784435598447786e+00) (278, 1.01962021990568452168e+00) (279, 1.49736351784033022705e-01) (280, 1.85073026739648122119e-01) (281, -3.37656414349760236604e-01) (282, 8.39393165823050790841e-01) (283, 8.10127439029380447266e-01) (284, 8.68291764801075616198e-01) (285, -2.89147936153942908266e-01) (286, -2.33692452141579826153e-01) (287, -3.81380721111602094542e-01) (288, 7.59207302984759468956e-01) (289, 7.62774253292841653007e-01) (290, 7.98383277864610940711e-01) (291, 6.89503084292322654392e-01) (292, -2.66633628757571183865e-01) (293, -3.36959506473656189574e-01) (294, 6.93168536968480353266e-01) (295, 6.21199532893792039090e-01) (296, 7.55049568993390485261e-01) (297, 6.21295973342269047812e-01) (298, 6.01283181003393507602e-01) (299, 6.11319983357819007885e-01) (300, 1.09760606438377128491e+00) (301, -1.83198248016094411561e+00) (302, -1.74773051310312581563e+01) (303, 1.15335483708703030459e+01) (0, 4.08403819508766918744e-01) (1, 3.68330232108767807730e-01) (2, 2.06448945860197907720e-01) (3, 5.64682057914604462745e-02) (4, 5.41835955008349579032e-02) (5, -2.49129989938180300413e-02) (6, 1.38365790404978050709e+00) (7, 1.37143044291705717974e+00) (8, 9.66854951446705301876e-01) (9, 6.26299323140516728259e-02) (10, 2.29449700394851741070e-01) (11, -3.14242392128517428196e-02) (12, 3.98382964687922447311e+00) (13, 4.25960156010917145863e+00) (14, 2.17842463891675341969e+00) (15, -8.15650211291395026147e-03) (16, 1.01132525909223280891e-02) (17, -1.52230867127702354513e-02) (18, 2.40806958023894335241e+00) (19, 1.42915373585345428786e+00) (20, 1.50233697188498993569e+00) (21, 1.45026732506119398342e-02) (22, 9.48595838000824281844e-03) (23, -2.60390251087184235179e-02) (24, 2.27415397572793898107e+00) (25, 6.18236074183117656489e-01) (26, 1.59961930578850131113e+00) (27, -7.78836347323130090414e-02) (28, -2.14403978877922313240e-01) (29, -3.56621116705911456179e-01) (30, 1.56238972572207557299e+00) (31, 3.71428840990372155506e-01) (32, 9.35576287329834999085e-01) (33, -1.57115383670949071426e-01) (34, -2.50578670456572560887e-01) (35, -2.20047981168621759052e-01) (36, 8.51071743557915982858e-02) (37, -3.49109483489046334981e+00) (38, -4.73893817698885985723e-02) (39, -2.33664988723003314020e-01) (40, -1.54262807171176796750e-01) (41, -6.92049131100096914793e-01) (42, -6.68195046293601602194e-01) (43, -6.74840205344022603384e+00) (44, -1.11329762192790626685e+00) (45, -2.95876917314693399508e-01) (46, -7.78911374298032477270e-01) (47, -4.15799203657441118764e+00) (48, 1.01248973932038785484e-01) (49, -4.00508705520479679763e+00) (50, -8.21116384685740663407e-01) (51, -4.00651164476653331992e-01) (52, -7.62351314287013970272e-01) (53, -7.47062653777516683107e+00) (54, 1.79080306062408045609e-01) (55, -3.05204611364133571172e+00) (56, -2.47991573638381451739e-01) (57, -2.49973498292616030936e-01) (58, -4.17735609763589310628e-01) (59, -1.13479995216740170427e+00) (60, 2.51990030521461461088e-01) (61, -1.66262572919564455276e+00) (62, 1.11013655139628339419e-01) (63, -3.54775155826493049371e-02) (64, -3.28186781983061726109e-01) (65, -3.37433038558428044507e-01) (66, 7.22007463157096351924e-02) (67, -8.54449838655957982780e+00) (68, -1.34865883088723131911e-01) (69, -8.45948730029876666547e-02) (70, -2.50817819907370898047e-01) (71, -2.74049642091884149142e-01) (72, 6.05659298469785056795e-03) (73, -1.27332327433146708096e+00) (74, 1.79728244115723051477e-01) (75, -9.44992219092748997333e-02) (76, -5.60729165018913205953e-02) (77, -1.80965175863589455840e-01) (78, 3.64220992049435421389e-01) (79, 3.97690987832509251776e-02) (80, 1.76829077509040838434e-01) (81, -2.38987280053481104813e-01) (82, -6.05559629215843484018e-02) (83, -4.05218762239930363478e-01) (84, 6.48518373165549277815e-01) (85, 3.70812036526730670616e-01) (86, 4.23604013732881146126e-01) (87, 2.65010439343258352718e-01) (88, 7.10919415114229291675e-01) (89, 1.07766220602483064894e+00) (90, 1.37988453642353059436e+00) (91, 3.03667432849005991535e-01) (92, 6.01094117122608739834e-01) (93, 4.98319673690312270331e-02) (94, 1.85388472911425489231e-01) (95, 1.06087867772766331065e+00) (96, 2.62785132781233699006e+00) (97, 8.67536753718831210591e-01) (98, 2.39102917279444726617e+00) (99, 1.85487269478841976245e+00) (100, 9.67247834628078506647e-01) (101, 1.07598076568635558914e+01) (102, 2.60997330060290311238e+00) (103, 2.31829339704374026709e+00) (104, 1.52014877816470717065e+00) (105, 2.78169968752232721343e+00) (106, 3.22338570696278359229e-01) (107, 1.75771966889689212898e+00) (108, 2.41726243557553832630e+00) (109, 2.34285427426730530343e+00) (110, 1.17456024681721404868e+00) (111, 4.95300299048905323662e-01) (112, -3.04017720197300111984e-01) (113, 5.52591620724941168241e-01) (114, 1.98968147111489246370e+00) (115, 2.51157108034523091078e+00) (116, 9.33354508107902325342e-01) (117, -8.08721808526653984650e-02) (118, -3.09084524102641999832e+00) (119, -1.94786955953862985780e+01) (120, 5.67392268987897074872e-01) (121, 1.09915309328074273232e+00) (122, 6.88722573138958460426e-02) (123, 3.29298200817939346052e+00) (124, 1.06602752807779177502e+00) (125, 7.99475821620170901127e+00) (126, 4.08008500990670319730e-02) (127, 1.39632435401624815929e-01) (128, -1.50528970606838952140e-01) (129, 2.50064719267184543128e+00) (130, 1.56465323626610186558e+00) (131, -6.00996947194006425619e-01) (132, -1.81252818636477464054e-01) (133, -5.34124505809809857482e-02) (134, -2.92603864731187135462e+00) (135, 1.03370981692506669347e+00) (136, 2.05477256650914386071e+00) (137, -7.21604745388853974220e+00) (138, -1.88819093293768419661e-01) (139, 7.09266464421713149768e-01) (140, -4.93004138732866881156e+00) (141, -2.01521161402499732196e-01) (142, -5.01854502711352901123e-01) (143, 1.92754564556732832514e+00) (144, -1.96849622763712400753e-01) (145, 2.60761825664007296233e-01) (146, -1.69087960800603442912e+00) (147, 4.16439776006192474700e-01) (148, 2.13539477817455136677e-01) (149, 4.42219202839811487138e+00) (150, -5.63507684665174868321e-02) (151, -1.90555089029890989405e-01) (152, -1.92584996838988153911e+00) (153, 4.84928460089356250240e-01) (154, 1.12789160860249371154e+00) (155, -8.17436589784445721829e-02) (156, -9.54299783477896984563e-02) (157, -1.45117379788590766809e-01) (158, -1.22454439860727748446e+00) (159, 2.26652199445768920416e-01) (160, 4.48795857893130756278e-01) (161, -4.50009933663154448880e+00) (162, -1.73865611198222996814e-01) (163, -2.88007434718415611385e-01) (164, -3.01176962119324431733e-01) (165, 5.96024239955099344179e-01) (166, 5.87041720741194317235e-01) (167, -5.33679493752939326789e-01) (168, -4.48090831900549782518e-02) (169, -4.11924944087600386489e-01) (170, -1.76333730821594292237e+00) (171, 3.78866779886156246349e-01) (172, 1.54852830506543637235e-01) (173, -1.52982806319029385200e+00) (174, 2.60569026696206478347e-03) (175, -7.58050704538122954723e-01) (176, -7.20267081331399161570e+00) (177, 2.43241777075830878374e+00) (178, 6.58735740915116996241e-01) (179, 6.92366191284710885689e-01) (180, 4.72308221797701072164e-02) (181, -2.06114304814187992987e-01) (182, -1.50975201581248719140e-01) (183, 3.23810186847436398683e-01) (184, 2.23487130372309966697e-01) (185, -3.88822790131296558425e-01) (186, -1.27487566199758727004e-02) (187, 5.74573618896878027945e-03) (188, 1.45101647976376080251e+00) (189, 3.87600413536912727364e-02) (190, -1.62492746039633012556e-01) (191, -2.73117284597711840188e-01) (192, 4.29140165240983195716e-02) (193, 2.10082371006838491967e-02) (194, 1.02672938725242679503e+00) (195, -1.62490633687398994267e-01) (196, 7.72187611116620375995e-02) (197, 2.28164659721491913658e-01) (198, -2.53677751783975731492e-02) (199, 1.75421969928701952657e-02) (200, 9.71124790428241069229e-01) (201, 6.87745668308100133181e-02) (202, -3.02398499262377440377e-01) (203, 1.93064126447462444669e-02) (204, 1.85597090214205423520e-01) (205, 7.52296407396389699151e-01) (206, 1.76237881025613263297e+00) (207, 2.31111935115659750117e-01) (208, 1.21481944191223920071e-01) (209, 8.54075498487818773885e-02) (210, 6.08089854301386636970e-02) (211, 1.26684062907411132404e-01) (212, 7.12022095467116922229e-01) (213, -7.24493315681967314790e-02) (214, 9.54968174988622547916e-02) (215, 3.28104450934713423593e-02) (216, -6.40012779180016005975e-02) (217, 5.08192725121479754735e-02) (218, 1.22272397495280474300e-01) (219, -8.61670651842391388531e-02) (220, -7.58569845351541038880e-02) (221, -5.03023086120158002821e-01) (222, 1.42081801743458469023e-01) (223, 7.82678306388109978897e-01) (224, 1.25572352029702072329e-01) (225, -4.56633396571281102716e-01) (226, -4.57319716711238943851e-01) (227, -3.15018118728729890066e+00) (228, 1.38927637292665995261e-01) (229, 8.19664914295443969294e-01) (230, 3.11984515249820404392e-01) (231, -2.20411415649992031840e-01) (232, -3.12286436341058626365e-01) (233, 1.50491224714425858577e-01) (234, -2.97004151688075243576e-02) (235, 7.18977410131519167891e-01) (236, 6.34585468109027384109e-01) (237, -1.96914213010117578051e-01) (238, -2.76809046476401809933e-01) (239, -1.34758759522148524601e-01) (240, 8.35155468727127869855e-02) (241, 7.24037662552245109282e-01) (242, 6.29907508373063418361e-01) (243, -2.68898265148411752534e-01) (244, -3.07853060611565310101e-01) (245, -1.09306051628561196054e+00) (246, 2.36140656770248320850e-02) (247, 7.82201835451720062231e-01) (248, 6.59999164483554334737e-01) (249, -3.47298110539712767686e-01) (250, -2.94725862172513786152e-01) (251, -2.60562467874485004238e-01) (252, 2.40813026517717257424e-02) (253, 4.75262995298270166100e-02) (254, 8.48684591258188313068e-03) (255, -2.01815314316545840745e-01) (256, -2.06536653760994198814e-01) (257, -3.98949257321348949024e-01) (258, -4.05390500753735338879e-02) (259, 7.36079952255243030734e-02) (260, -1.01433029961320864132e-01) (261, -3.36472884377924441601e-01) (262, -3.35917045867709485041e-01) (263, -7.00624850464075299428e-01) (264, -2.24855087665955591381e-02) (265, 8.18836129431916026622e-02) (266, -1.13834355002959741743e-01) (267, -1.98031755531998088227e-01) (268, -3.08867516567899458302e-01) (269, -4.60722805809956281742e-01) (270, 8.01022844301450959170e-02) (271, 4.97408835685450856356e-02) (272, -6.12300264560760240662e-02) (273, -8.26771258010199905364e-02) (274, -3.00234115292982550738e-01) (275, -2.73256329300934130977e-01) (276, -7.48408818275253778091e-03) (277, 8.76430770620103410939e-02) (278, 5.84957265042005056244e-02) (279, -1.56695587714761747078e-01) (280, -5.13161143379826725774e-02) (281, -1.75795807217835442504e-01) (282, 1.24506088376594881151e-01) (283, 2.63768661108872391752e-02) (284, 6.91714030440495064589e-02) (285, -6.10652942911532325976e-02) (286, -1.55220469590426402018e-01) (287, -1.43441166219576587970e-01) (288, 1.75132715015598960928e-01) (289, 7.61683500777882716015e-02) (290, -1.69977315429969584593e-02) (291, -9.42901869161223843419e-02) (292, -2.11946154878253391340e-02) (293, -6.47650394215474739523e-02) (294, 1.34200931588657002003e+00) (295, 1.32077435652263286414e+00) (296, 1.86343356202373966468e+00) (297, 7.88409966669865874822e-02) (298, 1.49070483547920798299e-03) (299, 1.35907984465937561880e-02) (300, 1.83234741748793372729e+00) (301, -6.97116764100225383416e-01) (302, -4.12895402560819313464e+00) (303, 1.24684908326924048794e+00) (0, 7.83282129828087536616e-01) (1, 9.30812015165035644415e-01) (2, 2.73421394366895942341e-01) (3, 2.21559632564509445540e-01) (4, 1.25868710956861085126e-01) (5, 2.17077043970075489465e-01) (6, 4.21641024557160726260e+00) (7, 1.87887777978041436988e+00) (8, 1.87292552827148339745e+00) (9, 1.08926830608051111726e-01) (10, 2.22205659200784194640e-01) (11, 1.91929689609511205939e-01) (12, 5.53142426297366540666e+00) (13, 3.10195844538094656073e+00) (14, 1.66983344899905516989e+00) (15, 2.03784358599152864988e-01) (16, 9.76337067362515187430e-02) (17, 1.78981297210716316926e-01) (18, 6.61664712856254233486e+00) (19, 1.62283181575217971826e+00) (20, 1.94479210510329192374e+00) (21, 2.45284591362935427972e-01) (22, 1.15302400958126591290e-01) (23, 1.42699132920397292468e-01) (24, 1.24050631337998567005e+01) (25, 9.26546430143314614369e-01) (26, 1.76736135522259019126e+00) (27, 1.98008179556966729118e-01) (28, 7.96241164651134258889e-01) (29, 7.17848528990207568334e-01) (30, 2.18206538369413349798e+00) (31, 9.08146059579320930055e-01) (32, 1.25711548799399963627e+00) (33, 6.18944878324683145365e-02) (34, 1.60059297611867490385e-01) (35, 7.51288544139752212381e-01) (36, 2.34428373698362779720e+00) (37, 7.50096778202938407887e-01) (38, 9.18052548138083124307e-01) (39, -4.59189209820419497188e-01) (40, 1.68790588584382422743e-01) (41, 2.19476706674167076905e-01) (42, 1.30305519790115043044e+00) (43, 8.60913345470975532869e-01) (44, 1.03446177740116751487e+00) (45, -3.39817182305976184242e-01) (46, 1.18654386476320580779e-01) (47, 2.48411235085090970065e-01) (48, 9.77084926532158504209e-01) (49, 1.01514151613040670696e+00) (50, 1.09611052723360646866e+00) (51, -2.92291564094607381197e-01) (52, 2.35877822272075293730e-01) (53, 1.79508997465150255124e-01) (54, 7.13759008842751230262e-01) (55, 3.62766377478582480176e-01) (56, 8.02686469761207166407e-01) (57, 1.28088396554770972413e-01) (58, 1.26329799891785776733e-01) (59, 2.47522358006184745038e-01) (60, 7.52767229871947746167e-02) (61, -2.94859183338562003129e+00) (62, -8.65754666566086794610e-01) (63, 1.67427359818010351722e-01) (64, 2.01766690503987544680e-01) (65, 8.57794211261551781122e-02) (66, -7.33418429580522945876e-01) (67, -1.34533529543438379328e+00) (68, -1.74095441390361682643e+00) (69, 2.18207739729072452972e-01) (70, 1.52560233168925141189e-01) (71, 8.75932954066625940603e-02) (72, -1.01716473637590265611e+00) (73, -8.59506305427393368923e-01) (74, -1.38985786806549271866e+00) (75, -4.14264712017266778510e-01) (76, -3.17248285157236076248e-01) (77, -4.42430707383652699338e-01) (78, -1.84251284901514744696e+00) (79, -1.44285057075838829554e+00) (80, -3.30337292293366457940e+00) (81, -3.70859573133874076412e-01) (82, -3.47392739791537064065e-01) (83, -4.74268486865874194791e-01) (84, -5.61552993953514878456e-01) (85, -1.31468008334141761573e+00) (86, -2.52855388395870139817e+00) (87, 3.91901194148530432337e-02) (88, -4.89355570798923555920e-01) (89, -5.34037478180858116161e-01) (90, -5.41598504476358044712e-01) (91, -5.71901710556049214240e-01) (92, -7.96673675097704259151e-01) (93, 9.61285639365014182856e-02) (94, -4.95841214957620846082e-01) (95, -4.54742521728505710854e-01) (96, 1.58914797920255701502e-01) (97, -5.20121582273737170787e-01) (98, -6.61011533799615635942e-01) (99, 1.06393621073376715147e-01) (100, -6.40644150408950063813e-01) (101, -6.56859175689716856539e-01) (102, 1.11846776363836358792e-01) (103, -3.76231170335525832993e-01) (104, -1.24058908104719978205e+00) (105, 7.26219496474471259972e-01) (106, -4.81816958638249803748e-01) (107, -1.30955798189179151159e+00) (108, 1.70394128061609750890e-01) (109, -3.09605939846908317925e-01) (110, -1.19531663886144379205e+00) (111, 8.11718245853192188477e-01) (112, -1.70443159692939216754e+00) (113, -8.56981171590862800258e+00) (114, 2.59839483631589929225e-01) (115, 1.02960008940082656248e-01) (116, 8.79677201002669051366e-02) (117, 7.98043313499111506282e-01) (118, -2.41864404597502424821e+00) (119, -2.39660057925313330074e+00) (120, 2.56579005863718290215e-01) (121, 1.34891181822694911085e-01) (122, -8.75742613647437634361e-02) (123, 8.86607482783219547073e-01) (124, -7.53836234259382909073e+00) (125, -1.26035885280486219528e+01) (126, 1.69642496297692929597e-01) (127, -3.91105981670885782808e-01) (128, -1.63358010618249860357e+00) (129, 9.39868369078523668847e-01) (130, 3.40519266342071913467e-01) (131, 1.92301867423910088917e+01) (132, 1.79381108785123283278e-01) (133, -3.73158467935857218745e-01) (134, -7.93137919789176359942e-01) (135, 6.97299393255929378377e-01) (136, 1.11936970529146972986e+00) (137, -2.58818137519939170943e+01) (138, 1.89229677760480163862e-01) (139, -1.01469771053140900285e+00) (140, -2.73800529955164861917e+00) (141, -5.92230706127109152170e-01) (142, 1.36386418120696646383e+01) (143, 9.58081750629812378683e-01) (144, 6.91669689577260882185e-02) (145, -2.31282821779788294592e+00) (146, 1.19711203146480094084e+00) (147, -1.60796449867446122894e+00) (148, 1.66083026381123737281e+01) (149, -5.54684069745590679901e+00) (150, 1.79497003885451130410e-03) (151, -4.94229435983373743824e+00) (152, 3.66439168541600750473e+01) (153, -3.44883010140588586179e-01) (154, 8.92318337537235706236e+00) (155, -3.52958715926217436731e+00) (156, -1.12285684072230140806e+00) (157, 