FANN_FLO_2.1
num_layers=4
learning_rate=0.700000
connection_rate=1.000000
network_type=1
learning_momentum=0.000000
training_algorithm=2
train_error_function=1
train_stop_function=0
cascade_output_change_fraction=0.010000
quickprop_decay=-0.000100
quickprop_mu=1.750000
rprop_increase_factor=1.200000
rprop_decrease_factor=0.500000
rprop_delta_min=0.000000
rprop_delta_max=50.000000
rprop_delta_zero=0.100000
cascade_output_stagnation_epochs=12
cascade_candidate_change_fraction=0.010000
cascade_candidate_stagnation_epochs=12
cascade_max_out_epochs=150
cascade_max_cand_epochs=150
cascade_num_candidate_groups=2
bit_fail_limit=3.49999999999999977796e-01
cascade_candidate_limit=1.00000000000000000000e+03
cascade_weight_multiplier=4.00000000000000022204e-01
cascade_activation_functions_count=10
cascade_activation_functions=3 5 7 8 10 11 14 15 16 17 
cascade_activation_steepnesses_count=4
cascade_activation_steepnesses=2.50000000000000000000e-01 5.00000000000000000000e-01 7.50000000000000000000e-01 1.00000000000000000000e+00 
layer_sizes=301 1 1 2 
scale_included=0
neurons (num_inputs, activation_function, activation_steepness)=(0, 0, 0.00000000000000000000e+00) (0, 0, 0.00000000000000000000e+00) (0, 0, 0.00000000000000000000e+00) (0, 0, 0.00000000000000000000e+00) (0, 0, 0.00000000000000000000e+00) (0, 0, 0.00000000000000000000e+00) (0, 0, 0.00000000000000000000e+00) (0, 0, 0.00000000000000000000e+00) (0, 0, 0.00000000000000000000e+00) (0, 0, 0.00000000000000000000e+00) (0, 0, 0.00000000000000000000e+00) (0, 0, 0.00000000000000000000e+00) (0, 0, 0.00000000000000000000e+00) (0, 0, 0.00000000000000000000e+00) (0, 0, 0.00000000000000000000e+00) (0, 0, 0.00000000000000000000e+00) (0, 0, 0.00000000000000000000e+00) (0, 0, 0.00000000000000000000e+00) (0, 0, 0.00000000000000000000e+00) (0, 0, 0.00000000000000000000e+00) (0, 0, 0.00000000000000000000e+00) (0, 0, 0.00000000000000000000e+00) (0, 0, 0.00000000000000000000e+00) (0, 0, 0.00000000000000000000e+00) (0, 0, 0.00000000000000000000e+00) (0, 0, 0.00000000000000000000e+00) (0, 0, 0.00000000000000000000e+00) (0, 0, 0.00000000000000000000e+00) (0, 0, 0.00000000000000000000e+00) (0, 0, 0.00000000000000000000e+00) (0, 0, 0.00000000000000000000e+00) (0, 0, 0.00000000000000000000e+00) (0, 0, 0.00000000000000000000e+00) (0, 0, 0.00000000000000000000e+00) (0, 0, 0.00000000000000000000e+00) (0, 0, 0.00000000000000000000e+00) (0, 0, 0.00000000000000000000e+00) (0, 0, 0.00000000000000000000e+00) (0, 0, 0.00000000000000000000e+00) (0, 0, 0.00000000000000000000e+00) (0, 0, 0.00000000000000000000e+00) (0, 0, 0.00000000000000000000e+00) (0, 0, 0.00000000000000000000e+00) (0, 0, 0.00000000000000000000e+00) (0, 0, 0.00000000000000000000e+00) (0, 0, 0.00000000000000000000e+00) (0, 0, 0.00000000000000000000e+00) (0, 0, 0.00000000000000000000e+00) (0, 0, 0.00000000000000000000e+00) (0, 0, 0.00000000000000000000e+00) (0, 0, 0.00000000000000000000e+00) (0, 0, 0.00000000000000000000e+00) (0, 0, 0.00000000000000000000e+00) (0, 0, 0.00000000000000000000e+00) (0, 0, 0.00000000000000000000e+00) (0, 0, 0.00000000000000000000e+00) (0, 0, 0.00000000000000000000e+00) (0, 0, 0.00000000000000000000e+00) (0, 0, 0.00000000000000000000e+00) (0, 0, 0.00000000000000000000e+00) (0, 0, 0.00000000000000000000e+00) (0, 0, 0.00000000000000000000e+00) (0, 0, 0.00000000000000000000e+00) (0, 0, 0.00000000000000000000e+00) (0, 0, 0.00000000000000000000e+00) (0, 0, 0.00000000000000000000e+00) (0, 0, 0.00000000000000000000e+00) (0, 0, 0.00000000000000000000e+00) (0, 0, 0.00000000000000000000e+00) (0, 0, 0.00000000000000000000e+00) (0, 0, 0.00000000000000000000e+00) (0, 0, 0.00000000000000000000e+00) (0, 0, 0.00000000000000000000e+00) (0, 0, 0.00000000000000000000e+00) (0, 0, 0.00000000000000000000e+00) (0, 0, 0.00000000000000000000e+00) (0, 0, 0.00000000000000000000e+00) (0, 0, 0.00000000000000000000e+00) (0, 0, 0.00000000000000000000e+00) (0, 0, 0.00000000000000000000e+00) (0, 0, 0.00000000000000000000e+00) (0, 0, 0.00000000000000000000e+00) (0, 0, 0.00000000000000000000e+00) (0, 0, 0.00000000000000000000e+00) (0, 0, 0.00000000000000000000e+00) (0, 0, 0.00000000000000000000e+00) (0, 0, 0.00000000000000000000e+00) (0, 0, 0.00000000000000000000e+00) (0, 0, 0.00000000000000000000e+00) (0, 0, 0.00000000000000000000e+00) (0, 0, 0.00000000000000000000e+00) (0, 0, 0.00000000000000000000e+00) (0, 0, 0.00000000000000000000e+00) (0, 0, 0.00000000000000000000e+00) (0, 0, 0.00000000000000000000e+00) (0, 0, 0.00000000000000000000e+00) (0, 0, 0.00000000000000000000e+00) (0, 0, 0.00000000000000000000e+00) (0, 0, 0.00000000000000000000e+00) (0, 0, 0.00000000000000000000e+00) (0, 0, 0.00000000000000000000e+00) (0, 0, 0.00000000000000000000e+00) (0, 0, 0.00000000000000000000e+00) (0, 0, 0.00000000000000000000e+00) (0, 0, 0.00000000000000000000e+00) (0, 0, 0.00000000000000000000e+00) (0, 0, 0.00000000000000000000e+00) (0, 0, 0.00000000000000000000e+00) (0, 0, 0.00000000000000000000e+00) (0, 0, 0.00000000000000000000e+00) (0, 0, 0.00000000000000000000e+00) (0, 0, 0.00000000000000000000e+00) (0, 0, 0.00000000000000000000e+00) (0, 0, 0.00000000000000000000e+00) (0, 0, 0.00000000000000000000e+00) (0, 0, 0.00000000000000000000e+00) (0, 0, 0.00000000000000000000e+00) (0, 0, 0.00000000000000000000e+00) (0, 0, 0.00000000000000000000e+00) (0, 0, 0.00000000000000000000e+00) (0, 0, 0.00000000000000000000e+00) (0, 0, 0.00000000000000000000e+00) (0, 0, 0.00000000000000000000e+00) (0, 0, 0.00000000000000000000e+00) (0, 0, 0.00000000000000000000e+00) (0, 0, 0.00000000000000000000e+00) (0, 0, 0.00000000000000000000e+00) (0, 0, 0.00000000000000000000e+00) (0, 0, 0.00000000000000000000e+00) (0, 0, 0.00000000000000000000e+00) (0, 0, 0.00000000000000000000e+00) (0, 0, 0.00000000000000000000e+00) (0, 0, 0.00000000000000000000e+00) (0, 0, 0.00000000000000000000e+00) (0, 0, 0.00000000000000000000e+00) (0, 0, 0.00000000000000000000e+00) (0, 0, 0.00000000000000000000e+00) (0, 0, 0.00000000000000000000e+00) (0, 0, 0.00000000000000000000e+00) (0, 0, 0.00000000000000000000e+00) (0, 0, 0.00000000000000000000e+00) (0, 0, 0.00000000000000000000e+00) (0, 0, 0.00000000000000000000e+00) (0, 0, 0.00000000000000000000e+00) (0, 0, 0.00000000000000000000e+00) (0, 0, 0.00000000000000000000e+00) (0, 0, 0.00000000000000000000e+00) (0, 0, 0.00000000000000000000e+00) (0, 0, 0.00000000000000000000e+00) (0, 0, 0.00000000000000000000e+00) (0, 0, 0.00000000000000000000e+00) (0, 0, 0.00000000000000000000e+00) (0, 0, 0.00000000000000000000e+00) (0, 0, 0.00000000000000000000e+00) (0, 0, 0.00000000000000000000e+00) (0, 0, 0.00000000000000000000e+00) (0, 0, 0.00000000000000000000e+00) (0, 0, 0.00000000000000000000e+00) (0, 0, 0.00000000000000000000e+00) (0, 0, 0.00000000000000000000e+00) (0, 0, 0.00000000000000000000e+00) (0, 0, 0.00000000000000000000e+00) (0, 0, 0.00000000000000000000e+00) (0, 0, 0.00000000000000000000e+00) (0, 0, 0.00000000000000000000e+00) (0, 0, 0.00000000000000000000e+00) (0, 0, 0.00000000000000000000e+00) (0, 0, 0.00000000000000000000e+00) (0, 0, 0.00000000000000000000e+00) (0, 0, 0.00000000000000000000e+00) (0, 0, 0.00000000000000000000e+00) (0, 0, 0.00000000000000000000e+00) (0, 0, 0.00000000000000000000e+00) (0, 0, 0.00000000000000000000e+00) (0, 0, 0.00000000000000000000e+00) (0, 0, 0.00000000000000000000e+00) (0, 0, 0.00000000000000000000e+00) (0, 0, 0.00000000000000000000e+00) (0, 0, 0.00000000000000000000e+00) (0, 0, 0.00000000000000000000e+00) (0, 0, 0.00000000000000000000e+00) (0, 0, 0.00000000000000000000e+00) (0, 0, 0.00000000000000000000e+00) (0, 0, 0.00000000000000000000e+00) (0, 0, 0.00000000000000000000e+00) (0, 0, 0.00000000000000000000e+00) (0, 0, 0.00000000000000000000e+00) (0, 0, 0.00000000000000000000e+00) (0, 0, 0.00000000000000000000e+00) (0, 0, 0.00000000000000000000e+00) (0, 0, 0.00000000000000000000e+00) (0, 0, 0.00000000000000000000e+00) (0, 0, 0.00000000000000000000e+00) (0, 0, 0.00000000000000000000e+00) (0, 0, 0.00000000000000000000e+00) (0, 0, 0.00000000000000000000e+00) (0, 0, 0.00000000000000000000e+00) (0, 0, 0.00000000000000000000e+00) (0, 0, 0.00000000000000000000e+00) (0, 0, 0.00000000000000000000e+00) (0, 0, 0.00000000000000000000e+00) (0, 0, 0.00000000000000000000e+00) (0, 0, 0.00000000000000000000e+00) (0, 0, 0.00000000000000000000e+00) (0, 0, 0.00000000000000000000e+00) (0, 0, 0.00000000000000000000e+00) (0, 0, 0.00000000000000000000e+00) (0, 0, 0.00000000000000000000e+00) (0, 0, 0.00000000000000000000e+00) (0, 0, 0.00000000000000000000e+00) (0, 0, 0.00000000000000000000e+00) (0, 0, 0.00000000000000000000e+00) (0, 0, 0.00000000000000000000e+00) (0, 0, 0.00000000000000000000e+00) (0, 0, 0.00000000000000000000e+00) (0, 0, 0.00000000000000000000e+00) (0, 0, 0.00000000000000000000e+00) (0, 0, 0.00000000000000000000e+00) (0, 0, 0.00000000000000000000e+00) (0, 0, 0.00000000000000000000e+00) (0, 0, 0.00000000000000000000e+00) (0, 0, 0.00000000000000000000e+00) (0, 0, 0.00000000000000000000e+00) (0, 0, 0.00000000000000000000e+00) (0, 0, 0.00000000000000000000e+00) (0, 0, 0.00000000000000000000e+00) (0, 0, 0.00000000000000000000e+00) (0, 0, 0.00000000000000000000e+00) (0, 0, 0.00000000000000000000e+00) (0, 0, 0.00000000000000000000e+00) (0, 0, 0.00000000000000000000e+00) (0, 0, 0.00000000000000000000e+00) (0, 0, 0.00000000000000000000e+00) (0, 0, 0.00000000000000000000e+00) (0, 0, 0.00000000000000000000e+00) (0, 0, 0.00000000000000000000e+00) (0, 0, 0.00000000000000000000e+00) (0, 0, 0.00000000000000000000e+00) (0, 0, 0.00000000000000000000e+00) (0, 0, 0.00000000000000000000e+00) (0, 0, 0.00000000000000000000e+00) (0, 0, 0.00000000000000000000e+00) (0, 0, 0.00000000000000000000e+00) (0, 0, 0.00000000000000000000e+00) (0, 0, 0.00000000000000000000e+00) (0, 0, 0.00000000000000000000e+00) (0, 0, 0.00000000000000000000e+00) (0, 0, 0.00000000000000000000e+00) (0, 0, 0.00000000000000000000e+00) (0, 0, 0.00000000000000000000e+00) (0, 0, 0.00000000000000000000e+00) (0, 0, 0.00000000000000000000e+00) (0, 0, 0.00000000000000000000e+00) (0, 0, 0.00000000000000000000e+00) (0, 0, 0.00000000000000000000e+00) (0, 0, 0.00000000000000000000e+00) (0, 0, 0.00000000000000000000e+00) (0, 0, 0.00000000000000000000e+00) (0, 0, 0.00000000000000000000e+00) (0, 0, 0.00000000000000000000e+00) (0, 0, 0.00000000000000000000e+00) (0, 0, 0.00000000000000000000e+00) (0, 0, 0.00000000000000000000e+00) (0, 0, 0.00000000000000000000e+00) (0, 0, 0.00000000000000000000e+00) (0, 0, 0.00000000000000000000e+00) (0, 0, 0.00000000000000000000e+00) (0, 0, 0.00000000000000000000e+00) (0, 0, 0.00000000000000000000e+00) (0, 0, 0.00000000000000000000e+00) (0, 0, 0.00000000000000000000e+00) (0, 0, 0.00000000000000000000e+00) (0, 0, 0.00000000000000000000e+00) (0, 0, 0.00000000000000000000e+00) (0, 0, 0.00000000000000000000e+00) (0, 0, 0.00000000000000000000e+00) (0, 0, 0.00000000000000000000e+00) (0, 0, 0.00000000000000000000e+00) (0, 0, 0.00000000000000000000e+00) (0, 0, 0.00000000000000000000e+00) (0, 0, 0.00000000000000000000e+00) (0, 0, 0.00000000000000000000e+00) (0, 0, 0.00000000000000000000e+00) (0, 0, 0.00000000000000000000e+00) (0, 0, 0.00000000000000000000e+00) (0, 0, 0.00000000000000000000e+00) (0, 0, 0.00000000000000000000e+00) (0, 0, 0.00000000000000000000e+00) (0, 0, 0.00000000000000000000e+00) (0, 0, 0.00000000000000000000e+00) (0, 0, 0.00000000000000000000e+00) (0, 0, 0.00000000000000000000e+00) (0, 0, 0.00000000000000000000e+00) (0, 0, 0.00000000000000000000e+00) (0, 0, 0.00000000000000000000e+00) (0, 0, 0.00000000000000000000e+00) (0, 0, 0.00000000000000000000e+00) (0, 0, 0.00000000000000000000e+00) (0, 0, 0.00000000000000000000e+00) (0, 0, 0.00000000000000000000e+00) (0, 0, 0.00000000000000000000e+00) (301, 15, 7.50000000000000000000e-01) (302, 14, 2.50000000000000000000e-01) (303, 5, 5.00000000000000000000e-01) (303, 5, 5.00000000000000000000e-01) 
connections (connected_to_neuron, weight)=(0, 4.54901317373814784162e-01) (1, 8.38883201074374307282e-01) (2, 1.03982398700489558907e-01) (3, 4.75583388011490970637e-01) (4, 1.23005486885789694362e+00) (5, 1.49683405319932760769e+00) (6, 1.51960255696970425454e+00) (7, -9.38478737079976033097e-02) (8, -4.99335679458582024082e-02) (9, 1.33903850476030172878e+00) (10, 1.06496228138688908693e+00) (11, 1.23119260231736959987e+00) (12, 1.22248580179465035633e-01) (13, -3.24671778016883405549e-01) (14, 9.78607452625047669059e-01) (15, 4.19356180827653302057e-01) (16, 7.14617861907515861120e-01) (17, 1.76376296680008426421e-01) (18, -1.96117567917096335961e-01) (19, 3.89882922733655434833e-01) (20, 4.61361682168843434404e-01) (21, 5.34059359233413077916e-01) (22, 2.01397372882401004546e-01) (23, 5.79174174468551017370e-01) (24, 2.46364207721007089091e-01) (25, 8.96768126565185008658e-01) (26, 8.20865068513121798333e-01) (27, 8.07421485201418986932e-01) (28, 7.31894413248599162714e-01) (29, 1.15397156636003317409e+00) (30, 7.47016417964848633559e-01) (31, 1.50532922490779141889e+00) (32, 3.14033844571506015608e-01) (33, 1.19366935850769628757e+00) (34, 3.26293448225560445142e-01) (35, -1.11269996960128306207e-01) (36, 1.00263532891503026612e+00) (37, 1.38606050170403588551e-01) (38, 8.43569125304042127800e-02) (39, 1.31577519555069577528e+00) (40, -1.38358367711768653896e-01) (41, 1.53025583405472409559e+00) (42, 8.56532301496459091972e-01) (43, 2.29873786431283810838e-01) (44, 1.44841769941329889804e+00) (45, 1.99457662075294944737e-01) (46, 1.07401999019314531303e+00) (47, 5.89906475769770732853e-01) (48, 6.92068717786701981254e-01) (49, 1.17640080929163848289e+00) (50, 1.25673308033989217236e+00) (51, 1.49484647986246743656e+00) (52, 8.57956815312047038624e-02) (53, -1.56744409744964202646e-01) (54, 3.94184328657059379619e-01) (55, 6.40648799711576177884e-01) (56, 1.03713438298443794139e+00) (57, 1.56688775297953286625e+00) (58, -1.90648211796508287863e-01) (59, 1.41812644230617984631e-01) (60, 1.04102299366560524518e+00) (61, 8.71669136118760956577e-01) (62, -3.43886891552285731133e-02) (63, -2.85672423692211685520e-01) (64, 4.29503341686700679247e-01) (65, 6.52323566624603556896e-01) (66, -6.75256979768137782782e-02) (67, -2.30583843175973413064e-01) (68, 1.15574447569361948851e+00) (69, 3.85915006012539807401e-01) (70, 1.42522519483870913071e+00) (71, 1.35325504754260528273e+00) (72, 2.59785072773232483812e-01) (73, 6.29654364911469976995e-01) (74, 2.52724171343854213390e-03) (75, 1.22704837942222241831e-01) (76, 6.15056461003755328143e-01) (77, 8.86063221937820277851e-01) (78, 1.03882444651912408951e+00) (79, 1.16611677694509099923e-01) (80, 8.73267132330128648121e-01) (81, 6.74821050383290099717e-01) (82, 4.12061364073876695846e-02) (83, 1.37980713612745042873e+00) (84, 8.46583354283055644629e-01) (85, 6.79637922078797140912e-01) (86, 2.84395134525297410555e-01) (87, 1.68031201393048723602e-01) (88, 5.61717134464262968230e-01) (89, 4.56270780026732603041e-01) (90, 7.18729986467937065342e-01) (91, -3.38234878995916712907e-02) (92, -3.44579530499269370836e-01) (93, 1.04770822477996605748e+00) (94, 1.53520908651079757146e-01) (95, 5.46313266097816940814e-01) (96, -2.67639760161036861785e-02) (97, 2.71332891993818436926e-01) (98, 5.22309096865949173960e-01) (99, 1.52819933488565884439e+00) (100, 1.16909573053339488347e+00) (101, 3.97060917054668949255e-01) (102, 1.20113007286822170983e+00) (103, -3.87582223841281714449e-01) (104, 1.27507547756907158032e+00) (105, 1.57388210439850517730e+00) (106, 4.07068220936947555710e-01) (107, 9.43135471867984964689e-01) (108, 1.29940460890920550519e+00) (109, 1.48213317574144443078e+00) (110, 1.28738535467545656132e+00) (111, 5.94260432130242044479e-01) (112, 5.76240257678201195368e-01) (113, -6.40480355125826600338e-02) (114, 3.26171590662705679353e-01) (115, -3.61700370989891051288e-01) (116, 7.47091577083508151524e-01) (117, 1.02292781000528876234e+00) (118, 3.82621978931614370456e-01) (119, 9.35509047295954437873e-02) (120, -1.20599978233789928428e-01) (121, 1.36454020761659311489e+00) (122, 1.61694013645907547216e-01) (123, -5.66185894583933133073e-02) (124, 7.64089220385912759603e-01) (125, 8.56679684708455790876e-01) (126, 7.84095979665302755812e-01) (127, 1.01867507181409644446e+00) (128, 1.20337937555555152258e+00) (129, -2.70107905659899394379e-01) (130, 1.57071512825278758463e-01) (131, 5.73446566178209216069e-01) (132, 4.24716070936812628567e-01) (133, 4.50019104101693379061e-01) (134, 6.30079027845025119170e-01) (135, 1.05515312011017325933e-01) (136, 4.60094255152300068978e-01) (137, 3.54314169992129812670e+00) (138, 1.26000856927841597965e+00) (139, 3.41683586480192105772e-02) (140, 1.04220902247403413021e+00) (141, 9.90445326828056527013e-01) (142, 1.10747482390803875241e+00) (143, -3.42878142043236855407e-01) (144, 1.04840359612806754974e+00) (145, -3.29494932217600011715e-01) (146, 1.81063152296181868739e-02) (147, 2.47494596891552426365e-01) (148, 9.40718519373582973131e-01) (149, 7.25780035209177887268e-01) (150, 4.11123593806945464291e-01) (151, 1.30839352471431857872e+00) (152, 4.38885467065109557971e-01) (153, 9.91472615440887494742e-01) (154, 1.30606139139071153465e+00) (155, 1.12065745146466477777e+00) (156, -2.37040807641947584572e-02) (157, 7.29994238666421546569e-01) (158, 1.07486428647287923788e+00) (159, -3.30693254190702723427e-01) (160, 4.61630135681718067886e-01) (161, -1.70979631181766636439e-02) (162, 7.76466231400741224711e-01) (163, 1.55931506733358293815e+00) (164, 1.38810026452222690097e+00) (165, -1.25090155894763493949e-01) (166, -3.69309632188152547894e-01) (167, -2.52643800912830562844e-01) (168, 1.47260588710058026862e+00) (169, 1.60803420095116322841e+00) (170, 7.51671320349886817880e-01) (171, 8.93830777536256837479e-01) (172, 1.64241674529168130148e-01) (173, -5.20215300890379706011e-01) (174, 1.22532862227654848475e+00) (175, 3.67275681555329469585e-01) (176, 2.90396001398621428358e-01) (177, 1.59991671023439252508e+00) (178, 2.90665766184298290931e-01) (179, -9.01611850055036079254e-01) (180, 6.53626916820766901139e-01) (181, 1.69414725548034850178e+00) (182, 1.46289255286640917930e+00) (183, 1.43134895939804684950e+00) (184, 4.63212220094731064179e-01) (185, 8.37238680648773825332e-01) (186, 1.34969659663436303276e+00) (187, 1.33037295585876647053e+00) (188, 4.45412734985276559385e-01) (189, 7.41563352150299559540e-01) (190, 6.13042124138834965130e-01) (191, 8.44056228893034221628e-01) (192, 1.54415549513651528812e+00) (193, 3.93708057686391887930e-01) (194, 1.42191541772417706646e+00) (195, 1.24407638020511779331e+00) (196, 4.18996738166425131134e-01) (197, -4.40947918499567326212e-01) (198, -1.97323584157673842521e-01) (199, 4.07211940376431880129e-01) (200, -3.25759198433306806919e-01) (201, 8.36308249902686595689e-01) (202, 1.45577392827652696283e+00) (203, 7.31206141549345711717e-01) (204, 1.31616484264687061412e+00) (205, 1.19618275297285658887e+00) (206, 1.56745315317905387076e+00) (207, -1.16559195607593979460e-01) (208, 9.32545042686782621466e-01) (209, 5.96746779136977156810e-01) (210, -8.44011182431696344031e-02) (211, 1.04480788122059950473e-01) (212, 7.56042032905768324191e-01) (213, 1.60274578532503664263e+00) (214, -2.71500980178145001620e-01) (215, -1.51462851001061618583e-02) (216, 1.25665715049751613996e+00) (217, 1.53152394464213914560e+00) (218, 1.65131876856629866701e+00) (219, -9.15690013384382398010e-03) (220, 5.95918619945967176221e-01) (221, 1.25945729164662845179e+00) (222, -1.61116394290845316162e-01) (223, 4.97971532586470977400e-01) (224, -1.83248839346022950048e-02) (225, 1.59475846617912253578e+00) (226, 8.62170174557251034475e-02) (227, 9.09427459803835103180e-01) (228, -3.38443848767695842916e-01) (229, 2.26044929847724451744e-01) (230, 1.63060474084994311283e+00) (231, -3.25031794968175968830e-01) (232, 1.41445198873935185091e+00) (233, 1.61582475163539540652e+00) (234, 9.19367361816197936619e-01) (235, 1.06221127199313158940e+00) (236, 1.12747597383639330815e+00) (237, 8.32608713135085443113e-01) (238, 1.31581997090287283747e+00) (239, 6.09849623800514106797e-01) (240, -4.87500505517490037577e-02) (241, 1.56284759013720786491e+00) (242, 1.03892829036685285793e+00) (243, 1.04823435703996525881e+00) (244, 1.52762235562089743190e+00) (245, 1.25001503388170065456e+00) (246, 1.43722762028459372097e+00) (247, 1.12040743796893393913e+00) (248, 1.11570121860476745290e+00) (249, 1.43666781346086325222e+00) (250, 1.46163154999498190456e+00) (251, 9.57808927703252127595e-02) (252, 1.04761291901353703615e+00) (253, 1.63449699078456234247e+00) (254, 9.26925917625150086465e-01) (255, 1.37373997132066549831e+00) (256, 1.57950927178148092800e+00) (257, 1.37353278557542624050e+00) (258, 6.34241058032546378698e-01) (259, 1.57529029650138574503e+00) (260, -5.41532595689443591036e-02) (261, 6.27484335105452872838e-01) (262, 1.59507636191040624851e+00) (263, -2.79777494717800889745e-01) (264, 5.93180397764742961542e-01) (265, 8.63350159226192070960e-01) (266, 1.13691175864531057726e+00) (267, 8.32949674287457864086e-02) (268, 2.70680880704541743098e-02) (269, 7.95763744514022208776e-01) (270, 1.02848652960449848948e+00) (271, 3.14761546139970316283e-01) (272, 7.07189208565486282509e-01) (273, 4.11986569181981510113e-01) (274, -3.05753297864494066882e-01) (275, 5.65154744784865714635e-01) (276, -4.70527051299614480773e-03) (277, 1.46443345833327054351e+00) (278, 3.35276989987035936580e-02) (279, 1.45289577404741110378e+00) (280, 1.23205663124803366237e+00) (281, -1.77370004541731629555e-01) (282, -1.17734675987659062613e-01) (283, 6.14856562840235820744e-01) (284, -1.91653418655143265026e-01) (285, 1.15109099308732809597e+00) (286, 3.16511384956979724414e-01) (287, -2.84673236496305492871e-01) (288, 8.57916845481429435338e-01) (289, 1.28660346743418374515e+00) (290, 1.63611902472330728031e+00) (291, 1.14433099190477194362e+00) (292, 2.45931042830978913161e-01) (293, 1.56274296204332174831e+00) (294, 1.19576589228302587742e+00) (295, 1.17118252989603677250e+00) (296, 7.57886426418555414486e-01) (297, 6.71459330718551017370e-01) (298, 1.58364881436113180690e+00) (299, 1.11412562290910543972e+00) (300, -7.78776902571455931223e-01) (0, 1.21653102258306833328e+00) (1, 8.68043354412711187784e-01) (2, 5.18442473074591458904e-01) (3, 8.58100815807401828827e-01) (4, 1.86252216914755197585e+00) (5, 3.96310872529566315947e-01) (6, 9.93192001377165234466e-01) (7, 1.33061032619158248202e+00) (8, 1.96446561411072284642e+00) (9, 1.69858562544037372533e+00) (10, 4.45783822928488282500e-01) (11, 7.63870879207670383515e-01) (12, 1.57318757200956471642e+00) (13, 1.55083570264180048426e+00) (14, 4.61622206593383932471e-01) (15, 1.50853359296967060033e+00) (16, 2.13660347059418009863e+00) (17, 2.14361925246797824229e+00) (18, 2.00205025502897226986e+00) (19, 1.96265091542801539681e+00) (20, 1.37931241635880152963e+00) (21, 1.38735961511780292454e+00) (22, 1.43189143732239276829e+00) (23, 1.91590032407499455402e+00) (24, 1.47300694609403737267e+00) (25, 1.04537328128418605111e+00) (26, 1.01928832177719796981e+00) (27, 1.08694007455317387389e+00) (28, 1.79000287017133885570e+00) (29, 1.42474725100666010924e+00) (30, 8.71160291167791478451e-01) (31, 7.32940423100262528067e-01) (32, 2.02030163135210250047e+00) (33, 1.10910620748011479186e+00) (34, 1.31969218215254002757e+00) (35, 1.61000330569826655136e+00) (36, 1.23783460308246562320e+00) (37, 2.04447254964567060043e+00) (38, 6.62460130698680371708e-01) (39, 9.17834365954082853634e-01) (40, 1.45793947944781154824e+00) (41, 8.27372570361047610099e-01) (42, 1.41412273098163554508e+00) (43, 7.53706914432048291630e-01) (44, 2.13659930443582357640e+00) (45, 1.59258691849137923313e+00) (46, 1.96911096609059721452e+00) (47, 1.97963545502153959177e+00) (48, 1.42417123946755252994e+00) (49, 1.70483160233316533017e+00) (50, 1.70310734939017049960e+00) (51, 5.79304799818352145202e-01) (52, 7.54896768376287163882e-01) (53, 8.38731481905676590216e-01) (54, 2.22078499737029799732e+00) (55, 1.99652688741912776038e+00) (56, 1.64069028870083921667e+00) (57, 9.81311366342857982481e-01) (58, 8.10649345481423866389e-01) (59, 1.15020526465180394915e+00) (60, 2.13685594667593425910e+00) (61, 1.40928263428854649852e+00) (62, 1.60813694766216142007e+00) (63, 1.87266107049265895235e+00) (64, 2.24270287193700967876e+00) (65, 6.44189812564348152080e-01) (66, 1.20798491410364827736e+00) (67, 1.21191215089015824624e+00) (68, 4.11560203344152220062e-01) (69, 1.61124028903702054549e+00) (70, 1.86315531735922013112e+00) (71, 1.60004143405342191819e+00) (72, 2.14813011458568414724e+00) (73, 9.98940480198383440325e-01) (74, 2.06887950496624561936e+00) (75, 1.99941312202975618462e+00) (76, 3.00072416525808571830e-01) (77, 1.72738724375870189576e+00) (78, 1.73150360794243041163e+00) (79, 1.55448503106480884206e+00) (80, 1.23772549798725606252e+00) (81, 1.12505844284229228336e+00) (82, 1.81179787304581729757e+00) (83, 1.73761711966476384283e+00) (84, 1.71885789780175191055e+00) (85, 1.78447922161628369508e+00) (86, 1.47354194406570693232e+00) (87, 1.13835002979964139413e+00) (88, 5.05516669988562927784e-01) (89, 2.04732803230884830015e+00) (90, 1.95655872005427133864e+00) (91, 3.54605875850693197382e-01) (92, 1.12019592887211394405e+00) (93, 1.31352756954236915554e+00) (94, 2.00457163956001682692e+00) (95, 1.14058685188449837611e+00) (96, 1.68561678172012108234e+00) (97, 9.01579594679634110932e-01) (98, 2.03996584888168142058e+00) (99, 1.85398227272721483061e+00) (100, 2.36274388834382298441e+00) (101, 1.70352996921065646951e+00) (102, 1.17091328463908350699e+00) (103, 2.14309987972964499647e+00) (104, 3.95665559155665869095e-01) (105, 9.13681689388629036941e-01) (106, 1.80253913746225769010e+00) (107, 4.04271583486958963061e-01) (108, 4.49584092182837957719e-01) (109, 1.29924131398678555094e+00) (110, 1.67312724357958253485e+00) (111, 1.33241455992609947323e+00) (112, 1.54908745019274474153e+00) (113, 6.10287830518060903096e-01) (114, 8.04674394577535867512e-01) (115, 1.57159441854410464323e+00) (116, 7.62980730676675267254e-01) (117, 1.96905496608877794706e+00) (118, 3.29712747362711144916e+00) (119, -1.98710055726147138966e-01) (120, 1.70712651979921026246e+00) (121, 2.29922862573543707043e+00) (122, 2.13087700538073399059e+00) (123, 4.95971902128701902512e-01) (124, 2.43656064916270809206e+00) (125, -2.83292779911596648290e+00) (126, 1.36491637197901805045e+00) (127, 5.63765002391695690953e-01) (128, 1.73280027165881711504e+00) (129, 1.04082931047792892620e+00) (130, 3.92114246383624998060e+00) (131, 1.46581092665302947786e+00) (132, 3.24356350420581973637e-01) (133, 8.03881926479429242960e-01) (134, 1.12145761173204028260e+00) (135, 3.48143242292860477516e-01) (136, 1.77265675423513058284e+00) (137, 1.82422448389146030223e+00) (138, 4.52160003973814395017e-01) (139, 1.40665436831280876717e+00) (140, 1.38434250950141635172e+00) (141, 1.72201366468858796388e+00) (142, 3.29927137829378658296e-01) (143, 2.54929314074306567761e+00) (144, 5.90642395504597517153e-01) (145, 7.96636275169817054120e-01) (146, 3.12583625381639529373e-01) (147, 9.08650869639125891020e-01) (148, -1.33876648012596533022e+00) (149, 4.54047609155524778402e-01) (150, 1.46912242021032768413e+00) (151, 1.70268372471988604921e+00) (152, 1.95719748525100700753e+00) (153, 1.99709455714454664488e+00) (154, -7.77466648834475138052e-01) (155, -3.14420314369200815108e+00) (156, 3.14141101904026998071e-01) (157, 7.82141388008014026845e-01) (158, 5.96043832463928890952e-01) (159, 1.13347990835541700960e+00) (160, 5.81932570492217360325e-01) (161, 1.32606395259543496934e+00) (162, 1.93937645575076000881e+00) (163, 1.45854288398785314484e+00) (164, 4.21979354477639845289e-01) (165, 4.59211859589027604489e-01) (166, 1.18249874771935314932e+00) (167, 9.63046858163275731890e-01) (168, 5.55905616813795355746e-01) (169, 1.63024399752311066614e+00) (170, 3.65873899267677549219e-01) (171, 1.52316997471943138542e+00) (172, 1.36332447862333294708e+00) (173, 8.07720560688187649845e-01) (174, 3.46612766667566296608e-01) (175, 1.36569610236989613661e+00) (176, 8.79031790499238963044e-01) (177, 3.40412029146976602423e-01) (178, 1.96555291851484104093e+00) (179, 9.61434197881592123025e-01) (180, 3.47767506949434312968e-01) (181, 1.15096931018713855011e+00) (182, 3.55262271961953368660e-01) (183, 1.95239517104995630170e+00) (184, 8.89165070803606294447e-01) (185, 1.90027447149840233998e+00) (186, 2.96663777020046814936e-01) (187, 9.21064891543547314967e-01) (188, 4.02317883783657459507e-01) (189, 5.74093462406419008381e-01) (190, 1.85507125073428191797e+00) (191, 1.67952237325923148248e+00) (192, 3.99754315872869248061e-01) (193, 1.46053677537532866637e+00) (194, 7.46771399293752247139e-01) (195, 5.21591128288529493062e-01) (196, 1.65442073107960774259e+00) (197, 1.94504128703887646523e+00) (198, 1.61065426303499981131e+00) (199, 1.93916817063828994527e+00) (200, 1.30752138708574094927e+00) (201, 1.67726289824580310217e+00) (202, 1.19313570204993091295e+00) (203, 2.07181745792296512221e+00) (204, 1.82226646378808077031e+00) (205, 1.26876119853074187382e+00) (206, 1.17714526201429148244e+00) (207, 3.92980477618532997308e-01) (208, 1.33088455184352105753e+00) (209, 8.76106930427737684575e-01) (210, 1.13333499029327899876e+00) (211, 1.39899745945813358539e+00) (212, 1.74887869531129691580e+00) (213, 1.20034867956481927642e+00) (214, 1.10787069110194913435e+00) (215, 3.95517429551002941412e-01) (216, 8.83643960416663820645e-01) (217, 1.10683679485771313544e+00) (218, 1.05025433218780084310e+00) (219, 9.90380222387683195606e-01) (220, 1.43250471490504560634e+00) (221, 5.86458088168530955464e-01) (222, 3.09172358200301311548e-01) (223, 1.55414461994621411201e+00) (224, 1.77377588224355609015e+00) (225, 7.50823671408068937794e-01) (226, 1.82731014627101240322e+00) (227, 1.17259475951603420185e+00) (228, 4.45027419631159382174e-01) (229, 1.17248609249268409549e+00) (230, 8.55606485045290576785e-01) (231, 1.44950225418289324608e+00) (232, 5.73740381003142840832e-01) (233, 1.76434111077345590068e+00) (234, 1.27779085082823118391e+00) (235, 2.14940923338041312007e+00) (236, 7.89334098379948057023e-01) (237, 2.15296681059782946122e+00) (238, 2.68148423914627120901e-01) (239, 1.82531472175566533700e+00) (240, 7.79317342941438950810e-01) (241, 1.16166791647870049076e+00) (242, 9.85367027126121342029e-01) (243, 2.23413495623606994656e+00) (244, 2.08095457200608047188e+00) (245, 1.79734468068631025872e+00) (246, 3.98604818885004597018e-01) (247, 7.30111598546086759676e-01) (248, 6.94329203582444653975e-01) (249, 1.15221259563561329031e+00) (250, 1.41250441738696297378e+00) (251, 1.84775930054117498713e+00) (252, 1.51956715554443699823e+00) (253, 1.48918020982386778428e+00) (254, 1.17396545550886921561e+00) (255, 1.03360029517619023132e+00) (256, 1.96752882219894598137e+00) (257, 7.20724835191785984101e-01) (258, 1.94627170184713693679e+00) (259, 2.15703618783595008068e+00) (260, 1.64268112323347859061e+00) (261, 5.17446412836133906588e-01) (262, 1.32886479249092381849e+00) (263, 1.94107022256103856073e+00) (264, 2.02598862269979784756e+00) (265, 3.49713731646418946042e-01) (266, 1.82035740473854668053e+00) (267, 5.28686324263536122636e-01) (268, 2.23178567944971995018e+00) (269, 1.78473236515645261591e+00) (270, 2.10037009338003421988e+00) (271, 7.54743479281544837889e-01) (272, 7.04300724059224281248e-01) (273, 7.97201319728910617890e-01) (274, 7.33505735302888539628e-01) (275, 4.80389216090480797305e-01) (276, 3.39807002936422852812e-01) (277, 8.79651950548174244027e-01) (278, 9.63377319365620765623e-01) (279, 7.41671108905947007450e-01) (280, 1.78553545072723895970e+00) (281, 2.07995286616890684428e+00) (282, 3.15758037512123612700e-01) (283, 1.04028173544991142663e+00) (284, 1.32358416178810722741e+00) (285, 1.19725837678161961541e+00) (286, 1.79426860407043964329e+00) (287, 9.96646845047152063479e-01) (288, 1.64578692535024972976e+00) (289, 1.48785376397426083450e+00) (290, 8.77898930446994296695e-01) (291, 9.93758403961336633792e-01) (292, 1.70678546399322850213e+00) (293, 1.91687986753923067518e+00) (294, 6.59540846143781833710e-01) (295, 1.46364216765669041820e+00) (296, 1.98383264865557173984e+00) (297, 2.19267072648254712774e+00) (298, 1.71697189778534275995e+00) (299, 1.93757548302856785760e+00) (300, 9.83952274885060762522e-01) (301, 1.04962349192454684754e+00) (0, -6.00489175023410301502e-02) (1, -1.00818126376296571256e-01) (2, -1.37405740800047838045e-03) (3, -2.76751096142879259021e-02) (4, 9.46558428214440833459e-02) (5, 5.02971572087654930638e-02) (6, -7.36786560954109936983e-03) (7, -2.72953676864541271152e-02) (8, -1.35387163316133929403e-01) (9, 5.80347341702828478649e-02) (10, 9.55315542624841224084e-02) (11, 4.42854985170836878972e-02) (12, 2.64614108596638239468e-02) (13, -4.27291218216126408858e-02) (14, -1.84341606872767849179e-01) (15, 1.27056029842743216374e-02) (16, -5.16588228537193036582e-02) (17, -5.57192030145278668907e-02) (18, -9.95347534761334556963e-02) (19, -8.34361794765703934651e-02) (20, -1.88047516410148773947e-01) (21, 1.20242432992304179584e-01) (22, -2.11216832293620870864e-02) (23, -8.38106816249498121074e-03) (24, 3.04214603447185670537e-02) (25, -2.22886519205521216325e-01) (26, -3.06648427319477556718e-01) (27, -4.39008059127868263682e-02) (28, -1.44319566114485819952e-02) (29, 1.30646385517150853683e-01) (30, 2.43051133735941136960e-02) (31, -1.63559273810824884476e-01) (32, -2.59523459704360415223e-01) (33, -2.04016002042830511820e-02) (34, 7.92628718392312664465e-02) (35, 1.15159176554710501739e-01) (36, 5.85490763259237934069e-02) (37, -1.28148163242620155566e-01) (38, -5.47059276535927160867e-02) (39, -4.73899767226700838196e-02) (40, 1.19282485287035319721e-01) (41, 3.25668273345887313019e-02) (42, 2.86028006655384622881e-02) (43, -2.58595618639014222795e-02) (44, -1.32464067194225598723e-01) (45, 7.11401862309823523889e-02) (46, -3.25248787893405721938e-02) (47, -1.14851018028862251162e-03) (48, 7.19774452643445333822e-02) (49, -4.45596183786920382874e-02) (50, -7.77258186012310531288e-02) (51, 5.28549383888078719296e-02) (52, -1.21303829213895131810e-03) (53, 3.24770864579984261389e-02) (54, 1.13034428398455163989e-01) (55, -5.03225807851417281102e-02) (56, -4.35635496477029598647e-04) (57, 1.38324778089357162958e-02) (58, -1.20062399174860612305e-02) (59, 7.11656492684194924569e-02) (60, 3.50989524587479173601e-03) (61, 1.26110987273923141894e-01) (62, -1.94196526925512376327e-02) (63, 1.57494207651890268107e-02) (64, -3.64101714380548197036e-02) (65, -7.04619370971359820777e-02) (66, -1.23692924870601461684e-02) (67, -4.84040791361056779718e-02) (68, -5.07640872578545704341e-03) (69, 7.52179455349881315174e-02) (70, -1.23987540836887941142e-01) (71, -9.31477424335400011612e-02) (72, 2.47501817749390083667e-02) (73, 1.06995271352279250343e-01) (74, -6.48342980211798203261e-02) (75, -4.84372472672397955118e-02) (76, -1.21140477466835275178e-01) (77, -1.66492215056598891199e-01) (78, -5.83618358680363311097e-02) (79, -3.40431542278449988936e-02) (80, 1.06689261058103071478e-02) (81, -4.23230685243907167603e-02) (82, -1.11036809309752362851e-01) (83, -8.86440271031404963820e-02) (84, 1.14523566988557784496e-01) (85, 8.06623633423814850874e-02) (86, -7.86213829712834461061e-02) (87, -8.65421464666194101278e-02) (88, -1.46519949103472768570e-01) (89, -1.74284993809319610492e-01) (90, -5.70507379493131946968e-02) (91, -9.12325696079754749901e-02) (92, -1.45523507136336938128e-01) (93, 1.37860810191906442423e-02) (94, 3.70004395249772521925e-02) (95, 1.56680660222416945349e-01) (96, -2.93824043007526701510e-02) (97, -3.72764924416582599243e-01) (98, -2.78861412745801673374e-01) (99, 8.16091110737599961800e-02) (100, 5.38794764342533749613e+00) (101, 1.55187556964333994713e+00) (102, -1.71515499689826156349e-01) (103, -2.73780191284505702853e-01) (104, -4.42449501142454737490e-01) (105, -4.35816402982213205175e-02) (106, 1.00045478004988597220e+00) (107, 1.00395181436118030582e+00) (108, -7.59360526123857015879e-02) (109, -1.70935345435618418763e-01) (110, -2.19707898583158423023e-01) (111, -2.44054957655217286128e-01) (112, -1.74773047566844308420e-01) (113, -2.47186534509972494211e-01) (114, -9.53228223668781821099e-02) (115, -3.05596203716168746123e-01) (116, -1.75492782671336056133e-01) (117, -1.90991911043799644787e-01) (118, -8.52395697487193615416e+00) (119, -4.83662624395774065622e-01) (120, 1.31313256041836814991e-02) (121, -1.17255907095239558791e-01) (122, -1.03000786591535054004e-01) (123, -1.33798723424478072097e-02) (124, 2.66981831779498801627e-01) (125, 7.40748299144034227925e-02) (126, -1.05870203276467372833e-01) (127, -1.49772636940054604260e-01) (128, -1.61652883106916805955e-01) (129, -3.96249344141039738787e-02) (130, 3.15452115502579388817e+00) (131, 1.86055624921732709609e+00) (132, -8.52815543657365060515e-02) (133, -2.23996187302327953716e-01) (134, -7.28339118388370843071e-02) (135, -1.31773316648828076048e-01) (136, 2.62685910524963039947e-01) (137, 7.05424456606261185421e-01) (138, -1.24109463356037813542e-01) (139, -1.28067914780712777123e-01) (140, 3.47413587455730615838e-02) (141, -1.17876485600745400939e-01) (142, -1.11192719917139570818e+00) (143, -3.90117411411476100458e-01) (144, 2.67737551469323931119e-02) (145, -4.96368288737892709994e-02) (146, -2.78751552996793633410e-02) (147, 4.17768024063832899007e-02) (148, 5.31323076003571148629e-02) (149, 1.53237097614977302307e+00) (150, -3.69279847352801532390e-02) (151, 1.14026493546936433243e-01) (152, 5.97389601602871592179e-02) (153, 7.15945543432912473447e-02) (154, 8.92685941059544019183e-01) (155, 8.95339032286589464604e+00) (156, -8.73020017829972266865e-02) (157, -5.71816884742600006764e-02) (158, 4.70049285055134380418e-02) (159, -1.14225604963973742523e-01) (160, 3.94140168833650217373e-01) (161, 8.66804464908975558224e-01) (162, 6.07863472598422910353e-02) (163, -1.88117365000783909323e-02) (164, 1.30622910871976027902e-01) (165, -1.46621072220801895725e-01) (166, -4.38417548067330409278e-01) (167, 3.32966387946222242000e-01) (168, -1.56949269049732227643e-02) (169, -7.69027472628598107729e-02) (170, 1.08530821242676003835e-01) (171, -1.32909424217915572708e-01) (172, -6.51193223466656340159e-02) (173, -9.30459169898776583540e-02) (174, -2.84046995042969915857e-02) (175, -9.46470109176646701155e-02) (176, -2.59380140558687494190e-02) (177, -9.39477079335044040764e-02) (178, -6.77856564486095103383e-02) (179, -1.19864856054675922303e-01) (180, 1.39812313540070676243e-01) (181, -2.64222994558771934193e-02) (182, 1.05322556226132194035e-01) (183, 1.48093410804911618239e-01) (184, -5.23013607228791088666e-02) (185, -1.58280677170005157350e-02) (186, 1.67637777829150846909e-01) (187, 1.14568825158347611937e-01) (188, 1.50983888699086354901e-01) (189, -5.07169076673044949555e-02) (190, -3.59425159221677725796e-01) (191, -4.64684684435921202539e-02) (192, -3.38825291398335420867e-02) (193, 8.49429917233918280184e-02) (194, 3.70605924970022759801e-02) (195, -5.36675883540751758743e-04) (196, -7.10414917756642516622e+00) (197, -1.79074134849312849305e+00) (198, -3.65784644115166868161e-02) (199, -2.13328003995379850144e-02) (200, 1.24049526250361100144e-01) (201, -3.07303115130728166093e-02) (202, -1.49603067568949343880e+00) (203, -3.09574062229389268541e-01) (204, -1.16510155393234060561e-02) (205, 7.37860673647756787341e-02) (206, 1.01162823400442983268e-01) (207, -8.16112389274550042995e-02) (208, -3.37227554537274654134e-02) (209, -8.44300842322590339162e-02) (210, 4.48518556760201247968e-02) (211, 9.59708964358834820674e-02) (212, 1.05245036037515296568e-01) (213, -1.51420847611123676746e-02) (214, -9.60460640270068555235e-02) (215, -1.11167709350602356144e-01) (216, 9.64662555917589897847e-03) (217, 5.56485930575075990467e-02) (218, 1.00399577235630553529e-02) (219, 4.13004291548993013317e-02) (220, -1.58337937297371611489e-01) (221, -1.36279779749731211336e-01) (222, 4.80915279348241297974e-02) (223, -1.11443542528327471652e-01) (224, 1.12096991964035733180e-01) (225, 5.05161366834873115650e-02) (226, -1.21643750415909773777e-01) (227, -6.76957448575540680913e-03) (228, -2.33074744197485604624e-02) (229, -9.02190610455388952715e-02) (230, 8.94083575462631535702e-02) (231, -1.19154109858012752232e-01) (232, -1.15416022436488158176e-01) (233, -1.10351121911328758918e-01) (234, -6.44124119695717312073e-03) (235, -7.32020523810670842302e-02) (236, -2.20998508425674783373e-02) (237, -2.48135478354299353343e-02) (238, 4.10095584883953950817e-02) (239, 1.67041881344321754832e-02) (240, 8.25728289998747810863e-03) (241, -5.95418321535850711412e-02) (242, -4.85615567594443325872e-03) (243, -1.35435463047826887273e-02) (244, -9.12586254268106800147e-02) (245, -1.08691914532422689854e-01) (246, -6.61148326126317908980e-03) (247, 4.44682492896822448292e-02) (248, 4.86494293812673589406e-02) (249, 7.32518880509531317147e-02) (250, -1.87812915974114591489e-02) (251, 1.26974735450478493082e-01) (252, 5.06919818713193540138e-02) (253, -3.32363253888671855707e-02) (254, 1.07593851636810025618e-01) (255, 6.67670517110025701912e-02) (256, -1.90651154569449442222e-02) (257, 8.50572774651470187024e-03) (258, -6.00043926366450805499e-02) (259, 3.35419871916005710166e-02) (260, 1.96261320754693609214e-02) (261, -5.25727045869520612231e-02) (262, 7.25775850789010662512e-02) (263, 1.01262085034767371217e-01) (264, -6.35551279703844285152e-02) (265, -4.14183908172969864059e-02) (266, -2.65850038851274846075e-02) (267, 1.30058039523786084235e-01) (268, -7.63765168096294626288e-03) (269, -2.29566318452248084581e-02) (270, 3.50786428920148093957e-02) (271, 1.02337512099068037030e-01) (272, 7.30387586128910942795e-02) (273, -4.57115831567398364643e-02) (274, -6.52868213845840816845e-02) (275, -6.95720228149047659194e-02) (276, -5.62438537332175456096e-02) (277, 2.36237523191378806509e-02) (278, 6.43827485811909738800e-02) (279, 1.05895937721575281176e-01) (280, -6.70492230693949808895e-02) (281, -6.45425792471082671042e-03) (282, 3.67255705191617751182e-02) (283, 9.07666892492878657484e-02) (284, 5.15405929917652633199e-02) (285, 5.47955942557701580764e-02) (286, -1.03395460884226630949e-02) (287, 9.76863515780816565881e-02) (288, 7.87487522272904555409e-02) (289, 4.77319096954144511669e-02) (290, 2.13279635393726595127e-02) (291, -1.05058128728023336684e-02) (292, 4.20372531969891993775e-02) (293, -3.85794403745285396923e-02) (294, -7.47693507711542915128e-02) (295, 9.52939701484094153772e-02) (296, 5.18387679323045746926e-03) (297, -2.31944910030020233493e-02) (298, 8.53706122596609301434e-02) (299, 6.84520912574182044397e-02) (300, 1.44370985239616644868e+00) (301, -5.89939743081151064530e+01) (302, 3.04431976968276956086e+01) (0, 1.58526306649294956852e-01) (1, 1.79455384452189309341e-01) (2, 1.10601004053200641097e-01) (3, 1.69846250394977693610e-01) (4, 1.59955269376434394690e-01) (5, 8.68156800965444869211e-02) (6, 2.28970598102747169289e-01) (7, 8.53482797715299779107e-02) (8, 2.54909146106858885972e-01) (9, 1.88134123305711331575e-01) (10, 7.16955929202169051084e-02) (11, 9.11096601885886675509e-02) (12, 1.47919403276645544665e-01) (13, 2.73054253786188028119e-01) (14, 2.55958992427064435660e-01) (15, 4.67954619926542123021e-02) (16, 1.04035076419744035303e-01) (17, 1.83419723729524142275e-01) (18, 2.29179675352439105041e-01) (19, 2.63509153187182987299e-01) (20, 1.19043499065914465396e-01) (21, 7.00566216510861983213e-02) (22, 1.44453217009934797854e-01) (23, 9.96310982727615229715e-02) (24, 9.60511860330780092854e-02) (25, 1.56161042199638694372e-01) (26, 2.30063877834358693208e-01) (27, 1.24369619504680437028e-01) (28, 7.93778046173186369039e-02) (29, 2.80396860954756008133e-02) (30, 5.23840300403086295278e-02) (31, 2.25130740883846131029e-01) (32, 8.33244226444811442178e-02) (33, 7.56040561818686340789e-02) (34, 1.20118294577035364390e-01) (35, 1.21524911382920111635e-01) (36, 1.53113024828546051559e-01) (37, 1.28108269542087899184e-01) (38, 2.30415734832955826361e-01) (39, 1.24620464364919122935e-01) (40, 4.72170083922475655736e-02) (41, 1.82069475854850892915e-01) (42, 1.97851074158004125447e-01) (43, 1.64968657314409655745e-01) (44, 2.47124943663369900371e-01) (45, 1.54968050891103825695e-01) (46, 1.42738726655873698901e-01) (47, 8.35543621502409933344e-02) (48, 1.17941014242516004074e-01) (49, 1.39973677013314312667e-01) (50, 9.94239686031730546256e-02) (51, 1.45151917557153120608e-01) (52, 1.50084164659413710208e-01) (53, 1.80527679908771832018e-01) (54, -3.18084350646645364069e-01) (55, 2.09405023990325511729e-01) (56, 7.87628100020141552751e-02) (57, 1.67951141218575850100e-01) (58, 9.25546891194911763856e-02) (59, 9.48503214740363947977e-02) (60, -4.79245786149375629925e-01) (61, 1.06451033155542787445e-01) (62, -4.69703114068187155272e-01) (63, 6.36078867201998049419e-02) (64, 1.49258349051248684347e-01) (65, 1.17007966996792750480e-01) (66, -3.43967703160394766559e-01) (67, -4.84791950523021597519e-01) (68, -3.31351197564240418370e-01) (69, 1.76653146409167155495e-01) (70, 1.82503894353219592306e-01) (71, 2.61970974886723995123e-01) (72, -4.00415737129479143430e-01) (73, -4.46377885418133668605e-01) (74, -4.18810512113345689844e-01) (75, 1.60874898375935632133e-01) (76, 2.51357144817562550010e-01) (77, 2.98693271707657914682e-01) (78, -3.46277167517323014589e-01) (79, 9.86111385068857565495e-02) (80, -4.14707481677902556338e-01) (81, 2.35941257605335769076e-01) (82, 2.10234151938007624016e-01) (83, 2.34529407000634876335e-01) (84, -3.61907882579986350802e-01) (85, 1.91479783592887253807e-01) (86, 2.08919006501217308092e-01) (87, 2.31143530312267780902e-01) (88, 1.63351296358126257813e-01) (89, 3.00254055086890958570e-01) (90, 6.79965401643913835983e-02) (91, 2.78204540179947057421e-01) (92, 4.55450720415349230574e-01) (93, -4.66318794515480250507e-01) (94, -3.91108211974226849250e-01) (95, -3.98953739311909139076e-01) (96, -3.38614799576423319838e-01) (97, 4.54422069434905873120e-01) (98, 5.36693973188187012369e-01) (99, -4.00285077270616740375e-01) (100, -2.81607387712796786161e+00) (101, -6.46253661400838641526e+00) (102, -3.85273789198630922659e-01) (103, 4.71983073000694253185e-01) (104, -6.79557021664221744262e-02) (105, -3.48830625274499428468e-01) (106, -1.89986625198365932654e+00) (107, -2.48165989211598070341e+00) (108, -3.37696393163436414664e-01) (109, -1.11390386337291619201e-01) (110, -7.64687273762681557487e-02) (111, -1.58047356086790546925e-01) (112, -4.10521020005238101991e-02) (113, -3.50726589101749086641e-01) (114, -3.26961321545729266536e-01) (115, -2.05113076448750930592e-01) (116, -1.51704619557283981734e-01) (117, -1.47522416526329025466e-01) (118, 9.34505606700873947545e+00) (119, 6.98077235939553841781e-01) (120, -4.20869295913190499814e-01) (121, -2.96001360634339294453e-01) (122, -3.34134160450748118887e-01) (123, -3.59924453175052450060e-01) (124, -4.25015064281221655040e-01) (125, 7.79117130065828389363e-02) (126, -4.24024117121533816732e-01) (127, -4.86442007425549466371e-02) (128, -3.51955287518937398605e-01) (129, -4.57198507412264476546e-01) (130, -5.65877997520533160269e+00) (131, -2.45342016982377675305e+00) (132, -4.15206787831702672786e-01) (133, 4.79512423923608988030e-01) (134, -3.04251034069084769218e-01) (135, 2.79268411410598826894e-01) (136, -5.20209044740589821032e-01) (137, 1.81974332726925654147e-02) (138, 6.06286624494802722785e-02) (139, 4.30406611576909570172e-01) (140, 1.09791654982409350727e-01) (141, -3.21347979490360702304e-01) (142, -1.98181154118531821506e-01) (143, 5.61140651903877962781e-01) (144, 1.74148594238756226904e-01) (145, 2.93584147155542651841e-01) (146, 2.27385879472299212711e-01) (147, -4.42401298742141457776e-01) (148, 7.90165687349520529104e-02) (149, -3.90224472867234029039e+00) (150, 1.33651967976351426781e-01) (151, 2.21038817133301396245e-01) (152, 1.90982513358715022544e-01) (153, -3.60933925007642375515e-01) (154, -1.00696690887572359863e+00) (155, -1.08825655328810366740e+01) (156, 2.33739920472597978440e-01) (157, 2.45530591719778340520e-01) (158, 4.69369114945719576037e-02) (159, -4.63956391687593783235e-01) (160, 8.51407173169574926774e-02) (161, -2.19991878235179433299e-01) (162, 1.55761517500002832914e-01) (163, 1.06040693480853612241e-01) (164, 1.02267154341602953260e-01) (165, 1.07062383676080077888e-01) (166, 8.47512091212646589966e-01) (167, 2.61103271355547450483e-01) (168, 2.35298666909496523303e-01) (169, 2.78084816529154454923e-01) (170, 7.54971834810598263488e-02) (171, 8.35863909802547072614e-02) (172, 7.63533140176262059562e-01) (173, 8.24801261042865774264e-01) (174, 2.38397363379757143420e-01) (175, 2.55175485896899423288e-01) (176, 1.03691167196541714213e-01) (177, -3.27434598952979716291e-01) (178, 7.87848736474429434118e-01) (179, 7.78865273034020311194e-01) (180, -3.80212311639417654963e-01) (181, 1.80650024138408138441e-01) (182, -1.60241408108302718638e+00) (183, -4.32467122299105055649e-01) (184, 7.49366108081664594742e-01) (185, 7.01512462465040509407e-01) (186, -4.03524618102060583791e-01) (187, 1.24925593779003654693e-01) (188, -4.61075432347544056366e-01) (189, 1.67605720963533932899e-01) (190, 9.28373454264958541948e-01) (191, 7.56909033109908091497e-01) (192, -4.97134303123806464697e-01) (193, 6.48968457729764830466e-02) (194, -4.67541656095181112907e-01) (195, 1.53612980355113393216e-01) (196, 2.97745461412586509553e+00) (197, 1.77318369976223788598e+00) (198, 1.31214105852464457680e-01) (199, 8.40269164754996050748e-02) (200, -3.16487930238452841447e-01) (201, 1.96168297463077068166e-01) (202, 4.58906852218104843733e-01) (203, 4.50349264011020211651e-01) (204, 6.24806438294653113119e-02) (205, 8.29554046641072378998e-02) (206, 8.34595546283142114552e-02) (207, 1.43207553471267207135e-01) (208, 6.97356511386795219209e-02) (209, 1.87880275482393277464e-01) (210, 9.27142058221107207006e-02) (211, 1.79680388602714291579e-01) (212, 8.52443110490732486317e-02) (213, 1.98367827143725139472e-01) (214, 1.12192301154435139510e-01) (215, 2.36820906551771570570e-01) (216, 1.61880607208137627939e-01) (217, 2.14790460048992160047e-01) (218, 8.16460402630134890467e-02) (219, 5.02275915600474548439e-02) (220, 1.47973609968633068590e-01) (221, 2.15326817181320739891e-01) (222, 9.29145075525882463419e-02) (223, 1.83164067860268509058e-01) (224, 2.30142832144018871787e-01) (225, 1.18608592253501912706e-01) (226, 6.14277501965127606387e-02) (227, 7.91953855153306185422e-02) (228, 1.61576402810619856876e-01) (229, 1.79334304453035386917e-01) (230, 1.42086001527096356112e-01) (231, 1.43952151228513958170e-01) (232, 1.00183148440178573790e-01) (233, 1.78706837534545193158e-01) (234, 2.34391968748173140646e-01) (235, 1.53907772241301810112e-01) (236, 2.50249751088715277625e-01) (237, 6.17474875575268547512e-02) (238, 2.21427861312856633091e-01) (239, 2.04716641378995256595e-01) (240, 2.22776894894646249057e-01) (241, 1.06212092224487422709e-01) (242, 1.93424755053781260994e-01) (243, 6.11545293754303734279e-02) (244, 3.54506306782118793541e-02) (245, 1.86743471694585105869e-01) (246, 7.92593546720355424107e-02) (247, 1.91084751205705394295e-01) (248, 2.03488909917138804939e-01) (249, 9.06133256639605894067e-02) (250, 1.75296454562456127668e-01) (251, 3.79221762617519761451e-02) (252, 1.06993850497127299115e-01) (253, 2.56655710546624171720e-01) (254, 2.20151101156487172261e-01) (255, 4.71985950852996591354e-02) (256, 1.23413044442496885877e-01) (257, 1.73467210798257720494e-01) (258, 1.38972459540605386419e-01) (259, 7.20438130835658330220e-02) (260, 1.59211642358697003097e-01) (261, 1.96382349181866866505e-01) (262, 1.57292126549989697004e-01) (263, -1.24288277558228604791e-01) (264, 1.68001953185735797280e-01) (265, 1.69856127982482063565e-01) (266, 1.02223859506907557848e-01) (267, 1.32364501827898106701e-01) (268, 1.98471952895555026064e-01) (269, 6.68494030762478708141e-02) (270, 1.45094996852408286703e-01) (271, 1.94470041948545058208e-01) (272, 1.34005855508859905711e-01) (273, 6.00805326503843079022e-02) (274, 2.31049734120126970538e-01) (275, 1.22493990203500255354e-01) (276, 2.51616029603014879079e-01) (277, 7.63072226178991563916e-02) (278, 7.10263261458223826850e-02) (279, 1.79562424181526070210e-01) (280, 1.55703013463906858593e-01) (281, 1.98542718647544857991e-01) (282, 2.27802216854562700199e-01) (283, 2.19663650745203331560e-01) (284, 2.11575791785227007580e-01) (285, 1.74905006645744209859e-01) (286, 5.96068976850019222047e-02) (287, 8.96976374672106974151e-02) (288, 1.65059617908112299389e-01) (289, 1.48247099404644810949e-01) (290, 1.10246240878663429030e-01) (291, 5.53118184791258210575e-02) (292, 1.14805678789373658000e-01) (293, 2.27539772590522937357e-01) (294, 2.20829789006279586516e-01) (295, 2.29366307600727070692e-01) (296, 1.44656164094200068160e-01) (297, 6.29098609672239378332e-02) (298, 1.26425978599613020315e-01) (299, 1.04601484595363572461e-01) (300, 1.18676534333349725792e+00) (301, 7.44033012759508949330e+01) (302, -2.92193727757439560833e+01) 
