FANN_FLO_2.1
num_layers=5
learning_rate=0.700000
connection_rate=1.000000
network_type=1
learning_momentum=0.000000
training_algorithm=2
train_error_function=1
train_stop_function=0
cascade_output_change_fraction=0.010000
quickprop_decay=-0.000100
quickprop_mu=1.750000
rprop_increase_factor=1.200000
rprop_decrease_factor=0.500000
rprop_delta_min=0.000000
rprop_delta_max=50.000000
rprop_delta_zero=0.100000
cascade_output_stagnation_epochs=12
cascade_candidate_change_fraction=0.010000
cascade_candidate_stagnation_epochs=12
cascade_max_out_epochs=150
cascade_max_cand_epochs=150
cascade_num_candidate_groups=2
bit_fail_limit=3.49999999999999977796e-01
cascade_candidate_limit=1.00000000000000000000e+03
cascade_weight_multiplier=4.00000000000000022204e-01
cascade_activation_functions_count=10
cascade_activation_functions=3 5 7 8 10 11 14 15 16 17 
cascade_activation_steepnesses_count=4
cascade_activation_steepnesses=2.50000000000000000000e-01 5.00000000000000000000e-01 7.50000000000000000000e-01 1.00000000000000000000e+00 
layer_sizes=301 1 1 1 4 
scale_included=0
neurons (num_inputs, activation_function, activation_steepness)=(0, 0, 0.00000000000000000000e+00) (0, 0, 0.00000000000000000000e+00) (0, 0, 0.00000000000000000000e+00) (0, 0, 0.00000000000000000000e+00) (0, 0, 0.00000000000000000000e+00) (0, 0, 0.00000000000000000000e+00) (0, 0, 0.00000000000000000000e+00) (0, 0, 0.00000000000000000000e+00) (0, 0, 0.00000000000000000000e+00) (0, 0, 0.00000000000000000000e+00) (0, 0, 0.00000000000000000000e+00) (0, 0, 0.00000000000000000000e+00) (0, 0, 0.00000000000000000000e+00) (0, 0, 0.00000000000000000000e+00) (0, 0, 0.00000000000000000000e+00) (0, 0, 0.00000000000000000000e+00) (0, 0, 0.00000000000000000000e+00) (0, 0, 0.00000000000000000000e+00) (0, 0, 0.00000000000000000000e+00) (0, 0, 0.00000000000000000000e+00) (0, 0, 0.00000000000000000000e+00) (0, 0, 0.00000000000000000000e+00) (0, 0, 0.00000000000000000000e+00) (0, 0, 0.00000000000000000000e+00) (0, 0, 0.00000000000000000000e+00) (0, 0, 0.00000000000000000000e+00) (0, 0, 0.00000000000000000000e+00) (0, 0, 0.00000000000000000000e+00) (0, 0, 0.00000000000000000000e+00) (0, 0, 0.00000000000000000000e+00) (0, 0, 0.00000000000000000000e+00) (0, 0, 0.00000000000000000000e+00) (0, 0, 0.00000000000000000000e+00) (0, 0, 0.00000000000000000000e+00) (0, 0, 0.00000000000000000000e+00) (0, 0, 0.00000000000000000000e+00) (0, 0, 0.00000000000000000000e+00) (0, 0, 0.00000000000000000000e+00) (0, 0, 0.00000000000000000000e+00) (0, 0, 0.00000000000000000000e+00) (0, 0, 0.00000000000000000000e+00) (0, 0, 0.00000000000000000000e+00) (0, 0, 0.00000000000000000000e+00) (0, 0, 0.00000000000000000000e+00) (0, 0, 0.00000000000000000000e+00) (0, 0, 0.00000000000000000000e+00) (0, 0, 0.00000000000000000000e+00) (0, 0, 0.00000000000000000000e+00) (0, 0, 0.00000000000000000000e+00) (0, 0, 0.00000000000000000000e+00) (0, 0, 0.00000000000000000000e+00) (0, 0, 0.00000000000000000000e+00) (0, 0, 0.00000000000000000000e+00) (0, 0, 0.00000000000000000000e+00) (0, 0, 0.00000000000000000000e+00) (0, 0, 0.00000000000000000000e+00) (0, 0, 0.00000000000000000000e+00) (0, 0, 0.00000000000000000000e+00) (0, 0, 0.00000000000000000000e+00) (0, 0, 0.00000000000000000000e+00) (0, 0, 0.00000000000000000000e+00) (0, 0, 0.00000000000000000000e+00) (0, 0, 0.00000000000000000000e+00) (0, 0, 0.00000000000000000000e+00) (0, 0, 0.00000000000000000000e+00) (0, 0, 0.00000000000000000000e+00) (0, 0, 0.00000000000000000000e+00) (0, 0, 0.00000000000000000000e+00) (0, 0, 0.00000000000000000000e+00) (0, 0, 0.00000000000000000000e+00) (0, 0, 0.00000000000000000000e+00) (0, 0, 0.00000000000000000000e+00) (0, 0, 0.00000000000000000000e+00) (0, 0, 0.00000000000000000000e+00) (0, 0, 0.00000000000000000000e+00) (0, 0, 0.00000000000000000000e+00) (0, 0, 0.00000000000000000000e+00) (0, 0, 0.00000000000000000000e+00) (0, 0, 0.00000000000000000000e+00) (0, 0, 0.00000000000000000000e+00) (0, 0, 0.00000000000000000000e+00) (0, 0, 0.00000000000000000000e+00) (0, 0, 0.00000000000000000000e+00) (0, 0, 0.00000000000000000000e+00) (0, 0, 0.00000000000000000000e+00) (0, 0, 0.00000000000000000000e+00) (0, 0, 0.00000000000000000000e+00) (0, 0, 0.00000000000000000000e+00) (0, 0, 0.00000000000000000000e+00) (0, 0, 0.00000000000000000000e+00) (0, 0, 0.00000000000000000000e+00) (0, 0, 0.00000000000000000000e+00) (0, 0, 0.00000000000000000000e+00) (0, 0, 0.00000000000000000000e+00) (0, 0, 0.00000000000000000000e+00) (0, 0, 0.00000000000000000000e+00) (0, 0, 0.00000000000000000000e+00) (0, 0, 0.00000000000000000000e+00) (0, 0, 0.00000000000000000000e+00) (0, 0, 0.00000000000000000000e+00) (0, 0, 0.00000000000000000000e+00) (0, 0, 0.00000000000000000000e+00) (0, 0, 0.00000000000000000000e+00) (0, 0, 0.00000000000000000000e+00) (0, 0, 0.00000000000000000000e+00) (0, 0, 0.00000000000000000000e+00) (0, 0, 0.00000000000000000000e+00) (0, 0, 0.00000000000000000000e+00) (0, 0, 0.00000000000000000000e+00) (0, 0, 0.00000000000000000000e+00) (0, 0, 0.00000000000000000000e+00) (0, 0, 0.00000000000000000000e+00) (0, 0, 0.00000000000000000000e+00) (0, 0, 0.00000000000000000000e+00) (0, 0, 0.00000000000000000000e+00) (0, 0, 0.00000000000000000000e+00) (0, 0, 0.00000000000000000000e+00) (0, 0, 0.00000000000000000000e+00) (0, 0, 0.00000000000000000000e+00) (0, 0, 0.00000000000000000000e+00) (0, 0, 0.00000000000000000000e+00) (0, 0, 0.00000000000000000000e+00) (0, 0, 0.00000000000000000000e+00) (0, 0, 0.00000000000000000000e+00) (0, 0, 0.00000000000000000000e+00) (0, 0, 0.00000000000000000000e+00) (0, 0, 0.00000000000000000000e+00) (0, 0, 0.00000000000000000000e+00) (0, 0, 0.00000000000000000000e+00) (0, 0, 0.00000000000000000000e+00) (0, 0, 0.00000000000000000000e+00) (0, 0, 0.00000000000000000000e+00) (0, 0, 0.00000000000000000000e+00) (0, 0, 0.00000000000000000000e+00) (0, 0, 0.00000000000000000000e+00) (0, 0, 0.00000000000000000000e+00) (0, 0, 0.00000000000000000000e+00) (0, 0, 0.00000000000000000000e+00) (0, 0, 0.00000000000000000000e+00) (0, 0, 0.00000000000000000000e+00) (0, 0, 0.00000000000000000000e+00) (0, 0, 0.00000000000000000000e+00) (0, 0, 0.00000000000000000000e+00) (0, 0, 0.00000000000000000000e+00) (0, 0, 0.00000000000000000000e+00) (0, 0, 0.00000000000000000000e+00) (0, 0, 0.00000000000000000000e+00) (0, 0, 0.00000000000000000000e+00) (0, 0, 0.00000000000000000000e+00) (0, 0, 0.00000000000000000000e+00) (0, 0, 0.00000000000000000000e+00) (0, 0, 0.00000000000000000000e+00) (0, 0, 0.00000000000000000000e+00) (0, 0, 0.00000000000000000000e+00) (0, 0, 0.00000000000000000000e+00) (0, 0, 0.00000000000000000000e+00) (0, 0, 0.00000000000000000000e+00) (0, 0, 0.00000000000000000000e+00) (0, 0, 0.00000000000000000000e+00) (0, 0, 0.00000000000000000000e+00) (0, 0, 0.00000000000000000000e+00) (0, 0, 0.00000000000000000000e+00) (0, 0, 0.00000000000000000000e+00) (0, 0, 0.00000000000000000000e+00) (0, 0, 0.00000000000000000000e+00) (0, 0, 0.00000000000000000000e+00) (0, 0, 0.00000000000000000000e+00) (0, 0, 0.00000000000000000000e+00) (0, 0, 0.00000000000000000000e+00) (0, 0, 0.00000000000000000000e+00) (0, 0, 0.00000000000000000000e+00) (0, 0, 0.00000000000000000000e+00) (0, 0, 0.00000000000000000000e+00) (0, 0, 0.00000000000000000000e+00) (0, 0, 0.00000000000000000000e+00) (0, 0, 0.00000000000000000000e+00) (0, 0, 0.00000000000000000000e+00) (0, 0, 0.00000000000000000000e+00) (0, 0, 0.00000000000000000000e+00) (0, 0, 0.00000000000000000000e+00) (0, 0, 0.00000000000000000000e+00) (0, 0, 0.00000000000000000000e+00) (0, 0, 0.00000000000000000000e+00) (0, 0, 0.00000000000000000000e+00) (0, 0, 0.00000000000000000000e+00) (0, 0, 0.00000000000000000000e+00) (0, 0, 0.00000000000000000000e+00) (0, 0, 0.00000000000000000000e+00) (0, 0, 0.00000000000000000000e+00) (0, 0, 0.00000000000000000000e+00) (0, 0, 0.00000000000000000000e+00) (0, 0, 0.00000000000000000000e+00) (0, 0, 0.00000000000000000000e+00) (0, 0, 0.00000000000000000000e+00) (0, 0, 0.00000000000000000000e+00) (0, 0, 0.00000000000000000000e+00) (0, 0, 0.00000000000000000000e+00) (0, 0, 0.00000000000000000000e+00) (0, 0, 0.00000000000000000000e+00) (0, 0, 0.00000000000000000000e+00) (0, 0, 0.00000000000000000000e+00) (0, 0, 0.00000000000000000000e+00) (0, 0, 0.00000000000000000000e+00) (0, 0, 0.00000000000000000000e+00) (0, 0, 0.00000000000000000000e+00) (0, 0, 0.00000000000000000000e+00) (0, 0, 0.00000000000000000000e+00) (0, 0, 0.00000000000000000000e+00) (0, 0, 0.00000000000000000000e+00) (0, 0, 0.00000000000000000000e+00) (0, 0, 0.00000000000000000000e+00) (0, 0, 0.00000000000000000000e+00) (0, 0, 0.00000000000000000000e+00) (0, 0, 0.00000000000000000000e+00) (0, 0, 0.00000000000000000000e+00) (0, 0, 0.00000000000000000000e+00) (0, 0, 0.00000000000000000000e+00) (0, 0, 0.00000000000000000000e+00) (0, 0, 0.00000000000000000000e+00) (0, 0, 0.00000000000000000000e+00) (0, 0, 0.00000000000000000000e+00) (0, 0, 0.00000000000000000000e+00) (0, 0, 0.00000000000000000000e+00) (0, 0, 0.00000000000000000000e+00) (0, 0, 0.00000000000000000000e+00) (0, 0, 0.00000000000000000000e+00) (0, 0, 0.00000000000000000000e+00) (0, 0, 0.00000000000000000000e+00) (0, 0, 0.00000000000000000000e+00) (0, 0, 0.00000000000000000000e+00) (0, 0, 0.00000000000000000000e+00) (0, 0, 0.00000000000000000000e+00) (0, 0, 0.00000000000000000000e+00) (0, 0, 0.00000000000000000000e+00) (0, 0, 0.00000000000000000000e+00) (0, 0, 0.00000000000000000000e+00) (0, 0, 0.00000000000000000000e+00) (0, 0, 0.00000000000000000000e+00) (0, 0, 0.00000000000000000000e+00) (0, 0, 0.00000000000000000000e+00) (0, 0, 0.00000000000000000000e+00) (0, 0, 0.00000000000000000000e+00) (0, 0, 0.00000000000000000000e+00) (0, 0, 0.00000000000000000000e+00) (0, 0, 0.00000000000000000000e+00) (0, 0, 0.00000000000000000000e+00) (0, 0, 0.00000000000000000000e+00) (0, 0, 0.00000000000000000000e+00) (0, 0, 0.00000000000000000000e+00) (0, 0, 0.00000000000000000000e+00) (0, 0, 0.00000000000000000000e+00) (0, 0, 0.00000000000000000000e+00) (0, 0, 0.00000000000000000000e+00) (0, 0, 0.00000000000000000000e+00) (0, 0, 0.00000000000000000000e+00) (0, 0, 0.00000000000000000000e+00) (0, 0, 0.00000000000000000000e+00) (0, 0, 0.00000000000000000000e+00) (0, 0, 0.00000000000000000000e+00) (0, 0, 0.00000000000000000000e+00) (0, 0, 0.00000000000000000000e+00) (0, 0, 0.00000000000000000000e+00) (0, 0, 0.00000000000000000000e+00) (0, 0, 0.00000000000000000000e+00) (0, 0, 0.00000000000000000000e+00) (0, 0, 0.00000000000000000000e+00) (0, 0, 0.00000000000000000000e+00) (0, 0, 0.00000000000000000000e+00) (0, 0, 0.00000000000000000000e+00) (0, 0, 0.00000000000000000000e+00) (0, 0, 0.00000000000000000000e+00) (0, 0, 0.00000000000000000000e+00) (0, 0, 0.00000000000000000000e+00) (0, 0, 0.00000000000000000000e+00) (0, 0, 0.00000000000000000000e+00) (0, 0, 0.00000000000000000000e+00) (0, 0, 0.00000000000000000000e+00) (0, 0, 0.00000000000000000000e+00) (0, 0, 0.00000000000000000000e+00) (0, 0, 0.00000000000000000000e+00) (0, 0, 0.00000000000000000000e+00) (0, 0, 0.00000000000000000000e+00) (0, 0, 0.00000000000000000000e+00) (0, 0, 0.00000000000000000000e+00) (0, 0, 0.00000000000000000000e+00) (0, 0, 0.00000000000000000000e+00) (0, 0, 0.00000000000000000000e+00) (0, 0, 0.00000000000000000000e+00) (0, 0, 0.00000000000000000000e+00) (0, 0, 0.00000000000000000000e+00) (0, 0, 0.00000000000000000000e+00) (0, 0, 0.00000000000000000000e+00) (0, 0, 0.00000000000000000000e+00) (0, 0, 0.00000000000000000000e+00) (0, 0, 0.00000000000000000000e+00) (0, 0, 0.00000000000000000000e+00) (0, 0, 0.00000000000000000000e+00) (0, 0, 0.00000000000000000000e+00) (0, 0, 0.00000000000000000000e+00) (0, 0, 0.00000000000000000000e+00) (0, 0, 0.00000000000000000000e+00) (301, 5, 2.50000000000000000000e-01) (302, 14, 2.50000000000000000000e-01) (303, 14, 5.00000000000000000000e-01) (304, 5, 5.00000000000000000000e-01) (304, 5, 5.00000000000000000000e-01) (304, 5, 5.00000000000000000000e-01) (304, 5, 5.00000000000000000000e-01) 
connections (connected_to_neuron, weight)=(0, -6.50211431032046371925e-01) (1, -3.95146770406828495847e-01) (2, -2.45376829644077504300e-01) (3, 6.79731406325474685204e-01) (4, 3.93389951320262332146e-01) (5, 6.05124439456632301493e-01) (6, 2.04470276482896728965e-01) (7, 2.27044773195900634333e-01) (8, -8.73384531752451453990e-01) (9, -2.29385215091832267431e-01) (10, 8.80316081655125981520e-01) (11, 7.87371524152993940149e-01) (12, -4.53629885309356162271e-01) (13, -5.60623341503185407264e-02) (14, 1.44379912700236395784e-01) (15, -8.69797052602496623130e-01) (16, 4.61494602304722778552e-01) (17, 9.69353968332596904744e-01) (18, 1.13549625639417714473e-01) (19, -9.39321091561029053452e-01) (20, 5.34898031386842123802e-02) (21, 3.64039931155246757055e-02) (22, 1.29084495660800463446e-01) (23, -3.92222423391417607252e-01) (24, -2.26934986267845056895e-01) (25, 4.29795410538928557287e-01) (26, -5.78655908096365578785e-01) (27, -1.62045259406591625473e-02) (28, 5.31881327777356971431e-01) (29, -7.35108369199671041194e-01) (30, 3.73612524668112233606e-01) (31, 7.46075213631248845836e-01) (32, -5.09143278603392812620e-02) (33, -9.22912757662857630159e-01) (34, 3.50403096608248976196e-01) (35, -1.03888240100822248912e+00) (36, 3.44493257500626703926e-01) (37, -5.11510987742417544411e-01) (38, 2.82667241556491477539e-01) (39, 5.01754560863410081772e-01) (40, 1.82727994863249476598e-01) (41, -4.67497393408666750414e-01) (42, 8.54899404790414180200e-02) (43, 3.40100625724318872400e-01) (44, 9.99267145309547299981e-01) (45, -7.29177204572048265341e-01) (46, 7.37675807796898785895e-01) (47, -5.87503158778156731046e-01) (48, -9.01542808017014474231e-01) (49, -9.23230583692692174935e-01) (50, 4.47527734390040121681e-01) (51, 1.90414100377903905414e-01) (52, 8.53612301658796090997e-01) (53, -1.01789654525716555256e+00) (54, 7.43256907643652930950e-01) (55, -4.09183122873235716188e-01) (56, 8.84791913078004088611e-01) (57, -7.07073532833198625802e-01) (58, 6.14810087784784631282e-01) (59, -6.23106448999810824674e-01) (60, -4.39797089340655922296e-01) (61, 2.13168012342756056643e-02) (62, 1.04060789603666950520e-01) (63, 6.97753024410994071580e-01) (64, 3.14097349657277424839e-01) (65, -2.15921630227437988392e-01) (66, 6.36555930796064650679e-01) (67, -4.42513797601570890716e-01) (68, -1.14669850459677355459e-01) (69, 1.04438159793929508101e-01) (70, -7.10592062895959442059e-01) (71, -3.57119766559383100546e-01) (72, -1.04295363155227893692e+00) (73, 2.64707171316419742624e-01) (74, 6.52995591503377381670e-01) (75, -8.54742573527163096436e-01) (76, 6.09611166109262248014e-01) (77, 5.80894789432306990484e-01) (78, 3.50231688438476240766e-01) (79, 8.00639013249878295220e-01) (80, -7.89879032192917662769e-01) (81, -2.10268716936545835283e-01) (82, -4.35937167902599384539e-02) (83, -1.04281490475393856521e+00) (84, 2.69033271456710021408e-01) (85, -1.71025330261271008014e-01) (86, -3.92759389585294382830e-01) (87, 2.31582252872574112512e-01) (88, 1.74538474201319127044e-01) (89, -7.74492643708416417248e-01) (90, -3.82098064068423171058e-01) (91, 8.58506322144976019572e-01) (92, 7.62854087805656527754e-02) (93, 8.69831186027320124587e-01) (94, 5.64810940481604184527e-01) (95, -7.99728629219944253670e-01) (96, -6.45962917666446201359e-01) (97, 2.71376123156372495160e-01) (98, -6.36055406368779996384e-01) (99, 4.04615436616849066809e-01) (100, -6.76097359449513657381e-01) (101, -3.04150574612146340492e-01) (102, 6.10380747327450290385e-01) (103, -3.72708195724807789251e-01) (104, 8.18937804884495856861e-01) (105, 3.28951661406174156177e-01) (106, -4.45679155700100804172e-01) (107, 1.26260732319027280113e+00) (108, -1.48632308776473293088e-01) (109, 1.21003546510689186100e+00) (110, 9.51544947896958287492e-02) (111, -1.83278424806569972816e-01) (112, -2.26587982158554079870e-01) (113, 1.23745682093681352853e+00) (114, -9.30502259311105917039e-02) (115, -1.09295010547820714564e+00) (116, -3.98160428730211846116e-01) (117, 3.74289365805908602614e-01) (118, 3.12239531459635344390e-01) (119, 9.95469185020514957252e-01) (120, 6.67876594395631739687e-01) (121, -8.60820749837647558600e-01) (122, 5.31548185426945596355e-01) (123, -7.81911556240309613131e-01) (124, 4.03070415766300704785e-01) (125, 2.10908694528032347737e-01) (126, -2.67623399026511131493e-02) (127, -1.72389562784194261269e-01) (128, -4.32110591991748838048e-01) (129, -1.76440100090996782045e-01) (130, -8.70479429997896292370e-01) (131, -3.07827452596851891542e+00) (132, -7.87588348315536923572e-01) (133, 8.68058607917944202725e-01) (134, 2.30186737302907173941e-01) (135, -1.48768971211081324491e+00) (136, -1.82853899873692465894e-01) (137, 1.22837270200550596755e+00) (138, 3.75225774535240585994e-01) (139, 8.71752694589966070637e-01) (140, 4.22177889237247028209e-01) (141, -6.28712861477328854853e-01) (142, -2.88021488685299420496e-01) (143, 7.60613571886533335054e-01) (144, -4.46256728548001746493e-01) (145, 9.45438205408140497354e-01) (146, -8.67316921164838383618e-01) (147, 4.42814233562562165059e-01) (148, 4.38867946945361409039e-01) (149, 1.30261629540043877284e+00) (150, 3.06655506141599198955e-01) (151, -5.89117732146846484476e-01) (152, 1.73648318022845443709e-01) (153, 1.72353441136961743618e-01) (154, -8.76499899896124978760e-01) (155, 4.44891606229594116506e-01) (156, -6.38577069655698603690e-01) (157, 1.97349797986789615711e-01) (158, 8.87371267856382428540e-01) (159, -1.23636449082044838632e-01) (160, -8.16940946003064549785e-01) (161, 7.66129340655304469365e-01) (162, 5.08953912237880667924e-01) (163, 1.86709904101181767277e-01) (164, 2.46939623856019779824e-01) (165, -6.92722128290800598371e-01) (166, -7.30042793628624009372e-01) (167, -1.34741311938136032467e+00) (168, -1.09259667456997222601e+00) (169, -2.97215409363407623289e-01) (170, 5.34156719870835461350e-01) (171, -1.75962668845050324018e-01) (172, -1.32446619983257463105e+00) (173, -8.96092106399470011979e-01) (174, 2.03594182298594689184e-01) (175, 7.92029533434017718463e-01) (176, -7.49599404052498363704e-01) (177, 4.20206597596245845505e-01) (178, 1.47185124552160762068e-02) (179, -9.53498792704628783667e-01) (180, -1.80047069092454076200e-01) (181, -3.52085984225408266113e-01) (182, 4.68823610743745566865e-01) (183, -5.71874711737561547409e-01) (184, 8.28097221254768589560e-01) (185, 1.23852458115846131292e+00) (186, 9.02853819039292182502e-01) (187, -6.57786407522278460114e-01) (188, 8.89581512720060557653e-02) (189, 9.25027622390798942575e-01) (190, 2.93567447623316324368e-01) (191, 1.25248906805927151531e+00) (192, 7.01068552298212965823e-01) (193, -1.48002688093632372990e-01) (194, -1.84907034530117087012e-01) (195, 6.70916347676784735610e-02) (196, 5.37995677138831451813e-01) (197, -6.57859889908314343643e-01) (198, 2.24374133735117720079e-01) (199, 5.37459430523279158010e-01) (200, -7.57720112387233052376e-02) (201, 3.83832907379510271384e-02) (202, -1.58885965142242679971e-01) (203, -9.48676897374556626907e-01) (204, 7.88874956229425383647e-01) (205, -8.57878171622040386346e-01) (206, 6.34688274792003293001e-01) (207, -7.33850796098008184565e-01) (208, 5.47367011857125995711e-01) (209, 2.27602606937054689762e-02) (210, -5.12383581471131832608e-01) (211, -5.58984480066686773014e-01) (212, 3.58450310161876117832e-01) (213, 8.46782301982068608126e-01) (214, -3.11692413655041467013e-01) (215, 2.05411560361332151681e-01) (216, 7.06190291226317046203e-01) (217, -2.03112658848910193621e-01) (218, 6.52784094064830511250e-01) (219, -3.97981572432539620898e-01) (220, -3.27633087774944875559e-01) (221, -1.65532025432949148058e-01) (222, -3.76619603724759055563e-01) (223, -5.97785225690443455804e-01) (224, 6.79805978983043401875e-01) (225, 6.56602553749153217133e-01) (226, 5.00034898764809110361e-01) (227, 1.05465253710187931158e-01) (228, -9.44411568880339169496e-01) (229, -3.82975565673832674118e-01) (230, -6.15133962761676977848e-01) (231, 1.18598485404003573668e-02) (232, 6.81022061250282639833e-01) (233, 3.81142441375596385811e-01) (234, 2.51259844008549726446e-01) (235, 4.87065854337215831116e-01) (236, 1.42254437466695415893e-01) (237, 8.66762769389773646278e-02) (238, 7.49598442738127035412e-01) (239, -6.59069808401931078734e-01) (240, -7.89046997544688766268e-01) (241, -7.79282320952597862274e-01) (242, 1.20263639598486987703e-01) (243, 7.24735646116608234202e-01) (244, -9.29428324938733063654e-01) (245, -1.22487626025919382755e+00) (246, 2.47860526331154573665e-01) (247, 7.71403373242537271359e-01) (248, -4.20942534863608497364e-01) (249, -9.47463928464251370354e-02) (250, -5.86048790102752681364e-01) (251, 1.18390129067509355942e-01) (252, 8.92983249780454069189e-01) (253, 1.14939221603388187776e-02) (254, 4.40762751312448297636e-01) (255, 5.57524836973575910193e-01) (256, -3.02639339532440210245e-01) (257, -6.87333429244366966859e-02) (258, -1.90993526900814364344e-01) (259, -2.23201351054540808594e-01) (260, 4.76111323620919568711e-01) (261, 3.62109778241666513399e-01) (262, 7.23889374704894450474e-01) (263, 7.22147128380374869749e-02) (264, -1.60820284808681851496e-01) (265, 2.48583613751182930240e-01) (266, -4.94387573584424977469e-01) (267, -7.74502804589703774951e-01) (268, 1.03137140261883786252e+00) (269, -8.36423138004834920700e-01) (270, 2.41109351021720430541e-01) (271, 2.20819627588368733173e-01) (272, -6.17901323206406005717e-01) (273, -5.43753955380354869753e-01) (274, 1.00216895637557690257e+00) (275, -5.26921021926645805067e-01) (276, -3.61952756516215556903e-01) (277, 1.23522585665559847534e+00) (278, -8.36003362637424696224e-01) (279, 2.99340957985400668573e-01) (280, -8.52897068338750674599e-01) (281, -5.55550889264809333312e-01) (282, -1.86414324642962259126e-01) (283, 2.02036112367115761046e+00) (284, 5.47874728839428337679e-01) (285, -7.36125265292929209515e-01) (286, 5.28232785861293407947e-01) (287, -9.19698053239875412679e-01) (288, 6.92837422961739002325e-01) (289, 6.42939963918895407424e-02) (290, -2.79165955817469862987e-02) (291, -2.81010989104713448938e-01) (292, 6.15471321821722816559e-01) (293, -6.11365737217336557840e-01) (294, 1.05054413617524455837e+00) (295, -1.26111805913327684747e-01) (296, 7.04665027181065606321e-01) (297, -6.83258818571824355637e-01) (298, -3.54489927097984158788e-01) (299, 2.48288991946042897352e-01) (300, 5.22612966241490783936e-01) (0, 1.40736346449334193132e+00) (1, 2.43984367019972303581e+00) (2, 2.09321025177638730952e+00) (3, 2.18578384554544369323e+00) (4, 1.52203552519411933197e+00) (5, 5.50295189968060372010e-01) (6, 8.14330223390505425485e-01) (7, 7.32088628104034855326e-01) (8, 7.61760680439523829577e-01) (9, 1.16653228173248235677e+00) (10, 2.29642060661804325861e+00) (11, 1.29371945944697097630e+00) (12, 1.86477650389543914144e+00) (13, 1.11463796214509169857e+00) (14, 6.39281463086757706371e-01) (15, 4.97647811397150974244e-01) (16, 1.57981604440825296187e+00) (17, 1.51976406838219091355e+00) (18, 2.01237284588536757823e+00) (19, 5.58373548297616872915e-01) (20, 1.36891165178254436974e+00) (21, 2.14904625138891525182e+00) (22, 9.86875170623135566927e-01) (23, 8.47066030286622639878e-01) (24, 1.42230097377917630297e+00) (25, 1.02667415907833281530e+00) (26, 1.64697123799540379174e+00) (27, 1.69586300859330241231e+00) (28, 2.37781152555543107141e+00) (29, 1.80714205393158744428e+00) (30, 5.69738416374560352473e-01) (31, 1.29486531784984770788e+00) (32, 1.38845824449866017680e+00) (33, 3.57049810921378552031e-01) (34, 9.58279739992491941258e-01) (35, 7.53097978895106212605e-01) (36, 1.97553694901109133664e-01) (37, 1.38282987023835857165e+00) (38, 8.35575503285758469652e-01) (39, 9.24844344920333960580e-01) (40, 1.99091983951794326835e+00) (41, 8.23794823056528624505e-01) (42, 1.57195369989646249742e+00) (43, 1.39276043727113507664e+00) (44, 1.38522216911392082039e+00) (45, 1.91754079217244721711e+00) (46, 1.48041259386939616505e+00) (47, 7.08751091252061038439e-01) (48, 7.07679724301667478770e-01) (49, 1.10642351832852425808e+00) (50, 7.32463492350507894280e-01) (51, 1.70002424817940256396e+00) (52, 8.46620940355671480759e-01) (53, 1.42053275383965815770e+00) (54, 1.84697632373408393569e+00) (55, 2.00561035187789027390e+00) (56, 1.96066863844113981052e+00) (57, 1.11484006835634796850e+00) (58, 1.36920751400986784319e+00) (59, 2.02245313190282516302e+00) (60, 3.52159057236649752909e-01) (61, 2.09864423969313396157e+00) (62, 6.12267203127562220644e-01) (63, 1.84227006298552486996e+00) (64, 1.80553208197919201616e+00) (65, 1.21573127780610401594e+00) (66, 2.16878043163851996766e+00) (67, 1.93243222675263437438e+00) (68, 4.86713433005578677282e-01) (69, 8.64812926416989369294e-01) (70, 2.27037839953099096491e+00) (71, 1.73996011095665381596e+00) (72, 1.50499703337769608069e+00) (73, 1.78724351830924721440e+00) (74, 1.24768556145106401800e+00) (75, 6.68275612844561939241e-01) (76, 1.20320350030286382648e+00) (77, 1.85571968679731091889e+00) (78, 1.33993036196003312277e+00) (79, 2.00878510828395873133e+00) (80, 1.11745218621177611062e+00) (81, 1.59396291821107860542e+00) (82, 1.21720544735939673053e+00) (83, 1.25216967322643379923e+00) (84, 8.68552325559454496684e-01) (85, 1.16270909939106958930e+00) (86, 1.08275422778791075018e+00) (87, 2.37400910664812547779e+00) (88, 1.75240417544332993671e+00) (89, 1.78874891698771065762e+00) (90, 2.20051701312174952108e+00) (91, 2.19048175891947272120e+00) (92, 8.42661805299147914639e-01) (93, 6.01401985775992131700e-01) (94, 1.50917202748367951237e+00) (95, 5.78614611729797001516e-01) (96, 1.87776355550274609563e+00) (97, 1.47347491141811892668e+00) (98, 1.38808344148889784009e+00) (99, 1.78050931110319665684e+00) (100, 1.80392009537483644088e+00) (101, 1.95978116277080793850e+00) (102, 1.64355664060101269719e+00) (103, 8.69637757683852208324e-01) (104, 1.07206049445196160974e+00) (105, 2.18881471767362967284e+00) (106, 1.20848751095005924050e+00) (107, 2.08626185011668097147e+00) (108, 2.11911511197011526164e+00) (109, 1.90780657349736726403e+00) (110, 1.37716630917902249642e+00) (111, 4.09709838547678395493e-01) (112, 1.05090601055091670268e+00) (113, 2.02770325659200389978e+00) (114, 1.44308362914338350613e+00) (115, 1.56940260561720679178e+00) (116, 4.88496640283058614074e-01) (117, 1.72467692433335795243e+00) (118, 1.44600378065490886570e+00) (119, 2.34041020735709937028e+00) (120, 1.38275014224223369297e+00) (121, 1.04030610769219733491e+00) (122, 1.86779668368305973303e+00) (123, 1.91929761567468437633e+00) (124, 1.49664180039828309532e+00) (125, 6.33443489865935238647e-01) (126, 2.01777977436782274268e+00) (127, 8.85723941028725314517e-01) (128, 1.23474500460404601476e+00) (129, 2.11726381388020712393e+00) (130, 1.86146473269980861076e+00) (131, 1.09229892076903012388e+00) (132, 1.35660490919477805249e+00) (133, 1.20467670565871221022e+00) (134, -7.36904253155959398924e+00) (135, 7.40909758401041007581e-01) (136, 5.39115311961336551860e-01) (137, 2.90266176359795524675e+00) (138, 2.13998602833989259864e+00) (139, 2.48750897606921261840e+00) (140, 2.92912725279735386419e-01) (141, 1.77539749708263494554e+00) (142, 2.36182139691736847631e-01) (143, 8.57644101981852635674e+00) (144, 1.34750439268791377678e+00) (145, 2.14054702566646870565e+00) (146, 1.86843217005164841105e+00) (147, 2.15054187795410989281e+00) (148, -3.63824894868269854697e-01) (149, 3.41133915737059556506e+00) (150, 1.78109700414319593875e+00) (151, 1.76679602261331880619e+00) (152, 4.60372140678313268580e+00) (153, 1.10834054573157492207e+00) (154, -5.93593310152997211127e-01) (155, -1.48946068782853231482e+01) (156, 1.36153883711773304732e+00) (157, 1.07498307165879758429e+00) (158, 2.50966633021997020947e+00) (159, 2.14467367936388475513e+00) (160, 2.01068060713469298761e+00) (161, 2.45255687331743854607e-01) (162, 6.43830424907358089825e-01) (163, 1.20514820158211777290e+00) (164, 3.29746746145218949664e+00) (165, 1.53960784687538598803e+00) (166, 1.42688181732653007749e+00) (167, 2.18412261265119633791e+00) (168, 1.19656318374428827234e+00) (169, 1.50470692697119812209e+00) (170, 8.09352397789367650205e+00) (171, 2.23639626701855487312e+00) (172, 2.27237866724677761709e+00) (173, 2.49900809431575954278e+00) (174, 1.98942722978057107142e+00) (175, 1.60493639284878208962e+00) (176, 3.72506120490004910550e+00) (177, 9.91108308509923263685e-01) (178, 2.95129828568664409616e+00) (179, 1.65133195737380611412e+00) (180, 2.35064927140308999043e+00) (181, 2.53572453144875842312e+00) (182, 2.77947861514762317725e+00) (183, 9.96180558947980854256e-01) (184, 4.69184044789839305167e+00) (185, 2.26792187467538797208e+00) (186, 1.75312105218006930585e+00) (187, 1.07822147653355093766e+00) (188, 1.08647274130848181528e+00) (189, 1.28399275456655126426e+00) (190, 3.43964507840909883285e+00) (191, 1.74644657960508720151e+00) (192, 1.77316220116378153726e+00) (193, 2.18314021678298209039e+00) (194, 1.37664812184409179885e+00) (195, 1.45754607943142655557e+00) (196, 5.85061857306210608698e+00) (197, 3.06015503186502879629e+00) (198, 1.07625699355273685143e+00) (199, 3.24929071996245300014e+00) (200, 4.80642833405782565759e-01) (201, 7.72538858045198395530e-01) (202, 6.18650924019254500053e+00) (203, 2.96797866543260147054e+00) (204, 7.17727540619692017110e-01) (205, 4.42259918628712700439e+00) (206, 8.17078939018582861564e-01) (207, 1.32070390700008322149e+00) (208, 6.13281625131426189057e+00) (209, 1.13516018232421722622e+00) (210, 2.41914451503844141200e+00) (211, 4.57228662340843072798e+00) (212, 1.96559924309713696111e+00) (213, 2.22608249203244223935e+00) (214, 2.19487910795506957484e+00) (215, 1.84477638928531573193e+00) (216, 7.98760507346104930981e-01) (217, 2.86533733250247113489e+00) (218, 1.45667846483585239348e+00) (219, 1.33338687857855586749e+00) (220, 8.77883267796171651298e-01) (221, 2.40124971739121217951e+00) (222, 1.64040924044024394313e+00) (223, 2.75187854770200557297e+00) (224, 1.70900855836858722725e+00) (225, 4.65907935822457541786e-01) (226, 8.28673256442039374292e-01) (227, 1.18408857839261849598e+00) (228, 2.05266034110694128856e+00) (229, 1.37448654230904754314e+00) (230, 1.25073959020590552704e+00) (231, 2.15741260801594103569e+00) (232, 1.85507655705973251159e+00) (233, 1.14420080468418272623e+00) (234, 1.60988566378384523325e+00) (235, 1.93335788584574719273e+00) (236, 8.38381725228519170123e-01) (237, 1.76617853198797392089e+00) (238, 9.86498254438140764755e-01) (239, 5.08438553839585472005e-01) (240, 1.74480938171659571978e+00) (241, 7.45597714143742096304e-01) (242, 4.79253278136015758992e-01) (243, 1.03366774706089303848e+00) (244, 6.05996792550183127624e-01) (245, 4.47382804184815408011e-01) (246, 1.74236642574583155962e+00) (247, 7.22571627825709938975e-01) (248, -1.06032064092411304479e+00) (249, 8.06951172451157217047e-01) (250, 2.06618309445219017206e+00) (251, 2.07451982740905682689e+00) (252, 1.90330249586575983578e+00) (253, 8.41839048193321115576e-01) (254, -1.55337109697117115026e+00) (255, 1.16230930168117008172e+00) (256, 1.40857390498710044469e+00) (257, 1.92926718968506105689e+00) (258, 1.87196392336362360531e+00) (259, 8.27845935676417843396e-01) (260, -1.63481504540556565885e+00) (261, 7.20900951028677794419e-01) (262, 8.08233627179834823728e-01) (263, 2.08123078964155183712e+00) (264, 1.63745643265089491081e+00) (265, 1.98350419098386998584e+00) (266, 1.35806026266550605719e+00) (267, 2.10873133311783078625e+00) (268, 1.36936732995209564656e+00) (269, 2.32348232555965905632e+00) (270, 2.49734234707264501907e+00) (271, 6.60998701615586603531e-01) (272, 3.09377626865487032060e-01) (273, 5.78070380571897191047e-01) (274, 1.31408796729996213415e+00) (275, 1.10814924185737395668e+00) (276, 1.01214456203667668710e+00) (277, 6.01370438369598137029e-01) (278, 1.46548106229897157071e+00) (279, 7.59677347064530161802e-01) (280, 1.06076638495058905853e+00) (281, 1.40138359015449309730e+00) (282, 6.13016154796762302581e-01) (283, 4.10983482851872472530e-01) (284, 1.95541318411587439208e+00) (285, 1.85837664138572944417e+00) (286, 1.17913265723945404062e+00) (287, 1.01317550214704121814e+00) (288, 1.39593112114159589865e+00) (289, 5.20380687584906520549e-01) (290, 1.59955251865910175191e+00) (291, 1.70839275848167670979e+00) (292, 8.11670371392939071775e-01) (293, 2.00289070870201602048e+00) (294, 1.36271409431166645732e+00) (295, 1.98268423774787194702e+00) (296, 1.61009065730690381635e+00) (297, 2.46745205396659272878e+00) (298, 1.58080468005334662251e+00) (299, 4.82972532521228237190e-01) (300, 1.22601804737643749199e+00) (301, -2.01919703296296582096e+00) (0, 9.96986367945189133621e-01) (1, -4.59877048250195097356e-01) (2, 7.27831540396903897694e-01) (3, 6.56493374707176752247e-02) (4, 7.48488509692950415575e-02) (5, 1.70873548052291490684e-01) (6, 2.26239142707085394424e-01) (7, 1.35489271925163001775e+00) (8, -1.31647506727692320538e-01) (9, 1.23106773116875942153e-01) (10, 5.89727175333145808844e-02) (11, 3.43384995674892445905e-02) (12, 1.04601212907219309756e+00) (13, -8.11006825758073590649e-01) (14, 1.23989271429038083738e+00) (15, 8.99191589983675876319e-01) (16, -3.89866292965763555634e-02) (17, 8.87684584691059042072e-01) (18, 3.20125486139301196342e-01) (19, -6.54508501395585501337e-02) (20, 9.00483190838904379305e-01) (21, 1.08002971089617871847e-01) (22, 1.15895920942986563329e-01) (23, 1.14203796950888114559e+00) (24, 5.68704603014196563571e-01) (25, -1.90368696571767498371e-01) (26, -8.25347012838240079446e-02) (27, 3.30927772095309880029e-01) (28, 1.85749646857615358098e-01) (29, 3.97167739108439721285e-01) (30, 3.65303304579062626534e-01) (31, 2.26239141226976137045e-01) (32, 1.03677320314323018202e+00) (33, -5.04649832313760815516e-01) (34, 1.86646780932165703981e-02) (35, -7.03857098803738145953e-01) (36, 8.61245478854518187184e-01) (37, 1.55785268898639928103e+00) (38, 1.84026813634105002038e-01) (39, 1.13851244078808866433e+00) (40, -2.47831740414880367929e-02) (41, 3.54779955036450600492e-01) (42, 3.59726513250372026409e-01) (43, 5.27622108040622372904e-01) (44, 5.24984595274179399738e-01) (45, -4.02638313459258850857e-02) (46, -8.00590171212001378009e-01) (47, 1.04410259880040845459e+00) (48, 1.07817613464503331278e-01) (49, 9.63618178100644096062e-01) (50, 7.34248030236300364137e-01) (51, 1.16513115402078581972e+00) (52, 9.34776187185122009460e-01) (53, 1.28201155554236767564e+00) (54, 1.22323542640157834072e+00) (55, 6.87927768802846228979e-01) (56, 2.68664552466090769331e-03) (57, 1.28404658081024969363e+00) (58, -5.62964073035860046446e-01) (59, 4.98001680564956195063e-01) (60, 4.28954837839448266390e-01) (61, 7.04522670424159058733e-01) (62, 1.71997689805713305233e+00) (63, -3.91481665203129658437e-01) (64, 4.19817050778660605381e-01) (65, 4.37903169426569038869e-01) (66, -2.51652103860651558953e-02) (67, 4.21614230984464377627e-01) (68, 6.73378038937205269931e-01) (69, 2.21732824746925405446e-01) (70, -1.91520951764675068096e-01) (71, 8.39970137505715364057e-01) (72, -3.47271268836872260000e-01) (73, 1.29129343724454948017e+00) (74, 2.82493355928737877036e+00) (75, 3.44402706537275393739e-01) (76, -5.38501379199354479610e-01) (77, 8.59167560347735559390e-02) (78, 1.42187967771459228272e-01) (79, 6.25769349373066829934e-01) (80, 1.58655391767555187243e+00) (81, 9.16030161685316368647e-01) (82, 4.95599590328370032122e-01) (83, 1.20607255469612351106e+00) (84, 1.02273318053134198991e+00) (85, 2.14966004355616246979e-01) (86, 2.36157868908873735947e+00) (87, 1.08412882687317058128e+00) (88, 2.02038197728541979448e-01) (89, 3.01574960775353062559e-01) (90, 3.09416377265588737888e-01) (91, 1.35264903585059181879e+00) (92, 2.16314635852050418663e+00) (93, -6.93611977959514153236e-02) (94, 1.21778835263020956958e+00) (95, 5.64191823320076335513e-01) (96, 3.28855136940419123803e-01) (97, 2.00600407158803983876e+00) (98, 1.65022504997999419629e+00) (99, 8.32230601421294902131e-01) (100, 4.63336758113531810288e-01) (101, 1.85095314475341599092e+00) (102, 6.32836990104610058738e-02) (103, 9.45128855065396455970e-01) (104, 1.60379903507269094831e+00) (105, 1.84613986817871555957e-01) (106, 1.11808488887728674221e+00) (107, 1.60882276776967336751e+00) (108, 1.65946156016865770111e-01) (109, 1.49676163645184861356e-02) (110, 5.63067778153730547075e-01) (111, 1.71408157944081018798e+00) (112, 1.36385649483129589576e+00) (113, 2.99384694442440890683e+00) (114, 1.18301537044914262253e+00) (115, 1.32584765906413881709e+00) (116, 1.69265362635736149599e+00) (117, 1.29684409747297868520e+00) (118, 4.86154601489866222686e-01) (119, 4.77587075948673223103e-01) (120, 1.50077577183033405994e+00) (121, 1.57351942105619424517e+00) (122, 9.75620608567567826341e-01) (123, 1.07147322345002193877e+00) (124, 8.60347567259712731058e-01) (125, 7.13139618075006920250e-01) (126, 1.44461941023270967754e+00) (127, -4.02617288151939256569e-01) (128, -2.49709074498058791747e-01) (129, 1.09575446048777425112e+00) (130, 1.19023946249524636976e+00) (131, 1.48398446252101123832e+00) (132, 5.20140681947193983525e-01) (133, 9.55079452049093835519e-01) (134, -9.69963972848855604525e-01) (135, 4.64707243339474940225e-01) (136, 3.53068938427773260091e-01) (137, -1.51609988608829282519e+00) (138, -4.03300704428541767488e-01) (139, -4.82501002209922480457e-01) (140, -3.11137452832098093669e-01) (141, 6.51956899735398165419e-01) (142, 3.87045540700141910140e-01) (143, -3.61722444893443739744e-01) (144, -1.71897427847314077098e+00) (145, 6.74950361561572287350e-01) (146, -8.35228205158468073321e-01) (147, 1.57232558070123906724e+00) (148, 1.31180001862868689244e+00) (149, 1.39522940690770580474e+00) (150, 1.00376061528955728974e+00) (151, 3.34528470839463687447e-01) (152, 1.60373415915798685216e-02) (153, 8.17714990319682977216e-01) (154, 4.80262764463292024519e-01) (155, 7.66274112944011376314e-01) (156, 1.02116079527382108694e+00) (157, -4.14698203280074340071e-01) (158, 2.21083369845100713436e-01) (159, -1.53705351279856072821e-01) (160, 1.51329854005573705145e+00) (161, 6.42908747685245862691e-01) (162, 1.11151408200074830468e+00) (163, 2.86176441067518994021e-01) (164, 1.13154969073562858273e-01) (165, -5.78322706387290261243e-02) (166, 1.31126765069554895859e+00) (167, 8.23643824638282895378e-01) (168, -4.23735103385519173980e-01) (169, -2.95080049168977343044e-01) (170, 1.16465692622240379883e+00) (171, 7.33778789312880430629e-01) (172, -1.04255715970793402803e-01) (173, 5.04667754512334920669e-01) (174, 9.51383831840300508986e-01) (175, 6.06048465818329051835e-01) (176, -7.48423777950794899549e-02) (177, 1.37397371210471974656e+00) (178, 2.73760907532893227323e-01) (179, 1.92189809789799781470e+00) (180, 6.16850253156109099018e-02) (181, -8.89141352703704090921e-01) (182, 2.46850089609318734674e+00) (183, 8.86245952450194440786e-01) (184, 1.00361010927756755251e+00) (185, 1.78924856278891342143e+00) (186, 1.74399683049335152418e+00) (187, -1.22213970090841825278e-01) (188, 2.60758784045245883831e+00) (189, 4.54735939613228890011e-01) (190, 1.32958464899023542927e+00) (191, 2.13164771338791103616e+00) (192, 1.24283276847295187650e+00) (193, 8.19839711763812650780e-01) (194, 9.06128304446372268011e-01) (195, 1.29286040495947207596e+00) (196, 1.23857419280697933495e+00) (197, 3.06650394270983117639e-01) (198, 1.72325617472347869530e-01) (199, 1.65654258826829803297e+00) (200, 6.08762914931011422937e-01) (201, 1.27986658911882034140e+00) (202, 4.41992149636050324357e-01) (203, 1.74936976045100678334e+00) (204, 1.69750546188666029401e+00) (205, 7.78015280185298391258e-02) (206, 4.76893567796549899818e-01) (207, 1.46020960353689410738e+00) (208, 1.59639520452971050979e+00) (209, 1.15478119866942896543e+00) (210, 1.24818787756580884540e+00) (211, 2.58721181159519364456e-01) (212, 1.52010587007313779928e+00) (213, -2.82623257913790948415e-01) (214, 1.44664679110743565893e+00) (215, 1.06524151560528035354e+00) (216, 1.38559641571099811941e+00) (217, 1.22327176917995039673e+00) (218, 1.99869115610077280332e-01) (219, 9.46666352721296733286e-01) (220, -3.04478570500815171052e-01) (221, 1.34091999902728598038e+00) (222, 1.25362369178619958987e+00) (223, -3.55759679332304679100e-01) (224, 1.23120757099675803836e+00) (225, 1.42001453114105102848e+00) (226, -6.18660117325094738305e-01) (227, 5.02216130306827768237e-01) (228, 5.37421675865865089428e-01) (229, -3.65970246505280039084e-01) (230, 6.86657136653499922119e-01) (231, 5.35865951946333241018e-01) (232, -4.33098939951510775170e-01) (233, 1.65136482735162903879e+00) (234, 6.49210204706210269876e-01) (235, -6.83940151362896431309e-01) (236, 1.78158651237055565275e+00) (237, 5.54143646898657249444e-01) (238, -5.01368950497238285990e-01) (239, 1.26789007080382276627e+00) (240, 4.69523509793883936370e-02) (241, 1.08209795305438216673e+00) (242, 1.34993653180024320015e-01) (243, 1.42373950991173714442e+00) (244, 1.20002014618006680458e+00) (245, -3.28292758686919150524e-01) (246, 8.39426987187066320217e-01) (247, 8.98821173395186745481e-01) (248, 1.80689054984359120937e+00) (249, 8.84935232708239816191e-01) (250, 2.31395710207711963191e-01) (251, 2.42025535328448587746e-01) (252, 7.37357241372110783217e-01) (253, -7.87552373140335659762e-01) (254, 7.75798481735428424599e-01) (255, 2.43545799113585204054e-01) (256, 1.26640339159904069533e+00) (257, 5.17137385594726883831e-01) (258, 8.98796251153735181738e-01) (259, -4.21747920890515048953e-01) (260, 1.25951946586553553686e+00) (261, 9.11806587545472280176e-02) (262, 4.20266973289225909127e-01) (263, 1.03575718702641861313e+00) (264, -6.46882927791774919868e-01) (265, -8.14232325076049479051e-01) (266, 1.04403129346908229991e+00) (267, -4.98546941108093499828e-01) (268, 5.33741722841385712872e-02) (269, 1.21846942430254956413e+00) (270, -7.92008575888834887024e-01) (271, 5.22584928255982239520e-01) (272, 6.80038820152808587416e-01) (273, -2.77899841478281228735e-01) (274, 2.57118796955517481262e-01) (275, 5.87483838178902262328e-01) (276, -3.19554880036123700737e-01) (277, -5.45552839722419635748e-01) (278, -2.08795002850864275246e-01) (279, -1.73234342001551938628e-01) (280, 7.29515833193230434084e-01) (281, 9.83932737710786042840e-01) (282, 3.78031488601288823137e-01) (283, 4.04180572232789026010e-01) (284, 6.64860736328862556022e-01) (285, -4.43978175717530287869e-01) (286, 8.67187740310088495121e-01) (287, 9.81247164635295932023e-01) (288, 6.28223691707907039294e-01) (289, 9.32246896425715010359e-01) (290, 1.20813391339879738773e+00) (291, -4.08258570402056986115e-01) (292, -7.53754381873628531707e-01) (293, 3.92716552278976449575e-01) (294, -2.09285340066437647311e-01) (295, -8.52318058501092012426e-04) (296, 9.05358640899170175054e-01) (297, -8.99687906343162091538e-01) (298, -2.52597783544082521434e-01) (299, -4.78112791516799751079e-01) (300, 2.01807849529337252070e-01) (301, 1.81118511897052458792e+00) (302, 5.14165396645842509571e+00) (0, 3.25181330976450577719e-01) (1, 1.82771365041907912774e-01) (2, 1.84960094343930209204e-01) (3, 3.47400705022635813979e-01) (4, 2.87919535558268602227e-01) (5, 2.09151852201268390052e-01) (6, 2.58642322460581775001e-01) (7, 2.54266813657840207163e-01) (8, 2.05665039994507220511e-01) (9, 3.59908088630606803893e-01) (10, 1.80219318623823870906e-01) (11, 2.08838676431350206419e-01) (12, 1.70418193767796072313e-01) (13, 2.24642659959007201520e-01) (14, 1.55946184819431427071e-01) (15, 3.05979171817405026790e-01) (16, 2.87602418581729246672e-01) (17, 2.31151569893807778966e-01) (18, 2.25176897209784926401e-01) (19, 3.21140827743107537540e-01) (20, -4.43447175094205559009e-01) (21, 2.40139294473786318873e-01) (22, 2.53659013354359530457e-01) (23, 2.95530853219416356215e-01) (24, 3.41165017865885988879e-01) (25, 1.71905368923174955986e-01) (26, -4.27706610169028333956e-01) (27, 3.12550428767646326644e-01) (28, 3.74636790981226319719e-01) (29, 3.85072609020427114590e-01) (30, 2.17865971084846427042e-01) (31, 2.66653523974367090421e-01) (32, -4.92931858408432288510e-01) (33, 2.58331637526764301693e-01) (34, 3.18459393451223260474e-01) (35, 3.23529658816568199686e-01) (36, 2.74070721693885022141e-01) (37, -5.96405146472304026339e-01) (38, -7.17727035119647749362e-01) (39, 3.58095511294853341422e-01) (40, 1.96513727230022028358e-01) (41, 4.11784440018406028283e-01) (42, 1.31013975686976452684e-01) (43, -6.20714559136354204760e-01) (44, -1.52729459321791893878e+00) (45, 2.32072489425077133074e-01) (46, 3.56014735298685436327e-01) (47, 3.88755597119969098507e-01) (48, 1.39142139017490396036e-01) (49, -9.02172578318234275052e-01) (50, -2.65127513445555562654e+00) (51, 4.95318494580257395743e-01) (52, 3.52294833780308458415e-01) (53, 4.78495125720374503420e-01) (54, 1.94167217269921366096e-01) (55, -1.40524834728611658363e+00) (56, -2.41498908584016191980e+00) (57, 3.74232736698450751955e-01) (58, 4.53543170925999439280e-01) (59, 4.98365838896353274823e-01) (60, 1.91321928080135705841e-01) (61, -1.79837600011650455833e+00) (62, -7.15350063071456654384e-01) (63, 2.51728278654011872195e-01) (64, -2.23453046430472118677e-01) (65, -2.22018318398663677682e-01) (66, 3.00437600372747970479e-01) (67, -4.53556468166460169389e-01) (68, -4.87886914511152181007e-01) (69, 3.39621685985910470862e-01) (70, -4.53893212728099848530e-01) (71, -8.71761157796474450699e-01) (72, 2.83358558277616245924e-01) (73, -4.26605979920083588919e-01) (74, -1.25034164678882037114e-01) (75, 3.72337880662181208713e-01) (76, -1.14192497939109527394e+00) (77, -8.62410479778194738465e-01) (78, 2.75473364915768237360e-01) (79, -4.56421570515633950871e-02) (80, 1.04896047824038045337e-02) (81, 4.43769009618063203781e-01) (82, -1.03853644454613580628e+00) (83, -5.87159631589145081243e-01) (84, 3.55962512638577699420e-01) (85, 1.31295624430566498786e-01) (86, 1.01238092576998103822e-01) (87, 4.25955786307870343244e-01) (88, -1.40734834060617086671e+00) (89, -4.56307469123659492638e-01) (90, 3.94092615617319230736e-01) (91, 8.94613030524994828907e-02) (92, 1.76212689851044573830e-01) (93, 5.95197876553985483206e-01) (94, -2.22814001324676391746e+00) (95, -2.68121115137495320824e-02) (96, 2.60654270314958802501e-01) (97, 4.31039641923882943519e-02) (98, 3.13412158877847346616e-01) (99, 6.09523105136605236609e-01) (100, -2.21359629982713501661e+00) (101, -2.57253741369411703666e-01) (102, 3.25929079942198773878e-01) (103, -4.13582047936000285482e-01) (104, 2.05290330946610415086e-02) (105, 5.92862359987632592251e-01) (106, -4.85689422805728465704e+00) (107, -1.63759001856717967271e+00) (108, 5.41767668759991716243e-01) (109, -3.42902651452837825552e-01) (110, -1.65248794392819559063e-01) (111, 8.09485770104689472682e-01) (112, -1.76917500261308857645e+00) (113, -4.52550329926876671038e+00) (114, 6.47669429504690752353e-01) (115, 2.32989734211753340976e-01) (116, 1.16042233035113517836e+00) (117, 1.40971605400680388698e+00) (118, -1.03082766262294858728e-01) (119, 2.09781994312367014999e+00) (120, 7.89788546631574384094e-01) (121, -2.85587026846058189555e-01) (122, 1.44389688572741192729e+00) (123, 1.07518775531556398661e+00) (124, 4.82128485757253033572e-02) (125, 9.80667629273810792512e-01) (126, 6.26744473166468418768e-01) (127, -2.19468813524632277989e+00) (128, -1.01687071129024975136e+00) (129, 1.04607473428646335911e+00) (130, 1.03551681411538608335e-02) (131, 7.21794171178506416275e-01) (132, 7.38801649322247899754e-01) (133, -1.92524986851721413572e+00) (134, -7.69466899511130619782e-02) (135, 9.29915056417308760750e-01) (136, -2.26980181402179148620e+00) (137, -5.03297814717792668660e-01) (138, 7.63824641085195210621e-01) (139, -1.72136293317172284212e+00) (140, -8.66110933599228416391e-01) (141, 6.72107660506888304752e-01) (142, -1.64863529107163375720e+00) (143, -1.05984080109383160817e+00) (144, 5.72830930131750681866e-01) (145, -2.14550055898844593827e+00) (146, -4.68929197837041622510e-01) (147, 5.99458808535792808669e-01) (148, -6.17168387025484488362e-01) (149, -2.72846602837829221855e+00) (150, 6.76595210354563825206e-01) (151, -1.45900366164020384163e-01) (152, 1.20349402070268141074e+00) (153, 8.70938569351575431199e-01) (154, -1.08227153182069102400e+00) (155, -2.17393639750215372786e+00) (156, 7.86100549614181409730e-01) (157, -3.17257875656654753094e-01) (158, 1.82085619319573432939e+00) (159, 8.75747684984546248543e-01) (160, -1.34754268723155079535e+00) (161, -8.63621707246402081637e-01) (162, 7.99523622227868213663e-01) (163, -3.79871970399761504922e-01) (164, 1.70078712376218610380e+00) (165, 5.58433978604218728137e-01) (166, -1.20897955064649531565e+00) (167, -6.80341923505741408285e-01) (168, 1.32150124499737842143e+00) (169, 1.92036348520992494748e-01) (170, 2.41882766322856346264e+00) (171, 7.03769462886394081558e-01) (172, 5.76370750589697111721e-01) (173, 1.16306207321062116122e+00) (174, 9.97717140166016758229e-01) (175, -9.36337262418724280977e-01) (176, 1.36595573660719082909e+00) (177, 5.94023246495486212382e-01) (178, 4.45291768095644469039e-01) (179, 3.20277245031282797871e-01) (180, 9.09650689625236319458e-01) (181, -1.77483631376442008154e+00) (182, 1.31864894290246748021e+00) (183, 5.20915626075220794533e-01) (184, 2.71248991353858770470e-01) (185, -2.01378551023499476058e-02) (186, 7.34650753235408515707e-01) (187, -1.87324510639034547133e+00) (188, 3.98165161454223370807e-01) (189, 5.47662955167340870233e-01) (190, -3.03188343212898281376e-01) (191, -1.25999721254706681384e-01) (192, 7.52370467186382674285e-01) (193, -1.67061140009964970154e+00) (194, 8.34435130309678307903e-01) (195, -1.44786281338531302998e-01) (196, -3.94019760477027636281e-01) (197, -1.17343597463511306600e-01) (198, 4.62568586897091460486e-01) (199, -2.50987446572568284608e+00) (200, -2.39064439681602708410e-01) (201, -3.66519840993127232753e-02) (202, -2.75154269177778132427e-01) (203, 5.27134511179353504318e-02) (204, 4.55659302079221339987e-01) (205, -3.21988501102781832230e+00) (206, -9.82570138163400774722e-01) (207, 4.80217082699013642078e-01) (208, -3.67810864294565165178e-01) (209, 2.52102261052167708755e-01) (210, 4.19325320267094681093e-01) (211, -2.05946309274070049611e+00) (212, -9.39256870812645416891e-01) (213, 4.43963287496590308656e-01) (214, -1.80632437820941099682e-01) (215, -2.38024279504814667563e-01) (216, 4.69246130634675018278e-01) (217, -1.78334392617032944095e+00) (218, 1.55489895141999526218e-02) (219, 4.30053238607194021625e-01) (220, -6.30015190880282793806e-01) (221, -7.78320846361743590158e-01) (222, 3.48237510416905204913e-01) (223, -1.00856948064786511310e+00) (224, -7.13758463287746669490e-02) (225, 4.35963962904800994558e-01) (226, -3.95261029711578670831e-01) (227, 2.34855461919382502156e-01) (228, 5.68249080656481719842e-01) (229, -9.23500496854016805770e-01) (230, -4.32292893014212878389e-02) (231, 5.87841870677225819541e-01) (232, -4.53153255394241449849e-01) (233, 4.13157572610932055657e-01) (234, 5.47652513205830082654e-01) (235, -7.90877892184749131665e-01) (236, 2.29070137921706211415e-02) (237, 5.11787781445681266845e-01) (238, -2.46762963532068640982e-01) (239, 3.98758083574145272276e-01) (240, 4.65235136924051606577e-01) (241, -8.74043756161427931595e-01) (242, 6.85222888262834950446e-01) (243, 3.92076103706628931178e-01) (244, -1.93424067958831630287e-01) (245, 6.41936857871353461213e-01) (246, 6.69457199678329173409e-01) (247, -1.50759972338448205997e-01) (248, 1.14999137614668467400e+00) (249, 2.43020118568815363114e-01) (250, -3.85092110400391263170e-01) (251, 3.09537757726926598956e-01) (252, 6.28362878036332617171e-01) (253, -7.88056567777556532528e-02) (254, 9.86868538682647566951e-01) (255, 2.64224022037211958569e-01) (256, -4.02991939336792004411e-01) (257, 1.27089990536232461116e-01) (258, 3.63483214241517305076e-01) (259, -2.48037712318896541586e-01) (260, 6.58617086810652674345e-01) (261, 2.23302260075695396813e-01) (262, -4.32292025661412560034e-01) (263, 2.31836094190030705953e-01) (264, 3.94244255267620857808e-01) (265, -1.74289871705199467256e-01) (266, 4.26304344425541992258e-01) (267, 2.96181248510601846657e-01) (268, -3.05586810442082801309e-01) (269, 1.38823839224085143762e-01) (270, 2.58663651698228691522e-01) (271, -1.54499740082349540371e-01) (272, 3.45338452602091505739e-01) (273, 3.21556122874052385807e-01) (274, -3.58395213669892076513e-01) (275, 1.32381013156149501819e-01) (276, -2.17248502950322275318e-01) (277, -3.82417902522886987704e-01) (278, -2.10494033175428640892e-01) (279, 2.00043537555861544730e-01) (280, 1.12390897194999145325e-01) (281, 3.55403191641111615429e-01) (282, -2.46328885017374515920e-01) (283, -2.50441581937582979922e-01) (284, -2.39708430575279574093e-01) (285, 2.99558082453407592549e-01) (286, 2.05322320424798449023e-01) (287, 2.82204525465007793894e-01) (288, -2.65214861815820934776e-01) (289, -2.92382081797001924794e-01) (290, -3.69099344945941265639e-01) (291, 2.20452238802278349672e-01) (292, 1.86014961944262896543e-01) (293, 2.80125747173715244909e-01) (294, -2.29362765344997193706e-01) (295, -2.24111607583389382814e-01) (296, -3.27942274629795749163e-01) (297, 1.99898754502597170157e-01) (298, 2.55791902142407656662e-01) (299, 2.23642749036612825675e-01) (300, 1.42238926103975060755e+00) (301, -2.85410425764774728918e+01) (302, -4.80627123702570724362e+00) (303, 8.34430085490576090024e+00) (0, 1.67074962012045497017e-01) (1, 9.06102895029788496517e-02) (2, 1.63675701156481417931e-01) (3, 1.14579211944899561626e-01) (4, 1.55533059702068793273e-01) (5, 1.69118885223074610913e-01) (6, 6.83412413456817718904e-02) (7, -4.61769137990801908922e-02) (8, -1.87596577628195176901e-01) (9, 1.18761189103898975872e-01) (10, 1.57492928584735347730e-01) (11, 2.94891362133400253276e-02) (12, -5.79552955844350736747e-02) (13, -4.08486761693775179971e-01) (14, -1.57751924382955405202e-01) (15, 1.98996302455848539381e-01) (16, -3.36697025936933021228e-03) (17, 5.96668414886584522194e-02) (18, -3.57546836021559386043e-02) (19, -4.76498103379550452807e-01) (20, -8.42736501855702035968e-01) (21, 1.90019422054347630890e-01) (22, 1.48054106582246550877e-02) (23, 3.62095693694621731384e-02) (24, -2.51968366373674645953e-02) (25, -1.47165167792378448475e+00) (26, -6.59105892697651185586e-01) (27, 1.99841587612154814035e-01) (28, 2.01637796706164607041e-01) (29, 2.45226487473290205577e-01) (30, 1.12534181011785694437e-01) (31, -2.50188170014602873081e+00) (32, -2.27729738223443112233e+00) (33, 2.15124138484619198408e-01) (34, -1.06823712088584632518e+00) (35, 2.60023657765084237337e-01) (36, -7.79080103154193223669e-03) (37, -4.06058644648242239583e+00) (38, -2.08394932493097684301e+00) (39, 1.91124654521325154644e-01) (40, -1.86570725861509623122e+00) (41, -1.91725688337898581004e+00) (42, 5.00126700987441608071e-02) (43, -3.74730670573449131666e+00) (44, -2.17345009783636555767e+00) (45, 2.03852767768120446412e-01) (46, -1.80899839553771424328e+00) (47, -1.94888901800280023302e+00) (48, 1.46205828051608976992e-01) (49, -3.40718344260050276517e+00) (50, -9.81575937739720627562e-01) (51, 8.63812115500336430429e-02) (52, -1.93100811224469626204e+00) (53, -1.97215557452776013569e+00) (54, 1.06502104788859491835e-01) (55, -4.28883632920356117069e+00) (56, -8.60246595820109094532e-01) (57, 2.08679180122990914903e-01) (58, -1.85102841571216347738e+00) (59, -3.98137160400682343919e+00) (60, 1.25803693634535862511e-01) (61, -2.06702673016971028019e+00) (62, -1.09220858029187373184e+00) (63, 1.87623572320366915900e-01) (64, -1.71919233336643406673e+00) (65, -2.67605091802442274229e+00) (66, 1.13118949504163610054e-01) (67, -1.28771995928650828667e+00) (68, -6.86192195576555974412e-01) (69, 7.93158057388512888197e-02) (70, -1.21647253490891626981e+00) (71, -2.81963825626600206320e+00) (72, 1.34068405660111356070e-01) (73, -1.70979584955459373852e+00) (74, -1.14586904631614672212e+00) (75, 2.39237527751268719278e-01) (76, -1.28476335364700933184e+00) (77, -3.23999483988304737281e+00) (78, 3.08326393684929186967e-02) (79, -2.02752118396667047051e+00) (80, -1.07159891767727244449e+00) (81, 1.37317237685160464800e-01) (82, -1.40610324878688919270e+00) (83, -2.66232089518831349650e+00) (84, 1.59188358507880933779e-01) (85, -1.21474428554634461541e+00) (86, -8.73832384131691175533e-01) (87, 7.00527391617611627783e-02) (88, -1.26730660828313551614e-01) (89, -2.13629700447419912379e+00) (90, 9.51380251481055566609e-02) (91, -1.79990970022555751839e+00) (92, -1.52645021078262121961e+00) (93, 9.57663905312171742645e-02) (94, 2.25654732199108076784e+00) (95, -2.27340171926392509150e+00) (96, 2.84883759888926835213e-01) (97, -1.91184311056724132172e+00) (98, -1.75980522833375774283e+00) (99, 7.99540180851204401735e-02) (100, 2.46345083697923117327e+00) (101, -7.60575993410207740197e+00) (102, 2.36732461230512225558e-01) (103, -7.16642437123859443737e-01) (104, -1.67884633877491395992e+00) (105, 1.76940660664210103192e-01) (106, 1.51410951881895741167e+01) (107, 7.57379787327797204810e-01) (108, 3.27345929721496176068e-01) (109, -8.71654616836109563671e-01) (110, -9.16791295764992297812e-01) (111, 5.60937804419834942782e-02) (112, 7.90472790527800697191e+01) (113, 6.13127598801458617572e+00) (114, 2.64564627204718516573e-01) (115, -6.69279201352194208496e-01) (116, -2.25227377301326664449e-01) (117, -3.88949131211315246581e-01) (118, 3.27576256172431179436e+00) (119, -1.47016549854735441016e+01) (120, 5.34899352017361273681e-01) (121, 5.75224011851177552401e-01) (122, 4.01570408143464452344e-01) (123, 4.94564374781606974629e-02) (124, 1.74833250526626251542e+01) (125, -5.06944788006135738101e-01) (126, 6.76899541582273167606e-01) (127, 7.95679991425126131865e-01) (128, 1.57263362138818085789e+00) (129, -1.60849723469925071084e-01) (130, 7.30648715375762947133e+00) (131, -2.04987164373910744075e+01) (132, 7.12026658332302941901e-01) (133, 1.66067978587654963007e+00) (134, 5.23951426862599500822e+00) (135, -2.36361083439627167602e-01) (136, 1.99797898788947421167e+01) (137, -3.50739395833939404667e+00) (138, 2.01774115970071971082e-01) (139, 1.55343963590224998228e+00) (140, 3.03215855245362053694e+00) (141, -2.03530050093688769097e-01) (142, 4.41298693062247426866e+00) (143, -6.54031219021571708083e+00) (144, 2.12820406632175912476e-01) (145, 6.39966388632782656742e-01) (146, 6.41065576757325894519e-01) (147, 1.24472715411922243978e-01) (148, 1.03450361208267960222e+00) (149, -5.46409393043590352335e+00) (150, 1.78107705362672258387e-01) (151, 6.54264788893876070297e-01) (152, 1.07091539426607895713e+00) (153, 1.26008692333292482424e-01) (154, 6.85421005005629191409e-01) (155, -5.95349599461836032077e+00) (156, 1.24820649379763629061e-01) (157, 7.14217921889186757589e-01) (158, 5.62094033038770835020e+00) (159, 2.71631389211975438069e-01) (160, 8.43521799401497296422e-01) (161, -1.08577626264970117376e+00) (162, 2.13628015797106884932e-01) (163, 6.68475111584352132965e-01) (164, 2.57565383160676431018e+00) (165, 1.82039230922512729194e-01) (166, 1.93178179351031792388e-01) (167, -1.29959011659133016892e+00) (168, 5.34181435823226982706e-02) (169, 4.81926740263717623414e-01) (170, 1.01541214859023543049e+00) (171, 1.78412205046090510674e-01) (172, 2.69141930821224541204e-02) (173, -4.49037406521057391728e-01) (174, -3.51188280040010264438e-02) (175, 5.82992359617444333431e-01) (176, 5.32392376241378473267e-01) (177, 1.95918017345522221806e-01) (178, 2.06694950942750976797e-01) (179, 1.48494600345307037337e-01) (180, 1.27160978829553988900e-01) (181, 7.31905895674805240247e-01) (182, -1.36199160741463792812e-02) (183, 2.12116283639309122222e-01) (184, 1.97059974754589473100e-01) (185, 3.25511816052091396134e-01) (186, 2.28076099396380488349e-01) (187, 9.14503249999860212682e-01) (188, 4.69190005678613186735e-01) (189, 2.22959583348094458888e-01) (190, 1.58318856923784667678e-01) (191, 2.33321828481011073197e-01) (192, 2.31379582506826303456e-01) (193, 8.40312798789040638070e-01) (194, 6.76526887558333678285e-01) (195, 2.26739485877799795688e-01) (196, 2.28146386611091323005e-01) (197, 3.08812767184667047449e-01) (198, 1.77024291667444683140e-01) (199, 9.59053531852821050663e-01) (200, 7.20560039990030043455e-01) (201, 2.34735383961267751740e-01) (202, 2.27192362200153097351e-01) (203, 4.16742078805089455340e-01) (204, 2.74333642634851937459e-01) (205, 9.76455226940293963267e-01) (206, 9.30505807992455080679e-01) (207, 1.60039629969438768065e-01) (208, 4.18992291233072963047e-03) (209, 1.69182333466252526888e-01) (210, 1.39536614572794787081e-01) (211, 1.00471183648060313764e+00) (212, 1.10197678955157174485e+00) (213, 2.18374016357718414572e-01) (214, -2.04145365526210709195e-01) (215, 1.26748223872487325581e-01) (216, 1.52445277107606219635e-01) (217, 1.28208788115439276112e+00) (218, 1.21419128373912577068e+00) (219, 1.69137163617587182873e-01) (220, -1.87751710739675808925e-01) (221, 4.07545954967293178051e-01) (222, 2.22539054958739906942e-01) (223, 1.12638831678507722600e+00) (224, 1.06376516753678118654e+00) (225, 1.64627941508312614083e-01) (226, 2.90087395383503476864e-01) (227, 2.17384648630537469227e-01) (228, 1.16905044858009815600e-01) (229, 5.58158580737045273423e-01) (230, 4.92911286354639266438e-01) (231, 2.53193497606622908158e-01) (232, 2.93695499674070270579e-01) (233, 2.92921803476599629246e-01) (234, 1.11305253345295840361e-01) (235, 4.30178246705503364300e-01) (236, 2.83702892455594712917e-01) (237, 4.59217234180371025598e-02) (238, 3.20393912967958383042e-01) (239, 2.04354466896535691411e-01) (240, 1.74895814446603292680e-01) (241, 4.67604165956212347588e-01) (242, 1.08327719525971602477e-01) (243, 1.76257763925528609938e-01) (244, 2.53943811965119614626e-01) (245, 1.87535169015885072596e-01) (246, 1.23212767943294554396e-01) (247, 3.44006658586457347848e-01) (248, -1.01681801224900822400e-01) (249, 2.22972568684792447902e-02) (250, 1.64724015855163885558e-01) (251, 2.29734275622144712425e-01) (252, 3.42593193647870025709e-02) (253, 3.43381212962416693113e-01) (254, -4.15198180230505822785e-02) (255, 6.76673099459476762307e-02) (256, 1.99161645204926768260e-02) (257, 1.59930349301331264922e-01) (258, 7.75595451480396574917e-02) (259, 2.35690381325450643013e-01) (260, -1.17977440769518035490e-01) (261, 1.56192508345968317229e-01) (262, 6.47690003974393385677e-02) (263, 1.88319673398894327221e-01) (264, -4.84863294894871815766e-02) (265, 2.46189702335732840677e-01) (266, -8.61710442393239461900e-01) (267, 1.63455796247846618652e-01) (268, 1.38334053025443715068e-01) (269, 7.82135882109824126518e-02) (270, 1.42276617685576419609e-02) (271, 2.95205236560321493400e-01) (272, 3.83312160072294683122e-02) (273, 5.17930620251680091243e-03) (274, 7.49511808763699965974e-02) (275, -9.03379029558179329207e-03) (276, 1.58260847051120562279e-01) (277, 1.77430346239252773044e-01) (278, 2.69835864298287320118e-01) (279, 5.14996704406468081006e-02) (280, 1.88120770508895876483e-03) (281, 1.01486808431591468693e-02) (282, 2.64066104201279072683e-01) (283, 2.15282990410461533282e-01) (284, 1.24715279195418554670e-01) (285, 5.70353690632702942098e-02) (286, 7.08934529209578473408e-02) (287, 8.58682778582819522528e-02) (288, 2.02790236823745334549e-01) (289, 1.50907533224528628280e-01) (290, 1.28662450938393929656e-01) (291, 1.32063917612373099564e-01) (292, -9.22126642092816473095e-02) (293, 9.85891309988367603445e-02) (294, 2.34153580022516849546e-01) (295, 1.54890187649230265388e-01) (296, 2.12781240197532334202e-01) (297, 1.11221067727685432591e-01) (298, 4.28762076009622100647e-02) (299, 1.49462861119832896017e-01) (300, 1.81343892319668253954e+00) (301, 1.80456656024272348304e+01) (302, -1.20448013061392842360e+01) (303, -4.00263513453603536618e+00) (0, 5.39563756408853456570e-01) (1, 6.16022312893954815394e-01) (2, 6.04837618564263324039e-01) (3, 6.09580056929808544730e-01) (4, 7.50806290912792384518e-01) (5, 6.02115009236499965084e-01) (6, 6.29986622767791049071e-01) (7, 7.67260163326301869446e-01) (8, 9.46969955426755216621e-01) (9, 5.15601573580511174377e-01) (10, 6.23585894960329234493e-01) (11, 6.03295845952711129456e-01) (12, 4.59308602933062193330e-01) (13, 8.75496518125272293886e-01) (14, 1.00708318280859643323e+00) (15, 5.74247752176196279983e-01) (16, 6.68751705784760397400e-01) (17, 7.30459179146401682559e-01) (18, 4.88686061598682774942e-01) (19, 1.07856189991293027752e+00) (20, 1.88937953012126613750e+00) (21, 4.55434121212521469957e-01) (22, 6.90496525036229824579e-01) (23, 7.00012406574621048883e-01) (24, -3.12163732626632023370e-02) (25, 7.68923474069413193099e-01) (26, 1.11157203355239220244e+00) (27, -4.45184022498390619127e-01) (28, -2.58758721694679227898e-01) (29, -3.20330582683759190754e-01) (30, -4.93280932742087119269e-01) (31, 1.85606236484426867506e-01) (32, 1.10261092917113279199e+00) (33, -4.50676615316821294055e-01) (34, 6.62009669627067087738e-01) (35, -2.58479762684303004949e-01) (36, -4.53278505450183666348e-01) (37, -1.53163294902572081485e-02) (38, 7.08365432843073294933e-01) (39, -4.00527499631054495488e-01) (40, 7.80892339977370619764e-01) (41, -1.62684493489824083534e-01) (42, -4.11522851351073970516e-01) (43, -4.92836874217437853618e-02) (44, 6.02696160580288520237e-01) (45, -5.02339811023608695528e-01) (46, 1.25513067459196925313e+00) (47, 5.98989661248094384938e-01) (48, -3.73928796959273279654e-01) (49, 3.71324358773981400006e-01) (50, 1.23278613736716535776e+00) (51, -5.34649021493668663574e-01) (52, 1.46477724143668952550e+00) (53, 8.53392269686165105824e-01) (54, -4.02050502424393829681e-01) (55, 2.15337458069196657773e-01) (56, 1.24140411463588962171e+00) (57, -4.72668337081728007210e-01) (58, 1.72266577667233788951e+00) (59, 1.15509137421726415518e+00) (60, -5.01219381819463238870e-01) (61, 7.20488137134158490582e-01) (62, 5.98039456193487306557e-01) (63, -5.27604877078763911946e-01) (64, 1.43301771714629100352e+00) (65, 1.04383057189558936528e+00) (66, -2.31525012328209711665e-01) (67, 2.18547303534329190322e-01) (68, 6.33390638251886350929e-01) (69, -5.76907815308475901972e-01) (70, 9.77952207732636136228e-01) (71, 7.87576981669045661505e-01) (72, -1.22065934696662062309e-01) (73, -1.01255004925150660089e-02) (74, 4.35861102262456501233e-01) (75, -7.67248616211264944376e-01) (76, 8.29948983596503264693e-01) (77, 8.60773781288006301082e-01) (78, -2.06542394447971899840e-01) (79, -1.08616027631642145246e-01) (80, 4.67928835924654451528e-01) (81, -6.95333455104009567904e-01) (82, -1.96633945283684524741e-01) (83, 5.30856916988607818730e-01) (84, -2.48319866632617874957e-01) (85, -5.48719998250383089733e-01) (86, 1.85457820029240993964e-01) (87, -1.34421075744872831059e+00) (88, -2.69913789298264206185e-01) (89, -2.37906154047175077970e-01) (90, -7.75460752325669799845e-01) (91, -5.40631254946159822694e-01) (92, 2.11195835513049351428e-01) (93, -1.44382487137153558976e+00) (94, -5.74889081113284516888e-01) (95, -1.03988789245642743175e+00) (96, -1.50081863456616049213e+00) (97, -4.30708294018723902852e-01) (98, 1.79807162217785670988e-01) (99, -1.58338031334591344823e+00) (100, -8.64810878642953917428e-01) (101, -2.73926468888262553136e+00) (102, -1.45762198350204097430e+00) (103, -1.08871447149577610380e-02) (104, 5.62173971144658946031e-01) (105, -1.66655084652615093077e+00) (106, -1.41171531928305804549e+00) (107, -1.96100670356709660958e+00) (108, -1.60516657121048300638e+00) (109, 6.06434044449935871768e-01) (110, 6.53971670405155358630e-01) (111, -1.65853077580454622009e+00) (112, -1.46952992236199864173e+00) (113, -6.11367793818173077547e-01) (114, -1.48159917680899622106e+00) (115, 6.46635362545362912812e-01) (116, 6.72012485173833273855e-01) (117, -1.56611626012039684142e+00) (118, -1.67768966517947037964e+00) (119, -2.32259834756399108358e+00) (120, -1.67815957448813946051e+00) (121, 7.16932442624107157947e-01) (122, 7.03582052294815851745e-01) (123, -1.78360609037034789637e+00) (124, -1.36808374384431385984e+00) (125, -8.29520374311562974645e-02) (126, -1.68087627892455415690e+00) (127, 5.31472104324145044885e-01) (128, 6.44021259656478273214e-01) (129, -1.81952877250819500254e+00) (130, -9.24589690709353484444e-01) (131, -9.99832989168583985418e-01) (132, -1.92187526530662622370e+00) (133, 5.02458573218962145646e-01) (134, 8.24889790362226260623e-02) (135, -1.28880543155677562694e+00) (136, -1.97823551041335354839e+00) (137, -2.05981464918999046532e+00) (138, -1.72309736554110726203e+00) (139, 4.05792740676773788788e-01) (140, -1.01618513098582008425e+00) (141, -1.11214378498676103035e+00) (142, -3.80766826620010601090e-01) (143, -1.03192847556516498209e+00) (144, -1.57875100690682268478e+00) (145, 6.04875189994421691431e-01) (146, -1.44227460504949583919e-01) (147, -1.08471815212633160286e+00) (148, -2.13991772361953935810e-01) (149, -2.57447920840343069671e+00) (150, -1.48922795725551360135e+00) (151, 6.90201436293809367228e-01) (152, -5.40368321226681325165e-02) (153, -9.70644868964978146941e-01) (154, 4.28170764539185344510e-01) (155, 3.81026415686137709393e-01) (156, -1.31624198794452795802e+00) (157, 8.41008740882884353596e-01) (158, 1.26448694377871606598e+00) (159, -1.67238841096784929263e+00) (160, 9.80661134503966858134e-01) (161, 2.17036538097198805630e+00) (162, -1.35374666206603744278e+00) (163, 1.00058784667225042497e+00) (164, 1.57256959123807482648e+00) (165, -1.07798436168287659065e+00) (166, 2.99429987721653856347e-01) (167, 1.78728412276552273141e+00) (168, -1.32437029889788826509e+00) (169, 1.29262893560464875442e+00) (170, 1.01800777808290576765e+00) (171, -9.60548707908701504543e-01) (172, -2.02010957290452486390e-01) (173, 8.13682787168330756700e-01) (174, -1.66880011296308050639e+00) (175, 1.10524748230553981898e+00) (176, 6.84710564150264655581e-01) (177, -1.10714765435121198500e+00) (178, -2.94664538153005417520e-01) (179, 4.24777600995241283455e-02) (180, -1.42471205846141191209e+00) (181, 1.19929697611528385259e+00) (182, 6.43053705582299128807e-01) (183, -9.11739182559723415622e-01) (184, 7.93408878028767777790e-02) (185, 2.72590213688803317815e-01) (186, -1.41443522098855667402e+00) (187, 1.15070394516911833627e+00) (188, 5.39278240222406113347e-01) (189, -8.61212101004843688656e-01) (190, -1.53347355141583256699e-02) (191, -2.61277298405696467576e-01) (192, -1.34946316770576224542e+00) (193, 8.94287479396501772122e-01) (194, -3.49338708637075778807e-01) (195, -1.11887655279075004522e+00) (196, 4.99089751617828258912e-01) (197, 2.37874777944932530582e-01) (198, -1.36855907041067870189e+00) (199, 3.25476847808221725344e-01) (200, -1.02598244966220741858e+00) (201, -6.53871704940058529054e-01) (202, 1.16264413679778688682e+00) (203, 1.59139625602986667374e+00) (204, -1.36541502175090934124e+00) (205, 2.08766231022932902128e-01) (206, -1.17447279003784554874e+00) (207, -6.54957003805073600944e-01) (208, 1.18183407243705507206e+00) (209, 1.10042532537511639212e+00) (210, -1.20601203397913492310e+00) (211, 3.36249897172032852222e-01) (212, -9.62631703808102812125e-01) (213, -6.98259685063365304059e-02) (214, 2.85306848732267503976e+00) (215, 5.57681067351724402137e-01) (216, -7.57343588909563547595e-01) (217, 7.37729763437089292033e-01) (218, -4.92139669857101669237e-01) (219, -5.91108625390471958960e-02) (220, 2.03428208810871558043e+00) (221, 2.05829683036000410379e-01) (222, -5.65028403568387238565e-01) (223, 1.08826624943084815378e+00) (224, -5.49879146044998545761e-01) (225, -5.41065765420617017512e-01) (226, 4.43886357125409414248e-01) (227, -4.00462408072610576149e-01) (228, -1.75803001216524090733e-01) (229, 1.01986809748509754669e+00) (230, 4.64673183674301493173e-02) (231, -3.85958431726284245666e-01) (232, 3.18959918796458519186e-01) (233, -4.82125683045993791431e-01) (234, 1.80269509452543504058e-02) (235, 9.56102733531988824289e-01) (236, 4.79541009905078308151e-01) (237, -4.82321164711942140801e-01) (238, 3.60651136439268771294e-01) (239, -3.84854846511067605341e-01) (240, 5.45459572674052095564e-01) (241, 6.56449730701217704087e-01) (242, 4.71923865717224333416e-01) (243, -3.91238545077685240248e-01) (244, 4.76773113482674204544e-01) (245, -3.47275845634312463339e-01) (246, 4.18696168030448179209e-01) (247, 4.40956303785824232921e-01) (248, -1.27976548318173954932e-01) (249, -3.40514548187387133815e-01) (250, 8.43387424959900822152e-01) (251, -2.16977859272219492093e-01) (252, 5.85443404240112430514e-01) (253, 5.01853449498270487439e-01) (254, -8.60848036851792619562e-02) (255, 2.57892806829934997936e-02) (256, 8.81395392472818173246e-01) (257, -2.54592711813048933056e-01) (258, 4.63368870264574184148e-01) (259, 4.22692034261321569755e-01) (260, -2.09452620093603658624e-01) (261, 4.64575434355197769420e-01) (262, 6.33402723787665267174e-01) (263, 8.84917199664237014156e-02) (264, 4.72300279811546819264e-01) (265, 6.16301637442985383863e-01) (266, -1.80371864555932015506e-01) (267, 6.52676831629765530352e-01) (268, 6.40473299012388919138e-01) (269, 5.82478911778484764739e-01) (270, 4.27384079436544050967e-01) (271, 5.69846964161130786763e-01) (272, -1.07795365713698812482e-01) (273, 5.89889317432643722761e-01) (274, 6.58189353592140702354e-01) (275, 5.99634442926330724077e-01) (276, 4.65193513524328527975e-01) (277, 4.86137138150786962676e-01) (278, 4.27946797255523703196e-01) (279, 5.86552424367601799027e-01) (280, 5.89023118621759933511e-01) (281, 5.81113577575973261347e-01) (282, 5.46873350574810457303e-01) (283, 5.75619731091099651188e-01) (284, 4.79849148490210042350e-01) (285, 5.36968764002846765671e-01) (286, 6.15901278612721592154e-01) (287, 6.60830138866039362711e-01) (288, 4.70225895447479946831e-01) (289, 4.76504107102246110550e-01) (290, 5.36757762847793196137e-01) (291, 4.97863076201107868091e-01) (292, 7.04571858312756926779e-01) (293, 7.55352054740429545987e-01) (294, 5.31166332466351476249e-01) (295, 6.72527028685416250475e-01) (296, 6.19400392947417999245e-01) (297, 6.11251411267911382019e-01) (298, 7.25457701830821033440e-01) (299, 5.43739016336754477088e-01) (300, 1.34230275048919267533e+00) (301, 1.28527938059322455189e+00) (302, 1.38541338266101217158e+01) (303, -6.70374064249712908747e-01) (0, 5.38681286300200956596e-01) (1, 3.74962117214639123475e-01) (2, 4.46964177546681273867e-01) (3, 4.87402702878010352094e-01) (4, 4.73883967111599746502e-01) (5, 5.47617036114227739851e-01) (6, 5.06894350268554227945e-01) (7, 5.41791994307672664100e-01) (8, 4.55915323837234431892e-01) (9, 4.63255602131378729780e-01) (10, 3.81849340512742774223e-01) (11, 5.50046916646653394345e-01) (12, 3.44509613569461969895e-01) (13, -2.68324491846280488438e-01) (14, -7.02205304807560284908e-03) (15, 4.45831085525483672427e-01) (16, 3.88915641703815984087e-01) (17, 4.06359617697726160923e-01) (18, 3.06531733008236662030e-01) (19, 4.83830286742305215597e-01) (20, 4.23171324429842676818e-02) (21, 2.71568458030748527410e-01) (22, 2.03889531760321429665e-01) (23, 1.87540086670633043830e-01) (24, 5.19726580659818186703e-03) (25, 2.22792511474848957398e-02) (26, 1.98224600531394345992e-01) (27, 2.16468854417984357674e-01) (28, 3.02702625003116287949e-01) (29, -3.81040168864091532974e-01) (30, -2.63424998965371581772e-01) (31, 5.47732509389664001809e-01) (32, 9.63048399250714171060e-01) (33, 2.34977848773479908173e-01) (34, -4.90621599901473581795e-01) (35, -9.74543258384848787301e-01) (36, -2.29691570971940317580e-01) (37, 1.25534125498212723038e+00) (38, 1.34015585975223783244e+00) (39, -3.33120475747537780897e-01) (40, -5.20294040160152126973e-01) (41, -6.60863913080137699296e-01) (42, -7.98571207354624390540e-01) (43, 7.64800234658957744927e-01) (44, 9.90204299423525169388e-01) (45, -4.34250614114536914734e-01) (46, -4.52984594937879403442e-01) (47, -3.75766543910304484655e+00) (48, -8.01194370602220873323e-01) (49, 8.86764790654591461561e-01) (50, 2.68267627957976939612e+00) (51, -1.87070211919459522543e-01) (52, -2.11345511301393756964e-01) (53, -1.18641923821238948200e+00) (54, -8.91171890613828732164e-01) (55, 9.33803661616085189934e-01) (56, 2.35420465524621080888e+00) (57, 3.95551387171396817699e-01) (58, -3.50825724897994711826e-02) (59, 4.88436788921913833672e-01) (60, -3.13216890935200220625e-01) (61, 1.46861543229688051859e+00) (62, 2.41420969154425835157e+00) (63, 6.49639149721260578119e-01) (64, 4.72803372909260888335e-01) (65, 5.24078301618163489017e-01) (66, -2.94981381659262353878e-01) (67, 1.11570224770732950859e+00) (68, 2.11609219282112448468e+00) (69, 8.44335075905169984978e-01) (70, 6.20033343931125857651e-01) (71, 7.67138945589503018496e-01) (72, 3.99615432870159992262e-01) (73, 1.04910193713502786217e+00) (74, 3.38876106637193119653e+00) (75, 8.91989258352654301731e-01) (76, 6.14187842590501631435e-01) (77, 7.59563826074719505854e-01) (78, 3.29800996240191324205e-01) (79, 1.38448637829327170223e+00) (80, 3.71701675859053937145e+00) (81, 7.28290366766867647286e-01) (82, 4.90551187447651138029e-01) (83, 6.38153460571960762238e-01) (84, 4.18577492599409572982e-01) (85, 7.58536726793763493859e-01) (86, 2.45193856397833886973e+00) (87, 6.77788579511506839026e-01) (88, 5.84089938875770986471e-01) (89, 6.93828880802650149739e-01) (90, 2.65746727315357977872e-01) (91, 4.72882148683806624589e-01) (92, 8.95222365763660654636e-01) (93, 6.95071601915224102086e-01) (94, 5.61800296852720038032e-01) (95, 2.14630317552260496683e+00) (96, 4.44156519582671105439e-01) (97, 5.59498261296928700581e-01) (98, 6.13793543465837920792e-01) (99, 6.00894990216303437336e-01) (100, 4.53948600817508651772e-01) (101, 1.07329614316872468116e+00) (102, 2.36805893958915048003e-01) (103, 1.01381058565523651804e-02) (104, 5.26670039857659366689e-01) (105, 3.97267531456771627596e-01) (106, -2.29067661637144398545e-01) (107, 3.58017196829875539166e-01) (108, 1.85356472736465632822e-01) (109, -2.94000871531914065304e-01) (110, 3.36434987162189530485e-02) (111, 2.01692915988656767956e-01) (112, -1.21027972313632758983e+00) (113, -1.96674639910690052247e+00) (114, -3.79755595393078793087e-01) (115, -1.15837323455395835303e+00) (116, -3.83943241864009321418e+00) (117, 3.49477438596533573900e-01) (118, -8.23014886722111871364e-01) (119, -3.04521236580903575941e+00) (120, 1.19830238251315418507e-01) (121, -1.31213821521744367082e+00) (122, -6.48254517209096459140e+00) (123, 1.40413829893215297284e-01) (124, -7.77091641539830790819e-01) (125, -8.99640040092741521960e+00) (126, 2.31367902602903907638e-01) (127, -1.18203676959285552961e+00) (128, -2.25551548697927728426e+00) (129, -2.76372131646722529741e-01) (130, -3.20309682327597533558e+00) (131, -1.06506369724834772938e+01) (132, 2.88343553899968019216e-01) (133, -7.16046954934143276006e-01) (134, -1.02689369975565503168e+00) (135, -1.71856681422248525060e-01) (136, -8.66532023055630595820e-01) (137, 1.52010998203749259083e+00) (138, 2.77721196280363069597e-01) (139, -5.13277746502689202757e-01) (140, -3.29939827507269356488e-01) (141, 3.19016883038183915455e-02) (142, -7.71452116585522373882e-01) (143, 4.14811611976090759413e+01) (144, 2.69610566043687494009e-01) (145, -5.00534002717907045010e-01) (146, 9.92632427689870283638e-02) (147, -1.76618418575217761557e-01) (148, -1.15375705958109553428e+00) (149, 8.49335755324398711252e+00) (150, 3.36064514589805019007e-01) (151, -5.11472065589349211834e-01) (152, 2.90040474546028048675e-01) (153, -1.40068026099405051887e-01) (154, -7.92097172224331180779e-01) (155, 2.72646884941187161999e+00) (156, 2.58276874234443343248e-01) (157, -1.37032362460702894502e+00) (158, 5.22624553752718767896e-01) (159, -3.35053545462292434731e-01) (160, -7.84015086216019230214e-01) (161, 4.04196379028740504502e-01) (162, 1.86035361324399906024e-01) (163, -1.45611431087643627968e+00) (164, -1.26978862597999453410e-01) (165, -2.78158056003547538015e-01) (166, -1.67470589572401595824e+00) (167, -1.14216645624966628425e+00) (168, 2.68247654941005997387e-01) (169, -1.60379018564607922492e+00) (170, -7.48756889300657535458e-01) (171, -2.58705014748073391928e-01) (172, -7.44573795081105660465e-01) (173, -5.07933428452968072087e-01) (174, 1.60972330300664101532e-01) (175, -1.68811873241891019504e+00) (176, -2.16723951620739585522e+00) (177, -2.92048427894246676040e-01) (178, -5.48597898818615203886e-01) (179, 6.23207490495229388117e-01) (180, 1.87029866252808207872e-01) (181, -8.10052001883704075880e-01) (182, -2.62331858326431488493e+00) (183, 1.87509914671149663379e-01) (184, 5.91889808669970651778e-01) (185, 5.88945816323742654674e-01) (186, 2.71807519037991551780e-01) (187, -7.96737442093159886625e-01) (188, -1.49431379242789574846e+00) (189, 1.88889711936731569120e-01) (190, 6.56490722289849060189e-01) (191, 1.36316950062914798991e+00) (192, 3.12599991582840741611e-01) (193, -4.54698500908575664603e-01) (194, 1.48097112445234185829e-01) (195, 2.03096166858231869101e-01) (196, 1.39343874281693635986e+00) (197, 4.82201826868464855647e-01) (198, 3.93680082113789187037e-01) (199, -9.34739630152517264605e-01) (200, -5.70431978748075607655e-01) (201, 1.81644497991605369247e-01) (202, 8.40232939660344180233e-01) (203, 1.89477615502567670047e-01) (204, 3.82833134815340925261e-01) (205, -3.63925170385423379926e-01) (206, 2.19340185312181801258e-01) (207, 2.88853964612378000254e-01) (208, 3.79940507869719445999e-01) (209, 2.55991981741555581220e-02) (210, 4.80600317889999295584e-01) (211, -4.04486877613459472336e-01) (212, -3.14518060922676812030e-01) (213, -4.70506850964029221807e-01) (214, -2.09265628204268971935e-01) (215, -2.76811847924741172289e-01) (216, 3.88206157710150767670e-01) (217, -3.91149368347560644210e-01) (218, -7.39226783063187120604e-01) (219, -1.07793154239886126988e-01) (220, 1.34630516604996204599e-02) (221, 6.72469641778387222653e-02) (222, 4.45761580444135829815e-01) (223, -4.32973685719059697696e-01) (224, -4.87854141619928516338e-01) (225, -1.40779400244529506736e-01) (226, -2.15499062517203743283e-01) (227, -3.81889302897390481295e-01) (228, 3.56016778155011537343e-01) (229, -4.76242464982235103044e-01) (230, -6.52411143294234996404e-01) (231, -1.44139661882840885987e-01) (232, -2.88939558409967545138e-01) (233, -5.75173884861268192026e-01) (234, 3.35782586387164183606e-01) (235, -5.16724844519366288687e-01) (236, -1.00490996490750239545e+00) (237, -3.23326882031347351276e-01) (238, -3.28321848078910738522e-01) (239, -1.78102296693761430468e+00) (240, 3.57454080935734830327e-01) (241, -5.40904914035653994198e-01) (242, -1.34011943624931628705e+00) (243, -9.42403025300383445639e-01) (244, -1.39743770402417144538e-01) (245, -1.95128655131837991377e+00) (246, 3.76218321503541064388e-01) (247, -2.62953001987190071453e-01) (248, -8.60764539055226096664e-01) (249, -8.94369668087150349045e-01) (250, 4.34817318114856965483e-01) (251, -6.29635469372079703554e-01) (252, 3.45758457199495883305e-01) (253, -1.59550884790763097820e-01) (254, -4.45656197446331614476e-01) (255, -2.08168238578913283865e-01) (256, 3.37463835099718056920e-01) (257, -6.73312061677469264609e-01) (258, 4.70580631241819091759e-01) (259, -4.94822631342779900576e-02) (260, -2.37888924730111472883e-01) (261, -2.61661908158010769743e-01) (262, 3.51856535241497236921e-01) (263, -1.51956599799120545269e-01) (264, 4.52204168810476314633e-01) (265, 2.06496920590704645393e-02) (266, -1.73652340634629892557e-01) (267, -1.64558018707117253987e-01) (268, 3.38976652817918888694e-01) (269, -3.09922334101468188727e-01) (270, 5.33810639142137888236e-01) (271, -6.98945604597679126524e-02) (272, -1.05420124710777288191e-01) (273, 3.03372293762871947376e-01) (274, 3.59130402253641234367e-01) (275, -3.28756518028747946047e-01) (276, 5.17489755578631971389e-01) (277, -2.24442576803644301686e-03) (278, 5.04170992742433488054e-01) (279, 2.45786837868488178271e-01) (280, 4.24672583404618109171e-01) (281, -2.13453050180148790060e-01) (282, 7.76460376676527341822e-01) (283, -2.35943620551838859067e-02) (284, 4.69075428763829016532e-01) (285, 3.20419877920648299430e-01) (286, 3.45882837194015912985e-01) (287, 3.42249163445474735568e-01) (288, 8.22449982875392504589e-01) (289, 3.80871368433831000710e-02) (290, 4.26824466701722193829e-01) (291, 4.82920608122437089449e-01) (292, 3.87551592736142813678e-01) (293, 4.24051338748204109663e-01) (294, 5.78962996353944769901e-01) (295, 4.38869367786364428241e-01) (296, 3.79662286902308465653e-01) (297, 5.19311267147552824142e-01) (298, 4.81030020127785284956e-01) (299, 5.55316316808242560477e-01) (300, 1.26449481462169743828e+00) (301, 3.96158099491424380290e+01) (302, -5.98040417956485215178e-01) (303, -1.16892759080402774963e+00) 
