FANN_FLO_2.1
num_layers=4
learning_rate=0.700000
connection_rate=1.000000
network_type=1
learning_momentum=0.000000
training_algorithm=2
train_error_function=1
train_stop_function=0
cascade_output_change_fraction=0.010000
quickprop_decay=-0.000100
quickprop_mu=1.750000
rprop_increase_factor=1.200000
rprop_decrease_factor=0.500000
rprop_delta_min=0.000000
rprop_delta_max=50.000000
rprop_delta_zero=0.100000
cascade_output_stagnation_epochs=12
cascade_candidate_change_fraction=0.010000
cascade_candidate_stagnation_epochs=12
cascade_max_out_epochs=150
cascade_max_cand_epochs=150
cascade_num_candidate_groups=2
bit_fail_limit=3.49999999999999977796e-01
cascade_candidate_limit=1.00000000000000000000e+03
cascade_weight_multiplier=4.00000000000000022204e-01
cascade_activation_functions_count=10
cascade_activation_functions=3 5 7 8 10 11 14 15 16 17 
cascade_activation_steepnesses_count=4
cascade_activation_steepnesses=2.50000000000000000000e-01 5.00000000000000000000e-01 7.50000000000000000000e-01 1.00000000000000000000e+00 
layer_sizes=301 1 1 3 
scale_included=0
neurons (num_inputs, activation_function, activation_steepness)=(0, 0, 0.00000000000000000000e+00) (0, 0, 0.00000000000000000000e+00) (0, 0, 0.00000000000000000000e+00) (0, 0, 0.00000000000000000000e+00) (0, 0, 0.00000000000000000000e+00) (0, 0, 0.00000000000000000000e+00) (0, 0, 0.00000000000000000000e+00) (0, 0, 0.00000000000000000000e+00) (0, 0, 0.00000000000000000000e+00) (0, 0, 0.00000000000000000000e+00) (0, 0, 0.00000000000000000000e+00) (0, 0, 0.00000000000000000000e+00) (0, 0, 0.00000000000000000000e+00) (0, 0, 0.00000000000000000000e+00) (0, 0, 0.00000000000000000000e+00) (0, 0, 0.00000000000000000000e+00) (0, 0, 0.00000000000000000000e+00) (0, 0, 0.00000000000000000000e+00) (0, 0, 0.00000000000000000000e+00) (0, 0, 0.00000000000000000000e+00) (0, 0, 0.00000000000000000000e+00) (0, 0, 0.00000000000000000000e+00) (0, 0, 0.00000000000000000000e+00) (0, 0, 0.00000000000000000000e+00) (0, 0, 0.00000000000000000000e+00) (0, 0, 0.00000000000000000000e+00) (0, 0, 0.00000000000000000000e+00) (0, 0, 0.00000000000000000000e+00) (0, 0, 0.00000000000000000000e+00) (0, 0, 0.00000000000000000000e+00) (0, 0, 0.00000000000000000000e+00) (0, 0, 0.00000000000000000000e+00) (0, 0, 0.00000000000000000000e+00) (0, 0, 0.00000000000000000000e+00) (0, 0, 0.00000000000000000000e+00) (0, 0, 0.00000000000000000000e+00) (0, 0, 0.00000000000000000000e+00) (0, 0, 0.00000000000000000000e+00) (0, 0, 0.00000000000000000000e+00) (0, 0, 0.00000000000000000000e+00) (0, 0, 0.00000000000000000000e+00) (0, 0, 0.00000000000000000000e+00) (0, 0, 0.00000000000000000000e+00) (0, 0, 0.00000000000000000000e+00) (0, 0, 0.00000000000000000000e+00) (0, 0, 0.00000000000000000000e+00) (0, 0, 0.00000000000000000000e+00) (0, 0, 0.00000000000000000000e+00) (0, 0, 0.00000000000000000000e+00) (0, 0, 0.00000000000000000000e+00) (0, 0, 0.00000000000000000000e+00) (0, 0, 0.00000000000000000000e+00) (0, 0, 0.00000000000000000000e+00) (0, 0, 0.00000000000000000000e+00) (0, 0, 0.00000000000000000000e+00) (0, 0, 0.00000000000000000000e+00) (0, 0, 0.00000000000000000000e+00) (0, 0, 0.00000000000000000000e+00) (0, 0, 0.00000000000000000000e+00) (0, 0, 0.00000000000000000000e+00) (0, 0, 0.00000000000000000000e+00) (0, 0, 0.00000000000000000000e+00) (0, 0, 0.00000000000000000000e+00) (0, 0, 0.00000000000000000000e+00) (0, 0, 0.00000000000000000000e+00) (0, 0, 0.00000000000000000000e+00) (0, 0, 0.00000000000000000000e+00) (0, 0, 0.00000000000000000000e+00) (0, 0, 0.00000000000000000000e+00) (0, 0, 0.00000000000000000000e+00) (0, 0, 0.00000000000000000000e+00) (0, 0, 0.00000000000000000000e+00) (0, 0, 0.00000000000000000000e+00) (0, 0, 0.00000000000000000000e+00) (0, 0, 0.00000000000000000000e+00) (0, 0, 0.00000000000000000000e+00) (0, 0, 0.00000000000000000000e+00) (0, 0, 0.00000000000000000000e+00) (0, 0, 0.00000000000000000000e+00) (0, 0, 0.00000000000000000000e+00) (0, 0, 0.00000000000000000000e+00) (0, 0, 0.00000000000000000000e+00) (0, 0, 0.00000000000000000000e+00) (0, 0, 0.00000000000000000000e+00) (0, 0, 0.00000000000000000000e+00) (0, 0, 0.00000000000000000000e+00) (0, 0, 0.00000000000000000000e+00) (0, 0, 0.00000000000000000000e+00) (0, 0, 0.00000000000000000000e+00) (0, 0, 0.00000000000000000000e+00) (0, 0, 0.00000000000000000000e+00) (0, 0, 0.00000000000000000000e+00) (0, 0, 0.00000000000000000000e+00) (0, 0, 0.00000000000000000000e+00) (0, 0, 0.00000000000000000000e+00) (0, 0, 0.00000000000000000000e+00) (0, 0, 0.00000000000000000000e+00) (0, 0, 0.00000000000000000000e+00) (0, 0, 0.00000000000000000000e+00) (0, 0, 0.00000000000000000000e+00) (0, 0, 0.00000000000000000000e+00) (0, 0, 0.00000000000000000000e+00) (0, 0, 0.00000000000000000000e+00) (0, 0, 0.00000000000000000000e+00) (0, 0, 0.00000000000000000000e+00) (0, 0, 0.00000000000000000000e+00) (0, 0, 0.00000000000000000000e+00) (0, 0, 0.00000000000000000000e+00) (0, 0, 0.00000000000000000000e+00) (0, 0, 0.00000000000000000000e+00) (0, 0, 0.00000000000000000000e+00) (0, 0, 0.00000000000000000000e+00) (0, 0, 0.00000000000000000000e+00) (0, 0, 0.00000000000000000000e+00) (0, 0, 0.00000000000000000000e+00) (0, 0, 0.00000000000000000000e+00) (0, 0, 0.00000000000000000000e+00) (0, 0, 0.00000000000000000000e+00) (0, 0, 0.00000000000000000000e+00) (0, 0, 0.00000000000000000000e+00) (0, 0, 0.00000000000000000000e+00) (0, 0, 0.00000000000000000000e+00) (0, 0, 0.00000000000000000000e+00) (0, 0, 0.00000000000000000000e+00) (0, 0, 0.00000000000000000000e+00) (0, 0, 0.00000000000000000000e+00) (0, 0, 0.00000000000000000000e+00) (0, 0, 0.00000000000000000000e+00) (0, 0, 0.00000000000000000000e+00) (0, 0, 0.00000000000000000000e+00) (0, 0, 0.00000000000000000000e+00) (0, 0, 0.00000000000000000000e+00) (0, 0, 0.00000000000000000000e+00) (0, 0, 0.00000000000000000000e+00) (0, 0, 0.00000000000000000000e+00) (0, 0, 0.00000000000000000000e+00) (0, 0, 0.00000000000000000000e+00) (0, 0, 0.00000000000000000000e+00) (0, 0, 0.00000000000000000000e+00) (0, 0, 0.00000000000000000000e+00) (0, 0, 0.00000000000000000000e+00) (0, 0, 0.00000000000000000000e+00) (0, 0, 0.00000000000000000000e+00) (0, 0, 0.00000000000000000000e+00) (0, 0, 0.00000000000000000000e+00) (0, 0, 0.00000000000000000000e+00) (0, 0, 0.00000000000000000000e+00) (0, 0, 0.00000000000000000000e+00) (0, 0, 0.00000000000000000000e+00) (0, 0, 0.00000000000000000000e+00) (0, 0, 0.00000000000000000000e+00) (0, 0, 0.00000000000000000000e+00) (0, 0, 0.00000000000000000000e+00) (0, 0, 0.00000000000000000000e+00) (0, 0, 0.00000000000000000000e+00) (0, 0, 0.00000000000000000000e+00) (0, 0, 0.00000000000000000000e+00) (0, 0, 0.00000000000000000000e+00) (0, 0, 0.00000000000000000000e+00) (0, 0, 0.00000000000000000000e+00) (0, 0, 0.00000000000000000000e+00) (0, 0, 0.00000000000000000000e+00) (0, 0, 0.00000000000000000000e+00) (0, 0, 0.00000000000000000000e+00) (0, 0, 0.00000000000000000000e+00) (0, 0, 0.00000000000000000000e+00) (0, 0, 0.00000000000000000000e+00) (0, 0, 0.00000000000000000000e+00) (0, 0, 0.00000000000000000000e+00) (0, 0, 0.00000000000000000000e+00) (0, 0, 0.00000000000000000000e+00) (0, 0, 0.00000000000000000000e+00) (0, 0, 0.00000000000000000000e+00) (0, 0, 0.00000000000000000000e+00) (0, 0, 0.00000000000000000000e+00) (0, 0, 0.00000000000000000000e+00) (0, 0, 0.00000000000000000000e+00) (0, 0, 0.00000000000000000000e+00) (0, 0, 0.00000000000000000000e+00) (0, 0, 0.00000000000000000000e+00) (0, 0, 0.00000000000000000000e+00) (0, 0, 0.00000000000000000000e+00) (0, 0, 0.00000000000000000000e+00) (0, 0, 0.00000000000000000000e+00) (0, 0, 0.00000000000000000000e+00) (0, 0, 0.00000000000000000000e+00) (0, 0, 0.00000000000000000000e+00) (0, 0, 0.00000000000000000000e+00) (0, 0, 0.00000000000000000000e+00) (0, 0, 0.00000000000000000000e+00) (0, 0, 0.00000000000000000000e+00) (0, 0, 0.00000000000000000000e+00) (0, 0, 0.00000000000000000000e+00) (0, 0, 0.00000000000000000000e+00) (0, 0, 0.00000000000000000000e+00) (0, 0, 0.00000000000000000000e+00) (0, 0, 0.00000000000000000000e+00) (0, 0, 0.00000000000000000000e+00) (0, 0, 0.00000000000000000000e+00) (0, 0, 0.00000000000000000000e+00) (0, 0, 0.00000000000000000000e+00) (0, 0, 0.00000000000000000000e+00) (0, 0, 0.00000000000000000000e+00) (0, 0, 0.00000000000000000000e+00) (0, 0, 0.00000000000000000000e+00) (0, 0, 0.00000000000000000000e+00) (0, 0, 0.00000000000000000000e+00) (0, 0, 0.00000000000000000000e+00) (0, 0, 0.00000000000000000000e+00) (0, 0, 0.00000000000000000000e+00) (0, 0, 0.00000000000000000000e+00) (0, 0, 0.00000000000000000000e+00) (0, 0, 0.00000000000000000000e+00) (0, 0, 0.00000000000000000000e+00) (0, 0, 0.00000000000000000000e+00) (0, 0, 0.00000000000000000000e+00) (0, 0, 0.00000000000000000000e+00) (0, 0, 0.00000000000000000000e+00) (0, 0, 0.00000000000000000000e+00) (0, 0, 0.00000000000000000000e+00) (0, 0, 0.00000000000000000000e+00) (0, 0, 0.00000000000000000000e+00) (0, 0, 0.00000000000000000000e+00) (0, 0, 0.00000000000000000000e+00) (0, 0, 0.00000000000000000000e+00) (0, 0, 0.00000000000000000000e+00) (0, 0, 0.00000000000000000000e+00) (0, 0, 0.00000000000000000000e+00) (0, 0, 0.00000000000000000000e+00) (0, 0, 0.00000000000000000000e+00) (0, 0, 0.00000000000000000000e+00) (0, 0, 0.00000000000000000000e+00) (0, 0, 0.00000000000000000000e+00) (0, 0, 0.00000000000000000000e+00) (0, 0, 0.00000000000000000000e+00) (0, 0, 0.00000000000000000000e+00) (0, 0, 0.00000000000000000000e+00) (0, 0, 0.00000000000000000000e+00) (0, 0, 0.00000000000000000000e+00) (0, 0, 0.00000000000000000000e+00) (0, 0, 0.00000000000000000000e+00) (0, 0, 0.00000000000000000000e+00) (0, 0, 0.00000000000000000000e+00) (0, 0, 0.00000000000000000000e+00) (0, 0, 0.00000000000000000000e+00) (0, 0, 0.00000000000000000000e+00) (0, 0, 0.00000000000000000000e+00) (0, 0, 0.00000000000000000000e+00) (0, 0, 0.00000000000000000000e+00) (0, 0, 0.00000000000000000000e+00) (0, 0, 0.00000000000000000000e+00) (0, 0, 0.00000000000000000000e+00) (0, 0, 0.00000000000000000000e+00) (0, 0, 0.00000000000000000000e+00) (0, 0, 0.00000000000000000000e+00) (0, 0, 0.00000000000000000000e+00) (0, 0, 0.00000000000000000000e+00) (0, 0, 0.00000000000000000000e+00) (0, 0, 0.00000000000000000000e+00) (0, 0, 0.00000000000000000000e+00) (0, 0, 0.00000000000000000000e+00) (0, 0, 0.00000000000000000000e+00) (0, 0, 0.00000000000000000000e+00) (0, 0, 0.00000000000000000000e+00) (0, 0, 0.00000000000000000000e+00) (0, 0, 0.00000000000000000000e+00) (0, 0, 0.00000000000000000000e+00) (0, 0, 0.00000000000000000000e+00) (0, 0, 0.00000000000000000000e+00) (0, 0, 0.00000000000000000000e+00) (0, 0, 0.00000000000000000000e+00) (0, 0, 0.00000000000000000000e+00) (0, 0, 0.00000000000000000000e+00) (0, 0, 0.00000000000000000000e+00) (0, 0, 0.00000000000000000000e+00) (0, 0, 0.00000000000000000000e+00) (0, 0, 0.00000000000000000000e+00) (0, 0, 0.00000000000000000000e+00) (0, 0, 0.00000000000000000000e+00) (0, 0, 0.00000000000000000000e+00) (0, 0, 0.00000000000000000000e+00) (0, 0, 0.00000000000000000000e+00) (0, 0, 0.00000000000000000000e+00) (0, 0, 0.00000000000000000000e+00) (0, 0, 0.00000000000000000000e+00) (0, 0, 0.00000000000000000000e+00) (0, 0, 0.00000000000000000000e+00) (0, 0, 0.00000000000000000000e+00) (0, 0, 0.00000000000000000000e+00) (0, 0, 0.00000000000000000000e+00) (0, 0, 0.00000000000000000000e+00) (0, 0, 0.00000000000000000000e+00) (0, 0, 0.00000000000000000000e+00) (0, 0, 0.00000000000000000000e+00) (0, 0, 0.00000000000000000000e+00) (0, 0, 0.00000000000000000000e+00) (0, 0, 0.00000000000000000000e+00) (0, 0, 0.00000000000000000000e+00) (0, 0, 0.00000000000000000000e+00) (0, 0, 0.00000000000000000000e+00) (0, 0, 0.00000000000000000000e+00) (301, 15, 2.50000000000000000000e-01) (302, 15, 5.00000000000000000000e-01) (303, 5, 5.00000000000000000000e-01) (303, 5, 5.00000000000000000000e-01) (303, 5, 5.00000000000000000000e-01) 
connections (connected_to_neuron, weight)=(0, 5.51455979304223520288e-01) (1, 1.06157202001086048426e+00) (2, 5.64048960887049005697e-02) (3, 9.99669119542090034436e-01) (4, 1.44016300450842171799e+00) (5, 8.07506869580670194608e-01) (6, 1.29573189740961347560e+00) (7, 7.67321819091535628488e-01) (8, 4.04252904245987421117e-01) (9, 1.13365075859317032680e+00) (10, 2.62791195655322773472e-01) (11, 1.11003969411345670970e+00) (12, 1.09137350890591444674e+00) (13, 1.66445366930070770550e+00) (14, 9.33905488608840761433e-02) (15, -2.02400876879539268205e-02) (16, 1.01516013271983318589e+00) (17, -2.22707215447561770669e-03) (18, 7.32796549796322138626e-01) (19, 1.39395074838601029654e+00) (20, 1.41159813398323930045e+00) (21, 1.07593620245991217210e+00) (22, 1.55475914781775498286e-01) (23, 1.26242341724211160070e+00) (24, 8.70623268758699442316e-01) (25, 1.22457546751515766736e+00) (26, 9.57923860324822462609e-01) (27, 1.67219741836110678823e-02) (28, 9.98740450711844807152e-01) (29, 9.41810488757158337236e-01) (30, 3.52736904834972053724e-01) (31, 1.66402907155141077666e+00) (32, 1.47493710252115800552e-01) (33, 4.78438205971333851974e-01) (34, 7.33917751380105176651e-01) (35, 1.64721109071962668047e+00) (36, 1.38445996152099337628e+00) (37, 5.92941382877837042109e-01) (38, 5.86153721198166555162e-01) (39, 1.88466506895215046846e+00) (40, 1.35305171140922975148e+00) (41, 8.46277311883519622882e-01) (42, 1.08492129282957461278e+00) (43, 7.14348607199105978260e-01) (44, 7.53031834512420616967e-01) (45, 1.32706436036026720338e+00) (46, 6.21982707195580797332e-01) (47, 1.77426303343395574963e+00) (48, 1.47760020722386076208e+00) (49, 1.57401448860603632163e+00) (50, 1.35597079866626746281e+00) (51, 9.53744178342139758975e-01) (52, 6.23514920030506791804e-01) (53, 1.49835319212924278354e+00) (54, 4.20111112888485238592e-01) (55, 1.73541830608105596134e+00) (56, 9.36462914072585306258e-01) (57, 1.42769312888472543754e+00) (58, 1.72869113622383596685e+00) (59, -1.99636239996460879143e-02) (60, 5.58449687114026538381e-01) (61, 3.93248165891647905035e-01) (62, 1.80832801917460250785e+00) (63, 7.63547011400274366899e-01) (64, 7.40761017360919926666e-01) (65, 5.46509378389703259771e-01) (66, 5.46638392667703199024e-01) (67, 4.39892052499613106509e-01) (68, 8.77929451572750485511e-01) (69, 1.16727671124125365054e+00) (70, 2.78487553640260010468e-01) (71, 3.18442359973208632962e-01) (72, 1.55836032381322792117e-01) (73, 1.51603064955230437683e+00) (74, 9.83347036518473327504e-01) (75, 1.03050641308576262922e+00) (76, 9.81086032273880692678e-01) (77, 1.81268016110993412937e+00) (78, 9.06491617136329197457e-01) (79, 5.20276175424033038297e-01) (80, 1.28593425482985668218e+00) (81, 4.39387991419402046400e-01) (82, 1.64546507980473699639e+00) (83, 1.76800562458381826936e-01) (84, 3.74396257506177596031e-02) (85, 8.41290312274987767127e-02) (86, 1.79150248906359066403e+00) (87, 1.26156195668793014164e+00) (88, 4.30984430603901191859e+00) (89, 4.37476359646657986247e+00) (90, 1.18106763897370492522e+00) (91, 2.91358944867015412505e-01) (92, -5.14357532137973069708e-02) (93, 1.05933453461454751832e+00) (94, 4.20035714830654427487e+00) (95, 7.77945329343548053203e+00) (96, 1.71925353017243498499e+00) (97, 1.85878911146029279777e+00) (98, 1.20471227249723900066e+00) (99, 6.66330576431214960387e-01) (100, 1.88136856528413187739e+00) (101, 2.32327764925977620081e+00) (102, 9.87837275908491574405e-01) (103, 1.34181785450204915655e+00) (104, 1.06124256442371245335e+00) (105, 5.63993147619138712745e-02) (106, 8.13168717536832175163e-01) (107, -7.81514460420038858945e-02) (108, 1.79826194073534217921e+00) (109, 1.30956232881718892536e+00) (110, 3.65275483623965613322e-01) (111, 1.35414605789251552004e+00) (112, 2.79067215014539060647e+00) (113, 5.92427306305137624243e-01) (114, 1.32976053936342464290e+00) (115, 1.84880187556828778916e+00) (116, 2.06263298497256913899e-01) (117, 1.46908028528374567934e+00) (118, 4.27335165103487035765e+00) (119, 1.74158064483650534271e+01) (120, 1.06218554155323285926e+00) (121, 2.23570949981721028843e-01) (122, 3.99383949591260445366e-01) (123, 9.90078084510681466490e-01) (124, -2.06795716090712877744e+00) (125, -6.34360269492116035650e+00) (126, 1.88866781541880923712e+00) (127, 1.32474674128313996135e+00) (128, 2.29101440813089096693e+00) (129, 1.05221029346653738301e+00) (130, -2.36692355503561602248e+00) (131, -7.44568126101028671116e+00) (132, 6.15494553966413393553e-01) (133, 9.88272455594600640616e-01) (134, 2.41966369445028339769e+00) (135, 1.60528454912921203501e+00) (136, 2.58445441569310208063e-01) (137, 2.22423495843766438895e+00) (138, 1.77733025068832994897e+00) (139, 1.03424970267651339384e+00) (140, 1.37965517219036692964e+00) (141, 4.21142648427525578825e-01) (142, 6.47853752514096936643e-01) (143, 9.08241885160408379818e+00) (144, 4.64456552356891427813e-01) (145, 1.78312588841411612250e+00) (146, 9.48072896429991263112e-01) (147, 1.22691968086730573972e+00) (148, 2.32594763788003833227e+00) (149, 6.10931298756259177907e+00) (150, 6.87601732571266222038e-01) (151, -3.23736234399860922650e+00) (152, 6.92055666622959919643e-01) (153, 1.25250347086414492992e+00) (154, 1.94416099092650762614e+00) (155, 1.57357600552594334431e+01) (156, 4.45111634486022977875e-01) (157, 1.34771198039930584223e+00) (158, 1.60855906573315698971e+00) (159, 2.00199028081818664049e+00) (160, -3.42576321584964760270e-01) (161, -5.28222292038592122765e+00) (162, 3.46878251143696164638e-02) (163, 1.12106076431455226050e+00) (164, -9.27452728489168432002e-02) (165, 2.10430396257087926060e+00) (166, -4.22707687802352238826e-01) (167, 1.52008918324714925596e+00) (168, 1.73030936114163846895e+00) (169, 7.96221887155103447142e-01) (170, 1.94806199187745138213e-01) (171, 1.43583044745297350175e+00) (172, 1.24272764045814487766e+00) (173, 2.39449294061942286049e+00) (174, 1.24297075388033945176e-01) (175, 1.84212737826415984266e+00) (176, -1.31711897003570133080e+00) (177, 1.81798471821550089444e+00) (178, -2.25719367223021505353e+00) (179, 1.32057808155739042633e+00) (180, 2.11346451817138802909e+00) (181, 1.68511139153004818603e+00) (182, -3.27120816311687212519e+00) (183, 5.92660708354600940240e-01) (184, 6.66224205979146666401e-01) (185, 8.20286660433117265079e-01) (186, 7.45137109591477941883e-01) (187, 1.58519419943012795926e+00) (188, 1.97676391229065617772e+00) (189, 1.78541461259240485937e+00) (190, 1.39463235426721920973e+00) (191, 9.63530916878514998025e-02) (192, 1.24558286435190246344e+00) (193, 1.49768986806524084798e+00) (194, 1.25522968206770113575e+00) (195, 1.26401142969275825934e+00) (196, 1.30327422439705542523e+00) (197, 5.15166446337202210692e-01) (198, 7.79431966271888265751e-01) (199, 1.23740510422548899427e+00) (200, 6.04807454716547288065e-01) (201, 1.13590005997282106343e+00) (202, 7.39611894563493410537e-01) (203, -2.57887865157695850282e-01) (204, 1.90508958523441696009e+00) (205, 1.22983089768271369735e+00) (206, -1.92934593671587495400e-01) (207, 3.66832642291487154296e-01) (208, 4.98132746271440551844e-01) (209, 1.68321887918535778583e-01) (210, 1.82628524441485162733e+00) (211, 9.93545948864982708670e-01) (212, 1.21781505599538750206e-01) (213, 1.33367791541135294331e+00) (214, 2.80170860224703610619e-01) (215, -5.20257613567559173973e-01) (216, -8.59741547405760454803e-03) (217, 8.95952832169329277390e-02) (218, -7.32605925230283144822e-02) (219, 1.71718271210606454602e+00) (220, -2.26459265962859168653e+00) (221, -9.40477425181393544840e-01) (222, 1.82769393116927592047e+00) (223, 7.36054101299145835391e-01) (224, 4.60090537318754433382e-01) (225, 1.01763754729542243993e+00) (226, 3.24245448410845182874e-01) (227, 6.14659981549484313312e-01) (228, 1.17762459629964877372e+00) (229, 1.03605433931562873617e+00) (230, 1.20179634379953892420e+00) (231, 1.65485237319366901287e-01) (232, 3.18008991144571484533e-01) (233, -7.78311974774891363049e-02) (234, 3.77481963698352240844e-01) (235, 2.00130748326431295858e-01) (236, 1.31817974986340336052e+00) (237, 3.58136038477124662993e-01) (238, 7.09824760470775029120e-01) (239, -8.05224859254691227584e-02) (240, 1.09363787656211619570e+00) (241, 5.90892407851352663428e-01) (242, 1.50467156019126657718e+00) (243, 1.29710219763024237061e+00) (244, 5.75185464401364934806e-02) (245, 6.98826821799778841182e-01) (246, 1.12460053444569066383e-01) (247, 1.27486817216486941762e-01) (248, 1.42380024097134105787e+00) (249, 1.63542644411986237696e-01) (250, 1.64532565559792924234e-03) (251, 1.51359848145109254780e+00) (252, 1.35976593371999876503e+00) (253, 1.91970104196401347707e+00) (254, 7.43632856943824527285e-01) (255, -1.01563137921148238796e-01) (256, 1.02650032076044928075e+00) (257, 1.10651391070607529876e+00) (258, 1.90564917637031627784e+00) (259, 3.42928699909290091163e-01) (260, 4.11487427264287131123e+00) (261, 1.13486966633746866329e+00) (262, 5.73390001928400949716e-01) (263, 7.34480108918333596257e-01) (264, 1.21448521137147791293e+00) (265, 1.06812145139781322634e+00) (266, 1.72052959468976407464e+00) (267, 5.79840141033189482300e-01) (268, 1.57855568615129926435e+00) (269, 1.92391810596867740557e+00) (270, 1.08190653799177027850e+00) (271, 7.42932989956212042060e-01) (272, 6.10016903129800613925e-01) (273, 6.82946711701072572964e-01) (274, 1.37772626193266772843e-01) (275, 7.42041712548007104111e-01) (276, -6.51356987971546674832e-02) (277, 2.97231509887968592398e-01) (278, 9.36238130722929495775e-01) (279, 1.43761820529771977561e+00) (280, 5.55167975962668647227e-01) (281, 1.01684580939439728198e+00) (282, 1.00304044759400134978e+00) (283, -6.01967475247563651997e-02) (284, 9.77872172431168640294e-01) (285, 1.72147206944748520918e+00) (286, -4.08719538805388388214e-02) (287, 1.21557870853672062017e-01) (288, 9.16822201477622056309e-01) (289, 1.89524340084501718984e+00) (290, 5.14511322971412554672e-01) (291, 1.33284207329318493684e+00) (292, 1.14285273713489687886e+00) (293, 1.19442824336165021037e+00) (294, 1.66384314282271794649e-01) (295, 4.01635391103578764938e-01) (296, 3.29005458091951474842e-01) (297, 1.36204269284806134266e+00) (298, 1.05479501496832162033e+00) (299, -2.50950711416250832331e-02) (300, 1.28116110167631402916e+00) (0, 1.82411750155145591101e+00) (1, 1.65083511885102129924e+00) (2, 6.13948251726056826172e-01) (3, 2.05892709309837540488e+00) (4, 1.86210020789012409281e+00) (5, 1.89726504095897174906e+00) (6, 1.70411203190353988113e+00) (7, 6.35494305740996079379e-01) (8, 1.24845556820552028299e+00) (9, 1.41515890335791705290e+00) (10, 1.57158473706000445524e+00) (11, 1.05690099152129257654e+00) (12, 2.01714990221035739282e+00) (13, 1.93854098546228659217e+00) (14, 5.43372161029653799602e-01) (15, 2.15359538738294187254e+00) (16, 2.22816442287692950686e+00) (17, 4.36933704443368930992e-01) (18, 4.97651453415426825444e-01) (19, 1.63930078363308084910e+00) (20, 1.12040526508169008268e-01) (21, 1.33930053809438587287e+00) (22, 1.01746491036673991637e+00) (23, 1.70011342116706498651e+00) (24, 1.12324879016049772318e+00) (25, 6.38896621890895022311e-01) (26, 1.01108686491434962562e+00) (27, 1.74951953591509723474e+00) (28, 1.90228429495415030104e+00) (29, 2.24862545285972581510e+00) (30, 2.03652902583055217534e+00) (31, 1.03697989524668887640e+00) (32, 1.25564751609286462397e+00) (33, 2.29738640429574614288e+00) (34, 1.02167814754100527708e+00) (35, 1.03837511382361835643e+00) (36, 1.81595993674328015643e+00) (37, 7.59661148207414482769e-02) (38, 1.02614585387404244621e+00) (39, 7.14469498992909790580e-01) (40, 1.42619649043017204804e+00) (41, 5.23362015355674836670e-01) (42, 1.40188751363568320230e+00) (43, 7.84711035601146744689e-01) (44, 7.51337239688621427725e-02) (45, 1.86606579762382573939e+00) (46, 8.64533259818035193511e-01) (47, 2.25282053333608889290e+00) (48, 1.92017741929444607507e+00) (49, 7.00749126294436863738e-01) (50, 1.49421968934425475339e+00) (51, 1.97710890410095041503e+00) (52, 1.99638391217389532528e+00) (53, 4.75489752254418918120e-01) (54, 1.27196391354951199304e+00) (55, 3.92792925725406139037e-01) (56, 6.48475649198226533620e-01) (57, 2.20941172007781361231e+00) (58, 2.09919699179631491504e+00) (59, 5.62645590777219317680e-01) (60, 2.08813017864915506649e+00) (61, 1.36874695628799791791e+00) (62, 1.15765694482156500378e+00) (63, 1.24862800051480160590e+00) (64, 1.65419072986453197238e+00) (65, 2.19277122166291071892e+00) (66, 1.90895480182410515191e+00) (67, 7.52298279020944704598e-01) (68, 1.82982478649471969057e+00) (69, 8.71114829403438983846e-01) (70, 1.43420827746859869123e+00) (71, 1.21896099618568576339e+00) (72, 1.02379760304449463071e+00) (73, 1.16816880765708383527e-01) (74, 1.61537597687100142885e+00) (75, 1.03616527631254307096e+00) (76, 1.67127295415687804336e+00) (77, 6.16678092039570802108e-01) (78, 9.05885324314674167390e-01) (79, 1.33035266270845742298e+00) (80, 9.23247570494149849551e-01) (81, 3.38227562671459813792e-01) (82, 6.11071267652164240580e-01) (83, 2.04707840399872387227e-01) (84, 4.34450982092854043337e-01) (85, 1.81307385814923471834e+00) (86, 8.72021328826415920155e-01) (87, 1.09426692497967881224e+00) (88, 1.78498804395503229969e+00) (89, 7.22424310338906972007e-01) (90, 1.28814605770077394986e+00) (91, 1.37311088835446337697e+00) (92, 1.98781024300895148293e+00) (93, 4.41368266004335652042e-01) (94, 6.99358689201107358580e-02) (95, 1.27911315107924306034e+00) (96, 2.70427011209052636787e+00) (97, 1.87441353867039128822e+00) (98, 2.49042612122996320778e+00) (99, 2.08386263658005788102e+00) (100, 9.08754478477243471390e-02) (101, 7.37609044179207584691e-01) (102, 8.41771332769072455626e-01) (103, 1.82934761691124081473e+00) (104, 1.61691063914407684443e+00) (105, 7.59591737822729928808e-01) (106, 1.62777483520591914612e+00) (107, 1.13703038993034621917e+00) (108, 6.78310665012568758669e-01) (109, 5.16812783470294804383e-03) (110, 1.72874263145711526413e+00) (111, 1.50772196209850362081e+00) (112, 2.90265386799681501806e-01) (113, 2.53436484626265201570e+00) (114, 1.77283105149068398454e+00) (115, 1.59625594035347789790e-01) (116, -1.51918273336000497764e-01) (117, 4.81703890882058893830e-01) (118, 1.58741126041507385480e+00) (119, 2.76335445315063354954e+00) (120, 9.16468887798787545940e-01) (121, 1.79127817353148621748e+00) (122, 1.14596323508100353394e-01) (123, 5.69460622727371967855e-01) (124, 7.28799127168575422431e-01) (125, 1.88025852729044662404e+00) (126, 2.30975764856479637288e+00) (127, 2.49399412948425158731e+00) (128, 1.10213494152834368123e+00) (129, 1.53752865109151248824e+00) (130, 1.35904993267993012829e+00) (131, -1.80718358505593679197e+00) (132, 1.17040650025469683548e+00) (133, 8.04711197482473994391e-01) (134, 2.59104168324632455622e+00) (135, 1.42245613183902830379e+00) (136, 1.87150769046110193594e-01) (137, 4.87296389156025000489e+00) (138, 7.66995545993908955928e-01) (139, 1.32775774193951212609e+00) (140, 2.45122481825283911050e+00) (141, 2.26244002518005887792e-01) (142, -2.47494608625750078801e+00) (143, 3.41570389261434925743e+00) (144, 1.48076360802134088246e+00) (145, 1.43375681977543290024e+00) (146, -1.49774880094176809919e+00) (147, 1.17033187505100610970e+00) (148, -7.26996599273414023656e+00) (149, 9.67523861296693210576e-01) (150, 1.55956956533732982173e+00) (151, -1.84540813846434503809e-01) (152, 1.09374080309008925305e+00) (153, 1.76184080126031550328e+00) (154, 7.62401224497284091264e-01) (155, 2.05678843343955453093e+00) (156, 1.23120563775843483434e+00) (157, -1.08994169658555639657e+00) (158, 1.32050525972080223802e+00) (159, 1.72870329355550689243e+00) (160, 1.51379472846381979423e+00) (161, 1.54838464644990536634e+00) (162, 9.36664368595203078449e-01) (163, 1.97748535504839795252e+00) (164, 1.49095678414777910170e+00) (165, 6.42784440199494322421e-01) (166, 3.48642112829004569008e+00) (167, 2.60619266429872808999e+00) (168, 4.08600579008835784744e-01) (169, 1.71495080824506640482e+00) (170, 1.60249104095784655755e+00) (171, 1.83853201973085433885e+00) (172, 2.81858706200950903664e+00) (173, 1.05949130732584406722e+00) (174, 1.94028530630055051631e+00) (175, 4.95022747337284851898e-01) (176, 2.41568822257779536322e-01) (177, 1.90281983522259423580e+00) (178, 9.03266132227204976424e-01) (179, -3.26116751570280305472e+00) (180, 1.29464631723568901478e+00) (181, 1.80739932741099562641e-01) (182, 1.77287994958715999783e-01) (183, 2.98461894795961690807e-01) (184, -1.26343663803779415744e+00) (185, -3.48480654057739203111e+00) (186, 1.67579863186034416778e+00) (187, 1.08738600786985206703e+00) (188, 1.16362359264134007653e+00) (189, 7.38238375051097905910e-01) (190, 5.63949854477266421249e-01) (191, 7.76016504596684697503e-01) (192, 1.81940523622184402441e+00) (193, 1.51003925001039029929e+00) (194, 7.31421242222328737981e-01) (195, 1.55070927644731337836e+00) (196, -1.77592449052636158768e-01) (197, -3.80836299209197093329e-02) (198, 9.63378314903386878676e-01) (199, 3.30769144578011653479e-01) (200, 1.80208974404228805533e+00) (201, 2.24769407330817072577e+00) (202, -2.33136602289613581451e-01) (203, 1.48491797009407200392e+00) (204, 6.57968451625596473242e-01) (205, 2.15171524299244953937e+00) (206, -1.04176017435161100827e-02) (207, 1.51076242534021631947e+00) (208, 1.74976375515661253246e+00) (209, 1.51089389128623352576e+00) (210, 1.15830941999603598269e+00) (211, 1.12836385995860921660e+00) (212, -2.34189727031017175252e-01) (213, 1.99518215325831715923e+00) (214, 1.69498725962037966042e+00) (215, 2.38871346019109004333e-01) (216, 6.30510363013299102164e-01) (217, 1.04066213033005094957e+00) (218, 1.03353845903269103701e+00) (219, 2.39168554720842729822e+00) (220, 1.58594548680505176286e+00) (221, 2.40052075083664412380e-01) (222, 8.45721686404531380887e-01) (223, 1.26219185072937301051e+00) (224, 1.47443494991119439241e+00) (225, 2.20714771553546018623e+00) (226, 2.21817763437505943713e+00) (227, 1.92518009795013234076e+00) (228, 2.22601004329672891302e+00) (229, 4.19484542204699939472e-01) (230, -4.91066047150628792739e-01) (231, 2.25640838825174094850e+00) (232, 5.95433729087524343804e-01) (233, 5.34510378563844201771e-01) (234, 1.90552280226287096276e+00) (235, 3.83168155147882494305e-01) (236, 1.68884423432434904733e+00) (237, 2.39200540799680716475e+00) (238, 2.16046365380489380215e+00) (239, 2.11292857401112188498e+00) (240, 1.47399252709227956970e+00) (241, 3.16229680476130925459e-01) (242, 3.96161833401471208393e-01) (243, 2.08381988694909603410e+00) (244, 2.49956622833787056592e+00) (245, 2.24767989825499991952e+00) (246, 1.65149703504706812929e+00) (247, 2.56207298975433483967e-01) (248, 7.92915863989660102407e-02) (249, 1.24199007795511340291e+00) (250, 6.94826890782461292773e-01) (251, 2.08961425579093384997e+00) (252, 9.58846497025450550389e-01) (253, 7.39832285135470169024e-01) (254, 3.02738945455473917878e-01) (255, 8.76759121220362147575e-01) (256, 6.51390939242419086952e-01) (257, 5.24667839045008133070e-01) (258, 5.45716719277935635724e-01) (259, 4.76192472651998877087e-01) (260, 7.20489993401301265230e-01) (261, 5.96015258465826147649e-01) (262, 4.28482275419638458658e-01) (263, 1.28308145587955890754e+00) (264, 6.71805393618986168569e-01) (265, 1.96997830894614778252e+00) (266, 1.55331080930719744870e+00) (267, 6.86356730497609923702e-01) (268, 1.77824394755683434788e+00) (269, 1.45967118846489141148e+00) (270, 3.34984928537182813368e-01) (271, 1.15986096662327975437e+00) (272, 1.62812988875072228723e+00) (273, 9.08654786278641268815e-01) (274, 6.52233857444147968607e-01) (275, 1.80930213980994714085e+00) (276, 4.63359829961136282517e-01) (277, 2.22168549166992068677e+00) (278, 2.07027993938019960751e+00) (279, 6.88096459581488351098e-01) (280, 1.12775948275695303558e+00) (281, 2.16129317511687579767e+00) (282, 2.09359659229680872272e+00) (283, 2.01247486468249814351e+00) (284, 8.35127295625717858130e-01) (285, 4.78869583084219896385e-01) (286, 5.50758447543482465569e-01) (287, 1.15157750774156397711e+00) (288, 5.87171077689471410110e-01) (289, 7.32400099532895865195e-01) (290, 1.28390119437915695144e+00) (291, 1.35389772492575199969e+00) (292, 9.89368746360461792655e-01) (293, 1.37262267835966955687e+00) (294, 2.25882512919053235478e+00) (295, 1.33087590771841557391e+00) (296, 9.74143127924753993163e-01) (297, 1.81431785660910160907e+00) (298, 1.63376314035996861307e+00) (299, 3.99234985644667861315e-01) (300, -8.53676597957974681030e-01) (301, 2.23304621293258653836e+00) (0, 2.43836607857887105455e-01) (1, 1.45122300562424061399e-01) (2, 2.11836877939266615689e-01) (3, 1.87372158674691785540e-01) (4, 2.46072159781869831408e-01) (5, 2.61529690533821135290e-01) (6, 1.87364064969314542131e-01) (7, 1.84777701485253714742e-01) (8, 1.63399320044437856847e-01) (9, 1.23337954073918176778e-01) (10, 1.75136179042530343297e-01) (11, 2.02629318360627114215e-01) (12, 6.30327242140103910506e-02) (13, -1.04429885395793398128e-02) (14, -3.67916642229011922605e-02) (15, 2.31202405947092154426e-01) (16, 1.51486053312942209326e-01) (17, 2.37591310916387243868e-01) (18, 9.52328427670281474349e-02) (19, -1.86404169706589883937e+00) (20, -1.82930624764952765027e+00) (21, 1.01512236787770854241e-01) (22, 1.62801332103082091463e-01) (23, 1.11310165037499825269e-01) (24, 9.89703710894069416115e-02) (25, -7.27190819768638974097e-01) (26, -4.26811838894666062405e-01) (27, 7.51645108162802000340e-02) (28, 2.26127197207644042853e-01) (29, 7.03788629808431986934e-02) (30, 1.25491563224600338744e-01) (31, -7.28785535885904001141e-01) (32, -4.81964793783723088882e-01) (33, 2.55838190642071139358e-01) (34, 1.11949621513857178190e-01) (35, 1.35512309239098849289e-01) (36, 3.22027553030515389931e-01) (37, -3.58301155605021182105e-01) (38, -4.96175203462689839995e-01) (39, 1.93340016581854651223e-01) (40, 9.62904006831136749511e-02) (41, 2.01004459488584669158e-01) (42, 2.13527305009409251735e-01) (43, -4.74506646293450295992e-01) (44, -4.72323928214464006103e-01) (45, 1.41116207944399524310e-01) (46, 9.14298567024398878278e-02) (47, 1.82777992434884101192e-01) (48, 1.89284044344340235400e-01) (49, -4.26359546012370915768e-01) (50, 1.89736293641486475359e-01) (51, 1.38765889834787742307e-01) (52, 1.77922436130665745369e-01) (53, 1.03693460601403206200e-01) (54, 2.51043481419533032195e-01) (55, -3.55517447556671806197e-01) (56, 1.18045680141884462566e-01) (57, 1.25606752964383061588e-01) (58, 2.18897823588456968968e-01) (59, 7.38326755360512454462e-02) (60, 2.24221462451575981323e-01) (61, -3.13015604393445112663e-01) (62, 2.26875817805355622925e-01) (63, 2.69546580974334315517e-01) (64, 2.45908970076683663919e-01) (65, 8.48185254905289703897e-02) (66, 2.19316408633503601155e-01) (67, -3.31060573841471916801e-01) (68, 7.64049460204411223785e-02) (69, 1.99503794842405157706e-01) (70, 1.49677090669105783416e-01) (71, 1.13631818941741929985e-01) (72, 2.11377730720720136137e-01) (73, -3.55179020567339853720e-01) (74, 1.91158589290750552392e-01) (75, 1.64290426104678116692e-01) (76, 2.56337587905557440227e-01) (77, 1.86985421348535713060e-01) (78, 4.26817094284378084623e-01) (79, -4.40644593174525645018e-01) (80, 1.19144274010255207807e-01) (81, 1.89702260843634534782e-01) (82, -1.12458240005120502225e+00) (83, -1.13632222956909711975e+00) (84, 3.93609752160387682540e-01) (85, -2.74301148712047582201e-01) (86, 1.75320222479444537411e-01) (87, -3.27076210664747624168e-02) (88, -1.85950538890007543991e+00) (89, -1.89936212082606137308e+00) (90, 2.00106824759592238916e-01) (91, -3.33597254029824208388e-01) (92, 1.64581229732624206852e-01) (93, 1.55883414134297931808e-01) (94, -1.33372410742340741230e+00) (95, -2.17438050588939901786e+00) (96, 2.58044228566621181020e-01) (97, -3.28490726541266486738e-01) (98, 2.88067977469868619078e-01) (99, 1.06858206459837359881e-01) (100, -1.36669908452158961332e+00) (101, -7.91218132239469351674e-01) (102, 3.08033733209558846511e-01) (103, 1.51680789379450203791e-01) (104, 2.94592527204462995005e-01) (105, 3.28607754477543201332e-01) (106, -1.00418857301386263425e-01) (107, 3.14204901029895844466e-02) (108, 2.71731148654913601259e-01) (109, 2.18088454105281298601e-01) (110, 7.60664463551526531804e-02) (111, 3.23851288396077241494e-01) (112, -5.49877587538667000899e+00) (113, -6.35832515097915429436e+00) (114, 1.52903015181390072863e-01) (115, -6.14801973339638152538e-01) (116, -3.78519367661744265963e-01) (117, 6.67986377592898361577e-01) (118, -1.64599729973984398868e+00) (119, -8.38082564855485223632e+00) (120, 2.17305614186285328548e-01) (121, -5.91388872259038134160e-01) (122, -1.25817780239455068170e+00) (123, 9.69199557606620243355e-01) (124, -1.00117799270993557137e+00) (125, 2.66103522421802995979e+00) (126, 2.92181910084854112863e-01) (127, -9.04951758058977429044e-01) (128, -4.82493428818686975745e+00) (129, 1.37032687536724728794e+00) (130, -1.01435377761235745453e+00) (131, 1.37352668766583835280e-01) (132, 3.86327439363816804718e-01) (133, -6.32027043288742262916e-01) (134, -8.55102614392767135243e-01) (135, 3.53117272340815846476e+00) (136, 2.13881741812498615829e+00) (137, 2.18992858312711042856e+01) (138, 9.87255717991395553845e-01) (139, -3.03361500640842551846e-01) (140, 5.19580132784459358675e-01) (141, 2.94322830131453505587e+00) (142, -1.57289861014022291918e+00) (143, 3.35621619640039980936e+00) (144, 1.09894402057134321637e+00) (145, -2.26726890660092356145e-01) (146, 2.65571593931958593870e+00) (147, 1.68047763142634587474e+00) (148, -1.21077504426445923258e+01) (149, -1.56989129343241451409e+00) (150, 1.12024891940927839862e+00) (151, -1.75955085462093735460e-01) (152, 2.91939027738660517031e+00) (153, 8.28312816768242088372e-01) (154, -1.51806397004049120625e+01) (155, 1.45915287662718440309e+00) (156, 9.12346082468647456842e-01) (157, -4.12713812359102261151e-01) (158, -6.20347750720019810999e-02) (159, 1.32892605027306731635e+00) (160, -2.63048900376501437748e+00) (161, 4.14309599743058676324e+00) (162, 1.22680681453978346340e+00) (163, -2.49437048820204010369e-01) (164, -1.87565254544825754657e-01) (165, 8.05694978098478564732e-01) (166, 1.64923421697987637735e+00) (167, 9.07812530982761778375e+00) (168, 1.04763429928722828777e+00) (169, -3.98402914253109974307e-01) (170, -3.42515172379606103181e-01) (171, 7.25081891232618680476e-01) (172, 9.58083673577419192569e-01) (173, 2.68270029298621803804e+00) (174, 2.40700605474186923871e-01) (175, -4.56651639324817781862e-01) (176, -3.04667445185566709842e-01) (177, 1.28038102944315745901e+00) (178, 1.50498439160442298856e+00) (179, 4.11731121156612367429e+00) (180, 2.93401074585155574592e-01) (181, -5.14527630941402636111e-01) (182, 1.97413322454953271690e-01) (183, 6.25063838891536160958e-01) (184, -9.45453548863338100183e-01) (185, -5.59709661859097984404e+00) (186, 1.65531601116722493217e-01) (187, 7.20874142028797015858e-02) (188, 2.08207978796172393787e-01) (189, 4.32712993150130176279e-01) (190, -8.88353389825106698474e-01) (191, -4.61492605966585767163e+00) (192, 2.10261819686965112375e-01) (193, 1.86246378238687310125e-01) (194, 1.71281251096781023113e-01) (195, 4.92365186841240254356e-01) (196, -5.22527368980571393919e-01) (197, -8.81240455949108048017e-01) (198, 1.69659528358858613384e-01) (199, 2.30474970798415973450e-01) (200, 1.34424374784262362637e-01) (201, 2.77597484511041381339e-01) (202, -1.65457050931342719569e-01) (203, 1.05066500088563508086e+00) (204, 2.25753846632386817594e-01) (205, 1.99541263111182726186e-01) (206, 1.76101620858224117150e-01) (207, 2.19964483123633064432e-01) (208, -3.89528738459813062001e-01) (209, -1.25440316878761476405e-01) (210, 1.55709006839658409271e-01) (211, 2.36985988558437971063e-01) (212, 2.08692478423176952518e-01) (213, 1.44148423038130468754e-01) (214, -4.14307549042002398743e-01) (215, 1.53763195568276528347e-01) (216, 1.81233670043583955378e-01) (217, 1.39646505727836295341e-01) (218, 1.54636233062441480479e-01) (219, 1.59331986811090925427e-01) (220, -4.70702696181530377828e-01) (221, -4.74432728546252291402e-01) (222, 1.14187346477445189619e-01) (223, 2.27942027160303234412e-01) (224, 7.75059494195048104270e-02) (225, 2.08556597474149868487e-01) (226, 6.77406764929123078600e-02) (227, 7.68461577755943370249e-02) (228, 2.71720435281271877059e-01) (229, 1.41202288575141943205e-01) (230, 6.86343239279483680049e-02) (231, 1.15976103219026890900e-01) (232, 1.69442314777157154726e-01) (233, 1.63622376874106995048e-01) (234, 2.27093271292060444599e-01) (235, 1.49893663496138557223e-01) (236, 1.32418267215331814102e-01) (237, 1.07865409217065430503e-01) (238, 1.92413339453508414056e-01) (239, 1.18356468514416363069e-01) (240, 2.32051283180119027882e-01) (241, 9.61381938556392090511e-02) (242, 1.21915160202088077024e-01) (243, 1.67629307461428039838e-01) (244, 7.53380573432678307677e-02) (245, 1.47343886573901738934e-01) (246, 2.29941728687979823897e-01) (247, 1.85331827079422084559e-01) (248, 3.06104276077272703660e-02) (249, 1.18367191924727457875e-01) (250, 4.29507458976753353497e-02) (251, 1.37678823462661359400e-01) (252, 2.05957035705016805460e-01) (253, 7.49413351463463633939e-02) (254, 3.23541845213442605389e-02) (255, 2.18641876637614446244e-01) (256, 2.23781101988666575320e-01) (257, 1.51479512561876805687e-01) (258, 7.37731333079584272738e-02) (259, 2.25011773492933331298e-01) (260, -1.58741369134693249832e-02) (261, 9.81607023278656398713e-02) (262, 1.08138853645139212944e-01) (263, 1.90513089407999658409e-01) (264, 2.36792585643846115184e-01) (265, 5.04876086626911135813e-02) (266, 7.27863791869526322031e-02) (267, 1.34039120375585935063e-01) (268, 1.29619415840877383328e-01) (269, 6.35428722604196444257e-02) (270, 2.25180830799945802534e-01) (271, 1.08148746175164678363e-01) (272, 9.94347432973451961224e-02) (273, 1.18735575161758560858e-01) (274, 2.47775862348485809150e-01) (275, 1.62136056337939149508e-01) (276, 2.32874601286117893784e-01) (277, 2.28865135793902885197e-01) (278, 9.48384514245054766057e-02) (279, 2.56058685143577047238e-01) (280, 1.18543936834321905760e-01) (281, 1.06979086490064809190e-01) (282, 1.55709655399820151578e-01) (283, 9.41566407834462243409e-02) (284, 1.37903836076466723704e-01) (285, 2.34324554610203794613e-01) (286, 8.08447343332283491213e-02) (287, 1.35029574609641878080e-01) (288, 1.66165553771376067749e-01) (289, 1.28500197409554872685e-01) (290, 1.26539243960415298540e-01) (291, 1.68765093487623168977e-01) (292, 1.76787820263718531422e-01) (293, 1.95480995861289030824e-01) (294, 1.33348423300034518713e-01) (295, 1.80633818018526709492e-01) (296, 2.14482608495003640448e-01) (297, 1.80552657082019757384e-01) (298, 2.58231834162287954282e-01) (299, 9.52349907050657751295e-02) (300, 1.32579270624283140911e+00) (301, 1.71997810896328786612e+01) (302, -1.13121850219256128156e+01) (0, -5.49748869546568263988e-02) (1, -1.43550714943121132672e-01) (2, -2.33582547399709877789e-01) (3, -2.08789627591274840057e-01) (4, -1.38994014333912507819e-01) (5, -1.05955069437300306023e-01) (6, -3.49891955253956929428e-02) (7, -3.56458884267279105251e-02) (8, 8.50802188982871798739e-02) (9, -2.32818346062801884155e-01) (10, -8.81401294656625478030e-02) (11, -2.05779205002419474102e-01) (12, 6.57716330795423798072e-01) (13, 7.25700777678625175149e-01) (14, 6.73125449703216971464e-01) (15, -1.51584438402258381284e-01) (16, -2.51321336766858055567e-02) (17, -3.76123661133718409366e-02) (18, 7.95689458339994493130e-01) (19, 6.16859801502903537518e-01) (20, 6.27433511609122973596e-01) (21, -1.57992623169027790464e-01) (22, -4.76253076412148715346e-02) (23, -2.90390147783226998390e-02) (24, 6.71359958548243596077e-01) (25, 6.54216256968136788963e-01) (26, 6.73700624775331990968e-01) (27, -1.75458230725712260867e-01) (28, -1.42909732363409591738e-01) (29, -5.50939484455057193468e-02) (30, 6.95630014139522523386e-01) (31, 1.04477532877762580021e+00) (32, 9.27416767312142620305e-01) (33, -3.49136634685463867478e-02) (34, -1.53507948141312688950e-01) (35, -8.76342978834110247766e-02) (36, 6.08602501653193406206e-01) (37, 5.07396864207759090704e-01) (38, 3.52569474380017122694e-01) (39, -1.63416000769482872013e-01) (40, -1.36692211251473461076e-01) (41, -9.01573263643222627683e-02) (42, 5.32406561764651731217e-01) (43, 5.91995903530996070430e-01) (44, -6.65540049345715589713e-02) (45, -2.28750417024352226125e-01) (46, -1.73102392741076416272e-01) (47, -1.41464740335350058764e-01) (48, 6.12336982414317887446e-01) (49, 4.13343193042346013222e-01) (50, -4.52952156915743184284e-02) (51, -1.81040942966346707355e-01) (52, -1.43515046120516076567e-01) (53, -1.14125305688943134985e-01) (54, 4.59529411907630858103e-01) (55, 3.77978255202137014557e-01) (56, -4.76983793799024002880e-02) (57, -9.91260962256422795136e-02) (58, -2.19757793365247755535e-01) (59, -2.06442778915151003982e-01) (60, 5.51881184324036433431e-01) (61, 5.40732540668522387861e-01) (62, -1.03188329205386286613e-01) (63, -9.63103784769092086115e-02) (64, -2.76760628622250370867e-01) (65, -6.89817461530418812865e-02) (66, 5.36170376896461409189e-01) (67, 6.03801359070582632782e-01) (68, -1.70515489852285234695e-01) (69, -1.53536017750340536558e-01) (70, -8.87604362217348369368e-02) (71, -9.33070216285419723468e-02) (72, 4.29121778136912879198e-01) (73, -4.72069711260918525864e-02) (74, -1.08726135029590720293e-01) (75, 5.17763651881293807122e-01) (76, 4.18695357094089448680e-01) (77, 3.81262794779329339256e-01) (78, -1.80767682559199227565e-01) (79, -8.99137243662553459211e-02) (80, -3.03858953520189545294e-01) (81, 5.98270135150282600378e-01) (82, 4.98193164901395313393e-01) (83, 5.29674508493019668975e-01) (84, -1.21841452287174023539e-01) (85, -1.27137980177300130569e-01) (86, -2.44815597996264538994e-01) (87, 9.19185008604935793741e-01) (88, 1.27903156596192024708e+00) (89, 1.60125519893198009491e+00) (90, -1.03602816581783288563e-01) (91, -2.91400978273876565261e-01) (92, -6.53641284241244568953e-01) (93, 9.53536794390882236350e-01) (94, 6.18135053650298638139e-01) (95, 6.34938781986845168781e-01) (96, -2.47323710519312706113e-01) (97, -4.33540394862720612768e-01) (98, -1.08867823199690616498e+00) (99, 9.57697925717790887745e-01) (100, 2.85683064914778073184e-01) (101, 6.42747886913802246589e-01) (102, -6.39878858975699155165e-02) (103, -5.52856512715854231388e-01) (104, -9.01731503582543170161e-01) (105, 5.50045863666309586826e-01) (106, 2.76465574894220911251e-01) (107, 1.56646816668118443738e-01) (108, -1.30874490140806182259e-01) (109, -4.45337140741559167623e-01) (110, -7.61797223709566595495e-01) (111, 1.57654328991504422142e+00) (112, 1.95962846955758118739e+00) (113, 1.99060802404175585245e+00) (114, -5.30704659474412476783e-02) (115, -5.57505203229765933237e-01) (116, -7.59964119057781939404e-01) (117, 1.10811493128875149239e+00) (118, 7.95106068693729017838e-01) (119, 2.48876558549914683738e+00) (120, 4.64061781895009906052e-01) (121, -8.71075538099025714622e-01) (122, -9.41008291641246413795e-02) (123, 1.04999482445700431654e+00) (124, -1.22721484624790844187e+00) (125, 3.31845877645456743821e+00) (126, 8.40068247506022602877e-01) (127, -5.62395078023896433095e-01) (128, 1.50963748876405046140e+00) (129, 4.70589513583094420923e-01) (130, -2.13162384538660631961e+00) (131, 1.91115649633476958336e+00) (132, 7.36136356801255442583e-01) (133, -8.02027059874525938277e-01) (134, 1.99193024871502455397e+00) (135, 2.99347384835365326605e-01) (136, -1.93300516094291054969e+01) (137, -1.42341392878322743343e+01) (138, 3.64002697111084905224e-01) (139, -7.70799900828611828096e-01) (140, 6.40992616181388363827e-01) (141, 3.89168573676662576943e-01) (142, -1.68825246829522015446e+01) (143, -5.95400462939003061180e-01) (144, -9.70350473843873823077e-02) (145, -1.12688449479597174729e+00) (146, -1.30876649714064541286e+00) (147, 6.11840113291515219629e-01) (148, 1.49491873521445062245e+00) (149, 2.81074473852954334063e+01) (150, -2.68880097877114476734e-01) (151, -1.65092819799192058738e+00) (152, -4.88451920076847745378e+00) (153, 6.19869464757648702680e-01) (154, -3.28055416674441913116e+00) (155, 5.00281599440305058124e+00) (156, -1.49024523502972044975e-01) (157, -1.07772530213478612282e+00) (158, -1.95770598581170962582e+00) (159, 4.04112512143602498060e-01) (160, -6.55211054848049023747e+00) (161, -1.72966028370692304073e-01) (162, -3.25074287918645621343e-01) (163, -1.65865773936054239357e+00) (164, -1.70022991017297764316e+00) (165, 3.71605757579155204784e-01) (166, -9.09310345606605530122e+00) (167, -2.23922799543838979552e-01) (168, -5.58552095692905065105e-02) (169, -1.37150138181707381690e+00) (170, -1.45868768187314068463e+00) (171, 5.50087143366391417842e-01) (172, -5.06846660500576362551e+00) (173, 1.96020179986229425850e+00) (174, -1.04778117046889954200e-01) (175, -1.33903064145032557608e-01) (176, -8.28005181071030160744e-01) (177, 3.56165082967713597650e-01) (178, -1.95213648353465307750e+00) (179, 1.91505189245190110547e+00) (180, 4.03993323292832884341e-01) (181, 1.08010278518415470117e+00) (182, 1.03719681526747531386e+00) (183, 6.59608121060826668725e-01) (184, -1.58982727210768826076e+00) (185, 4.63244618593060319967e+00) (186, 1.24650742154014476659e-01) (187, 4.49376683182100000735e-01) (188, 3.97266352668703304207e-01) (189, 5.57568030950542303792e-01) (190, -7.00483976561396604055e-01) (191, 1.14483784074129535391e+00) (192, 3.41037433290104288752e-02) (193, -1.04399993091469245332e-01) (194, 9.01566814429590954183e-03) (195, 6.37738485079543782064e-01) (196, -8.79072760413203480034e-01) (197, 6.17837350677299057544e-01) (198, 5.40025808448137856210e-01) (199, -1.29578088795593654448e-01) (200, -1.34168215480375968562e-02) (201, -1.30433665351913002928e-01) (202, -1.13267429838529221087e+00) (203, -1.05622837439169403595e+00) (204, 3.59290974381447469899e-01) (205, -1.56421195333692336638e-01) (206, 7.52871146497700038935e-02) (207, -2.16715095845804311958e-01) (208, -4.87267799665143552801e-01) (209, -5.03437023393343063837e-01) (210, 4.13735361574243343252e-01) (211, -2.41313572169132239953e-01) (212, -1.66689428222786921452e-02) (213, -8.75050143338135244520e-02) (214, -5.11183755149925644901e-01) (215, -3.19057064014015845377e-01) (216, 4.87020428123934590037e-01) (217, -2.86978185643437633257e-01) (218, 5.24089381398501363840e-01) (219, -1.28811633908189754338e-01) (220, -2.96344439166513984318e-01) (221, -3.86917377726020084161e-01) (222, 5.08215850434276750214e-01) (223, -4.19572241399746997947e-02) (224, 5.55792782409918473263e-01) (225, 2.98491364114412127684e-01) (226, 1.56774855741039081947e-01) (227, -2.03211726773010414870e-01) (228, 5.45899761778755876485e-01) (229, -6.61223375764061066517e-02) (230, 5.71796655323161595597e-01) (231, 2.08854212237607694824e-01) (232, 2.56071492283215684793e-01) (233, 1.40476191122911375775e-01) (234, 5.77056399301873801377e-01) (235, -2.14118452039781985777e-03) (236, 5.68723362410425647973e-01) (237, -1.53010188853840600753e-01) (238, -9.19596193894412078373e-02) (239, -2.13756082757277449113e-01) (240, 1.12003882883568328666e+00) (241, 8.89778957366391259898e-02) (242, 5.72712344113230242826e-01) (243, -9.19994032797002841972e-02) (244, -4.11626065533141627384e-02) (245, -7.77886037462163365541e-02) (246, 9.65828263589147528734e-01) (247, -5.26723781581613370584e-02) (248, 6.11604091967023366649e-01) (249, 1.11068334524773489752e-02) (250, -5.19471442759531498723e-02) (251, -3.64777229023651172746e-02) (252, 6.90763413950292948229e-01) (253, -3.17572072775436087255e-02) (254, 6.64711906248091066729e-01) (255, -6.83976415989688141250e-02) (256, -1.97845185830625158729e-01) (257, -1.48868059846464784179e-01) (258, 6.02112664329784719186e-01) (259, -2.70175344062569813483e-03) (260, 5.95153840125481892187e-01) (261, -1.95604067044328810976e-01) (262, -6.03436496213884815409e-02) (263, -1.90472562711000215074e-01) (264, 6.34097115640549269244e-01) (265, -5.34406037916401385757e-02) (266, 6.19054032378034024831e-01) (267, -1.70803133805927875866e-01) (268, -9.35724162749622390134e-02) (269, -1.52221551864863358094e-01) (270, 4.67316288355359210627e-01) (271, -4.22476597409948955580e-03) (272, 5.17500071750014667415e-01) (273, -9.40699793365772640730e-02) (274, -3.67318132076146289244e-02) (275, -2.09545487081777948024e-01) (276, 4.38393929449549246691e-01) (277, -2.07636516055486219923e-01) (278, 4.56620727223400191264e-01) (279, -7.56122779827067131864e-02) (280, -1.97545947900316765100e-01) (281, -1.53457796644398347663e-01) (282, 3.10315974654910044228e-02) (283, -2.27987955456110835684e-01) (284, 4.69678592050750479125e-02) (285, -1.15058748494812720931e-01) (286, -5.46138793937651911836e-02) (287, -4.16941791194601965587e-02) (288, -7.76979174144017820103e-02) (289, -1.75931931446084210968e-01) (290, -1.45722337654734468426e-01) (291, -1.52452258836456910895e-01) (292, -1.37372820150086061286e-01) (293, -1.86658725171771622264e-01) (294, -1.53420809248589029572e-01) (295, -1.89650346205865627525e-01) (296, -1.43474225421850232198e-01) (297, -2.15427039634415284919e-01) (298, -1.28096325766274110602e-01) (299, -1.96667341958710273353e-01) (300, 1.48819694929089396673e+00) (301, -1.63475544009238262788e+01) (302, 7.41421537417443232698e+00) (0, 1.51704371950143551695e-01) (1, 3.75149136170650654432e-01) (2, 3.68888323888088343061e-01) (3, 3.01019475857156548759e-01) (4, 3.63630370298760996484e-01) (5, 3.93018559614556950432e-01) (6, 5.86588146930893464259e-02) (7, 1.71665736002732965959e-01) (8, 5.41873467097775673995e-02) (9, 6.63376630865429028905e-02) (10, 4.21450799092556283032e-01) (11, 3.15073331849067383992e-01) (12, 5.57966945771923156228e-02) (13, -1.10566622103292107326e-02) (14, 6.17707441809803095567e-02) (15, 9.52337492631647741792e-02) (16, 2.81741392493338627112e-01) (17, 1.59029726623554384934e-01) (18, -1.79793447468933442757e-01) (19, 9.69264710771485515917e-02) (20, 2.10801069981260719155e-01) (21, 2.15614575590709039998e-01) (22, 2.40574100070733903900e-01) (23, 1.08123963770066111589e-01) (24, -5.75702122583333919525e-03) (25, 2.56007842760863357778e-01) (26, 1.90172281416528782261e-01) (27, 1.06649628772262167198e-01) (28, 1.89475510519189788150e-01) (29, 2.40968402165964379336e-01) (30, -1.25727598135928542167e-01) (31, 1.01188638560486265927e-01) (32, 1.55519849337228760477e-01) (33, 2.25610936718558877101e-02) (34, 1.97976418524045932879e-01) (35, 1.08750388750325055476e-01) (36, -2.01520114718819545740e-02) (37, 2.61367876117038822059e-01) (38, 2.43449355655090765582e-01) (39, -2.30993099381918282065e-02) (40, 1.28123174326222943886e-01) (41, 1.88243866498674167209e-01) (42, -6.06028009170152190399e-02) (43, 7.36483596609119883780e-02) (44, 2.34014163904564337360e-01) (45, 1.58321455878973477160e-01) (46, 1.78849431590836771555e-01) (47, 2.04711122499923708906e-01) (48, -1.39317959569021099231e-01) (49, 1.95731800083923740408e-01) (50, 2.60060130334981487454e-01) (51, -2.70473741795820704636e-02) (52, 1.34896526949208755974e-01) (53, 1.61921765954986945912e-01) (54, -1.63676161878929304905e-01) (55, 1.09125885632141594872e-01) (56, 1.89898385382779949504e-01) (57, 1.32468550299952581017e-01) (58, 4.02659341859309960476e-01) (59, 4.20929253492824187455e-02) (60, -9.42306723543172991553e-02) (61, 1.98807190845309594840e-01) (62, 1.05684468671468995149e-01) (63, 1.16571447913403847263e-01) (64, 3.97862789813032413644e-01) (65, 7.87772092876398294381e-02) (66, 1.27965292936859063866e-02) (67, 1.75417359397231548135e-01) (68, 1.96307303586705755860e-01) (69, 7.60505381358761584076e-02) (70, 1.90475275221827389238e-01) (71, 1.83183455654999605144e-01) (72, -6.03301071518364123714e-02) (73, 1.03912386522113264764e-01) (74, 2.28805633201821706502e-01) (75, -7.05837948701737438739e-02) (76, 4.78910443327259550961e-03) (77, -4.60058899589048594936e-02) (78, -1.68505201100155654892e-01) (79, 1.31869352652018517746e-01) (80, 1.93000043147481509243e-01) (81, 4.89944323982801840933e-02) (82, 9.07246459653325426631e-02) (83, 2.03108380686063294540e-01) (84, 3.94165972559326963087e-02) (85, 1.20247480458913702517e-01) (86, 6.30429402766004981506e-02) (87, -1.23344963397608184397e-01) (88, 2.86116597054352883589e-01) (89, 2.86782258845696469418e-01) (90, 7.03619698372030377004e-03) (91, 4.17689864925619436242e-01) (92, 4.00459558761744771616e-01) (93, -1.87172151489801263935e-01) (94, 6.05729318162518404201e-01) (95, 3.61968259744499865072e-01) (96, 2.37936822135924623198e-03) (97, 1.33689190469654328730e+00) (98, 1.16375311859692298633e+00) (99, -3.66103326302179787888e-01) (100, 6.68554747827402429117e-01) (101, 3.06461719059011705735e-01) (102, 4.85547046033616737370e-03) (103, 1.56057400505541687963e+00) (104, 5.77010483220373959767e-01) (105, -9.33320574089846366483e-01) (106, 3.26775423856419500179e-01) (107, 5.57636354013860274792e-02) (108, -5.87560237738943072494e-02) (109, 3.08324551078289932349e+00) (110, 1.40611667155769204385e+00) (111, -2.31316566315673144416e+00) (112, 1.85628762754497106391e-01) (113, -8.42266954795222066998e-01) (114, -7.85239867408930036774e-02) (115, 2.27642224364846290641e+00) (116, 1.24987445875315739130e+00) (117, -1.95345690418980244552e+00) (118, 1.32018768407084308159e+00) (119, 9.31386197479794897269e-02) (120, -2.30273729223002404654e-02) (121, 1.08116630641629862808e+00) (122, 5.89571842643443089216e-01) (123, -2.97452004225933075432e+00) (124, 5.13285583516649523972e+00) (125, 9.15567225706011678099e-01) (126, -4.66136651123165435262e-01) (127, 2.38688293067541551506e-01) (128, 3.49451315577035015458e-01) (129, -2.01401332169290681051e+00) (130, 6.12408509110237453399e+00) (131, -5.13021179758446632668e-01) (132, -6.90326247881159815734e-01) (133, 1.67929188657459371736e-01) (134, 1.16934043937314657846e-01) (135, -2.51840179223798221742e+00) (136, 4.10131780037378490533e+00) (137, -1.01121944456522712130e+01) (138, 4.54926986022403077869e-03) (139, 4.01172749241953452426e-01) (140, 3.05502682080013632238e-01) (141, -3.22971295454457330010e+00) (142, 8.39467159488611081031e+00) (143, -4.57590719500154907706e+00) (144, 5.87222836924614702281e-02) (145, 1.33849999300140254377e+00) (146, 4.12998412339507625646e-01) (147, -4.44681873342697464579e+00) (148, 9.82581871846859122854e+00) (149, -2.16226460909888817952e+00) (150, -5.33343405356169752984e-02) (151, 1.35028251885987060632e+00) (152, 3.10456512584630028861e-01) (153, -2.51569070819482076828e+00) (154, 6.11388684041209540254e+00) (155, -2.99711377229815334466e-01) (156, -1.19518340590865954076e-01) (157, 4.14413228981386438932e+00) (158, 1.51303592754081428495e+00) (159, -1.99933277151488697498e+00) (160, 4.46418389876184296128e+00) (161, -3.49885484029542048745e+00) (162, -5.93845763096951598237e-02) (163, 2.73548772217825941766e+00) (164, 1.90922456092986569942e+00) (165, -2.64178893347483068066e-01) (166, 6.77158979845694641853e+00) (167, -1.40712534102575714812e+00) (168, -8.89586557942145667033e-02) (169, 1.66919278174295282469e+00) (170, 6.69435413930199230137e-01) (171, -3.54554582492869363453e-01) (172, 2.13081988247955811389e+00) (173, -8.64101526400023245422e-01) (174, -3.90912647020090139871e-02) (175, 3.93704771136193953929e-01) (176, 2.78193030674273866776e-01) (177, -2.22966262169341167265e+00) (178, 2.56676761273598286195e+00) (179, -6.45299718446020698082e+00) (180, -1.57019018987568120815e-01) (181, 2.00874384206483097559e-01) (182, -1.08744994047929877112e+00) (183, -3.78457019781794512525e+00) (184, 2.99658595854044484952e+00) (185, -8.63979281270690069316e-02) (186, -4.02266973394338755998e-01) (187, 2.88441530554212899329e-01) (188, -5.32263537192412150567e-01) (189, -3.92095901175383243498e+00) (190, 2.26337536465167410427e+00) (191, 1.56982316242326114253e-01) (192, -1.40702463382283288196e-01) (193, 2.56107251661982948665e-01) (194, -8.23492652200756070080e-01) (195, -4.32979614622035491323e+00) (196, 1.75966792590310505684e-01) (197, -2.34755738535784297394e-01) (198, -9.07330908104804489955e-02) (199, 2.62119658687895384919e-01) (200, -1.21409888375397589932e+00) (201, -1.59084972061326346271e+00) (202, 2.44796193695915910438e-02) (203, -5.10846258399868302646e-01) (204, -1.41788087066069767861e-01) (205, 5.35595278963779189429e-02) (206, -1.36504260246594388839e+00) (207, -1.28425756997162271444e-01) (208, 3.80608253402908644492e-02) (209, -9.58942967995807526993e-02) (210, -2.08159058533894825160e-01) (211, 1.08449358122199995824e-01) (212, -1.45948176339040269767e+00) (213, -3.19421980424111240371e-01) (214, 1.31651669413458016766e-01) (215, -2.20913647799777457248e-01) (216, -3.28100152599934358211e-01) (217, 1.77763393648889211907e-01) (218, -1.36385707051370164145e+00) (219, 4.05199106235993450342e-02) (220, 1.09418346664487936559e-01) (221, 1.30473954664711566664e-01) (222, -1.86642414384833332797e+00) (223, -7.84060268779520758153e-02) (224, -1.90810268863042864496e+00) (225, 7.32788448423153937483e-02) (226, 9.22521953980717790422e-02) (227, 1.75265350723469520711e-01) (228, -1.41375381574494851655e+00) (229, -1.48315421049725781888e-01) (230, -1.77379209475173116317e+00) (231, -2.18420089601368411225e-02) (232, 4.95546762961530315450e-02) (233, 8.00426397403882720211e-04) (234, -1.77023676918938788205e+00) (235, 8.63897376818291949652e-03) (236, -1.19251895172822952595e+00) (237, 1.20388175778454287190e-01) (238, 2.08083491710294693489e-01) (239, 2.33919373914273850956e-02) (240, -1.40232980697967879458e+00) (241, -6.05023302456520264969e-02) (242, -4.22680767631852416510e-01) (243, 8.00165285450609720108e-02) (244, 1.00664829622608698045e-01) (245, 1.17980113162262451043e-01) (246, -2.09147945581903860202e-01) (247, 9.56581626412039698337e-02) (248, -6.96067826873793399356e-02) (249, 8.49553637374413361805e-02) (250, 3.18112110235477141273e-01) (251, 5.94808998119588164255e-02) (252, -5.80441701154550682151e-03) (253, 1.84993573898117297238e-01) (254, 7.91524491104024646715e-02) (255, -2.62741738723849599033e-03) (256, 1.84279646353424114702e-01) (257, 7.38914328229184902419e-02) (258, 1.50920703375625381293e-01) (259, 2.82063602150968636972e-02) (260, 8.25690104290883672422e-03) (261, 1.38529315648802858751e-01) (262, 1.21229490242682258483e-01) (263, 1.46364669875801350907e-01) (264, 1.21612072201901760815e-01) (265, 1.89355720454602610703e-01) (266, 1.65512859808654183569e-01) (267, 2.03931533512109269823e-01) (268, 2.38658781784192336461e-01) (269, 2.63147263092768868287e-01) (270, 3.57547118127902116558e-02) (271, 1.65913328045734942418e-01) (272, 2.04711757623657258920e-01) (273, 1.50386401232713434739e-01) (274, 1.31458806642895748018e-01) (275, 1.94452640872830290197e-01) (276, 4.75635497421111400063e-02) (277, 1.67903326483799408830e-01) (278, 1.28125320433697849343e-02) (279, 1.62427391263136849942e-01) (280, 2.89608738643205965158e-01) (281, 2.31261474867401756184e-01) (282, 1.67841728502108766818e-01) (283, 1.49720373895830122235e-01) (284, 8.88062270379885443372e-02) (285, 2.33689376309087898376e-01) (286, 3.85424877774990182200e-01) (287, 4.30602411997593137460e-01) (288, 1.65161915311895363123e-01) (289, 1.71271926651912126394e-01) (290, 1.41191652329312883341e-02) (291, 3.08196620240381413680e-01) (292, 3.27901090753353385843e-01) (293, 2.87009976130998933908e-01) (294, 8.16479271562444430810e-02) (295, 1.95323717666851776054e-01) (296, 5.11969392404130196894e-02) (297, 2.13354640526758926322e-01) (298, 2.77014405528444085380e-01) (299, 3.71772096554177866601e-01) (300, 1.10378887333888520139e+00) (301, 1.44872353743173598595e+00) (302, 1.46705661196709202798e+00) 
