FANN_FLO_2.1
num_layers=4
learning_rate=0.700000
connection_rate=1.000000
network_type=1
learning_momentum=0.000000
training_algorithm=2
train_error_function=1
train_stop_function=0
cascade_output_change_fraction=0.010000
quickprop_decay=-0.000100
quickprop_mu=1.750000
rprop_increase_factor=1.200000
rprop_decrease_factor=0.500000
rprop_delta_min=0.000000
rprop_delta_max=50.000000
rprop_delta_zero=0.100000
cascade_output_stagnation_epochs=12
cascade_candidate_change_fraction=0.010000
cascade_candidate_stagnation_epochs=12
cascade_max_out_epochs=150
cascade_max_cand_epochs=150
cascade_num_candidate_groups=2
bit_fail_limit=3.49999999999999977796e-01
cascade_candidate_limit=1.00000000000000000000e+03
cascade_weight_multiplier=4.00000000000000022204e-01
cascade_activation_functions_count=10
cascade_activation_functions=3 5 7 8 10 11 14 15 16 17 
cascade_activation_steepnesses_count=4
cascade_activation_steepnesses=2.50000000000000000000e-01 5.00000000000000000000e-01 7.50000000000000000000e-01 1.00000000000000000000e+00 
layer_sizes=301 1 1 2 
scale_included=0
neurons (num_inputs, activation_function, activation_steepness)=(0, 0, 0.00000000000000000000e+00) (0, 0, 0.00000000000000000000e+00) (0, 0, 0.00000000000000000000e+00) (0, 0, 0.00000000000000000000e+00) (0, 0, 0.00000000000000000000e+00) (0, 0, 0.00000000000000000000e+00) (0, 0, 0.00000000000000000000e+00) (0, 0, 0.00000000000000000000e+00) (0, 0, 0.00000000000000000000e+00) (0, 0, 0.00000000000000000000e+00) (0, 0, 0.00000000000000000000e+00) (0, 0, 0.00000000000000000000e+00) (0, 0, 0.00000000000000000000e+00) (0, 0, 0.00000000000000000000e+00) (0, 0, 0.00000000000000000000e+00) (0, 0, 0.00000000000000000000e+00) (0, 0, 0.00000000000000000000e+00) (0, 0, 0.00000000000000000000e+00) (0, 0, 0.00000000000000000000e+00) (0, 0, 0.00000000000000000000e+00) (0, 0, 0.00000000000000000000e+00) (0, 0, 0.00000000000000000000e+00) (0, 0, 0.00000000000000000000e+00) (0, 0, 0.00000000000000000000e+00) (0, 0, 0.00000000000000000000e+00) (0, 0, 0.00000000000000000000e+00) (0, 0, 0.00000000000000000000e+00) (0, 0, 0.00000000000000000000e+00) (0, 0, 0.00000000000000000000e+00) (0, 0, 0.00000000000000000000e+00) (0, 0, 0.00000000000000000000e+00) (0, 0, 0.00000000000000000000e+00) (0, 0, 0.00000000000000000000e+00) (0, 0, 0.00000000000000000000e+00) (0, 0, 0.00000000000000000000e+00) (0, 0, 0.00000000000000000000e+00) (0, 0, 0.00000000000000000000e+00) (0, 0, 0.00000000000000000000e+00) (0, 0, 0.00000000000000000000e+00) (0, 0, 0.00000000000000000000e+00) (0, 0, 0.00000000000000000000e+00) (0, 0, 0.00000000000000000000e+00) (0, 0, 0.00000000000000000000e+00) (0, 0, 0.00000000000000000000e+00) (0, 0, 0.00000000000000000000e+00) (0, 0, 0.00000000000000000000e+00) (0, 0, 0.00000000000000000000e+00) (0, 0, 0.00000000000000000000e+00) (0, 0, 0.00000000000000000000e+00) (0, 0, 0.00000000000000000000e+00) (0, 0, 0.00000000000000000000e+00) (0, 0, 0.00000000000000000000e+00) (0, 0, 0.00000000000000000000e+00) (0, 0, 0.00000000000000000000e+00) (0, 0, 0.00000000000000000000e+00) (0, 0, 0.00000000000000000000e+00) (0, 0, 0.00000000000000000000e+00) (0, 0, 0.00000000000000000000e+00) (0, 0, 0.00000000000000000000e+00) (0, 0, 0.00000000000000000000e+00) (0, 0, 0.00000000000000000000e+00) (0, 0, 0.00000000000000000000e+00) (0, 0, 0.00000000000000000000e+00) (0, 0, 0.00000000000000000000e+00) (0, 0, 0.00000000000000000000e+00) (0, 0, 0.00000000000000000000e+00) (0, 0, 0.00000000000000000000e+00) (0, 0, 0.00000000000000000000e+00) (0, 0, 0.00000000000000000000e+00) (0, 0, 0.00000000000000000000e+00) (0, 0, 0.00000000000000000000e+00) (0, 0, 0.00000000000000000000e+00) (0, 0, 0.00000000000000000000e+00) (0, 0, 0.00000000000000000000e+00) (0, 0, 0.00000000000000000000e+00) (0, 0, 0.00000000000000000000e+00) (0, 0, 0.00000000000000000000e+00) (0, 0, 0.00000000000000000000e+00) (0, 0, 0.00000000000000000000e+00) (0, 0, 0.00000000000000000000e+00) (0, 0, 0.00000000000000000000e+00) (0, 0, 0.00000000000000000000e+00) (0, 0, 0.00000000000000000000e+00) (0, 0, 0.00000000000000000000e+00) (0, 0, 0.00000000000000000000e+00) (0, 0, 0.00000000000000000000e+00) (0, 0, 0.00000000000000000000e+00) (0, 0, 0.00000000000000000000e+00) (0, 0, 0.00000000000000000000e+00) (0, 0, 0.00000000000000000000e+00) (0, 0, 0.00000000000000000000e+00) (0, 0, 0.00000000000000000000e+00) (0, 0, 0.00000000000000000000e+00) (0, 0, 0.00000000000000000000e+00) (0, 0, 0.00000000000000000000e+00) (0, 0, 0.00000000000000000000e+00) (0, 0, 0.00000000000000000000e+00) (0, 0, 0.00000000000000000000e+00) (0, 0, 0.00000000000000000000e+00) (0, 0, 0.00000000000000000000e+00) (0, 0, 0.00000000000000000000e+00) (0, 0, 0.00000000000000000000e+00) (0, 0, 0.00000000000000000000e+00) (0, 0, 0.00000000000000000000e+00) (0, 0, 0.00000000000000000000e+00) (0, 0, 0.00000000000000000000e+00) (0, 0, 0.00000000000000000000e+00) (0, 0, 0.00000000000000000000e+00) (0, 0, 0.00000000000000000000e+00) (0, 0, 0.00000000000000000000e+00) (0, 0, 0.00000000000000000000e+00) (0, 0, 0.00000000000000000000e+00) (0, 0, 0.00000000000000000000e+00) (0, 0, 0.00000000000000000000e+00) (0, 0, 0.00000000000000000000e+00) (0, 0, 0.00000000000000000000e+00) (0, 0, 0.00000000000000000000e+00) (0, 0, 0.00000000000000000000e+00) (0, 0, 0.00000000000000000000e+00) (0, 0, 0.00000000000000000000e+00) (0, 0, 0.00000000000000000000e+00) (0, 0, 0.00000000000000000000e+00) (0, 0, 0.00000000000000000000e+00) (0, 0, 0.00000000000000000000e+00) (0, 0, 0.00000000000000000000e+00) (0, 0, 0.00000000000000000000e+00) (0, 0, 0.00000000000000000000e+00) (0, 0, 0.00000000000000000000e+00) (0, 0, 0.00000000000000000000e+00) (0, 0, 0.00000000000000000000e+00) (0, 0, 0.00000000000000000000e+00) (0, 0, 0.00000000000000000000e+00) (0, 0, 0.00000000000000000000e+00) (0, 0, 0.00000000000000000000e+00) (0, 0, 0.00000000000000000000e+00) (0, 0, 0.00000000000000000000e+00) (0, 0, 0.00000000000000000000e+00) (0, 0, 0.00000000000000000000e+00) (0, 0, 0.00000000000000000000e+00) (0, 0, 0.00000000000000000000e+00) (0, 0, 0.00000000000000000000e+00) (0, 0, 0.00000000000000000000e+00) (0, 0, 0.00000000000000000000e+00) (0, 0, 0.00000000000000000000e+00) (0, 0, 0.00000000000000000000e+00) (0, 0, 0.00000000000000000000e+00) (0, 0, 0.00000000000000000000e+00) (0, 0, 0.00000000000000000000e+00) (0, 0, 0.00000000000000000000e+00) (0, 0, 0.00000000000000000000e+00) (0, 0, 0.00000000000000000000e+00) (0, 0, 0.00000000000000000000e+00) (0, 0, 0.00000000000000000000e+00) (0, 0, 0.00000000000000000000e+00) (0, 0, 0.00000000000000000000e+00) (0, 0, 0.00000000000000000000e+00) (0, 0, 0.00000000000000000000e+00) (0, 0, 0.00000000000000000000e+00) (0, 0, 0.00000000000000000000e+00) (0, 0, 0.00000000000000000000e+00) (0, 0, 0.00000000000000000000e+00) (0, 0, 0.00000000000000000000e+00) (0, 0, 0.00000000000000000000e+00) (0, 0, 0.00000000000000000000e+00) (0, 0, 0.00000000000000000000e+00) (0, 0, 0.00000000000000000000e+00) (0, 0, 0.00000000000000000000e+00) (0, 0, 0.00000000000000000000e+00) (0, 0, 0.00000000000000000000e+00) (0, 0, 0.00000000000000000000e+00) (0, 0, 0.00000000000000000000e+00) (0, 0, 0.00000000000000000000e+00) (0, 0, 0.00000000000000000000e+00) (0, 0, 0.00000000000000000000e+00) (0, 0, 0.00000000000000000000e+00) (0, 0, 0.00000000000000000000e+00) (0, 0, 0.00000000000000000000e+00) (0, 0, 0.00000000000000000000e+00) (0, 0, 0.00000000000000000000e+00) (0, 0, 0.00000000000000000000e+00) (0, 0, 0.00000000000000000000e+00) (0, 0, 0.00000000000000000000e+00) (0, 0, 0.00000000000000000000e+00) (0, 0, 0.00000000000000000000e+00) (0, 0, 0.00000000000000000000e+00) (0, 0, 0.00000000000000000000e+00) (0, 0, 0.00000000000000000000e+00) (0, 0, 0.00000000000000000000e+00) (0, 0, 0.00000000000000000000e+00) (0, 0, 0.00000000000000000000e+00) (0, 0, 0.00000000000000000000e+00) (0, 0, 0.00000000000000000000e+00) (0, 0, 0.00000000000000000000e+00) (0, 0, 0.00000000000000000000e+00) (0, 0, 0.00000000000000000000e+00) (0, 0, 0.00000000000000000000e+00) (0, 0, 0.00000000000000000000e+00) (0, 0, 0.00000000000000000000e+00) (0, 0, 0.00000000000000000000e+00) (0, 0, 0.00000000000000000000e+00) (0, 0, 0.00000000000000000000e+00) (0, 0, 0.00000000000000000000e+00) (0, 0, 0.00000000000000000000e+00) (0, 0, 0.00000000000000000000e+00) (0, 0, 0.00000000000000000000e+00) (0, 0, 0.00000000000000000000e+00) (0, 0, 0.00000000000000000000e+00) (0, 0, 0.00000000000000000000e+00) (0, 0, 0.00000000000000000000e+00) (0, 0, 0.00000000000000000000e+00) (0, 0, 0.00000000000000000000e+00) (0, 0, 0.00000000000000000000e+00) (0, 0, 0.00000000000000000000e+00) (0, 0, 0.00000000000000000000e+00) (0, 0, 0.00000000000000000000e+00) (0, 0, 0.00000000000000000000e+00) (0, 0, 0.00000000000000000000e+00) (0, 0, 0.00000000000000000000e+00) (0, 0, 0.00000000000000000000e+00) (0, 0, 0.00000000000000000000e+00) (0, 0, 0.00000000000000000000e+00) (0, 0, 0.00000000000000000000e+00) (0, 0, 0.00000000000000000000e+00) (0, 0, 0.00000000000000000000e+00) (0, 0, 0.00000000000000000000e+00) (0, 0, 0.00000000000000000000e+00) (0, 0, 0.00000000000000000000e+00) (0, 0, 0.00000000000000000000e+00) (0, 0, 0.00000000000000000000e+00) (0, 0, 0.00000000000000000000e+00) (0, 0, 0.00000000000000000000e+00) (0, 0, 0.00000000000000000000e+00) (0, 0, 0.00000000000000000000e+00) (0, 0, 0.00000000000000000000e+00) (0, 0, 0.00000000000000000000e+00) (0, 0, 0.00000000000000000000e+00) (0, 0, 0.00000000000000000000e+00) (0, 0, 0.00000000000000000000e+00) (0, 0, 0.00000000000000000000e+00) (0, 0, 0.00000000000000000000e+00) (0, 0, 0.00000000000000000000e+00) (0, 0, 0.00000000000000000000e+00) (0, 0, 0.00000000000000000000e+00) (0, 0, 0.00000000000000000000e+00) (0, 0, 0.00000000000000000000e+00) (0, 0, 0.00000000000000000000e+00) (0, 0, 0.00000000000000000000e+00) (0, 0, 0.00000000000000000000e+00) (0, 0, 0.00000000000000000000e+00) (0, 0, 0.00000000000000000000e+00) (0, 0, 0.00000000000000000000e+00) (0, 0, 0.00000000000000000000e+00) (0, 0, 0.00000000000000000000e+00) (0, 0, 0.00000000000000000000e+00) (0, 0, 0.00000000000000000000e+00) (0, 0, 0.00000000000000000000e+00) (0, 0, 0.00000000000000000000e+00) (0, 0, 0.00000000000000000000e+00) (0, 0, 0.00000000000000000000e+00) (0, 0, 0.00000000000000000000e+00) (0, 0, 0.00000000000000000000e+00) (0, 0, 0.00000000000000000000e+00) (0, 0, 0.00000000000000000000e+00) (0, 0, 0.00000000000000000000e+00) (0, 0, 0.00000000000000000000e+00) (0, 0, 0.00000000000000000000e+00) (0, 0, 0.00000000000000000000e+00) (0, 0, 0.00000000000000000000e+00) (0, 0, 0.00000000000000000000e+00) (0, 0, 0.00000000000000000000e+00) (0, 0, 0.00000000000000000000e+00) (0, 0, 0.00000000000000000000e+00) (0, 0, 0.00000000000000000000e+00) (0, 0, 0.00000000000000000000e+00) (0, 0, 0.00000000000000000000e+00) (0, 0, 0.00000000000000000000e+00) (0, 0, 0.00000000000000000000e+00) (0, 0, 0.00000000000000000000e+00) (0, 0, 0.00000000000000000000e+00) (0, 0, 0.00000000000000000000e+00) (0, 0, 0.00000000000000000000e+00) (0, 0, 0.00000000000000000000e+00) (0, 0, 0.00000000000000000000e+00) (0, 0, 0.00000000000000000000e+00) (0, 0, 0.00000000000000000000e+00) (0, 0, 0.00000000000000000000e+00) (0, 0, 0.00000000000000000000e+00) (0, 0, 0.00000000000000000000e+00) (0, 0, 0.00000000000000000000e+00) (0, 0, 0.00000000000000000000e+00) (0, 0, 0.00000000000000000000e+00) (0, 0, 0.00000000000000000000e+00) (0, 0, 0.00000000000000000000e+00) (0, 0, 0.00000000000000000000e+00) (0, 0, 0.00000000000000000000e+00) (0, 0, 0.00000000000000000000e+00) (0, 0, 0.00000000000000000000e+00) (0, 0, 0.00000000000000000000e+00) (0, 0, 0.00000000000000000000e+00) (0, 0, 0.00000000000000000000e+00) (0, 0, 0.00000000000000000000e+00) (301, 15, 7.50000000000000000000e-01) (302, 5, 2.50000000000000000000e-01) (303, 5, 5.00000000000000000000e-01) (303, 5, 5.00000000000000000000e-01) 
connections (connected_to_neuron, weight)=(0, 1.83940657861425749253e+00) (1, 1.75379128605149969822e+00) (2, 2.26051771094970127551e-01) (3, 5.13596460503990437374e-01) (4, 5.97302720231468242673e-01) (5, 5.39314374608452107296e-01) (6, 1.03311288187358199520e-01) (7, -9.45523254357840681195e-02) (8, 1.39369921164879650988e+00) (9, 1.57105730502074592003e+00) (10, 1.49957285849517218956e+00) (11, 9.88733389973589060773e-01) (12, 1.61299689340988106068e+00) (13, 1.57347308758846171628e+00) (14, 3.60686532298238660132e-01) (15, 1.51349614588683478722e+00) (16, 1.01361332861846320519e+00) (17, 7.55537100328911997993e-02) (18, 6.14820795540005682334e-01) (19, 5.30272202972562056722e-01) (20, -1.76801807840748746725e-02) (21, 1.32215962094719863273e-01) (22, 1.32957581656117396207e+00) (23, 7.52612570692489657453e-01) (24, 1.67858336893981330284e+00) (25, -7.41911318040841677446e-02) (26, 2.54194638453882404416e-01) (27, 1.64940892188018195519e+00) (28, 1.41502841561541492510e+00) (29, 5.10176979000423691524e-01) (30, 2.82929227036889441305e-01) (31, 1.12229173360866840703e+00) (32, 1.52143382409502286867e-01) (33, 5.90149643337589568937e-01) (34, -9.66736608085191351236e-02) (35, 1.01414455390600921625e+00) (36, 1.28056594188152073066e+00) (37, 3.11044838650481103581e-01) (38, 1.22651143930575612373e+00) (39, 1.10410100247416398389e+00) (40, 1.56564935213609979225e-01) (41, 1.05148678524403105250e+00) (42, 4.59293714549447174011e-01) (43, -1.14701214137707691726e-02) (44, 7.91115483962456567113e-01) (45, 1.27559489435364348253e+00) (46, 1.89028460161477407375e+00) (47, 1.95305333059037189436e-01) (48, 1.37599878647556606026e+00) (49, 7.14566997077369148172e-01) (50, 8.18085747245938299521e-01) (51, 1.82198999683024220886e+00) (52, 1.10801855308144103773e+00) (53, 5.26537750915836877397e-01) (54, 5.93940309073829109110e-01) (55, 7.12090057693810396522e-01) (56, 4.41528758727472270262e-01) (57, 1.30966657006480824421e+00) (58, 6.48965625211483265744e-01) (59, 9.07707076429997705702e-02) (60, -1.57680754724835781033e-01) (61, 9.12959944368304632256e-01) (62, 1.45679380870435437600e+00) (63, 4.52146759382125451587e-01) (64, -1.73623835501444861995e-01) (65, 1.71730372596562275156e+00) (66, 1.44119862970003764779e+00) (67, 9.13353468421093106500e-01) (68, 1.37098006745536932227e-01) (69, 1.14612491681831274448e+00) (70, 5.16588183268309575347e-01) (71, 7.40992995127440323699e-01) (72, 2.23832122963580654185e-01) (73, 5.62833446827358252484e-01) (74, 7.09535196251474764573e-01) (75, 1.47915291802846149416e+00) (76, 5.57892950400114884246e-01) (77, 1.04549476705431976242e+00) (78, 1.63289570061555910918e+00) (79, -1.99033841662801053163e-01) (80, -3.72863844209111616745e-01) (81, 9.19752087895906900172e-01) (82, 5.67855557048329503966e-02) (83, 1.19016203485369720383e+00) (84, 1.41348420826784182402e+00) (85, 7.01087669748725161867e-01) (86, 1.04073959016952044543e-01) (87, 4.22351645589772561884e-01) (88, 2.65981821462399126155e-01) (89, 1.07000137388874616562e+00) (90, 6.47156420518034347644e-01) (91, 3.41080402020236872485e-01) (92, 3.89654501345181369931e-01) (93, 5.74932590375908270097e-01) (94, 9.58223675445866174272e-01) (95, 4.89048813537907245408e-01) (96, 3.63068438397156800779e-01) (97, 6.60423375235739795741e-01) (98, -1.20250471171898007383e-01) (99, 1.06956358864083078686e+00) (100, 1.04900328154447455842e-01) (101, 6.93592782463703150242e-01) (102, -1.23345450236094805740e-01) (103, 5.57116929936765203912e-01) (104, -8.99989125110300242083e-03) (105, 1.32869261472689004222e+00) (106, 3.88271913745558416853e-01) (107, 9.32825048121224464914e-01) (108, 4.26093728280969918920e-01) (109, 2.09844912316858284163e-01) (110, 1.10424184688299242829e+00) (111, 9.72301937159671614275e-01) (112, 1.52258806701007953777e+00) (113, 2.05480103886018072856e+00) (114, 9.23940865713795099479e-03) (115, 1.07733813021273339139e+00) (116, 4.33699459768244088842e-01) (117, 6.21827308037071535551e-01) (118, 1.45911513633114786614e+00) (119, 8.70943223577205660746e-01) (120, 1.75085054408203366627e+00) (121, 4.60436013222257967126e-01) (122, 1.41498795510976149714e+00) (123, 5.30595662176258420217e-01) (124, 9.78239417708698488774e-01) (125, 4.83997237660195089859e-01) (126, 8.90275427540454189490e-01) (127, 1.65445668301348991491e+00) (128, 1.24792464331055108495e+00) (129, 1.57398574805782587305e+00) (130, 6.98129116248158765323e-01) (131, 1.46365963842124169325e+00) (132, 1.67373431983216347518e+00) (133, 7.35239103246637992761e-01) (134, -7.28109293249242561785e-01) (135, -3.34829955143484236935e-01) (136, 5.66094383887058155702e-02) (137, 3.34990045111890399898e-01) (138, 7.73331475879981411481e-01) (139, 7.57251659365729468121e-01) (140, 7.92998744453521142717e-01) (141, -5.41861326754312297438e-02) (142, 1.53168249432374792285e+00) (143, -3.28994845945698033418e+00) (144, 1.59504397747653325901e+00) (145, -1.89399066392881315624e-01) (146, 1.75802079579836934009e+00) (147, 1.89855662824571169711e-01) (148, 4.06025457764761898982e-01) (149, 1.34453309891601113790e+00) (150, 1.28371847307998532273e+00) (151, 3.26474127347963549717e-01) (152, 5.46799179430470863594e-02) (153, 9.78444385738340027814e-01) (154, 7.80573665460511878500e-01) (155, 1.46855929644171023796e+00) (156, 1.53846628735760204698e+00) (157, -1.41654767179422186318e-01) (158, 1.22730868658383074354e+00) (159, 1.14095131475703648327e+00) (160, 8.97713396333919888548e-01) (161, 3.75410336883066075853e-01) (162, 6.01950807014750455259e-01) (163, 8.67560679772050868941e-01) (164, 1.36996346315701189589e+00) (165, 1.17431980557143078592e+00) (166, 8.50348133040488174395e-01) (167, -3.40977445535341094907e-01) (168, -3.36535441306928528871e-02) (169, -7.67054782151507102972e-02) (170, 9.16745360701872624709e-01) (171, 1.22074559763042755911e+00) (172, -1.71833968904458941895e-02) (173, 7.94134008358354459567e-01) (174, -7.83812513291408663463e-02) (175, 1.43754704952909415083e-02) (176, 9.34868134474820644542e-01) (177, -2.50638801286567958204e-01) (178, 8.25604127761917286343e-03) (179, 7.49386886020017239929e-01) (180, 1.66231396621190730123e+00) (181, -5.60619310378359034241e-02) (182, 1.34792484259672412650e-01) (183, 7.70037874680116890547e-02) (184, 7.75268174611278060304e-01) (185, 9.51431813037945550704e-01) (186, 1.76345878558923652157e+00) (187, 7.92559796741652444751e-01) (188, 1.19589769276013235810e+00) (189, 1.35700369925313868436e+00) (190, 7.31944139236238577872e-02) (191, 2.37975617478223461232e-01) (192, -4.78672079462510030590e-02) (193, 9.94503813507415790340e-01) (194, 1.53017204719354560361e+00) (195, 1.70982566357940579671e+00) (196, 3.59950110538408363237e-01) (197, 7.21075164874560248229e-01) (198, -6.59292452550908486542e-02) (199, 6.66749733060763127845e-01) (200, 9.66217594713137395424e-01) (201, 1.14133979297308707501e+00) (202, -4.81226750549828413694e-02) (203, 1.24070486687268677350e+00) (204, 4.08049039640643207427e-01) (205, 2.33874299925382639342e-01) (206, 1.64139182249885440257e+00) (207, 1.43047452460359458826e+00) (208, 2.18373364653543761138e-01) (209, 1.80817438957324688742e-01) (210, 1.37648724003050570985e+00) (211, 2.48202181212346578709e-01) (212, 4.80240454751238721176e-01) (213, 1.66352177095008224583e+00) (214, 3.91860609160172568277e-01) (215, 1.60257518778871421716e+00) (216, 1.04070385545000920757e+00) (217, 5.17730700865324133808e-01) (218, 7.56362346223744430596e-01) (219, 5.03404661233742056758e-01) (220, 1.46799522664727618432e-02) (221, 9.74508099905769253901e-01) (222, 1.22838007020098016753e+00) (223, 2.63227399840956721722e-01) (224, 2.68978562608367000042e-01) (225, 1.22899012166390098066e+00) (226, 3.95609452308508580121e-01) (227, 1.30748935111734954084e+00) (228, 1.90989640047723230332e+00) (229, 3.03832977704871720626e-01) (230, 1.68187806768241343569e+00) (231, 6.12093578521486825217e-01) (232, 1.35489578584610681489e+00) (233, 1.51151775899615947729e+00) (234, 4.96537049436707900174e-01) (235, 1.87095407464604207570e-01) (236, 2.05968335958911785699e-01) (237, -8.76532630281385977122e-02) (238, 1.49574275680850643511e+00) (239, 2.66133603076095959228e-01) (240, 6.00356658125061892761e-01) (241, 1.28904436908016672980e+00) (242, 9.58038334793013923729e-01) (243, 8.50530674354512017388e-01) (244, 7.73952391943781847772e-01) (245, 1.27920285523730781208e+00) (246, 9.50412863083576420209e-01) (247, 2.99041140892605583623e-01) (248, 1.23231973567108896161e-01) (249, 1.51049156713882393177e+00) (250, 6.13681377355581036959e-01) (251, -4.24749879027904661544e-02) (252, 9.19414366119752912709e-01) (253, 2.10541721869665937605e-01) (254, 5.80602040512247397075e-01) (255, 9.83326511863858221396e-01) (256, 9.98530345443875200218e-01) (257, 5.26202132598835747856e-01) (258, 7.97083998326615639218e-02) (259, 1.25143466908003841986e+00) (260, 1.13241687406243096703e+00) (261, 1.57353826094070381458e+00) (262, 2.28149466554240266947e-02) (263, 5.43594589130360406060e-01) (264, 1.59718674665730819839e+00) (265, 7.22972596383030130518e-01) (266, 9.85710468043278997818e-01) (267, 1.57237179804244942005e+00) (268, 7.83504562858731268271e-01) (269, 5.42829205886799615044e-01) (270, 3.41488853377755419150e-01) (271, 1.58686982123320929894e+00) (272, -1.35783823067383473474e-03) (273, 1.07011480856338403456e+00) (274, 5.87132411483914373740e-01) (275, 9.16172673599201958794e-01) (276, 7.65475556535179180173e-01) (277, 1.76246784655516974816e+00) (278, 1.37960599390929572472e+00) (279, 6.98555069450528143271e-01) (280, 1.42599383439794480388e+00) (281, 1.48068298130376085897e-01) (282, 1.15420280425017662829e+00) (283, 5.75069710893089336423e-01) (284, 5.81403717679435771970e-01) (285, 1.59121640253463692005e+00) (286, -2.88653278317062278457e-01) (287, -2.63813111956875068209e-01) (288, 6.24913558644706768064e-01) (289, 1.20426640195305773018e-01) (290, 1.22209416357940026110e+00) (291, 1.52930943619530923527e+00) (292, -2.50267670042103318462e-01) (293, 1.39556709375158249919e+00) (294, 1.02150813554863817423e+00) (295, 1.73847799855545193104e+00) (296, 4.14679938138276138471e-01) (297, 1.72323833434050910363e+00) (298, 1.67767737833922736534e+00) (299, 1.28657118927758462590e+00) (300, 3.55565111440211023552e-01) (0, -1.82317828925407821039e-01) (1, -9.53263583534954217491e-01) (2, -1.73823988900301817928e-01) (3, 4.25360408529315725534e-01) (4, -9.84891618848375505202e-01) (5, 6.05737772687946485206e-01) (6, -1.63853065951497622876e-01) (7, 3.56969702111464559646e-01) (8, -4.73326598191790626213e-01) (9, 5.50181991288067467893e-02) (10, 6.84084681010926121125e-01) (11, -7.40565390133177792187e-01) (12, 8.94455870603714675582e-01) (13, -7.64652073511870589151e-02) (14, -2.93578583014944105578e-01) (15, -7.96056891433447932904e-01) (16, -8.40484548402068570860e-02) (17, 5.13083190693976676222e-01) (18, -6.21978149246277256523e-02) (19, 7.06782364037956578606e-01) (20, 3.09100067355599750218e-01) (21, -3.19853847105526500894e-01) (22, 1.54796607379583422981e-01) (23, -5.45292980816228567420e-01) (24, 4.90315738778694054645e-01) (25, 1.43764677042452215794e+00) (26, -3.20942930233982293142e-01) (27, -4.82894064210093898470e-01) (28, 4.89956502529090953679e-01) (29, 1.04156312264907335852e+00) (30, 2.50508201562234356086e-01) (31, -2.43621000199099629890e-01) (32, 3.94919555837409896881e+00) (33, -9.13024536498455718814e-01) (34, 8.44184987810661535690e-01) (35, -8.20921891457469632414e-01) (36, 6.84933266023384890175e-01) (37, -2.32617728424788255959e-01) (38, 9.89072443252912214540e-01) (39, -6.93863816011438427900e-01) (40, 7.72922314836305024421e-01) (41, 2.93517510292954253437e-01) (42, -5.30887546415946487421e-01) (43, 8.12719218996574621627e-01) (44, -6.51835105749557275345e-01) (45, 3.60811201599987474431e-01) (46, 9.69933004358044636994e-01) (47, 2.18729196630651573363e-01) (48, -2.59804595391940007509e-01) (49, 1.97336425198072797083e-02) (50, -1.40603362706350737410e-01) (51, -8.37115473920427177745e-01) (52, 6.47729706553396789026e-01) (53, 1.03078309009414170738e+00) (54, -3.77451479380019661036e-01) (55, 1.91217058117076593726e-01) (56, 9.42583328822260146929e-01) (57, -2.88960295070752937185e-01) (58, 6.59872828984524484319e-01) (59, 4.28396783345842635526e-01) (60, -2.65617793321665685013e-01) (61, -1.05632317589377022760e-01) (62, 6.57206047254922043344e-01) (63, -2.79159648291565476441e-01) (64, -9.93116912777155941283e-02) (65, 3.90023590675650011494e-01) (66, -1.91560613558132392109e-01) (67, -3.90541472421369051382e-01) (68, 1.03405275038401844867e+00) (69, -6.85131970374227128318e-01) (70, -1.27128793788261335029e-01) (71, 7.53880574233321887334e-01) (72, 5.33355658002781063409e-01) (73, 6.37496458103077201507e-01) (74, 4.76839028757308658335e-01) (75, 7.64982330274681765481e-01) (76, -2.03529712789913053150e-01) (77, 3.70543177857259986574e-01) (78, -9.02120523771901688947e-02) (79, 1.04261273870671478115e+00) (80, -5.54969761909429482039e-01) (81, 7.31870363043078286935e-01) (82, 8.20443934145870135133e-01) (83, 5.54622335808758748499e-01) (84, 7.08176422231618363234e-01) (85, -5.51155197509444416681e-01) (86, 6.09229750766888348418e-03) (87, 5.79836487515494547473e-01) (88, 1.89278200329447386652e-02) (89, -1.28358648253422291674e+00) (90, -7.46851516285654826177e-02) (91, 7.51287929902549111993e-01) (92, 3.48832832240174917082e-01) (93, -5.57625540357993609852e-01) (94, -6.52261206422399042459e-01) (95, -1.60146880688690917971e+00) (96, 7.85383807640425257723e-01) (97, 5.81336638220462387228e-02) (98, -6.73734475303550461867e-01) (99, 4.32975039607108425077e-01) (100, 1.44234271026894456114e-01) (101, -1.58321106330547412000e+00) (102, 3.21199511155489170200e-01) (103, -3.46907810199121424688e-01) (104, -1.53004158377102217337e+00) (105, -9.37988412399671234176e-01) (106, -8.80569537808384539268e-01) (107, -1.44489863973496124316e+00) (108, 7.57471688623815198049e-01) (109, -7.01184039877316978018e-02) (110, -1.46658312691579206799e+00) (111, -1.14640597064128235694e+00) (112, -5.47906931730108182066e-01) (113, -3.94516301124803236977e-01) (114, 7.58506363441773467926e-01) (115, -8.49682814435806954556e-01) (116, -1.21914429306438765188e+00) (117, -7.87186288751588747470e-02) (118, 9.11562590623810620194e-01) (119, 1.18415023521717421850e+00) (120, 1.45386977903494363229e-01) (121, -4.04031152783573543896e-01) (122, 5.05723238719852585810e-01) (123, -3.36322302878623802247e-01) (124, 1.13128343617454629744e+00) (125, 2.38582218483634811435e+00) (126, -5.40127391404065404501e-01) (127, -1.69232733750160374564e-01) (128, -1.49045208331381826700e-02) (129, 2.72787309275166145461e-01) (130, 6.79566200425870237112e-01) (131, 5.45992573851978746369e-01) (132, -5.03512762558396720358e-01) (133, 9.28299016785542718821e-01) (134, -2.60229858058378116237e-02) (135, 1.56144229556558405969e-01) (136, -4.24210196227818060744e-03) (137, 5.95648502247951849853e-01) (138, -4.33151519134059359573e-01) (139, -5.00327498041913121263e-01) (140, 1.23203342264765436376e+00) (141, 4.79725096374570669777e-01) (142, -9.00938386786898526282e-01) (143, -1.13151650511996326731e-01) (144, -8.79042959944171697906e-01) (145, 5.11122714804748065620e-02) (146, 5.03436668320521474307e-01) (147, 1.97476224234419267534e-02) (148, 2.30757602704584702247e-01) (149, -4.88158915149113858956e-01) (150, 3.03703587559016711939e-02) (151, -2.91453288761029882803e-01) (152, 2.70911978011292298163e-01) (153, -4.52034448172817793221e-01) (154, 1.11452851686789478070e-01) (155, -3.58958091672113788206e+00) (156, -5.02802343704739862496e-01) (157, 7.77661341993144072937e-01) (158, -8.20442053950713595656e-02) (159, 1.22610653108720032978e-02) (160, -1.23677065972817426531e-01) (161, 4.38074864916319361985e-01) (162, 3.94247891549015516688e-01) (163, 3.16926357797281454953e-01) (164, -2.00948168939204002692e-01) (165, 4.75841337750707082943e-01) (166, -6.06279795040777669257e-01) (167, -8.34190946717090042739e-01) (168, -5.17067709096099767385e-02) (169, -1.50732705701405622634e-01) (170, -4.47588934847251707083e-02) (171, -1.95256601844226690412e-01) (172, -7.74735612861398692530e-01) (173, -9.43344255912465512459e-01) (174, 5.53268554026339121066e-01) (175, -7.56521069222757969186e-01) (176, 5.19661210542068485729e-01) (177, -4.55882306299358275314e-01) (178, 4.12379443126511369133e-01) (179, -9.73157574986841800158e-02) (180, 1.98223354256698153231e-01) (181, -8.76454439652415318029e-01) (182, 2.98634839240719818232e-01) (183, -4.56957151500094027607e-01) (184, 4.26715831623874830569e+00) (185, 8.63890144352836508723e-01) (186, -3.32917376548164112293e-01) (187, 3.59257617599627460114e-02) (188, 8.92893325186954078809e-01) (189, 5.74480754012111405338e-01) (190, -2.83800394342910100587e-01) (191, -1.20509594400272021519e-01) (192, -3.26408847859933237689e-01) (193, 5.58049732752627924981e-01) (194, 8.60310613652277789143e-01) (195, 4.38706157097531024291e-01) (196, 7.04036746080216713217e-01) (197, -7.38025313110923453230e-01) (198, -6.78766200798874730360e-01) (199, -6.67648253620829246202e-01) (200, -2.47053250992956621723e-02) (201, 3.48231180019760333533e-01) (202, 7.99294690803310226013e-02) (203, -3.95846276934073027648e-03) (204, -2.50856183952586908603e-01) (205, -4.53635465932232639918e-01) (206, 2.09156630787063368970e-01) (207, -6.27902971591355441028e-01) (208, -6.79520976947377564059e-02) (209, -7.27032995463242959211e-01) (210, 1.86288671476861705800e-01) (211, 1.02858357446159787152e+00) (212, -6.53142999375339039503e-01) (213, -6.78145057376739468502e-01) (214, -6.79461684103779939292e-01) (215, -1.81467293793510536792e-01) (216, -4.40660670889343353274e-01) (217, -9.49988707256276265767e-02) (218, 8.11376324168450069330e-01) (219, -7.04708427142624493911e-01) (220, -7.29965259375864206071e-01) (221, 9.09452669467298857597e-01) (222, -1.48656805100733369063e-01) (223, -1.14646414020146525381e-01) (224, 4.88795096737832057698e-01) (225, -4.75973811743728714152e-01) (226, -1.00451079830335832099e+00) (227, -3.14011966361687488991e-01) (228, -3.52132354667898994638e-01) (229, -5.99394767063292976950e-01) (230, 1.13215592392493610840e-01) (231, 4.57700779018494596784e-01) (232, 4.83286087027519128956e-01) (233, 9.77963009790039805580e-01) (234, -4.79806040218588691904e-01) (235, -5.81820695924728958914e-01) (236, -1.68395753792698610329e-01) (237, 6.34591101631199139277e-01) (238, -4.58505393043483810978e-01) (239, 2.80623842338984574862e-01) (240, 9.61799110481027508257e-01) (241, 8.95899670481304921665e-01) (242, 6.76055828324877317037e-01) (243, -8.20817667400751682649e-01) (244, -1.01691581253150542530e+00) (245, 5.68701316026096415079e-01) (246, 1.22104956904983075194e-01) (247, -3.19451314898540339460e-01) (248, -3.89196916425548267160e-01) (249, -2.38677502984320721868e-01) (250, -1.89447303873895772641e-01) (251, -3.30348811486755489231e-01) (252, -2.13940248688126000154e-01) (253, 7.98530180089366825591e-01) (254, 6.15985623800974435582e-01) (255, -9.89232414293746198375e-01) (256, -7.76537307429770895517e-01) (257, 5.23318999948883756268e-01) (258, -1.80531799112211510661e-01) (259, -3.23884032269699667639e-02) (260, 8.50525427593123217740e-01) (261, 6.59545353722115090811e-01) (262, -5.83529383797080414276e-01) (263, 2.84475961399456134249e-01) (264, 6.65711957880151250500e-01) (265, -7.58615214690343819814e-02) (266, 5.49039596630544135536e-01) (267, -8.99102390665442952056e-01) (268, -3.84449549842336757433e-01) (269, -8.76597341449225075927e-01) (270, 4.84904009767662735886e-01) (271, -3.84631649906267303329e-01) (272, 9.17518404037640178394e-01) (273, -2.00894714254766793005e-01) (274, -1.27172292131811498495e-01) (275, -1.07868633433428917634e+00) (276, -5.25811057618963517690e-01) (277, -9.59517369331166825042e-01) (278, -3.99995353816024856730e-01) (279, -4.34725293106140997512e-02) (280, -1.68895781893164065313e-01) (281, 4.28719193740987714047e-01) (282, 7.41220523891542137918e-01) (283, 6.20434778986070245566e-01) (284, 2.53509122797142882888e-01) (285, 2.79364823442071696924e-01) (286, 6.91640428375740579092e-01) (287, 5.17556522304435162596e-01) (288, -8.48317562960650417558e-02) (289, -4.37801177859835077832e-01) (290, -4.40712076368239114021e-01) (291, -2.63694929642281084003e-01) (292, -7.16700498591780088553e-01) (293, 2.37348725756590141212e-02) (294, -8.17707930283844031116e-01) (295, -9.53738307067424240238e-01) (296, -9.15179675657463498339e-01) (297, 8.23979262947507784531e-01) (298, -7.71952833295396989577e-01) (299, -2.37517218776695182569e-01) (300, 1.75240387490539106796e-01) (301, 2.70499480067689423990e-01) (0, -1.93121519856760459621e-01) (1, -3.15983011698847248566e-03) (2, 4.13233844997870775062e-02) (3, -1.01323626542248079740e-01) (4, 4.79135070203168395020e-02) (5, -7.64248292686121322159e-02) (6, 6.26398522910681931908e-02) (7, -2.70003897846341697764e-02) (8, 4.07723326477529984802e-02) (9, 8.52169823899627532082e-02) (10, -5.83987812444807380396e-02) (11, 3.51050031438231574521e-02) (12, 4.58555937650344663803e-02) (13, -3.63185954215386741506e-02) (14, -7.27385592937531411106e-02) (15, -3.07905691609026144206e-02) (16, 6.79662657037140016669e-02) (17, 7.33488631501556243020e-02) (18, 3.61257644989631115928e-02) (19, -8.37708136739465925036e-02) (20, -8.64875965890125053548e-02) (21, -1.93440335735917887106e-02) (22, 6.38467586187952823584e-02) (23, 1.18182292728061157788e-02) (24, -3.90674489483476827800e-02) (25, 4.66503363044150631822e-01) (26, 4.47777837811133783141e-01) (27, 6.96835351243377532082e-02) (28, 2.72339665498504066021e-02) (29, -6.32267809305420980248e-02) (30, 3.03037990835510612220e-02) (31, 5.40699890689429696344e-01) (32, 6.17990553589638502707e-01) (33, 1.73501241613091758409e-02) (34, 4.14150724199575520634e-02) (35, 3.60010261450738194844e-02) (36, 4.67354138401352287024e-02) (37, 5.94634582002395023492e-02) (38, 4.79195713568802750260e-01) (39, 4.97096600679167686943e-03) (40, 1.07636775052636474680e-04) (41, 7.92576099908440918039e-04) (42, -1.22277502082199396316e-01) (43, 4.71888614134274297918e-01) (44, 3.86401445642139407255e-01) (45, 7.69185098556280331950e-03) (46, 3.55217290177703010068e-02) (47, 7.07995992145210306656e-02) (48, -8.13127421959345120239e-02) (49, 4.15004265004293659835e-01) (50, -3.02337827350757981648e-01) (51, 3.18445089010008794764e-03) (52, 7.31925350680709685403e-02) (53, 5.86756121358543297761e-02) (54, -1.30855548283929146169e-01) (55, 4.61640362249328140010e-01) (56, -2.12571263457034420608e-01) (57, -3.03935426220537374675e-02) (58, 4.02244137749147023797e-01) (59, 5.52620956960692022442e-01) (60, 1.91326564350053004993e-02) (61, 6.06775669849603738193e-01) (62, 5.35873541980163126119e-01) (63, -2.16299523101719168294e-02) (64, 4.90787539126969596381e-01) (65, 4.13612472179903489788e-01) (66, 3.67390283486059177065e-01) (67, 1.38247568587786728855e+00) (68, 6.23097935676845460229e-01) (69, 4.35900081814680095960e-01) (70, 5.59650354523745341417e-01) (71, 3.89204443044134373864e-01) (72, 5.88772544779703310702e-01) (73, 1.59352191554514077687e+00) (74, 8.50142523005813610659e-01) (75, 5.02649649258857689205e-01) (76, 5.20981100494089077735e-01) (77, 3.95440813081318842670e-01) (78, 6.31376849920760929713e-01) (79, 1.59656377898660806203e+00) (80, 1.13714088120592227149e+00) (81, 4.72756608395433319814e-01) (82, 4.29858390306935400638e-01) (83, 4.53775757656822875674e-01) (84, 5.96148546764676878773e-01) (85, 1.06375960960567694791e+00) (86, 8.51415496741957267268e-01) (87, 4.74800162479026122142e-01) (88, 4.82550294277623192940e-01) (89, 4.36070616777372577211e-01) (90, 5.81007049283064680445e-01) (91, 6.80823483300835641252e-01) (92, 5.49962731067783150429e-01) (93, -7.77609277950198907181e-02) (94, 5.36527668049796346850e-01) (95, 4.38161205580913093449e-01) (96, -3.47801376913362547683e-02) (97, 4.01489358673865620597e-02) (98, -6.31707553458559778470e-01) (99, 2.04490828803192900565e-02) (100, -8.00416029730614819737e-02) (101, -2.74088628099119435699e-01) (102, -4.31864052478874715923e-02) (103, -1.10132654561226145384e-01) (104, -7.75904255244678209280e-01) (105, -2.49229630246391095638e-02) (106, 8.08131425459332995709e-03) (107, -5.76151128766966280637e-01) (108, -8.25001856086001628121e-01) (109, -6.75999802215111134096e-01) (110, -8.16552935917283839728e-01) (111, -5.20226363306572903156e-01) (112, 6.22049483847407214121e-01) (113, 1.27230666215850191092e-01) (114, -7.75420070766449698318e-01) (115, -6.44828023309880760117e-01) (116, -8.71286252772708325054e-01) (117, -8.53638443000592217480e-02) (118, 7.60739791202421633542e-01) (119, 6.00922004478935734006e-01) (120, -9.01489598740796260756e-01) (121, -5.26629092971698353765e-01) (122, -6.38264907329798347746e-01) (123, 6.84428096451132117473e-01) (124, 2.34461321548459267206e+00) (125, 1.68315459475968465242e+00) (126, -6.98127160150404324490e-01) (127, 3.99519801224582082888e-01) (128, 4.49876278983503352649e-01) (129, 2.29134554119152983320e-01) (130, 3.80545364165374611076e+00) (131, 1.71904377505310090868e+00) (132, -3.99417561529978870638e-02) (133, 5.56738005172398353615e-01) (134, 5.53037221066993489593e-01) (135, 2.04667493806936495737e-01) (136, 3.63244189999621092113e+00) (137, 2.82689103210631031970e+00) (138, -1.53936350097526510744e-02) (139, 5.71839338022320897714e-01) (140, 5.42444906451079345011e-01) (141, 6.24301730721457448503e-01) (142, 4.54008625423603717763e+00) (143, 2.95548269149141784595e+00) (144, 3.94517247464890807862e-01) (145, 6.24610228317826643440e-01) (146, 5.88657139551040792247e-02) (147, 6.09268078862121795214e-02) (148, 1.23828862666401406933e+00) (149, -1.34942736749551345232e-01) (150, 5.41983879084659725400e-01) (151, 7.28393120544999050914e-01) (152, 1.40652449097990933646e-01) (153, -6.21347566049266997190e-01) (154, 4.31084571496963109283e-01) (155, -5.86288803392254820324e+00) (156, 5.70253827908310140238e-01) (157, 6.23152911057745950707e-01) (158, 4.32053106734071462602e-02) (159, -8.98816480011009222295e-01) (160, 7.49805069696705905891e-01) (161, 7.53718353190514223083e-02) (162, 6.81743267842516154076e-02) (163, 6.15523005969747072363e-01) (164, 5.91855017721896081717e-01) (165, -8.73888112734578115237e-01) (166, 3.36408250118418808428e-02) (167, -1.20783085429271896949e+00) (168, -8.22205845700175741442e-02) (169, 5.16414797305934425431e-01) (170, 4.11114922758317069551e-01) (171, -1.38813611914721024565e-01) (172, 4.99543252656311276283e-01) (173, -9.33318054911241645755e-01) (174, 5.94256545579522461008e-04) (175, 5.54858858003738908415e-01) (176, 5.06926320347134029554e-01) (177, 4.31091019324482571662e-01) (178, 5.50719844051610230018e-01) (179, 6.80285764861503716716e-01) (180, 6.86576064242452321906e-02) (181, 3.93751569340719753676e-01) (182, 4.15847283875867668179e-01) (183, 3.60669665075918910446e-01) (184, 5.11613905662689272269e-01) (185, 6.40254207918993678561e-01) (186, -4.74527407871159004338e-02) (187, 4.94722986880316462077e-01) (188, 5.27742392509385926935e-01) (189, 4.32677364489566340655e-01) (190, 5.17087856364950360089e-01) (191, 5.37648414786810802113e-01) (192, 2.47924770726292362233e-02) (193, 5.01056770827746689179e-01) (194, 4.48249499347186164400e-01) (195, 3.98523005166763810703e-01) (196, 3.37292016230442748270e-01) (197, -1.00695349098327946447e-01) (198, 3.07509147237609165026e-02) (199, -5.59955134380986999099e-02) (200, -1.19841091892359308257e-01) (201, -1.03184323040577050068e-02) (202, -8.03144062564201122179e-02) (203, -1.11153159647420274325e+00) (204, -9.27398822109959941606e-02) (205, -6.18234197349588898707e-02) (206, -1.99647660300025536761e-01) (207, 1.41398516995358720927e-02) (208, -3.03693835381970589360e-01) (209, -3.32511845810107287136e-01) (210, -8.58596363856623523425e-02) (211, 5.83323947188803676456e-02) (212, -6.97260217656674452513e-02) (213, -4.92046908819537900937e-02) (214, -6.88587952709155959319e-02) (215, -2.63323174730986264702e-01) (216, 1.29966622172117581002e-02) (217, 6.18558041342916684058e-02) (218, -1.22394315470871206664e-01) (219, -2.02929980474732471474e-02) (220, 4.07668493870610576524e-02) (221, -3.49088437501783588335e-02) (222, 7.27726402746741440897e-02) (223, -1.43221032182147198220e-02) (224, -8.09736930309639529879e-03) (225, -8.69625931785833472532e-01) (226, -1.09005807153261846665e+00) (227, -3.01191241575640011874e+00) (228, -2.05113677848926465042e-02) (229, 3.07299923011384729099e-02) (230, -5.53722595452524113391e-01) (231, -1.48587998286968586692e-01) (232, -9.17588938775790730062e-02) (233, -2.27806982365065219254e-01) (234, -1.24931405527881081441e-01) (235, -5.03083601972896365950e-01) (236, -1.83702252609349514501e+00) (237, -3.00064539320370957109e-02) (238, -8.29782765900084706701e-01) (239, -1.82197429240697617026e+00) (240, -2.48911128531928912966e-02) (241, -5.11536029077413578747e-01) (242, -1.65853877914763714330e+00) (243, -6.92642726951936071877e-01) (244, -7.71956816047054017460e-01) (245, -6.98994993412646614672e+00) (246, 5.65917546252068387469e-02) (247, 4.14668520192415651637e-02) (248, -7.88969049247511100553e-01) (249, -1.77502428331924089200e-01) (250, -6.73900919439901824326e-01) (251, -9.64806521233593117337e-01) (252, 4.32519457667190493355e-02) (253, -5.90251885482081101175e-02) (254, -4.03488767352798705090e-02) (255, -5.01320132759547967827e-02) (256, 1.25280982689734872448e-02) (257, -6.27549865553494679027e-01) (258, -9.57453439124520966352e-02) (259, -7.14848788679891267162e-02) (260, -5.74059184903433286640e-02) (261, -1.05931922282443413685e-01) (262, -5.39644397539398371078e-02) (263, -7.09610736984718770692e-01) (264, 4.41379678576849926452e-02) (265, -2.63039213083905085155e-02) (266, 3.49189293073951662061e-02) (267, 5.64208506829879247180e-02) (268, -7.28183904189368680360e-02) (269, -6.26424581934454161036e-01) (270, 7.43569019649098217339e-02) (271, 5.33323770342588737714e-02) (272, -9.09228544569894991945e-02) (273, 5.96578898012572605980e-02) (274, -4.87674442946977940161e-02) (275, -6.39100963090809881528e-01) (276, -2.83321630619686945507e-02) (277, -3.94938807727474028297e-02) (278, -6.52232930023593227009e-02) (279, 3.31776769936019261253e-02) (280, -4.74055255310396120305e-02) (281, -5.96286454542531374479e-01) (282, 7.10542503951413773056e-02) (283, -6.73571262301581319409e-02) (284, 6.61251133261443052591e-02) (285, -2.64443452017168387225e-02) (286, 6.73765717398195317089e-03) (287, -6.00969425195682860341e-01) (288, -1.01243663992754806547e-01) (289, 3.07705286480267209415e-02) (290, 4.06349781490642630866e-02) (291, -3.46993475186201938421e-02) (292, 4.14859089590389890079e-02) (293, -6.67969288419797080358e-01) (294, -8.38682646735962600282e-01) (295, -1.17893379710875834121e+00) (296, -1.00676484913276009792e+00) (297, -6.37083108470083148145e-02) (298, -1.94358917817712625875e-02) (299, 2.52520770800738411643e-02) (300, 1.42954115440106810375e+00) (301, 2.67647564416700092238e+01) (302, 5.21747917364452291622e+01) (0, 4.56526815092769613913e-02) (1, 7.08313947000959592826e-02) (2, 1.21461571248621127972e-01) (3, 7.83742163724053531038e-03) (4, 1.30334283368443604179e-01) (5, -1.12292737199315428853e-02) (6, 9.28640573638822713898e-02) (7, 7.75816967385970363003e-02) (8, 3.81478545673535202054e-02) (9, 4.14773034758911113284e-02) (10, 5.63293921945964767839e-02) (11, -8.50492235481673797270e-02) (12, 2.01797569770880008688e-02) (13, 2.03695544022307328813e-01) (14, 2.20239766720213170359e-01) (15, 1.02539256512967372204e-01) (16, 1.60107725144313858823e-02) (17, 2.72364782026032620221e-02) (18, 1.38017992358655361418e-01) (19, -1.62047783473399931164e-02) (20, -5.98459192704618400151e-04) (21, -2.56278442698256586629e-03) (22, 1.10077285748345687910e-01) (23, -6.55908626013240736441e-03) (24, 7.03938014846432896787e-02) (25, 2.39369282643377579572e-04) (26, 3.96151511640437242745e-02) (27, 1.05169871431214603796e-01) (28, 9.80100988498557451623e-02) (29, 1.82144402614463282730e-02) (30, 1.84016795423988452352e-02) (31, -1.49475146526638014155e-01) (32, -2.95292436426527991900e-02) (33, -4.45368479419074314585e-02) (34, -1.84537751885407996788e-02) (35, 5.34339861659056114540e-02) (36, -1.20655464214180219162e-02) (37, -1.59447311261556756712e-01) (38, -2.09118127757871918870e-01) (39, 8.81616826754736543359e-02) (40, 3.45788978432544219510e-02) (41, 5.26074654806343300351e-02) (42, 9.85497752370056018245e-02) (43, 3.56091432818497616308e-02) (44, 3.10104944503729329508e-03) (45, 7.93281941705921561647e-02) (46, 6.82786258777057092351e-02) (47, 9.08406254019387265908e-02) (48, -1.77613578914249392593e-02) (49, -1.53733500647402765438e-02) (50, 1.49518478489937767240e-01) (51, 1.55621393614986582715e-02) (52, 8.08655425622469975488e-02) (53, 5.54405095345957762976e-02) (54, 7.67155347869320353160e-02) (55, -4.50266545385519523226e-02) (56, -2.32775015132817217345e-02) (57, 2.30386223076369401480e-04) (58, -1.02797489692652330162e-01) (59, -1.61266238095506331263e-01) (60, 1.16508416164587180752e-01) (61, -1.59613647750397880110e-01) (62, -9.63139750855213777614e-02) (63, 7.43344014446503525972e-02) (64, -2.44010604637981853848e-01) (65, -2.13418358236113492321e-02) (66, -2.72826251969259664376e-03) (67, -6.86718375916707368667e-01) (68, -9.64904670853966445199e-02) (69, -2.30753076367542359071e-03) (70, -8.60439651886205414399e-01) (71, -7.48982675826343147207e-01) (72, -6.89697868321251517099e-02) (73, -1.55786783819696017517e+00) (74, -3.06844457005599646759e-01) (75, -8.07571104020340935215e-03) (76, -8.78237314126360191224e-01) (77, -8.81150389780276599438e-01) (78, -4.14005374012395288563e-02) (79, -3.80997512069240640287e+00) (80, -4.02599650285599686139e-01) (81, 2.48932570090484792114e-02) (82, -8.50488027129846724250e-01) (83, -7.52319943322420692233e-01) (84, -2.00540516186090811424e-01) (85, -7.08385186674589051314e-01) (86, -2.04225399217571546018e-01) (87, 3.08648083625672961516e-02) (88, -5.61006243838785834122e-02) (89, 3.67577593438929844938e-02) (90, -3.64016334168535682370e-02) (91, -1.57636287287621357223e-01) (92, -6.18489459572496569351e-02) (93, 3.68870663130578535505e-03) (94, -2.04302153498919780716e-01) (95, -9.12321616333991586290e-02) (96, 5.18126404815140162441e-02) (97, -6.82580582614920328144e-02) (98, 2.32774663091606492937e-01) (99, 3.03483803474947008705e-02) (100, 3.96641969379848829957e-02) (101, -8.19820277112859180368e-02) (102, -4.14379264559004145685e-02) (103, 8.19362402751210028296e-03) (104, 1.48620756398398556897e-01) (105, 6.15616719286245367426e-02) (106, -3.27321373387890190987e-02) (107, 1.32646411065143687846e-01) (108, 1.51063884570168061039e-01) (109, -3.84110256784535863961e-02) (110, 3.20687736018807012517e-01) (111, 1.24685214252885631647e-01) (112, 7.54151914318456229741e-03) (113, 3.15926133956484500587e-01) (114, 2.03459723388546842582e-01) (115, 1.72819636316700164791e-01) (116, 3.63513341745770379720e-01) (117, 1.34159866987223264090e-01) (118, -9.27731763921646884752e-02) (119, -7.39342273300125640834e-02) (120, 4.64414776089377367985e-01) (121, 1.92995757052390123909e-02) (122, 3.09644227096747048922e-01) (123, 4.83214353686069464366e-02) (124, -2.97499553621897927513e+00) (125, -2.36811809953656737804e+00) (126, 1.35383409617255978663e-01) (127, -4.64679357830168338062e-02) (128, 7.86645669484866208454e-03) (129, -8.71265775193084679451e-02) (130, -5.32228302697816690880e+00) (131, -2.98083146874751514499e-01) (132, 1.18398865383817247787e-01) (133, -2.73411703279073547979e-01) (134, 2.72302574764044166833e-02) (135, 3.24545207671596211418e-02) (136, -1.13724653497207679465e+01) (137, -1.11201315819098045523e+00) (138, 1.39605787303964057333e-01) (139, -7.99149449754896989973e-01) (140, -1.36916998525625333016e-01) (141, -5.78433094755816182286e-02) (142, -3.09833818342027367265e+00) (143, -1.26183794838715912512e+00) (144, -5.95053995588104289727e-02) (145, -1.06824746959623806397e+00) (146, -6.90139809264175063674e-01) (147, 1.80533709343676726511e-02) (148, -4.78702937753513302344e-01) (149, -2.02082774529024095100e-01) (150, 1.07483398742266644810e-01) (151, -8.09179431969867746233e-01) (152, -7.51147273443093732581e-01) (153, 6.48923732271212139189e-01) (154, -6.88548863315355363923e-01) (155, 3.16331818403877118584e+00) (156, 1.05060580872732470259e-01) (157, -6.48451119552481136665e-01) (158, 4.92743564000508380007e-02) (159, 2.74721317573895840169e-01) (160, -2.45494718919319091996e-03) (161, 1.50317852766160564570e+00) (162, 5.70802510630327650243e-02) (163, -4.11278978325968769258e-02) (164, -9.42538390469932346738e-02) (165, 3.77363259254079097538e-01) (166, 2.59446949845460045347e-02) (167, 1.04972906496025752965e+00) (168, 3.69684919273307183163e-02) (169, -4.89033919201935229903e-02) (170, -1.92833590001208129983e-02) (171, 1.56084626834872841616e-01) (172, 9.18854905898918439267e-02) (173, 7.92464713624330463482e-01) (174, 8.72972109407858798402e-03) (175, -1.28361845392223505868e-01) (176, -1.01926792536227064923e-01) (177, -4.67812454971197611009e-02) (178, -6.69249611407302102961e-01) (179, -8.57390901486098644391e-01) (180, -3.26498641312486514998e-02) (181, -2.40853177431796725005e-02) (182, 2.45525406539782095616e-02) (183, 4.70313430659140066514e-02) (184, -9.51399214070643650665e-01) (185, -1.75052466286790520122e+00) (186, 4.01257162617412593830e-02) (187, -1.58156149858506123174e-01) (188, -1.04878052302652499672e-01) (189, 7.94298471414452977868e-02) (190, 6.85376689585261433812e-02) (191, -3.30740723199184627479e-01) (192, -9.55361153039505084372e-03) (193, -8.34854145868272473630e-02) (194, -9.02968273160882489714e-02) (195, 5.08957474831436204599e-02) (196, 1.03238338065597706761e-01) (197, 1.19797150072250918607e-01) (198, -2.19242113581205530504e-02) (199, -2.98572319511866343666e-02) (200, 1.08943822188611039170e-01) (201, 1.35828644108821477987e-01) (202, 2.47514262338847962353e-01) (203, 5.12548957411864347655e-01) (204, 9.28412926218345063711e-02) (205, 4.19088533315477435037e-02) (206, 2.40109614016585481977e-01) (207, 1.79382133098646451286e-01) (208, 1.72895034034932254530e-01) (209, 5.46691150816366766563e-01) (210, 1.07575304281950723251e-01) (211, 9.43293716601959070234e-02) (212, 2.03913843406507477862e-01) (213, 1.31173804101267721389e-01) (214, 4.04389519723506105087e-02) (215, 3.59946329853303825796e-01) (216, 1.02180171953735202117e-01) (217, -6.14793727081920926558e-02) (218, 7.90023437058414573775e-02) (219, 1.11681777515671605550e-02) (220, 1.14621234623458995161e-01) (221, 2.55072471693030877748e-01) (222, 6.45108020482779015436e-02) (223, -4.74998725258441167885e-02) (224, 2.14862723687294244340e-04) (225, 3.01480928356597843720e-01) (226, 2.80180433685730034821e-01) (227, 7.50029061378931882764e-01) (228, 1.81575362160856068616e-01) (229, 1.18929173414640279582e-01) (230, 1.70994619433311956236e-01) (231, 2.51528770442577431776e-01) (232, 1.54837606795784149538e-01) (233, 1.87451836968307028464e-01) (234, 9.29297793081818174210e-02) (235, -1.78055518484720272029e-03) (236, 2.17291588266232238436e-01) (237, 3.38613385827859325605e-01) (238, 3.37372824355584854938e-01) (239, 7.99407923493064220821e-01) (240, 1.14867919193821999002e-01) (241, 6.10085539422457329151e-02) (242, 2.41943200856491263950e-01) (243, 3.21568032999727859700e-01) (244, 4.45147022678386294903e-01) (245, 5.53806477184305911976e+00) (246, 1.65080395392086409778e-01) (247, 1.05892595034423719902e-01) (248, 3.02766377369312944534e-01) (249, 2.44459493294042623512e-01) (250, 2.14517791665507551180e-01) (251, 6.20777196282765619806e-01) (252, 2.11714167944099695973e-01) (253, 1.77710668879604224979e-02) (254, 1.57588003288689548764e-01) (255, 7.88576288369124828170e-02) (256, 2.38722187667831042823e-01) (257, 2.33690049496878271551e-01) (258, 1.65665189063497697575e-01) (259, 1.39838651003634517611e-01) (260, 1.75328556969816085065e-01) (261, 2.30988320392674501003e-02) (262, 1.39924647824735071122e-01) (263, 1.73432833989791368445e-01) (264, 2.29040206008924579484e-02) (265, -1.75176058988120442184e-02) (266, 1.46136789155731527945e-01) (267, 1.37815060136944667057e-01) (268, 1.49921702759236663560e-01) (269, 1.39778013815812451881e-01) (270, 8.59355780872734370535e-02) (271, 7.90902174014938841307e-03) (272, 1.90971853787780809775e-01) (273, 2.80449637120955691527e-02) (274, 1.84583792919516098685e-01) (275, 3.51125802842367662482e-01) (276, 1.54103234972988833995e-01) (277, 6.95340248467632843221e-02) (278, 5.28667803840422445560e-02) (279, 1.57342056269049068717e-01) (280, 7.99983911468850755755e-02) (281, 2.41429869083155279608e-01) (282, 1.97048852493275222786e-02) (283, 1.83842076027744757982e-02) (284, 4.19629248853147091003e-02) (285, 1.66447127694487106986e-01) (286, 4.42162183661923627320e-02) (287, 1.63638770123652910193e-01) (288, 1.59137506342257095682e-01) (289, 3.48335663365965525484e-02) (290, 1.10168199303995080485e-02) (291, 1.50070490924027244439e-01) (292, 7.61961812650230746469e-02) (293, 2.65585436376076927667e-02) (294, 1.47491393559858408047e-01) (295, 3.19063275598026441227e-01) (296, 1.21323430859729811115e-01) (297, 1.22679057907525118631e-01) (298, 7.90379721250037831082e-02) (299, -1.18457054222557145451e-02) (300, 1.22835116055534299129e+00) (301, -2.82408601577823112905e+01) (302, -5.56696518029852569498e+01) 
